~o
<STREAMINFO> 1 25
<VECSIZE> 25<NULLD><MFCC_D_N_Z_0><DIAGC>
~s "silst"
<MEAN> 25
 -4.245530e-02 2.443645e-01 2.325264e-01 3.873366e-01 5.094462e-01 6.047193e-01 3.479434e-01 1.283731e-01 2.164930e-01 -2.734851e-02 -7.762759e-02 7.220432e-02 -2.621652e-02 -3.082573e-02 -3.469317e-02 -4.707505e-02 -6.281838e-02 -5.225093e-02 -5.394482e-02 -4.927080e-02 -4.586214e-02 -1.870460e-02 4.137402e-05 4.112855e-03 -1.520654e-02
<VARIANCE> 25
 2.499807e+01 2.618036e+01 2.943813e+01 3.479176e+01 2.995660e+01 6.269839e+01 4.334018e+01 2.845993e+01 4.307978e+01 2.859987e+01 2.575950e+01 1.898978e+01 6.892149e-01 1.042286e+00 1.004817e+00 1.065928e+00 1.171642e+00 2.232382e+00 1.901622e+00 1.669495e+00 1.894082e+00 1.439608e+00 1.541724e+00 1.075873e+00 5.281900e-01
<GCONST> 9.005264e+01
~h "b"
<BEGINHMM>
<NUMSTATES> 5
<STATE> 2
<MEAN> 25
 3.497435e-01 1.809402e+00 5.282069e-01 4.678104e-01 1.200940e+00 1.084116e+00 -7.974179e-01 -8.979058e-01 2.598259e-01 -6.443443e-01 -1.118635e+00 -5.897412e-02 -2.757645e-01 4.528939e-01 4.474854e-01 7.552319e-02 1.947127e-01 5.778044e-01 2.847554e-01 1.179129e-01 3.258951e-01 2.477180e-03 -3.195069e-01 -1.118033e-01 -3.126562e-01
<VARIANCE> 25
 2.204480e+01 1.939851e+01 2.269263e+01 2.770979e+01 2.503500e+01 4.564957e+01 3.837762e+01 2.566141e+01 4.057689e+01 2.886987e+01 2.483712e+01 1.836431e+01 5.056130e-01 6.119365e-01 5.797564e-01 6.893088e-01 7.244822e-01 1.281498e+00 1.271281e+00 1.307954e+00 1.708271e+00 1.535439e+00 1.301148e+00 1.043555e+00 2.665055e-01
<GCONST> 8.386323e+01
<STATE> 3
<MEAN> 25
 4.619223e-01 3.000106e+00 1.762535e+00 6.217437e-01 1.096417e+00 1.644079e+00 -2.386752e-01 -9.316337e-01 -2.769437e-01 -1.746748e+00 -2.480297e+00 -1.007434e+00 -1.915176e-01 3.148095e-01 3.205763e-01 5.095207e-02 1.173526e-01 4.238263e-01 2.050497e-01 5.968377e-02 2.157646e-01 8.723032e-02 -1.336609e-01 -4.586391e-02 -2.277255e-01
<VARIANCE> 25
 1.842901e+01 2.568727e+01 2.482128e+01 2.803727e+01 2.678362e+01 4.421742e+01 3.255457e+01 2.381995e+01 3.424031e+01 2.679018e+01 2.882347e+01 1.877129e+01 5.022231e-01 5.397176e-01 5.647005e-01 6.209012e-01 7.065380e-01 1.170083e+00 1.196859e+00 1.249301e+00 1.538473e+00 1.378754e+00 1.151865e+00 9.205401e-01 2.328840e-01
<GCONST> 8.270925e+01
<STATE> 4
<MEAN> 25
 -9.313092e-01 3.349411e+00 2.479852e+00 5.106698e-01 1.079572e+00 3.126687e+00 1.063290e+00 7.990836e-02 1.135985e+00 -5.919232e-01 -2.193812e+00 -6.230303e-01 -1.295367e-01 -1.937382e-02 2.400817e-02 1.948367e-02 6.248320e-02 1.687190e-01 8.795209e-02 1.209933e-02 1.243041e-01 1.847824e-01 1.195596e-01 1.218768e-02 -9.249668e-02
<VARIANCE> 25
 1.719323e+01 2.459602e+01 2.074954e+01 2.223988e+01 2.395627e+01 3.827907e+01 2.644043e+01 1.980307e+01 3.099584e+01 2.323830e+01 2.264560e+01 1.558507e+01 3.736331e-01 5.579314e-01 6.669191e-01 6.416172e-01 8.284359e-01 1.304250e+00 1.176510e+00 1.152096e+00 1.327931e+00 1.123659e+00 1.077676e+00 8.641680e-01 2.278566e-01
<GCONST> 8.047092e+01
<TRANSP> 5
 0.000000e+00 1.000000e+00 0.000000e+00 0.000000e+00 0.000000e+00
 0.000000e+00 5.997819e-01 4.002181e-01 0.000000e+00 0.000000e+00
 0.000000e+00 0.000000e+00 4.532252e-01 5.467748e-01 0.000000e+00
 0.000000e+00 0.000000e+00 0.000000e+00 6.543766e-01 3.456235e-01
 0.000000e+00 0.000000e+00 0.000000e+00 0.000000e+00 0.000000e+00
<ENDHMM>
~h "d"
<BEGINHMM>
<NUMSTATES> 5
<STATE> 2
<MEAN> 25
 7.898251e-01 -6.896563e-02 -3.120079e-02 -1.412260e+00 -1.222626e-01 -9.958897e-01 -2.969868e-01 -1.138348e+00 -1.837184e+00 -9.870753e-01 2.451117e-01 -1.085491e+00 6.347975e-01 -4.894447e-01 -5.677248e-01 2.161512e-02 -2.533790e-01 -8.576236e-01 -6.303427e-01 -6.142746e-01 -7.891315e-01 -1.657034e-01 3.580190e-01 1.056799e-02 5.360339e-01
<VARIANCE> 25
 3.252934e+01 4.046702e+01 4.252502e+01 4.856341e+01 5.114315e+01 6.026830e+01 5.243432e+01 3.594041e+01 4.236979e+01 3.649072e+01 3.413671e+01 2.341808e+01 1.834420e+00 2.335780e+00 2.388846e+00 2.337574e+00 2.664697e+00 4.299692e+00 4.069942e+00 3.433622e+00 3.689088e+00 2.789474e+00 3.111265e+00 1.874998e+00 1.001445e+00
<GCONST> 1.027120e+02
<STATE> 3
<MEAN> 25
 4.144159e+00 -3.436670e+00 -3.547783e+00 -1.653409e+00 -2.551848e+00 -5.262949e+00 -2.996001e+00 -2.238854e+00 -4.912350e+00 -1.256922e+00 2.283830e+00 8.126532e-02 7.276062e-01 -9.779696e-01 -8.090122e-01 -6.327408e-02 -4.743968e-01 -1.131812e+00 -6.051850e-01 -3.372927e-02 -5.455864e-01 3.868534e-02 5.454538e-01 1.373598e-01 8.019224e-01
<VARIANCE> 25
 1.661656e+01 3.767360e+01 3.875885e+01 5.381524e+01 5.395184e+01 5.650202e+01 6.575439e+01 5.134539e+01 4.463191e+01 4.609974e+01 3.995855e+01 2.803708e+01 1.937662e+00 3.431153e+00 3.002642e+00 3.214174e+00 3.581109e+00 6.976532e+00 5.646228e+00 4.247926e+00 4.599600e+00 3.989568e+00 3.895907e+00 2.302692e+00 1.542891e+00
<GCONST> 1.069211e+02
<STATE> 4
<MEAN> 25
 5.554509e+00 -4.847517e+00 -5.634652e+00 -1.989640e+00 -3.344893e+00 -6.526888e+00 -3.009980e+00 -1.078818e+00 -4.523812e+00 -1.868596e+00 1.430407e+00 -4.541084e-01 -1.737523e-01 4.196276e-01 2.445431e-01 1.338617e-01 3.162690e-01 4.203502e-01 7.610726e-02 9.351250e-03 3.070411e-01 -7.358071e-02 -3.721748e-01 -1.170294e-01 -3.116859e-01
<VARIANCE> 25
 9.398459e+00 3.844186e+01 3.588914e+01 5.690888e+01 4.852643e+01 5.866389e+01 7.074155e+01 4.482894e+01 3.834777e+01 4.225486e+01 4.195863e+01 2.562350e+01 4.654845e-01 1.397577e+00 1.202441e+00 1.261406e+00 1.495228e+00 3.120257e+00 2.377557e+00 2.028310e+00 2.000872e+00 1.972006e+00 1.952022e+00 1.292618e+00 5.628513e-01
<GCONST> 9.466849e+01
<TRANSP> 5
 0.000000e+00 1.000000e+00 0.000000e+00 0.000000e+00 0.000000e+00
 0.000000e+00 3.582477e-01 6.417524e-01 0.000000e+00 0.000000e+00
 0.000000e+00 0.000000e+00 5.662535e-01 4.337465e-01 0.000000e+00
 0.000000e+00 0.000000e+00 0.000000e+00 7.812921e-01 2.187079e-01
 0.000000e+00 0.000000e+00 0.000000e+00 0.000000e+00 0.000000e+00
<ENDHMM>
~h "f"
<BEGINHMM>
<NUMSTATES> 5
<STATE> 2
<MEAN> 25
 9.949065e-01 1.022803e+00 -8.363291e-01 -1.038840e+00 4.963763e-01 -1.177940e-01 -3.376912e-01 -1.145315e+00 -3.119212e-01 -1.211885e+00 -2.697411e-01 -6.803047e-01 -6.174657e-01 2.837140e-01 3.884263e-01 -7.207774e-02 3.575474e-01 6.051319e-01 4.932075e-01 1.237544e-01 5.696549e-01 3.077358e-01 1.221655e-01 -6.169397e-02 -3.257502e-01
<VARIANCE> 25
 2.328653e+01 1.955566e+01 3.145381e+01 3.465270e+01 2.800025e+01 3.663332e+01 3.928703e+01 2.525796e+01 3.363202e+01 2.564029e+01 3.127381e+01 2.043223e+01 5.714621e-01 5.972009e-01 6.382964e-01 8.225040e-01 9.323350e-01 1.346544e+00 1.376761e+00 1.254486e+00 1.558726e+00 1.199025e+00 1.460343e+00 1.058385e+00 2.624291e-01
<GCONST> 8.489225e+01
<STATE> 3
<MEAN> 25
 -1.821029e+00 1.330249e+00 7.734736e-01 -1.430666e+00 1.983659e+00 1.402346e+00 1.363643e+00 -1.006919e+00 1.298981e+00 -3.195638e-03 9.783473e-01 -1.090889e+00 -4.838135e-01 7.618860e-02 2.629625e-01 -2.586165e-02 2.859861e-01 2.665744e-01 3.167016e-01 5.824522e-03 3.091415e-01 2.228605e-01 1.904985e-01 -1.065639e-01 -1.589150e-01
<VARIANCE> 25
 2.926028e+01 2.079775e+01 3.126868e+01 3.275765e+01 2.837052e+01 3.721143e+01 3.762136e+01 2.313094e+01 3.357458e+01 2.481062e+01 3.059206e+01 2.033120e+01 5.949628e-01 5.935867e-01 7.591286e-01 9.480037e-01 1.051313e+00 1.235792e+00 1.354919e+00 1.287992e+00 1.497572e+00 1.203058e+00 1.509537e+00 1.090273e+00 2.493627e-01
<GCONST> 8.532528e+01
<STATE> 4
<MEAN> 25
 -3.329753e+00 1.189729e+00 1.783173e+00 -1.539447e+00 3.261385e+00 1.786324e+00 2.082526e+00 -1.339900e+00 1.299252e+00 4.505311e-01 1.735223e+00 -1.542147e+00 -9.389633e-03 -1.008795e-01 -3.259132e-02 1.504529e-01 -1.526712e-02 -6.500197e-02 -2.847250e-02 -9.001817e-02 -9.903040e-02 5.986996e-02 1.212177e-02 -4.954281e-02 -1.067761e-02
<VARIANCE> 25
 3.360108e+01 2.139541e+01 3.168399e+01 3.172024e+01 3.558283e+01 3.645129e+01 3.868651e+01 2.322701e+01 3.169272e+01 2.446645e+01 3.017462e+01 1.973195e+01 1.094759e+00 8.431218e-01 1.097420e+00 1.383452e+00 1.599964e+00 1.673748e+00 1.984660e+00 1.659374e+00 1.943338e+00 1.431992e+00 1.984811e+00 1.376412e+00 3.612402e-01
<GCONST> 8.997334e+01
<TRANSP> 5
 0.000000e+00 1.000000e+00 0.000000e+00 0.000000e+00 0.000000e+00
 0.000000e+00 6.196574e-01 3.803426e-01 0.000000e+00 0.000000e+00
 0.000000e+00 0.000000e+00 5.042977e-01 4.957023e-01 0.000000e+00
 0.000000e+00 0.000000e+00 0.000000e+00 5.587830e-01 4.412170e-01
 0.000000e+00 0.000000e+00 0.000000e+00 0.000000e+00 0.000000e+00
<ENDHMM>
~h "g"
<BEGINHMM>
<NUMSTATES> 5
<STATE> 2
<MEAN> 25
 -3.092706e+00 1.852898e+00 1.648659e+00 1.865638e-01 1.422681e+00 4.784328e+00 2.426324e+00 1.345095e+00 3.117653e+00 1.796767e+00 -3.033409e-01 1.174405e+00 -1.519720e-01 3.302128e-02 6.327018e-02 -6.911333e-04 2.311236e-02 1.482066e-01 1.248426e-01 1.216549e-01 1.677963e-01 9.023947e-02 1.298061e-02 4.921444e-02 -1.204790e-01
<VARIANCE> 25
 1.076367e+01 8.354094e+00 9.835433e+00 1.037415e+01 1.053313e+01 1.838870e+01 1.497133e+01 1.292451e+01 2.094965e+01 1.414562e+01 1.338158e+01 1.113614e+01 1.433167e-01 2.243303e-01 3.182586e-01 3.901594e-01 4.723153e-01 6.369373e-01 6.808017e-01 7.164965e-01 8.092451e-01 7.336184e-01 7.772081e-01 6.726927e-01 7.202186e-02
<GCONST> 6.505510e+01
<STATE> 3
<MEAN> 25
 -7.759593e-01 1.821953e+00 8.653553e-01 -2.846401e-01 8.632545e-01 2.804278e+00 1.115013e+00 1.621397e-01 1.096158e+00 2.751630e-02 -1.140140e+00 -2.611504e-01 -7.785113e-02 2.152753e-01 2.694369e-01 1.050000e-01 4.781172e-02 1.471317e-01 1.636548e-02 -5.786677e-02 7.983939e-03 -4.981391e-02 -1.206193e-01 -1.094450e-01 -9.910391e-02
<VARIANCE> 25
 1.983170e+01 2.230552e+01 2.909922e+01 2.351126e+01 1.944146e+01 3.531371e+01 2.584054e+01 1.887646e+01 3.260082e+01 2.458862e+01 1.999441e+01 1.563351e+01 2.699337e-01 4.203697e-01 4.584927e-01 5.133743e-01 5.192095e-01 7.880371e-01 8.543210e-01 9.124805e-01 1.028317e+00 9.632718e-01 9.265853e-01 8.216471e-01 1.220553e-01
<GCONST> 7.656934e+01
<STATE> 4
<MEAN> 25
 -2.868547e-01 2.434454e+00 1.745469e+00 -8.963683e-02 3.151681e-01 1.986493e+00 8.546593e-01 -1.587379e-01 4.825427e-02 -5.620480e-01 -1.301291e+00 -6.791106e-01 4.757775e-02 5.280773e-02 1.019775e-01 1.269681e-01 5.926873e-02 -4.327801e-02 -9.522979e-02 -1.759811e-01 -1.265076e-01 -6.403289e-02 -4.801608e-02 -1.249698e-01 3.519297e-02
<VARIANCE> 25
 1.939350e+01 1.850894e+01 2.065832e+01 2.132921e+01 1.992364e+01 3.637227e+01 2.304995e+01 1.747240e+01 3.200578e+01 2.238635e+01 2.133404e+01 1.505233e+01 4.403266e-01 6.656705e-01 7.156246e-01 8.031201e-01 7.267022e-01 1.142409e+00 1.198573e+00 1.296613e+00 1.416902e+00 1.230368e+00 1.204985e+00 9.361249e-01 2.065720e-01
<GCONST> 8.042141e+01
<TRANSP> 5
 0.000000e+00 1.000000e+00 0.000000e+00 0.000000e+00 0.000000e+00
 0.000000e+00 9.368799e-01 6.312011e-02 0.000000e+00 0.000000e+00
 0.000000e+00 0.000000e+00 4.159818e-01 5.840182e-01 0.000000e+00
 0.000000e+00 0.000000e+00 0.000000e+00 6.514278e-01 3.485722e-01
 0.000000e+00 0.000000e+00 0.000000e+00 0.000000e+00 0.000000e+00
<ENDHMM>
~h "k"
<BEGINHMM>
<NUMSTATES> 5
<STATE> 2
<MEAN> 25
 2.781180e+00 -4.421635e-02 -1.697296e+00 -5.759564e-01 -7.255215e-01 -2.845918e+00 -2.115978e+00 -1.671625e+00 -2.163529e+00 -1.884478e+00 -7.179066e-01 -6.003027e-01 -3.453943e-01 4.184734e-01 3.163047e-01 4.763315e-03 2.612537e-01 6.462538e-01 2.174353e-01 6.383761e-02 3.975444e-01 8.965299e-02 -2.019194e-01 2.954151e-02 -3.732587e-01
<VARIANCE> 25
 2.241737e+01 2.259783e+01 3.293128e+01 4.263929e+01 3.630259e+01 5.382525e+01 4.901435e+01 3.175484e+01 4.103313e+01 3.025696e+01 3.163130e+01 2.247286e+01 4.052502e-01 8.500258e-01 7.812579e-01 8.539354e-01 9.913021e-01 1.847633e+00 1.492375e+00 1.483806e+00 1.736687e+00 1.434011e+00 1.451185e+00 1.074667e+00 3.987173e-01
<GCONST> 8.840717e+01
<STATE> 3
<MEAN> 25
 1.642885e+00 9.040581e-01 -5.149016e-01 -2.599941e-01 2.286261e-01 -1.222085e+00 -1.748489e+00 -1.723856e+00 -1.361257e+00 -1.603521e+00 -1.280846e+00 -8.764787e-01 -3.501245e-01 2.619759e-01 2.973850e-01 2.967255e-02 2.105596e-01 5.499065e-01 2.558592e-01 6.975290e-02 3.060909e-01 1.241913e-01 -1.023879e-01 -1.693000e-02 -2.986960e-01
<VARIANCE> 25
 2.270831e+01 2.228743e+01 2.979702e+01 3.994661e+01 3.339198e+01 5.089162e+01 4.547139e+01 3.009027e+01 3.799825e+01 2.849755e+01 3.115585e+01 2.271886e+01 5.118914e-01 8.310016e-01 8.896397e-01 1.008904e+00 1.090013e+00 2.040633e+00 1.610706e+00 1.595591e+00 1.846052e+00 1.468122e+00 1.503544e+00 1.209092e+00 4.926212e-01
<GCONST> 8.913173e+01
<STATE> 4
<MEAN> 25
 5.172727e-01 1.702971e+00 5.446830e-01 3.297646e-02 7.903850e-01 2.789969e-01 -1.104115e+00 -1.545518e+00 -4.777655e-01 -1.085124e+00 -1.542837e+00 -9.040058e-01 -2.853684e-01 6.210847e-02 1.858170e-01 8.950939e-03 9.531611e-02 3.312307e-01 2.746802e-01 1.536568e-01 2.396899e-01 1.969339e-01 7.934840e-02 3.222569e-02 -1.836595e-01
<VARIANCE> 25
 2.059929e+01 2.003361e+01 2.465909e+01 3.310862e+01 3.008463e+01 4.688023e+01 4.006984e+01 2.753502e+01 3.482785e+01 2.633772e+01 2.868331e+01 2.216299e+01 6.176779e-01 7.504779e-01 9.290969e-01 1.139081e+00 1.181378e+00 2.167433e+00 1.807352e+00 1.657104e+00 1.845307e+00 1.505689e+00 1.581550e+00 1.294076e+00 4.351751e-01
<GCONST> 8.843948e+01
<TRANSP> 5
 0.000000e+00 1.000000e+00 0.000000e+00 0.000000e+00 0.000000e+00
 0.000000e+00 4.430130e-01 5.569870e-01 0.000000e+00 0.000000e+00
 0.000000e+00 0.000000e+00 3.431196e-01 6.568804e-01 0.000000e+00
 0.000000e+00 0.000000e+00 0.000000e+00 5.300422e-01 4.699578e-01
 0.000000e+00 0.000000e+00 0.000000e+00 0.000000e+00 0.000000e+00
<ENDHMM>
~h "l"
<BEGINHMM>
<NUMSTATES> 5
<STATE> 2
<MEAN> 25
 2.829309e+00 -3.515402e-01 -1.390811e+00 -1.563512e-01 -8.602366e-01 -3.198232e+00 -2.391608e+00 -1.888516e+00 -2.456030e+00 -1.822797e+00 -5.420703e-01 -1.274713e+00 -1.334279e-01 3.617609e-01 3.438910e-01 2.237148e-01 2.182918e-01 2.858964e-01 -7.476991e-02 -1.669587e-01 1.974660e-02 -1.431413e-01 -2.973205e-01 -9.510586e-02 -2.277247e-01
<VARIANCE> 25
 2.053071e+01 2.569898e+01 2.872220e+01 4.140109e+01 3.590509e+01 5.862901e+01 4.954906e+01 3.208566e+01 4.412787e+01 3.569364e+01 3.254708e+01 2.067705e+01 4.945672e-01 7.838170e-01 7.672422e-01 9.653059e-01 1.057044e+00 1.948033e+00 1.744190e+00 1.596938e+00 1.847288e+00 1.578768e+00 1.490321e+00 1.067951e+00 3.446634e-01
<GCONST> 8.916220e+01
<STATE> 3
<MEAN> 25
 2.602443e+00 3.638670e-01 -3.534340e-01 8.667567e-01 -1.086019e-01 -2.848426e+00 -3.085622e+00 -2.821047e+00 -3.097059e+00 -2.524590e+00 -1.322851e+00 -1.646904e+00 -6.359354e-02 3.186356e-01 2.922217e-01 2.110296e-01 1.859715e-01 2.033327e-01 -1.119629e-01 -2.370216e-01 -1.618160e-01 -2.235814e-01 -2.272556e-01 -2.069012e-02 -1.702658e-01
<VARIANCE> 25
 1.828679e+01 2.542657e+01 2.735587e+01 4.128669e+01 3.355511e+01 5.739260e+01 4.706843e+01 3.224223e+01 4.237093e+01 3.386569e+01 3.281300e+01 2.073333e+01 6.299911e-01 8.349466e-01 8.231730e-01 1.057199e+00 1.094696e+00 2.293692e+00 2.024909e+00 1.829126e+00 2.384405e+00 1.807017e+00 1.605655e+00 1.159724e+00 4.093823e-01
<GCONST> 9.043562e+01
<STATE> 4
<MEAN> 25
 2.790840e+00 9.983694e-01 6.593652e-01 2.427282e+00 7.672431e-01 -3.220266e+00 -4.693010e+00 -4.283854e+00 -4.433696e+00 -3.692699e+00 -2.073079e+00 -1.693481e+00 -1.740371e-01 1.641153e-01 1.471942e-01 -4.536895e-02 7.433385e-02 3.147348e-01 2.363369e-01 1.260588e-01 1.530181e-01 7.515205e-02 5.026182e-03 8.467667e-02 -1.707814e-01
<VARIANCE> 25
 1.293157e+01 2.130086e+01 2.172171e+01 3.831823e+01 2.787936e+01 5.306499e+01 4.215614e+01 3.255031e+01 4.145201e+01 3.211149e+01 3.066362e+01 1.974060e+01 5.208771e-01 8.796937e-01 9.109861e-01 1.099222e+00 1.120814e+00 2.280727e+00 1.914858e+00 1.760928e+00 2.230259e+00 1.708651e+00 1.643393e+00 1.167909e+00 3.885535e-01
<GCONST> 8.883211e+01
<TRANSP> 5
 0.000000e+00 1.000000e+00 0.000000e+00 0.000000e+00 0.000000e+00
 0.000000e+00 3.720627e-01 6.279373e-01 0.000000e+00 0.000000e+00
 0.000000e+00 0.000000e+00 3.262488e-01 6.737512e-01 0.000000e+00
 0.000000e+00 0.000000e+00 0.000000e+00 6.440582e-01 3.559418e-01
 0.000000e+00 0.000000e+00 0.000000e+00 0.000000e+00 0.000000e+00
<ENDHMM>
~h "m"
<BEGINHMM>
<NUMSTATES> 5
<STATE> 2
<MEAN> 25
 1.894053e+00 -1.327680e-01 -1.141522e+00 -2.464328e-01 1.247538e-01 -1.080336e+00 -1.378823e+00 -1.395258e+00 -1.346292e+00 -7.999116e-01 -3.121532e-01 -6.741009e-01 -2.491259e-01 4.528886e-01 4.009034e-01 9.774515e-02 2.255042e-01 5.382994e-01 1.720791e-01 5.076262e-02 2.577131e-01 -8.012223e-02 -3.547667e-01 -8.654401e-02 -3.192171e-01
<VARIANCE> 25
 2.441737e+01 2.904045e+01 3.422617e+01 3.483643e+01 2.663964e+01 5.721819e+01 4.592689e+01 2.613143e+01 4.175128e+01 3.455215e+01 3.152213e+01 2.124541e+01 4.348762e-01 7.455092e-01 7.178051e-01 8.799620e-01 8.863654e-01 1.592987e+00 1.363866e+00 1.320465e+00 1.750368e+00 1.559003e+00 1.439844e+00 1.104286e+00 3.053079e-01
<GCONST> 8.742371e+01
<STATE> 3
<MEAN> 25
 1.684510e+00 1.173446e+00 -1.566629e-02 -8.021227e-02 4.192902e-01 -2.541377e-01 -1.064244e+00 -1.509446e+00 -1.732030e+00 -1.956442e+00 -1.588071e+00 -1.273419e+00 -1.413242e-01 4.184117e-01 3.315869e-01 7.494120e-02 1.152355e-01 4.140388e-01 1.427189e-01 -3.608270e-02 7.241443e-02 -1.597238e-01 -3.097270e-01 -8.280431e-02 -2.437866e-01
<VARIANCE> 25
 2.158479e+01 2.927948e+01 3.147037e+01 3.531307e+01 2.687261e+01 5.645853e+01 4.346151e+01 2.626585e+01 3.802651e+01 3.197350e+01 3.268582e+01 2.122128e+01 5.150652e-01 6.619141e-01 6.896129e-01 8.380817e-01 8.484274e-01 1.499453e+00 1.289559e+00 1.347405e+00 1.868664e+00 1.638557e+00 1.348839e+00 1.087053e+00 2.847931e-01
<GCONST> 8.683363e+01
<STATE> 4
<MEAN> 25
 1.702638e+00 2.402398e+00 8.247308e-01 1.143725e-01 3.129239e-01 2.031544e-01 -8.621330e-01 -1.733109e+00 -2.157998e+00 -2.835887e+00 -2.639565e+00 -1.691479e+00 -7.526466e-02 2.005921e-01 1.468338e-01 5.038483e-02 3.583682e-02 1.752579e-01 7.077780e-02 -4.599702e-02 3.526368e-02 -1.938385e-02 -8.009066e-02 -1.393815e-02 -1.282581e-01
<VARIANCE> 25
 1.785625e+01 2.706869e+01 2.654991e+01 3.277705e+01 2.969162e+01 5.342942e+01 3.963434e+01 2.570728e+01 3.425282e+01 2.874646e+01 3.101283e+01 1.974246e+01 4.801773e-01 7.476916e-01 7.819066e-01 8.779894e-01 9.872935e-01 1.777938e+00 1.433868e+00 1.326432e+00 1.580479e+00 1.415350e+00 1.414000e+00 1.042714e+00 2.983022e-01
<GCONST> 8.629030e+01
<TRANSP> 5
 0.000000e+00 1.000000e+00 0.000000e+00 0.000000e+00 0.000000e+00
 0.000000e+00 4.805034e-01 5.194966e-01 0.000000e+00 0.000000e+00
 0.000000e+00 0.000000e+00 3.778836e-01 6.221164e-01 0.000000e+00
 0.000000e+00 0.000000e+00 0.000000e+00 5.159752e-01 4.840248e-01
 0.000000e+00 0.000000e+00 0.000000e+00 0.000000e+00 0.000000e+00
<ENDHMM>
~h "n"
<BEGINHMM>
<NUMSTATES> 5
<STATE> 2
<MEAN> 25
 3.475812e+00 -2.526845e+00 -3.010964e+00 -1.806742e+00 -2.846176e+00 -4.054495e+00 -6.045943e-01 -4.531718e-01 -3.460352e+00 -1.070076e+00 1.491699e+00 -4.979229e-01 1.198892e-01 3.348062e-02 -4.032730e-02 -8.038037e-02 -6.136876e-02 2.484838e-02 5.808419e-02 -1.132924e-02 -1.647099e-01 -1.896021e-01 -7.153135e-02 -2.069420e-02 7.342962e-02
<VARIANCE> 25
 2.116992e+01 4.273635e+01 4.053797e+01 4.793807e+01 4.661447e+01 6.078198e+01 5.713165e+01 3.583207e+01 4.721669e+01 3.745922e+01 3.938615e+01 2.458589e+01 6.929729e-01 1.529717e+00 1.254701e+00 1.279980e+00 1.534257e+00 2.714889e+00 2.196558e+00 1.962714e+00 2.253975e+00 1.872133e+00 1.966318e+00 1.355257e+00 6.590905e-01
<GCONST> 9.567680e+01
<STATE> 3
<MEAN> 25
 3.967634e+00 -2.643969e+00 -3.404408e+00 -2.012430e+00 -3.063594e+00 -4.238763e+00 -5.608777e-01 -5.135484e-01 -4.114256e+00 -1.756654e+00 1.287823e+00 -5.739103e-01 -8.540971e-03 3.159538e-01 1.251685e-01 5.770862e-02 2.036107e-01 2.429530e-01 -6.180314e-02 -1.493392e-01 1.098544e-02 -2.109164e-01 -2.642840e-01 -7.459205e-02 -1.527332e-01
<VARIANCE> 25
 1.894922e+01 4.308596e+01 4.103895e+01 4.868299e+01 4.711068e+01 5.890936e+01 5.801442e+01 3.644011e+01 4.624955e+01 3.709372e+01 3.996595e+01 2.508901e+01 4.891120e-01 1.285658e+00 1.005861e+00 1.091808e+00 1.302261e+00 2.389144e+00 2.042403e+00 1.811500e+00 1.968860e+00 1.806810e+00 1.904770e+00 1.227122e+00 5.157274e-01
<GCONST> 9.372353e+01
<STATE> 4
<MEAN> 25
 4.164648e+00 -3.573956e-01 -2.604464e+00 -1.601730e+00 -2.138665e+00 -3.126764e+00 -1.345775e+00 -1.708515e+00 -4.267250e+00 -2.820728e+00 -3.608847e-01 -1.086977e+00 -2.034835e-01 4.586518e-01 3.451006e-01 1.510290e-01 3.379784e-01 4.970164e-01 -7.190170e-02 -1.693943e-01 2.087511e-01 -2.186133e-02 -2.959323e-01 -6.896291e-02 -3.216922e-01
<VARIANCE> 25
 1.288253e+01 3.559547e+01 3.217534e+01 4.032814e+01 4.066969e+01 5.426571e+01 4.828406e+01 3.402588e+01 3.807469e+01 3.060046e+01 3.527950e+01 2.334338e+01 3.218903e-01 8.795641e-01 7.465458e-01 8.216693e-01 1.001209e+00 1.778777e+00 1.565027e+00 1.453907e+00 1.563335e+00 1.460234e+00 1.538259e+00 1.049810e+00 3.080472e-01
<GCONST> 8.789691e+01
<TRANSP> 5
 0.000000e+00 1.000000e+00 0.000000e+00 0.000000e+00 0.000000e+00
 0.000000e+00 3.068028e-01 6.931972e-01 0.000000e+00 0.000000e+00
 0.000000e+00 0.000000e+00 3.519895e-01 6.480104e-01 0.000000e+00
 0.000000e+00 0.000000e+00 0.000000e+00 7.016114e-01 2.983886e-01
 0.000000e+00 0.000000e+00 0.000000e+00 0.000000e+00 0.000000e+00
<ENDHMM>
~h "p"
<BEGINHMM>
<NUMSTATES> 5
<STATE> 2
<MEAN> 25
 2.034429e+00 -1.659013e+00 -1.928872e+00 -9.396749e-01 -6.947062e-01 -2.233703e+00 -1.239508e+00 -1.937418e+00 -2.578665e+00 -7.118616e-01 1.214077e+00 -2.266281e-01 4.632826e-01 -1.057659e-01 -3.845370e-01 -1.292793e-01 -1.805516e-01 -4.267127e-01 -3.332441e-01 -3.980937e-01 -5.057855e-01 -2.374190e-01 1.090770e-01 9.927186e-02 3.005636e-01
<VARIANCE> 25
 2.945984e+01 3.219979e+01 4.147388e+01 4.343301e+01 4.057274e+01 5.952225e+01 5.877914e+01 3.957667e+01 4.862620e+01 3.347841e+01 3.186401e+01 2.278817e+01 1.760257e+00 2.042650e+00 2.079624e+00 1.969180e+00 2.430138e+00 4.373181e+00 3.860580e+00 3.191242e+00 3.845062e+00 2.596883e+00 2.533877e+00 1.674529e+00 1.341953e+00
<GCONST> 1.014271e+02
<STATE> 3
<MEAN> 25
 3.678553e+00 -2.128845e+00 -3.183828e+00 -1.441073e+00 -1.744764e+00 -4.107150e+00 -2.386698e+00 -2.509591e+00 -4.062266e+00 -1.671769e+00 1.429112e+00 1.482179e-01 3.157308e-01 1.183647e-02 -2.030027e-01 -2.133772e-01 -3.320110e-01 -4.073555e-01 -4.606597e-02 1.953090e-01 -1.620331e-01 -2.948807e-01 -7.176572e-02 1.153241e-01 1.889134e-01
<VARIANCE> 25
 2.228855e+01 3.032593e+01 3.848959e+01 4.458001e+01 4.673902e+01 5.815214e+01 6.472054e+01 4.304044e+01 4.639317e+01 3.362138e+01 3.160691e+01 2.498327e+01 1.638984e+00 2.066774e+00 2.004462e+00 2.225141e+00 2.858703e+00 5.282182e+00 3.873773e+00 2.914340e+00 3.474314e+00 2.532833e+00 2.332684e+00 1.742716e+00 1.351833e+00
<GCONST> 1.015069e+02
<STATE> 4
<MEAN> 25
 4.587953e+00 -1.588678e+00 -4.439813e+00 -3.873671e+00 -4.416891e+00 -3.955404e+00 3.740306e-01 3.362790e-01 -3.598157e+00 -2.682249e+00 9.136462e-01 8.817368e-01 -2.608003e-01 3.810731e-01 2.911064e-01 -4.826280e-03 1.562401e-01 4.577233e-01 2.431531e-01 2.444693e-01 3.571441e-01 -9.316154e-03 -2.745044e-01 -5.720898e-02 -3.199890e-01
<VARIANCE> 25
 1.774532e+01 2.856000e+01 3.580099e+01 4.598847e+01 5.369039e+01 5.789842e+01 6.338739e+01 4.719139e+01 4.163632e+01 3.064280e+01 2.654930e+01 2.458989e+01 6.270763e-01 9.794078e-01 9.516932e-01 1.080263e+00 1.441615e+00 2.498818e+00 1.934968e+00 1.705056e+00 1.983501e+00 1.775929e+00 1.533992e+00 1.169284e+00 5.230100e-01
<GCONST> 9.247029e+01
<TRANSP> 5
 0.000000e+00 1.000000e+00 0.000000e+00 0.000000e+00 0.000000e+00
 0.000000e+00 2.847265e-01 7.152734e-01 0.000000e+00 0.000000e+00
 0.000000e+00 0.000000e+00 3.204913e-01 6.795087e-01 0.000000e+00
 0.000000e+00 0.000000e+00 0.000000e+00 6.335829e-01 3.664171e-01
 0.000000e+00 0.000000e+00 0.000000e+00 0.000000e+00 0.000000e+00
<ENDHMM>
~h "r"
<BEGINHMM>
<NUMSTATES> 5
<STATE> 2
<MEAN> 25
 -1.373067e+00 3.360910e-01 1.888264e+00 -1.155685e+00 1.579029e+00 9.450377e-01 6.454309e-01 -1.271749e+00 -6.018583e-01 1.159218e-01 8.965732e-01 -1.429654e+00 1.174750e-01 -3.292174e-01 -1.802292e-01 -1.718061e-01 -1.590421e-01 -3.569491e-01 -4.639024e-02 -2.133954e-01 -3.395572e-01 5.441907e-02 3.061562e-01 -6.763032e-02 3.016725e-01
<VARIANCE> 25
 3.677333e+01 3.324878e+01 4.474107e+01 4.759741e+01 4.054279e+01 5.382192e+01 4.832241e+01 3.005249e+01 3.990450e+01 3.073159e+01 3.496576e+01 2.298239e+01 1.876148e+00 1.714888e+00 2.573311e+00 2.371611e+00 2.469330e+00 3.224831e+00 3.376418e+00 2.895006e+00 3.362664e+00 2.490375e+00 2.833106e+00 1.822916e+00 8.132392e-01
<GCONST> 1.003813e+02
<STATE> 3
<MEAN> 25
 2.095851e+00 -1.576138e+00 -1.534115e+00 -6.395987e-01 -2.869270e-01 -2.604968e+00 -1.954708e+00 -2.963608e+00 -3.402371e+00 -9.759060e-01 1.463929e+00 -7.054548e-01 9.285609e-01 -7.567160e-01 -8.456963e-01 -1.826281e-01 -6.518393e-01 -1.284798e+00 -6.207134e-01 -1.535235e-01 -8.401611e-01 -2.589130e-01 3.611942e-01 2.171339e-01 8.239089e-01
<VARIANCE> 25
 2.610499e+01 3.334610e+01 4.355967e+01 4.821378e+01 4.813059e+01 5.761926e+01 6.142564e+01 4.386576e+01 4.420104e+01 3.512451e+01 3.630687e+01 2.720643e+01 2.122081e+00 2.957912e+00 3.065407e+00 3.032124e+00 3.361497e+00 5.382195e+00 5.489731e+00 4.349055e+00 4.696944e+00 3.411258e+00 4.082106e+00 2.307853e+00 1.372253e+00
<GCONST> 1.059036e+02
<STATE> 4
<MEAN> 25
 5.022627e+00 -3.691087e+00 -4.711389e+00 -3.401653e+00 -4.644123e+00 -5.860194e+00 -8.519532e-01 1.758643e-01 -4.663104e+00 -2.110719e+00 1.690891e+00 1.583599e-01 1.776276e-02 2.752470e-02 -5.745283e-02 -2.742434e-02 5.475351e-02 9.389184e-02 8.626092e-02 1.371131e-01 1.061773e-01 -4.863297e-02 -1.411005e-01 -2.321680e-02 -2.186522e-02
<VARIANCE> 25
 1.512001e+01 3.886060e+01 3.995659e+01 5.379200e+01 6.252693e+01 5.888303e+01 6.873022e+01 5.040735e+01 4.279904e+01 3.812748e+01 3.839298e+01 2.685785e+01 5.789095e-01 1.475882e+00 1.301950e+00 1.341144e+00 1.780187e+00 3.163277e+00 2.790012e+00 2.335654e+00 2.303414e+00 2.081913e+00 2.141955e+00 1.420401e+00 6.238999e-01
<GCONST> 9.690447e+01
<TRANSP> 5
 0.000000e+00 1.000000e+00 0.000000e+00 0.000000e+00 0.000000e+00
 0.000000e+00 4.042689e-01 5.957311e-01 0.000000e+00 0.000000e+00
 0.000000e+00 0.000000e+00 5.060394e-01 4.939606e-01 0.000000e+00
 0.000000e+00 0.000000e+00 0.000000e+00 6.499122e-01 3.500878e-01
 0.000000e+00 0.000000e+00 0.000000e+00 0.000000e+00 0.000000e+00
<ENDHMM>
~h "s"
<BEGINHMM>
<NUMSTATES> 5
<STATE> 2
<MEAN> 25
 -1.453736e-01 -3.911991e-01 6.412027e-01 -1.295155e+00 8.684372e-01 -1.102409e+00 -7.972480e-01 -1.246684e+00 -1.371850e+00 -5.201464e-01 1.016659e+00 -1.185897e+00 -2.675526e-01 -6.039453e-02 2.471454e-01 -3.093899e-01 2.836406e-01 -1.050516e-01 -1.733793e-02 -1.182786e-01 -1.121364e-01 8.512925e-02 2.411952e-01 -2.719053e-01 1.670721e-01
<VARIANCE> 25
 4.448515e+01 3.141358e+01 4.709218e+01 5.572076e+01 4.456214e+01 6.939323e+01 6.239272e+01 3.680180e+01 4.681735e+01 3.472004e+01 3.510224e+01 2.247768e+01 1.393685e+00 1.456550e+00 1.912975e+00 2.277819e+00 2.043342e+00 3.109159e+00 2.818572e+00 2.519597e+00 2.668652e+00 2.324893e+00 2.434502e+00 1.582737e+00 6.449417e-01
<GCONST> 9.962652e+01
<STATE> 3
<MEAN> 25
 -6.630917e-01 -5.639828e-01 9.534783e-01 -2.084422e+00 1.764242e+00 -2.328344e+00 -1.078990e+00 -2.371098e+00 -2.351796e+00 -3.104329e-01 1.682051e+00 -1.900865e+00 1.955550e-01 -2.365423e-01 -9.006032e-02 -1.809094e-01 1.596832e-02 -5.791556e-01 -3.514325e-01 -3.130400e-01 -4.368173e-01 -2.174106e-02 1.487155e-01 -1.235976e-01 3.791358e-01
<VARIANCE> 25
 5.480823e+01 3.402847e+01 5.185640e+01 6.399589e+01 5.609432e+01 6.308504e+01 7.059712e+01 4.358625e+01 4.964136e+01 3.683539e+01 3.715925e+01 2.461724e+01 3.061019e+00 2.180393e+00 2.699111e+00 3.422660e+00 3.245742e+00 4.644199e+00 4.750455e+00 3.566320e+00 4.413947e+00 3.286836e+00 3.325646e+00 2.042723e+00 9.649647e-01
<GCONST> 1.063378e+02
<STATE> 4
<MEAN> 25
 1.154943e+00 -1.684397e+00 -8.317041e-02 -1.884562e+00 9.229262e-01 -4.759528e+00 -3.267955e+00 -2.952336e+00 -3.685751e+00 -8.282421e-01 1.398346e+00 -2.249229e+00 -3.785995e-01 2.673267e-01 2.757618e-01 -3.860028e-01 2.557412e-01 3.144157e-01 3.468646e-01 2.534169e-01 3.096425e-01 4.679604e-02 -6.683222e-02 9.824560e-03 -1.034778e-01
<VARIANCE> 25
 4.572596e+01 3.515821e+01 5.127080e+01 7.544662e+01 6.230153e+01 6.428030e+01 7.028203e+01 4.297384e+01 4.708975e+01 3.932530e+01 3.989584e+01 2.656673e+01 2.093570e+00 1.631639e+00 2.110957e+00 2.641794e+00 2.499032e+00 3.559282e+00 3.125865e+00 2.641312e+00 2.900225e+00 2.474354e+00 2.586825e+00 1.589612e+00 6.683106e-01
<GCONST> 1.026134e+02
<TRANSP> 5
 0.000000e+00 1.000000e+00 0.000000e+00 0.000000e+00 0.000000e+00
 0.000000e+00 3.264899e-01 6.735101e-01 0.000000e+00 0.000000e+00
 0.000000e+00 0.000000e+00 4.587420e-01 5.412580e-01 0.000000e+00
 0.000000e+00 0.000000e+00 0.000000e+00 6.114151e-01 3.885849e-01
 0.000000e+00 0.000000e+00 0.000000e+00 0.000000e+00 0.000000e+00
<ENDHMM>
~h "t"
<BEGINHMM>
<NUMSTATES> 5
<STATE> 2
<MEAN> 25
 -1.584457e+00 1.195433e+00 2.247082e+00 -1.328456e+00 1.610584e+00 8.061507e-01 4.614111e-01 -9.566069e-01 -1.936339e-01 -1.811675e-01 4.028933e-02 -1.108313e+00 4.180930e-01 -5.070139e-01 -5.194747e-01 -1.309528e-01 -3.809900e-01 -5.424600e-01 -1.329876e-01 -2.631325e-01 -5.647705e-01 -1.509027e-02 4.611633e-01 1.272635e-01 4.128765e-01
<VARIANCE> 25
 3.936605e+01 3.173548e+01 4.223072e+01 4.790845e+01 4.277117e+01 5.604706e+01 4.660205e+01 3.208442e+01 4.297038e+01 3.414355e+01 3.262191e+01 2.231931e+01 1.766165e+00 2.058926e+00 2.412578e+00 2.398700e+00 2.450865e+00 3.897516e+00 3.283340e+00 3.159327e+00 3.669422e+00 2.548534e+00 2.945027e+00 1.867506e+00 1.094652e+00
<GCONST> 1.013366e+02
<STATE> 3
<MEAN> 25
 2.427744e+00 -1.454858e+00 -1.671736e+00 -8.814130e-01 -9.557602e-01 -3.196527e+00 -1.915171e+00 -3.079052e+00 -4.224165e+00 -1.226651e+00 1.852391e+00 -2.516934e-02 1.276257e+00 -1.224733e+00 -1.258389e+00 -2.940973e-01 -9.515601e-01 -1.750626e+00 -7.159736e-01 -2.367934e-01 -1.349156e+00 -3.107428e-01 8.155526e-01 3.515179e-01 1.212928e+00
<VARIANCE> 25
 2.462983e+01 3.048248e+01 3.757478e+01 4.534500e+01 4.451727e+01 5.647233e+01 5.462427e+01 4.501564e+01 5.020999e+01 4.135530e+01 3.600548e+01 2.535252e+01 2.332965e+00 3.648877e+00 3.255264e+00 3.227963e+00 3.519493e+00 6.097238e+00 5.857525e+00 5.492115e+00 5.770641e+00 4.224439e+00 4.444154e+00 2.622353e+00 1.756284e+00
<GCONST> 1.073442e+02
<STATE> 4
<MEAN> 25
 5.616059e+00 -5.220778e+00 -6.622412e+00 -5.465986e+00 -5.944223e+00 -5.035043e+00 5.329008e-01 1.573448e+00 -5.106660e+00 -2.500817e+00 2.232026e+00 1.466738e+00 -5.886848e-02 5.386562e-02 -2.140320e-02 -6.195828e-02 1.395637e-01 2.452270e-01 1.013848e-01 1.166596e-01 2.463285e-01 8.816862e-03 -1.880727e-01 -1.112610e-01 -5.309005e-02
<VARIANCE> 25
 1.198253e+01 3.910698e+01 3.456916e+01 4.513525e+01 5.270415e+01 5.522880e+01 6.819588e+01 5.582149e+01 4.921703e+01 4.969729e+01 3.934533e+01 2.628202e+01 8.129101e-01 2.152871e+00 1.725047e+00 1.689606e+00 2.152633e+00 3.999028e+00 3.243652e+00 2.913313e+00 2.716793e+00 2.705588e+00 2.451512e+00 1.600537e+00 9.745883e-01
<GCONST> 9.977769e+01
<TRANSP> 5
 0.000000e+00 1.000000e+00 0.000000e+00 0.000000e+00 0.000000e+00
 0.000000e+00 3.859671e-01 6.140329e-01 0.000000e+00 0.000000e+00
 0.000000e+00 0.000000e+00 5.134733e-01 4.865267e-01 0.000000e+00
 0.000000e+00 0.000000e+00 0.000000e+00 8.032031e-01 1.967969e-01
 0.000000e+00 0.000000e+00 0.000000e+00 0.000000e+00 0.000000e+00
<ENDHMM>
~h "v"
<BEGINHMM>
<NUMSTATES> 5
<STATE> 2
<MEAN> 25
 -2.274217e-01 2.067778e-01 2.754084e-01 -1.657425e+00 6.449192e-01 1.026827e-02 7.525803e-01 -7.289666e-01 -9.593780e-01 -7.909814e-01 4.309174e-01 -6.233822e-01 6.069391e-01 -6.825656e-01 -5.131869e-01 -2.307839e-01 -5.743663e-01 -1.142992e+00 -3.554104e-01 -1.555035e-01 -7.501448e-01 -2.109274e-01 4.075794e-01 -1.586278e-02 7.385539e-01
<VARIANCE> 25
 3.218534e+01 3.634570e+01 4.348110e+01 5.422401e+01 4.863892e+01 5.740167e+01 5.559490e+01 3.886205e+01 4.694889e+01 3.806953e+01 3.072596e+01 2.422308e+01 2.493877e+00 2.468585e+00 3.005806e+00 3.380167e+00 3.677148e+00 4.988553e+00 5.027255e+00 3.738399e+00 4.897052e+00 3.717494e+00 3.450010e+00 2.229438e+00 1.218237e+00
<GCONST> 1.056085e+02
<STATE> 3
<MEAN> 25
 3.143107e+00 -2.862686e+00 -2.505679e+00 -1.300587e+00 -2.308789e+00 -4.909108e+00 -1.700968e+00 -8.918559e-01 -3.914455e+00 -1.754410e+00 1.569856e+00 4.751944e-03 7.901848e-01 -9.918891e-01 -7.016886e-01 -2.069815e-01 -8.870265e-01 -1.401672e+00 -4.529087e-01 3.245618e-01 -5.312400e-01 -1.203686e-01 3.384064e-01 2.429350e-02 9.113221e-01
<VARIANCE> 25
 2.179333e+01 3.434915e+01 4.668762e+01 7.006927e+01 6.074754e+01 6.477776e+01 8.219518e+01 5.101242e+01 4.656433e+01 4.215987e+01 3.900956e+01 3.186545e+01 1.991624e+00 2.913900e+00 2.921494e+00 3.848742e+00 3.507355e+00 6.602185e+00 5.785851e+00 3.799500e+00 4.816393e+00 4.263598e+00 3.698629e+00 2.459396e+00 1.448279e+00
<GCONST> 1.079958e+02
<STATE> 4
<MEAN> 25
 5.249639e+00 -5.236175e+00 -5.081306e+00 -4.793021e+00 -7.905470e+00 -6.828643e+00 7.484984e-01 3.465487e+00 -3.405035e+00 -2.445775e+00 7.151387e-01 1.541392e-01 -2.102030e-02 2.187800e-01 -5.003452e-03 -1.070310e-01 7.494191e-02 2.074273e-01 1.587117e-01 -3.840692e-03 1.384713e-01 -9.126855e-02 -1.936101e-01 -1.099379e-01 -1.100150e-01
<VARIANCE> 25
 1.167132e+01 3.644381e+01 3.736002e+01 8.328884e+01 7.342978e+01 6.471059e+01 8.576155e+01 5.029370e+01 4.019525e+01 4.009502e+01 3.628627e+01 3.150851e+01 6.504585e-01 1.776840e+00 1.354478e+00 1.562227e+00 1.968141e+00 3.472710e+00 2.959854e+00 2.090760e+00 2.437306e+00 2.330780e+00 2.278547e+00 1.481669e+00 8.544081e-01
<GCONST> 9.874057e+01
<TRANSP> 5
 0.000000e+00 1.000000e+00 0.000000e+00 0.000000e+00 0.000000e+00
 0.000000e+00 4.104630e-01 5.895370e-01 0.000000e+00 0.000000e+00
 0.000000e+00 0.000000e+00 4.365281e-01 5.634719e-01 0.000000e+00
 0.000000e+00 0.000000e+00 0.000000e+00 7.795334e-01 2.204666e-01
 0.000000e+00 0.000000e+00 0.000000e+00 0.000000e+00 0.000000e+00
<ENDHMM>
~h "w"
<BEGINHMM>
<NUMSTATES> 5
<STATE> 2
<MEAN> 25
 -2.114202e+00 1.868299e+00 1.446056e+00 -6.068393e-01 1.501201e+00 3.469886e+00 1.684389e+00 6.427816e-01 2.295773e+00 1.114622e+00 -2.966592e-01 3.242977e-01 -2.258478e-01 2.140575e-01 2.633133e-01 5.311417e-02 6.959431e-02 2.530495e-01 1.445827e-01 9.988442e-02 2.638447e-01 9.490373e-02 -1.349721e-01 -6.661577e-02 -2.002602e-01
<VARIANCE> 25
 2.322686e+01 2.076330e+01 2.444440e+01 2.668609e+01 2.097864e+01 3.892353e+01 2.930989e+01 2.045187e+01 3.194413e+01 2.418961e+01 2.312252e+01 1.689156e+01 3.785609e-01 5.043938e-01 5.918683e-01 6.312924e-01 6.922071e-01 1.004079e+00 1.007347e+00 1.038187e+00 1.332277e+00 1.172392e+00 1.175496e+00 9.729951e-01 1.877297e-01
<GCONST> 8.027286e+01
<STATE> 3
<MEAN> 25
 -2.003842e-01 1.927208e+00 1.523982e+00 -2.601269e-01 6.374936e-01 9.744191e-01 2.278465e-01 -3.112282e-01 2.741550e-01 -9.136261e-01 -1.781023e+00 -1.574769e+00 4.501966e-02 3.320591e-01 2.798102e-01 1.115042e-01 -5.232754e-02 6.800617e-02 -5.024957e-02 -1.734421e-01 -6.557842e-02 -1.665474e-01 -3.116811e-01 -2.446741e-01 -7.128925e-02
<VARIANCE> 25
 2.630390e+01 3.691009e+01 3.185990e+01 3.569162e+01 2.972987e+01 5.286063e+01 3.706955e+01 2.170078e+01 3.207126e+01 2.935308e+01 3.316452e+01 2.024291e+01 6.803474e-01 7.355767e-01 7.222035e-01 7.349436e-01 8.089275e-01 1.302336e+00 1.317161e+00 1.282395e+00 1.812520e+00 1.794445e+00 1.549419e+00 1.224828e+00 2.920685e-01
<GCONST> 8.710797e+01
<STATE> 4
<MEAN> 25
 1.155097e-01 2.818703e+00 2.276258e+00 2.705663e-01 4.843355e-01 9.146253e-01 -2.485421e-01 -8.941575e-01 -9.264733e-02 -1.537302e+00 -2.683240e+00 -2.210967e+00 1.557454e-01 1.060508e-01 5.223440e-03 6.359012e-02 -1.119517e-01 -1.228941e-01 -1.003688e-01 -2.060050e-01 -2.244636e-01 -1.381318e-01 -3.351716e-02 -3.033916e-02 3.233522e-02
<VARIANCE> 25
 2.128169e+01 3.783035e+01 2.882331e+01 3.181269e+01 2.750268e+01 4.971590e+01 3.525453e+01 2.129337e+01 2.956174e+01 2.870106e+01 3.460928e+01 1.977384e+01 5.897380e-01 8.251448e-01 8.635414e-01 9.786628e-01 1.008331e+00 1.646774e+00 1.578061e+00 1.421533e+00 1.874718e+00 1.706881e+00 1.668641e+00 1.246304e+00 3.267338e-01
<GCONST> 8.777563e+01
<TRANSP> 5
 0.000000e+00 1.000000e+00 0.000000e+00 0.000000e+00 0.000000e+00
 0.000000e+00 7.282305e-01 2.717695e-01 0.000000e+00 0.000000e+00
 0.000000e+00 0.000000e+00 3.577228e-01 6.422772e-01 0.000000e+00
 0.000000e+00 0.000000e+00 0.000000e+00 4.655182e-01 5.344818e-01
 0.000000e+00 0.000000e+00 0.000000e+00 0.000000e+00 0.000000e+00
<ENDHMM>
~h "y"
<BEGINHMM>
<NUMSTATES> 5
<STATE> 2
<MEAN> 25
 2.279767e+00 -2.078470e+00 -2.348840e+00 -1.098487e+00 -1.088789e+00 -2.310494e+00 -1.485119e+00 -1.246611e+00 -6.781830e-01 9.818757e-01 1.532569e+00 -6.183722e-01 -6.203014e-02 2.057439e-01 4.288813e-01 5.993584e-01 3.210561e-01 -7.040969e-02 -3.456561e-01 -2.327883e-01 4.800750e-02 -2.206164e-01 -4.751383e-01 -3.864557e-01 -1.023225e-01
<VARIANCE> 25
 2.437212e+01 3.598995e+01 3.732773e+01 4.785801e+01 2.830048e+01 6.839201e+01 5.259510e+01 2.940038e+01 3.600688e+01 3.180692e+01 3.303441e+01 2.210558e+01 6.868830e-01 1.007635e+00 8.398478e-01 1.482010e+00 1.199545e+00 2.793631e+00 2.316447e+00 1.818346e+00 2.581489e+00 2.231646e+00 2.033540e+00 1.305962e+00 5.032613e-01
<GCONST> 9.329943e+01
<STATE> 3
<MEAN> 25
 2.226398e+00 -1.186256e+00 -1.856519e-01 2.646945e+00 4.681896e-01 -3.796602e+00 -3.619182e+00 -2.541187e+00 -1.286541e+00 -7.854506e-01 -8.919641e-01 -2.554620e+00 1.767066e-01 1.647840e-01 4.652942e-01 1.062024e+00 2.740425e-01 -8.067362e-01 -8.171633e-01 -2.162747e-01 -1.798746e-01 -6.235746e-01 -7.311740e-01 -3.826235e-01 6.796688e-03
<VARIANCE> 25
 1.812988e+01 3.210389e+01 3.752002e+01 4.959473e+01 2.291890e+01 6.737991e+01 5.157334e+01 2.509339e+01 3.033063e+01 3.397406e+01 3.632551e+01 2.119290e+01 9.209223e-01 1.184177e+00 9.329672e-01 2.078232e+00 1.152986e+00 5.143751e+00 3.514589e+00 2.005085e+00 2.700575e+00 2.422074e+00 2.188511e+00 1.426641e+00 7.209823e-01
<GCONST> 9.510510e+01
<STATE> 4
<MEAN> 25
 2.994542e+00 -1.510003e+00 1.617666e+00 7.103196e+00 1.246547e+00 -8.826846e+00 -8.172965e+00 -2.948190e+00 -2.452070e+00 -3.580793e+00 -3.433439e+00 -4.081884e+00 -1.157186e-01 2.969866e-01 1.095694e-01 -1.755762e-01 5.725355e-02 4.631077e-01 2.258404e-01 6.335089e-02 3.553531e-02 -5.354336e-02 -7.621708e-02 1.222174e-01 -2.054585e-01
<VARIANCE> 25
 8.279058e+00 2.436697e+01 2.280139e+01 4.836908e+01 2.344476e+01 5.929554e+01 4.346938e+01 2.548080e+01 3.461555e+01 3.481138e+01 3.087956e+01 1.969199e+01 3.437260e-01 9.904955e-01 8.581525e-01 1.686459e+00 1.156315e+00 2.791740e+00 2.275026e+00 1.751174e+00 2.060128e+00 1.584108e+00 1.792595e+00 1.349579e+00 3.740942e-01
<GCONST> 8.894065e+01
<TRANSP> 5
 0.000000e+00 1.000000e+00 0.000000e+00 0.000000e+00 0.000000e+00
 0.000000e+00 4.156350e-01 5.843650e-01 0.000000e+00 0.000000e+00
 0.000000e+00 0.000000e+00 3.975196e-01 6.024804e-01 0.000000e+00
 0.000000e+00 0.000000e+00 0.000000e+00 8.723791e-01 1.276209e-01
 0.000000e+00 0.000000e+00 0.000000e+00 0.000000e+00 0.000000e+00
<ENDHMM>
~h "z"
<BEGINHMM>
<NUMSTATES> 5
<STATE> 2
<MEAN> 25
 2.369903e+00 -9.368224e-01 -5.006945e-01 1.659206e+00 -3.190662e-01 -3.913162e+00 -3.175884e+00 -2.923780e+00 -3.000716e+00 -2.027345e+00 -7.165488e-01 -1.790782e+00 8.542442e-01 -6.265822e-01 -5.587448e-01 4.890894e-01 -1.551394e-01 -1.460830e+00 -1.212312e+00 -8.700497e-01 -1.232498e+00 -5.008813e-01 2.627210e-01 -4.074642e-02 6.933466e-01
<VARIANCE> 25
 1.781220e+01 3.182279e+01 3.248569e+01 4.916428e+01 3.533360e+01 6.512028e+01 5.712421e+01 3.674301e+01 4.355903e+01 4.187160e+01 3.699572e+01 2.402326e+01 1.387139e+00 2.630008e+00 2.045608e+00 2.300304e+00 2.106707e+00 5.012895e+00 4.388730e+00 3.501645e+00 4.388402e+00 3.086101e+00 3.758174e+00 2.270952e+00 1.147046e+00
<GCONST> 1.021713e+02
<STATE> 3
<MEAN> 25
 4.585712e+00 -3.000107e+00 -2.257470e+00 2.553129e+00 -1.040082e+00 -8.111630e+00 -6.114254e+00 -4.404486e+00 -5.992636e+00 -2.938833e+00 5.376970e-01 -1.396028e+00 5.368008e-01 -7.473698e-01 -5.484014e-01 4.213419e-02 -2.255659e-01 -1.071640e+00 -6.181746e-01 -2.016412e-01 -6.476300e-01 6.468685e-02 6.075627e-01 1.497712e-01 6.432807e-01
<VARIANCE> 25
 1.002459e+01 2.542944e+01 2.836817e+01 5.543758e+01 3.551696e+01 5.719918e+01 6.232279e+01 4.172618e+01 4.769712e+01 4.450524e+01 4.528485e+01 2.859448e+01 1.199387e+00 2.971910e+00 2.185404e+00 2.271708e+00 2.256795e+00 5.510589e+00 3.644314e+00 3.115432e+00 3.984507e+00 3.370137e+00 3.861333e+00 2.278530e+00 1.291516e+00
<GCONST> 1.020063e+02
<STATE> 4
<MEAN> 25
 4.660219e+00 -4.121750e+00 -2.469309e+00 1.752072e+00 -8.626866e-01 -8.277752e+00 -6.562847e+00 -4.382290e+00 -6.297866e+00 -1.878507e+00 1.384760e+00 -1.751514e+00 -3.546430e-01 4.161197e-01 3.550867e-01 -3.715037e-01 3.382753e-01 7.698466e-01 3.909253e-01 2.624721e-01 3.601592e-01 5.246230e-02 -1.856339e-01 -2.285408e-02 -2.580115e-01
<VARIANCE> 25
 9.877804e+00 3.004505e+01 2.972907e+01 5.775684e+01 3.647322e+01 6.104750e+01 5.373900e+01 3.716360e+01 4.727892e+01 4.039633e+01 5.068972e+01 3.162671e+01 9.158521e-01 1.578419e+00 1.762491e+00 1.850087e+00 1.789467e+00 3.242779e+00 2.423556e+00 2.403631e+00 2.590190e+00 2.524764e+00 2.396788e+00 1.572879e+00 6.279655e-01
<GCONST> 9.714120e+01
<TRANSP> 5
 0.000000e+00 1.000000e+00 0.000000e+00 0.000000e+00 0.000000e+00
 0.000000e+00 3.913950e-01 6.086050e-01 0.000000e+00 0.000000e+00
 0.000000e+00 0.000000e+00 4.424286e-01 5.575714e-01 0.000000e+00
 0.000000e+00 0.000000e+00 0.000000e+00 7.905295e-01 2.094705e-01
 0.000000e+00 0.000000e+00 0.000000e+00 0.000000e+00 0.000000e+00
<ENDHMM>
~h "aa"
<BEGINHMM>
<NUMSTATES> 5
<STATE> 2
<MEAN> 25
 7.967890e-01 1.287720e+00 8.100187e-01 1.375168e+00 1.823263e+00 -3.478407e-01 -2.352140e+00 -2.371403e+00 -5.286258e-01 -7.446030e-01 -1.316708e+00 -1.506298e+00 -2.102928e-01 2.996604e-01 2.798279e-01 1.104864e-02 1.151066e-01 3.545877e-01 1.489118e-01 2.929012e-02 1.653844e-01 3.071392e-02 -1.396759e-01 -5.285457e-02 -2.213979e-01
<VARIANCE> 25
 2.136372e+01 2.386252e+01 2.794526e+01 3.481326e+01 2.309086e+01 5.666609e+01 5.362548e+01 2.952155e+01 2.906404e+01 2.411297e+01 2.786206e+01 2.088090e+01 5.458583e-01 7.204186e-01 8.340018e-01 9.776806e-01 9.715504e-01 1.905325e+00 1.703596e+00 1.407660e+00 1.502327e+00 1.320696e+00 1.396474e+00 1.052671e+00 3.158719e-01
<GCONST> 8.679436e+01
<STATE> 3
<MEAN> 25
 4.080683e-01 1.759779e+00 1.414710e+00 8.394811e-01 1.676492e+00 7.220730e-02 -1.724755e+00 -2.191417e+00 -7.458711e-01 -1.011891e+00 -1.481691e+00 -1.682095e+00 -7.084700e-02 1.440564e-01 6.515349e-02 -1.883186e-01 -8.804404e-02 1.211401e-01 1.948539e-01 6.044225e-02 -4.548370e-02 -3.163728e-02 3.878522e-02 3.335356e-02 -5.914838e-02
<VARIANCE> 25
 2.403215e+01 2.671523e+01 3.128211e+01 3.816937e+01 2.798069e+01 5.467748e+01 5.296564e+01 3.038673e+01 2.969849e+01 2.431084e+01 3.060728e+01 2.151467e+01 8.912391e-01 8.640479e-01 1.164092e+00 1.350720e+00 1.461126e+00 2.378044e+00 2.077402e+00 1.636809e+00 1.772241e+00 1.524157e+00 1.601589e+00 1.206365e+00 4.305057e-01
<GCONST> 9.075539e+01
<STATE> 4
<MEAN> 25
 -1.629701e-01 1.980264e+00 1.977080e+00 7.811342e-02 1.517466e+00 -1.809051e-01 -1.144086e+00 -1.722670e+00 -9.891906e-01 -1.025563e+00 -1.097558e+00 -1.517562e+00 1.236534e-01 -1.435268e-01 -2.597029e-01 -4.057288e-01 -4.229223e-01 -2.045374e-01 3.340539e-01 1.982723e-01 -2.001212e-01 -1.202502e-02 3.205799e-01 1.860479e-01 1.603023e-01
<VARIANCE> 25
 3.021360e+01 2.493468e+01 3.461647e+01 4.299294e+01 3.802437e+01 5.674531e+01 5.588863e+01 3.295497e+01 3.005155e+01 2.494727e+01 3.139659e+01 2.248279e+01 1.248460e+00 1.215153e+00 1.571829e+00 1.763705e+00 2.120506e+00 3.363212e+00 2.660780e+00 2.125206e+00 2.210134e+00 1.757048e+00 2.077137e+00 1.421717e+00 6.675748e-01
<GCONST> 9.542019e+01
<TRANSP> 5
 0.000000e+00 1.000000e+00 0.000000e+00 0.000000e+00 0.000000e+00
 0.000000e+00 5.015526e-01 4.984474e-01 0.000000e+00 0.000000e+00
 0.000000e+00 0.000000e+00 2.997024e-01 7.002975e-01 0.000000e+00
 0.000000e+00 0.000000e+00 0.000000e+00 4.609556e-01 5.390444e-01
 0.000000e+00 0.000000e+00 0.000000e+00 0.000000e+00 0.000000e+00
<ENDHMM>
~h "ae"
<BEGINHMM>
<NUMSTATES> 5
<STATE> 2
<MEAN> 25
 -1.746628e+00 1.448753e+00 2.198006e+00 -1.500859e+00 1.981721e+00 1.116931e+00 6.435264e-01 -2.450232e-01 3.732468e-01 -8.536789e-04 -2.041937e-01 -1.147188e+00 -2.036770e-01 -1.027666e-01 -1.015442e-02 -2.409533e-01 -2.632542e-02 9.867293e-02 3.271164e-01 1.883126e-01 2.230722e-01 2.526694e-01 2.338855e-01 1.298368e-02 1.677307e-02
<VARIANCE> 25
 3.641657e+01 2.949150e+01 4.480899e+01 4.607984e+01 4.078942e+01 5.159795e+01 4.054648e+01 2.616862e+01 4.350570e+01 3.283398e+01 3.072869e+01 2.133879e+01 1.185637e+00 9.909204e-01 1.714943e+00 1.544013e+00 1.466564e+00 2.081817e+00 2.102710e+00 1.678163e+00 2.182541e+00 1.827592e+00 1.851797e+00 1.323108e+00 5.122237e-01
<GCONST> 9.405046e+01
<STATE> 3
<MEAN> 25
 1.001217e-01 -6.246929e-01 -3.221635e-01 -1.616008e+00 -7.060326e-02 -2.831171e-01 6.105089e-01 -5.808807e-01 -6.450351e-01 5.871927e-01 1.306474e+00 -6.907456e-01 6.919898e-01 -8.968468e-01 -9.476877e-01 -2.989666e-01 -6.277831e-01 -6.511591e-01 2.653649e-02 -8.384134e-03 -5.618620e-01 1.818205e-01 6.262892e-01 5.137742e-02 6.932917e-01
<VARIANCE> 25
 3.447904e+01 3.615871e+01 5.360847e+01 4.316358e+01 3.792902e+01 5.547472e+01 4.469560e+01 2.720013e+01 4.622414e+01 3.856351e+01 3.483068e+01 2.225202e+01 1.858827e+00 2.783040e+00 3.171028e+00 2.270854e+00 2.135878e+00 3.610563e+00 3.069650e+00 2.282443e+00 3.698078e+00 2.561829e+00 3.055722e+00 1.792303e+00 1.539867e+00
<GCONST> 1.017034e+02
<STATE> 4
<MEAN> 25
 3.357157e+00 -5.158640e+00 -5.464740e+00 -3.835623e+00 -3.143028e+00 -1.134788e+00 1.820397e+00 7.243837e-01 -2.427768e+00 5.488113e-01 2.593745e+00 -3.168769e-02 2.930382e-01 -3.988431e-01 -3.381076e-01 -1.089798e-01 -2.403038e-01 -2.521992e-01 -3.784357e-02 -3.042008e-02 -3.077877e-01 -5.675201e-02 1.214651e-01 2.519208e-03 3.515008e-01
<VARIANCE> 25
 2.475795e+01 5.179121e+01 5.661593e+01 4.435564e+01 3.858343e+01 5.828551e+01 4.868153e+01 2.858349e+01 4.404953e+01 3.856335e+01 3.498617e+01 2.098520e+01 7.986565e-01 1.837601e+00 1.631170e+00 1.455686e+00 1.372129e+00 2.824352e+00 2.229689e+00 1.678634e+00 2.251034e+00 1.801740e+00 1.863642e+00 1.327090e+00 9.286463e-01
<GCONST> 9.607906e+01
<TRANSP> 5
 0.000000e+00 1.000000e+00 0.000000e+00 0.000000e+00 0.000000e+00
 0.000000e+00 4.527672e-01 5.472328e-01 0.000000e+00 0.000000e+00
 0.000000e+00 0.000000e+00 4.061221e-01 5.938780e-01 0.000000e+00
 0.000000e+00 0.000000e+00 0.000000e+00 5.584862e-01 4.415138e-01
 0.000000e+00 0.000000e+00 0.000000e+00 0.000000e+00 0.000000e+00
<ENDHMM>
~h "ah"
<BEGINHMM>
<NUMSTATES> 5
<STATE> 2
<MEAN> 25
 7.993279e-01 1.936816e+00 5.769850e-01 -5.206684e-01 2.519265e-01 9.654478e-01 -2.890105e-01 -9.569703e-01 -4.438351e-01 -1.044061e+00 -1.296795e+00 -6.710535e-01 -1.918532e-01 1.307978e-01 1.184468e-01 -1.044475e-03 1.578192e-02 3.288753e-01 2.681102e-01 1.217513e-01 2.204704e-01 1.455299e-01 4.651498e-02 8.082268e-02 -1.984436e-01
<VARIANCE> 25
 2.167601e+01 3.125027e+01 3.089238e+01 3.239882e+01 2.975411e+01 4.472647e+01 3.435445e+01 2.829625e+01 4.113117e+01 2.940635e+01 2.999376e+01 1.878634e+01 4.480128e-01 7.039516e-01 8.038109e-01 7.915496e-01 9.248865e-01 1.369573e+00 1.292140e+00 1.391831e+00 1.661359e+00 1.301303e+00 1.292380e+00 9.739686e-01 2.892596e-01
<GCONST> 8.585675e+01
<STATE> 3
<MEAN> 25
 1.166403e+00 1.269331e+00 1.172771e-01 -7.716926e-01 -2.928678e-01 2.722906e-01 -1.755264e-01 -9.878213e-01 -1.110982e+00 -1.213009e+00 -8.824335e-01 -7.882478e-01 1.003140e-01 -1.705692e-01 -2.139397e-01 -5.486401e-02 -1.584533e-01 -1.000477e-01 1.075227e-01 -1.344714e-01 -2.811811e-01 -2.093439e-02 2.569497e-01 1.115717e-01 8.888843e-02
<VARIANCE> 25
 2.357252e+01 3.540136e+01 3.343017e+01 3.585171e+01 3.336947e+01 4.965479e+01 3.782703e+01 3.048482e+01 4.482753e+01 3.165607e+01 3.305407e+01 1.995851e+01 7.713921e-01 1.448007e+00 1.438145e+00 1.174869e+00 1.470750e+00 2.268148e+00 1.798816e+00 1.976328e+00 2.824299e+00 1.830766e+00 1.984885e+00 1.281780e+00 6.338541e-01
<GCONST> 9.320428e+01
<STATE> 4
<MEAN> 25
 3.037533e+00 -8.148437e-01 -1.927699e+00 -1.603199e+00 -2.057845e+00 -2.073635e+00 -1.449757e-01 -2.000262e+00 -5.124485e+00 -2.164034e+00 1.530496e+00 3.947284e-01 2.948591e-01 -3.799846e-01 -3.524815e-01 -9.837096e-02 -2.519929e-01 -4.873377e-01 -5.213235e-02 -7.706035e-02 -4.699574e-01 -1.398509e-01 3.168135e-01 1.473783e-01 3.393389e-01
<VARIANCE> 25
 2.031247e+01 3.577964e+01 3.203789e+01 3.426685e+01 3.791391e+01 5.074633e+01 4.111811e+01 3.964863e+01 6.691543e+01 3.737918e+01 4.025032e+01 2.186034e+01 1.217016e+00 2.707977e+00 1.949631e+00 1.520748e+00 2.098457e+00 4.489214e+00 2.725224e+00 2.890003e+00 5.035156e+00 2.603480e+00 3.297170e+00 1.651123e+00 1.406075e+00
<GCONST> 1.002944e+02
<TRANSP> 5
 0.000000e+00 1.000000e+00 0.000000e+00 0.000000e+00 0.000000e+00
 0.000000e+00 4.609154e-01 5.390846e-01 0.000000e+00 0.000000e+00
 0.000000e+00 0.000000e+00 1.921766e-01 8.078234e-01 0.000000e+00
 0.000000e+00 0.000000e+00 0.000000e+00 5.070309e-01 4.929691e-01
 0.000000e+00 0.000000e+00 0.000000e+00 0.000000e+00 0.000000e+00
<ENDHMM>
~h "ao"
<BEGINHMM>
<NUMSTATES> 5
<STATE> 2
<MEAN> 25
 3.055787e+00 -2.272435e+00 7.782203e-01 6.726258e+00 1.469702e+00 -9.499864e+00 -8.609403e+00 -3.388989e+00 -1.858484e+00 -2.544152e+00 -2.972072e+00 -3.730756e+00 4.196767e-03 1.385849e-01 1.926219e-01 2.364679e-01 8.681466e-02 -2.091957e-01 -2.388406e-01 -3.334503e-03 7.047825e-02 -1.616651e-01 -3.204005e-01 -1.625551e-01 -4.558397e-02
<VARIANCE> 25
 1.193254e+01 2.713945e+01 2.663981e+01 4.747319e+01 2.541326e+01 7.341883e+01 4.906643e+01 2.676394e+01 3.060495e+01 3.266037e+01 3.102663e+01 1.802105e+01 4.162000e-01 8.278798e-01 7.474844e-01 1.084029e+00 9.781877e-01 2.689362e+00 2.123557e+00 1.631829e+00 1.489743e+00 1.438228e+00 1.292482e+00 1.030794e+00 3.353389e-01
<GCONST> 8.770564e+01
<STATE> 3
<MEAN> 25
 2.612581e+00 -3.974378e-01 5.293158e-01 4.214432e+00 1.728137e+00 -5.533184e+00 -6.465312e+00 -3.470835e+00 -1.895885e+00 -2.215870e+00 -2.679097e+00 -3.181076e+00 -1.301830e-01 4.721444e-01 9.296445e-02 -3.842197e-01 1.032018e-01 6.870824e-01 3.486907e-01 2.972502e-02 4.591685e-02 -4.414133e-02 -3.169386e-02 1.515316e-01 -2.489559e-01
<VARIANCE> 25
 1.616503e+01 2.618211e+01 2.688076e+01 5.382239e+01 3.238386e+01 6.574754e+01 6.084706e+01 3.099861e+01 3.510734e+01 2.889375e+01 3.403790e+01 2.329316e+01 7.247632e-01 8.590563e-01 1.036093e+00 1.245960e+00 1.684062e+00 3.266888e+00 1.915969e+00 1.851261e+00 1.910712e+00 1.625976e+00 1.535959e+00 1.090450e+00 4.711993e-01
<GCONST> 9.172495e+01
<STATE> 4
<MEAN> 25
 1.291043e+00 7.657841e-01 1.107783e+00 3.763017e-02 4.729128e-01 -3.736834e+00 -2.884040e+00 -1.480449e+00 -1.895038e+00 -2.265546e+00 -1.586548e+00 -2.430020e+00 -1.638688e-01 2.419538e-01 -4.418290e-03 -7.011970e-01 -2.517863e-01 4.025617e-01 6.564221e-01 3.695589e-01 8.088631e-02 -7.254529e-03 1.468615e-01 2.992955e-01 -9.321754e-02
<VARIANCE> 25
 3.215266e+01 2.418087e+01 3.681588e+01 5.977972e+01 8.599362e+01 5.868379e+01 6.624306e+01 5.662690e+01 3.904522e+01 2.932587e+01 3.156413e+01 2.446485e+01 1.517913e+00 1.193790e+00 1.635994e+00 1.794259e+00 2.600143e+00 3.756489e+00 2.802318e+00 2.328097e+00 2.600483e+00 2.120513e+00 1.940138e+00 1.516539e+00 6.938881e-01
<GCONST> 9.899523e+01
<TRANSP> 5
 0.000000e+00 1.000000e+00 0.000000e+00 0.000000e+00 0.000000e+00
 0.000000e+00 7.063043e-01 2.936957e-01 0.000000e+00 0.000000e+00
 0.000000e+00 0.000000e+00 3.918657e-01 6.081343e-01 0.000000e+00
 0.000000e+00 0.000000e+00 0.000000e+00 5.577722e-01 4.422278e-01
 0.000000e+00 0.000000e+00 0.000000e+00 0.000000e+00 0.000000e+00
<ENDHMM>
~h "aw"
<BEGINHMM>
<NUMSTATES> 5
<STATE> 2
<MEAN> 25
 3.510180e+00 7.813617e-01 -1.293663e+00 -8.218865e-02 -7.230170e-01 -3.310644e+00 -3.153664e+00 -2.353424e+00 -2.864883e+00 -2.593881e+00 -1.389056e+00 -1.284011e+00 -3.246099e-01 4.400061e-01 3.793712e-01 1.096823e-01 2.697125e-01 5.957276e-01 1.353375e-01 4.331301e-02 4.277709e-01 8.912641e-03 -3.697515e-01 -8.918492e-02 -3.749558e-01
<VARIANCE> 25
 1.357224e+01 2.017629e+01 2.111625e+01 4.059373e+01 2.943073e+01 4.590541e+01 4.198422e+01 2.836791e+01 3.265222e+01 2.642272e+01 2.643385e+01 1.904298e+01 3.084468e-01 6.230309e-01 6.350771e-01 7.831883e-01 8.302730e-01 1.447273e+00 1.365416e+00 1.269744e+00 1.380766e+00 1.246448e+00 1.243200e+00 8.524869e-01 2.313786e-01
<GCONST> 8.310931e+01
<STATE> 3
<MEAN> 25
 2.563008e+00 2.305563e+00 6.460512e-01 5.867780e-01 -3.866792e-01 -2.224630e+00 -2.998623e+00 -2.298802e+00 -1.942381e+00 -2.816061e+00 -2.969833e+00 -2.188432e+00 -3.576717e-01 2.412101e-01 3.121285e-01 6.305584e-02 2.104616e-01 6.067430e-01 3.519074e-01 1.679795e-01 3.253537e-01 1.404748e-01 -1.351216e-01 9.510842e-04 -3.226004e-01
<VARIANCE> 25
 1.334195e+01 1.497237e+01 1.642603e+01 3.652412e+01 2.856619e+01 4.202810e+01 3.793142e+01 2.355662e+01 2.757669e+01 2.212858e+01 2.456946e+01 1.676111e+01 2.418461e-01 4.578635e-01 4.896883e-01 6.630595e-01 7.228832e-01 1.180201e+00 1.148544e+00 1.116014e+00 1.045009e+00 1.009194e+00 1.035672e+00 7.609411e-01 1.425239e-01
<GCONST> 7.859176e+01
<STATE> 4
<MEAN> 25
 -2.094020e+00 1.850748e+00 1.954904e+00 1.169422e+00 1.585594e+00 3.012574e+00 7.761477e-01 3.072385e-01 2.014199e+00 7.510761e-01 -1.143057e+00 -9.078150e-03 -1.032711e-01 -1.665636e-02 2.643914e-02 1.482154e-02 2.350196e-02 7.643644e-02 8.215685e-02 5.547062e-02 8.136818e-02 7.957811e-02 6.303611e-02 4.763134e-02 -6.611539e-02
<VARIANCE> 25
 1.167757e+01 8.966816e+00 9.097774e+00 1.002875e+01 9.405328e+00 2.045811e+01 1.699315e+01 1.412805e+01 2.073803e+01 1.687466e+01 1.456942e+01 1.099390e+01 1.588432e-01 2.438226e-01 3.351450e-01 4.148931e-01 4.525785e-01 6.595966e-01 7.542128e-01 7.881224e-01 8.281345e-01 8.276049e-01 8.032528e-01 6.438815e-01 6.969404e-02
<GCONST> 6.613232e+01
<TRANSP> 5
 0.000000e+00 1.000000e+00 0.000000e+00 0.000000e+00 0.000000e+00
 0.000000e+00 6.469830e-01 3.530170e-01 0.000000e+00 0.000000e+00
 0.000000e+00 0.000000e+00 6.452360e-01 3.547640e-01 0.000000e+00
 0.000000e+00 0.000000e+00 0.000000e+00 9.474003e-01 5.259966e-02
 0.000000e+00 0.000000e+00 0.000000e+00 0.000000e+00 0.000000e+00
<ENDHMM>
~h "ax"
<BEGINHMM>
<NUMSTATES> 5
<STATE> 2
<MEAN> 25
 3.469938e+00 -1.522895e+00 -2.430114e+00 -9.577122e-01 -1.445617e+00 -4.027490e+00 -2.330910e+00 -1.676681e+00 -3.498820e+00 -1.819048e+00 4.282597e-01 -7.600484e-01 -7.472178e-02 1.676559e-01 6.622219e-02 -1.498168e-01 -1.287594e-01 1.643389e-01 2.778682e-01 1.833120e-01 1.866393e-01 6.023905e-02 -5.951573e-02 -3.206645e-02 -1.106816e-01
<VARIANCE> 25
 1.888013e+01 3.400811e+01 3.453794e+01 4.427359e+01 3.896781e+01 6.178814e+01 5.122869e+01 3.306035e+01 4.742836e+01 4.075893e+01 3.660658e+01 2.354118e+01 6.887290e-01 1.189978e+00 1.206508e+00 1.321269e+00 1.557565e+00 2.341342e+00 2.018491e+00 1.713243e+00 2.151899e+00 1.713331e+00 1.874243e+00 1.349846e+00 5.425336e-01
<GCONST> 9.371445e+01
<STATE> 3
<MEAN> 25
 3.606965e+00 -2.041419e+00 -3.048827e+00 -1.982959e+00 -2.817661e+00 -3.822959e+00 -9.745343e-01 -1.170653e+00 -3.627938e+00 -1.150440e+00 1.524303e+00 -2.710908e-01 1.419493e-01 -1.211197e-01 -9.008543e-02 -1.230182e-01 -2.956059e-01 -1.424585e-01 2.025472e-01 8.675168e-02 -1.634154e-01 -3.588463e-02 9.673157e-02 -1.130953e-02 1.599441e-01
<VARIANCE> 25
 1.787123e+01 3.461656e+01 3.512471e+01 4.749173e+01 4.425756e+01 5.919666e+01 5.820213e+01 3.354953e+01 4.635159e+01 4.010883e+01 4.079104e+01 2.618014e+01 1.145368e+00 2.112674e+00 1.736515e+00 1.628543e+00 2.077877e+00 3.439850e+00 2.641414e+00 1.963735e+00 3.345329e+00 1.987918e+00 2.459713e+00 1.438458e+00 1.274081e+00
<GCONST> 9.867975e+01
<STATE> 4
<MEAN> 25
 4.657396e+00 -1.923628e+00 -3.600846e+00 -2.385178e+00 -3.814997e+00 -5.046917e+00 -1.321226e+00 -1.160871e+00 -4.019827e+00 -1.713313e+00 1.093553e+00 -3.658927e-01 -2.096940e-01 4.637107e-01 3.041790e-01 1.366052e-01 3.128701e-01 5.188703e-01 5.668525e-02 -5.991202e-02 2.344730e-01 -9.477107e-02 -3.154461e-01 -1.815704e-02 -3.440926e-01
<VARIANCE> 25
 1.237155e+01 3.199347e+01 2.842175e+01 4.364801e+01 4.381884e+01 5.217271e+01 5.926021e+01 3.183772e+01 4.182521e+01 3.733838e+01 3.885693e+01 2.523916e+01 4.358487e-01 1.058009e+00 7.795560e-01 8.829081e-01 1.180744e+00 2.288828e+00 1.911681e+00 1.545470e+00 1.984761e+00 1.749735e+00 1.745527e+00 1.195706e+00 4.717908e-01
<GCONST> 9.072958e+01
<TRANSP> 5
 0.000000e+00 1.000000e+00 0.000000e+00 0.000000e+00 0.000000e+00
 0.000000e+00 3.000805e-01 6.999195e-01 0.000000e+00 0.000000e+00
 0.000000e+00 0.000000e+00 3.640222e-01 6.359778e-01 0.000000e+00
 0.000000e+00 0.000000e+00 0.000000e+00 6.421061e-01 3.578939e-01
 0.000000e+00 0.000000e+00 0.000000e+00 0.000000e+00 0.000000e+00
<ENDHMM>
~h "ay"
<BEGINHMM>
<NUMSTATES> 5
<STATE> 2
<MEAN> 25
 -3.911350e-01 2.230064e+00 9.808857e-01 -2.849806e-01 9.615793e-01 2.293907e+00 5.462915e-01 -3.359632e-01 4.422841e-01 -7.406716e-01 -1.404240e+00 -2.959927e-01 -3.302460e-01 2.219413e-01 2.494896e-01 1.783358e-02 1.557733e-01 4.786039e-01 2.820162e-01 1.763933e-01 3.429117e-01 1.387416e-01 -6.460126e-02 6.683658e-02 -2.934810e-01
<VARIANCE> 25
 2.125012e+01 1.546751e+01 2.170654e+01 2.562039e+01 2.045971e+01 3.641580e+01 3.321813e+01 2.311649e+01 3.267358e+01 2.353502e+01 2.181113e+01 1.626430e+01 3.005045e-01 4.228974e-01 5.462074e-01 6.233892e-01 6.472346e-01 1.114939e+00 1.091846e+00 1.017429e+00 1.148702e+00 1.008295e+00 1.028908e+00 8.067864e-01 1.700475e-01
<GCONST> 7.866425e+01
<STATE> 3
<MEAN> 25
 -9.326077e-01 2.199356e+00 1.506343e+00 -4.934175e-01 1.374042e+00 2.377908e+00 8.087311e-01 -3.167032e-01 5.737083e-01 -6.099555e-01 -1.201628e+00 -7.558354e-01 -1.810426e-01 5.372699e-02 6.088074e-02 2.576172e-03 2.698397e-02 2.295190e-01 2.135988e-01 7.115740e-02 1.639292e-01 1.530896e-01 1.041151e-01 8.388308e-02 -1.500351e-01
<VARIANCE> 25
 2.429663e+01 2.143637e+01 2.708374e+01 2.916567e+01 2.470959e+01 4.141046e+01 3.478476e+01 2.375871e+01 3.291639e+01 2.508409e+01 2.524368e+01 1.795658e+01 5.448575e-01 5.895872e-01 9.228426e-01 8.895359e-01 8.380243e-01 1.435484e+00 1.409257e+00 1.222024e+00 1.437898e+00 1.202703e+00 1.281357e+00 9.774054e-01 2.810675e-01
<GCONST> 8.425398e+01
<STATE> 4
<MEAN> 25
 -5.342744e-01 1.394884e+00 7.557694e-01 -8.103077e-01 1.131351e+00 1.674199e+00 6.756206e-01 -5.988284e-01 -7.580193e-03 -3.162038e-01 -3.720604e-01 -5.029097e-01 2.402366e-01 -3.401558e-01 -3.720479e-01 -2.036715e-02 -1.950069e-01 -3.527513e-01 -1.284581e-01 -1.009883e-01 -1.741584e-01 1.023734e-01 2.988205e-01 8.576198e-02 2.302981e-01
<VARIANCE> 25
 2.675506e+01 2.528853e+01 3.566125e+01 3.071918e+01 2.673000e+01 4.333838e+01 4.000545e+01 2.511909e+01 3.193163e+01 2.677123e+01 2.720667e+01 1.868714e+01 1.081952e+00 1.366884e+00 1.816153e+00 1.561524e+00 1.387544e+00 2.544290e+00 2.181643e+00 1.854584e+00 2.186358e+00 1.728688e+00 1.924819e+00 1.342410e+00 7.374820e-01
<GCONST> 9.247983e+01
<TRANSP> 5
 0.000000e+00 1.000000e+00 0.000000e+00 0.000000e+00 0.000000e+00
 0.000000e+00 7.607111e-01 2.392889e-01 0.000000e+00 0.000000e+00
 0.000000e+00 0.000000e+00 3.950700e-01 6.049300e-01 0.000000e+00
 0.000000e+00 0.000000e+00 0.000000e+00 4.948106e-01 5.051894e-01
 0.000000e+00 0.000000e+00 0.000000e+00 0.000000e+00 0.000000e+00
<ENDHMM>
~h "ch"
<BEGINHMM>
<NUMSTATES> 5
<STATE> 2
<MEAN> 25
 2.154502e+00 -6.844395e-01 -1.346527e+00 -1.150712e+00 -2.213492e+00 -1.879284e+00 4.775850e-01 -8.304546e-01 -3.198051e+00 -2.093316e+00 5.566471e-01 -4.409342e-01 6.398301e-01 -1.007781e+00 -4.782558e-01 5.451914e-02 -8.569271e-01 -1.541143e+00 -1.916468e-01 5.174853e-02 -9.800656e-01 -5.183434e-01 5.616876e-01 -1.022508e-01 8.693818e-01
<VARIANCE> 25
 2.690966e+01 3.528831e+01 5.050921e+01 4.388935e+01 3.666023e+01 6.627293e+01 6.065184e+01 3.689296e+01 4.922806e+01 4.344548e+01 3.925719e+01 2.546826e+01 1.462886e+00 2.288301e+00 2.822294e+00 2.831383e+00 2.519371e+00 4.177993e+00 3.985413e+00 3.803252e+00 3.930450e+00 3.070175e+00 3.661692e+00 2.387073e+00 8.998801e-01
<GCONST> 1.035029e+02
<STATE> 3
<MEAN> 25
 4.135393e+00 -3.767958e+00 -2.497659e+00 9.548818e-01 -2.543454e+00 -7.166055e+00 -2.611280e+00 -1.586297e+00 -6.000646e+00 -3.351432e+00 1.597823e+00 -8.717479e-01 4.826043e-01 -1.016549e+00 -3.894885e-01 3.123729e-01 -3.914693e-01 -1.543735e+00 -6.108772e-01 1.351211e-01 -6.114106e-01 -9.020432e-02 4.750718e-01 -9.963814e-02 7.521707e-01
<VARIANCE> 25
 1.944555e+01 3.389351e+01 4.859510e+01 5.886454e+01 4.310369e+01 6.312629e+01 6.888921e+01 4.735331e+01 5.011377e+01 4.745701e+01 4.478187e+01 2.922895e+01 1.196036e+00 2.339048e+00 2.298852e+00 2.719776e+00 1.761849e+00 4.963513e+00 4.965518e+00 3.689797e+00 3.272755e+00 3.713012e+00 3.461702e+00 2.117955e+00 8.772640e-01
<GCONST> 1.036435e+02
<STATE> 4
<MEAN> 25
 5.349982e+00 -5.737962e+00 -4.404906e+00 1.819050e-01 -4.479618e+00 -1.025579e+01 -2.543037e+00 4.219965e-01 -5.894308e+00 -4.088049e+00 4.285444e-01 -1.705934e+00 -1.053626e-01 2.600553e-01 1.168549e-01 -6.877436e-02 1.610163e-01 3.721673e-01 -3.534870e-02 -1.210804e-01 2.373230e-01 -2.010365e-03 -2.654246e-01 -1.085228e-01 -1.820471e-01
<VARIANCE> 25
 9.123211e+00 3.251020e+01 3.963297e+01 8.887683e+01 5.857420e+01 5.861237e+01 8.515528e+01 5.514703e+01 4.589902e+01 4.359654e+01 4.966745e+01 3.016046e+01 3.732488e-01 1.420805e+00 1.182160e+00 1.292841e+00 1.264588e+00 2.930752e+00 2.639236e+00 2.110097e+00 2.081367e+00 2.366689e+00 2.269441e+00 1.380274e+00 5.256248e-01
<GCONST> 9.622552e+01
<TRANSP> 5
 0.000000e+00 1.000000e+00 0.000000e+00 0.000000e+00 0.000000e+00
 0.000000e+00 4.351802e-01 5.648198e-01 0.000000e+00 0.000000e+00
 0.000000e+00 0.000000e+00 4.185228e-01 5.814772e-01 0.000000e+00
 0.000000e+00 0.000000e+00 0.000000e+00 8.300508e-01 1.699492e-01
 0.000000e+00 0.000000e+00 0.000000e+00 0.000000e+00 0.000000e+00
<ENDHMM>
~h "dh"
<BEGINHMM>
<NUMSTATES> 5
<STATE> 2
<MEAN> 25
 1.834246e+00 -5.728198e-02 -6.894941e-01 -1.173206e+00 -6.219479e-01 -1.457697e+00 -6.854103e-01 -4.512877e-01 -1.647560e+00 -1.678785e+00 -6.529060e-01 -1.156865e+00 -1.792695e-01 4.747266e-01 4.530525e-01 1.016702e-01 2.180179e-01 4.853933e-01 1.435529e-01 -4.353445e-03 2.458204e-01 -3.165708e-02 -3.402981e-01 -1.945167e-01 -2.384934e-01
<VARIANCE> 25
 2.819235e+01 3.419360e+01 4.296971e+01 4.856427e+01 4.233334e+01 6.352459e+01 4.936284e+01 3.398195e+01 4.447151e+01 3.549712e+01 3.555053e+01 2.176777e+01 6.889349e-01 9.831128e-01 9.916097e-01 1.022578e+00 9.786052e-01 1.826382e+00 1.824482e+00 1.977497e+00 2.428454e+00 1.836488e+00 1.688438e+00 1.259811e+00 4.258913e-01
<GCONST> 9.268352e+01
<STATE> 3
<MEAN> 25
 1.829659e+00 8.765261e-01 1.216465e-01 -4.927070e-01 -3.195376e-01 -9.021704e-01 -9.585931e-01 -1.211427e+00 -1.927217e+00 -1.978656e+00 -1.318902e+00 -1.520556e+00 -1.428620e-02 3.962296e-01 2.996927e-01 1.486676e-01 1.415893e-01 2.775823e-01 -6.555270e-02 -2.717554e-01 -2.096507e-02 -4.739988e-02 -1.503044e-01 -4.879969e-02 -1.477890e-01
<VARIANCE> 25
 2.404775e+01 3.863174e+01 4.253824e+01 4.405471e+01 3.966311e+01 5.827298e+01 4.584816e+01 3.358002e+01 3.962722e+01 3.203971e+01 3.621856e+01 2.084422e+01 7.728766e-01 1.032522e+00 9.603444e-01 9.330655e-01 9.645834e-01 1.958662e+00 2.106141e+00 2.307647e+00 2.727829e+00 1.802540e+00 1.747034e+00 1.276950e+00 4.878992e-01
<GCONST> 9.273422e+01
<STATE> 4
<MEAN> 25
 2.310518e+00 9.825307e-01 -2.898154e-01 -7.566867e-01 -9.360870e-01 -1.180357e+00 -8.519445e-01 -1.374476e+00 -2.413608e+00 -2.142317e+00 -9.192768e-01 -1.013527e+00 -6.683797e-02 2.342273e-01 1.497175e-01 1.028365e-01 1.070915e-01 2.367298e-01 -1.357452e-02 -1.588107e-01 5.731333e-02 7.275467e-02 -6.477747e-03 7.377515e-02 -1.629074e-01
<VARIANCE> 25
 2.072614e+01 3.814392e+01 3.923087e+01 4.116121e+01 4.142897e+01 5.553724e+01 4.493313e+01 3.593188e+01 4.122677e+01 3.227810e+01 3.525533e+01 2.123115e+01 5.709317e-01 1.033653e+00 9.525023e-01 9.002571e-01 1.038762e+00 2.085324e+00 1.850889e+00 1.864640e+00 2.330764e+00 1.593059e+00 1.717108e+00 1.228060e+00 4.628048e-01
<GCONST> 9.156410e+01
<TRANSP> 5
 0.000000e+00 1.000000e+00 0.000000e+00 0.000000e+00 0.000000e+00
 0.000000e+00 3.509007e-01 6.490993e-01 0.000000e+00 0.000000e+00
 0.000000e+00 0.000000e+00 2.767156e-01 7.232844e-01 0.000000e+00
 0.000000e+00 0.000000e+00 0.000000e+00 3.874047e-01 6.125953e-01
 0.000000e+00 0.000000e+00 0.000000e+00 0.000000e+00 0.000000e+00
<ENDHMM>
~h "eh"
<BEGINHMM>
<NUMSTATES> 5
<STATE> 2
<MEAN> 25
 1.464000e+00 -5.438949e-02 -6.019977e-01 -1.296941e+00 -6.463488e-01 -1.630788e+00 -4.327402e-01 -8.122931e-01 -1.639659e+00 -1.150353e+00 1.153749e-02 -8.657268e-01 2.964604e-01 -2.471170e-01 -2.677195e-01 1.260325e-02 -2.496236e-01 -5.937010e-01 -1.608593e-01 -1.095650e-01 -3.096170e-01 -1.194713e-01 1.605023e-01 -2.830193e-02 2.796448e-01
<VARIANCE> 25
 3.147814e+01 3.712691e+01 4.353442e+01 4.672087e+01 4.510924e+01 6.205050e+01 5.312868e+01 3.398111e+01 4.435558e+01 3.651877e+01 3.338064e+01 2.209069e+01 9.986958e-01 1.699370e+00 1.411899e+00 1.562195e+00 1.707324e+00 3.810664e+00 2.747831e+00 2.312704e+00 2.886995e+00 2.006752e+00 2.121891e+00 1.471541e+00 8.138230e-01
<GCONST> 9.778832e+01
<STATE> 3
<MEAN> 25
 3.018780e+00 -1.588503e+00 -1.989080e+00 -6.594297e-01 -1.815253e+00 -4.330730e+00 -1.593342e+00 -1.312538e+00 -3.146167e+00 -1.512629e+00 9.478007e-01 -7.480861e-01 4.872759e-01 -6.981725e-01 -4.446094e-01 1.759805e-01 -3.384414e-01 -1.114666e+00 -4.485958e-01 -9.891831e-02 -4.342385e-01 -1.429300e-02 3.998120e-01 -8.390184e-02 5.758089e-01
<VARIANCE> 25
 2.501243e+01 3.585306e+01 4.075211e+01 5.093192e+01 4.595202e+01 6.643697e+01 6.120838e+01 3.984564e+01 4.727539e+01 4.154787e+01 3.733652e+01 2.371553e+01 1.121586e+00 2.751551e+00 1.738733e+00 1.734631e+00 1.859299e+00 5.215154e+00 3.370040e+00 2.547753e+00 3.481349e+00 2.583527e+00 2.965604e+00 1.815700e+00 1.262852e+00
<GCONST> 1.013421e+02
<STATE> 4
<MEAN> 25
 4.301481e+00 -2.568434e+00 -2.949852e+00 -1.089980e+00 -3.401625e+00 -6.577400e+00 -2.083882e+00 -4.672715e-01 -3.260479e+00 -1.953833e+00 6.147345e-01 -1.292428e+00 -1.368649e-02 2.820202e-02 4.494705e-02 1.062254e-01 1.554480e-01 8.264084e-02 -1.331360e-01 -1.275806e-01 4.599052e-02 5.611910e-02 -7.630949e-02 -8.315937e-02 -3.145206e-02
<VARIANCE> 25
 1.907853e+01 3.933020e+01 3.995333e+01 6.020203e+01 5.140508e+01 7.163430e+01 6.637143e+01 4.225150e+01 4.230689e+01 4.260409e+01 4.138055e+01 2.512831e+01 4.677740e-01 1.377297e+00 9.979873e-01 1.052932e+00 1.248307e+00 2.589238e+00 1.982101e+00 1.716260e+00 2.009895e+00 1.800716e+00 1.773121e+00 1.253076e+00 5.500284e-01
<GCONST> 9.444102e+01
<TRANSP> 5
 0.000000e+00 1.000000e+00 0.000000e+00 0.000000e+00 0.000000e+00
 0.000000e+00 2.371612e-01 7.628388e-01 0.000000e+00 0.000000e+00
 0.000000e+00 0.000000e+00 3.524725e-01 6.475275e-01 0.000000e+00
 0.000000e+00 0.000000e+00 0.000000e+00 5.509492e-01 4.490508e-01
 0.000000e+00 0.000000e+00 0.000000e+00 0.000000e+00 0.000000e+00
<ENDHMM>
~h "el"
<BEGINHMM>
<NUMSTATES> 5
<STATE> 2
<MEAN> 25
 3.360238e+00 3.564018e+00 -7.736456e-01 -1.661774e+00 3.598074e-01 2.806038e-02 -2.378311e+00 -7.769957e-01 -1.999835e+00 -4.424179e+00 -5.087165e+00 -3.145546e+00 -5.628933e-01 3.041075e-01 2.562382e-01 7.697286e-02 2.793007e-01 1.334510e+00 7.485284e-01 -3.287664e-01 8.255638e-01 8.897317e-01 4.558156e-01 5.606223e-01 -5.351001e-01
<VARIANCE> 25
 7.213555e+00 8.364817e+00 7.183585e+00 7.876297e+00 1.343574e+01 4.625280e+01 2.422114e+01 1.124310e+01 2.644394e+01 6.798446e+01 2.613358e+01 1.721152e+01 3.824253e-01 4.857637e-01 1.069034e+00 7.529203e-01 6.642665e-01 1.674649e+00 1.493229e+00 6.017583e-01 8.567395e-01 1.812283e+00 1.598627e+00 6.191818e-01 1.756939e-01
<GCONST> 7.651473e+01
<STATE> 3
<MEAN> 25
 1.598789e+00 5.495942e+00 2.878583e+00 7.290720e-01 2.358366e+00 4.381264e+00 -7.804700e-01 -2.563508e+00 6.245058e-01 2.219846e-01 -1.693304e+00 -1.060041e+00 -3.856643e-01 1.743571e-01 4.508764e-01 3.158967e-01 2.838018e-01 6.536350e-01 3.255390e-01 4.992395e-02 5.780712e-02 9.910164e-02 1.712720e-01 2.799136e-01 -3.291194e-01
<VARIANCE> 25
 7.988873e+00 1.122166e+01 9.241294e+00 5.871775e+00 9.067451e+00 2.956332e+01 1.387044e+01 7.053508e+00 9.816289e+00 1.204177e+01 4.896592e+00 2.305783e+01 6.871270e-02 6.405092e-01 6.699137e-01 3.207563e-01 4.902293e-01 1.227111e+00 6.290832e-01 1.046468e+00 1.367675e+00 1.527173e+00 9.039343e-01 9.627563e-01 7.997567e-02
<GCONST> 6.659440e+01
<STATE> 4
<MEAN> 25
 -3.270606e+00 -1.776414e-02 4.151413e-01 7.185417e-01 3.240935e+00 7.966523e+00 4.155154e+00 -3.389197e-01 8.271188e-01 4.437703e+00 4.189652e+00 2.016860e+00 3.703289e-02 -3.331172e-01 -1.914827e-01 1.018092e-01 -1.032128e-01 -3.999408e-01 -4.779235e-02 5.862797e-02 -1.062125e-01 -1.085121e-01 1.565690e-01 -6.419634e-02 1.666438e-01
<VARIANCE> 25
 4.960845e+00 1.359396e+01 8.695403e+00 3.707970e+00 3.696434e+00 6.063390e+00 9.896779e+00 1.001505e+01 1.459079e+01 1.169512e+01 2.406886e+01 6.989813e+00 4.490186e-01 1.940818e+00 1.016823e+00 5.856304e-01 3.609655e-01 1.165485e+00 1.127641e+00 1.317883e+00 1.473197e+00 7.948105e-01 1.276257e+00 7.522283e-01 3.366731e-01
<GCONST> 6.950499e+01
<TRANSP> 5
 0.000000e+00 1.000000e+00 0.000000e+00 0.000000e+00 0.000000e+00
 0.000000e+00 8.282331e-01 1.717669e-01 0.000000e+00 0.000000e+00
 0.000000e+00 0.000000e+00 8.452216e-01 1.547784e-01 0.000000e+00
 0.000000e+00 0.000000e+00 0.000000e+00 9.112473e-01 8.875266e-02
 0.000000e+00 0.000000e+00 0.000000e+00 0.000000e+00 0.000000e+00
<ENDHMM>
~h "en"
<BEGINHMM>
<NUMSTATES> 5
<STATE> 2
<MEAN> 25
 4.116143e+00 -2.050218e+00 -6.333592e+00 -6.518215e+00 -3.778912e+00 -1.346750e+00 3.826006e+00 3.352791e+00 -1.164503e+00 -2.100952e+00 1.623476e+00 2.906062e+00 -1.824894e-01 1.462638e-01 -2.573407e-02 -7.082929e-02 1.968791e-01 3.868496e-01 1.768735e-01 3.587951e-02 2.703078e-01 7.556084e-02 -6.971438e-02 2.912958e-02 -1.871861e-01
<VARIANCE> 25
 3.335614e+01 2.766912e+01 5.138018e+01 2.200481e+01 3.554536e+01 4.845563e+01 3.681614e+01 3.402990e+01 4.657978e+01 3.773213e+01 2.344488e+01 1.834010e+01 4.921945e-01 6.693245e-01 1.182200e+00 6.692059e-01 1.044553e+00 1.323510e+00 1.372961e+00 1.568464e+00 1.202316e+00 1.276916e+00 1.325579e+00 9.628410e-01 2.597567e-01
<GCONST> 8.699600e+01
<STATE> 3
<MEAN> 25
 4.057029e+00 -2.029304e+00 -5.726832e+00 -5.460932e+00 -2.905368e+00 -1.848277e+00 1.181571e+00 1.729661e+00 -1.889206e+00 -2.218738e+00 1.171050e+00 2.082561e+00 3.789699e-01 -2.830121e-01 -3.694311e-01 2.867078e-01 3.798816e-01 5.257884e-02 -6.530601e-01 -1.205819e+00 -8.863719e-01 1.200530e-01 5.306020e-01 -5.504562e-02 2.333102e-01
<VARIANCE> 25
 2.761829e+01 3.190504e+01 4.951738e+01 2.765587e+01 3.803443e+01 4.719946e+01 4.982303e+01 3.740371e+01 4.741383e+01 5.528559e+01 4.442319e+01 1.994868e+01 1.280443e+00 1.425480e+00 2.114478e+00 9.516020e-01 2.478948e+00 2.528656e+00 2.334308e+00 3.357725e+00 2.379691e+00 2.165738e+00 2.173543e+00 1.735722e+00 7.551928e-01
<GCONST> 9.751397e+01
<STATE> 4
<MEAN> 25
 4.986485e+00 -3.681978e+00 -6.083569e+00 -5.260678e+00 -3.233817e+00 -1.726781e+00 1.251847e+00 -1.533769e+00 -7.332394e+00 -2.851096e+00 3.514067e+00 2.555529e+00 -5.785439e-02 2.303476e-01 2.788536e-01 2.524303e-01 3.611489e-01 1.200695e-01 -2.884440e-01 -4.685279e-01 -1.531604e-01 1.333479e-02 -6.636619e-02 -2.851498e-01 -1.182081e-01
<VARIANCE> 25
 1.473216e+01 3.345913e+01 4.340907e+01 2.529582e+01 3.385373e+01 3.600780e+01 5.513960e+01 4.235429e+01 5.322103e+01 3.994994e+01 3.707193e+01 1.854122e+01 1.432080e+00 2.117939e+00 2.292519e+00 1.735610e+00 2.530417e+00 3.862052e+00 3.925799e+00 4.234953e+00 3.301499e+00 3.097023e+00 3.086765e+00 1.766780e+00 9.854291e-01
<GCONST> 9.979279e+01
<TRANSP> 5
 0.000000e+00 1.000000e+00 0.000000e+00 0.000000e+00 0.000000e+00
 0.000000e+00 8.092147e-01 1.907853e-01 0.000000e+00 0.000000e+00
 0.000000e+00 0.000000e+00 3.550224e-01 6.449776e-01 0.000000e+00
 0.000000e+00 0.000000e+00 0.000000e+00 7.826402e-01 2.173598e-01
 0.000000e+00 0.000000e+00 0.000000e+00 0.000000e+00 0.000000e+00
<ENDHMM>
~h "er"
<BEGINHMM>
<NUMSTATES> 5
<STATE> 2
<MEAN> 25
 9.931955e-02 4.215274e-01 1.031296e+00 7.857924e-01 1.067084e+00 -7.289819e-01 -5.142663e-01 -1.855880e+00 -1.247225e+00 -1.299820e+00 -7.362323e-01 -1.983747e+00 1.126538e+00 -6.306099e-01 -7.279975e-01 -4.881093e-02 -8.864745e-01 -1.720688e+00 -8.529068e-01 -5.560483e-01 -1.441011e+00 -6.900128e-01 2.066801e-01 2.529054e-02 8.758520e-01
<VARIANCE> 25
 2.693478e+01 3.115520e+01 3.213508e+01 4.990907e+01 4.336882e+01 6.078077e+01 5.416663e+01 3.445864e+01 3.906245e+01 3.334458e+01 3.647145e+01 2.175204e+01 1.870375e+00 2.421015e+00 2.205345e+00 3.030162e+00 3.572664e+00 4.794366e+00 4.716442e+00 4.008872e+00 4.240965e+00 3.116034e+00 3.682993e+00 2.152515e+00 1.000080e+00
<GCONST> 1.031585e+02
<STATE> 3
<MEAN> 25
 4.608743e+00 -1.806754e+00 -2.354811e+00 3.257631e-01 -2.762072e+00 -7.187468e+00 -3.677026e+00 -2.907076e+00 -6.200563e+00 -3.486896e+00 7.741567e-01 -5.006805e-01 1.069935e+00 -1.066562e+00 -1.106662e+00 -7.060655e-01 -1.397937e+00 -1.825394e+00 -2.189827e-01 3.937806e-01 -1.099769e+00 -1.637621e-01 9.830672e-01 6.479868e-01 1.067615e+00
<VARIANCE> 25
 1.137346e+01 2.907855e+01 2.805393e+01 5.780198e+01 5.157861e+01 5.400471e+01 6.278231e+01 4.622476e+01 4.474477e+01 3.954445e+01 4.063597e+01 2.601297e+01 1.611905e+00 2.759969e+00 2.296609e+00 2.890872e+00 3.725252e+00 5.500424e+00 4.676189e+00 3.887415e+00 5.018703e+00 3.821573e+00 4.012035e+00 2.332361e+00 1.171294e+00
<GCONST> 1.041403e+02
<STATE> 4
<MEAN> 25
 6.206783e+00 -4.033788e+00 -5.846615e+00 -6.076098e+00 -8.338707e+00 -7.012573e+00 1.977603e+00 1.884959e+00 -7.127964e+00 -3.658345e+00 2.398946e+00 1.680579e+00 -8.786765e-02 8.194405e-02 -1.520265e-03 -1.185561e-01 1.664646e-01 3.702172e-01 1.132421e-01 3.189613e-02 1.893016e-01 4.287907e-02 -1.231686e-01 -5.751191e-03 -7.212161e-02
<VARIANCE> 25
 6.780782e+00 3.280033e+01 2.568578e+01 3.825275e+01 4.959233e+01 4.733262e+01 6.626547e+01 5.028731e+01 4.726873e+01 3.799847e+01 3.916629e+01 2.654482e+01 4.393806e-01 1.611039e+00 1.183293e+00 1.297675e+00 1.950204e+00 2.697821e+00 2.674899e+00 2.316746e+00 2.271288e+00 2.230916e+00 2.223387e+00 1.461986e+00 6.592253e-01
<GCONST> 9.450685e+01
<TRANSP> 5
 0.000000e+00 1.000000e+00 0.000000e+00 0.000000e+00 0.000000e+00
 0.000000e+00 4.896671e-01 5.103329e-01 0.000000e+00 0.000000e+00
 0.000000e+00 0.000000e+00 4.886905e-01 5.113095e-01 0.000000e+00
 0.000000e+00 0.000000e+00 0.000000e+00 8.679242e-01 1.320758e-01
 0.000000e+00 0.000000e+00 0.000000e+00 0.000000e+00 0.000000e+00
<ENDHMM>
~h "ey"
<BEGINHMM>
<NUMSTATES> 5
<STATE> 2
<MEAN> 25
 1.365096e+00 -4.851390e-01 -5.535156e-01 3.582539e-01 2.841674e-01 -6.354753e-01 -8.182474e-01 -2.265506e+00 -2.411831e+00 -1.044120e+00 5.980677e-01 -7.297124e-01 5.829698e-01 -6.820484e-01 -3.532415e-01 6.661543e-01 2.303039e-02 -1.323002e+00 -1.278412e+00 -8.996615e-01 -7.629840e-01 -1.841514e-01 1.353607e-01 -2.949306e-01 6.010271e-01
<VARIANCE> 25
 2.412102e+01 3.915794e+01 3.855140e+01 3.624148e+01 2.854282e+01 6.387206e+01 5.081152e+01 3.480080e+01 4.215160e+01 3.407960e+01 3.030875e+01 2.035443e+01 1.239826e+00 2.561683e+00 1.966219e+00 1.812737e+00 1.630559e+00 4.519347e+00 4.741439e+00 3.386211e+00 3.800203e+00 2.733157e+00 3.143171e+00 1.754110e+00 1.071795e+00
<GCONST> 1.000375e+02
<STATE> 3
<MEAN> 25
 3.448200e+00 -2.721309e+00 -1.174762e+00 3.555725e+00 7.675804e-01 -6.358916e+00 -6.548855e+00 -5.201787e+00 -4.656516e+00 -1.618741e+00 5.500317e-01 -2.134673e+00 5.322877e-01 -9.253816e-01 -1.008255e-01 1.003974e+00 -8.782324e-02 -2.153894e+00 -1.723838e+00 -2.990842e-01 -1.520752e-01 -2.719009e-03 -1.230626e-01 -5.215017e-01 7.151906e-01
<VARIANCE> 25
 1.477629e+01 3.025882e+01 3.099166e+01 4.169814e+01 2.671374e+01 6.417638e+01 5.965686e+01 3.811813e+01 3.967322e+01 3.413995e+01 3.415380e+01 2.146061e+01 1.030442e+00 2.912807e+00 1.561462e+00 2.252721e+00 1.533278e+00 6.201698e+00 5.136049e+00 3.161219e+00 3.297637e+00 3.216605e+00 2.991853e+00 1.767479e+00 1.114148e+00
<GCONST> 9.972969e+01
<STATE> 4
<MEAN> 25
 3.646204e+00 -4.792254e+00 5.511157e-01 8.236945e+00 3.099355e-01 -1.335604e+01 -1.082395e+01 -3.527620e+00 -2.178653e+00 -2.173614e+00 -3.103619e+00 -4.359216e+00 -1.154440e-01 2.674488e-01 1.032480e-01 -7.362265e-02 4.984230e-02 3.348287e-01 2.078022e-01 1.656291e-01 2.300107e-01 -4.396012e-02 -2.533835e-01 1.357151e-02 -2.108275e-01
<VARIANCE> 25
 6.589578e+00 2.790918e+01 2.051474e+01 3.115036e+01 1.857815e+01 5.815600e+01 3.507126e+01 2.686439e+01 2.821499e+01 3.122535e+01 3.112813e+01 1.794631e+01 2.824426e-01 9.759498e-01 7.667655e-01 9.996002e-01 8.562751e-01 2.824820e+00 1.653341e+00 1.415053e+00 1.522030e+00 1.484769e+00 1.384044e+00 1.085738e+00 3.688974e-01
<GCONST> 8.496520e+01
<TRANSP> 5
 0.000000e+00 1.000000e+00 0.000000e+00 0.000000e+00 0.000000e+00
 0.000000e+00 4.257851e-01 5.742149e-01 0.000000e+00 0.000000e+00
 0.000000e+00 0.000000e+00 4.483273e-01 5.516727e-01 0.000000e+00
 0.000000e+00 0.000000e+00 0.000000e+00 8.867439e-01 1.132561e-01
 0.000000e+00 0.000000e+00 0.000000e+00 0.000000e+00 0.000000e+00
<ENDHMM>
~h "hh"
<BEGINHMM>
<NUMSTATES> 5
<STATE> 2
<MEAN> 25
 -9.752872e-02 2.172691e+00 6.843655e-01 1.570923e-01 1.367042e+00 2.334918e+00 1.702977e-01 -6.265264e-01 7.508370e-01 -1.563269e-01 -1.020120e+00 -1.424977e-01 -4.109072e-01 1.438867e-01 2.367975e-01 2.043835e-02 1.366466e-01 5.344643e-01 4.016047e-01 2.877514e-01 4.804853e-01 2.899740e-01 -6.177147e-04 5.599053e-02 -3.319857e-01
<VARIANCE> 25
 1.716940e+01 1.410081e+01 2.084348e+01 2.475678e+01 1.835619e+01 3.381554e+01 2.985092e+01 2.080890e+01 3.267570e+01 2.577115e+01 2.281670e+01 1.789549e+01 2.616231e-01 4.985945e-01 5.887805e-01 6.418388e-01 6.470362e-01 1.006952e+00 1.002215e+00 9.647679e-01 1.202019e+00 1.065747e+00 1.157677e+00 8.879467e-01 1.550754e-01
<GCONST> 7.823223e+01
<STATE> 3
<MEAN> 25
 -4.881678e-01 1.471257e+00 1.155243e+00 7.070767e-01 1.345078e+00 1.754688e+00 5.904980e-01 -2.237003e-01 6.999459e-01 -2.234130e-01 -1.135543e+00 -1.015316e+00 -1.786278e-01 -1.981850e-02 6.712147e-02 1.107432e-01 8.398154e-02 2.584067e-01 2.560147e-01 1.045207e-01 1.711198e-01 1.869767e-01 2.921068e-02 -3.321895e-02 -1.362636e-01
<VARIANCE> 25
 1.948822e+01 2.013005e+01 2.450353e+01 3.204492e+01 1.910335e+01 4.668464e+01 3.596864e+01 2.191776e+01 3.523295e+01 3.239628e+01 2.613886e+01 2.001997e+01 3.287319e-01 6.274719e-01 7.537864e-01 7.748989e-01 6.897392e-01 1.212891e+00 1.160640e+00 1.072660e+00 1.429139e+00 1.311189e+00 1.255271e+00 1.028443e+00 1.951831e-01
<GCONST> 8.252233e+01
<STATE> 4
<MEAN> 25
 -3.333288e+00 1.710201e+00 1.893075e+00 6.658064e-01 1.558837e+00 4.525192e+00 2.552402e+00 1.539137e+00 3.594767e+00 2.174707e+00 -2.923050e-01 6.540835e-01 1.118267e-02 -4.236547e-02 -9.909048e-03 4.070841e-02 -3.163064e-02 -7.253113e-02 1.559655e-02 -1.842121e-02 -5.099680e-02 -9.404310e-03 1.951387e-02 -3.041167e-02 2.472987e-02
<VARIANCE> 25
 1.095337e+01 1.387992e+01 1.283274e+01 1.397230e+01 1.039989e+01 2.389717e+01 1.944634e+01 1.417323e+01 2.315081e+01 1.697417e+01 1.524762e+01 1.332142e+01 2.024049e-01 3.732592e-01 4.327728e-01 5.407009e-01 5.217121e-01 8.505036e-01 8.662787e-01 8.357251e-01 9.841592e-01 9.164604e-01 9.098845e-01 7.853174e-01 1.142113e-01
<GCONST> 7.080219e+01
<TRANSP> 5
 0.000000e+00 1.000000e+00 0.000000e+00 0.000000e+00 0.000000e+00
 0.000000e+00 7.433198e-01 2.566802e-01 0.000000e+00 0.000000e+00
 0.000000e+00 0.000000e+00 4.246864e-01 5.753136e-01 0.000000e+00
 0.000000e+00 0.000000e+00 0.000000e+00 8.430828e-01 1.569172e-01
 0.000000e+00 0.000000e+00 0.000000e+00 0.000000e+00 0.000000e+00
<ENDHMM>
~h "ih"
<BEGINHMM>
<NUMSTATES> 5
<STATE> 2
<MEAN> 25
 8.398331e-01 1.602182e-01 -3.709119e-01 -1.355175e+00 -2.346655e-01 -5.088681e-01 -1.787509e-01 -3.023164e-01 -5.374751e-01 -6.665043e-01 -1.059984e-01 -5.549268e-01 5.629885e-02 -7.156976e-02 -5.922495e-02 9.019797e-02 -3.962498e-02 -1.528036e-01 -1.009518e-01 -1.208514e-01 -3.878615e-02 3.433607e-02 5.677224e-02 -4.579174e-02 5.199348e-02
<VARIANCE> 25
 2.993107e+01 3.720527e+01 4.058757e+01 4.742068e+01 4.025213e+01 5.966359e+01 4.858349e+01 3.198880e+01 4.150591e+01 3.098411e+01 3.309653e+01 2.299963e+01 7.803684e-01 1.208509e+00 1.248408e+00 1.299766e+00 1.326356e+00 2.657431e+00 2.334407e+00 1.886267e+00 2.177816e+00 1.760561e+00 1.795537e+00 1.306746e+00 5.943199e-01
<GCONST> 9.429562e+01
<STATE> 3
<MEAN> 25
 1.803276e+00 -7.650970e-01 -1.146875e+00 -4.459939e-01 -7.323051e-01 -2.003465e+00 -1.133430e+00 -9.988126e-01 -1.581794e+00 -1.033898e+00 1.546046e-01 -7.048479e-01 4.541038e-01 -4.548055e-01 -3.165322e-01 2.868111e-01 -1.611106e-01 -8.774899e-01 -6.110473e-01 -4.695839e-01 -5.727097e-01 -1.675929e-01 2.323903e-01 -1.416782e-01 4.481463e-01
<VARIANCE> 25
 2.498904e+01 3.766264e+01 3.829049e+01 4.655219e+01 3.974304e+01 6.186183e+01 5.324261e+01 3.567754e+01 4.332475e+01 3.388177e+01 3.386473e+01 2.353580e+01 1.246566e+00 2.385321e+00 1.748483e+00 1.879047e+00 1.812544e+00 5.010077e+00 3.760770e+00 2.696998e+00 3.238865e+00 2.271930e+00 2.615292e+00 1.701160e+00 1.183935e+00
<GCONST> 1.000686e+02
<STATE> 4
<MEAN> 25
 3.392185e+00 -2.632460e+00 -2.150608e+00 1.156825e+00 -8.114948e-01 -5.576286e+00 -4.262159e+00 -2.577903e+00 -3.138656e+00 -1.346043e+00 6.200178e-01 -1.347098e+00 1.714289e-01 -8.324082e-02 -2.913353e-02 2.270951e-01 7.147790e-02 -3.132842e-01 -3.791279e-01 -3.624121e-01 -2.665913e-01 -6.883626e-02 3.417680e-02 -1.264023e-01 1.270715e-01
<VARIANCE> 25
 1.901800e+01 3.768709e+01 3.466888e+01 5.329591e+01 3.736643e+01 7.316614e+01 6.231646e+01 3.683918e+01 4.378355e+01 3.307902e+01 3.704700e+01 2.586185e+01 9.458866e-01 2.091644e+00 1.414133e+00 1.585886e+00 1.557406e+00 4.554966e+00 3.225416e+00 2.422578e+00 3.021461e+00 2.334395e+00 2.605774e+00 1.630307e+00 1.005268e+00
<GCONST> 9.874912e+01
<TRANSP> 5
 0.000000e+00 1.000000e+00 0.000000e+00 0.000000e+00 0.000000e+00
 0.000000e+00 2.871248e-01 7.128752e-01 0.000000e+00 0.000000e+00
 0.000000e+00 0.000000e+00 2.757117e-01 7.242883e-01 0.000000e+00
 0.000000e+00 0.000000e+00 0.000000e+00 4.703862e-01 5.296138e-01
 0.000000e+00 0.000000e+00 0.000000e+00 0.000000e+00 0.000000e+00
<ENDHMM>
~h "iy"
<BEGINHMM>
<NUMSTATES> 5
<STATE> 2
<MEAN> 25
 2.060872e+00 -1.174392e+00 -1.364095e+00 -2.664265e-01 -7.228915e-01 -2.081721e+00 -9.630997e-01 -1.427114e+00 -2.228158e+00 -1.057832e+00 3.552170e-01 -7.340170e-01 4.951569e-01 -4.694775e-01 -2.792046e-01 4.510069e-01 -7.160095e-02 -1.025611e+00 -7.300460e-01 -4.835868e-01 -6.937788e-01 -3.239516e-01 8.102695e-02 -2.339853e-01 4.606912e-01
<VARIANCE> 25
 2.472111e+01 3.915740e+01 4.118275e+01 5.314120e+01 3.940629e+01 6.287831e+01 5.716831e+01 3.513484e+01 4.319912e+01 3.589947e+01 3.597620e+01 2.322524e+01 1.056730e+00 2.105127e+00 1.772628e+00 2.075975e+00 1.736855e+00 4.077787e+00 3.611098e+00 2.833277e+00 3.255978e+00 2.717092e+00 2.956107e+00 1.807691e+00 8.475509e-01
<GCONST> 1.000842e+02
<STATE> 3
<MEAN> 25
 3.508852e+00 -2.939693e+00 -1.741880e+00 2.334277e+00 -2.686838e-01 -5.969342e+00 -4.459311e+00 -3.225161e+00 -4.473797e+00 -2.313380e+00 2.649508e-01 -1.842523e+00 5.039300e-01 -5.885612e-01 -1.237299e-01 7.689022e-01 -3.189452e-02 -1.557529e+00 -1.091057e+00 -1.774687e-01 -5.106223e-01 -4.466133e-01 -1.119983e-01 -3.452332e-01 5.277735e-01
<VARIANCE> 25
 1.694265e+01 3.143403e+01 4.118647e+01 6.531902e+01 3.832895e+01 6.045216e+01 6.385418e+01 3.827666e+01 4.266362e+01 3.912601e+01 4.169975e+01 2.861119e+01 1.201159e+00 2.795306e+00 1.709547e+00 2.826645e+00 1.813455e+00 6.356733e+00 4.925699e+00 3.323666e+00 3.652515e+00 3.443201e+00 3.515879e+00 1.989622e+00 1.064517e+00
<GCONST> 1.027424e+02
<STATE> 4
<MEAN> 25
 3.532217e+00 -3.790475e+00 4.282315e-01 7.132331e+00 1.215982e-01 -1.142346e+01 -7.541347e+00 -1.902882e+00 -4.149070e+00 -4.742690e+00 -2.955607e+00 -3.686301e+00 -1.616981e-01 3.624986e-01 2.061426e-01 -8.272873e-02 1.012564e-01 4.099669e-01 1.813057e-01 1.328968e-01 2.536874e-01 -5.693280e-02 -2.781950e-01 2.453162e-02 -2.407569e-01
<VARIANCE> 25
 9.376174e+00 2.542414e+01 3.749611e+01 7.003265e+01 2.648481e+01 6.598920e+01 4.667233e+01 3.069721e+01 3.521795e+01 3.923488e+01 4.124903e+01 2.626027e+01 3.912272e-01 1.071387e+00 9.818361e-01 1.352918e+00 1.171546e+00 3.153184e+00 2.082215e+00 1.886360e+00 1.874812e+00 1.770592e+00 1.683117e+00 1.326852e+00 4.051540e-01
<GCONST> 9.143520e+01
<TRANSP> 5
 0.000000e+00 1.000000e+00 0.000000e+00 0.000000e+00 0.000000e+00
 0.000000e+00 3.206295e-01 6.793705e-01 0.000000e+00 0.000000e+00
 0.000000e+00 0.000000e+00 4.414518e-01 5.585483e-01 0.000000e+00
 0.000000e+00 0.000000e+00 0.000000e+00 8.112892e-01 1.887108e-01
 0.000000e+00 0.000000e+00 0.000000e+00 0.000000e+00 0.000000e+00
<ENDHMM>
~h "jh"
<BEGINHMM>
<NUMSTATES> 5
<STATE> 2
<MEAN> 25
 5.632738e-01 2.954237e+00 1.329282e+00 3.432340e-01 1.034358e+00 1.628546e+00 -4.951263e-01 -1.405167e+00 -7.656639e-01 -2.039191e+00 -2.953549e+00 -1.449557e+00 -3.820722e-01 3.593412e-01 4.504117e-01 1.278760e-01 3.025968e-01 6.623266e-01 4.043464e-01 1.470777e-01 3.428884e-01 1.206980e-01 -1.281219e-01 -4.055921e-02 -3.336619e-01
<VARIANCE> 25
 1.808007e+01 1.993969e+01 2.139971e+01 2.973620e+01 2.364305e+01 4.028736e+01 5.357912e+01 3.619613e+01 3.315336e+01 2.597357e+01 2.505588e+01 1.892108e+01 4.001635e-01 5.760854e-01 6.843979e-01 7.583993e-01 7.130989e-01 1.199118e+00 1.441777e+00 1.328916e+00 1.379207e+00 1.260537e+00 1.192005e+00 9.811329e-01 2.083951e-01
<GCONST> 8.315089e+01
<STATE> 3
<MEAN> 25
 -3.432451e-01 2.624775e+00 2.426546e+00 4.210306e-01 1.718107e+00 2.423589e+00 4.703985e-01 -1.173253e+00 -1.853053e-01 -1.415171e+00 -2.453753e+00 -1.899400e+00 -2.923591e-01 -1.706894e-01 3.072941e-01 1.089296e-01 -3.317156e-02 1.727794e-01 2.775570e-01 -1.044123e-01 -5.631745e-02 2.321559e-01 3.437046e-01 -1.597087e-02 -2.183590e-02
<VARIANCE> 25
 2.122388e+01 3.033175e+01 2.677621e+01 3.644501e+01 2.563327e+01 4.679396e+01 4.225005e+01 2.967113e+01 3.365725e+01 2.676650e+01 2.349207e+01 1.730279e+01 9.036138e-01 1.154410e+00 1.419627e+00 1.400769e+00 1.220899e+00 1.850292e+00 2.697303e+00 2.215070e+00 1.972811e+00 1.752714e+00 1.823725e+00 1.238723e+00 3.496572e-01
<GCONST> 9.066880e+01
<STATE> 4
<MEAN> 25
 -1.326317e+00 -1.403003e+00 4.559021e+00 2.477113e+00 -2.523350e-03 7.309068e-01 3.005214e-01 -3.581666e+00 -1.946984e+00 1.195856e-01 1.260778e+00 -2.930135e+00 3.099428e-01 -9.374623e-01 -2.289761e-01 2.000847e-01 -4.618528e-01 -1.086244e+00 -6.381426e-01 -5.566043e-01 -5.281889e-01 2.516240e-01 7.656903e-01 4.739501e-02 6.179654e-01
<VARIANCE> 25
 2.684357e+01 3.357393e+01 4.673960e+01 4.609402e+01 2.955075e+01 5.594052e+01 7.567530e+01 4.189838e+01 3.916980e+01 3.076869e+01 3.222228e+01 2.213794e+01 2.436832e+00 2.805244e+00 4.060284e+00 2.514030e+00 2.514980e+00 4.429544e+00 6.949271e+00 4.032462e+00 3.843468e+00 2.332308e+00 3.300661e+00 2.381708e+00 8.502609e-01
<GCONST> 1.036443e+02
<TRANSP> 5
 0.000000e+00 1.000000e+00 0.000000e+00 0.000000e+00 0.000000e+00
 0.000000e+00 7.097028e-01 2.902972e-01 0.000000e+00 0.000000e+00
 0.000000e+00 0.000000e+00 3.474773e-01 6.525227e-01 0.000000e+00
 0.000000e+00 0.000000e+00 0.000000e+00 6.395121e-01 3.604879e-01
 0.000000e+00 0.000000e+00 0.000000e+00 0.000000e+00 0.000000e+00
<ENDHMM>
~h "ng"
<BEGINHMM>
<NUMSTATES> 5
<STATE> 2
<MEAN> 25
 4.675585e-01 -1.009767e-01 3.326969e-01 -3.091384e-01 9.695511e-01 -1.098201e+00 -8.455898e-01 -3.357511e+00 -2.595490e+00 -6.440541e-01 9.476218e-01 -1.476532e+00 1.083270e+00 -8.680975e-01 -6.949160e-01 4.685679e-01 -3.398411e-01 -1.617816e+00 -1.431874e+00 -1.209332e+00 -1.528381e+00 -4.264522e-01 4.517183e-01 -5.658192e-02 8.937934e-01
<VARIANCE> 25
 3.054894e+01 2.767461e+01 3.670883e+01 4.383659e+01 3.894041e+01 5.065709e+01 5.434981e+01 3.811121e+01 4.317263e+01 3.288860e+01 3.235028e+01 2.327441e+01 2.080621e+00 2.625586e+00 2.575498e+00 2.829485e+00 2.553569e+00 4.938649e+00 5.464150e+00 3.981143e+00 4.782771e+00 3.336144e+00 4.096601e+00 2.469731e+00 1.196052e+00
<GCONST> 1.037372e+02
<STATE> 3
<MEAN> 25
 4.526442e+00 -3.265857e+00 -2.752743e+00 1.328380e+00 -7.457961e-01 -6.920335e+00 -5.771923e+00 -5.418816e+00 -6.534072e+00 -1.723310e+00 2.485060e+00 -6.066043e-01 8.552455e-01 -1.277462e+00 -7.892985e-01 3.381228e-01 -5.121501e-01 -2.000047e+00 -1.092746e+00 -2.704926e-02 -6.318982e-01 9.711975e-02 6.067911e-01 -1.004295e-02 9.987762e-01
<VARIANCE> 25
 1.152787e+01 2.679899e+01 3.140384e+01 4.444302e+01 3.925697e+01 4.833836e+01 6.193624e+01 4.528606e+01 4.612163e+01 3.805899e+01 4.033353e+01 2.906446e+01 1.458017e+00 3.042771e+00 2.621692e+00 3.458645e+00 2.522049e+00 6.090219e+00 5.588189e+00 4.173828e+00 4.688225e+00 3.963703e+00 4.169814e+00 2.675215e+00 1.207707e+00
<GCONST> 1.040444e+02
<STATE> 4
<MEAN> 25
 4.682994e+00 -5.553848e+00 -2.547070e+00 3.069918e+00 -1.866677e+00 -1.083290e+01 -6.096206e+00 -2.287189e+00 -5.226651e+00 -1.985172e+00 5.327576e-01 -2.663201e+00 -1.272112e-01 2.780604e-01 1.106592e-01 -9.799913e-02 5.871097e-02 3.355495e-01 2.593512e-01 3.096642e-01 3.602639e-01 -9.489556e-02 -4.203027e-01 -4.631793e-02 -2.066921e-01
<VARIANCE> 25
 8.352576e+00 3.197721e+01 3.086563e+01 6.979843e+01 3.582781e+01 6.050213e+01 6.194058e+01 4.124688e+01 4.420917e+01 4.196267e+01 5.369958e+01 3.589237e+01 4.854788e-01 1.594935e+00 1.220317e+00 1.763128e+00 1.546769e+00 3.588033e+00 2.407501e+00 2.057761e+00 2.283925e+00 2.304333e+00 2.271135e+00 1.575269e+00 5.973713e-01
<GCONST> 9.607115e+01
<TRANSP> 5
 0.000000e+00 1.000000e+00 0.000000e+00 0.000000e+00 0.000000e+00
 0.000000e+00 3.730707e-01 6.269293e-01 0.000000e+00 0.000000e+00
 0.000000e+00 0.000000e+00 4.781824e-01 5.218176e-01 0.000000e+00
 0.000000e+00 0.000000e+00 0.000000e+00 8.290370e-01 1.709630e-01
 0.000000e+00 0.000000e+00 0.000000e+00 0.000000e+00 0.000000e+00
<ENDHMM>
~h "ow"
<BEGINHMM>
<NUMSTATES> 5
<STATE> 2
<MEAN> 25
 2.414196e+00 -3.063445e-01 -7.418854e-01 1.377818e+00 7.685218e-01 -2.735575e+00 -3.323762e+00 -2.617211e+00 -1.879794e+00 -1.416094e+00 -6.725565e-01 -1.351045e+00 -2.134316e-01 4.289860e-01 4.005498e-01 1.710608e-01 2.241237e-01 3.650850e-01 1.679607e-02 2.591159e-02 2.730482e-01 -3.580269e-02 -2.924206e-01 -5.028464e-02 -2.940241e-01
<VARIANCE> 25
 1.911168e+01 2.730989e+01 2.754058e+01 4.162260e+01 2.641528e+01 5.981720e+01 4.577833e+01 2.543031e+01 3.427550e+01 3.000632e+01 3.175629e+01 2.223647e+01 4.572335e-01 7.558411e-01 7.534150e-01 9.965809e-01 1.114434e+00 1.981204e+00 1.621960e+00 1.430314e+00 1.674053e+00 1.486365e+00 1.354568e+00 1.141364e+00 3.234206e-01
<GCONST> 8.767245e+01
<STATE> 3
<MEAN> 25
 1.676562e+00 9.574959e-01 5.728543e-01 1.658181e+00 1.081737e+00 -1.813407e+00 -2.908019e+00 -2.244734e+00 -1.419910e+00 -1.947406e+00 -1.799852e+00 -1.584713e+00 -2.397425e-01 3.680812e-01 3.271339e-01 1.716330e-03 6.885786e-02 4.188360e-01 2.228650e-01 1.927987e-01 3.154148e-01 5.777672e-02 -1.799754e-01 -1.129637e-02 -2.914522e-01
<VARIANCE> 25
 1.877792e+01 2.634962e+01 2.423638e+01 4.395935e+01 2.929259e+01 6.014577e+01 4.275737e+01 2.417417e+01 3.240158e+01 2.727918e+01 2.978287e+01 2.126102e+01 4.217053e-01 6.151189e-01 6.752363e-01 9.316765e-01 1.124185e+00 1.874812e+00 1.443949e+00 1.307138e+00 1.479066e+00 1.347188e+00 1.242543e+00 1.015028e+00 2.579448e-01
<GCONST> 8.590668e+01
<STATE> 4
<MEAN> 25
 -2.621701e-01 2.390033e+00 2.220401e+00 1.823702e+00 1.256957e+00 7.254305e-01 -1.181194e+00 -7.775825e-01 6.479635e-01 -1.087512e+00 -2.375514e+00 -1.137051e+00 -1.720676e-01 7.027004e-02 8.051819e-02 -8.427443e-02 -3.029953e-02 2.238783e-01 2.281687e-01 1.368046e-01 1.638373e-01 1.484982e-01 6.189759e-02 3.103775e-02 -1.434740e-01
<VARIANCE> 25
 1.672536e+01 1.664563e+01 1.459254e+01 2.939646e+01 2.583673e+01 5.050350e+01 3.121283e+01 1.922949e+01 2.793759e+01 2.364078e+01 2.306452e+01 1.731722e+01 2.878940e-01 4.436466e-01 5.078645e-01 6.957989e-01 8.197385e-01 1.295902e+00 1.113067e+00 1.036323e+00 1.136284e+00 1.035161e+00 1.041101e+00 8.411786e-01 1.562272e-01
<GCONST> 7.896973e+01
<TRANSP> 5
 0.000000e+00 1.000000e+00 0.000000e+00 0.000000e+00 0.000000e+00
 0.000000e+00 4.133795e-01 5.866205e-01 0.000000e+00 0.000000e+00
 0.000000e+00 0.000000e+00 3.684873e-01 6.315127e-01 0.000000e+00
 0.000000e+00 0.000000e+00 0.000000e+00 7.867159e-01 2.132841e-01
 0.000000e+00 0.000000e+00 0.000000e+00 0.000000e+00 0.000000e+00
<ENDHMM>
~h "oy"
<BEGINHMM>
<NUMSTATES> 5
<STATE> 2
<MEAN> 25
 -3.673885e+00 1.504552e+00 4.437048e+00 -1.847898e+00 2.825187e+00 2.934173e+00 2.150267e+00 -1.455598e+00 -3.851991e-01 7.595690e-01 1.066708e+00 -1.180063e+00 5.994861e-01 -8.424869e-01 -7.734460e-01 -4.843797e-01 -8.423093e-01 -1.146986e+00 -4.727834e-02 -1.250143e-02 -8.294112e-01 -3.581083e-01 4.221416e-01 1.387494e-01 7.656621e-01
<VARIANCE> 25
 3.580981e+01 2.942135e+01 4.542588e+01 5.465488e+01 4.182977e+01 3.667640e+01 3.425504e+01 2.729266e+01 3.695840e+01 2.871788e+01 2.881013e+01 1.967978e+01 4.037014e+00 3.261915e+00 4.230284e+00 3.808845e+00 5.237045e+00 5.812612e+00 4.904843e+00 4.076199e+00 6.086691e+00 3.202908e+00 3.785863e+00 1.971687e+00 1.880942e+00
<GCONST> 1.055885e+02
<STATE> 3
<MEAN> 25
 5.607758e+00 -2.248373e+00 -4.322463e+00 -3.261162e+00 -5.767119e+00 -7.571247e+00 -1.707379e+00 -6.341725e-01 -5.627867e+00 -3.497788e+00 1.567545e+00 1.248155e+00 1.000446e+00 -1.482138e+00 -1.113624e+00 -8.481988e-01 -1.608048e+00 -1.833012e+00 -2.727506e-01 9.102106e-01 -4.546359e-01 8.732373e-03 6.084034e-01 5.298661e-01 1.378613e+00
<VARIANCE> 25
 1.105380e+01 3.237958e+01 3.336383e+01 4.454824e+01 6.587697e+01 5.160567e+01 6.377739e+01 6.497285e+01 4.301672e+01 3.779895e+01 3.478285e+01 2.885067e+01 1.661576e+00 2.938290e+00 2.667933e+00 3.107589e+00 3.456643e+00 9.187682e+00 6.137820e+00 5.003899e+00 4.348529e+00 3.276697e+00 3.565780e+00 1.794577e+00 9.454896e-01
<GCONST> 1.049376e+02
<STATE> 4
<MEAN> 25
 5.929243e+00 -7.181365e+00 -6.006716e+00 -4.392570e+00 -7.502481e+00 -7.173837e+00 -1.136886e+00 1.990269e+00 -3.426782e+00 -7.219344e-01 1.823259e+00 6.955600e-01 -9.826037e-02 5.195920e-02 3.388574e-02 3.285258e-01 4.610906e-01 1.374784e-01 -1.904438e-01 -2.448850e-01 1.749435e-01 8.902467e-02 -1.127305e-01 -1.959714e-01 -1.438756e-01
<VARIANCE> 25
 1.126775e+01 2.995149e+01 3.288682e+01 6.622559e+01 5.872728e+01 5.767161e+01 6.627106e+01 5.207085e+01 4.624011e+01 3.874223e+01 3.350517e+01 2.889381e+01 4.606684e-01 1.806551e+00 1.309787e+00 1.464850e+00 1.658849e+00 3.596840e+00 2.895409e+00 2.216214e+00 2.211256e+00 2.593775e+00 2.323232e+00 1.426679e+00 7.176228e-01
<GCONST> 9.682096e+01
<TRANSP> 5
 0.000000e+00 1.000000e+00 0.000000e+00 0.000000e+00 0.000000e+00
 0.000000e+00 7.173026e-01 2.826974e-01 0.000000e+00 0.000000e+00
 0.000000e+00 0.000000e+00 6.148379e-01 3.851621e-01 0.000000e+00
 0.000000e+00 0.000000e+00 0.000000e+00 8.895953e-01 1.104047e-01
 0.000000e+00 0.000000e+00 0.000000e+00 0.000000e+00 0.000000e+00
<ENDHMM>
~h "sh"
<BEGINHMM>
<NUMSTATES> 5
<STATE> 2
<MEAN> 25
 1.205641e+00 -5.178932e-01 -8.287076e-01 -1.092271e+00 -1.183747e+00 -4.880489e-01 5.823179e-01 2.223413e-01 -4.234063e-01 -2.867801e-01 5.945210e-01 -3.944711e-01 -3.288302e-01 -2.149136e-01 2.972453e-01 2.622714e-01 9.214987e-03 1.549477e-01 2.971379e-01 2.395818e-01 3.046379e-01 2.431263e-01 2.489962e-01 4.475478e-02 -7.557490e-02
<VARIANCE> 25
 3.067595e+01 4.205376e+01 4.530582e+01 4.946168e+01 3.230119e+01 4.976995e+01 3.749357e+01 2.760651e+01 3.321575e+01 2.884973e+01 4.195642e+01 2.287379e+01 4.163442e-01 1.441530e+00 7.796047e-01 1.065731e+00 8.276730e-01 1.405907e+00 1.281068e+00 1.249367e+00 1.398392e+00 1.202679e+00 1.563970e+00 1.019630e+00 3.302128e-01
<GCONST> 8.868501e+01
<STATE> 3
<MEAN> 25
 2.053861e-01 -3.281656e+00 1.721145e-01 1.161743e+00 -1.124886e+00 -1.508786e+00 9.059176e-01 3.343265e-01 -7.482312e-01 4.442863e-01 2.464499e+00 -7.438285e-01 -3.144540e-01 -4.008097e-01 3.995854e-01 4.566723e-01 8.580829e-02 -3.901421e-02 1.056829e-01 4.428763e-02 1.232579e-01 1.138368e-01 2.231049e-01 -6.308430e-02 3.845328e-02
<VARIANCE> 25
 3.720820e+01 5.597270e+01 5.458874e+01 6.136385e+01 3.028601e+01 4.606198e+01 4.209649e+01 2.965588e+01 3.231468e+01 3.014765e+01 4.519502e+01 2.193374e+01 2.970724e-01 1.751152e+00 7.311798e-01 1.090747e+00 8.025802e-01 1.358060e+00 1.198312e+00 1.219171e+00 1.348955e+00 1.163829e+00 1.378377e+00 9.468576e-01 3.374305e-01
<GCONST> 8.907236e+01
<STATE> 4
<MEAN> 25
 -3.760041e+00 -9.110716e+00 4.310623e+00 6.078248e+00 -5.762618e-01 -1.829336e+00 2.614966e+00 8.680616e-01 3.600905e-01 1.540867e+00 5.490673e+00 -1.493054e+00 -1.994253e-01 -1.510741e-01 2.322967e-01 2.084732e-01 1.407128e-01 8.197099e-02 8.414680e-03 -1.114518e-01 1.136167e-01 3.659235e-02 -1.380150e-02 -8.019644e-02 -8.509861e-03
<VARIANCE> 25
 4.178159e+01 6.715469e+01 5.463273e+01 5.794113e+01 2.074142e+01 3.248722e+01 4.251440e+01 2.987827e+01 2.846297e+01 2.510243e+01 4.315709e+01 1.946371e+01 3.977946e-01 1.150895e+00 9.621314e-01 8.838579e-01 7.779400e-01 1.083864e+00 1.296209e+00 1.314828e+00 1.323006e+00 1.222422e+00 1.512894e+00 9.618624e-01 2.959802e-01
<GCONST> 8.796902e+01
<TRANSP> 5
 0.000000e+00 1.000000e+00 0.000000e+00 0.000000e+00 0.000000e+00
 0.000000e+00 5.252503e-01 4.747497e-01 0.000000e+00 0.000000e+00
 0.000000e+00 0.000000e+00 4.425877e-01 5.574123e-01 0.000000e+00
 0.000000e+00 0.000000e+00 0.000000e+00 7.306478e-01 2.693522e-01
 0.000000e+00 0.000000e+00 0.000000e+00 0.000000e+00 0.000000e+00
<ENDHMM>
~h "sp"
<BEGINHMM>
<NUMSTATES> 3
<STATE> 2
~s "silst"
<TRANSP> 3
 0.000000e+00 7.000000e-01 3.000000e-01
 0.000000e+00 9.000000e-01 9.999999e-02
 0.000000e+00 0.000000e+00 0.000000e+00
<ENDHMM>
~h "th"
<BEGINHMM>
<NUMSTATES> 5
<STATE> 2
<MEAN> 25
 -2.699696e+00 2.259497e+00 1.724955e+00 5.521304e-01 1.798904e+00 4.816410e+00 2.032035e+00 7.403503e-01 2.579158e+00 1.503184e+00 -2.659708e-01 8.901270e-01 -2.020781e-01 2.754317e-02 9.614763e-02 6.669896e-03 2.377152e-02 1.767002e-01 1.645717e-01 1.512718e-01 2.057926e-01 1.440115e-01 4.050177e-02 6.473901e-02 -1.534137e-01
<VARIANCE> 25
 9.947534e+00 7.996579e+00 9.155231e+00 1.140584e+01 9.333774e+00 1.871861e+01 1.851171e+01 1.422679e+01 1.899946e+01 1.483795e+01 1.411960e+01 1.146980e+01 1.508434e-01 2.282204e-01 3.211595e-01 3.765658e-01 4.599003e-01 6.674209e-01 7.031816e-01 7.511394e-01 8.527732e-01 8.039636e-01 7.986528e-01 6.509363e-01 7.633464e-02
<GCONST> 6.553220e+01
<STATE> 3
<MEAN> 25
 -2.366828e+00 2.571079e+00 2.194879e+00 -1.670755e+00 2.042374e-01 3.691780e+00 2.906663e+00 2.020838e+00 2.305646e+00 8.931215e-01 -4.391733e-01 -4.819847e-02 -1.492518e-01 1.284559e-02 1.691270e-01 4.570937e-02 1.205912e-01 7.748196e-02 7.548553e-02 -6.860480e-02 -6.332365e-02 8.582989e-02 4.459978e-02 -4.931235e-02 -4.335603e-02
<VARIANCE> 25
 1.842979e+01 1.142937e+01 1.759413e+01 2.744304e+01 2.492868e+01 2.758285e+01 2.093638e+01 1.847719e+01 2.639659e+01 2.094935e+01 1.909263e+01 1.584366e+01 3.055042e-01 4.161472e-01 6.937618e-01 7.732708e-01 7.395682e-01 9.328839e-01 8.781158e-01 9.885913e-01 1.121665e+00 1.163733e+00 1.144952e+00 9.134099e-01 1.843729e-01
<GCONST> 7.741798e+01
<STATE> 4
<MEAN> 25
 -2.459055e+00 2.076959e+00 2.581787e+00 3.489061e-01 1.952813e+00 2.771255e+00 9.859136e-01 2.311817e-01 1.655537e+00 9.875944e-01 -3.987024e-01 -2.858527e-01 1.452846e-01 -1.482507e-01 -4.482779e-02 2.541079e-03 1.270841e-02 -2.593418e-01 -1.589622e-01 -4.059652e-01 -4.822029e-01 -5.065259e-02 1.542592e-01 -2.092621e-01 2.373409e-01
<VARIANCE> 25
 2.123731e+01 1.990790e+01 2.225148e+01 3.813531e+01 2.347787e+01 5.233205e+01 2.979122e+01 2.099585e+01 3.672295e+01 2.720694e+01 2.223462e+01 2.070809e+01 7.273918e-01 9.846538e-01 1.165244e+00 1.086447e+00 1.133229e+00 2.017109e+00 1.607800e+00 1.936319e+00 2.439566e+00 1.871964e+00 1.776347e+00 1.428049e+00 4.373891e-01
