~o
<STREAMINFO> 1 25
<VECSIZE> 25<NULLD><MFCC_D_N_Z_0><DIAGC>
~h "b"
<BEGINHMM>
<NUMSTATES> 5
<STATE> 2
<MEAN> 25
 -1.452707e-01 4.094083e-02 1.224178e-01 1.392165e-01 5.618183e-02 -4.678091e-02 -8.456501e-02 4.630121e-02 2.341113e-01 8.493984e-02 -4.872819e-02 1.091778e-02 2.264679e-02 -8.084153e-03 -1.429491e-02 -6.971370e-03 -1.912246e-02 -1.733084e-02 -4.110097e-03 -1.430568e-03 -2.205958e-02 -1.870449e-02 -2.842056e-03 -1.347391e-03 1.733392e-02
<VARIANCE> 25
 2.899032e+01 3.064315e+01 3.181949e+01 3.763062e+01 3.442380e+01 6.980399e+01 4.798712e+01 3.079480e+01 4.794525e+01 3.196789e+01 2.626072e+01 2.025902e+01 7.030129e-01 1.168654e+00 1.089290e+00 1.135414e+00 1.298996e+00 2.454775e+00 1.953660e+00 1.692964e+00 1.967293e+00 1.563033e+00 1.623128e+00 1.117389e+00 5.450866e-01
<GCONST> 9.200199e+01
<STATE> 3
<MEAN> 25
 -7.901905e-02 1.829457e-02 8.033019e-02 1.177922e-01 2.959178e-03 -9.078979e-02 -9.119624e-02 4.126346e-02 1.692677e-01 3.439328e-02 -5.018409e-02 9.084065e-03 2.264748e-02 -6.997691e-03 -1.421519e-02 -8.008024e-03 -1.765333e-02 -1.327288e-02 -7.224808e-04 -2.338496e-03 -2.429521e-02 -1.767884e-02 5.288008e-04 -1.356162e-05 1.691167e-02
<VARIANCE> 25
 2.885797e+01 3.086081e+01 3.189060e+01 3.779335e+01 3.473624e+01 6.993922e+01 4.783108e+01 3.087155e+01 4.784785e+01 3.206031e+01 2.648689e+01 2.033323e+01 7.032990e-01 1.181595e+00 1.093643e+00 1.141761e+00 1.311074e+00 2.477066e+00 1.961962e+00 1.698282e+00 1.986596e+00 1.577240e+00 1.635404e+00 1.125717e+00 5.530893e-01
<GCONST> 9.212933e+01
<STATE> 4
<MEAN> 25
 3.884832e-02 -1.026344e-02 1.117978e-02 7.424734e-02 -7.364219e-02 -1.590380e-01 -1.043112e-01 9.009512e-03 2.569106e-02 -6.331562e-02 -5.315825e-02 -3.644364e-03 2.105741e-02 -7.142668e-03 -1.343635e-02 -8.403290e-03 -1.527848e-02 -1.051436e-02 6.024111e-04 -5.050624e-03 -2.654334e-02 -1.654402e-02 3.707241e-03 1.283969e-03 1.632769e-02
<VARIANCE> 25
 2.849440e+01 3.068948e+01 3.166057e+01 3.759692e+01 3.491653e+01 6.942137e+01 4.726412e+01 3.085471e+01 4.753720e+01 3.204232e+01 2.666314e+01 2.029084e+01 6.981512e-01 1.187186e+00 1.090323e+00 1.143176e+00 1.320489e+00 2.492074e+00 1.958273e+00 1.701432e+00 2.003633e+00 1.584870e+00 1.643537e+00 1.129578e+00 5.599469e-01
<GCONST> 9.212421e+01
<TRANSP> 5
 0.000000e+00 1.000000e+00 0.000000e+00 0.000000e+00 0.000000e+00
 0.000000e+00 6.565366e-01 3.434634e-01 0.000000e+00 0.000000e+00
 0.000000e+00 0.000000e+00 6.565350e-01 3.434650e-01 0.000000e+00
 0.000000e+00 0.000000e+00 0.000000e+00 7.706981e-01 2.293019e-01
 0.000000e+00 0.000000e+00 0.000000e+00 0.000000e+00 0.000000e+00
<ENDHMM>
~h "d"
<BEGINHMM>
<NUMSTATES> 5
<STATE> 2
<MEAN> 25
 2.048160e-01 -1.542526e-01 -1.178167e-01 -1.427959e-01 -1.957782e-01 -2.811110e-01 -8.620989e-02 -1.459470e-01 -3.276286e-01 -2.439607e-01 -4.231558e-02 -1.243244e-01 2.009042e-02 -1.160704e-02 -1.135733e-02 5.750709e-06 -2.166960e-03 -2.658942e-02 -1.489562e-02 -1.080284e-02 -2.501561e-02 -1.846487e-02 1.060271e-04 -8.715319e-03 2.117941e-02
<VARIANCE> 25
 2.903222e+01 3.137954e+01 3.333493e+01 4.005850e+01 3.583696e+01 6.819498e+01 5.025230e+01 3.202145e+01 4.719193e+01 3.237025e+01 2.884204e+01 2.089114e+01 7.552714e-01 1.228182e+00 1.156294e+00 1.204118e+00 1.352374e+00 2.571358e+00 2.071735e+00 1.766913e+00 2.044409e+00 1.660012e+00 1.728466e+00 1.170057e+00 5.817611e-01
<GCONST> 9.306014e+01
<STATE> 3
<MEAN> 25
 2.642454e-01 -1.884055e-01 -1.503302e-01 -1.430670e-01 -2.011240e-01 -3.595836e-01 -1.300087e-01 -1.776686e-01 -4.007379e-01 -2.975123e-01 -4.060598e-02 -1.502856e-01 1.990691e-02 -1.225531e-02 -1.088787e-02 7.586575e-04 -1.041091e-03 -2.671718e-02 -1.501849e-02 -1.012637e-02 -2.414499e-02 -1.739648e-02 3.852435e-04 -8.890782e-03 2.179256e-02
<VARIANCE> 25
 2.893075e+01 3.155264e+01 3.357171e+01 4.046365e+01 3.609754e+01 6.820200e+01 5.064380e+01 3.215637e+01 4.693539e+01 3.241861e+01 2.905248e+01 2.095862e+01 7.636077e-01 1.242064e+00 1.169508e+00 1.214650e+00 1.362505e+00 2.597512e+00 2.089887e+00 1.779221e+00 2.056348e+00 1.664482e+00 1.739743e+00 1.177778e+00 5.876876e-01
<GCONST> 9.321238e+01
<STATE> 4
<MEAN> 25
 3.609470e-01 -2.242342e-01 -1.886756e-01 -1.372620e-01 -2.069340e-01 -4.806513e-01 -2.181977e-01 -2.459032e-01 -5.190313e-01 -3.786310e-01 -4.346300e-02 -2.014722e-01 1.874363e-02 -1.326250e-02 -1.039755e-02 1.364082e-03 -9.215159e-04 -2.620155e-02 -1.526029e-02 -9.455879e-03 -2.202030e-02 -1.446796e-02 1.952201e-03 -8.330053e-03 2.169809e-02
<VARIANCE> 25
 2.835375e+01 3.110128e+01 3.319430e+01 4.010062e+01 3.579044e+01 6.671017e+01 5.016369e+01 3.196975e+01 4.578470e+01 3.205809e+01 2.897639e+01 2.073489e+01 7.577873e-01 1.231156e+00 1.163556e+00 1.205662e+00 1.353200e+00 2.573044e+00 2.079636e+00 1.774493e+00 2.041212e+00 1.647808e+00 1.731570e+00 1.173195e+00 5.821689e-01
<GCONST> 9.297376e+01
<TRANSP> 5
 0.000000e+00 1.000000e+00 0.000000e+00 0.000000e+00 0.000000e+00
 0.000000e+00 6.579671e-01 3.420330e-01 0.000000e+00 0.000000e+00
 0.000000e+00 0.000000e+00 6.579609e-01 3.420391e-01 0.000000e+00
 0.000000e+00 0.000000e+00 0.000000e+00 7.739305e-01 2.260695e-01
 0.000000e+00 0.000000e+00 0.000000e+00 0.000000e+00 0.000000e+00
<ENDHMM>
~h "f"
<BEGINHMM>
<NUMSTATES> 5
<STATE> 2
<MEAN> 25
 -5.846086e-02 2.335360e-02 6.910440e-02 -7.360962e-03 8.432617e-02 1.711436e-01 -4.903167e-02 -6.605279e-03 1.754746e-02 1.536130e-01 5.567793e-02 1.107019e-01 1.273299e-02 -3.800968e-03 -6.857778e-03 -1.496665e-02 -6.955501e-03 -1.804657e-02 -1.157487e-02 -1.256437e-02 -2.247672e-02 -1.196760e-02 3.597872e-03 -8.763700e-03 1.524093e-02
<VARIANCE> 25
 2.913353e+01 3.017229e+01 3.308097e+01 3.861495e+01 3.306355e+01 6.737827e+01 4.708067e+01 3.051262e+01 4.706129e+01 3.163341e+01 2.822565e+01 2.084514e+01 7.363046e-01 1.140943e+00 1.104665e+00 1.123506e+00 1.271045e+00 2.452839e+00 1.962625e+00 1.699277e+00 2.014726e+00 1.563084e+00 1.637581e+00 1.164312e+00 5.437979e-01
<GCONST> 9.210675e+01
<STATE> 3
<MEAN> 25
 -1.854548e-02 1.165423e-02 4.875038e-02 -4.466246e-02 6.502256e-02 1.164083e-01 -8.136224e-02 -4.161435e-02 -4.576639e-02 1.192780e-01 6.772339e-02 8.393571e-02 1.449339e-02 -6.622235e-03 -8.618252e-03 -1.339079e-02 -7.441994e-03 -1.900031e-02 -1.064422e-02 -1.329702e-02 -2.285373e-02 -1.076041e-02 6.342841e-03 -8.917016e-03 1.730673e-02
<VARIANCE> 25
 2.912581e+01 3.027730e+01 3.320110e+01 3.875587e+01 3.315819e+01 6.705938e+01 4.725613e+01 3.068976e+01 4.716662e+01 3.180479e+01 2.833665e+01 2.092292e+01 7.484150e-01 1.147058e+00 1.115237e+00 1.137383e+00 1.282967e+00 2.470729e+00 1.988695e+00 1.722350e+00 2.029409e+00 1.578487e+00 1.643604e+00 1.173532e+00 5.499888e-01
<GCONST> 9.226682e+01
<STATE> 4
<MEAN> 25
 4.648442e-02 -1.990207e-02 7.994584e-03 -8.345730e-02 3.445720e-02 1.963527e-02 -1.268298e-01 -9.630148e-02 -1.356492e-01 6.732654e-02 8.411737e-02 4.223935e-02 1.731962e-02 -1.017723e-02 -1.025524e-02 -9.445480e-03 -8.496501e-03 -2.158167e-02 -1.103232e-02 -1.451011e-02 -2.508117e-02 -1.130074e-02 6.884178e-03 -1.012938e-02 1.962598e-02
<VARIANCE> 25
 2.896381e+01 3.009203e+01 3.303395e+01 3.853933e+01 3.337533e+01 6.621088e+01 4.711648e+01 3.069925e+01 4.670803e+01 3.178939e+01 2.830982e+01 2.093339e+01 7.539560e-01 1.142882e+00 1.114942e+00 1.146592e+00 1.291878e+00 2.465726e+00 2.014066e+00 1.740283e+00 2.039864e+00 1.588017e+00 1.644035e+00 1.179340e+00 5.520673e-01
<GCONST> 9.228448e+01
<TRANSP> 5
 0.000000e+00 1.000000e+00 0.000000e+00 0.000000e+00 0.000000e+00
 0.000000e+00 6.573397e-01 3.426604e-01 0.000000e+00 0.000000e+00
 0.000000e+00 0.000000e+00 6.573387e-01 3.426613e-01 0.000000e+00
 0.000000e+00 0.000000e+00 0.000000e+00 7.701661e-01 2.298339e-01
 0.000000e+00 0.000000e+00 0.000000e+00 0.000000e+00 0.000000e+00
<ENDHMM>
~h "g"
<BEGINHMM>
<NUMSTATES> 5
<STATE> 2
<MEAN> 25
 -1.875895e-01 -9.407618e-02 -9.701807e-02 -1.205102e-01 3.489842e-02 4.373631e-01 4.031109e-01 1.316215e-01 1.490415e-01 2.305541e-01 1.295564e-01 7.833982e-02 2.717086e-02 -1.472214e-02 -1.888052e-02 -9.423275e-03 -9.543293e-03 -3.378137e-02 -1.984313e-02 -2.243019e-02 -4.456344e-02 -2.434264e-02 7.755145e-03 -1.318921e-03 2.622649e-02
<VARIANCE> 25
 2.881106e+01 2.854841e+01 3.049612e+01 3.398515e+01 3.242671e+01 6.583548e+01 4.707909e+01 3.002941e+01 4.697807e+01 3.174655e+01 2.647412e+01 1.970012e+01 6.684368e-01 1.093094e+00 1.020305e+00 1.050157e+00 1.221196e+00 2.328816e+00 1.865628e+00 1.568853e+00 1.865180e+00 1.494387e+00 1.599443e+00 1.109324e+00 5.171698e-01
<GCONST> 9.090069e+01
<STATE> 3
<MEAN> 25
 -1.063929e-01 -1.332531e-01 -1.518541e-01 -1.475989e-01 6.098102e-03 3.330332e-01 3.377613e-01 6.152551e-02 1.805837e-02 1.598313e-01 1.493434e-01 7.459741e-02 2.597514e-02 -1.165105e-02 -1.624576e-02 -9.116139e-03 -9.831363e-03 -3.462702e-02 -2.234966e-02 -2.361264e-02 -4.289063e-02 -2.263779e-02 6.470616e-03 -7.346248e-04 2.418491e-02
<VARIANCE> 25
 2.881743e+01 2.864123e+01 3.079864e+01 3.419281e+01 3.262236e+01 6.602309e+01 4.713576e+01 3.005248e+01 4.727016e+01 3.179416e+01 2.662509e+01 1.967356e+01 6.789124e-01 1.100487e+00 1.029332e+00 1.065600e+00 1.232064e+00 2.360947e+00 1.887448e+00 1.587629e+00 1.890515e+00 1.504861e+00 1.612077e+00 1.113579e+00 5.232415e-01
<GCONST> 9.107861e+01
<STATE> 4
<MEAN> 25
 3.135270e-02 -1.739533e-01 -2.283464e-01 -1.921308e-01 -6.213599e-02 1.584107e-01 2.316847e-01 -4.219161e-02 -1.800741e-01 4.779260e-02 1.647019e-01 6.671945e-02 2.499330e-02 -7.161917e-03 -1.215282e-02 -7.721110e-03 -1.103909e-02 -3.618110e-02 -2.448752e-02 -2.362940e-02 -3.963250e-02 -2.027427e-02 5.307540e-03 -1.216218e-03 2.171835e-02
<VARIANCE> 25
 2.861182e+01 2.846092e+01 3.074649e+01 3.439670e+01 3.289558e+01 6.587173e+01 4.713612e+01 3.006032e+01 4.734285e+01 3.171904e+01 2.666321e+01 1.958121e+01 6.828300e-01 1.100463e+00 1.031780e+00 1.076405e+00 1.241007e+00 2.377257e+00 1.901396e+00 1.601481e+00 1.913367e+00 1.511687e+00 1.617960e+00 1.110995e+00 5.261505e-01
<GCONST> 9.114336e+01
<TRANSP> 5
 0.000000e+00 1.000000e+00 0.000000e+00 0.000000e+00 0.000000e+00
 0.000000e+00 6.603461e-01 3.396539e-01 0.000000e+00 0.000000e+00
 0.000000e+00 0.000000e+00 6.603444e-01 3.396555e-01 0.000000e+00
 0.000000e+00 0.000000e+00 0.000000e+00 7.733164e-01 2.266836e-01
 0.000000e+00 0.000000e+00 0.000000e+00 0.000000e+00 0.000000e+00
<ENDHMM>
~h "k"
<BEGINHMM>
<NUMSTATES> 5
<STATE> 2
<MEAN> 25
 9.022763e-02 8.532917e-02 1.987021e-03 -8.323272e-02 4.906089e-03 -8.959913e-02 -1.238429e-01 -1.621921e-01 -9.211583e-02 -2.079072e-02 2.173973e-02 -4.110231e-02 1.766536e-02 -7.629371e-03 -1.278262e-02 -1.655170e-03 -3.744639e-03 -2.574497e-02 -1.975094e-02 -1.393737e-02 -1.810792e-02 -1.132865e-02 -4.577704e-03 -7.804735e-03 1.539306e-02
<VARIANCE> 25
 2.911024e+01 2.922306e+01 3.170503e+01 3.768636e+01 3.496821e+01 6.869341e+01 4.728645e+01 3.103453e+01 4.743015e+01 3.194718e+01 2.737024e+01 2.030807e+01 7.296870e-01 1.155606e+00 1.093844e+00 1.155634e+00 1.320610e+00 2.424250e+00 1.965233e+00 1.692763e+00 1.986685e+00 1.604656e+00 1.653761e+00 1.154242e+00 5.550205e-01
<GCONST> 9.214452e+01
<STATE> 3
<MEAN> 25
 1.407402e-01 6.425031e-02 -3.298552e-02 -8.606906e-02 -6.178421e-03 -1.625638e-01 -1.769366e-01 -1.991077e-01 -1.403846e-01 -4.979597e-02 1.025386e-02 -6.405964e-02 1.685345e-02 -6.590644e-03 -1.159101e-02 -1.980265e-03 -4.315885e-03 -2.577206e-02 -1.672112e-02 -1.184771e-02 -1.687935e-02 -9.517324e-03 -3.211990e-03 -8.549551e-03 1.501903e-02
<VARIANCE> 25
 2.909251e+01 2.922878e+01 3.185372e+01 3.800378e+01 3.509973e+01 6.868367e+01 4.746040e+01 3.110578e+01 4.721699e+01 3.194540e+01 2.762468e+01 2.041985e+01 7.353724e-01 1.158857e+00 1.101400e+00 1.161300e+00 1.330750e+00 2.446239e+00 1.972775e+00 1.704780e+00 1.998378e+00 1.616646e+00 1.669043e+00 1.163714e+00 5.573943e-01
<GCONST> 9.226182e+01
<STATE> 4
<MEAN> 25
 2.140598e-01 2.817821e-02 -8.138055e-02 -8.247659e-02 -2.762319e-02 -2.687922e-01 -2.490453e-01 -2.461266e-01 -2.071544e-01 -8.932394e-02 -7.225247e-04 -9.752384e-02 1.566064e-02 -8.018559e-03 -1.167974e-02 -2.603889e-03 -6.229758e-03 -2.532520e-02 -1.327594e-02 -9.330920e-03 -1.628297e-02 -8.475956e-03 -2.209004e-03 -8.099805e-03 1.486079e-02
<VARIANCE> 25
 2.884357e+01 2.894563e+01 3.179107e+01 3.819581e+01 3.503577e+01 6.828558e+01 4.749907e+01 3.112320e+01 4.658832e+01 3.186274e+01 2.783468e+01 2.048106e+01 7.330816e-01 1.154353e+00 1.102513e+00 1.162312e+00 1.332915e+00 2.465358e+00 1.971714e+00 1.709293e+00 2.007823e+00 1.624552e+00 1.683377e+00 1.169993e+00 5.579741e-01
<GCONST> 9.226582e+01
<TRANSP> 5
 0.000000e+00 1.000000e+00 0.000000e+00 0.000000e+00 0.000000e+00
 0.000000e+00 6.566452e-01 3.433549e-01 0.000000e+00 0.000000e+00
 0.000000e+00 0.000000e+00 6.566433e-01 3.433567e-01 0.000000e+00
 0.000000e+00 0.000000e+00 0.000000e+00 7.693053e-01 2.306947e-01
 0.000000e+00 0.000000e+00 0.000000e+00 0.000000e+00 0.000000e+00
<ENDHMM>
~h "l"
<BEGINHMM>
<NUMSTATES> 5
<STATE> 2
<MEAN> 25
 4.786871e-02 -3.184961e-02 2.581725e-03 7.037532e-02 1.303105e-02 -1.261588e-01 -1.663116e-01 -9.031723e-02 -1.508517e-02 1.298533e-02 -4.108935e-02 -1.113894e-01 2.004744e-02 -9.276090e-03 -8.765494e-03 -9.917787e-04 -6.708913e-03 -2.932594e-02 -2.449342e-02 -2.179015e-02 -3.024753e-02 -1.733561e-02 1.620829e-03 -7.534936e-03 2.020473e-02
<VARIANCE> 25
 2.868753e+01 2.919155e+01 3.080366e+01 3.721745e+01 3.375248e+01 6.917938e+01 4.871727e+01 3.172749e+01 4.740751e+01 3.286609e+01 2.855189e+01 2.065432e+01 7.165014e-01 1.153713e+00 1.093124e+00 1.159205e+00 1.292101e+00 2.441442e+00 2.003828e+00 1.723408e+00 2.021598e+00 1.624654e+00 1.699414e+00 1.157007e+00 5.509279e-01
<GCONST> 9.225528e+01
<STATE> 3
<MEAN> 25
 1.067867e-01 -5.787173e-02 -2.147646e-02 7.111041e-02 -4.331360e-03 -2.101464e-01 -2.383032e-01 -1.546859e-01 -1.036436e-01 -3.919684e-02 -3.790832e-02 -1.331722e-01 2.136594e-02 -9.755131e-03 -9.947434e-03 -6.140383e-04 -6.585226e-03 -2.909865e-02 -2.336441e-02 -2.238753e-02 -3.189066e-02 -1.878245e-02 1.069947e-03 -7.315205e-03 2.070455e-02
<VARIANCE> 25
 2.861646e+01 2.928001e+01 3.093197e+01 3.767884e+01 3.385307e+01 6.901223e+01 4.883447e+01 3.185436e+01 4.732949e+01 3.294027e+01 2.869450e+01 2.073752e+01 7.235452e-01 1.159889e+00 1.101834e+00 1.168738e+00 1.300925e+00 2.460790e+00 2.014783e+00 1.733538e+00 2.042135e+00 1.637495e+00 1.710080e+00 1.164013e+00 5.546774e-01
<GCONST> 9.238316e+01
<STATE> 4
<MEAN> 25
 1.921624e-01 -8.654998e-02 -5.499522e-02 7.726148e-02 -3.152085e-02 -3.259930e-01 -3.265824e-01 -2.468988e-01 -2.327299e-01 -1.173230e-01 -3.350800e-02 -1.664813e-01 2.286108e-02 -9.564509e-03 -1.148412e-02 -6.505825e-04 -7.186990e-03 -2.794960e-02 -2.101610e-02 -2.158750e-02 -3.278045e-02 -1.942618e-02 5.738356e-04 -6.510727e-03 2.067181e-02
<VARIANCE> 25
 2.828102e+01 2.905522e+01 3.078479e+01 3.793451e+01 3.385016e+01 6.829997e+01 4.871040e+01 3.187672e+01 4.688790e+01 3.282853e+01 2.870245e+01 2.071926e+01 7.263552e-01 1.156352e+00 1.103204e+00 1.171452e+00 1.305052e+00 2.463767e+00 2.014982e+00 1.735604e+00 2.053518e+00 1.645706e+00 1.713524e+00 1.166184e+00 5.540425e-01
<GCONST> 9.236333e+01
<TRANSP> 5
 0.000000e+00 1.000000e+00 0.000000e+00 0.000000e+00 0.000000e+00
 0.000000e+00 6.549801e-01 3.450199e-01 0.000000e+00 0.000000e+00
 0.000000e+00 0.000000e+00 6.549789e-01 3.450212e-01 0.000000e+00
 0.000000e+00 0.000000e+00 0.000000e+00 7.673687e-01 2.326313e-01
 0.000000e+00 0.000000e+00 0.000000e+00 0.000000e+00 0.000000e+00
<ENDHMM>
~h "m"
<BEGINHMM>
<NUMSTATES> 5
<STATE> 2
<MEAN> 25
 -1.386192e-01 -2.317245e-02 8.461664e-02 3.396023e-02 7.601504e-02 7.696017e-02 -7.070512e-02 -8.289124e-02 1.073865e-01 1.283521e-01 4.361372e-02 4.097685e-02 1.758395e-02 -2.400691e-03 -7.968489e-03 -1.075373e-02 -1.506964e-02 -2.808720e-02 -2.576285e-03 -3.461253e-03 -2.485351e-02 -1.944548e-02 -7.805165e-04 -9.302335e-03 1.708905e-02
<VARIANCE> 25
 2.876813e+01 2.981806e+01 3.210614e+01 3.712605e+01 3.348838e+01 7.034459e+01 4.805964e+01 3.050941e+01 4.839001e+01 3.153856e+01 2.683306e+01 2.048277e+01 6.934510e-01 1.184582e+00 1.107268e+00 1.165215e+00 1.305906e+00 2.499347e+00 1.982703e+00 1.673174e+00 1.978527e+00 1.623363e+00 1.656919e+00 1.151224e+00 5.503952e-01
<GCONST> 9.213523e+01
<STATE> 3
<MEAN> 25
 -8.340006e-02 -2.900653e-02 6.065619e-02 4.438268e-03 3.120930e-02 -1.078035e-02 -8.159562e-02 -9.443482e-02 3.071420e-02 6.812786e-02 3.931541e-02 1.257583e-02 1.821079e-02 -1.336531e-03 -7.421568e-03 -1.060133e-02 -1.506089e-02 -2.896917e-02 -3.934410e-03 -3.744972e-03 -2.679655e-02 -2.176241e-02 -2.033439e-03 -9.814098e-03 1.766518e-02
<VARIANCE> 25
 2.882071e+01 2.985737e+01 3.216147e+01 3.753386e+01 3.395808e+01 7.058225e+01 4.831346e+01 3.055839e+01 4.835604e+01 3.176986e+01 2.699624e+01 2.046716e+01 6.986716e-01 1.189998e+00 1.109896e+00 1.171441e+00 1.313250e+00 2.516746e+00 1.996619e+00 1.682685e+00 1.995246e+00 1.630620e+00 1.658536e+00 1.155103e+00 5.526666e-01
<GCONST> 9.225339e+01
<STATE> 4
<MEAN> 25
 2.520587e-02 -4.275997e-02 1.816451e-03 -5.123043e-02 -4.656348e-02 -1.523345e-01 -1.013744e-01 -1.108549e-01 -1.011391e-01 -3.579839e-02 2.722061e-02 -3.827055e-02 1.981166e-02 -9.374465e-04 -7.069881e-03 -8.779668e-03 -1.430987e-02 -2.950586e-02 -6.809659e-03 -5.317533e-03 -2.830495e-02 -2.362785e-02 -4.312845e-03 -1.123176e-02 1.865705e-02
<VARIANCE> 25
 2.864907e+01 2.975029e+01 3.202541e+01 3.787243e+01 3.435120e+01 7.035360e+01 4.829983e+01 3.049595e+01 4.802703e+01 3.190364e+01 2.719206e+01 2.043671e+01 6.981491e-01 1.189517e+00 1.108112e+00 1.173184e+00 1.318461e+00 2.524132e+00 2.002867e+00 1.683763e+00 2.005055e+00 1.628917e+00 1.657500e+00 1.156909e+00 5.539089e-01
<GCONST> 9.227406e+01
<TRANSP> 5
 0.000000e+00 1.000000e+00 0.000000e+00 0.000000e+00 0.000000e+00
 0.000000e+00 6.583676e-01 3.416323e-01 0.000000e+00 0.000000e+00
 0.000000e+00 0.000000e+00 6.583644e-01 3.416356e-01 0.000000e+00
 0.000000e+00 0.000000e+00 0.000000e+00 7.716872e-01 2.283129e-01
 0.000000e+00 0.000000e+00 0.000000e+00 0.000000e+00 0.000000e+00
<ENDHMM>
~h "n"
<BEGINHMM>
<NUMSTATES> 5
<STATE> 2
<MEAN> 25
 7.636563e-02 -3.649060e-02 -6.092319e-02 -1.455152e-01 -1.250514e-01 -8.505215e-02 1.679169e-02 -1.946369e-02 -1.742795e-01 -1.541471e-01 -1.167319e-03 9.955806e-03 2.120183e-02 -1.312483e-02 -1.231442e-02 3.199011e-03 -6.459907e-03 -2.588948e-02 -1.612432e-02 -9.465423e-03 -2.085182e-02 -1.664785e-02 -3.700658e-03 -8.453244e-03 2.025122e-02
<VARIANCE> 25
 2.896162e+01 3.019620e+01 3.216229e+01 3.879166e+01 3.474841e+01 6.811006e+01 4.751106e+01 3.108791e+01 4.904235e+01 3.307885e+01 2.860710e+01 2.082035e+01 7.148396e-01 1.207513e+00 1.121805e+00 1.180611e+00 1.327813e+00 2.470458e+00 1.984135e+00 1.722357e+00 2.044201e+00 1.642099e+00 1.722324e+00 1.153833e+00 5.577180e-01
<GCONST> 9.256230e+01
<STATE> 3
<MEAN> 25
 1.384699e-01 -7.163870e-02 -9.638751e-02 -1.369704e-01 -1.429071e-01 -1.611394e-01 -3.128008e-02 -4.721321e-02 -2.348609e-01 -2.042232e-01 -1.412143e-02 -1.532402e-02 2.063901e-02 -1.332036e-02 -1.243160e-02 4.054923e-03 -4.977965e-03 -2.657474e-02 -1.671107e-02 -9.260355e-03 -2.006605e-02 -1.624927e-02 -3.996356e-03 -9.075340e-03 2.000362e-02
<VARIANCE> 25
 2.887951e+01 3.043196e+01 3.232705e+01 3.918888e+01 3.495113e+01 6.849963e+01 4.784885e+01 3.117344e+01 4.883365e+01 3.313002e+01 2.877431e+01 2.095219e+01 7.157906e-01 1.219337e+00 1.128318e+00 1.185140e+00 1.331162e+00 2.491316e+00 1.998667e+00 1.731270e+00 2.048475e+00 1.648605e+00 1.733492e+00 1.157819e+00 5.628632e-01
<GCONST> 9.268255e+01
<STATE> 4
<MEAN> 25
 2.303845e-01 -1.109874e-01 -1.435987e-01 -1.240051e-01 -1.580661e-01 -2.708749e-01 -1.121758e-01 -1.026559e-01 -3.327600e-01 -2.769023e-01 -3.251234e-02 -6.183390e-02 2.036913e-02 -1.217912e-02 -1.217329e-02 4.624825e-03 -3.164402e-03 -2.714457e-02 -1.681631e-02 -1.042410e-02 -2.078356e-02 -1.573587e-02 -3.567144e-03 -9.910174e-03 1.941419e-02
<VARIANCE> 25
 2.832377e+01 3.009769e+01 3.193037e+01 3.896746e+01 3.466687e+01 6.762006e+01 4.754671e+01 3.096148e+01 4.769118e+01 3.270767e+01 2.863001e+01 2.087335e+01 7.046818e-01 1.209221e+00 1.117643e+00 1.171831e+00 1.316988e+00 2.473675e+00 1.991885e+00 1.722459e+00 2.022625e+00 1.635770e+00 1.725510e+00 1.152095e+00 5.574860e-01
<GCONST> 9.244373e+01
<TRANSP> 5
 0.000000e+00 1.000000e+00 0.000000e+00 0.000000e+00 0.000000e+00
 0.000000e+00 6.560250e-01 3.439750e-01 0.000000e+00 0.000000e+00
 0.000000e+00 0.000000e+00 6.560273e-01 3.439727e-01 0.000000e+00
 0.000000e+00 0.000000e+00 0.000000e+00 7.709957e-01 2.290043e-01
 0.000000e+00 0.000000e+00 0.000000e+00 0.000000e+00 0.000000e+00
<ENDHMM>
~h "p"
<BEGINHMM>
<NUMSTATES> 5
<STATE> 2
<MEAN> 25
 1.413460e-01 -7.119647e-02 -7.572728e-02 -3.588733e-02 2.015525e-02 -2.089800e-01 -1.740583e-01 -1.462281e-01 -1.780322e-01 1.994172e-02 1.426211e-01 -2.700021e-02 1.972614e-02 -6.001829e-03 -1.126697e-02 -7.923899e-03 -1.016517e-02 -2.418761e-02 -9.873176e-03 -9.071801e-03 -2.907645e-02 -2.439846e-02 -3.315589e-03 -4.156592e-03 1.856614e-02
<VARIANCE> 25
 2.961764e+01 2.966755e+01 3.197153e+01 3.778201e+01 3.485865e+01 7.065079e+01 5.014262e+01 3.265619e+01 4.892909e+01 3.246454e+01 2.789328e+01 2.085818e+01 7.410082e-01 1.196836e+00 1.126204e+00 1.145450e+00 1.341965e+00 2.457508e+00 2.066867e+00 1.786656e+00 2.041741e+00 1.622520e+00 1.670607e+00 1.168539e+00 5.727857e-01
<GCONST> 9.271236e+01
<STATE> 3
<MEAN> 25
 1.952064e-01 -8.819062e-02 -1.076225e-01 -6.028126e-02 -9.563640e-03 -2.760710e-01 -1.978505e-01 -1.679914e-01 -2.581021e-01 -5.067171e-02 1.329764e-01 -3.967401e-02 1.730623e-02 -5.481769e-03 -9.769186e-03 -8.257942e-03 -9.821086e-03 -2.273146e-02 -7.810488e-03 -7.163625e-03 -2.692504e-02 -2.345149e-02 -3.616367e-03 -4.555595e-03 1.727288e-02
<VARIANCE> 25
 2.958078e+01 2.983542e+01 3.222414e+01 3.834644e+01 3.499960e+01 7.066042e+01 5.040108e+01 3.285749e+01 4.867053e+01 3.257621e+01 2.796377e+01 2.097576e+01 7.448038e-01 1.201649e+00 1.132128e+00 1.156057e+00 1.349141e+00 2.477893e+00 2.074782e+00 1.796555e+00 2.042671e+00 1.625007e+00 1.676981e+00 1.173229e+00 5.732000e-01
<GCONST> 9.281825e+01
<STATE> 4
<MEAN> 25
 2.574960e-01 -1.147129e-01 -1.661411e-01 -1.100504e-01 -6.161843e-02 -3.543576e-01 -2.128460e-01 -1.813948e-01 -3.344474e-01 -1.261598e-01 1.188535e-01 -5.782218e-02 1.557546e-02 -5.643308e-03 -9.802912e-03 -8.328583e-03 -1.093276e-02 -2.151787e-02 -5.959942e-03 -5.494860e-03 -2.444345e-02 -2.257690e-02 -4.269239e-03 -5.164009e-03 1.603490e-02
<VARIANCE> 25
 2.933529e+01 2.958316e+01 3.218815e+01 3.859831e+01 3.509137e+01 6.993952e+01 5.014068e+01 3.269127e+01 4.775235e+01 3.234095e+01 2.775788e+01 2.093873e+01 7.418576e-01 1.189375e+00 1.126706e+00 1.156818e+00 1.349373e+00 2.478208e+00 2.064624e+00 1.787721e+00 2.030006e+00 1.614475e+00 1.667929e+00 1.170129e+00 5.684214e-01
<GCONST> 9.269646e+01
<TRANSP> 5
 0.000000e+00 1.000000e+00 0.000000e+00 0.000000e+00 0.000000e+00
 0.000000e+00 6.522046e-01 3.477955e-01 0.000000e+00 0.000000e+00
 0.000000e+00 0.000000e+00 6.522027e-01 3.477972e-01 0.000000e+00
 0.000000e+00 0.000000e+00 0.000000e+00 7.651367e-01 2.348634e-01
 0.000000e+00 0.000000e+00 0.000000e+00 0.000000e+00 0.000000e+00
<ENDHMM>
~h "r"
<BEGINHMM>
<NUMSTATES> 5
<STATE> 2
<MEAN> 25
 2.673300e-02 -6.357802e-02 2.142463e-02 -7.451183e-02 -8.409023e-02 -1.581279e-01 6.644397e-02 -3.152209e-02 -2.209189e-01 -6.656563e-02 6.645405e-02 -1.253517e-01 2.479967e-02 -1.146369e-02 -1.218798e-02 9.939913e-05 -9.790719e-03 -3.140770e-02 -1.868900e-02 -1.491722e-02 -2.845785e-02 -1.653546e-02 3.091360e-04 -7.851719e-03 2.198688e-02
<VARIANCE> 25
 2.914128e+01 3.092630e+01 3.281073e+01 3.981301e+01 3.513013e+01 7.016756e+01 4.886497e+01 3.151747e+01 4.797645e+01 3.176389e+01 2.823841e+01 2.091146e+01 7.424111e-01 1.211617e+00 1.139779e+00 1.192398e+00 1.318026e+00 2.528772e+00 2.046745e+00 1.747144e+00 2.069364e+00 1.650438e+00 1.734817e+00 1.166790e+00 5.691435e-01
<GCONST> 9.283403e+01
<STATE> 3
<MEAN> 25
 9.759296e-02 -9.724201e-02 -1.331415e-02 -7.386982e-02 -1.127599e-01 -2.493895e-01 1.134001e-02 -7.509039e-02 -3.010894e-01 -1.128094e-01 6.801198e-02 -1.488924e-01 2.560388e-02 -1.239984e-02 -1.323409e-02 -1.876079e-04 -1.208988e-02 -3.294354e-02 -1.877729e-02 -1.362476e-02 -2.735777e-02 -1.641952e-02 7.384635e-04 -7.372139e-03 2.223321e-02
<VARIANCE> 25
 2.909272e+01 3.098843e+01 3.307497e+01 4.011750e+01 3.532809e+01 7.030160e+01 4.911166e+01 3.158003e+01 4.782143e+01 3.188242e+01 2.846971e+01 2.099187e+01 7.461175e-01 1.220696e+00 1.149581e+00 1.198189e+00 1.323904e+00 2.554255e+00 2.058875e+00 1.753733e+00 2.080334e+00 1.659822e+00 1.745124e+00 1.171547e+00 5.737895e-01
<GCONST> 9.295612e+01
<STATE> 4
<MEAN> 25
 1.962051e-01 -1.361090e-01 -5.799327e-02 -6.994569e-02 -1.549906e-01 -3.791119e-01 -6.751092e-02 -1.389222e-01 -4.095266e-01 -1.775039e-01 6.831169e-02 -1.849641e-01 2.549605e-02 -1.240582e-02 -1.384174e-02 -8.488066e-04 -1.282538e-02 -3.213877e-02 -1.732227e-02 -1.304506e-02 -2.616078e-02 -1.654192e-02 5.659750e-04 -7.233010e-03 2.213803e-02
<VARIANCE> 25
 2.871058e+01 3.059308e+01 3.283897e+01 3.994128e+01 3.529789e+01 6.957293e+01 4.888096e+01 3.153508e+01 4.716217e+01 3.176731e+01 2.851874e+01 2.091671e+01 7.376174e-01 1.212783e+00 1.144264e+00 1.188817e+00 1.316034e+00 2.542240e+00 2.049460e+00 1.750946e+00 2.075604e+00 1.655957e+00 1.743470e+00 1.168501e+00 5.713544e-01
<GCONST> 9.282202e+01
<TRANSP> 5
 0.000000e+00 1.000000e+00 0.000000e+00 0.000000e+00 0.000000e+00
 0.000000e+00 6.538377e-01 3.461623e-01 0.000000e+00 0.000000e+00
 0.000000e+00 0.000000e+00 6.538383e-01 3.461617e-01 0.000000e+00
 0.000000e+00 0.000000e+00 0.000000e+00 7.673298e-01 2.326702e-01
 0.000000e+00 0.000000e+00 0.000000e+00 0.000000e+00 0.000000e+00
<ENDHMM>
~h "s"
<BEGINHMM>
<NUMSTATES> 5
<STATE> 2
<MEAN> 25
 1.836407e-01 -2.925105e-02 -7.176898e-02 1.001941e-01 -1.861609e-01 -1.402328e-01 -1.309097e-01 -4.355592e-02 -1.171388e-01 -6.663404e-02 -5.214942e-02 -2.247796e-02 2.535581e-02 -1.800028e-02 -1.941185e-02 -9.399841e-03 -7.860938e-03 -3.598692e-02 -1.941172e-02 -1.789590e-02 -2.766860e-02 -1.423642e-02 6.292096e-03 -1.280655e-02 2.885409e-02
<VARIANCE> 25
 2.946149e+01 3.089463e+01 3.225455e+01 3.928167e+01 3.499960e+01 7.181407e+01 4.977559e+01 3.194340e+01 4.856086e+01 3.231255e+01 2.851858e+01 2.093540e+01 7.423573e-01 1.216744e+00 1.112300e+00 1.184098e+00 1.335755e+00 2.522121e+00 2.039755e+00 1.746943e+00 2.043453e+00 1.646617e+00 1.711148e+00 1.172956e+00 5.671563e-01
<GCONST> 9.285809e+01
<STATE> 3
<MEAN> 25
 2.556953e-01 -7.785141e-02 -1.266153e-01 7.299262e-02 -2.041323e-01 -2.384798e-01 -1.845654e-01 -9.549195e-02 -1.934867e-01 -1.067114e-01 -3.480224e-02 -5.784350e-02 2.408310e-02 -1.522214e-02 -1.746862e-02 -8.194925e-03 -4.817194e-03 -3.433832e-02 -1.952131e-02 -1.825982e-02 -2.529737e-02 -1.410741e-02 5.294873e-03 -1.250665e-02 2.703372e-02
<VARIANCE> 25
 2.958528e+01 3.114656e+01 3.254491e+01 3.967426e+01 3.520689e+01 7.184484e+01 5.001948e+01 3.219456e+01 4.841245e+01 3.239911e+01 2.878539e+01 2.100113e+01 7.544440e-01 1.229840e+00 1.124635e+00 1.194248e+00 1.345124e+00 2.549676e+00 2.056317e+00 1.765597e+00 2.056798e+00 1.658346e+00 1.723196e+00 1.179891e+00 5.720115e-01
<GCONST> 9.303845e+01
<STATE> 4
<MEAN> 25
 3.394532e-01 -1.317559e-01 -1.778949e-01 4.422028e-02 -2.050142e-01 -3.601442e-01 -2.708448e-01 -1.738102e-01 -2.894558e-01 -1.613092e-01 -2.634330e-02 -1.114438e-01 2.158668e-02 -1.128629e-02 -1.386458e-02 -8.339663e-03 -2.461458e-03 -3.215063e-02 -1.970653e-02 -1.778988e-02 -2.301688e-02 -1.427417e-02 3.082790e-03 -1.217976e-02 2.464921e-02
<VARIANCE> 25
 2.948730e+01 3.103777e+01 3.263562e+01 3.996067e+01 3.517338e+01 7.117571e+01 5.008718e+01 3.229635e+01 4.766504e+01 3.226735e+01 2.896642e+01 2.096236e+01 7.629721e-01 1.229789e+00 1.130826e+00 1.198551e+00 1.347585e+00 2.559757e+00 2.061048e+00 1.774722e+00 2.060530e+00 1.662578e+00 1.727967e+00 1.179238e+00 5.714446e-01
<GCONST> 9.305968e+01
<TRANSP> 5
 0.000000e+00 1.000000e+00 0.000000e+00 0.000000e+00 0.000000e+00
 0.000000e+00 6.531283e-01 3.468717e-01 0.000000e+00 0.000000e+00
 0.000000e+00 0.000000e+00 6.531235e-01 3.468765e-01 0.000000e+00
 0.000000e+00 0.000000e+00 0.000000e+00 7.655785e-01 2.344215e-01
 0.000000e+00 0.000000e+00 0.000000e+00 0.000000e+00 0.000000e+00
<ENDHMM>
~h "t"
<BEGINHMM>
<NUMSTATES> 5
<STATE> 2
<MEAN> 25
 1.533920e-01 -5.924796e-02 -1.093017e-01 -1.521090e-01 -1.371337e-01 -1.147990e-01 2.439924e-02 -3.731372e-02 -2.484437e-01 -1.441358e-01 1.187857e-02 -3.590047e-02 2.229304e-02 -9.475887e-03 -1.373773e-02 -8.793538e-03 -1.057742e-02 -2.763277e-02 -1.821237e-02 -1.461280e-02 -2.394173e-02 -1.386006e-02 -1.506751e-03 -7.500151e-03 2.170858e-02
<VARIANCE> 25
 2.971879e+01 3.161785e+01 3.340154e+01 3.872978e+01 3.532690e+01 7.016941e+01 4.845312e+01 3.213274e+01 4.892939e+01 3.342721e+01 2.841163e+01 2.078609e+01 7.585726e-01 1.246262e+00 1.146199e+00 1.176583e+00 1.352144e+00 2.549950e+00 2.045289e+00 1.767188e+00 2.079184e+00 1.656712e+00 1.741081e+00 1.157991e+00 5.861195e-01
<GCONST> 9.307388e+01
<STATE> 3
<MEAN> 25
 2.192659e-01 -8.690768e-02 -1.498143e-01 -1.757024e-01 -1.663546e-01 -1.974687e-01 -3.057875e-02 -8.073029e-02 -3.179438e-01 -1.851202e-01 7.925165e-03 -5.756676e-02 2.185216e-02 -9.896182e-03 -1.327028e-02 -7.332434e-03 -9.653440e-03 -2.836186e-02 -1.857807e-02 -1.509343e-02 -2.478646e-02 -1.346442e-02 2.987112e-04 -7.306460e-03 2.163904e-02
<VARIANCE> 25
 2.968434e+01 3.173264e+01 3.349057e+01 3.904078e+01 3.562035e+01 7.012840e+01 4.874143e+01 3.238552e+01 4.893838e+01 3.350962e+01 2.867176e+01 2.084604e+01 7.673115e-01 1.257008e+00 1.155931e+00 1.182724e+00 1.363304e+00 2.579550e+00 2.065118e+00 1.786378e+00 2.098817e+00 1.671248e+00 1.755466e+00 1.166791e+00 5.937415e-01
<GCONST> 9.324386e+01
<STATE> 4
<MEAN> 25
 3.119583e-01 -1.258740e-01 -2.025324e-01 -2.004072e-01 -2.049176e-01 -3.242735e-01 -1.141412e-01 -1.402722e-01 -4.125771e-01 -2.428989e-01 3.878494e-03 -9.348731e-02 2.082466e-02 -1.051421e-02 -1.224102e-02 -5.437231e-03 -8.994081e-03 -2.877097e-02 -1.778124e-02 -1.380792e-02 -2.400830e-02 -1.366104e-02 9.044242e-04 -7.403337e-03 2.112486e-02
<VARIANCE> 25
 2.944732e+01 3.168176e+01 3.340360e+01 3.926759e+01 3.585438e+01 6.983071e+01 4.898040e+01 3.251017e+01 4.851494e+01 3.348928e+01 2.890000e+01 2.086558e+01 7.716011e-01 1.261406e+00 1.161115e+00 1.186421e+00 1.370446e+00 2.603850e+00 2.079828e+00 1.801992e+00 2.113972e+00 1.685228e+00 1.766112e+00 1.174183e+00 5.998809e-01
<GCONST> 9.333325e+01
<TRANSP> 5
 0.000000e+00 1.000000e+00 0.000000e+00 0.000000e+00 0.000000e+00
 0.000000e+00 6.580531e-01 3.419469e-01 0.000000e+00 0.000000e+00
 0.000000e+00 0.000000e+00 6.580534e-01 3.419466e-01 0.000000e+00
 0.000000e+00 0.000000e+00 0.000000e+00 7.705785e-01 2.294215e-01
 0.000000e+00 0.000000e+00 0.000000e+00 0.000000e+00 0.000000e+00
<ENDHMM>
~h "v"
<BEGINHMM>
<NUMSTATES> 5
<STATE> 2
<MEAN> 25
 2.684055e-02 -5.011237e-02 -1.787714e-01 -5.371283e-02 1.621717e-01 -3.526856e-02 -1.218032e-01 -7.019965e-02 1.545183e-02 -3.348652e-02 -1.034452e-01 -5.748727e-02 1.881182e-02 -1.014887e-02 -1.276978e-02 -3.714442e-03 -9.840780e-03 -3.459767e-02 -1.648368e-02 -7.636106e-03 -2.018338e-02 -8.666965e-03 6.717170e-03 -9.256128e-03 1.921185e-02
<VARIANCE> 25
 2.958395e+01 3.263869e+01 3.442779e+01 4.233519e+01 3.635178e+01 7.281792e+01 4.975444e+01 3.163028e+01 4.913518e+01 3.361478e+01 2.867867e+01 2.119524e+01 7.331596e-01 1.271894e+00 1.139813e+00 1.215537e+00 1.304987e+00 2.623891e+00 2.050432e+00 1.765175e+00 2.123611e+00 1.693267e+00 1.744123e+00 1.163813e+00 5.935031e-01
<GCONST> 9.340537e+01
<STATE> 3
<MEAN> 25
 8.415237e-02 -8.187547e-02 -2.168898e-01 -6.958601e-02 1.234324e-01 -1.351723e-01 -1.636526e-01 -8.407900e-02 -3.918498e-02 -6.053257e-02 -8.760545e-02 -8.368344e-02 1.730662e-02 -1.140069e-02 -1.130830e-02 -7.439662e-03 -1.395164e-02 -3.042849e-02 -1.069918e-02 -3.706395e-03 -1.824278e-02 -6.165972e-03 8.733313e-03 -9.602743e-03 1.927966e-02
<VARIANCE> 25
 2.947489e+01 3.247059e+01 3.467864e+01 4.299577e+01 3.660126e+01 7.271041e+01 5.031337e+01 3.161148e+01 4.899701e+01 3.347316e+01 2.893264e+01 2.144471e+01 7.392134e-01 1.269344e+00 1.147613e+00 1.226946e+00 1.307786e+00 2.634441e+00 2.064471e+00 1.765769e+00 2.123574e+00 1.699192e+00 1.748449e+00 1.175281e+00 5.964322e-01
<GCONST> 9.350505e+01
<STATE> 4
<MEAN> 25
 1.629027e-01 -1.384760e-01 -2.645536e-01 -9.564209e-02 4.824970e-02 -2.723111e-01 -1.943601e-01 -8.606017e-02 -1.171405e-01 -1.112923e-01 -6.724435e-02 -1.181906e-01 1.793809e-02 -1.263994e-02 -1.093917e-02 -1.077710e-02 -1.889221e-02 -2.650841e-02 -4.187494e-03 -5.403858e-04 -1.845273e-02 -7.457482e-03 8.717092e-03 -1.002995e-02 2.019830e-02
<VARIANCE> 25
 2.922400e+01 3.221842e+01 3.477168e+01 4.372520e+01 3.696716e+01 7.231116e+01 5.063517e+01 3.150085e+01 4.852875e+01 3.322114e+01 2.918139e+01 2.166531e+01 7.441322e-01 1.255700e+00 1.153420e+00 1.236736e+00 1.312369e+00 2.633500e+00 2.077333e+00 1.762307e+00 2.126045e+00 1.706554e+00 1.751832e+00 1.184509e+00 5.954868e-01
<GCONST> 9.354701e+01
<TRANSP> 5
 0.000000e+00 1.000000e+00 0.000000e+00 0.000000e+00 0.000000e+00
 0.000000e+00 6.538452e-01 3.461548e-01 0.000000e+00 0.000000e+00
 0.000000e+00 0.000000e+00 6.538454e-01 3.461546e-01 0.000000e+00
 0.000000e+00 0.000000e+00 0.000000e+00 7.652534e-01 2.347465e-01
 0.000000e+00 0.000000e+00 0.000000e+00 0.000000e+00 0.000000e+00
<ENDHMM>
~h "w"
<BEGINHMM>
<NUMSTATES> 5
<STATE> 2
<MEAN> 25
 -2.763892e-01 -6.176641e-02 9.610823e-02 1.467471e-01 1.624822e-01 1.877123e-01 8.768427e-02 1.333608e-01 2.739176e-01 2.137759e-01 8.802537e-02 -2.576162e-02 2.402515e-02 -8.215931e-03 -9.567462e-03 1.145604e-03 -7.860638e-03 -2.973993e-02 -2.452475e-02 -1.800905e-02 -2.747887e-02 -1.504752e-02 -4.944163e-03 -1.604560e-02 2.166958e-02
<VARIANCE> 25
 2.983722e+01 3.114416e+01 3.108668e+01 3.867700e+01 3.434243e+01 7.193859e+01 4.821970e+01 3.114196e+01 4.949830e+01 3.280097e+01 2.796760e+01 2.053818e+01 6.964532e-01 1.221938e+00 1.083037e+00 1.140783e+00 1.279461e+00 2.433288e+00 1.932417e+00 1.656778e+00 1.995416e+00 1.585093e+00 1.667473e+00 1.140868e+00 5.565701e-01
<GCONST> 9.230370e+01
<STATE> 3
<MEAN> 25
 -2.083332e-01 -8.573577e-02 7.295606e-02 1.543462e-01 1.407296e-01 1.009775e-01 1.674630e-02 7.846268e-02 1.950526e-01 1.705643e-01 7.472523e-02 -7.255259e-02 2.298843e-02 -8.013547e-03 -7.943517e-03 1.370425e-03 -7.670224e-03 -2.873657e-02 -2.292763e-02 -1.772720e-02 -2.555898e-02 -1.481243e-02 -5.419478e-03 -1.553542e-02 2.122544e-02
<VARIANCE> 25
 2.972086e+01 3.134157e+01 3.124161e+01 3.903389e+01 3.455894e+01 7.209834e+01 4.841491e+01 3.131461e+01 4.944746e+01 3.294472e+01 2.833582e+01 2.067422e+01 7.044806e-01 1.231624e+00 1.092252e+00 1.150077e+00 1.285924e+00 2.458966e+00 1.943037e+00 1.669002e+00 2.013325e+00 1.596122e+00 1.686015e+00 1.146942e+00 5.618564e-01
<GCONST> 9.246738e+01
<STATE> 4
<MEAN> 25
 -1.227120e-01 -1.222458e-01 4.397051e-02 1.516719e-01 1.057276e-01 -1.350611e-02 -6.599638e-02 1.007646e-02 9.271386e-02 1.148496e-01 6.085947e-02 -1.261010e-01 2.119872e-02 -6.424893e-03 -6.047762e-03 3.345107e-05 -8.580238e-03 -2.723517e-02 -1.961221e-02 -1.601755e-02 -2.272922e-02 -1.535310e-02 -6.459652e-03 -1.405597e-02 1.964162e-02
<VARIANCE> 25
 2.940148e+01 3.129410e+01 3.127692e+01 3.920586e+01 3.466069e+01 7.185867e+01 4.841078e+01 3.130436e+01 4.884166e+01 3.289269e+01 2.862217e+01 2.076354e+01 7.100155e-01 1.230886e+00 1.097011e+00 1.155178e+00 1.290566e+00 2.477183e+00 1.947926e+00 1.677378e+00 2.029378e+00 1.605269e+00 1.702238e+00 1.152043e+00 5.630504e-01
<GCONST> 9.252452e+01
<TRANSP> 5
 0.000000e+00 1.000000e+00 0.000000e+00 0.000000e+00 0.000000e+00
 0.000000e+00 6.626647e-01 3.373354e-01 0.000000e+00 0.000000e+00
 0.000000e+00 0.000000e+00 6.626648e-01 3.373351e-01 0.000000e+00
 0.000000e+00 0.000000e+00 0.000000e+00 7.758349e-01 2.241651e-01
 0.000000e+00 0.000000e+00 0.000000e+00 0.000000e+00 0.000000e+00
<ENDHMM>
~h "y"
<BEGINHMM>
<NUMSTATES> 5
<STATE> 2
<MEAN> 25
 -1.375469e-01 -3.189262e-02 -9.758928e-02 -1.125456e-01 1.353466e-01 1.796554e-01 2.340274e-02 -9.651174e-02 2.695961e-01 2.142600e-01 6.806245e-02 1.729182e-01 2.866954e-02 -4.435970e-03 -8.896855e-03 8.488516e-03 -9.682591e-03 -3.256917e-02 -3.167500e-02 -1.869877e-02 -2.072731e-02 -1.651607e-02 -1.260440e-02 -9.740603e-03 2.003287e-02
<VARIANCE> 25
 2.985276e+01 2.968230e+01 3.080407e+01 3.804541e+01 3.354941e+01 7.707964e+01 5.084204e+01 3.106404e+01 4.517972e+01 3.294897e+01 2.733518e+01 2.072349e+01 6.863321e-01 1.122766e+00 1.059275e+00 1.210188e+00 1.261848e+00 2.537149e+00 2.010044e+00 1.737191e+00 1.897551e+00 1.601915e+00 1.698054e+00 1.113464e+00 5.422108e-01
<GCONST> 9.220628e+01
<STATE> 3
<MEAN> 25
 -4.686441e-02 -4.247838e-02 -1.202580e-01 -8.512886e-02 1.051205e-01 7.903439e-02 -7.302935e-02 -1.531844e-01 2.049316e-01 1.599154e-01 3.606262e-02 1.402900e-01 2.981975e-02 -1.930174e-03 -9.051726e-03 5.776648e-03 -8.843541e-03 -3.082225e-02 -3.026780e-02 -1.819630e-02 -2.163153e-02 -1.626563e-02 -7.489526e-03 -9.503359e-03 2.012931e-02
<VARIANCE> 25
 2.985378e+01 2.992336e+01 3.117892e+01 3.840660e+01 3.373561e+01 7.653322e+01 5.102106e+01 3.102016e+01 4.510308e+01 3.318077e+01 2.751893e+01 2.079511e+01 6.895863e-01 1.131488e+00 1.064338e+00 1.214334e+00 1.265016e+00 2.541087e+00 2.031201e+00 1.739829e+00 1.909558e+00 1.618196e+00 1.699458e+00 1.120247e+00 5.455148e-01
<GCONST> 9.231805e+01
<STATE> 4
<MEAN> 25
 1.061909e-01 -7.446831e-02 -1.721712e-01 -5.763208e-02 5.976992e-02 -1.194501e-01 -2.465810e-01 -2.483913e-01 9.602121e-02 8.980622e-02 1.429681e-02 6.935723e-02 3.036309e-02 -1.990533e-03 -8.347072e-03 5.495101e-03 -7.350877e-03 -3.108622e-02 -3.161167e-02 -1.905718e-02 -2.308047e-02 -1.423011e-02 -1.875658e-03 -1.045275e-02 2.042685e-02
<VARIANCE> 25
 2.966024e+01 2.978501e+01 3.168375e+01 3.879333e+01 3.374493e+01 7.560073e+01 5.126924e+01 3.086372e+01 4.461366e+01 3.335431e+01 2.776351e+01 2.088709e+01 6.954088e-01 1.135390e+00 1.072599e+00 1.213496e+00 1.268840e+00 2.545180e+00 2.055857e+00 1.738437e+00 1.928232e+00 1.635106e+00 1.695698e+00 1.134739e+00 5.477955e-01
<GCONST> 9.239809e+01
<TRANSP> 5
 0.000000e+00 1.000000e+00 0.000000e+00 0.000000e+00 0.000000e+00
 0.000000e+00 6.664514e-01 3.335487e-01 0.000000e+00 0.000000e+00
 0.000000e+00 0.000000e+00 6.664510e-01 3.335489e-01 0.000000e+00
 0.000000e+00 0.000000e+00 0.000000e+00 7.805471e-01 2.194529e-01
 0.000000e+00 0.000000e+00 0.000000e+00 0.000000e+00 0.000000e+00
<ENDHMM>
~h "z"
<BEGINHMM>
<NUMSTATES> 5
<STATE> 2
<MEAN> 25
 3.101454e-01 -1.550780e-01 -2.525393e-01 1.374752e-01 -1.354630e-01 -5.353661e-01 -2.877261e-01 -1.448430e-01 -2.859671e-01 -1.986538e-01 -4.748270e-02 -1.628099e-01 1.502403e-02 -1.056332e-02 -9.063305e-03 3.692821e-05 -4.192818e-03 -2.099580e-02 -1.365510e-02 -1.974575e-02 -2.108314e-02 -8.601023e-03 2.476152e-03 -9.197814e-03 1.615741e-02
<VARIANCE> 25
 2.864259e+01 3.097995e+01 3.182990e+01 3.923232e+01 3.393947e+01 7.256848e+01 4.863276e+01 3.115831e+01 4.999900e+01 3.358883e+01 2.992694e+01 2.149386e+01 7.439265e-01 1.236243e+00 1.140107e+00 1.175307e+00 1.319999e+00 2.616174e+00 2.060699e+00 1.773385e+00 2.157696e+00 1.661282e+00 1.766696e+00 1.189170e+00 5.908084e-01
<GCONST> 9.312721e+01
<STATE> 3
<MEAN> 25
 3.571841e-01 -1.886280e-01 -2.823410e-01 1.324464e-01 -1.540563e-01 -5.995194e-01 -3.251772e-01 -2.018253e-01 -3.487934e-01 -2.237171e-01 -3.748472e-02 -1.889570e-01 1.531721e-02 -1.193095e-02 -1.036746e-02 -3.598166e-05 -5.784508e-03 -2.165465e-02 -1.224407e-02 -2.106529e-02 -2.094374e-02 -7.609562e-03 4.833969e-03 -7.529803e-03 1.654622e-02
<VARIANCE> 25
 2.854430e+01 3.106030e+01 3.197643e+01 3.938144e+01 3.401476e+01 7.241101e+01 4.881568e+01 3.124197e+01 5.002178e+01 3.358766e+01 3.017226e+01 2.157028e+01 7.499297e-01 1.246122e+00 1.150748e+00 1.180411e+00 1.326675e+00 2.634982e+00 2.073248e+00 1.786931e+00 2.171780e+00 1.671994e+00 1.780344e+00 1.197405e+00 5.971142e-01
<GCONST> 9.324703e+01
<STATE> 4
<MEAN> 25
 4.377322e-01 -2.470679e-01 -3.376896e-01 9.477527e-02 -2.172059e-01 -7.061518e-01 -3.646855e-01 -2.717012e-01 -4.485270e-01 -2.647606e-01 -8.767838e-03 -2.234392e-01 1.772835e-02 -1.347178e-02 -1.262126e-02 -1.538806e-03 -7.476382e-03 -2.383904e-02 -1.256440e-02 -2.183629e-02 -2.324020e-02 -7.341535e-03 8.321903e-03 -6.034699e-03 1.884714e-02
<VARIANCE> 25
 2.824451e+01 3.093750e+01 3.208570e+01 3.947746e+01 3.405190e+01 7.159573e+01 4.872065e+01 3.122191e+01 4.949899e+01 3.341539e+01 3.036750e+01 2.169665e+01 7.548506e-01 1.252301e+00 1.164043e+00 1.180756e+00 1.335333e+00 2.647141e+00 2.075312e+00 1.791770e+00 2.175550e+00 1.681187e+00 1.792507e+00 1.204623e+00 6.030889e-01
<GCONST> 9.329025e+01
<TRANSP> 5
 0.000000e+00 1.000000e+00 0.000000e+00 0.000000e+00 0.000000e+00
 0.000000e+00 6.536912e-01 3.463089e-01 0.000000e+00 0.000000e+00
 0.000000e+00 0.000000e+00 6.536894e-01 3.463106e-01 0.000000e+00
 0.000000e+00 0.000000e+00 0.000000e+00 7.665122e-01 2.334878e-01
 0.000000e+00 0.000000e+00 0.000000e+00 0.000000e+00 0.000000e+00
<ENDHMM>
~h "aa"
<BEGINHMM>
<NUMSTATES> 5
<STATE> 2
<MEAN> 25
 -3.885645e-02 -7.288825e-03 2.644378e-01 3.800987e-01 1.756538e-01 -1.189230e-01 -2.365421e-01 -1.803029e-01 2.780500e-02 1.099660e-01 -2.122365e-02 -1.965010e-01 2.142980e-02 -4.044001e-03 -1.318376e-02 -8.874379e-03 -1.004596e-02 -2.608765e-02 -9.759386e-03 -6.886637e-03 -2.211731e-02 -2.162534e-02 -5.550950e-03 -6.508260e-03 1.787838e-02
<VARIANCE> 25
 2.932115e+01 3.058272e+01 3.292868e+01 3.714703e+01 3.358791e+01 6.912748e+01 4.828860e+01 3.194377e+01 4.592030e+01 3.127982e+01 2.794203e+01 2.067934e+01 7.394541e-01 1.208398e+00 1.150126e+00 1.160610e+00 1.295912e+00 2.519545e+00 2.016078e+00 1.707248e+00 1.922491e+00 1.574062e+00 1.670003e+00 1.137680e+00 5.480699e-01
<GCONST> 9.231869e+01
<STATE> 3
<MEAN> 25
 2.531714e-02 -1.649483e-02 2.257389e-01 3.489624e-01 1.439202e-01 -1.983480e-01 -2.654377e-01 -2.012204e-01 -3.819791e-02 4.694673e-02 -3.628235e-02 -2.153374e-01 2.048293e-02 -1.022451e-03 -1.239418e-02 -1.134189e-02 -9.802342e-03 -2.247518e-02 -8.992547e-03 -6.760084e-03 -2.042928e-02 -2.182027e-02 -5.746083e-03 -4.433260e-03 1.659102e-02
<VARIANCE> 25
 2.943241e+01 3.058410e+01 3.321401e+01 3.750120e+01 3.406519e+01 6.936170e+01 4.844143e+01 3.209333e+01 4.569055e+01 3.128250e+01 2.816996e+01 2.082195e+01 7.430989e-01 1.215312e+00 1.158560e+00 1.165483e+00 1.301661e+00 2.531080e+00 2.022576e+00 1.719247e+00 1.924708e+00 1.578737e+00 1.687449e+00 1.140878e+00 5.518040e-01
<GCONST> 9.244147e+01
<STATE> 4
<MEAN> 25
 9.696250e-02 -2.256132e-02 1.797822e-01 2.978408e-01 9.557150e-02 -2.933347e-01 -3.019286e-01 -2.184524e-01 -9.967221e-02 -1.123752e-02 -4.480385e-02 -2.299910e-01 1.993142e-02 1.087194e-03 -1.244091e-02 -1.473623e-02 -1.086763e-02 -1.902208e-02 -7.860954e-03 -6.846514e-03 -1.993721e-02 -2.079958e-02 -4.911504e-03 -1.408722e-03 1.594347e-02
<VARIANCE> 25
 2.940717e+01 3.019236e+01 3.319038e+01 3.763205e+01 3.453529e+01 6.905752e+01 4.857161e+01 3.210043e+01 4.497062e+01 3.104054e+01 2.813805e+01 2.087739e+01 7.441030e-01 1.211166e+00 1.157762e+00 1.162002e+00 1.304067e+00 2.530641e+00 2.021107e+00 1.725577e+00 1.920005e+00 1.579371e+00 1.697484e+00 1.140875e+00 5.537038e-01
<GCONST> 9.242677e+01
<TRANSP> 5
 0.000000e+00 1.000000e+00 0.000000e+00 0.000000e+00 0.000000e+00
 0.000000e+00 6.583312e-01 3.416688e-01 0.000000e+00 0.000000e+00
 0.000000e+00 0.000000e+00 6.583337e-01 3.416663e-01 0.000000e+00
 0.000000e+00 0.000000e+00 0.000000e+00 7.714903e-01 2.285097e-01
 0.000000e+00 0.000000e+00 0.000000e+00 0.000000e+00 0.000000e+00
<ENDHMM>
~h "ae"
<BEGINHMM>
<NUMSTATES> 5
<STATE> 2
<MEAN> 25
 -1.367753e-01 1.521857e-01 1.884019e-01 -5.467135e-02 -1.385594e-01 -1.505091e-01 2.770045e-02 2.310397e-02 -8.825391e-04 -9.823409e-02 -4.023345e-02 -3.368539e-03 2.205889e-02 -1.786976e-02 -1.684910e-02 -6.675072e-03 -8.711943e-03 -2.349485e-02 -9.300596e-03 -8.670527e-03 -2.366842e-02 -1.380307e-02 2.841206e-03 -1.107104e-02 2.467051e-02
<VARIANCE> 25
 3.014775e+01 3.058630e+01 3.328294e+01 3.887044e+01 3.467879e+01 6.909071e+01 4.729136e+01 3.163410e+01 4.982559e+01 3.236367e+01 2.773345e+01 2.069571e+01 7.328826e-01 1.185905e+00 1.119991e+00 1.169621e+00 1.322490e+00 2.439451e+00 1.967260e+00 1.734394e+00 2.029325e+00 1.635820e+00 1.692676e+00 1.148855e+00 5.578669e-01
<GCONST> 9.257874e+01
<STATE> 3
<MEAN> 25
 -6.953245e-02 9.988531e-02 1.385538e-01 -7.342661e-02 -1.625523e-01 -2.177085e-01 5.833448e-04 1.932916e-04 -6.878778e-02 -1.392210e-01 -3.354721e-02 -3.517265e-02 2.275898e-02 -1.821031e-02 -1.704069e-02 -6.755890e-03 -8.702043e-03 -2.233251e-02 -8.953188e-03 -7.419804e-03 -2.193051e-02 -1.273097e-02 2.508265e-03 -1.031778e-02 2.523546e-02
<VARIANCE> 25
 3.008117e+01 3.082991e+01 3.364353e+01 3.921432e+01 3.489532e+01 6.908721e+01 4.770500e+01 3.169674e+01 4.974069e+01 3.261409e+01 2.804399e+01 2.075953e+01 7.401152e-01 1.200939e+00 1.133114e+00 1.177333e+00 1.330915e+00 2.454999e+00 1.977278e+00 1.739295e+00 2.038551e+00 1.645670e+00 1.703284e+00 1.154036e+00 5.646625e-01
<GCONST> 9.273574e+01
<STATE> 4
<MEAN> 25
 3.134985e-02 1.552841e-02 5.492286e-02 -1.096356e-01 -2.081639e-01 -3.132541e-01 -3.799182e-02 -1.956702e-02 -1.623083e-01 -1.955357e-01 -2.679740e-02 -7.342058e-02 2.438740e-02 -1.815797e-02 -1.793732e-02 -6.787222e-03 -8.995162e-03 -2.230564e-02 -1.069300e-02 -7.346667e-03 -2.171136e-02 -1.268929e-02 1.023282e-03 -1.038379e-02 2.591697e-02
<VARIANCE> 25
 2.960041e+01 3.071608e+01 3.367493e+01 3.915456e+01 3.479656e+01 6.816312e+01 4.765043e+01 3.145052e+01 4.881304e+01 3.255513e+01 2.811972e+01 2.066214e+01 7.354096e-01 1.200772e+00 1.135803e+00 1.173643e+00 1.327020e+00 2.445389e+00 1.968945e+00 1.729267e+00 2.030519e+00 1.641210e+00 1.700935e+00 1.152891e+00 5.658000e-01
<GCONST> 9.263631e+01
<TRANSP> 5
 0.000000e+00 1.000000e+00 0.000000e+00 0.000000e+00 0.000000e+00
 0.000000e+00 6.593019e-01 3.406980e-01 0.000000e+00 0.000000e+00
 0.000000e+00 0.000000e+00 6.593004e-01 3.406996e-01 0.000000e+00
 0.000000e+00 0.000000e+00 0.000000e+00 7.739514e-01 2.260486e-01
 0.000000e+00 0.000000e+00 0.000000e+00 0.000000e+00 0.000000e+00
<ENDHMM>
~h "ah"
<BEGINHMM>
<NUMSTATES> 5
<STATE> 2
<MEAN> 25
 -6.945312e-02 -2.970545e-03 2.742720e-02 8.419409e-02 -5.381509e-05 6.967366e-02 -2.312530e-03 8.524793e-02 1.251298e-01 8.004247e-02 -4.220408e-02 -4.070247e-02 2.278905e-02 -1.238267e-02 -1.666269e-02 -1.271829e-02 -1.293190e-02 -2.209006e-02 -1.203341e-02 -9.616368e-03 -2.502090e-02 -1.645008e-02 8.777817e-04 -5.816996e-03 2.278181e-02
<VARIANCE> 25
 2.923454e+01 3.134572e+01 3.160706e+01 3.698730e+01 3.447860e+01 6.920605e+01 4.612669e+01 3.115494e+01 5.123372e+01 3.325041e+01 2.803274e+01 2.040433e+01 6.961868e-01 1.222914e+00 1.102767e+00 1.129489e+00 1.288682e+00 2.451090e+00 1.919995e+00 1.706625e+00 2.108219e+00 1.611153e+00 1.702888e+00 1.142383e+00 5.797235e-01
<GCONST> 9.240739e+01
<STATE> 3
<MEAN> 25
 -2.267801e-03 -3.726437e-02 -2.181696e-02 4.393968e-02 -3.834433e-02 6.396661e-03 -3.700693e-02 5.782743e-02 5.245765e-02 3.134199e-02 -4.062875e-02 -5.809419e-02 2.247217e-02 -1.181833e-02 -1.620273e-02 -1.231479e-02 -1.173010e-02 -2.233320e-02 -1.343399e-02 -1.099039e-02 -2.524443e-02 -1.643465e-02 8.181187e-04 -5.380263e-03 2.267818e-02
<VARIANCE> 25
 2.918513e+01 3.157308e+01 3.184542e+01 3.746466e+01 3.481913e+01 6.905430e+01 4.624241e+01 3.132632e+01 5.112743e+01 3.337270e+01 2.824684e+01 2.051774e+01 7.036329e-01 1.233655e+00 1.112785e+00 1.137727e+00 1.298186e+00 2.477769e+00 1.933915e+00 1.718156e+00 2.124530e+00 1.627345e+00 1.717767e+00 1.149467e+00 5.851134e-01
<GCONST> 9.257331e+01
<STATE> 4
<MEAN> 25
 9.603945e-02 -7.866026e-02 -9.477667e-02 -2.537565e-02 -9.904890e-02 -8.379874e-02 -7.653996e-02 1.635009e-02 -5.894746e-02 -3.896442e-02 -3.115422e-02 -7.716164e-02 2.246979e-02 -1.125195e-02 -1.592847e-02 -1.193132e-02 -1.169782e-02 -2.394326e-02 -1.372331e-02 -1.151281e-02 -2.585966e-02 -1.650557e-02 1.651975e-03 -4.663402e-03 2.268043e-02
<VARIANCE> 25
 2.893937e+01 3.142398e+01 3.187831e+01 3.780848e+01 3.516012e+01 6.826244e+01 4.606214e+01 3.141035e+01 5.062331e+01 3.328144e+01 2.832651e+01 2.054997e+01 7.093896e-01 1.234203e+00 1.117245e+00 1.139865e+00 1.306706e+00 2.492040e+00 1.939813e+00 1.727598e+00 2.135199e+00 1.635164e+00 1.723734e+00 1.153034e+00 5.871639e-01
<GCONST> 9.261416e+01
<TRANSP> 5
 0.000000e+00 1.000000e+00 0.000000e+00 0.000000e+00 0.000000e+00
 0.000000e+00 6.578185e-01 3.421815e-01 0.000000e+00 0.000000e+00
 0.000000e+00 0.000000e+00 6.578172e-01 3.421828e-01 0.000000e+00
 0.000000e+00 0.000000e+00 0.000000e+00 7.708437e-01 2.291563e-01
 0.000000e+00 0.000000e+00 0.000000e+00 0.000000e+00 0.000000e+00
<ENDHMM>
~h "ao"
<BEGINHMM>
<NUMSTATES> 5
<STATE> 2
<MEAN> 25
 4.537265e-02 -2.360907e-01 8.434451e-02 4.770716e-01 4.558388e-01 -4.183511e-01 -6.361992e-01 -4.625851e-01 -1.333566e-01 8.857296e-02 -2.896356e-02 -3.977970e-01 2.315930e-02 1.679568e-03 -1.499708e-02 -2.536323e-02 -1.587264e-02 -1.112492e-02 -2.268347e-03 -2.244309e-03 -2.099085e-02 -1.308472e-02 1.241229e-03 3.854577e-03 1.790179e-02
<VARIANCE> 25
 2.955734e+01 3.084092e+01 3.241321e+01 3.849355e+01 3.682961e+01 7.287699e+01 4.936887e+01 3.063200e+01 4.641923e+01 3.350134e+01 2.859224e+01 2.131493e+01 7.422649e-01 1.185740e+00 1.144743e+00 1.138354e+00 1.296641e+00 2.535155e+00 2.039981e+00 1.712977e+00 1.978645e+00 1.609813e+00 1.635404e+00 1.171834e+00 5.457886e-01
<GCONST> 9.265119e+01
<STATE> 3
<MEAN> 25
 1.086510e-01 -2.292090e-01 4.113917e-02 3.965022e-01 4.057137e-01 -4.495454e-01 -6.372623e-01 -4.678688e-01 -1.938503e-01 4.820590e-02 -2.486823e-02 -3.850261e-01 2.225560e-02 1.093389e-03 -1.650740e-02 -2.699445e-02 -1.739050e-02 -9.647549e-03 -1.149250e-03 -6.551562e-04 -2.079178e-02 -1.527862e-02 6.760324e-04 6.631156e-03 1.707209e-02
<VARIANCE> 25
 2.964959e+01 3.092789e+01 3.255468e+01 3.882767e+01 3.753944e+01 7.235122e+01 4.933040e+01 3.078136e+01 4.650943e+01 3.362101e+01 2.871043e+01 2.140699e+01 7.491153e-01 1.194223e+00 1.155306e+00 1.144000e+00 1.317162e+00 2.533992e+00 2.043233e+00 1.719109e+00 1.984361e+00 1.614626e+00 1.641372e+00 1.177871e+00 5.508730e-01
<GCONST> 9.277479e+01
<STATE> 4
<MEAN> 25
 2.013090e-01 -2.212449e-01 -2.227577e-02 2.792416e-01 3.153184e-01 -5.182130e-01 -6.410283e-01 -4.708745e-01 -2.813450e-01 -2.038916e-02 -1.996421e-02 -3.733477e-01 2.142073e-02 -1.382435e-04 -1.711994e-02 -2.671687e-02 -1.920002e-02 -9.201244e-03 7.570555e-04 5.822578e-04 -1.957081e-02 -1.620588e-02 -8.198415e-04 7.653974e-03 1.681336e-02
<VARIANCE> 25
 2.956828e+01 3.076614e+01 3.260799e+01 3.915535e+01 3.830001e+01 7.132280e+01 4.923624e+01 3.106458e+01 4.620633e+01 3.358474e+01 2.865472e+01 2.143983e+01 7.575678e-01 1.194524e+00 1.163383e+00 1.150964e+00 1.343366e+00 2.526644e+00 2.046905e+00 1.726440e+00 1.986512e+00 1.620056e+00 1.647469e+00 1.181956e+00 5.557891e-01
<GCONST> 9.284963e+01
<TRANSP> 5
 0.000000e+00 1.000000e+00 0.000000e+00 0.000000e+00 0.000000e+00
 0.000000e+00 6.605669e-01 3.394331e-01 0.000000e+00 0.000000e+00
 0.000000e+00 0.000000e+00 6.605693e-01 3.394307e-01 0.000000e+00
 0.000000e+00 0.000000e+00 0.000000e+00 7.729139e-01 2.270861e-01
 0.000000e+00 0.000000e+00 0.000000e+00 0.000000e+00 0.000000e+00
<ENDHMM>
~h "aw"
<BEGINHMM>
<NUMSTATES> 5
<STATE> 2
<MEAN> 25
 -1.323711e-01 -9.935097e-02 2.395877e-01 2.507263e-01 1.901313e-01 -2.755885e-01 -4.303881e-01 -2.656181e-01 -1.415302e-01 4.129326e-02 -5.896381e-02 -2.368710e-01 1.235966e-02 -1.075233e-02 1.049820e-03 1.418992e-02 -3.513597e-03 -2.375977e-02 -1.279061e-02 -6.063985e-03 -1.583487e-02 -1.339715e-02 -2.734410e-03 -1.412480e-02 1.263990e-02
<VARIANCE> 25
 2.777343e+01 2.825025e+01 2.969909e+01 3.646905e+01 3.277382e+01 6.619952e+01 4.262299e+01 2.965540e+01 4.613483e+01 3.169511e+01 2.615947e+01 1.974247e+01 6.818261e-01 1.099439e+00 1.054424e+00 1.152521e+00 1.213631e+00 2.370972e+00 1.899313e+00 1.619964e+00 1.917685e+00 1.583279e+00 1.631145e+00 1.079964e+00 5.160888e-01
<GCONST> 9.106168e+01
<STATE> 3
<MEAN> 25
 -8.941328e-02 -1.313865e-01 2.420818e-01 2.949099e-01 1.817503e-01 -3.478734e-01 -4.664395e-01 -2.828962e-01 -1.897224e-01 8.263277e-05 -6.791520e-02 -2.798007e-01 1.009699e-02 -1.081587e-02 2.073161e-03 1.487500e-02 -1.454036e-03 -2.227498e-02 -1.059662e-02 -4.775796e-03 -1.230566e-02 -9.800876e-03 -1.136113e-03 -1.269585e-02 1.151245e-02
<VARIANCE> 25
 2.767966e+01 2.840212e+01 2.993682e+01 3.659372e+01 3.255863e+01 6.699258e+01 4.303473e+01 2.965612e+01 4.573910e+01 3.164054e+01 2.618708e+01 1.995004e+01 6.816812e-01 1.104574e+00 1.051721e+00 1.158823e+00 1.219062e+00 2.394054e+00 1.924218e+00 1.634579e+00 1.917445e+00 1.593734e+00 1.630716e+00 1.082970e+00 5.166978e-01
<GCONST> 9.114482e+01
<STATE> 4
<MEAN> 25
 8.176052e-03 -1.328074e-01 2.470964e-01 3.704793e-01 1.896048e-01 -4.489765e-01 -5.402838e-01 -3.323168e-01 -2.560595e-01 -7.458947e-02 -1.055876e-01 -3.520139e-01 9.598699e-03 -9.307161e-03 -3.568519e-04 1.110697e-02 -2.312215e-03 -1.978168e-02 -7.849703e-03 -3.680963e-03 -1.021208e-02 -7.980110e-03 -1.645353e-03 -1.038750e-02 1.061759e-02
<VARIANCE> 25
 2.677388e+01 2.727770e+01 2.880006e+01 3.526387e+01 3.161233e+01 6.543911e+01 4.284404e+01 2.922011e+01 4.345032e+01 3.064479e+01 2.555605e+01 1.966139e+01 6.563346e-01 1.058695e+00 1.011882e+00 1.123538e+00 1.189371e+00 2.323710e+00 1.903331e+00 1.609220e+00 1.846589e+00 1.558853e+00 1.573430e+00 1.058795e+00 4.938176e-01
<GCONST> 9.040664e+01
<TRANSP> 5
 0.000000e+00 1.000000e+00 0.000000e+00 0.000000e+00 0.000000e+00
 0.000000e+00 6.723920e-01 3.276080e-01 0.000000e+00 0.000000e+00
 0.000000e+00 0.000000e+00 6.723933e-01 3.276067e-01 0.000000e+00
 0.000000e+00 0.000000e+00 0.000000e+00 7.940947e-01 2.059052e-01
 0.000000e+00 0.000000e+00 0.000000e+00 0.000000e+00 0.000000e+00
<ENDHMM>
~h "ax"
<BEGINHMM>
<NUMSTATES> 5
<STATE> 2
<MEAN> 25
 5.480717e-02 -1.078526e-01 -1.249848e-02 -2.366514e-02 -4.365687e-02 -1.630977e-01 -3.693229e-02 -2.722155e-02 -1.755101e-01 -3.896823e-02 4.325465e-02 -1.795835e-01 2.106266e-02 -1.350485e-02 -1.821544e-02 -1.216123e-02 -1.510947e-02 -2.604605e-02 -1.264136e-02 -7.238363e-03 -2.074361e-02 -1.221539e-02 2.687838e-03 -1.678576e-03 2.089268e-02
<VARIANCE> 25
 2.845336e+01 3.024330e+01 3.127510e+01 3.861707e+01 3.470772e+01 6.851517e+01 4.834900e+01 3.128321e+01 4.741014e+01 3.275298e+01 2.822796e+01 2.076654e+01 7.275719e-01 1.203586e+00 1.104895e+00 1.167982e+00 1.309484e+00 2.468601e+00 2.010448e+00 1.719716e+00 2.016472e+00 1.639989e+00 1.691891e+00 1.168169e+00 5.606125e-01
<GCONST> 9.245269e+01
<STATE> 3
<MEAN> 25
 1.177269e-01 -1.478312e-01 -6.578974e-02 -5.646159e-02 -8.712205e-02 -2.388939e-01 -7.629021e-02 -4.892622e-02 -2.329571e-01 -7.395440e-02 4.986579e-02 -1.845110e-01 2.464189e-02 -1.626545e-02 -2.071058e-02 -1.048218e-02 -1.610360e-02 -3.016363e-02 -1.691367e-02 -7.529770e-03 -1.956770e-02 -1.212149e-02 1.231238e-03 -1.808961e-03 2.336944e-02
<VARIANCE> 25
 2.844583e+01 3.043122e+01 3.151102e+01 3.895381e+01 3.486727e+01 6.849364e+01 4.864708e+01 3.128627e+01 4.736125e+01 3.287589e+01 2.847059e+01 2.079554e+01 7.326577e-01 1.212027e+00 1.111903e+00 1.174641e+00 1.316018e+00 2.494565e+00 2.031386e+00 1.726647e+00 2.034792e+00 1.656234e+00 1.702436e+00 1.172518e+00 5.663920e-01
<GCONST> 9.259289e+01
<STATE> 4
<MEAN> 25
 2.128476e-01 -2.040104e-01 -1.385414e-01 -8.135088e-02 -1.458555e-01 -3.593930e-01 -1.440592e-01 -8.410051e-02 -3.094491e-01 -1.237770e-01 4.983073e-02 -1.990996e-01 2.732834e-02 -1.800138e-02 -2.180792e-02 -7.869853e-03 -1.542789e-02 -3.271620e-02 -2.126216e-02 -9.136705e-03 -1.889476e-02 -1.266588e-02 -1.159961e-03 -1.996775e-03 2.507099e-02
<VARIANCE> 25
 2.807905e+01 3.024968e+01 3.141425e+01 3.898411e+01 3.477856e+01 6.786604e+01 4.868713e+01 3.103447e+01 4.674564e+01 3.273091e+01 2.852496e+01 2.072195e+01 7.270646e-01 1.203860e+00 1.104518e+00 1.168044e+00 1.312523e+00 2.500227e+00 2.035277e+00 1.720068e+00 2.038460e+00 1.660605e+00 1.701972e+00 1.169067e+00 5.660204e-01
<GCONST> 9.250500e+01
<TRANSP> 5
 0.000000e+00 1.000000e+00 0.000000e+00 0.000000e+00 0.000000e+00
 0.000000e+00 6.582451e-01 3.417549e-01 0.000000e+00 0.000000e+00
 0.000000e+00 0.000000e+00 6.582402e-01 3.417598e-01 0.000000e+00
 0.000000e+00 0.000000e+00 0.000000e+00 7.719579e-01 2.280421e-01
 0.000000e+00 0.000000e+00 0.000000e+00 0.000000e+00 0.000000e+00
<ENDHMM>
~h "ay"
<BEGINHMM>
<NUMSTATES> 5
<STATE> 2
<MEAN> 25
 -7.691660e-02 2.307501e-01 1.551343e-01 -1.411923e-01 3.765490e-02 1.608070e-01 1.290241e-01 3.034056e-02 -6.208845e-02 -2.264158e-01 -1.339621e-01 4.977569e-02 1.139894e-02 -2.073997e-04 1.690181e-03 4.203192e-03 -4.299874e-03 -2.097665e-02 -1.746058e-02 -1.555714e-02 -1.455168e-02 -7.637005e-03 9.039062e-04 -1.351848e-02 1.114195e-02
<VARIANCE> 25
 2.934969e+01 2.916698e+01 3.217474e+01 3.735268e+01 3.307404e+01 6.760704e+01 4.955307e+01 3.135508e+01 4.656195e+01 3.070314e+01 2.688796e+01 2.012823e+01 7.074267e-01 1.155761e+00 1.091057e+00 1.155202e+00 1.283263e+00 2.420970e+00 1.961680e+00 1.702538e+00 1.995694e+00 1.581864e+00 1.669567e+00 1.139980e+00 5.362995e-01
<GCONST> 9.195033e+01
<STATE> 3
<MEAN> 25
 -3.679524e-02 2.270577e-01 1.570375e-01 -1.298221e-01 1.922475e-02 9.276371e-02 7.590161e-02 -1.608736e-02 -1.099532e-01 -2.472984e-01 -1.267089e-01 9.638414e-03 1.474005e-02 -3.593897e-03 -1.022800e-03 4.327583e-03 -7.680542e-03 -2.375856e-02 -1.744629e-02 -1.550494e-02 -1.719813e-02 -6.593373e-03 3.288441e-03 -1.297512e-02 1.356397e-02
<VARIANCE> 25
 2.926549e+01 2.923260e+01 3.215419e+01 3.739640e+01 3.311021e+01 6.767968e+01 4.973726e+01 3.136945e+01 4.637989e+01 3.071687e+01 2.709097e+01 2.022544e+01 7.168068e-01 1.167487e+00 1.104380e+00 1.167109e+00 1.287926e+00 2.444026e+00 1.976298e+00 1.705787e+00 2.012611e+00 1.598103e+00 1.679650e+00 1.149883e+00 5.434788e-01
<GCONST> 9.208017e+01
<STATE> 4
<MEAN> 25
 5.819448e-02 1.954467e-01 1.303595e-01 -1.188991e-01 -2.752940e-02 -4.765275e-02 -1.681320e-02 -9.528793e-02 -2.134224e-01 -2.766703e-01 -1.046465e-01 -5.467359e-02 1.953052e-02 -7.638776e-03 -5.704741e-03 3.670814e-03 -1.025352e-02 -2.652104e-02 -1.751843e-02 -1.399141e-02 -1.985518e-02 -6.048620e-03 4.891489e-03 -1.041589e-02 1.688672e-02
<VARIANCE> 25
 2.899424e+01 2.918453e+01 3.207967e+01 3.725330e+01 3.307444e+01 6.754661e+01 4.979773e+01 3.128479e+01 4.586178e+01 3.055684e+01 2.726344e+01 2.028262e+01 7.216397e-01 1.173302e+00 1.115930e+00 1.171650e+00 1.290795e+00 2.457258e+00 1.981179e+00 1.703406e+00 2.020054e+00 1.610274e+00 1.684595e+00 1.159284e+00 5.488635e-01
<GCONST> 9.211809e+01
<TRANSP> 5
 0.000000e+00 1.000000e+00 0.000000e+00 0.000000e+00 0.000000e+00
 0.000000e+00 6.673169e-01 3.326831e-01 0.000000e+00 0.000000e+00
 0.000000e+00 0.000000e+00 6.673136e-01 3.326864e-01 0.000000e+00
 0.000000e+00 0.000000e+00 0.000000e+00 7.820106e-01 2.179894e-01
 0.000000e+00 0.000000e+00 0.000000e+00 0.000000e+00 0.000000e+00
<ENDHMM>
~h "ch"
<BEGINHMM>
<NUMSTATES> 5
<STATE> 2
<MEAN> 25
 4.589559e-01 3.865062e-02 -4.089338e-01 -2.547939e-01 -3.178954e-01 -6.939439e-01 -1.198577e-01 3.285570e-01 -1.221210e-01 -3.496840e-01 -2.500839e-01 -8.640441e-03 1.877583e-02 -2.747231e-02 -6.277138e-03 4.082358e-02 3.888758e-04 -5.694331e-02 -4.421579e-02 -2.027532e-02 -1.745347e-02 -4.606273e-03 1.654087e-03 -1.581189e-02 1.890357e-02
<VARIANCE> 25
 2.913442e+01 3.346447e+01 3.454875e+01 4.232232e+01 3.475932e+01 7.401125e+01 4.947697e+01 3.129890e+01 5.283512e+01 3.503901e+01 3.056896e+01 2.072464e+01 6.876228e-01 1.220898e+00 1.157777e+00 1.259664e+00 1.252162e+00 2.547794e+00 2.041483e+00 1.757819e+00 2.114659e+00 1.779517e+00 1.855209e+00 1.185688e+00 5.608671e-01
<GCONST> 9.346526e+01
<STATE> 3
<MEAN> 25
 5.188951e-01 -4.483328e-02 -4.350057e-01 -1.473435e-01 -3.267478e-01 -8.533714e-01 -2.390878e-01 2.662824e-01 -1.880867e-01 -3.640082e-01 -2.312605e-01 -5.209325e-02 2.022726e-02 -2.850383e-02 -3.322166e-03 3.874983e-02 -3.500741e-03 -5.850571e-02 -4.600028e-02 -2.466203e-02 -2.430138e-02 -7.164268e-03 5.283038e-03 -1.625014e-02 2.200543e-02
<VARIANCE> 25
 2.894875e+01 3.350668e+01 3.427021e+01 4.251043e+01 3.477618e+01 7.490900e+01 5.022467e+01 3.179978e+01 5.275506e+01 3.529236e+01 3.086675e+01 2.071642e+01 6.902829e-01 1.232910e+00 1.162711e+00 1.263326e+00 1.256570e+00 2.584637e+00 2.088646e+00 1.777443e+00 2.131419e+00 1.781123e+00 1.872938e+00 1.188042e+00 5.689962e-01
<GCONST> 9.362219e+01
<STATE> 4
<MEAN> 25
 6.373689e-01 -1.460401e-01 -4.872525e-01 -9.734935e-02 -3.921798e-01 -1.078550e+00 -3.383103e-01 1.934541e-01 -3.497902e-01 -4.282092e-01 -1.835275e-01 -1.163654e-01 2.207923e-02 -2.743175e-02 -8.164465e-04 3.139638e-02 -8.716179e-03 -5.662206e-02 -4.551791e-02 -2.749778e-02 -2.985854e-02 -1.195659e-02 1.022724e-02 -1.518080e-02 2.551738e-02
<VARIANCE> 25
 2.885286e+01 3.335008e+01 3.424389e+01 4.297705e+01 3.558381e+01 7.581853e+01 5.082409e+01 3.270629e+01 5.259869e+01 3.548437e+01 3.104672e+01 2.078739e+01 6.959946e-01 1.247416e+00 1.171031e+00 1.259806e+00 1.269988e+00 2.639746e+00 2.140318e+00 1.808221e+00 2.156153e+00 1.778984e+00 1.881764e+00 1.188598e+00 5.790311e-01
<GCONST> 9.384161e+01
<TRANSP> 5
 0.000000e+00 1.000000e+00 0.000000e+00 0.000000e+00 0.000000e+00
 0.000000e+00 6.501707e-01 3.498293e-01 0.000000e+00 0.000000e+00
 0.000000e+00 0.000000e+00 6.501716e-01 3.498284e-01 0.000000e+00
 0.000000e+00 0.000000e+00 0.000000e+00 7.620162e-01 2.379837e-01
 0.000000e+00 0.000000e+00 0.000000e+00 0.000000e+00 0.000000e+00
<ENDHMM>
~h "dh"
<BEGINHMM>
<NUMSTATES> 5
<STATE> 2
<MEAN> 25
 -1.355741e-01 -8.336406e-02 3.768921e-02 7.072601e-02 -7.831853e-03 4.126698e-02 1.399091e-01 2.167742e-01 1.525696e-01 4.367248e-02 -6.848589e-02 -2.717057e-02 1.977744e-02 -7.742549e-03 -1.412936e-02 -9.224606e-03 -1.075744e-02 -1.479541e-02 -5.149617e-03 -8.749181e-03 -2.183696e-02 -9.251281e-03 2.817063e-03 -2.590942e-03 1.620195e-02
<VARIANCE> 25
 2.954909e+01 3.087772e+01 3.234423e+01 3.832585e+01 3.436886e+01 7.175728e+01 4.831266e+01 3.122284e+01 5.067730e+01 3.313874e+01 2.884014e+01 2.074357e+01 7.049907e-01 1.210819e+00 1.117775e+00 1.148438e+00 1.291505e+00 2.482732e+00 1.963613e+00 1.715877e+00 2.085576e+00 1.614998e+00 1.734767e+00 1.168163e+00 5.728899e-01
<GCONST> 9.267002e+01
<STATE> 3
<MEAN> 25
 -7.516731e-02 -1.054375e-01 -6.170894e-03 4.018103e-02 -3.941674e-02 4.057038e-04 1.280856e-01 1.921362e-01 8.684456e-02 1.343313e-02 -6.090476e-02 -3.500535e-02 2.079218e-02 -7.739969e-03 -1.513365e-02 -9.366731e-03 -1.005607e-02 -1.472132e-02 -6.182613e-03 -9.772228e-03 -2.190223e-02 -9.603723e-03 2.925521e-03 -2.539502e-03 1.694443e-02
<VARIANCE> 25
 2.946351e+01 3.098496e+01 3.246060e+01 3.853871e+01 3.459817e+01 7.161852e+01 4.849701e+01 3.129559e+01 5.048941e+01 3.315658e+01 2.893007e+01 2.079481e+01 7.080507e-01 1.216858e+00 1.125132e+00 1.154329e+00 1.295972e+00 2.494866e+00 1.977400e+00 1.723791e+00 2.104001e+00 1.629622e+00 1.744738e+00 1.175599e+00 5.771863e-01
<GCONST> 9.277124e+01
<STATE> 4
<MEAN> 25
 1.444981e-02 -1.324197e-01 -6.808879e-02 -8.700592e-03 -9.599374e-02 -6.454480e-02 1.042399e-01 1.489944e-01 -1.354741e-02 -4.420624e-02 -6.071318e-02 -4.828458e-02 2.183837e-02 -7.087648e-03 -1.567763e-02 -1.000998e-02 -9.291209e-03 -1.559973e-02 -9.483472e-03 -1.240878e-02 -2.279844e-02 -1.139841e-02 1.977913e-03 -3.562036e-03 1.796498e-02
<VARIANCE> 25
 2.919173e+01 3.078722e+01 3.230215e+01 3.857521e+01 3.488885e+01 7.090778e+01 4.838696e+01 3.139388e+01 4.989379e+01 3.307400e+01 2.889727e+01 2.076716e+01 7.056081e-01 1.213335e+00 1.123518e+00 1.151629e+00 1.299373e+00 2.489883e+00 1.982606e+00 1.726568e+00 2.112597e+00 1.640861e+00 1.747900e+00 1.178191e+00 5.775158e-01
<GCONST> 9.274431e+01
<TRANSP> 5
 0.000000e+00 1.000000e+00 0.000000e+00 0.000000e+00 0.000000e+00
 0.000000e+00 6.596938e-01 3.403061e-01 0.000000e+00 0.000000e+00
 0.000000e+00 0.000000e+00 6.596909e-01 3.403092e-01 0.000000e+00
 0.000000e+00 0.000000e+00 0.000000e+00 7.725528e-01 2.274471e-01
 0.000000e+00 0.000000e+00 0.000000e+00 0.000000e+00 0.000000e+00
<ENDHMM>
~h "eh"
<BEGINHMM>
<NUMSTATES> 5
<STATE> 2
<MEAN> 25
 5.564841e-02 1.434912e-02 -4.075345e-02 -2.108212e-01 -1.797717e-01 -7.645377e-03 1.634018e-01 1.006325e-01 -2.067655e-01 -2.133499e-01 -7.186078e-02 6.138891e-02 2.350488e-02 -1.492932e-02 -1.106804e-02 4.433773e-03 -7.366773e-03 -3.397210e-02 -2.197490e-02 -1.644726e-02 -2.218090e-02 -1.259981e-02 1.436527e-03 -1.263839e-02 2.390028e-02
<VARIANCE> 25
 2.965081e+01 3.008940e+01 3.276970e+01 3.911776e+01 3.393068e+01 7.045399e+01 4.895461e+01 3.142842e+01 4.862046e+01 3.318799e+01 2.827150e+01 2.070113e+01 7.234682e-01 1.188717e+00 1.101274e+00 1.169524e+00 1.318714e+00 2.487502e+00 2.061002e+00 1.723290e+00 2.040137e+00 1.616546e+00 1.711430e+00 1.154311e+00 5.558794e-01
<GCONST> 9.261737e+01
<STATE> 3
<MEAN> 25
 1.262535e-01 -2.459688e-02 -7.147785e-02 -1.969255e-01 -2.007848e-01 -1.054986e-01 1.000783e-01 5.241201e-02 -2.696098e-01 -2.500784e-01 -6.955983e-02 2.507280e-02 2.342055e-02 -1.346138e-02 -9.536860e-03 6.745451e-03 -5.565580e-03 -3.262250e-02 -2.160972e-02 -1.613660e-02 -2.066365e-02 -1.308154e-02 -6.352473e-04 -1.263462e-02 2.311016e-02
<VARIANCE> 25
 2.963079e+01 3.035147e+01 3.289848e+01 3.951141e+01 3.425305e+01 7.072237e+01 4.927084e+01 3.161649e+01 4.837715e+01 3.329608e+01 2.852320e+01 2.075509e+01 7.282568e-01 1.200017e+00 1.110114e+00 1.177987e+00 1.326841e+00 2.509402e+00 2.074009e+00 1.732612e+00 2.055738e+00 1.624983e+00 1.720727e+00 1.155746e+00 5.604679e-01
<GCONST> 9.276022e+01
<STATE> 4
<MEAN> 25
 2.330204e-01 -6.958168e-02 -1.082001e-01 -1.841988e-01 -2.268348e-01 -2.458075e-01 5.594406e-04 -2.590949e-02 -3.712243e-01 -3.070481e-01 -7.206635e-02 -2.920012e-02 2.247303e-02 -1.104694e-02 -7.931469e-03 7.771352e-03 -3.719744e-03 -3.144118e-02 -2.181465e-02 -1.679711e-02 -1.961181e-02 -1.361950e-02 -2.820870e-03 -1.288287e-02 2.155286e-02
<VARIANCE> 25
 2.923689e+01 3.015453e+01 3.265673e+01 3.973030e+01 3.435360e+01 7.014527e+01 4.937162e+01 3.170988e+01 4.751248e+01 3.303399e+01 2.858264e+01 2.065083e+01 7.233059e-01 1.195381e+00 1.107669e+00 1.174879e+00 1.322261e+00 2.506062e+00 2.066314e+00 1.730807e+00 2.053156e+00 1.620750e+00 1.714232e+00 1.148650e+00 5.584149e-01
<GCONST> 9.266675e+01
<TRANSP> 5
 0.000000e+00 1.000000e+00 0.000000e+00 0.000000e+00 0.000000e+00
 0.000000e+00 6.567351e-01 3.432650e-01 0.000000e+00 0.000000e+00
 0.000000e+00 0.000000e+00 6.567300e-01 3.432700e-01 0.000000e+00
 0.000000e+00 0.000000e+00 0.000000e+00 7.706607e-01 2.293393e-01
 0.000000e+00 0.000000e+00 0.000000e+00 0.000000e+00 0.000000e+00
<ENDHMM>
~h "el"
<BEGINHMM>
<NUMSTATES> 5
<STATE> 2
<MEAN> 25
 -1.501478e-01 5.916754e-01 3.115796e-01 8.545750e-01 2.216919e+00 1.223920e+00 -8.204113e-01 2.509322e-01 1.628083e+00 1.330847e+00 6.992995e-01 3.924052e-01 -2.644364e-02 -6.044340e-02 3.233723e-02 1.514629e-01 5.199979e-02 -1.702837e-02 2.632223e-02 -3.537164e-02 -2.664432e-02 7.976121e-02 4.178056e-02 -2.426149e-02 6.582704e-04
<VARIANCE> 25
 1.895807e+01 2.523234e+01 1.908974e+01 1.662815e+01 1.627470e+01 7.351792e+01 3.660320e+01 1.280135e+01 3.458318e+01 3.548973e+01 3.011350e+01 1.987946e+01 6.579504e-01 1.052605e+00 1.138692e+00 1.040474e+00 8.983479e-01 2.821502e+00 2.218491e+00 1.384641e+00 2.382563e+00 2.223263e+00 1.940086e+00 1.250389e+00 5.993223e-01
<GCONST> 8.851756e+01
<STATE> 3
<MEAN> 25
 -2.313546e-01 4.081447e-01 3.870067e-01 1.251957e+00 2.341770e+00 1.150357e+00 -7.688974e-01 1.448088e-01 1.544224e+00 1.545818e+00 8.199033e-01 3.310199e-01 -1.922775e-02 -7.409284e-02 2.428653e-02 1.418261e-01 2.421539e-02 -5.794664e-02 1.455797e-02 -3.688041e-02 -3.560201e-02 7.761388e-02 3.909964e-02 -3.992205e-02 1.351274e-02
<VARIANCE> 25
 1.877373e+01 2.714397e+01 1.843647e+01 1.613312e+01 1.391907e+01 7.701691e+01 3.614554e+01 1.262636e+01 3.522474e+01 3.423808e+01 2.987761e+01 2.084048e+01 6.316550e-01 1.144986e+00 1.134950e+00 1.047743e+00 8.588164e-01 2.820339e+00 2.201280e+00 1.381826e+00 2.407691e+00 2.236821e+00 1.935360e+00 1.278553e+00 5.917901e-01
<GCONST> 8.841692e+01
<STATE> 4
<MEAN> 25
 -3.810771e-01 1.347534e-01 4.241807e-01 1.622750e+00 2.379962e+00 1.091904e+00 -6.332003e-01 2.679482e-02 1.422185e+00 1.840983e+00 1.024714e+00 2.458233e-01 -8.333102e-03 -8.682419e-02 1.656473e-02 1.335329e-01 -3.209448e-03 -1.060925e-01 -9.580821e-03 -3.895161e-02 -4.548832e-02 5.646075e-02 2.169826e-02 -5.605286e-02 2.840825e-02
<VARIANCE> 25
 1.882030e+01 2.908952e+01 1.756759e+01 1.618074e+01 1.200610e+01 8.148096e+01 3.572322e+01 1.250438e+01 3.479847e+01 3.257856e+01 2.963727e+01 2.176519e+01 5.945014e-01 1.242143e+00 1.104631e+00 1.053872e+00 7.933443e-01 2.747173e+00 2.125000e+00 1.363914e+00 2.351563e+00 2.197520e+00 1.874212e+00 1.284379e+00 5.651163e-01
<GCONST> 8.803448e+01
<TRANSP> 5
 0.000000e+00 1.000000e+00 0.000000e+00 0.000000e+00 0.000000e+00
 0.000000e+00 6.304290e-01 3.695709e-01 0.000000e+00 0.000000e+00
 0.000000e+00 0.000000e+00 6.304292e-01 3.695709e-01 0.000000e+00
 0.000000e+00 0.000000e+00 0.000000e+00 7.358055e-01 2.641945e-01
 0.000000e+00 0.000000e+00 0.000000e+00 0.000000e+00 0.000000e+00
<ENDHMM>
~h "en"
<BEGINHMM>
<NUMSTATES> 5
<STATE> 2
<MEAN> 25
 2.623993e-01 2.527052e-01 -5.860843e-01 -1.445126e+00 -5.642427e-01 7.646662e-01 7.741864e-01 2.042647e-01 -8.207176e-02 -1.598752e-01 2.842837e-01 5.094520e-01 2.924646e-02 -1.038102e-02 6.223926e-03 2.632275e-02 1.034507e-02 -4.360631e-02 -3.825765e-02 -2.688641e-02 -5.580484e-02 -4.490668e-02 -2.482018e-02 -4.774498e-02 3.223006e-02
<VARIANCE> 25
 3.122479e+01 3.009113e+01 4.095762e+01 3.012954e+01 3.055593e+01 5.661460e+01 3.760511e+01 3.129721e+01 5.679372e+01 3.415567e+01 2.820799e+01 1.978816e+01 8.698107e-01 1.191423e+00 1.288359e+00 1.028522e+00 1.358331e+00 2.405303e+00 1.998626e+00 1.939114e+00 2.266815e+00 1.709967e+00 1.626788e+00 1.188551e+00 5.512778e-01
<GCONST> 9.260642e+01
<STATE> 3
<MEAN> 25
 3.521863e-01 2.144098e-01 -5.619322e-01 -1.359381e+00 -5.376314e-01 6.086029e-01 6.382403e-01 1.222648e-01 -2.451699e-01 -2.952755e-01 2.049803e-01 3.678463e-01 3.447169e-02 -1.326840e-02 9.388493e-03 2.827091e-02 7.656145e-03 -7.042257e-02 -5.488004e-02 -3.653973e-02 -6.898633e-02 -5.315605e-02 -2.833276e-02 -5.098172e-02 4.126314e-02
<VARIANCE> 25
 3.048960e+01 3.026817e+01 4.096986e+01 3.125422e+01 3.082795e+01 5.684139e+01 3.891004e+01 3.252084e+01 5.734190e+01 3.376402e+01 2.817241e+01 2.013423e+01 8.950101e-01 1.211455e+00 1.324416e+00 1.034914e+00 1.369444e+00 2.500319e+00 2.092820e+00 1.996046e+00 2.310297e+00 1.726273e+00 1.665090e+00 1.204277e+00 5.610858e-01
<GCONST> 9.300834e+01
<STATE> 4
<MEAN> 25
 5.083377e-01 1.466467e-01 -5.388399e-01 -1.254673e+00 -5.383483e-01 2.920926e-01 3.824136e-01 -2.300654e-02 -4.782644e-01 -4.909799e-01 1.088326e-01 2.059645e-01 3.848501e-02 -2.100789e-02 1.058869e-02 3.157162e-02 3.398807e-03 -9.964874e-02 -7.223109e-02 -4.089607e-02 -7.510126e-02 -5.493322e-02 -2.738301e-02 -4.677801e-02 5.012951e-02
<VARIANCE> 25
 2.960255e+01 3.046009e+01 4.090019e+01 3.314545e+01 3.121050e+01 5.777727e+01 4.083349e+01 3.392778e+01 5.756635e+01 3.355769e+01 2.844684e+01 2.051558e+01 9.183654e-01 1.223439e+00 1.355337e+00 1.045451e+00 1.389689e+00 2.629096e+00 2.190047e+00 2.046967e+00 2.342243e+00 1.751924e+00 1.719104e+00 1.211709e+00 5.674192e-01
<GCONST> 9.346976e+01
<TRANSP> 5
 0.000000e+00 1.000000e+00 0.000000e+00 0.000000e+00 0.000000e+00
 0.000000e+00 6.350881e-01 3.649119e-01 0.000000e+00 0.000000e+00
 0.000000e+00 0.000000e+00 6.350880e-01 3.649120e-01 0.000000e+00
 0.000000e+00 0.000000e+00 0.000000e+00 7.429137e-01 2.570863e-01
 0.000000e+00 0.000000e+00 0.000000e+00 0.000000e+00 0.000000e+00
<ENDHMM>
~h "er"
<BEGINHMM>
<NUMSTATES> 5
<STATE> 2
<MEAN> 25
 2.166037e-01 -2.349690e-01 -1.290810e-01 1.572256e-01 9.765052e-03 -4.346470e-01 -3.067797e-01 -5.633458e-02 -2.714924e-01 -3.584984e-01 -2.215134e-01 -1.881949e-01 2.539653e-02 -6.181092e-03 -1.637897e-02 -1.411762e-02 -1.649776e-02 -3.113928e-02 -9.826722e-03 -2.070467e-02 -3.955977e-02 -1.380546e-02 1.074502e-02 -2.699996e-04 2.174317e-02
<VARIANCE> 25
 2.991228e+01 3.203404e+01 3.435629e+01 4.100574e+01 3.733419e+01 7.077066e+01 4.987516e+01 3.278419e+01 4.937441e+01 3.326736e+01 2.962223e+01 2.119436e+01 7.409787e-01 1.249625e+00 1.146674e+00 1.213764e+00 1.366913e+00 2.554282e+00 2.059371e+00 1.787682e+00 2.137146e+00 1.680666e+00 1.769932e+00 1.205446e+00 5.899670e-01
<GCONST> 9.350364e+01
<STATE> 3
<MEAN> 25
 2.902075e-01 -2.534555e-01 -1.768598e-01 1.131933e-01 -4.294910e-02 -5.244800e-01 -3.290819e-01 -1.123732e-01 -3.865991e-01 -3.971432e-01 -1.888151e-01 -1.859919e-01 2.612761e-02 -5.670635e-03 -1.630206e-02 -1.376098e-02 -1.754070e-02 -3.248652e-02 -9.243982e-03 -1.957198e-02 -3.982919e-02 -1.441837e-02 1.092018e-02 5.313091e-04 2.179390e-02
<VARIANCE> 25
 2.987365e+01 3.199946e+01 3.446835e+01 4.113195e+01 3.748390e+01 7.090697e+01 4.989996e+01 3.293125e+01 4.961748e+01 3.314632e+01 2.980657e+01 2.125614e+01 7.491323e-01 1.257232e+00 1.155992e+00 1.222175e+00 1.376340e+00 2.571500e+00 2.070338e+00 1.791260e+00 2.155269e+00 1.687119e+00 1.783020e+00 1.212690e+00 5.940163e-01
<GCONST> 9.361427e+01
<STATE> 4
<MEAN> 25
 3.902093e-01 -2.755643e-01 -2.484501e-01 2.809096e-02 -1.345186e-01 -6.330301e-01 -3.297236e-01 -1.670780e-01 -5.383834e-01 -4.562128e-01 -1.450051e-01 -1.739951e-01 2.832699e-02 -4.652136e-03 -1.743915e-02 -1.506269e-02 -1.948318e-02 -3.178834e-02 -8.425136e-03 -1.638391e-02 -3.732772e-02 -1.480030e-02 9.661696e-03 1.364216e-03 2.194359e-02
<VARIANCE> 25
 2.964042e+01 3.161316e+01 3.442038e+01 4.115724e+01 3.787344e+01 7.062571e+01 4.976344e+01 3.303798e+01 4.955006e+01 3.295122e+01 2.989154e+01 2.134688e+01 7.571574e-01 1.256980e+00 1.164731e+00 1.228080e+00 1.395427e+00 2.588152e+00 2.076046e+00 1.794598e+00 2.170234e+00 1.691970e+00 1.793753e+00 1.219847e+00 5.961062e-01
<GCONST> 9.367305e+01
<TRANSP> 5
 0.000000e+00 1.000000e+00 0.000000e+00 0.000000e+00 0.000000e+00
 0.000000e+00 6.545164e-01 3.454835e-01 0.000000e+00 0.000000e+00
 0.000000e+00 0.000000e+00 6.545167e-01 3.454833e-01 0.000000e+00
 0.000000e+00 0.000000e+00 0.000000e+00 7.659925e-01 2.340075e-01
 0.000000e+00 0.000000e+00 0.000000e+00 0.000000e+00 0.000000e+00
<ENDHMM>
~h "ey"
<BEGINHMM>
<NUMSTATES> 5
<STATE> 2
<MEAN> 25
 8.252502e-02 -7.392621e-02 -1.212495e-01 -1.513065e-01 -1.973255e-02 7.879994e-02 1.256058e-01 -7.061341e-02 -2.681391e-01 -1.728348e-01 9.137768e-02 -1.893369e-02 1.629509e-02 -4.860540e-03 -7.871832e-04 7.588604e-03 -3.429244e-03 -3.453648e-02 -2.899197e-02 -2.273166e-02 -2.093226e-02 -1.248784e-02 -1.055290e-02 -1.514317e-02 1.573680e-02
<VARIANCE> 25
 2.919567e+01 3.135530e+01 3.197646e+01 3.901299e+01 3.227903e+01 7.370420e+01 5.265822e+01 3.198418e+01 4.758060e+01 3.217359e+01 2.922536e+01 2.093572e+01 7.232956e-01 1.252688e+00 1.118550e+00 1.181725e+00 1.271733e+00 2.575386e+00 2.084676e+00 1.718331e+00 2.049695e+00 1.636098e+00 1.736139e+00 1.162574e+00 5.742875e-01
<GCONST> 9.284921e+01
<STATE> 3
<MEAN> 25
 1.283955e-01 -8.514649e-02 -1.203872e-01 -1.278770e-01 -2.694289e-02 -2.128202e-02 4.021028e-02 -1.355462e-01 -3.262956e-01 -2.082901e-01 5.789584e-02 -6.342199e-02 1.485333e-02 -1.399280e-03 1.609719e-03 8.170099e-03 -3.197885e-03 -3.334679e-02 -2.784030e-02 -2.122737e-02 -1.853027e-02 -1.146858e-02 -1.291958e-02 -1.569092e-02 1.302104e-02
<VARIANCE> 25
 2.915477e+01 3.140370e+01 3.203741e+01 3.951081e+01 3.261561e+01 7.399827e+01 5.288163e+01 3.214787e+01 4.744046e+01 3.218870e+01 2.931691e+01 2.099082e+01 7.236027e-01 1.258291e+00 1.117437e+00 1.190937e+00 1.277299e+00 2.589364e+00 2.093993e+00 1.722937e+00 2.063084e+00 1.647183e+00 1.742597e+00 1.167928e+00 5.749656e-01
<GCONST> 9.294225e+01
<STATE> 4
<MEAN> 25
 1.862144e-01 -1.029637e-01 -1.039792e-01 -8.260568e-02 -2.823425e-02 -1.605772e-01 -8.419441e-02 -2.290679e-01 -4.021506e-01 -2.534032e-01 1.334715e-02 -1.349709e-01 1.305941e-02 1.730343e-03 3.938414e-03 8.893906e-03 -1.941431e-03 -3.120916e-02 -2.728749e-02 -1.990298e-02 -1.533700e-02 -1.051669e-02 -1.376327e-02 -1.560380e-02 1.047311e-02
<VARIANCE> 25
 2.887487e+01 3.101796e+01 3.172357e+01 3.999636e+01 3.291352e+01 7.381796e+01 5.295963e+01 3.215808e+01 4.667884e+01 3.195640e+01 2.934455e+01 2.093268e+01 7.189422e-01 1.247774e+00 1.107383e+00 1.194492e+00 1.279123e+00 2.587334e+00 2.093226e+00 1.717529e+00 2.063390e+00 1.651579e+00 1.745094e+00 1.169847e+00 5.708774e-01
<GCONST> 9.288077e+01
<TRANSP> 5
 0.000000e+00 1.000000e+00 0.000000e+00 0.000000e+00 0.000000e+00
 0.000000e+00 6.601360e-01 3.398640e-01 0.000000e+00 0.000000e+00
 0.000000e+00 0.000000e+00 6.601334e-01 3.398666e-01 0.000000e+00
 0.000000e+00 0.000000e+00 0.000000e+00 7.734870e-01 2.265130e-01
 0.000000e+00 0.000000e+00 0.000000e+00 0.000000e+00 0.000000e+00
<ENDHMM>
~h "hh"
<BEGINHMM>
<NUMSTATES> 5
<STATE> 2
<MEAN> 25
 -2.019894e-01 1.265694e-01 2.314346e-01 1.262344e-01 1.078041e-01 1.344649e-01 -6.828316e-03 2.420610e-02 1.723091e-01 1.073702e-01 -5.790134e-02 8.626769e-02 2.044798e-02 -1.400327e-02 -1.504684e-02 -2.257253e-03 -9.486390e-03 -3.161896e-02 -1.487777e-02 -1.490646e-02 -2.360924e-02 -1.471735e-02 2.408010e-03 -7.909025e-03 2.088814e-02
<VARIANCE> 25
 2.890575e+01 3.035133e+01 3.175579e+01 3.647538e+01 3.144393e+01 6.940945e+01 4.599379e+01 3.002121e+01 5.029247e+01 3.204358e+01 2.643678e+01 1.992198e+01 6.885546e-01 1.168167e+00 1.082350e+00 1.112813e+00 1.210542e+00 2.399516e+00 1.943422e+00 1.640647e+00 1.992280e+00 1.566262e+00 1.638297e+00 1.125678e+00 5.358328e-01
<GCONST> 9.166895e+01
<STATE> 3
<MEAN> 25
 -1.410273e-01 9.099930e-02 1.907178e-01 1.230736e-01 8.011279e-02 4.097273e-02 -5.240326e-02 -2.364321e-02 1.019201e-01 6.492494e-02 -4.887705e-02 6.113236e-02 1.953130e-02 -1.163890e-02 -1.328094e-02 -1.503658e-03 -8.999585e-03 -3.165150e-02 -1.467173e-02 -1.486018e-02 -2.236667e-02 -1.337094e-02 3.969351e-03 -8.075317e-03 1.981898e-02
<VARIANCE> 25
 2.893697e+01 3.032398e+01 3.174484e+01 3.677383e+01 3.162560e+01 6.968567e+01 4.643680e+01 3.024935e+01 5.022878e+01 3.217591e+01 2.670147e+01 2.009842e+01 6.956801e-01 1.170574e+00 1.088647e+00 1.122030e+00 1.217675e+00 2.416459e+00 1.957562e+00 1.651134e+00 2.006484e+00 1.577536e+00 1.652678e+00 1.134739e+00 5.377890e-01
<GCONST> 9.181306e+01
<STATE> 4
<MEAN> 25
 -6.620470e-02 4.289701e-02 1.367782e-01 1.378853e-01 6.030740e-02 -8.160026e-02 -1.150078e-01 -9.526265e-02 1.176097e-02 1.191360e-02 -3.577168e-02 2.242647e-02 1.889860e-02 -9.151649e-03 -1.068706e-02 -9.354793e-04 -8.286262e-03 -3.081033e-02 -1.442797e-02 -1.409240e-02 -2.154765e-02 -1.323418e-02 3.121947e-03 -8.962201e-03 1.884609e-02
<VARIANCE> 25
 2.861414e+01 2.984208e+01 3.137874e+01 3.683868e+01 3.148950e+01 6.922198e+01 4.645548e+01 3.017362e+01 4.941742e+01 3.209484e+01 2.679301e+01 2.025941e+01 6.957012e-01 1.154722e+00 1.083366e+00 1.123484e+00 1.216417e+00 2.403799e+00 1.952632e+00 1.647635e+00 2.007055e+00 1.580496e+00 1.655878e+00 1.137089e+00 5.320170e-01
<GCONST> 9.172276e+01
<TRANSP> 5
 0.000000e+00 1.000000e+00 0.000000e+00 0.000000e+00 0.000000e+00
 0.000000e+00 6.607445e-01 3.392555e-01 0.000000e+00 0.000000e+00
 0.000000e+00 0.000000e+00 6.607420e-01 3.392580e-01 0.000000e+00
 0.000000e+00 0.000000e+00 0.000000e+00 7.744452e-01 2.255548e-01
 0.000000e+00 0.000000e+00 0.000000e+00 0.000000e+00 0.000000e+00
<ENDHMM>
~h "ih"
<BEGINHMM>
<NUMSTATES> 5
<STATE> 2
<MEAN> 25
 1.192579e-01 -3.200403e-02 -1.787324e-01 -1.940054e-01 -1.573921e-01 -7.500913e-02 8.114803e-02 1.212852e-01 5.797046e-03 -7.414600e-02 -4.946724e-02 2.097690e-02 2.156220e-02 -1.362787e-02 -1.419713e-02 4.510629e-03 -6.101367e-03 -3.076248e-02 -2.306969e-02 -1.788086e-02 -2.652599e-02 -1.499609e-02 1.620971e-03 -6.602045e-03 1.946099e-02
<VARIANCE> 25
 2.917829e+01 3.067529e+01 3.233471e+01 3.879859e+01 3.450245e+01 7.184367e+01 4.992666e+01 3.185398e+01 4.819587e+01 3.183616e+01 2.830901e+01 2.076282e+01 7.321564e-01 1.214163e+00 1.114943e+00 1.167240e+00 1.302704e+00 2.545846e+00 2.027534e+00 1.721876e+00 2.009628e+00 1.616284e+00 1.718092e+00 1.160078e+00 5.756454e-01
<GCONST> 9.268819e+01
<STATE> 3
<MEAN> 25
 1.790111e-01 -6.920490e-02 -2.165325e-01 -1.811517e-01 -1.742395e-01 -1.625986e-01 1.575335e-02 6.830367e-02 -6.968178e-02 -1.152173e-01 -4.237639e-02 1.558586e-03 2.112702e-02 -1.228044e-02 -1.295228e-02 3.811815e-03 -6.352518e-03 -2.918942e-02 -2.170424e-02 -1.799179e-02 -2.729326e-02 -1.435535e-02 2.894605e-03 -6.233308e-03 1.870438e-02
<VARIANCE> 25
 2.908274e+01 3.075712e+01 3.240908e+01 3.904932e+01 3.456898e+01 7.185065e+01 5.010690e+01 3.195158e+01 4.823556e+01 3.190538e+01 2.856913e+01 2.086635e+01 7.380813e-01 1.226449e+00 1.122250e+00 1.176051e+00 1.312399e+00 2.571843e+00 2.040986e+00 1.738048e+00 2.033520e+00 1.626055e+00 1.733457e+00 1.166789e+00 5.826596e-01
<GCONST> 9.283247e+01
<STATE> 4
<MEAN> 25
 2.546286e-01 -1.122519e-01 -2.556053e-01 -1.670324e-01 -1.945361e-01 -2.805424e-01 -6.847762e-02 -8.134477e-03 -1.802306e-01 -1.763189e-01 -3.354773e-02 -3.223852e-02 1.995024e-02 -1.109753e-02 -1.077037e-02 3.396473e-03 -6.084719e-03 -2.807271e-02 -2.053917e-02 -1.868044e-02 -2.830382e-02 -1.376531e-02 4.248563e-03 -6.708895e-03 1.800765e-02
<VARIANCE> 25
 2.876571e+01 3.049795e+01 3.217206e+01 3.905224e+01 3.440916e+01 7.118797e+01 4.995803e+01 3.185821e+01 4.786361e+01 3.178956e+01 2.875613e+01 2.094909e+01 7.385473e-01 1.226186e+00 1.121044e+00 1.177754e+00 1.316974e+00 2.579853e+00 2.045591e+00 1.747988e+00 2.051656e+00 1.628330e+00 1.743342e+00 1.171959e+00 5.843389e-01
<GCONST> 9.282368e+01
<TRANSP> 5
 0.000000e+00 1.000000e+00 0.000000e+00 0.000000e+00 0.000000e+00
 0.000000e+00 6.506201e-01 3.493799e-01 0.000000e+00 0.000000e+00
 0.000000e+00 0.000000e+00 6.506219e-01 3.493781e-01 0.000000e+00
 0.000000e+00 0.000000e+00 0.000000e+00 7.626773e-01 2.373227e-01
 0.000000e+00 0.000000e+00 0.000000e+00 0.000000e+00 0.000000e+00
<ENDHMM>
~h "iy"
<BEGINHMM>
<NUMSTATES> 5
<STATE> 2
<MEAN> 25
 2.615832e-01 -1.310758e-01 -2.923552e-01 -3.199874e-01 -2.181106e-01 -1.189691e-01 -6.071658e-03 -1.542820e-01 -2.871249e-01 -3.440746e-02 1.679193e-01 1.611069e-02 1.611421e-02 -1.026640e-02 -6.156705e-03 4.328695e-03 2.205557e-03 -2.652305e-02 -1.872543e-02 -1.690762e-02 -2.498957e-02 -1.393941e-02 1.787891e-03 -8.428521e-03 1.924247e-02
<VARIANCE> 25
 2.830801e+01 3.010432e+01 3.209531e+01 4.129517e+01 3.352017e+01 7.282762e+01 4.977974e+01 3.137209e+01 4.841505e+01 3.323724e+01 2.871718e+01 2.135875e+01 7.254841e-01 1.195750e+00 1.116199e+00 1.213859e+00 1.270476e+00 2.551713e+00 2.057100e+00 1.771643e+00 2.089170e+00 1.653564e+00 1.724404e+00 1.167846e+00 5.663344e-01
<GCONST> 9.284254e+01
<STATE> 3
<MEAN> 25
 3.058076e-01 -1.623635e-01 -3.079199e-01 -3.041748e-01 -2.084614e-01 -1.962885e-01 -6.197853e-02 -2.020527e-01 -3.574874e-01 -7.441310e-02 1.719310e-01 -9.758428e-03 1.579297e-02 -1.030628e-02 -6.205240e-03 4.275145e-03 4.098047e-03 -2.475161e-02 -1.800856e-02 -1.498334e-02 -2.459566e-02 -1.395811e-02 7.003864e-04 -9.275163e-03 1.932639e-02
<VARIANCE> 25
 2.836484e+01 3.022568e+01 3.228530e+01 4.182912e+01 3.367539e+01 7.290546e+01 5.015449e+01 3.150699e+01 4.834525e+01 3.334606e+01 2.905398e+01 2.144496e+01 7.335671e-01 1.201470e+00 1.126765e+00 1.224418e+00 1.278458e+00 2.574472e+00 2.080281e+00 1.787956e+00 2.106096e+00 1.660665e+00 1.737213e+00 1.176179e+00 5.711570e-01
<GCONST> 9.300710e+01
<STATE> 4
<MEAN> 25
 3.663062e-01 -2.013912e-01 -3.267323e-01 -2.820537e-01 -1.920046e-01 -2.975565e-01 -1.332069e-01 -2.596954e-01 -4.498778e-01 -1.322313e-01 1.640514e-01 -5.897830e-02 1.418774e-02 -8.594764e-03 -4.966671e-03 4.982672e-03 6.896783e-03 -2.067848e-02 -1.699038e-02 -1.346602e-02 -2.248799e-02 -1.353838e-02 -9.656877e-04 -1.018243e-02 1.762087e-02
<VARIANCE> 25
 2.824869e+01 3.011863e+01 3.239677e+01 4.236134e+01 3.373818e+01 7.229359e+01 5.026894e+01 3.153426e+01 4.783617e+01 3.342535e+01 2.931791e+01 2.144037e+01 7.345837e-01 1.197074e+00 1.130231e+00 1.227935e+00 1.279137e+00 2.576482e+00 2.091360e+00 1.794507e+00 2.112116e+00 1.659537e+00 1.740262e+00 1.180925e+00 5.691313e-01
<GCONST> 9.303107e+01
<TRANSP> 5
 0.000000e+00 1.000000e+00 0.000000e+00 0.000000e+00 0.000000e+00
 0.000000e+00 6.575603e-01 3.424396e-01 0.000000e+00 0.000000e+00
 0.000000e+00 0.000000e+00 6.575586e-01 3.424414e-01 0.000000e+00
 0.000000e+00 0.000000e+00 0.000000e+00 7.705835e-01 2.294166e-01
 0.000000e+00 0.000000e+00 0.000000e+00 0.000000e+00 0.000000e+00
<ENDHMM>
~h "jh"
<BEGINHMM>
<NUMSTATES> 5
<STATE> 2
<MEAN> 25
 -2.252903e-01 4.640677e-01 1.407551e-01 -1.212154e-01 -2.782102e-02 2.007402e-01 8.635277e-02 4.043424e-01 4.494050e-01 -1.631413e-01 -4.568204e-01 3.174750e-02 2.889306e-02 -2.089859e-02 -1.476457e-02 -1.809075e-03 -1.079522e-02 -2.366444e-02 2.686031e-04 -1.465530e-02 -5.664361e-02 -2.379736e-02 1.135241e-02 -1.700427e-02 3.017093e-02
<VARIANCE> 25
 2.779214e+01 3.231233e+01 3.130518e+01 3.868907e+01 3.235258e+01 6.948441e+01 5.193408e+01 3.367046e+01 4.784895e+01 3.163248e+01 2.753139e+01 2.018784e+01 7.031466e-01 1.226162e+00 1.138693e+00 1.154892e+00 1.289150e+00 2.468969e+00 2.021057e+00 1.763228e+00 1.989933e+00 1.531837e+00 1.672837e+00 1.145071e+00 5.811427e-01
<GCONST> 9.244944e+01
<STATE> 3
<MEAN> 25
 -1.405993e-01 3.988767e-01 9.738404e-02 -1.190940e-01 -5.706199e-02 1.264224e-01 8.253662e-02 3.545318e-01 2.831582e-01 -2.293302e-01 -4.164429e-01 -2.010766e-02 2.963418e-02 -2.001307e-02 -1.404043e-02 -1.342328e-03 -1.140643e-02 -2.576636e-02 1.464173e-03 -1.915575e-02 -5.923536e-02 -2.280204e-02 1.418206e-02 -1.782627e-02 3.170704e-02
<VARIANCE> 25
 2.785052e+01 3.240658e+01 3.166641e+01 3.941890e+01 3.248412e+01 6.926034e+01 5.267193e+01 3.402463e+01 4.838103e+01 3.192688e+01 2.797221e+01 2.052164e+01 7.120759e-01 1.237513e+00 1.144346e+00 1.166643e+00 1.296056e+00 2.482859e+00 2.050311e+00 1.776938e+00 1.996391e+00 1.543661e+00 1.693212e+00 1.155162e+00 5.835841e-01
<GCONST> 9.266859e+01
<STATE> 4
<MEAN> 25
 -5.021001e-02 3.088630e-01 7.280020e-02 -9.000477e-02 -8.986883e-02 1.103051e-02 6.773207e-02 2.556329e-01 6.736565e-02 -2.936588e-01 -3.343693e-01 -9.427423e-02 3.127443e-02 -2.363590e-02 -1.588047e-02 -1.416335e-03 -1.363021e-02 -3.300700e-02 -2.292236e-03 -2.238768e-02 -5.664812e-02 -2.150629e-02 1.503301e-02 -1.783296e-02 3.555808e-02
<VARIANCE> 25
 2.792949e+01 3.222915e+01 3.207759e+01 4.030559e+01 3.270106e+01 6.893565e+01 5.379213e+01 3.458027e+01 4.880244e+01 3.228671e+01 2.849901e+01 2.106672e+01 7.294034e-01 1.246881e+00 1.154619e+00 1.175760e+00 1.299945e+00 2.504837e+00 2.097074e+00 1.797954e+00 1.998578e+00 1.560873e+00 1.718654e+00 1.166317e+00 5.865666e-01
<GCONST> 9.294125e+01
<TRANSP> 5
 0.000000e+00 1.000000e+00 0.000000e+00 0.000000e+00 0.000000e+00
 0.000000e+00 6.445757e-01 3.554243e-01 0.000000e+00 0.000000e+00
 0.000000e+00 0.000000e+00 6.445756e-01 3.554244e-01 0.000000e+00
 0.000000e+00 0.000000e+00 0.000000e+00 7.545460e-01 2.454539e-01
 0.000000e+00 0.000000e+00 0.000000e+00 0.000000e+00 0.000000e+00
<ENDHMM>
~h "ng"
<BEGINHMM>
<NUMSTATES> 5
<STATE> 2
<MEAN> 25
 3.116387e-01 -1.196405e-01 -1.680397e-01 -2.289487e-01 -1.540882e-01 -5.516156e-01 -4.069208e-01 -3.309513e-01 -4.569755e-01 -1.952991e-01 2.166431e-01 -1.238807e-01 2.561297e-02 -1.185094e-02 -7.451814e-03 1.349806e-02 -1.205831e-02 -4.774737e-02 -2.561792e-02 -1.386164e-02 -3.549452e-02 -3.028145e-02 -8.691779e-03 -6.906290e-03 2.142644e-02
<VARIANCE> 25
 2.926783e+01 3.006061e+01 3.255285e+01 4.106661e+01 3.606367e+01 7.102940e+01 4.988699e+01 3.295757e+01 4.834933e+01 3.275420e+01 2.930016e+01 2.141595e+01 7.512068e-01 1.261535e+00 1.163059e+00 1.230821e+00 1.355828e+00 2.627025e+00 2.094964e+00 1.806681e+00 2.113029e+00 1.664272e+00 1.752877e+00 1.188496e+00 5.751874e-01
<GCONST> 9.333193e+01
<STATE> 3
<MEAN> 25
 3.825869e-01 -1.545912e-01 -1.885987e-01 -1.887015e-01 -1.876825e-01 -6.873242e-01 -4.732561e-01 -3.691864e-01 -5.582023e-01 -2.813271e-01 1.917024e-01 -1.461744e-01 2.487636e-02 -1.328442e-02 -7.258548e-03 1.399957e-02 -1.180528e-02 -4.940423e-02 -2.403357e-02 -1.614468e-02 -3.533413e-02 -2.656753e-02 -5.248485e-03 -8.818244e-03 2.276823e-02
<VARIANCE> 25
 2.911647e+01 3.028456e+01 3.265227e+01 4.167520e+01 3.611420e+01 7.138799e+01 5.001942e+01 3.289045e+01 4.847671e+01 3.293031e+01 2.965851e+01 2.156772e+01 7.564571e-01 1.273980e+00 1.174870e+00 1.245907e+00 1.372467e+00 2.680497e+00 2.120809e+00 1.830826e+00 2.131402e+00 1.676149e+00 1.771861e+00 1.198706e+00 5.848884e-01
<GCONST> 9.353499e+01
<STATE> 4
<MEAN> 25
 4.718109e-01 -1.892425e-01 -2.040782e-01 -1.375322e-01 -2.204495e-01 -8.660921e-01 -5.532161e-01 -4.319127e-01 -6.927875e-01 -3.909547e-01 1.540328e-01 -1.934860e-01 2.354731e-02 -1.299031e-02 -7.242403e-03 1.226926e-02 -1.318447e-02 -4.651011e-02 -2.090975e-02 -1.703032e-02 -3.311945e-02 -2.267478e-02 -3.385396e-03 -7.931693e-03 2.214978e-02
<VARIANCE> 25
 2.870155e+01 3.027460e+01 3.240526e+01 4.215885e+01 3.602221e+01 7.118570e+01 5.019413e+01 3.277609e+01 4.819839e+01 3.279882e+01 3.002749e+01 2.170974e+01 7.616336e-01 1.271005e+00 1.178281e+00 1.256302e+00 1.386854e+00 2.708951e+00 2.149176e+00 1.854792e+00 2.141144e+00 1.674945e+00 1.781256e+00 1.211721e+00 5.887035e-01
<GCONST> 9.361741e+01
<TRANSP> 5
 0.000000e+00 1.000000e+00 0.000000e+00 0.000000e+00 0.000000e+00
 0.000000e+00 6.503443e-01 3.496558e-01 0.000000e+00 0.000000e+00
 0.000000e+00 0.000000e+00 6.503468e-01 3.496532e-01 0.000000e+00
 0.000000e+00 0.000000e+00 0.000000e+00 7.619041e-01 2.380959e-01
 0.000000e+00 0.000000e+00 0.000000e+00 0.000000e+00 0.000000e+00
<ENDHMM>
~h "ow"
<BEGINHMM>
<NUMSTATES> 5
<STATE> 2
<MEAN> 25
 2.544328e-02 -2.244796e-01 -5.401758e-02 3.398929e-01 3.264623e-01 -6.821213e-02 -2.910422e-01 -3.709382e-01 -8.871788e-02 7.735799e-02 1.368838e-01 -6.686763e-04 1.922918e-02 -5.011351e-03 -7.047519e-03 -7.501230e-03 -1.219515e-02 -3.083263e-02 -9.016980e-03 -1.547776e-03 -2.112739e-02 -1.688580e-02 -1.697955e-03 -9.583704e-03 1.828623e-02
<VARIANCE> 25
 2.836817e+01 2.842332e+01 3.093393e+01 3.755311e+01 3.385094e+01 6.815459e+01 4.554125e+01 2.915699e+01 4.657812e+01 3.155534e+01 2.792727e+01 2.050938e+01 7.068470e-01 1.132230e+00 1.094071e+00 1.165525e+00 1.281466e+00 2.458757e+00 1.948267e+00 1.658328e+00 1.996830e+00 1.606218e+00 1.659334e+00 1.164227e+00 5.392788e-01
<GCONST> 9.182256e+01
<STATE> 3
<MEAN> 25
 7.972039e-02 -2.367495e-01 -7.058251e-02 3.209262e-01 2.890862e-01 -1.593552e-01 -3.133001e-01 -3.692847e-01 -1.479726e-01 2.623392e-02 1.290883e-01 -2.829881e-02 1.780360e-02 -2.610364e-03 -4.269167e-03 -6.941485e-03 -1.350358e-02 -2.982984e-02 -7.752590e-03 5.590794e-04 -1.944221e-02 -1.730137e-02 -3.333555e-03 -9.213029e-03 1.628720e-02
<VARIANCE> 25
 2.834398e+01 2.861594e+01 3.109900e+01 3.794209e+01 3.424232e+01 6.827934e+01 4.562130e+01 2.918491e+01 4.649557e+01 3.169124e+01 2.823142e+01 2.054486e+01 7.119465e-01 1.135546e+00 1.100147e+00 1.172430e+00 1.294423e+00 2.468947e+00 1.954567e+00 1.663815e+00 2.003410e+00 1.616621e+00 1.667544e+00 1.165031e+00 5.418329e-01
<GCONST> 9.193759e+01
<STATE> 4
<MEAN> 25
 1.363158e-01 -2.415628e-01 -7.004968e-02 3.097990e-01 2.340930e-01 -2.733743e-01 -3.386118e-01 -3.573747e-01 -2.079234e-01 -4.831143e-02 9.428518e-02 -6.854518e-02 1.423926e-02 2.454990e-04 -1.323805e-03 -6.210779e-03 -1.504749e-02 -2.648575e-02 -5.705002e-03 2.799436e-03 -1.471677e-02 -1.557611e-02 -5.615768e-03 -8.760804e-03 1.200616e-02
<VARIANCE> 25
 2.789037e+01 2.832715e+01 3.061881e+01 3.782564e+01 3.438578e+01 6.745013e+01 4.514661e+01 2.895152e+01 4.556023e+01 3.142542e+01 2.829811e+01 2.037693e+01 6.990576e-01 1.114834e+00 1.082505e+00 1.162197e+00 1.299846e+00 2.435408e+00 1.932245e+00 1.655931e+00 1.987767e+00 1.605868e+00 1.659109e+00 1.154915e+00 5.310264e-01
<GCONST> 9.169578e+01
<TRANSP> 5
 0.000000e+00 1.000000e+00 0.000000e+00 0.000000e+00 0.000000e+00
 0.000000e+00 6.623315e-01 3.376684e-01 0.000000e+00 0.000000e+00
 0.000000e+00 0.000000e+00 6.623250e-01 3.376751e-01 0.000000e+00
 0.000000e+00 0.000000e+00 0.000000e+00 7.780687e-01 2.219313e-01
 0.000000e+00 0.000000e+00 0.000000e+00 0.000000e+00 0.000000e+00
<ENDHMM>
~h "oy"
<BEGINHMM>
<NUMSTATES> 5
<STATE> 2
<MEAN> 25
 -7.795384e-03 -2.685099e-01 -3.300265e-02 2.387556e-01 2.186857e-01 8.417446e-02 -5.219465e-01 -1.900716e-01 3.112564e-01 1.769007e-01 -4.585112e-02 -1.981087e-02 3.982439e-02 -3.814118e-02 -3.840370e-02 2.250187e-03 -2.364459e-02 -4.524729e-02 -2.557040e-02 -2.363171e-02 -2.786724e-02 -7.263460e-03 6.406532e-03 7.530942e-03 3.284971e-02
<VARIANCE> 25
 3.012271e+01 3.648157e+01 3.542268e+01 4.569864e+01 3.773618e+01 7.070622e+01 4.815572e+01 2.992940e+01 4.821372e+01 3.153751e+01 2.924115e+01 2.090248e+01 7.889975e-01 1.378909e+00 1.211918e+00 1.232034e+00 1.488893e+00 2.738263e+00 2.128810e+00 1.733588e+00 2.026767e+00 1.660769e+00 1.784177e+00 1.144090e+00 6.673136e-01
<GCONST> 9.396222e+01
<STATE> 3
<MEAN> 25
 1.138286e-01 -3.863873e-01 -1.522886e-01 2.481340e-01 1.443706e-01 -5.163191e-02 -5.965984e-01 -2.700363e-01 2.283451e-01 1.472787e-01 -2.278672e-02 -1.973089e-03 3.714531e-02 -3.430833e-02 -3.502396e-02 6.151615e-03 -1.929157e-02 -4.139147e-02 -2.353017e-02 -2.461273e-02 -3.312954e-02 -1.552037e-02 1.076697e-02 6.465252e-03 3.061661e-02
<VARIANCE> 25
 2.996943e+01 3.630618e+01 3.570090e+01 4.611548e+01 3.839695e+01 7.161573e+01 4.908069e+01 3.037607e+01 4.764917e+01 3.155435e+01 2.946611e+01 2.127203e+01 7.807326e-01 1.371976e+00 1.214086e+00 1.216760e+00 1.476278e+00 2.760449e+00 2.161466e+00 1.743495e+00 2.026659e+00 1.647563e+00 1.792559e+00 1.146843e+00 6.663175e-01
<GCONST> 9.403893e+01
<STATE> 4
<MEAN> 25
 2.703124e-01 -5.344276e-01 -3.053405e-01 1.977781e-01 -1.545193e-02 -1.949426e-01 -6.180177e-01 -3.331071e-01 9.500258e-02 6.978218e-02 3.131761e-02 1.662020e-02 3.288380e-02 -2.332307e-02 -2.852650e-02 5.934828e-03 -1.516028e-02 -3.288670e-02 -1.907129e-02 -2.292599e-02 -3.657258e-02 -2.482080e-02 1.333062e-02 4.985080e-03 2.521585e-02
<VARIANCE> 25
 2.970021e+01 3.668783e+01 3.589665e+01 4.549316e+01 3.964556e+01 7.137541e+01 4.945932e+01 3.087439e+01 4.683173e+01 3.153086e+01 2.955320e+01 2.123837e+01 7.690457e-01 1.368675e+00 1.211234e+00 1.180994e+00 1.461559e+00 2.747114e+00 2.169833e+00 1.741160e+00 2.018787e+00 1.621521e+00 1.790684e+00 1.129188e+00 6.623760e-01
<GCONST> 9.396380e+01
<TRANSP> 5
 0.000000e+00 1.000000e+00 0.000000e+00 0.000000e+00 0.000000e+00
 0.000000e+00 6.742609e-01 3.257391e-01 0.000000e+00 0.000000e+00
 0.000000e+00 0.000000e+00 6.742605e-01 3.257396e-01 0.000000e+00
 0.000000e+00 0.000000e+00 0.000000e+00 7.897813e-01 2.102187e-01
 0.000000e+00 0.000000e+00 0.000000e+00 0.000000e+00 0.000000e+00
<ENDHMM>
~h "sh"
<BEGINHMM>
<NUMSTATES> 5
<STATE> 2
<MEAN> 25
 4.691454e-02 2.622703e-01 -1.935361e-01 -3.440862e-01 -1.773483e-01 1.430035e-01 2.476393e-03 5.193476e-02 2.052415e-01 2.368378e-01 2.042685e-02 6.237735e-02 1.858769e-02 -1.780028e-02 -1.533455e-02 6.266274e-05 -1.366908e-03 -2.905009e-02 -2.420916e-02 -1.873182e-02 -1.930064e-02 -4.497741e-03 2.994170e-03 -1.282117e-02 2.306054e-02
<VARIANCE> 25
 2.870312e+01 3.050906e+01 3.109050e+01 3.953804e+01 3.154218e+01 6.976278e+01 4.864992e+01 3.196177e+01 4.779801e+01 3.200248e+01 3.014652e+01 2.071396e+01 6.722108e-01 1.215313e+00 1.094380e+00 1.128699e+00 1.222780e+00 2.405246e+00 1.919072e+00 1.666709e+00 1.951775e+00 1.567264e+00 1.788897e+00 1.111761e+00 5.355616e-01
<GCONST> 9.208311e+01
<STATE> 3
<MEAN> 25
 1.072230e-01 2.071112e-01 -2.402094e-01 -3.415551e-01 -1.846562e-01 5.486367e-02 -6.588662e-02 -5.566421e-04 1.446221e-01 2.180007e-01 2.750005e-02 2.259173e-02 2.072870e-02 -1.771388e-02 -1.307832e-02 1.091195e-03 -1.778348e-03 -3.295622e-02 -2.509883e-02 -1.755269e-02 -2.050475e-02 -9.183269e-03 -1.158321e-03 -1.498265e-02 2.623810e-02
<VARIANCE> 25
 2.873117e+01 3.084435e+01 3.132828e+01 3.985003e+01 3.157081e+01 7.011605e+01 4.877795e+01 3.212957e+01 4.783033e+01 3.196250e+01 3.030379e+01 2.088411e+01 6.783009e-01 1.226791e+00 1.108119e+00 1.141920e+00 1.218937e+00 2.424414e+00 1.930136e+00 1.687271e+00 1.971593e+00 1.572176e+00 1.799134e+00 1.113095e+00 5.398348e-01
<GCONST> 9.223058e+01
<STATE> 4
<MEAN> 25
 1.839741e-01 1.308979e-01 -2.783960e-01 -3.176723e-01 -2.006686e-01 -6.407598e-02 -1.432342e-01 -5.767405e-02 5.831603e-02 1.866044e-01 4.363836e-02 -3.962407e-02 2.099979e-02 -1.771575e-02 -8.865816e-03 4.950443e-03 -1.145659e-03 -3.494645e-02 -2.380387e-02 -1.369465e-02 -2.065633e-02 -1.627909e-02 -5.915003e-03 -1.598043e-02 2.788066e-02
<VARIANCE> 25
 2.853594e+01 3.113337e+01 3.144233e+01 4.028510e+01 3.154854e+01 7.025584e+01 4.897786e+01 3.221142e+01 4.722765e+01 3.175157e+01 3.032796e+01 2.102258e+01 6.819190e-01 1.231754e+00 1.121866e+00 1.155068e+00 1.209861e+00 2.434700e+00 1.939969e+00 1.706153e+00 1.983111e+00 1.576883e+00 1.803412e+00 1.107681e+00 5.412782e-01
<GCONST> 9.229869e+01
<TRANSP> 5
 0.000000e+00 1.000000e+00 0.000000e+00 0.000000e+00 0.000000e+00
 0.000000e+00 6.596550e-01 3.403450e-01 0.000000e+00 0.000000e+00
 0.000000e+00 0.000000e+00 6.596538e-01 3.403461e-01 0.000000e+00
 0.000000e+00 0.000000e+00 0.000000e+00 7.724413e-01 2.275587e-01
 0.000000e+00 0.000000e+00 0.000000e+00 0.000000e+00 0.000000e+00
<ENDHMM>
~h "th"
<BEGINHMM>
<NUMSTATES> 5
<STATE> 2
<MEAN> 25
 -2.517993e-01 4.418266e-02 -1.034670e-01 9.063876e-02 1.944798e-01 4.522789e-01 4.521238e-01 2.164544e-01 2.474660e-01 2.331231e-01 4.088232e-02 1.048037e-01 2.595997e-02 -3.467795e-03 -1.357197e-02 -8.248342e-03 -1.687558e-02 -2.729937e-02 -4.466270e-03 -3.263199e-03 -3.157413e-02 -3.108113e-02 -3.560439e-03 -1.583584e-02 1.898199e-02
<VARIANCE> 25
 2.833656e+01 2.796540e+01 3.021428e+01 3.841629e+01 3.247932e+01 7.170340e+01 4.646245e+01 2.923271e+01 4.480940e+01 3.192184e+01 2.700343e+01 2.071633e+01 6.692165e-01 1.133485e+00 1.058117e+00 1.096234e+00 1.192879e+00 2.346912e+00 1.878603e+00 1.620115e+00 1.897886e+00 1.555706e+00 1.588346e+00 1.130045e+00 5.124277e-01
<GCONST> 9.125207e+01
<STATE> 3
<MEAN> 25
 -1.648792e-01 3.545389e-02 -1.428445e-01 6.542242e-02 1.377326e-01 3.724236e-01 4.454890e-01 2.122405e-01 1.545857e-01 1.415195e-01 3.187720e-02 6.256761e-02 2.847039e-02 -5.515836e-03 -1.040130e-02 -5.980922e-03 -2.050515e-02 -2.834821e-02 -1.155195e-03 -1.929208e-03 -3.400892e-02 -3.039035e-02 -1.408092e-03 -1.357395e-02 2.218275e-02
<VARIANCE> 25
 2.842410e+01 2.792586e+01 3.035579e+01 3.833807e+01 3.320713e+01 7.226176e+01 4.643280e+01 2.957718e+01 4.489648e+01 3.252601e+01 2.734160e+01 2.072678e+01 6.708734e-01 1.151192e+00 1.070335e+00 1.112561e+00 1.208421e+00 2.365189e+00 1.879335e+00 1.637663e+00 1.930129e+00 1.582153e+00 1.607042e+00 1.136467e+00 5.190954e-01
<GCONST> 9.147108e+01
<STATE> 4
<MEAN> 25
 -2.530062e-02 2.240901e-02 -1.805432e-01 2.980248e-02 5.178648e-02 2.281772e-01 4.034256e-01 1.787741e-01 1.653088e-02 1.206991e-02 1.837565e-02 2.472844e-02 3.264666e-02 -9.061334e-03 -9.681524e-03 -6.890486e-03 -2.620101e-02 -3.190864e-02 -3.421032e-03 -4.742135e-03 -3.882958e-02 -2.832780e-02 2.599810e-03 -7.212406e-03 2.680695e-02
<VARIANCE> 25
 2.817886e+01 2.812714e+01 3.045074e+01 3.845924e+01 3.436434e+01 7.239226e+01 4.630307e+01 3.033953e+01 4.481949e+01 3.318474e+01 2.755191e+01 2.076215e+01 6.700892e-01 1.178067e+00 1.084894e+00 1.137706e+00 1.232471e+00 2.387680e+00 1.890270e+00 1.679850e+00 1.976317e+00 1.618914e+00 1.634015e+00 1.152865e+00 5.296009e-01
<GCONST> 9.177811e+01
<TRANSP> 5
 0.000000e+00 1.000000e+00 0.000000e+00 0.000000e+00 0.000000e+00
 0.000000e+00 6.558924e-01 3.441076e-01 0.000000e+00 0.000000e+00
 0.000000e+00 0.000000e+00 6.558912e-01 3.441088e-01 0.000000e+00
 0.000000e+00 0.000000e+00 0.000000e+00 7.682714e-01 2.317286e-01
 0.000000e+00 0.000000e+00 0.000000e+00 0.000000e+00 0.000000e+00
<ENDHMM>
~h "uh"
<BEGINHMM>
<NUMSTATES> 5
<STATE> 2
<MEAN> 25
