~o
<STREAMINFO> 1 25
<VECSIZE> 25<NULLD><MFCC_D_N_Z_0><DIAGC>
~s "silst"
<MEAN> 25
 4.537124e-01 3.073001e-02 3.988707e-01 -3.734923e-02 8.844256e-01 -4.165621e-01 -1.067615e+00 -1.673997e+00 -1.086069e+00 -3.614646e-01 2.579615e-01 -9.202402e-01 -1.825646e-01 5.158708e-02 1.307956e-01 -1.635651e-03 5.141903e-02 1.665137e-01 1.493564e-01 9.587112e-02 1.779314e-01 1.374733e-01 5.484099e-02 3.467645e-02 -1.119452e-01
<VARIANCE> 25
 2.468130e+01 2.823559e+01 3.625686e+01 4.418408e+01 3.259552e+01 5.612810e+01 4.925965e+01 3.026266e+01 3.730000e+01 3.102769e+01 3.327689e+01 2.130697e+01 1.067774e+00 1.264878e+00 1.427452e+00 1.517035e+00 1.428574e+00 2.824358e+00 2.558662e+00 2.205503e+00 2.554209e+00 1.898648e+00 1.962745e+00 1.382004e+00 6.614685e-01
<GCONST> 9.467122e+01
~h "b"
<BEGINHMM>
<NUMSTATES> 5
<STATE> 2
<MEAN> 25
 1.706803e+00 2.248505e+00 -1.825965e-01 6.359325e-01 1.392953e+00 6.967270e-01 -1.588740e+00 -1.904249e+00 -1.515671e+00 -2.299905e+00 -1.732820e+00 -1.382224e-01 -3.925127e-01 8.479662e-01 7.556091e-01 1.212392e-01 4.000316e-01 1.123743e+00 5.308402e-01 2.625134e-01 5.600204e-01 -6.971612e-02 -6.201475e-01 -1.847351e-01 -5.312064e-01
<VARIANCE> 25
 1.640504e+01 1.337986e+01 2.050563e+01 2.569953e+01 2.352264e+01 3.394277e+01 3.920945e+01 2.805987e+01 4.256541e+01 2.921772e+01 2.409299e+01 1.918065e+01 7.125865e-01 6.911274e-01 6.279325e-01 7.540709e-01 8.838981e-01 1.595867e+00 1.655170e+00 1.730788e+00 2.693350e+00 2.093787e+00 1.614978e+00 1.296022e+00 3.820465e-01
<GCONST> 8.599976e+01
<STATE> 3
<MEAN> 25
 1.252938e+00 4.447497e+00 2.144663e+00 7.660838e-01 1.445752e+00 2.239468e+00 -6.634157e-01 -1.671916e+00 -1.324152e+00 -3.425040e+00 -4.245303e+00 -1.735105e+00 -3.238907e-01 3.845700e-01 4.601708e-01 6.884439e-02 1.584690e-01 5.922026e-01 3.894841e-01 2.530897e-01 4.526405e-01 2.420315e-01 -9.214376e-02 -1.190402e-02 -3.225260e-01
<VARIANCE> 25
 1.128444e+01 1.508419e+01 1.669742e+01 2.328864e+01 2.278066e+01 2.881858e+01 2.627183e+01 2.068690e+01 2.810957e+01 2.242834e+01 2.694537e+01 1.863379e+01 4.289426e-01 3.893048e-01 4.494482e-01 5.321537e-01 6.531934e-01 8.867775e-01 1.075810e+00 1.085683e+00 1.425352e+00 1.224200e+00 1.030684e+00 9.028594e-01 1.750620e-01
<GCONST> 7.762835e+01
<STATE> 4
<MEAN> 25
 -2.971074e+00 3.625115e+00 2.970491e+00 7.816844e-01 2.036922e+00 5.444386e+00 2.250047e+00 1.178298e+00 3.408772e+00 1.141875e+00 -1.709838e+00 3.977178e-01 -1.660205e-01 -3.490965e-02 4.025052e-02 1.075165e-02 1.017770e-02 1.087571e-01 1.172780e-01 1.018077e-01 1.811051e-01 1.901148e-01 1.163379e-01 4.951926e-02 -1.046671e-01
<VARIANCE> 25
 9.427422e+00 1.154716e+01 1.072557e+01 1.056227e+01 1.032834e+01 1.504216e+01 1.449611e+01 1.257459e+01 2.091544e+01 1.644827e+01 1.393383e+01 1.125018e+01 1.640742e-01 2.346277e-01 3.289127e-01 3.993900e-01 4.787945e-01 6.057640e-01 7.106193e-01 7.359089e-01 8.180926e-01 8.109846e-01 7.571779e-01 6.590799e-01 6.542259e-02
<GCONST> 6.550841e+01
<TRANSP> 5
 0.000000e+00 1.000000e+00 0.000000e+00 0.000000e+00 0.000000e+00
 0.000000e+00 4.643303e-01 5.356697e-01 0.000000e+00 0.000000e+00
 0.000000e+00 0.000000e+00 4.368821e-01 5.631179e-01 0.000000e+00
 0.000000e+00 0.000000e+00 0.000000e+00 8.279468e-01 1.720532e-01
 0.000000e+00 0.000000e+00 0.000000e+00 0.000000e+00 0.000000e+00
<ENDHMM>
~h "d"
<BEGINHMM>
<NUMSTATES> 5
<STATE> 2
<MEAN> 25
 4.117617e-01 -3.390325e-01 4.389022e-01 -9.110615e-01 6.263719e-01 -7.908705e-01 -5.730352e-01 -1.308033e+00 -1.632101e+00 -5.836055e-01 3.862377e-01 -1.450205e+00 4.400341e-01 -2.845963e-01 -3.804656e-01 8.083051e-02 -1.368499e-01 -6.329738e-01 -5.197766e-01 -5.494763e-01 -5.327814e-01 -2.544614e-02 2.867636e-01 8.732947e-02 3.193531e-01
<VARIANCE> 25
 3.105256e+01 3.953669e+01 4.290236e+01 4.947575e+01 4.029374e+01 5.681988e+01 5.120608e+01 3.213269e+01 4.042183e+01 3.555185e+01 3.688960e+01 2.445282e+01 1.934474e+00 2.134490e+00 2.273201e+00 2.248559e+00 2.716622e+00 4.080931e+00 3.838439e+00 3.317539e+00 3.852003e+00 2.757594e+00 3.005982e+00 1.976661e+00 8.961776e-01
<GCONST> 1.019720e+02
<STATE> 3
<MEAN> 25
 4.485543e+00 -3.100528e+00 -3.631964e+00 -6.291350e-01 -2.108050e+00 -5.596265e+00 -4.120282e+00 -2.955639e+00 -4.792745e+00 -1.071572e+00 2.273527e+00 3.376757e-01 5.903507e-01 -8.634071e-01 -8.286392e-01 -2.054640e-01 -4.440902e-01 -9.573357e-01 -3.662251e-01 6.972938e-02 -2.935074e-01 2.986758e-01 6.996723e-01 2.119843e-01 6.669469e-01
<VARIANCE> 25
 1.252086e+01 3.542975e+01 3.270350e+01 4.425151e+01 4.071589e+01 5.448325e+01 5.552352e+01 4.055024e+01 4.916385e+01 4.548342e+01 3.928004e+01 2.609251e+01 1.279297e+00 3.094013e+00 2.480257e+00 2.893284e+00 3.214790e+00 6.316115e+00 4.653060e+00 3.591121e+00 4.323771e+00 3.788617e+00 3.481444e+00 2.289241e+00 1.465362e+00
<GCONST> 1.038153e+02
<STATE> 4
<MEAN> 25
 5.910355e+00 -4.856708e+00 -6.117439e+00 -1.398529e+00 -3.017315e+00 -7.384834e+00 -4.013539e+00 -1.596458e+00 -3.842923e+00 -7.488180e-01 2.037518e+00 -4.348270e-01 -1.781537e-01 5.542123e-01 3.146417e-01 2.023831e-01 3.891871e-01 5.122955e-01 2.390769e-02 -5.782995e-02 2.587496e-01 -2.443886e-01 -5.610123e-01 -1.464292e-01 -3.839886e-01
<VARIANCE> 25
 8.586370e+00 3.583457e+01 3.025722e+01 4.696901e+01 4.274455e+01 5.643506e+01 6.093679e+01 3.870333e+01 4.177040e+01 4.039494e+01 3.783072e+01 2.500199e+01 2.865037e-01 1.148127e+00 9.490228e-01 1.029003e+00 1.201180e+00 2.714378e+00 2.028590e+00 1.600338e+00 1.755216e+00 1.706803e+00 1.661141e+00 1.184254e+00 4.428926e-01
<GCONST> 9.095552e+01
<TRANSP> 5
 0.000000e+00 1.000000e+00 0.000000e+00 0.000000e+00 0.000000e+00
 0.000000e+00 3.325829e-01 6.674170e-01 0.000000e+00 0.000000e+00
 0.000000e+00 0.000000e+00 4.263771e-01 5.736228e-01 0.000000e+00
 0.000000e+00 0.000000e+00 0.000000e+00 7.372811e-01 2.627189e-01
 0.000000e+00 0.000000e+00 0.000000e+00 0.000000e+00 0.000000e+00
<ENDHMM>
~h "f"
<BEGINHMM>
<NUMSTATES> 5
<STATE> 2
<MEAN> 25
 2.039904e+00 1.823586e+00 -1.121366e+00 -8.579473e-01 3.984550e-01 -1.925969e-01 -9.964352e-01 -1.954098e+00 -1.926339e+00 -3.016965e+00 -1.739058e+00 -8.984090e-01 -9.617637e-01 4.739576e-01 5.655828e-01 -5.377808e-02 5.866337e-01 1.051588e+00 9.469651e-01 3.609881e-01 1.084793e+00 4.964492e-01 1.381655e-01 -1.943131e-01 -5.252407e-01
<VARIANCE> 25
 1.575790e+01 1.527837e+01 2.257233e+01 3.185779e+01 2.680017e+01 3.267025e+01 4.077167e+01 2.858228e+01 3.549989e+01 2.905684e+01 3.140975e+01 2.204440e+01 7.176557e-01 6.027881e-01 7.176591e-01 9.321543e-01 1.151073e+00 1.556587e+00 1.724899e+00 1.612738e+00 2.112940e+00 1.424126e+00 1.739272e+00 1.135530e+00 2.808006e-01
<GCONST> 8.620173e+01
<STATE> 3
<MEAN> 25
 -2.994560e+00 2.084862e+00 8.390390e-01 -9.560902e-01 2.493274e+00 3.105834e+00 2.927026e+00 2.008262e-01 2.894191e+00 6.020178e-01 8.140380e-01 -6.670111e-01 -4.722514e-01 3.439259e-02 2.244641e-01 -5.228816e-02 2.955817e-01 2.355851e-01 3.085289e-01 3.934995e-02 2.984252e-01 2.441432e-01 2.497812e-01 -6.515789e-02 -1.445944e-01
<VARIANCE> 25
 1.537517e+01 1.273910e+01 1.627453e+01 2.268892e+01 1.962426e+01 2.746235e+01 2.747382e+01 2.113184e+01 2.670121e+01 1.894033e+01 2.389772e+01 1.809415e+01 4.243824e-01 4.160945e-01 5.543274e-01 7.131202e-01 8.261197e-01 9.484115e-01 1.050839e+00 1.087885e+00 1.172607e+00 1.098578e+00 1.292932e+00 9.920239e-01 1.513080e-01
<GCONST> 7.792631e+01
<STATE> 4
<MEAN> 25
 -5.184463e+00 1.573791e+00 2.894794e+00 -2.626084e+00 4.668018e+00 2.617905e+00 3.421198e+00 -1.278747e+00 1.982996e+00 9.043221e-01 2.502692e+00 -2.240851e+00 -1.147877e-01 -2.497219e-01 -6.426249e-02 1.769135e-01 6.535004e-02 8.622016e-04 4.621388e-02 -7.242778e-02 -2.791455e-02 2.047346e-01 1.413904e-01 2.355467e-02 -9.108788e-05
<VARIANCE> 25
 2.846818e+01 1.767097e+01 3.117938e+01 3.843457e+01 3.177338e+01 2.793713e+01 3.402112e+01 2.268309e+01 3.061822e+01 2.622664e+01 3.153080e+01 1.896292e+01 1.075973e+00 9.066901e-01 1.253989e+00 1.694051e+00 1.610757e+00 1.362367e+00 1.726075e+00 1.695893e+00 1.962041e+00 1.590362e+00 1.927664e+00 1.511940e+00 3.842547e-01
<GCONST> 8.961527e+01
<TRANSP> 5
 0.000000e+00 1.000000e+00 0.000000e+00 0.000000e+00 0.000000e+00
 0.000000e+00 5.174046e-01 4.825954e-01 0.000000e+00 0.000000e+00
 0.000000e+00 0.000000e+00 6.610463e-01 3.389537e-01 0.000000e+00
 0.000000e+00 0.000000e+00 0.000000e+00 5.672597e-01 4.327403e-01
 0.000000e+00 0.000000e+00 0.000000e+00 0.000000e+00 0.000000e+00
<ENDHMM>
~h "g"
<BEGINHMM>
<NUMSTATES> 5
<STATE> 2
<MEAN> 25
 -3.877127e+00 1.414419e+00 1.694454e+00 4.635543e-01 1.560185e+00 5.030381e+00 2.687077e+00 1.891340e+00 3.775816e+00 2.291170e+00 -2.752958e-02 1.520172e+00 -7.793903e-02 5.144903e-03 1.185048e-02 -2.059485e-02 -1.144780e-02 4.715278e-02 6.175070e-02 7.002641e-02 9.500054e-02 5.752584e-02 2.549323e-02 3.179057e-02 -5.791048e-02
<VARIANCE> 25
 4.770227e+00 6.184157e+00 5.978007e+00 6.904181e+00 6.804343e+00 1.267069e+01 1.082830e+01 9.431310e+00 1.289321e+01 9.878469e+00 9.608616e+00 8.038687e+00 8.115879e-02 1.482804e-01 2.293550e-01 3.083057e-01 3.941495e-01 5.068635e-01 5.672469e-01 6.232997e-01 6.766527e-01 6.365730e-01 6.573527e-01 5.783041e-01 3.447813e-02
<GCONST> 5.643231e+01
<STATE> 3
<MEAN> 25
 -1.490674e+00 2.782432e+00 1.981321e+00 5.006072e-01 1.394258e+00 3.411864e+00 1.135037e+00 3.199895e-01 1.662230e+00 -1.153185e-01 -1.563380e+00 -3.297225e-02 -9.611747e-02 2.000767e-01 2.932128e-01 1.277892e-01 7.269818e-02 1.802502e-01 8.239330e-02 -1.030162e-01 -4.829362e-02 -1.106306e-01 -1.388404e-01 -1.445908e-01 -8.583881e-02
<VARIANCE> 25
 1.490355e+01 1.489167e+01 1.438637e+01 2.034521e+01 1.546267e+01 2.696289e+01 2.614420e+01 1.945400e+01 3.084867e+01 2.318832e+01 1.963338e+01 1.437960e+01 3.002033e-01 3.956893e-01 4.693358e-01 6.165218e-01 5.664173e-01 8.497024e-01 9.075940e-01 9.124171e-01 1.123569e+00 1.013039e+00 1.017661e+00 8.934796e-01 1.169439e-01
<GCONST> 7.510667e+01
<STATE> 4
<MEAN> 25
 -1.211814e+00 3.963842e+00 3.577777e+00 1.356673e+00 1.580758e+00 3.725091e+00 7.333329e-01 -5.494821e-01 8.302951e-01 -9.528012e-01 -2.803414e+00 -1.210411e+00 3.065612e-01 9.292831e-02 1.270112e-01 1.494484e-01 -2.961776e-02 -2.809454e-01 -2.839502e-01 -4.899851e-01 -5.265194e-01 -2.717348e-01 -3.208600e-02 -2.686695e-01 2.449889e-01
<VARIANCE> 25
 1.076756e+01 1.664534e+01 1.521231e+01 1.532628e+01 1.154921e+01 2.154026e+01 1.999787e+01 1.733031e+01 2.518446e+01 1.998533e+01 1.837651e+01 1.269265e+01 7.640716e-01 1.262731e+00 1.084902e+00 9.796748e-01 8.552797e-01 1.479744e+00 1.645599e+00 1.771244e+00 2.012444e+00 1.993221e+00 1.831804e+00 1.197620e+00 2.620934e-01
<GCONST> 8.179135e+01
<TRANSP> 5
 0.000000e+00 1.000000e+00 0.000000e+00 0.000000e+00 0.000000e+00
 0.000000e+00 9.207429e-01 7.925715e-02 0.000000e+00 0.000000e+00
 0.000000e+00 0.000000e+00 1.748892e-01 8.251108e-01 0.000000e+00
 0.000000e+00 0.000000e+00 0.000000e+00 5.086405e-01 4.913595e-01
 0.000000e+00 0.000000e+00 0.000000e+00 0.000000e+00 0.000000e+00
<ENDHMM>
~h "k"
<BEGINHMM>
<NUMSTATES> 5
<STATE> 2
<MEAN> 25
 4.133767e+00 -7.859131e-01 -2.595973e+00 -2.756036e-01 -1.525686e+00 -5.316970e+00 -3.765920e+00 -2.548254e+00 -3.656221e+00 -2.340805e+00 -4.328425e-01 -7.850474e-01 -3.959171e-01 6.976570e-01 4.793484e-01 1.174101e-01 4.219614e-01 9.687529e-01 2.267346e-01 9.601773e-02 4.855361e-01 -7.774401e-02 -5.394135e-01 2.101986e-02 -5.759061e-01
<VARIANCE> 25
 1.509807e+01 2.318998e+01 2.862735e+01 4.651542e+01 4.035939e+01 5.526353e+01 5.858992e+01 3.672244e+01 4.322454e+01 3.324334e+01 3.517495e+01 2.496612e+01 2.900603e-01 7.898414e-01 6.646307e-01 8.263159e-01 9.861041e-01 2.152600e+00 1.525722e+00 1.346386e+00 1.871227e+00 1.519161e+00 1.576809e+00 1.136120e+00 3.622839e-01
<GCONST> 8.844350e+01
<STATE> 3
<MEAN> 25
 1.698105e+00 1.441471e+00 -1.754796e-01 5.558111e-01 5.281264e-01 -8.222854e-01 -1.996453e+00 -1.645589e+00 -1.415133e+00 -2.161440e+00 -2.102576e+00 -7.582246e-01 -5.818732e-01 4.536999e-01 4.337282e-01 -4.295455e-03 3.243367e-01 1.114145e+00 6.195870e-01 4.309860e-01 7.911161e-01 2.994120e-01 -1.432355e-01 9.772118e-02 -5.719165e-01
<VARIANCE> 25
 1.656304e+01 1.883691e+01 2.359268e+01 3.824374e+01 3.043577e+01 4.336855e+01 4.482433e+01 3.038529e+01 3.853404e+01 2.987740e+01 3.041691e+01 2.306611e+01 4.241351e-01 6.086721e-01 7.195523e-01 8.688233e-01 1.019067e+00 1.969639e+00 1.642490e+00 1.419991e+00 1.878991e+00 1.334509e+00 1.367332e+00 1.188680e+00 3.436724e-01
<GCONST> 8.655553e+01
<STATE> 4
<MEAN> 25
 -4.953478e-01 2.470817e+00 1.174500e+00 8.149598e-01 1.547184e+00 2.222401e+00 -3.136157e-01 -4.565987e-01 1.146284e+00 -6.415208e-01 -1.969191e+00 -2.540734e-01 -4.531655e-01 8.839352e-02 2.114601e-01 -6.872813e-02 1.233832e-01 5.444722e-01 4.301581e-01 2.678207e-01 4.686290e-01 3.859318e-01 2.183990e-01 1.363058e-01 -3.092050e-01
<VARIANCE> 25
 1.383363e+01 1.419283e+01 1.729665e+01 2.602087e+01 2.163317e+01 3.352912e+01 3.161921e+01 2.262149e+01 3.155032e+01 2.351224e+01 2.411604e+01 1.929465e+01 3.548093e-01 4.660715e-01 6.397698e-01 7.748649e-01 8.546761e-01 1.220919e+00 1.270530e+00 1.232976e+00 1.440644e+00 1.180872e+00 1.255737e+00 1.070162e+00 1.968817e-01
<GCONST> 8.043914e+01
<TRANSP> 5
 0.000000e+00 1.000000e+00 0.000000e+00 0.000000e+00 0.000000e+00
 0.000000e+00 5.199998e-01 4.800002e-01 0.000000e+00 0.000000e+00
 0.000000e+00 0.000000e+00 1.495620e-01 8.504380e-01 0.000000e+00
 0.000000e+00 0.000000e+00 0.000000e+00 5.527639e-01 4.472361e-01
 0.000000e+00 0.000000e+00 0.000000e+00 0.000000e+00 0.000000e+00
<ENDHMM>
~h "l"
<BEGINHMM>
<NUMSTATES> 5
<STATE> 2
<MEAN> 25
 4.007318e+00 -1.663589e+00 -2.938805e+00 -1.064188e+00 -2.440898e+00 -4.757760e+00 -3.025636e+00 -2.113833e+00 -2.870195e+00 -1.216053e+00 6.405590e-01 -9.988670e-01 -1.370568e-01 4.954958e-01 3.926816e-01 3.305524e-01 3.822223e-01 3.684849e-01 -1.741487e-01 -3.305714e-01 -8.562183e-02 -3.082998e-01 -4.737411e-01 -1.060457e-01 -3.113260e-01
<VARIANCE> 25
 1.796076e+01 2.956082e+01 2.902123e+01 3.962078e+01 3.926994e+01 5.662992e+01 5.008190e+01 3.577711e+01 4.763480e+01 3.585267e+01 3.238424e+01 2.225927e+01 3.008337e-01 7.242553e-01 6.877677e-01 8.878196e-01 9.759919e-01 1.806110e+00 1.466472e+00 1.394713e+00 1.512100e+00 1.472070e+00 1.401041e+00 9.602302e-01 2.779085e-01
<GCONST> 8.757198e+01
<STATE> 3
<MEAN> 25
 2.432496e+00 5.384138e-01 -4.145424e-01 1.032137e+00 3.241198e-01 -1.970785e+00 -2.978200e+00 -3.098706e+00 -3.104070e+00 -2.371321e+00 -1.286776e+00 -1.272961e+00 -1.297280e-01 5.668557e-01 4.783523e-01 3.080347e-01 3.653606e-01 5.046237e-01 -2.909533e-02 -2.142528e-01 -1.397508e-01 -4.353521e-01 -5.212324e-01 -3.550399e-02 -3.190692e-01
<VARIANCE> 25
 1.920800e+01 2.242432e+01 2.609109e+01 3.566968e+01 2.905427e+01 5.502151e+01 4.753986e+01 3.368248e+01 4.646669e+01 3.197635e+01 2.987404e+01 2.089539e+01 6.091326e-01 8.553307e-01 8.001643e-01 9.731727e-01 1.039793e+00 2.451660e+00 2.102464e+00 1.855727e+00 2.573638e+00 1.911421e+00 1.549028e+00 1.104129e+00 4.325939e-01
<GCONST> 9.003094e+01
<STATE> 4
<MEAN> 25
 2.746352e+00 1.912374e+00 1.237072e+00 2.845578e+00 1.264657e+00 -2.166346e+00 -4.713870e+00 -4.709583e+00 -4.583622e+00 -4.199671e+00 -2.981022e+00 -1.758347e+00 -3.040354e-01 2.827339e-01 2.943676e-01 7.829592e-03 1.273135e-01 5.010399e-01 3.862628e-01 2.587095e-01 3.096286e-01 1.245437e-01 -4.454071e-02 6.781209e-02 -2.970185e-01
<VARIANCE> 25
 1.058037e+01 1.674891e+01 1.698985e+01 2.997688e+01 2.326207e+01 4.557204e+01 3.626755e+01 2.925175e+01 4.054813e+01 2.741945e+01 2.540491e+01 1.879527e+01 3.403630e-01 6.149078e-01 6.549619e-01 7.924146e-01 8.858222e-01 1.764849e+00 1.493669e+00 1.390881e+00 1.758680e+00 1.355197e+00 1.264827e+00 1.033216e+00 2.401678e-01
<GCONST> 8.314039e+01
<TRANSP> 5
 0.000000e+00 1.000000e+00 0.000000e+00 0.000000e+00 0.000000e+00
 0.000000e+00 4.058919e-01 5.941082e-01 0.000000e+00 0.000000e+00
 0.000000e+00 0.000000e+00 1.161661e-01 8.838339e-01 0.000000e+00
 0.000000e+00 0.000000e+00 0.000000e+00 6.337889e-01 3.662111e-01
 0.000000e+00 0.000000e+00 0.000000e+00 0.000000e+00 0.000000e+00
<ENDHMM>
~h "m"
<BEGINHMM>
<NUMSTATES> 5
<STATE> 2
<MEAN> 25
 4.076220e+00 -1.814025e+00 -3.477142e+00 -5.416425e-01 -1.213336e+00 -3.842584e+00 -2.041331e+00 -1.970384e+00 -3.686732e+00 -1.708749e+00 3.704580e-01 -7.426251e-01 -2.395829e-01 8.451355e-01 5.771325e-01 1.732845e-01 4.113258e-01 9.207475e-01 1.152433e-01 -3.861757e-02 1.984743e-01 -4.783740e-01 -8.409843e-01 -1.777038e-01 -5.181516e-01
<VARIANCE> 25
 1.511298e+01 2.776681e+01 2.872468e+01 3.792942e+01 2.950036e+01 5.162317e+01 5.178271e+01 2.852450e+01 4.427114e+01 3.732569e+01 3.150763e+01 2.253927e+01 3.063501e-01 8.482540e-01 6.798821e-01 9.051792e-01 1.056504e+00 2.180326e+00 1.599653e+00 1.348580e+00 1.756361e+00 1.671273e+00 1.635785e+00 1.189026e+00 3.076533e-01
<GCONST> 8.791503e+01
<STATE> 3
<MEAN> 25
 2.051539e+00 1.767556e+00 -2.027319e-02 2.944823e-01 5.701458e-01 5.918774e-02 -1.238463e+00 -1.793408e+00 -2.347853e+00 -3.016039e+00 -2.643939e+00 -1.324686e+00 -1.731217e-01 6.873633e-01 5.694458e-01 1.308004e-01 2.806244e-01 7.280349e-01 2.008436e-01 -5.180138e-02 1.247919e-01 -2.989457e-01 -5.936521e-01 -2.422735e-01 -3.397333e-01
<VARIANCE> 25
 1.712380e+01 2.136352e+01 2.363772e+01 3.243983e+01 2.722702e+01 4.990912e+01 4.024736e+01 2.781173e+01 3.643012e+01 3.382957e+01 2.896560e+01 2.075020e+01 5.990442e-01 5.972084e-01 6.318810e-01 7.621272e-01 8.183965e-01 1.369224e+00 1.331139e+00 1.498149e+00 2.178622e+00 1.790262e+00 1.358750e+00 1.117716e+00 3.014305e-01
<GCONST> 8.586681e+01
<STATE> 4
<MEAN> 25
 2.206790e+00 4.241386e+00 1.791747e+00 6.021287e-01 6.775203e-01 1.015123e+00 -1.341412e+00 -2.549826e+00 -3.028791e+00 -4.661328e+00 -4.748964e+00 -2.548227e+00 -1.758429e-01 2.128109e-01 2.271753e-01 4.851713e-03 4.905915e-02 2.776475e-01 1.637923e-01 3.601268e-02 1.540584e-01 1.170774e-01 3.901540e-02 1.573195e-02 -1.771319e-01
<VARIANCE> 25
 9.976986e+00 1.527428e+01 1.498241e+01 2.369955e+01 2.504609e+01 4.162394e+01 2.847996e+01 2.351058e+01 2.636042e+01 2.465184e+01 2.424511e+01 1.809696e+01 3.220351e-01 4.149964e-01 5.275809e-01 5.973505e-01 7.351038e-01 1.117138e+00 1.085932e+00 1.108988e+00 1.250182e+00 1.105031e+00 1.038595e+00 8.937386e-01 1.569657e-01
<GCONST> 7.808102e+01
<TRANSP> 5
 0.000000e+00 1.000000e+00 0.000000e+00 0.000000e+00 0.000000e+00
 0.000000e+00 5.250224e-01 4.749776e-01 0.000000e+00 0.000000e+00
 0.000000e+00 0.000000e+00 1.404608e-01 8.595392e-01 0.000000e+00
 0.000000e+00 0.000000e+00 0.000000e+00 6.418530e-01 3.581470e-01
 0.000000e+00 0.000000e+00 0.000000e+00 0.000000e+00 0.000000e+00
<ENDHMM>
~h "n"
<BEGINHMM>
<NUMSTATES> 5
<STATE> 2
<MEAN> 25
 4.047037e+00 -3.544115e+00 -3.578348e+00 -1.290899e+00 -3.108014e+00 -5.240960e+00 -2.105043e+00 -8.475358e-01 -3.502254e+00 -4.613255e-01 1.935121e+00 -6.311873e-01 2.001868e-01 -1.526634e-02 -1.862274e-01 -6.665401e-02 -2.515903e-02 -7.252393e-02 9.995840e-02 -5.237659e-03 -2.399054e-01 -1.996177e-01 -1.329364e-02 -6.495219e-02 1.053570e-01
<VARIANCE> 25
 1.593239e+01 4.612442e+01 3.561866e+01 4.722245e+01 4.384525e+01 6.332850e+01 6.030770e+01 3.766116e+01 4.457724e+01 3.784292e+01 3.935506e+01 2.518160e+01 5.745111e-01 1.773835e+00 1.318822e+00 1.494248e+00 1.740994e+00 3.192059e+00 2.575495e+00 2.258284e+00 2.202234e+00 1.984227e+00 2.050658e+00 1.468959e+00 7.489363e-01
<GCONST> 9.642222e+01
<STATE> 3
<MEAN> 25
 5.298068e+00 -4.358213e+00 -5.576753e+00 -2.913973e+00 -4.489253e+00 -5.736875e+00 3.974079e-01 1.748658e-01 -5.076311e+00 -1.199279e+00 2.815016e+00 -5.056068e-01 -4.322892e-02 5.635847e-01 2.074715e-01 1.522098e-01 4.005636e-01 4.395293e-01 -1.913779e-01 -3.387152e-01 -1.630143e-02 -3.454690e-01 -4.673094e-01 -9.111653e-02 -3.256283e-01
<VARIANCE> 25
 1.290713e+01 3.877402e+01 3.509237e+01 4.795486e+01 4.981970e+01 5.283690e+01 7.067267e+01 4.181255e+01 4.559587e+01 3.504128e+01 3.778364e+01 2.392501e+01 2.121345e-01 1.183298e+00 7.412320e-01 8.748002e-01 1.120250e+00 1.975744e+00 1.818157e+00 1.565223e+00 1.537378e+00 1.698252e+00 1.723940e+00 1.100892e+00 4.069230e-01
<GCONST> 9.036691e+01
<STATE> 4
<MEAN> 25
 4.532779e+00 7.322604e-01 -2.264318e+00 -8.483989e-01 -1.113002e+00 -2.639674e+00 -2.692694e+00 -3.339095e+00 -4.865941e+00 -3.242321e+00 -8.567731e-01 -1.378666e+00 -2.887307e-01 6.615807e-01 5.437912e-01 1.784687e-01 3.901840e-01 7.233560e-01 2.241230e-02 -1.525404e-01 2.072363e-01 -1.507256e-01 -5.021024e-01 -9.104181e-02 -4.414793e-01
<VARIANCE> 25
 8.167222e+00 2.348963e+01 2.258282e+01 3.180074e+01 3.218491e+01 4.322728e+01 4.030052e+01 2.918154e+01 3.053494e+01 2.600919e+01 3.000098e+01 2.011435e+01 1.760483e-01 6.538141e-01 5.339631e-01 6.031206e-01 7.889088e-01 1.323120e+00 1.173826e+00 1.144209e+00 1.202929e+00 1.167548e+00 1.268493e+00 8.814504e-01 1.962621e-01
<GCONST> 8.103402e+01
<TRANSP> 5
 0.000000e+00 1.000000e+00 0.000000e+00 0.000000e+00 0.000000e+00
 0.000000e+00 2.939809e-01 7.060191e-01 0.000000e+00 0.000000e+00
 0.000000e+00 0.000000e+00 4.663129e-01 5.336871e-01 0.000000e+00
 0.000000e+00 0.000000e+00 0.000000e+00 7.263085e-01 2.736915e-01
 0.000000e+00 0.000000e+00 0.000000e+00 0.000000e+00 0.000000e+00
<ENDHMM>
~h "p"
<BEGINHMM>
<NUMSTATES> 5
<STATE> 2
<MEAN> 25
 1.686331e+00 -9.181029e-01 -1.728409e+00 -6.756740e-01 -4.307365e-01 -1.636107e+00 -9.609136e-01 -1.794148e+00 -2.476034e+00 -8.172661e-01 8.523623e-01 -1.761099e-01 7.063730e-01 -3.694330e-01 -6.849812e-01 -4.572029e-01 -5.412421e-01 -7.930349e-01 -2.469752e-01 -2.262329e-01 -6.363283e-01 -2.442903e-01 3.403754e-01 1.110735e-01 6.097749e-01
<VARIANCE> 25
 2.575449e+01 3.067402e+01 3.572771e+01 3.912299e+01 3.764370e+01 5.696289e+01 5.306551e+01 3.871958e+01 4.945610e+01 3.190531e+01 3.245314e+01 2.312769e+01 2.149690e+00 2.506036e+00 2.622181e+00 2.580030e+00 3.163148e+00 5.333765e+00 4.262143e+00 3.558428e+00 4.493212e+00 3.045956e+00 2.996407e+00 2.045990e+00 1.766117e+00
<GCONST> 1.032837e+02
<STATE> 3
<MEAN> 25
 3.962907e+00 -2.543549e+00 -3.679191e+00 -2.434776e+00 -3.045633e+00 -4.547161e+00 -1.889638e+00 -1.027986e+00 -3.755243e+00 -1.496153e+00 1.456747e+00 6.297762e-01 1.596189e-01 -2.595544e-01 -2.935102e-01 -5.310697e-01 -5.397564e-01 -1.304698e-01 4.433174e-01 6.925604e-01 2.228678e-01 -2.087538e-02 5.477393e-02 2.367786e-01 2.441438e-01
<VARIANCE> 25
 2.171894e+01 3.651073e+01 3.966502e+01 4.363546e+01 4.517219e+01 6.065715e+01 6.116291e+01 3.840281e+01 4.662582e+01 3.704041e+01 3.644691e+01 2.626821e+01 1.054838e+00 1.981706e+00 1.784542e+00 1.990191e+00 2.571690e+00 4.358554e+00 3.100645e+00 2.711845e+00 2.722947e+00 2.424691e+00 2.201188e+00 1.648170e+00 1.134970e+00
<GCONST> 9.992820e+01
<STATE> 4
<MEAN> 25
 5.267223e+00 -2.267182e+00 -6.445522e+00 -6.919846e+00 -7.027818e+00 -3.178640e+00 3.563662e+00 3.406499e+00 -2.826876e+00 -3.064467e+00 8.640993e-01 1.889151e+00 -2.570370e-01 3.644011e-01 2.467598e-01 5.554491e-02 2.602815e-01 4.889983e-01 8.403321e-02 5.224771e-02 3.726332e-01 5.313719e-02 -2.381020e-01 -5.010150e-02 -3.468248e-01
<VARIANCE> 25
 1.550193e+01 3.162926e+01 3.226416e+01 3.326117e+01 4.242709e+01 5.314631e+01 4.496807e+01 3.572324e+01 4.780160e+01 2.784359e+01 2.526949e+01 2.010105e+01 4.018898e-01 8.137854e-01 7.194107e-01 7.533042e-01 1.110785e+00 1.743636e+00 1.542794e+00 1.396371e+00 1.664527e+00 1.474883e+00 1.293216e+00 9.834697e-01 4.229650e-01
<GCONST> 8.762331e+01
<TRANSP> 5
 0.000000e+00 1.000000e+00 0.000000e+00 0.000000e+00 0.000000e+00
 0.000000e+00 2.844110e-01 7.155890e-01 0.000000e+00 0.000000e+00
 0.000000e+00 0.000000e+00 2.802028e-01 7.197971e-01 0.000000e+00
 0.000000e+00 0.000000e+00 0.000000e+00 7.531156e-01 2.468844e-01
 0.000000e+00 0.000000e+00 0.000000e+00 0.000000e+00 0.000000e+00
<ENDHMM>
~h "r"
<BEGINHMM>
<NUMSTATES> 5
<STATE> 2
<MEAN> 25
 -2.847120e+00 5.088106e-02 3.009580e+00 -1.057548e+00 2.486675e+00 1.503498e+00 1.424158e+00 -1.086695e+00 4.302400e-02 7.041355e-01 1.568315e+00 -1.658136e+00 4.636070e-02 -2.511757e-01 -1.357970e-01 -1.166426e-01 2.300694e-02 -1.353395e-01 -1.928509e-02 -2.268292e-01 -2.604448e-01 4.276497e-02 2.173736e-01 -3.749891e-02 2.133565e-01
<VARIANCE> 25
 3.539874e+01 3.470906e+01 4.076781e+01 5.336042e+01 3.966967e+01 4.833311e+01 5.052998e+01 2.978344e+01 4.033617e+01 2.869469e+01 3.404607e+01 2.196761e+01 1.920031e+00 1.624006e+00 2.452743e+00 2.531630e+00 2.478131e+00 2.754529e+00 3.177382e+00 2.776139e+00 3.264238e+00 2.377690e+00 2.873009e+00 1.761323e+00 6.960562e-01
<GCONST> 9.966148e+01
<STATE> 3
<MEAN> 25
 2.952652e+00 -1.435545e+00 -2.419159e+00 -1.468726e-01 8.734178e-02 -3.017724e+00 -3.304349e+00 -3.673818e+00 -3.869434e+00 -1.607896e+00 1.052929e+00 -2.247244e-02 1.149044e+00 -7.724520e-01 -1.105789e+00 -5.317140e-01 -9.210512e-01 -1.511668e+00 -6.816493e-01 6.115067e-03 -9.708722e-01 -3.724820e-01 4.373947e-01 4.601436e-01 9.762958e-01
<VARIANCE> 25
 1.837790e+01 2.977431e+01 3.378800e+01 4.292547e+01 4.674524e+01 5.964355e+01 6.253313e+01 4.332350e+01 4.657533e+01 3.600826e+01 3.618166e+01 2.625285e+01 1.808117e+00 2.914736e+00 2.757818e+00 3.149900e+00 3.527372e+00 5.441728e+00 5.951034e+00 5.069727e+00 4.795995e+00 3.809292e+00 3.979540e+00 2.323174e+00 1.250773e+00
<GCONST> 1.051884e+02
<STATE> 4
<MEAN> 25
 6.013709e+00 -3.987349e+00 -6.378072e+00 -5.994774e+00 -7.043764e+00 -5.954821e+00 1.058697e+00 2.400344e+00 -4.447210e+00 -2.598500e+00 1.578859e+00 1.223583e+00 -2.236847e-02 1.268218e-01 -3.721206e-03 -1.488358e-02 1.363080e-01 2.553224e-01 6.309484e-02 4.799182e-03 1.052350e-01 -7.767817e-02 -2.174973e-01 -7.235500e-02 -9.409498e-02
<VARIANCE> 25
 9.750619e+00 3.775246e+01 3.125004e+01 3.565568e+01 5.473392e+01 5.235385e+01 6.465138e+01 4.681801e+01 4.472282e+01 4.010051e+01 3.645043e+01 2.517081e+01 2.930653e-01 1.168027e+00 9.670084e-01 1.023635e+00 1.558934e+00 2.405682e+00 2.371143e+00 2.003017e+00 1.751983e+00 1.807900e+00 1.672456e+00 1.219615e+00 4.781857e-01
<GCONST> 9.208615e+01
<TRANSP> 5
 0.000000e+00 1.000000e+00 0.000000e+00 0.000000e+00 0.000000e+00
 0.000000e+00 4.969089e-01 5.030911e-01 0.000000e+00 0.000000e+00
 0.000000e+00 0.000000e+00 5.352947e-01 4.647053e-01 0.000000e+00
 0.000000e+00 0.000000e+00 0.000000e+00 7.901762e-01 2.098239e-01
 0.000000e+00 0.000000e+00 0.000000e+00 0.000000e+00 0.000000e+00
<ENDHMM>
~h "s"
<BEGINHMM>
<NUMSTATES> 5
<STATE> 2
<MEAN> 25
 -1.863059e+00 1.030950e+00 2.485480e+00 -2.777524e+00 2.795723e+00 1.630946e+00 -1.755988e-01 -1.931612e+00 -1.294244e+00 -5.768335e-01 8.680673e-01 -1.887287e+00 -1.173195e+00 2.187244e-01 1.021886e+00 -9.235143e-01 7.862730e-01 4.318823e-01 6.151048e-01 4.449069e-01 5.026503e-01 3.430867e-01 4.692560e-01 -3.998673e-01 -3.532161e-03
<VARIANCE> 25
 3.851537e+01 1.895252e+01 4.225968e+01 4.795617e+01 3.456053e+01 4.866641e+01 4.950443e+01 3.368719e+01 4.407398e+01 2.973458e+01 3.040016e+01 2.042767e+01 1.446323e+00 1.029644e+00 1.826818e+00 2.336158e+00 2.013830e+00 2.323160e+00 2.252360e+00 2.298193e+00 2.440808e+00 2.044841e+00 2.069560e+00 1.382788e+00 4.206619e-01
<GCONST> 9.543999e+01
<STATE> 3
<MEAN> 25
 -5.273330e+00 1.737670e+00 4.465672e+00 -5.190843e+00 5.259298e+00 4.694377e-01 2.185543e+00 -1.576231e+00 -5.171117e-01 8.910934e-01 2.228988e+00 -2.779175e+00 -1.653629e-01 -5.296629e-02 5.371358e-02 -2.784004e-01 5.153249e-02 -3.050584e-01 1.675762e-01 -1.263825e-01 -1.320218e-01 1.412389e-01 1.409446e-01 -8.471075e-03 1.809341e-01
<VARIANCE> 25
 5.743444e+01 2.467091e+01 4.670805e+01 5.772496e+01 5.209886e+01 4.288993e+01 5.808045e+01 3.923193e+01 4.727193e+01 3.521353e+01 3.423492e+01 2.265516e+01 3.712540e+00 1.627214e+00 2.777500e+00 3.568761e+00 3.564259e+00 3.094668e+00 3.955431e+00 3.394317e+00 4.497566e+00 3.181548e+00 3.088917e+00 1.957386e+00 6.526139e-01
<GCONST> 1.037406e+02
<STATE> 4
<MEAN> 25
 -3.406862e+00 1.101238e+00 3.271243e+00 -4.748667e+00 3.472744e+00 -8.390782e-01 8.968928e-01 -1.311361e+00 -1.429796e+00 -1.647840e-05 1.628147e+00 -2.572121e+00 -9.169453e-02 1.240154e-01 6.701914e-02 8.527613e-02 -9.634350e-02 2.422617e-01 1.653967e-01 2.024832e-01 3.336044e-01 1.127738e-01 -1.414542e-01 1.049678e-01 -2.015962e-01
<VARIANCE> 25
 5.427691e+01 2.904137e+01 4.736049e+01 7.030354e+01 6.763173e+01 5.291182e+01 5.592374e+01 3.491510e+01 4.291755e+01 3.478540e+01 3.588506e+01 2.362781e+01 1.452764e+00 1.079749e+00 1.455100e+00 1.899360e+00 1.883638e+00 2.280872e+00 2.360205e+00 2.071455e+00 2.331759e+00 1.950082e+00 2.012399e+00 1.383888e+00 4.870866e-01
<GCONST> 9.756213e+01
<TRANSP> 5
 0.000000e+00 1.000000e+00 0.000000e+00 0.000000e+00 0.000000e+00
 0.000000e+00 4.906285e-01 5.093715e-01 0.000000e+00 0.000000e+00
 0.000000e+00 0.000000e+00 5.356711e-01 4.643290e-01 0.000000e+00
 0.000000e+00 0.000000e+00 0.000000e+00 4.042905e-01 5.957094e-01
 0.000000e+00 0.000000e+00 0.000000e+00 0.000000e+00 0.000000e+00
<ENDHMM>
~h "t"
<BEGINHMM>
<NUMSTATES> 5
<STATE> 2
<MEAN> 25
 -2.970833e+00 1.320484e+00 3.362391e+00 -2.076942e+00 2.531397e+00 1.853270e+00 1.041134e+00 -8.176430e-01 5.422871e-01 7.060108e-01 3.122600e-01 -1.544461e+00 3.619606e-01 -3.768739e-01 -4.373888e-01 2.331069e-02 -3.276555e-01 -3.342738e-01 -5.439144e-02 -2.402415e-01 -4.362385e-01 4.905311e-02 2.918245e-01 1.617228e-01 2.324626e-01
<VARIANCE> 25
 3.709197e+01 2.686027e+01 4.067046e+01 4.965275e+01 3.737407e+01 4.731945e+01 4.528057e+01 2.982824e+01 3.926319e+01 3.079162e+01 3.191770e+01 2.244732e+01 1.935082e+00 1.840061e+00 2.347186e+00 2.599739e+00 2.511327e+00 3.383010e+00 3.165342e+00 3.213400e+00 3.701287e+00 2.485344e+00 3.011999e+00 1.909959e+00 1.028171e+00
<GCONST> 1.003539e+02
<STATE> 3
<MEAN> 25
 3.084904e+00 -1.539816e+00 -2.153126e+00 -4.458019e-01 -1.154235e+00 -3.527204e+00 -2.654110e+00 -3.583106e+00 -4.714299e+00 -1.452419e+00 1.835304e+00 3.079412e-01 1.247441e+00 -1.238867e+00 -1.332991e+00 -4.465333e-01 -1.065058e+00 -1.785348e+00 -5.431591e-01 4.504042e-02 -1.265156e+00 -2.775448e-01 9.402924e-01 4.945567e-01 1.204269e+00
<VARIANCE> 25
 1.831059e+01 2.773980e+01 3.054992e+01 4.038384e+01 3.984745e+01 5.449592e+01 5.133797e+01 4.389377e+01 5.029364e+01 3.952043e+01 3.508533e+01 2.492154e+01 1.929123e+00 3.450022e+00 2.833347e+00 3.061701e+00 3.436920e+00 5.843174e+00 5.615110e+00 5.691895e+00 5.748224e+00 4.470598e+00 4.044597e+00 2.487137e+00 1.682791e+00
<GCONST> 1.056623e+02
<STATE> 4
<MEAN> 25
 6.044423e+00 -5.208521e+00 -7.409271e+00 -6.296209e+00 -6.909598e+00 -5.041013e+00 1.687271e+00 2.804061e+00 -4.542828e+00 -2.761817e+00 2.005520e+00 1.764639e+00 -7.405913e-02 1.212389e-01 -2.588256e-03 -1.258165e-02 1.829592e-01 3.517945e-01 7.674962e-02 5.196076e-02 2.260856e-01 -6.518994e-02 -2.838798e-01 -9.998451e-02 -1.265383e-01
<VARIANCE> 25
 1.028604e+01 3.673350e+01 3.108836e+01 3.558040e+01 4.792349e+01 5.259741e+01 5.871997e+01 4.771023e+01 4.768195e+01 4.590591e+01 3.638565e+01 2.341938e+01 4.261620e-01 1.602522e+00 1.230725e+00 1.193494e+00 1.652346e+00 2.942047e+00 2.571327e+00 2.273154e+00 1.887421e+00 2.061971e+00 1.852532e+00 1.276493e+00 6.869597e-01
<GCONST> 9.429321e+01
<TRANSP> 5
 0.000000e+00 1.000000e+00 0.000000e+00 0.000000e+00 0.000000e+00
 0.000000e+00 4.677972e-01 5.322028e-01 0.000000e+00 0.000000e+00
 0.000000e+00 0.000000e+00 4.916877e-01 5.083123e-01 0.000000e+00
 0.000000e+00 0.000000e+00 0.000000e+00 7.765871e-01 2.234129e-01
 0.000000e+00 0.000000e+00 0.000000e+00 0.000000e+00 0.000000e+00
<ENDHMM>
~h "v"
<BEGINHMM>
<NUMSTATES> 5
<STATE> 2
<MEAN> 25
 -6.047233e-01 3.870255e-01 1.157348e+00 -1.910555e+00 1.421266e+00 -3.749155e-01 -4.789942e-02 -1.663179e+00 -1.575085e+00 -5.991804e-01 4.581578e-01 -9.564565e-01 5.887914e-01 -2.806081e-01 -5.457245e-01 -4.240557e-01 -7.387213e-01 -8.833358e-01 3.102595e-02 3.639818e-02 -6.360080e-01 -3.686206e-01 3.441610e-01 2.985014e-01 4.665527e-01
<VARIANCE> 25
 3.191144e+01 3.160945e+01 4.367468e+01 5.513970e+01 4.466586e+01 5.303743e+01 5.970053e+01 3.529146e+01 4.505031e+01 3.140614e+01 3.112019e+01 2.566359e+01 2.684112e+00 1.815983e+00 2.977979e+00 3.489503e+00 3.759610e+00 5.051949e+00 5.196669e+00 3.500538e+00 4.937717e+00 3.473874e+00 3.284826e+00 2.238996e+00 1.146195e+00
<GCONST> 1.047549e+02
<STATE> 3
<MEAN> 25
 4.548479e+00 -2.405234e+00 -4.283508e+00 -2.713022e+00 -4.541353e+00 -6.003537e+00 -1.122986e+00 -1.692180e-01 -4.430682e+00 -2.349762e+00 2.353416e+00 1.897918e+00 9.126876e-01 -1.006839e+00 -1.058006e+00 -7.149479e-01 -1.379275e+00 -1.298078e+00 5.119738e-01 9.488965e-01 -5.016890e-01 -2.030208e-01 6.830850e-01 3.790174e-01 9.288608e-01
<VARIANCE> 25
 1.192369e+01 2.983317e+01 3.263496e+01 5.758767e+01 5.149323e+01 5.269470e+01 7.328514e+01 5.068955e+01 4.561952e+01 3.907636e+01 3.672335e+01 2.882073e+01 1.407913e+00 2.713249e+00 2.316097e+00 2.842903e+00 3.455866e+00 6.039119e+00 4.663290e+00 3.256523e+00 4.521401e+00 3.967960e+00 2.835324e+00 2.191219e+00 1.472349e+00
<GCONST> 1.040204e+02
<STATE> 4
<MEAN> 25
 6.361773e+00 -3.731514e+00 -6.552182e+00 -7.962573e+00 -1.037997e+01 -5.826118e+00 4.081840e+00 5.135633e+00 -3.835306e+00 -3.972610e+00 9.062460e-01 1.558507e+00 -9.536549e-02 3.426974e-01 1.429824e-01 2.761420e-02 2.363485e-01 3.331101e-01 6.803275e-02 -6.680074e-02 2.072702e-01 -8.939102e-02 -3.227445e-01 -1.901647e-01 -1.990288e-01
<VARIANCE> 25
 6.951521e+00 3.766585e+01 2.673966e+01 3.358422e+01 4.989115e+01 4.648852e+01 5.362449e+01 4.079504e+01 3.957656e+01 3.292794e+01 2.949265e+01 2.393677e+01 4.113446e-01 1.418406e+00 9.067140e-01 8.928882e-01 1.584428e+00 2.445342e+00 2.129156e+00 1.749233e+00 1.899532e+00 1.846375e+00 1.764843e+00 1.171652e+00 6.425486e-01
<GCONST> 9.094486e+01
<TRANSP> 5
 0.000000e+00 1.000000e+00 0.000000e+00 0.000000e+00 0.000000e+00
 0.000000e+00 3.767467e-01 6.232533e-01 0.000000e+00 0.000000e+00
 0.000000e+00 0.000000e+00 4.183470e-01 5.816529e-01 0.000000e+00
 0.000000e+00 0.000000e+00 0.000000e+00 8.202447e-01 1.797553e-01
 0.000000e+00 0.000000e+00 0.000000e+00 0.000000e+00 0.000000e+00
<ENDHMM>
~h "w"
<BEGINHMM>
<NUMSTATES> 5
<STATE> 2
<MEAN> 25
 -3.268383e+00 2.376203e+00 1.844556e+00 2.892368e-01 1.670301e+00 5.021442e+00 2.649400e+00 1.577770e+00 3.476687e+00 1.782272e+00 -4.262312e-01 1.131450e+00 -1.476348e-01 7.945623e-02 1.169972e-01 2.553556e-02 2.793504e-02 1.318285e-01 9.244297e-02 9.848905e-02 1.854800e-01 8.346141e-02 -3.690605e-02 -7.866369e-03 -1.263404e-01
<VARIANCE> 25
 1.047238e+01 1.164636e+01 1.060246e+01 1.092084e+01 1.030699e+01 1.931785e+01 1.577204e+01 1.274580e+01 2.029983e+01 1.570321e+01 1.419147e+01 1.096857e+01 1.449062e-01 2.433950e-01 3.115100e-01 3.950289e-01 4.632729e-01 6.333284e-01 6.728537e-01 7.224504e-01 8.385569e-01 7.608649e-01 7.859038e-01 6.887415e-01 7.272382e-02
<GCONST> 6.584022e+01
<STATE> 3
<MEAN> 25
 -1.179901e+00 2.187834e+00 1.570324e+00 3.335081e-01 1.181910e+00 2.643317e+00 1.111680e+00 3.740552e-01 1.430895e+00 -3.108399e-01 -1.677273e+00 -6.767174e-01 1.489687e-01 4.556169e-01 3.932853e-01 1.199339e-01 -5.695513e-03 2.791695e-02 -1.566868e-01 -2.794178e-01 -2.403300e-01 -4.036002e-01 -5.435428e-01 -5.011967e-01 -2.739439e-03
<VARIANCE> 25
 2.126825e+01 2.583395e+01 2.203069e+01 2.714355e+01 2.261097e+01 4.072944e+01 2.979504e+01 2.097351e+01 3.226905e+01 2.785217e+01 2.713979e+01 1.866752e+01 6.655293e-01 8.283470e-01 7.422127e-01 7.092724e-01 7.606407e-01 1.178282e+00 1.343716e+00 1.349630e+00 1.867232e+00 1.847283e+00 1.849580e+00 1.380112e+00 2.473055e-01
<GCONST> 8.496796e+01
<STATE> 4
<MEAN> 25
 1.853933e-01 5.033020e+00 3.260366e+00 4.186664e-01 4.508407e-01 2.329815e+00 1.403283e-01 -9.463395e-01 -1.286515e-01 -2.595001e+00 -4.548906e+00 -2.659571e+00 4.142735e-01 2.175088e-01 4.023249e-02 -4.728407e-02 -2.744139e-01 -4.315426e-01 -3.100771e-01 -3.777935e-01 -5.378554e-01 -3.968903e-01 -1.071337e-01 -1.656685e-01 2.427873e-01
<VARIANCE> 25
 1.375283e+01 2.429663e+01 1.928906e+01 2.082361e+01 2.230087e+01 3.228955e+01 2.311867e+01 1.840584e+01 2.501354e+01 2.359163e+01 2.670294e+01 1.892582e+01 7.989161e-01 8.846310e-01 8.164413e-01 8.782943e-01 1.070688e+00 1.582003e+00 1.608842e+00 1.614142e+00 2.199874e+00 1.963901e+00 1.781836e+00 1.318707e+00 2.954923e-01
<GCONST> 8.489259e+01
<TRANSP> 5
 0.000000e+00 1.000000e+00 0.000000e+00 0.000000e+00 0.000000e+00
 0.000000e+00 8.416861e-01 1.583139e-01 0.000000e+00 0.000000e+00
 0.000000e+00 0.000000e+00 1.182346e-01 8.817654e-01 0.000000e+00
 0.000000e+00 0.000000e+00 0.000000e+00 4.337115e-01 5.662885e-01
 0.000000e+00 0.000000e+00 0.000000e+00 0.000000e+00 0.000000e+00
<ENDHMM>
~h "y"
<BEGINHMM>
<NUMSTATES> 5
<STATE> 2
<MEAN> 25
 1.816924e+00 -3.685209e+00 -2.024861e+00 2.763563e-02 -1.331915e+00 -2.163042e+00 -1.624917e+00 -1.650607e+00 -3.162057e-01 2.012061e+00 2.388284e+00 -9.241660e-01 -1.263915e-01 1.803407e-01 4.718114e-01 7.860864e-01 4.438246e-01 -1.013282e-01 -4.166515e-01 -2.546700e-01 4.011071e-02 -2.492032e-01 -6.514962e-01 -4.479840e-01 -1.932134e-01
<VARIANCE> 25
 2.870560e+01 4.608137e+01 3.899059e+01 4.757156e+01 2.671480e+01 6.572369e+01 5.375627e+01 3.436313e+01 3.699339e+01 3.892979e+01 3.033035e+01 2.178874e+01 6.083980e-01 1.432505e+00 1.107156e+00 1.418088e+00 1.215944e+00 2.796441e+00 2.310469e+00 1.753726e+00 2.051554e+00 2.112922e+00 1.980667e+00 1.578848e+00 4.845259e-01
<GCONST> 9.423701e+01
<STATE> 3
<MEAN> 25
 8.671344e-01 -5.089238e-01 2.320747e+00 5.621213e+00 2.038996e+00 -2.956615e+00 -3.840394e+00 -2.669836e+00 -1.237067e+00 -1.827312e+00 -2.928138e+00 -3.664955e+00 5.326577e-01 3.112858e-02 4.669286e-01 1.475954e+00 3.878004e-01 -1.613847e+00 -1.570210e+00 -2.687617e-01 -4.406578e-01 -1.061719e+00 -1.184613e+00 -6.951366e-01 2.926966e-01
<VARIANCE> 25
 1.595683e+01 2.422857e+01 2.674594e+01 4.337621e+01 2.015013e+01 6.213808e+01 4.907280e+01 2.580112e+01 2.806749e+01 2.884502e+01 2.800146e+01 2.144603e+01 1.230410e+00 2.123177e+00 1.315737e+00 2.306132e+00 1.400447e+00 5.355856e+00 4.473547e+00 2.756062e+00 3.140790e+00 3.084361e+00 2.886736e+00 1.704335e+00 7.164242e-01
<GCONST> 9.645912e+01
<STATE> 4
<MEAN> 25
 2.926304e+00 -1.330427e+00 2.283698e+00 8.023952e+00 2.047851e+00 -8.855752e+00 -8.469430e+00 -2.845255e+00 -3.693388e+00 -5.232712e+00 -4.345945e+00 -4.682740e+00 -9.179688e-02 2.772894e-01 -3.377410e-03 -3.911305e-01 -9.304681e-02 4.773785e-01 3.820588e-01 1.250516e-01 -1.719886e-02 6.755471e-03 8.793025e-02 1.998620e-01 -1.724350e-01
<VARIANCE> 25
 6.129287e+00 2.345234e+01 1.618731e+01 4.608543e+01 2.362226e+01 5.777280e+01 4.254751e+01 2.774929e+01 3.612183e+01 2.651211e+01 2.789842e+01 1.850261e+01 2.688066e-01 8.241976e-01 8.144641e-01 1.648236e+00 1.185471e+00 2.221169e+00 2.251728e+00 1.820229e+00 2.196508e+00 1.528055e+00 1.845197e+00 1.416265e+00 2.728693e-01
<GCONST> 8.697215e+01
<TRANSP> 5
 0.000000e+00 1.000000e+00 0.000000e+00 0.000000e+00 0.000000e+00
 0.000000e+00 4.170615e-01 5.829384e-01 0.000000e+00 0.000000e+00
 0.000000e+00 0.000000e+00 4.808407e-01 5.191593e-01 0.000000e+00
 0.000000e+00 0.000000e+00 0.000000e+00 8.496979e-01 1.503021e-01
 0.000000e+00 0.000000e+00 0.000000e+00 0.000000e+00 0.000000e+00
<ENDHMM>
~h "z"
<BEGINHMM>
<NUMSTATES> 5
<STATE> 2
<MEAN> 25
 2.295771e+00 -7.435628e-01 -5.308254e-01 1.262516e+00 -6.464466e-02 -3.008018e+00 -3.140419e+00 -3.674369e+00 -3.345742e+00 -1.423650e+00 -3.582036e-01 -1.685307e+00 8.758641e-01 -5.146757e-01 -6.131894e-01 2.644686e-01 -1.369682e-01 -1.356897e+00 -1.221744e+00 -1.063839e+00 -1.339918e+00 -4.434550e-01 4.115964e-01 1.144477e-01 6.860477e-01
<VARIANCE> 25
 1.855148e+01 2.930268e+01 2.921671e+01 4.306778e+01 3.207211e+01 5.703892e+01 5.339795e+01 3.807710e+01 4.390144e+01 3.931080e+01 3.447079e+01 2.369179e+01 1.711663e+00 3.220169e+00 2.277451e+00 2.479421e+00 2.399695e+00 5.771668e+00 4.923850e+00 3.376592e+00 4.651133e+00 3.313869e+00 3.838406e+00 2.340181e+00 1.450584e+00
<GCONST> 1.028502e+02
<STATE> 3
<MEAN> 25
 4.978084e+00 -3.435577e+00 -3.286369e+00 2.611655e-01 -2.709360e+00 -7.453264e+00 -4.812563e+00 -3.857133e+00 -6.464349e+00 -1.887763e+00 2.407949e+00 3.234431e-01 2.553497e-01 -8.301172e-01 -5.108498e-01 -1.402331e-01 -1.216057e-01 -5.531098e-01 -3.111366e-01 -1.490219e-01 -2.266881e-01 5.988548e-01 8.929909e-01 1.945740e-01 5.582010e-01
<VARIANCE> 25
 1.130174e+01 2.846854e+01 2.533249e+01 4.866525e+01 4.293673e+01 5.539513e+01 6.555367e+01 4.340813e+01 5.643182e+01 4.772503e+01 4.038685e+01 2.858578e+01 8.109720e-01 2.685936e+00 1.844520e+00 2.087716e+00 2.006536e+00 4.805075e+00 3.072284e+00 2.545354e+00 3.173821e+00 3.529572e+00 3.138675e+00 2.257757e+00 1.139267e+00
<GCONST> 1.004696e+02
<STATE> 4
<MEAN> 25
 4.770235e+00 -3.408777e+00 -2.652548e+00 1.968488e+00 2.423441e-01 -7.155681e+00 -7.592113e+00 -5.927752e+00 -5.920494e+00 -1.274311e+00 1.680646e+00 -1.490405e+00 -4.689052e-01 6.636629e-01 5.630583e-01 -2.978505e-01 5.385697e-01 1.004818e+00 3.954412e-01 3.222215e-01 3.975541e-01 -1.559512e-01 -4.198196e-01 -5.675466e-02 -4.322827e-01
<VARIANCE> 25
 8.778876e+00 2.812865e+01 2.448023e+01 4.568272e+01 2.853006e+01 6.181087e+01 4.974297e+01 3.374918e+01 4.692143e+01 3.220509e+01 4.074127e+01 2.721291e+01 7.550323e-01 1.007419e+00 1.359977e+00 1.556735e+00 1.407835e+00 2.611640e+00 1.917558e+00 2.185998e+00 2.287062e+00 1.882453e+00 1.719779e+00 1.207194e+00 4.363351e-01
<GCONST> 9.228065e+01
<TRANSP> 5
 0.000000e+00 1.000000e+00 0.000000e+00 0.000000e+00 0.000000e+00
 0.000000e+00 2.740180e-01 7.259820e-01 0.000000e+00 0.000000e+00
 0.000000e+00 0.000000e+00 4.023633e-01 5.976367e-01 0.000000e+00
 0.000000e+00 0.000000e+00 0.000000e+00 7.235067e-01 2.764932e-01
 0.000000e+00 0.000000e+00 0.000000e+00 0.000000e+00 0.000000e+00
<ENDHMM>
~h "aa"
<BEGINHMM>
<NUMSTATES> 5
<STATE> 2
<MEAN> 25
 4.678580e-01 2.166353e+00 1.233693e+00 1.120713e+00 1.462250e+00 8.336110e-01 -1.675494e+00 -1.592485e+00 -1.644504e-02 -1.004908e+00 -1.981714e+00 -8.845879e-01 -3.121176e-01 2.363253e-01 2.816957e-01 -6.130299e-02 8.435057e-02 4.802433e-01 3.514245e-01 1.809242e-01 2.886451e-01 1.444445e-01 -2.396422e-02 -6.733464e-03 -2.585882e-01
<VARIANCE> 25
 1.810281e+01 2.190883e+01 2.255973e+01 3.120223e+01 2.301493e+01 4.856305e+01 4.654969e+01 2.722438e+01 3.091214e+01 2.510173e+01 2.543573e+01 2.044338e+01 3.503965e-01 4.966636e-01 5.826980e-01 6.991155e-01 7.722830e-01 1.281706e+00 1.256459e+00 1.161616e+00 1.321468e+00 1.146212e+00 1.071517e+00 8.484748e-01 2.036575e-01
<GCONST> 8.200806e+01
<STATE> 3
<MEAN> 25
 3.241868e-02 1.968266e+00 1.122995e+00 6.515203e-03 9.301773e-01 1.427230e+00 -2.112464e-01 -9.299704e-01 2.008573e-01 -5.987983e-01 -1.249915e+00 -7.830690e-01 -5.700747e-02 9.529186e-04 -3.780651e-02 -2.485872e-01 -1.225598e-01 5.478664e-02 2.138458e-01 4.999498e-02 -3.206668e-02 1.023947e-01 1.905917e-01 -3.393822e-02 1.707284e-02
<VARIANCE> 25
 2.276412e+01 2.615148e+01 2.811193e+01 3.136102e+01 2.777961e+01 4.655928e+01 4.010140e+01 2.650971e+01 3.420842e+01 2.559784e+01 2.689596e+01 2.055474e+01 7.271206e-01 7.456154e-01 1.104588e+00 1.286168e+00 1.504627e+00 1.832904e+00 1.670667e+00 1.531330e+00 1.824817e+00 1.598072e+00 1.560414e+00 1.185197e+00 3.194599e-01
<GCONST> 8.857854e+01
<STATE> 4
<MEAN> 25
 1.410324e-01 1.868801e+00 8.198653e-01 -1.461419e+00 -9.994953e-02 3.740087e-01 3.012545e-01 -6.173619e-01 -3.859939e-01 -5.670385e-01 -3.796429e-01 -6.388415e-01 5.179622e-01 -5.065570e-01 -5.973887e-01 -5.185019e-01 -7.783245e-01 -9.261525e-01 1.892459e-01 7.511980e-02 -6.439755e-01 -7.992435e-02 5.591683e-01 5.225375e-02 6.034815e-01
<VARIANCE> 25
 2.651901e+01 2.491065e+01 3.142250e+01 3.909400e+01 4.457900e+01 4.904787e+01 4.855536e+01 3.221067e+01 3.533144e+01 2.623035e+01 2.635602e+01 2.148983e+01 1.727593e+00 1.624285e+00 2.300372e+00 2.482477e+00 3.615436e+00 4.082922e+00 3.462842e+00 2.733171e+00 2.982950e+00 2.607985e+00 2.637269e+00 1.891218e+00 8.691201e-01
<GCONST> 9.900149e+01
<TRANSP> 5
 0.000000e+00 1.000000e+00 0.000000e+00 0.000000e+00 0.000000e+00
 0.000000e+00 5.017502e-01 4.982499e-01 0.000000e+00 0.000000e+00
 0.000000e+00 0.000000e+00 4.736593e-02 9.526341e-01 0.000000e+00
 0.000000e+00 0.000000e+00 0.000000e+00 3.119579e-01 6.880421e-01
 0.000000e+00 0.000000e+00 0.000000e+00 0.000000e+00 0.000000e+00
<ENDHMM>
~h "ae"
<BEGINHMM>
<NUMSTATES> 5
<STATE> 2
<MEAN> 25
 -3.402908e+00 2.019436e+00 3.632807e+00 -2.613225e+00 3.437948e+00 2.512028e+00 8.569114e-01 1.166704e-01 8.155531e-01 6.259751e-01 4.310559e-01 -1.216581e+00 -1.070154e-01 -2.155961e-01 -1.670250e-01 -2.568493e-01 -7.892136e-02 5.296112e-02 2.488889e-01 1.441274e-01 1.752319e-01 3.619839e-01 3.814288e-01 8.094756e-02 5.423212e-02
<VARIANCE> 25
 3.455613e+01 2.302523e+01 3.900439e+01 4.756978e+01 3.817348e+01 4.200953e+01 3.710579e+01 2.487189e+01 3.964568e+01 2.941804e+01 2.963711e+01 2.339514e+01 1.387688e+00 8.930696e-01 1.965377e+00 2.043823e+00 1.795446e+00 1.870692e+00 1.989397e+00 1.912988e+00 2.322843e+00 1.826603e+00 1.973974e+00 1.505635e+00 4.612246e-01
<GCONST> 9.387640e+01
<STATE> 3
<MEAN> 25
 1.597806e+00 -1.394756e+00 -2.263691e+00 -8.201142e-01 -5.427418e-01 -1.611052e+00 -1.213122e+00 -1.719142e+00 -1.288603e+00 1.466311e+00 2.616473e+00 2.943401e-01 1.293868e+00 -1.677722e+00 -1.667501e+00 -4.395494e-01 -1.100085e+00 -1.557174e+00 -3.257512e-01 -1.270399e-01 -9.741107e-01 3.670577e-01 1.193026e+00 6.577823e-02 1.394389e+00
<VARIANCE> 25
 2.195430e+01 3.098864e+01 3.659463e+01 3.604302e+01 2.916542e+01 6.064248e+01 4.940486e+01 3.026135e+01 5.160910e+01 4.343916e+01 3.592182e+01 2.146124e+01 1.638310e+00 2.971160e+00 2.918466e+00 3.022988e+00 2.406909e+00 4.978727e+00 4.524451e+00 3.465281e+00 4.734861e+00 3.637866e+00 3.700886e+00 2.306799e+00 1.449550e+00
<GCONST> 1.031624e+02
<STATE> 4
<MEAN> 25
 5.100813e+00 -8.827321e+00 -8.782381e+00 -5.846005e+00 -4.566096e+00 -5.893285e-01 2.147814e+00 1.247841e+00 -3.336903e+00 1.233130e+00 3.550045e+00 7.178664e-01 1.261095e-01 -1.391912e-01 -1.139893e-01 -1.113046e-01 -8.283170e-02 -4.815174e-02 3.902662e-03 -3.940565e-02 -1.262565e-01 -1.502737e-01 -1.293300e-01 -9.304456e-02 1.727362e-01
<VARIANCE> 25
 1.173611e+01 3.819798e+01 3.212575e+01 3.250727e+01 2.685152e+01 5.394510e+01 4.486692e+01 2.481008e+01 4.247269e+01 3.482318e+01 2.977939e+01 1.968666e+01 4.412811e-01 1.385555e+00 1.189853e+00 1.083941e+00 9.707931e-01 2.728829e+00 2.037599e+00 1.446469e+00 1.646112e+00 1.498245e+00 1.414982e+00 1.093949e+00 6.559722e-01
<GCONST> 8.970522e+01
<TRANSP> 5
 0.000000e+00 1.000000e+00 0.000000e+00 0.000000e+00 0.000000e+00
 0.000000e+00 5.050445e-01 4.949555e-01 0.000000e+00 0.000000e+00
 0.000000e+00 0.000000e+00 5.666129e-01 4.333871e-01 0.000000e+00
 0.000000e+00 0.000000e+00 0.000000e+00 7.540471e-01 2.459529e-01
 0.000000e+00 0.000000e+00 0.000000e+00 0.000000e+00 0.000000e+00
<ENDHMM>
~h "ah"
<BEGINHMM>
<NUMSTATES> 5
<STATE> 2
<MEAN> 25
 -6.363242e-02 3.539186e+00 1.851899e+00 2.756564e-01 1.000880e+00 2.602370e+00 -1.306081e-02 -7.179703e-01 6.894011e-01 -9.362510e-01 -2.338889e+00 -8.290585e-01 -2.608916e-01 7.785138e-02 1.611395e-01 2.955637e-02 3.315510e-02 2.778834e-01 2.697966e-01 1.740789e-01 2.889971e-01 2.398120e-01 9.066892e-02 6.424237e-02 -2.016985e-01
<VARIANCE> 25
 1.589996e+01 1.999784e+01 1.939111e+01 2.117062e+01 2.026945e+01 3.238062e+01 2.737648e+01 2.367906e+01 3.275363e+01 2.409211e+01 2.267832e+01 1.717625e+01 2.477507e-01 3.564062e-01 4.680450e-01 5.495448e-01 6.237726e-01 8.438355e-01 9.138332e-01 9.708679e-01 1.077765e+00 9.489828e-01 8.967282e-01 8.000668e-01 1.195443e-01
<GCONST> 7.634315e+01
<STATE> 3
<MEAN> 25
 2.634254e-01 2.381922e+00 1.229324e+00 -8.010583e-02 5.331780e-01 1.370085e+00 -3.650067e-02 -6.177071e-01 7.887830e-02 -1.020567e+00 -1.696856e+00 -9.405712e-01 1.396423e-01 -3.643099e-01 -3.637972e-01 -9.281109e-02 -1.779616e-01 -2.390589e-01 6.938399e-02 -2.783869e-01 -4.601720e-01 5.924817e-02 4.694774e-01 1.186153e-01 2.066090e-01
<VARIANCE> 25
 2.063303e+01 2.977077e+01 2.686434e+01 3.034775e+01 2.784754e+01 4.652856e+01 3.487743e+01 2.614611e+01 4.026011e+01 2.865791e+01 2.803116e+01 1.947689e+01 6.343814e-01 1.105158e+00 1.270412e+00 1.260335e+00 1.414922e+00 1.878426e+00 1.892774e+00 1.981075e+00 2.353998e+00 1.733059e+00 1.751130e+00 1.266561e+00 4.135476e-01
<GCONST> 9.014095e+01
<STATE> 4
<MEAN> 25
 2.883068e+00 -9.536673e-01 -1.799035e+00 -1.194852e+00 -1.591494e+00 -2.221426e+00 -7.209824e-01 -2.663151e+00 -5.528988e+00 -1.868133e+00 2.042300e+00 4.533747e-01 6.104134e-01 -8.099830e-01 -6.954305e-01 -2.050787e-01 -4.869898e-01 -1.018948e+00 -2.474442e-01 -2.954792e-01 -1.027688e+00 -1.669402e-01 7.455453e-01 2.688932e-01 7.357299e-01
<VARIANCE> 25
 1.953191e+01 3.542362e+01 2.946826e+01 3.128999e+01 3.638339e+01 5.445038e+01 4.490946e+01 4.321969e+01 7.101492e+01 3.550639e+01 4.185453e+01 2.233642e+01 1.450904e+00 3.148192e+00 2.366996e+00 2.021193e+00 2.646395e+00 5.247001e+00 3.919383e+00 3.822462e+00 5.954231e+00 3.183757e+00 3.929813e+00 2.047985e+00 1.541293e+00
<GCONST> 1.030306e+02
<TRANSP> 5
 0.000000e+00 1.000000e+00 0.000000e+00 0.000000e+00 0.000000e+00
 0.000000e+00 6.184969e-01 3.815031e-01 0.000000e+00 0.000000e+00
 0.000000e+00 0.000000e+00 4.218211e-02 9.578179e-01 0.000000e+00
 0.000000e+00 0.000000e+00 0.000000e+00 5.609625e-01 4.390375e-01
 0.000000e+00 0.000000e+00 0.000000e+00 0.000000e+00 0.000000e+00
<ENDHMM>
~h "ao"
<BEGINHMM>
<NUMSTATES> 5
<STATE> 2
<MEAN> 25
 3.251118e+00 -2.488242e+00 5.759048e-01 5.991123e+00 8.290995e-01 -9.569697e+00 -8.337188e+00 -2.924944e+00 -1.802797e+00 -2.599146e+00 -3.041844e+00 -3.955559e+00 -5.977868e-02 1.676772e-01 1.281354e-01 1.037921e-01 8.521301e-02 2.393555e-02 -6.822554e-02 3.183417e-02 9.421298e-02 -9.839849e-02 -2.792613e-01 -1.466677e-01 -1.186290e-01
<VARIANCE> 25
 1.125418e+01 2.960244e+01 2.420172e+01 4.727263e+01 2.436550e+01 7.539789e+01 5.147104e+01 2.757513e+01 3.449833e+01 3.288846e+01 2.871055e+01 2.014713e+01 2.468849e-01 7.433551e-01 6.492291e-01 8.631542e-01 7.753395e-01 2.104090e+00 1.647469e+00 1.495632e+00 1.386910e+00 1.213292e+00 1.210683e+00 9.371278e-01 2.826563e-01
<GCONST> 8.546590e+01
<STATE> 3
<MEAN> 25
 2.223588e+00 6.739772e-01 1.138706e-01 2.135204e+00 1.116426e+00 -2.917881e+00 -4.150475e+00 -2.479069e+00 -1.588382e+00 -2.005750e+00 -2.507032e+00 -2.264292e+00 -2.354739e-01 5.342766e-01 1.385188e-01 -4.254827e-01 6.899258e-02 9.570464e-01 5.770264e-01 1.329631e-01 1.312568e-01 1.144813e-02 -1.031065e-03 2.524550e-01 -3.674084e-01
<VARIANCE> 25
 1.770658e+01 2.473237e+01 2.586391e+01 4.378809e+01 3.372234e+01 5.745638e+01 5.111140e+01 3.278916e+01 3.891453e+01 2.901153e+01 3.429045e+01 2.626376e+01 5.525573e-01 8.917992e-01 9.636988e-01 1.190560e+00 1.412553e+00 2.842685e+00 1.774267e+00 1.754093e+00 2.048591e+00 1.436358e+00 1.602956e+00 1.272292e+00 4.206071e-01
<GCONST> 9.076768e+01
<STATE> 4
<MEAN> 25
 2.511368e+00 -2.863157e-01 -1.219578e+00 -4.172754e+00 -4.920364e+00 -2.985876e+00 9.715334e-01 2.211540e+00 -1.553550e+00 -2.374382e+00 -7.513481e-01 -6.406298e-01 3.867868e-02 -5.602744e-02 -1.258538e-01 -5.570230e-01 -3.121868e-01 1.268017e-02 3.988525e-01 2.445888e-01 -3.094998e-02 -1.708471e-02 2.308496e-01 1.537595e-01 1.844049e-01
<VARIANCE> 25
 2.427174e+01 3.127839e+01 3.498140e+01 5.627127e+01 9.538138e+01 5.876626e+01 6.077957e+01 6.841386e+01 3.766349e+01 2.781800e+01 2.829096e+01 2.378764e+01 1.761245e+00 1.664034e+00 2.054838e+00 1.990120e+00 3.781694e+00 4.424389e+00 3.043532e+00 2.807590e+00 2.816365e+00 2.075837e+00 2.301640e+00 1.578408e+00 9.630034e-01
<GCONST> 1.010590e+02
<TRANSP> 5
 0.000000e+00 1.000000e+00 0.000000e+00 0.000000e+00 0.000000e+00
 0.000000e+00 6.140742e-01 3.859258e-01 0.000000e+00 0.000000e+00
 0.000000e+00 0.000000e+00 2.348497e-01 7.651503e-01 0.000000e+00
 0.000000e+00 0.000000e+00 0.000000e+00 5.225410e-01 4.774590e-01
 0.000000e+00 0.000000e+00 0.000000e+00 0.000000e+00 0.000000e+00
<ENDHMM>
~h "aw"
<BEGINHMM>
<NUMSTATES> 5
<STATE> 2
<MEAN> 25
 3.333524e+00 8.895320e-01 -2.327677e+00 -1.850169e+00 -1.757118e+00 -1.682110e+00 -3.081985e-01 -5.343563e-01 -2.757277e+00 -2.474149e+00 -1.623608e-01 2.359655e-01 -2.589381e-01 5.029128e-01 3.969645e-01 2.681386e-02 1.591252e-01 5.528093e-01 1.609080e-01 1.276664e-01 4.415501e-01 -7.553095e-02 -4.908533e-01 -1.629806e-01 -3.559349e-01
<VARIANCE> 25
 1.611115e+01 1.244197e+01 1.806373e+01 3.648821e+01 3.554725e+01 3.600496e+01 4.515647e+01 3.046519e+01 3.947705e+01 3.113828e+01 2.556791e+01 1.934258e+01 2.685104e-01 5.632645e-01 5.562553e-01 6.739877e-01 8.613144e-01 1.371475e+00 1.371294e+00 1.261138e+00 1.477427e+00 1.240616e+00 1.267445e+00 9.638669e-01 2.104586e-01
<GCONST> 8.252953e+01
<STATE> 3
<MEAN> 25
 2.619200e+00 3.723600e+00 1.272427e+00 -5.905638e-01 -1.335728e+00 -8.335423e-01 -1.133752e+00 -1.516782e+00 -2.326065e+00 -3.795198e+00 -4.046189e+00 -2.682053e+00 -3.432683e-01 7.648032e-02 2.383115e-01 1.626736e-01 2.556074e-01 4.638727e-01 2.244563e-01 1.147124e-01 2.744045e-01 1.715853e-01 -4.358135e-02 -4.360144e-03 -2.547072e-01
<VARIANCE> 25
 1.042657e+01 8.636139e+00 1.094011e+01 2.260967e+01 2.888745e+01 2.880235e+01 2.154000e+01 1.739207e+01 2.180617e+01 1.820158e+01 1.920231e+01 1.527632e+01 1.833374e-01 3.090136e-01 3.704145e-01 4.866718e-01 6.472080e-01 7.804375e-01 8.834250e-01 9.183267e-01 9.347350e-01 9.014916e-01 9.169903e-01 7.734595e-01 8.364109e-02
<GCONST> 7.180070e+01
<STATE> 4
<MEAN> 25
 -3.338511e+00 1.153376e+00 1.603060e+00 1.026096e+00 1.580499e+00 3.752747e+00 1.651957e+00 1.235874e+00 3.333455e+00 1.922264e+00 -2.117860e-01 9.438241e-01 -5.571706e-02 -3.032138e-02 -1.075579e-02 -7.394530e-03 -3.341654e-03 1.540237e-02 3.591540e-02 2.812549e-02 4.447837e-02 5.221367e-02 5.429105e-02 4.500516e-02 -3.068050e-02
<VARIANCE> 25
 4.654958e+00 7.213591e+00 6.874548e+00 6.719000e+00 6.773271e+00 1.220829e+01 9.228940e+00 8.650708e+00 1.333946e+01 1.015997e+01 9.107357e+00 7.266829e+00 7.964007e-02 1.501243e-01 2.353814e-01 3.274325e-01 3.974358e-01 4.930021e-01 5.759903e-01 6.757273e-01 7.178845e-01 6.861522e-01 6.668314e-01 5.878103e-01 3.153943e-02
<GCONST> 5.652594e+01
<TRANSP> 5
 0.000000e+00 1.000000e+00 0.000000e+00 0.000000e+00 0.000000e+00
 0.000000e+00 5.744048e-01 4.255953e-01 0.000000e+00 0.000000e+00
 0.000000e+00 0.000000e+00 7.928104e-01 2.071895e-01 0.000000e+00
 0.000000e+00 0.000000e+00 0.000000e+00 9.229607e-01 7.703931e-02
 0.000000e+00 0.000000e+00 0.000000e+00 0.000000e+00 0.000000e+00
<ENDHMM>
~h "ax"
<BEGINHMM>
<NUMSTATES> 5
<STATE> 2
<MEAN> 25
 3.133303e+00 -1.560265e+00 -1.954343e+00 -1.828494e-01 -1.071722e+00 -3.571226e+00 -2.864118e+00 -1.736795e+00 -3.555648e+00 -2.003788e+00 4.035797e-01 -2.495803e-01 7.870681e-02 1.069323e-01 -1.118142e-01 -2.612726e-01 -2.773527e-01 -1.876690e-02 1.764344e-01 1.265759e-01 2.082236e-03 4.171086e-02 8.940537e-02 9.267794e-02 -2.020352e-02
<VARIANCE> 25
 1.931434e+01 3.606966e+01 3.211115e+01 4.145704e+01 3.392438e+01 6.532642e+01 5.217044e+01 3.371963e+01 5.507681e+01 4.529438e+01 3.618232e+01 2.253488e+01 5.242153e-01 1.080945e+00 1.089146e+00 1.325869e+00 1.564455e+00 2.293856e+00 2.220616e+00 2.029397e+00 2.151938e+00 1.792691e+00 1.958285e+00 1.368435e+00 4.447262e-01
<GCONST> 9.349704e+01
<STATE> 3
<MEAN> 25
 3.876755e+00 -2.741463e+00 -3.978176e+00 -3.156950e+00 -4.016726e+00 -3.571956e+00 -5.307509e-01 -7.723269e-01 -3.961806e+00 -5.546495e-01 2.705701e+00 1.238424e+00 5.049261e-01 -4.683351e-01 -4.576180e-01 -2.669154e-01 -6.025781e-01 -6.793751e-01 1.711659e-01 5.381734e-02 -6.296525e-01 -1.050669e-01 4.132759e-01 4.222491e-02 5.255806e-01
<VARIANCE> 25
 1.531688e+01 3.602136e+01 3.069291e+01 4.528859e+01 4.571225e+01 5.689876e+01 6.029762e+01 3.444188e+01 5.342987e+01 4.632258e+01 4.065527e+01 2.601546e+01 1.248742e+00 2.635043e+00 2.142796e+00 2.213624e+00 2.668768e+00 4.324874e+00 3.677434e+00 2.504334e+00 4.014974e+00 2.824432e+00 3.059113e+00 1.860865e+00 1.540133e+00
<GCONST> 1.017905e+02
<STATE> 4
<MEAN> 25
 5.567713e+00 -2.018374e+00 -4.385003e+00 -3.321320e+00 -4.774469e+00 -5.509318e+00 -7.602935e-01 -1.355017e+00 -6.198360e+00 -2.651477e+00 1.988541e+00 4.167205e-01 -2.218547e-01 6.853534e-01 4.184173e-01 1.975214e-01 4.513065e-01 6.779419e-01 -2.506486e-02 -1.841736e-01 2.540349e-01 -2.179415e-01 -5.767626e-01 -1.489170e-01 -4.462212e-01
<VARIANCE> 25
 8.393623e+00 2.987698e+01 2.434446e+01 3.378177e+01 3.892113e+01 4.284993e+01 5.600050e+01 3.589458e+01 4.468328e+01 3.976911e+01 3.703627e+01 2.193581e+01 2.398486e-01 8.328114e-01 6.159875e-01 7.159784e-01 1.037922e+00 1.781198e+00 1.615699e+00 1.351669e+00 1.634484e+00 1.669562e+00 1.513427e+00 1.017219e+00 3.189378e-01
<GCONST> 8.665047e+01
<TRANSP> 5
 0.000000e+00 1.000000e+00 0.000000e+00 0.000000e+00 0.000000e+00
 0.000000e+00 1.326909e-01 8.673092e-01 0.000000e+00 0.000000e+00
 0.000000e+00 0.000000e+00 5.087764e-01 4.912237e-01 0.000000e+00
 0.000000e+00 0.000000e+00 0.000000e+00 7.004986e-01 2.995014e-01
 0.000000e+00 0.000000e+00 0.000000e+00 0.000000e+00 0.000000e+00
<ENDHMM>
~h "ay"
<BEGINHMM>
<NUMSTATES> 5
<STATE> 2
<MEAN> 25
 -1.544258e+00 2.646534e+00 1.585817e+00 4.266977e-01 1.553545e+00 3.736794e+00 1.081485e+00 6.873957e-02 1.734161e+00 1.056890e-01 -1.414386e+00 3.404667e-01 -2.628926e-01 9.082046e-02 1.570361e-01 -1.256824e-03 5.005176e-02 2.898245e-01 2.334307e-01 1.737176e-01 2.496348e-01 1.630431e-01 3.800714e-02 6.556361e-02 -2.070683e-01
<VARIANCE> 25
 1.472544e+01 1.298200e+01 1.530495e+01 1.644158e+01 1.344921e+01 2.544216e+01 2.340638e+01 1.833090e+01 2.811153e+01 1.982237e+01 1.774913e+01 1.473570e+01 1.851720e-01 2.501079e-01 3.579805e-01 4.213428e-01 4.891244e-01 7.563221e-01 8.115034e-01 8.199174e-01 8.975248e-01 8.252143e-01 7.969429e-01 6.775088e-01 9.292111e-02
<GCONST> 7.085625e+01
<STATE> 3
<MEAN> 25
 -1.083584e+00 2.165982e+00 1.534067e+00 -3.780051e-01 1.340886e+00 2.330901e+00 8.240111e-01 -9.060194e-02 9.952575e-01 -3.596886e-01 -1.108036e+00 -5.385213e-01 -8.289459e-02 -7.448748e-02 -6.281708e-02 -6.451547e-02 -3.488988e-02 9.678497e-02 1.325654e-01 -3.074802e-02 3.202511e-03 1.821267e-01 2.377680e-01 4.340804e-02 -3.815607e-02
<VARIANCE> 25
 2.406558e+01 2.293223e+01 2.722364e+01 3.051742e+01 2.516226e+01 4.074454e+01 3.386537e+01 2.433625e+01 3.508735e+01 2.575540e+01 2.526038e+01 1.875741e+01 4.304261e-01 5.529493e-01 7.913448e-01 8.646619e-01 9.004743e-01 1.279996e+00 1.367257e+00 1.249778e+00 1.381803e+00 1.258635e+00 1.289834e+00 9.692858e-01 1.995914e-01
<GCONST> 8.362510e+01
<STATE> 4
<MEAN> 25
 -2.377166e-01 5.032942e-01 -1.197243e-01 -1.234545e+00 4.708572e-01 1.763052e+00 1.059939e+00 -5.459471e-01 -2.413967e-01 2.745217e-01 6.660016e-01 -4.769891e-02 6.667967e-01 -8.206075e-01 -8.463979e-01 -1.990654e-01 -4.508811e-01 -8.775458e-01 -3.300474e-01 -2.870023e-01 -5.726246e-01 8.406922e-02 5.909082e-01 4.493495e-02 7.248116e-01
<VARIANCE> 25
 2.685641e+01 3.248983e+01 4.149692e+01 3.134287e+01 2.954544e+01 4.269835e+01 3.622736e+01 2.615186e+01 3.593500e+01 3.086390e+01 3.037309e+01 1.914835e+01 1.587742e+00 2.180098e+00 2.780321e+00 2.334181e+00 2.170651e+00 3.291076e+00 2.955076e+00 2.764566e+00 3.143468e+00 2.548182e+00 2.860381e+00 1.827974e+00 1.069459e+00
<GCONST> 9.824046e+01
<TRANSP> 5
 0.000000e+00 1.000000e+00 0.000000e+00 0.000000e+00 0.000000e+00
 0.000000e+00 7.375839e-01 2.624161e-01 0.000000e+00 0.000000e+00
 0.000000e+00 0.000000e+00 7.142934e-02 9.285707e-01 0.000000e+00
 0.000000e+00 0.000000e+00 0.000000e+00 4.762814e-01 5.237186e-01
 0.000000e+00 0.000000e+00 0.000000e+00 0.000000e+00 0.000000e+00
<ENDHMM>
~h "ch"
<BEGINHMM>
<NUMSTATES> 5
<STATE> 2
<MEAN> 25
 -1.159874e+00 -2.326223e+00 2.827097e+00 1.225074e+00 -1.737537e+00 -2.595864e-01 1.269500e+00 -2.373964e+00 -1.921174e+00 -4.913665e-01 1.619851e+00 -2.360378e+00 4.046574e-01 -1.037525e+00 -1.042973e-01 6.163072e-02 -5.912955e-01 -8.069322e-01 -1.530673e-01 -4.798687e-01 -1.053346e+00 -2.465558e-01 8.047812e-01 -1.239045e-01 8.292038e-01
<VARIANCE> 25
 3.538356e+01 3.827552e+01 5.671906e+01 3.319027e+01 2.856233e+01 4.970683e+01 5.206488e+01 3.275290e+01 4.149051e+01 3.988573e+01 4.193097e+01 2.433200e+01 2.973379e+00 2.853598e+00 4.714492e+00 2.262856e+00 2.925554e+00 4.975403e+00 5.044487e+00 3.462507e+00 4.302776e+00 3.426718e+00 4.186791e+00 2.386378e+00 1.031567e+00
<GCONST> 1.048049e+02
<STATE> 3
<MEAN> 25
 3.775622e+00 -4.645019e+00 -2.106669e+00 1.714546e+00 -2.175345e+00 -6.902382e+00 -3.657591e+00 -2.432841e+00 -5.960388e+00 -2.716407e+00 2.104791e+00 -7.347445e-01 2.916704e-01 -9.948578e-01 -4.999189e-01 -9.096929e-02 -2.785564e-01 -1.004006e+00 -2.443664e-01 3.060194e-01 -2.110261e-01 5.427231e-01 7.807790e-01 8.810542e-02 6.533728e-01
<VARIANCE> 25
 2.165821e+01 3.252944e+01 4.585813e+01 5.371421e+01 3.875436e+01 7.018011e+01 6.358099e+01 4.818079e+01 5.399548e+01 4.637791e+01 4.303053e+01 2.961890e+01 1.046105e+00 2.281343e+00 2.449389e+00 2.446986e+00 1.660447e+00 5.112891e+00 3.715247e+00 2.891144e+00 3.073090e+00 3.451987e+00 2.932496e+00 2.046350e+00 8.962592e-01
<GCONST> 1.024428e+02
<STATE> 4
<MEAN> 25
 5.354565e+00 -6.243920e+00 -4.744184e+00 1.747669e-01 -4.014976e+00 -9.778464e+00 -3.244827e+00 -3.842924e-01 -5.063637e+00 -1.789012e+00 2.091167e+00 -1.203380e+00 -1.388754e-01 3.654549e-01 1.881476e-01 -2.033372e-02 2.004678e-01 4.338217e-01 1.060252e-01 3.455071e-02 2.696009e-01 -8.255325e-02 -4.329717e-01 -1.603039e-01 -2.338257e-01
<VARIANCE> 25
 1.360693e+01 3.286470e+01 3.712581e+01 5.300921e+01 4.050216e+01 7.308022e+01 6.374701e+01 5.623367e+01 5.708167e+01 4.004881e+01 4.346293e+01 2.827175e+01 2.455634e-01 1.184439e+00 8.578320e-01 9.699659e-01 1.008397e+00 2.556167e+00 1.856758e+00 1.701118e+00 1.800562e+00 1.660719e+00 1.600988e+00 1.148331e+00 4.185409e-01
<GCONST> 9.217191e+01
<TRANSP> 5
 0.000000e+00 1.000000e+00 0.000000e+00 0.000000e+00 0.000000e+00
 0.000000e+00 5.313120e-01 4.686880e-01 0.000000e+00 0.000000e+00
 0.000000e+00 0.000000e+00 3.617376e-01 6.382623e-01 0.000000e+00
 0.000000e+00 0.000000e+00 0.000000e+00 7.349507e-01 2.650494e-01
 0.000000e+00 0.000000e+00 0.000000e+00 0.000000e+00 0.000000e+00
<ENDHMM>
~h "dh"
<BEGINHMM>
<NUMSTATES> 5
<STATE> 2
<MEAN> 25
 2.660774e+00 7.088007e-03 -1.574183e+00 -4.445086e-01 -4.016480e-01 -2.037560e+00 -1.864465e+00 -1.644001e+00 -2.449584e+00 -2.080208e+00 -8.436317e-01 -6.987646e-01 -2.940558e-01 8.563433e-01 6.653984e-01 2.507914e-01 4.493059e-01 9.383399e-01 2.218368e-01 3.310198e-02 4.488012e-01 -2.019114e-01 -7.139326e-01 -2.435191e-01 -5.078313e-01
<VARIANCE> 25
 2.214711e+01 2.640350e+01 3.034872e+01 4.115472e+01 3.321111e+01 5.703909e+01 5.197556e+01 3.716602e+01 5.011215e+01 3.634520e+01 3.149763e+01 2.227822e+01 5.943074e-01 9.401084e-01 8.071382e-01 9.329585e-01 1.099984e+00 2.123692e+00 1.728413e+00 1.905917e+00 2.719697e+00 1.840763e+00 1.727822e+00 1.270857e+00 4.584230e-01
<GCONST> 9.141400e+01
<STATE> 3
<MEAN> 25
 1.559182e+00 2.135593e+00 5.996431e-01 3.342978e-01 7.384176e-01 3.333222e-01 -1.376183e+00 -1.754306e+00 -1.502180e+00 -2.353893e+00 -2.454520e+00 -1.446653e+00 -7.496016e-02 7.973940e-01 6.617106e-01 2.534991e-01 3.167685e-01 5.542225e-01 -5.019592e-02 -2.662322e-01 1.147406e-01 -2.035601e-01 -4.874683e-01 -2.387914e-01 -2.875841e-01
<VARIANCE> 25
 1.936042e+01 2.682482e+01 3.002573e+01 3.545540e+01 2.988705e+01 4.810293e+01 4.159959e+01 3.034756e+01 3.730220e+01 2.878155e+01 3.050554e+01 2.038819e+01 1.038470e+00 8.126506e-01 7.231863e-01 8.218843e-01 8.998156e-01 1.995911e+00 2.383943e+00 2.614548e+00 3.325449e+00 1.945186e+00 1.544178e+00 1.238599e+00 5.033929e-01
<GCONST> 9.054752e+01
<STATE> 4
<MEAN> 25
 1.437513e+00 3.647826e+00 1.779846e+00 6.723159e-01 9.598187e-01 1.165804e+00 -1.360930e+00 -2.048387e+00 -1.317472e+00 -2.431847e+00 -2.902442e+00 -1.478108e+00 -2.721344e-01 3.023086e-01 3.215663e-01 7.204018e-02 1.340571e-01 4.278751e-01 2.218272e-01 8.913181e-02 3.449092e-01 2.378210e-01 3.139454e-02 5.462323e-02 -2.753980e-01
<VARIANCE> 25
 1.425927e+01 2.594423e+01 2.588377e+01 2.979369e+01 2.707762e+01 4.454107e+01 3.671453e+01 2.747248e+01 3.159915e+01 2.393897e+01 2.651954e+01 1.947684e+01 4.333797e-01 5.802066e-01 6.319650e-01 6.889713e-01 7.630579e-01 1.290213e+00 1.362643e+00 1.434845e+00 1.583932e+00 1.145710e+00 1.163978e+00 9.951760e-01 2.356656e-01
<GCONST> 8.313587e+01
<TRANSP> 5
 0.000000e+00 1.000000e+00 0.000000e+00 0.000000e+00 0.000000e+00
 0.000000e+00 2.192683e-01 7.807317e-01 0.000000e+00 0.000000e+00
 0.000000e+00 0.000000e+00 1.330342e-01 8.669658e-01 0.000000e+00
 0.000000e+00 0.000000e+00 0.000000e+00 3.471880e-01 6.528119e-01
 0.000000e+00 0.000000e+00 0.000000e+00 0.000000e+00 0.000000e+00
<ENDHMM>
~h "eh"
<BEGINHMM>
<NUMSTATES> 5
<STATE> 2
<MEAN> 25
 6.075016e-01 1.009108e+00 4.932433e-01 -3.009894e-02 5.326725e-01 1.676208e-01 -6.286500e-01 -1.199618e+00 -7.395214e-01 -6.469352e-01 -6.370040e-01 -6.846716e-01 6.320788e-01 -6.098973e-01 -5.625414e-01 2.689960e-01 -3.052539e-01 -1.079544e+00 -7.435393e-01 -6.374693e-01 -6.814582e-01 3.962069e-03 4.312364e-01 -8.860628e-02 5.418206e-01
<VARIANCE> 25
 2.307833e+01 3.259135e+01 3.221864e+01 3.595495e+01 3.152260e+01 5.568982e+01 4.552030e+01 3.048328e+01 4.417722e+01 3.370118e+01 2.863883e+01 1.895103e+01 1.191421e+00 1.833548e+00 1.663842e+00 1.832917e+00 1.839251e+00 3.623803e+00 3.424322e+00 2.684230e+00 3.407562e+00 2.510239e+00 2.405804e+00 1.738992e+00 7.090999e-01
<GCONST> 9.717832e+01
<STATE> 3
<MEAN> 25
 3.484864e+00 -2.381552e+00 -2.069506e+00 1.581603e+00 -6.590867e-01 -5.796201e+00 -4.956424e+00 -4.039577e+00 -4.132914e+00 -6.345106e-01 1.969369e+00 -6.834383e-01 1.012918e+00 -1.637018e+00 -1.047724e+00 3.389668e-01 -6.971601e-01 -2.349303e+00 -1.200027e+00 -3.670656e-01 -7.039448e-01 4.826890e-01 1.148536e+00 -1.912054e-01 1.276545e+00
<VARIANCE> 25
 1.554645e+01 3.149556e+01 3.034446e+01 4.098325e+01 3.012480e+01 6.509576e+01 5.626789e+01 3.523465e+01 5.293744e+01 4.252643e+01 3.816356e+01 2.376618e+01 1.342531e+00 2.910672e+00 2.283342e+00 2.632847e+00 2.226352e+00 5.764371e+00 4.852297e+00 3.623336e+00 5.252100e+00 4.258980e+00 3.748003e+00 2.459330e+00 1.169730e+00
<GCONST> 1.030302e+02
<STATE> 4
<MEAN> 25
 5.098662e+00 -6.764360e+00 -4.076000e+00 2.066608e+00 -2.813474e+00 -1.135173e+01 -6.921007e+00 -2.696678e+00 -2.332078e+00 2.051345e+00 3.243709e+00 -2.967707e+00 1.292128e-02 3.015007e-02 -5.308330e-02 -9.955403e-02 6.625802e-03 1.640300e-01 9.276195e-02 5.929104e-02 1.208379e-01 7.941332e-03 -1.747603e-01 -8.982664e-02 -1.543234e-02
<VARIANCE> 25
 9.252490e+00 3.594112e+01 2.963179e+01 4.878594e+01 3.009874e+01 5.696618e+01 4.877812e+01 3.082539e+01 3.844660e+01 4.149403e+01 4.103716e+01 2.356187e+01 2.449366e-01 1.054797e+00 7.582042e-01 8.751744e-01 9.537265e-01 1.873129e+00 1.445101e+00 1.371761e+00 1.573193e+00 1.508765e+00 1.363375e+00 1.131088e+00 3.906494e-01
<GCONST> 8.790004e+01
<TRANSP> 5
 0.000000e+00 1.000000e+00 0.000000e+00 0.000000e+00 0.000000e+00
 0.000000e+00 1.069802e-01 8.930199e-01 0.000000e+00 0.000000e+00
 0.000000e+00 0.000000e+00 5.617225e-01 4.382776e-01 0.000000e+00
 0.000000e+00 0.000000e+00 0.000000e+00 7.087026e-01 2.912974e-01
 0.000000e+00 0.000000e+00 0.000000e+00 0.000000e+00 0.000000e+00
<ENDHMM>
~h "el"
<BEGINHMM>
<NUMSTATES> 5
<STATE> 2
<MEAN> 25
 4.261367e+00 3.091209e+00 -1.343372e+00 -1.650921e+00 4.872084e-01 -1.104604e+00 -3.189546e+00 -7.031852e-01 -3.840083e+00 -6.317026e+00 -5.350374e+00 -3.024879e+00 -5.793579e-01 6.090814e-01 5.302130e-01 -5.740987e-03 1.139588e-01 1.488123e+00 6.782131e-01 -3.802119e-01 8.378648e-01 6.620252e-01 1.287375e-01 5.496800e-01 -6.558716e-01
<VARIANCE> 25
 6.050364e+00 7.946691e+00 6.001505e+00 7.772008e+00 1.540223e+01 3.902106e+01 2.391602e+01 1.283207e+01 2.425069e+01 6.443404e+01 2.682609e+01 1.278157e+01 3.834376e-01 5.516223e-01 1.021770e+00 7.426460e-01 6.579986e-01 1.976213e+00 1.413026e+00 5.365252e-01 8.038759e-01 1.876827e+00 1.482415e+00 7.469741e-01 1.483810e-01
<GCONST> 7.574040e+01
<STATE> 3
<MEAN> 25
 1.350556e+00 6.267040e+00 3.401151e+00 3.971783e-01 1.852758e+00 4.986670e+00 -7.056097e-01 -2.508023e+00 1.243861e+00 3.416886e-01 -2.148731e+00 -1.004166e+00 -4.168904e-01 1.552553e-02 3.581009e-01 4.271953e-01 4.943388e-01 5.154640e-01 2.287350e-01 -1.045893e-02 9.653372e-02 1.998680e-01 1.848706e-01 1.896300e-01 -2.655578e-01
<VARIANCE> 25
 5.606954e+00 6.041800e+00 4.698123e+00 7.144224e+00 1.184174e+01 1.622335e+01 1.126933e+01 7.201250e+00 1.005805e+01 1.379261e+01 3.999718e+00 2.767560e+01 4.870477e-02 4.240333e-01 5.022891e-01 3.061164e-01 4.800382e-01 5.555580e-01 6.216092e-01 9.977704e-01 1.348606e+00 1.478614e+00 9.268571e-01 9.508615e-01 2.898633e-02
<GCONST> 6.174807e+01
<STATE> 4
<MEAN> 25
 -3.715125e+00 -1.147444e+00 -4.400045e-01 5.128808e-01 3.573278e+00 8.455578e+00 5.227278e+00 4.779848e-01 9.816276e-01 5.097528e+00 5.192689e+00 2.465021e+00 -1.358555e-01 -1.265818e-01 -2.142981e-02 7.291774e-02 -3.317600e-02 3.066299e-02 1.232406e-01 1.399476e-01 8.288893e-02 5.635250e-02 4.377760e-02 8.017728e-02 -5.596497e-02
<VARIANCE> 25
 3.039786e+00 8.125103e+00 6.240719e+00 3.958226e+00 3.373073e+00 4.615702e+00 4.583070e+00 5.762913e+00 1.128451e+01 1.015729e+01 2.210555e+01 5.301919e+00 8.153377e-02 5.296435e-01 3.206238e-01 5.133039e-01 4.106669e-01 2.969285e-01 4.406742e-01 1.094217e+00 9.914992e-01 5.715222e-01 1.165692e+00 5.905862e-01 3.114294e-02
<GCONST> 5.569440e+01
<TRANSP> 5
 0.000000e+00 1.000000e+00 0.000000e+00 0.000000e+00 0.000000e+00
 0.000000e+00 8.390226e-01 1.609773e-01 0.000000e+00 0.000000e+00
 0.000000e+00 0.000000e+00 8.371629e-01 1.628371e-01 0.000000e+00
 0.000000e+00 0.000000e+00 0.000000e+00 8.932514e-01 1.067486e-01
 0.000000e+00 0.000000e+00 0.000000e+00 0.000000e+00 0.000000e+00
<ENDHMM>
~h "en"
<BEGINHMM>
<NUMSTATES> 5
<STATE> 2
<MEAN> 25
 7.176709e+00 -4.219026e+00 -8.254479e+00 -6.901145e+00 -8.147305e+00 -5.855125e+00 3.733099e+00 4.813237e+00 -3.062408e+00 -3.876953e+00 1.272773e+00 2.161790e+00 3.322684e-03 1.686119e-01 -3.071981e-03 -4.232385e-02 1.331712e-01 2.832707e-01 9.003600e-02 -1.505909e-01 -6.817423e-02 -1.239955e-01 -5.227320e-02 1.084442e-01 -1.174694e-01
<VARIANCE> 25
 7.242006e+00 1.753527e+01 2.767217e+01 1.706379e+01 3.122882e+01 4.261147e+01 3.942578e+01 3.699441e+01 5.164084e+01 3.364643e+01 1.933466e+01 1.979409e+01 9.759615e-02 3.861805e-01 5.890432e-01 4.441709e-01 7.554675e-01 7.241735e-01 1.163691e+00 9.812299e-01 9.344488e-01 8.684957e-01 9.460375e-01 7.328324e-01 9.082545e-02
<GCONST> 7.677099e+01
<STATE> 3
<MEAN> 25
 5.658636e+00 -2.488132e+00 -5.954679e+00 -4.062099e+00 -3.160432e+00 -3.951459e+00 -1.498517e+00 3.016060e-02 -3.764482e+00 -3.877046e+00 -1.853805e-02 2.266791e+00 -2.501658e-02 2.566960e-01 -4.795223e-02 4.646359e-01 9.416656e-01 2.381717e-01 -8.946789e-01 -1.337956e+00 -4.556423e-01 -1.410621e-01 1.172570e-02 1.776611e-01 -2.063375e-01
<VARIANCE> 25
 1.451277e+01 3.147513e+01 3.743904e+01 2.694835e+01 3.323495e+01 5.271404e+01 5.301289e+01 3.437321e+01 5.182119e+01 4.889581e+01 4.399624e+01 2.767922e+01 2.719033e-01 7.860206e-01 1.480796e+00 7.249353e-01 1.670187e+00 2.245638e+00 2.022434e+00 2.347158e+00 1.139168e+00 1.463420e+00 1.326966e+00 1.678548e+00 2.624239e-01
<GCONST> 9.028772e+01
<STATE> 4
<MEAN> 25
 5.398435e+00 -1.391561e+00 -6.142667e+00 -3.788105e+00 -9.056864e-01 -1.621728e+00 -2.322673e+00 -3.150270e+00 -5.340144e+00 -3.271006e+00 1.262201e+00 1.755536e+00 -5.551529e-01 8.866633e-01 7.934432e-01 3.640711e-01 9.074180e-01 9.338679e-01 -1.003614e-01 -4.105946e-01 2.000439e-01 -2.816220e-02 -4.397510e-01 -3.896772e-01 -6.666452e-01
<VARIANCE> 25
 1.054141e+01 2.609360e+01 3.729997e+01 2.251665e+01 2.801108e+01 4.230870e+01 4.725768e+01 2.392248e+01 4.817719e+01 2.967725e+01 4.129893e+01 1.860059e+01 7.373006e-01 9.644840e-01 1.554015e+00 1.332036e+00 1.924074e+00 3.765192e+00 3.127652e+00 2.489386e+00 1.943770e+00 2.529993e+00 2.820896e+00 1.166821e+00 4.668705e-01
<GCONST> 9.275615e+01
<TRANSP> 5
 0.000000e+00 1.000000e+00 0.000000e+00 0.000000e+00 0.000000e+00
 0.000000e+00 7.826527e-01 2.173473e-01 0.000000e+00 0.000000e+00
 0.000000e+00 0.000000e+00 2.166354e-01 7.833647e-01 0.000000e+00
 0.000000e+00 0.000000e+00 0.000000e+00 6.303990e-01 3.696010e-01
 0.000000e+00 0.000000e+00 0.000000e+00 0.000000e+00 0.000000e+00
<ENDHMM>
~h "er"
<BEGINHMM>
<NUMSTATES> 5
<STATE> 2
<MEAN> 25
 1.252589e-01 9.572075e-01 5.431460e-01 -2.986596e-02 6.705883e-01 1.012087e+00 5.432124e-01 -1.856147e+00 -1.106233e+00 -8.555839e-01 -5.301971e-01 -1.553416e+00 1.302106e+00 -3.796036e-01 -7.534854e-01 -2.915972e-01 -1.130392e+00 -1.738266e+00 -7.989825e-01 -5.902605e-01 -1.603630e+00 -7.652354e-01 1.752476e-01 6.506798e-02 8.837625e-01
<VARIANCE> 25
 2.005118e+01 2.594014e+01 2.699417e+01 3.433527e+01 3.284828e+01 4.692511e+01 4.733825e+01 3.082928e+01 3.750401e+01 3.024497e+01 3.340426e+01 1.982541e+01 1.695930e+00 2.083222e+00 1.978186e+00 2.820957e+00 3.652464e+00 4.359214e+00 4.590112e+00 3.887789e+00 4.025251e+00 2.765589e+00 3.501425e+00 2.160519e+00 8.569028e-01
<GCONST> 1.000982e+02
<STATE> 3
<MEAN> 25
 5.440596e+00 -1.220562e+00 -3.323903e+00 -2.085895e+00 -4.717872e+00 -6.916629e+00 -2.135456e+00 -1.995129e+00 -7.032110e+00 -3.522433e+00 1.919509e+00 8.638287e-01 9.464730e-01 -1.314958e+00 -1.216449e+00 -8.982559e-01 -1.533711e+00 -1.805398e+00 2.865043e-01 8.269432e-01 -9.542755e-01 8.440294e-03 1.318834e+00 8.441089e-01 1.156764e+00
<VARIANCE> 25
 8.814941e+00 2.801792e+01 2.446260e+01 3.878159e+01 4.799540e+01 4.408943e+01 5.658030e+01 4.774478e+01 4.649627e+01 3.747852e+01 3.800826e+01 2.206073e+01 1.076856e+00 2.129491e+00 1.932179e+00 2.184748e+00 2.813452e+00 4.678158e+00 4.084020e+00 3.164003e+00 4.343410e+00 3.234865e+00 2.981595e+00 2.029947e+00 9.080003e-01
<GCONST> 9.981781e+01
<STATE> 4
<MEAN> 25
 6.698432e+00 -3.646022e+00 -6.478430e+00 -7.078272e+00 -9.341784e+00 -7.199639e+00 3.316956e+00 2.563108e+00 -7.168068e+00 -3.758183e+00 2.902869e+00 2.330532e+00 -6.256840e-02 1.175872e-01 -3.271061e-03 -5.953414e-03 2.680225e-01 3.694383e-01 -6.913211e-02 -1.189227e-01 1.517896e-01 -1.902021e-02 -1.970248e-01 -3.404041e-02 -1.059750e-01
<VARIANCE> 25
 5.248424e+00 2.768475e+01 2.186933e+01 2.330628e+01 3.693467e+01 3.879508e+01 5.077356e+01 4.060836e+01 4.305797e+01 3.445563e+01 3.226793e+01 2.206661e+01 2.006377e-01 1.116007e+00 7.452550e-01 7.913266e-01 1.361481e+00 1.881592e+00 2.139246e+00 1.681783e+00 1.496256e+00 1.644867e+00 1.608925e+00 1.113246e+00 4.248925e-01
<GCONST> 8.675266e+01
<TRANSP> 5
 0.000000e+00 1.000000e+00 0.000000e+00 0.000000e+00 0.000000e+00
 0.000000e+00 4.819453e-01 5.180547e-01 0.000000e+00 0.000000e+00
 0.000000e+00 0.000000e+00 5.111745e-01 4.888255e-01 0.000000e+00
 0.000000e+00 0.000000e+00 0.000000e+00 8.605980e-01 1.394020e-01
 0.000000e+00 0.000000e+00 0.000000e+00 0.000000e+00 0.000000e+00
<ENDHMM>
~h "ey"
<BEGINHMM>
<NUMSTATES> 5
<STATE> 2
<MEAN> 25
 -4.538780e-01 8.028129e-01 1.195146e+00 8.917385e-01 1.499303e+00 1.475313e+00 5.833637e-01 -1.973207e+00 -1.062650e+00 -5.216475e-01 -1.459786e-01 -1.175623e+00 9.596129e-01 -8.118677e-01 -5.381997e-01 8.184855e-01 -7.475922e-03 -1.700081e+00 -1.724895e+00 -1.443711e+00 -1.385602e+00 -4.855680e-01 1.489991e-01 -4.049519e-01 8.642264e-01
<VARIANCE> 25
 2.086416e+01 3.098856e+01 2.756573e+01 3.224998e+01 2.517650e+01 4.541399e+01 3.741525e+01 2.995987e+01 4.063606e+01 3.260982e+01 2.845147e+01 1.909505e+01 1.606812e+00 2.818609e+00 2.223909e+00 2.061620e+00 1.842037e+00 4.358932e+00 5.039272e+00 3.520869e+00 4.369057e+00 2.919721e+00 3.966573e+00 1.948257e+00 1.078315e+00
<GCONST> 9.941783e+01
<STATE> 3
<MEAN> 25
 3.937397e+00 -2.959231e+00 -9.556736e-01 4.898975e+00 1.492444e+00 -7.891726e+00 -9.198872e+00 -6.669410e+00 -5.390696e+00 -1.895392e+00 3.884698e-01 -2.401252e+00 5.772768e-01 -1.293271e+00 -2.898568e-01 9.197557e-01 -3.374129e-01 -2.629322e+00 -1.776792e+00 -2.208281e-02 -2.139898e-02 2.490578e-01 1.910602e-01 -4.362958e-01 9.318626e-01
<VARIANCE> 25
 9.551370e+00 2.489004e+01 2.235765e+01 3.587300e+01 2.438832e+01 5.660131e+01 5.149661e+01 3.769274e+01 4.013037e+01 3.226435e+01 3.438891e+01 2.313490e+01 9.766023e-01 2.404898e+00 1.627296e+00 2.363539e+00 1.658864e+00 5.422914e+00 4.764826e+00 3.363614e+00 3.486129e+00 3.197005e+00 2.894305e+00 1.931748e+00 9.264280e-01
<GCONST> 9.797925e+01
<STATE> 4
<MEAN> 25
 3.797797e+00 -5.330482e+00 6.223528e-01 8.603338e+00 -1.129428e-02 -1.460129e+01 -1.129545e+01 -3.511964e+00 -2.147360e+00 -2.046905e+00 -3.057084e+00 -4.491504e+00 -9.776637e-02 2.799966e-01 6.396602e-02 -1.190550e-01 1.574634e-02 3.397263e-01 2.304598e-01 1.887127e-01 2.348241e-01 -4.579318e-02 -2.576914e-01 5.268577e-02 -2.126073e-01
<VARIANCE> 25
 4.936747e+00 2.563418e+01 1.775211e+01 2.871214e+01 1.754449e+01 4.889390e+01 3.219677e+01 2.564240e+01 2.828766e+01 3.200606e+01 2.930937e+01 1.688232e+01 1.774911e-01 7.371767e-01 6.064926e-01 8.052937e-01 7.397261e-01 2.068068e+00 1.180101e+00 1.228260e+00 1.213281e+00 1.241160e+00 1.109977e+00 9.409371e-01 2.501196e-01
<GCONST> 8.061739e+01
<TRANSP> 5
 0.000000e+00 1.000000e+00 0.000000e+00 0.000000e+00 0.000000e+00
 0.000000e+00 4.636806e-01 5.363194e-01 0.000000e+00 0.000000e+00
 0.000000e+00 0.000000e+00 5.326002e-01 4.673998e-01 0.000000e+00
 0.000000e+00 0.000000e+00 0.000000e+00 8.561147e-01 1.438853e-01
 0.000000e+00 0.000000e+00 0.000000e+00 0.000000e+00 0.000000e+00
<ENDHMM>
~h "hh"
<BEGINHMM>
<NUMSTATES> 5
<STATE> 2
<MEAN> 25
 1.080061e+00 2.954311e+00 9.811369e-01 8.549232e-01 1.404179e+00 1.732691e+00 -6.752529e-01 -1.658433e+00 -6.936169e-01 -1.670634e+00 -2.432841e+00 -1.099748e+00 -5.391636e-01 1.974313e-01 3.344575e-01 5.731209e-02 2.359940e-01 7.616676e-01 5.769190e-01 4.518534e-01 6.852678e-01 3.714589e-01 -4.966151e-02 2.381729e-02 -4.326600e-01
<VARIANCE> 25
 1.122547e+01 1.147824e+01 1.489668e+01 2.097109e+01 1.841555e+01 2.627761e+01 2.722866e+01 1.925595e+01 2.912883e+01 2.571511e+01 2.589956e+01 2.001069e+01 2.087104e-01 4.054337e-01 4.592485e-01 6.258886e-01 6.973214e-01 1.004863e+00 1.035749e+00 9.555000e-01 1.198457e+00 1.043937e+00 1.058515e+00 9.275959e-01 1.219123e-01
<GCONST> 7.588203e+01
<STATE> 3
<MEAN> 25
 -1.683721e+00 1.460470e+00 1.335469e+00 7.408407e-01 2.186688e+00 3.925944e+00 1.999588e+00 3.845187e-01 2.201531e+00 1.611294e+00 -4.334424e-01 -9.331286e-01 -3.397512e-01 -1.509053e-01 -3.811599e-02 1.371581e-02 7.291819e-03 3.008863e-01 4.226576e-01 3.854661e-01 5.070648e-01 4.439369e-01 2.792260e-01 1.968345e-01 -2.162833e-01
<VARIANCE> 25
 1.317009e+01 1.777873e+01 1.996120e+01 2.355005e+01 1.703448e+01 2.561061e+01 2.554296e+01 1.961442e+01 2.702402e+01 2.523201e+01 2.551418e+01 1.994000e+01 2.402235e-01 5.633181e-01 7.019928e-01 7.737634e-01 7.881783e-01 1.096027e+00 1.187878e+00 1.164174e+00 1.354338e+00 1.335795e+00 1.406317e+00 1.140422e+00 1.482179e-01
<GCONST> 7.933103e+01
<STATE> 4
<MEAN> 25
 -4.077519e+00 1.909475e+00 1.785590e+00 3.996306e-01 1.474660e+00 5.190561e+00 2.774845e+00 2.071465e+00 4.691523e+00 2.828013e+00 -1.108598e-01 1.637902e+00 -3.673773e-02 -2.859030e-02 1.664496e-03 8.320144e-03 -2.956471e-02 -1.866169e-02 2.758410e-02 2.673368e-02 1.806787e-02 2.345939e-02 2.699642e-02 1.170559e-02 -1.790607e-02
<VARIANCE> 25
 4.372447e+00 8.458061e+00 7.527988e+00 7.347415e+00 7.211938e+00 1.391920e+01 1.106571e+01 9.211288e+00 1.366327e+01 9.691254e+00 9.399961e+00 8.106900e+00 7.529598e-02 1.783397e-01 2.525686e-01 3.478341e-01 4.052192e-01 5.333201e-01 5.886530e-01 6.368228e-01 6.808926e-01 6.555152e-01 6.732270e-01 5.931660e-01 3.576837e-02
<GCONST> 5.771202e+01
<TRANSP> 5
 0.000000e+00 1.000000e+00 0.000000e+00 0.000000e+00 0.000000e+00
 0.000000e+00 6.568807e-01 3.431193e-01 0.000000e+00 0.000000e+00
 0.000000e+00 0.000000e+00 3.047495e-01 6.952505e-01 0.000000e+00
 0.000000e+00 0.000000e+00 0.000000e+00 9.170026e-01 8.299740e-02
 0.000000e+00 0.000000e+00 0.000000e+00 0.000000e+00 0.000000e+00
<ENDHMM>
~h "ih"
<BEGINHMM>
<NUMSTATES> 5
<STATE> 2
<MEAN> 25
 -2.701894e-01 9.025577e-01 8.372744e-01 -5.057532e-01 1.018436e+00 9.240250e-01 1.036940e-01 -4.626093e-01 3.165901e-03 -3.592027e-01 -4.072635e-01 -7.977772e-01 5.208660e-02 -1.202304e-01 -5.500998e-02 1.770694e-01 5.096772e-02 -2.293256e-01 -1.975695e-01 -3.057590e-01 -1.278111e-01 7.484819e-02 8.673754e-02 -1.463215e-01 9.235624e-02
<VARIANCE> 25
 2.855485e+01 3.403895e+01 3.399355e+01 4.138776e+01 3.250213e+01 5.406499e+01 4.377476e+01 2.986183e+01 3.961887e+01 2.953775e+01 3.178767e+01 2.122022e+01 7.410682e-01 1.153007e+00 1.292354e+00 1.417954e+00 1.329543e+00 2.405139e+00 2.288504e+00 1.934193e+00 2.236160e+00 1.844766e+00 1.835536e+00 1.308003e+00 4.884639e-01
<GCONST> 9.297643e+01
<STATE> 3
<MEAN> 25
 1.063334e+00 -2.457076e-01 -1.969319e-01 9.228389e-01 4.783397e-01 -1.268052e+00 -1.694006e+00 -2.106675e+00 -1.611465e+00 -8.811843e-01 -1.555350e-01 -1.060968e+00 8.138075e-01 -8.471128e-01 -4.810466e-01 5.883762e-01 -2.131161e-01 -1.672909e+00 -1.318982e+00 -9.417570e-01 -1.094316e+00 -2.898016e-01 3.608998e-01 -3.186684e-01 8.372977e-01
<VARIANCE> 25
 2.080196e+01 3.130799e+01 2.982796e+01 3.971848e+01 2.936683e+01 5.594333e+01 4.930882e+01 3.355902e+01 4.773903e+01 3.690992e+01 3.032884e+01 2.216764e+01 1.576432e+00 2.915186e+00 2.147670e+00 2.606296e+00 2.135753e+00 6.170738e+00 5.277154e+00 3.404316e+00 4.233759e+00 3.096276e+00 3.491713e+00 2.068978e+00 1.323513e+00
<GCONST> 1.018492e+02
<STATE> 4
<MEAN> 25
 3.459447e+00 -3.863163e+00 -1.197991e+00 4.296720e+00 2.211805e-01 -8.393020e+00 -7.569329e+00 -4.209834e+00 -3.764853e+00 -1.306898e+00 1.953383e-01 -2.934819e+00 1.534740e-01 -7.640788e-02 -8.787030e-02 3.236689e-02 -4.786378e-03 -2.512065e-01 -2.181484e-01 -1.630288e-01 -1.784256e-01 -2.136979e-02 3.588955e-02 -8.569612e-02 1.240705e-01
<VARIANCE> 25
 1.340315e+01 3.401856e+01 2.577925e+01 4.915142e+01 2.765653e+01 7.510997e+01 5.872113e+01 3.383583e+01 4.423903e+01 3.325474e+01 3.685517e+01 2.434943e+01 8.736734e-01 1.937809e+00 1.384379e+00 1.654637e+00 1.469276e+00 4.378157e+00 3.092717e+00 2.327097e+00 2.944568e+00 2.284420e+00 2.484787e+00 1.668472e+00 9.256984e-01
<GCONST> 9.698161e+01
<TRANSP> 5
 0.000000e+00 1.000000e+00 0.000000e+00 0.000000e+00 0.000000e+00
 0.000000e+00 2.125551e-01 7.874449e-01 0.000000e+00 0.000000e+00
 0.000000e+00 0.000000e+00 3.419885e-01 6.580115e-01 0.000000e+00
 0.000000e+00 0.000000e+00 0.000000e+00 5.453855e-01 4.546145e-01
 0.000000e+00 0.000000e+00 0.000000e+00 0.000000e+00 0.000000e+00
<ENDHMM>
~h "iy"
<BEGINHMM>
<NUMSTATES> 5
<STATE> 2
<MEAN> 25
 -6.877393e-01 -2.926455e-01 5.994630e-01 9.552309e-01 1.450989e+00 1.000063e+00 6.003640e-01 -8.034314e-01 1.715812e-01 4.300049e-01 3.165592e-01 -9.389140e-01 5.438084e-01 -3.331380e-01 1.922761e-02 8.885071e-01 1.632241e-01 -1.032497e+00 -1.077844e+00 -9.170504e-01 -9.370173e-01 -6.223466e-01 -4.629272e-01 -6.335291e-01 4.280276e-01
<VARIANCE> 25
 2.522305e+01 3.805328e+01 3.154666e+01 3.885832e+01 2.874773e+01 4.638092e+01 4.128175e+01 2.800632e+01 3.664814e+01 2.915508e+01 3.104478e+01 1.875616e+01 1.295680e+00 2.414122e+00 1.891747e+00 1.906634e+00 1.588497e+00 3.241136e+00 3.664861e+00 2.951863e+00 3.254267e+00 2.845113e+00 3.422199e+00 1.747516e+00 7.723937e-01
<GCONST> 9.771324e+01
<STATE> 3
<MEAN> 25
 2.657618e+00 -1.670453e+00 3.778907e-01 5.709470e+00 2.481703e+00 -5.689841e+00 -6.682492e+00 -4.941860e+00 -4.227668e+00 -3.133207e+00 -2.239854e+00 -3.658185e+00 7.279979e-01 -7.888672e-01 7.048446e-02 1.458919e+00 -4.513051e-02 -2.647855e+00 -1.923698e+00 -1.149485e-01 -5.788236e-01 -8.600768e-01 -5.670062e-01 -6.557739e-01 7.415463e-01
<VARIANCE> 25
 1.190427e+01 2.354556e+01 2.855417e+01 4.318745e+01 2.703579e+01 5.731071e+01 5.107360e+01 3.244828e+01 3.462690e+01 2.962138e+01 3.019949e+01 2.499675e+01 1.250749e+00 2.855603e+00 1.620968e+00 2.823665e+00 1.599406e+00 5.662673e+00 4.938663e+00 3.774494e+00 3.880894e+00 3.487358e+00 3.495432e+00 2.181050e+00 8.483890e-01
<GCONST> 9.941340e+01
<STATE> 4
<MEAN> 25
 2.613096e+00 -3.108225e+00 3.389272e+00 1.071832e+01 1.026170e+00 -1.346459e+01 -9.275288e+00 -1.188129e+00 -3.225234e+00 -6.425653e+00 -5.819558e+00 -4.973010e+00 -9.783419e-02 2.700057e-01 7.295607e-02 -2.178391e-01 -2.883935e-02 3.558159e-01 1.939003e-01 1.026138e-01 1.737310e-01 1.136201e-02 -1.261886e-01 1.351396e-01 -1.745863e-01
<VARIANCE> 25
 5.131362e+00 2.047849e+01 1.851574e+01 3.302214e+01 1.803321e+01 4.706292e+01 2.802116e+01 2.516190e+01 2.748138e+01 2.716590e+01 2.194003e+01 1.817729e+01 2.108878e-01 7.435004e-01 7.679833e-01 1.003694e+00 9.233558e-01 2.470585e+00 1.525078e+00 1.643754e+00 1.409401e+00 1.481949e+00 1.239201e+00 1.084029e+00 2.437345e-01
<GCONST> 8.217405e+01
<TRANSP> 5
 0.000000e+00 1.000000e+00 0.000000e+00 0.000000e+00 0.000000e+00
 0.000000e+00 3.604733e-01 6.395267e-01 0.000000e+00 0.000000e+00
 0.000000e+00 0.000000e+00 5.134158e-01 4.865842e-01 0.000000e+00
 0.000000e+00 0.000000e+00 0.000000e+00 8.559194e-01 1.440806e-01
 0.000000e+00 0.000000e+00 0.000000e+00 0.000000e+00 0.000000e+00
<ENDHMM>
~h "jh"
<BEGINHMM>
<NUMSTATES> 5
<STATE> 2
<MEAN> 25
 2.278820e+00 2.870759e+00 3.483728e-01 1.009290e+00 2.118505e+00 5.459782e-01 -3.477272e+00 -4.355528e+00 -2.598038e+00 -2.389492e+00 -2.524020e+00 -1.166308e+00 -5.117223e-01 4.447876e-01 5.743809e-01 1.725913e-01 2.811498e-01 8.488588e-01 6.132404e-01 3.914722e-01 5.122771e-01 1.930559e-01 -2.004167e-01 -7.457869e-02 -4.837795e-01
<VARIANCE> 25
 1.201430e+01 1.447933e+01 1.442177e+01 2.272568e+01 1.809509e+01 3.160122e+01 4.273895e+01 3.905597e+01 3.933767e+01 2.301075e+01 2.215835e+01 1.808754e+01 3.032243e-01 4.726059e-01 4.286250e-01 6.094993e-01 6.403117e-01 1.234316e+00 1.612311e+00 1.369395e+00 1.273322e+00 1.105672e+00 9.708191e-01 1.004271e+00 1.980744e-01
<GCONST> 7.943781e+01
<STATE> 3
<MEAN> 25
 -1.868311e-01 3.030298e+00 2.336316e+00 2.225173e-01 2.564224e+00 3.034813e+00 -2.643206e-01 -1.535982e+00 -5.312304e-01 -1.574859e+00 -1.687957e+00 -1.326729e+00 -6.617405e-01 -2.926735e-01 9.082457e-01 -2.548468e-02 -3.001543e-01 3.703188e-01 8.562585e-01 3.170263e-01 2.661073e-01 4.297805e-01 6.331804e-01 -2.555040e-01 -7.277310e-03
<VARIANCE> 25
 1.534918e+01 1.976407e+01 2.145144e+01 3.452716e+01 1.935448e+01 3.578954e+01 3.504837e+01 2.550218e+01 3.371843e+01 2.737335e+01 2.249128e+01 1.843928e+01 1.113748e+00 1.274798e+00 1.735590e+00 1.668072e+00 1.596284e+00 1.963788e+00 3.191792e+00 2.889246e+00 2.674945e+00 1.762506e+00 1.796091e+00 1.217928e+00 3.211485e-01
<GCONST> 9.043594e+01
<STATE> 4
<MEAN> 25
 -2.283245e+00 -3.039950e+00 6.522517e+00 2.751250e+00 -1.430575e+00 1.939695e+00 2.266229e+00 -2.551172e+00 -2.042988e+00 4.268864e-01 3.182146e+00 -3.302433e+00 5.485623e-03 -8.605495e-01 9.896147e-02 7.775199e-02 -4.482626e-01 -5.845832e-01 -1.779168e-01 -3.857303e-01 -4.883825e-01 9.213779e-02 5.788652e-01 -7.287751e-02 4.939369e-01
<VARIANCE> 25
 2.245666e+01 3.242048e+01 4.495047e+01 4.000742e+01 2.730603e+01 4.479451e+01 6.341563e+01 4.219008e+01 3.036764e+01 2.802901e+01 2.979727e+01 2.025194e+01 2.728726e+00 2.977184e+00 4.739530e+00 2.553787e+00 2.752323e+00 3.528761e+00 6.772139e+00 4.615082e+00 3.103217e+00 2.476811e+00 3.487256e+00 2.541687e+00 6.403058e-01
<GCONST> 1.022617e+02
<TRANSP> 5
 0.000000e+00 1.000000e+00 0.000000e+00 0.000000e+00 0.000000e+00
 0.000000e+00 6.806620e-01 3.193380e-01 0.000000e+00 0.000000e+00
 0.000000e+00 0.000000e+00 3.727035e-01 6.272965e-01 0.000000e+00
 0.000000e+00 0.000000e+00 0.000000e+00 6.571965e-01 3.428035e-01
 0.000000e+00 0.000000e+00 0.000000e+00 0.000000e+00 0.000000e+00
<ENDHMM>
~h "ng"
<BEGINHMM>
<NUMSTATES> 5
<STATE> 2
<MEAN> 25
 9.177278e-01 -2.546128e-02 8.189821e-01 2.726339e-01 1.125246e+00 -1.942101e+00 -2.326046e+00 -4.180496e+00 -3.403182e+00 -8.582690e-01 2.565516e-01 -1.956800e+00 1.079219e+00 -6.461105e-01 -6.574795e-01 5.762118e-01 -2.505592e-01 -1.542364e+00 -1.499219e+00 -1.005797e+00 -1.326782e+00 -4.720477e-01 2.436692e-01 9.040530e-02 7.134870e-01
<VARIANCE> 25
 2.532240e+01 2.427154e+01 3.227317e+01 4.528579e+01 3.689391e+01 4.860832e+01 4.981143e+01 4.039953e+01 4.814960e+01 3.596400e+01 3.067276e+01 2.207310e+01 2.020973e+00 2.636701e+00 2.178630e+00 2.774588e+00 2.401922e+00 5.586193e+00 6.021749e+00 3.764211e+00 5.580387e+00 3.783816e+00 4.203550e+00 2.449002e+00 1.293562e+00
<GCONST> 1.035574e+02
<STATE> 3
<MEAN> 25
 4.894871e+00 -3.554210e+00 -2.976962e+00 1.721667e+00 -8.024558e-01 -8.163009e+00 -6.614587e+00 -5.097382e+00 -6.795769e+00 -1.760743e+00 2.658274e+00 -5.474633e-01 4.968867e-01 -1.313528e+00 -7.563600e-01 2.627745e-01 -3.306434e-01 -1.541323e+00 -6.172241e-01 3.463153e-01 3.774505e-02 6.572388e-01 7.953825e-01 -1.163897e-02 8.065724e-01
<VARIANCE> 25
 1.034058e+01 2.545436e+01 2.431116e+01 3.858907e+01 3.576082e+01 5.316185e+01 6.367380e+01 4.378896e+01 5.198644e+01 4.113268e+01 3.991103e+01 2.787548e+01 9.395244e-01 2.148059e+00 1.969410e+00 3.022354e+00 2.250425e+00 6.039283e+00 4.232204e+00 3.117007e+00 3.748281e+00 3.371319e+00 3.088500e+00 2.665978e+00 8.801870e-01
<GCONST> 1.007215e+02
<STATE> 4
<MEAN> 25
 4.657649e+00 -5.531795e+00 -2.245257e+00 5.153353e+00 -8.321686e-01 -1.247881e+01 -8.208787e+00 -2.699859e+00 -3.036542e+00 -9.087871e-01 -8.096043e-01 -3.826528e+00 -1.373314e-01 4.771367e-01 1.839696e-01 -9.072372e-02 6.661049e-02 4.832847e-01 2.662843e-01 3.137565e-01 3.438572e-01 -2.900595e-01 -6.249658e-01 -2.075496e-02 -3.296101e-01
<VARIANCE> 25
 6.855357e+00 2.722405e+01 2.457525e+01 4.431660e+01 2.095581e+01 5.786226e+01 4.662716e+01 3.121613e+01 4.116113e+01 3.750602e+01 5.110624e+01 2.661730e+01 2.069106e-01 1.057905e+00 6.878788e-01 1.199403e+00 9.129690e-01 2.559205e+00 1.469166e+00 1.457965e+00 1.602223e+00 1.565534e+00 1.511824e+00 1.172271e+00 3.084317e-01
<GCONST> 8.732472e+01
<TRANSP> 5
 0.000000e+00 1.000000e+00 0.000000e+00 0.000000e+00 0.000000e+00
 0.000000e+00 2.843170e-01 7.156830e-01 0.000000e+00 0.000000e+00
 0.000000e+00 0.000000e+00 4.382880e-01 5.617120e-01 0.000000e+00
 0.000000e+00 0.000000e+00 0.000000e+00 8.043737e-01 1.956263e-01
 0.000000e+00 0.000000e+00 0.000000e+00 0.000000e+00 0.000000e+00
<ENDHMM>
~h "ow"
<BEGINHMM>
<NUMSTATES> 5
<STATE> 2
<MEAN> 25
 2.535286e+00 -9.257140e-02 -2.802916e-01 2.035565e+00 7.202480e-01 -3.477786e+00 -4.045077e+00 -2.574651e+00 -1.921121e+00 -1.769350e+00 -1.187476e+00 -1.467907e+00 -2.743726e-01 5.810691e-01 4.666716e-01 1.426264e-01 2.711063e-01 6.440448e-01 2.077043e-01 1.337366e-01 3.465874e-01 -9.798681e-02 -4.736771e-01 -6.291040e-02 -4.205894e-01
<VARIANCE> 25
 1.805482e+01 2.708726e+01 2.520526e+01 4.164001e+01 2.828766e+01 6.697563e+01 5.093061e+01 2.790210e+01 3.387183e+01 2.871496e+01 3.297974e+01 2.384828e+01 4.587469e-01 7.524758e-01 7.985299e-01 1.038141e+00 1.181210e+00 2.452534e+00 1.662364e+00 1.511418e+00 1.799952e+00 1.603032e+00 1.469798e+00 1.132607e+00 3.496222e-01
<GCONST> 8.870121e+01
<STATE> 3
<MEAN> 25
 1.496393e+00 2.540251e+00 1.564507e+00 1.023680e+00 8.039293e-02 -1.335177e+00 -2.297105e+00 -1.528504e+00 -1.057140e+00 -2.591192e+00 -3.159199e+00 -1.944026e+00 -3.639205e-01 3.325388e-01 3.154919e-01 -4.442891e-02 9.740133e-02 6.873080e-01 4.707849e-01 3.341648e-01 5.232379e-01 2.939800e-01 -7.096608e-02 3.020142e-02 -3.732676e-01
<VARIANCE> 25
 1.712602e+01 2.244938e+01 2.078819e+01 4.118156e+01 3.748791e+01 5.408739e+01 3.792194e+01 2.440770e+01 3.230540e+01 2.866850e+01 2.886073e+01 2.129201e+01 3.275584e-01 4.425702e-01 5.702927e-01 8.027179e-01 9.736375e-01 1.578463e+00 1.271374e+00 1.261935e+00 1.459639e+00 1.241700e+00 1.087268e+00 1.013398e+00 1.884078e-01
<GCONST> 8.356044e+01
<STATE> 4
<MEAN> 25
 -1.655594e+00 2.876426e+00 2.386611e+00 9.486997e-01 1.445154e+00 3.558985e+00 1.127737e+00 5.259948e-01 2.075836e+00 2.491598e-01 -1.844472e+00 -3.416443e-01 -1.944408e-01 -1.413658e-02 4.383139e-02 -1.748991e-02 1.740774e-02 1.801882e-01 1.752119e-01 1.121561e-01 1.803149e-01 1.837790e-01 1.191554e-01 6.273507e-02 -1.327174e-01
<VARIANCE> 25
 1.430907e+01 1.268594e+01 1.101219e+01 1.707612e+01 1.793265e+01 3.015171e+01 2.066430e+01 1.753919e+01 2.538106e+01 1.949166e+01 1.790128e+01 1.537768e+01 1.833260e-01 2.561940e-01 3.668954e-01 4.907536e-01 6.012598e-01 7.516633e-01 7.883074e-01 8.013111e-01 8.860334e-01 8.254696e-01 8.309657e-01 7.445476e-01 7.785151e-02
<GCONST> 7.102022e+01
<TRANSP> 5
 0.000000e+00 1.000000e+00 0.000000e+00 0.000000e+00 0.000000e+00
 0.000000e+00 3.598895e-01 6.401105e-01 0.000000e+00 0.000000e+00
 0.000000e+00 0.000000e+00 2.987644e-01 7.012357e-01 0.000000e+00
 0.000000e+00 0.000000e+00 0.000000e+00 7.540919e-01 2.459081e-01
 0.000000e+00 0.000000e+00 0.000000e+00 0.000000e+00 0.000000e+00
<ENDHMM>
~h "oy"
<BEGINHMM>
<NUMSTATES> 5
<STATE> 2
<MEAN> 25
 -1.592164e+00 1.866722e+00 2.601277e+00 -6.014299e-02 2.225752e+00 2.897878e+00 1.007072e+00 -1.121237e+00 2.873308e-01 1.331704e-02 -7.410960e-01 -1.317028e+00 1.203958e+00 -8.305995e-01 -1.270479e+00 -6.272397e-01 -1.013710e+00 -1.565069e+00 -4.858330e-01 -3.324981e-01 -1.409229e+00 -7.463651e-01 1.875653e-01 7.071195e-02 1.013488e+00
<VARIANCE> 25
 2.558420e+01 2.773470e+01 3.917812e+01 3.981295e+01 3.219173e+01 3.384516e+01 3.100604e+01 2.333615e+01 3.707126e+01 2.757332e+01 2.912716e+01 1.961650e+01 2.432290e+00 2.423442e+00 3.410177e+00 2.973866e+00 4.397164e+00 4.910160e+00 4.777114e+00 3.374977e+00 5.854754e+00 3.319733e+00 3.636860e+00 2.461529e+00 1.321014e+00
<GCONST> 1.020999e+02
<STATE> 3
<MEAN> 25
 6.169983e+00 -5.089357e-01 -3.663774e+00 -3.572146e+00 -7.804470e+00 -9.368134e+00 -6.813722e-01 1.442155e+00 -5.600855e+00 -5.029444e+00 6.003752e-01 1.002777e+00 9.322107e-01 -1.278162e+00 -1.096973e+00 -1.066737e+00 -1.755679e+00 -1.761138e+00 2.843638e-01 1.225736e+00 -3.969454e-01 1.124386e-03 8.241379e-01 5.505394e-01 1.231972e+00
<VARIANCE> 25
 8.132056e+00 2.952293e+01 2.445510e+01 3.882492e+01 6.105780e+01 5.745295e+01 5.027310e+01 6.148668e+01 4.388651e+01 3.837557e+01 2.702316e+01 2.448215e+01 1.309384e+00 2.107963e+00 2.128419e+00 2.502328e+00 3.640772e+00 9.106190e+00 4.815658e+00 3.763041e+00 3.794902e+00 3.778095e+00 2.344551e+00 1.787267e+00 8.800884e-01
<GCONST> 1.014606e+02
<STATE> 4
<MEAN> 25
 6.992847e+00 -7.039526e+00 -7.404437e+00 -5.936584e+00 -8.896423e+00 -7.846871e+00 3.220374e-02 2.923775e+00 -3.423823e+00 -1.086861e+00 2.366077e+00 1.446420e+00 -4.384591e-02 -1.306032e-01 -2.299212e-02 4.792010e-01 5.747653e-01 4.113113e-02 -4.497971e-01 -4.633053e-01 1.280470e-01 1.881914e-01 -9.181746e-02 -2.897950e-01 -4.510355e-02
<VARIANCE> 25
 6.726756e+00 2.732693e+01 2.419544e+01 4.842672e+01 5.159996e+01 5.660824e+01 5.977662e+01 5.145276e+01 3.587557e+01 4.164457e+01 2.715829e+01 2.748623e+01 2.913474e-01 1.411703e+00 1.121507e+00 1.426784e+00 1.496018e+00 3.269096e+00 2.614396e+00 1.987400e+00 1.749416e+00 2.357832e+00 2.145865e+00 1.343515e+00 5.382923e-01
<GCONST> 9.283599e+01
<TRANSP> 5
 0.000000e+00 1.000000e+00 0.000000e+00 0.000000e+00 0.000000e+00
 0.000000e+00 5.262747e-01 4.737253e-01 0.000000e+00 0.000000e+00
 0.000000e+00 0.000000e+00 6.665205e-01 3.334796e-01 0.000000e+00
 0.000000e+00 0.000000e+00 0.000000e+00 8.825543e-01 1.174457e-01
 0.000000e+00 0.000000e+00 0.000000e+00 0.000000e+00 0.000000e+00
<ENDHMM>
~h "sh"
<BEGINHMM>
<NUMSTATES> 5
<STATE> 2
<MEAN> 25
 9.547196e-01 -4.392413e-01 3.709151e-01 1.389382e+00 -1.783502e-03 -3.558770e-01 -4.986498e-01 -1.816654e+00 -1.895179e+00 -1.009680e+00 -1.489227e-01 -1.867192e+00 -9.438280e-01 -8.251196e-01 9.705818e-01 6.201183e-01 -2.168407e-01 3.793558e-01 1.103860e+00 7.009283e-01 4.855650e-01 6.505951e-01 8.653114e-01 -1.157649e-01 -5.240393e-02
<VARIANCE> 25
 1.918763e+01 3.168297e+01 3.009604e+01 3.924944e+01 2.532663e+01 4.556400e+01 4.013121e+01 2.696214e+01 3.862730e+01 2.806481e+01 3.759179e+01 2.569626e+01 1.020786e+00 2.118428e+00 1.722076e+00 1.309379e+00 1.278121e+00 1.623303e+00 2.707514e+00 1.858357e+00 1.867701e+00 1.610312e+00 2.280058e+00 1.253717e+00 3.427744e-01
<GCONST> 9.234115e+01
<STATE> 3
<MEAN> 25
 -1.835374e+00 -3.873354e+00 2.367213e+00 3.870794e+00 -3.485871e-01 -3.892181e-01 1.877311e+00 4.432464e-01 -6.129534e-01 1.222750e+00 3.216024e+00 -1.076950e+00 -8.009978e-01 -1.566918e+00 9.599408e-01 1.025920e+00 -1.963199e-01 -3.803269e-01 5.606074e-01 5.061641e-01 1.122572e-01 2.277470e-01 9.074689e-01 -2.394423e-02 3.909521e-01
<VARIANCE> 25
 2.168118e+01 4.404474e+01 3.149232e+01 4.558346e+01 2.677374e+01 4.074605e+01 3.914058e+01 2.872471e+01 3.412074e+01 2.750667e+01 3.705399e+01 2.325105e+01 7.911841e-01 2.842399e+00 1.321350e+00 1.806263e+00 1.179802e+00 1.791142e+00 1.632304e+00 1.718818e+00 1.846202e+00 1.368345e+00 1.940348e+00 1.216995e+00 4.427464e-01
<GCONST> 9.213200e+01
<STATE> 4
<MEAN> 25
 -6.597604e+00 -1.184500e+01 7.698436e+00 9.097659e+00 -4.848863e-01 -1.007416e+00 4.425498e+00 1.479995e+00 1.053303e+00 1.578345e+00 6.705185e+00 -1.929932e+00 -2.109081e-01 -2.398942e-01 1.130888e-01 1.203706e-01 1.901181e-01 1.440282e-01 3.607872e-03 -2.377246e-02 2.578352e-01 1.711211e-01 4.909738e-02 9.290774e-03 1.807950e-02
<VARIANCE> 25
 1.997663e+01 4.353717e+01 2.897808e+01 3.509913e+01 2.231546e+01 2.286233e+01 2.892329e+01 2.739535e+01 2.808849e+01 2.270735e+01 3.165444e+01 1.920323e+01 4.347344e-01 8.573116e-01 8.599576e-01 7.853730e-01 8.288590e-01 7.717093e-01 1.164866e+00 1.294730e+00 1.264166e+00 1.186271e+00 1.276307e+00 9.750269e-01 2.141084e-01
<GCONST> 8.308485e+01
<TRANSP> 5
 0.000000e+00 1.000000e+00 0.000000e+00 0.000000e+00 0.000000e+00
 0.000000e+00 3.385762e-01 6.614238e-01 0.000000e+00 0.000000e+00
 0.000000e+00 0.000000e+00 3.561200e-01 6.438800e-01 0.000000e+00
 0.000000e+00 0.000000e+00 0.000000e+00 7.647473e-01 2.352527e-01
 0.000000e+00 0.000000e+00 0.000000e+00 0.000000e+00 0.000000e+00
<ENDHMM>
~h "sp"
<BEGINHMM>
<NUMSTATES> 3
<STATE> 2
~s "silst"
<TRANSP> 3
 0.000000e+00 1.734288e-01 8.265712e-01
 0.000000e+00 8.176788e-01 1.823212e-01
 0.000000e+00 0.000000e+00 0.000000e+00
<ENDHMM>
~h "th"
<BEGINHMM>
<NUMSTATES> 5
<STATE> 2
<MEAN> 25
 -3.714255e+00 1.992239e+00 1.854263e+00 5.021304e-01 1.757378e+00 5.465075e+00 2.885977e+00 1.409977e+00 3.445295e+00 2.390732e+00 1.716124e-01 1.421992e+00 -1.256493e-01 5.616392e-03 3.249422e-02 -9.977886e-03 -1.651601e-02 8.960868e-02 1.006707e-01 9.753527e-02 1.335492e-01 7.603285e-02 3.581178e-02 8.007941e-02 -9.247361e-02
<VARIANCE> 25
 5.285164e+00 7.166568e+00 5.937705e+00 8.078783e+00 7.713187e+00 1.366443e+01 1.275778e+01 1.032956e+01 1.424125e+01 1.067293e+01 1.014937e+01 8.734313e+00 9.892657e-02 1.486074e-01 2.284570e-01 3.208891e-01 3.936131e-01 5.188368e-01 6.296604e-01 6.580139e-01 7.050952e-01 6.957474e-01 6.977420e-01 5.778432e-01 4.235032e-02
<GCONST> 5.841435e+01
<STATE> 3
<MEAN> 25
 -3.469407e+00 2.351434e+00 2.543461e+00 -1.336620e+00 1.523852e+00 4.644636e+00 2.525309e+00 1.313325e+00 3.019678e+00 1.728781e+00 3.453611e-01 5.157785e-01 -2.198501e-01 7.487391e-03 2.037355e-01 -6.550618e-02 1.952374e-01 4.768214e-02 6.291995e-02 -3.393627e-02 -6.720362e-02 8.223796e-02 1.255787e-01 -1.379475e-01 2.616132e-03
<VARIANCE> 25
 1.476763e+01 1.213696e+01 1.827693e+01 3.065331e+01 1.626241e+01 2.579059e+01 2.202035e+01 1.950595e+01 2.500531e+01 2.019200e+01 1.893998e+01 1.901537e+01 2.749236e-01 4.452473e-01 6.760387e-01 7.984010e-01 6.857721e-01 9.323868e-01 9.064576e-01 1.090847e+00 1.256145e+00 1.259404e+00 1.176060e+00 1.132911e+00 1.619666e-01
<GCONST> 7.742622e+01
<STATE> 4
<MEAN> 25
 -2.560922e+00 2.898498e+00 2.547428e+00 2.837206e-01 1.523770e+00 3.765337e+00 1.830606e+00 -2.321911e-01 1.914266e+00 1.330392e+00 -2.385614e-01 -1.787299e-01 2.694606e-01 -3.864365e-01 -1.738077e-01 -8.454022e-02 -8.094496e-02 -5.570851e-01 -2.114231e-01 -7.331988e-01 -6.656970e-01 -1.144180e-02 3.667727e-01 -5.965881e-01 5.276430e-01
<VARIANCE> 25
 1.260630e+01 1.323073e+01 1.488918e+01 1.914689e+01 1.464519e+01 2.806322e+01 2.057825e+01 1.771260e+01 2.623490e+01 2.090407e+01 2.003604e+01 1.654794e+01 6.686652e-01 1.638346e+00 1.601488e+00 1.261223e+00 1.178186e+00 1.598617e+00 1.877931e+00 2.211154e+00 2.069154e+00 2.073254e+00 2.392468e+00 2.103850e+00 4.660688e-01
<GCONST> 8.590431e+01
<TRANSP> 5
 0.000000e+00 1.000000e+00 0.000000e+00 0.000000e+00 0.000000e+00
