BIGRAM: method Katz, cutoff 1
  coef[7]: 0.000000 0.558334 0.610596 0.839477 0.604663 0.788293 0.728902

TRIGRAM: method Katz, cutoff 1
  coef[7]: 0.000000 0.423695 0.637332 0.476068 0.756911 0.776875 0.426250

\data\
ngram 1=2592
ngram 2=2873
ngram 3=1769

\1-grams:
-0.7616	!!UNK	-0.2038
-1.6693	A	-0.2483
-4.3820	ABC
-4.3820	ABLE
-4.3820	ABOARD
-3.0203	ABOUT	-0.0339
-4.0810	ABOVE	-0.3547
-4.3820	ACB
-4.3820	ACCEPTED
-4.3820	ACORN
-4.3820	ACORNS
-3.6038	ACROSS	-0.0893
-4.3820	ACTING
-3.6038	ADDED	-0.0772
-4.3820	ADVENTURE
-4.0810	ADVICE
-4.0810	ADVISED
-4.0810	AFFAIR
-3.6038	AFRAID	-0.0876
-3.1516	AFTER	+0.0531
-3.7799	AFTERNOON	-0.2422
-2.9348	AGAIN	-0.0261
-4.3820	AGAINST
-4.3820	AGAPE
-3.7799	AGO	-0.2654
-4.0810	AGREE
-4.3820	AGREED
-4.0810	AH
-4.3820	AHA
-3.7799	AHEAD
-3.4789	AIM
-4.0810	AIMED
-3.9049	AIR	-0.3859
-4.3820	AIRED
-3.9049	AKBAR
-4.3820	ALABAMA
-3.6830	ALARM	-0.0860
-4.3820	ALAS
-4.3820	ALCOUZ
-4.3820	ALGEBRA
-2.3446	ALL	-0.1199
-4.3820	ALNASCHEE
-3.6830	ALONE
-3.3820	ALONG	-0.3156
-4.0810	ALONGSIDE
-4.3820	ALOUD
-3.1516	ALSO	-0.0997
-4.3820	ALTHOUGH
-4.3820	ALU
-3.1267	ALWAYS	-0.1749
-2.7385	AM	-1.0917
-4.0810	AMAZED
-4.3820	AMAZEMENT
-4.3820	AMMA
-4.3820	AMONG
-2.8379	AN	-0.0412
-3.9049	ANANDI
-1.5572	AND	-0.0882
-3.9049	ANGER	-0.1977
-3.6038	ANGRY	-0.0844
-3.9049	ANIMAL
-3.1779	ANIMALS	-0.2008
-4.3820	ANNOUNCEMENT
-3.4278	ANOTHER	-0.0453
-3.7799	ANSWER
-4.0810	ANSWERED
-4.3820	ANSWERING
-3.7799	ANT	-0.0596
-3.6830	ANTS	-0.0860
-3.3406	ANY	+0.0361
-3.9049	ANYBODY
-4.3820	ANYMORE
-3.4789	ANYONE	-0.1990
-3.3820	ANYTHING	-0.0510
-3.7799	ANYWHERE	-0.2713
-4.3820	APLENTY
-4.0810	APPEAR
-4.3820	APPEARED
-3.7799	APPLE	-0.2653
-3.4789	APPLES	-0.1106
-4.3820	APPROACHED
-3.4789	APPU
-4.3820	APPU'S
-4.3820	APRON
-4.3820	ARCHERY
-2.4682	ARE	-0.3238
-4.0810	AREN'T
-4.3820	ARGUED
-4.3820	ARMED
-3.6038	ARMS	-0.0875
-3.0018	AROUND	-0.2140
-4.0810	ARRIVED
-3.3028	ARROW	-0.2416
-4.0810	ARROWS
-2.4135	AS	-0.1142
-4.0810	ASHAMED
-4.3820	ASIDE
-4.0810	ASK
-3.0598	ASKED	-0.1062
-4.0810	ASKING
-4.3820	ASKS
-3.6038	ASLEEP
-4.0810	ASTONISHMENT
-4.3820	ASTRAY
-2.3650	AT	-0.1032
-3.2681	ATE	-0.1783
-4.3820	ATLANTIC
-4.3820	ATTACKED
-4.3820	ATTENTION
-4.3820	ATTRACTED
-4.3820	AUNT
-4.0810	AVIAL
-4.3820	AVOID
-3.9049	AWAKE	-0.2021
-2.5967	AWAY	-0.1864
-4.3820	AWFUL
-4.3820	AZAD
-4.3820	AZAD'S
-4.3820	B
-3.6038	BABA	-0.0772
-4.3820	BABIES
-3.2359	BABY	-0.2774
-4.3820	BABY'S
-4.3820	BAC
-4.3820	BACBONE
-2.8379	BACK	-0.1712
-4.3820	BACKWARD
-4.0810	BAD
-4.3820	BAGS
-4.3820	BAKBAC
-4.3820	BAKBAREA
-3.4278	BALL	-0.2558
-3.6038	BALLOON	-0.3208
-4.0810	BALLOONS
-4.3820	BALLS
-3.4789	BAMBOO	-0.1085
-4.0810	BAND
-3.9049	BANG
-4.0810	BANK	-0.3532
-4.3820	BANYAN
-4.3820	BAR
-3.2059	BARBER	-0.7897
-4.3820	BARELY
-4.3820	BARKED
-4.3820	BARLEY
-4.0810	BARREL
-4.3820	BARREN
-4.3820	BASE
-4.0810	BASKET
-4.3820	BASKETBALL
-4.3820	BATH
-4.3820	BATON
-2.4089	BE	-0.3883
-4.3820	BEACH
-4.0810	BEAK	-0.3545
-3.1779	BEAR	-0.4301
-3.9049	BEARD
-4.3820	BEARDS
-4.3820	BEARS
-4.3820	BEASTS
-3.7799	BEAUTIFUL
-4.3820	BEAVERS
-3.3820	BECAME
-3.3028	BECAUSE
-3.6830	BECOME	-0.1009
-4.0810	BECOMES
-4.0810	BECOMING	-0.3511
-3.1267	BED	-0.1260
-4.0810	BEDROOM	-0.3312
-3.4789	BEEN	-0.1118
-4.3820	BEES
-4.3820	BEETLES
-3.1779	BEFORE	+0.0321
-3.1779	BEGAN	-0.1797
-4.3820	BEGGED
-4.0810	BEGIN
-4.0810	BEGINNING
-3.4789	BEHIND
-4.3820	BEHOLD
-3.7799	BEING
-4.3820	BELIEVE
-4.3820	BELIEVED
-4.3820	BELIEVING
-4.3820	BELLOWED
-4.0810	BELLS
-4.3820	BELOVED
-3.9049	BELOW
-4.3820	BENEATH
-4.0810	BERRY
-3.7799	BEST
-4.3820	BET
-3.6038	BETTER
-3.6038	BETWEEN	-0.0894
-4.3820	BEYOND
-4.3820	BHAISAHEB
-3.2359	BHAIYA
-4.0810	BHALU
-4.3820	BICYCLE
-2.7192	BIG	-0.4317
-4.3820	BIGGER
-4.3820	BIGGEST
-3.5369	BIRBAL
-3.2359	BIRD	-0.2574
-4.3820	BIRD'S
-2.9841	BIRDS	-0.3503
-3.9049	BIT
-4.3820	BITE
-4.0810	BITS
-3.7799	BLACK
-4.3820	BLANKET
-4.3820	BLAZE
-4.3820	BLEED
-3.6830	BLEW	-0.1037
-4.3820	BLIND
-4.3820	BLINKING
-3.3820	BLOW	-0.1501
-3.9049	BLOWING
-4.3820	BLOWS
-3.4789	BLUE	-0.0531
-4.3820	BOARD
-4.3820	BOAST
-3.3028	BOAT	-0.1669
-4.3820	BOATS
-3.4789	BOBBY	+0.0173
-4.3820	BODY
-3.6830	BOILED	-0.0976
-4.3820	BOLDER
-4.3820	BON
-3.2359	BOOK	-0.0583
-3.1267	BOOKS	-0.0062
-4.3820	BOOKSHELF
-4.0810	BOOKSHOP
-3.6830	BOOM	-0.4029
-3.3820	BOOMDI	-0.3496
-4.3820	BOOTS
-3.7799	BORN	-0.2610
-3.9049	BOTH
-3.9049	BOTHER
-4.3820	BOTHERING
-4.0810	BOTTLES
-4.3820	BOUGHT
-3.9049	BOUNCE	-0.4019
-3.3820	BOW	-0.0642
-3.6038	BOWL	-0.3524
-4.3820	BOWLS
-2.7288	BOY	-0.2916
-3.6038	BOYS	-0.0657
-4.3820	BRAKED
-3.3406	BRANCHES	-0.1372
-3.9049	BRAVE
-3.9049	BRAVO
-3.9049	BREAD	-0.2015
-4.0810	BREAK
-4.3820	BREAKFAST
-4.3820	BREATHE
-4.3820	BREATHED
-4.3820	BREATHING
-3.7799	BREEZE
-4.0810	BRICK
-4.3820	BRICK'S
-4.3820	BRIDEGROOM
-3.6830	BRIDGE	-0.4599
-4.3820	BRIDGES
-3.3406	BRIGHT	-0.0341
-3.9049	BRING	-0.1998
-4.3820	BRINGING
-4.3820	BRINGS
-4.0810	BROKE
-4.0810	BROKEN
-3.4789	BROTHER	-0.2340
-4.3820	BROTHERS
-3.6038	BROUGHT	-0.0877
-3.6830	BROWN	-0.1089
-4.3820	BROWNIE
-4.3820	BRUISE
-3.9049	BUBBLE
-4.3820	BUCKLES
-4.3820	BUFFALOES
-4.0810	BUILD
-4.3820	BUILDING
-4.3820	BUILDINGS
-4.0810	BUILT
-3.7799	BUK
-4.3820	BUMP
-4.3820	BUNCH
-3.5369	BUNNY	-0.5666
-4.3820	BURIA
-4.3820	BURN
-3.9049	BURNING
-4.3820	BURNS
-3.7799	BURST	-0.0596
-3.6038	BUS	-0.1822
-4.3820	BUSES
-4.3820	BUSH
-4.3820	BUSHES
-4.3820	BUSINESS
-4.3820	BUSY
-2.2647	BUT	-0.0108
-4.3820	BUTTER
-3.0810	BUTTERFLY	-0.5988
-4.3820	BUTTONS
-3.4789	BUY	-0.4376
-4.3820	BUZZ
-4.3820	BUZZED
-4.3820	BUZZING
-2.6830	BY	-0.0396
-4.3820	BYE
-4.3820	C
-4.0810	CABBAGES
-4.3820	CABLES
-4.3820	CAGE
-4.0810	CAKE
-4.3820	CALIFORNIA
-3.3028	CALL	-0.0410
-3.2359	CALLED	-0.0496
-3.9049	CALLING
-3.9049	CALLS
-4.3820	CALM
-2.6744	CAME	-0.0597
-3.2359	CAMEL	-0.0199
-4.3820	CAMELS
-2.4789	CAN	-0.3092
-3.1267	CAN'T	-0.2476
-3.7799	CANNOT	-0.2611
-4.3820	CANS
-4.3820	CANYONS
-4.3820	CAPTAIN
-4.3820	CARE
-3.9049	CAREFUL	-0.2005
-4.0810	CAREFULLY
-3.6830	CARPENTER	-0.4599
-4.3820	CARPENTER'S
-3.6038	CARRIED	-0.0069
-4.0810	CARROTS
-4.0810	CARRY
-3.6830	CARRYING
-4.3820	CARS
-3.9049	CART	-0.1994
-4.3820	CARTS
-4.3820	CASHGAR
-4.3820	CASTLE
-3.5369	CAT	-0.2038
-3.4278	CATCH	-0.2572
-4.3820	CATCHING
-4.3820	CATERPILLARS
-3.6830	CAUGHT
-4.3820	CAULIFLOWERS
-4.3820	CAUSE
-4.3820	CAVE
-3.0203	CAW	-0.3225
-4.3820	CEASE
-4.3820	CERTAINLY
-4.3820	CHAINS
-4.3820	CHAIR
-4.3820	CHALLENGE
-4.3820	CHALLENGED
-4.3820	CHAMPION
-3.9049	CHANCE	-0.1928
-4.3820	CHANCED
-4.3820	CHANGED
-4.3820	CHARGED
-3.9049	CHASED
-4.3820	CHASING
-3.4789	CHATTER	-0.2060
-4.3820	CHATTERER
-4.3820	CHATTERERS
-4.3820	CHATTING
-4.0810	CHEEK
-3.7799	CHEEKS	-0.1394
-3.6830	CHEEP	-0.1981
-4.0810	CHEESE	-0.3455
-4.3820	CHERRY
-4.3820	CHEW
-4.3820	CHICKEN
-4.3820	CHICKENS
-4.3820	CHICKS
-4.3820	CHIEF
-3.3406	CHILD
-4.3820	CHILD'S
-4.0810	CHILDISH	-0.3540
-2.9670	CHILDREN	-0.3972
-4.3820	CHILLI
-4.3820	CHILLIES
-4.3820	CHILLY
-4.3820	CHIMPANZEE
-4.0810	CHIN
-4.3820	CHIRPY
-3.1779	CHIRRUP	-0.5232
-4.0810	CHOCOLATE
-4.3820	CHOICE
-4.3820	CHOPPING
-4.3820	CHORUS
-3.4278	CIRCLE	-0.0894
-3.7799	CIRCLES
-3.6038	CITY	-0.2807
-4.0810	CLAPPED
-4.3820	CLASPED
-3.3028	CLASS	-0.0969
-4.0810	CLASSES
-4.3820	CLATTERED
-4.0810	CLAW
-4.3820	CLAWS
-4.3820	CLEAN
-4.3820	CLEANED
-3.6830	CLEAR
-4.0810	CLEVER
-4.3820	CLEVERNESS
-3.3028	CLIMB	-0.3350
-3.2359	CLIMBED	-0.0927
-4.0810	CLIMBING
-3.5369	CLOCK	-0.2837
-3.7799	CLOSE
-4.3820	CLOSED
-3.5369	CLOSER	-0.0746
-3.9049	CLOTHES
-4.3820	CLOUD
-3.6830	CLOUDS	-0.1744
-4.3820	CLUSTER
-4.3820	COACHES
-3.5369	COAT	-0.3836
-4.3820	COCK
-3.9049	COCKY
-3.9049	COCONUT
-3.5369	COLD	-0.0518
-4.3820	COLLECT
-4.3820	COLOUR
-4.0810	COLOURED
-4.3820	COLOURFUL
-3.9049	COLOURS
-4.0810	COMB
-2.6918	COME	-0.1224
-3.3406	COMES	-0.0159
-4.3820	COMFORTED
-3.6830	COMING
-4.3820	COMMANDED
-4.3820	COMMON
-3.7799	COMPANION	-0.2632
-4.3820	COMPANY
-4.3820	COMPLETE
-4.3820	COMPLETELY
-4.0810	CONDUCTOR	-0.3312
-4.3820	CONES
-4.3820	CONFUSED
-4.3820	CONSIDERED
-4.3820	CONSTANT
-4.3820	CONTENTED
-4.3820	CONTENTS
-4.0810	CONTEST	-0.3455
-3.9049	CONTINUED
-4.3820	CONVENIENTLY
-3.1516	COOK	-0.3702
-4.0810	COOKED
-3.6830	COOKING
-3.6830	COOL
-4.3820	COOLING
-4.3820	COPIED
-4.3820	COPY
-3.6830	CORN	-0.2292
-4.3820	CORNER
-4.3820	CORRECT
-3.9049	COTTAGE	-0.1785
-2.6111	COULD	-0.3654
-3.9049	COUNTRY	-0.3859
-4.3820	COUPLE
-3.7799	COURSE	-0.2621
-3.7799	COURT	-0.2422
-4.3820	COURTIERS
-4.3820	COUSIN
-4.3820	COVER
-4.3820	COVERED
-4.3820	COVERING
-3.3820	COW	-0.2701
-4.3820	COWS
-3.9049	CRAB	-0.1785
-4.3820	CRAB'S
-3.9049	CRABS
-4.3820	CRACKED
-4.3820	CRANED
-4.0810	CRASHED
-4.0810	CRAWL
-4.3820	CRAWLED
-4.0810	CRAWLING
-3.9049	CREAM	-0.4095
-3.9049	CREATURE	-0.1785
-4.3820	CREATURES
-3.4789	CREEPER	-0.1735
-4.3820	CREEPING
-4.3820	CREEPS
-4.3820	CREPT
-4.3820	CREW
-4.3820	CRICKET
-3.2059	CRIED	-0.0121
-3.9049	CRIES
-4.3820	CRIME
-4.0810	CROAK
-3.7799	CROSS	-0.1333
-4.3820	CROSSED
-3.3406	CROW	-0.9838
-4.3820	CROWD
-4.3820	CROWDED
-4.0810	CROWS
-4.3820	CRUEL
-4.3820	CRUMBLED
-3.7799	CRY
-3.7799	CRYING
-3.2681	CUB	-0.9631
-4.3820	CUCKOO
-4.0810	CUCUMBERS
-4.3820	CURD
-4.3820	CURIOSITY
-4.3820	CURIOUS
-3.9049	CURLY
-3.6038	CURLYLOCKS	-0.0892
-3.6038	CURRY	-0.1780
-4.3820	CURVED
-4.3820	CURVES
-4.3820	CUSHION
-3.5369	CUT
-4.3820	DAD
-4.3820	DADA
-4.0810	DANCE	-0.3427
-3.9049	DANCED
-4.0810	DANCING
-4.3820	DAPPLE
-3.9049	DARK
-4.3820	DARKNESS
-3.9049	DAUGHTER
-3.9049	DAWN
-2.5069	DAY	-0.3689
-4.3820	DAY'S
-4.3820	DAYDREAMING
-3.5369	DAYS
-3.5369	DEAD	-0.0727
-4.3820	DEAF
-3.4278	DEAR	-0.1749
-4.0810	DEARLY
-3.7799	DECIDE	-0.1333
-3.5369	DECIDED	+0.0071
-4.3820	DECLARE
-4.3820	DECLARED
-4.3820	DECORATED
-3.7799	DEEP
-3.9049	DEER
-4.3820	DEFECT
-4.3820	DEFENDED
-4.3820	DEFENDING
-4.3820	DELHI
-3.9049	DELICIOUS
-4.3820	DESCEND
-3.3406	DESERT	-0.3964
-4.3820	DESPERATION
-3.6038	DESTROY	-0.0805
-4.0810	DEW
-4.3820	DIAMETER
-2.9506	DID	-0.0673
-3.3820	DIDN'T	-0.0818
-4.0810	DIE
-4.0810	DIFFERENCE
-3.9049	DIFFERENT
-4.3820	DIFFICULT
-4.3820	DIFFICULTY
-4.3820	DIG
-3.4789	DING	-0.2362
-4.3820	DINING
-3.6830	DINNER	-0.0860
-4.0810	DIRTY
-4.0810	DISCOVERED
-4.3820	DISCUSSION
-4.3820	DISDAIN
-3.5369	DISH	-0.1316
-4.0810	DISHES	-0.3312
-4.0810	DISTANCE
-4.3820	DIVE
-2.5431	DO	-0.2827
-4.3820	DOCTOR
-3.3406	DOES	-0.0902
-3.9049	DOESN'T	-0.1196
-3.4278	DOG	-0.1117
-3.4789	DOING	-0.0535
-3.9049	DOLL
-2.9506	DON'T	-0.1095
-3.6830	DONE	-0.1954
-3.4789	DONG	-0.4409
-3.7799	DONKEY	-0.1328
-4.3820	DONKEYS
-3.2359	DONT	-0.0866
-3.7799	DOOPU
-3.2681	DOOR	-0.2793
-4.3820	DOORS
-3.9049	DOUBT	-0.2011
-2.6261	DOWN	-0.1091
-4.3820	DOWNWARD
-4.3820	DOWNWARDS
-4.3820	DOZEN
-4.3820	DOZING
-4.3820	DRANK
-3.5369	DRAW	-0.0706
-3.9049	DRAWING
-4.0810	DRAWN
-4.3820	DREAM
-3.9049	DREAMING
-3.7799	DRESS
-4.3820	DRESSED
-4.0810	DRESSES	-0.2723
-3.3028	DREW	-0.1222
-3.7799	DRINK
-3.9049	DRIP	-0.2021
-3.6830	DRIVER	-0.4599
-4.3820	DROP
-4.3820	DROPPED
-4.3820	DROVE
-4.3820	DRUM
-3.9049	DRY	-0.2021
-4.3820	DUCK
-4.3820	DUCKS
-3.9049	DUCKY	-0.4095
-4.3820	DUSK
-4.3820	DUSTY
-4.0810	D_O_L_L
-4.3820	E
-3.3406	EACH	-0.0957
-4.3820	EAGER
-4.3820	EAGERLY
-3.9049	EAR
-4.0810	EARLY
-4.3820	EARNED
-4.3820	EARS
-3.9049	EARTH	-0.1785
-4.3820	EASE
-4.0810	EASILY
-4.3820	EASY
-2.9049	EAT	-0.2164
-4.0810	EATING
-4.0810	EATS
-4.3820	ECHOED
-4.3820	EDUCATION
-4.3820	EFFORT
-4.0810	EGGS
-3.9049	EIGHT
-4.3820	EIGHTH
-3.7799	EIGHTY	-0.1300
-4.3820	EIGTHY
-3.9049	EITHER
-4.0810	ELDEST
-3.7799	ELEPHANT	-0.2653
-4.3820	ELEPHANT'S
-4.3820	ELEVATORS
-3.6038	ELSE	-0.0893
-4.0810	EMPTIED
-4.0810	END	-0.3312
-4.3820	ENDED
-4.3820	ENDS
-3.9049	ENGINE	-0.1785
-4.3820	ENGLAND
-4.0810	ENGLISH
-4.0810	ENJOY
-3.4278	ENORMOUS	-0.4293
-3.7799	ENOUGH
-4.0810	ENTERED
-4.3820	ENTIRELY
-4.3820	EQUALLY
-4.3820	ERASING
-3.9049	ESCAPE
-4.3820	ESSAY
-3.2359	EVEN	-0.0332
-3.4789	EVENING	-0.2808
-3.4278	EVER	+0.0250
-3.1267	EVERY
-3.7799	EVERYBODY
-4.3820	EVERYBODY'S
-4.0810	EVERYDAY
-3.2359	EVERYONE	+0.0465
-3.6830	EVERYTHING
-3.7799	EVERYWHERE
-4.3820	EXACTLY
-4.0810	EXAMINE
-4.3820	EXAMINERS
-4.3820	EXAMS
-4.3820	EXCEPT
-4.3820	EXCITED
-3.9049	EXCITEMENT
-3.7799	EXCLAIMED	-0.0596
-4.3820	EXHAUSTED
-4.3820	EXPECT
-4.3820	EXPECTED
-4.3820	EXPERIENCE
-4.3820	EXPERT
-4.3820	EXPLAIN
-4.3820	EXPLORE
-4.3820	EXTREMELY
-4.3820	EYE
-3.3820	EYES	-0.1536
-3.3406	FACE	-0.1554
-4.3820	FACED
-4.3820	FACES
-4.3820	FACTORY
-4.0810	FAIL
-3.9049	FAILED
-4.3820	FAIR
-4.0810	FAIRIES
-3.3406	FALL	-0.1886
-3.9049	FALLEN	-0.2011
-4.3820	FALLING
-3.9049	FALLS
-3.6830	FAMILY	-0.1979
-4.3820	FAMOUS
-3.3028	FAR	-0.1411
-4.3820	FARE
-3.9049	FARM
-3.6830	FARMER	-0.1744
-4.0810	FARMER'S
-4.3820	FARMERS
-3.3406	FAST	-0.2021
-4.0810	FASTER
-3.7799	FAT
-3.6830	FATHER	-0.1075
-4.3820	FATHER'S
-4.3820	FAVOURITE
-3.6830	FEAR
-4.3820	FEARFUL
-4.3820	FEARLESS
-3.6038	FEAST	-0.0800
-4.3820	FEATHER
-4.0810	FEATHERS
-4.3820	FED
-4.3820	FEED
-3.4789	FEEL	-0.2534
-4.3820	FEELERS
-4.3820	FEELING
-3.9049	FEELS
-3.2359	FEET	-0.0337
-3.3820	FELL	+0.0312
-4.3820	FELLOW
-3.6830	FELT	-0.0272
-4.0810	FENCE
-4.3820	FENCES
-4.3820	FEVER
-3.6830	FEW	-0.2929
-3.6830	FIELD
-3.9049	FIELDS
-4.3820	FIFTH
-4.3820	FILL
-3.9049	FILLED
-4.0810	FILLS	-0.3488
-4.3820	FINAL
-4.0810	FINALLY
-3.1032	FIND	-0.3210
-3.4789	FINE	-0.2362
-4.3820	FINGER
-4.0810	FINGERS
-3.9049	FINISH
-3.7799	FINISHED
-3.5369	FIR	-0.1302
-4.3820	FIRE
-4.3820	FIRM
-4.3820	FIRMLY
-3.3820	FIRST	+0.0017
-3.3820	FISH	-0.0988
-3.4789	FIVE	-0.0304
-4.3820	FIX
-4.3820	FIXED
-4.3820	FIZZ
-3.9049	FLAPPED	-0.2017
-3.7799	FLASH	-0.1421
-4.3820	FLASHED
-3.1267	FLEW	-0.2372
-4.0810	FLIES
-4.3820	FLOAT
-4.3820	FLOATED
-4.0810	FLOATING
-4.3820	FLOCK
-3.6830	FLOOR	-0.2755
-4.3820	FLOUNDERING
-3.5369	FLOWER
-3.2059	FLOWERS	-0.3759
-4.3820	FLUENT
-4.3820	FLUENTLY
-4.3820	FLURRY
-4.3820	FLUTTERED
-3.1516	FLY	-0.2662
-3.3406	FLYING	-0.0456
-4.3820	FOGG
-4.0810	FOLLOW
-4.3820	FOLLOWED
-3.1516	FOOD	-0.2331
-4.0810	FOOLISH
-4.3820	FOOLISHNESS
-3.4789	FOOT	-0.1035
-4.3820	FOOTHILLS
-3.6830	FOOTPRINT	-0.1744
-2.3734	FOR	-0.0477
-4.3820	FORCE
-4.3820	FORCED
-4.3820	FORE
-3.3820	FOREST	-1.0202
-4.3820	FORESTS
-4.3820	FOREVER
-4.0810	FORGET
-4.3820	FORGETS
-4.0810	FORGOT
-4.0810	FORGOTTEN
-4.3820	FORTNIGHT
-4.3820	FORTY
-3.7799	FORWARD
-3.3406	FOUND	-0.1270
-4.3820	FOUNDATION
-3.5369	FOUR
-4.3820	FOURSCORE
-4.3820	FOWL
-4.0810	FOXY	-0.3549
-4.3820	FRANSISCO
-4.3820	FRED
-4.3820	FREE
-4.3820	FREELY
-4.3820	FREIGHT
-4.3820	FRENCH
-4.3820	FREQUENTLY
-4.0810	FRESH
-4.3820	FRIDAYS
-3.5369	FRIEND	-0.0754
-3.0810	FRIENDS	-0.0992
-4.3820	FRIGHT
-4.3820	FRIGHTEN
-3.7799	FRIGHTENED	-0.1413
-4.3820	FRIGHTENING
-3.3820	FROG	-0.1279
-2.7485	FROM	-0.0312
-3.7799	FRONT
-4.3820	FROSTY
-4.3820	FROWNING
-4.0810	FRUIT
-4.3820	FRUITS
-3.4789	FULL	-0.0559
-3.2359	FUN	-0.0322
-4.3820	FUNNIEST
-3.1779	FUNNY	-0.1557
-4.3820	FUR
-3.9049	FURRY	-0.3270
-4.3820	FURTHER
-4.3820	FUSS
-3.5369	FUTURE	-0.2135
-3.9049	GADAAM
-4.3820	GALORE
-3.6830	GAME	-0.0860
-3.9049	GAMES	-0.2016
-4.3820	GAP
-3.2681	GARDEN	-0.3072
-4.3820	GARDENERS
-4.3820	GARDENHAPPY
-4.3820	GARLIC
-4.3820	GATE
-3.4789	GAVE
-4.3820	GAY
-4.3820	GAZE
-4.3820	GEAOMETRY
-3.3820	GEESE	-0.3986
-4.3820	GENEROUS
-4.0810	GENTLE
-4.3820	GENTLER
-4.3820	GENTLY
-4.3820	GEOMETRY
-2.9196	GET	-0.1751
-3.9049	GETS	-0.2019
-3.6830	GETTING
-4.3820	GHOSTS
-4.0810	GIANT	-0.3455
-4.0810	GIGGLE
-4.3820	GINGER
-3.3820	GIRAFFE	-0.4300
-3.9049	GIRAFFE'S	-0.1785
-3.2359	GIRL	-0.2467
-3.7799	GIRLS	-0.0596
-3.1779	GIVE	-0.1564
-4.3820	GIVEN
-4.3820	GIVES
-3.7799	GIVING
-3.7799	GLASS
-4.0810	GLASSES
-4.0810	GLEAMING
-4.3820	GLEE
-4.3820	GLISTENED
-4.3820	GLORY
-2.5369	GO	-0.2295
-4.0810	GOAL
-4.3820	GOAT
-4.0810	GOATS
-4.3820	GOBBLED
-4.3820	GOD
-3.6830	GOES
-2.7192	GOING	-0.2791
-3.6830	GOLD	-0.0272
-4.0810	GOLDEN
-3.2681	GONE	-0.1393
-4.0810	GONU	-0.3427
-4.0810	GONU'S
-2.9348	GOOD	-0.0280
-4.3820	GOODBYE
-3.6038	GOOPU	-0.0891
-3.9049	GOOSEY	-0.2021
-3.2681	GOT	-0.1093
-4.0810	GRAB
-4.3820	GRABBED
-3.9049	GRAIN
-4.3820	GRAN
-4.0810	GRAND
-4.0810	GRANDFATHER
-3.6038	GRANDMOTHER
-3.9049	GRANNY
-4.3820	GRANT
-4.3820	GRANTED
-3.6830	GRASS	-0.0860
-3.6038	GRASSHOPPER	-0.3858
-3.1779	GREAT	-0.1687
-4.0810	GREATEST
-3.1779	GREEN	-0.0305
-3.1267	GREW	-0.0988
-4.3820	GREY
-4.3820	GRINNED
-4.3820	GRIPPED
-4.3820	GRIZZLED
-3.7799	GROCER	-0.2422
-3.3820	GROUND	-0.6752
-4.3820	GROUP
-3.6038	GROW
-4.0810	GROWING
-3.9049	GROWN
-3.9049	GROWS
-4.0810	GRUFF	-0.3541
-4.3820	GRUMPY
-4.3820	GRUNT
-4.3820	GUARD'S
-3.9049	GUDOOM	-0.4095
-4.0810	GUESS
-4.3820	GUESTS
-4.3820	GUILIDANDA
-4.3820	GUN
-3.5369	HA	-0.2836
-2.5827	HAD	-0.2918
-4.3820	HAHAHAH
-3.4789	HAIR	-0.0304
-3.5369	HALDI
-3.4789	HALF	+0.0173
-4.3820	HALT
-4.3820	HALTED
-3.1516	HAND	-0.0552
-4.3820	HANDKERCHIEF
-4.3820	HANDLE
-3.6830	HANDS	-0.1079
-3.6830	HAPPENED	-0.1085
-4.0810	HAPPENING	-0.3499
-4.3820	HAPPENS
-4.3820	HAPPIER
-3.6038	HAPPILY
-4.3820	HAPPINESS
-2.9348	HAPPY	-0.3337
-3.0203	HARD	-0.1267
-3.6830	HARDER
-3.9049	HARDLY
-4.0810	HARDWORKING	-0.3312
-3.3406	HARI	-0.0376
-4.0810	HARI'S
-3.7799	HARM	-0.1409
-4.0810	HARSH
-3.2681	HAS
-4.3820	HASTILY
-3.9049	HAT
-4.3820	HATE
-4.0810	HATED
-4.3820	HATS
-4.3820	HAUL
-2.5967	HAVE	-0.4550
-4.0810	HAY
-1.8583	HE	-0.1259
-4.3820	HE'D
-4.3820	HE'LL
-3.9049	HE'S
-3.2359	HEAD	-0.3210
-4.3820	HEADED
-4.3820	HEADS
-4.3820	HEALTHY
-4.3820	HEAP
-3.6830	HEAR
-3.2681	HEARD	-0.2793
-3.6830	HEARING	-0.0272
-4.0810	HEARS
-4.0810	HEAT
-4.0810	HEAVILY
-4.3820	HEAVY
-4.3820	HEDGE
-3.4789	HEE	-0.3547
-3.6830	HEIGH	-0.1981
-3.3406	HELD	-0.1796
-3.2059	HELEN	-0.0102
-4.3820	HELEN'S
-3.0396	HELP	-0.1513
-4.3820	HELPLESS
-4.0810	HELPS
-3.9049	HEN	-0.2010
-3.9049	HENNY
-2.3608	HER	-0.0643
-4.0810	HERD
-3.3406	HERE
-4.3820	HERE'S
-4.0810	HERSELF
-3.9049	HEY	-0.1994
-3.7799	HIAWATHA
-4.3820	HIAWATHA'S
-4.0810	HID
-4.0810	HIDDEN
-4.0810	HIDE
-3.9049	HIDING
-3.2359	HIGH	+0.0091
-3.7799	HIGHER
-4.0810	HIGHEST
-3.6038	HILL	-0.1345
-4.0810	HILLS	-0.3312
-4.3820	HILLSIDE
-2.6416	HIM	-0.1143
-3.2681	HIMSELF	-0.1734
-4.3820	HIRE
-2.2002	HIS	-0.1283
-4.3820	HISTORY
-3.5369	HIT	-0.0753
-3.6830	HO	-0.4029
-4.3820	HOARSE
-4.3820	HOCKEY
-3.9049	HOLD
-3.9049	HOLDING
-4.3820	HOLDS
-4.3820	HOLE
-4.3820	HOLES
-4.3820	HOLIDAY
-4.3820	HOLY
-3.1779	HOME	+0.0298
-4.3820	HOMES
-4.3820	HOMEWORK
-4.3820	HONEYBEES
-4.3820	HOOK
-4.3820	HOOP
-3.6038	HOP	-0.0893
-4.3820	HOPPED
-4.3820	HOPPING
-4.3820	HOPS
-4.3820	HORROR
-3.2681	HORSE	-0.2076
-4.0810	HORSEMEN
-4.0810	HORSES
-4.3820	HOSTEL
-3.5369	HOT	-0.1422
-4.0810	HOTTER
-3.5369	HOUR	-0.2831
-3.7799	HOURS
-2.8505	HOUSE	-0.1994
-2.7008	HOW	-0.0189
-3.9049	HOWEVER
-4.3820	HU
-3.9049	HUFF	-0.2008
-3.9049	HUFFED	-0.4035
-4.3820	HUG
-3.6830	HUGE	-0.1888
-4.3820	HUGS
-4.0810	HUMP
-4.3820	HUMPED
-4.3820	HUMPH
-3.9049	HUNDRED
-4.0810	HUNDREDS
-3.3406	HUNGRY
-4.3820	HUNT
-4.0810	HUNTED
-3.4789	HUNTER	-0.2051
-4.3820	HUNTER'S
-4.3820	HUNTING
-4.0810	HURRIED
-3.3820	HURRY
-4.0810	HURT
-4.3820	HURTING
-4.3820	HUSBAND
-4.3820	HUSH
-1.7577	I	-0.1502
-3.6830	I'D	-0.1087
-3.3820	I'LL	-0.0947
-3.0810	I'M	-0.1243
-4.3820	I'VE
-3.9049	ICE	-0.3859
-4.3820	ICY
-3.7799	IDEA	-0.1417
-4.3820	IDLED
-4.3820	IDLING
-2.6744	IF	-0.0086
-3.6038	ILL	-0.2104
-4.3820	ILLNESS
-4.3820	IMAGINATION
-3.7799	IMAGINE
-4.3820	IMMEDIATELY
-4.3820	IMPATIENTLY
-3.9049	IMPORTANCE
-4.0810	IMPORTANT
-4.3820	IMPOSSIBLE
-4.3820	IMPROVING
-1.9893	IN	-0.0620
-4.3820	INCHES
-4.3820	INDEED
-4.3820	INDIAN
-3.7799	INDIANS	-0.2656
-4.3820	INDIGO
-4.3820	INFORM
-4.0810	INHABITANTS
-4.3820	INHABITED
-4.3820	INJURY
-4.3820	INSECTS
-3.3820	INSIDE	-0.0951
-4.3820	INSIST
-3.4278	INSTEAD
-4.3820	INTEREST
-4.3820	INTERESTING
-4.3820	INTERRUPTING
-4.3820	INTERRUPTION
-2.9049	INTO	-0.0370
-4.3820	INVESTIGATE
-4.3820	INVITED
-2.2002	IS	-0.2663
-4.0810	ISLAND	-0.2723
-4.0810	ISN'T
-1.9806	IT	-0.0371
-3.3406	IT'S
-2.9196	ITS	-0.0292
-4.3820	JAM
-3.9049	JANE	-0.3270
-4.0810	JAY	-0.3312
-4.3820	JERK
-4.3820	JINGLING
-4.3820	JOB
-3.9049	JOIN	-0.1933
-4.3820	JOLLY
-4.0810	JOURNEY
-3.3820	JOY	-0.1755
-4.3820	JOYFUL
-4.3820	JUDGE
-3.7799	JUMP	-0.1333
-3.4278	JUMPED
-4.3820	JUMPS
-4.3820	JUNE
-3.3406	JUNGLE	-0.7166
-2.8635	JUST	-0.0080
-4.3820	KA
-3.7799	KAA	-0.2659
-4.3820	KAAT
-4.3820	KABADDI
-4.3820	KAKAR
-3.6830	KALU
-4.3820	KALU'S
-4.3820	KAMEEZ
-4.3820	KANGAROO
-3.9049	KANGLEIPAK	-0.1984
-3.5369	KEEP	-0.1269
-3.9049	KEEPER	-0.3859
-4.3820	KEEPS
-4.3820	KELLER
-4.3820	KENNEL
-3.9049	KEPT	-0.2020
-4.0810	KERALA
-4.3820	KHONGNANG
-4.3820	KICKED
-3.9049	KILL	-0.1900
-3.9049	KILOMETRES	-0.1196
-3.5369	KIND
-2.8768	KING	-0.6260
-4.3820	KINGDOM
-4.3820	KISSED
-4.3820	KITCHEN
-3.4278	KITE	-0.4070
-3.6038	KITES	-0.1192
-4.0810	KNEES
-3.3820	KNEW	-0.0664
-4.3820	KNOCKED
-2.9506	KNOW	-0.2772
-3.6830	KNOWS	-0.1096
-4.3820	KOOZ
-4.3820	LACK
-4.3820	LADDER
-4.0810	LADDU
-3.7799	LADY	-0.7851
-4.3820	LADY'S
-4.3820	LAID
-4.3820	LAKE
-4.3820	LAKES
-3.6830	LALU
-4.3820	LALU'S
-3.4278	LAND	-0.3884
-4.3820	LANDED
-4.3820	LANE
-4.0810	LANGUAGE
-3.9049	LANGUAGES
-4.3820	LANGUR
-4.3820	LARGE
-3.7799	LARGER
-4.3820	LASHED
-4.3820	LASSES
-3.4278	LAST	-0.2729
-4.3820	LASTED
-3.6038	LATE	-0.0877
-3.5369	LATER
-3.7799	LAUGH
-3.9049	LAUGHED
-3.6038	LAUGHING	-0.0882
-4.3820	LAUGHS
-4.3820	LAUGHTER
-3.9049	LAW	-0.1977
-4.3820	LAWS
-3.5369	LAY	-0.0678
-4.3820	LAYS
-3.6038	LAZY	-0.1775
-4.0810	LEAD	-0.2723
-4.0810	LEAF
-4.3820	LEAFY
-4.3820	LEAP
-4.3820	LEAPED
-4.3820	LEAPS
-4.3820	LEAPT
-3.6038	LEARN	-0.1493
-3.6830	LEARNED	-0.1097
-4.3820	LEARNT
-3.7799	LEAVE	-0.1333
-3.0598	LEAVES	-0.2129
-4.3820	LED
-3.3820	LEFT	-0.2492
-3.7799	LEGS
-3.6830	LEIMA	-0.4714
-3.7799	LEND	-0.2658
-4.3820	LENGTH
-4.3820	LENT
-4.0810	LESS
-4.3820	LESSONS
-3.0396	LET	-0.0366
-3.6830	LET'S
-4.3820	LETS
-3.6830	LETTERS
-4.3820	LETTING
-4.3820	LEVEL
-4.3820	LIAR
-4.3820	LIBRARY
-4.3820	LICKING
-3.6830	LIE	-0.1004
-4.3820	LIES
-3.6038	LIFE
-4.3820	LIFTED
-4.0810	LIGHT
-4.3820	LIGHTNING
-4.3820	LIGHTS
-2.6918	LIKE	-0.0791
-3.6830	LIKED
-4.3820	LIKES
-4.0810	LIMB
-3.4278	LINE	-0.0411
-3.9049	LINES	-0.2018
-3.6830	LING	-0.3936
-3.1516	LION	-0.0896
-4.3820	LIPS
-4.3820	LIST
-3.7799	LISTEN
-4.0810	LISTENED	-0.3473
-2.4475	LITTLE	-0.2756
-3.7799	LIVE
-3.0598	LIVED	-0.0379
-4.3820	LIVES
-4.0810	LO
-4.0810	LOAD
-4.3820	LOADS
-3.9049	LOBSTER
-4.0810	LOBSTERS
-4.3820	LOCK
-4.0810	LOCKED
-3.9049	LOCKY	-0.4095
-4.3820	LODGES
-4.0810	LOG
-4.3820	LOLLS
-4.3820	LONELY
-2.8906	LONG	-0.0964
-3.4789	LONGER	-0.0650
-3.0598	LOOK	-0.0020
-2.8022	LOOKED	-0.2015
-3.6830	LOOKING
-3.6830	LOOKS
-4.3820	LOSING
-4.0810	LOST
-3.6830	LOT	-0.3936
-3.9049	LOTS	-0.2007
-3.9049	LOTUS
-3.4278	LOUD	-0.1934
-4.0810	LOUDER
-3.7799	LOUDLY
-3.2681	LOVE	-0.4142
-3.2359	LOVED	-0.1130
-3.6830	LOVELY	-0.1888
-4.3820	LOVING
-4.3820	LOVINGLY
-3.9049	LOW	-0.1928
-4.3820	LOWER
-4.3820	LUCK
-4.3820	LUCKILY
-3.4789	LUCKY	-0.1121
-3.5369	LUNCH	-0.0727
-4.3820	LYING
-4.0810	M
-3.6038	MA
-4.3820	MACHINES
-3.1516	MADE	-0.0271
-3.5369	MAGIC	-0.2882
-4.0810	MAGICIAN	-0.3312
-4.3820	MAGNET
-3.9049	MAHARAJA	-0.3859
-4.3820	MAIL
-4.3820	MAINLAND
-4.3820	MAJESTICALLY
-3.0203	MAKE	-0.1646
-3.6830	MAKES
-3.9049	MAKING	-0.2018
-3.4278	MALU
-4.0810	MALU'S
-3.6830	MAMA	-0.2524
-2.6660	MAN	-0.4088
-4.3820	MANAGES
-3.5369	MANGO	-0.1316
-3.9049	MANGOES
-4.3820	MANIPUR
-3.0598	MANY	-0.0200
-4.3820	MARBLE
-4.0810	MARBLES
-4.0810	MARIGOLD	-0.3312
-4.0810	MARIGOLDS
-4.3820	MARK
-4.3820	MARKED
-3.6830	MARKET	-0.1744
-4.0810	MARRIED
-3.7799	MASTER	-0.2636
-4.3820	MASTERED
-4.3820	MASTERY
-4.0810	MATCH
-3.6830	MATTER	-0.2321
-4.3820	MAXIMUM
-3.5369	MAY
-2.4135	ME	-0.1624
-4.3820	MEADOW
-4.3820	MEAN
-4.0810	MEANT
-4.3820	MEASURE
-4.0810	MEDICINE
-3.5369	MEENA
-3.9049	MEET
-4.0810	MEEYAM
-4.3820	MELA
-3.9049	MEN
-4.3820	MENTION
-4.3820	MERCY
-4.3820	MERRILY
-3.5369	MERRY	-0.2600
-4.3820	MESH
-4.3820	MESHES
-3.1516	MET	-0.3088
-4.3820	MICE
-3.3820	MIDDLE	-0.2713
-3.6830	MIGHT	-0.1933
-4.3820	MIGHTY
-3.9049	MILE	-0.4002
-4.0810	MILES
-4.3820	MILK
-3.6830	MILKMAN	-0.3793
-4.3820	MILKMAN'S
-4.3820	MILLI
-4.3820	MILLION
-3.9049	MIND
-4.3820	MINE
-4.3820	MINISTER
-4.0810	MINISTERS	-0.3312
-4.3820	MINUTES
-4.3820	MIRE
-3.9049	MIRROR	-0.3859
-4.3820	MISCHIEF
-3.6038	MISS	-0.0805
-4.3820	MISTAKEN
-4.3820	MISTAKING
-4.3820	MITE
-3.4278	MITTU	-0.1220
-4.3820	MIXED
-3.5369	MOHINI	-0.0753
-3.9049	MOM
-3.9049	MOMENT	-0.1928
-4.3820	MONDAYS
-3.6038	MONEY	-0.1576
-3.2359	MONKEY	-0.6988
-3.7799	MONSTER	-0.2566
-4.3820	MONSTERS
-4.0810	MONTHS
-3.7799	MONU	-0.1419
-3.9049	MONU'S	-0.1933
-4.3820	MOOD
-3.7799	MOON	-0.2422
-4.3820	MOONLIGHT
-2.9506	MORE	-0.0125
-2.9506	MORNING	-0.3148
-3.4789	MOSQUITO	-0.1824
-4.3820	MOSSY
-3.4789	MOST	-0.0416
-2.5559	MOTHER	-0.2552
-3.7799	MOTHER'S	-0.1403
-4.3820	MOTION
-4.3820	MOUNDS
-4.0810	MOUNTAIN
-3.3820	MOUNTAINS	-0.2544
-4.0810	MOUNTED
-3.4278	MOUSE	-0.3397
-4.3820	MOUSTACHE
-3.5369	MOUTH	-0.1290
-4.0810	MOUTHS	-0.3542
-3.6038	MOVE	-0.1493
-4.3820	MOVED
-4.0810	MOVING
-3.7799	MR
-3.2681	MUCH	-0.1058
-3.6830	MUMBAI	-0.1009
-4.3820	MUMMY
-3.4278	MUNNA	+0.0250
-4.3820	MUNNA'S
-4.3820	MURALI
-4.3820	MURALI'S
-4.3820	MUSCLES
-3.7799	MUSIC	-0.1184
-3.9049	MUSICIAN	-0.4002
-4.0810	MUSICIANS
-3.1516	MUST	-0.1740
-4.0810	MUTTERED	-0.3488
-4.3820	MUTTERS
-2.2647	MY	-0.0890
-4.3820	MYNA
-3.7799	MYSELF
-4.3820	MYSTERY
-3.3820	NAME	-0.1404
-3.6038	NAMED
-3.9049	NAMES	-0.2015
-4.3820	NARRATING
-3.2681	NARRATOR	+0.0034
-4.3820	NASHI
-3.2681	NASRUDDIN	+0.0436
-4.3820	NATIVE
-4.3820	NATURALLY
-4.3820	NATURED
-4.3820	NAUGHTIER
-3.9049	NAUGHTY	-0.1928
-3.1032	NEAR	+0.0010
-4.0810	NEARED
-4.3820	NEARLY
-4.3820	NEATH
-3.6830	NECK	-0.1092
-4.3820	NECKS
-3.6038	NEED	-0.1505
-4.0810	NEEDLE
-4.0810	NEEDLES
-3.1032	NEHA	+0.0386
-3.9049	NEHA'S	-0.1984
-3.9049	NEIGHBOUR	-0.2021
-4.3820	NEITHER
-3.7799	NEST
-4.0810	NESTS	-0.3542
-3.6038	NET	-0.3325
-3.0396	NEVER	-0.1832
-3.4789	NEW	-0.1085
-4.3820	NEWSPAPER
-3.1267	NEXT	-0.0727
-3.5369	NICE	-0.2743
-3.0810	NIGHT	-0.1388
-3.3406	NINA
-3.7799	NINAS
-4.3820	NINE
-4.3820	NINEPINS
-3.4278	NINGTHOU	-0.2748
-4.3820	NINTH
-4.3820	NIPPED
-2.5967	NO	-0.1169
-4.3820	NOBLE
-3.3406	NOBODY	-0.0501
-4.0810	NOBODY'S
-3.6830	NOISE	-0.1004
-4.0810	NOKOMIS
-4.3820	NON
-4.3820	NONE
-4.0810	NOON	-0.3530
-4.3820	NOONDAY
-4.0810	NOR
-3.4789	NOSE	-0.1370
-2.3734	NOT	-0.5077
-3.2681	NOTHING	-0.0922
-4.3820	NOTICE
-4.3820	NOTICED
-2.6186	NOW	-0.0043
-4.0810	NOWHERE
-4.3820	NUMBER
-4.3820	NUT
-4.0810	O
-4.3820	O'CLOCK
-4.3820	OAK
-4.3820	OBEYED
-4.3820	OBSERVED
-3.9049	OCEAN
-4.3820	OCTOPUS
-4.3820	ODD
-2.0557	OF	-0.1656
-3.0203	OFF	-0.0957
-4.3820	OFFER
-3.5369	OFTEN	-0.1541
-2.9049	OH	-0.0392
-4.0810	OIL	-0.3549
-2.7099	OLD	-0.4539
-3.9049	OLDER	-0.2019
-2.2176	ON	-0.0785
-2.9841	ONCE	-0.0089
-2.4043	ONE	-0.0612
-4.0810	ONES
-3.0018	ONLY	-0.0267
-4.3820	OOH
-3.6038	OOO	-0.1581
-3.6830	OPEN
-3.7799	OPENED	-0.1345
-4.3820	OPENS
-4.3820	OPINION
-4.3820	OPINIONS
-2.7799	OR	+0.0079
-4.0810	ORANGE
-4.0810	ORDER	-0.3504
-3.6038	ORDERED
-3.0598	OTHER	-0.5277
-3.7799	OTHERS
-4.3820	OUCH
-3.2059	OUR	-0.1053
-2.5559	OUT	-0.1517
-3.9049	OUTSIDE
-3.0018	OVER	-0.0816
-4.3820	OVERCOME
-4.3820	OVERTAKE
-3.4278	OWN	-0.2539
-4.3820	OX
-4.3820	PACIFIC
-3.9049	PADDED
-4.0810	PADDLING	-0.3312
-3.9049	PAGES
-4.3820	PAIL
-3.7799	PAIN	-0.3265
-4.0810	PAINT
-4.3820	PALACE
-4.3820	PANSIES
-4.3820	PANTS
-3.6038	PAPA	-0.2002
-4.0810	PAPER
-3.7799	PARENTS	-0.7926
-4.0810	PARROT
-3.6830	PART
-4.3820	PARTING
-4.3820	PARTS
-3.6830	PASS	-0.1893
-3.4278	PASSED	-0.1204
-4.3820	PASSENGER
-3.7799	PASSENGERS	-0.2422
-3.9049	PASSEPARTOUT
-4.3820	PASSES
-4.0810	PASSING
-4.0810	PAST
-4.3820	PASTE
-4.3820	PATH
-3.7799	PATIENCE
-4.3820	PATIENT
-4.3820	PATIENTLY
-3.9049	PAW
-4.3820	PAWS
-4.3820	PAY
-4.0810	PEACE
-3.7799	PEACH	-0.2422
-3.7799	PEAS
-4.3820	PEBBLES
-4.3820	PECKED
-4.3820	PECKING
-3.6038	PEELU
-4.3820	PEEPED
-3.5369	PENCIL	-0.2219
-4.3820	PENGUINS
-3.9049	PENNY	-0.2021
-2.6918	PEOPLE	-0.0972
-4.3820	PERFECTLY
-3.9049	PERHAPS
-4.3820	PERSON
-4.3820	PET
-4.3820	PHEASANT
-4.3820	PHILEAS
-3.3820	PIA	-0.4832
-3.3406	PIANO	-0.3765
-3.4789	PICKED	-0.0576
-4.3820	PICNIC
-4.3820	PICTURE
-3.9049	PICTURES
-4.0810	PIECE
-3.7799	PIECES	-0.1418
-4.3820	PIERCED
-4.0810	PIG
-4.3820	PIGS
-4.0810	PILLOW
-4.3820	PIN
-4.3820	PINCER
-4.3820	PINCERS
-3.9049	PINCH
-4.0810	PINCHED
-4.3820	PINCHER
-4.0810	PINCHING
-4.3820	PINE
-4.0810	PINK
-3.6038	PINOCCHIO
-4.3820	PINOCCHIO'S
-4.3820	PISTOL
-3.7799	PITTAPITTA	-0.2659
-4.3820	PITY
-3.6038	PLACE
-3.6830	PLACED	-0.1859
-4.3820	PLAIN
-4.0810	PLAINS	-0.3312
-4.3820	PLANE
-4.3820	PLANNED
-3.6830	PLANT	-0.2234
-4.3820	PLANTED
-4.3820	PLATE
-2.8906	PLAY	-0.1916
-3.9049	PLAYED	-0.1961
-4.3820	PLAYFULLY
-4.0810	PLAYGROUND	-0.3544
-3.4789	PLAYING	-0.1079
-4.3820	PLEADED
-4.3820	PLEASANTLY
-3.4789	PLEASE
-4.3820	PLEASED
-4.3820	PLEASEI
-4.3820	PLEASES
-4.3820	PLEASURE
-3.4789	PLIP	-0.3884
-4.3820	PLUCK
-4.3820	PLUCKED
-4.3820	PLUMP
-4.3820	PLUS
-4.3820	POEMS
-4.3820	POINT
-4.3820	POINTED
-4.0810	POINTING
-4.3820	POLAR
-3.6830	POLICEMAN	-0.1744
-4.0810	POND
-4.0810	PONY
-3.5369	POOL	-0.4190
-3.6830	POOR	-0.0860
-3.9049	POOSEY
-3.9049	POP
-4.3820	POPPIES
-4.3820	POPPY
-3.1516	PORRIDGE	-0.1737
-4.0810	POSSIBLE
-4.3820	POSTMAN
-3.1032	POT	-0.4397
-4.0810	POTATOES
-4.0810	POUNCED	-0.3547
-4.3820	POURED
-4.3820	POURS
-4.3820	PRAWNS
-3.6830	PRAYED	-0.3908
-4.3820	PRECIOUS
-4.3820	PREFER
-4.3820	PREFERRING
-4.3820	PREPARATIONS
-3.9049	PREPARED	-0.2021
-4.3820	PRETEND
-3.6038	PRETTY	-0.1919
-3.9049	PRICK	-0.2017
-4.0810	PRICKED
-4.3820	PRICKER
-4.3820	PRICKING
-4.3820	PRIDE
-4.0810	PRINT
-4.3820	PRINTS
-3.9049	PROBLEM
-4.3820	PROCEED
-4.3820	PROCESSION
-4.3820	PROPERLY
-4.3820	PROTECTION
-3.9049	PROUD	-0.2009
-4.0810	PROUDLY
-4.3820	PROVED
-3.7799	PUFF	-0.2538
-3.9049	PUFFED	-0.1961
-4.3820	PUFFING
-3.5369	PULL	-0.4320
-3.1779	PULLED	-0.1054
-4.3820	PULLING
-4.0810	PULLS	-0.2723
-4.3820	PUNCTUALITY
-3.7799	PUNDIT	-0.1184
-3.7799	PUNDIT'S	-0.7707
-4.3820	PUNISHMENT
-4.0810	PUPPET
-3.6830	PUPPY	-0.0272
-4.3820	PUPS
-4.3820	PURPLE
-4.3820	PURRING
-3.2359	PUT	-0.0570
-4.3820	PUTS
-4.0810	PUZZLED	-0.3499
-4.0810	QUACK
-3.4789	QUEEN	-0.3435
-4.0810	QUEER
-4.3820	QUESTION
-4.3820	QUICK
-3.5369	QUICKLY
-3.4278	QUIET	-0.0566
-3.9049	QUIETLY
-4.3820	QUIT
-4.0810	QUITE
-4.3820	R
-4.0810	RABBIT
-3.9049	RACE
-4.3820	RACED
-4.3820	RACES
-4.3820	RACING
-4.3820	RADISHES
-4.3820	RAGING
-3.9049	RAILWAY
-3.6038	RAIN	-0.0908
-3.7799	RAINBOW	-0.2422
-4.3820	RAINBOWS
-4.3820	RAINDROPS
-4.3820	RAINED
-4.0810	RAINING
-3.9049	RAINS	-0.1976
-4.3820	RAINY
-4.3820	RAISE
-4.3820	RAISING
-3.0018	RAN	-0.0814
-4.3820	RATHER
-4.0810	RAZOR	-0.3312
-4.0810	REACH
-3.3028	REACHED	-0.0659
-4.3820	REACHING
-3.2059	READ	-0.1403
-4.3820	READING
-3.6038	READY	-0.0844
-3.9049	REAL
-4.3820	REALISE
-3.9049	REALISED
-3.3028	REALLY	-0.1741
-4.3820	REAP
-4.3820	REAPERS
-4.0810	REAPING
-4.3820	REASON
-4.3820	RECOGNISED
-3.0598	RED	-0.1269
-4.3820	REFUSED
-4.3820	REINDEER
-4.0810	RELAX
-4.3820	RELAY
-4.3820	RELIEF
-4.3820	REMAINED
-4.3820	REMARKED
-4.3820	REMARKS
-4.0810	REMEMBER
-3.9049	REMEMBERED
-4.3820	REMINDS
-4.3820	REMOVE
-4.3820	REMOVED
-4.3820	REPEATING
-3.3406	REPLIED	+0.0035
-4.3820	REQUIRED
-3.6038	REST	-0.1656
-4.0810	RESTING
-4.3820	RESTLESS
-4.0810	RESULTS	-0.3312
-4.3820	RETURN
-3.9049	RETURNED
-4.3820	RETURNING
-4.3820	REVERSED
-4.3820	REVOLVERS
-4.3820	REWARD
-4.3820	RICH
-4.3820	RID
-3.9049	RIDE
-4.3820	RIDER
-4.3820	RIDERS
-4.0810	RIDING
-4.3820	RIFLES
-3.3028	RIGHT	-0.0887
-3.9049	RING
-4.3820	RINGING
-4.3820	RINGS
-3.2059	RIP	+0.0490
-4.3820	RIP'S
-4.3820	RIPE
-4.3820	RISING
-3.2359	RIVER	-0.4234
-3.9049	RIVERS	-0.1785
-3.4789	ROAD	-0.4173
-4.3820	ROADS
-3.5369	ROAR	-0.0666
-4.3820	ROARED
-4.3820	ROARING
-4.3820	ROARS
-4.0810	ROBIN
-4.3820	ROCK
-3.9049	ROCKY
-3.6830	RODE	-0.0976
-3.7799	ROLL	-0.1421
-3.9049	ROLLED	-0.2021
-3.6038	ROOM	-0.1784
-4.3820	ROOT
-4.0810	ROOTS
-4.3820	ROPE
-3.6830	ROSE	-0.0860
-4.0810	ROSES
-3.1032	ROUND	-0.2288
-4.3820	ROW
-4.3820	ROWING
-4.0810	RUB
-4.3820	RUBBED
-4.3820	RUDE
-4.3820	RULER
-2.9670	RUN	-0.0521
-3.6038	RUNNING
-3.9049	RUSH
-4.3820	RUSHING
-4.3820	SACK
-4.3820	SACKS
-3.4789	SAD	-0.1163
-4.0810	SAFE
-2.2002	SAID	-0.2394
-4.0810	SAIL
-3.9049	SAILED
-4.3820	SAILING
-4.3820	SALT
-4.3820	SALWAR
-4.3820	SAMBHAR
-3.6830	SAME	-0.4599
-4.3820	SAN
-3.7799	SANAJAOBA
-4.3820	SANATOMBA
-3.7799	SANATOMBI
-4.0810	SANAYAIMA
-3.4789	SAND	-0.0307
-4.3820	SANDS
-4.3820	SANDWICHES
-3.9049	SANDY
-3.7799	SANG	-0.1300
-4.3820	SANK
-4.3820	SANTHAL
-3.1779	SAT	-0.0998
-4.3820	SATISFY
-4.3820	SATURDAYS
-4.3820	SAVAGES
-2.8257	SAW	-0.1890
-2.9670	SAY	-0.1728
-3.7799	SAYING
-3.1032	SAYS	-0.1217
-4.3820	SCARE
-4.3820	SCARY
-4.3820	SCHACABAC
-2.9506	SCHOOL	-0.4198
-4.3820	SCHOOLMASTER
-4.3820	SCOLD
-4.3820	SCOLDED
-4.3820	SCOLDING
-4.3820	SCOTLAND
-4.3820	SCRAPED
-3.9049	SCRAPS	-0.3270
-4.0810	SCREAMED
-3.4278	SEA	-0.1562
-4.3820	SEALS
-4.3820	SEARCH
-4.3820	SEARCHING
-4.0810	SEAS	-0.3312
-4.0810	SEASIDE	-0.3312
-3.9049	SECOND	-0.1785
-4.3820	SECONDLY
-4.3820	SECRET
-4.0810	SECRETS	-0.3542
-2.7485	SEE	-0.3866
-4.0810	SEED
-3.9049	SEEDS	-0.4094
-4.0810	SEEING
-4.3820	SEEK
-4.3820	SEEM
-4.3820	SEEMED
-4.3820	SEEMS
-3.4789	SEEN	-0.1157
-3.7799	SEES
-4.0810	SELECT
-4.3820	SELL
-4.0810	SEND
-4.0810	SENT
-4.3820	SENTENCE
-4.3820	SEPARATED
-4.3820	SEPARATELY
-4.3820	SERIOUS
-4.3820	SERVED
-4.0810	SET	-0.3488
-3.7799	SEVEN
-4.0810	SEVERAL
-4.3820	SHA
-3.9049	SHADE
-4.3820	SHADY
-3.6830	SHAKE	-0.1097
-3.5369	SHALL	-0.0828
-4.3820	SHAN'T
-4.3820	SHAPE
-4.3820	SHAPES
-3.7799	SHARE
-3.9049	SHAVE	-0.4007
-3.7799	SHAVED	-0.1405
-3.6830	SHAVING
-3.6038	SHAY	-0.3561
-2.2886	SHE	-0.0846
-4.3820	SHE'S
-4.3820	SHEAF
-4.3820	SHEEP
-3.9049	SHELL
-4.3820	SHELTER
-4.3820	SHELVES
-3.9049	SHETTY
-4.3820	SHINE
-4.3820	SHINES
-3.7799	SHINING
-4.3820	SHINY
-3.6038	SHIP	-0.1345
-4.3820	SHIPS
-4.3820	SHIRK
-4.3820	SHIRTS
-4.0810	SHOCKED
-3.6830	SHOE	-0.1744
-3.6830	SHOES	-0.1070
-3.9049	SHONE
-4.3820	SHOOED
-3.5369	SHOOK
-3.5369	SHOOT	-0.1195
-4.0810	SHOOTS
-3.5369	SHOP	-0.1427
-3.7799	SHORE	-0.2422
-3.7799	SHORT	-0.1328
-3.9049	SHORTER
-4.0810	SHOT	-0.3427
-4.0810	SHOTS
-3.0018	SHOULD	+0.0269
-4.3820	SHOULDER
-3.9049	SHOUT
-3.3820	SHOUTED	-0.0505
-4.3820	SHOUTS
-3.6830	SHOW	-0.1096
-4.0810	SHOWED
-4.3820	SHOWER
-4.3820	SHOWING
-4.3820	SHOWS
-4.3820	SHRIEKED
-4.3820	SHRILL
-4.3820	SHRIMPS
-4.3820	SHUDDERED
-4.3820	SHUT
-4.3820	SICK
-3.6830	SIDE
-4.3820	SIDES
-4.3820	SIDEWAYS
-4.3820	SIGHING
-3.9049	SIGHT	-0.1977
-4.3820	SIGNALMAN
-4.3820	SIGNS
-3.9049	SILENCE	-0.1977
-3.9049	SILENT
-4.3820	SILENTLY
-4.3820	SILL
-4.0810	SILLY	-0.3522
-4.3820	SIMPLE
-3.9049	SIMPLY
-3.9049	SINCE
-3.5369	SING	+0.0071
-3.6830	SINGING
-4.3820	SINGLE
-4.3820	SINGLY
-4.3820	SINK
-4.3820	SINKS
-4.3820	SIOUX
-4.3820	SIPPED
-3.4278	SIT	-0.2470
-3.7799	SITTASITTA	-0.1421
-3.6830	SITTING	-0.1048
-3.4789	SIX	-0.0634
-4.3820	SIXTH
-4.3820	SIXTY
-3.6830	SIZE	-0.1980
-4.0810	SKILL
-4.3820	SKINNY
-3.1516	SKY	-0.7467
-4.3820	SLAMMED
-3.6038	SLEEP	-0.1493
-3.9049	SLEEPING
-4.0810	SLEEPS
-3.9049	SLEEPY
-4.3820	SLENDER
-3.6830	SLEPT	-0.1096
-4.0810	SLIPPED
-4.3820	SLOPES
-3.9049	SLOW
-4.3820	SLOWED
-3.4278	SLOWLY	-0.1176
-4.3820	SLOWS
-3.0203	SMALL	-0.2157
-4.3820	SMALLEST
-4.0810	SMART
-4.3820	SMELL
-3.5369	SMILE
-3.5369	SMILED
-3.7799	SMILES
-4.3820	SMILEY
-3.7799	SMILING
-4.3820	SNAIL
-4.3820	SNATCHED
-4.3820	SNORES
-4.0810	SNOW
-4.3820	SNOWING
-4.3820	SNUGGLES
-2.5431	SO	-0.0095
-4.3820	SOAK
-4.3820	SOAKED
-3.9049	SOFT
-4.3820	SOFTLY
-4.3820	SOLDIERS
-4.3820	SOLVE
-2.8257	SOME	-0.1490
-3.4789	SOMEBODY	-0.0650
-3.5369	SOMEONE	-0.0727
-3.3820	SOMETHING
-3.5369	SOMETIMES
-4.3820	SOMEWHERE
-3.6830	SON	-0.1097
-3.6830	SONG	-0.4742
-3.9049	SONGS
-4.0810	SONS
-3.1516	SONU	-0.0396
-3.7799	SONU'S	-0.1377
-3.1516	SOON	-0.0825
-4.3820	SOONER
-3.3820	SORRY	-0.2720
-4.3820	SOUL
-3.9049	SOUND
-4.3820	SOUNDED
-4.3820	SOUNDS
-4.0810	SPACE
-4.0810	SPARE
-3.3820	SPARROWS	-0.1932
-3.6038	SPEAK	-0.1493
-4.3820	SPEAKS
-4.0810	SPEAR
-3.9049	SPECIAL
-4.3820	SPEECH
-4.3820	SPEECHES
-4.0810	SPEED
-4.3820	SPEEDING
-4.3820	SPELLS
-3.7799	SPELT	-0.2637
-3.9049	SPIDER
-3.9049	SPIDER'S	-0.1785
-4.3820	SPIDERS
-4.3820	SPILLING
-3.6038	SPLASH	-0.0893
-4.3820	SPLASHING
-3.9049	SPOKE	-0.1961
-4.3820	SPOONFULS
-4.3820	SPOTS
-4.3820	SPRANG
-3.7799	SPREAD	-0.1420
-4.3820	SPRING
-4.3820	SQUARE
-4.0810	SQUEAKED
-4.3820	SQUIRREL
-4.3820	SQUIRRELS
-4.3820	STALKS
-4.3820	STAMPED
-3.9049	STAND
-4.3820	STANDING
-4.3820	STARE
-3.5369	STARED	-0.0695
-4.3820	STARES
-4.3820	STARING
-3.7799	STARS	-0.1184
-3.9049	START	-0.1928
-3.3406	STARTED
-4.0810	STARTS	-0.3547
-4.3820	STARVE
-4.0810	STATION
-3.9049	STAY
-3.6830	STAYED
-4.0810	STAYS
-4.3820	STEADILY
-4.0810	STEAL
-4.3820	STEAMED
-3.9049	STEEP
-4.3820	STEP
-4.0810	STEPS
-4.3820	STERNLY
-4.3820	STICK
-4.3820	STICKING
-4.0810	STICKS
-4.3820	STIFF
-3.4278	STILL	-0.0265
-4.3820	STOLE
-3.9049	STOMACH	-0.2014
-4.0810	STONE	-0.3455
-3.4789	STOOD	-0.0304
-3.0203	STOP	-0.0718
-3.3406	STOPPED	-0.0756
-3.6830	STORE
-4.3820	STORED
-4.3820	STORES
-3.7799	STORIES
-4.3820	STORING
-4.0810	STORM
-3.9049	STORY
-4.0810	STRAIGHT
-4.0810	STRANGE	-0.3455
-4.3820	STRANGER
-3.6830	STRAW
-4.3820	STRAWBERRY
-4.3820	STREAMING
-4.3820	STREET
-4.0810	STREETS	-0.3312
-4.0810	STRENGTH
-4.3820	STRETCH
-4.3820	STRETCHED
-4.3820	STRETCHES
-4.3820	STRICT
-3.9049	STRING
-3.9049	STRIPES
-4.3820	STRIPS
-4.3820	STROKE
-4.3820	STROKED
-4.3820	STROKING
-3.3406	STRONG
-3.9049	STRONGER
-4.0810	STRUCK
-4.3820	STRUGGLED
-4.0810	STRUNG
-4.3820	STRUTTING
-3.9049	STUCK
-4.3820	STUDIED
-4.3820	STUDIES
-3.6830	STUDY	-0.1009
-4.0810	STUDYING
-3.9049	STUMP	-0.2013
-4.3820	STUPID
-4.3820	STY
-4.0810	SUBJECT
-4.3820	SUBWAY
-4.3820	SUCCESSFUL
-3.9049	SUCH
-4.3820	SUDDEN
-3.3028	SUDDENLY
-4.3820	SUGARCANE
-3.9049	SULLIVAN	-0.4095
-3.1516	SULTAN	-1.2067
-4.3820	SULTAN'S
-3.5369	SUMMER	-0.0518
-4.3820	SUMMER'S
-2.9506	SUN	-0.2762
-3.5369	SUNDARI
-4.3820	SUNDAY
-4.0810	SUNFLOWER
-4.3820	SUNFLOWERS
-4.3820	SUNLIGHT
-3.9049	SUNNY
-3.6830	SUNSHINE	-0.0860
-3.1779	SUNU	-0.2438
-4.3820	SUPPORT
-4.3820	SUPPOSE
-4.3820	SURE
-4.0810	SURELY
-3.6830	SURPRISE	-0.1937
-3.6038	SURPRISED	-0.3512
-4.3820	SURROUNDED
-4.3820	SURVEY
-4.3820	SUSPENSION
-4.0810	SWAM
-3.9049	SWAY	-0.2021
-3.6830	SWEET	-0.0976
-4.0810	SWEETS
-4.3820	SWIFTLY
-3.7799	SWIM	-0.1333
-4.0810	SWIMMING
-3.6830	SWING	-0.0976
-4.3820	SWINGING
-4.3820	SWINGS
-4.3820	SWUM
-3.6830	TABLE	-0.0860
-3.5369	TAIL	-0.1622
-4.3820	TAILOR
-3.1779	TAKE	-0.0918
-3.9049	TAKEN	-0.1972
-4.3820	TAKES
-4.3820	TAKING
-4.3820	TALES
-3.9049	TALK
-3.7799	TALKED
-4.3820	TALKER
-4.3820	TALKERS
-3.4278	TALKING	-0.0986
-3.6830	TALL
-3.5369	TARA	-0.1651
-3.4789	TARGET	-0.1545
-4.3820	TASTED
-4.0810	TASTY
-4.0810	TAUGHT
-4.3820	TAXIS
-3.6038	TEACHER	-0.0875
-3.9049	TEAM
-4.3820	TEAR
-3.6038	TEARS
-4.3820	TEASE
-4.0810	TEETH	-0.3525
-3.0810	TELL	-0.4413
-4.0810	TELLING
-4.3820	TELLS
-4.3820	TELUGU
-4.3820	TEMPTING
-3.7799	TEN	-0.1372
-4.3820	TENDER
-4.3820	TERROR
-4.3820	TEST
-4.3820	TEXTBOOKS
-3.1779	THAN	-0.0440
-3.7799	THANK
-3.6038	THANKFUL	-0.3027
-2.2748	THAT	-0.1098
-3.3820	THAT'S
-1.2744	THE	-0.2477
-2.8138	THEIR	-0.0649
-4.3820	THEIRS
-2.5307	THEM	-0.0954
-3.6038	THEMSELVES
-2.6416	THEN	-0.0823
-2.3997	THERE	-0.0633
-3.9049	THERE'S
-3.4278	THESE	-0.1180
-2.2614	THEY	-0.0702
-4.3820	THEY'LL
-4.0810	THEY'RE
-4.3820	THEYRE
-3.6038	THICK
-4.3820	THIN
-3.9049	THING
-3.1032	THINGS	-0.0300
-3.0203	THINK	-0.2163
-3.9049	THINKING
-3.7799	THINKS	-0.1300
-4.0810	THIRSTY
-4.3820	THIRTY
-2.5896	THIS	-0.1038
-3.7799	THORNS	-0.1184
-4.3820	THORNY
-3.4278	THOSE
-3.7799	THOUGH
-3.3028	THOUGHT	-0.0348
-4.3820	THOUGHTS
-3.9049	THOUSAND
-4.3820	THOUSANDS
-4.3820	THREAD
-3.0598	THREE	-0.1115
-3.9049	THREW	-0.1961
-4.3820	THRILLED
-4.3820	THRONE
-3.2359	THROUGH	+0.0217
-3.9049	THROW	-0.2008
-4.0810	THROWN	-0.3548
-4.3820	THROWS
-4.3820	THUMB
-3.9049	THUNDER	-0.2013
-4.3820	THURSDAYS
-4.3820	TICKLED
-4.3820	TICKLING
-4.3820	TIED
-2.8505	TIGER	-0.4621
-4.3820	TIGER'S
-3.9049	TIGHT
-3.9049	TIGHTLY
-3.3820	TILL
-2.8022	TIME	-0.1488
-3.4278	TIMES	-0.0575
-4.3820	TIMID
-4.0810	TINIEST
-3.3406	TINY	-0.2463
-4.3820	TIP
-3.5369	TIRED	-0.0705
-1.6927	TO	-0.1955
-3.3028	TODAY
-4.3820	TOES
-4.3820	TOFFEE
-3.4278	TOGETHER
-3.2359	TOLD	-0.0960
-3.9049	TOMORROW
-3.5369	TONGUE	-0.1534
-2.7485	TOO	-0.0632
-3.2359	TOOK	-0.0548
-4.3820	TOOTHLESS
-3.4789	TOP	-0.3312
-4.3820	TOPIC
-4.3820	TOPPED
-3.7799	TOPSY	-0.2615
-4.0810	TOUCH
-4.3820	TOUCHED
-3.3820	TOWARDS	-0.0512
-4.3820	TOWN
-3.9049	TRACKS	-0.1785
-4.3820	TRADITIONAL
-2.9196	TRAIN	-0.7397
-4.0810	TRAINS
-3.5369	TRAMP	-0.2836
-4.3820	TRAPPED
-4.3820	TRAVANCORE
-4.0810	TRAVEL
-4.3820	TRAVELLED
-4.3820	TRAVELLERS
-4.3820	TREAT
-2.4375	TREE	-0.4195
-4.3820	TREE'S
-3.3028	TREES	-0.2323
-4.3820	TREMBLING
-4.3820	TREMENDOUS
-4.3820	TRIANGLES
-4.3820	TRIBE
-4.0810	TRICK
-4.3820	TRICYCLE
-3.6038	TRIED	-0.0818
-4.3820	TRIES
-3.6830	TRING
-4.3820	TRIP
-4.0810	TRIUMPHANTLY
-4.3820	TROUBLES
-3.4789	TRUE	-0.0625
-4.3820	TRUMPET
-4.3820	TRUNDLING
-3.2059	TRUNK	-0.2447
-4.0810	TRUTH	-0.3312
-3.3406	TRY	-0.0527
-4.3820	TRYING
-4.0810	TU
-4.3820	TUESDAYS
-3.9049	TUG
-3.6830	TUGGED	-0.4714
-4.3820	TUNE
-4.0810	TUNGGI
-4.3820	TUNNELS
-3.6830	TURN
-3.3406	TURNED	-0.1313
-3.3028	TURNIP	-0.6019
-4.3820	TURTLE
-3.7799	TURVY	-0.7944
-4.0810	TWELVE	-0.2723
-3.7799	TWENTY
-4.3820	TWIRLED
-4.3820	TWIRLING
-4.3820	TWISTED
-4.3820	TWITCHED
-3.0203	TWO	-0.0193
-4.3820	UH
-3.9049	UL
-4.3820	UMBRELLA
-4.0810	UMBRELLAS
-4.0810	UNABLE	-0.3499
-3.2681	UNDER
-4.3820	UNDERNEATH
-3.6830	UNDERSTAND
-4.3820	UNDERSTANDING
-4.0810	UNDERSTOOD
-4.3820	UNFAIROH
-4.0810	UNHAPPY
-4.3820	UNISON
-4.3820	UNSEEN
-3.7799	UNTIL
-2.2851	UP	-0.2265
-3.3406	UPON	-0.2437
-4.3820	UPROOTED
-3.9049	UPSET
-4.3820	URGED
-2.9670	US	-0.0618
-3.7799	USE	-0.2571
-4.0810	USED
-4.3820	USEFUL
-4.3820	V
-4.0810	VAIN	-0.3504
-3.7799	VAN	-0.7942
-4.3820	VANILLA
-3.6038	VEGETABLE	-0.2807
-4.0810	VEGETABLES
-2.6918	VERY	-0.2384
-4.3820	VESSELS
-4.3820	VI
-4.3820	VIEW
-3.2681	VILLAGE	-0.3960
-4.3820	VILLAGERS
-4.3820	VIOLET
-3.9049	VISIT
-4.0810	VISITED
-4.3820	VISITING
-3.2359	VOICE	-0.1539
-4.3820	VOLLEYBALL
-3.9049	WAIT
-4.3820	WAITED
-4.3820	WAITING
-3.1779	WAKE	-0.1878
-4.3820	WAKES
-4.0810	WAKING
-3.4278	WALK
-3.3820	WALKED	-0.0454
-3.3406	WALKING	-0.1337
-4.3820	WALKS
-3.9049	WALL
-4.3820	WALLOP
-4.0810	WAND	-0.3548
-4.3820	WANDERED
-2.8906	WANT	-0.5209
-3.4789	WANTED	-0.2341
-3.6038	WANTS	-0.0834
-3.9049	WARM	-0.1785
-4.3820	WARN
-4.3820	WARNING
-4.3820	WARS
-1.9411	WAS	-0.3098
-4.3820	WASH
-4.0810	WASHED
-4.3820	WASHERMAN
-3.5369	WASN'T	-0.2836
-3.7799	WASTE
-4.3820	WASTING
-3.6830	WATCH	-0.0272
-3.7799	WATCHED
-4.3820	WATCHING
-2.9506	WATER	-0.1420
-4.3820	WATERED
-4.0810	WATERING
-4.3820	WATERS
-4.3820	WATERSIDE
-3.0598	WAY	-0.2933
-2.5247	WE	-0.1285
-3.7799	WE'LL
-4.3820	WEAK
-4.3820	WEAR
-3.7799	WEB	-0.1421
-4.3820	WEBS
-3.6830	WEDDING	-0.4599
-4.3820	WEDNESDAYS
-4.0810	WEE
-4.3820	WEEDS
-3.9049	WEEK	-0.1928
-4.3820	WEEKS
-4.3820	WEIGHT
-4.3820	WEIGHTY
-4.0810	WELCOME
-3.1516	WELL	-0.0275
-2.6577	WENT	-0.1302
-4.0810	WEPT
-2.5307	WERE	-0.3093
-3.6830	WET	-0.1092
-2.5431	WHAT	-0.0379
-4.0810	WHAT'S
-4.3820	WHATEVER
-4.3820	WHEAT
-4.3820	WHEEE
-4.3820	WHEEL
-2.4955	WHEN	-0.0865
-4.0810	WHENE'ER
-4.0810	WHENEVER
-2.9348	WHERE	-0.0672
-4.3820	WHEREVER
-4.3820	WHETHER
-3.1516	WHICH	-0.0130
-4.3820	WHICHEVER
-3.6038	WHILE	-0.0800
-4.0810	WHIPPED
-4.3820	WHISKERS
-4.0810	WHISPERED
-4.0810	WHISTLE
-4.3820	WHISTLED
-4.3820	WHISTLES
-3.3820	WHITE
-4.0810	WHIZZ
-2.8379	WHO	-0.0068
-4.0810	WHO'S
-4.3820	WHOEVER
-3.6038	WHOLE	-0.2807
-4.3820	WHOM
-4.3820	WHOOOO
-4.3820	WHOOOOOO
-4.3820	WHOOPED
-4.3820	WHOOSH
-2.8379	WHY	+0.0445
-4.3820	WHY'S
-4.3820	WHYOUT
-3.7799	WIDE
-3.5369	WIFE	-0.2776
-4.3820	WIG
-4.3820	WIGGLES
-4.3820	WIGWAM
-3.7799	WILD
-2.4789	WILL	-0.3212
-3.2681	WIND	-0.2043
-4.0810	WINDING
-3.6038	WINDOW	-0.3325
-4.3820	WINDS
-3.5369	WINGS	-0.1311
-3.7799	WINKLE	-0.2659
-3.6830	WINTER	-0.1096
-4.0810	WIPE	-0.3460
-4.3820	WIPING
-4.3820	WIRES
-4.3820	WISDOM
-3.4789	WISE	-0.1824
-3.2681	WISH	-0.3395
-4.3820	WISHED
-4.0810	WISHES
-4.3820	WIT
-2.2956	WITH	-0.0654
-4.3820	WITHIN
-3.6830	WITHOUT
-3.6830	WOKE
-3.4789	WOLF	-0.0892
-3.3406	WOMAN	-0.7395
-4.3820	WON
-3.9049	WON'T
-3.5369	WONDER	-0.2379
-3.9049	WONDERED	-0.4035
-3.5369	WONDERFUL	-0.0661
-4.3820	WONDERINGLY
-4.3820	WONDERS
-3.9049	WOOD
-4.0810	WOODEN
-4.3820	WOODS
-3.6038	WORD	-0.0800
-3.7799	WORDS
-4.3820	WORE
-3.1516	WORK	-0.1551
-4.0810	WORKED
-3.4789	WORLD	-0.1824
-4.0810	WORM
-4.3820	WORRIEDLY
-3.9049	WORRY
-4.0810	WORTHY
-2.7288	WOULD	-0.2095
-3.4278	WOULDN'T	-0.1371
-4.0810	WOW	-0.3547
-4.0810	WOXY
-3.9049	WRESTLER	-0.1785
-4.3820	WRIGGLE
-4.3820	WRIGGLED
-4.3820	WRINKLED
-4.3820	WRINKLES
-3.9049	WRITE	-0.1933
-4.3820	WRITES
-4.3820	WRITING
-4.3820	WRITTEN
-3.6038	WRONG
-4.3820	WWE
-4.0810	W_A_T_E_R
-4.3820	Y
-4.3820	YARD
-4.3820	YEAH
-3.6830	YEAR
-4.3820	YEAR'S
-3.2359	YEARS	-0.2579
-4.0810	YELLED
-3.3406	YELLOW	-0.0631
-3.4278	YES	+0.0250
-4.3820	YESTERDAY
-3.9049	YET
-4.3820	YORK
-1.9539	YOU	-0.1836
-3.9049	YOU'D	-0.2020
-3.6038	YOU'LL
-3.7799	YOU'RE
-4.0810	YOU'VE
-3.4278	YOUNG	-0.1387
-4.0810	YOUNGEST	-0.3312
-2.8768	YOUR	-0.0018
-3.9049	YOURSELF
-4.0810	YUMMY
-4.0810	ZAG	-0.3549
-3.9049	ZEBRA	-0.1928
-4.0810	ZIG
-4.0810	ZIGZAG
-4.0810	ZOO	-0.3312
-3.6038	ZZZAK	-0.3561

\2-grams:
-0.2953	!!UNK !!UNK	+0.3395
-1.8646	!!UNK A	-0.0403
-3.3576	!!UNK ABOUT
-3.5725	!!UNK AFRAID
-3.5725	!!UNK AFTER
-3.5725	!!UNK AGAIN
-2.5791	!!UNK ALL
-3.5725	!!UNK ALWAYS
-2.9127	!!UNK AM	+0.8001
-3.1400	!!UNK AN
-1.8281	!!UNK AND	-0.0239
-3.3576	!!UNK ANIMALS	-0.3382
-3.5725	!!UNK APPLES
-2.9456	!!UNK ARE
-3.3576	!!UNK AROUND	-0.1235
-2.9456	!!UNK AS
-3.3576	!!UNK ASKED
-2.5065	!!UNK AT	+0.0193
-3.5725	!!UNK ATE
-2.9127	!!UNK AWAY
-3.3576	!!UNK BABY
-2.9456	!!UNK BACK
-2.9127	!!UNK BE	+0.0185
-3.5725	!!UNK BECAME
-3.3576	!!UNK BEGAN
-3.3576	!!UNK BETWEEN
-3.5725	!!UNK BHAIYA
-3.3576	!!UNK BIG
-3.0944	!!UNK BIRDS	-0.0835
-3.5725	!!UNK BOBBY
-3.5725	!!UNK BOOKS
-3.0944	!!UNK BOY
-3.5725	!!UNK BRANCHES	-0.0998
-3.5725	!!UNK BREEZE
-3.5725	!!UNK BROWN
-2.5791	!!UNK BUT
-3.5725	!!UNK BUTTERFLY	+0.1074
-2.9127	!!UNK BY
-3.5725	!!UNK CALL
-3.3576	!!UNK CAME
-2.9456	!!UNK CAN	-0.0489
-3.3576	!!UNK CAN'T	+0.1111
-3.5725	!!UNK CATCH
-3.1400	!!UNK CAW	+0.1050
-3.5725	!!UNK CLASS
-3.5725	!!UNK CLIMB
-3.5725	!!UNK CLIMBED
-3.5725	!!UNK COAT	+0.0062
-2.7174	!!UNK COME
-3.3576	!!UNK COMES
-3.5725	!!UNK COOK
-3.1400	!!UNK COULD	-0.1460
-3.3576	!!UNK COURSE	-0.1745
-3.5725	!!UNK CREEPER
-3.5725	!!UNK CUB	+0.3975
-3.3576	!!UNK CUT
-2.9127	!!UNK DAY	+0.1114
-3.5725	!!UNK DEAR
-3.3576	!!UNK DID
-2.6204	!!UNK DO	+0.0341
-3.5725	!!UNK DOG
-3.1400	!!UNK DON'T	-0.1183
-3.5725	!!UNK DONE
-3.5725	!!UNK DOOR
-2.7174	!!UNK DOWN	-0.1202
-3.3576	!!UNK DREW	-0.3686
-3.5725	!!UNK DRIVER	+0.2442
-3.5725	!!UNK EVEN
-3.5725	!!UNK EVERYONE
-3.5725	!!UNK EVERYTHING
-3.5725	!!UNK FACE
-3.3576	!!UNK FALL	-0.0046
-3.5725	!!UNK FAR
-3.5725	!!UNK FEET
-3.5725	!!UNK FELL
-3.3576	!!UNK FIRST
-3.5725	!!UNK FISH
-3.0944	!!UNK FLEW
-3.0944	!!UNK FLY	-0.1407
-3.3576	!!UNK FOOD
-2.4743	!!UNK FOR
-3.5725	!!UNK FOREST	+0.4596
-3.5725	!!UNK FOUR
-3.5725	!!UNK FRESH
-3.3576	!!UNK FRIENDS
-2.9127	!!UNK FROM
-3.5725	!!UNK FUTURE	-0.1639
-3.5725	!!UNK GAME
-3.3576	!!UNK GET	+0.0172
-3.5725	!!UNK GIRAFFE	+0.0388
-3.5725	!!UNK GIRLS
-3.0944	!!UNK GIVE
-3.0944	!!UNK GO	-0.0820
-3.0944	!!UNK GOING	-0.0705
-3.5725	!!UNK GONE	-0.1244
-3.1400	!!UNK GOOD
-3.3576	!!UNK GRANDMOTHER
-3.5725	!!UNK GRASS
-3.0944	!!UNK GREW
-3.1400	!!UNK HAD	-0.1078
-3.1400	!!UNK HAND
-3.5725	!!UNK HARM
-3.3576	!!UNK HAS
-2.9127	!!UNK HAVE	+0.0347
-2.1291	!!UNK HE	+0.0043
-3.3576	!!UNK HEAD
-3.0944	!!UNK HEARD	-0.1674
-3.5725	!!UNK HELD
-3.3576	!!UNK HELP
-2.6204	!!UNK HER	-0.0412
-3.5725	!!UNK HERE
-3.3576	!!UNK HIM
-2.4444	!!UNK HIS	+0.0021
-3.5725	!!UNK HOME
-3.5725	!!UNK HOP
-3.3576	!!UNK HORSE	-0.0144
-3.3576	!!UNK HOUSE
-2.9456	!!UNK HOW
-1.9870	!!UNK I	+0.0028
-2.9456	!!UNK I'M	-0.0244
-2.9127	!!UNK IF
-2.1733	!!UNK IN	-0.0074
-3.3576	!!UNK INTO
-2.6204	!!UNK IS	-0.0545
-2.2780	!!UNK IT	-0.0112
-3.5725	!!UNK IT'S
-2.9127	!!UNK KING	+0.0881
-3.5725	!!UNK KITES
-3.5725	!!UNK KNEW
-3.1400	!!UNK KNOW
-3.5725	!!UNK KNOWS
-3.5725	!!UNK LATER
-3.3576	!!UNK LEFT	-0.0927
-3.5725	!!UNK LET
-2.6204	!!UNK LIKE	-0.0537
-2.9127	!!UNK LITTLE	+0.0106
-3.5725	!!UNK LIVED
-2.9127	!!UNK LONG	-0.0203
-3.3576	!!UNK LOOK
-3.0944	!!UNK LOOKED
-3.5725	!!UNK MADE
-2.9456	!!UNK MAN
-3.5725	!!UNK MANGO
-3.3576	!!UNK MANY
-3.5725	!!UNK MATTER
-2.6662	!!UNK ME
-3.5725	!!UNK MET
-3.5725	!!UNK MIDDLE
-3.5725	!!UNK MONKEY
-3.0944	!!UNK MORE
-2.6662	!!UNK MOTHER	+0.0123
-3.5725	!!UNK MOUSE
-3.5725	!!UNK MOUTH
-3.5725	!!UNK MUCH
-3.3576	!!UNK MUMBAI
-3.3576	!!UNK MUST
-2.5413	!!UNK MY	-0.0217
-3.5725	!!UNK MYSELF
-3.3576	!!UNK NAME	-0.0927
-3.5725	!!UNK NARRATOR
-3.5725	!!UNK NEED
-3.0944	!!UNK NEHA
-3.0944	!!UNK NEVER
-3.3576	!!UNK NICE	+0.1396
-3.5725	!!UNK NINA
-3.1400	!!UNK NO	-0.1303
-3.5725	!!UNK NOBODY
-2.5791	!!UNK NOT	+0.0014
-3.5725	!!UNK NOTHING
-2.9456	!!UNK NOW
-2.2780	!!UNK OF
-3.3576	!!UNK OLD
-2.5413	!!UNK ON
-3.0944	!!UNK ONCE
-2.7174	!!UNK ONE	-0.0247
-3.0944	!!UNK ONLY	-0.2478
-3.1400	!!UNK OR
-3.1400	!!UNK OTHER	+0.2689
-3.3576	!!UNK OUR
-2.9456	!!UNK OUT	-0.0588
-3.0944	!!UNK OVER
-3.5725	!!UNK PADDED
-3.5725	!!UNK PASSED
-3.5725	!!UNK PENCIL
-2.7174	!!UNK PEOPLE	+0.0275
-3.5725	!!UNK PLAY
-3.5725	!!UNK PUT
-3.3576	!!UNK REACHED
-3.5725	!!UNK RED
-3.5725	!!UNK REST	-0.1499
-3.5725	!!UNK ROAD	+0.2017
-3.3576	!!UNK ROOM
-2.9456	!!UNK ROUND	-0.0241
-3.5725	!!UNK RUN
-2.5413	!!UNK SAID	-0.0108
-3.0944	!!UNK SAT	-0.0124
-3.1400	!!UNK SAW	-0.0580
-3.3576	!!UNK SAYS
-3.3576	!!UNK SCHOOL
-3.5725	!!UNK SEA
-3.3576	!!UNK SEE	+0.0269
-3.5725	!!UNK SEEN
-2.5791	!!UNK SHE	-0.0059
-3.5725	!!UNK SHOP
-3.5725	!!UNK SHOULD
-3.5725	!!UNK SHOW
-3.5725	!!UNK SMALL
-3.0944	!!UNK SO
-3.3576	!!UNK SOME
-3.5725	!!UNK SOMEBODY
-3.5725	!!UNK SONG
-3.5725	!!UNK SOON
-3.5725	!!UNK SPLASH
-3.5725	!!UNK STILL
-3.5725	!!UNK STRONG
-3.5725	!!UNK SUCH
-3.0944	!!UNK SULTAN	+0.9497
-3.3576	!!UNK SUMMER
-3.3576	!!UNK SUN	+0.1411
-3.5725	!!UNK SURPRISE
-3.5725	!!UNK SWEET
-3.3576	!!UNK TALKING
-3.5725	!!UNK TALL
-3.5725	!!UNK THAN
-2.4743	!!UNK THAT	-0.0209
-3.5725	!!UNK THAT'S
-1.4837	!!UNK THE	+0.0183
-3.1400	!!UNK THEIR
-2.7174	!!UNK THEM	-0.0373
-2.9127	!!UNK THEN	-0.0416
-2.5791	!!UNK THERE
-3.3576	!!UNK THESE
-2.4163	!!UNK THEY
-3.5725	!!UNK THINKS
-3.3576	!!UNK THIS
-3.0944	!!UNK TIGER	+0.0664
-3.5725	!!UNK TILL
-2.9127	!!UNK TIME	-0.0759
-3.5725	!!UNK TIMES
-1.9972	!!UNK TO	-0.0057
-3.3576	!!UNK TOLD
-3.5725	!!UNK TOP	+0.1156
-3.1400	!!UNK TRAIN	+0.1492
-2.4444	!!UNK TREE	+0.0938
-3.5725	!!UNK TRUNK	-0.1828
-3.3576	!!UNK TWO
-2.4743	!!UNK UP
-3.5725	!!UNK UPON
-3.3576	!!UNK US
-3.5725	!!UNK VEGETABLE
-3.5725	!!UNK VOICE
-3.0944	!!UNK WAKE	-0.0506
-3.5725	!!UNK WALKING
-3.0944	!!UNK WANT	-0.0536
-3.3576	!!UNK WANTS
-2.3194	!!UNK WAS	+0.0299
-3.5725	!!UNK WAY
-2.6204	!!UNK WE	-0.0273
-3.5725	!!UNK WELL
-2.5791	!!UNK WENT	+0.0164
-3.1400	!!UNK WERE	-0.0287
-2.9456	!!UNK WHAT
-2.9456	!!UNK WHEN
-3.0944	!!UNK WHERE
-3.3576	!!UNK WHO
-3.5725	!!UNK WHOLE	+0.0651
-3.0944	!!UNK WHY
-2.7174	!!UNK WILL	-0.0548
-3.3576	!!UNK WIND
-2.3417	!!UNK WITH
-3.5725	!!UNK WITHOUT
-3.5725	!!UNK WORLD
-3.0944	!!UNK WOULD
-3.5725	!!UNK YEAR
-3.5725	!!UNK YELLOW
-2.1433	!!UNK YOU	+0.0006
-1.0594	A !!UNK	+0.0674
-2.6647	A ABOUT	-0.2033
-2.6647	A ACROSS
-2.4498	A AFTER
-1.7126	A AND	-0.0377
-2.4498	A ARE	-0.0877
-2.1866	A AS	-0.0434
-2.0049	A BE	+0.0538
-2.6647	A BEAR	-0.1370
-2.6647	A BECOMING	+0.1156
-2.6647	A BROUGHT
-2.6647	A BUT
-2.1866	A BUY	-0.1694
-2.2322	A CAME	-0.3087
-2.6647	A CARRIED
-2.1866	A DAY	-0.0778
-2.1866	A DRAW
-2.2322	A DREW
-2.2322	A FIND
-2.6647	A FOOD
-1.7126	A FOR	-0.0621
-2.6647	A FOUND
-2.6647	A GAVE
-2.4498	A GOT
-2.0378	A HAD	-0.0071
-2.2322	A HAVE	+0.0048
-2.4498	A HEARD	-0.0144
-2.4498	A HER
-1.2503	A IN	-0.0112
-2.1866	A INTO	-0.0869
-1.5987	A IS	-0.4604
-2.6647	A IT
-2.6647	A IT'S
-2.6647	A KNOW	-0.1817
-2.0049	A LIKE	-0.0083
-2.0049	A LIVED	-0.0989
-2.6647	A M
-2.6647	A MADE
-2.0378	A MAKE
-2.6647	A ME
-2.2322	A MET	-0.1598
-2.6647	A NEAR
-1.7126	A OF
-1.4822	A ON	+0.0185
-2.6647	A OUT
-2.6647	A PLAYING
-2.6647	A REACHED
-2.6647	A READ
-2.6647	A ROAR	-0.1639
-2.2322	A SAID
-1.5665	A SAW	+0.0003
-2.6647	A SKY
-2.6647	A STUDY	-0.1296
-2.1866	A THAT
-2.6647	A THERE'S
-2.0378	A TO	-0.0750
-2.6647	A TOOK
-2.6647	A TREE
-2.1866	A TRING
-2.6647	A TURNIP	+0.3627
-2.2322	A UNDER
-2.6647	A UP
-2.0378	A UPON	-0.1886
-2.4498	A WANT
-1.1812	A WAS	-0.1635
-2.0378	A WERE	-0.3599
-2.2322	A WHAT
-2.6647	A WHEN
-1.3904	A WITH	-0.0317
-1.0989	ABOUT !!UNK	-0.1337
-1.0989	ABOUT ARE	-0.1184
-1.0989	ABOUT READ
-0.2531	ABOVE FEET
-0.7302	ACROSS WALK
-0.7302	ADDED AND
-0.7302	AFRAID NOT
-1.1825	AFTER !!UNK	+0.0674
-0.3392	AFTERNOON THE	-0.0981
-1.1843	AGAIN !!UNK	-0.1337
-1.3992	AGAIN AND
-1.1843	AGAIN BACK
-1.3992	AGAIN HOME
-1.3992	AGAIN ONCE
-0.3392	AGO LONG
-0.2142	AIR THE	-0.4099
-0.6510	ALARM THE
-0.8913	ALL !!UNK	+0.0674
-1.1343	ALL AND
-1.5114	ALL AT
-1.9895	ALL BUT
-1.9895	ALL DONG	+0.2017
-1.9895	ALL FLYING
-1.9895	ALL HAVE
-1.7746	ALL IT
-1.7746	ALL TELL	-0.1809
-1.7746	ALL THEM
-1.9895	ALL THERE	-0.2255
-1.5114	ALL THEY
-1.7746	ALL US	-0.1251
-1.9895	ALL WASTE
-1.9895	ALL WE
-1.7746	ALL WERE
-1.9895	ALL WHEN
-0.7371	ALONG CAME
-0.4739	ALONG DAY	-0.2524
-1.1825	ALSO HE
-1.1825	ALSO I
-0.9676	ALSO WAS
-0.7292	ALWAYS HE
-1.2073	ALWAYS WILL
-0.9924	ALWAYS YOU
-1.5955	AM !!UNK	+0.0674
-0.0414	AM I	+0.0022
-1.2812	AN !!UNK	-0.1337
-1.4961	AN HALF
-1.2812	AN KILOMETRES	+0.0580
-1.4961	AN SHOOT
-1.4961	AN TIME	-0.2264
-1.2812	AN WERE	-0.3816
-0.9497	AND !!UNK	+0.0674
-2.3443	AND AGAIN
-2.2987	AND ANIMALS	-0.1914
-2.7769	AND APPLE
-2.2987	AND AROUND	-0.2169
-2.3443	AND AWAY	-0.1742
-2.5619	AND BACK	-0.0811
-2.7769	AND BE	-0.2169
-2.7769	AND BEAR	-0.1370
-2.5619	AND BIG
-2.2987	AND BIRDS	+0.1185
-2.7769	AND BLACK
-2.7769	AND BLUE
-2.7769	AND BOW
-2.5619	AND BOY	+0.0319
-2.2987	AND BOYS
-2.7769	AND BRIGHT
-2.7769	AND BY
-2.7769	AND CHIN
-2.7769	AND CITY	+0.0651
-2.3443	AND COME	-0.0498
-2.7769	AND CORN	-0.1296
-2.7769	AND CRABS
-2.7769	AND DANCED
-2.3443	AND DAY
-2.7769	AND DAYS
-2.7769	AND DOOR
-2.1499	AND DOWN	-0.1268
-2.7769	AND DUCKY	+0.1703
-2.5619	AND FACE
-2.7769	AND FLOOR
-2.7769	AND FLOWERS
-2.2987	AND GO	-0.0919
-2.5619	AND GREEN
-2.7769	AND HAIR	-0.1264
-2.7769	AND HARD
-2.5619	AND HEAD
-2.7769	AND HERE
-2.2987	AND HORSE
-2.5619	AND HOUSE	-0.1037
-2.5619	AND HUFF	+0.0580
-2.5619	AND HUFFED	-0.0309
-2.7769	AND HURRY
-2.1499	AND IT	-0.0630
-2.7769	AND KIND
-2.3443	AND KING	+0.2178
-2.5619	AND LEGS
-2.7769	AND MA
-2.2987	AND MAN	-0.1226
-2.7769	AND MARBLES
-2.1499	AND ME	-0.0781
-2.5619	AND MIRROR	-0.0309
-2.7769	AND MONU	-0.0972
-2.7769	AND MOTHER
-2.7769	AND NAMES
-2.2987	AND NINGTHOU	+0.0994
-2.5619	AND ON
-2.7769	AND PAPA
-2.7769	AND PASSED
-2.7769	AND PENCIL
-2.7769	AND PLAYING
-2.7769	AND POLICEMAN
-2.7769	AND POOL
-2.5619	AND PUFF	-0.1745
-2.7769	AND PUFFED	-0.0372
-1.9217	AND PULLED	-0.0149
-2.2987	AND READ	-0.1723
-2.7769	AND ROOM	-0.1499
-2.3443	AND ROUND
-2.7769	AND RUN
-2.7769	AND SAID
-2.7769	AND SHOES	-0.1296
-2.7769	AND SINGING
-2.7769	AND SIT
-2.5619	AND SLOWLY
-2.7769	AND SMILED
-2.7769	AND SOFT
-2.7769	AND SUDDENLY
-2.7769	AND SURPRISED
-2.3443	AND TAIL	-0.0052
-2.5619	AND TARGET
-2.2987	AND THEM
-2.5619	AND THICK
-2.7769	AND THIS
-2.7769	AND TIGER
-2.7769	AND TIME	-0.2033
-2.7769	AND TIRED
-2.7769	AND TOP	+0.1156
-2.2987	AND TRAIN	+0.6600
-1.8248	AND TREE	-0.0441
-2.2987	AND TRUNK	-0.1178
-2.2987	AND TUGGED	+0.2028
-2.7769	AND TURNED
-1.6786	AND UP	+0.0413
-2.7769	AND US
-2.5619	AND WATER
-2.7769	AND WAY
-2.7769	AND WIFE	-0.1639
-2.7769	AND WINGS	-0.1076
-2.7769	AND WOMAN	+0.5010
-2.5619	AND YOU
-0.4292	ANGER IN
-0.7302	ANGRY WAS
-0.9412	ANIMALS !!UNK	-0.1337
-0.6781	ANIMALS OTHER	+0.1964
-0.7236	ANIMALS THE	-0.1642
-0.9063	ANOTHER AND
-0.5541	ANT !!UNK	+0.0674
-0.6510	ANTS THE
-0.9935	ANY !!UNK	+0.0674
-0.8552	ANYONE BEFORE
-0.6402	ANYONE LET
-0.9521	ANYTHING SAY
-0.5541	ANYWHERE !!UNK	+0.0674
-0.5541	ANYWHERE GOING	-0.2064
-0.3392	APPLE AN
-0.6402	APPLES MY
-1.2390	ARE !!UNK	-0.3447
-1.8659	ARE BELLS
-1.6509	ARE BOOKS
-1.3877	ARE SOME	-0.2160
-0.9138	ARE THERE	+0.0300
-1.2390	ARE THEY
-1.8659	ARE THOSE
-1.4333	ARE WE
-1.8659	ARE WHAT
-1.4333	ARE WHERE	-0.0630
-1.4333	ARE WHO
-0.7677	ARE YOU
-0.7302	ARMS HER
-0.8541	AROUND !!UNK	+0.0261
-0.8541	AROUND ALL
-1.3323	AROUND ARMS
-0.8997	AROUND LOOKED	-0.1691
-1.3323	AROUND RODE
-0.8163	ARROW !!UNK	-0.1337
-0.8163	ARROW AN
-0.5987	ARROW THE
-0.8893	AS !!UNK	+0.0674
-1.4880	AS FAST	-0.4747
-1.9206	AS HIGH	-0.2032
-1.9206	AS HORSE
-1.9206	AS HUNGRY
-1.9206	AS IT
-1.9206	AS JUST
-1.7056	AS MAN
-1.9206	AS PUPPY
-1.4424	AS SOON	-0.1852
-1.0142	AS WAS
-0.7962	ASKED !!UNK	+0.0261
-1.2743	ASKED HE
-1.2743	ASKED SCHOOL
-1.2743	ASKED SHE
-1.2743	ASKED THEY
-1.3093	AT !!UNK	+0.0655
-1.9691	AT AIMED
-1.9691	AT DOWN	-0.2157
-1.9691	AT IS
-1.9691	AT IT
-1.9691	AT LAUGHED
-1.0628	AT LOOK	+0.0246
-0.9756	AT LOOKED	+0.0288
-1.9691	AT SAID
-1.9691	AT SMILED
-1.5365	AT STARED
-1.7542	AT UP
-1.9691	AT WAS
-1.9691	AT WATER
-0.8511	ATE AND
-1.0660	ATE HE
-0.8511	ATE SHE
-0.4292	AWAKE WIDE
-0.8311	AWAY !!UNK	+0.0674
-1.1105	AWAY FAR	-0.0547
-1.7374	AWAY FLEW	-0.1497
-1.5225	AWAY FLY
-1.3048	AWAY GO
-1.3048	AWAY RAN
-1.7374	AWAY STAYED
-1.5225	AWAY THEM	-0.1373
-1.7374	AWAY WALKED
-1.5225	AWAY WENT	-0.1349
-0.7302	BABA AND
-1.0982	BABY FOR
-1.0982	BABY SAID
-0.6656	BABY THE
-0.8833	BABY YOUR	-0.1287
-0.8692	BACK !!UNK	-0.3447
-0.6410	BACK CAME
-1.2812	BACK MY	-0.4344
-1.4961	BACK TURNED
-0.9063	BALL A
-0.4738	BALL MY	-0.2032
-0.7302	BALLOON A
-0.7302	BALLOON RED
-0.7302	BALLOON THE
-0.8552	BAMBOO A
-0.8552	BAMBOO THE
-0.2531	BANK ONE	-0.2342
-1.1282	BARBER !!UNK	+0.0674
-0.0969	BARBER THE	-0.0230
-0.9731	BE !!UNK	+0.0674
-1.7103	BE AND
-1.2983	BE COULD	-0.0327
-1.7103	BE DON'T
-1.7103	BE MUST
-1.4471	BE NOT	-0.0903
-0.6509	BE TO	-0.0561
-0.9317	BE WILL	-0.0287
-1.0189	BE WOULD	-0.0088
-0.2531	BEAK RED	-0.1637
-0.9412	BEAR BABY	-0.1081
-0.6781	BEAR MAMA	+0.0177
-0.6781	BEAR PAPA	-0.0372
-0.9412	BEAR THE
-0.6510	BECOME TO
-0.2531	BECOMING OF	-0.2371
-0.9924	BED !!UNK	-0.1337
-1.2073	BED BIG
-1.2073	BED LITTLE
-0.9924	BED MY	-0.1282
-1.2073	BED SIZE
-0.2531	BEDROOM THE	-0.2164
-0.6402	BEEN HAD	-0.1364
-1.1562	BEFORE !!UNK	+0.0674
-1.1562	BEFORE AND
-0.9412	BEGAN AND
-1.1562	BEGAN HE
-0.7236	BEGAN IT
-0.7302	BETWEEN DIFFERENCE
-0.7085	BIG !!UNK	+0.0674
-0.4323	BIG A	-0.0703
-1.6148	BIG HIS	-0.1781
-0.9550	BIG THE	-0.0099
-1.6148	BIG VERY
-0.8833	BIRD LITTLE
-0.6201	BIRD OLD	-0.0861
-1.0982	BIRD WISE	-0.0332
-0.8719	BIRDS !!UNK	+0.0261
-1.3500	BIRDS AND
-1.3500	BIRDS DEAD
-1.3500	BIRDS NO
-0.3979	BIRDS THE
-0.6510	BLEW HE	-0.2153
-0.9521	BLOW BLOW
-0.7371	BLOW WILL	+0.0186
-0.8552	BLUE AND
-1.0313	BOAT !!UNK	+0.0674
-0.8163	BOAT A	-0.1045
-1.0313	BOAT MY
-0.8163	BOAT THE	-0.1387
-0.8552	BOBBY !!UNK	+0.0674
-0.6510	BOILED AND
-1.0982	BOOK !!UNK	+0.0674
-0.6656	BOOK A
-1.2073	BOOKS !!UNK	+0.0674
-1.2073	BOOKS GREAT	-0.2079
-1.2073	BOOKS READ
-0.2185	BOOM BOOMDI	+0.1381
-0.9521	BOOMDI !!UNK	+0.0674
-0.7371	BOOMDI BOOM	-0.0375
-0.4739	BOOMDI BOOMDI
-0.3392	BORN WAS
-0.2142	BOUNCE I
-0.7371	BOW THE
-0.7302	BOWL BIG	-0.1448
-0.7302	BOWL LITTLE	-0.2148
-0.7302	BOWL SIZE	-0.0412
-0.9784	BOY !!UNK	-0.3447
-1.1727	BOY A
-1.3903	BOY LITTLE	-0.0961
-1.6053	BOY MY
-1.6053	BOY NAUGHTY	-0.0372
-1.6053	BOY SMALL	-0.1394
-0.4771	BOY THE	-0.0893
-0.7302	BOYS THE
-0.5609	BRANCHES MY	-0.1265
-0.4292	BREAD SOME
-0.1729	BRIDGE THE
-0.9935	BRIGHT !!UNK	+0.0674
-0.9935	BRIGHT A
-0.9935	BRIGHT THE
-0.4292	BRING THEY
-0.3770	BROTHER MY
-0.7302	BROUGHT BE
-0.6510	BROWN BIG	-0.0390
-0.1373	BUNNY FUNNY	-0.2469
-0.5541	BURST !!UNK	+0.0674
-0.7302	BUS !!UNK	+0.0674
-0.5153	BUS THE	-0.1435
-1.0381	BUT !!UNK	+0.0674
-2.0693	BUT AWAY
-2.0693	BUT FRIEND
-2.0693	BUT HAPPY
-2.0693	BUT KITES
-2.0693	BUT OH
-2.0693	BUT PEOPLE
-1.5912	BUT PRAYED	+0.1223
-1.8544	BUT PULLED	-0.3495
-2.0693	BUT SULTAN	+0.9911
-2.0693	BUT WEDDING	+0.2442
-1.8544	BUT YOU	-0.1423
-0.5933	BUTTERFLY !!UNK	+0.0655
-0.2596	BUTTERFLY THE	-0.1249
-0.6402	BUY I	-0.4370
-0.3770	BUY TO
-1.0241	BY !!UNK	-0.3447
-1.4361	BY DOWN
-1.4361	BY LITTLE
-1.6510	BY UP
-1.1729	BY WENT	-0.2384
-1.0313	CALL WILL	-0.0766
-0.8833	CALLED !!UNK	-0.1337
-1.0982	CALLED HE
-1.0982	CALLED I	-0.2382
-1.1815	CAME !!UNK	+0.0261
-1.1815	CAME ALONG	-0.1030
-1.6596	CAME APPU
-1.4447	CAME BOY	+0.0319
-1.6596	CAME HE
-1.6596	CAME HUNTER
-1.6596	CAME I
-1.6596	CAME THERE
-1.4447	CAME WOLF	-0.0312
-0.8833	CAMEL !!UNK	-0.1337
-1.0982	CAMEL FOREST	+0.4596
-0.8239	CAN !!UNK	+0.0674
-1.4226	CAN HOW
-0.6243	CAN I	-0.0988
-1.6402	CAN WE
-1.8552	CAN WHAT
-0.8239	CAN YOU	+0.0198
-0.3522	CAN'T I	-0.0829
-0.3392	CANNOT YOU	-0.1423
-0.4292	CAREFUL BE	-0.1905
-0.1729	CARPENTER THE
-0.7302	CARRIED !!UNK	+0.0674
-0.4292	CART HIS
-0.5822	CAT A
-0.7972	CAT THE
-0.9063	CATCH CAN	-0.1216
-0.4738	CATCH TO
-0.8812	CAW !!UNK	-0.3074
-0.4586	CAW CAW	-0.0826
-1.3138	CAW CHIRRUP	+0.1197
-1.0989	CAW CROW	+0.5962
-0.4292	CHANCE A
-0.4226	CHATTER CHATTER	-0.0031
-0.5541	CHEEKS HIS
-0.4361	CHEEP CHEEP
-0.2531	CHEESE A
-0.2531	CHILDISH VERY	-0.2228
-1.1521	CHILDREN !!UNK	-0.1337
-1.3670	CHILDREN OTHER
-0.2389	CHILDREN THE	-0.0496
-0.2499	CHIRRUP CHIRRUP	+0.3035
-1.1562	CHIRRUP SPARROWS	-0.1515
-1.1562	CHIRRUP UP
-0.6914	CIRCLE A
-0.2977	CITY THE	-0.0501
-1.0313	CLASS ONE
-0.8163	CLASS THE
-0.8163	CLIMB !!UNK	-0.1337
-1.0313	CLIMB AND
-0.4043	CLIMB TO	-0.0133
-1.0982	CLIMBED !!UNK	+0.0674
-1.0982	CLIMBED AND
-0.8833	CLIMBED HE
-1.0982	CLIMBED THEY
-0.3190	CLOCK ALARM	+0.0064
-0.7972	CLOSER CAME
-0.4361	CLOUDS THE
-0.3646	COAT HIS	-0.0774
-0.7972	COAT MY
-0.7972	COLD THE
-1.2097	COME !!UNK	-0.3074
-1.1641	COME BOY	-0.0552
-1.4273	COME CAN
-1.6423	COME HERE
-1.6423	COME I
-1.1641	COME ILL	+0.0543
-1.2097	COME TO
-1.1641	COME TREE
-0.9935	COMES !!UNK	+0.0674
-0.9935	COMES NEHA'S	-0.0372
-0.3392	COMPANION HIS
-0.2531	CONDUCTOR THE
-0.2531	CONTEST A
-1.1825	COOK NOT
-0.7044	COOK POT	-0.1979
-0.5556	COOK THE
-1.1825	COOK TO
-0.6510	CORN OF
-0.6510	CORN THE
-0.4292	COTTAGE THE
-1.2448	COULD !!UNK	+0.0261
-0.6917	COULD HE	-0.0740
-1.7229	COULD HELEN
-0.7709	COULD I	-0.0828
-1.2448	COULD IT
-1.5080	COULD ONE	-0.4165
-1.2904	COULD SHE	-0.0767
-1.0960	COULD THEY	-0.1554
-0.2142	COUNTRY THE
-0.3392	COURSE OF
-0.3392	COURT THE
-0.9521	COW !!UNK	+0.0674
-0.3252	COW THE	-0.0931
-0.4292	CRAB THE
-0.2142	CREAM ICE	-0.0309
-0.4292	CREATURE THE
-0.8552	CREEPER THAT
-0.6402	CREEPER THE
-0.9132	CRIED !!UNK	-0.1337
-1.1282	CRIED SULTAN	+0.9911
-0.5541	CROSS TO
-0.9935	CROW !!UNK	+0.0674
-0.0872	CROW THE	-0.1451
-0.8511	CUB !!UNK	-0.1337
-0.1139	CUB TIGER	-0.0546
-0.7302	CURLYLOCKS RIGHT	-0.1969
-0.7302	CURRY MAKE
-0.7302	CURRY THE
-0.2531	DANCE AND
-1.3490	DAY !!UNK	+0.0261
-1.3490	DAY ALL
-1.8271	DAY BY
-1.3946	DAY EVERY
-1.3946	DAY FINE	+0.0282
-1.3946	DAY NEXT	-0.0634
-0.4279	DAY ONE	-0.0098
-1.2002	DAY THAT	-0.1543
-1.8271	DAY THE
-0.7972	DEAD IS
-0.6914	DEAR !!UNK	-0.1337
-0.9063	DEAR MY
-0.9063	DEAR OH
-0.5541	DECIDE TO
-0.7972	DECIDED !!UNK	+0.0674
-0.9935	DESERT !!UNK	+0.0674
-0.7785	DESERT A	-0.1190
-0.3666	DESERT THE	-0.0471
-0.7302	DESTROY TO
-1.1685	DID !!UNK	-0.1337
-1.1685	DID HE
-1.3834	DID HOW
-1.3834	DID I
-1.1685	DID THEY
-1.3834	DID WE
-0.7371	DIDN'T HE
-0.3770	DING DONG	+0.1587
-0.6510	DINNER THE
-0.5822	DISH NEW
-0.2531	DISHES THE
-0.8846	DO !!UNK	+0.0674
-1.3128	DO CAN
-1.3128	DO HOW
-1.1640	DO I
-1.7909	DO IT
-0.7249	DO TO	-0.1227
-1.3584	DO WHAT
-1.7909	DO WHY
-1.3584	DO YOU	-0.0522
-0.9935	DOES HE
-0.9935	DOES THAT	-0.2278
-0.4292	DOESN'T !!UNK	+0.0674
-0.9063	DOG A
-0.9063	DOG HIS
-0.8552	DOING !!UNK	+0.0674
-0.8552	DOING WAS
-1.1685	DON'T !!UNK	-0.1337
-0.7236	DON'T I
-1.3834	DON'T THORNS
-1.3834	DON'T WHY
-1.3834	DON'T YOU
-0.4361	DONE IS
-0.1953	DONG DING	+0.0985
-0.5541	DONKEY A
-1.0982	DONT !!UNK	+0.0674
-0.8833	DONT I	-0.0939
-0.8833	DONT THEY
-1.0660	DOOR A
-0.5879	DOOR BAMBOO	-0.0381
-1.0660	DOOR HER
-1.0660	DOOR THE
-0.4292	DOUBT NO
-1.2754	DOWN !!UNK	-0.3074
-1.0810	DOWN AND	-0.2044
-1.7080	DOWN BY	-0.2092
-1.7080	DOWN CLIMBED
-1.7080	DOWN COOL
-1.7080	DOWN FLEW
-1.2754	DOWN HOUSE	-0.0355
-1.7080	DOWN JUMPED
-1.7080	DOWN LAY
-1.7080	DOWN LOOKED	-0.1367
-1.7080	DOWN ROLLED	-0.0372
-1.7080	DOWN SAT	-0.1484
-1.7080	DOWN SIT
-0.7972	DRAW YOU	-0.2126
-0.2531	DRESSES !!UNK	+0.0674
-0.8163	DREW MOHINI
-1.0313	DREW PENCIL	+0.0062
-0.4292	DRIP DRIP
-0.1729	DRIVER THE
-0.4292	DRY DRY
-0.2142	DUCKY LUCKY
-0.9935	EACH GARDEN	-0.0229
-0.9935	EACH ON
-0.4292	EARTH THE
-1.4292	EAT !!UNK	+0.0674
-1.2142	EAT I
-1.4292	EAT NOT	-0.2187
-0.4771	EAT TO	-0.0393
-1.2142	EAT YOU	-0.1157
-0.5541	EIGHTY AND
-0.3392	ELEPHANT AN
-0.7302	ELSE SOMEONE	-0.1639
-0.2531	END THE
-0.4292	ENGINE THE
-0.9063	ENORMOUS THAT	-0.2331
-0.2794	ENORMOUS THE	-0.1590
-1.0982	EVEN !!UNK	+0.0674
-1.0982	EVEN NARRATOR
-1.0982	EVEN SHE
-0.8552	EVENING !!UNK	+0.0674
-0.6402	EVENING THAT
-0.6402	EVENING THE	-0.1136
-0.9063	EVER !!UNK	+0.0674
-1.0982	EVERYONE !!UNK	+0.0674
-0.5541	EXCLAIMED !!UNK	+0.0674
-0.5195	EYES HIS	-0.0259
-0.5153	FACE HIS
-0.9935	FALL !!UNK	+0.0674
-0.9935	FALL FALL
-0.5609	FALL TO	-0.1835
-0.4292	FALLEN HAD
-0.4361	FAMILY BEAR	-0.3877
-1.0313	FAR FAR	-0.1969
-1.0313	FAR FROM
-1.0313	FAR KEPT	-0.0372
-0.4361	FARMER THE
-0.5609	FAST AS
-0.9935	FAST SO
-0.6510	FATHER THAT	-0.2077
-0.7302	FEAST A
-0.6402	FEEL I
-0.6402	FEEL YOU	-0.1157
-1.0982	FEET MY
-0.9521	FELL !!UNK	+0.0674
-0.6510	FELT !!UNK	+0.0674
-0.6510	FEW !!UNK	+0.0674
-0.4361	FEW A	-0.1045
-0.2531	FILLS HE
-1.2308	FIND COULD
-0.3757	FIND TO	-0.1207
-1.2308	FIND YOU	-0.2364
-0.3770	FINE EACH	-0.1408
-0.5822	FIR LITTLE	-0.0961
-0.9521	FIRST !!UNK	+0.0674
-0.9521	FIRST THE
-0.9521	FISH A
-0.9521	FISH LITTLE
-0.6402	FIVE !!UNK	-0.1337
-0.4292	FLAPPED BIRDS
-0.5541	FLASH FLASH
-1.2073	FLEW !!UNK	+0.0674
-0.9924	FLEW BUTTERFLY	+0.2026
-0.7292	FLEW HE	-0.0568
-1.2073	FLEW IT
-1.2073	FLEW MOSQUITO	-0.0332
-1.2073	FLEW OFF
-0.6510	FLOOR !!UNK	+0.0674
-0.4361	FLOOR THE	-0.1269
-1.1282	FLOWERS !!UNK	+0.0674
-0.2218	FLOWERS THE	-0.0960
-0.5556	FLY AND
-0.9676	FLY I
-0.9676	FLY TO
-0.9935	FLYING MAN	-0.2238
-1.1825	FOOD OF
-0.9676	FOOD STORE
-0.5556	FOOD THE	-0.0565
-0.6402	FOOT A
-0.4361	FOOTPRINT THE
-0.9294	FOR !!UNK	+0.0674
-1.9607	FOR AROUND	-0.1809
-1.9607	FOR AWAY	-0.2313
-1.9607	FOR BED
-1.9607	FOR BEST
-1.9607	FOR BOWL
-1.9607	FOR FOOD
-1.9607	FOR GRAIN
-1.9607	FOR LOOKING
-1.9607	FOR PREPARED	-0.0372
-1.9607	FOR RAN
-1.9607	FOR SORRY	-0.1879
-1.7457	FOR THANKFUL	-0.1361
-1.9607	FOR WATER
-0.9521	FOREST A
-0.0969	FOREST THE	-0.2031
-0.7785	FOUND HE
-0.9935	FOUND THEY
-0.2531	FOXY WOXY
-0.7972	FRIEND NOBODY'S
-1.2531	FRIENDS !!UNK	+0.0674
-1.2531	FRIENDS BE
-0.8205	FRIENDS HIS
-1.0382	FRIENDS MY
-0.5541	FRIGHTENED VERY
-0.9521	FROG LADY	+0.5551
-0.7371	FROG THE
-1.3706	FROM !!UNK	-0.1337
-1.5855	FROM ATE	-0.1734
-1.5855	FROM AWAY
-1.5855	FROM HIMSELF
-1.5855	FROM ME
-1.3706	FROM SWING	-0.0344
-1.5855	FROM THEM
-1.5855	FROM THINGS
-0.8552	FULL A
-1.0982	FUN !!UNK	+0.0674
-1.0982	FUN ARE
-1.0982	FUN FOR
-0.9412	FUNNY !!UNK	-0.1337
-1.1562	FUNNY A
-1.1562	FUNNY HOW
-0.7236	FUNNY SAID	-0.1985
-0.2142	FURRY !!UNK	-0.1337
-0.7972	FUTURE OUR	-0.2058
-0.5822	FUTURE THE
-0.6510	GAME THE
-0.4292	GAMES PLAY
-0.8511	GARDEN MAGIC	-0.0124
-0.4062	GARDEN THE	-0.0402
-0.2922	GEESE THE	-0.0925
-0.9521	GEESE WILD
-1.4145	GET !!UNK	+0.0674
-1.4145	GET I'LL
-1.4145	GET NOT
-1.4145	GET PLEASE
-0.5082	GET TO
-0.4292	GETS NEHA
-0.2531	GIANT A
-0.7371	GIRAFFE A
-0.3252	GIRAFFE THE
-0.4292	GIRAFFE'S THE
-0.8833	GIRL A
-0.6656	GIRL LITTLE	+0.0387
-0.8833	GIRL THE	-0.1290
-0.5541	GIRLS !!UNK	+0.0674
-0.9412	GIVE TO
-0.6781	GIVE YOU	-0.2540
-1.1703	GO !!UNK	-0.3447
-1.5822	GO AND
-1.7972	GO BUTTERFLY	-0.1114
-1.7972	GO CAN'T
-1.7972	GO CAW	-0.0537
-1.3190	GO I
-1.3646	GO MERRY	+0.0755
-1.7972	GO THEY
-0.8451	GO TO	-0.0823
-0.8451	GO WE	-0.1027
-1.7972	GO WILL	-0.0766
-1.7972	GO YOU
-0.9879	GOING !!UNK	-0.3447
-1.6148	GOING AM	+0.8020
-0.9879	GOING I'M	-0.1797
-1.1823	GOING IS	-0.5994
-1.1823	GOING ON	-0.1991
-1.3999	GOING WAS
-1.1367	GOING WASN'T	+0.0030
-0.9550	GOING YOU	-0.4545
-0.6510	GOLD !!UNK	+0.0674
-1.0660	GONE !!UNK	+0.0674
-1.0660	GONE ARE
-0.6335	GONE HAD
-0.2531	GONU AND	-0.2386
-1.1843	GOOD !!UNK	-0.1337
-0.9667	GOOD A	-0.0510
-1.3992	GOOD IS
-1.3992	GOOD NO	-0.2173
-0.7302	GOOPU ASKED
-0.4292	GOOSEY POOSEY
-1.0660	GOT HAVE
-0.8511	GOT WE	-0.1374
-0.6510	GRASS THE
-0.5153	GRASSHOPPER LAZY	-0.0547
-0.5153	GRASSHOPPER THE
-0.6781	GREAT !!UNK	+0.0261
-0.9412	GREAT A
-1.1562	GREAT ARE	-0.2295
-1.1562	GREAT WAS
-0.9412	GREEN !!UNK	-0.1337
-1.1562	GREEN A
-0.9412	GREEN THE
-1.2073	GREW AND
-0.9924	GREW NOSE
-1.2073	GREW SEEDS	+0.1703
-0.3392	GROCER THE
-0.0969	GROUND THE	-0.0313
-0.2531	GRUFF BIG	-0.2287
-0.2142	GUDOOM GADAAM
-0.3190	HA HA
-1.1245	HAD !!UNK	-0.3447
-0.6854	HAD HE	-0.0438
-0.8963	HAD I	-0.0467
-1.1245	HAD IT
-1.7514	HAD NIGHT
-1.7514	HAD PASSENGERS	+0.0266
-1.2733	HAD SHE
-1.7514	HAD THAT
-1.7514	HAD THEY
-0.6402	HAIR !!UNK	-0.1337
-0.8552	HALF !!UNK	+0.0674
-0.9676	HAND !!UNK	-0.1337
-1.1825	HAND HER
-0.9676	HAND HIS
-0.6510	HANDS HER
-0.6510	HAPPENED SO	-0.2199
-0.2531	HAPPENING WAS	-0.2365
-1.1843	HAPPY !!UNK	-0.1337
-1.3992	HAPPY ALSO	-0.1898
-1.1843	HAPPY BE
-1.1843	HAPPY HOW
-1.3992	HAPPY SO	-0.2060
-0.5441	HAPPY VERY	-0.1195
-1.1843	HAPPY WAS
-0.8812	HARD !!UNK	-0.3074
-1.0989	HARD SO
-1.3138	HARD TOO	-0.1887
-1.0989	HARD VERY
-1.3138	HARD WORK
-0.2531	HARDWORKING THE
-0.9935	HARI TO
-0.5541	HARM WHAT
-0.7439	HAVE !!UNK	+0.0674
-1.7374	HAVE AND
-0.4843	HAVE I	-0.0288
-1.7374	HAVE MUST
-1.3048	HAVE WE
-1.7374	HAVE WILL
-1.7374	HAVE WOULD
-1.0776	HAVE YOU
-1.7374	HAVE YOU'LL
-0.9923	HE !!UNK	+0.0674
-2.4758	HE AGAIN
-2.4758	HE ALL
-1.2685	HE AND	-0.0688
-2.4758	HE ANGRY	-0.1499
-1.3776	HE AS	+0.0205
-1.9977	HE AWAY
-2.2609	HE BECAUSE
-1.5695	HE BUT
-2.2609	HE BY	-0.1010
-2.4758	HE DOWN
-2.4758	HE EAT	-0.0633
-2.4758	HE FISH
-2.4758	HE FUN
-2.4758	HE HER
-2.2609	HE HIMSELF	-0.0144
-2.2609	HE HOUSE
-2.4758	HE HOW
-2.4758	HE IF
-2.2609	HE IT
-2.4758	HE MIND
-2.4758	HE NOT
-2.4758	HE NOW
-2.4758	HE RED
-2.2609	HE RIVER	+0.0067
-2.4758	HE SAID
-2.0433	HE SO	-0.0736
-2.4758	HE SUDDENLY
-2.4758	HE SUN
-1.5695	HE THAT	-0.0113
-1.8160	HE THEN
-2.2609	HE THINK
-2.2609	HE THIS	-0.1311
-2.2609	HE TIME
-2.4758	HE TOO
-2.0433	HE TREE	+0.0192
-2.4758	HE TRICK
-2.4758	HE TRUNK
-2.0433	HE UP	-0.0688
-2.4758	HE VILLAGE
-2.4758	HE WATER
-2.4758	HE WAY
-2.4758	HE WHAT
-1.5695	HE WHEN	+0.0555
-2.4758	HE WHENE'ER
-2.2609	HE WHERE
-2.4758	HE WINKLE
-2.4758	HE WONDERED	+0.1703
-1.0982	HEAD HER
-0.8833	HEAD HIS
-0.6201	HEAD MY
-1.0982	HEAD SLEEPY
-0.5879	HEARD HE
-0.6335	HEARD I
-0.6510	HEARING !!UNK	+0.0674
-0.3770	HEE HEE	+0.1165
-0.8552	HEE HIM
-0.4361	HEIGH HO	-0.0375
-0.7785	HELD AND
-0.9935	HELD HE
-0.9935	HELD SHE
-0.9132	HELEN !!UNK	-0.1337
-1.1282	HELEN HER
-1.2945	HELP !!UNK	+0.0674
-1.2945	HELP AND
-1.2945	HELP NOT	-0.1498
-1.2945	HELP THE
-0.8164	HELP TO
-0.8619	HELP WILL	-0.0455
-0.4292	HEN MOTHER
-0.9420	HER !!UNK	+0.0674
-1.9733	HER AND
-1.9733	HER DAY
-1.7583	HER FOR	-0.1394
-1.9733	HER HAIR
-1.9733	HER HELP
-1.9733	HER NINA
-1.7583	HER OF
-1.1181	HER ON
-1.9733	HER PUT
-1.4951	HER TO	-0.0506
-1.9733	HER WAS
-1.4951	HER WITH
-0.4292	HEY SAID
-1.0982	HIGH !!UNK	+0.0674
-1.0982	HIGH AS
-0.5153	HILL THE
-0.2531	HILLS THE
-0.7861	HIM !!UNK	+0.0674
-1.2143	HIM AT
-1.4775	HIM FOR
-1.6924	HIM GIVE
-1.6924	HIM MAKE
-1.4775	HIM NEAR
-1.6924	HIM TO
-1.6924	HIM TOLD
-1.6924	HIM WITH
-1.0660	HIMSELF BY
-0.5879	HIMSELF TO
-0.9266	HIS !!UNK	+0.0674
-1.7014	HIS AND
-2.1339	HIS AT
-2.1339	HIS BY
-2.1339	HIS FOR
-2.1339	HIS GET
-0.8808	HIS IN	-0.0762
-1.7014	HIS OF	-0.0784
-1.5070	HIS OUT	-0.0588
-2.1339	HIS SAYS
-2.1339	HIS SHOOK
-1.2788	HIS TO	-0.0342
-2.1339	HIS WAS
-1.4741	HIS WITH
-0.7972	HIT DIDN'T
-0.2185	HO HEIGH	-0.0111
-0.9412	HOME !!UNK	-0.1337
-0.7302	HOP HOP
-1.0660	HORSE A
-0.5879	HORSE HIS
-1.0660	HORSE THE
-0.7972	HOT THE
-0.7972	HOT VERY	-0.0806
-0.3190	HOUR AN	-0.2011
-1.2686	HOUSE !!UNK	-0.1337
-0.8566	HOUSE A	-0.0410
-1.4836	HOUSE BRICK
-1.4836	HOUSE HIS
-1.4836	HOUSE MONU'S	-0.0372
-1.2686	HOUSE MY
-1.0510	HOUSE THE
-1.0054	HOUSE YOUR	-0.2567
-1.1552	HOW !!UNK	+0.0261
-1.6333	HOW AND
-1.1552	HOW KNOW
-1.6333	HOW OF
-1.6333	HOW SECRETS	+0.1156
-1.6333	HOW WATER
-1.6333	HOW YOU
-0.4292	HUFF WILL
-0.2142	HUFFED HE	-0.4365
-0.4361	HUGE A
-0.8552	HUNTER !!UNK	+0.0674
-0.4226	HUNTER THE	-0.0796
-0.9615	I !!UNK	+0.0674
-2.5764	I AIM
-1.4202	I AND	-0.0790
-1.5829	I AS
-2.5764	I AWAY
-2.5764	I BACK	-0.2160
-2.3614	I BALL	+0.0336
-2.3614	I BECAUSE
-2.0982	I BHAIYA
-2.3614	I BOAT
-2.5764	I BOOK
-2.5764	I BOY
-1.4782	I BUT	+0.0146
-2.3614	I CAN	-0.1274
-2.5764	I DESERT	+0.0048
-2.5764	I DOOR
-2.5764	I DOWN
-2.5764	I FACE
-2.5764	I GIRAFFE	+0.0388
-2.3614	I HAPPY	-0.4111
-2.3614	I I	-0.1423
-1.5829	I IF	-0.0359
-2.5764	I IT
-2.5764	I KITE	-0.0365
-2.5764	I LEAVES
-2.5764	I LION
-2.1438	I MAN	-0.0496
-1.9494	I ME	-0.1066
-2.5764	I MORE
-2.3614	I MORNING	-0.0926
-2.0982	I NO
-2.3614	I NOT	-0.1394
-2.1438	I NOW
-2.0982	I OH
-1.9494	I PLAY	-0.0129
-2.5764	I QUIET
-2.5764	I ROUND
-1.6243	I SAID	-0.0272
-2.0982	I SAND	-0.0381
-2.5764	I SAYS
-2.0982	I SHOULD
-1.6700	I SO	-0.0313
-2.5764	I SOMETIMES
-1.6700	I THAT	-0.1489
-2.5764	I THEM
-2.5764	I THEN
-2.3614	I THINK	-0.0756
-2.5764	I TODAY
-2.1438	I TREE	-0.0655
-2.3614	I TREES	+0.0735
-2.5764	I WHAT
-1.9494	I WHEN
-2.5764	I WHERE
-2.5764	I WHICH
-2.5764	I WILL
-2.3614	I WISH	+0.0723
-2.0982	I YES
-0.6510	I'D NO
-0.9521	I'LL AND
-0.9521	I'LL SAID
-1.0382	I'M !!UNK	-0.1337
-1.0382	I'M BUNNY	+0.1264
-1.0382	I'M ME
-1.2531	I'M THAT
-1.2531	I'M TILL
-0.2142	ICE THE
-0.5541	IDEA GOOD
-1.2271	IF !!UNK	-0.3074
-1.6596	IF AND
-1.4447	IF BUT
-1.6596	IF DO
-1.6596	IF SEE
-1.1815	IF WONDER	-0.0351
-0.5153	ILL !!UNK	-0.1337
-0.7302	ILL KING	+0.1866
-0.9455	IN !!UNK	+0.0674
-2.3448	IN AND
-2.1298	IN ANIMALS	-0.0914
-2.3448	IN ANYBODY
-1.9122	IN AWAY
-2.3448	IN BACK
-1.8666	IN BEAR	-0.0691
-2.3448	IN BROUGHT	-0.1499
-2.3448	IN CAUGHT
-2.1298	IN COME
-2.3448	IN DEEP
-2.3448	IN EVERYONE
-2.3448	IN FISH
-2.3448	IN GEESE	+0.0707
-2.3448	IN HAND
-2.3448	IN HER
-2.3448	IN HIM
-1.8666	IN LIVED
-2.3448	IN LOOKED	-0.1992
-1.8666	IN MAN	-0.2533
-1.8666	IN MOTHER	-0.2197
-1.8666	IN OUT
-1.8666	IN PEOPLE
-2.3448	IN PULLED
-2.3448	IN RUN
-2.3448	IN SLEPT	-0.1296
-2.3448	IN STARED
-2.3448	IN STOOD	-0.1264
-2.3448	IN THEM
-2.3448	IN THEMSELVES
-1.7179	IN UP
-1.9122	IN WAS
-2.3448	IN WORK
-2.3448	IN YEARS
-0.3392	INDIANS RED	-0.0333
-0.4739	INSIDE !!UNK	+0.0261
-1.4292	INTO !!UNK	+0.0674
-1.4292	INTO FELL
-1.4292	INTO GREW
-1.4292	INTO HAND
-1.4292	INTO THEM
-1.2142	INTO WENT
-0.9266	IS !!UNK	+0.0674
-2.1339	IS EVERYONE
-2.1339	IS FATHER	-0.1296
-2.1339	IS HE
-0.8394	IS IT	-0.0884
-1.9190	IS MONKEY	+0.2238
-1.9190	IS ONE
-1.6558	IS SHE	-0.0353
-1.4741	IS SKY	+0.1523
-2.1339	IS SUN	+0.0459
-1.9190	IS THAT
-0.9514	IS THERE
-1.4741	IS THIS	-0.0430
-1.5070	IS WHAT
-1.7014	IS WHO	-0.0368
-0.2531	ISLAND !!UNK	+0.0674
-1.1461	IT !!UNK	+0.0674
-2.3535	IT AM	+0.8020
-1.4014	IT AND	-0.0377
-2.3535	IT AROUND
-2.1385	IT AS
-2.3535	IT AT
-2.1385	IT BOILED
-2.1385	IT BOWL
-1.9209	IT BUT
-2.3535	IT CALL
-2.3535	IT CAN	-0.1688
-2.3535	IT CATCH
-1.8753	IT DAY
-2.1385	IT DESTROY
-2.3535	IT DO	-0.1487
-2.3535	IT GRAB
-2.3535	IT HELD
-2.1385	IT HOW	-0.1127
-2.3535	IT IF
-2.3535	IT IS	-0.2256
-2.3535	IT MADE
-1.8753	IT MAKE	-0.0673
-2.3535	IT MORNING	-0.1557
-1.6936	IT NOW	-0.0397
-2.3535	IT OF
-1.9209	IT ON
-2.3535	IT PLACED	-0.0412
-2.1385	IT SAID
-2.3535	IT SAW
-2.3535	IT SEE
-2.3535	IT SMALL	-0.2033
-2.3535	IT SOMETIMES
-1.9209	IT THAT	-0.0744
-2.1385	IT TREE
-1.9209	IT WHEN
-0.9363	ITS !!UNK	+0.0261
-1.1995	ITS IN
-1.1995	ITS ON
-0.2142	JANE !!UNK	-0.1337
-0.2531	JAY THE	-0.2277
-0.4292	JOIN TO
-0.4739	JOY WITH
-0.5541	JUMP TO
-0.0872	JUNGLE THE	-0.1444
-1.2556	JUST !!UNK	-0.1337
-1.4706	JUST ABOUT
-1.4706	JUST AND
-1.2556	JUST I	-0.1348
-1.4706	JUST OR	-0.2271
-1.4706	JUST WAS
-0.3392	KAA KAA	+0.1218
-0.4292	KANGLEIPAK OF	-0.2371
-0.5822	KEEP YOU
-0.2142	KEEPER THE	-0.4399
-0.4292	KEPT JUNGLE	+0.5010
-0.4292	KILL AND
-0.4292	KILOMETRES !!UNK	+0.0674
-0.9791	KING !!UNK	+0.0261
-1.4572	KING A
-1.2423	KING FUTURE	-0.0124
-0.2041	KING THE	-0.1801
-0.9063	KITE A
-0.9063	KITE HIS
-0.4282	KITE MY	-0.2762
-0.7302	KITES !!UNK	+0.0674
-0.7302	KITES FLY
-0.7371	KNEW !!UNK	-0.1337
-0.9521	KNEW SHE
-0.9053	KNOW !!UNK	+0.0261
-1.3834	KNOW DON'T
-0.9053	KNOW I
-0.9053	KNOW TO
-0.7565	KNOW YOU	-0.0377
-0.6510	KNOWS NOBODY
-0.0760	LADY A	-0.0638
-0.9063	LAND THE	-0.2088
-0.9063	LAND TO
-0.4282	LAND TURVY	+0.5137
-0.4282	LAST AT
-0.9063	LAST THE
-0.7302	LATE BE
-0.7302	LAUGHING OUT
-0.4292	LAW IN	-0.2334
-0.7972	LAY I
-0.7302	LAZY THE
-0.7302	LAZY VERY
-0.2531	LEAD !!UNK	+0.0674
-0.5153	LEARN TO
-0.6510	LEARNED LANGUAGE
-0.5541	LEAVE TO
-1.0593	LEAVES !!UNK	-0.1337
-0.7962	LEAVES GLASS
-0.7962	LEAVES GOLD
-1.0593	LEAVES GREEN
-0.9521	LEFT BARBER	+0.4596
-0.9521	LEFT NOTHING
-0.9521	LEFT SHE
-0.9521	LEFT WAS
-0.1729	LEIMA AND	-0.2785
-0.3392	LEND WOULDN'T
-0.8619	LET !!UNK	-0.3074
-1.0795	LET HE
-1.2945	LET TO
-0.6510	LIE A
-0.9824	LIKE !!UNK	+0.0655
-1.6423	LIKE BOY
-1.6423	LIKE DIDN'T
-1.4273	LIKE I
-1.4273	LIKE JUST
-1.6423	LIKE LEAVES
-1.6423	LIKE STRIPES
-1.1641	LIKE YOU	-0.2794
-0.9063	LINE !!UNK	+0.0674
-0.9063	LINE FIRST
-0.4292	LINES THREE
-0.2185	LING A	-0.2054
-0.9676	LION DESERT	-0.0650
-1.1825	LION THE
-1.1825	LION YOU
-0.2531	LISTENED I
-1.2267	LITTLE !!UNK	+0.0655
-0.5366	LITTLE A	+0.0215
-1.8866	LITTLE AND
-1.4084	LITTLE BY	-0.2661
-1.8866	LITTLE HIS
-1.6716	LITTLE SAYS
-0.9803	LITTLE THE	-0.0316
-1.8866	LITTLE THREE
-1.2597	LITTLE TINY	+0.1330
-1.8866	LITTLE TWO
-1.0593	LIVED THERE
-0.2142	LOCKY COCKY
-1.2285	LONG !!UNK	-0.1337
-1.0109	LONG A	-0.0721
-1.0109	LONG DAY	-0.3079
-0.9653	LONG HIS
-0.8552	LONGER GREW	-0.1927
-1.2743	LOOK !!UNK	+0.0674
-0.8417	LOOK TO	-0.0278
-1.0537	LOOKED !!UNK	+0.0261
-1.0537	LOOKED AND
-0.6767	LOOKED HE	-0.0447
-1.0537	LOOKED I
-1.3169	LOOKED IT
-0.2185	LOT A	-0.0626
-0.4292	LOTS ARE
-0.4282	LOUD A
-0.4391	LOVE I
-0.5879	LOVE WOULD	-0.1476
-0.6201	LOVED HE
-0.4361	LOVELY A
-0.4292	LOW A
-0.6402	LUCKY AM	+0.8972
-0.7972	LUNCH HIS
-1.1825	MADE !!UNK	+0.0674
-1.1825	MADE AND
-1.1825	MADE WAS
-1.1825	MADE WERE
-0.5822	MAGIC A
-0.5822	MAGIC THE
-0.2531	MAGICIAN THE
-0.2142	MAHARAJA THE
-1.0989	MAKE CAN
-0.6869	MAKE TO	-0.0133
-1.3138	MAKE WILL	-0.0766
-0.4292	MAKING STOP
-0.6510	MAMA FOR
-0.6510	MAMA SAID	-0.2256
-1.2355	MAN !!UNK	-0.3074
-1.1899	MAN A
-1.4531	MAN CREAM	-0.0309
-1.4531	MAN FLYING
-1.6681	MAN HARD
-1.6681	MAN MUSIC	-0.0972
-0.5119	MAN OLD	+0.1386
-1.1899	MAN THE	-0.1030
-1.4531	MAN VEGETABLE	-0.1361
-1.1899	MAN YOUNG	-0.0459
-0.5822	MANGO YELLOW
-0.7962	MANY !!UNK	+0.0261
-1.2743	MANY SO
-0.2531	MARIGOLD THE
-0.4361	MARKET THE	-0.1136
-0.3392	MASTER MY
-0.6510	MATTER THE
-0.6510	MATTER THIS
-0.8893	ME !!UNK	+0.0674
-1.9206	ME AT	-0.2000
-1.9206	ME BE
-1.7056	ME BEHIND
-1.9206	ME BOTHER
-1.9206	ME BUT	-0.2332
-1.9206	ME EAT
-1.7056	ME FOR
-1.4424	ME GIVE	-0.1784
-1.4424	ME LET
-1.9206	ME OR	-0.2190
-1.9206	ME PICKED
-1.9206	ME PLACED
-1.9206	ME PULLS	+0.1156
-1.9206	ME PUT
-1.9206	ME SEE
-1.9206	ME TAKE
-1.4880	ME TELL	-0.0557
-1.4424	ME WITH	-0.2714
-0.3190	MERRY THE	-0.2634
-1.1825	MET !!UNK	+0.0674
-0.7044	MET HE	-0.2364
-0.9676	MET I	-0.1423
-1.1825	MET SHE
-0.7500	MET THEY	-0.3336
-0.7371	MIDDLE !!UNK	-0.1337
-0.9521	MIDDLE A	-0.2384
-0.5195	MIDDLE THE	-0.5837
-0.4361	MIGHT YOU
-0.2142	MILE A
-0.2185	MILKMAN THE	-0.1941
-0.2531	MINISTERS THE
-0.2142	MIRROR THE	-0.1136
-0.7302	MISS TO
-0.9063	MITTU TREE
-0.9063	MITTU VOICE
-0.7972	MOHINI CIRCLE
-0.4292	MOMENT A
-0.5153	MONEY SOME	-0.1215
-0.2430	MONKEY LITTLE	-0.1093
-0.6201	MONKEY THE	-0.0573
-0.3392	MONSTER A
-0.5541	MONU SONU
-0.4292	MONU'S TO
-0.3392	MOON THE
-1.3834	MORE !!UNK	+0.0674
-1.3834	MORE AND
-1.3834	MORE ANY
-1.3834	MORE MUCH
-1.3834	MORE NO
-1.3834	MORE THE
-1.3834	MORE YOU
-0.9509	MORNING !!UNK	-0.3074
-0.7565	MORNING GOOD
-0.7565	MORNING NEXT	+0.0786
-1.3834	MORNING ONE
-0.9053	MORNING THE	-0.0728
-0.4226	MOSQUITO THE	-0.0803
-0.8552	MOST THE
-0.8261	MOTHER !!UNK	+0.0674
-0.8261	MOTHER HER	-0.0120
-0.9230	MOTHER HIS
-1.5632	MOTHER SAID	-0.1410
-0.8718	MOTHER THE	-0.0400
-0.5541	MOTHER'S HER
-0.3252	MOUNTAINS THE	-0.1629
-0.2465	MOUSE THE	-0.2056
-0.5822	MOUTH HIS
-0.2531	MOUTHS THEIR
-0.5153	MOVE TO
-0.8511	MUCH HOW
-1.0660	MUCH WAS
-0.6510	MUMBAI TO
-0.9063	MUNNA !!UNK	+0.0674
-0.5541	MUSIC THE	-0.2382
-0.2142	MUSICIAN A	-0.1398
-0.7500	MUST I
-1.1825	MUST WE
-0.9676	MUST YOU
-0.2531	MUTTERED HE
-0.9711	MY !!UNK	+0.0674
-2.0693	MY ALL
-1.8544	MY AND
-2.0693	MY AT
-2.0693	MY ATE
-1.8544	MY BOUNCE	-0.0309
-2.0693	MY EAT
-1.8544	MY FLY	-0.3910
-1.6368	MY FOR	-0.0728
-2.0693	MY FROM	-0.2204
-2.0693	MY HALF
-1.8544	MY IF	-0.4109
-1.4424	MY IN
-1.5912	MY IS
-2.0693	MY LIKE
-1.6368	MY OF
-2.0693	MY OFF
-2.0693	MY OH	-0.1878
-1.8544	MY ON
-1.8544	MY TO
-1.8544	MY UP	-0.4341
-2.0693	MY WAS
-1.8544	MY WITH	-0.1402
-1.5912	MY YOU
-0.9521	NAME A
-0.7371	NAME HER	-0.1395
-0.4292	NAMES THEIR
-1.0660	NARRATOR !!UNK	+0.0674
-1.0660	NARRATOR UP
-1.0660	NASRUDDIN !!UNK	+0.0674
-0.4292	NAUGHTY A
-1.2308	NEAR !!UNK	+0.0674
-1.2308	NEAR GO
-1.2308	NEAR WENT
-0.6510	NECK LONG
-0.5153	NEED I
-1.0159	NEHA !!UNK	-0.1337
-0.4292	NEHA'S OF	-0.2371
-0.4292	NEIGHBOUR KIND
-0.2531	NESTS THEIR
-0.2521	NET THE
-1.0795	NEVER AND
-1.2945	NEVER BUT
-1.2945	NEVER HAVE	-0.0668
-0.8164	NEVER HE
-1.2945	NEVER I
-0.8552	NEW A
-0.8552	NEW THE
-1.2073	NEXT !!UNK	+0.0674
-0.5475	NEXT THE
-0.3190	NICE A
-1.0382	NIGHT !!UNK	-0.1337
-1.2531	NIGHT AND	-0.2374
-0.7750	NIGHT AT
-1.2531	NIGHT EVERY
-1.2531	NIGHT THAT
-0.4282	NINGTHOU THE
-0.9063	NINGTHOU TUNGGI
-1.1105	NO !!UNK	-0.3447
-1.5225	NO ARE	-0.3840
-1.7374	NO EAT
-1.5225	NO HAVE
-1.1105	NO IS	-0.1143
-1.7374	NO LION
-1.7374	NO NO
-1.2593	NO OH	-0.0869
-1.7374	NO THEM
-1.3048	NO WAS	-0.0377
-0.9935	NOBODY !!UNK	+0.0674
-0.7785	NOBODY BUT
-0.6510	NOISE A
-0.2531	NOON AT
-0.8552	NOSE HIS
-0.8552	NOSE MY
-1.0086	NOT !!UNK	+0.0674
-1.7457	NOT ARE
-1.9607	NOT BETTER
-0.7298	NOT COULD	+0.1698
-0.8625	NOT DID	+0.0016
-1.3338	NOT DO
-1.1055	NOT DOES	-0.0048
-1.9607	NOT HAD
-1.7457	NOT HAVE	-0.0578
-1.9607	NOT ME	-0.2341
-1.9607	NOT NO
-1.1055	NOT WAS	-0.0326
-1.9607	NOT WERE
-1.5281	NOT WILL	+0.0821
-1.9607	NOT WOULD
-1.0660	NOTHING !!UNK	+0.0674
-1.0660	NOTHING HAVE	-0.0668
-1.0660	NOTHING IS	-0.1878
-1.0660	NOTHING SAID
-0.8603	NOW !!UNK	+0.0674
-1.5006	NOW AND
-1.7155	NOW IT
-1.7155	NOW THAT
-1.7155	NOW THEM
-0.9461	OF !!UNK	+0.0674
-2.2784	OF AHEAD
-1.8003	OF ALL	-0.0703
-2.2784	OF BASKET
-2.2784	OF CITY	+0.0651
-2.0635	OF DREAMING
-2.2784	OF END	+0.1156
-2.2784	OF FRONT
-1.8459	OF FULL
-2.2784	OF HELP	-0.2167
-2.0635	OF HOUSE	-0.0791
-2.2784	OF HUNDREDS
-1.8003	OF INSTEAD
-2.2784	OF KING
-2.2784	OF LAND	-0.1818
-1.8003	OF LOT	+0.1223
-2.2784	OF LOTS
-2.2784	OF MADE
-1.8003	OF MIDDLE	-0.1260
-1.4232	OF ONE	+0.0206
-1.3721	OF OUT	-0.0140
-2.2784	OF PAIN	-0.0972
-2.0635	OF PART
-2.2784	OF PIECE
-2.0635	OF PIECES	-0.0020
-2.2784	OF REST	-0.1499
-1.8003	OF SHIP	+0.0548
-1.8459	OF SOME	-0.0143
-2.2784	OF SONG	+0.2442
-1.8003	OF THINK	-0.0818
-2.2784	OF THREE	-0.2156
-2.2784	OF TURN
-2.2784	OF WISH	-0.2003
-2.2784	OF WORTHY
-0.8812	OFF !!UNK	-0.3074
-0.8812	OFF AND
-1.3138	OFF FLEW	-0.2115
-1.3138	OFF TAKE
-0.7972	OFTEN I
-0.7972	OFTEN WAS
-1.4292	OH !!UNK	+0.0674
-1.4292	OH AGAIN
-0.9511	OH NEHA
-1.2142	OH OH
-0.2531	OIL COCONUT
-0.6721	OLD !!UNK	+0.0674
-0.9643	OLD AN	-0.0420
-0.5260	OLD THE	-0.0678
-1.6242	OLD TOO
-1.4092	OLD WISE	-0.2343
-1.6242	OLD YEAR
-1.6242	OLD YEARS
-0.4292	OLDER YEARS	-0.2032
-0.9339	ON !!UNK	+0.0674
-1.6383	ON AND	-0.1022
-1.6383	ON GO	-0.0964
-2.1164	ON GOING
-2.1164	ON GREW
-2.1164	ON HOLDING
-1.9015	ON JUMPED
-1.6839	ON KEEP	+0.0511
-1.9015	ON KING	-0.0145
-2.1164	ON LINES	-0.0372
-2.1164	ON ME
-1.9015	ON PEOPLE
-2.1164	ON RESTING
-2.1164	ON RIGHT	-0.1969
-2.1164	ON RIVER	+0.2078
-2.1164	ON RUN	-0.1857
-1.6839	ON SAT	-0.0278
-2.1164	ON SITTING
-2.1164	ON SWING
-2.1164	ON UP	-0.2226
-2.1164	ON WALKED
-2.1164	ON WENT
-2.1164	ON WERE
-0.9175	ONCE !!UNK	-0.3074
-1.1351	ONCE AT
-0.8316	ONE !!UNK	+0.0674
-1.7148	ONE AT
-1.9298	ONE BUT
-1.9298	ONE BY
-1.9298	ONE FROM	-0.2279
-1.9298	ONE JUST
-1.9298	ONE LITTLE
-1.2700	ONE NO	-0.0210
-1.7148	ONE SAID
-1.9298	ONE UP
-1.1173	ONLY !!UNK	-0.1337
-1.3323	ONLY HE
-1.3323	ONLY NOT
-1.1173	ONLY THE
-1.3323	ONLY WERE
-0.5153	OOO OOO	+0.0140
-0.5541	OPENED I
-1.5541	OR !!UNK	+0.0674
-1.5541	OR ME
-1.5541	OR SCHOOL
-1.3392	OR TWO
-1.3392	OR YOU
-0.2531	ORDER IN
-1.2743	OTHER NO
-0.1761	OTHER THE	-0.2418
-1.1282	OUR BE	-0.1853
-1.1282	OUR MAKE
-1.1282	OUR THAT
-0.8718	OUT !!UNK	+0.0674
-1.5632	OUT CALLED
-1.3000	OUT CRIED
-1.3000	OUT FIND	+0.1340
-1.3000	OUT GO	-0.0364
-1.7782	OUT HELD
-1.7782	OUT PUT
-1.5632	OUT RAN
-1.7782	OUT RIGHT
-1.7782	OUT TOOK	-0.1784
-1.7782	OUT WATCH	-0.1296
-1.1173	OVER !!UNK	-0.1337
-0.8997	OVER ALL
-1.3323	OVER AND
-1.3323	OVER MOUNTAINS	+0.0388
-1.3323	OVER PLAINS	+0.1156
-0.9063	OWN HER
-0.6914	OWN HIS	-0.0829
-0.9063	OWN MY
-0.2531	PADDLING THE	-0.2349
-0.5541	PAIN IN
-0.5541	PAIN THE
-0.7302	PAPA FOR
-0.7302	PAPA SHOUTED
-0.0760	PARENTS HER
-0.4361	PASS TO
-0.9063	PASSED HAVE
-0.9063	PASSED THEY
-0.3392	PASSENGERS THE
-0.3392	PEACH THE
-0.3646	PENCIL THE	-0.0690
-0.4292	PENNY HENNY
-1.6423	PEOPLE !!UNK	+0.0674
-1.6423	PEOPLE GO	-0.2324
-1.6423	PEOPLE MANY
-1.4273	PEOPLE OF	-0.1419
-0.5441	PEOPLE THE	+0.0190
-0.4739	PIA PIA	+0.0743
-0.4739	PIA PIANO
-0.5609	PIANO PIA	+0.1350
-0.5153	PIANO PIANO	+0.1375
-0.8552	PICKED I
-0.5541	PIECES THREE
-0.3392	PITTAPITTA SITTASITTA
-0.4361	PLACED AND
-0.2531	PLAINS THE
-0.6510	PLANT A
-0.6510	PLANT THE
-0.9653	PLAY !!UNK	+0.0261
-1.0109	PLAY AND
-1.4434	PLAY ANYONE	-0.1264
-1.2285	PLAY CAN	-0.3227
-1.2285	PLAY I	-0.1392
-0.8165	PLAY TO	-0.1130
-0.4292	PLAYED HE
-0.2531	PLAYGROUND SCHOOL
-0.6402	PLAYING WAS
-0.2283	PLIP PLIP	+0.2227
-0.4361	POLICEMAN THE
-0.7972	POOL PADDLING	+0.1156
-0.3190	POOL THE	-0.0843
-0.6510	POOR THE
-1.1825	PORRIDGE COOKING
-1.1825	PORRIDGE MY
-1.1825	PORRIDGE OF
-0.7500	PORRIDGE THE
-0.7527	POT COOK
-1.2308	POT STOP
-0.3757	POT THE	-0.0317
-0.2531	POUNCED CUB
-0.2185	PRAYED AND	-0.2060
-0.4292	PREPARED BEEN
-0.7302	PRETTY A
-0.7302	PRETTY VERY
-0.4292	PRICK DON'T	-0.2210
-0.4292	PROUD SO	-0.2323
-0.3392	PUFF AND	-0.4393
-0.4292	PUFFED HE	-0.2153
-0.7972	PULL NOT	-0.1498
-0.3190	PULL TO	-0.2654
-0.9412	PULLED !!UNK	-0.1337
-0.7236	PULLED AND	-0.2030
-1.1562	PULLED MILKMAN	+0.1637
-0.2531	PULLS !!UNK	+0.0674
-0.5541	PUNDIT THE
-0.0760	PUNDIT'S THE	-0.0804
-0.6510	PUPPY !!UNK	+0.0674
-1.0982	PUT AND
-1.0982	PUT HE
-0.2531	PUZZLED WAS
-0.3770	QUEEN AND	-0.2788
-0.8552	QUEEN FUTURE
-0.9063	QUIET VERY
-0.7302	RAIN !!UNK	+0.0674
-0.7302	RAIN THE
-0.3392	RAINBOW THE	-0.1251
-0.4292	RAINS IT
-1.1173	RAN !!UNK	-0.1337
-1.3323	RAN AND
-1.1173	RAN HE
-1.1173	RAN I
-1.3323	RAN SONU
-1.3323	RAN THEY
-0.2531	RAZOR THE
-0.8163	REACHED HE
-1.1282	READ AND	-0.2372
-0.6500	READ WE	-0.1453
-0.7302	READY WAS
-1.0313	REALLY IT
-0.5987	REALLY WAS
-0.7962	RED !!UNK	+0.0261
-1.2743	RED A
-0.6474	RED THE	-0.0200
-0.7785	REPLIED !!UNK	-0.1337
-0.7302	REST AND
-0.7302	REST THE
-0.2531	RESULTS THE
-1.0313	RIGHT HIT
-1.0313	RIGHT JUST	-0.2244
-1.1282	RIP !!UNK	+0.0674
-0.1919	RIVER THE	-0.1308
-0.4292	RIVERS THE	-0.2356
-0.1953	ROAD THE	-0.0370
-0.7972	ROAR TO	-0.2384
-0.6510	RODE AND	-0.1876
-0.5541	ROLL ROLL
-0.4292	ROLLED TEARS
-0.7302	ROOM PUNDIT'S	+0.5551
-0.7302	ROOM THE
-0.6510	ROSE THE
-0.5710	ROUND AND	-0.3380
-0.7983	ROUND GO	-0.5951
-1.3670	RUN !!UNK	+0.0674
-0.9345	RUN CAN	-0.0915
-1.3670	RUN COULD
-1.1521	RUN RUN	-0.1124
-0.8552	SAD !!UNK	+0.0674
-0.6402	SAD LOOKED	-0.1227
-0.9514	SAID !!UNK	+0.0674
-1.9190	SAID ALL
-1.5070	SAID AND
-2.1339	SAID DEAR
-1.6558	SAID FALL	-0.0343
-0.8596	SAID HE	-0.0391
-1.9190	SAID I
-1.7014	SAID IT	-0.0787
-2.1339	SAID KING
-1.9190	SAID MAN	+0.0155
-2.1339	SAID ME
-1.9190	SAID MOTHER	-0.0740
-2.1339	SAID ONLY	-0.2187
-2.1339	SAID SEE	-0.2279
-1.2276	SAID SHE
-1.9190	SAID THEY
-1.6558	SAID THINK	-0.0818
-1.5070	SAID TOO	-0.1342
-1.6558	SAID TURNIP	+0.3213
-1.9190	SAID YES
-1.6558	SAID YOU	-0.0985
-0.1729	SAME THE
-0.8552	SAND !!UNK	+0.0674
-0.8552	SAND THE
-0.5541	SANG AND	-0.2386
-1.1562	SAT !!UNK	+0.0674
-0.7236	SAT AND
-0.9412	SAT IT
-1.5084	SAW !!UNK	+0.0674
-0.8815	SAW AND
-1.5084	SAW HARI
-0.8485	SAW HE
-1.2934	SAW I
-1.0302	SAW SHE
-1.5084	SAW THEY
-1.3670	SAY !!UNK	+0.0674
-1.3670	SAY AND
-0.8889	SAY CHIRRUP	+0.0783
-1.3670	SAY COULD
-1.1521	SAY TO
-1.3670	SAY WOULD
-0.9345	SAY YOU	-0.1195
-0.7983	SAYS CAW	-0.1481
-1.0159	SAYS HE
-1.1685	SCHOOL !!UNK	-0.1337
-1.3834	SCHOOL FOR
-0.9053	SCHOOL THE
-0.3174	SCHOOL TO	-0.0921
-0.2142	SCRAPS !!UNK	-0.1337
-0.9063	SEA !!UNK	+0.0674
-0.4738	SEA THE	-0.0501
-0.2531	SEAS THE	-0.2088
-0.2531	SEASIDE THE
-0.4292	SECOND THE
-0.2531	SECRETS THEIR	-0.2260
-0.9257	SEE !!UNK	+0.0655
-1.5855	SEE COULD
-1.5855	SEE I	-0.1891
-1.3706	SEE NOT	-0.0546
-0.4873	SEE TO	-0.0261
-1.5855	SEE WE'LL
-0.9257	SEE YOU
-0.2142	SEEDS TURNIP
-0.8552	SEEN !!UNK	+0.0674
-0.6402	SEEN HAD	-0.0438
-0.2531	SET HE
-0.6510	SHAKE SHAKE
-0.7972	SHALL !!UNK	+0.0674
-0.7972	SHALL WHAT
-0.2142	SHAVE TO
-0.5541	SHAVED BE
-0.2521	SHAY SHAY	+0.2528
-0.8381	SHE !!UNK	+0.0674
-2.0455	SHE AS	-0.2250
-1.1903	SHE BUT	-0.0069
-2.0455	SHE DAY	-0.0364
-1.8305	SHE HER
-2.0455	SHE HUNGRY
-1.6129	SHE THAT
-1.3857	SHE THEN	-0.0138
-1.8305	SHE THERE
-2.0455	SHE UP
-2.0455	SHE WHAT
-0.5153	SHIP THE
-0.4361	SHOE THE
-0.6510	SHOES HIS	-0.1781
-0.5822	SHOOT AND
-0.7972	SHOP SMALL	-0.1781
-0.7972	SHOP THE	-0.2088
-0.3392	SHORE THE
-0.5541	SHORT A
-0.2531	SHOT AND	-0.2382
-1.1173	SHOULD !!UNK	-0.1337
-1.3323	SHOULD NOW
-0.9521	SHOUTED PEOPLE
-0.6510	SHOW I'LL
-0.4292	SIGHT IN
-0.4292	SILENCE IN
-0.2531	SILLY IS
-0.7972	SING !!UNK	+0.0674
-0.9063	SIT OFTEN	-0.1639
-0.6914	SIT TO
-0.9063	SIT YOU
-0.5541	SITTASITTA PITTAPITTA	+0.0266
-0.6510	SITTING WAS
-0.8552	SIX AT
-0.4361	SIZE MIDDLE	-0.0563
-1.1825	SKY BLUE
-0.1165	SKY THE	-0.0234
-0.5153	SLEEP TO
-0.6510	SLEPT SOMEBODY
-0.9063	SLOWLY HE
-0.9063	SLOWLY WALKED
-1.3138	SMALL !!UNK	+0.0674
-0.6869	SMALL A	-0.0365
-1.3138	SMALL AND
-1.3138	SMALL ARE	-0.2212
-0.8812	SMALL THE	-0.0577
-1.0989	SMALL VERY
-1.5760	SO !!UNK	-0.1337
-1.5760	SO AND
-1.7909	SO BE	-0.2308
-1.7909	SO DOWN
-1.3128	SO IS	-0.1601
-1.3584	SO IT
-1.1311	SO WAS	-0.0113
-0.8485	SOME AND	-0.1646
-1.5084	SOME GET	-0.0780
-1.5084	SOME HAD
-1.2934	SOME ME	-0.1282
-1.5084	SOME PICKED
-1.5084	SOME WANT
-0.8552	SOMEBODY BEAR	-0.1370
-0.7972	SOMEONE IS
-0.6510	SON ELDEST
-0.1729	SONG A
-1.1825	SONU !!UNK	+0.0674
-1.1825	SONU DOWN	-0.2157
-1.1825	SONU IT
-1.1825	SONU SAID
-0.5541	SONU'S IN
-1.1825	SOON !!UNK	+0.0674
-0.7044	SOON AS
-1.1825	SOON WAS
-0.9521	SORRY !!UNK	+0.0674
-0.4739	SORRY AM	+0.7607
-0.9521	SORRY FELT
-0.9521	SPARROWS !!UNK	+0.0674
-0.9521	SPARROWS A
-0.9521	SPARROWS BABY
-0.7371	SPARROWS THE	-0.4395
-0.5153	SPEAK TO
-0.3392	SPELT SHE
-0.4292	SPIDER'S THE
-0.7302	SPLASH SPLASH
-0.4292	SPOKE HE
-0.5541	SPREAD BRANCHES
-0.7972	STARED !!UNK	+0.0674
-0.7972	STARED AND
-0.5541	STARS THE	-0.2387
-0.4292	START A	-0.2213
-0.2531	STARTS MUNNA
-0.9063	STILL !!UNK	+0.0674
-0.9063	STILL AND
-0.4292	STOMACH BIG	-0.0390
-0.2531	STONE A
-0.6402	STOOD !!UNK	-0.1337
-1.3138	STOP !!UNK	+0.0674
-1.3138	STOP NOT
-1.3138	STOP POT	-0.2130
-1.3138	STOP SAY
-1.3138	STOP STOP
-1.0989	STOP TO
-0.5153	STOPPED !!UNK	+0.0261
-0.2531	STRANGE A
-0.2531	STREETS THE
-0.6510	STUDY TO
-0.4292	STUMP OLD	-0.1894
-0.2142	SULLIVAN MISS
-0.0263	SULTAN THE	-0.0357
-0.7972	SUMMER THE
-1.1685	SUN !!UNK	-0.1337
-0.3174	SUN THE	+0.0168
-1.3834	SUN WIND
-0.6510	SUNSHINE THE
-0.6781	SUNU !!UNK	+0.0261
-0.4964	SUNU SUNU	-0.0362
-0.4361	SURPRISE IN
-0.2521	SURPRISED WAS
-0.4292	SWAY SWAY
-0.6510	SWEET AND
-0.5541	SWIM TO
-0.6510	SWING AND	-0.2372
-0.6510	TABLE THE
-0.7972	TAIL HER
-0.7972	TAIL HIS
-1.1562	TAKE ALWAYS	-0.1927
-1.1562	TAKE HIM
-1.1562	TAKE TO
-0.4292	TAKEN WAS
-0.6914	TALKING GOT	-0.3745
-0.7972	TARA STOP
-0.7972	TARA WHEN
-0.6402	TARGET !!UNK	-0.1337
-0.6402	TARGET THE	-0.1438
-0.7302	TEACHER HER
-0.2531	TEETH MY
-1.2531	TELL I
-1.2531	TELL NOW
-0.3468	TELL TO	-0.1328
-1.0382	TELL WOULD
-0.5541	TEN WAS
-1.1562	THAN !!UNK	+0.0674
-1.1562	THAN LARGER
-0.9412	THAN MORE
-0.2977	THANKFUL BE	-0.1645
-1.1530	THAT !!UNK	+0.0674
-1.8443	THAT AND
-1.5811	THAT ANYWHERE	+0.1156
-1.8443	THAT AT
-1.5811	THAT BUT	-0.0617
-2.0593	THAT CAT	-0.1076
-1.8443	THAT DO
-2.0593	THAT FAST	-0.1929
-1.8443	THAT FOUND
-2.0593	THAT HAPPENED	-0.1296
-2.0593	THAT HAPPY
-1.8443	THAT HARD	-0.1081
-1.8443	THAT IS
-2.0593	THAT JUNGLE	+0.5010
-2.0593	THAT OF
-2.0593	THAT ORDERED
-1.8443	THAT REALISED
-2.0593	THAT REMEMBERED
-1.8443	THAT SAW
-1.8443	THAT SAY	-0.1124
-1.8443	THAT SEE	-0.0893
-2.0593	THAT SO
-1.8443	THAT THANKFUL	+0.1603
-2.0593	THAT THINGS
-2.0593	THAT THINK
-2.0593	THAT THOUGHT
-2.0593	THAT UNDERSTOOD
-1.8443	THAT UP	-0.4237
-2.0593	THAT WISH
-0.9970	THE !!UNK	+0.0674
-2.8447	THE ABOUT
-2.8447	THE ACROSS
-1.6604	THE ALL	+0.0169
-3.0596	THE ALSO
-2.5815	THE AM	+0.7607
-1.4641	THE AND	-0.0590
-3.0596	THE ARE
-2.8447	THE AROUND
-2.4327	THE AS	-0.0061
-2.6271	THE ASKED	-0.0569
-1.5890	THE AT	-0.0196
-3.0596	THE ATE
-2.0284	THE AWAY	-0.0628
-3.0596	THE BE
-2.6271	THE BEFORE
-2.8447	THE BEHIND
-3.0596	THE BIRDS	-0.0175
-3.0596	THE BOAT
-2.8447	THE BOY	+0.0319
-1.9936	THE BUT	-0.0885
-3.0596	THE BUY	-0.0030
-1.9936	THE BY	-0.0131
-2.8447	THE CALLED
-3.0596	THE CAME
-2.8447	THE CATCH	-0.2627
-3.0596	THE CHASED
-3.0596	THE COME	-0.2293
-3.0596	THE COOK
-3.0596	THE CRIED
-3.0596	THE CROSS
-2.2045	THE DAY	+0.0514
-3.0596	THE DAYS
-2.8447	THE DESTROY
-3.0596	THE DO
-2.6271	THE DOWN	-0.0430
-2.8447	THE EAT	+0.0319
-3.0596	THE ENTERED
-3.0596	THE EYES
-3.0596	THE FILLED
-2.6271	THE FIND	+0.0292
-3.0596	THE FLEW	-0.2115
-2.2045	THE FOR	-0.0438
-1.9315	THE FROM	-0.0212
-3.0596	THE GIRL
-3.0596	THE GO
-3.0596	THE GROCER	+0.0266
-3.0596	THE HAVE	-0.1530
-2.8447	THE HEARD
-3.0596	THE HELP
-2.5815	THE HIM	-0.0258
-3.0596	THE HIT	-0.1639
-3.0596	THE HOUSE
-2.8447	THE HOW
-2.8447	THE IF
-1.1680	THE IN	-0.0685
-3.0596	THE INSIDE
-1.9034	THE INTO	-0.0279
-2.4327	THE IS	-0.0987
-2.8447	THE IT
-3.0596	THE IT'S
-3.0596	THE JUNGLE	+0.5010
-2.8447	THE KING
-3.0596	THE KNOW
-2.8447	THE LET	-0.1064
-2.5815	THE LIKE	-0.0868
-2.5815	THE LOVE	-0.0859
-2.6271	THE ME
-2.8447	THE MISS	-0.0547
-2.6271	THE MORNING
-3.0596	THE NARRATOR
-2.2045	THE NEAR
-2.6271	THE NIGHT	-0.0008
-2.8447	THE NOT
-3.0596	THE NOW
-1.3672	THE OF	-0.0802
-2.6271	THE OFF	-0.0194
-1.4086	THE ON	-0.0977
-3.0596	THE ONE
-3.0596	THE ONLY
-2.0662	THE OVER	-0.0157
-3.0596	THE PAW
-2.5815	THE PEOPLE	-0.1362
-2.8447	THE PLAY	-0.1177
-2.8447	THE REACHED
-2.6271	THE REPLIED	-0.0015
-3.0596	THE RIVER
-1.5761	THE SAID	-0.0687
-3.0596	THE SAW
-2.6271	THE SAY	-0.1482
-2.4327	THE SAYS	-0.3574
-2.5815	THE SEE	-0.1097
-3.0596	THE SEEN
-3.0596	THE SHAVING
-3.0596	THE SHOOT
-2.6271	THE SO
-3.0596	THE SOON
-3.0596	THE SQUEAKED
-3.0596	THE SUDDENLY
-3.0596	THE SUNU	-0.0726
-2.4327	THE TELL	+0.0938
-2.1075	THE THAT	-0.0322
-2.3998	THE THEM	-0.0654
-3.0596	THE THEN
-2.3998	THE THROUGH	+0.0049
-2.5815	THE TIME
-1.2880	THE TO	-0.0938
-3.0596	THE TOLD
-2.4327	THE TOWARDS
-2.8447	THE TREE
-3.0596	THE TREES	-0.0217
-3.0596	THE TRUE
-2.6271	THE UNDER
-1.8065	THE UP	-0.0254
-3.0596	THE UPON
-3.0596	THE VISIT
-2.1533	THE WAS	-0.0419
-3.0596	THE WENT	-0.2301
-2.5815	THE WERE
-3.0596	THE WHAT
-1.9936	THE WHEN	+0.0184
-3.0596	THE WHERE
-3.0596	THE WHY
-2.0284	THE WITH	-0.0252
-3.0596	THE WOMAN	+0.5010
-3.0596	THE WORK	-0.2098
-3.0596	THE WRONG
-2.8447	THE YOU
-1.5203	THEIR ALL
-1.5203	THEIR BUILT
-1.5203	THEIR FOR
-1.5203	THEIR LEARNED	-0.1296
-1.5203	THEIR WITH
-0.8099	THEM !!UNK	+0.0674
-1.8033	THEM AROUND
-1.8033	THEM CARRIED
-1.8033	THEM MET	-0.1438
-1.1435	THEM OF	-0.0604
-1.5884	THEM SEE
-1.8033	THEM TAKE
-1.5884	THEM TO
-1.5884	THEM WITH
-1.0326	THEN !!UNK	+0.0655
-0.6990	THEN AND
-1.6924	THEN HE
-1.6924	THEN HIM
-1.6924	THEN SEE
-0.8361	THERE !!UNK	+0.0674
-1.4562	THERE BUT
-1.9343	THERE IF
-1.9343	THERE IS
-1.9343	THERE MORNING	-0.1557
-1.9343	THERE NOW
-1.4562	THERE ONCE	-0.0474
-1.9343	THERE THAT
-1.9343	THERE TIME
-1.5018	THERE WAS	-0.0359
-0.9063	THESE ALL
-0.9063	THESE OF
-1.0066	THEY !!UNK	+0.0674
-2.0726	THEY ALL
-1.4457	THEY AND
-1.6401	THEY AS
-1.5945	THEY BUT	-0.0973
-2.0726	THEY DO	-0.1487
-2.0726	THEY DOWN
-2.0726	THEY EVENING	-0.1264
-1.5945	THEY OFF	-0.2195
-2.0726	THEY SOON
-1.5945	THEY THAT
-1.8577	THEY THEM	-0.0710
-2.0726	THEY TOGETHER
-1.8577	THEY TOO
-1.5945	THEY WAY	-0.0741
-1.8577	THEY WHEN
-2.0726	THEY YOU
-1.2308	THINGS THE
-1.2308	THINGS YOUR	-0.2137
-1.0989	THINK !!UNK	-0.1337
-1.3138	THINK COULD	-0.2257
-0.8357	THINK I
-0.8357	THINK JUST	-0.0786
-1.3138	THINK ROBIN
-1.3138	THINK YOU
-0.5541	THINKS AND
-0.8381	THIS !!UNK	+0.0674
-1.7445	THIS DOING
-1.7445	THIS EVEN
-1.5295	THIS HEARING
-1.5295	THIS IS	-0.1354
-1.5295	THIS SAID
-1.5295	THIS SAYING
-1.7445	THIS SO
-1.5295	THIS TAKE
-1.7445	THIS WHAT	-0.2177
-0.5541	THORNS THE
-1.0313	THOUGHT I
-0.7962	THREE !!UNK	+0.0261
-1.2743	THREE ALL
-1.2743	THREE DREW
-1.2743	THREE OR	-0.2190
-1.0593	THREE THE
-0.4292	THREW HE
-0.8833	THROUGH !!UNK	-0.1337
-0.4292	THROW WILL
-0.2531	THROWN BEEN
-0.4292	THUNDER LIKE
-0.8566	TIGER !!UNK	-0.3447
-1.4836	TIGER A
-1.2686	TIGER BIG
-0.8566	TIGER MOTHER	-0.5888
-1.2686	TIGER SMALL
-0.4901	TIGER THE	-0.0307
-1.5319	TIME !!UNK	+0.0674
-0.8720	TIME A	-0.1737
-1.5319	TIME EACH
-1.0993	TIME LONG	-0.5697
-1.0993	TIME THE	-0.1632
-1.0537	TIME THIS
-1.5319	TIME YOUR
-0.9063	TIMES TWENTY
-0.9935	TINY !!UNK	+0.0674
-0.5153	TINY A	-0.0949
-0.7785	TINY THE
-0.7972	TIRED WAS
-0.9411	TO !!UNK	+0.0674
-2.4264	TO AND
-2.6414	TO ANYTHING
-2.6414	TO ASHAMED
-2.6414	TO AWAY
-2.4264	TO BACK
-2.6414	TO BANK	+0.1156
-1.7351	TO BEGAN	-0.0128
-2.6414	TO BEGIN
-1.4852	TO CAME	-0.0926
-2.6414	TO CLOSE
-2.6414	TO CLOSER
-2.4264	TO COME
-1.9815	TO DECIDED	+0.0194
-1.9815	TO DOWN
-2.6414	TO FRIENDS	-0.2144
-1.6479	TO GO	+0.0172
-1.2579	TO GOING	-0.0841
-2.6414	TO GONE
-2.4264	TO HAD
-2.0145	TO HARD	-0.0998
-2.6414	TO HAS
-2.0145	TO HAVE	-0.0282
-2.2088	TO HER
-2.6414	TO HOME
-2.1632	TO HOW	-0.0719
-2.2088	TO IT
-2.2088	TO LIKE
-2.6414	TO LIKED
-2.6414	TO LISTEN
-2.2088	TO LOVE	-0.0784
-2.1632	TO LOVED	+0.0157
-2.6414	TO LUCKY	-0.1264
-2.1632	TO ME
-2.6414	TO NIGHT
-2.6414	TO NOT
-2.6414	TO ON
-2.6414	TO ORDER	+0.1156
-2.2088	TO OUT
-1.9815	TO RAN	-0.0353
-2.4264	TO READY
-2.6414	TO ROAR
-2.6414	TO RUSH
-1.6479	TO SAID	-0.0121
-2.6414	TO STARTED
-2.6414	TO SURPRISED	+0.1169
-2.6414	TO TALK
-2.4264	TO THEM
-2.6414	TO THINGS
-2.6414	TO TIME
-2.4264	TO TREE
-2.4264	TO TRIED
-2.4264	TO TRY
-2.1632	TO TURNED
-2.6414	TO UNABLE	+0.1156
-2.1632	TO UP	-0.0995
-1.4589	TO WANT	-0.1389
-2.2088	TO WANTED	+0.0271
-2.4264	TO WANTS
-2.4264	TO WAY	+0.0641
-1.6893	TO WENT	+0.0021
-2.1632	TO WHAT
-2.4264	TO WHEN
-2.1632	TO YOU	-0.2308
-0.8833	TOLD HE
-1.0982	TOLD WHO
-0.7972	TONGUE !!UNK	+0.0674
-0.5822	TONGUE MOTHER
-0.9586	TOO !!UNK	-0.3447
-1.1074	TOO AM	+0.7607
-1.1530	TOO COME	-0.1774
-1.5855	TOO HE
-1.5855	TOO WAS
-0.8833	TOOK HE
-0.2531	TOP THE	-0.1425
-0.3392	TOPSY IN	-0.0919
-0.9521	TOWARDS WALKING
-0.4292	TRACKS THE
-0.0822	TRAIN THE	+0.0336
-0.3190	TRAMP TRAMP
-1.0414	TREE !!UNK	+0.0674
-0.9902	TREE A	-0.0734
-1.8966	TREE AND
-1.4640	TREE FIR	+0.0511
-1.8966	TREE HUGE
-1.8966	TREE MANGO
-1.4184	TREE PEACH	-0.0164
-0.3882	TREE THE	-0.0682
-1.8966	TREE THIS
-0.8163	TREES !!UNK	-0.1337
-0.4043	TREES THE	-0.0509
-0.7302	TRIED I
-0.8552	TRUE IS
-0.9132	TRUNK HIS
-0.5013	TRUNK MY	-0.1605
-0.2531	TRUTH THE
-0.7785	TRY !!UNK	-0.1337
-0.9935	TRY TRY
-0.1729	TUGGED AND	-0.2755
-0.9935	TURNED AND
-0.9935	TURNED HE
-0.9935	TURNED I
-0.1249	TURNIP ENORMOUS	+0.0442
-0.0760	TURVY TOPSY	-0.0164
-0.2531	TWELVE !!UNK	+0.0674
-1.3138	TWO THE
-1.3138	TWO WERE	-0.1874
-0.2531	UNABLE WAS
-0.7959	UP !!UNK	+0.0674
-2.0490	UP AND	-0.1876
-1.8340	UP CLIMB	-0.1017
-1.4221	UP CLIMBED	-0.0687
-1.3891	UP GET	-0.0856
-2.0490	UP GOT
-2.0490	UP HIGH
-1.5708	UP LOOKED
-1.5708	UP ME	-0.0981
-1.8340	UP PICKED
-1.4221	UP PULL	+0.1179
-2.0490	UP TOOK
-1.0555	UP WAKE	-0.0370
