BIGRAM: method Katz, cutoff 1
  coef[7]: 0.000000 0.499288 0.636453 0.674931 0.764204 0.735441 0.788988

\data\
ngram 1=5240
ngram 2=5158

\1-grams:
-3.1156	!!UNK
-1.0388	</s>	-0.3004
-99.9900	<s>	-0.0363
-4.6207	अँगरखा
-4.6207	अँगूठियों
-4.3197	अँगूठों
-4.6207	अँग्रेज़ी
-4.6207	अँगड़ाई
-4.3197	अँधेरा
-4.6207	अँधेरे
-4.3197	अंक
-4.3197	अंग
-3.7176	अंडे	-0.1886
-4.6207	अंडों
-3.6207	अंत	-0.9495
-4.3197	अंतर
-4.6207	अंतरिक्ष
-4.6207	अंतिम
-3.1294	अंदर	-0.0821
-4.0187	अंदाज़
-4.3197	अंदाज़ा
-4.0187	अंधेर	-0.2817
-4.6207	अइयो
-4.6207	अइसन
-3.1894	अकबर	-0.2747
-4.6207	अकल
-4.6207	अकसर
-3.7176	अकाल	-0.0769
-4.1436	अकेला
-4.6207	अकेली
-4.1436	अकेले
-4.3197	अक्ल
-4.6207	अक्लमंद
-4.6207	अक्षर
-4.0187	अक्सर
-4.6207	अकड़
-4.6207	अकड़ते
-4.6207	अखबार
-4.3197	अखबारों
-3.2985	अगर	-0.0798
-4.1436	अगला
-4.0187	अगली	-0.1241
-3.6207	अगले	-0.3480
-4.6207	अगस्त
-4.6207	अग्गड़
-4.6207	अचंभा
-3.8426	अचकन	-0.0790
-4.6207	अचरज
-3.5068	अचानक
-4.1436	अचार
-2.9305	अच्छा	-0.1289
-3.2590	अच्छी	-0.2808
-3.5415	अच्छे	-0.1032
-4.6207	अजनबियों
-4.3197	अजनबी
-4.3197	अजब
-4.3197	अजी
-3.7176	अजीब
-4.6207	अजीबोगरीब
-4.6207	अजूबा
-4.6207	अतः
-4.6207	अतिरिक्त
-4.6207	अदृश्य
-4.6207	अद्भुत
-4.6207	अधबनी
-3.7176	अधिक	-0.0830
-4.0187	अधिकार
-4.6207	अधीक्षक
-4.6207	अधीर
-4.3197	अधूरा
-4.3197	अधूरी
-4.6207	अध्यक्ष
-3.8426	अध्यापक	-0.1665
-4.6207	अनजाने
-4.1436	अनबूझ	-0.4388
-4.6207	अनमने
-4.6207	अनहोनी
-4.0187	अनाज
-4.0187	अनार
-4.6207	अनाड़ी
-3.7756	अनिल	-0.2062
-4.6207	अनुरोध्
-3.7756	अनुसार	-0.0252
-4.6207	अनूठा
-4.6207	अनूठी
-4.6207	अनेक
-4.0187	अन्य
-4.3197	अन्याय	-0.2916
-4.6207	अपन
-3.0525	अपना	-0.0570
-2.6812	अपनी	-0.1317
-2.5754	अपने	-0.1524
-4.6207	अप्पा
-4.6207	अप्पी
-4.3197	अप्रैल
-3.8426	अफ़सर	-0.1610
-4.6207	अफ़्सर
-2.5415	अब	-0.1084
-4.6207	अबकी
-3.4446	अब्बा	-0.0394
-4.6207	अभाव
-3.5793	अभिनय	-0.4020
-4.6207	अभिनेता
-4.6207	अभिमान
-3.0187	अभी	-0.0996
-3.7756	अमरनाथ	-0.0607
-4.6207	अमराई
-4.6207	अमरूद
-4.6207	अमरेली
-3.6207	अमित	-0.1313
-4.6207	अमृत
-3.0297	अम्मा	-0.1515
-3.3903	अम्मी	-0.1171
-4.6207	अरविंद
-4.6207	अरहर
-4.6207	अरी
-3.0892	अरे	-0.1106
-3.0409	अलग	-0.3163
-3.6207	अलमारी	-0.2665
-4.6207	अलावा
-4.6207	अल्मारी
-4.6207	अल्लाह
-4.3197	अल्सेशियन	-0.3003
-3.6207	अवंती	-0.2568
-4.6207	अवश्य
-4.6207	अवसर
-4.6207	अवसरों
-4.6207	असंभव
-4.6207	असम
-4.3197	असमंजस
-4.1436	असर
-4.6207	असल
-4.6207	असलियत
-4.1436	असली
-4.6207	असहमति
-4.6207	असुरों
-4.6207	अहमदाबाद
-4.3197	अहा
-4.6207	अहाते
-4.1436	अड़
-4.6207	अड़ता
-4.6207	अड़ती
-4.6207	अड़ा
-4.6207	अड़ाता
-4.3197	अड़े
-2.7069	आ	-0.5304
-3.9217	आँख
-3.5068	आँखें	-0.0347
-3.4446	आँखों	-0.4542
-4.3197	आँगन	-0.2930
-4.6207	आँचल
-4.6207	आँतें
-4.3197	आँधी
-4.6207	आँसू
-4.6207	आइए
-4.3197	आइने
-4.6207	आइल
-3.4446	आइसक्रीम	-0.1572
-3.0767	आई	-0.0719
-4.1436	आईं
-4.3197	आऊँ
-3.6665	आऊँगा	-0.1540
-3.2405	आए	-0.0344
-4.6207	आएँ
-4.6207	आएँगी
-4.3197	आएँगे
-3.8426	आएगा
-4.0187	आएगी
-3.1583	आओ	+0.0115
-4.3197	आओगे
-3.2405	आकर	-0.0182
-4.6207	आकर्षित
-3.9217	आकार
-3.8426	आकाश	-0.1589
-4.6207	आकृति
-4.6207	आके
-3.6207	आखिर	-0.0040
-4.6207	आखिरकार
-4.6207	आखिरी
-3.6665	आग	-0.0465
-4.0187	आगरा
-4.1436	आगरे
-4.6207	आगाह
-3.0079	आगे	-0.1266
-2.8354	आज	-0.0845
-4.1436	आजकल
-4.6207	आज़माकर
-4.6207	आज़माया
-4.3197	आज़ादी	-0.2924
-3.9217	आटा
-4.1436	आटे
-3.9217	आठ	-0.0967
-3.0892	आता	-0.3685
-3.2590	आती	-0.1441
-3.6665	आते	-0.1031
-4.0187	आदत	-0.2737
-3.1294	आदमी	-0.1308
-3.5415	आदि	-0.0370
-4.6207	आदिवासी
-4.1436	आदेश
-4.1436	आधा
-3.8426	आधी	-0.1660
-4.6207	आधे
-4.6207	आध्
-4.6207	आन
-3.9217	आनंद
-3.7756	आना	-0.0663
-4.6207	आनी
-3.5068	आने	-0.1022
-3.0892	आप	-0.0265
-4.1436	आपका	-0.1341
-4.0187	आपकी
-3.7176	आपके	-0.0570
-3.9217	आपको
-4.6207	आपत्ति
-4.1436	आपने
-4.6207	आपबीती
-3.7756	आपस	-0.6682
-4.1436	आपसे
-3.7756	आपा	-0.0252
-4.6207	आफ़त
-4.6207	आफ़िस
-4.3197	आबादी
-3.4746	आम	-0.0206
-4.6207	आमतौर
-2.8648	आया	-0.2068
-4.1436	आयु	-0.1677
-4.6207	आर
-3.9217	आरंभ	-0.2063
-3.7176	आराम	-0.1463
-3.5068	आरिफ़	-0.2814
-4.3197	आलस
-4.6207	आलसियों
-4.6207	आला
-3.6665	आलू	-0.1035
-4.1436	आव	-0.1752
-4.3197	आवाज
-2.9580	आवाज़	-0.1686
-4.1436	आवाज़ा
-4.3197	आवाज़ें
-4.1436	आवाज़ों	-0.4320
-4.6207	आवाजें
-4.6207	आवाश
-4.6207	आवृफतियों
-4.6207	आशा
-4.6207	आशीर्वाद
-4.6207	आशीर्वादी
-4.1436	आश्चर्य	-0.1683
-3.5068	आश्रम	-0.2383
-4.6207	आषाढ़
-4.3197	आस
-3.7756	आसपास	-0.2036
-3.2985	आसमान	-0.1935
-4.6207	आसमानी
-3.8426	आसान	-0.1712
-4.3197	आसानी	-0.2929
-4.6207	आस्तीन
-4.1436	आहट
-4.0187	आहा
-4.6207	आहिस्ता
-4.3197	आड़
-4.6207	इंग्लैंड
-4.1436	इंजन
-4.6207	इंजनों
-4.6207	इंडिया
-4.6207	इंतज़ाम
-3.8426	इंतज़ार	-0.0716
-3.9217	इंसान	-0.0967
-4.6207	इंसानों
-4.6207	इक
-3.7756	इकट्टा	-0.1441
-4.6207	इकट्टी
-4.6207	इकट्टे
-4.6207	इकट्ठा
-4.6207	इकत्रित
-4.6207	इकदम
-4.6207	इकन्नी
-4.6207	इकरार
-4.3197	इकाई
-3.9217	इच्छा
-4.6207	इज़हार
-4.6207	इजाज़त
-4.6207	इठलाकर
-3.1436	इतना	-0.1057
-3.0297	इतनी	-0.2226
-3.2985	इतने	-0.2039
-4.6207	इत्मीनान
-3.2985	इधर	-0.5337
-3.1736	इन	-0.0224
-4.6207	इनका
-4.3197	इनकी
-4.0187	इनमें	-0.2743
-4.1436	इनसे
-4.6207	इन्हीं
-3.4446	इन्हें
-4.1436	इन्होंने	-0.1752
-4.6207	इमली
-4.1436	इमारत
-4.6207	इम्तिहान
-4.3197	इरादा	-0.2966
-4.6207	इर्दगिर्द
-3.5793	इला	-0.0406
-4.6207	इलाका
-4.0187	इलाके	-0.1173
-4.1436	इलाकों
-4.6207	इलाज
-4.3197	इलायची
-4.3197	इशारा
-4.6207	इशारों
-2.5600	इस	-0.2136
-3.6207	इसका
-3.8426	इसकी
-3.3654	इसके	-0.3002
-3.8426	इसको
-4.3197	इसने
-4.6207	इसमे
-3.4166	इसमें	-0.1439
-3.1583	इसलिए	-0.0621
-3.4746	इससे	-0.1794
-3.2590	इसी	-0.1390
-3.6207	इसीलिए
-3.0644	इसे	-0.0052
-3.9217	इस्तेमाल	-0.0967
-4.1436	ई
-4.6207	ईंट
-4.6207	ईंधन
-4.6207	ईमानदारी
-4.6207	ईष्र्या
-4.6207	उँगलियाँ
-4.6207	उँगलियों
-3.5793	उँगली	-0.0719
-4.6207	उँड़ेला
-4.1436	उकेर
-4.3197	उकेरते
-4.6207	उकेरना
-4.6207	उखाड़कर
-4.6207	उग
-4.6207	उगाना
-4.6207	उचकाकर
-4.6207	उचित
-3.9217	उछल
-4.6207	उछलकर
-4.3197	उछलता
-4.6207	उछलती
-4.3197	उछलने
-4.3197	उछली
-4.6207	उछाल
-4.6207	उछालते
-4.6207	उछालने
-4.6207	उछाला
-4.6207	उजले
-4.6207	उजाड़
-4.1436	उठ
-3.6207	उठकर
-4.1436	उठता	-0.1670
-4.6207	उठती
-4.0187	उठते
-3.9217	उठने
-3.2590	उठा	-0.1485
-4.6207	उठाईं
-4.0187	उठाए
-4.3197	उठाएँ
-3.3654	उठाकर	-0.0484
-4.1436	उठाता	-0.1670
-4.6207	उठाती
-4.6207	उठाना
-4.3197	उठाने
-3.6665	उठाया	-0.0454
-4.3197	उठिए
-4.1436	उठी
-4.6207	उठीं
-4.3197	उठे
-4.6207	उठें
-4.6207	उठेंगे
-4.6207	उठेगा
-4.3197	उठो
-4.6207	उतना
-4.6207	उतनी
-4.3197	उतने
-4.6207	उतर
-4.3197	उतरकर
-4.6207	उतरता
-4.6207	उतरने
-4.1436	उतरवा
-4.6207	उतरा
-4.6207	उतराती
-4.3197	उतरो
-4.6207	उतरोगे
-4.1436	उतार
-4.6207	उतारकर
-4.6207	उतारते
-4.6207	उतारने
-4.6207	उतारा
-4.3197	उतारी
-4.6207	उतारे
-4.6207	उतावले
-3.6665	उत्तर	-0.1871
-4.6207	उत्तरों
-4.3197	उत्सव
-4.1436	उत्साह	-0.1677
-4.6207	उत्साहित
-4.6207	उत्सुक
-4.3197	उत्सुकता
-4.0187	उदास
-4.6207	उदासी
-3.2783	उधर	-0.0344
-3.2985	उन	-0.1161
-3.5068	उनका
-3.4746	उनकी
-3.1022	उनके	-0.1015
-3.9217	उनको
-4.6207	उनपर
-4.0187	उनमें	-0.0831
-3.6665	उनसे
-4.6207	उनींदी
-3.9217	उन्हीं	-0.0907
-2.8648	उन्हें	-0.0254
-2.9773	उन्होंने	-0.0525
-4.6207	उपचार
-4.6207	उपदेश
-4.1436	उपयोग
-4.6207	उपयोगी
-4.6207	उपलब्ध
-4.6207	उपस्थित
-4.3197	उपाय
-4.6207	उफपर
-4.3197	उफान
-4.6207	उबाऊ
-3.3420	उबातुन	-0.0321
-4.6207	उबालकर
-4.3197	उभर
-4.3197	उभरता
-4.6207	उभरी
-4.6207	उभारा
-4.1436	उम्मीद
-4.3197	उम्र
-4.6207	उमड़
-4.3197	उलझन
-4.6207	उलझे
-4.6207	उलट
-4.6207	उलटना
-4.6207	उलटे
-4.6207	उलटो
-4.6207	उलीच
-4.6207	उलीचकर
-4.3197	उलीचते
-4.6207	उलीचने
-4.6207	उल्टी
-2.8283	उस	-0.1458
-3.1583	उसका	-0.0665
-2.9047	उसकी	-0.0746
-2.8012	उसके	-0.1970
-3.7756	उसको	-0.0252
-2.5379	उसने	-0.1628
-3.8426	उसमें	-0.1259
-3.3903	उससे	-0.0507
-3.2985	उसी	-0.0611
-2.5488	उसे	-0.0594
-3.4446	उड़	-0.2904
-4.3197	उड़कर
-4.6207	उड़ता
-4.0187	उड़ती	-0.1247
-4.6207	उड़नखटोले
-4.6207	उड़ना
-4.6207	उड़ने
-4.3197	उड़ाई
-4.6207	उड़ाऊँ
-4.6207	उड़ाएँ
-4.6207	उड़ाओगे
-4.6207	उड़ाता
-4.6207	उड़ाती
-4.3197	उड़ाते
-4.6207	उड़ान
-4.6207	उड़ाने
-4.0187	उड़ी	-0.4879
-4.6207	उड़ीसा
-4.6207	उड़े
-3.6207	ऊँ	-0.2843
-4.1436	ऊँचा
-4.6207	ऊँचाइयाँ
-4.3197	ऊँचाई
-3.5068	ऊँची	-0.0689
-3.9217	ऊँचे	-0.0551
-3.2783	ऊँट	-0.3319
-4.6207	ऊँटवाला
-4.0187	ऊँटवाले
-4.6207	ऊँटों
-4.3197	ऊचा	-0.2971
-4.6207	ऊधम
-3.0079	ऊपर	-0.1670
-4.6207	ऊब
-4.6207	ऊबड़
-3.9217	ए	-0.2087
-1.9599	एक	-0.1684
-4.6207	एकएक
-4.3197	एककेसवाली
-3.4746	एकदम	-0.0933
-4.1436	एकाएक	-0.1758
-3.3420	एक्की	-0.1374
-4.6207	एतराज़
-4.6207	एलर्जी
-4.6207	एवं
-4.3197	एहसास
-4.6207	ऐ
-4.6207	ऐन
-3.2590	ऐसा	-0.1214
-3.5415	ऐसी	-0.0757
-3.3420	ऐसे	-0.0289
-3.8426	ओ
-4.6207	ओझल
-4.6207	ओणम
-4.6207	ओफ्फो
-2.9217	ओर	-0.0309
-4.6207	ओरांव
-4.6207	ओले
-4.6207	ओस
-4.0187	ओह
-4.1436	ओहो
-4.6207	ओढ़कर
-1.8899	और	-0.0878
-4.3197	औसत
-4.1436	कँटीले	-0.1757
-4.6207	कंघी
-4.6207	कंजूस
-4.6207	कंतु
-4.3197	कंधा
-4.3197	कंधे
-4.3197	कंबल	-0.2930
-3.1736	कई	-0.0582
-3.8426	कक्कू	-0.0790
-4.6207	कक्ष
-4.3197	कक्षा
-3.9217	ककड़ी	-0.0967
-4.6207	कचरे
-4.3197	कचहरी
-4.6207	कचूमर
-4.3197	कच्चा
-4.6207	कच्ची
-4.1436	कच्चे	-0.1341
-4.1436	कछुआ
-3.7176	कछुए	-0.2348
-4.6207	कज़ा
-4.6207	कट
-4.6207	कटकर
-4.6207	कटती
-4.3197	कटने
-4.3197	कटाव
-4.3197	कटोरी
-4.3197	कटोरे
-4.0187	कठिन	-0.1221
-4.6207	कठिनाई
-4.6207	कतई
-4.6207	कतरीला
-4.6207	कतार
-4.6207	कतारें
-4.6207	कत्थई
-4.6207	कथन
-4.1436	कद
-3.8426	कदम
-4.6207	कदमों
-4.6207	कनकना
-4.6207	कनपटी
-4.6207	कने
-4.3197	कनेर	-0.2924
-3.7756	कप
-3.7176	कपड़ा
-3.2057	कपड़े	-0.1145
-4.6207	कपड़ों
-3.9217	कब
-4.6207	कबाब
-4.6207	कबाड़
-4.6207	कबाड़ी
-3.7176	कबूतर	-0.1478
-3.7756	कबूतरों	-0.0627
-4.6207	कब्बो
-4.6207	कभार
-2.8725	कभी	-0.0979
-3.3654	कम	-0.0810
-4.3197	कमज़ोर
-3.9217	कमर	-0.2094
-4.6207	कमरा
-3.6207	कमरे	-0.2521
-4.6207	कमल
-4.6207	कमान
-4.6207	कमाल
-3.9217	कमी	-0.0929
-4.6207	कमीज
-4.1436	कमीज़
-2.3512	कर	-0.1851
-4.6207	करंट
-3.1156	करके	+0.0279
-4.3197	करतब
-3.1436	करता	-0.2379
-3.2057	करती	-0.2358
-2.9047	करते	-0.4151
-3.2590	करना	-0.0717
-4.1436	करनी
-2.9047	करने	-0.3393
-4.6207	करवट
-4.6207	करवा
-4.6207	करवानी
-4.6207	करवाया
-4.6207	कराओ
-4.6207	करामात
-4.6207	करारा
-4.6207	करारी
-4.6207	कराहते
-4.6207	करीने
-4.1436	करीब
-3.9217	करूँ	-0.0551
-3.7176	करूँगा	-0.0523
-4.1436	करूगा
-3.6665	करे
-3.9217	करें
-3.7176	करेंगे
-4.1436	करेगा
-4.6207	करेगी
-3.1736	करो	-0.0148
-4.6207	करोगी
-3.8426	करोगे
-4.3197	कर्ण
-4.6207	कर्तव्य
-3.3197	कर्नल	-0.6015
-4.6207	कर्मचारियों
-3.6665	कल
-4.6207	कलई
-4.6207	कलकत्ता
-4.6207	कलकत्ते
-3.6665	कलगी	-0.0094
-4.6207	कलगीद्ध
-4.6207	कलछी
-4.6207	कला
-4.3197	कलाकार
-4.3197	कली
-3.6665	कविता	-0.0617
-4.6207	कव्वाली
-4.1436	कशीदाकारी
-4.3197	कश्मीर
-4.3197	कष्ट
-4.6207	कस
-4.0187	कसकर
-4.6207	कसके
-4.6207	कसता
-4.3197	कसा
-4.3197	कसूती
-4.3197	कस्बे
-3.4746	कह	-0.1014
-3.5068	कहकर	-0.0704
-3.6665	कहता	-0.0948
-3.5415	कहती	-0.2937
-3.1736	कहते	-0.3424
-3.7756	कहना	-0.0581
-3.8426	कहने	-0.0786
-4.6207	कहर
-4.3197	कहलवा	-0.3000
-2.2666	कहा	-0.1329
-3.1436	कहाँ	-0.1405
-4.1436	कहानियाँ
-3.3197	कहानी	-0.0381
-4.6207	कहानीकार
-4.6207	कही
-2.9773	कहीं	-0.0230
-4.6207	कहूँगा
-4.0187	कहे
-4.3197	कहें
-4.6207	कहेंगे
-4.3197	कहो	-0.2981
-2.0187	का	-0.2079
-4.6207	काँटा
-4.6207	काँटे
-4.6207	काँटेदार
-4.6207	काँटों
-4.6207	काँप
-4.6207	काँपती
-4.6207	काँपते
-3.9217	काँपने	-0.1789
-4.6207	काँस
-4.6207	कांथा
-4.3197	कांदा	-0.3004
-3.5793	काका	-0.0864
-3.5068	कागज़	-0.0302
-4.3197	कागज़ों
-4.6207	काज
-4.3197	काज़ी
-3.3197	काट	-0.3599
-4.6207	काटकर
-4.6207	काटती
-4.6207	काटते
-4.6207	काटदी
-4.6207	काटना
-4.0187	काटने
-3.9217	काटा	-0.0935
-4.6207	काटी
-4.6207	काटूँ
-4.6207	काटे
-4.6207	काटो
-4.6207	काठियावाड़ी
-4.6207	काठियावाड़
-4.6207	कात
-4.6207	कातते
-4.6207	कातर
-3.5415	कान	-0.2150
-4.6207	कानून
-4.0187	कानों	-0.4806
-4.6207	कापी
-3.3903	काफ़ी	-0.0192
-4.6207	काफी
-4.6207	काबुल
-4.3197	काबुली
-4.6207	काबुलीवाले
-2.7882	काम	-0.1954
-4.6207	कामकाज
-4.6207	कामना
-4.3197	कामयाब
-4.3197	कामों
-4.6207	कार
-4.3197	कारखाना
-4.1436	कारखाने	-0.1683
-4.3197	कारखानों
-3.3903	कारण	-0.0101
-4.0187	कारीगर	-0.1246
-4.1436	कार्ड	-0.1757
-4.6207	कार्डशीट
-4.0187	काला
-4.6207	कालिमा
-3.3197	काली	-0.9771
-3.6665	काले	-0.1086
-4.0187	कालेज	-0.1173
-4.6207	काव
-4.6207	काढ़े
-2.2763	कि	-0.1578
-4.6207	कि````````````````````````ताब
-4.6207	किंतु
-4.0187	किए	-0.1240
-4.3197	किच	-0.3004
-3.5793	कितना	-0.0413
-3.5068	कितनी	+0.0069
-3.2985	कितने	-0.0846
-3.4446	किताब	-0.0379
-4.6207	किताबी
-3.8426	किताबें	-0.0374
-4.6207	किताबों
-4.6207	कित्ता
-4.6207	किधर
-4.6207	किनारा
-3.4746	किनारे	-0.0591
-4.6207	किनारों
-2.9217	किया	-0.1595
-4.3197	किरचें
-4.6207	किरणों
-4.6207	किरमिच
-4.6207	किला
-4.3197	किलो	-0.3003
-4.6207	किलोमीटर
-4.6207	किवार
-4.6207	किवाड़े
-3.7176	किशन
-3.4446	किस	-0.1990
-4.6207	किसकी
-4.6207	किसके
-3.7756	किसने	-0.0252
-4.6207	किसलिए
-4.6207	किससे
-3.5415	किसान	-0.0655
-4.6207	किसानों
-2.9217	किसी	-0.1803
-4.1436	किसे	-0.1755
-4.6207	किस्म
-4.3197	किस्मत
-1.8558	की	-0.1821
-4.3197	कीं
-4.1436	कीचड़
-4.0187	कीजिए
-4.6207	कीटनाशक
-4.6207	कीमती
-4.6207	कीड़ा
-4.3197	कीड़े
-4.3197	कुँजड़िन
-4.1436	कुएँ	-0.1683
-4.6207	कुकर
-2.4085	कुछ	-0.1334
-4.6207	कुटिया
-4.0187	कुतर
-4.3197	कुतरूगा
-4.3197	कुतरूगाँ	-0.2997
-4.6207	कुतरे
-4.6207	कुतरो
-3.7756	कुत्ता	-0.1455
-3.9217	कुत्ते	-0.0887
-4.6207	कुदकती
-4.6207	कुदरत
-4.6207	कुमाऊँ
-3.4446	कुम्मी	-0.1097
-4.6207	कुर्ता
-3.5793	कुर्सी	-0.1725
-4.6207	कुल
-4.6207	कुलबुला
-4.6207	कुलियों
-3.7176	कुली	-0.2579
-4.6207	कुल्हाड़ी
-4.6207	कुल्हड़
-4.6207	कुहासा
-4.6207	कूटकर
-4.6207	कूडा
-4.0187	कूद	-0.1228
-4.1436	कूदता
-4.3197	कूदती
-4.3197	कूदते
-4.6207	कूदने
-4.6207	कूबड़
-4.6207	कूड़े
-4.6207	कृपया
-4.3197	कृपा	-0.2588
-1.7365	के	-0.3726
-4.6207	कें
-4.6207	केंचुआ
-4.6207	केंद्र
-4.3197	केतली
-4.6207	केरल
-4.6207	केरा
-4.1436	केला
-3.4746	केले	-0.5220
-3.9217	केवल	-0.0966
-3.0079	केशव	-0.2261
-4.6207	कैंची
-4.6207	कैंप
-4.3197	कैद
-4.6207	कैसलिया
-3.9217	कैसा	-0.0551
-3.5415	कैसी	-0.0698
-2.8078	कैसे	-0.1488
-1.9359	को	-0.0694
-2.6207	कोई	-0.1108
-2.9047	कोको	-0.0644
-3.7176	कोट	-0.0499
-4.6207	कोठरी
-4.6207	कोड
-4.0187	कोने	-0.1173
-4.3197	कोबी	-0.3004
-4.0187	कोयल
-4.6207	कोयले
-4.6207	कोरे
-4.6207	कोलकाता
-4.3197	कोलाहल
-4.3197	कोल्हू
-3.5793	कोशिश	-0.0958
-4.6207	कोशिशों
-4.6207	कोसती
-4.3197	कोहरा
-4.3197	कौआ
-4.0187	कौए	-0.1197
-4.6207	कौतुहल
-3.0644	कौन	-0.0458
-4.6207	कौनसे
-4.6207	कौशल्या
-2.4304	क्या	-0.1532
-4.3197	क्यारियों
-4.6207	क्यारी
-2.7286	क्यों	-0.1692
-3.5793	क्योंकि
-4.6207	क्योंजीमल
-4.6207	क्रम
-4.6207	क्रिकेट
-4.6207	क्रोध
-4.6207	क्रोध्
-4.1436	क्लब
-4.1436	क्षण
-4.6207	कड़ाहों
-4.6207	कड़ियाँ
-4.6207	कढ़ाई
-4.6207	खंड
-4.3197	खंभे
-4.6207	खज़ाने
-4.6207	खजाना
-4.6207	खजाने
-4.3197	खट
-4.6207	खटखटाकर
-4.6207	खटपट
-4.6207	खटाखट
-4.3197	खट्टर
-3.9217	खट्टा	-0.2087
-4.3197	खतरनाक
-4.6207	खतरे
-3.7176	खता	-0.1936
-3.7756	खत्म
-4.6207	खद्दर
-4.3197	खपत
-4.6207	खपरे
-4.6207	खपरैल
-4.1436	खप्पच्चियों
-3.7756	खबर	-0.0252
-4.0187	खबरदार	-0.1241
-4.6207	खयाल
-3.9217	खर	-0.2089
-4.6207	खरगोश
-4.3197	खराब
-4.6207	खराबी
-4.1436	खरीद
-4.3197	खरीदकर
-4.6207	खरीदना
-4.0187	खरीदने	-0.2918
-4.1436	खरीदा
-4.6207	खरीदी
-4.6207	खरीदूँगा
-4.6207	खरीदे
-4.6207	खरीफ़
-4.6207	खरोंच
-4.6207	खरोंचें
-4.6207	खरोंचों
-4.6207	खरोश
-3.7756	खर्च	-0.0663
-4.1436	खर्राटे
-4.6207	खलिहानों
-4.6207	खलीता
-3.2228	खा	-0.1092
-4.6207	खाँसते
-4.3197	खाइयाँ
-4.6207	खाइयों
-3.6207	खाई	-0.1356
-4.6207	खाऊँ
-4.6207	खाऊँगा
-4.3197	खाऊँगी
-4.3197	खाएँ
-4.6207	खाएँगी
-4.3197	खाएँगे
-4.3197	खाएगी	-0.2995
-4.3197	खाओ
-4.6207	खाक
-3.8426	खाकर	-0.0790
-4.6207	खाकसार
-4.6207	खाजा
-3.9217	खाता	-0.2056
-4.1436	खाती	-0.1670
-3.7756	खाते	-0.2289
-4.3197	खादी
-4.6207	खान
-4.3197	खानसामा
-3.4446	खाना	-0.0243
-4.3197	खानी
-3.1894	खाने	-0.2856
-4.6207	खानों
-4.6207	खाबड़
-4.6207	खामोश
-4.6207	खामोशी
-4.6207	खाय
-3.7176	खाया
-3.7176	खाली	-0.0553
-4.6207	खालीपन
-3.5068	खास	+0.0069
-4.6207	खासकर
-4.6207	खासी
-4.6207	खिचकर
-3.5415	खिचड़ी	-0.0710
-4.6207	खिदमत
-4.3197	खिल
-4.0187	खिला
-4.6207	खिलाएँ
-4.6207	खिलाता
-3.6665	खिलाते	-0.0994
-4.6207	खिलाना
-4.3197	खिलाफ़
-4.6207	खिली
-4.6207	खिलौना
-3.8426	खिलौने
-4.3197	खिलौनेवाला
-4.3197	खिसक
-4.3197	खिसकते
-4.6207	खिसकाई
-4.6207	खिड़कियाँ
-4.3197	खिड़की
-4.0187	खींच
-4.0187	खींचकर
-4.6207	खींचता
-4.3197	खींचते
-4.6207	खींचना
-4.6207	खींचा
-4.3197	खींची	-0.3003
-4.3197	खीझकर
-4.6207	खीर
-4.6207	खीरा
-4.3197	खुचा
-4.6207	खुची
-4.6207	खुजलाकर
-4.3197	खुजाना
-3.4446	खुद	-0.0172
-4.0187	खुर	-0.1247
-4.6207	खुरदरा
-4.6207	खुराक
-4.3197	खुल	-0.2588
-4.6207	खुलता
-4.1436	खुलने	-0.1713
-4.1436	खुला
-4.0187	खुली
-3.3654	खुश	-0.1340
-4.3197	खुशकिस्मती
-4.6207	खुशनुमा
-4.6207	खुशबूदार
-4.6207	खुशामद
-4.6207	खुशियों
-3.5793	खुशी	-0.2427
-4.3197	खूँखार
-4.3197	खूँटे	-0.2929
-4.0187	खून
-3.2405	खूब	-0.0143
-4.3197	खूबसूरत
-3.4746	खेत	-0.2603
-4.3197	खेती
-3.5068	खेतों	-0.3258
-3.2228	खेल	-0.0629
-4.6207	खेलकर
-4.6207	खेलगा
-4.3197	खेलता
-3.6207	खेलते	-0.0537
-4.3197	खेलना
-4.1436	खेलने
-4.6207	खेला
-4.3197	खेलें
-4.3197	खेलेंगे
-4.1436	खेलो
-4.3197	खेलों
-4.1436	खैर
-4.3197	खो	-0.2992
-4.1436	खोई	-0.4376
-4.6207	खोए
-4.6207	खोज
-4.6207	खोट
-4.6207	खोटी
-4.6207	खोटे
-4.3197	खोद	-0.2991
-4.6207	खोदते
-4.6207	खोदना
-4.6207	खोदूँगा
-4.6207	खोपरा
-4.6207	खोपरे
-3.5415	खोल
-4.3197	खोलकर
-4.3197	खोलता
-4.0187	खोलती	-0.2901
-4.6207	खोलते
-4.3197	खोलने	-0.2930
-4.3197	खोला
-4.3197	खोली
-4.6207	खोले
-3.7176	खोलो	-0.0552
-4.6207	ख्याल
-3.4166	ख्वाजा	-0.2879
-3.7756	खड़	-0.2250
-3.3903	खड़ा	-0.2530
-3.8426	खड़ी	-0.0772
-3.5793	खड़े	-0.1339
-4.6207	गँदले
-4.6207	गँवाए
-4.6207	गँवाना
-4.6207	गंगा
-4.6207	गंडेरी
-4.6207	गंतव्य
-4.6207	गंदे
-4.6207	गंध
-4.6207	गंभीर
-4.6207	गंभीरता
-4.6207	गंमं
-2.5415	गई	-0.1588
-3.6665	गईं	-0.0454
-2.6522	गए	-0.1134
-4.3197	गगरी
-4.6207	गजब
-4.3197	गज़ब
-4.3197	गज़ल
-4.6207	गडेरिया
-4.6207	गड्ढा
-4.1436	गड्ढे
-4.6207	गणित
-4.6207	गत
-4.3197	गति
-4.0187	गद्दी	-0.2743
-4.1436	गधा
-4.1436	गधे
-4.6207	गन्ने
-4.3197	गपशप
-4.6207	गप्प
-4.3197	गफ़लत
-4.3197	गमछों
-2.3285	गया	-0.1839
-4.6207	गर
-4.6207	गरजते
-4.6207	गरजे
-3.9217	गरम	-0.0967
-4.6207	गरमागरम
-4.6207	गरमाहट
-4.3197	गरी
-4.0187	गरीब
-4.6207	गर्द
-3.5068	गर्दन	-0.0633
-4.6207	गर्मजोशी
-4.6207	गर्मयों
-3.6665	गर्मी	-0.0947
-4.6207	गर्व
-4.3197	गलत
-4.3197	गलतियाँ
-3.6207	गलती	-0.0818
-4.6207	गलियाँ
-4.6207	गलियारे
-4.0187	गली
-4.6207	गलीचों
-3.9217	गले	-0.3297
-4.6207	गवाह
-4.6207	गहरा
-4.6207	गहराई
-3.7176	गहरी	-0.0579
-4.3197	गहरे
-4.3197	गा
-4.6207	गाँधी
-3.1436	गाँव	-0.2201
-4.6207	गाँववासियों
-4.1436	गाँवों
-4.6207	गां
-3.3903	गांधी	-0.8264
-4.3197	गांधीजी	-0.2953
-4.6207	गांपो
-4.6207	गाइड
-4.6207	गाई
-4.6207	गाए
-4.6207	गाएँ
-4.1436	गाकर
-3.9217	गाजर	-0.0967
-4.3197	गाता
-4.6207	गाती
-3.8426	गाते	-0.1634
-3.9217	गाना
-3.9217	गाने
-3.4746	गाय	-0.1336
-4.1436	गायब	-0.1732
-4.6207	गाया
-4.6207	गायें
-4.3197	गायों
-3.4446	गार	-0.3407
-4.6207	गारत
-4.6207	गारा
-4.6207	गार्ड
-4.6207	गाल
-4.6207	गाली
-4.3197	गालों
-4.6207	गाड़
-4.6207	गाड़ियों
-4.1436	गाड़ी
-4.6207	गिट्टे
-4.0187	गिद्दों	-0.1172
-4.3197	गिनकर
-4.3197	गिनती
-4.6207	गिनूँगी
-3.5415	गिर	-0.0848
-4.3197	गिरता
-4.3197	गिरने
-4.6207	गिरहबाज़ा
-4.3197	गिरा
-4.6207	गिराए
-4.3197	गिराया
-3.8426	गिरी
-4.6207	गिरे
-3.9217	गिलहरी
-4.3197	गिड़गिड़ाए
-4.6207	गिड़गिड़ाया
-4.1436	गीत
-4.6207	गीतों
-4.6207	गीला
-4.6207	गीले
-4.6207	गुच्छा
-3.8426	गुजरात	-0.2723
-4.6207	गुजराती
-4.6207	गुज़र
-4.3197	गुज़रा
-4.6207	गुट
-4.0187	गुडबाई	-0.2586
-3.9217	गुदगुदी	-0.0551
-4.3197	गुन
-4.6207	गुनगुनाओ
-4.6207	गुनगुनाने
-4.6207	गुनगुनाया
-4.3197	गुना
-4.1436	गुफा
-4.6207	गुबार
-4.6207	गुब्बारा
-3.9217	गुब्बारे
-4.3197	गुम
-3.6665	गुरु	-0.2346
-3.7176	गुरुजी
-4.6207	गुर्राता
-4.6207	गुर्राती
-4.3197	गुलाब	-0.3004
-4.6207	गुलाबजामुन
-4.0187	गुलाबी	-0.1246
-3.6665	गुल्लक	-0.1196
-4.6207	गुसलखाने
-3.9217	गुस्सा	-0.0551
-3.4166	गुस्से	-0.8073
-4.6207	गुहार
-3.7756	गुड़
-4.3197	गुड़गुड़
-4.6207	गुड़गुड़ा
-4.6207	गुड़धनी
-4.3197	गुड़िया
-4.1436	गूँज	-0.1745
-4.6207	गूँधकर
-4.6207	गूज
-4.3197	गृहकार्य
-4.1436	गे
-2.9395	गेंद	-0.1025
-4.6207	गेंदवाला
-4.3197	गेंदे	-0.2924
-4.3197	गेंदें
-4.6207	गेंदों
-4.1436	गेंवली	-0.1341
-3.8426	गेद
-3.9217	गेहूँ	-0.2134
-4.0187	गोद	-0.4806
-4.6207	गोदी
-4.0187	गोपाल	-0.4879
-4.3197	गोपी
-4.6207	गोरी
-3.6665	गोल	-0.0671
-4.6207	गोलमोल
-4.3197	गोला	-0.3003
-4.3197	गोलियाँ
-4.3197	गोलियों	-0.2943
-3.8426	गोली	-0.1662
-4.3197	गोले
-4.6207	गोश्त
-4.0187	गौर	-0.2743
-4.6207	गौशाला
-4.6207	ग्यारह
-4.6207	ग्र
-4.6207	ग्रह
-4.6207	ग्रीन
-4.6207	ग्लेशियर
-4.1436	ग्वालिन
-3.7756	गड़	-0.2115
-4.6207	गढ़ई
-4.6207	गढ़ती
-4.6207	गढ़ते
-4.6207	घंटार
-4.1436	घंटियाँ
-4.3197	घंटियों
-4.0187	घंटी	-0.1713
-4.3197	घंटे	-0.2588
-4.6207	घंटों
-4.6207	घटती
-4.6207	घटना
-4.6207	घटनाओं
-4.6207	घटी
-4.6207	घड़ों
-4.6207	घडों
-3.8426	घनी	-0.1645
-4.3197	घने	-0.3003
-3.9217	घबरा	-0.2184
-4.1436	घबराई
-4.1436	घबराकर
-4.6207	घबराता
-4.6207	घबराते
-4.6207	घबराना
-3.9217	घबराया	-0.2082
-4.6207	घबराहटों
-4.6207	घमंड
-4.6207	घमंडी
-4.1436	घम्मम	-0.1757
-2.6164	घर	-0.3906
-3.7176	घरों	-0.1110
-4.3197	घर्र
-4.6207	घसीटते
-4.6207	घाटियाँ
-4.6207	घाटी
-4.6207	घाम
-3.7176	घायल	-0.3999
-3.5793	घास	-0.0339
-4.3197	घिर
-4.6207	घिरनी
-4.6207	घिरने
-4.6207	घिरा
-4.6207	घिस
-4.6207	घिसो
-4.3197	घी
-4.6207	घुंडी
-4.6207	घुघुतिया
-4.6207	घुघूत
-4.3197	घुटने
-4.3197	घुटनों	-0.2924
-4.3197	घुडसवार
-4.3197	घुमाकर
-4.6207	घुमावदार
-4.6207	घुरघुराते
-3.9217	घुस	-0.2188
-4.3197	घुसकर
-4.1436	घुसते	-0.4365
-4.0187	घुसने
-4.6207	घुसा
-4.0187	घुड़सवार
-4.6207	घूँट
-4.6207	घूँस
-3.8426	घूम	-0.0374
-4.6207	घूमकर
-4.1436	घूमता
-4.3197	घूमते
-4.0187	घूमने	-0.1247
-4.6207	घूमूँगा
-4.6207	घूमेंगे
-4.6207	घूरकर
-4.6207	घूरते
-4.3197	घूरा
-4.6207	घेर
-4.6207	घेरा
-4.3197	घोंसला
-4.6207	घोसले
-3.9217	घोड़ा	-0.0963
-3.8426	घोड़े	-0.0740
-4.6207	घोड़ेये
-4.1436	घड़ी
-4.6207	घड़े
-4.6207	घड़ौ
-4.6207	चंचल
-4.3197	चंद
-4.6207	चंदन
-4.1436	चंदा
-4.6207	चंदे
-4.6207	चकरा
-4.6207	चकराए
-4.6207	चकला
-4.6207	चकाचक
-4.3197	चकित
-3.7756	चक्कर	-0.0594
-4.0187	चक्की
-4.6207	चक्रवर्ती
-4.6207	चखकर
-4.6207	चखते
-4.6207	चखा
-4.3197	चखाएँ
-4.6207	चखें
-4.6207	चचेरे
-4.1436	चट
-4.3197	चटकदार
-4.6207	चटकर
-4.6207	चटकारा
-4.6207	चटकीला
-4.3197	चटाइयाँ
-4.6207	चटाइयों
-4.3197	चटाई
-4.6207	चट्टर
-4.3197	चट्टान
-4.3197	चट्टानी
-4.1436	चट्टानें
-4.6207	चट्टानों
-4.3197	चढूँगा
-4.1436	चतुर	-0.1725
-4.1436	चना
-4.0187	चने	-0.2817
-4.6207	चपेट
-4.3197	चप्पल
-4.6207	चपड़
-4.6207	चबा
-4.6207	चबाते
-4.6207	चबाने
-4.0187	चम	-0.2817
-4.0187	चमक
-4.6207	चमकती
-4.6207	चमकदार
-4.6207	चमकी
-4.6207	चमकीं
-4.6207	चमकीला
-4.3197	चमकीली	-0.3002
-4.6207	चमकीले
-4.6207	चमचमाती
-4.6207	चमचमाते
-4.3197	चमाचम	-0.2986
-4.3197	चमड़ा
-4.3197	चरखा
-4.6207	चरखे
-4.6207	चरखों
-4.6207	चरवाहा
-4.6207	चराने
-4.6207	चर्खी
-4.3197	चर्चा
-2.9580	चल	-0.1786
-4.0187	चलकर
-3.4166	चलता	-0.1878
-3.9217	चलती	-0.0551
-3.2057	चलते	-0.2269
-4.1436	चलना
-4.6207	चलनी
-3.3197	चलने	-0.1553
-2.9486	चला	-0.1462
-4.6207	चलाई
-4.6207	चलाए
-4.6207	चलाओ
-4.6207	चलाकर
-4.6207	चलाती
-4.3197	चलाते
-4.1436	चलाने
-4.3197	चलाया
-4.3197	चलिए
-3.4446	चली	-0.0799
-4.1436	चलूँगा
-4.6207	चलूगा
-3.2783	चले	-0.1028
-4.3197	चलें
-4.1436	चलेंगे
-3.7756	चलेगा
-3.4166	चलो	-0.0722
-3.6207	चल्लम	-0.2090
-4.6207	चल्लल
-4.3197	चवन्नी
-4.6207	चहकते
-4.6207	चहचहाने
-4.6207	चहल
-3.5068	चाँद	-0.1871
-4.3197	चाँदनी
-4.6207	चाँपाकल
-4.0187	चाकू
-3.6207	चाचा	-0.0403
-4.3197	चाटा
-4.6207	चादर
-4.6207	चादरों
-4.6207	चाभी
-3.4746	चाय	-0.1749
-3.1294	चार	-0.2011
-3.4446	चारों	-0.2953
-4.1436	चाल
-4.3197	चालक
-4.1436	चालाक
-4.1436	चालाकी
-4.6207	चालू
-4.6207	चाव
-3.3654	चावल	-0.2974
-4.6207	चाह
-3.5068	चाहता	-0.3802
-4.1436	चाहती	-0.1739
-3.4166	चाहते	-0.3874
-3.9217	चाहा
-3.3654	चाहिए	-0.0256
-4.6207	चाहुँगी
-4.6207	चाहूँ
-4.6207	चाहूँगा
-3.7756	चाहे	-0.0638
-3.8426	चाहो	-0.0749
-4.0187	चिंता
-4.6207	चिंतित
-4.6207	चिक
-4.6207	चिकनकारी
-4.0187	चिट्टी
-3.5793	चित्र
-4.6207	चित्रा
-4.6207	चिपक
-4.3197	चिपका
-4.6207	चिपकाओ
-4.6207	चिपकाना
-4.6207	चिपकाने
-4.3197	चिमनी
-4.6207	चिरपरिचित
-4.6207	चिलचिला
-4.6207	चिल्ला
-4.1436	चिल्लाई
-4.6207	चिल्लाए
-4.3197	चिल्लाकर	-0.2981
-4.6207	चिल्लाती
-4.6207	चिल्लातीं
-4.6207	चिल्लाते
-4.6207	चिल्लाना
-4.3197	चिल्लाने
-4.0187	चिल्लाया
-4.3197	चिश्ती	-0.2924
-4.6207	चिड़ि
-4.1436	चिड़िया
-4.6207	चिड़ियाघर
-4.3197	चिढ़
-4.6207	चिढ़ा
-4.6207	चिढ़ाकर
-3.8426	चिढ़ाते
-4.1436	चिढ़ाने	-0.4390
-4.6207	चिढ़ाया
-4.3197	चीं
-4.3197	चीख
-4.6207	चीखकर
-4.6207	चीखना
-4.6207	चीखने
-4.3197	चीखा
-3.5793	चीज़	+0.0003
-3.4166	चीज़ें	-0.1141
-3.8426	चीज़ों	-0.0740
-3.8426	चीनी
-4.3197	चीरा
-4.6207	चीरे
-4.6207	चीड़ों
-4.6207	चुआ
-4.1436	चुका	-0.1725
-3.8426	चुकी	-0.1645
-3.8426	चुके	-0.1634
-4.6207	चुगने
-4.1436	चुटकी
-4.6207	चुट्टर
-4.6207	चुन
-4.6207	चुना
-4.6207	चुनें
-4.6207	चुनो
-4.0187	चुनौती
-3.4746	चुन्नू	-0.0929
-3.6207	चुप	-0.0431
-3.8426	चुपके	-0.0374
-3.5415	चुपचाप	-0.0329
-4.6207	चुपड़ी
-4.6207	चुभो
-4.6207	चुराकर
-4.6207	चुराने
-4.6207	चुराया
-4.6207	चुल्लू
-4.3197	चुस्की	-0.2999
-3.7176	चुहिया	-0.1835
-4.0187	चूँ
-4.3197	चूँकि
-4.3197	चूँटी
-4.3197	चूक
-3.6665	चूज़ा	-0.2693
-4.1436	चूज़े
-4.6207	चूर
-4.6207	चूल्हा
-4.6207	चूल्हे
-4.6207	चूसना
-4.6207	चूसने
-2.9975	चूहा	-0.0997
-3.1022	चूहे	-0.7880
-4.1436	चूहो	-0.4393
-4.0187	चूहों	-0.1197
-4.6207	चूड़ा
-4.6207	चेतावनी
-4.6207	चेन्नई
-3.6665	चेला
-4.1436	चेले	-0.1704
-3.8426	चेहरा	-0.0374
-4.6207	चेहरे
-4.6207	चैकोर
-4.1436	चैन
-4.6207	चैपाल
-4.6207	चैड़ी
-4.0187	चोंच	-0.1172
-4.1436	चोट
-4.1436	चोटी
-4.3197	चोर
-4.6207	चोरन
-4.6207	चोरी
-4.3197	चौंक
-4.6207	चौंककर
-4.6207	चौंकी
-4.6207	चौकन्ना
-4.0187	चौकीदार
-4.6207	चौथे
-4.3197	चौड़ी
-3.6207	चढ़	-0.1460
-4.3197	चढ़कर
-4.6207	चढ़ता
-4.6207	चढ़ती
-4.1436	चढ़ते
-4.1436	चढ़ना
-4.3197	चढ़ने
-4.6207	चढ़ा
-3.7756	चढ़ाई
-4.0187	चढ़ाओ
-4.6207	चढ़ाने
-4.6207	चढ़ाया
-4.6207	चढ़ेगा
-4.6207	छकूँगा
-4.6207	छक्के
-4.3197	छटपटा
-4.6207	छटपटाहटों
-4.6207	छटा
-3.5793	छत	-0.1862
-4.6207	छत्र
-4.6207	छन
-4.6207	छनकर
-4.6207	छन्ने
-4.3197	छप
-4.6207	छपती
-4.3197	छपी
-4.6207	छपेंगी
-4.3197	छप्पर
-4.6207	छब्बीस
-4.3197	छम
-4.6207	छमा
-4.6207	छम्मक
-4.6207	छलनी
-4.3197	छलाँग
-4.6207	छलाँगें
-3.8426	छह	-0.1242
-4.6207	छाँटकर
-4.6207	छाँटने
-4.6207	छाँव
-4.0187	छाँह
-4.3197	छाँहों
-4.3197	छाई
-4.6207	छाता
-4.6207	छान
-4.6207	छाना
-4.6207	छाप
-4.6207	छापें
-4.0187	छाया	-0.1228
-4.6207	छारों
-4.3197	छाल
-4.3197	छि
-4.3197	छिटककर
-4.6207	छितरा
-4.6207	छिनते
-3.9217	छिप
-4.0187	छिपकर	-0.0831
-3.7756	छिपा
-4.0187	छिपाऊँ	-0.1244
-4.1436	छिपे
-4.3197	छिल
-4.3197	छिलके
-4.1436	छिड़
-4.6207	छींक
-4.3197	छींके
-4.6207	छीन
-4.1436	छीनकर
-4.6207	छीनने
-4.6207	छीने
-4.6207	छीमियाँ
-4.1436	छीमी
-4.6207	छीलनी
-4.6207	छीलने
-4.6207	छीलो
-4.6207	छुओगे
-4.6207	छुटकारा
-4.6207	छुटते
-4.6207	छुटाए
-4.3197	छुट्टियाँ	-0.3000
-4.0187	छुट्टी
-4.3197	छुप	-0.2984
-4.6207	छुपने
-4.6207	छुपाने
-4.6207	छुरी
-4.3197	छू
-4.1436	छूकर
-4.1436	छूट
-4.6207	छूटकर
-4.6207	छूटने
-4.0187	छूटी	-0.2809
-4.6207	छूता
-4.6207	छूना
-4.3197	छूने
-4.1436	छेद
-3.7176	छेनी
-4.6207	छेड़ा
-4.6207	छैया
-4.3197	छोकरी
-3.5793	छोटा	-0.1845
-3.1156	छोटी	-0.1627
-4.6207	छोटीसी
-4.0187	छोटू
-3.1736	छोटे	-0.1560
-4.6207	छोटेछोटे
-4.6207	छोडा
-4.6207	छोडुँगा
-4.3197	छोर
-3.4446	छोड़	-0.0916
-3.7756	छोड़कर
-4.6207	छोड़ता
-4.6207	छोड़ती
-4.6207	छोड़ना
-4.6207	छोड़ने
-4.3197	छोड़ा
-4.6207	छोड़ी
-4.6207	छोड़े
-4.1436	छोड़ो
-3.9217	छड़ी
-4.6207	जँच
-3.4446	जंगल	-0.3138
-4.6207	जंगली
-4.6207	जंगलों
-4.6207	जख्मी
-4.6207	जग
-4.6207	जगता
-3.1436	जगह	-0.1209
-4.3197	जगहों	-0.2959
-4.6207	जगा
-4.6207	जगी
-4.6207	जटाएँ
-4.6207	जटाओं
-4.6207	जता
-4.6207	जताते
-4.6207	जनजातियाँ
-4.3197	जनवरी	-0.2588
-4.6207	जनाब
-4.6207	जने
-4.3197	जन्म
-2.7574	जब	-0.1126
-4.0187	जबकि	-0.1244
-4.1436	जमकर
-3.7756	जमा
-4.6207	जमाऊँ
-4.6207	जमाती
-4.6207	जमाने
-3.5793	जमाल	-1.0410
-4.6207	जमीन
-4.6207	जमुना
-4.6207	जम्मू
-4.6207	जम्हाई
-4.3197	जय
-4.6207	जयकार
-4.3197	जरा
-4.6207	जरूर
-4.6207	जरूरतमंदों
-3.6665	जल
-4.0187	जलचक्र
-4.6207	जलते
-4.6207	जलधर
-4.6207	जलन
-4.1436	जलने
-4.6207	जलस्रोतों
-4.3197	जला
-4.6207	जलाओ
-4.6207	जलाकर
-4.3197	जलाने
-4.6207	जलाया
-4.6207	जलेगी
-4.3197	जल्द
-2.9975	जल्दी	-0.2075
-4.6207	जल्लाद
-3.2228	जवाब	-0.2383
-4.1436	जवाबों
-3.1736	जवाहर	-0.6977
-3.9217	जवाहरलाल
-4.3197	जश्न
-3.4166	जहाँ	-0.0254
-4.3197	जहाँपनाह
-4.6207	जहाज़ी
-4.3197	जहाज़
-4.6207	ज़ख्म
-4.6207	ज़ख्मी
-4.1436	ज़बरदस्ती
-3.6207	ज़मीन	-0.3257
-3.1736	ज़रा	-0.0234
-3.3654	ज़रूर	-0.0399
-3.6207	ज़रूरत	-0.1373
-4.6207	ज़रूरतमंदों
-4.6207	ज़रूरतों
-4.3197	ज़रूरी	-0.2971
-4.6207	ज़स्कारद्ध
-4.6207	ज़हरीले
-4.3197	ज़ामाने	-0.2930
-4.6207	ज़ामीन
-4.6207	ज़ारा
-4.3197	ज़ारूर
-4.3197	ज़ाहिर	-0.2916
-4.3197	ज़िंदगी
-4.6207	ज़िंदा
-4.6207	ज़िद
-4.6207	ज़ुबान
-3.2228	ज़ोर	-0.5481
-3.2405	ज़्यादा	-0.1084
-2.7946	जा	-0.4393
-4.3197	जाइए
-4.6207	जाउँगी
-4.3197	जाऊँ
-3.5793	जाऊँगा
-4.3197	जाऊँगी
-3.1436	जाए	-0.0472
-3.5793	जाएँ	-0.1282
-4.6207	जाएँग
-4.6207	जाएँगी
-3.4446	जाएँगे	-0.0846
-3.5415	जाएगा	-0.0784
-3.5793	जाएगी	+0.0003
-3.2228	जाओ	-0.0296
-4.3197	जाओगे
-3.2985	जाकर	+0.0003
-4.6207	जाके
-4.6207	जाग
-4.6207	जागता
-4.6207	जागा
-4.6207	जागे
-4.6207	जागो
-2.7457	जाता	-0.4747
-4.6207	जाति
-3.0409	जाती	-0.3161
-4.3197	जातीं
-3.0409	जाते	-0.3171
-3.2590	जान	-0.0393
-4.6207	जानकर
-4.6207	जानकारी
-3.6207	जानता	-0.2809
-4.3197	जानती
-3.8426	जानते	-0.0775
-4.6207	जानना
-4.6207	जानने
-4.0187	जानवर
-4.1436	जानवरों
-3.3903	जाना	-0.1068
-4.3197	जानूँ
-3.0409	जाने	-0.2094
-4.1436	जामुन	-0.1677
-4.3197	जाया
-4.6207	जारी
-4.6207	जालियाँ
-4.6207	जालीदार
-4.3197	जाले
-4.6207	जिंदगी
-4.1436	जितना
-3.9217	जितनी	-0.0964
-3.8426	जितने
-4.3197	जिन	-0.2959
-4.3197	जिनके
-4.6207	जिन्हें
-4.6207	जिल्द
-3.8426	जिस	-0.1618
-4.1436	जिसका
-4.0187	जिसकी	-0.2401
-3.8426	जिसके
-4.6207	जिसको
-4.6207	जिसने
-3.9217	जिसमें
-3.9217	जिससे	-0.0945
-4.1436	जिसे
-4.6207	जिस्म
-2.9131	जी	-0.1506
-4.6207	जीतीं
-4.6207	जीना
-4.6207	जीप
-3.7176	जीभ
-4.6207	जीरा
-4.3197	जीवन
-4.6207	जीवित
-4.3197	जुट	-0.2984
-4.6207	जुटती
-4.6207	जुटी
-4.6207	जुर्रत
-4.3197	जुलूस	-0.3004
-4.1436	जुड़ा
-4.0187	जुड़े
-4.6207	जूता
-4.1436	जूते
-4.6207	जूतों
-4.6207	जून
-4.1436	जेब	-0.1683
-3.9217	जैसा	-0.0551
-3.5415	जैसी
-2.8499	जैसे	-0.1719
-2.8426	जो	-0.0600
-4.6207	जोकर
-4.6207	जोज़ीला
-4.3197	जोर
-4.3197	जोश
-4.6207	जोशीला
-4.6207	जोशो
-4.0187	जोड़
-4.3197	जोड़कर
-4.6207	जोड़ो
-3.7756	जौ	-0.3348
-4.6207	ज्ञान
-4.3197	ज्ञानी
-4.6207	ज्यामितीय
-3.8426	ज्यों	-0.0790
-4.6207	जड़
-4.6207	जड़ा
-4.6207	जड़ों
-4.6207	झकाझक
-4.6207	झक्कू
-4.3197	झगड़
-4.6207	झगड़ती
-4.0187	झगड़ा
-4.6207	झगड़ालू
-3.9217	झगड़ी	-0.3368
-4.3197	झगड़े
-4.6207	झगड़ोगी
-3.5793	झट	-0.1772
-4.6207	झटकने
-4.1436	झटका	-0.1341
-4.6207	झटके
-3.7756	झटपट
-4.6207	झपट
-4.0187	झपटी	-0.1229
-4.3197	झब्बर
-4.3197	झम
-4.6207	झमकती
-4.6207	झमा
-4.3197	झमेला
-4.3197	झम्मम
-4.1436	झर	-0.1758
-4.6207	झरने
-4.3197	झलक
-4.6207	झलकती
-4.6207	झलवाने
-4.6207	झाँक
-4.6207	झाँककर
-4.6207	झाँकते
-4.6207	झापड़
-4.3197	झारखंड	-0.2930
-4.6207	झालर
-4.0187	झाड़	-0.1247
-4.6207	झाड़ियाँ
-3.5415	झाड़ी	-0.1165
-3.3197	झाड़ू	-0.0702
-4.6207	झिंझोडकर
-4.6207	झिंझोड़
-4.6207	झिलमिट
-4.6207	झील
-4.6207	झुँझला
-4.3197	झुँझलाया
-4.6207	झुंड
-4.0187	झुककर
-4.3197	झुकती
-4.6207	झुकते
-4.6207	झुकाई
-4.6207	झुकाकर
-4.6207	झुकी
-4.6207	झुग्गी
-4.6207	झुठला
-3.9217	झूठ	-0.0967
-4.3197	झूठे
-4.3197	झूम
-4.6207	झूमता
-4.0187	झूल	-0.2809
-4.3197	झूलते
-4.6207	झूलने
-3.7176	झूला	-0.0567
-4.6207	झूलूँगा
-4.3197	झूले	-0.2959
-4.6207	झेलें
-4.6207	झोंके
-3.6207	झोंपड़ी	-0.2016
-4.3197	झोपड़ी
-4.6207	झोला
-4.3197	झोली
-4.6207	झड़
-4.6207	टँगूँगा
-4.6207	टंटों
-4.6207	टकरा
-4.6207	टकराकर
-4.6207	टकराता
-4.6207	टकराते
-3.7756	टके	-0.4648
-4.6207	टक्कर
-4.6207	टटोलो
-4.1436	टप
-4.3197	टपक
-4.6207	टपकते
-4.6207	टपका
-4.6207	टपकीं
-4.6207	टप्पा
-4.6207	टप्पे
-4.6207	टमाटर
-4.6207	टर्राए
-4.6207	टस
-4.3197	टहनियाँ
-4.6207	टहनी
-4.6207	टहलने
-4.6207	टाँक
-4.1436	टाँके
-4.3197	टाँकों
-4.3197	टाँग
-4.6207	टाँगता
-3.9217	टाँगों	-0.0892
-4.0187	टाँय	-0.1247
-4.6207	टापू
-4.6207	टायर
-4.6207	टालना
-3.5415	टिंकू
-4.6207	टिकट
-4.3197	टिकता
-4.6207	टिका
-4.6207	टिकाई
-4.6207	टिकाकर
-4.3197	टिपटिप
-3.7176	टिपटिपवा	-0.1163
-4.6207	टी
-4.6207	टीटी
-4.3197	टीन
-4.3197	टुकुर
-3.4746	टुकड़ा	-0.0995
-4.0187	टुकड़े
-4.3197	टुन
-3.9217	टूट	-0.0960
-4.6207	टूटी
-4.6207	टूटीं
-4.3197	टूटे
-4.6207	टेक
-4.6207	टेकने
-4.6207	टेप
-4.3197	टेलीविज़न
-3.5793	टेसू	-0.0802
-4.3197	टेसूरा
-4.3197	टेढ़ा
-4.0187	टेढ़ी	-0.1229
-3.8426	टोकरी	-0.1589
-4.6207	टोका
-3.4166	टोपी	-0.0074
-4.3197	टोला
-4.1436	टोली
-4.6207	ट्रक
-4.1436	ट्रस्ट
-4.6207	ट्रेन
-4.1436	ठंड
-4.3197	ठंडक
-4.3197	ठंडा
-4.3197	ठंडी	-0.3004
-4.3197	ठंडे	-0.2588
-4.3197	ठक
-4.6207	ठनका
-4.3197	ठहर
-4.6207	ठहरते
-4.6207	ठहरिए
-4.6207	ठहरे
-4.1436	ठहाका
-4.6207	ठाक
-4.6207	ठाठ
-4.3197	ठान	-0.2588
-4.6207	ठाड़
-4.6207	ठिकाना
-4.6207	ठिकाने
-4.6207	ठिठक
-4.6207	ठिठुरते
-4.6207	ठिठोली
-2.9675	ठीक	-0.2358
-4.6207	ठीकरे
-4.6207	ठुकरा
-4.6207	ठेल
-4.3197	ठेला
-4.3197	ठेले	-0.2953
-4.6207	डंठल
-4.6207	डंडियों
-4.6207	डंडी
-4.6207	डग
-4.6207	डगरी
-4.3197	डग्गम
-4.3197	डट
-4.6207	डटकर
-4.6207	डटा
-4.6207	डटी
-4.6207	डपट
-4.3197	डमरू
-3.2985	डर	-0.0510
-4.3197	डरकर
-4.3197	डरता
-4.3197	डरती
-4.6207	डरने
-4.3197	डरपोक
-4.3197	डरा	-0.2588
-4.3197	डराऊँ
-4.3197	डराना
-4.3197	डरी
-4.6207	डरे
-4.1436	डलिया
-4.6207	डा
-4.0187	डाँट
-4.6207	डाँटकर
-4.1436	डाँटते
-4.6207	डाँटा
-3.5415	डाक	-0.0374
-4.3197	डाकटिकट	-0.3003
-4.6207	डाकटिकटें
-4.3197	डाकू
-4.6207	डाक्टर
-4.3197	डायरी	-0.2930
-4.6207	डारडार
-3.5793	डाल	-0.0368
-3.8426	डालकर
-4.1436	डालती	-0.1670
-4.1436	डालते	-0.1746
-4.3197	डालना
-4.6207	डालने
-4.0187	डाला
-4.6207	डालियों
-3.8426	डाली	-0.0745
-4.6207	डालूँगा
-4.6207	डाले
-4.6207	डालेंगे
-4.6207	डालो
-4.3197	डिज़ाइन
-4.6207	डिज़ाइनों
-4.3197	डिब्बा
-4.6207	डिब्बे
-3.9217	डिब्बों	-0.0907
-4.3197	डुकरिया
-4.6207	डुबकी
-4.6207	डुलता
-4.6207	डुलना
-4.6207	डूब
-4.6207	डूबते
-4.6207	डूबने
-4.6207	डूबे
-4.3197	डोर	-0.3004
-4.6207	डोरियाँ
-4.6207	डोरियों
-4.6207	ढँक
-4.0187	ढंग	-0.1172
-4.3197	ढक
-4.6207	ढकते
-4.6207	ढका
-4.6207	ढकी
-4.0187	ढके
-4.6207	ढब
-4.6207	ढल
-4.6207	ढलवाँ
-4.6207	ढलावदार
-4.6207	ढाक
-4.6207	ढालू
-4.6207	ढालें
-4.6207	ढीलापन
-4.6207	ढुँढ़वा
-3.6665	ढूँढ़	-0.0619
-4.6207	ढूँढ़कर
-4.1436	ढूँढ़ता	-0.4381
-4.0187	ढूँढ़ते
-3.8426	ढूँढ़ने	-0.0789
-4.6207	ढूँढ़ा
-4.6207	ढूढ़ने
-4.1436	ढेर
-4.3197	ढेरों
-4.3197	ढोने
-4.6207	ढोरडंगर
-4.3197	ढोल
-4.6207	ढोलक
-4.6207	त
-4.1436	तंग
-2.7069	तक	-0.0808
-4.6207	तकरार
-4.6207	तकियों
-4.6207	तख्ती
-4.3197	तगड़ा
-4.6207	तगड़ी
-3.9217	तथा	-0.0962
-4.6207	तनाव
-4.3197	तनिक
-4.1436	तने
-4.6207	तनेगा
-4.6207	तप
-4.3197	तपने
-4.6207	तपसी
-2.9873	तब	-0.2127
-4.6207	तबला
-4.3197	तबाही
-4.3197	तबियत
-3.1022	तभी	-0.0515
-4.6207	तमाशा
-4.3197	तमिलनाडु
-3.9217	तय	-0.2084
-4.1436	तर
-4.3197	तरकारी
-4.3197	तरकीब
-4.6207	तरकीबें
-3.7176	तरफ	-0.0163
-3.0409	तरफ़	-0.0680
-4.6207	तरबतर
-3.7176	तरला
-2.7819	तरह	-0.1080
-3.7756	तराज़ू	-0.0668
-4.1436	तराश	-0.1745
-4.6207	तराशना
-3.8426	तरीका	-0.1576
-4.3197	तरीके
-4.6207	तरोताज़ा
-4.6207	तर्कशास्त्रा
-4.6207	तलकर
-4.6207	तलने
-4.1436	तलवार
-4.6207	तलवे
-4.3197	तलाश
-4.6207	तलाशी
-4.1436	तले
-4.6207	तलैया
-4.6207	तल्खी
-4.3197	तवे
-3.8426	तश्तरी
-4.6207	तसवीर
-4.6207	तस्वीरें
-4.6207	तह
-4.6207	तहस
-4.6207	ता
-4.6207	ताँबे
-3.7176	ताकत
-4.6207	ताकने
-4.6207	ताका
-3.7756	ताकि	-0.1353
-4.1436	ताज
-4.3197	ताज़गी
-4.1436	ताज़ा
-4.6207	तादाद
-4.6207	ताना
-4.6207	तापते
-4.6207	तार
-4.6207	तारीकी
-4.6207	तारीफ़
-4.3197	तारे
-3.9217	तारों	-0.0907
-4.3197	ताल
-4.6207	ताला
-3.7756	तालाब	-0.2036
-4.3197	तालाबों
-4.3197	ताली
-4.6207	तालीस
-4.1436	ताव	-0.1701
-4.6207	ताशी
-4.3197	ताड़
-4.6207	ताड़वन
-3.9217	तितली	-0.0967
-4.0187	तिन	-0.2817
-3.2405	तिनसू	-0.0938
-4.3197	तिब्बत
-4.6207	तिब्बती
-4.6207	तिमंज़िली
-4.6207	तिरछी
-3.6665	तिल
-4.6207	तिलकुट
-4.1436	तीखी
-3.0644	तीतर	-0.1760
-4.3197	तीतरों
-3.1736	तीन	-0.1140
-3.7176	तीनों
-3.4446	तीर	-0.0840
-4.6207	तीरंदाज़ी
-4.6207	तीरों
-4.6207	तीस
-4.1436	तीसरा	-0.1754
-4.6207	तीसरी
-3.7756	तीसरे	-0.3114
-3.7756	तुझे	-0.0653
-4.6207	तुनककर
-2.5273	तुम	-0.0981
-4.1436	तुमको	-0.1742
-3.4446	तुमने	-0.0898
-4.1436	तुममें	-0.1683
-3.7176	तुमसे
-3.5068	तुम्हारा	-0.0305
-3.1583	तुम्हारी	-0.1083
-3.2405	तुम्हारे	-0.1242
-4.6207	तुम्हीं
-3.1736	तुम्हें	-0.0357
-3.5068	तुरंत	-0.0273
-4.6207	तुलना
-4.6207	तुला
-3.2057	तू	-0.0770
-4.3197	तूती
-4.0187	तूने
-4.6207	तूफ़ानी
-4.6207	ते
-4.3197	तेंदुआ
-3.8426	तेंदुए	-0.2783
-4.6207	तेईस
-4.6207	तेज
-3.6665	तेज़
-3.6207	तेज़ी	-0.9925
-4.6207	तेजी
-4.6207	तेरह
-4.3197	तेरा
-3.9217	तेरी
-3.7756	तेरे	-0.0666
-3.8426	तेल
-3.2228	तैयार	-0.2020
-4.3197	तैर
-4.6207	तैरना
-4.6207	तैरा
-4.6207	तैरूगा
-2.0176	तो	-0.1321
-4.6207	तोंद
-4.6207	तोड
-4.6207	तोडकर
-4.3197	तोता
-4.3197	तोते
-4.6207	तोल
-3.8426	तोड़
-4.1436	तोड़कर
-4.3197	तोड़ने
-4.3197	तोड़ा
-4.6207	तौबा
-4.6207	तौर
-4.3197	तौलिया
-3.9217	त्यों	-0.0967
-3.7756	त्योहार
-4.6207	त्यौरियाँ
-4.3197	त्यौहार
-3.9217	तड़	-0.2089
-4.6207	तड़के
-4.1436	तड़प
-4.6207	तड़पकर
-3.3903	थक	-0.4474
-4.0187	थककर
-4.6207	थकती
-4.6207	थका
-4.6207	थकान
-4.6207	थके
-4.3197	थपथपाया
-4.3197	थप्प
-4.1436	थम
-4.6207	थमाते
-4.3197	थर
-4.3197	थल्लर
-4.3197	थल्लल
-2.1238	था	-0.2075
-4.6207	थाम
-4.3197	थामकर
-4.6207	थाल
-4.3197	थाली
-2.3727	थी	-0.1267
-3.0409	थीं	-0.0399
-4.6207	थुलथुली
-2.4360	थे	-0.1277
-4.1436	थैली
-4.6207	थैलों
-4.6207	थोड़े
-3.5793	थोड़ा	-0.0961
-3.3654	थोड़ी	-0.4763
-4.3197	दंग	-0.3002
-4.6207	दई
-4.6207	दखलंदाज़ी
-3.5793	दत्ता	-0.2223
-4.6207	दनादन
-4.6207	दनियाल
-4.6207	दन्नाती
-4.6207	दफ़तर
-4.1436	दफ़्तर	-0.1683
-4.6207	दफ़्तरों
-4.6207	दबा
-4.6207	दबाए
-4.6207	दबाओगे
-4.3197	दबाकर
-4.0187	दम	-0.0831
-4.6207	दमकती
-4.6207	दरअसल
-4.6207	दरखास्त
-4.6207	दरबार
-4.1436	दरबारी
-3.2985	दरवाज़ा	-0.1152
-3.7756	दरवाज़े	-0.2071
-4.1436	दरवाज़ों
-4.6207	दरवाजा
-4.6207	दराँती
-4.6207	दराज़
-4.6207	दरियों
-3.7176	दर्ज़ी	-0.1131
-4.1436	दर्द
-4.6207	दर्शन
-4.6207	दर्शी
-4.3197	दल
-3.9217	दलिया
-4.1436	दवा
-4.6207	दवाइयों
-4.3197	दवाई
-4.6207	दवाएँ
-4.6207	दशहरे
-3.3903	दस	-0.1353
-4.3197	दसवीं
-4.0187	दस्तक	-0.1242
-4.6207	दहाड़
-4.6207	दहाड़ा
-4.0187	दही
-4.6207	दाँडी
-3.8426	दाँत	-0.0790
-4.3197	दाँतों
-3.7756	दांडी	-0.0664
-4.3197	दाखिला
-4.6207	दाग
-4.6207	दाता
-4.6207	दातुन
-3.6665	दादा	-0.1638
-3.2405	दादी	-0.1089
-3.8426	दान
-4.3197	दाना
-4.6207	दानी
-4.1436	दाने
-4.0187	दाम
-3.4746	दाल	+0.0095
-4.6207	दालान
-4.1436	दाहिनी	-0.1754
-4.6207	दाड़िम
-4.3197	दाढ़ी
-3.4446	दिए	-0.0193
-4.6207	दिक्कत
-3.9217	दिख	-0.0958
-4.0187	दिखता	-0.1159
-4.3197	दिखती
-4.6207	दिखते
-4.6207	दिखलाने
-3.6207	दिखा
-3.1736	दिखाई	-0.2826
-4.3197	दिखाऊँ
-4.3197	दिखाओ
-4.3197	दिखाकर
-4.3197	दिखाता
-4.6207	दिखाती
-4.6207	दिखानी
-4.1436	दिखाया
-4.6207	दिखी
-4.6207	दिखे
-4.6207	दिदिया
-2.6339	दिन	-0.1254
-4.3197	दिनभर
-3.2590	दिनेश	-0.1703
-3.6665	दिनों	-0.2307
-3.9217	दिमाग
-2.6617	दिया	-0.1208
-3.9217	दिल
-4.3197	दिलचस्प
-4.6207	दिलाते
-4.6207	दिलाया
-4.0187	दिल्ली
-4.6207	दिवालिया
-2.9675	दी	-0.1546
-3.8426	दीजिए
-4.1436	दीदी
-3.3420	दीपक	-0.1922
-4.6207	दीया
-3.7176	दीवार
-4.3197	दीवारें
-4.3197	दीवारों
-4.6207	दुआ
-3.2985	दुकान	-0.2134
-3.4746	दुकानदार	-0.2263
-4.6207	दुकानों
-4.1436	दुख
-4.6207	दुखियों
-3.8426	दुखी
-4.6207	दुगने
-4.0187	दुगुना	-0.1231
-3.9217	दुनिया	-0.0887
-4.3197	दुबक
-4.6207	दुबला
-4.3197	दुबली
-3.9217	दुबारा
-4.3197	दुम
-4.6207	दुरस्त
-4.1436	दुर्गम
-4.3197	दुश्मनी
-4.6207	दुहना
-4.1436	दुहाई
-3.7176	दूँ	-0.0563
-3.4166	दूँगा	-0.0447
-4.0187	दूँगी
-4.3197	दूगा
-4.6207	दूजे
-3.7176	दूध	-0.0577
-4.0187	दूध्
-4.3197	दूब
-4.6207	दूभर
-3.0079	दूर	-0.2502
-4.6207	दूरी
-3.5415	दूसरा	-0.0373
-3.5793	दूसरी	-0.1479
-3.1583	दूसरे	-0.1341
-4.3197	दूसरों
-4.3197	दृश्य
-4.6207	दृष्टि
-2.7634	दे	-0.2076
-4.0187	दें
-4.6207	देंगी
-4.0187	देंगे
-3.9217	देकर
-3.1583	देख	-0.1679
-3.1022	देखकर	-0.0246
-3.8426	देखता	-0.1576
-3.6665	देखती	-0.1598
-3.3197	देखते	-0.3036
-4.0187	देखना
-3.3420	देखने	-0.1692
-3.9217	देखभाल
-2.9047	देखा	-0.2260
-3.9217	देखिए
-3.9217	देखी	-0.0551
-4.0187	देखीं	-0.1246
-4.1436	देखूँ	-0.1751
-4.1436	देखे	-0.1341
-4.3197	देखें
-4.6207	देखेंगी
-4.6207	देखेगा
-3.2783	देखो	-0.0395
-4.6207	देखोगी
-4.3197	देगा
-4.3197	देगी	-0.2974
-3.2783	देता	-0.3635
-3.4446	देती	-0.4257
-4.3197	देतीं
-3.3903	देते	-0.2758
-3.9217	देना
-4.6207	देनी
-3.4446	देने	-0.1513
-3.1436	देर	-0.2443
-4.1436	देरी
-4.6207	देवताओं
-4.6207	देवदार
-3.7756	देश	-0.4509
-4.3197	देशों
-4.1436	देह
-2.6339	दो	-0.1406
-3.5793	दोक्की	+0.0003
-4.6207	दोग
-4.6207	दोगी
-4.6207	दोगुना
-4.1436	दोगे
-4.3197	दोनकेसवाली
-4.6207	दोना
-4.6207	दोने
-2.7819	दोनों	-0.0907
-4.1436	दोपहर
-4.3197	दोपहरी
-4.0187	दोबारा
-3.3903	दोस्त	-0.0606
-4.6207	दोस्ताना
-4.3197	दोस्ती
-3.7756	दोस्तों	-0.3348
-4.6207	दोहरा
-4.6207	दोहराए
-4.6207	दोहराता
-4.3197	दौर
-3.7756	दौड़	-0.0252
-3.6207	दौड़कर
-4.6207	दौड़ती
-4.1436	दौड़ते
-4.3197	दौड़ने
-4.6207	दौड़ाई
-4.6207	दौड़ाती
-3.6207	दौड़ी	-0.1730
-4.0187	दौड़े	-0.1245
-4.3197	द्वार
-4.3197	द्वारा
-4.6207	दड़बे
-4.3197	धँसता	-0.2996
-4.3197	धक
-4.6207	धक्का
-4.6207	धगा
-4.6207	धगे
-3.7176	धन	-0.0537
-3.0079	धनी	-0.1343
-3.8426	धनुष
-4.6207	धन्यवाद
-4.6207	धपाधप
-4.3197	धप्पा
-4.6207	धम
-4.6207	धमकती
-4.6207	धमकाया
-4.6207	धरता
-3.6665	धरती	-0.0094
-4.6207	धरम
-4.6207	धरातल
-4.1436	धरी
-4.6207	धरे
-4.6207	धरेगा
-4.6207	धर्म
-4.6207	धाक
-3.8426	धागे
-4.6207	धाता
-4.1436	धान
-4.3197	धार
-4.6207	धारक
-4.6207	धारा
-4.6207	धारियाँ
-4.6207	धी
-4.1436	धीमी
-4.6207	धीमे
-4.6207	धीरज
-3.2985	धीरे	-0.2692
-4.6207	धुँध
-4.6207	धुँधले
-4.6207	धुआँ
-4.6207	धुएँ
-4.6207	धुन
-4.3197	धुली
-3.4746	धूप	-0.1570
-4.3197	धूम
-4.6207	धूमधाम
-4.3197	धेने
-4.6207	धेला
-4.6207	धैंस
-4.6207	धैर्य
-4.6207	धो
-4.6207	धोई
-4.6207	धोए
-4.1436	धोकर
-4.3197	धोखा
-4.6207	धोखे
-4.1436	धोती
-4.6207	धोतीं
-4.1436	धोना
-3.5415	धोबी	-0.1543
-4.0187	ध्न्य	-0.1221
-4.0187	ध्न्यवाद
-3.5068	ध्यान	-0.2455
-4.6207	धड़कने
-4.6207	धड़के
-4.6207	धड़धड़ाती
-4.1436	धड़ाम	-0.4319
-2.4446	न	-0.1537
-4.6207	नंगी
-4.3197	नंबर
-3.6665	नई	-0.0668
-4.6207	नईखे
-3.5793	नए	-0.0868
-4.0187	नकल
-4.6207	नकली
-4.6207	नक्कारखाने
-3.7756	नक्काशी	-0.1412
-4.6207	नगर
-3.8426	नगरी
-4.1436	नगाड़ा
-4.6207	नजर
-3.6207	नज़र	-0.0409
-4.3197	नज़रों	-0.2929
-4.3197	नज़ार
-4.6207	नज़ारों
-3.8426	नटखट	-0.1336
-4.6207	नदिया
-4.6207	नदियों
-3.5793	नदी	-0.0404
-4.3197	नन्हा
-4.6207	नन्ही
-4.6207	नपा
-4.6207	नफीस
-3.6665	नमक	-0.0094
-4.6207	नमस्कार
-3.9217	नमस्ते
-4.6207	नमाज़
-4.3197	नमूना
-4.0187	नमूने
-4.3197	नया
-4.6207	नर
-4.0187	नरम
-4.3197	नल
-4.3197	नलों
-4.6207	नवयुवक
-4.6207	नवीनता
-3.2590	नसीरूद्दीन	-0.3753
-4.6207	नसें
-4.6207	नसों
-4.6207	नहरनी
-4.6207	नहस
-3.9217	नहा	-0.0551
-4.6207	नहाना
-4.1436	नहाने
-2.0549	नहीं	-0.1525
-3.3197	ना	-0.1411
-3.3654	नाई	-0.4007
-3.5793	नाक	-0.0411
-4.6207	नाखून
-4.6207	नाखूनों
-4.3197	नाच
-4.6207	नाचते
-4.6207	नाची
-4.6207	नाचें
-3.6665	नाना	-0.1495
-3.7756	नानी
-4.1436	नाप
-4.3197	नापकर
-3.0644	नाम	-0.1801
-4.6207	नामकरण
-4.6207	नामी
-4.6207	नारंगी
-4.3197	नाराज़	-0.2978
-2.9773	नारियल	-0.3461
-3.7176	नारियलवाले	-0.1734
-4.6207	नालों
-4.0187	नाव	-0.1247
-4.6207	नाववाला
-4.3197	नाववाले	-0.2950
-3.5068	नाश्ता	-0.0685
-4.0187	नाश्ते	-0.2743
-4.6207	नासों
-4.6207	निंबौरी
-3.2405	निकल	-0.1958
-4.3197	निकलकर
-4.6207	निकलते
-4.1436	निकलने	-0.1697
-4.6207	निकलवा
-4.6207	निकलवाते
-3.4446	निकला	-0.0486
-3.9217	निकली
-4.0187	निकले
-4.6207	निकलेगी
-4.6207	निकलो
-3.6207	निकाल	-0.1347
-4.1436	निकालकर
-4.6207	निकालता
-4.6207	निकालती
-4.0187	निकालते	-0.2788
-4.6207	निकालने
-4.3197	निकाला
-4.6207	निकाली
-4.6207	निकाले
-4.6207	निकालेंगे
-4.3197	निगलने	-0.2924
-4.6207	निगाह
-4.6207	निपटाना
-4.6207	निबटा
-4.6207	नियम
-4.6207	नियमित
-4.6207	निरंतर
-4.6207	निरा
-4.6207	निराला
-4.6207	निराली
-3.8426	निराश	-0.1661
-4.6207	निर्गम
-4.3197	निर्भर
-4.6207	निर्मल
-4.6207	निवाला
-4.1436	निशान
-3.5793	निशाना	-0.1327
-4.3197	निशानी
-4.1436	निशाने	-0.4349
-4.3197	निश्चय
-4.6207	निहायत
-4.6207	निहायती
-4.6207	निहारती
-4.6207	नी
-3.7176	नींद
-4.6207	नींबू
-4.6207	नीची
-2.8573	नीचे	-0.0317
-4.6207	नीता
-3.7176	नीना	-0.0768
-3.3654	नीनी	-0.0502
-4.0187	नीम	-0.2901
-3.7176	नीला	-0.2819
-4.6207	नीले
-4.6207	नुकसान
-4.3197	नृत्य	-0.2999
-1.9106	ने	-0.2897
-4.3197	नेक
-4.6207	नेकारीगर
-4.6207	नेकी
-4.1436	नेशनल	-0.4394
-4.6207	नेहरू
-4.6207	नैया
-4.3197	नोक
-4.6207	नोट
-3.8426	नौ	-0.1750
-4.1436	नौजवान	-0.1729
-4.3197	न्यौता
-4.0187	पंक्ति	-0.2743
-4.6207	पंक्तियाँ
-3.7756	पंख
-4.6207	पंखा
-4.6207	पंखी
-4.6207	पंखों
-4.6207	पंचियों
-4.6207	पंछी
-4.0187	पंजा	-0.1247
-4.6207	पंजाब
-4.0187	पंजे
-3.7756	पंडित	-0.2841
-4.6207	पंद्रह
-4.3197	पक
-4.3197	पकड़ो
-4.0187	पकवान
-4.6207	पकवानों
-4.3197	पकाई
-4.6207	पकाएँ
-4.6207	पकाएँगे
-4.3197	पकाओ
-4.6207	पकाकर
-4.6207	पकाता
-4.6207	पकाते
-4.6207	पकाना
-4.1436	पकाने
-4.3197	पकाया
-4.6207	पके
-4.6207	पकेंगी
-4.6207	पकेगा
-3.7756	पकौड़ी	-0.0667
-4.0187	पक्का
-4.3197	पक्की
-3.9217	पक्षियों	-0.0917
-4.1436	पक्षी
-3.2405	पकड़	-0.2627
-4.6207	पकड़ते
-4.3197	पकड़ने
-4.1436	पकड़ा	-0.1701
-4.3197	पकड़ाई
-4.6207	पकड़ाना
-4.1436	पकड़ी
-3.5793	पकड़े	-0.0413
-4.6207	पगडंडी
-4.3197	पग्गड़
-3.9217	पगड़ी
-3.4746	पचास	-0.3340
-4.0187	पच्चीस	-0.2815
-4.6207	पछता
-4.6207	पछताए
-4.6207	पछताने
-4.6207	पजरे
-4.0187	पट	-0.1247
-4.6207	पटकते
-4.6207	पटरियों
-4.3197	पटसन
-4.6207	पट्टी
-4.6207	पठार
-4.3197	पड़ी
-4.6207	पडी
-3.5793	पतंग	-0.0412
-4.6207	पतंगें
-4.1436	पतंगों
-4.6207	पतला
-3.6665	पतली	-0.0094
-4.3197	पतले
-3.1294	पता	-0.1810
-4.6207	पतीले
-3.8426	पते
-4.6207	पतों
-3.6207	पत्ता
-4.6207	पत्तियाँ
-4.6207	पत्तियों
-4.6207	पत्ती
-3.3903	पत्ते	-0.0352
-3.6207	पत्तों	-0.3403
-3.4446	पत्थर	-0.2899
-4.3197	पत्थरों
-4.0187	पत्नी
-3.7176	पत्र	-0.0534
-4.6207	पत्रा
-4.6207	पथ
-4.6207	पथरीली
-4.6207	पथरीले
-4.6207	पदम
-4.6207	पदुबया
-4.6207	पधारे
-4.6207	पन्नी
-4.3197	पन्ने
-4.6207	पन्नों
-1.9842	पर	-0.0815
-3.4446	परंतु	-0.0585
-4.6207	परम
-4.6207	परवाह
-4.6207	परसों
-4.6207	पराँठा
-4.3197	परात	-0.2959
-4.6207	परामर्श
-4.0187	परिचय
-4.3197	परिधानों
-4.6207	परियों
-4.6207	परिवहन
-3.8426	परीक्षा	-0.0710
-3.6665	परेशान	-0.1991
-4.6207	परेशानियों
-4.1436	परेशानी
-4.1436	परों	-0.1716
-4.6207	परोसा
-4.0187	पर्दा	-0.0831
-4.1436	पर्दे	-0.4349
-4.6207	पर्व
-4.3197	पर्वत
-4.6207	पर्वतमाला
-3.9217	पल
-4.3197	पलंग
-4.3197	पलटकर
-4.6207	पलटना
-4.6207	पलटे
-4.3197	पल्लू
-4.1436	पलड़ा	-0.1752
-4.6207	पलड़ों
-4.6207	पशु
-4.6207	पशुओं
-4.6207	पश्चात्
-3.5415	पसंद	-0.1078
-4.6207	पसार
-4.6207	पसारे
-3.9217	पसीना	-0.0967
-4.6207	पसीने
-4.6207	पहँचाने
-4.6207	पहँची
-4.3197	पहचान
-4.6207	पहचानने
-4.3197	पहन
-4.0187	पहनकर
-4.6207	पहनते
-4.1436	पहनना
-4.6207	पहननी
-4.3197	पहनने
-4.3197	पहना
-4.0187	पहनी	-0.1159
-4.0187	पहने	-0.1235
-4.6207	पहरा
-4.0187	पहरेदार
-4.6207	पहरेदारों
-4.6207	पहल
-4.0187	पहला	-0.1247
-3.9217	पहली	-0.0961
-4.6207	पहलू
-2.9580	पहले	-0.0856
-4.1436	पहाड़
-4.6207	पहाड़ियाँ
-3.6665	पहाड़ी
-4.3197	पहाड़ों
-4.6207	पहिए
-4.6207	पहिने
-3.6207	पहिया	-0.9999
-4.1436	पहियों	-0.4344
-4.6207	पहिले
-3.4166	पहुँच	-0.2230
-4.0187	पहुँचकर	-0.0831
-4.6207	पहुँचती
-4.3197	पहुँचते
-4.6207	पहुँचना
-4.3197	पहुँचने
-3.5068	पहुँचा	-0.0273
-4.6207	पहुँचाते
-4.6207	पहुँचादे
-4.6207	पहुँचाना
-3.9217	पहुँचाने	-0.0887
-4.6207	पहुँचाया
-3.9217	पहुँची	-0.0551
-3.5793	पहुँचे	-0.0771
-4.6207	पहुँचेंगे
-4.6207	पहुँते
-4.6207	पहुचाता
-4.3197	पा	-0.2991
-3.3197	पाँच	-0.0510
-3.7756	पाँव
-4.3197	पाँवों
-4.6207	पाइप
-4.6207	पाई
-4.6207	पाईप
-4.6207	पाऊँगा
-3.9217	पाए
-4.6207	पाएँ
-4.3197	पाएँगे
-4.3197	पाएगा
-4.3197	पाओ
-4.3197	पाओगे
-4.6207	पाकर
-4.6207	पाके
-4.6207	पागल
-4.6207	पागुर
-4.6207	पाजामा
-4.3197	पाट
-4.3197	पाठ
-4.6207	पाठशाला
-4.3197	पाता
-4.0187	पाती	-0.1233
-4.1436	पाते	-0.1728
-4.6207	पान
-4.3197	पाना
-2.7069	पानी	-0.1822
-3.1022	पापा	-0.2875
-3.4166	पापड़	-0.0481
-4.6207	पापड़ों
-4.6207	पाबंदियों
-4.6207	पाबंदी
-4.1436	पाया
-3.3903	पार	-0.0790
-4.6207	पारंपरिक
-4.6207	पारावार
-4.6207	पारों
-4.1436	पार्क
-4.6207	पार्टी
-4.6207	पालक
-4.0187	पालतू
-4.3197	पाला
-4.6207	पालूँगा
-2.5715	पास	-0.1410
-4.6207	पिंजडा
-4.6207	पिंजरे
-4.3197	पिंजड़ा	-0.2588
-3.6207	पिंजड़े	-0.1578
-4.6207	पिएँगी
-4.6207	पिओगे
-4.6207	पिघलाए
-4.3197	पिच
-4.6207	पिचहत्तर
-4.3197	पिछली
-3.9217	पिछले
-4.3197	पिछवाड़े
-4.6207	पिटपिटी
-4.6207	पिटाई
-3.1736	पिता	-0.1876
-4.6207	पिताजी
-4.6207	पिन
-3.8426	पिनकोड	-0.1274
-4.3197	पिरोई
-4.6207	पिरोना
-4.6207	पिरोने
-4.6207	पिरोया
-4.6207	पिला
-4.6207	पिलाई
-4.6207	पिलाओगे
-4.6207	पिलाया
-4.1436	पिसवाना	-0.1670
-4.6207	पी
-4.6207	पीकर
-2.9975	पीछे	-0.1114
-4.6207	पीट
-3.5793	पीठ	-0.1808
-4.6207	पीतल
-4.6207	पीते
-4.3197	पीना
-4.3197	पीने
-4.3197	पीपल
-4.6207	पीया
-4.6207	पीलवान
-4.1436	पीला
-4.3197	पीली
-4.0187	पीलू
-4.3197	पीले
-4.6207	पीसते
-4.3197	पीहर
-4.6207	पीड़ित
-3.9217	पुकार
-4.6207	पुकारकर
-4.6207	पुकारती
-4.3197	पुकारते
-4.1436	पुकारने
-4.3197	पुकारा
-4.6207	पुचकार
-4.6207	पुच्छन
-4.6207	पुते
-4.6207	पुनः
-4.0187	पुफर्र	-0.2817
-4.3197	पुराना
-4.6207	पुरानी
-3.7756	पुराने	-0.1381
-4.0187	पुरुष
-4.3197	पुर्ज़े
-3.8426	पुलिस	-0.0374
-4.6207	पुलिसवाले
-4.6207	पुश्तैनी
-3.7756	पुस्तक	-0.0667
-4.6207	पुस्तके
-4.3197	पुस्तकों
-2.9305	पूँछ	-0.2807
-3.8426	पूँछें	-0.2551
-4.0187	पूछ	-0.1246
-4.6207	पूछकर
-4.6207	पूछतीं
-4.1436	पूछते	-0.1750
-3.9217	पूछना
-4.1436	पूछने
-4.6207	पूछपूछ
-2.8964	पूछा	-0.0548
-4.6207	पूछी
-4.6207	पूछें
-4.6207	पूछो
-3.9217	पूजा	-0.0551
-3.4446	पूरा	-0.0811
-3.5415	पूरी	-0.0353
-3.5793	पूरे	+0.0003
-4.6207	पूर्वी
-4.1436	पृष्ठ
-4.6207	पे
-4.3197	पेंग
-4.3197	पेंगे
-4.6207	पेंसिल
-3.2783	पेट	-0.1265
-4.6207	पेटे
-4.6207	पेन
-4.6207	पेरकर
-4.6207	पेल
-4.6207	पेलम
-4.6207	पेश
-2.8964	पेड़	-0.2922
-3.7756	पेड़ों	-0.4923
-4.6207	पैट्रोल
-4.6207	पैडिल
-3.7176	पैदल
-4.6207	पैदा
-4.6207	पैदावार
-4.6207	पैन
-3.3903	पैर	-0.0766
-3.4746	पैरों	-0.1666
-4.3197	पैस
-3.7176	पैसा	-0.1173
-3.2057	पैसे	-0.0394
-4.6207	पैसों
-3.9217	पोंगल
-4.3197	पोंगला	-0.3004
-4.3197	पोंछकर
-4.6207	पोंछता
-4.6207	पोंछते
-4.6207	पोंछने
-4.6207	पोंछा
-4.6207	पोखर
-4.6207	पोछते
-4.0187	पोता
-4.1436	पोथी
-4.3197	पोशाक
-4.3197	पोस्टकार्ड
-4.6207	पोस्टल
-4.1436	पौधे
-4.3197	पौधें
-4.3197	पौधों	-0.2943
-4.6207	प्याज
-4.3197	प्याज़
-3.7756	प्यार	-0.6682
-4.6207	प्याला
-4.3197	प्याले
-4.6207	प्याश
-4.3197	प्यास	-0.3000
-4.6207	प्यासी
-4.6207	प्यासे
-4.6207	प्रकट
-3.7756	प्रकार
-4.1436	प्रकृति	-0.1697
-4.6207	प्रकोप
-4.6207	प्रजा
-4.6207	प्रजाति
-4.6207	प्रजातियाँ
-3.9217	प्रणाम	-0.2190
-4.6207	प्रति
-4.0187	प्रतिदिन	-0.0831
-4.6207	प्रतिशत
-4.6207	प्रत्येक
-4.6207	प्रथा
-4.6207	प्रदर्शनी
-4.1436	प्रदेश
-4.6207	प्रदेशों
-4.6207	प्रभावित
-4.6207	प्रयत्न
-4.6207	प्रयोग
-4.6207	प्रवासी
-4.1436	प्रवेश
-4.1436	प्रशंसा	-0.1755
-4.6207	प्रशिक्षित
-3.7176	प्रश्न	-0.0574
-4.6207	प्रश्नसूचक
-4.3197	प्रश्नों
-4.3197	प्रसन्न
-4.6207	प्रसन्नता
-4.3197	प्रसिद्ध
-4.6207	प्रसिद्धी
-4.6207	प्रसिध्द
-4.6207	प्रस्ताव
-4.3197	प्रांतों
-4.6207	प्रातः
-4.1436	प्रार्थना
-4.6207	प्रेशर
-4.6207	प्लेट
-4.6207	प्लेटफ़ार्म
-3.5415	पड़	-0.2200
-3.7756	पड़ता	-0.2028
-4.3197	पड़ती	-0.2916
-4.3197	पड़ते
-4.6207	पड़ना
-4.1436	पड़ने
-3.4446	पड़ा	-0.0890
-4.6207	पड़ि
-4.6207	पड़ीं
-3.2985	पड़े	-0.0420
-4.6207	पड़ेंगी
-4.0187	पड़ेंगे
-3.9217	पड़ेगा
-4.3197	पड़ेगी
-4.6207	पड़ोस
-4.1436	पड़ोसी
-4.0187	पढ़
-4.6207	पढ़कर
-4.1436	पढ़क्कू
-4.0187	पढ़ते	-0.1243
-4.0187	पढ़ना
-3.8426	पढ़ने	-0.2516
-4.1436	पढ़ा
-4.3197	पढ़ाई
-4.6207	पढ़ाता
-4.6207	पढ़ाना
-4.6207	पढ़ाने
-4.6207	पढ़िए
-4.1436	पढ़ी
-4.6207	पढ़ीं
-4.0187	पढ़ो	-0.2761
-4.0187	फँस	-0.1227
-4.6207	फँसती
-4.6207	फँसते
-4.3197	फँसा
-4.6207	फँसाएँ
-4.6207	फँसाने
-4.6207	फँसी
-4.6207	फँसे
-4.6207	फँसेगा
-4.6207	फंक्शन
-4.6207	फंदा
-4.6207	फकीरों
-4.1436	फट
-4.6207	फटकारा
-4.6207	फटने
-4.6207	फटा
-4.6207	फटाफट
-4.3197	फट्टर
-4.3197	फनकार
-3.7176	फर	-0.4483
-4.6207	फरमाइशी
-4.6207	फरवरी
-3.9217	फरीदा
-4.6207	फर्क
-4.3197	फर्श
-3.8426	फल
-4.6207	फली
-4.6207	फलों
-4.3197	फसल
-4.6207	फसलें
-3.9217	फसलों	-0.3627
-4.6207	फ़कत
-4.6207	फ़र्श
-4.1436	फ़सल
-4.6207	फ़सलों
-4.6207	फ़ायदा
-4.6207	फ़ी
-4.6207	फ़ीता
-4.6207	फ़ीते
-4.6207	फ़ुरसत
-4.6207	फ़ुर्ती
-4.6207	फ़ोटो
-4.1436	फ़ौज
-4.3197	फ़ौजी
-3.7756	फ़ौरन
-4.6207	फाँदता
-4.6207	फाँदती
-4.6207	फाँस
-3.5068	फाँसी	-0.1856
-4.6207	फायरब्रिगेड
-3.9217	फार्म	-0.2089
-4.3197	फाड़े
-4.6207	फिक्र
-2.4304	फिर	-0.1480
-4.6207	फिरता
-4.6207	फिरने
-4.6207	फिराकर
-4.6207	फिरो
-4.1436	फिल्म	-0.1756
-4.3197	फिसल
-4.6207	फिसलकर
-4.3197	फिसलता
-4.0187	फिसलन
-4.6207	फिसला
-4.6207	फी
-4.3197	फीका
-4.6207	फीके
-4.6207	फीट
-4.6207	फुँसियाँ
-4.6207	फुटबाल
-4.6207	फुदकती
-4.3197	फुर्ती	-0.2929
-4.6207	फुर्र
-4.6207	फुलके
-4.6207	फुलवा
-4.3197	फुलाए
-4.6207	फुलाएँगे
-4.6207	फुल्का
-4.0187	फूँक
-4.6207	फूँककर
-4.6207	फूटा
-4.6207	फूटे
-4.1436	फूर्ती
-3.4446	फूल	+0.0117
-3.4166	फूलदान	-0.0686
-4.3197	फूले
-4.0187	फूलों
-4.3197	फूस
-3.6665	फेंक	-0.1319
-4.6207	फेंकने
-4.6207	फेंका
-4.6207	फेंकी
-4.6207	फेंकेगा
-4.3197	फेरकर
-4.6207	फेरता
-4.6207	फेरते
-4.3197	फैल	-0.2992
-4.6207	फैलता
-4.6207	फैलती
-4.3197	फैला
-4.6207	फैलाई
-4.1436	फैलाओ
-3.9217	फैलाकर
-4.6207	फैलाया
-4.1436	फैली	-0.1753
-4.6207	फैले
-4.6207	फैलेगी
-3.9217	फैसला	-0.2084
-4.1436	फौरन
-4.6207	फ्तो
-4.6207	फ्हाँ
-4.6207	बँटवारा
-4.3197	बँधी
-4.1436	बँधे
-4.6207	बंगाल
-4.3197	बंडल
-3.4446	बंद	-0.2010
-4.1436	बंदगोभी
-4.6207	बंदनवार
-3.1583	बंदर	-0.1367
-4.6207	बंदरगाह
-4.6207	बंदसी
-4.6207	बंदूकें
-4.6207	बकबक
-4.3197	बकरा
-4.6207	बकरियों
-3.9217	बकरी
-4.6207	बकवास
-4.6207	बक्के
-4.0187	बक्सा
-4.6207	बगल
-4.6207	बगिया
-3.7176	बगीचे	-0.2558
-4.6207	बग्गड़
-4.6207	बघवा
-4.0187	बच
-4.3197	बचत
-4.6207	बचना
-4.3197	बचने	-0.2924
-3.9217	बचपन
-4.3197	बचवा
-4.1436	बचा	-0.1758
-4.1436	बचाओ
-4.6207	बचाकर
-4.6207	बचाते
-4.6207	बचानी
-3.8426	बचाने	-0.1583
-4.6207	बचाव
-3.7756	बची
-4.0187	बचीं	-0.2816
-4.3197	बचे
-3.1436	बच्चा	-0.1360
-4.6207	बच्ची
-3.0079	बच्चे	-0.0829
-4.1436	बच्चो
-3.2590	बच्चों	-0.3881
-4.3197	बज
-4.6207	बजता
-4.1436	बजती
-4.3197	बजने
-4.1436	बजा	-0.1755
-4.6207	बजाइयो
-4.6207	बजाओ
-4.6207	बजाकर
-4.6207	बजाता
-4.1436	बजाते
-4.3197	बजाना
-4.6207	बजाने
-3.8426	बजे	-0.1332
-4.6207	बजेगी
-4.1436	बटन
-4.3197	बटाटा
-4.6207	बटोरकर
-4.3197	बडे
-4.6207	बतला
-3.7176	बता	-0.1242
-4.3197	बताइए
-4.0187	बताई
-4.6207	बताऊँगा
-4.6207	बताए
-4.6207	बताएँ
-3.7176	बताओ
-4.3197	बताकर
-4.6207	बताता
-4.0187	बताती
-4.6207	बताते
-4.0187	बताना
-4.6207	बताने
-3.5415	बताया	-0.2152
-4.6207	बतिया
-3.6665	बत्तख	-0.4088
-4.6207	बत्तीसवें
-4.3197	बदकिस्मती
-4.3197	बदन
-4.3197	बदल
-4.6207	बदलती
-4.6207	बदलना
-4.3197	बदलने
-4.3197	बदला
-3.9217	बदलाव
-4.6207	बदले
-4.6207	बदहवासी
-4.6207	बद्दर
-4.1436	बधाई
-3.6207	बन	-0.1521
-3.5068	बनकर
-4.6207	बनठन
-4.0187	बनता	-0.2730
-4.6207	बनती
-4.6207	बनते
-3.6665	बनना	-0.1547
-4.1436	बनने	-0.4333
-4.3197	बनवा	-0.2993
-4.6207	बनवाऊँगा
-4.6207	बनवाएँगे
-4.6207	बनवाने
-3.2783	बना	-0.1120
-3.7756	बनाई	-0.2245
-4.1436	बनाऊँगा
-4.6207	बनाऊँगी
-3.8426	बनाए	-0.1660
-4.6207	बनाएँ
-3.8426	बनाएँगे
-3.9217	बनाओ	-0.0551
-3.6665	बनाकर	-0.0507
-4.3197	बनाता
-4.6207	बनाती
-4.1436	बनाते	-0.1341
-3.9217	बनाना	-0.0938
-3.8426	बनाने	-0.2737
-3.7176	बनाया
-3.8426	बनी
-4.3197	बनूँगा
-3.8426	बने	-0.0374
-4.0187	बनेंगे	-0.1217
-4.3197	बनेगा
-4.6207	बनोगे
-4.3197	बबूल
-4.6207	बबूला
-4.1436	बरगद	-0.1677
-4.3197	बरस
-4.0187	बरसता
-4.6207	बरसना
-4.6207	बरसने
-4.6207	बरसाई
-3.7756	बरसात	-0.0588
-4.6207	बरसाती
-4.6207	बरसाते
-4.6207	बरसाने
-4.6207	बरसूँगा
-4.6207	बरसो
-4.6207	बरसों
-4.3197	बरह
-3.9217	बराबर
-4.6207	बराबरी
-4.6207	बरामदा
-4.3197	बरामदे
-3.8426	बर्तन	-0.0716
-3.4746	बर्फ	-0.1185
-4.6207	बर्फीला
-4.6207	बर्फीली
-4.6207	बर्फीले
-4.3197	बर्बाद
-4.1436	बर्र	-0.1704
-4.1436	बल
-4.3197	बलवान
-4.6207	बला
-3.7756	बल्कि
-4.1436	बल्ला
-3.8426	बल्ले	-0.0737
-4.6207	बल्लेबाजी
-2.9675	बस	-0.1445
-4.6207	बसइयो
-4.3197	बसा
-4.6207	बसाने
-4.6207	बसे
-4.6207	बस्तियाँ
-4.6207	बस्तियों
-4.3197	बस्ते	-0.2930
-4.3197	बह
-4.0187	बहत
-4.6207	बहती
-3.5068	बहन	-0.1448
-4.3197	बहने
-4.3197	बहनें
-4.1436	बहस	-0.1752
-4.6207	बहाई
-4.3197	बहादुर
-4.6207	बहादुरी
-4.0187	बहाना
-4.6207	बहुएँ
-2.5169	बहुत	-0.1324
-4.6207	बहुतसी
-3.9217	बहूजी
-4.6207	बाँग
-4.6207	बाँचकर
-4.3197	बाँट
-4.6207	बाँटता
-4.6207	बाँटने
-4.6207	बाँटूँ
-4.6207	बाँटे
-3.9217	बाँध
-4.3197	बाँधकर
-4.6207	बाँधे
-4.3197	बाँध्
-4.0187	बाँस	-0.1186
-4.6207	बाँसुरी
-4.6207	बाँहें
-4.6207	बाँहों
-4.6207	बाईं
-4.6207	बाए
-3.6207	बाकी	-0.0504
-4.1436	बाग
-2.9305	बाघ	-0.1974
-4.6207	बाघिन
-4.6207	बाज़
-3.3420	बाज़ार	-0.0975
-3.9217	बाजा	-0.0551
-4.6207	बाजार
-4.6207	बाण
-2.6665	बात	-0.2198
-4.6207	बातचीत
-3.6665	बातें	-0.0094
-4.1436	बातों
-4.6207	बाथरूम
-2.9047	बाद	-0.0551
-3.4446	बादल	-0.0185
-4.3197	बादलों
-3.2057	बादशाह	-0.1146
-4.6207	बादाम
-4.1436	बादामी	-0.1755
-3.9217	बाप	-0.2088
-4.6207	बापू
-3.7756	बाबा
-4.6207	बाबाजी
-4.6207	बाबू
-4.3197	बाबूजी
-4.6207	बाम्हन
-2.8078	बार	-0.0994
-4.6207	बारबार
-4.1436	बारह
-4.6207	बारहवीं
-3.5793	बारिश	-0.1629
-3.8426	बारी	-0.1259
-4.6207	बारीक
-4.6207	बारीकियों
-3.3654	बारे	-0.2930
-3.4446	बाल	-0.0575
-4.3197	बालक
-4.6207	बालबाल
-4.6207	बालियों
-4.6207	बाली
-3.6207	बालू	-0.1417
-4.3197	बालों
-4.6207	बाल्टियाँ
-2.9675	बाहर	-0.1487
-4.6207	बाहरी
-4.6207	बाहों
-4.3197	बाड़
-3.9217	बाढ़
-3.6665	बिंदा	-0.1281
-4.6207	बिंदियाँ
-4.3197	बिंदी
-4.3197	बिक
-4.6207	बिकने
-4.6207	बिखर
-4.3197	बिखराया
-4.6207	बिखरेगा
-4.6207	बिखेरूगाँ
-4.6207	बिछा
-4.3197	बिछी
-3.9217	बिजली	-0.0949
-4.6207	बिठा
-4.6207	बिठाकर
-4.3197	बिठाता
-4.6207	बिठाया
-4.6207	बिताना
-3.5415	बित्तो	-0.0318
-3.4446	बिना	-0.0615
-3.3903	बिन्नी	-0.0702
-4.3197	बिरंगा
-4.6207	बिरंगी
-4.6207	बिरंगे
-4.6207	बिरानी
-4.6207	बिल
-4.3197	बिलखकर
-4.6207	बिली
-3.2783	बिल्कुल	-0.2077
-4.0187	बिल्लियाँ
-4.6207	बिल्लियों
-2.8648	बिल्ली	-0.0992
-3.0767	बिशन	-0.0686
-4.6207	बिस्कुट
-4.0187	बिस्तर
-4.6207	बिहार
-3.2405	बीच	-0.0810
-4.6207	बीचों
-4.1436	बीत
-4.6207	बीतता
-4.6207	बीता
-4.6207	बीती
-4.1436	बीते
-4.6207	बीमार
-3.3197	बीरबल	-0.2838
-4.3197	बीवी
-3.7176	बीस	-0.2810
-4.6207	बीहू
-4.1436	बुक	-0.4394
-4.6207	बुदबुदाई
-4.3197	बुद्धी
-4.6207	बुद्धीमान
-4.1436	बुद्धू
-4.6207	बुधवार
-4.6207	बुनकर
-4.6207	बुनती
-4.3197	बुरा	-0.3003
-4.3197	बुराई	-0.2999
-4.3197	बुरी
-4.6207	बुलंद
-3.5793	बुलबुल	-0.0363
-4.6207	बुला
-4.6207	बुलाए
-4.3197	बुलाओ
-4.3197	बुलाकर
-4.3197	बुलाती
-4.3197	बुलाते
-4.1436	बुलाने
-3.9217	बुलाया	-0.0911
-4.6207	बुहारना
-4.6207	बुहारे
-3.5415	बुढ़िया	-0.0316
-4.3197	बूँद
-4.1436	बूँदें
-4.6207	बूँदों
-4.3197	बूटियाँ	-0.3004
-4.6207	बूटे
-4.3197	बूटों
-4.3197	बूढे	-0.2953
-4.0187	बूढ़ा	-0.1244
-3.5415	बूढ़ी	-0.6017
-4.6207	बूढ़े
-4.6207	बृहस्पतिवार
-3.6665	बेकार	-0.0485
-4.3197	बेखबर
-4.6207	बेगम
-3.7756	बेच	-0.0664
-4.6207	बेचकर
-4.6207	बेचता
-4.1436	बेचना	-0.1719
-3.9217	बेचने	-0.2091
-4.6207	बेचनेवाला
-4.6207	बेचा
-4.0187	बेचारा	-0.1242
-4.6207	बेचारी
-4.6207	बेचारे
-4.3197	बेचूँगा
-4.1436	बेचोगे
-4.6207	बेजान
-3.5415	बेटा	-0.0824
-4.1436	बेटी
-4.6207	बेटू
-3.5793	बेटे	-0.2396
-4.6207	बेबस
-4.3197	बेबसी
-3.8426	बेल	-0.0790
-4.6207	बेलन
-4.6207	बेलेंगे
-4.3197	बेवकूफ
-4.6207	बेवकूफ़
-4.1436	बेवकूफ़ी	-0.1713
-4.6207	बेवक्त
-4.6207	बेशक
-4.6207	बेसब्री
-4.3197	बेहतर
-4.6207	बेहतरीन
-4.1436	बेहद
-4.3197	बेहोश
-4.6207	बेहोशी
-4.3197	बैंगनी
-4.6207	बैंगलोर
-3.0892	बैठ	-0.4092
-4.1436	बैठक
-3.3903	बैठकर	-0.0101
-4.3197	बैठती
-3.9217	बैठते	-0.0938
-4.6207	बैठना
-4.3197	बैठने
-3.3903	बैठा	-0.0897
-3.7176	बैठी	-0.0575
-4.6207	बैठीं
-4.6207	बैठूँगा
-3.3903	बैठे	-0.0080
-4.3197	बैठेगा	-0.3002
-4.3197	बैठो
-3.7176	बैल	-0.0578
-4.6207	बैलगाड़ी
-4.1436	बोझ
-4.6207	बोतल
-4.6207	बोया
-4.6207	बोर
-4.6207	बोरसी
-4.6207	बोरियत
-4.3197	बोरीवली	-0.3004
-3.7756	बोरे	-0.1041
-4.6207	बोरों
-3.6207	बोल	-0.0918
-4.6207	बोलकर
-4.6207	बोलता
-4.0187	बोलती
-4.3197	बोलते
-3.8426	बोलने	-0.1259
-2.7882	बोला	-0.0895
-3.2228	बोली	-0.0304
-3.8426	बोलीं
-3.2590	बोले	-0.0615
-4.0187	बोलो	-0.1247
-4.6207	बौरों
-4.1436	ब्रिटिश	-0.4394
-4.3197	बड़
-4.6207	बड़बड़ाया
-3.1894	बड़ा	-0.1009
-4.6207	बड़ाए
-4.3197	बड़ियाँ
-4.6207	बड़ियों
-3.0767	बड़ी	-0.0150
-3.0079	बड़े	-0.0358
-4.1436	बड़ों	-0.1677
-4.6207	बड़ौ
-3.5793	बढ़	-0.1747
-4.1436	बढ़कर
-4.6207	बढ़के
-4.3197	बढ़ता
-4.3197	बढ़ती
-4.1436	बढ़ते
-4.6207	बढ़ना
-4.1436	बढ़ने
-4.1436	बढ़ा
-4.6207	बढ़ाऊँ
-4.6207	बढ़ाए
-4.3197	बढ़ाओ
-4.6207	बढ़ाकर
-4.6207	बढ़ाती
-4.6207	बढ़ाते
-4.6207	बढ़ाने
-4.1436	बढ़ाया
-4.6207	बढ़िए
-3.7176	बढ़िया
-3.9217	बढ़ी
-3.8426	बढ़े
-4.6207	बढ़ेगी
-4.6207	भँवराती
-4.6207	भँवरी
-4.6207	भंग
-4.1436	भंडार
-3.7176	भंडारी	-0.0772
-4.6207	भइया
-3.6665	भई	-0.1309
-4.3197	भक
-4.6207	भक्कू
-4.6207	भग
-3.8426	भगवान	-0.0730
-4.6207	भगा
-4.6207	भगाऊँगा
-4.6207	भगाना
-4.6207	भजन
-4.6207	भटकती
-4.1436	भटकते
-4.6207	भटके
-4.6207	भयभीत
-4.6207	भयानक
-3.0079	भर	-0.0606
-4.3197	भरकम
-4.1436	भरकर
-4.6207	भरता
-4.1436	भरते
-4.1436	भरने
-4.6207	भरपेट
-4.6207	भरवाँ
-3.6665	भरा	-0.2393
-3.9217	भरी
-4.0187	भरे
-4.3197	भरेगा	-0.2588
-3.7756	भला	-0.1042
-4.3197	भलाई
-4.1436	भली
-4.0187	भले
-4.6207	भवन
-4.6207	भाँति
-4.6207	भाँपते
-4.6207	भाइयों
-3.0187	भाई	-0.3038
-4.6207	भाईजान
-3.2783	भाग	-0.1187
-4.6207	भागता
-3.9217	भागते
-4.6207	भागना
-3.8426	भागने	-0.0749
-3.6665	भागा	-0.0490
-4.0187	भागी
-4.1436	भागे
-4.6207	भागो
-4.6207	भागों
-4.6207	भाजी
-4.1436	भात
-4.3197	भाप
-3.9217	भारत
-4.6207	भारतवासी
-4.3197	भारतीय
-3.5793	भारी	-0.1332
-4.6207	भारीभरकम
-4.6207	भारीसी
-3.5415	भालू	-0.0374
-4.6207	भाले
-4.1436	भाव	-0.1683
-4.3197	भाषा
-4.3197	भिंडियों	-0.2924
-3.6665	भिक्षा	-0.2464
-4.6207	भिखारी
-4.6207	भिगो
-3.9217	भिन	-0.0967
-4.1436	भिन्न
-4.1436	भिश्ती
-2.1644	भी	-0.0883
-3.0525	भीखूभाई	-0.2625
-4.6207	भीगता
-4.6207	भीगी
-4.6207	भीगे
-3.6207	भीतर
-4.6207	भीतरी
-4.3197	भीड़
-4.6207	भुक्खड़
-4.6207	भूकंप
-3.5415	भूख	-0.2899
-4.0187	भूखी	-0.1233
-4.3197	भूखे
-4.0187	भूगोल	-0.2520
-4.3197	भूजल	-0.3004
-4.6207	भूप
-4.6207	भूरा
-4.3197	भूरी
-3.8426	भूल	-0.0781
-4.6207	भूलना
-4.6207	भूले
-4.6207	भेंट
-4.3197	भेज	-0.2995
-4.3197	भेजने	-0.2924
-4.1436	भेजा
-4.6207	भेजी
-4.6207	भेजीं
-4.0187	भेजे
-4.6207	भेजो
-4.6207	भेट
-4.6207	भेडें
-4.6207	भेद
-4.1436	भेड़
-3.9217	भेड़िए	-0.0914
-4.1436	भेड़िया	-0.1745
-4.1436	भेड़ें
-4.0187	भेड़ों	-0.1167
-3.3197	भैया	-0.1952
-4.0187	भोजन
-4.6207	भोर
-3.8426	भोला
-4.3197	भोले
-4.6207	भोलेपन
-4.6207	भौंक
-4.6207	भौंकते
-4.6207	भौंकना
-4.3197	भौंकने	-0.2996
-4.6207	भौंचक
-4.6207	भौंह
-4.3197	भौकता
-4.3197	भौगोलिक
-4.6207	भौजाई
-4.6207	भड़क
-4.6207	भड़कीली
-4.6207	म
-4.6207	मँगवाकर
-4.6207	मँझोला
-4.6207	मंगल
-4.3197	मंगलवार
-4.6207	मंज़ूर
-4.6207	मंजीरे
-4.3197	मंडी
-4.3197	मंतिख
-4.6207	मंत्र
-4.6207	मंत्रा
-3.2405	मंत्री	-0.1826
-4.0187	मंद	-0.1247
-4.6207	मंसूबा
-4.6207	मई
-3.7756	मकर	-0.6756
-4.6207	मकान
-4.3197	मकै	-0.2997
-4.6207	मकोड़ों
-3.7756	मक्खन	-0.0252
-3.2228	मक्खी	-0.0993
-3.6207	मकड़ी	-0.0456
-4.6207	मगन
-3.0409	मगर	-0.0408
-4.0187	मगरमच्छ
-4.6207	मच
-4.1436	मचल
-4.3197	मचा
-4.6207	मचाऊँ
-4.6207	मचाएँ
-4.6207	मचाओ
-4.6207	मचाता
-4.3197	मचाते
-4.6207	मचाने
-4.6207	मचाया
-4.6207	मचिया
-4.3197	मची
-4.6207	मछली
-4.6207	मजबूर
-4.6207	मजबूरी
-4.3197	मज़बूत
-4.1436	मज़बूती	-0.1683
-3.4746	मज़ा	-0.3332
-4.1436	मज़ाक
-4.3197	मज़े	-0.2588
-4.0187	मज़ेदार
-4.6207	मजा
-4.6207	मजिस्टेट
-4.6207	मटकता
-4.0187	मटका
-4.6207	मटकाते
-4.3197	मटके
-4.1436	मटर	-0.1701
-4.6207	मटोल
-4.6207	मट्टर
-4.1436	मट्टा
-4.6207	मट्टे
-4.6207	मणि
-3.5415	मत	-0.0377
-3.8426	मतलब
-4.6207	मतवाली
-4.6207	मतवाले
-3.3197	मदद	-0.1371
-4.1436	मध्य
-2.9675	मन	-0.3571
-4.3197	मनचाही
-4.6207	मनचाहे
-4.0187	मनपसंद
-3.8426	मना	-0.1644
-4.3197	मनाती
-4.1436	मनाते
-4.6207	मनाने
-3.7756	मनाया	-0.4315
-4.6207	मनाही
-4.6207	मनीआर्डर
-4.6207	मनोरंजन
-4.6207	मनोहर
-4.0187	मर
-4.6207	मरना
-4.1436	मरने	-0.1754
-4.3197	मरा
-4.1436	मरियल
-4.6207	मरूँगा
-4.3197	मरे
-4.6207	मरोड़ो
-4.3197	मर्ज़ी
-4.6207	मर्द
-4.6207	मलकिन
-4.6207	मलता
-4.6207	मलती
-4.6207	मलते
-4.6207	मलमल
-4.6207	मलमली
-4.0187	मलाई
-4.1436	मशक	-0.1707
-4.6207	मशकवाला
-4.3197	मशहूर
-3.4746	मशीन	-0.0854
-4.3197	मशीनी	-0.3003
-4.6207	मस
-4.6207	मसूर
-4.3197	मस्ती
-4.3197	महक
-4.6207	महके
-4.3197	महत्व
-4.3197	महत्वपूर्ण
-3.8426	महल
-3.8426	महसूस	-0.1730
-3.9217	महात्मा	-0.2207
-3.2590	महाराज	-0.0533
-4.6207	महाराजाओं
-4.6207	महाराष्ट
-4.6207	महाशय
-4.6207	महिला
-4.6207	महीन
-4.3197	महीना
-3.8426	महीने	-0.0963
-4.3197	महूरत
-2.9773	माँ	-0.1387
-4.1436	माँग
-4.6207	माँगती
-4.0187	माँगते	-0.2962
-4.3197	माँगने
-4.3197	माँगा
-4.0187	माँगी
-4.6207	माँगेगा
-4.6207	माँगो
-4.6207	माँज
-4.6207	माँजती
-4.0187	माँद	-0.2853
-4.6207	माँड़
-3.7176	माता	-0.5089
-4.6207	माताजी
-4.6207	मातायन
-4.6207	मात्र
-4.6207	माथा
-4.1436	माथे	-0.1713
-4.6207	मादा
-4.6207	माधो
-3.9217	मान
-4.6207	मानकर
-4.6207	मानने
-4.0187	माना
-4.3197	मानी
-4.3197	माने
-3.9217	मानो
-4.3197	माफ़
-4.6207	माफ़ी
-4.1436	मामला	-0.1670
-4.3197	मामूली
-4.6207	माया
-3.6207	मार	-0.0457
-4.1436	मारकर
-4.6207	मारता
-4.1436	मारते	-0.1732
-3.9217	मारना
-3.7756	मारने	-0.0612
-3.8426	मारा	-0.0788
-4.6207	मारिए
-4.3197	मारी
-4.6207	मारूँ
-4.6207	मारूँगा
-3.7756	मारे
-4.6207	मारें
-4.1436	मार्च
-4.0187	माल
-4.6207	मालकिन
-3.9217	माला
-3.9217	मालिक
-3.7176	माली	-0.1734
-3.7756	मालूम	-0.1338
-4.6207	माशा
-4.6207	माह
-4.6207	माहिर
-4.6207	मिट
-4.6207	मिट्टा
-3.7176	मिट्टी	-0.1844
-4.6207	मिठाइयों
-4.3197	मिठाई
-4.3197	मिठास
-4.6207	मित्र
-4.6207	मित्रा
-4.1436	मिनट
-2.9675	मिमि	-0.0823
-4.6207	मिमियाना
-3.8426	मिर्च
-4.3197	मिर्चों
-3.2405	मिल	-0.1859
-3.6665	मिलकर
-4.6207	मिलके
-4.1436	मिलता
-3.9217	मिलती	-0.2001
-4.3197	मिलते
-4.6207	मिलनी
-4.3197	मिलने
-4.6207	मिलवाने
-3.7176	मिला
-4.6207	मिलाई
-4.6207	मिलाओ
-4.6207	मिलाकर
-4.6207	मिलिएये
-3.6207	मिली	-0.0409
-4.6207	मिलीं
-3.5793	मिले	+0.0003
-4.6207	मिलें
-4.6207	मिलेंगी
-4.3197	मिलेंगे
-4.3197	मिलेगा
-4.6207	मिश्री
-4.6207	मिसरी
-4.6207	मिसाल
-4.6207	मींचकर
-3.3654	मीठा	-0.1348
-3.5415	मीठी	-0.0787
-3.8426	मीठे	-0.0967
-3.7756	मीरा	-0.6756
-3.9217	मील	-0.0926
-4.6207	मुँडेर
-3.1583	मुँह	-0.0986
-4.1436	मुंबई	-0.1341
-4.6207	मुंह
-4.3197	मुआयना
-4.6207	मुकाबला
-4.6207	मुकुट
-4.6207	मुक्त
-4.6207	मुख
-3.8426	मुखिया	-0.0737
-4.6207	मुझ
-3.8426	मुझको
-4.3197	मुझमें
-4.1436	मुझसे	-0.1734
-2.6862	मुझे	-0.0869
-4.6207	मुट्टर
-4.6207	मुट्ठी
-4.6207	मुद्दे
-4.6207	मुन्ना
-3.3420	मुन्नी	-0.0559
-4.1436	मुन्नू
-4.6207	मुफ़्त
-3.9217	मुफ्त	-0.2015
-4.6207	मुरझाई
-4.6207	मुराद
-4.3197	मुर्गा
-4.6207	मुर्गियाँ
-3.8426	मुर्गी
-4.1436	मुलाकात
-4.3197	मुलायम
-3.5068	मुश्किल	-0.1422
-4.3197	मुश्किलों
-4.0187	मुसीबत	-0.1173
-4.0187	मुस्करा
-4.6207	मुस्कराए
-4.6207	मुस्कराकर
-4.6207	मुस्कराती
-4.3197	मुस्कराते	-0.2992
-4.6207	मुस्कराया
-4.6207	मुस्कान
-4.3197	मुस्कुराए
-4.6207	मुस्कुराकर
-4.6207	मुस्कुराता
-4.3197	मुस्कुराते	-0.2992
-4.6207	मुस्कुराने
-4.3197	मुस्कुराया
-4.1436	मुह
-4.6207	मुहल्ले
-4.1436	मुड़कर
-4.6207	मुड़ा
-4.6207	मुड़े
-3.9217	मूँछ
-4.6207	मूँछें
-4.6207	मूँड़
-4.3197	मूड
-4.0187	मूर्ख
-4.6207	मूली
-4.6207	मूसलाधर
-4.3197	मे
-1.7695	में	-0.0767
-4.6207	मेंढक
-4.1436	मेघा	-0.1749
-3.2985	मेज़	-0.2900
-4.6207	मेज़पोश
-4.6207	मेज़ा
-3.1022	मेरा	-0.0428
-2.6812	मेरी	-0.1609
-2.9217	मेरे	-0.3014
-4.6207	मेल
-4.6207	मेला
-4.0187	मेहँदी	-0.2757
-4.3197	मेहनत
-4.3197	मेहरबानी
-4.6207	मेढ़ी
-4.6207	मैँ
-2.2041	मैं	-0.1517
-4.6207	मैंँ
-3.1436	मैंने	-0.1508
-3.7176	मैदान	-0.0163
-4.6207	मैदानों
-4.6207	मैना
-4.1436	मैने
-4.6207	मैनेजर
-4.3197	मैल
-4.6207	मैली
-4.6207	मैले
-4.0187	मोटर	-0.1247
-3.6207	मोटा	-0.2118
-3.5068	मोटी	-0.0635
-4.1436	मोटे
-4.6207	मोतियों
-4.3197	मोम	-0.2588
-4.3197	मोर
-4.6207	मोल
-4.6207	मोहन
-3.8426	मोहल्ले	-0.2723
-4.6207	मोड़ा
-4.6207	मोड़े
-3.8426	मौका
-4.6207	मौके
-4.6207	मौकों
-4.3197	मौजूद
-4.6207	मौन
-3.8426	मौसम	-0.0716
-4.6207	मौसिम
-3.6665	मौसी	-0.3517
-3.4446	म्याऊँ	-0.3166
-4.6207	मड़ैया
-4.1436	यकीन	-0.1725
-4.6207	यज्ञ
-3.3654	यदि	-0.0493
-2.2985	यह	-0.1588
-2.9873	यहाँ	-0.1433
-3.1736	यही	+0.0110
-3.6207	यहीं
-2.8964	या	-0.0662
-3.5793	यात्रा	-0.1349
-3.5068	याद	-0.1448
-4.3197	यानी
-4.1436	यूँ
-3.0079	ये	-0.1179
-4.3197	यों
-3.8426	योजना	-0.0790
-3.1736	रंग	-0.0827
-4.6207	रंगना
-4.1436	रंगमंच	-0.4349
-4.6207	रंगवाना
-4.1436	रंगाई	-0.1697
-4.6207	रंगीला
-4.6207	रंगीली
-4.6207	रंगों
-4.6207	रई
-4.3197	रकम
-4.6207	रक्खा
-4.6207	रक्षा
-3.5068	रख	-0.1116
-3.6665	रखकर	-0.0094
-4.1436	रखता	-0.4307
-4.6207	रखती
-4.1436	रखते
-4.0187	रखने	-0.1186
-4.6207	रखवाली
-3.4446	रखा	-0.2445
-3.6207	रखी	-0.0979
-4.3197	रखूँगी
-4.0187	रखे
-4.1436	रखें
-4.0187	रखो
-4.3197	रगड़
-4.6207	रगड़कर
-4.0187	रगड़ी	-0.1243
-4.6207	रचाने
-4.6207	रज़ाई
-4.6207	रज़िया
-4.6207	रजिया
-4.6207	रणधीर
-4.1436	रतन
-4.6207	रद्दी
-4.6207	रफ्ऱतार
-4.0187	रबड़
-4.6207	रबड़ी
-4.6207	रवाना
-4.6207	रविवार
-3.9217	रस	-0.0917
-4.6207	रसीद
-4.6207	रसीले
-4.3197	रसोई
-4.1436	रसोईघर	-0.1697
-4.6207	रस्ता
-4.6207	रस्सा
-4.3197	रस्साकशी
-4.6207	रस्सियों
-3.2985	रस्सी	-0.0783
-3.2228	रह	-0.2565
-4.0187	रहकर
-3.3420	रहता	-0.3730
-3.5068	रहती	-0.2246
-3.3654	रहते	-0.4091
-4.1436	रहना
-3.6207	रहने
-2.5169	रहा	-0.6245
-4.6207	रहित
-2.6812	रही	-0.7369
-4.3197	रहीं
-4.6207	रहूँ
-4.6207	रहूँगा
-2.6079	रहे	-0.7726
-4.1436	रहें
-4.3197	रहेंगे
-4.1436	रहेगा
-4.6207	रहेगी
-4.0187	रहो
-4.6207	रहोगे
-4.1436	राकेट
-4.3197	राक्षसी
-4.1436	राख
-4.1436	राज
-4.6207	राजकुमार
-3.6207	राजकोष	-0.3620
-4.6207	राजधानियों
-4.3197	राजभंडार
-4.6207	राजभंडारी
-4.3197	राजम
-4.6207	राजमहल
-4.1436	राजसभा	-0.4320
-2.8078	राजा	-0.2615
-4.6207	राजाकोट
-4.1436	राज्य
-3.0767	रात	-0.2180
-3.8426	रातों	-0.4395
-4.6207	रात्रि
-4.1436	रानी
-4.6207	राम
-4.6207	रामचंद्र
-3.7176	रास्ता	-0.0566
-3.6207	रास्ते	-0.2172
-4.6207	रास्तों
-3.9217	राह
-4.3197	राहत
-4.6207	रिपोर्ट
-4.3197	रिमझिम
-4.6207	रिसकर
-4.6207	रिसियाते
-4.6207	री
-4.6207	रुआँसे
-4.6207	रुई
-3.7756	रुक	-0.0659
-4.0187	रुककर
-4.6207	रुकता
-4.6207	रुकते
-4.0187	रुका	-0.2779
-4.6207	रुकी
-4.6207	रुके
-4.6207	रुको
-4.6207	रुचि
-3.1583	रुपए	-0.0553
-3.6665	रुपया
-4.3197	रुपये
-4.1436	रुपयों	-0.1683
-4.6207	रुमाल
-4.6207	रूई
-4.6207	रूठूँगा
-4.0187	रूप	-0.1172
-4.6207	रूपहली
-4.1436	रूपहले	-0.1757
-4.6207	रूपों
-3.6207	रे	-0.0435
-4.6207	रेंग
-4.6207	रेंगता
-4.6207	रेंगते
-3.6665	रेडियो	-0.0990
-4.6207	रेती
-3.7176	रेल
-4.1436	रेलगाड़ी
-4.3197	रेलपेला
-4.6207	रेलवे
-4.3197	रेशम
-4.0187	रेशमी	-0.1245
-4.6207	रेशे
-4.3197	रोई
-4.3197	रोक
-4.6207	रोका
-4.6207	रोज
-3.2985	रोज़	-0.1251
-4.3197	रोज़ा
-4.6207	रोज़ाना
-3.7176	रोटियाँ	-0.0659
-4.6207	रोटियांँ
-4.6207	रोटियो
-4.3197	रोटियों	-0.2953
-2.8354	रोटी	-0.1887
-4.1436	रोता
-4.6207	रोती
-4.0187	रोते
-4.6207	रोने
-4.6207	रोला
-4.6207	रोलो
-4.6207	रोशनी
-3.7756	रोहित	-0.0615
-4.6207	रौब
-4.3197	रौबदार
-4.0187	लंबा
-4.6207	लंबाई
-3.4446	लंबी	-0.0843
-3.7756	लंबे
-4.6207	लकदक
-4.3197	लकीरें
-4.1436	लकीरों	-0.1707
-4.6207	लक्ष्य
-3.6665	लकड़ी	-0.1630
-4.6207	लखनऊ
-3.5068	लग	-0.3111
-3.1436	लगता	-0.6106
-3.6207	लगती	-0.2565
-3.7176	लगते	-0.1155
-4.1436	लगने
-4.0187	लगभग
-4.6207	लगवा
-4.6207	लगवाऊँगा
-2.7515	लगा	-0.0681
-3.8426	लगाई	-0.0374
-4.6207	लगाऊँ
-4.0187	लगाए
-4.6207	लगाएँगे
-4.6207	लगाओ
-4.0187	लगाकर	-0.0831
-4.3197	लगाता
-4.1436	लगातार
-4.6207	लगाती
-4.3197	लगाते
-4.3197	लगाना
-3.9217	लगाने
-3.8426	लगाया
-3.0767	लगी	-0.0503
-3.9217	लगीं
-3.0079	लगे	-0.0450
-4.3197	लगें
-4.3197	लगेगा
-4.6207	लगोगे
-4.6207	लचकती
-4.1436	लटक
-4.6207	लटकती
-4.6207	लटकते
-4.6207	लटका
-4.6207	लटकाया
-4.6207	लटके
-4.3197	लठ्ठ
-4.3197	लत्ते
-4.6207	लद्दाख
-4.6207	लद्दाखी
-4.3197	लपक
-4.6207	लपकती
-4.6207	लपके
-4.6207	लपेट
-3.9217	लपेटकर
-4.6207	लपेटे
-4.6207	ललचाया
-4.6207	लस्सी
-4.3197	लहक
-4.6207	लहरा
-4.6207	लहराओ
-4.6207	लहराता
-4.6207	लहराती
-4.6207	लहराते
-4.6207	लहरों
-4.3197	ला
-4.6207	लाइसेंस
-4.0187	लाई	-0.0831
-3.9217	लाऊँगा	-0.3371
-4.3197	लाए
-4.6207	लाएगा
-3.6665	लाओ	-0.0509
-4.1436	लाकर
-4.0187	लाके	-0.4871
-4.0187	लाख
-4.1436	लाखों
-4.6207	लाचार
-4.3197	लाठी
-4.6207	लाडला
-4.1436	लाता	-0.1670
-4.0187	लाते	-0.2815
-3.9217	लाना
-4.6207	लानी
-3.9217	लाने
-4.6207	लापता
-4.6207	लापरवाही
-4.6207	लाभ
-4.0187	लाभुबेन	-0.1172
-4.6207	लायक
-3.8426	लाया	-0.1662
-2.9975	लाल	-0.1299
-4.3197	लालच
-4.6207	लालिमा
-3.7756	लालू	-0.0615
-2.5169	लिए	-0.0775
-4.3197	लिख
-4.6207	लिखकर
-4.6207	लिखती
-4.3197	लिखना
-4.1436	लिखने
-3.7176	लिखा	-0.3395
-4.1436	लिखे
-4.3197	लिखो
-4.3197	लिपटा
-4.6207	लिपे
-4.6207	लिफाफे
-4.6207	लिफाफों
-3.0525	लिया	-0.1592
-4.6207	लिहाज़ा
-3.3654	ली	-0.0700
-4.3197	लीं
-4.3197	लीजिए
-4.6207	लुटा
-4.6207	लुटी
-4.6207	लुटेरों
-4.6207	लू
-3.9217	लूँ
-3.5415	लूँगा	-0.0690
-4.6207	लूँगी
-4.6207	लूटूँ
-2.7634	ले	-0.1972
-3.7176	लें
-3.7756	लेंगे
-2.9580	लेकर	-0.0275
-2.8078	लेकिन	-0.0705
-4.6207	लेके
-4.0187	लेगा
-4.6207	लेगी
-4.3197	लेट
-4.6207	लेटा
-4.6207	लेटे
-3.5068	लेता	-0.2047
-3.9217	लेती	-0.0880
-3.5415	लेते	-0.2648
-3.9217	लेना
-3.4166	लेने	-0.1359
-4.3197	लै
-3.1436	लो	+0.0270
-2.7819	लोग	-0.1228
-4.6207	लोगी
-4.6207	लोगे
-3.0644	लोगों	-0.4598
-4.3197	लोटा
-4.6207	लोटे
-3.4446	लोनपो	-0.3003
-4.6207	लोभी
-3.4166	लोमड़ी	-0.0740
-4.6207	लोहड़ी
-4.3197	लौंग
-3.6207	लौट	-0.0952
-4.6207	लौटकर
-4.3197	लौटना
-4.3197	लौटने
-3.9217	लड़	-0.0957
-4.0187	लड़का
-4.3197	लड़कियाँ
-4.6207	लड़कियों
-3.2783	लड़की	-0.1432
-3.7756	लड़के	-0.0252
-4.1436	लड़कों
-4.6207	लड़खड़ा
-4.6207	लड़खड़ाए
-4.6207	लड़ती
-4.6207	लड़ने
-4.6207	लड़ाई
-4.6207	लड़ी
-4.6207	लड़े
-4.6207	व
-4.3197	वंश
-3.2783	वक्त	-0.0171
-4.6207	वगैरह
-4.3197	वचन
-4.1436	वजह	-0.4319
-4.0187	वन	-0.1173
-4.6207	वनस्पति
-4.6207	वयस्क
-4.6207	वर
-4.6207	वरदान
-3.7756	वरना	-0.0641
-4.6207	वरली
-4.6207	वर्क
-4.6207	वर्गाकार
-4.3197	वर्णन
-4.3197	वर्दी
-4.6207	वर्ध
-4.6207	वर्मा
-4.3197	वर्ष
-4.1436	वर्षा
-4.6207	वर्षों
-4.6207	वसंत
-4.3197	वस्तु
-4.6207	वस्त्र
-4.6207	वस्त्रों
-2.1568	वह	-0.0911
-2.9305	वहाँ	-0.1833
-3.9217	वही	-0.0946
-3.3654	वहीं	-0.0044
-4.3197	वाकई
-4.6207	वातावरण
-4.3197	वादा
-4.6207	वादियों
-3.6207	वापस
-4.0187	वापिस
-4.6207	वायल
-4.6207	वायुयान
-4.1436	वार	-0.1753
-3.2590	वाला	-0.0306
-3.2985	वाली	-0.0424
-3.1583	वाले	-0.0266
-4.3197	वालों
-4.6207	वास्तव
-3.8426	वाह
-4.6207	विकास
-4.6207	विख्यात
-4.1436	विचार
-4.6207	विचारने
-4.6207	विचारों
-4.6207	विजयी
-4.6207	विजेता
-4.6207	विद्या
-4.6207	विद्यार्थी
-4.6207	विद्वान
-4.6207	विनती
-4.3197	विभाग
-4.6207	विमला
-4.3197	विरोध
-4.6207	विवश
-4.6207	विशाल
-4.6207	विशालकाय
-4.1436	विशेष
-4.6207	विश्व
-3.8426	विश्वास
-4.6207	विष
-3.9217	विषय
-4.3197	वीटी
-4.6207	वीतर
-4.6207	वीरान
-3.5415	वीरू	-0.2714
-4.3197	वृक्ष
-4.6207	वृक्षों
-2.7574	वे	-0.0908
-4.6207	वेग
-4.0187	वैसा	-0.1218
-4.6207	वैसी
-3.9217	वैसे	-0.0926
-3.8426	वो	-0.0761
-4.6207	वौदा
-4.0187	व्यक्ति	-0.1194
-4.6207	व्यक्तित्व
-4.6207	व्यवस्था
-3.9217	व्यवहार	-0.0551
-4.6207	व्यस्त
-4.6207	व्यापारियों
-4.6207	शंजीर
-3.6665	शंटिंग	-0.1543
-4.6207	शक्कर
-4.6207	शनिवार
-4.1436	शब्द
-4.6207	शब्दों
-4.6207	शरमाई
-4.6207	शरमाते
-3.8426	शरारत	-0.0790
-3.8426	शरीर
-4.3197	शर्त
-4.3197	शर्म
-4.6207	शर्मिंदा
-4.6207	शर्मिदा
-3.3197	शहर	-0.0724
-3.9217	शहरों	-0.2015
-4.3197	शांति
-4.6207	शाखें
-4.6207	शाखों
-4.1436	शादी
-3.9217	शान	-0.2014
-3.7176	शाब	-0.0163
-3.7176	शाम	-0.1134
-4.6207	शामिल
-3.3654	शायद	-0.0486
-4.6207	शार्पनर
-4.6207	शाह
-4.6207	शाहज़ादा
-4.6207	शाही
-4.6207	शिकनें
-3.8426	शिकार
-4.1436	शिकारियों
-3.5068	शिकारी	-0.0705
-4.6207	शिखरों
-4.6207	शिद्दी
-4.6207	शिमला
-4.3197	शिले
-4.3197	शिल्पकार
-4.6207	शिवदास
-4.6207	शीश
-4.6207	शुक्र
-4.6207	शुक्रवार
-4.1436	शुक्रिया
-4.6207	शुभ
-4.1436	शुरुआत
-3.2590	शुरू	-0.2716
-4.0187	शूँ	-0.2817
-4.1436	शेड	-0.1341
-2.9773	शेर	-0.2814
-4.6207	शेरवा
-4.1436	शेरों
-4.6207	शेव
-4.6207	शैतानी
-4.6207	शैली
-4.3197	शोभा
-3.7756	शोर	-0.0588
-4.6207	शोरगुल
-4.3197	शौक
-4.6207	श्यादा
-4.3197	श्रीमान	-0.2999
-4.6207	सँभल
-4.6207	सँभलकर
-4.1436	सँभाल
-4.6207	सँभालकर
-4.6207	सँभालना
-4.6207	सँवारे
-4.6207	संकट
-4.6207	संक्रांत
-3.7756	संक्रांति	-0.1947
-4.3197	संख्या
-4.3197	संग
-4.1436	संगतराश
-4.6207	संगतराशों
-4.6207	संगी
-4.6207	संचार
-4.6207	संतरा
-4.0187	संतरी	-0.1194
-4.6207	संतान
-4.6207	संतानें
-4.6207	संतुष्ट
-4.6207	संतों
-4.6207	संतोष
-4.6207	संतोषजनक
-4.6207	संथाल
-3.4446	संदेश	-0.0299
-4.3197	संदेशवाहक
-4.3197	संदेह
-3.3903	संन्यासी	-0.1857
-4.6207	संभव
-4.6207	संभालो
-4.6207	संयोग
-3.7756	संसार	-0.0607
-4.6207	संस्थान
-3.0187	सकता	-0.6892
-3.4166	सकती	-0.3016
-4.6207	सकतीं
-3.2590	सकते	-0.4223
-4.6207	सकपका
-4.1436	सका	-0.1341
-4.6207	सकारे
-4.6207	सकी
-4.6207	सकीं
-3.8426	सके	-0.0374
-4.1436	सकें	-0.1701
-4.6207	सकेगा
-4.3197	सकोगे
-4.6207	सक्कू
-4.6207	सख्त
-4.6207	सघन
-3.6665	सच
-3.8426	सचमुच	-0.0374
-4.6207	सचानी
-4.3197	सज़ा
-4.3197	सजाए
-4.6207	सजाओ
-4.6207	सजाकर
-4.3197	सजाया	-0.2971
-4.6207	सजावट
-4.6207	सज्जन
-4.6207	सटका
-4.6207	सटाओ
-4.6207	सटी
-4.3197	सत्कार
-4.6207	सत्याग्रह
-4.6207	सदस्य
-4.1436	सदा
-4.6207	सदियों
-4.6207	सधाए
-4.6207	सनसे
-4.6207	सने
-4.6207	सन्
-4.6207	सन्नाटा
-4.3197	सन्नाटे	-0.2930
-4.6207	सपना
-4.6207	सपने
-4.3197	सपाट
-4.6207	सपाटा
-4.6207	सप्ताह
-4.6207	सफर
-4.0187	सफ़र
-4.3197	सफ़ाई
-3.1436	सफ़ेद	-0.3864
-2.7457	सब	-0.2322
-3.7756	सबक	-0.0668
-4.6207	सबका
-4.3197	सबकी
-3.9217	सबके	-0.0958
-3.7756	सबको
-4.0187	सबने
-3.4746	सबसे	-0.0994
-4.1436	सबूत
-4.3197	सबेरे
-3.7176	सब्ज़ी
-4.6207	सब्र
-2.9580	सभी	-0.1473
-3.1894	समझ	-0.2932
-4.6207	समझकर
-4.1436	समझता	-0.1743
-4.6207	समझती
-4.1436	समझते
-4.3197	समझदारी
-4.6207	समझना
-4.6207	समझने
-4.1436	समझा
-4.6207	समझाई
-4.6207	समझाकर
-4.6207	समझाती
-4.6207	समझाते
-4.6207	समझाने
-4.0187	समझाया
-4.6207	समझूगा
-4.3197	समझे
-4.6207	समझें
-4.3197	समझो
-4.6207	समझौता
-4.6207	समतल
-2.9975	समय	-0.0487
-4.1436	समरसिंह
-3.9217	समस्या	-0.0949
-4.6207	समस्याओं
-4.6207	समा
-4.6207	समाए
-4.6207	समाज
-4.1436	समान
-4.1436	समाप्त
-4.6207	समाया
-4.6207	समुंदर
-3.7756	समुद्र	-0.1303
-4.6207	समेटे
-4.6207	समेटेंगे
-4.6207	समेत
-4.6207	सम्मान
-3.5793	सर	-0.7399
-4.6207	सरई
-4.3197	सरक
-4.6207	सरकते
-4.6207	सरकाए
-4.6207	सरकाकर
-4.1436	सरकार	-0.1677
-4.6207	सरपंच
-4.0187	सरपट
-4.6207	सरल
-3.6665	सरला
-4.6207	सरसरा
-4.6207	सरसराहट
-4.1436	सरहुल
-4.3197	सरा
-4.6207	सरासर
-4.6207	सर्द
-4.6207	सर्दियों
-4.3197	सलाम
-4.6207	सलामत
-4.3197	सलाह	-0.2999
-3.4746	सलीम	-0.2092
-4.6207	सल्तनत
-4.0187	सवार
-4.3197	सवारी
-3.7176	सवाल	-0.1204
-3.9217	सवालों	-0.3291
-4.6207	सवेरा
-4.6207	सस्ता
-4.6207	सस्ती
-4.1436	सस्ते
-4.6207	सहमकर
-4.6207	सहलाते
-4.6207	सहलाना
-4.6207	सहलाया
-4.0187	सहायता
-3.9217	सहारा
-4.0187	सहारे
-4.6207	सहित
-3.5415	सही
-4.3197	सहेलियाँ
-4.6207	स़फेद
-3.3197	सा	-0.0019
-4.3197	साँझ
-3.5068	साँप	-0.1319
-3.9217	साँस	-0.0966
-4.6207	साँसों
-4.6207	सांँझ
-4.3197	साइकिल	-0.2959
-4.6207	साए
-4.0187	साग
-4.1436	सागर
-4.3197	साठ
-3.9217	सात	-0.0962
-2.6762	साथ	-0.0665
-3.7756	साथियों	-0.1332
-4.3197	साथी
-4.1436	सादा
-4.6207	सादी
-4.3197	साध	-0.2948
-4.6207	साधता
-4.1436	साधन
-4.6207	साधु
-4.6207	साधे
-4.6207	सान
-4.6207	सानना
-4.0187	सानेंगे
-4.6207	सापड़
-3.6665	साफ़	-0.1033
-4.3197	साबरमती
-4.1436	साबित
-4.6207	साबुत
-4.6207	साबुन
-4.6207	सामग्री
-3.0297	सामने	-0.0799
-4.6207	सामा
-3.9217	सामान
-3.2590	सारंगी	-0.1555
-3.3197	सारा	-0.0493
-3.6207	सारी	-0.0965
-3.2057	सारे	-0.0923
-3.2985	साल	-0.1862
-4.3197	सालन
-4.6207	साला
-4.6207	सालों
-4.6207	सावधानी
-4.6207	सावधानीपूर्वक
-4.3197	सावन
-3.0892	साहब	-0.1244
-4.6207	साहस
-3.6665	साड़ी
-4.6207	साढ़े
-4.6207	सिंह
-4.1436	सिंहासन
-4.6207	सिकोड़
-4.6207	सिकोड़कर
-4.6207	सिकोड़ो
-4.1436	सिक्के
-4.3197	सिखा
-4.6207	सिखाऊँ
-4.6207	सिखाओगे
-4.6207	सिखाने
-4.1436	सिखाया
-3.7756	सितारे
-4.6207	सितारों
-4.6207	सिधा
-4.6207	सिनेमा
-3.8426	सिपाही
-4.6207	सिमटकर
-4.6207	सियार
-3.1436	सिर	-0.1855
-4.6207	सिरहाने
-4.6207	सिरा
-3.9217	सिरे	-0.0917
-3.3654	सिर्फ	-0.0658
-4.3197	सिर्फ़
-4.1436	सिल
-4.6207	सिलसिले
-4.6207	सिलोगे
-4.6207	सिसियाते
-3.1583	सी	+0.0259
-4.3197	सींग
-3.9217	सीकरी	-0.2015
-3.7756	सीख	-0.0252
-4.6207	सीखते
-4.6207	सीखना
-4.6207	सीखने
-4.3197	सीखा
-4.1436	सीट	-0.4349
-4.1436	सीटी
-4.3197	सीताफल
-4.6207	सीध
-4.3197	सीधा
-4.3197	सीधी
-4.6207	सीधीसी
-4.0187	सीधे
-4.3197	सीने	-0.2929
-4.6207	सीमा
-4.6207	सीमित
-4.6207	सीले
-4.6207	सीढ़ियों
-3.9217	सीढ़ी	-0.2044
-4.6207	सीढ़ीनुमा
-3.3197	सुंदर	-0.0220
-4.6207	सुंदरसा
-4.6207	सुआ
-4.1436	सुई
-4.6207	सुकून
-4.3197	सुखाकर
-4.6207	सुगंधित
-4.6207	सुझाव
-4.6207	सुतली
-4.6207	सुदरता
-4.0187	सुधीर
-3.8426	सुन	-0.1650
-3.2057	सुनकर	-0.0091
-4.6207	सुनता
-3.7756	सुनते	-0.3399
-4.1436	सुनना
-4.1436	सुनने
-4.6207	सुनहरी
-4.0187	सुनहरे	-0.1191
-3.8426	सुना
-3.3903	सुनाई	-0.1598
-4.6207	सुनाऊँ
-4.6207	सुनाएँ
-4.3197	सुनाओ
-4.6207	सुनाता
-4.6207	सुनाती
-4.6207	सुनानी
-4.6207	सुनाया
-3.8426	सुनी
-3.1294	सुनीता	-0.2689
-4.0187	सुनील
-4.3197	सुनूँगा
-4.6207	सुनेगा
-3.9217	सुनो
-4.6207	सुपारी
-3.0644	सुबह	-0.1063
-4.6207	सुयश
-4.6207	सुरक्षा
-4.3197	सुरक्षित
-4.0187	सुर्र	-0.1247
-4.3197	सुलमान
-4.6207	सुलाओ
-3.7756	सुलेमान	-0.1324
-4.3197	सुविधा
-4.6207	सुस्ता
-4.6207	सुस्ताता
-4.6207	सुस्ताने
-4.6207	सुस्ती
-4.0187	सू
-4.0187	सूँ	-0.1247
-4.1436	सूँड़
-4.1436	सूख
-4.3197	सूखी
-4.6207	सूखे
-4.6207	सूचना
-4.6207	सूची
-4.3197	सूझा
-4.0187	सूझी	-0.1235
-4.6207	सूत
-4.6207	सूप
-4.6207	सूपड़
-3.3197	सूरज	-0.0944
-4.6207	सूरत
-4.3197	सूर्य
-1.7658	से	-0.1016
-4.6207	सेंकने
-4.6207	सेट
-3.6665	सेठ	-0.0982
-4.3197	सेठजी
-3.9217	सेना	-0.3371
-4.6207	सेनापति
-4.6207	सेबों
-4.6207	सेमल
-3.7176	सेर
-4.3197	सेवा
-4.3197	सेवाओं
-4.6207	सैकड़ों
-4.0187	सैर
-4.6207	सैरसपाटों
-4.6207	सैलाब
-3.3903	सो	-0.0998
-3.7176	सोई	-0.0768
-4.3197	सोए
-4.6207	सोओगे
-4.6207	सोकर
-3.4446	सोच	-0.1592
-3.7176	सोचकर
-4.6207	सोचता
-4.1436	सोचती
-3.7756	सोचते	-0.1010
-4.3197	सोचना
-3.4446	सोचने	-0.2150
-3.0525	सोचा	-0.1066
-4.3197	सोची
-4.1436	सोचो
-4.6207	सोचोगी
-4.3197	सोता
-4.6207	सोते
-4.3197	सोना
-3.6207	सोने	-0.2373
-4.6207	सोफ़े
-4.6207	सोमवार
-4.1436	सोया	-0.1751
-4.3197	सोलह
-3.3654	सौ	-0.1607
-4.6207	सौंप
-4.6207	सौंपकर
-4.3197	सौदा
-4.6207	सौनगवसैन
-3.9217	स्कूटर	-0.2009
-3.4746	स्कूल	-0.2223
-4.1436	स्कूलों
-4.3197	स्केच
-4.6207	स्टेडियम
-4.0187	स्टेशन	-0.0831
-4.3197	स्त्रियाँ
-4.3197	स्त्री
-3.9217	स्थान
-4.6207	स्थापना
-4.3197	स्थिति	-0.2930
-4.6207	स्थिर
-4.1436	स्नान
-4.6207	स्पर्श
-4.6207	स्पष्ट
-4.6207	स्फूर्ती
-4.6207	स्याही
-4.3197	स्वगत
-4.6207	स्वतंत्रा
-4.3197	स्वतंत्राता	-0.2924
-4.3197	स्वयं
-4.1436	स्वर
-4.6207	स्वस्थ
-3.7756	स्वागत
-3.9217	स्वाद
-4.6207	स्वादिष्ट
-3.9217	स्वामीनाथन
-4.3197	स्वीकार
-4.1436	स्वेटर
-4.6207	सड़
-3.4446	सड़क	-0.2011
-4.3197	सड़कों
-3.9217	हँस	-0.3370
-4.0187	हँसकर	-0.1224
-4.3197	हँसता	-0.2997
-4.6207	हँसती
-3.5793	हँसते	-0.1211
-4.3197	हँसने
-3.7756	हँसा	-0.0980
-4.1436	हँसी
-4.3197	हँसे
-4.1436	हआ
-4.0187	हई
-3.6665	हए	-0.1066
-3.7176	हक	-0.0576
-4.6207	हक्के
-3.5415	हज़ार	-0.1662
-4.1436	हज़ारों	-0.1755
-4.6207	हजामिन
-3.6665	हट	-0.1083
-4.6207	हटती
-4.6207	हटते
-4.6207	हटा
-4.6207	हटाए
-4.6207	हटाने
-4.3197	हटाया
-4.6207	हटी
-4.6207	हठ
-4.6207	हड्डियों
-4.6207	हथियाने
-4.6207	हथियार
-4.3197	हथेलियाँ
-4.6207	हथेली
-4.3197	हथौड़ा	-0.3002
-3.9217	हथौड़े	-0.0892
-4.6207	हथौड़ों
-4.6207	हफ्ते
-2.8354	हम	-0.0073
-4.3197	हमको
-3.7756	हमने	-0.0667
-4.3197	हमला
-4.3197	हमले
-4.3197	हमसे
-3.6207	हमारा	-0.0448
-3.5793	हमारी	+0.0003
-3.2405	हमारे	-0.0743
-3.1583	हमें
-3.6665	हमेशा
-3.2057	हर	-0.0633
-4.6207	हरकत
-4.3197	हरकारे
-4.1436	हरकारों
-4.6207	हरगिज़
-3.8426	हरा
-4.6207	हराया
-4.6207	हरियाली
-3.9217	हरी	-0.2088
-4.3197	हरीरा
-3.9217	हरे	-0.0967
-4.6207	हर्ज
-4.6207	हर्ज़
-4.6207	हर्जाना
-4.6207	हर्षाओ
-4.1436	हल
-4.6207	हलवा
-4.0187	हलीम	-0.1194
-4.6207	हलुआ
-4.1436	हल्का
-4.6207	हल्कासा
-4.1436	हल्की
-4.6207	हल्कीसी
-4.3197	हल्के
-4.1436	हल्दी
-3.5415	हल्लम	-0.5031
-4.3197	हल्लर
-4.6207	हल्ला
-3.3654	हवा	-0.1304
-4.3197	हवाई
-4.6207	हवाएँ
-4.6207	हवादार
-4.3197	हवाले
-4.3197	हवास
-3.6665	हा	-0.2926
-2.9773	हाँ	-0.0568
-4.3197	हाँक
-4.6207	हाँफते
-4.3197	हांडी
-4.0187	हाउस	-0.1167
-4.6207	हाज़िरजवाबी
-4.6207	हाट
-2.9131	हाथ	-0.1709
-3.3903	हाथी	-0.0980
-3.5415	हाथों	-0.2032
-4.6207	हादसे
-4.3197	हाय
-4.3197	हार
-4.6207	हारकर
-4.6207	हारा
-3.7756	हाल
-4.6207	हालत
-4.3197	हालर
-4.6207	हालाँकि
-4.6207	हालात
-4.6207	हाव
-4.6207	हासिल
-4.6207	हिंदी
-4.3197	हिंदुस्तान
-4.6207	हिकमत
-4.6207	हिदायत
-4.6207	हिन्दी
-4.6207	हिम
-4.1436	हिमालय	-0.1697
-3.7756	हिम्मत	-0.1000
-4.6207	हिरन
-4.6207	हिलता
-4.6207	हिलना
-4.3197	हिला
-4.6207	हिलाए
-4.1436	हिलाकर
-4.6207	हिलाती
-4.6207	हिलाते
-4.0187	हिलाया	-0.1191
-4.6207	हिले
-4.6207	हिलेडुले
-3.5068	हिसाब	-0.1128
-3.7756	हिस्सा
-4.6207	हिस्से
-4.3197	हिस्सों	-0.2930
-2.1751	ही	-0.1152
-4.6207	हीरो
-4.6207	हुँ
-2.7882	हुआ	-0.0979
-4.3197	हुआँ
-2.9675	हुई	-0.0519
-4.6207	हुईं
-2.5488	हुए	-0.1654
-3.5793	हुक्म	-0.1470
-4.0187	हुज़ूर	-0.1231
-4.6207	हुज़ूरेआली
-3.9217	हुदहुद
-3.8426	हुदहुदों	-0.2516
-4.6207	हुनर
-4.1436	हुप	-0.1758
-4.6207	हुशूरे
-4.3197	हुसैन	-0.3001
-2.4746	हूँ	-0.1741
-4.6207	हूँगा
-4.6207	हूबहू
-4.3197	हूमर
-4.6207	हे
-1.6985	है	-0.2247
-2.1659	हैं	-0.1014
-4.6207	हैंझक
-4.6207	हैके
-4.1436	हैरान
-4.0187	हैरानी	-0.1172
-4.1436	हैलो	-0.1341
-2.2245	हो	-0.3433
-4.1436	हों
-4.3197	होंगी
-3.6665	होंगे	-0.0619
-4.3197	होंठो
-4.6207	होंठों
-3.1736	होकर	-0.0048
-4.6207	होखस
-3.2590	होगा	-0.0568
-3.6207	होगी	-0.0434
-4.6207	होगे
-4.6207	होगें
-4.0187	होठों	-0.2773
-2.9675	होता	-0.4758
-3.4166	होती	-0.2704
-3.1436	होते	-0.2967
-4.6207	होनी
-3.3420	होने	-0.1737
-4.6207	होम
-4.0187	होश	-0.1247
-4.6207	होशियारी
-3.9217	हौदा	-0.6273
-4.6207	हड़पा
-4.6207	हड़बड़ाता
-4.6207	हड़बड़ी
-4.6207	ख़याल
-4.6207	‘कर’

\2-grams:
-0.3016	</s> <s>
-3.5814	<s> अकबर
-3.1495	<s> अगर
-3.5814	<s> अगले
-3.5814	<s> अचकन
-3.1495	<s> अच्छा
-3.1495	<s> अच्छी
-3.5814	<s> अजीब
-3.5814	<s> अधिक
-2.6777	<s> अपना
-2.5808	<s> अपनी
-2.4347	<s> अपने
-2.3767	<s> अब
-3.5814	<s> अभिनय
-3.5814	<s> अभी
-2.9986	<s> अम्मा
-3.5814	<s> अम्मी
-3.2999	<s> अरे
-3.5814	<s> अलग
-3.5814	<s> अलमारी
-3.2999	<s> अवंती
-2.5808	<s> आ
-3.5814	<s> आइसक्रीम
-3.2999	<s> आई
-3.5814	<s> आए
-3.5814	<s> आओ
-3.2999	<s> आकर
-2.6777	<s> आज
-3.5814	<s> आटा
-3.5814	<s> आटे
-3.2999	<s> आता
-3.5814	<s> आती
-3.5814	<s> आते
-3.5814	<s> आप
-2.9986	<s> आया
-3.5814	<s> आलू
-2.5394	<s> आवाज़
-3.5814	<s> इंसान
-3.1495	<s> इतना
-3.2999	<s> इतनी
-3.1495	<s> इतने
-3.2999	<s> इधर
-2.9986	<s> इन
-3.5814	<s> इन्हें
-3.5814	<s> इला
-2.5016	<s> इस
-3.5814	<s> इसके
-3.5814	<s> इसने
-2.8386	<s> इसलिए
-3.5814	<s> इसीलिए
-2.9986	<s> इसे
-3.5814	<s> उठकर
-3.2999	<s> उठाकर
-3.5814	<s> उन
-3.5814	<s> उनका
-3.2999	<s> उनकी
-3.2999	<s> उनके
-3.2999	<s> उनसे
-2.6777	<s> उन्हें
-3.5814	<s> उपयोग
-3.5814	<s> उबातुन
-2.6266	<s> उस
-3.5814	<s> उसका
-3.2999	<s> उसकी
-2.9361	<s> उसके
-2.4669	<s> उसने
-3.2999	<s> उससे
-3.5814	<s> उसी
-2.5808	<s> उसे
-3.5814	<s> उड़
-3.5814	<s> उड़ी
-3.5814	<s> ऊँची
-3.2999	<s> ऊँट
-3.2999	<s> ऊपर
-2.0493	<s> एक
-3.1495	<s> एकदम
-3.1495	<s> एक्की
-3.1495	<s> ऐसा
-2.9361	<s> ओर
-1.8174	<s> और
-3.5814	<s> औसत
-2.9361	<s> कई
-3.5814	<s> कद
-3.1495	<s> कपड़े
-2.9361	<s> कभी
-3.5814	<s> कम
-3.5814	<s> कमरे
-3.5814	<s> कमी
-2.2586	<s> कर
-2.6777	<s> करके
-3.2999	<s> करता
-3.1495	<s> करती
-2.8386	<s> करते
-2.9986	<s> करने
-3.2999	<s> करेंगे
-3.2999	<s> करो
-3.5814	<s> कविता
-3.5814	<s> कहते
-2.2006	<s> कहा
-3.2999	<s> कहाँ
-2.9361	<s> कहीं
-2.0010	<s> का
-3.2999	<s> कागज़
-3.2999	<s> कान
-2.6266	<s> काम
-3.5814	<s> कारण
-3.5814	<s> काली
-2.2586	<s> कि
-3.5814	<s> कितना
-3.5814	<s> कितनी
-3.5814	<s> कितने
-3.5814	<s> किताब
-3.2999	<s> किनारे
-2.9986	<s> किया
-3.5814	<s> किस
-3.5814	<s> किसने
-3.1495	<s> किसी
-1.8404	<s> की
-2.2798	<s> कुछ
-3.2999	<s> कुम्मी
-1.6887	<s> के
-2.9986	<s> केशव
-3.5814	<s> कैसा
-2.6777	<s> कैसे
-2.0245	<s> को
-2.5016	<s> कोई
-2.9361	<s> कोको
-3.2999	<s> कोट
-3.2999	<s> कौन
-2.3021	<s> क्या
-2.6266	<s> क्यों
-3.2999	<s> क्योंकि
-3.5814	<s> खता
-3.5814	<s> खरीदा
-3.5814	<s> खाई
-3.5814	<s> खाना
-2.9361	<s> खाने
-3.5814	<s> खाली
-3.2999	<s> खास
-3.2999	<s> खिलाते
-3.5814	<s> खेल
-3.5814	<s> खड़
-3.5814	<s> खड़ा
-2.3767	<s> गई
-2.6266	<s> गए
-2.3504	<s> गया
-3.5814	<s> गर्दन
-3.5814	<s> गलती
-3.1495	<s> गाँव
-3.5814	<s> गांधी
-3.5814	<s> गाय
-3.5814	<s> गिर
-3.5814	<s> गुस्से
-2.9361	<s> गेंद
-2.9361	<s> घर
-3.5814	<s> घुड़सवार
-3.5814	<s> चक्कर
-2.9986	<s> चल
-3.5814	<s> चलते
-3.1495	<s> चलने
-3.5814	<s> चला
-3.2999	<s> चले
-3.5814	<s> चल्लम
-3.5814	<s> चाँद
-3.5814	<s> चार
-3.5814	<s> चारों
-3.5814	<s> चाहते
-3.2999	<s> चाहा
-3.5814	<s> चुन्नू
-3.2999	<s> चुहिया
-3.2999	<s> चूहा
-3.1495	<s> चूहे
-3.5814	<s> चेला
-3.5814	<s> चेहरा
-2.9986	<s> छोटी
-3.5814	<s> छड़ी
-3.5814	<s> जंगल
-3.1495	<s> जगह
-2.8386	<s> जब
-3.5814	<s> जल
-2.9986	<s> जल्दी
-3.1495	<s> जवाब
-3.5814	<s> ज़रा
-3.1495	<s> ज़रूर
-3.5814	<s> ज़िंदगी
-3.1495	<s> ज़ोर
-2.9361	<s> जा
-3.2999	<s> जाएँ
-3.2999	<s> जाएगी
-3.5814	<s> जाओ
-2.9361	<s> जाकर
-3.1495	<s> जाता
-3.1495	<s> जाती
-3.2999	<s> जाते
-3.5814	<s> जानवर
-3.2999	<s> जाना
-2.9361	<s> जाने
-2.6777	<s> जी
-2.9986	<s> जैसे
-2.6777	<s> जो
-3.5814	<s> जौ
-3.5814	<s> झपटी
-3.2999	<s> झाड़ू
-3.5814	<s> टिंकू
-3.5814	<s> टोकरी
-3.1495	<s> ठीक
-3.5814	<s> डर
-3.5814	<s> डाँटते
-3.5814	<s> डाली
-2.9361	<s> तक
-3.5814	<s> तब
-3.1495	<s> तभी
-3.5814	<s> तरफ
-3.1495	<s> तरफ़
-2.8386	<s> तरह
-3.5814	<s> ताकत
-3.5814	<s> तिनसू
-3.2999	<s> तीतर
-3.2999	<s> तीन
-2.4669	<s> तुम
-3.2999	<s> तुम्हारी
-2.9986	<s> तुम्हें
-3.2999	<s> तेज़
-3.5814	<s> तैयार
-1.9897	<s> तो
-2.0894	<s> था
-2.4047	<s> थी
-2.9986	<s> थीं
-2.2586	<s> थे
-3.5814	<s> थोड़ा
-3.5814	<s> दंग
-3.5814	<s> दत्ता
-3.2999	<s> दरवाज़ा
-3.5814	<s> दादी
-3.5814	<s> दाल
-3.5814	<s> दिखाई
-2.5808	<s> दिन
-3.1495	<s> दिनेश
-3.2999	<s> दिनों
-2.5808	<s> दिया
-3.2999	<s> दी
-3.2999	<s> दीपक
-3.5814	<s> दुकान
-3.2999	<s> दुकानदार
-3.5814	<s> दूँ
-3.5814	<s> दूध
-3.2999	<s> दूर
-3.5814	<s> दूसरा
-2.6777	<s> दे
-3.5814	<s> देख
-3.1495	<s> देखकर
-3.1495	<s> देखने
-2.6777	<s> देखा
-3.5814	<s> देखिए
-3.2999	<s> देता
-3.5814	<s> देने
-3.2999	<s> देर
-2.5394	<s> दो
-2.6777	<s> दोनों
-3.2999	<s> दोस्त
-3.2999	<s> धनी
-3.2999	<s> धीरे
-3.5814	<s> धोकर
-3.5814	<s> ध्यान
-3.5814	<s> धड़ाम
-2.5394	<s> न
-3.5814	<s> नल
-2.9986	<s> नसीरूद्दीन
-2.0623	<s> नहीं
-3.1495	<s> ना
-3.2999	<s> नाई
-3.2999	<s> नाम
-3.2999	<s> नारियल
-2.9361	<s> निकल
-3.2999	<s> निकाल
-3.5814	<s> निशाना
-2.8386	<s> नीचे
-1.7955	<s> ने
-3.5814	<s> पंडित
-3.5814	<s> पकड़
-3.1495	<s> पता
-3.2999	<s> पत्तों
-3.2999	<s> पत्र
-1.9087	<s> पर
-3.5814	<s> पसंद
-3.1495	<s> पहले
-3.5814	<s> पहिया
-3.5814	<s> पहुँचा
-3.5814	<s> पहुँचे
-3.5814	<s> पाती
-3.1495	<s> पानी
-3.2999	<s> पापा
-3.5814	<s> पापड़
-2.9361	<s> पास
-3.1495	<s> पिता
-3.1495	<s> पीछे
-3.2999	<s> पूँछ
-3.5814	<s> पूछा
-3.1495	<s> पूरा
-3.1495	<s> पूरी
-3.5814	<s> पूरे
-3.5814	<s> पेट
-2.9986	<s> पेड़
-3.5814	<s> पैदल
-3.2999	<s> पैर
-3.1495	<s> पैसे
-3.5814	<s> प्रदेश
-3.2999	<s> पड़
-3.5814	<s> पड़ता
-3.2999	<s> पड़ा
-3.5814	<s> पड़ेगा
-2.5016	<s> फिर
-3.5814	<s> फेंक
-3.5814	<s> फैसला
-2.9986	<s> बंदर
-3.2999	<s> बची
-3.2999	<s> बच्चा
-2.6266	<s> बच्चे
-3.1495	<s> बच्चों
-3.5814	<s> बजती
-3.5814	<s> बता
-3.5814	<s> बताया
-3.5814	<s> बदलाव
-3.5814	<s> बन
-3.5814	<s> बनता
-3.2999	<s> बना
-3.2999	<s> बनाया
-3.5814	<s> बर्तन
-2.9986	<s> बस
-2.4347	<s> बहुत
-2.9986	<s> बाघ
-2.9361	<s> बात
-3.2999	<s> बाद
-3.5814	<s> बादशाह
-3.5814	<s> बाबा
-2.8386	<s> बार
-3.2999	<s> बाल
-3.2999	<s> बाहर
-3.5814	<s> बिजली
-3.5814	<s> बित्तो
-3.5814	<s> बिना
-3.2999	<s> बिन्नी
-2.8386	<s> बिल्ली
-3.5814	<s> बीस
-3.5814	<s> बूढ़ी
-3.5814	<s> बेच
-3.1495	<s> बैठ
-3.5814	<s> बैठकर
-3.1495	<s> बैठा
-3.5814	<s> बैठी
-2.9986	<s> बोला
-3.5814	<s> बोली
-3.5814	<s> बोले
-2.9361	<s> बड़ा
-3.5814	<s> बड़े
-3.1495	<s> बढ़
-3.5814	<s> बढ़िया
-3.5814	<s> बढ़े
-3.5814	<s> भर
-3.2999	<s> भाई
-3.5814	<s> भागने
-3.5814	<s> भालू
-3.5814	<s> भाव
-2.1037	<s> भी
-2.9986	<s> भीखूभाई
-3.5814	<s> भीतर
-3.5814	<s> भेज
-3.5814	<s> भैया
-3.2999	<s> मंत्री
-2.9986	<s> मगर
-3.5814	<s> मदद
-3.1495	<s> मन
-2.8386	<s> महाराज
-2.5808	<s> माँ
-3.2999	<s> मारे
-3.5814	<s> मार्च
-3.5814	<s> मालिक
-3.1495	<s> मिट्टी
-2.8386	<s> मिमि
-3.2999	<s> मिल
-3.2999	<s> मीठा
-3.5814	<s> मुँह
-2.9986	<s> मुझे
-3.2999	<s> मुन्नी
-3.5814	<s> मुश्किल
-1.7815	<s> में
-3.5814	<s> मेरा
-2.6777	<s> मेरी
-2.9986	<s> मेरे
-2.0894	<s> मैं
-3.1495	<s> मैंने
-3.5814	<s> मोटी
-3.5814	<s> मौसम
-2.2384	<s> यह
-3.2999	<s> यहाँ
-3.1495	<s> यही
-3.2999	<s> या
-3.2999	<s> ये
-2.9986	<s> रंग
-2.9986	<s> रख
-3.5814	<s> रखकर
-3.2999	<s> रखी
-3.1495	<s> रस्सी
-3.1495	<s> रह
-3.5814	<s> रहता
-3.5814	<s> रहती
-3.5814	<s> रहते
-2.4669	<s> रहा
-2.8386	<s> रही
-2.5016	<s> रहे
-2.6777	<s> राजा
-2.9361	<s> रात
-3.5814	<s> रातों
-3.5814	<s> रुपए
-3.5814	<s> रे
-3.5814	<s> रोटियाँ
-2.8386	<s> रोटी
-3.5814	<s> लंबी
-3.5814	<s> लंबे
-3.5814	<s> लग
-2.4669	<s> लगा
-2.9986	<s> लगे
-3.5814	<s> लाए
-3.1495	<s> लाल
-2.4047	<s> लिए
-2.8386	<s> लिया
-2.9986	<s> ली
-3.5814	<s> लीजिए
-3.5814	<s> लूँ
-2.9986	<s> ले
-2.9986	<s> लेकर
-2.9361	<s> लेकिन
-3.5814	<s> लेते
-3.2999	<s> लेना
-3.5814	<s> लो
-2.5808	<s> लोग
-3.5814	<s> लोगों
-3.5814	<s> लोनपो
-3.2999	<s> लड़की
-3.5814	<s> लड़के
-2.9986	<s> वक्त
-2.1337	<s> वह
-3.5814	<s> वहाँ
-3.2999	<s> वहीं
-3.5814	<s> वाली
-2.6266	<s> वे
-3.5814	<s> शादी
-3.5814	<s> शुरू
-3.2999	<s> शेर
-3.1495	<s> सकता
-3.5814	<s> सकती
-3.2999	<s> सकते
-3.5814	<s> सफ़ेद
-2.9986	<s> सब
-3.5814	<s> सबके
-3.5814	<s> सबसे
-2.9986	<s> सभी
-2.9986	<s> समझ
-2.8386	<s> समय
-3.2999	<s> सर
-3.5814	<s> सरला
-3.2999	<s> सलीम
-3.5814	<s> सहारा
-3.2999	<s> साँप
-2.9361	<s> साथ
-3.2999	<s> सामने
-3.5814	<s> सारंगी
-3.5814	<s> सारा
-3.1495	<s> सारे
-3.1495	<s> साल
-3.1495	<s> साहब
-3.2999	<s> साड़ी
-3.2999	<s> सिर
-3.5814	<s> सी
-3.5814	<s> सीकरी
-3.5814	<s> सीढ़ी
-3.2999	<s> सुंदर
-3.5814	<s> सुन
-3.2999	<s> सुनकर
-3.5814	<s> सुनाई
-3.2999	<s> सुनीता
-3.2999	<s> सुनो
-3.1495	<s> सुबह
-1.7357	<s> से
-3.2999	<s> सेर
-3.1495	<s> सौ
-3.5814	<s> हट
-3.5814	<s> हथौड़े
-2.8386	<s> हम
-2.9986	<s> हमें
-3.2999	<s> हर
-3.5814	<s> हरे
-3.5814	<s> हल्लम
-2.6266	<s> हाँ
-3.5814	<s> हाथ
-3.5814	<s> हाथी
-3.5814	<s> हिस्सा
-2.0010	<s> ही
-2.8386	<s> हुआ
-3.1495	<s> हुई
-2.9361	<s> हुए
-2.4347	<s> हूँ
-1.6170	<s> है
-2.1494	<s> हैं
-2.2006	<s> हो
-3.5814	<s> होंगे
-3.1495	<s> होकर
-2.9986	<s> होता
-0.9037	अंडे देती
-0.6222	अंडे में
-1.0006	अंत </s>
-0.0969	अंत में
-1.4920	अंदर आ
-1.4920	अंदर घुसते
-1.4920	अंदर चला
-1.2105	अंदर जा
-1.4920	अंदर से
-0.3212	अंधेर नगरी
-1.0000	अकबर </s>
-1.4320	अकबर की
-1.1505	अकबर के
-0.4771	अकबर ने
-0.9037	अकाल </s>
-0.9037	अकाल और
-0.8909	अगर तुम
-1.3228	अगर वह
-0.6027	अगली बार
-0.2578	अगले दिन
-0.7788	अचकन पहनी
-1.1080	अच्छा </s>
-1.6908	अच्छा अच्छा
-1.6908	अच्छा क्या
-1.0455	अच्छा तो
-1.2589	अच्छा नहीं
-1.6908	अच्छा मैं
-1.4093	अच्छा लगता
-1.4093	अच्छा है
-0.3617	अच्छी तरह
-1.3623	अच्छी बात
-0.6479	अच्छे से
-0.9037	अधिक </s>
-0.9037	अधिक धन
-0.7788	अध्यापक को
-0.7788	अध्यापक तो
-0.1962	अनबूझ राजा
-0.4138	अनिल ने
-0.8457	अनुसार </s>
-0.3016	अन्याय है
-1.1369	अपना </s>
-1.5688	अपना काम
-1.5688	अपना चाकू
-1.5688	अपना पसीना
-1.2873	अपना सिर
-1.0364	अपनी </s>
-1.5082	अपनी आदत
-1.9401	अपनी गद्दी
-1.6586	अपनी गुल्लक
-1.9401	अपनी चमकीली
-1.9401	अपनी चालाकी
-1.5082	अपनी जगह
-1.9401	अपनी जान
-1.9401	अपनी टोपी
-1.9401	अपनी डायरी
-1.6586	अपनी पहिया
-1.9401	अपनी पूँछ
-1.9401	अपनी बहन
-1.9401	अपनी माँद
-1.5082	अपनी सेना
-1.4006	अपने </s>
-1.4631	अपने अपने
-1.4006	अपने आप
-1.7644	अपने आसपास
-2.0459	अपने एक
-2.0459	अपने कपड़े
-1.7644	अपने काम
-2.0459	अपने को
-1.0911	अपने घर
-2.0459	अपने घरों
-2.0459	अपने दोस्तों
-1.7644	अपने पिता
-2.0459	अपने पुराने
-2.0459	अपने पैर
-1.6140	अपने बेटे
-2.0459	अपने लिए
-2.0459	अपने सभी
-2.0459	अपने सिर
-2.0459	अपने सीने
-1.7644	अपने हाथों
-0.4973	अफ़सर ने
-0.9652	अब </s>
-2.0798	अब इस
-1.7983	अब उस
-2.0798	अब की
-2.0798	अब चूहे
-1.6479	अब तक
-1.4970	अब तुम
-1.4345	अब तो
-2.0798	अब पता
-2.0798	अब पहला
-1.7983	अब मुझे
-1.7983	अब मैं
-1.7983	अब यह
-1.6479	अब वह
-2.0798	अब शेर
-1.1767	अब्बा </s>
-1.1767	अब्बा की
-1.1767	अब्बा के
-0.4592	अभिनय करती
-0.7605	अभिनय करते
-1.0420	अभिनय के
-1.3212	अभी </s>
-1.1707	अभी अभी
-1.6027	अभी आता
-1.6027	अभी एक
-1.6027	अभी तुम्हारे
-1.6027	अभी नाश्ता
-1.1707	अभी भी
-1.6027	अभी से
-0.8457	अमरनाथ की
-0.5687	अमित ने
-1.3102	अम्मा </s>
-1.5917	अम्मा अब
-1.5917	अम्मा का
-1.5917	अम्मा ज़रा
-1.5917	अम्मा झाड़ू
-0.6880	अम्मा ने
-1.5917	अम्मा भी
-1.2311	अम्मी </s>
-1.2311	अम्मी की
-1.2311	अम्मी को
-0.7991	अम्मी ने
-1.1002	अरे </s>
-1.5321	अरे अरे
-1.5321	अरे ओ
-1.5321	अरे जा
-1.5321	अरे नहीं
-1.2506	अरे भाई
-1.2506	अरे यह
-0.4037	अलग अलग
-1.5804	अलग तरह
-1.5804	अलग नहीं
-1.2989	अलग समय
-1.5804	अलग होता
-0.7191	अलमारी की
-0.7191	अलमारी के
-1.0006	अलमारी पर
-0.3016	अल्सेशियन कुत्ता
-0.7191	अवंती की
-0.5687	अवंती ने
-1.0107	आ </s>
-1.0107	आ गई
-1.9144	आ गए
-0.7097	आ गया
-1.6329	आ जाओ
-1.6329	आ जाती
-1.4825	आ जाते
-1.9144	आ पहुँची
-0.9138	आ रहा
-0.9596	आ रही
-1.9144	आ रहे
-1.1146	आँखें फैलाकर
-0.2730	आँखों में
-0.8952	आँखों से
-0.3016	आँगन में
-1.1767	आइसक्रीम और
-0.7448	आइसक्रीम बेचने
-1.1767	आइसक्रीम वाला
-1.2632	आई </s>
-1.5447	आई आधी
-1.5447	आई एक
-1.1127	आई थी
-1.2632	आई पकौड़ी
-0.5229	आऊँगा अपनी
-1.0993	आए थे
-1.4630	आओ </s>
-1.4630	आओ ले
-1.3808	आकर बोले
-0.4973	आकाश में
-1.0006	आखिर </s>
-0.9549	आग पर
-0.7097	आगे </s>
-1.6134	आगे का
-1.6134	आगे की
-1.6134	आगे चलकर
-1.3319	आगे बढ़
-1.6134	आगे बढ़ी
-1.1406	आज </s>
-1.1406	आज तो
-1.7859	आज बहुत
-1.7859	आज भी
-1.7859	आज मैं
-1.5044	आज ये
-1.7859	आज सुबह
-1.5044	आज से
-1.7859	आज हमारा
-0.3016	आज़ादी के
-0.6996	आठ मील
-0.9493	आता </s>
-1.5321	आता था
-1.5321	आता पैसा
-0.8868	आता हूँ
-0.4901	आता है
-1.3623	आती </s>
-1.3623	आती थी
-0.6196	आती है
-1.3623	आती हैं
-0.9549	आते ही
-0.9549	आते हैं
-0.3212	आदत के
-1.2105	आदमी </s>
-1.4920	आदमी उठा
-1.2105	आदमी के
-1.2105	आदमी को
-0.8467	आदमी ने
-1.0798	आदि उसके
-0.4973	आधी रात
-0.8457	आना जी
-1.1146	आने </s>
-1.1146	आने का
-0.8331	आने की
-1.5321	आप </s>
-1.2506	आप को
-1.5321	आप भी
-1.5321	आप यह
-1.5321	आप ही
-0.4777	आपका </s>
-0.9037	आपके साथ
-0.1029	आपस में
-0.8457	आपा </s>
-1.1467	आम </s>
-1.1467	आम का
-0.8016	आया </s>
-1.7565	आया उसने
-1.4750	आया और
-1.3246	आया कि
-1.3246	आया वह
-1.0137	आया हूँ
-1.1737	आया है
-0.4777	आयु के
-0.4181	आरंभ हो
-0.9037	आराम </s>
-0.6222	आराम से
-1.1146	आरिफ़ के
-0.4692	आरिफ़ ने
-1.1146	आरिफ़ सलीम
-0.6734	आलू बालू
-0.4777	आव देखा
-1.6634	आवाज़ </s>
-1.3819	आवाज़ आ
-1.3819	आवाज़ आई
-1.6634	आवाज़ करता
-1.3819	आवाज़ कैसी
-1.0181	आवाज़ में
-1.6634	आवाज़ लगाई
-1.0806	आवाज़ सुनाई
-1.6634	आवाज़ है
-1.6634	आवाज़ होती
-0.1962	आवाज़ों में
-0.4777	आश्चर्य से
-1.1146	आश्रम </s>
-1.1146	आश्रम की
-0.4692	आश्रम में
-0.4138	आसपास के
-0.8909	आसमान को
-0.8909	आसमान ने
-0.8909	आसमान में
-0.7788	आसान काम
-0.7788	आसान नहीं
-0.3016	आसानी से
-0.7788	इंतज़ार में
-0.6996	इंसान बनना
-0.8457	इकट्टा करने
-0.8457	इकट्टा हुए
-1.1962	इतना </s>
-1.4777	इतना ऊचा
-1.1962	इतना कहकर
-1.4777	इतना तेज़
-1.4777	इतना मोटा
-1.4777	इतना सुनते
-1.4777	इतना ही
-1.3102	इतनी </s>
-1.3102	इतनी घनी
-1.3102	इतनी छोटी
-1.3102	इतनी झगड़ी
-1.3102	इतनी टेढ़ी
-1.5917	इतनी दूर
-1.1597	इतनी देर
-1.1597	इतनी रगड़ी
-1.3102	इतनी लंबी
-1.3228	इतने </s>
-1.3228	इतने छोटे
-0.6775	इतने में
-1.0413	इतने रुपए
-1.3228	इतने सारे
-0.2430	इधर उधर
-1.3228	इधर हम
-1.0413	इधर ही
-1.1663	इन </s>
-1.4478	इन दोनों
-1.4478	इन लोगों
-0.3212	इनमें से
-0.4777	इन्होंने जो
-0.3016	इरादा नहीं
-1.0006	इला को
-0.6027	इलाके में
-0.9815	इस </s>
-2.0613	इस कविता
-2.0613	इस किताब
-2.0613	इस झूले
-1.1576	इस तरह
-1.7798	इस दिन
-1.3185	इस पर
-1.6294	इस प्रकार
-1.3185	इस बात
-1.0607	इस बार
-2.0613	इस बारे
-2.0613	इस बड़ी
-1.7798	इस वक्त
-0.3522	इसके बाद
-1.2559	इसके बारे
-0.9232	इसमें </s>
-1.2047	इसमें क्या
-0.7728	इसमें खता
-1.4630	इसलिए </s>
-1.4630	इसलिए उसने
-0.8177	इसलिए वह
-0.8652	इससे </s>
-0.7148	इससे पहले
-1.1467	इससे रोटी
-1.3430	इसी </s>
-1.3430	इसी कारण
-0.6003	इसी तरह
-1.1250	इसे </s>
-1.5569	इसे लेने
-0.6996	इस्तेमाल किए
-1.0420	उँगली में
-1.0420	उँगली से
-0.4777	उठता है
-0.9304	उठा </s>
-1.0808	उठा और
-1.3623	उठा ली
-1.3623	उठा ले
-1.0808	उठा वह
-0.9744	उठाकर खाने
-0.4777	उठाता है
-0.9549	उठाया और
-0.9549	उत्तर </s>
-0.5229	उत्तर दिया
-0.4777	उत्साह के
-1.3430	उधर </s>
-1.3430	उधर देखा
-1.0615	उधर से
-0.8909	उन </s>
-1.0413	उन दोनों
-1.3228	उन पर
-1.3228	उन सभी
-1.2376	उनके </s>
-1.5191	उनके पास
-1.2376	उनके लिए
-1.0872	उनके साथ
-1.5191	उनके सामने
-1.5191	उनके सिर
-0.6027	उनमें </s>
-0.6996	उन्हीं की
-1.0137	उन्हें </s>
-1.7565	उन्हें घूरा
-1.4750	उन्हें यह
-1.3526	उन्होंने </s>
-1.6341	उन्होंने अपनी
-1.0513	उन्होंने कहा
-1.6341	उन्होंने जल्दी
-1.6341	उन्होंने नसीरूद्दीन
-1.2794	उबातुन </s>
-1.2794	उबातुन कोको
-1.2794	उबातुन पापड़
-1.1477	उस </s>
-1.0502	उस आदमी
-1.7930	उस के
-1.7930	उस तक
-1.2102	उस दिन
-1.0502	उस पर
-1.7930	उस लड़की
-1.7930	उस वक्त
-1.4630	उसका </s>
-1.4630	उसका एक
-1.0311	उसका कक्कू
-1.4630	उसका गधा
-1.4630	उसका नाम
-1.7166	उसकी </s>
-1.7166	उसकी कहानी
-1.4351	उसकी नज़र
-1.4351	उसकी मदद
-0.9738	उसकी माँ
-1.7166	उसकी समझ
-1.1748	उसके </s>
-1.8202	उसके दो
-1.8202	उसके नीचे
-1.1748	उसके पास
-1.8202	उसके पिता
-1.8202	उसके पीछे
-1.8202	उसके बाद
-1.5387	उसके बारे
-1.8202	उसके माता
-1.8202	उसके मुँह
-1.1748	उसके लिए
-1.5387	उसके साथ
-1.3882	उसके सामने
-1.5387	उसके हाथ
-0.8457	उसको </s>
-0.8787	उसने </s>
-2.0834	उसने अपनी
-1.6515	उसने अपने
-2.0834	उसने इसमें
-2.0834	उसने उसे
-2.0834	उसने एक
-2.0834	उसने कछुए
-1.0828	उसने कहा
-2.0834	उसने तीतर
-1.5006	उसने देखा
-1.5006	उसने पूछा
-2.0834	उसने भीखूभाई
-1.8019	उसने सारंगी
-1.6515	उसने सोचा
-0.7788	उसमें </s>
-0.7788	उसमें से
-1.2311	उससे पूछा
-1.2311	उससे भी
-0.8909	उसी </s>
-1.3228	उसी की
-1.3228	उसी समय
-1.0305	उसे </s>
-1.7910	उसे अपने
-1.4897	उसे एक
-2.0725	उसे क्या
-2.0725	उसे गाय
-2.0725	उसे घर
-1.6406	उसे चिढ़ाते
-2.0725	उसे देखते
-1.6406	उसे फिर
-2.0725	उसे वहाँ
-1.1767	उड़ कर
-0.7448	उड़ गई
-1.1767	उड़ गए
-0.7448	उड़ चल
-0.6027	उड़ती उड़ती
-0.1707	उड़ी पतंग
-1.0006	ऊँ इस
-0.4178	ऊँ ऊँ
-0.8331	ऊँची ऊँची
-0.6996	ऊँचे </s>
-1.0615	ऊँट की
-0.3424	ऊँट चला
-0.3016	ऊचा था
-0.6585	ऊपर </s>
-1.6134	ऊपर की
-1.6134	ऊपर पहुँच
-0.8706	ऊपर से
-0.4181	ए नाई
-0.9688	एक </s>
-2.6596	एक अच्छी
-2.6596	एक अन्य
-2.0768	एक आदमी
-2.2276	एक एक
-2.0768	एक ओर
-2.0143	एक और
-2.6596	एक कटोरी
-2.6596	एक कदम
-2.6596	एक का
-2.6596	एक काला
-2.6596	एक किताब
-2.3781	एक किनारे
-2.6596	एक किलो
-2.6596	एक कुली
-2.6596	एक के
-2.6596	एक खास
-2.6596	एक गेंद
-2.3781	एक चना
-2.6596	एक चवन्नी
-2.2276	एक छोटा
-2.2276	एक छोटी
-2.6596	एक जगह
-2.6596	एक जैसे
-2.6596	एक झाड़ी
-2.3781	एक टुकड़ा
-2.6596	एक डाल
-2.3781	एक तरफ़
-2.6596	एक तश्तरी
-2.6596	एक तो
-2.0768	एक था
-1.2788	एक दिन
-2.3781	एक दीवार
-2.2276	एक दूसरे
-2.6596	एक दो
-2.6596	एक नहीं
-2.3781	एक नारियल
-2.3781	एक पंक्ति
-2.6596	एक पतली
-2.2276	एक पत्ता
-2.6596	एक पत्ते
-2.3781	एक पापड़
-1.6176	एक पूँछ
-2.0768	एक पेड़
-2.6596	एक फूलदान
-2.6596	एक बकरी
-2.2276	एक बच्चा
-2.6596	एक बस
-2.3781	एक बाघ
-1.3579	एक बार
-2.6596	एक बूढ़ा
-2.3781	एक बूढ़ी
-2.6596	एक बड़ा
-2.3781	एक भी
-2.6596	एक योजना
-2.3781	एक रात
-2.6596	एक रुपए
-2.2276	एक रुपया
-2.6596	एक रोज़
-2.3781	एक रोटी
-2.6596	एक लड़का
-2.6596	एक लड़की
