~o
<STREAMINFO> 1 25
<VECSIZE> 25<NULLD><MFCC_D_N_Z_0><DIAGC>
~h "b"
<BEGINHMM>
<NUMSTATES> 5
<STATE> 2
<MEAN> 25
 4.493065e-01 7.148165e-01 4.678131e-01 2.697631e-01 3.160119e-01 -2.320432e-01 -7.405001e-01 -5.008184e-01 -2.522522e-01 -6.560872e-01 -7.623456e-01 -4.232225e-01 -8.594037e-02 2.481951e-01 1.984875e-01 2.568916e-02 5.966344e-02 2.758865e-01 1.380817e-01 3.507939e-02 1.128556e-01 -4.399547e-02 -1.759693e-01 -3.788238e-02 -1.380997e-01
<VARIANCE> 25
 2.554677e+01 3.238381e+01 3.011652e+01 3.718375e+01 3.489084e+01 6.882642e+01 4.614375e+01 2.856300e+01 4.343981e+01 2.984522e+01 2.732142e+01 1.942207e+01 6.695306e-01 9.023784e-01 8.906311e-01 9.107546e-01 1.060526e+00 1.983911e+00 1.657841e+00 1.635707e+00 1.890634e+00 1.649323e+00 1.532968e+00 1.084959e+00 4.248829e-01
<GCONST> 8.991351e+01
<STATE> 3
<MEAN> 25
 5.823790e-01 1.022183e+00 6.643069e-01 2.636583e-01 1.848167e-01 -7.846811e-02 -5.733549e-01 -5.484497e-01 -4.152927e-01 -9.362108e-01 -1.026858e+00 -5.385466e-01 -4.858362e-02 1.815817e-01 1.180574e-01 1.908844e-03 2.513419e-02 2.032160e-01 1.091243e-01 -9.429955e-03 4.646645e-02 -3.107986e-02 -8.204166e-02 -7.027754e-03 -1.021575e-01
<VARIANCE> 25
 2.432046e+01 3.519912e+01 3.072544e+01 3.722443e+01 3.586401e+01 6.807682e+01 4.422807e+01 2.835241e+01 4.104559e+01 2.964246e+01 2.852084e+01 1.967574e+01 6.781560e-01 9.398813e-01 9.332678e-01 9.033521e-01 1.123981e+00 2.107619e+00 1.719571e+00 1.632239e+00 1.845524e+00 1.532533e+00 1.471477e+00 1.031181e+00 4.686872e-01
<GCONST> 9.008189e+01
<STATE> 4
<MEAN> 25
 5.405992e-01 1.317256e+00 7.699231e-01 2.105169e-01 4.088087e-02 2.059070e-01 -3.104827e-01 -4.542273e-01 -3.469006e-01 -9.962292e-01 -1.118868e+00 -4.824198e-01 -4.947359e-02 7.283500e-02 3.630884e-02 -1.265533e-02 1.991335e-02 1.342188e-01 9.170717e-02 -1.663288e-02 2.082292e-02 1.872819e-02 1.723299e-02 1.535056e-03 -6.743354e-02
<VARIANCE> 25
 2.378903e+01 3.434972e+01 2.968018e+01 3.616938e+01 3.680325e+01 6.620480e+01 4.239695e+01 2.848689e+01 4.012808e+01 2.915607e+01 2.803713e+01 1.932878e+01 6.364658e-01 1.017665e+00 1.003844e+00 9.608697e-01 1.235589e+00 2.326869e+00 1.757248e+00 1.594100e+00 1.838099e+00 1.473700e+00 1.442803e+00 1.036561e+00 5.043894e-01
<GCONST> 9.021649e+01
<TRANSP> 5
 0.000000e+00 1.000000e+00 0.000000e+00 0.000000e+00 0.000000e+00
 0.000000e+00 4.963402e-01 5.036599e-01 0.000000e+00 0.000000e+00
 0.000000e+00 0.000000e+00 4.807123e-01 5.192877e-01 0.000000e+00
 0.000000e+00 0.000000e+00 0.000000e+00 5.773205e-01 4.226795e-01
 0.000000e+00 0.000000e+00 0.000000e+00 0.000000e+00 0.000000e+00
<ENDHMM>
~h "d"
<BEGINHMM>
<NUMSTATES> 5
<STATE> 2
<MEAN> 25
 2.401699e+00 -1.385602e+00 -1.501083e+00 -1.103988e+00 -1.490138e+00 -2.929787e+00 -1.217208e+00 -9.693354e-01 -2.818717e+00 -1.656580e+00 2.129510e-01 -8.103470e-01 2.394966e-01 -1.966341e-01 -2.089239e-01 -1.900053e-02 -6.892847e-02 -3.113389e-01 -2.471069e-01 -1.668096e-01 -2.520168e-01 -8.024839e-02 7.000642e-02 -4.001066e-02 2.236578e-01
<VARIANCE> 25
 2.682908e+01 4.215769e+01 4.403861e+01 5.405519e+01 5.266305e+01 6.820905e+01 6.309297e+01 4.104398e+01 4.275849e+01 3.606411e+01 3.715110e+01 2.430790e+01 1.370767e+00 2.072798e+00 1.999338e+00 1.849973e+00 2.137461e+00 4.075734e+00 3.321627e+00 2.659917e+00 2.926546e+00 2.346379e+00 2.487656e+00 1.559640e+00 9.763288e-01
<GCONST> 1.008995e+02
<STATE> 3
<MEAN> 25
 3.193362e+00 -2.293659e+00 -2.350831e+00 -1.326076e+00 -1.822450e+00 -4.044673e+00 -1.937081e+00 -1.268801e+00 -3.611866e+00 -1.865802e+00 5.931730e-01 -8.015348e-01 2.163454e-01 -2.131355e-01 -2.097560e-01 -6.013785e-03 -3.918695e-02 -2.964058e-01 -2.415677e-01 -7.790251e-02 -1.644976e-01 -5.020011e-02 6.448148e-02 -6.054681e-03 2.098861e-01
<VARIANCE> 25
 2.405039e+01 4.212352e+01 4.641005e+01 5.964022e+01 5.497768e+01 6.505968e+01 6.898302e+01 4.492360e+01 4.181251e+01 3.800275e+01 3.986720e+01 2.601077e+01 1.537435e+00 2.391358e+00 2.230087e+00 2.052588e+00 2.373135e+00 4.759576e+00 3.740021e+00 2.902115e+00 3.160752e+00 2.512130e+00 2.708300e+00 1.669384e+00 1.126280e+00
<GCONST> 1.026612e+02
<STATE> 4
<MEAN> 25
 3.765634e+00 -2.533372e+00 -2.945934e+00 -1.190422e+00 -1.726260e+00 -4.533958e+00 -2.547457e+00 -1.468362e+00 -3.796430e+00 -2.187444e+00 2.684287e-01 -9.944882e-01 -7.146882e-02 8.372001e-02 6.175209e-02 4.492494e-02 1.369968e-01 1.334180e-01 1.693373e-02 4.276378e-02 1.454369e-01 3.459779e-02 -6.520790e-02 -1.117808e-02 -8.307644e-02
<VARIANCE> 25
 1.972369e+01 3.987584e+01 4.445717e+01 5.988647e+01 5.092664e+01 6.208908e+01 6.816696e+01 4.143952e+01 3.948130e+01 3.734394e+01 4.109879e+01 2.549206e+01 9.722995e-01 1.804204e+00 1.685041e+00 1.667859e+00 1.898111e+00 3.701839e+00 2.956558e+00 2.377467e+00 2.483679e+00 2.139050e+00 2.290919e+00 1.483070e+00 7.778845e-01
<GCONST> 9.889410e+01
<TRANSP> 5
 0.000000e+00 1.000000e+00 0.000000e+00 0.000000e+00 0.000000e+00
 0.000000e+00 5.472282e-01 4.527718e-01 0.000000e+00 0.000000e+00
 0.000000e+00 0.000000e+00 6.029410e-01 3.970590e-01 0.000000e+00
 0.000000e+00 0.000000e+00 0.000000e+00 7.326249e-01 2.673751e-01
 0.000000e+00 0.000000e+00 0.000000e+00 0.000000e+00 0.000000e+00
<ENDHMM>
~h "f"
<BEGINHMM>
<NUMSTATES> 5
<STATE> 2
<MEAN> 25
 5.653295e-01 4.372473e-02 -4.438892e-01 -5.862758e-01 4.548296e-01 -4.568449e-01 -4.278356e-01 -1.013672e+00 -7.866198e-01 -6.364872e-01 2.123701e-01 -5.850881e-01 -2.926947e-01 1.578484e-01 1.821504e-01 -5.448131e-02 1.833322e-01 3.328320e-01 2.370955e-01 4.328211e-02 2.700495e-01 1.318750e-01 5.291453e-02 -3.225569e-03 -1.672214e-01
<VARIANCE> 25
 2.966607e+01 2.914359e+01 3.752451e+01 3.961956e+01 3.250853e+01 5.545897e+01 4.592791e+01 2.785032e+01 4.001402e+01 2.861198e+01 3.309270e+01 2.178360e+01 7.593007e-01 8.890995e-01 9.849397e-01 1.039497e+00 1.208982e+00 1.926985e+00 1.747563e+00 1.564529e+00 1.869912e+00 1.444660e+00 1.660541e+00 1.173845e+00 4.320406e-01
<GCONST> 9.059223e+01
<STATE> 3
<MEAN> 25
 1.713783e-01 1.912203e-01 -2.007952e-01 -7.258949e-01 6.968541e-01 -1.417783e-01 -1.318374e-01 -1.106344e+00 -5.504214e-01 -4.556534e-01 4.043234e-01 -6.677663e-01 -1.869865e-01 1.142365e-01 1.259348e-01 -2.488107e-02 1.028493e-01 1.893536e-01 1.406849e-01 -1.472960e-02 1.457650e-01 8.163384e-02 3.415335e-02 -3.312273e-02 -1.134193e-01
<VARIANCE> 25
 3.049290e+01 2.922961e+01 3.759745e+01 3.900039e+01 3.328360e+01 5.294185e+01 4.421558e+01 2.745912e+01 3.897274e+01 2.840133e+01 3.318757e+01 2.178417e+01 9.374138e-01 8.915418e-01 1.060681e+00 1.110582e+00 1.382775e+00 2.035560e+00 1.948587e+00 1.655977e+00 1.969075e+00 1.480088e+00 1.689923e+00 1.217573e+00 4.396577e-01
<GCONST> 9.135898e+01
<STATE> 4
<MEAN> 25
 -1.061500e-01 3.846685e-01 -3.038158e-02 -7.552881e-01 8.311355e-01 1.168894e-01 5.509002e-02 -1.251552e+00 -4.034307e-01 -2.675056e-01 5.278057e-01 -6.796213e-01 -2.930572e-02 3.125400e-02 2.605519e-02 2.359188e-02 -7.375825e-03 -1.966326e-02 2.025731e-02 -3.447308e-02 5.320769e-03 5.374972e-03 -7.165267e-03 -4.061104e-02 -2.573126e-02
<VARIANCE> 25
 3.049747e+01 2.822725e+01 3.641000e+01 3.666267e+01 3.397934e+01 5.096819e+01 4.286216e+01 2.796945e+01 3.756347e+01 2.835078e+01 3.243995e+01 2.157482e+01 1.149325e+00 9.999206e-01 1.184757e+00 1.251309e+00 1.596203e+00 2.349478e+00 2.323037e+00 1.859211e+00 2.144502e+00 1.573558e+00 1.764695e+00 1.313006e+00 5.047922e-01
<GCONST> 9.265974e+01
<TRANSP> 5
 0.000000e+00 1.000000e+00 0.000000e+00 0.000000e+00 0.000000e+00
 0.000000e+00 4.920087e-01 5.079913e-01 0.000000e+00 0.000000e+00
 0.000000e+00 0.000000e+00 4.812946e-01 5.187055e-01 0.000000e+00
 0.000000e+00 0.000000e+00 0.000000e+00 5.771266e-01 4.228733e-01
 0.000000e+00 0.000000e+00 0.000000e+00 0.000000e+00 0.000000e+00
<ENDHMM>
~h "g"
<BEGINHMM>
<NUMSTATES> 5
<STATE> 2
<MEAN> 25
 -1.689920e+00 1.174633e+00 6.946163e-01 -2.312547e-01 7.399464e-01 3.282309e+00 1.722396e+00 8.448667e-01 1.930242e+00 1.139381e+00 -1.296672e-01 7.859653e-01 -1.362831e-01 1.192205e-01 1.052203e-01 7.508892e-03 5.330192e-02 2.021652e-01 1.321457e-01 9.277212e-02 1.527518e-01 5.878290e-02 -4.019225e-02 2.302577e-02 -1.408979e-01
<VARIANCE> 25
 2.260205e+01 1.971378e+01 2.250853e+01 2.075920e+01 1.966205e+01 4.533319e+01 2.976000e+01 1.995853e+01 3.620755e+01 2.274549e+01 1.934313e+01 1.550814e+01 2.868070e-01 4.816986e-01 5.160999e-01 5.657304e-01 6.358009e-01 1.063458e+00 1.037915e+00 9.869771e-01 1.178179e+00 1.001837e+00 1.046782e+00 8.863983e-01 1.849941e-01
<GCONST> 7.861584e+01
<STATE> 3
<MEAN> 25
 -5.723630e-01 8.388783e-01 1.730202e-01 -3.623782e-01 3.110569e-01 1.947820e+00 1.100984e+00 2.824064e-01 7.548489e-01 3.843590e-01 -1.936778e-01 2.879042e-01 -9.241904e-02 1.453132e-01 1.305314e-01 3.847692e-02 4.700635e-02 1.258938e-01 4.416974e-02 2.516512e-03 5.726241e-02 8.589507e-03 -4.832890e-02 -2.080814e-03 -1.123021e-01
<VARIANCE> 25
 2.461843e+01 2.587733e+01 2.814016e+01 2.507556e+01 2.299393e+01 4.972858e+01 3.331163e+01 2.188747e+01 3.960480e+01 2.557915e+01 2.252521e+01 1.689723e+01 3.355810e-01 5.277573e-01 5.770745e-01 6.433033e-01 7.069153e-01 1.196851e+00 1.157827e+00 1.106282e+00 1.299315e+00 1.109427e+00 1.110024e+00 9.000818e-01 2.102934e-01
<GCONST> 8.162302e+01
<STATE> 4
<MEAN> 25
 -4.606207e-01 9.910763e-01 1.620272e-01 -4.369026e-01 2.038953e-01 1.980022e+00 1.165578e+00 1.777974e-01 4.437127e-01 1.692946e-01 -1.818068e-01 3.404114e-01 -5.926876e-02 9.685830e-02 1.190504e-01 7.329896e-02 5.575746e-02 4.256062e-02 -2.854907e-02 -6.475355e-02 -1.615250e-02 -2.113217e-02 -3.297225e-02 -3.681581e-02 -6.744710e-02
<VARIANCE> 25
 2.376271e+01 2.489256e+01 2.711438e+01 2.431161e+01 2.267144e+01 4.713269e+01 3.200436e+01 2.173476e+01 3.895439e+01 2.504337e+01 2.173604e+01 1.639193e+01 3.639801e-01 6.029955e-01 6.518037e-01 7.397828e-01 7.956250e-01 1.394046e+00 1.274999e+00 1.197498e+00 1.393350e+00 1.164231e+00 1.173832e+00 9.060823e-01 2.560332e-01
<GCONST> 8.256207e+01
<TRANSP> 5
 0.000000e+00 1.000000e+00 0.000000e+00 0.000000e+00 0.000000e+00
 0.000000e+00 7.067553e-01 2.932447e-01 0.000000e+00 0.000000e+00
 0.000000e+00 0.000000e+00 5.768465e-01 4.231535e-01 0.000000e+00
 0.000000e+00 0.000000e+00 0.000000e+00 6.571546e-01 3.428454e-01
 0.000000e+00 0.000000e+00 0.000000e+00 0.000000e+00 0.000000e+00
<ENDHMM>
~h "k"
<BEGINHMM>
<NUMSTATES> 5
<STATE> 2
<MEAN> 25
 1.538176e+00 6.337015e-02 -6.333492e-01 -2.405258e-01 -2.055139e-01 -1.794515e+00 -1.434126e+00 -1.335480e+00 -1.525630e+00 -1.128075e+00 -3.534753e-01 -6.253075e-01 -1.535013e-01 1.643827e-01 1.102170e-01 -2.679526e-02 1.103074e-01 2.481223e-01 1.126944e-01 6.005174e-03 1.624056e-01 3.896224e-02 -5.813164e-02 -1.815574e-03 -1.362605e-01
<VARIANCE> 25
 2.710930e+01 2.810073e+01 3.400087e+01 4.273885e+01 3.847972e+01 6.408960e+01 4.849973e+01 3.129179e+01 4.288662e+01 3.182748e+01 3.136293e+01 2.207811e+01 6.693063e-01 1.102522e+00 1.084202e+00 1.190828e+00 1.330997e+00 2.439394e+00 1.896365e+00 1.797262e+00 2.056502e+00 1.621018e+00 1.700710e+00 1.226355e+00 6.031222e-01
<GCONST> 9.254751e+01
<STATE> 3
<MEAN> 25
 1.392513e+00 2.585024e-01 -4.989095e-01 -2.451265e-01 -6.893703e-02 -1.589699e+00 -1.382624e+00 -1.464230e+00 -1.434181e+00 -1.137909e+00 -4.424495e-01 -7.192332e-01 -1.233906e-01 1.145307e-01 1.049636e-01 -8.717217e-03 6.766398e-02 1.721528e-01 8.205107e-02 1.814045e-03 1.069630e-01 3.397978e-02 -4.755090e-02 -2.124148e-02 -1.016417e-01
<VARIANCE> 25
 2.606365e+01 2.772597e+01 3.332657e+01 4.277763e+01 3.844260e+01 6.287054e+01 4.764531e+01 3.125163e+01 4.089612e+01 3.106824e+01 3.153827e+01 2.234363e+01 7.483778e-01 1.082596e+00 1.116187e+00 1.277469e+00 1.408059e+00 2.654200e+00 2.028109e+00 1.852417e+00 2.133201e+00 1.685182e+00 1.715251e+00 1.280804e+00 6.565198e-01
<GCONST> 9.302528e+01
<STATE> 4
<MEAN> 25
 1.302464e+00 4.614631e-01 -3.267868e-01 -1.680848e-01 -3.610211e-02 -1.455856e+00 -1.422007e+00 -1.506153e+00 -1.325557e+00 -1.112366e+00 -5.707735e-01 -7.383124e-01 -1.155426e-01 5.052081e-02 9.611481e-02 -3.551321e-04 2.414572e-02 1.355989e-01 1.016914e-01 8.859705e-02 1.082276e-01 6.894780e-02 -1.088304e-02 9.382620e-03 -8.865618e-02
<VARIANCE> 25
 2.449181e+01 2.676652e+01 3.173607e+01 4.210494e+01 3.806290e+01 6.224677e+01 4.659832e+01 3.106582e+01 3.928014e+01 3.082864e+01 3.127567e+01 2.257975e+01 7.880026e-01 1.083807e+00 1.124708e+00 1.320095e+00 1.475417e+00 2.840997e+00 2.166239e+00 1.840808e+00 2.125748e+00 1.746274e+00 1.763736e+00 1.292008e+00 6.020701e-01
<GCONST> 9.301874e+01
<TRANSP> 5
 0.000000e+00 1.000000e+00 0.000000e+00 0.000000e+00 0.000000e+00
 0.000000e+00 4.744965e-01 5.255035e-01 0.000000e+00 0.000000e+00
 0.000000e+00 0.000000e+00 4.782242e-01 5.217757e-01 0.000000e+00
 0.000000e+00 0.000000e+00 0.000000e+00 5.841798e-01 4.158203e-01
 0.000000e+00 0.000000e+00 0.000000e+00 0.000000e+00 0.000000e+00
<ENDHMM>
~h "l"
<BEGINHMM>
<NUMSTATES> 5
<STATE> 2
<MEAN> 25
 1.693370e+00 -2.141701e-01 -4.813406e-01 3.767075e-01 -2.385509e-01 -2.243694e+00 -1.889888e+00 -1.557049e+00 -1.753626e+00 -1.280282e+00 -5.055413e-01 -1.077312e+00 -4.525358e-02 1.429841e-01 1.386981e-01 8.988465e-02 7.351762e-02 9.580828e-02 -3.320226e-02 -8.545671e-02 -8.853647e-03 -5.275092e-02 -9.672963e-02 -2.787638e-02 -8.360114e-02
<VARIANCE> 25
 2.380268e+01 2.796972e+01 2.967334e+01 4.203431e+01 3.652262e+01 6.723401e+01 5.203106e+01 3.436811e+01 4.450772e+01 3.575205e+01 3.356573e+01 2.195884e+01 7.044832e-01 1.047970e+00 1.027965e+00 1.213116e+00 1.272575e+00 2.489971e+00 2.167125e+00 1.873936e+00 2.290650e+00 1.806129e+00 1.806190e+00 1.224039e+00 4.994289e-01
<GCONST> 9.283781e+01
<STATE> 3
<MEAN> 25
 1.819771e+00 -6.938146e-02 -2.963049e-01 6.366876e-01 -1.511270e-01 -2.396450e+00 -2.243296e+00 -1.982571e+00 -2.140826e+00 -1.568300e+00 -6.554803e-01 -1.198731e+00 -1.491911e-02 1.057713e-01 9.661852e-02 7.064587e-02 5.843763e-02 5.508310e-02 -5.221805e-02 -1.072516e-01 -7.871423e-02 -7.214352e-02 -4.689277e-02 -5.095339e-03 -5.013793e-02
<VARIANCE> 25
 2.235182e+01 2.774714e+01 2.887981e+01 4.219282e+01 3.629156e+01 6.611150e+01 5.222771e+01 3.534253e+01 4.460389e+01 3.571485e+01 3.388184e+01 2.186859e+01 7.671905e-01 1.080963e+00 1.076311e+00 1.295672e+00 1.311805e+00 2.637129e+00 2.293773e+00 1.974798e+00 2.491273e+00 1.906053e+00 1.907424e+00 1.279592e+00 5.339434e-01
<GCONST> 9.348713e+01
<STATE> 4
<MEAN> 25
 2.025294e+00 5.133644e-02 -1.617646e-01 1.016709e+00 -1.245704e-02 -2.666813e+00 -2.837338e+00 -2.545727e+00 -2.656076e+00 -1.900507e+00 -7.513872e-01 -1.219453e+00 -4.827780e-02 6.775170e-02 5.851901e-02 -1.463244e-02 3.202966e-02 8.411158e-02 4.841119e-02 1.241531e-02 -1.469152e-02 -1.627985e-02 1.410467e-02 4.166448e-02 -4.666734e-02
<VARIANCE> 25
 2.048357e+01 2.668398e+01 2.723215e+01 4.187981e+01 3.515953e+01 6.410779e+01 5.185836e+01 3.565901e+01 4.494260e+01 3.515362e+01 3.396643e+01 2.190462e+01 7.646418e-01 1.122157e+00 1.136491e+00 1.347053e+00 1.366804e+00 2.722517e+00 2.297337e+00 1.959362e+00 2.463413e+00 1.923925e+00 1.964094e+00 1.313876e+00 5.478536e-01
<GCONST> 9.350334e+01
<TRANSP> 5
 0.000000e+00 1.000000e+00 0.000000e+00 0.000000e+00 0.000000e+00
 0.000000e+00 4.745948e-01 5.254052e-01 0.000000e+00 0.000000e+00
 0.000000e+00 0.000000e+00 4.832886e-01 5.167114e-01 0.000000e+00
 0.000000e+00 0.000000e+00 0.000000e+00 6.083673e-01 3.916327e-01
 0.000000e+00 0.000000e+00 0.000000e+00 0.000000e+00 0.000000e+00
<ENDHMM>
~h "m"
<BEGINHMM>
<NUMSTATES> 5
<STATE> 2
<MEAN> 25
 9.717217e-01 -4.073358e-02 -2.827567e-01 -1.666840e-02 1.446655e-01 -8.629166e-01 -1.033269e+00 -9.717380e-01 -8.309539e-01 -4.324116e-01 -1.817177e-01 -5.559003e-01 -1.140098e-01 2.089261e-01 1.668243e-01 1.603600e-02 7.597953e-02 2.403579e-01 1.383892e-01 3.758452e-02 1.157664e-01 -3.655078e-02 -1.176043e-01 -1.822995e-02 -1.422436e-01
<VARIANCE> 25
 2.625915e+01 3.260901e+01 3.391803e+01 3.952322e+01 3.062337e+01 6.854704e+01 4.890693e+01 2.816551e+01 4.488591e+01 3.114845e+01 3.027595e+01 2.167783e+01 6.495894e-01 1.036352e+00 9.771074e-01 1.136509e+00 1.179253e+00 2.206500e+00 1.768691e+00 1.608362e+00 2.056434e+00 1.781168e+00 1.651995e+00 1.222043e+00 4.582934e-01
<GCONST> 9.143853e+01
<STATE> 3
<MEAN> 25
 1.029566e+00 2.132348e-01 -1.290102e-01 -2.092914e-02 1.070414e-01 -7.969441e-01 -9.139031e-01 -1.048250e+00 -1.021115e+00 -7.533576e-01 -4.129096e-01 -6.980310e-01 -6.151953e-02 1.831726e-01 1.188629e-01 5.046511e-03 2.904106e-02 1.623310e-01 1.098687e-01 3.916794e-03 3.430146e-02 -8.223367e-02 -1.082978e-01 -3.429203e-02 -1.060333e-01
<VARIANCE> 25
 2.557763e+01 3.331713e+01 3.364688e+01 3.946323e+01 3.148667e+01 6.897047e+01 4.800415e+01 2.781523e+01 4.294257e+01 3.099535e+01 3.075161e+01 2.165378e+01 6.750849e-01 1.055725e+00 9.954604e-01 1.172933e+00 1.226075e+00 2.336262e+00 1.799397e+00 1.608899e+00 2.070107e+00 1.768141e+00 1.613987e+00 1.187289e+00 4.769464e-01
<GCONST> 9.160014e+01
<STATE> 4
<MEAN> 25
 1.174790e+00 4.645075e-01 -9.725079e-02 -3.597825e-02 -7.898575e-02 -8.768506e-01 -8.285413e-01 -1.059488e+00 -1.206951e+00 -1.065037e+00 -6.287214e-01 -7.925321e-01 -3.024640e-02 1.231155e-01 7.111735e-02 7.212014e-03 8.709128e-03 8.437866e-02 7.202306e-02 1.676331e-03 7.117934e-03 -7.079121e-02 -7.311297e-02 -3.884777e-02 -6.837123e-02
<VARIANCE> 25
 2.466343e+01 3.249532e+01 3.210979e+01 3.907159e+01 3.319827e+01 6.911498e+01 4.746925e+01 2.833548e+01 4.175788e+01 3.109741e+01 3.069669e+01 2.126778e+01 6.560358e-01 1.147185e+00 1.054627e+00 1.201421e+00 1.293488e+00 2.595375e+00 1.865438e+00 1.598164e+00 1.978544e+00 1.672274e+00 1.643418e+00 1.170979e+00 5.122109e-01
<GCONST> 9.179875e+01
<TRANSP> 5
 0.000000e+00 1.000000e+00 0.000000e+00 0.000000e+00 0.000000e+00
 0.000000e+00 4.805260e-01 5.194740e-01 0.000000e+00 0.000000e+00
 0.000000e+00 0.000000e+00 4.723259e-01 5.276742e-01 0.000000e+00
 0.000000e+00 0.000000e+00 0.000000e+00 5.691501e-01 4.308499e-01
 0.000000e+00 0.000000e+00 0.000000e+00 0.000000e+00 0.000000e+00
<ENDHMM>
~h "n"
<BEGINHMM>
<NUMSTATES> 5
<STATE> 2
<MEAN> 25
 2.368113e+00 -1.068507e+00 -1.493157e+00 -9.163197e-01 -1.495739e+00 -2.607011e+00 -7.522205e-01 -6.873997e-01 -2.671683e+00 -1.490341e+00 3.073785e-01 -5.777727e-01 4.445614e-02 3.355814e-02 -7.194503e-03 -1.997352e-02 -6.196318e-03 5.513879e-02 1.704058e-02 -9.263387e-03 -4.419131e-02 -7.184935e-02 -5.163662e-02 -5.644417e-03 1.257672e-02
<VARIANCE> 25
 2.454666e+01 3.811162e+01 3.846462e+01 4.770361e+01 4.418464e+01 6.574474e+01 5.200453e+01 3.430898e+01 4.841558e+01 3.668225e+01 3.724167e+01 2.379716e+01 7.782334e-01 1.540931e+00 1.341717e+00 1.346959e+00 1.560098e+00 2.824059e+00 2.173176e+00 1.931018e+00 2.374871e+00 1.932287e+00 2.046024e+00 1.349664e+00 6.910396e-01
<GCONST> 9.589324e+01
<STATE> 3
<MEAN> 25
 2.637504e+00 -1.126890e+00 -1.624894e+00 -9.117309e-01 -1.578860e+00 -2.789705e+00 -8.967512e-01 -8.090206e-01 -2.978191e+00 -1.763554e+00 2.119540e-01 -6.490138e-01 2.014890e-02 6.100567e-02 1.804937e-02 1.993471e-02 5.671458e-02 6.747930e-02 -2.920690e-02 -4.739615e-02 -7.843851e-03 -5.313049e-02 -6.886831e-02 -2.628038e-02 -1.487399e-02
<VARIANCE> 25
 2.316976e+01 3.890499e+01 3.871220e+01 4.889085e+01 4.449348e+01 6.507346e+01 5.266555e+01 3.488823e+01 4.718902e+01 3.647329e+01 3.794582e+01 2.453477e+01 7.535632e-01 1.563249e+00 1.327388e+00 1.343766e+00 1.541454e+00 2.888071e+00 2.233361e+00 1.974617e+00 2.328799e+00 1.971640e+00 2.088265e+00 1.341606e+00 6.748887e-01
<GCONST> 9.595152e+01
<STATE> 4
<MEAN> 25
 2.780136e+00 -8.093908e-01 -1.569654e+00 -6.812312e-01 -1.351598e+00 -2.676802e+00 -1.163480e+00 -1.073255e+00 -3.020441e+00 -2.022256e+00 -1.549905e-01 -7.923794e-01 -6.084253e-02 1.281199e-01 8.454511e-02 5.794919e-02 1.359565e-01 1.547219e-01 -2.378931e-02 -5.856439e-02 9.082960e-02 1.265652e-02 -8.138447e-02 -2.860840e-02 -9.564109e-02
<VARIANCE> 25
 2.109210e+01 3.779332e+01 3.687891e+01 4.778775e+01 4.192359e+01 6.400361e+01 5.174774e+01 3.420456e+01 4.408635e+01 3.433796e+01 3.669097e+01 2.429081e+01 6.153225e-01 1.358592e+00 1.167452e+00 1.202427e+00 1.360737e+00 2.594918e+00 2.072888e+00 1.836190e+00 2.044947e+00 1.807028e+00 1.910945e+00 1.253469e+00 5.562053e-01
<GCONST> 9.394309e+01
<TRANSP> 5
 0.000000e+00 1.000000e+00 0.000000e+00 0.000000e+00 0.000000e+00
 0.000000e+00 4.743758e-01 5.256242e-01 0.000000e+00 0.000000e+00
 0.000000e+00 0.000000e+00 4.911454e-01 5.088545e-01 0.000000e+00
 0.000000e+00 0.000000e+00 0.000000e+00 6.062715e-01 3.937285e-01
 0.000000e+00 0.000000e+00 0.000000e+00 0.000000e+00 0.000000e+00
<ENDHMM>
~h "p"
<BEGINHMM>
<NUMSTATES> 5
<STATE> 2
<MEAN> 25
 2.089015e+00 -1.332849e+00 -1.560758e+00 -4.770122e-01 -7.462683e-01 -2.653930e+00 -1.729962e+00 -1.707150e+00 -2.424101e+00 -9.441571e-01 7.597064e-01 -3.613406e-01 1.290731e-01 2.178827e-02 -9.553399e-02 -6.655366e-02 -4.116533e-02 -1.090225e-01 -8.033584e-02 -1.031675e-01 -1.392298e-01 -1.069572e-01 -9.162863e-04 7.970505e-03 7.444476e-02
<VARIANCE> 25
 2.775490e+01 3.255410e+01 3.706165e+01 4.568256e+01 4.161054e+01 6.703322e+01 6.137312e+01 3.985791e+01 4.848030e+01 3.394369e+01 3.118341e+01 2.388857e+01 1.242492e+00 1.581522e+00 1.567745e+00 1.454483e+00 1.791419e+00 3.406172e+00 3.007862e+00 2.583103e+00 2.847004e+00 2.074594e+00 1.991362e+00 1.419823e+00 9.535794e-01
<GCONST> 9.806898e+01
<STATE> 3
<MEAN> 25
 2.525274e+00 -1.400596e+00 -1.875118e+00 -6.550472e-01 -9.691597e-01 -3.143461e+00 -1.993350e+00 -1.864942e+00 -2.863477e+00 -1.343337e+00 6.728241e-01 -3.736599e-01 8.503386e-02 5.274893e-02 -3.788223e-02 -6.718243e-02 -7.090623e-02 -9.068391e-02 -5.104887e-03 4.946217e-02 -5.019530e-02 -1.256447e-01 -8.217256e-02 -4.150861e-03 3.582725e-02
<VARIANCE> 25
 2.602770e+01 3.161701e+01 3.750006e+01 4.806973e+01 4.459726e+01 6.634999e+01 6.319766e+01 4.224128e+01 4.712310e+01 3.419770e+01 3.088184e+01 2.475371e+01 1.301665e+00 1.620613e+00 1.588293e+00 1.583999e+00 1.931140e+00 3.774956e+00 3.149406e+00 2.542474e+00 2.779930e+00 2.119055e+00 1.974641e+00 1.475551e+00 9.759582e-01
<GCONST> 9.861752e+01
<STATE> 4
<MEAN> 25
 2.748727e+00 -1.201974e+00 -2.054307e+00 -1.010170e+00 -1.382809e+00 -3.266500e+00 -1.718295e+00 -1.343967e+00 -2.759241e+00 -1.681086e+00 3.627857e-01 -2.715465e-01 -8.671339e-02 1.152462e-01 9.415922e-02 -4.951907e-02 -1.519701e-02 1.284917e-01 1.592025e-01 1.838166e-01 1.357104e-01 -3.135091e-02 -1.216084e-01 -7.340821e-03 -9.263184e-02
<VARIANCE> 25
 2.469816e+01 3.145220e+01 3.813770e+01 5.082027e+01 4.781602e+01 6.592846e+01 6.262558e+01 4.215599e+01 4.451323e+01 3.373573e+01 2.976263e+01 2.510897e+01 9.862183e-01 1.330450e+00 1.354171e+00 1.422009e+00 1.731631e+00 3.180736e+00 2.597896e+00 2.151509e+00 2.307773e+00 1.920686e+00 1.786527e+00 1.384622e+00 7.187479e-01
<GCONST> 9.645530e+01
<TRANSP> 5
 0.000000e+00 1.000000e+00 0.000000e+00 0.000000e+00 0.000000e+00
 0.000000e+00 4.786174e-01 5.213826e-01 0.000000e+00 0.000000e+00
 0.000000e+00 0.000000e+00 4.982893e-01 5.017108e-01 0.000000e+00
 0.000000e+00 0.000000e+00 0.000000e+00 6.092803e-01 3.907196e-01
 0.000000e+00 0.000000e+00 0.000000e+00 0.000000e+00 0.000000e+00
<ENDHMM>
~h "r"
<BEGINHMM>
<NUMSTATES> 5
<STATE> 2
<MEAN> 25
 1.148820e+00 -7.265280e-01 -4.478109e-01 -6.837807e-01 -4.276751e-01 -1.726516e+00 -6.450135e-01 -1.030643e+00 -1.828892e+00 -8.891637e-01 4.835956e-01 -9.639294e-01 1.274422e-01 -1.423244e-01 -9.757569e-02 -5.225749e-02 -1.233243e-01 -2.208041e-01 -4.997752e-02 -3.632892e-02 -1.849358e-01 -6.043135e-02 6.755663e-02 -1.936530e-02 1.598837e-01
<VARIANCE> 25
 3.031450e+01 3.592886e+01 4.231198e+01 5.087824e+01 4.560462e+01 7.053442e+01 5.566525e+01 3.534445e+01 4.387983e+01 3.177105e+01 3.458646e+01 2.421625e+01 1.291548e+00 1.651794e+00 1.783388e+00 1.769643e+00 1.949682e+00 3.439457e+00 2.983146e+00 2.405166e+00 2.851824e+00 2.149198e+00 2.340317e+00 1.487172e+00 8.282452e-01
<GCONST> 9.889806e+01
<STATE> 3
<MEAN> 25
 1.846494e+00 -1.352305e+00 -1.008947e+00 -7.539926e-01 -9.688083e-01 -2.796289e+00 -1.091043e+00 -1.236791e+00 -2.611702e+00 -1.190776e+00 6.978133e-01 -9.657645e-01 2.258905e-01 -1.927645e-01 -1.777515e-01 -1.493612e-02 -1.620422e-01 -3.345873e-01 -1.452760e-01 -3.043513e-02 -2.269783e-01 -9.362436e-02 4.919764e-02 1.428466e-02 2.090219e-01
<VARIANCE> 25
 2.908826e+01 3.623332e+01 4.413768e+01 5.543204e+01 4.988277e+01 7.138529e+01 6.029587e+01 3.872741e+01 4.446553e+01 3.362072e+01 3.597944e+01 2.534987e+01 1.382628e+00 1.907914e+00 1.919065e+00 1.859139e+00 2.125397e+00 4.001961e+00 3.294564e+00 2.602494e+00 3.132178e+00 2.350787e+00 2.572663e+00 1.588063e+00 9.530331e-01
<GCONST> 1.006561e+02
<STATE> 4
<MEAN> 25
 2.744025e+00 -1.920828e+00 -1.750123e+00 -7.805048e-01 -1.722156e+00 -3.996310e+00 -1.538822e+00 -1.118914e+00 -3.220623e+00 -1.587564e+00 6.548772e-01 -9.173671e-01 8.303442e-02 -4.894079e-02 -8.056895e-02 5.964377e-03 -3.217277e-02 -6.663854e-02 -4.384977e-02 5.037398e-02 -8.237195e-03 -3.015153e-02 -4.648708e-02 3.405931e-02 5.080056e-02
<VARIANCE> 25
 2.533459e+01 3.679402e+01 4.294785e+01 5.848342e+01 5.248962e+01 7.188992e+01 6.404409e+01 4.033453e+01 4.421521e+01 3.506824e+01 3.768242e+01 2.563652e+01 9.795375e-01 1.658651e+00 1.571661e+00 1.566648e+00 1.808776e+00 3.551270e+00 2.882691e+00 2.309711e+00 2.648426e+00 2.155140e+00 2.299681e+00 1.457551e+00 7.814658e-01
<GCONST> 9.877223e+01
<TRANSP> 5
 0.000000e+00 1.000000e+00 0.000000e+00 0.000000e+00 0.000000e+00
 0.000000e+00 4.869578e-01 5.130422e-01 0.000000e+00 0.000000e+00
 0.000000e+00 0.000000e+00 5.138541e-01 4.861459e-01 0.000000e+00
 0.000000e+00 0.000000e+00 0.000000e+00 6.276141e-01 3.723859e-01
 0.000000e+00 0.000000e+00 0.000000e+00 0.000000e+00 0.000000e+00
<ENDHMM>
~h "s"
<BEGINHMM>
<NUMSTATES> 5
<STATE> 2
<MEAN> 25
 1.639779e+00 -1.087295e+00 -5.905356e-01 -1.042340e-01 -6.652651e-01 -3.001343e+00 -1.751911e+00 -1.110637e+00 -1.965448e+00 -1.153580e+00 1.567904e-01 -8.852813e-01 3.230600e-02 -9.667260e-02 -1.757672e-02 -1.089343e-01 2.196196e-02 -2.142456e-01 -1.132238e-01 -7.535843e-02 -1.108624e-01 -4.327654e-03 7.563597e-02 -9.804787e-02 1.518665e-01
<VARIANCE> 25
 3.341910e+01 3.728898e+01 4.249583e+01 5.518475e+01 4.608791e+01 7.836082e+01 6.197432e+01 3.933929e+01 4.790810e+01 3.619850e+01 3.664960e+01 2.419359e+01 1.135978e+00 1.616586e+00 1.599011e+00 1.840721e+00 1.860092e+00 3.456744e+00 2.854123e+00 2.374511e+00 2.644454e+00 2.163669e+00 2.250709e+00 1.490424e+00 7.652270e-01
<GCONST> 9.922031e+01
<STATE> 3
<MEAN> 25
 1.954232e+00 -1.557252e+00 -9.103439e-01 -3.522124e-01 -6.974324e-01 -3.895434e+00 -2.224993e+00 -1.520874e+00 -2.531594e+00 -1.234621e+00 4.274902e-01 -1.130727e+00 7.389879e-02 -7.787432e-02 -6.684800e-02 -1.259619e-01 3.064041e-02 -2.234188e-01 -1.276413e-01 -1.103596e-01 -1.487346e-01 -1.908646e-02 4.251984e-02 -7.414494e-02 1.644489e-01
<VARIANCE> 25
 3.541014e+01 3.810388e+01 4.530542e+01 6.040455e+01 5.085621e+01 7.605791e+01 6.663459e+01 4.259391e+01 4.785135e+01 3.750460e+01 3.900515e+01 2.558424e+01 1.474759e+00 1.841625e+00 1.806324e+00 2.049451e+00 2.103577e+00 3.971505e+00 3.294660e+00 2.676094e+00 2.993520e+00 2.371273e+00 2.448644e+00 1.592088e+00 8.660704e-01
<GCONST> 1.014625e+02
<STATE> 4
<MEAN> 25
 2.483115e+00 -2.041876e+00 -1.389883e+00 -4.938772e-01 -7.150930e-01 -4.869586e+00 -2.959133e+00 -1.919860e+00 -3.105303e+00 -1.362831e+00 4.520732e-01 -1.339953e+00 -3.667604e-02 6.566034e-02 1.135615e-02 -1.681410e-01 7.283277e-02 4.807476e-02 5.148003e-02 4.699447e-02 1.901446e-02 1.213989e-03 -2.111437e-02 -4.169908e-03 1.887149e-02
<VARIANCE> 25
 3.352227e+01 3.837236e+01 4.645683e+01 6.558839e+01 5.309041e+01 7.179031e+01 6.889862e+01 4.321492e+01 4.613380e+01 3.820332e+01 4.037664e+01 2.635479e+01 1.581319e+00 1.771300e+00 1.808795e+00 2.018624e+00 2.087112e+00 3.803866e+00 3.139748e+00 2.608390e+00 2.901530e+00 2.316817e+00 2.363306e+00 1.562662e+00 7.727551e-01
<GCONST> 1.012712e+02
<TRANSP> 5
 0.000000e+00 1.000000e+00 0.000000e+00 0.000000e+00 0.000000e+00
 0.000000e+00 4.889844e-01 5.110156e-01 0.000000e+00 0.000000e+00
 0.000000e+00 0.000000e+00 5.253550e-01 4.746450e-01 0.000000e+00
 0.000000e+00 0.000000e+00 0.000000e+00 6.773157e-01 3.226843e-01
 0.000000e+00 0.000000e+00 0.000000e+00 0.000000e+00 0.000000e+00
<ENDHMM>
~h "t"
<BEGINHMM>
<NUMSTATES> 5
<STATE> 2
<MEAN> 25
 1.636308e+00 -7.431385e-01 -9.780540e-01 -1.205922e+00 -9.996228e-01 -1.974227e+00 -6.177218e-01 -7.977179e-01 -2.205455e+00 -1.374845e+00 2.755778e-01 -5.002345e-01 1.941980e-01 -2.392158e-01 -2.313853e-01 -1.162031e-01 -1.416792e-01 -2.567217e-01 -5.508046e-02 -8.906156e-02 -2.771576e-01 -6.903989e-02 1.709640e-01 1.582723e-02 2.333195e-01
<VARIANCE> 25
 3.177896e+01 4.013945e+01 4.446393e+01 4.754516e+01 4.838116e+01 6.784802e+01 5.418050e+01 3.950567e+01 4.905785e+01 3.772681e+01 3.515947e+01 2.333320e+01 1.359564e+00 2.033981e+00 1.934493e+00 1.720278e+00 2.084912e+00 3.874367e+00 3.009755e+00 2.699604e+00 3.221012e+00 2.308023e+00 2.469233e+00 1.531449e+00 1.073293e+00
<GCONST> 1.005632e+02
<STATE> 3
<MEAN> 25
 2.487091e+00 -1.674144e+00 -1.921126e+00 -1.628901e+00 -1.668580e+00 -3.037178e+00 -9.389406e-01 -1.012250e+00 -3.220015e+00 -1.687034e+00 8.012064e-01 -3.580446e-01 2.923823e-01 -2.953690e-01 -2.928779e-01 -9.897892e-02 -1.799875e-01 -3.730851e-01 -1.668805e-01 -8.923525e-02 -3.197602e-01 -1.026452e-01 1.462364e-01 2.443766e-02 3.040101e-01
<VARIANCE> 25
 2.963118e+01 4.070038e+01 4.591262e+01 5.013172e+01 5.187393e+01 6.592242e+01 5.857815e+01 4.522256e+01 4.971289e+01 4.118160e+01 3.766328e+01 2.482387e+01 1.662513e+00 2.463660e+00 2.224991e+00 1.939670e+00 2.433941e+00 4.740145e+00 3.649585e+00 3.204597e+00 3.790610e+00 2.704146e+00 2.830010e+00 1.688812e+00 1.334267e+00
<GCONST> 1.032244e+02
<STATE> 4
<MEAN> 25
 3.702187e+00 -2.900643e+00 -3.426949e+00 -2.615821e+00 -2.865866e+00 -4.149125e+00 -1.124432e+00 -6.282918e-01 -4.091588e+00 -2.129387e+00 1.032872e+00 -3.676924e-02 7.009236e-02 -7.760945e-02 -9.573249e-02 -2.354223e-02 -3.599109e-03 -5.781357e-02 -4.637526e-02 4.299734e-02 3.557266e-02 1.199751e-02 -1.843529e-02 -1.136783e-02 7.058574e-02
<VARIANCE> 25
 2.361445e+01 4.249358e+01 4.498139e+01 5.480240e+01 5.593382e+01 6.395742e+01 6.402055e+01 5.047810e+01 4.858260e+01 4.523302e+01 4.006183e+01 2.653230e+01 1.418588e+00 2.359026e+00 2.055424e+00 1.884116e+00 2.365034e+00 4.700046e+00 3.535334e+00 3.060367e+00 3.454437e+00 2.740365e+00 2.732499e+00 1.676818e+00 1.186370e+00
<GCONST> 1.028875e+02
<TRANSP> 5
 0.000000e+00 1.000000e+00 0.000000e+00 0.000000e+00 0.000000e+00
 0.000000e+00 5.203184e-01 4.796816e-01 0.000000e+00 0.000000e+00
 0.000000e+00 0.000000e+00 5.668591e-01 4.331408e-01 0.000000e+00
 0.000000e+00 0.000000e+00 0.000000e+00 7.669209e-01 2.330791e-01
 0.000000e+00 0.000000e+00 0.000000e+00 0.000000e+00 0.000000e+00
<ENDHMM>
~h "v"
<BEGINHMM>
<NUMSTATES> 5
<STATE> 2
<MEAN> 25
 1.583336e+00 -1.276130e+00 -9.266573e-01 -6.510796e-01 -8.135551e-01 -2.088813e+00 -8.150479e-01 -3.219087e-01 -1.821583e+00 -1.391700e+00 -1.751383e-01 -8.051368e-01 1.905870e-01 -3.498724e-01 -1.603217e-01 -2.698013e-02 -1.327196e-01 -4.732538e-01 -2.316365e-01 -4.167911e-02 -2.002161e-01 -7.451688e-02 8.144937e-02 -8.074738e-02 3.348286e-01
<VARIANCE> 25
 2.741854e+01 4.176696e+01 4.710760e+01 6.452872e+01 5.527526e+01 7.376317e+01 6.125930e+01 4.251678e+01 4.658025e+01 3.815371e+01 3.329594e+01 2.526146e+01 1.324745e+00 2.199666e+00 2.008639e+00 2.211363e+00 2.121600e+00 4.432903e+00 3.440175e+00 2.641629e+00 3.305611e+00 2.714422e+00 2.582862e+00 1.704174e+00 1.098861e+00
<GCONST> 1.021847e+02
<STATE> 3
<MEAN> 25
 2.272418e+00 -2.382945e+00 -1.507900e+00 -6.749608e-01 -1.369332e+00 -3.693036e+00 -1.611007e+00 -3.757930e-01 -2.431029e+00 -1.628763e+00 4.566748e-02 -1.005482e+00 1.998875e-01 -3.103012e-01 -1.538409e-01 -1.557248e-02 -1.810008e-01 -4.531552e-01 -2.045880e-01 3.725732e-03 -1.471031e-01 -6.408561e-02 3.865907e-02 -8.122037e-02 2.964837e-01
<VARIANCE> 25
 2.689688e+01 4.201794e+01 5.046303e+01 7.737064e+01 6.311160e+01 7.777980e+01 6.945295e+01 4.497042e+01 4.513765e+01 4.064865e+01 3.704652e+01 2.941204e+01 1.343014e+00 2.296363e+00 2.070640e+00 2.367173e+00 2.155147e+00 4.856470e+00 3.827857e+00 2.697677e+00 3.396028e+00 2.799812e+00 2.721613e+00 1.808697e+00 1.133564e+00
<GCONST> 1.036706e+02
<STATE> 4
<MEAN> 25
 3.105929e+00 -3.444469e+00 -2.347173e+00 -1.180356e+00 -2.724950e+00 -5.330745e+00 -1.760127e+00 2.851593e-01 -2.725943e+00 -1.968165e+00 -1.046487e-01 -1.150098e+00 5.898482e-02 2.199408e-03 -6.898798e-02 -6.290226e-02 -8.739678e-02 -3.660373e-02 7.338085e-02 5.407300e-02 2.852897e-02 -2.229568e-02 -3.732345e-02 -3.578398e-02 2.461843e-02
<VARIANCE> 25
 2.375157e+01 4.044019e+01 5.210415e+01 9.594144e+01 7.263419e+01 7.726541e+01 7.757536e+01 4.548629e+01 4.335647e+01 4.145800e+01 4.112022e+01 3.279205e+01 1.130696e+00 1.994173e+00 1.836654e+00 2.141403e+00 2.019634e+00 4.304572e+00 3.501672e+00 2.369815e+00 2.999938e+00 2.597336e+00 2.539112e+00 1.708495e+00 9.676192e-01
<GCONST> 1.027823e+02
<TRANSP> 5
 0.000000e+00 1.000000e+00 0.000000e+00 0.000000e+00 0.000000e+00
 0.000000e+00 5.407766e-01 4.592234e-01 0.000000e+00 0.000000e+00
 0.000000e+00 0.000000e+00 5.759318e-01 4.240681e-01 0.000000e+00
 0.000000e+00 0.000000e+00 0.000000e+00 7.681300e-01 2.318700e-01
 0.000000e+00 0.000000e+00 0.000000e+00 0.000000e+00 0.000000e+00
<ENDHMM>
~h "w"
<BEGINHMM>
<NUMSTATES> 5
<STATE> 2
<MEAN> 25
 -4.518323e-01 2.838728e-01 5.968558e-01 -2.271649e-02 5.051567e-01 1.466858e-01 2.895804e-02 -4.101147e-02 4.519774e-01 3.054864e-01 -9.262049e-02 -4.925189e-01 -6.974375e-02 1.694545e-01 1.790663e-01 4.637550e-02 1.387548e-02 1.113233e-01 6.301022e-02 2.212819e-02 1.033668e-01 -2.966732e-02 -1.538026e-01 -9.506930e-02 -8.276781e-02
<VARIANCE> 25
 3.101532e+01 3.527087e+01 3.375025e+01 4.267664e+01 3.329699e+01 7.299824e+01 4.705058e+01 2.751033e+01 4.357936e+01 3.076971e+01 3.044401e+01 2.129621e+01 6.778951e-01 1.021810e+00 8.985144e-01 9.343930e-01 1.014212e+00 1.847973e+00 1.547022e+00 1.431106e+00 1.891296e+00 1.669477e+00 1.607712e+00 1.267812e+00 4.213539e-01
<GCONST> 9.073285e+01
<STATE> 3
<MEAN> 25
 7.297379e-03 2.963411e-01 6.592024e-01 1.814171e-01 2.469265e-01 -4.739136e-01 -3.485355e-01 -3.560196e-01 -2.464207e-02 -1.738562e-01 -4.715628e-01 -9.467485e-01 2.825579e-02 1.480063e-01 1.027466e-01 5.033908e-02 -3.027573e-02 3.956566e-02 -4.625098e-03 -5.744127e-02 -1.484165e-02 -9.670278e-02 -1.437774e-01 -9.110176e-02 -4.338427e-02
<VARIANCE> 25
 2.994981e+01 4.035429e+01 3.451534e+01 4.409321e+01 3.442088e+01 7.292252e+01 4.708818e+01 2.726694e+01 4.163737e+01 3.209093e+01 3.384655e+01 2.184678e+01 7.084166e-01 1.091404e+00 9.435826e-01 9.935026e-01 1.072544e+00 2.009470e+00 1.609360e+00 1.463386e+00 2.001962e+00 1.723189e+00 1.693928e+00 1.279125e+00 4.653289e-01
<GCONST> 9.171022e+01
<STATE> 4
<MEAN> 25
 1.956849e-01 3.903539e-01 7.562875e-01 5.817244e-01 2.215359e-01 -6.895921e-01 -6.388060e-01 -5.909144e-01 -1.618823e-01 -3.732205e-01 -6.936480e-01 -1.154777e+00 7.585233e-02 9.613845e-02 6.289965e-03 3.151497e-02 -3.811488e-02 -9.861272e-03 -3.123512e-02 -7.682550e-02 -7.969042e-02 -1.154564e-01 -7.917652e-02 -3.258839e-02 -1.841933e-02
<VARIANCE> 25
 2.808899e+01 4.125731e+01 3.276057e+01 4.305746e+01 3.370147e+01 7.262708e+01 4.713696e+01 2.695291e+01 4.078546e+01 3.276211e+01 3.488885e+01 2.219759e+01 6.822664e-01 1.170644e+00 1.028258e+00 1.108749e+00 1.159754e+00 2.333410e+00 1.761423e+00 1.530769e+00 2.074219e+00 1.656285e+00 1.801181e+00 1.264709e+00 5.162396e-01
<GCONST> 9.234368e+01
<TRANSP> 5
 0.000000e+00 1.000000e+00 0.000000e+00 0.000000e+00 0.000000e+00
 0.000000e+00 5.216904e-01 4.783095e-01 0.000000e+00 0.000000e+00
 0.000000e+00 0.000000e+00 4.932262e-01 5.067738e-01 0.000000e+00
 0.000000e+00 0.000000e+00 0.000000e+00 5.872292e-01 4.127708e-01
 0.000000e+00 0.000000e+00 0.000000e+00 0.000000e+00 0.000000e+00
<ENDHMM>
~h "y"
<BEGINHMM>
<NUMSTATES> 5
<STATE> 2
<MEAN> 25
 1.150444e+00 -6.924876e-01 -8.085870e-01 -8.815571e-02 -3.097388e-01 -1.439773e+00 -1.226647e+00 -8.218207e-01 -2.693789e-01 3.702903e-02 9.528718e-02 -3.955033e-01 -2.824364e-02 1.391335e-01 2.032752e-01 2.811463e-01 1.507134e-01 -6.760495e-02 -1.898389e-01 -5.541357e-02 5.841744e-02 -1.093400e-01 -2.321436e-01 -1.218904e-01 -7.335712e-02
<VARIANCE> 25
 2.662226e+01 3.278223e+01 3.427222e+01 4.715741e+01 3.119922e+01 8.001309e+01 5.847248e+01 2.873918e+01 3.729874e+01 3.303981e+01 3.233604e+01 2.187922e+01 6.576257e-01 9.097037e-01 9.558610e-01 1.581791e+00 1.139341e+00 2.996356e+00 2.260050e+00 1.632270e+00 2.149819e+00 2.059402e+00 1.870221e+00 1.238381e+00 4.905453e-01
<GCONST> 9.308246e+01
<STATE> 3
<MEAN> 25
 1.448824e+00 -6.532149e-01 -4.776435e-01 8.735322e-01 -9.041759e-02 -2.369348e+00 -2.194736e+00 -1.149524e+00 -5.165197e-01 -4.420930e-01 -4.740301e-01 -8.400192e-01 -1.038333e-03 1.199625e-01 1.840262e-01 3.237340e-01 1.398041e-01 -1.293017e-01 -2.368499e-01 -5.786870e-02 1.568845e-02 -1.372178e-01 -1.954671e-01 -9.544560e-02 -7.707278e-02
<VARIANCE> 25
 2.362819e+01 3.255289e+01 3.510701e+01 5.222152e+01 2.898250e+01 8.229192e+01 5.942348e+01 2.757021e+01 3.547715e+01 3.459311e+01 3.239865e+01 2.310140e+01 6.579308e-01 9.807125e-01 9.399194e-01 1.746914e+00 1.134590e+00 3.496657e+00 2.449714e+00 1.616353e+00 2.059574e+00 2.004046e+00 1.843654e+00 1.213067e+00 5.421571e-01
<GCONST> 9.343742e+01
<STATE> 4
<MEAN> 25
 2.084724e+00 -1.098994e+00 -2.574275e-01 2.592336e+00 3.163993e-01 -4.496997e+00 -4.418411e+00 -1.789732e+00 -9.757749e-01 -1.159858e+00 -8.813086e-01 -1.551515e+00 -6.998026e-02 1.500451e-01 9.456643e-02 6.030824e-02 1.068817e-01 1.806772e-01 7.073577e-03 -1.622259e-02 3.642260e-02 -3.306176e-02 -2.474687e-02 2.080558e-02 -1.374295e-01
<VARIANCE> 25
 1.965046e+01 3.065516e+01 3.222361e+01 5.893474e+01 2.669859e+01 8.829194e+01 6.634394e+01 2.814945e+01 3.670195e+01 3.839039e+01 3.099747e+01 2.537122e+01 5.353636e-01 1.102348e+00 9.193391e-01 1.717543e+00 1.222723e+00 3.243306e+00 2.441088e+00 1.667231e+00 1.994041e+00 1.756069e+00 1.848231e+00 1.319219e+00 5.234557e-01
<GCONST> 9.332066e+01
<TRANSP> 5
 0.000000e+00 1.000000e+00 0.000000e+00 0.000000e+00 0.000000e+00
 0.000000e+00 4.782932e-01 5.217068e-01 0.000000e+00 0.000000e+00
 0.000000e+00 0.000000e+00 4.844250e-01 5.155749e-01 0.000000e+00
 0.000000e+00 0.000000e+00 0.000000e+00 6.408558e-01 3.591441e-01
 0.000000e+00 0.000000e+00 0.000000e+00 0.000000e+00 0.000000e+00
<ENDHMM>
~h "z"
<BEGINHMM>
<NUMSTATES> 5
<STATE> 2
<MEAN> 25
 2.814336e+00 -1.691538e+00 -1.185317e+00 1.272410e+00 -8.956485e-01 -4.799735e+00 -3.064082e+00 -1.875825e+00 -3.199703e+00 -2.142770e+00 -4.081670e-01 -1.428581e+00 2.655912e-01 -2.313923e-01 -1.667917e-01 1.453047e-01 -4.824671e-02 -4.386998e-01 -3.557600e-01 -2.576620e-01 -3.795089e-01 -1.266114e-01 7.380115e-02 -6.220198e-02 2.415327e-01
<VARIANCE> 25
 2.033177e+01 3.656341e+01 3.547972e+01 5.532948e+01 3.667745e+01 7.846889e+01 6.102430e+01 3.627393e+01 4.965086e+01 4.137644e+01 4.280782e+01 2.605276e+01 1.069660e+00 2.037651e+00 1.675722e+00 1.661225e+00 1.700911e+00 4.330873e+00 3.134431e+00 2.561528e+00 3.365126e+00 2.483165e+00 2.774451e+00 1.634455e+00 9.821966e-01
<GCONST> 9.995195e+01
<STATE> 3
<MEAN> 25
 3.420460e+00 -2.392479e+00 -1.594238e+00 1.554966e+00 -1.023844e+00 -5.910180e+00 -3.951433e+00 -2.500589e+00 -4.151018e+00 -2.294247e+00 -7.373935e-02 -1.543400e+00 1.683974e-01 -1.768186e-01 -1.294993e-01 5.031875e-04 -3.238296e-02 -2.359013e-01 -1.973992e-01 -1.412438e-01 -2.398854e-01 -2.268991e-02 1.141347e-01 1.618745e-03 1.900619e-01
<VARIANCE> 25
 1.735593e+01 3.551036e+01 3.472483e+01 5.690615e+01 3.648193e+01 7.516703e+01 6.125570e+01 3.797743e+01 5.059809e+01 4.188982e+01 4.816748e+01 2.803189e+01 1.161905e+00 2.261740e+00 1.854776e+00 1.769859e+00 1.837667e+00 4.724350e+00 3.223165e+00 2.654390e+00 3.504616e+00 2.633032e+00 2.969844e+00 1.706324e+00 1.089093e+00
<GCONST> 1.008882e+02
<STATE> 4
<MEAN> 25
 3.806166e+00 -3.119951e+00 -2.116323e+00 1.051308e+00 -1.204780e+00 -6.514451e+00 -4.335995e+00 -2.737916e+00 -4.783699e+00 -2.037121e+00 5.317871e-01 -1.554558e+00 -9.073041e-02 7.425908e-02 4.997602e-02 -1.799175e-01 1.037759e-01 2.510525e-01 1.290787e-01 6.426743e-02 1.050861e-01 7.369295e-02 3.363708e-02 4.578466e-02 -3.271529e-02
<VARIANCE> 25
 1.593167e+01 3.694571e+01 3.685007e+01 5.972595e+01 3.924051e+01 7.006286e+01 5.929980e+01 3.781261e+01 5.161403e+01 4.175645e+01 5.235264e+01 3.108613e+01 1.105351e+00 2.122219e+00 1.935679e+00 1.824458e+00 1.879377e+00 4.182652e+00 2.903808e+00 2.537107e+00 3.308753e+00 2.611712e+00 2.854580e+00 1.745600e+00 9.808656e-01
<GCONST> 1.006427e+02
<TRANSP> 5
 0.000000e+00 1.000000e+00 0.000000e+00 0.000000e+00 0.000000e+00
 0.000000e+00 5.528919e-01 4.471081e-01 0.000000e+00 0.000000e+00
 0.000000e+00 0.000000e+00 5.950068e-01 4.049932e-01 0.000000e+00
 0.000000e+00 0.000000e+00 0.000000e+00 8.022087e-01 1.977913e-01
 0.000000e+00 0.000000e+00 0.000000e+00 0.000000e+00 0.000000e+00
<ENDHMM>
~h "aa"
<BEGINHMM>
<NUMSTATES> 5
<STATE> 2
<MEAN> 25
 8.127546e-01 2.873221e-01 6.862681e-01 1.115476e+00 8.588997e-01 -1.194021e+00 -2.023705e+00 -1.956603e+00 -8.496352e-01 -4.863219e-01 -7.226620e-01 -1.425031e+00 -6.820679e-02 1.426930e-01 1.184240e-01 -2.309277e-02 1.978500e-02 1.062404e-01 6.166730e-02 2.270469e-02 7.850476e-02 -4.195713e-03 -7.950328e-02 -1.985555e-02 -8.370166e-02
<VARIANCE> 25
 2.638138e+01 3.303590e+01 3.677435e+01 4.171424e+01 3.071042e+01 6.704246e+01 5.506810e+01 3.260606e+01 3.541045e+01 2.780179e+01 3.071451e+01 2.231549e+01 8.635943e-01 1.117605e+00 1.246080e+00 1.327990e+00 1.386183e+00 2.680451e+00 2.190553e+00 1.751047e+00 1.795223e+00 1.568642e+00 1.710782e+00 1.195137e+00 5.023533e-01
<GCONST> 9.278516e+01
<STATE> 3
<MEAN> 25
 8.577946e-01 4.558913e-01 8.134570e-01 1.015688e+00 7.860746e-01 -1.364292e+00 -2.097807e+00 -1.972496e+00 -9.437362e-01 -6.896982e-01 -8.676306e-01 -1.518062e+00 -9.425294e-03 8.363868e-02 8.135442e-03 -1.134716e-01 -7.167324e-02 3.440953e-02 1.047327e-01 7.127203e-02 -4.474046e-03 -5.451433e-02 -1.030569e-02 4.717652e-02 -2.880880e-02
<VARIANCE> 25
 2.685629e+01 3.302089e+01 3.823920e+01 4.356060e+01 3.373186e+01 6.748068e+01 5.695609e+01 3.415273e+01 3.448827e+01 2.672602e+01 3.086652e+01 2.274553e+01 9.765006e-01 1.277269e+00 1.409968e+00 1.429034e+00 1.585840e+00 2.917796e+00 2.375723e+00 1.871204e+00 1.858245e+00 1.604568e+00 1.799664e+00 1.220756e+00 5.975050e-01
<GCONST> 9.414619e+01
<STATE> 4
<MEAN> 25
 8.794492e-01 6.811142e-01 9.387608e-01 9.626608e-01 7.377841e-01 -1.598142e+00 -2.223353e+00 -1.864522e+00 -9.899825e-01 -9.130875e-01 -1.001356e+00 -1.498323e+00 2.617667e-02 4.844075e-03 -1.036585e-01 -2.188376e-01 -1.586608e-01 1.134552e-02 2.107502e-01 1.465542e-01 -6.408577e-02 -5.787621e-02 8.598349e-02 1.265631e-01 2.470715e-02
<VARIANCE> 25
 2.753241e+01 3.140305e+01 3.881002e+01 4.532240e+01 3.783656e+01 6.910271e+01 5.891371e+01 3.494882e+01 3.395287e+01 2.615861e+01 3.114811e+01 2.295912e+01 1.020299e+00 1.397127e+00 1.496560e+00 1.464627e+00 1.647597e+00 3.116077e+00 2.473050e+00 2.000007e+00 1.927327e+00 1.653248e+00 1.895066e+00 1.258240e+00 6.653058e-01
<GCONST> 9.503622e+01
<TRANSP> 5
 0.000000e+00 1.000000e+00 0.000000e+00 0.000000e+00 0.000000e+00
 0.000000e+00 5.013126e-01 4.986874e-01 0.000000e+00 0.000000e+00
 0.000000e+00 0.000000e+00 5.040593e-01 4.959408e-01 0.000000e+00
 0.000000e+00 0.000000e+00 0.000000e+00 6.183546e-01 3.816454e-01
 0.000000e+00 0.000000e+00 0.000000e+00 0.000000e+00 0.000000e+00
<ENDHMM>
~h "ae"
<BEGINHMM>
<NUMSTATES> 5
<STATE> 2
<MEAN> 25
 5.709122e-01 1.418863e-01 2.976834e-01 -6.291702e-01 -1.648711e-01 -1.109413e+00 -3.240426e-01 -4.272269e-01 -1.193367e+00 -9.080147e-01 -1.197854e-01 -8.141298e-01 -1.314497e-02 -6.220963e-02 -4.857653e-02 -1.370053e-01 -7.533664e-02 3.266958e-02 1.668039e-01 9.532867e-02 2.324434e-02 7.488830e-02 1.073436e-01 5.582627e-03 5.270160e-02
<VARIANCE> 25
 3.186902e+01 3.523400e+01 4.254978e+01 4.786963e+01 4.251914e+01 6.691543e+01 4.772646e+01 3.182011e+01 4.890646e+01 3.554480e+01 3.296802e+01 2.186570e+01 1.039436e+00 1.342326e+00 1.603637e+00 1.405524e+00 1.533512e+00 2.498059e+00 2.130458e+00 1.823390e+00 2.336300e+00 1.869482e+00 1.966801e+00 1.277096e+00 6.911626e-01
<GCONST> 9.578159e+01
<STATE> 3
<MEAN> 25
 9.250984e-01 -3.883816e-01 -2.236234e-01 -9.758774e-01 -6.134014e-01 -1.454726e+00 -1.064078e-01 -3.358453e-01 -1.555144e+00 -8.572063e-01 2.762564e-01 -7.979015e-01 1.406552e-01 -2.120937e-01 -2.147398e-01 -1.212990e-01 -1.647937e-01 -9.038353e-02 9.203937e-02 3.416334e-02 -1.222159e-01 4.178933e-02 1.558753e-01 1.977549e-02 1.685191e-01
<VARIANCE> 25
 3.232909e+01 3.897792e+01 4.788485e+01 4.882655e+01 4.465292e+01 6.655724e+01 4.861096e+01 3.241307e+01 4.862783e+01 3.707623e+01 3.545827e+01 2.222731e+01 1.184173e+00 1.780736e+00 1.897686e+00 1.514853e+00 1.684757e+00 2.798384e+00 2.209765e+00 1.915896e+00 2.652860e+00 1.978397e+00 2.171888e+00 1.338181e+00 9.683024e-01
<GCONST> 9.785758e+01
<STATE> 4
<MEAN> 25
 1.663788e+00 -1.137151e+00 -1.161612e+00 -1.361441e+00 -1.400993e+00 -1.895569e+00 9.964208e-02 -1.577254e-01 -2.104760e+00 -9.774399e-01 5.870340e-01 -6.381163e-01 1.594580e-01 -1.865755e-01 -2.091300e-01 -7.391962e-02 -1.334036e-01 -6.871278e-02 8.251118e-03 -1.661655e-02 -1.338323e-01 -1.219812e-03 8.510012e-02 4.237054e-02 1.534106e-01
<VARIANCE> 25
 3.033190e+01 4.348486e+01 5.078798e+01 4.834020e+01 4.563187e+01 6.598550e+01 4.983509e+01 3.311686e+01 4.789629e+01 3.752460e+01 3.713251e+01 2.222903e+01 9.823470e-01 1.705918e+00 1.671582e+00 1.444513e+00 1.597018e+00 2.792416e+00 2.171541e+00 1.891729e+00 2.484535e+00 1.899276e+00 2.039100e+00 1.309823e+00 9.091986e-01
<GCONST> 9.731080e+01
<TRANSP> 5
 0.000000e+00 1.000000e+00 0.000000e+00 0.000000e+00 0.000000e+00
 0.000000e+00 4.752054e-01 5.247946e-01 0.000000e+00 0.000000e+00
 0.000000e+00 0.000000e+00 4.858479e-01 5.141521e-01 0.000000e+00
 0.000000e+00 0.000000e+00 0.000000e+00 5.896441e-01 4.103559e-01
 0.000000e+00 0.000000e+00 0.000000e+00 0.000000e+00 0.000000e+00
<ENDHMM>
~h "ah"
<BEGINHMM>
<NUMSTATES> 5
<STATE> 2
<MEAN> 25
 1.031916e+00 2.410388e-01 -2.017089e-01 -4.302208e-01 -4.128740e-01 -6.059082e-01 -4.866248e-01 -7.405336e-01 -1.079063e+00 -7.841217e-01 -4.234232e-01 -5.721184e-01 -2.439111e-02 2.221521e-02 -9.557769e-03 -2.516293e-02 -3.099644e-02 1.078938e-01 1.125851e-01 3.485852e-02 8.720185e-03 2.193455e-02 5.104838e-02 5.512987e-02 -4.041338e-02
<VARIANCE> 25
 2.649863e+01 3.712620e+01 3.411419e+01 3.784676e+01 3.588013e+01 6.111661e+01 4.210985e+01 3.189907e+01 5.264686e+01 3.553317e+01 3.410023e+01 2.112273e+01 6.750070e-01 1.327306e+00 1.173774e+00 1.069546e+00 1.282355e+00 2.362407e+00 1.734440e+00 1.774049e+00 2.518835e+00 1.700687e+00 1.870378e+00 1.184121e+00 6.311075e-01
<GCONST> 9.315073e+01
<STATE> 3
<MEAN> 25
 1.352645e+00 -5.534400e-02 -5.483100e-01 -6.012371e-01 -7.194764e-01 -8.709204e-01 -4.139245e-01 -8.249559e-01 -1.616208e+00 -9.898717e-01 -1.518145e-01 -4.904013e-01 6.215298e-02 -7.105459e-02 -9.827621e-02 -3.633958e-02 -7.155784e-02 -4.184183e-02 4.957772e-02 -2.138114e-02 -1.360004e-01 -3.754929e-02 1.125197e-01 5.876898e-02 5.582706e-02
<VARIANCE> 25
 2.615891e+01 3.773060e+01 3.445999e+01 3.831310e+01 3.778138e+01 6.009114e+01 4.244302e+01 3.354227e+01 5.555656e+01 3.638929e+01 3.494239e+01 2.141207e+01 8.156459e-01 1.699427e+00 1.401460e+00 1.152804e+00 1.467824e+00 2.817575e+00 1.920945e+00 1.983104e+00 3.069389e+00 1.886359e+00 2.153376e+00 1.273722e+00 8.570375e-01
<GCONST> 9.541936e+01
<STATE> 4
<MEAN> 25
 1.940476e+00 -5.193421e-01 -1.166217e+00 -9.543778e-01 -1.266522e+00 -1.411980e+00 -3.709115e-01 -9.344289e-01 -2.529583e+00 -1.321813e+00 3.287925e-01 -2.474481e-01 8.971944e-02 -7.402003e-02 -1.012515e-01 -3.366771e-02 -5.605751e-02 -1.112401e-01 -1.451763e-02 -4.170667e-02 -1.425410e-01 -5.058264e-02 1.022155e-01 5.015604e-02 8.550777e-02
<VARIANCE> 25
 2.529835e+01 3.826025e+01 3.474680e+01 3.868869e+01 4.074728e+01 5.918020e+01 4.331805e+01 3.617178e+01 5.906570e+01 3.720855e+01 3.615789e+01 2.198688e+01 9.018386e-01 1.892982e+00 1.475902e+00 1.230087e+00 1.587417e+00 3.250079e+00 2.111560e+00 2.144607e+00 3.361723e+00 2.061520e+00 2.358796e+00 1.352768e+00 9.752018e-01
<GCONST> 9.689753e+01
<TRANSP> 5
 0.000000e+00 1.000000e+00 0.000000e+00 0.000000e+00 0.000000e+00
 0.000000e+00 4.768432e-01 5.231568e-01 0.000000e+00 0.000000e+00
 0.000000e+00 0.000000e+00 4.781231e-01 5.218769e-01 0.000000e+00
 0.000000e+00 0.000000e+00 0.000000e+00 5.920836e-01 4.079164e-01
 0.000000e+00 0.000000e+00 0.000000e+00 0.000000e+00 0.000000e+00
<ENDHMM>
~h "ao"
<BEGINHMM>
<NUMSTATES> 5
<STATE> 2
<MEAN> 25
 1.889872e+00 -1.650652e+00 3.835070e-01 3.688159e+00 1.414340e+00 -5.525436e+00 -5.284229e+00 -2.934529e+00 -1.710235e+00 -1.241151e+00 -1.252210e+00 -2.818388e+00 -2.021733e-02 6.625641e-02 1.030676e-01 7.118718e-02 4.861015e-02 -1.060562e-01 -1.045565e-01 2.488594e-02 7.246697e-02 -4.436651e-02 -1.265474e-01 -7.078639e-02 -1.433989e-02
<VARIANCE> 25
 2.305531e+01 3.407821e+01 3.481516e+01 5.641379e+01 3.446379e+01 8.589996e+01 6.521371e+01 3.045047e+01 3.676816e+01 3.480964e+01 3.768317e+01 2.410579e+01 7.929064e-01 1.133820e+00 1.118514e+00 1.359276e+00 1.466080e+00 3.197849e+00 2.558868e+00 1.905155e+00 1.915689e+00 1.665357e+00 1.661828e+00 1.282631e+00 5.071892e-01
<GCONST> 9.442908e+01
<STATE> 3
<MEAN> 25
 1.772885e+00 -1.208703e+00 5.208939e-01 3.217637e+00 1.445130e+00 -5.157938e+00 -4.984796e+00 -2.787037e+00 -1.732685e+00 -1.425984e+00 -1.371989e+00 -2.706810e+00 -2.225101e-02 1.492023e-01 2.919620e-02 -1.571627e-01 -3.302958e-02 1.043643e-01 1.198646e-01 9.606090e-02 1.161293e-02 -6.988893e-02 -4.702152e-02 7.087506e-02 -5.733445e-02
<VARIANCE> 25
 2.493939e+01 3.362066e+01 3.545579e+01 5.866526e+01 4.166030e+01 8.336220e+01 6.653588e+01 3.325667e+01 3.623584e+01 3.443488e+01 3.672206e+01 2.449143e+01 9.696904e-01 1.159799e+00 1.307911e+00 1.424373e+00 1.842080e+00 3.275433e+00 2.533188e+00 2.036961e+00 1.989980e+00 1.729305e+00 1.709698e+00 1.302915e+00 5.742466e-01
<GCONST> 9.576419e+01
<STATE> 4
<MEAN> 25
 1.671889e+00 -7.779309e-01 5.496710e-01 2.141531e+00 1.109018e+00 -4.838131e+00 -4.391232e+00 -2.438577e+00 -1.942122e+00 -1.763630e+00 -1.323982e+00 -2.394234e+00 -8.255817e-03 1.567775e-01 -6.105621e-02 -3.307684e-01 -1.624012e-01 2.235292e-01 3.128696e-01 1.997140e-01 3.683142e-02 -5.118146e-02 8.050667e-03 2.017026e-01 -6.718089e-02
<VARIANCE> 25
 2.806419e+01 3.193887e+01 3.789717e+01 6.086338e+01 5.847654e+01 7.642394e+01 6.659065e+01 4.054702e+01 3.652975e+01 3.345647e+01 3.611176e+01 2.497082e+01 1.188304e+00 1.283003e+00 1.502737e+00 1.515238e+00 1.977412e+00 3.249616e+00 2.652424e+00 2.177490e+00 2.180614e+00 1.837402e+00 1.839836e+00 1.396055e+00 6.244459e-01
<GCONST> 9.742635e+01
<TRANSP> 5
 0.000000e+00 1.000000e+00 0.000000e+00 0.000000e+00 0.000000e+00
 0.000000e+00 5.789141e-01 4.210859e-01 0.000000e+00 0.000000e+00
 0.000000e+00 0.000000e+00 5.738714e-01 4.261286e-01 0.000000e+00
 0.000000e+00 0.000000e+00 0.000000e+00 7.115749e-01 2.884251e-01
 0.000000e+00 0.000000e+00 0.000000e+00 0.000000e+00 0.000000e+00
<ENDHMM>
~h "aw"
<BEGINHMM>
<NUMSTATES> 5
<STATE> 2
<MEAN> 25
 1.257476e+00 5.051844e-01 -3.931388e-02 8.122820e-01 7.017890e-01 -1.397115e+00 -2.299717e+00 -1.758956e+00 -1.063180e+00 -9.309629e-01 -1.110492e+00 -1.318855e+00 -2.244910e-01 2.196347e-01 2.342455e-01 1.318901e-01 1.446184e-01 3.367471e-01 1.085512e-01 6.715773e-02 2.607153e-01 7.173703e-02 -1.399878e-01 5.784858e-03 -2.488160e-01
<VARIANCE> 25
 2.130417e+01 2.592368e+01 2.409969e+01 3.586501e+01 2.704358e+01 5.785532e+01 3.988287e+01 2.662862e+01 3.858156e+01 2.995725e+01 2.864896e+01 1.916084e+01 4.110634e-01 7.411868e-01 7.319828e-01 9.419593e-01 8.890172e-01 1.734748e+00 1.509615e+00 1.341505e+00 1.499649e+00 1.354345e+00 1.367681e+00 9.575779e-01 2.949331e-01
<GCONST> 8.604269e+01
<STATE> 3
<MEAN> 25
 8.840896e-01 8.190866e-01 4.197422e-01 1.217978e+00 9.937925e-01 -1.013090e+00 -2.218256e+00 -1.678468e+00 -6.744480e-01 -8.690888e-01 -1.401216e+00 -1.407404e+00 -2.063145e-01 1.782298e-01 1.941608e-01 8.422359e-02 1.016232e-01 3.007345e-01 1.662315e-01 8.325832e-02 1.999179e-01 6.776689e-02 -6.140671e-02 4.515888e-02 -2.165473e-01
<VARIANCE> 25
 2.104141e+01 2.502764e+01 2.241394e+01 3.391597e+01 2.572397e+01 5.786515e+01 3.844451e+01 2.559863e+01 3.693386e+01 2.820817e+01 2.732361e+01 1.862333e+01 3.632356e-01 6.536229e-01 6.839351e-01 8.552274e-01 7.988217e-01 1.563000e+00 1.368489e+00 1.229751e+00 1.341711e+00 1.300268e+00 1.251040e+00 8.901904e-01 2.494603e-01
<GCONST> 8.426920e+01
<STATE> 4
<MEAN> 25
 -1.230008e+00 1.823787e+00 2.030255e+00 2.194809e+00 1.987646e+00 1.637930e+00 -1.058986e+00 -1.022306e+00 1.081320e+00 5.839211e-02 -1.689503e+00 -8.246105e-01 -1.299755e-01 4.759097e-02 7.353563e-02 -1.473355e-03 3.237080e-02 1.785501e-01 1.679077e-01 7.208743e-02 7.922362e-02 5.448892e-02 5.122692e-02 6.803184e-02 -1.049377e-01
<VARIANCE> 25
 1.885098e+01 1.491293e+01 1.502292e+01 2.080838e+01 1.605633e+01 4.663940e+01 3.057731e+01 2.038803e+01 3.038229e+01 2.290852e+01 1.974299e+01 1.462971e+01 2.708433e-01 4.555312e-01 5.191941e-01 6.234981e-01 6.015474e-01 1.183135e+00 1.058262e+00 9.917141e-01 1.069827e+00 1.021865e+00 1.002064e+00 7.477822e-01 1.725410e-01
<GCONST> 7.712687e+01
<TRANSP> 5
 0.000000e+00 1.000000e+00 0.000000e+00 0.000000e+00 0.000000e+00
 0.000000e+00 5.160202e-01 4.839798e-01 0.000000e+00 0.000000e+00
 0.000000e+00 0.000000e+00 5.152425e-01 4.847575e-01 0.000000e+00
 0.000000e+00 0.000000e+00 0.000000e+00 8.173540e-01 1.826460e-01
 0.000000e+00 0.000000e+00 0.000000e+00 0.000000e+00 0.000000e+00
<ENDHMM>
~h "ax"
<BEGINHMM>
<NUMSTATES> 5
<STATE> 2
<MEAN> 25
 2.190574e+00 -1.095147e+00 -1.297413e+00 -6.269632e-01 -1.001068e+00 -2.842562e+00 -1.505011e+00 -1.133863e+00 -2.399179e+00 -1.357752e+00 7.393213e-02 -9.310168e-01 -2.953340e-02 5.964579e-02 1.202093e-02 -6.413907e-02 -4.979540e-02 8.595084e-02 1.073880e-01 7.195951e-02 8.066144e-02 4.471081e-02 -1.521179e-02 -6.377603e-03 -4.426839e-02
<VARIANCE> 25
 2.365287e+01 3.491819e+01 3.543732e+01 4.854602e+01 3.985643e+01 6.652441e+01 5.538799e+01 3.369115e+01 4.439954e+01 3.683298e+01 3.530539e+01 2.358075e+01 8.712634e-01 1.380507e+00 1.351152e+00 1.427800e+00 1.601694e+00 2.716021e+00 2.281106e+00 1.889120e+00 2.331617e+00 1.864884e+00 2.003648e+00 1.349202e+00 6.800324e-01
<GCONST> 9.550359e+01
<STATE> 3
<MEAN> 25
 2.384030e+00 -1.259722e+00 -1.550297e+00 -8.378277e-01 -1.345119e+00 -2.968263e+00 -1.373865e+00 -1.074902e+00 -2.544822e+00 -1.315184e+00 2.333327e-01 -8.665932e-01 2.833119e-02 4.683585e-03 -3.066599e-02 -3.698964e-02 -6.379608e-02 2.641636e-02 4.807309e-02 1.993128e-02 -3.153460e-03 1.530018e-02 7.302606e-03 1.397509e-02 4.650256e-03
<VARIANCE> 25
 2.243751e+01 3.528170e+01 3.547275e+01 4.999826e+01 4.201513e+01 6.449239e+01 5.697192e+01 3.351400e+01 4.340554e+01 3.691025e+01 3.741860e+01 2.418166e+01 9.420711e-01 1.598849e+00 1.420246e+00 1.443788e+00 1.684741e+00 2.982945e+00 2.438219e+00 1.952381e+00 2.600557e+00 1.941324e+00 2.150105e+00 1.370646e+00 8.753679e-01
<GCONST> 9.661705e+01
<STATE> 4
<MEAN> 25
 2.743632e+00 -1.410424e+00 -1.829470e+00 -8.213210e-01 -1.661773e+00 -3.310383e+00 -1.571827e+00 -1.148446e+00 -2.708320e+00 -1.379106e+00 2.019228e-01 -8.478121e-01 -3.537973e-02 9.833302e-02 5.131530e-02 2.843363e-02 4.544869e-02 1.208566e-01 2.372459e-02 -1.216776e-03 6.951185e-02 1.446094e-02 -5.249978e-02 2.428992e-02 -8.021668e-02
<VARIANCE> 25
 2.029762e+01 3.473391e+01 3.406062e+01 5.010361e+01 4.303906e+01 6.192147e+01 5.802745e+01 3.343682e+01 4.277942e+01 3.603158e+01 3.807307e+01 2.409804e+01 7.696558e-01 1.456952e+00 1.185809e+00 1.255658e+00 1.480899e+00 2.922427e+00 2.356233e+00 1.881240e+00 2.397356e+00 1.942580e+00 2.025971e+00 1.329444e+00 7.467068e-01
<GCONST> 9.527180e+01
<TRANSP> 5
 0.000000e+00 1.000000e+00 0.000000e+00 0.000000e+00 0.000000e+00
 0.000000e+00 4.749060e-01 5.250940e-01 0.000000e+00 0.000000e+00
 0.000000e+00 0.000000e+00 4.923466e-01 5.076534e-01 0.000000e+00
 0.000000e+00 0.000000e+00 0.000000e+00 6.124031e-01 3.875969e-01
 0.000000e+00 0.000000e+00 0.000000e+00 0.000000e+00 0.000000e+00
<ENDHMM>
~h "ay"
<BEGINHMM>
<NUMSTATES> 5
<STATE> 2
<MEAN> 25
 3.785223e-01 1.176225e+00 3.600307e-01 -5.005661e-01 4.312833e-01 5.441332e-01 -6.284622e-02 -5.741295e-01 -6.537388e-01 -1.102781e+00 -8.273770e-01 -4.846742e-01 -1.870624e-01 1.942916e-01 1.466697e-01 -6.738447e-03 1.086314e-01 3.242074e-01 1.711921e-01 8.401350e-02 2.143635e-01 6.512443e-02 -6.423859e-02 3.477606e-02 -1.939226e-01
<VARIANCE> 25
 2.716438e+01 2.513478e+01 3.231391e+01 3.614296e+01 3.010588e+01 5.742526e+01 4.781464e+01 2.905047e+01 3.872205e+01 2.781574e+01 2.699724e+01 1.966075e+01 6.289847e-01 8.540228e-01 1.005797e+00 1.065635e+00 1.035176e+00 2.025402e+00 1.640725e+00 1.470523e+00 1.707605e+00 1.395059e+00 1.486385e+00 1.050004e+00 4.006861e-01
<GCONST> 8.895161e+01
<STATE> 3
<MEAN> 25
 2.300235e-01 1.338826e+00 5.188227e-01 -4.732651e-01 5.279207e-01 7.121718e-01 -2.851350e-02 -6.331047e-01 -5.065167e-01 -1.021072e+00 -8.583025e-01 -5.529907e-01 -9.165589e-02 5.984171e-02 4.780142e-02 1.179759e-02 2.750280e-02 1.283788e-01 1.006843e-01 2.412338e-02 1.015444e-01 8.666628e-02 3.051848e-02 2.108501e-02 -8.890466e-02
<VARIANCE> 25
 2.660273e+01 2.586762e+01 3.246716e+01 3.547665e+01 2.959814e+01 5.642946e+01 4.711432e+01 2.870324e+01 3.707704e+01 2.723090e+01 2.690296e+01 1.951867e+01 7.679160e-01 1.006829e+00 1.204213e+00 1.166404e+00 1.104573e+00 2.320777e+00 1.788166e+00 1.533449e+00 1.852256e+00 1.439345e+00 1.562683e+00 1.105631e+00 5.205508e-01
<GCONST> 9.024838e+01
<STATE> 4
<MEAN> 25
 2.532392e-01 1.326863e+00 5.217521e-01 -3.206039e-01 4.659968e-01 6.039429e-01 -9.972893e-02 -7.805631e-01 -5.308024e-01 -9.016106e-01 -7.617791e-01 -5.504789e-01 1.050595e-02 -9.852833e-02 -6.634198e-02 1.360019e-02 -4.564502e-02 -7.409862e-02 2.850175e-02 6.169247e-03 9.338246e-03 9.243609e-02 1.122181e-01 2.229113e-02 3.667317e-02
<VARIANCE> 25
 2.594394e+01 2.713346e+01 3.299105e+01 3.472666e+01 2.945030e+01 5.723955e+01 4.731176e+01 2.888440e+01 3.653917e+01 2.698643e+01 2.741661e+01 1.932117e+01 8.676336e-01 1.234679e+00 1.355730e+00 1.287833e+00 1.257319e+00 2.599528e+00 1.985833e+00 1.676332e+00 2.044301e+00 1.595405e+00 1.704460e+00 1.205817e+00 6.348620e-01
<GCONST> 9.182478e+01
<TRANSP> 5
 0.000000e+00 1.000000e+00 0.000000e+00 0.000000e+00 0.000000e+00
 0.000000e+00 5.346308e-01 4.653692e-01 0.000000e+00 0.000000e+00
 0.000000e+00 0.000000e+00 5.138738e-01 4.861263e-01 0.000000e+00
 0.000000e+00 0.000000e+00 0.000000e+00 6.150178e-01 3.849823e-01
 0.000000e+00 0.000000e+00 0.000000e+00 0.000000e+00 0.000000e+00
<ENDHMM>
~h "ch"
<BEGINHMM>
<NUMSTATES> 5
<STATE> 2
<MEAN> 25
 2.935249e+00 -1.473241e+00 -1.875798e+00 -8.424235e-01 -2.633443e+00 -3.580418e+00 -4.107008e-02 3.346097e-01 -3.533849e+00 -2.699508e+00 1.145403e-01 -3.040136e-01 2.321371e-01 -4.907728e-01 -1.359380e-01 1.928312e-01 -2.986207e-01 -7.095162e-01 -1.331143e-01 1.538997e-01 -3.118887e-01 -2.358695e-01 8.905363e-02 -9.762565e-02 3.560865e-01
<VARIANCE> 25
 2.351196e+01 4.404669e+01 4.759123e+01 5.940415e+01 4.389632e+01 7.274445e+01 5.447931e+01 3.725363e+01 5.202209e+01 4.357137e+01 4.096158e+01 2.667260e+01 8.383586e-01 1.991396e+00 1.834287e+00 1.936847e+00 1.615811e+00 3.625021e+00 2.960043e+00 2.546950e+00 2.868601e+00 2.634914e+00 2.743104e+00 1.691872e+00 7.890363e-01
<GCONST> 1.001321e+02
<STATE> 3
<MEAN> 25
 3.463986e+00 -2.970095e+00 -1.954189e+00 4.428090e-01 -2.913330e+00 -5.844148e+00 -1.168370e+00 2.605369e-01 -4.336018e+00 -3.300340e+00 1.899200e-01 -8.005238e-01 2.137135e-01 -4.343961e-01 -1.033092e-01 2.046870e-01 -1.861323e-01 -6.775207e-01 -3.058930e-01 -7.043512e-03 -2.548602e-01 -1.654146e-01 6.632822e-02 -1.079246e-01 3.324403e-01
<VARIANCE> 25
 2.166092e+01 4.416360e+01 5.136381e+01 7.136362e+01 4.381707e+01 7.920135e+01 6.288968e+01 3.919699e+01 5.009869e+01 4.601217e+01 4.664505e+01 2.847409e+01 8.165441e-01 2.066047e+00 1.791059e+00 1.934769e+00 1.575803e+00 3.943982e+00 3.268213e+00 2.629654e+00 2.918099e+00 2.842987e+00 2.936497e+00 1.616245e+00 8.341451e-01
<GCONST> 1.011491e+02
<STATE> 4
<MEAN> 25
 4.264740e+00 -4.343617e+00 -2.873032e+00 5.475948e-01 -3.641823e+00 -8.151292e+00 -2.484774e+00 3.488967e-01 -4.701571e+00 -3.724408e+00 -2.220878e-01 -1.271910e+00 1.210545e-02 9.121381e-03 -2.186321e-02 1.148469e-02 7.328074e-02 2.525728e-03 -1.288532e-01 -1.123003e-01 5.657927e-02 2.278079e-02 -5.994671e-02 -5.150452e-02 -2.439538e-03
<VARIANCE> 25
 1.460935e+01 4.063327e+01 4.634853e+01 8.820584e+01 5.121029e+01 7.338241e+01 7.203024e+01 4.597564e+01 4.867997e+01 4.649532e+01 5.097954e+01 3.046357e+01 7.212605e-01 1.990653e+00 1.712878e+00 1.762124e+00 1.681284e+00 3.979007e+00 3.185997e+00 2.450660e+00 2.733266e+00 2.738532e+00 2.906512e+00 1.671264e+00 8.175429e-01
<GCONST> 1.008726e+02
<TRANSP> 5
 0.000000e+00 1.000000e+00 0.000000e+00 0.000000e+00 0.000000e+00
 0.000000e+00 5.725957e-01 4.274043e-01 0.000000e+00 0.000000e+00
 0.000000e+00 0.000000e+00 6.159543e-01 3.840457e-01 0.000000e+00
 0.000000e+00 0.000000e+00 0.000000e+00 8.981911e-01 1.018089e-01
 0.000000e+00 0.000000e+00 0.000000e+00 0.000000e+00 0.000000e+00
<ENDHMM>
~h "dh"
<BEGINHMM>
<NUMSTATES> 5
<STATE> 2
<MEAN> 25
 1.235870e+00 -3.737485e-01 -3.499379e-01 -5.064882e-01 -6.382819e-01 -1.426009e+00 -4.321032e-01 -2.028081e-01 -1.233196e+00 -1.156638e+00 -5.674877e-01 -8.592550e-01 -4.246950e-02 1.599842e-01 1.357135e-01 2.977162e-02 6.273641e-02 1.826613e-01 6.638151e-02 -5.575031e-02 2.938584e-02 -1.506468e-02 -9.084026e-02 -4.009451e-02 -7.410536e-02
<VARIANCE> 25
 2.875234e+01 3.795073e+01 4.091140e+01 4.707842e+01 4.225824e+01 7.161938e+01 5.259540e+01 3.367866e+01 4.872495e+01 3.656530e+01 3.602654e+01 2.280929e+01 7.762560e-01 1.369399e+00 1.243578e+00 1.189535e+00 1.255362e+00 2.441512e+00 2.115580e+00 2.195838e+00 2.670588e+00 1.911747e+00 2.043423e+00 1.342323e+00 6.004788e-01
<GCONST> 9.543444e+01
<STATE> 3
<MEAN> 25
 1.433315e+00 -2.376824e-01 -3.470247e-01 -5.048244e-01 -7.172068e-01 -1.389620e+00 -4.725782e-01 -5.187600e-01 -1.560281e+00 -1.291803e+00 -5.670766e-01 -8.699971e-01 2.738715e-02 9.450413e-02 4.507594e-02 3.252373e-02 2.455647e-02 8.415858e-02 -2.645328e-02 -1.441931e-01 -7.116103e-02 -8.542351e-03 1.711167e-02 3.112530e-02 -2.912079e-02
<VARIANCE> 25
 2.714541e+01 3.992086e+01 4.121796e+01 4.605714e+01 4.182513e+01 6.825565e+01 5.118969e+01 3.506564e+01 4.777057e+01 3.612305e+01 3.703001e+01 2.249666e+01 8.015671e-01 1.482575e+00 1.273768e+00 1.186168e+00 1.282955e+00 2.671968e+00 2.219570e+00 2.261799e+00 2.910822e+00 1.905065e+00 2.186593e+00 1.342096e+00 7.045919e-01
<GCONST> 9.598190e+01
<STATE> 4
<MEAN> 25
 1.730480e+00 -2.532137e-01 -6.654571e-01 -6.905435e-01 -1.054770e+00 -1.514382e+00 -3.881191e-01 -6.234790e-01 -1.871151e+00 -1.366425e+00 -3.162517e-01 -6.398287e-01 2.187288e-02 4.962974e-02 -4.908926e-03 2.206197e-02 2.594204e-02 5.160890e-02 -4.769846e-02 -1.187248e-01 -4.951586e-02 2.284524e-02 6.400820e-02 5.712564e-02 -2.592040e-02
<VARIANCE> 25
 2.570665e+01 3.891342e+01 3.915237e+01 4.443308e+01 4.262270e+01 6.556189e+01 5.112122e+01 3.728362e+01 4.965327e+01 3.641558e+01 3.759027e+01 2.231720e+01 7.406014e-01 1.509522e+00 1.245252e+00 1.171426e+00 1.327752e+00 2.803405e+00 2.178699e+00 2.102534e+00 2.867948e+00 1.912216e+00 2.246892e+00 1.343963e+00 7.362204e-01
<GCONST> 9.586280e+01
<TRANSP> 5
 0.000000e+00 1.000000e+00 0.000000e+00 0.000000e+00 0.000000e+00
 0.000000e+00 4.766101e-01 5.233899e-01 0.000000e+00 0.000000e+00
 0.000000e+00 0.000000e+00 4.815663e-01 5.184336e-01 0.000000e+00
 0.000000e+00 0.000000e+00 0.000000e+00 5.868912e-01 4.131088e-01
 0.000000e+00 0.000000e+00 0.000000e+00 0.000000e+00 0.000000e+00
<ENDHMM>
~h "eh"
<BEGINHMM>
<NUMSTATES> 5
<STATE> 2
<MEAN> 25
 1.922883e+00 -4.954203e-01 -9.966424e-01 -1.055933e+00 -1.225578e+00 -2.344347e+00 -4.872488e-01 -4.590483e-01 -2.079145e+00 -1.666503e+00 -1.735964e-02 -5.537964e-01 8.964612e-02 -6.728628e-02 -6.604079e-02 2.663901e-03 -7.320706e-02 -1.665553e-01 -1.237600e-02 1.084481e-03 -1.030617e-01 -6.659305e-02 2.730961e-02 -1.710648e-02 8.728967e-02
<VARIANCE> 25
 2.920167e+01 3.490915e+01 4.193541e+01 5.043710e+01 4.506095e+01 6.971307e+01 5.580492e+01 3.677583e+01 4.644009e+01 3.746055e+01 3.412228e+01 2.334975e+01 8.885459e-01 1.543330e+00 1.305012e+00 1.399345e+00 1.544099e+00 3.232868e+00 2.481437e+00 2.029669e+00 2.425104e+00 1.892664e+00 1.988781e+00 1.333855e+00 7.206866e-01
<GCONST> 9.666628e+01
<STATE> 3
<MEAN> 25
 2.374159e+00 -8.722112e-01 -1.335113e+00 -9.898032e-01 -1.528368e+00 -3.107115e+00 -7.765589e-01 -5.883581e-01 -2.544399e+00 -1.900119e+00 8.563635e-02 -6.610360e-01 1.120899e-01 -1.018177e-01 -7.478864e-02 6.245586e-02 -3.729345e-02 -1.980092e-01 -1.225134e-01 -6.401785e-02 -1.063725e-01 -3.818593e-02 2.089834e-02 -4.433666e-02 1.016324e-01
<VARIANCE> 25
 2.784136e+01 3.527240e+01 4.243391e+01 5.320899e+01 4.590305e+01 7.063387e+01 5.867155e+01 3.823252e+01 4.636944e+01 3.932829e+01 3.585410e+01 2.395091e+01 9.247646e-01 1.699781e+00 1.363677e+00 1.447430e+00 1.605080e+00 3.496253e+00 2.676217e+00 2.089698e+00 2.576794e+00 2.014037e+00 2.132146e+00 1.383812e+00 7.869265e-01
<GCONST> 9.769005e+01
<STATE> 4
<MEAN> 25
 2.886898e+00 -1.101119e+00 -1.644331e+00 -8.079154e-01 -1.797019e+00 -3.821287e+00 -1.241568e+00 -7.608916e-01 -2.906103e+00 -2.203641e+00 -6.832299e-02 -8.156819e-01 1.562249e-02 -8.397838e-03 9.254866e-03 8.626381e-02 6.995342e-02 -6.245770e-03 -1.197459e-01 -9.489924e-02 4.997161e-03 2.745341e-02 -2.616000e-02 -4.737266e-02 -4.514105e-04
<VARIANCE> 25
 2.456814e+01 3.518342e+01 4.076668e+01 5.551919e+01 4.556480e+01 7.143719e+01 6.191874e+01 3.887766e+01 4.393188e+01 3.910871e+01 3.713625e+01 2.418717e+01 7.814708e-01 1.539425e+00 1.268304e+00 1.328658e+00 1.488889e+00 3.170129e+00 2.476567e+00 1.975000e+00 2.377048e+00 1.940956e+00 2.021459e+00 1.320698e+00 6.801121e-01
<GCONST> 9.652859e+01
<TRANSP> 5
 0.000000e+00 1.000000e+00 0.000000e+00 0.000000e+00 0.000000e+00
 0.000000e+00 4.730028e-01 5.269973e-01 0.000000e+00 0.000000e+00
 0.000000e+00 0.000000e+00 4.913754e-01 5.086246e-01 0.000000e+00
 0.000000e+00 0.000000e+00 0.000000e+00 6.112824e-01 3.887176e-01
 0.000000e+00 0.000000e+00 0.000000e+00 0.000000e+00 0.000000e+00
<ENDHMM>
~h "el"
<BEGINHMM>
<NUMSTATES> 5
<STATE> 2
<MEAN> 25
 1.574306e+00 3.052118e+00 1.112783e-01 -2.088458e-01 1.884927e+00 2.391815e+00 -1.040751e+00 -5.534534e-01 4.070368e-01 -1.764823e+00 -3.409923e+00 -1.414766e+00 -4.236274e-01 8.535463e-02 2.702840e-01 2.428404e-01 2.235879e-01 8.346053e-01 7.931705e-01 -1.763015e-02 4.428637e-01 7.744602e-01 8.192922e-01 4.574800e-01 -3.265029e-01
<VARIANCE> 25
 1.054024e+01 1.363952e+01 8.632260e+00 9.228909e+00 8.720819e+00 5.815700e+01 2.704918e+01 9.071774e+00 1.616436e+01 4.477954e+01 2.285398e+01 2.689245e+01 5.877830e-01 5.036130e-01 1.500200e+00 1.076784e+00 8.345259e-01 2.393292e+00 2.212397e+00 1.233191e+00 2.285597e+00 2.822000e+00 2.140284e+00 9.404014e-01 4.110512e-01
<GCONST> 8.266239e+01
<STATE> 3
<MEAN> 25
 8.835917e-01 3.025559e+00 1.210095e+00 9.532316e-01 2.819149e+00 2.973589e+00 -2.687466e-01 -1.231834e+00 2.875422e-01 4.575375e-01 -8.851157e-01 -1.007015e+00 -1.894875e-01 6.984325e-02 2.220431e-01 1.413486e-01 1.659374e-01 3.771662e-01 2.443512e-01 -2.938870e-02 7.623471e-02 3.806586e-01 4.671781e-01 1.850112e-01 -1.563013e-01
<VARIANCE> 25
 1.029642e+01 1.861426e+01 1.044765e+01 8.746460e+00 7.763213e+00 6.951991e+01 2.796068e+01 7.885355e+00 1.308127e+01 2.014233e+01 1.610378e+01 2.466568e+01 4.771660e-01 6.989263e-01 1.166649e+00 9.353601e-01 7.613235e-01 2.289365e+00 1.859778e+00 1.200568e+00 2.132051e+00 2.353603e+00 2.045833e+00 9.510661e-01 3.498805e-01
<GCONST> 8.053952e+01
<STATE> 4
<MEAN> 25
 -1.635450e+00 9.205464e-01 8.398238e-01 1.172171e+00 2.902587e+00 5.632383e+00 2.074875e+00 -9.933482e-01 5.899531e-01 3.073242e+00 2.855141e+00 9.625061e-01 4.843405e-02 -3.518921e-01 -1.181238e-01 2.093197e-01 -5.664174e-02 -4.334434e-01 -1.666859e-01 1.314611e-02 -1.565120e-01 -2.803225e-01 1.066976e-01 7.500621e-03 2.005484e-01
<VARIANCE> 25
 1.318942e+01 2.051227e+01 1.142165e+01 5.589335e+00 4.746145e+00 3.286826e+01 2.530804e+01 1.145870e+01 1.506907e+01 1.903662e+01 2.479949e+01 1.257752e+01 6.210470e-01 2.221728e+00 1.134639e+00 8.171474e-01 3.924386e-01 2.676312e+00 1.734286e+00 1.245112e+00 2.123486e+00 1.789067e+00 1.181764e+00 8.322319e-01 6.559427e-01
<GCONST> 7.978682e+01
<TRANSP> 5
 0.000000e+00 1.000000e+00 0.000000e+00 0.000000e+00 0.000000e+00
 0.000000e+00 7.441040e-01 2.558960e-01 0.000000e+00 0.000000e+00
 0.000000e+00 0.000000e+00 7.373024e-01 2.626977e-01 0.000000e+00
 0.000000e+00 0.000000e+00 0.000000e+00 9.333873e-01 6.661268e-02
 0.000000e+00 0.000000e+00 0.000000e+00 0.000000e+00 0.000000e+00
<ENDHMM>
~h "en"
<BEGINHMM>
<NUMSTATES> 5
<STATE> 2
<MEAN> 25
 1.852656e+00 -8.947738e-01 -3.758009e+00 -4.766963e+00 -1.430082e+00 1.420446e-01 2.611388e+00 1.177835e+00 -1.022535e+00 -1.334802e+00 1.884569e+00 2.604891e+00 1.411947e-01 -7.821422e-02 -2.880275e-01 -4.961262e-02 1.594678e-02 2.022625e-01 7.564762e-02 -5.991326e-02 -2.696951e-02 -7.076165e-02 -8.127616e-03 8.282322e-02 -1.165557e-02
<VARIANCE> 25
 4.298026e+01 3.266921e+01 6.454939e+01 2.343098e+01 3.589218e+01 4.245992e+01 3.269191e+01 3.662967e+01 5.584755e+01 4.080632e+01 3.351524e+01 2.240915e+01 1.234604e+00 1.214387e+00 1.746628e+00 1.013997e+00 1.693597e+00 2.098780e+00 1.858706e+00 2.352775e+00 2.497786e+00 1.794236e+00 1.749572e+00 1.357128e+00 6.243125e-01
<GCONST> 9.489948e+01
<STATE> 3
<MEAN> 25
 2.507619e+00 -1.395397e+00 -4.400953e+00 -4.836174e+00 -1.344874e+00 -2.229314e-01 1.838149e+00 6.329738e-01 -2.006925e+00 -1.993487e+00 1.336666e+00 1.704022e+00 3.049636e-01 -1.273166e-01 -2.091780e-01 1.865790e-02 -1.014331e-02 -4.476422e-02 -2.625173e-01 -4.080589e-01 -4.114533e-01 -1.017031e-02 1.283422e-01 -4.630178e-02 1.520486e-01
<VARIANCE> 25
 3.804025e+01 3.495544e+01 7.000526e+01 2.805334e+01 3.293483e+01 4.012752e+01 3.792467e+01 3.901811e+01 6.181866e+01 4.291028e+01 3.647761e+01 2.121253e+01 1.810886e+00 1.590516e+00 2.164597e+00 1.136711e+00 2.378156e+00 2.821342e+00 2.560188e+00 3.509072e+00 3.202224e+00 2.234211e+00 2.194573e+00 1.439572e+00 8.459948e-01
<GCONST> 9.875118e+01
<STATE> 4
<MEAN> 25
 3.859532e+00 -2.044200e+00 -4.850587e+00 -5.007959e+00 -2.236035e+00 -1.055317e+00 1.119884e+00 -1.121605e+00 -5.405057e+00 -2.865888e+00 2.065908e+00 1.908726e+00 1.847970e-01 -7.473861e-02 -1.843659e-02 9.703869e-02 -1.110976e-01 -1.958209e-01 -2.555675e-01 -1.794042e-01 -1.408667e-01 2.376825e-02 -1.058579e-02 -8.422620e-02 1.042949e-01
<VARIANCE> 25
 2.416241e+01 3.989534e+01 5.704929e+01 2.949362e+01 3.366934e+01 4.312177e+01 4.866631e+01 4.460856e+01 5.908188e+01 3.984799e+01 3.441943e+01 2.276997e+01 1.947388e+00 2.049206e+00 2.563080e+00 1.472390e+00 2.472800e+00 4.165288e+00 3.930839e+00 4.114864e+00 3.743796e+00 2.853846e+00 2.674176e+00 1.720642e+00 9.626805e-01
<GCONST> 1.013224e+02
<TRANSP> 5
 0.000000e+00 1.000000e+00 0.000000e+00 0.000000e+00 0.000000e+00
 0.000000e+00 7.095820e-01 2.904180e-01 0.000000e+00 0.000000e+00
 0.000000e+00 0.000000e+00 6.419613e-01 3.580386e-01 0.000000e+00
 0.000000e+00 0.000000e+00 0.000000e+00 8.895624e-01 1.104376e-01
 0.000000e+00 0.000000e+00 0.000000e+00 0.000000e+00 0.000000e+00
<ENDHMM>
~h "er"
<BEGINHMM>
<NUMSTATES> 5
<STATE> 2
<MEAN> 25
 2.088076e+00 -1.248263e+00 -5.779865e-01 6.940379e-01 -7.274927e-01 -3.700128e+00 -1.989610e+00 -1.043324e+00 -2.499696e+00 -2.253875e+00 -8.152145e-01 -1.605697e+00 3.839191e-01 -3.076118e-01 -2.779129e-01 -4.059871e-02 -2.857779e-01 -6.321681e-01 -3.051320e-01 -1.657560e-01 -4.987154e-01 -2.541068e-01 8.894004e-02 -1.084707e-02 3.626521e-01
<VARIANCE> 25
 2.643844e+01 4.004198e+01 4.340400e+01 6.501161e+01 5.447618e+01 7.712223e+01 6.287630e+01 4.034988e+01 4.565910e+01 3.725518e+01 4.057451e+01 2.535660e+01 1.305190e+00 2.003371e+00 1.792167e+00 2.068971e+00 2.451358e+00 4.524635e+00 3.488325e+00 2.894159e+00 3.377283e+00 2.501462e+00 2.747272e+00 1.771363e+00 9.951919e-01
<GCONST> 1.021153e+02
<STATE> 3
<MEAN> 25
 3.254965e+00 -2.243516e+00 -1.606545e+00 2.439537e-01 -1.816230e+00 -5.428018e+00 -2.610054e+00 -1.336171e+00 -4.004586e+00 -2.834443e+00 -2.829981e-01 -1.319474e+00 3.476662e-01 -2.821532e-01 -3.091708e-01 -1.641492e-01 -3.326592e-01 -4.904119e-01 -1.759077e-01 -5.867270e-02 -4.124498e-01 -1.347021e-01 1.702831e-01 1.165846e-01 3.194356e-01
<VARIANCE> 25
 2.287146e+01 3.789154e+01 4.390546e+01 7.094232e+01 6.047265e+01 7.166093e+01 6.878233e+01 4.578586e+01 4.773027e+01 3.824462e+01 4.414732e+01 2.734383e+01 1.348779e+00 2.229992e+00 1.910906e+00 2.098829e+00 2.635269e+00 4.796284e+00 3.624739e+00 2.940992e+00 3.634951e+00 2.697077e+00 3.016931e+00 1.798607e+00 1.084435e+00
<GCONST> 1.032387e+02
<STATE> 4
<MEAN> 25
 4.273455e+00 -3.003754e+00 -3.122567e+00 -2.130140e+00 -3.845270e+00 -5.924234e+00 -1.314062e+00 -5.731280e-01 -5.494157e+00 -3.231291e+00 5.825784e-01 -4.048426e-01 3.982372e-02 -2.551076e-03 -1.006448e-01 -1.711440e-01 -4.050419e-02 9.106679e-02 7.730810e-02 3.753562e-02 1.805532e-04 5.137347e-02 5.807332e-02 8.638169e-02 2.359405e-02
<VARIANCE> 25
 1.886168e+01 3.712573e+01 4.183159e+01 6.956184e+01 6.659631e+01 6.291890e+01 7.382635e+01 5.128453e+01 4.999006e+01 3.796118e+01 4.581077e+01 3.017402e+01 1.078701e+00 2.028310e+00 1.749099e+00 1.890890e+00 2.508617e+00 3.999480e+00 3.137920e+00 2.741036e+00 3.268333e+00 2.539639e+00 2.835161e+00 1.799194e+00 9.277629e-01
<GCONST> 1.019414e+02
<TRANSP> 5
 0.000000e+00 1.000000e+00 0.000000e+00 0.000000e+00 0.000000e+00
 0.000000e+00 5.823729e-01 4.176271e-01 0.000000e+00 0.000000e+00
 0.000000e+00 0.000000e+00 6.285517e-01 3.714483e-01 0.000000e+00
 0.000000e+00 0.000000e+00 0.000000e+00 8.533905e-01 1.466095e-01
 0.000000e+00 0.000000e+00 0.000000e+00 0.000000e+00 0.000000e+00
<ENDHMM>
~h "ey"
<BEGINHMM>
<NUMSTATES> 5
<STATE> 2
<MEAN> 25
 2.013273e+00 -1.188579e+00 -9.932729e-01 2.577717e-01 -5.206599e-01 -2.679875e+00 -1.699019e+00 -1.725152e+00 -2.492486e+00 -1.398961e+00 2.829296e-01 -7.933685e-01 1.139756e-01 -1.575394e-01 -1.587334e-02 2.487336e-01 5.212713e-02 -3.459431e-01 -3.610503e-01 -2.127846e-01 -1.316516e-01 -4.738639e-02 -1.215070e-02 -1.084366e-01 1.335929e-01
<VARIANCE> 25
 2.591274e+01 4.033688e+01 3.774352e+01 4.790499e+01 3.227871e+01 8.118404e+01 7.116999e+01 3.635145e+01 4.417448e+01 3.436355e+01 3.649129e+01 2.395976e+01 9.304560e-01 1.884049e+00 1.408991e+00 1.489793e+00 1.357901e+00 3.951128e+00 3.386326e+00 2.288500e+00 2.664853e+00 2.044403e+00 2.275885e+00 1.413903e+00 8.778247e-01
<GCONST> 9.799107e+01
<STATE> 3
<MEAN> 25
 2.482310e+00 -1.858598e+00 -9.837189e-01 1.238243e+00 -4.216174e-01 -4.258272e+00 -3.256416e+00 -2.351928e+00 -2.925799e+00 -1.571315e+00 7.452018e-02 -1.282364e+00 9.060521e-02 -1.391551e-01 5.080512e-02 2.814403e-01 4.502022e-02 -3.864269e-01 -3.996900e-01 -1.097268e-01 -4.136470e-02 -3.155008e-02 -1.109129e-01 -1.477348e-01 1.110013e-01
<VARIANCE> 25
 2.302085e+01 3.971031e+01 3.532698e+01 5.228410e+01 3.119708e+01 8.878270e+01 7.864963e+01 3.746124e+01 4.275394e+01 3.377180e+01 3.733358e+01 2.439027e+01 8.981079e-01 1.984805e+00 1.349968e+00 1.583562e+00 1.334707e+00 4.402965e+00 3.479138e+00 2.293864e+00 2.626366e+00 2.109100e+00 2.318876e+00 1.420607e+00 8.938620e-01
<GCONST> 9.826791e+01
<STATE> 4
<MEAN> 25
 2.828268e+00 -2.665806e+00 -2.492730e-01 3.593418e+00 8.024036e-03 -7.082059e+00 -6.067705e+00 -2.864938e+00 -2.657460e+00 -1.864776e+00 -1.186829e+00 -2.298226e+00 -5.991607e-02 8.847521e-02 1.234608e-01 1.108143e-01 5.930667e-02 -6.449110e-03 -5.243971e-02 8.881337e-02 1.742872e-01 1.631453e-02 -1.764280e-01 -6.841046e-02 -8.723313e-02
<VARIANCE> 25
 1.734796e+01 3.800727e+01 2.987719e+01 5.788747e+01 2.782676e+01 9.930429e+01 7.981771e+01 3.427402e+01 3.715240e+01 3.130507e+01 3.672851e+01 2.332802e+01 6.649109e-01 1.518885e+00 1.112455e+00 1.394410e+00 1.157650e+00 3.740612e+00 2.724311e+00 1.893435e+00 2.153128e+00 1.839605e+00 1.940488e+00 1.259183e+00 6.570612e-01
<GCONST> 9.494917e+01
<TRANSP> 5
 0.000000e+00 1.000000e+00 0.000000e+00 0.000000e+00 0.000000e+00
 0.000000e+00 5.184333e-01 4.815668e-01 0.000000e+00 0.000000e+00
 0.000000e+00 0.000000e+00 5.422364e-01 4.577635e-01 0.000000e+00
 0.000000e+00 0.000000e+00 0.000000e+00 7.100151e-01 2.899849e-01
 0.000000e+00 0.000000e+00 0.000000e+00 0.000000e+00 0.000000e+00
<ENDHMM>
~h "hh"
<BEGINHMM>
<NUMSTATES> 5
<STATE> 2
<MEAN> 25
 -6.053540e-01 1.105623e+00 8.372929e-01 4.966004e-01 9.445988e-01 1.338289e+00 1.230481e-01 -2.141109e-01 8.256813e-01 1.769365e-01 -5.760476e-01 -1.097775e-01 -1.610184e-01 9.937395e-02 1.186605e-01 4.744129e-02 5.937308e-02 2.377320e-01 2.025082e-01 1.135262e-01 1.921753e-01 1.016289e-01 -3.852502e-02 1.433926e-03 -1.506408e-01
<VARIANCE> 25
 2.464705e+01 2.436414e+01 2.649965e+01 3.108276e+01 2.244671e+01 5.934441e+01 3.847446e+01 2.414150e+01 4.304366e+01 2.921948e+01 2.457186e+01 1.934003e+01 4.579505e-01 8.013732e-01 8.346099e-01 8.477216e-01 8.346078e-01 1.607015e+00 1.412055e+00 1.234254e+00 1.615383e+00 1.385378e+00 1.394040e+00 1.042284e+00 3.243878e-01
<GCONST> 8.594176e+01
<STATE> 3
<MEAN> 25
 -3.156148e-01 8.544977e-01 7.212721e-01 6.617993e-01 7.903799e-01 8.405200e-01 8.930755e-02 -3.241850e-01 4.417394e-01 -1.708178e-02 -5.777778e-01 -4.235632e-01 -7.475879e-02 4.525686e-02 7.700746e-02 7.042166e-02 3.395171e-02 1.085291e-01 1.150982e-01 2.533462e-02 5.366004e-02 3.772650e-02 -2.978877e-02 -5.171265e-02 -6.847385e-02
<VARIANCE> 25
 2.403564e+01 2.618940e+01 2.721036e+01 3.332981e+01 2.318746e+01 6.147575e+01 4.038140e+01 2.441967e+01 4.216917e+01 3.071128e+01 2.580046e+01 2.042091e+01 4.989429e-01 8.339580e-01 8.444218e-01 8.538666e-01 8.265558e-01 1.770723e+00 1.555463e+00 1.260951e+00 1.722571e+00 1.480356e+00 1.401096e+00 1.087762e+00 3.697960e-01
<GCONST> 8.700443e+01
<STATE> 4
<MEAN> 25
 -8.301940e-01 1.107446e+00 1.102960e+00 1.009975e+00 9.930577e-01 1.423123e+00 4.297481e-01 -1.509909e-01 9.121153e-01 2.608269e-01 -6.655287e-01 -3.438558e-01 2.864141e-03 -2.280873e-02 8.328649e-03 5.028907e-02 -5.331875e-03 -3.075479e-02 2.337343e-02 -3.391721e-02 -4.707116e-02 -1.441095e-02 5.887008e-04 -6.253361e-02 1.595695e-02
<VARIANCE> 25
 2.309880e+01 2.504443e+01 2.453676e+01 3.021099e+01 2.090250e+01 6.130226e+01 3.955299e+01 2.322765e+01 4.050703e+01 2.964670e+01 2.450687e+01 2.026974e+01 4.996838e-01 7.727020e-01 7.867766e-01 8.477635e-01 8.151035e-01 1.801988e+00 1.535026e+00 1.239920e+00 1.686319e+00 1.419370e+00 1.339485e+00 1.068842e+00 3.685100e-01
<GCONST> 8.609809e+01
<TRANSP> 5
 0.000000e+00 1.000000e+00 0.000000e+00 0.000000e+00 0.000000e+00
 0.000000e+00 5.676073e-01 4.323927e-01 0.000000e+00 0.000000e+00
 0.000000e+00 0.000000e+00 5.141950e-01 4.858050e-01 0.000000e+00
 0.000000e+00 0.000000e+00 0.000000e+00 6.375849e-01 3.624150e-01
 0.000000e+00 0.000000e+00 0.000000e+00 0.000000e+00 0.000000e+00
<ENDHMM>
~h "ih"
<BEGINHMM>
<NUMSTATES> 5
<STATE> 2
<MEAN> 25
 1.696715e+00 -7.017776e-01 -1.191291e+00 -8.487040e-01 -9.946320e-01 -1.902051e+00 -6.791440e-01 -3.777740e-01 -1.359890e+00 -1.060485e+00 -7.122348e-02 -5.550901e-01 7.371325e-02 -5.511222e-02 -6.614213e-02 4.452739e-02 -3.168191e-02 -1.346432e-01 -9.782188e-02 -5.566760e-02 -3.904912e-02 -2.275652e-02 1.893780e-02 -2.442896e-02 5.856580e-02
<VARIANCE> 25
 2.778647e+01 3.789698e+01 3.964090e+01 4.919863e+01 4.131867e+01 7.198978e+01 5.716583e+01 3.520222e+01 4.388198e+01 3.240160e+01 3.307755e+01 2.380486e+01 8.835090e-01 1.492564e+00 1.316231e+00 1.380653e+00 1.447865e+00 3.405671e+00 2.584394e+00 1.957870e+00 2.307675e+00 1.805488e+00 1.952186e+00 1.300240e+00 7.586896e-01
<GCONST> 9.618871e+01
<STATE> 3
<MEAN> 25
 2.111058e+00 -1.091508e+00 -1.506585e+00 -6.238474e-01 -1.154305e+00 -2.650465e+00 -1.233649e+00 -7.231565e-01 -1.772278e+00 -1.223731e+00 5.950110e-02 -6.845635e-01 1.311866e-01 -1.201173e-01 -8.142947e-02 1.092722e-01 -2.224079e-02 -2.628330e-01 -2.228270e-01 -1.595934e-01 -1.499566e-01 -5.112360e-02 5.215216e-02 -5.861203e-02 1.235408e-01
<VARIANCE> 25
 2.619300e+01 3.797706e+01 3.935263e+01 5.147519e+01 4.148449e+01 7.334119e+01 6.092812e+01 3.650123e+01 4.409503e+01 3.274048e+01 3.388930e+01 2.434040e+01 1.010156e+00 1.825714e+00 1.437441e+00 1.519586e+00 1.573894e+00 4.110182e+00 2.914128e+00 2.154890e+00 2.615889e+00 1.937135e+00 2.197485e+00 1.426533e+00 9.418355e-01
<GCONST> 9.798390e+01
<STATE> 4
<MEAN> 25
 2.636322e+00 -1.537795e+00 -1.828029e+00 -2.536711e-01 -1.238884e+00 -3.604066e+00 -2.099004e+00 -1.266196e+00 -2.319810e+00 -1.440815e+00 1.778046e-01 -8.854288e-01 6.581342e-02 -4.742541e-02 3.613415e-03 1.166512e-01 5.666323e-02 -1.552038e-01 -2.008942e-01 -1.757429e-01 -1.266371e-01 -3.659478e-02 2.656967e-02 -6.646858e-02 6.448914e-02
<VARIANCE> 25
 2.365522e+01 3.752613e+01 3.771082e+01 5.311927e+01 4.061784e+01 7.454306e+01 6.382790e+01 3.746436e+01 4.425977e+01 3.273650e+01 3.557184e+01 2.509387e+01 9.642499e-01 1.819531e+00 1.396165e+00 1.484709e+00 1.572825e+00 4.019244e+00 2.904477e+00 2.215916e+00 2.711859e+00 2.029105e+00 2.276343e+00 1.486582e+00 9.108337e-01
<GCONST> 9.803384e+01
<TRANSP> 5
 0.000000e+00 1.000000e+00 0.000000e+00 0.000000e+00 0.000000e+00
 0.000000e+00 4.632788e-01 5.367212e-01 0.000000e+00 0.000000e+00
 0.000000e+00 0.000000e+00 4.806810e-01 5.193189e-01 0.000000e+00
 0.000000e+00 0.000000e+00 0.000000e+00 5.989816e-01 4.010184e-01
 0.000000e+00 0.000000e+00 0.000000e+00 0.000000e+00 0.000000e+00
<ENDHMM>
~h "iy"
<BEGINHMM>
<NUMSTATES> 5
<STATE> 2
<MEAN> 25
 2.503466e+00 -1.555573e+00 -1.638926e+00 -4.647804e-01 -1.231073e+00 -3.296420e+00 -1.457569e+00 -1.246156e+00 -2.847215e+00 -1.498590e+00 4.706229e-01 -7.012612e-01 1.433228e-01 -1.622059e-01 -1.022418e-01 1.217301e-01 -4.102406e-03 -2.865669e-01 -2.026964e-01 -1.479944e-01 -2.133497e-01 -9.513468e-02 3.993546e-02 -4.499718e-02 1.415621e-01
<VARIANCE> 25
 2.460646e+01 3.655310e+01 4.078988e+01 6.265138e+01 4.107212e+01 7.655074e+01 6.190455e+01 3.638216e+01 4.533486e+01 3.811256e+01 3.698670e+01 2.629594e+01 9.112082e-01 1.665048e+00 1.447505e+00 1.726244e+00 1.479943e+00 3.744359e+00 2.931102e+00 2.401470e+00 2.812039e+00 2.207034e+00 2.234684e+00 1.463929e+00 7.708451e-01
<GCONST> 9.844917e+01
<STATE> 3
<MEAN> 25
 2.950493e+00 -2.116139e+00 -1.865265e+00 5.834223e-02 -1.190152e+00 -4.337132e+00 -2.243048e+00 -1.693144e+00 -3.541325e+00 -1.873580e+00 5.014285e-01 -9.198816e-01 1.026160e-01 -1.044202e-01 -1.670202e-02 1.822244e-01 4.820409e-02 -2.632602e-01 -2.245470e-01 -9.571814e-02 -1.397003e-01 -1.226221e-01 -5.234826e-02 -7.140235e-02 9.541608e-02
<VARIANCE> 25
 2.231063e+01 3.486727e+01 4.142243e+01 7.005725e+01 4.034207e+01 7.740797e+01 6.578132e+01 3.788697e+01 4.550636e+01 3.953585e+01 3.966156e+01 2.815506e+01 9.785395e-01 1.813726e+00 1.506677e+00 1.919265e+00 1.543214e+00 4.218207e+00 3.282627e+00 2.575520e+00 2.959406e+00 2.366752e+00 2.364665e+00 1.536953e+00 8.243934e-01
<GCONST> 9.964462e+01
<STATE> 4
<MEAN> 25
 3.247179e+00 -2.473025e+00 -1.792031e+00 8.657593e-01 -1.008109e+00 -5.369910e+00 -3.042499e+00 -1.788384e+00 -3.902931e+00 -2.456661e+00 -7.016577e-02 -1.322881e+00 -9.128544e-02 1.495107e-01 1.612742e-01 1.182799e-01 1.311886e-01 9.254917e-02 -1.468175e-02 5.509272e-02 1.463197e-01 -3.811719e-02 -1.724520e-01 -5.013828e-02 -1.159760e-01
<VARIANCE> 25
 1.890972e+01 3.384221e+01 4.293251e+01 8.261090e+01 3.815483e+01 8.143360e+01 6.669785e+01 3.660118e+01 4.315302e+01 4.064677e+01 4.315985e+01 2.930998e+01 8.010948e-01 1.538755e+00 1.355021e+00 1.807315e+00 1.471415e+00 3.733624e+00 2.950812e+00 2.349121e+00 2.550784e+00 2.190467e+00 2.139687e+00 1.489647e+00 6.648702e-01
<GCONST> 9.825242e+01
<TRANSP> 5
 0.000000e+00 1.000000e+00 0.000000e+00 0.000000e+00 0.000000e+00
 0.000000e+00 5.152341e-01 4.847659e-01 0.000000e+00 0.000000e+00
 0.000000e+00 0.000000e+00 5.504549e-01 4.495452e-01 0.000000e+00
 0.000000e+00 0.000000e+00 0.000000e+00 7.167040e-01 2.832960e-01
 0.000000e+00 0.000000e+00 0.000000e+00 0.000000e+00 0.000000e+00
<ENDHMM>
~h "jh"
<BEGINHMM>
<NUMSTATES> 5
<STATE> 2
<MEAN> 25
 5.164491e-01 1.360246e+00 8.406983e-01 6.469703e-02 1.771205e-01 -8.770726e-02 -5.997326e-01 1.325676e-02 1.869772e-02 -1.285558e+00 -2.017590e+00 -1.205165e+00 -1.784039e-01 1.050808e-01 2.525417e-01 1.059943e-01 1.244789e-01 3.129326e-01 1.433985e-01 2.512304e-02 1.155415e-01 3.613003e-02 -6.550816e-02 -3.535120e-02 -1.309695e-01
<VARIANCE> 25
 2.167332e+01 3.222351e+01 2.786167e+01 4.408719e+01 3.060802e+01 6.280620e+01 5.800444e+01 3.752213e+01 3.768223e+01 3.110616e+01 2.654947e+01 2.076465e+01 6.681565e-01 1.159638e+00 1.106272e+00 1.088590e+00 1.136823e+00 2.186888e+00 2.150874e+00 1.833836e+00 1.994061e+00 1.541179e+00 1.637493e+00 1.227568e+00 4.625893e-01
<GCONST> 9.149850e+01
<STATE> 3
<MEAN> 25
 4.438439e-01 1.115564e+00 1.189929e+00 3.687577e-01 2.547016e-01 -5.364129e-02 -5.467700e-01 -2.956349e-01 -2.895905e-01 -1.310227e+00 -1.905628e+00 -1.437923e+00 -9.524733e-02 -1.640153e-01 1.348188e-01 1.417749e-01 5.039733e-03 6.452395e-02 8.641492e-02 -1.514689e-01 -9.377398e-02 9.243803e-02 1.707928e-01 -2.075540e-02 3.039945e-02
<VARIANCE> 25
 2.184870e+01 3.559118e+01 3.104056e+01 4.529601e+01 3.066528e+01 6.309731e+01 6.099984e+01 3.959953e+01 3.778695e+01 3.157262e+01 2.807196e+01 2.039282e+01 8.306350e-01 1.492800e+00 1.404644e+00 1.296576e+00 1.375584e+00 2.662104e+00 2.816646e+00 2.133324e+00 2.273451e+00 1.641202e+00 1.785025e+00 1.328916e+00 5.952366e-01
<GCONST> 9.421093e+01
<STATE> 4
<MEAN> 25
 4.597060e-01 -2.457114e-02 1.464979e+00 9.578106e-01 2.806350e-02 -7.865213e-01 -6.691003e-01 -1.344167e+00 -1.237411e+00 -1.096401e+00 -1.006653e+00 -1.786953e+00 8.176029e-02 -4.382347e-01 -8.139194e-02 1.628074e-01 -1.208749e-01 -3.122329e-01 -1.219864e-01 -2.948592e-01 -3.062655e-01 1.062502e-01 3.788937e-01 1.959850e-02 2.361964e-01
<VARIANCE> 25
 2.504057e+01 3.711768e+01 3.856726e+01 4.703577e+01 3.176400e+01 6.665335e+01 7.523182e+01 4.559770e+01 4.375792e+01 3.437948e+01 3.322155e+01 2.273989e+01 1.255205e+00 1.903019e+00 1.940859e+00 1.600863e+00 1.703345e+00 3.668007e+00 4.247132e+00 2.776950e+00 2.849623e+00 1.970689e+00 2.273860e+00 1.580116e+00 7.788478e-01
<GCONST> 9.908541e+01
<TRANSP> 5
 0.000000e+00 1.000000e+00 0.000000e+00 0.000000e+00 0.000000e+00
 0.000000e+00 4.886972e-01 5.113028e-01 0.000000e+00 0.000000e+00
 0.000000e+00 0.000000e+00 4.771120e-01 5.228880e-01 0.000000e+00
 0.000000e+00 0.000000e+00 0.000000e+00 5.955324e-01 4.044676e-01
 0.000000e+00 0.000000e+00 0.000000e+00 0.000000e+00 0.000000e+00
<ENDHMM>
~h "ng"
<BEGINHMM>
<NUMSTATES> 5
<STATE> 2
<MEAN> 25
 2.373300e+00 -1.061152e+00 -1.334080e+00 -5.063842e-01 -8.297881e-01 -3.648612e+00 -2.094886e+00 -2.169359e+00 -3.089139e+00 -1.445333e+00 7.346190e-01 -1.092916e+00 3.860276e-01 -3.591210e-01 -2.365756e-01 1.838572e-01 -1.235505e-01 -6.924729e-01 -5.468476e-01 -4.004411e-01 -5.390044e-01 -1.440415e-01 1.793827e-01 -4.914439e-02 3.653713e-01
<VARIANCE> 25
 2.731045e+01 3.553052e+01 3.923324e+01 5.299106e+01 4.719208e+01 7.080842e+01 6.136701e+01 4.202741e+01 4.860495e+01 3.515587e+01 3.627021e+01 2.575009e+01 1.383346e+00 2.151310e+00 1.888131e+00 2.067934e+00 2.063864e+00 4.526313e+00 3.872520e+00 3.054068e+00 3.577601e+00 2.522006e+00 2.779415e+00 1.752373e+00 1.008230e+00
<GCONST> 1.016653e+02
<STATE> 3
<MEAN> 25
 3.399322e+00 -2.352030e+00 -1.920775e+00 1.478648e-01 -1.263625e+00 -5.765549e+00 -3.576386e+00 -2.808388e+00 -4.454726e+00 -1.853770e+00 1.127412e+00 -1.250392e+00 3.253120e-01 -3.957880e-01 -1.968946e-01 1.844387e-01 -1.407017e-01 -6.554828e-01 -4.553032e-01 -1.479822e-01 -3.425324e-01 -8.971615e-02 9.499317e-02 -4.667209e-02 3.406955e-01
<VARIANCE> 25
 2.170552e+01 3.520310e+01 3.807760e+01 5.967454e+01 4.849089e+01 7.131905e+01 6.688741e+01 4.654861e+01 4.865240e+01 3.742826e+01 4.084553e+01 2.896558e+01 1.426898e+00 2.469532e+00 2.039846e+00 2.358821e+00 2.252618e+00 5.356975e+00 4.251365e+00 3.353268e+00 3.707833e+00 2.704176e+00 3.037059e+00 1.888326e+00 1.125820e+00
<GCONST> 1.032378e+02
<STATE> 4
<MEAN> 25
 3.706415e+00 -3.498836e+00 -1.749109e+00 1.208465e+00 -1.561985e+00 -7.780342e+00 -4.449866e+00 -2.346112e+00 -4.942710e+00 -2.392983e+00 3.973215e-01 -1.874113e+00 -1.229824e-02 -1.017418e-02 -5.257122e-04 1.021174e-03 1.365138e-02 3.490882e-02 5.776114e-02 1.303919e-01 1.280806e-01 5.302895e-03 -1.261711e-01 -5.705156e-03 -1.183687e-02
<VARIANCE> 25
 1.679435e+01 3.619532e+01 3.651658e+01 7.531134e+01 4.730007e+01 7.102117e+01 6.916839e+01 4.640778e+01 4.633741e+01 3.819783e+01 4.797097e+01 3.368795e+01 1.039186e+00 2.084141e+00 1.781259e+00 2.202819e+00 2.125018e+00 4.647085e+00 3.349648e+00 2.783374e+00 3.021938e+00 2.496658e+00 2.712969e+00 1.847881e+00 8.823477e-01
<GCONST> 1.015064e+02
<TRANSP> 5
 0.000000e+00 1.000000e+00 0.000000e+00 0.000000e+00 0.000000e+00
 0.000000e+00 5.483051e-01 4.516948e-01 0.000000e+00 0.000000e+00
 0.000000e+00 0.000000e+00 6.221226e-01 3.778774e-01 0.000000e+00
 0.000000e+00 0.000000e+00 0.000000e+00 8.640802e-01 1.359198e-01
 0.000000e+00 0.000000e+00 0.000000e+00 0.000000e+00 0.000000e+00
<ENDHMM>
~h "ow"
<BEGINHMM>
<NUMSTATES> 5
<STATE> 2
<MEAN> 25
 1.219413e+00 -6.147759e-02 -1.477782e-01 1.221034e+00 9.329528e-01 -1.500907e+00 -2.130445e+00 -1.907251e+00 -1.189962e+00 -7.426221e-01 -3.624347e-01 -9.784371e-01 -1.227616e-01 1.815393e-01 1.655240e-01 4.547330e-02 5.955262e-02 1.491613e-01 7.378425e-02 7.640834e-02 1.601809e-01 3.502765e-02 -7.581522e-02 2.031892e-03 -1.493679e-01
<VARIANCE> 25
 2.331039e+01 2.808314e+01 2.946600e+01 3.998194e+01 2.905674e+01 6.526886e+01 4.570053e+01 2.611021e+01 3.869987e+01 2.990722e+01 3.107840e+01 2.244880e+01 5.876921e-01 9.153931e-01 9.109160e-01 1.218104e+00 1.305322e+00 2.367207e+00 1.851984e+00 1.494802e+00 1.830273e+00 1.586597e+00 1.578563e+00 1.203637e+00 4.113571e-01
<GCONST> 9.018662e+01
<STATE> 3
<MEAN> 25
 1.122735e+00 2.195566e-01 1.549706e-01 1.306374e+00 9.106424e-01 -1.495397e+00 -2.094408e+00 -1.799538e+00 -1.091898e+00 -8.503869e-01 -5.706543e-01 -1.077749e+00 -1.146956e-01 1.680835e-01 1.539594e-01 -3.016045e-02 -3.088322e-02 1.285316e-01 1.320314e-01 1.242255e-01 1.303408e-01 6.678160e-03 -7.760987e-02 -1.919537e-03 -1.320532e-01
<VARIANCE> 25
 2.280349e+01 2.764050e+01 2.846651e+01 4.098069e+01 3.152505e+01 6.540719e+01 4.457480e+01 2.511570e+01 3.789209e+01 2.941858e+01 3.078998e+01 2.232298e+01 5.865862e-01 8.698648e-01 9.202317e-01 1.230750e+00 1.388884e+00 2.370643e+00 1.786396e+00 1.454025e+00 1.827069e+00 1.567998e+00 1.573772e+00 1.185409e+00 4.010274e-01
<GCONST> 9.001640e+01
<STATE> 4
<MEAN> 25
 7.725222e-01 7.296066e-01 6.958110e-01 1.514934e+00 9.639095e-01 -1.089797e+00 -1.903745e+00 -1.485108e+00 -6.935549e-01 -9.229127e-01 -1.001784e+00 -1.066154e+00 -1.020813e-01 1.255915e-01 1.069105e-01 -9.953193e-02 -9.188329e-02 1.240284e-01 1.852104e-01 1.539154e-01 1.038299e-01 1.204706e-02 -4.666818e-02 3.489345e-03 -1.048498e-01
<VARIANCE> 25
 2.186198e+01 2.482773e+01 2.523544e+01 3.913789e+01 3.267590e+01 6.485986e+01 4.216449e+01 2.394790e+01 3.631826e+01 2.841053e+01 2.946786e+01 2.124775e+01 5.373936e-01 7.944154e-01 8.725606e-01 1.127647e+00 1.305696e+00 2.133130e+00 1.645575e+00 1.389711e+00 1.723181e+00 1.486023e+00 1.505586e+00 1.125914e+00 3.589069e-01
<GCONST> 8.852146e+01
<TRANSP> 5
 0.000000e+00 1.000000e+00 0.000000e+00 0.000000e+00 0.000000e+00
 0.000000e+00 4.995294e-01 5.004705e-01 0.000000e+00 0.000000e+00
 0.000000e+00 0.000000e+00 4.989196e-01 5.010805e-01 0.000000e+00
 0.000000e+00 0.000000e+00 0.000000e+00 6.319291e-01 3.680709e-01
 0.000000e+00 0.000000e+00 0.000000e+00 0.000000e+00 0.000000e+00
<ENDHMM>
~h "oy"
<BEGINHMM>
<NUMSTATES> 5
<STATE> 2
<MEAN> 25
 -1.256602e+00 2.286787e-01 2.217504e+00 -3.286190e-01 1.550856e+00 6.926946e-01 1.838268e-01 -8.535167e-01 -6.176194e-01 -3.465607e-01 4.203975e-01 -5.594732e-01 5.096952e-01 -8.944745e-01 -5.983790e-01 -2.405664e-01 -5.991622e-01 -1.031819e+00 -2.350893e-01 1.743004e-02 -5.687152e-01 -1.001823e-01 3.786091e-01 3.179222e-02 7.557816e-01
<VARIANCE> 25
 4.029993e+01 4.817390e+01 5.447725e+01 6.699410e+01 5.286719e+01 6.371119e+01 4.681624e+01 3.286175e+01 4.284388e+01 3.209064e+01 3.272089e+01 2.392271e+01 2.751347e+00 3.094748e+00 3.537992e+00 3.492177e+00 4.224271e+00 6.613211e+00 4.347859e+00 3.102132e+00 4.361256e+00 3.285377e+00 2.977502e+00 1.813740e+00 1.640113e+00
<GCONST> 1.065012e+02
<STATE> 3
<MEAN> 25
 2.139637e+00 -3.288907e+00 -1.243896e+00 -7.537291e-01 -1.552060e+00 -3.768362e+00 -1.773829e+00 -5.956710e-01 -2.701233e+00 -1.012137e+00 9.797400e-01 -1.673175e-01 6.100031e-01 -8.167187e-01 -6.111476e-01 -1.871509e-01 -7.040340e-01 -1.041282e+00 -4.347304e-01 1.169343e-01 -3.949403e-01 -2.597152e-02 2.711473e-01 7.195372e-02 7.200128e-01
<VARIANCE> 25
 3.447713e+01 4.891070e+01 5.768519e+01 7.958459e+01 7.044267e+01 8.471922e+01 6.737463e+01 4.632000e+01 4.230916e+01 3.797927e+01 3.733564e+01 2.879532e+01 1.975787e+00 2.938412e+00 2.878181e+00 2.845091e+00 3.384035e+00 7.146673e+00 4.597827e+00 3.417685e+00 3.864236e+00 3.166599e+00 3.138870e+00 1.834826e+00 1.387428e+00
<GCONST> 1.072958e+02
<STATE> 4
<MEAN> 25
 4.055098e+00 -5.390016e+00 -3.894483e+00 -1.018425e+00 -2.830685e+00 -5.738872e+00 -2.949087e+00 -7.084405e-01 -2.692617e+00 -3.524823e-01 8.300041e-01 -6.497720e-01 5.019121e-02 5.132855e-02 -3.900669e-02 1.405464e-01 9.358653e-02 -8.851074e-02 -1.138797e-01 -7.085123e-02 3.718594e-02 -3.544050e-02 -7.828332e-02 -6.183989e-02 -3.568970e-02
<VARIANCE> 25
 2.266143e+01 4.243474e+01 4.689501e+01 7.848242e+01 7.036382e+01 7.321754e+01 6.258008e+01 4.589644e+01 4.369914e+01 3.872674e+01 3.891044e+01 2.974189e+01 1.021071e+00 2.382053e+00 1.885163e+00 1.793467e+00 2.195474e+00 4.795763e+00 3.391040e+00 2.312841e+00 2.766685e+00 2.534961e+00 2.661698e+00 1.560554e+00 1.052862e+00
<GCONST> 1.019680e+02
<TRANSP> 5
 0.000000e+00 1.000000e+00 0.000000e+00 0.000000e+00 0.000000e+00
 0.000000e+00 7.212760e-01 2.787241e-01 0.000000e+00 0.000000e+00
 0.000000e+00 0.000000e+00 7.056479e-01 2.943521e-01 0.000000e+00
 0.000000e+00 0.000000e+00 0.000000e+00 9.236050e-01 7.639504e-02
 0.000000e+00 0.000000e+00 0.000000e+00 0.000000e+00 0.000000e+00
<ENDHMM>
~h "sh"
<BEGINHMM>
<NUMSTATES> 5
<STATE> 2
<MEAN> 25
 1.236634e+00 -4.078585e-01 -1.206093e+00 -9.711894e-01 -8.166649e-01 -1.048445e+00 -2.333342e-01 -5.430933e-02 -5.917981e-01 -3.212918e-01 5.141042e-01 -2.653242e-01 -1.376044e-01 -8.431385e-02 1.366609e-01 1.746829e-01 3.688609e-02 6.902653e-02 1.031973e-01 7.121286e-02 1.155483e-01 1.407765e-01 9.609921e-02 -1.592803e-02 -5.017164e-02
<VARIANCE> 25
 3.094219e+01 3.719061e+01 3.861355e+01 4.410380e+01 3.009491e+01 6.341564e+01 4.877059e+01 3.095794e+01 3.908154e+01 3.304958e+01 4.240184e+01 2.253381e+01 4.266999e-01 1.521732e+00 9.315313e-01 1.215389e+00 9.670468e-01 1.943244e+00 1.572215e+00 1.458009e+00 1.663529e+00 1.448401e+00 1.879575e+00 1.072648e+00 4.338281e-01
<GCONST> 9.123313e+01
<STATE> 3
<MEAN> 25
 1.197102e+00 -9.597855e-01 -1.029684e+00 -4.721473e-01 -8.426884e-01 -1.426183e+00 -3.539606e-01 -1.833634e-01 -7.293095e-01 -2.036267e-01 7.961948e-01 -4.265542e-01 -1.264402e-01 -1.052423e-01 1.740290e-01 2.054558e-01 5.946879e-02 1.616658e-02 3.189474e-02 -3.860121e-02 6.352201e-02 6.862356e-02 4.421670e-02 -6.556808e-02 -2.028152e-02
<VARIANCE> 25
 3.161985e+01 4.359024e+01 4.080870e+01 4.889526e+01 2.902502e+01 6.094786e+01 4.928475e+01 3.210214e+01 3.679698e+01 3.296305e+01 4.577363e+01 2.269877e+01 4.286199e-01 1.602323e+00 9.740351e-01 1.155662e+00 9.464792e-01 1.908332e+00 1.564179e+00 1.527619e+00 1.600606e+00 1.428516e+00 1.873725e+00 1.059972e+00 4.400881e-01
<GCONST> 9.156301e+01
<STATE> 4
<MEAN> 25
 1.077508e+00 -1.441845e+00 -7.217671e-01 1.110306e-01 -7.336555e-01 -1.726971e+00 -6.097596e-01 -5.264471e-01 -6.691337e-01 -5.178546e-02 1.003575e+00 -6.717269e-01 -1.109479e-01 -6.278104e-02 1.982421e-01 2.052557e-01 9.407341e-02 -2.399316e-03 -3.074560e-02 -1.214701e-01 2.434889e-02 3.110547e-03 -1.508959e-02 -9.636640e-02 -1.399712e-02
<VARIANCE> 25
 3.258712e+01 5.093593e+01 4.366956e+01 5.102888e+01 2.757432e+01 5.938145e+01 5.035442e+01 3.309433e+01 3.546771e+01 3.122622e+01 4.685763e+01 2.279335e+01 5.395859e-01 1.500811e+00 1.077646e+00 1.111723e+00 9.869755e-01 2.068791e+00 1.770017e+00 1.699482e+00 1.698752e+00 1.499226e+00 1.969277e+00 1.081814e+00 4.566026e-01
<GCONST> 9.256535e+01
<TRANSP> 5
 0.000000e+00 1.000000e+00 0.000000e+00 0.000000e+00 0.000000e+00
 0.000000e+00 5.064420e-01 4.935580e-01 0.000000e+00 0.000000e+00
 0.000000e+00 0.000000e+00 4.991806e-01 5.008193e-01 0.000000e+00
 0.000000e+00 0.000000e+00 0.000000e+00 6.098053e-01 3.901947e-01
 0.000000e+00 0.000000e+00 0.000000e+00 0.000000e+00 0.000000e+00
<ENDHMM>
~h "th"
<BEGINHMM>
<NUMSTATES> 5
<STATE> 2
<MEAN> 25
 -2.183407e+00 1.760287e+00 1.183507e+00 3.208823e-01 1.586449e+00 4.016785e+00 2.206976e+00 6.365872e-01 2.103935e+00 1.308914e+00 2.026364e-01 8.259380e-01 -1.874392e-01 5.161619e-02 6.845738e-02 -7.628274e-03 1.226107e-02 1.636768e-01 2.006189e-01 1.290152e-01 2.100221e-01 1.524709e-01 3.886618e-02 3.089836e-02 -1.435380e-01
<VARIANCE> 25
 2.023005e+01 1.547322e+01 2.017158e+01 2.208121e+01 2.050324e+01 4.429451e+01 2.750782e+01 1.908364e+01 2.710748e+01 2.199773e+01 1.898182e+01 1.562722e+01 2.556202e-01 4.679011e-01 4.780723e-01 5.426542e-01 6.339064e-01 1.129003e+00 9.656355e-01 1.036320e+00 1.088120e+00 1.027840e+00 1.010131e+00 7.980047e-01 2.230830e-01
<GCONST> 7.753970e+01
<STATE> 3
<MEAN> 25
 -1.421045e+00 1.464170e+00 6.986863e-01 -1.444149e-01 8.370565e-01 2.665109e+00 1.828775e+00 5.129204e-01 1.695149e+00 9.759092e-01 1.443697e-01 3.884428e-01 -1.110417e-01 1.971193e-02 6.606983e-02 1.851890e-02 -2.487181e-03 3.755575e-02 6.715713e-02 -8.660490e-03 6.703804e-02 1.023730e-01 3.395455e-02 -2.742602e-02 -6.790420e-02
<VARIANCE> 25
 2.421647e+01 2.023381e+01 2.569913e+01 2.770898e+01 2.640579e+01 5.335096e+01 3.050304e+01 2.253586e+01 3.090770e+01 2.534334e+01 2.245265e+01 1.864948e+01 3.340158e-01 6.424952e-01 6.375252e-01 6.395006e-01 7.258980e-01 1.370468e+00 1.139602e+00 1.318310e+00 1.378066e+00 1.177252e+00 1.139802e+00 9.530475e-01 3.416885e-01
<GCONST> 8.265211e+01
<STATE> 4
<MEAN> 25
 -1.084947e+00 1.282304e+00 5.190966e-01 -3.494835e-01 4.270840e-01 2.017657e+00 1.734563e+00 3.847735e-01 1.257064e+00 7.601688e-01 1.333996e-01 1.974770e-01 1.242104e-02 -6.475568e-02 6.544434e-03 2.858935e-02 -3.846399e-03 -1.124348e-01 -7.773717e-02 -1.189877e-01 -1.593830e-01 -6.140878e-03 4.742723e-02 -6.036473e-02 5.319089e-02
<VARIANCE> 25
 2.554921e+01 2.238394e+01 2.699535e+01 2.995386e+01 3.017675e+01 5.639623e+01 3.210489e+01 2.614039e+01 3.534711e+01 2.783104e+01 2.432398e+01 1.976689e+01 5.134856e-01 8.619227e-01 8.519397e-01 8.323190e-01 8.669400e-01 1.888480e+00 1.519014e+00 1.596789e+00 1.968194e+00 1.508846e+00 1.379390e+00 1.183183e+00 4.892344e-01
<GCONST> 8.731353e+01
<TRANSP> 5
 0.000000e+00 1.000000e+00 0.000000e+00 0.000000e+00 0.000000e+00
 0.000000e+00 7.192053e-01 2.807947e-01 0.000000e+00 0.000000e+00
 0.000000e+00 0.000000e+00 5.750220e-01 4.249780e-01 0.000000e+00
 0.000000e+00 0.000000e+00 0.000000e+00 5.994284e-01 4.005716e-01
 0.000000e+00 0.000000e+00 0.000000e+00 0.000000e+00 0.000000e+00
<ENDHMM>
~h "uh"
<BEGINHMM>
<NUMSTATES> 5
<STATE> 2
<MEAN> 25
 -9.403015e-01 1.210629e+00 1.315054e+00 -3.758211e-01 1.377703e+00 6.515454e-01 -2.572598e-03 -7.753623e-01 2.259620e-01 2.846196e-01 -3.069377e-02 -9.628230e-01 1.440589e-01 -9.388299e-02 -1.238917e-01 -1.788922e-01 -3.149416e-01 -3.601441e-01 -5.614988e-03 9.085953e-02 -9.884178e-02 -2.415127e-02 8.546687e-02 -5.053377e-02 1.547935e-01
<VARIANCE> 25
