~o
<STREAMINFO> 1 25
<VECSIZE> 25<NULLD><MFCC_D_N_Z_0><DIAGC>
~s "silst"
<MEAN> 25
 5.372902e-01 -2.782416e-01 4.905899e-01 -1.210696e-01 1.075141e+00 -9.755117e-01 -1.545584e+00 -2.164417e+00 -1.687534e+00 -5.883190e-01 2.996551e-01 -1.198820e+00 -2.781497e-01 8.969666e-02 2.110560e-01 -3.315417e-02 1.032806e-01 2.664987e-01 2.522044e-01 1.729922e-01 2.837994e-01 1.823448e-01 5.696416e-02 3.395998e-02 -1.587472e-01
<VARIANCE> 25
 2.626403e+01 2.995787e+01 4.020849e+01 5.071878e+01 3.448488e+01 5.807207e+01 5.280955e+01 3.138996e+01 3.921185e+01 3.281347e+01 3.591245e+01 2.329054e+01 1.261732e+00 1.420846e+00 1.695988e+00 1.838139e+00 1.647010e+00 3.204044e+00 2.861795e+00 2.444828e+00 2.864155e+00 2.100302e+00 2.219571e+00 1.537407e+00 7.218382e-01
<GCONST> 9.716500e+01
~h "b"
<BEGINHMM>
<NUMSTATES> 5
<STATE> 2
<MEAN> 25
 1.709939e+00 2.209692e+00 -1.219952e-01 6.628964e-01 1.317402e+00 8.533856e-01 -1.327500e+00 -1.698784e+00 -1.623435e+00 -2.636821e+00 -1.897382e+00 -1.009577e-01 -3.891930e-01 9.565549e-01 8.037298e-01 1.505892e-01 4.647729e-01 1.276943e+00 5.731430e-01 2.681310e-01 6.233008e-01 -1.102089e-01 -7.007194e-01 -1.798977e-01 -5.796510e-01
<VARIANCE> 25
 1.722905e+01 1.378586e+01 2.112185e+01 2.592646e+01 2.486683e+01 3.560140e+01 3.929666e+01 2.829068e+01 4.454848e+01 3.081706e+01 2.567053e+01 2.018058e+01 8.218744e-01 7.754208e-01 6.859314e-01 7.992014e-01 9.866200e-01 1.889243e+00 1.861806e+00 1.904915e+00 3.074704e+00 2.285502e+00 1.742675e+00 1.365254e+00 4.684698e-01
<GCONST> 8.789236e+01
<STATE> 3
<MEAN> 25
 1.015741e+00 4.580841e+00 2.422896e+00 1.144321e+00 1.851299e+00 2.819663e+00 -6.250075e-01 -1.750909e+00 -1.139976e+00 -3.322907e+00 -4.274883e+00 -1.553978e+00 -4.193984e-01 3.208786e-01 4.423288e-01 6.447735e-02 1.529481e-01 6.163427e-01 4.585479e-01 3.393579e-01 5.637661e-01 3.819378e-01 3.019897e-02 4.592620e-02 -3.658680e-01
<VARIANCE> 25
 9.593538e+00 1.316860e+01 1.441519e+01 2.048915e+01 1.928134e+01 2.430615e+01 2.483084e+01 1.979506e+01 2.663510e+01 2.064189e+01 2.444991e+01 1.854325e+01 3.121990e-01 3.488663e-01 4.381871e-01 5.387076e-01 6.367020e-01 8.024717e-01 1.016191e+00 9.968610e-01 1.222580e+00 1.076275e+00 9.325594e-01 8.346696e-01 1.279909e-01
<GCONST> 7.489635e+01
<STATE> 4
<MEAN> 25
 -3.522719e+00 3.198007e+00 2.734127e+00 7.903631e-01 2.029295e+00 5.637826e+00 2.524944e+00 1.568817e+00 4.080498e+00 1.768822e+00 -1.212286e+00 8.424845e-01 -1.413429e-01 -3.465080e-02 2.490779e-02 4.715712e-03 -2.878268e-03 7.544676e-02 9.880790e-02 9.376498e-02 1.535898e-01 1.495400e-01 8.542360e-02 4.236469e-02 -9.100393e-02
<VARIANCE> 25
 7.278735e+00 1.039092e+01 9.096968e+00 9.384402e+00 9.173612e+00 1.305587e+01 1.317037e+01 1.147608e+01 1.815903e+01 1.432727e+01 1.236715e+01 1.024975e+01 1.270254e-01 2.001038e-01 2.858032e-01 3.646001e-01 4.455756e-01 5.609708e-01 6.455258e-01 6.829954e-01 7.654455e-01 7.625126e-01 7.234461e-01 6.178989e-01 5.074926e-02
<GCONST> 6.246367e+01
<TRANSP> 5
 0.000000e+00 1.000000e+00 0.000000e+00 0.000000e+00 0.000000e+00
 0.000000e+00 4.682939e-01 5.317061e-01 0.000000e+00 0.000000e+00
 0.000000e+00 0.000000e+00 5.484020e-01 4.515980e-01 0.000000e+00
 0.000000e+00 0.000000e+00 0.000000e+00 8.490822e-01 1.509178e-01
 0.000000e+00 0.000000e+00 0.000000e+00 0.000000e+00 0.000000e+00
<ENDHMM>
~h "d"
<BEGINHMM>
<NUMSTATES> 5
<STATE> 2
<MEAN> 25
 7.297962e-01 -4.364234e-01 2.008794e-01 -8.769990e-01 4.124900e-01 -9.375327e-01 -7.738205e-01 -1.313411e+00 -1.815749e+00 -6.762373e-01 2.091341e-01 -1.308818e+00 2.809681e-01 -1.592774e-01 -2.467749e-01 1.221734e-01 3.212683e-03 -4.020276e-01 -4.033960e-01 -4.354309e-01 -3.517592e-01 -6.107853e-03 2.005459e-01 7.237559e-02 1.797257e-01
<VARIANCE> 25
 3.006232e+01 3.900766e+01 4.256547e+01 5.014325e+01 3.925651e+01 5.783487e+01 5.288593e+01 3.215586e+01 4.033215e+01 3.542030e+01 3.685700e+01 2.429149e+01 1.726998e+00 1.995581e+00 2.063406e+00 2.071935e+00 2.545240e+00 4.003244e+00 3.487816e+00 3.001646e+00 3.616069e+00 2.686133e+00 2.815710e+00 1.911568e+00 8.638482e-01
<GCONST> 1.010781e+02
<STATE> 3
<MEAN> 25
 4.279275e+00 -2.744410e+00 -3.449385e+00 -5.900711e-01 -1.902602e+00 -5.170819e+00 -3.875078e+00 -2.671058e+00 -4.388693e+00 -1.188079e+00 1.832739e+00 3.020881e-01 4.405212e-01 -6.451773e-01 -6.869977e-01 -1.172246e-01 -2.542975e-01 -6.881202e-01 -2.516046e-01 1.748277e-02 -1.700427e-01 2.816216e-01 5.933495e-01 1.782496e-01 4.725272e-01
<VARIANCE> 25
 1.357714e+01 3.583226e+01 3.309089e+01 4.328243e+01 4.025142e+01 5.867908e+01 5.385399e+01 3.896955e+01 4.724794e+01 4.419263e+01 3.979403e+01 2.548666e+01 1.150464e+00 3.049683e+00 2.284439e+00 2.652426e+00 3.038965e+00 6.056615e+00 4.040032e+00 3.247216e+00 3.962825e+00 3.643805e+00 3.406920e+00 2.193749e+00 1.437086e+00
<GCONST> 1.029708e+02
<STATE> 4
<MEAN> 25
 5.541615e+00 -4.428957e+00 -5.585617e+00 -6.966146e-01 -2.372321e+00 -7.112075e+00 -4.445610e+00 -2.082051e+00 -3.326171e+00 -4.515084e-01 1.739819e+00 -7.058474e-01 -1.932668e-01 5.668397e-01 3.481517e-01 2.150380e-01 3.874793e-01 5.155590e-01 1.854374e-02 -5.832858e-02 2.591075e-01 -2.363681e-01 -5.582980e-01 -1.423808e-01 -3.946510e-01
<VARIANCE> 25
 9.946397e+00 3.697300e+01 3.246445e+01 4.578418e+01 3.952574e+01 6.004350e+01 5.679053e+01 3.556101e+01 3.959134e+01 3.859756e+01 3.809362e+01 2.414073e+01 2.825772e-01 1.112493e+00 9.280139e-01 1.006466e+00 1.140430e+00 2.659059e+00 1.928549e+00 1.518392e+00 1.689257e+00 1.631898e+00 1.589375e+00 1.178566e+00 4.215360e-01
<GCONST> 9.043296e+01
<TRANSP> 5
 0.000000e+00 1.000000e+00 0.000000e+00 0.000000e+00 0.000000e+00
 0.000000e+00 3.069763e-01 6.930237e-01 0.000000e+00 0.000000e+00
 0.000000e+00 0.000000e+00 3.881315e-01 6.118685e-01 0.000000e+00
 0.000000e+00 0.000000e+00 0.000000e+00 6.854621e-01 3.145379e-01
 0.000000e+00 0.000000e+00 0.000000e+00 0.000000e+00 0.000000e+00
<ENDHMM>
~h "f"
<BEGINHMM>
<NUMSTATES> 5
<STATE> 2
<MEAN> 25
 1.871957e+00 1.775792e+00 -9.437866e-01 -6.492866e-01 5.843021e-01 -2.949442e-01 -9.837641e-01 -2.094132e+00 -2.077637e+00 -3.050850e+00 -1.582218e+00 -8.524111e-01 -1.052381e+00 4.969573e-01 5.800388e-01 -1.007141e-01 6.664653e-01 1.116858e+00 1.054406e+00 4.470976e-01 1.222448e+00 5.598397e-01 1.596974e-01 -2.011350e-01 -5.583938e-01
<VARIANCE> 25
 1.636196e+01 1.404784e+01 2.240821e+01 3.315633e+01 2.785992e+01 3.345235e+01 4.417781e+01 3.037458e+01 3.827407e+01 3.033653e+01 3.222871e+01 2.305769e+01 8.054256e-01 7.058156e-01 8.026493e-01 1.105734e+00 1.338059e+00 1.802478e+00 1.897727e+00 1.747092e+00 2.288643e+00 1.640095e+00 1.904304e+00 1.282318e+00 3.288359e-01
<GCONST> 8.820032e+01
<STATE> 3
<MEAN> 25
 -3.178159e+00 1.914491e+00 7.629451e-01 -7.538190e-01 2.522823e+00 3.509369e+00 3.124596e+00 4.345347e-01 3.190576e+00 9.521643e-01 9.196244e-01 -2.306180e-01 -4.131686e-01 3.179233e-02 1.953732e-01 -3.540472e-02 2.385626e-01 2.003916e-01 2.617126e-01 4.063234e-02 2.635141e-01 2.057392e-01 2.245957e-01 -4.632660e-02 -1.380435e-01
<VARIANCE> 25
 1.345887e+01 1.174157e+01 1.450898e+01 2.028303e+01 1.805858e+01 2.516533e+01 2.561775e+01 1.924887e+01 2.475960e+01 1.753486e+01 2.206819e+01 1.798621e+01 3.812328e-01 4.039057e-01 5.061705e-01 6.579432e-01 7.542064e-01 9.206009e-01 1.027128e+00 1.031429e+00 1.091669e+00 1.034356e+00 1.189915e+00 9.499138e-01 1.417866e-01
<GCONST> 7.608421e+01
<STATE> 4
<MEAN> 25
 -5.303704e+00 1.617390e+00 2.960815e+00 -2.697359e+00 4.787309e+00 2.716547e+00 3.409555e+00 -1.285629e+00 2.151322e+00 9.278530e-01 2.531673e+00 -2.161182e+00 -1.117606e-01 -2.456853e-01 -6.994445e-02 1.660782e-01 7.496410e-02 4.631026e-03 1.972250e-02 -9.120439e-02 -1.783321e-02 1.967640e-01 1.518745e-01 2.973141e-02 8.954386e-03
<VARIANCE> 25
 2.781863e+01 1.638574e+01 3.052667e+01 3.929312e+01 3.116267e+01 2.674651e+01 3.391058e+01 2.314431e+01 3.062241e+01 2.551359e+01 3.050844e+01 1.917702e+01 1.056389e+00 9.050213e-01 1.235017e+00 1.727338e+00 1.655771e+00 1.311152e+00 1.627735e+00 1.677959e+00 1.948303e+00 1.556025e+00 1.923112e+00 1.464793e+00 3.993591e-01
<GCONST> 8.930198e+01
<TRANSP> 5
 0.000000e+00 1.000000e+00 0.000000e+00 0.000000e+00 0.000000e+00
 0.000000e+00 5.284073e-01 4.715926e-01 0.000000e+00 0.000000e+00
 0.000000e+00 0.000000e+00 6.995876e-01 3.004123e-01 0.000000e+00
 0.000000e+00 0.000000e+00 0.000000e+00 5.515669e-01 4.484331e-01
 0.000000e+00 0.000000e+00 0.000000e+00 0.000000e+00 0.000000e+00
<ENDHMM>
~h "g"
<BEGINHMM>
<NUMSTATES> 5
<STATE> 2
<MEAN> 25
 -3.909148e+00 1.327592e+00 1.511788e+00 3.383465e-01 1.491119e+00 5.022007e+00 2.786217e+00 2.067014e+00 3.948024e+00 2.385182e+00 -3.545242e-03 1.566775e+00 -6.766202e-02 4.406676e-03 1.387295e-02 -1.351111e-02 -1.043753e-02 4.167179e-02 4.847427e-02 5.234560e-02 7.627403e-02 4.638845e-02 1.989701e-02 2.363713e-02 -5.058595e-02
<VARIANCE> 25
 4.166158e+00 5.726253e+00 5.637625e+00 6.546151e+00 6.526002e+00 1.298947e+01 1.035389e+01 9.127012e+00 1.219061e+01 9.402083e+00 9.047905e+00 7.508560e+00 7.344726e-02 1.395450e-01 2.172492e-01 3.045432e-01 3.905939e-01 5.083849e-01 5.689266e-01 6.134983e-01 6.626790e-01 6.246861e-01 6.504784e-01 5.666929e-01 3.100886e-02
<GCONST> 5.535719e+01
<STATE> 3
<MEAN> 25
 -1.533805e+00 2.944869e+00 2.239077e+00 8.553525e-01 1.498280e+00 3.548411e+00 1.206185e+00 3.802508e-01 1.910216e+00 -1.336426e-02 -1.625924e+00 5.435111e-02 -9.258180e-02 1.788259e-01 2.762800e-01 1.367502e-01 8.393904e-02 1.967224e-01 1.114517e-01 -7.615751e-02 -3.992741e-02 -1.016954e-01 -1.171389e-01 -1.318486e-01 -8.277275e-02
<VARIANCE> 25
 1.393188e+01 1.284269e+01 1.309960e+01 1.738843e+01 1.502549e+01 2.564575e+01 2.550929e+01 1.864690e+01 2.840527e+01 2.244080e+01 1.921034e+01 1.431375e+01 3.057647e-01 3.997876e-01 4.667337e-01 6.390812e-01 5.919622e-01 8.458070e-01 9.495484e-01 9.264444e-01 1.183799e+00 1.069402e+00 1.012776e+00 9.036207e-01 1.295609e-01
<GCONST> 7.472739e+01
<STATE> 4
<MEAN> 25
 -1.310993e+00 4.018853e+00 3.641381e+00 1.544609e+00 1.783210e+00 3.899912e+00 8.019376e-01 -6.010680e-01 9.463271e-01 -8.681387e-01 -2.737035e+00 -1.196496e+00 3.899822e-01 5.623035e-02 6.681182e-02 1.482996e-01 -6.623121e-02 -3.763182e-01 -3.433110e-01 -5.756361e-01 -6.713124e-01 -3.664367e-01 -2.152454e-02 -3.038082e-01 3.157081e-01
<VARIANCE> 25
 1.015068e+01 1.543424e+01 1.441850e+01 1.441410e+01 1.116409e+01 2.077775e+01 2.051952e+01 1.821391e+01 2.459436e+01 1.976022e+01 1.861897e+01 1.288451e+01 8.193814e-01 1.426928e+00 1.221332e+00 1.198750e+00 9.706872e-01 1.664292e+00 1.925882e+00 2.088328e+00 2.387217e+00 2.227352e+00 2.007986e+00 1.268323e+00 3.071393e-01
<GCONST> 8.320856e+01
<TRANSP> 5
 0.000000e+00 1.000000e+00 0.000000e+00 0.000000e+00 0.000000e+00
 0.000000e+00 9.219658e-01 7.803423e-02 0.000000e+00 0.000000e+00
 0.000000e+00 0.000000e+00 2.348142e-01 7.651859e-01 0.000000e+00
 0.000000e+00 0.000000e+00 0.000000e+00 5.166547e-01 4.833453e-01
 0.000000e+00 0.000000e+00 0.000000e+00 0.000000e+00 0.000000e+00
<ENDHMM>
~h "k"
<BEGINHMM>
<NUMSTATES> 5
<STATE> 2
<MEAN> 25
 4.314497e+00 -1.240104e+00 -2.560026e+00 2.888303e-02 -1.602860e+00 -6.060760e+00 -4.459620e+00 -2.782420e+00 -3.839348e+00 -2.201363e+00 -2.614849e-01 -1.010575e+00 -3.804534e-01 7.618272e-01 5.002052e-01 1.506215e-01 4.377515e-01 9.892681e-01 2.368735e-01 8.459572e-02 4.660496e-01 -1.819937e-01 -6.741642e-01 -2.098900e-02 -6.056626e-01
<VARIANCE> 25
 1.451623e+01 2.507443e+01 2.754230e+01 4.665127e+01 4.161946e+01 5.865567e+01 6.086840e+01 3.752744e+01 4.447126e+01 3.330589e+01 3.747302e+01 2.657267e+01 2.832583e-01 8.412800e-01 6.930623e-01 8.395947e-01 1.018102e+00 2.322025e+00 1.621692e+00 1.378992e+00 1.911897e+00 1.607792e+00 1.638316e+00 1.169863e+00 3.846187e-01
<GCONST> 8.924808e+01
<STATE> 3
<MEAN> 25
 1.595984e+00 1.614735e+00 -1.874003e-02 7.596601e-01 6.885601e-01 -6.648849e-01 -2.037519e+00 -1.596335e+00 -1.221994e+00 -2.210322e+00 -2.405675e+00 -8.489610e-01 -6.385424e-01 4.906227e-01 4.250260e-01 -3.411774e-02 3.201670e-01 1.263236e+00 7.797908e-01 5.659652e-01 9.419215e-01 3.913976e-01 -9.314916e-02 1.819617e-01 -6.401854e-01
<VARIANCE> 25
 1.560673e+01 1.698913e+01 2.210144e+01 3.733068e+01 2.942491e+01 4.164334e+01 4.458522e+01 2.944410e+01 3.737877e+01 2.823932e+01 2.896215e+01 2.275410e+01 4.319566e-01 5.935665e-01 7.194598e-01 8.811461e-01 1.012512e+00 2.045644e+00 1.756530e+00 1.446274e+00 1.950890e+00 1.343657e+00 1.408865e+00 1.221451e+00 3.445309e-01
<GCONST> 8.627068e+01
<STATE> 4
<MEAN> 25
 -9.038090e-01 2.539979e+00 1.335854e+00 7.141512e-01 1.472599e+00 2.631439e+00 1.290308e-01 -3.798265e-02 1.509857e+00 -3.022194e-01 -1.787869e+00 -1.607653e-02 -4.282633e-01 9.832522e-02 2.108826e-01 -5.783672e-02 9.601527e-02 4.922476e-01 3.781050e-01 2.431163e-01 4.283352e-01 3.636827e-01 1.963079e-01 1.442066e-01 -3.053637e-01
<VARIANCE> 25
 1.299685e+01 1.202802e+01 1.568180e+01 2.316402e+01 1.890524e+01 2.973091e+01 2.976941e+01 2.093602e+01 2.798575e+01 2.170770e+01 2.260668e+01 1.880830e+01 2.848384e-01 3.896712e-01 5.296926e-01 6.728254e-01 7.118002e-01 9.996572e-01 1.094156e+00 1.040177e+00 1.189321e+00 1.048422e+00 1.122711e+00 9.746855e-01 1.490869e-01
<GCONST> 7.708907e+01
<TRANSP> 5
 0.000000e+00 1.000000e+00 0.000000e+00 0.000000e+00 0.000000e+00
 0.000000e+00 5.578237e-01 4.421763e-01 0.000000e+00 0.000000e+00
 0.000000e+00 0.000000e+00 1.791394e-01 8.208606e-01 0.000000e+00
 0.000000e+00 0.000000e+00 0.000000e+00 6.235592e-01 3.764408e-01
 0.000000e+00 0.000000e+00 0.000000e+00 0.000000e+00 0.000000e+00
<ENDHMM>
~h "l"
<BEGINHMM>
<NUMSTATES> 5
<STATE> 2
<MEAN> 25
 4.342786e+00 -2.165177e+00 -3.398653e+00 -1.275976e+00 -2.732607e+00 -5.160206e+00 -3.327445e+00 -2.221905e+00 -3.204848e+00 -1.088517e+00 8.987651e-01 -8.562567e-01 -1.345685e-01 4.799101e-01 3.661400e-01 3.341817e-01 3.874869e-01 3.851954e-01 -1.670644e-01 -3.323569e-01 -9.040155e-02 -3.222639e-01 -4.629135e-01 -1.102665e-01 -3.147486e-01
<VARIANCE> 25
 1.675726e+01 3.081137e+01 2.947628e+01 4.133986e+01 3.800395e+01 5.595016e+01 5.056223e+01 3.700169e+01 4.887532e+01 3.544709e+01 3.279341e+01 2.203789e+01 2.525674e-01 7.453286e-01 6.577398e-01 8.735835e-01 9.942207e-01 1.773250e+00 1.492541e+00 1.405792e+00 1.471309e+00 1.497501e+00 1.426382e+00 9.312723e-01 2.734713e-01
<GCONST> 8.739700e+01
<STATE> 3
<MEAN> 25
 2.382424e+00 4.819075e-01 -4.565674e-01 1.140869e+00 4.677774e-01 -1.746305e+00 -3.020125e+00 -3.129091e+00 -3.155552e+00 -2.321821e+00 -1.283490e+00 -1.110714e+00 -1.815263e-01 6.355795e-01 5.174850e-01 2.894596e-01 3.790403e-01 6.338053e-01 1.039683e-01 -1.264181e-01 -3.322082e-02 -4.272972e-01 -5.573171e-01 -4.265961e-02 -3.770992e-01
<VARIANCE> 25
 1.921685e+01 2.194313e+01 2.496769e+01 3.462530e+01 2.800759e+01 5.320747e+01 4.689491e+01 3.382944e+01 4.878282e+01 3.292422e+01 2.910588e+01 2.085831e+01 5.654499e-01 9.108229e-01 7.961341e-01 9.363633e-01 1.063543e+00 2.453880e+00 2.044860e+00 1.777204e+00 2.586299e+00 1.905038e+00 1.642833e+00 1.118431e+00 4.315301e-01
<GCONST> 8.987456e+01
<STATE> 4
<MEAN> 25
 2.630167e+00 2.248075e+00 1.305557e+00 2.503955e+00 1.215839e+00 -1.493571e+00 -4.205242e+00 -4.464619e+00 -4.391965e+00 -4.071519e+00 -2.997226e+00 -1.629761e+00 -3.198830e-01 2.909760e-01 3.207547e-01 2.539398e-02 1.346497e-01 5.018409e-01 3.935640e-01 2.636429e-01 3.249871e-01 1.242936e-01 -5.357319e-02 5.857521e-02 -3.065898e-01
<VARIANCE> 25
 1.058247e+01 1.554808e+01 1.606690e+01 2.715269e+01 2.201122e+01 4.090179e+01 3.389656e+01 2.842868e+01 4.146194e+01 2.707007e+01 2.471512e+01 1.852865e+01 3.041658e-01 5.572121e-01 5.955988e-01 7.085523e-01 8.261768e-01 1.503538e+00 1.308583e+00 1.271713e+00 1.639036e+00 1.266838e+00 1.181006e+00 1.002724e+00 2.054600e-01
<GCONST> 8.135737e+01
<TRANSP> 5
 0.000000e+00 1.000000e+00 0.000000e+00 0.000000e+00 0.000000e+00
 0.000000e+00 4.780572e-01 5.219427e-01 0.000000e+00 0.000000e+00
 0.000000e+00 0.000000e+00 1.088656e-01 8.911344e-01 0.000000e+00
 0.000000e+00 0.000000e+00 0.000000e+00 6.308580e-01 3.691420e-01
 0.000000e+00 0.000000e+00 0.000000e+00 0.000000e+00 0.000000e+00
<ENDHMM>
~h "m"
<BEGINHMM>
<NUMSTATES> 5
<STATE> 2
<MEAN> 25
 4.561245e+00 -2.459525e+00 -4.233661e+00 -9.118351e-01 -1.823480e+00 -4.570657e+00 -1.798882e+00 -1.714795e+00 -4.400470e+00 -1.917854e+00 8.395090e-01 -6.314325e-01 -2.159627e-01 9.263994e-01 5.773307e-01 1.937306e-01 4.451550e-01 9.588235e-01 7.960839e-02 -7.974143e-02 1.758935e-01 -6.100645e-01 -9.766020e-01 -1.897298e-01 -5.560292e-01
<VARIANCE> 25
 1.405986e+01 2.876947e+01 2.924511e+01 3.953471e+01 3.003013e+01 5.075950e+01 5.607233e+01 2.883110e+01 4.707154e+01 3.839777e+01 3.490477e+01 2.308776e+01 2.909323e-01 9.221382e-01 7.189427e-01 9.298235e-01 1.142843e+00 2.390990e+00 1.697821e+00 1.414439e+00 1.829649e+00 1.755570e+00 1.712927e+00 1.181704e+00 3.344558e-01
<GCONST> 8.885111e+01
<STATE> 3
<MEAN> 25
 1.950001e+00 1.968793e+00 1.193955e-01 4.606442e-01 6.765466e-01 3.305207e-01 -1.128270e+00 -1.794417e+00 -2.321946e+00 -3.078806e+00 -2.872087e+00 -1.313693e+00 -1.447786e-01 7.567859e-01 6.077566e-01 1.408215e-01 2.945294e-01 7.718477e-01 2.256477e-01 -6.345829e-02 1.064908e-01 -3.563488e-01 -6.617225e-01 -2.824572e-01 -3.410968e-01
<VARIANCE> 25
 1.672143e+01 2.009134e+01 2.160609e+01 3.079915e+01 2.606641e+01 5.012958e+01 4.108208e+01 2.628556e+01 3.698312e+01 3.430270e+01 2.800385e+01 2.053577e+01 7.476929e-01 6.079783e-01 6.809866e-01 7.711768e-01 8.839897e-01 1.568218e+00 1.469303e+00 1.704082e+00 2.514565e+00 1.912926e+00 1.434185e+00 1.134055e+00 3.714308e-01
<GCONST> 8.680317e+01
<STATE> 4
<MEAN> 25
 2.328734e+00 4.366355e+00 1.705904e+00 5.464950e-01 5.775627e-01 1.023963e+00 -1.329345e+00 -2.520213e+00 -3.115168e+00 -4.712259e+00 -4.778397e+00 -2.522158e+00 -2.055903e-01 2.281372e-01 2.525088e-01 8.066990e-03 6.638817e-02 3.157161e-01 1.807367e-01 5.392328e-02 1.963709e-01 1.403267e-01 2.602836e-02 1.108051e-02 -2.000078e-01
<VARIANCE> 25
 9.076740e+00 1.265562e+01 1.339621e+01 2.186977e+01 2.429503e+01 3.917564e+01 2.872438e+01 2.238669e+01 2.576575e+01 2.393514e+01 2.249514e+01 1.667839e+01 2.691711e-01 3.774583e-01 4.800684e-01 5.518924e-01 6.914029e-01 1.048189e+00 1.008682e+00 1.048535e+00 1.127380e+00 1.006990e+00 9.860367e-01 8.662086e-01 1.304509e-01
<GCONST> 7.609872e+01
<TRANSP> 5
 0.000000e+00 1.000000e+00 0.000000e+00 0.000000e+00 0.000000e+00
 0.000000e+00 5.996848e-01 4.003153e-01 0.000000e+00 0.000000e+00
 0.000000e+00 0.000000e+00 1.269387e-01 8.730613e-01 0.000000e+00
 0.000000e+00 0.000000e+00 0.000000e+00 6.846371e-01 3.153629e-01
 0.000000e+00 0.000000e+00 0.000000e+00 0.000000e+00 0.000000e+00
<ENDHMM>
~h "n"
<BEGINHMM>
<NUMSTATES> 5
<STATE> 2
<MEAN> 25
 4.199004e+00 -3.854319e+00 -3.668031e+00 -1.223655e+00 -3.181196e+00 -5.556965e+00 -2.532476e+00 -6.948252e-01 -3.409510e+00 -4.288553e-01 1.784676e+00 -7.177335e-01 2.151349e-01 -1.052200e-02 -2.085105e-01 -4.471799e-02 -1.022170e-02 -9.385183e-02 8.501337e-02 -2.020684e-02 -2.342605e-01 -1.916541e-01 -1.856709e-02 -6.873906e-02 9.306150e-02
<VARIANCE> 25
 1.487975e+01 4.662130e+01 3.476466e+01 4.755763e+01 4.356976e+01 6.640775e+01 5.922818e+01 3.794156e+01 4.521059e+01 3.961661e+01 3.937151e+01 2.591356e+01 5.571843e-01 1.849037e+00 1.331261e+00 1.551979e+00 1.810913e+00 3.451762e+00 2.813936e+00 2.374918e+00 2.216822e+00 2.037654e+00 2.060274e+00 1.494694e+00 7.767769e-01
<GCONST> 9.687329e+01
<STATE> 3
<MEAN> 25
 5.816421e+00 -4.355865e+00 -6.187815e+00 -3.719775e+00 -5.319292e+00 -6.144000e+00 1.000493e+00 6.855975e-01 -5.461989e+00 -1.597932e+00 2.981070e+00 -2.987514e-01 -6.143888e-02 5.832689e-01 2.450143e-01 1.771900e-01 4.247869e-01 4.551847e-01 -2.549532e-01 -4.053266e-01 -3.182985e-02 -3.312182e-01 -4.834187e-01 -9.752087e-02 -3.408207e-01
<VARIANCE> 25
 1.064776e+01 3.499452e+01 3.092273e+01 4.569754e+01 5.052917e+01 4.964244e+01 6.888448e+01 4.249588e+01 4.437729e+01 3.469134e+01 3.531966e+01 2.418633e+01 1.698525e-01 1.151708e+00 6.955414e-01 8.152666e-01 1.088584e+00 1.857535e+00 1.743281e+00 1.465481e+00 1.467678e+00 1.678563e+00 1.664193e+00 1.050292e+00 3.726888e-01
<GCONST> 8.893587e+01
<STATE> 4
<MEAN> 25
 4.296814e+00 1.207357e+00 -1.715261e+00 -1.095164e-01 -2.980786e-01 -2.154234e+00 -3.357226e+00 -3.935750e+00 -4.686833e+00 -3.333572e+00 -1.463289e+00 -1.617999e+00 -3.225195e-01 6.776353e-01 5.907089e-01 1.712103e-01 3.655793e-01 7.644086e-01 1.038683e-01 -1.001663e-01 2.334572e-01 -1.454037e-01 -5.115150e-01 -9.752749e-02 -4.591821e-01
<VARIANCE> 25
 7.771394e+00 2.073421e+01 2.012045e+01 2.945698e+01 2.724017e+01 4.289870e+01 3.582003e+01 2.598316e+01 2.966990e+01 2.457630e+01 2.801792e+01 1.948433e+01 1.647180e-01 6.235462e-01 5.084411e-01 5.778173e-01 7.529006e-01 1.269938e+00 1.108436e+00 1.087454e+00 1.164343e+00 1.107678e+00 1.211690e+00 8.511503e-01 1.802168e-01
<GCONST> 7.942054e+01
<TRANSP> 5
 0.000000e+00 1.000000e+00 0.000000e+00 0.000000e+00 0.000000e+00
 0.000000e+00 3.469525e-01 6.530476e-01 0.000000e+00 0.000000e+00
 0.000000e+00 0.000000e+00 5.956219e-01 4.043781e-01 0.000000e+00
 0.000000e+00 0.000000e+00 0.000000e+00 7.132211e-01 2.867789e-01
 0.000000e+00 0.000000e+00 0.000000e+00 0.000000e+00 0.000000e+00
<ENDHMM>
~h "p"
<BEGINHMM>
<NUMSTATES> 5
<STATE> 2
<MEAN> 25
 1.855474e+00 -6.925586e-01 -1.606848e+00 -7.538844e-01 -5.302162e-01 -1.748199e+00 -1.122767e+00 -2.118803e+00 -2.883388e+00 -1.149177e+00 8.859915e-01 -3.825963e-02 7.260913e-01 -3.842097e-01 -7.108105e-01 -5.785950e-01 -6.931877e-01 -8.591005e-01 -1.995339e-01 -1.084922e-02 -5.506418e-01 -2.113921e-01 3.694072e-01 2.310181e-01 6.212915e-01
<VARIANCE> 25
 2.624557e+01 3.098814e+01 3.448872e+01 3.727350e+01 4.016657e+01 5.694099e+01 5.213433e+01 4.006539e+01 5.079001e+01 3.301951e+01 3.324547e+01 2.244880e+01 2.317210e+00 2.700584e+00 2.745553e+00 2.604708e+00 3.280183e+00 5.453391e+00 4.303460e+00 3.599768e+00 4.480678e+00 3.138408e+00 3.054749e+00 2.092997e+00 1.814954e+00
<GCONST> 1.037467e+02
<STATE> 3
<MEAN> 25
 4.035074e+00 -2.652574e+00 -3.660098e+00 -2.612906e+00 -3.450404e+00 -4.729849e+00 -1.899817e+00 -7.580094e-01 -3.729387e+00 -1.301172e+00 1.657299e+00 9.833978e-01 2.503237e-02 -2.158616e-01 -2.504776e-01 -5.271546e-01 -4.628613e-01 1.323440e-01 6.584253e-01 8.437397e-01 4.025272e-01 8.847477e-03 -5.322947e-02 2.097666e-01 1.429268e-01
<VARIANCE> 25
 2.173801e+01 3.805617e+01 3.884344e+01 4.215449e+01 4.341664e+01 6.410589e+01 5.539808e+01 3.703182e+01 5.101000e+01 3.812778e+01 3.682399e+01 2.676375e+01 7.974402e-01 1.867998e+00 1.543061e+00 1.649007e+00 1.936325e+00 3.609446e+00 2.885230e+00 2.520050e+00 2.507166e+00 2.276520e+00 2.029588e+00 1.515643e+00 1.004228e+00
<GCONST> 9.822018e+01
<STATE> 4
<MEAN> 25
 5.135566e+00 -2.028905e+00 -6.331806e+00 -7.063188e+00 -7.162801e+00 -2.730345e+00 3.953326e+00 3.689412e+00 -2.538995e+00 -3.192128e+00 7.005816e-01 2.062010e+00 -2.702787e-01 3.580922e-01 2.409674e-01 6.853602e-02 2.588843e-01 4.740985e-01 9.349541e-02 4.066830e-02 3.736986e-01 5.992649e-02 -2.273171e-01 -5.305349e-02 -3.556198e-01
<VARIANCE> 25
 1.641054e+01 3.233684e+01 3.112140e+01 3.090981e+01 3.975521e+01 5.165704e+01 3.923374e+01 3.218664e+01 4.792059e+01 2.792864e+01 2.436326e+01 1.949095e+01 3.708429e-01 7.662898e-01 6.592726e-01 6.930971e-01 1.032962e+00 1.608275e+00 1.449503e+00 1.342959e+00 1.569603e+00 1.467043e+00 1.230260e+00 9.370267e-01 3.873871e-01
<GCONST> 8.638094e+01
<TRANSP> 5
 0.000000e+00 1.000000e+00 0.000000e+00 0.000000e+00 0.000000e+00
 0.000000e+00 3.263568e-01 6.736432e-01 0.000000e+00 0.000000e+00
 0.000000e+00 0.000000e+00 3.013107e-01 6.986893e-01 0.000000e+00
 0.000000e+00 0.000000e+00 0.000000e+00 7.581398e-01 2.418602e-01
 0.000000e+00 0.000000e+00 0.000000e+00 0.000000e+00 0.000000e+00
<ENDHMM>
~h "r"
<BEGINHMM>
<NUMSTATES> 5
<STATE> 2
<MEAN> 25
 -2.635300e+00 -4.010857e-02 2.547462e+00 -7.181952e-01 2.598027e+00 1.337124e+00 1.238690e+00 -9.758324e-01 1.543726e-01 4.435540e-01 1.394955e+00 -1.580700e+00 1.242758e-01 -2.277448e-01 -1.968646e-01 -1.273954e-01 1.475967e-02 -1.545884e-01 -6.676383e-02 -2.547082e-01 -3.151155e-01 -2.079933e-02 1.647247e-01 -1.775522e-02 2.384585e-01
<VARIANCE> 25
 3.453194e+01 3.624138e+01 3.945271e+01 5.221468e+01 4.081696e+01 4.897555e+01 4.886816e+01 2.948303e+01 3.853359e+01 2.763710e+01 3.369289e+01 2.230909e+01 1.884330e+00 1.622392e+00 2.342651e+00 2.381143e+00 2.495358e+00 2.809333e+00 3.100132e+00 2.814778e+00 3.220387e+00 2.299312e+00 2.806915e+00 1.720668e+00 6.882042e-01
<GCONST> 9.932909e+01
<STATE> 3
<MEAN> 25
 3.155282e+00 -1.445873e+00 -2.650956e+00 -3.967464e-01 -6.573711e-02 -3.138560e+00 -3.400963e+00 -3.517291e+00 -3.836877e+00 -1.683835e+00 9.300646e-01 1.442978e-01 1.114799e+00 -7.243856e-01 -1.098651e+00 -6.635889e-01 -9.992278e-01 -1.404363e+00 -5.490799e-01 1.337111e-01 -8.591119e-01 -3.174199e-01 3.983886e-01 4.996462e-01 9.370399e-01
<VARIANCE> 25
 1.812086e+01 3.065764e+01 3.332324e+01 4.205407e+01 4.773635e+01 6.056388e+01 6.146002e+01 4.400057e+01 4.645506e+01 3.652555e+01 3.722519e+01 2.596706e+01 1.806583e+00 2.859151e+00 2.708654e+00 2.924343e+00 3.453023e+00 5.476521e+00 5.861425e+00 5.004213e+00 4.575248e+00 3.665483e+00 3.817657e+00 2.240326e+00 1.217153e+00
<GCONST> 1.048867e+02
<STATE> 4
<MEAN> 25
 6.055856e+00 -3.811012e+00 -6.515991e+00 -6.435967e+00 -7.371237e+00 -5.718983e+00 1.662078e+00 2.782701e+00 -4.323182e+00 -2.738481e+00 1.365568e+00 1.337109e+00 -2.844884e-02 1.240168e-01 -6.099241e-03 -8.612695e-03 1.572292e-01 2.751624e-01 4.403620e-02 -4.112793e-02 8.539250e-02 -7.348412e-02 -1.964829e-01 -6.775244e-02 -9.673623e-02
<VARIANCE> 25
 9.788708e+00 3.739885e+01 3.091564e+01 3.244763e+01 5.277920e+01 5.171167e+01 6.162112e+01 4.366910e+01 4.421988e+01 3.856435e+01 3.529196e+01 2.469399e+01 2.618731e-01 1.093282e+00 9.106095e-01 9.414768e-01 1.509150e+00 2.181914e+00 2.329708e+00 1.918254e+00 1.643055e+00 1.715583e+00 1.595696e+00 1.210010e+00 4.326155e-01
<GCONST> 9.092244e+01
<TRANSP> 5
 0.000000e+00 1.000000e+00 0.000000e+00 0.000000e+00 0.000000e+00
 0.000000e+00 4.661415e-01 5.338585e-01 0.000000e+00 0.000000e+00
 0.000000e+00 0.000000e+00 5.399666e-01 4.600334e-01 0.000000e+00
 0.000000e+00 0.000000e+00 0.000000e+00 7.892069e-01 2.107931e-01
 0.000000e+00 0.000000e+00 0.000000e+00 0.000000e+00 0.000000e+00
<ENDHMM>
~h "s"
<BEGINHMM>
<NUMSTATES> 5
<STATE> 2
<MEAN> 25
 -1.370605e+00 1.242929e+00 2.437653e+00 -2.743725e+00 2.827212e+00 1.703463e+00 -6.804516e-01 -2.339748e+00 -1.993473e+00 -9.408560e-01 6.038767e-01 -2.080793e+00 -1.467523e+00 2.857009e-01 1.241523e+00 -1.184929e+00 9.597535e-01 5.331711e-01 7.927659e-01 6.571786e-01 7.140133e-01 4.492824e-01 5.776336e-01 -4.360092e-01 -2.540915e-02
<VARIANCE> 25
 3.011697e+01 1.677298e+01 3.780941e+01 4.541885e+01 3.202965e+01 4.292286e+01 4.427966e+01 3.363874e+01 4.424821e+01 2.896953e+01 2.890723e+01 2.128825e+01 1.520559e+00 9.810791e-01 1.731726e+00 2.492921e+00 2.108381e+00 2.337381e+00 2.307746e+00 2.321523e+00 2.484819e+00 2.078403e+00 2.062752e+00 1.368598e+00 3.970651e-01
<GCONST> 9.462282e+01
<STATE> 3
<MEAN> 25
 -6.392601e+00 2.127024e+00 5.421668e+00 -5.984330e+00 5.724030e+00 1.032090e+00 3.047315e+00 -1.143877e+00 2.855540e-01 1.235517e+00 2.469594e+00 -2.870103e+00 -2.342730e-01 -1.658938e-02 5.557841e-02 -1.747010e-01 1.349208e-02 -2.321785e-01 2.897956e-01 -1.236434e-01 -1.547692e-02 1.849358e-01 1.324865e-01 2.606637e-02 1.044919e-01
<VARIANCE> 25
 5.280669e+01 2.243653e+01 4.589877e+01 5.386873e+01 5.026209e+01 4.064163e+01 5.243933e+01 3.844337e+01 4.430468e+01 3.504342e+01 3.315509e+01 2.336377e+01 2.802410e+00 1.388429e+00 2.220416e+00 2.814872e+00 3.134556e+00 2.626178e+00 3.222316e+00 2.852912e+00 4.006111e+00 2.925686e+00 2.792168e+00 1.813653e+00 5.338773e-01
<GCONST> 1.010418e+02
<STATE> 4
<MEAN> 25
 -5.599706e+00 1.891680e+00 4.689627e+00 -5.615339e+00 4.796542e+00 1.222782e+00 2.320439e+00 -3.689007e-01 1.812917e-01 9.968615e-01 2.142989e+00 -2.393374e+00 2.281589e-01 -3.909903e-03 -1.913790e-01 4.357012e-01 -3.069853e-01 2.404077e-01 -1.721514e-02 1.349686e-01 1.990422e-01 1.560570e-01 -2.619710e-01 2.415418e-01 -2.985555e-01
<VARIANCE> 25
 4.983167e+01 2.501262e+01 4.312064e+01 5.799638e+01 5.462951e+01 4.478645e+01 4.409000e+01 2.961476e+01 3.652140e+01 2.938546e+01 3.400580e+01 2.114129e+01 1.000368e+00 8.483157e-01 1.197889e+00 1.464383e+00 1.426693e+00 1.839559e+00 1.971885e+00 1.891393e+00 1.975654e+00 1.735382e+00 1.883368e+00 1.300407e+00 4.399530e-01
<GCONST> 9.341832e+01
<TRANSP> 5
 0.000000e+00 1.000000e+00 0.000000e+00 0.000000e+00 0.000000e+00
 0.000000e+00 5.501653e-01 4.498347e-01 0.000000e+00 0.000000e+00
 0.000000e+00 0.000000e+00 5.302374e-01 4.697625e-01 0.000000e+00
 0.000000e+00 0.000000e+00 0.000000e+00 4.700727e-01 5.299273e-01
 0.000000e+00 0.000000e+00 0.000000e+00 0.000000e+00 0.000000e+00
<ENDHMM>
~h "t"
<BEGINHMM>
<NUMSTATES> 5
<STATE> 2
<MEAN> 25
 -2.426000e+00 1.044576e+00 2.769356e+00 -1.798962e+00 2.247013e+00 1.673055e+00 8.105791e-01 -7.306703e-01 3.973600e-01 7.983620e-01 3.435631e-01 -1.350670e+00 2.980115e-01 -3.337915e-01 -3.797577e-01 1.714716e-02 -2.379599e-01 -2.916841e-01 -3.505894e-02 -2.128976e-01 -3.647860e-01 3.427642e-02 2.788703e-01 1.316536e-01 2.232146e-01
<VARIANCE> 25
 3.402687e+01 2.732951e+01 3.993752e+01 4.852134e+01 3.614662e+01 4.756240e+01 4.411011e+01 2.939735e+01 3.859057e+01 3.022601e+01 3.201130e+01 2.253195e+01 1.913633e+00 1.863875e+00 2.362616e+00 2.557931e+00 2.500485e+00 3.414522e+00 3.194275e+00 3.175265e+00 3.628508e+00 2.468770e+00 2.941811e+00 1.900315e+00 1.024703e+00
<GCONST> 1.000812e+02
<STATE> 3
<MEAN> 25
 3.051110e+00 -1.576635e+00 -2.180346e+00 -4.989519e-01 -1.188244e+00 -3.418689e+00 -2.549937e+00 -3.221638e+00 -4.388969e+00 -1.374517e+00 1.712067e+00 3.371511e-01 1.117067e+00 -1.118284e+00 -1.210037e+00 -4.290840e-01 -9.760961e-01 -1.569670e+00 -4.146774e-01 1.457494e-01 -1.109628e+00 -2.978463e-01 8.027816e-01 4.554352e-01 1.082184e+00
<VARIANCE> 25
 1.841037e+01 2.863783e+01 3.160362e+01 4.001085e+01 4.105634e+01 5.530317e+01 5.180376e+01 4.355490e+01 5.065622e+01 4.017474e+01 3.576742e+01 2.488122e+01 1.917552e+00 3.364676e+00 2.814601e+00 2.936138e+00 3.396590e+00 5.891406e+00 5.477670e+00 5.402840e+00 5.591033e+00 4.381363e+00 3.946504e+00 2.376115e+00 1.701664e+00
<GCONST> 1.055443e+02
<STATE> 4
<MEAN> 25
 5.911060e+00 -4.859500e+00 -7.173709e+00 -6.311300e+00 -6.958865e+00 -4.932401e+00 1.972288e+00 3.230955e+00 -4.316424e+00 -3.087677e+00 1.591182e+00 1.657644e+00 -7.852661e-02 1.303952e-01 8.445621e-03 -1.903243e-02 1.803483e-01 3.395506e-01 6.027299e-02 3.354524e-02 2.022491e-01 -7.058489e-02 -2.714335e-01 -8.650719e-02 -1.315268e-01
<VARIANCE> 25
 1.159539e+01 3.811982e+01 3.343456e+01 3.535044e+01 4.936126e+01 5.452992e+01 5.646804e+01 4.556504e+01 4.816640e+01 4.528479e+01 3.582002e+01 2.328985e+01 3.970293e-01 1.481708e+00 1.151987e+00 1.106092e+00 1.570286e+00 2.718772e+00 2.412460e+00 2.142970e+00 1.818645e+00 1.929591e+00 1.782447e+00 1.231135e+00 6.284391e-01
<GCONST> 9.366092e+01
<TRANSP> 5
 0.000000e+00 1.000000e+00 0.000000e+00 0.000000e+00 0.000000e+00
 0.000000e+00 4.435922e-01 5.564078e-01 0.000000e+00 0.000000e+00
 0.000000e+00 0.000000e+00 4.778102e-01 5.221898e-01 0.000000e+00
 0.000000e+00 0.000000e+00 0.000000e+00 7.560102e-01 2.439898e-01
 0.000000e+00 0.000000e+00 0.000000e+00 0.000000e+00 0.000000e+00
<ENDHMM>
~h "v"
<BEGINHMM>
<NUMSTATES> 5
<STATE> 2
<MEAN> 25
 -4.087569e-01 2.649127e-01 8.683226e-01 -1.892586e+00 1.396052e+00 -8.907576e-01 -3.502443e-01 -1.808789e+00 -1.816708e+00 -8.356871e-01 5.636126e-01 -1.040725e+00 5.399253e-01 -1.990513e-01 -5.380594e-01 -5.224372e-01 -7.272128e-01 -7.414364e-01 1.009180e-01 1.134759e-01 -5.144024e-01 -2.958436e-01 3.175437e-01 3.383595e-01 4.023700e-01
<VARIANCE> 25
 3.461656e+01 3.183654e+01 4.232460e+01 5.505025e+01 4.839306e+01 5.535167e+01 6.044558e+01 3.549041e+01 4.690413e+01 3.199078e+01 3.219838e+01 2.824148e+01 2.652530e+00 1.778925e+00 2.737026e+00 3.337155e+00 3.751356e+00 5.114732e+00 4.930286e+00 3.220315e+00 4.660471e+00 3.499512e+00 3.201341e+00 2.304976e+00 1.121982e+00
<GCONST> 1.047839e+02
<STATE> 3
<MEAN> 25
 4.667287e+00 -2.306615e+00 -4.440476e+00 -3.500886e+00 -5.293166e+00 -5.962842e+00 -4.781142e-01 5.732256e-01 -4.324022e+00 -2.223920e+00 2.429042e+00 2.067051e+00 7.957426e-01 -8.959160e-01 -9.305219e-01 -7.829193e-01 -1.404942e+00 -1.024903e+00 7.339790e-01 1.088275e+00 -3.726991e-01 -1.538746e-01 5.889319e-01 3.576468e-01 8.343139e-01
<VARIANCE> 25
 1.180489e+01 3.036609e+01 2.994183e+01 5.154372e+01 5.456803e+01 5.445510e+01 6.963091e+01 4.819575e+01 4.820004e+01 3.934607e+01 3.491539e+01 2.970838e+01 1.348552e+00 2.625495e+00 2.138659e+00 2.577249e+00 3.398469e+00 6.136510e+00 3.822009e+00 2.718668e+00 4.162297e+00 3.737262e+00 2.619294e+00 2.131642e+00 1.452569e+00
<GCONST> 1.029651e+02
<STATE> 4
<MEAN> 25
 6.360672e+00 -3.021438e+00 -6.367619e+00 -8.255819e+00 -1.061442e+01 -5.691648e+00 4.524601e+00 5.339049e+00 -3.824612e+00 -4.271055e+00 6.136121e-01 1.551225e+00 -1.214579e-01 3.676748e-01 1.642477e-01 3.255492e-02 2.701150e-01 3.998390e-01 5.692700e-02 -6.716079e-02 2.206495e-01 -7.866120e-02 -3.371112e-01 -1.798750e-01 -2.290911e-01
<VARIANCE> 25
 7.203239e+00 3.672086e+01 2.662010e+01 3.018892e+01 4.803477e+01 4.613382e+01 4.693970e+01 3.663328e+01 3.957648e+01 3.096549e+01 2.901633e+01 2.219950e+01 3.571019e-01 1.296300e+00 8.409216e-01 8.147960e-01 1.516647e+00 2.230641e+00 1.995800e+00 1.601688e+00 1.777009e+00 1.793997e+00 1.659063e+00 1.123344e+00 5.742847e-01
<GCONST> 8.940620e+01
<TRANSP> 5
 0.000000e+00 1.000000e+00 0.000000e+00 0.000000e+00 0.000000e+00
 0.000000e+00 3.803183e-01 6.196817e-01 0.000000e+00 0.000000e+00
 0.000000e+00 0.000000e+00 4.327981e-01 5.672019e-01 0.000000e+00
 0.000000e+00 0.000000e+00 0.000000e+00 8.248608e-01 1.751392e-01
 0.000000e+00 0.000000e+00 0.000000e+00 0.000000e+00 0.000000e+00
<ENDHMM>
~h "w"
<BEGINHMM>
<NUMSTATES> 5
<STATE> 2
<MEAN> 25
 -3.689691e+00 2.080168e+00 1.831184e+00 4.328645e-01 1.666972e+00 5.146696e+00 2.874592e+00 1.921662e+00 3.856570e+00 2.109193e+00 -2.606358e-01 1.358762e+00 -9.689169e-02 4.747853e-02 6.348412e-02 1.134510e-02 6.795608e-03 7.592047e-02 6.052351e-02 7.089046e-02 1.263838e-01 5.975711e-02 -1.873418e-02 -1.806642e-04 -8.465116e-02
<VARIANCE> 25
 7.470750e+00 1.010965e+01 8.637810e+00 8.438546e+00 8.387812e+00 1.566220e+01 1.292986e+01 1.064201e+01 1.703559e+01 1.265005e+01 1.162829e+01 9.051250e+00 1.110372e-01 1.949244e-01 2.716877e-01 3.564799e-01 4.283881e-01 5.686567e-01 6.210446e-01 6.818500e-01 7.679721e-01 7.050874e-01 7.130927e-01 6.236471e-01 5.336680e-02
<GCONST> 6.159863e+01
<STATE> 3
<MEAN> 25
 -1.681331e+00 2.323922e+00 1.688515e+00 2.983323e-01 1.449578e+00 3.305405e+00 1.499965e+00 7.140823e-01 1.971744e+00 1.031434e-01 -1.496998e+00 -3.209798e-01 1.713351e-01 4.118972e-01 3.762380e-01 1.568996e-01 1.603487e-02 -1.435051e-02 -1.808797e-01 -3.059304e-01 -2.830126e-01 -3.827433e-01 -4.962196e-01 -5.105194e-01 2.872021e-02
<VARIANCE> 25
 1.922085e+01 2.162127e+01 1.919426e+01 2.249073e+01 2.000773e+01 3.460821e+01 2.744002e+01 2.058208e+01 3.106923e+01 2.676870e+01 2.449825e+01 1.747783e+01 5.892251e-01 8.363138e-01 7.754959e-01 7.300681e-01 7.572311e-01 1.104078e+00 1.282553e+00 1.317831e+00 1.763009e+00 1.832404e+00 1.862818e+00 1.330726e+00 2.289594e-01
<GCONST> 8.337940e+01
<STATE> 4
<MEAN> 25
 -9.221059e-02 5.146636e+00 3.511556e+00 7.069610e-01 7.493202e-01 2.793703e+00 3.092342e-01 -9.078078e-01 3.180741e-02 -2.480076e+00 -4.579237e+00 -2.569415e+00 5.153159e-01 2.545961e-01 6.199570e-02 -3.476549e-02 -2.991991e-01 -5.233205e-01 -3.928320e-01 -4.636235e-01 -6.536837e-01 -4.825209e-01 -1.667696e-01 -2.424694e-01 3.037603e-01
<VARIANCE> 25
 1.236328e+01 2.140143e+01 1.689120e+01 1.845338e+01 1.989650e+01 2.798594e+01 2.110306e+01 1.870553e+01 2.483874e+01 2.232187e+01 2.424165e+01 1.805973e+01 8.321781e-01 9.761918e-01 8.683395e-01 9.190632e-01 1.082111e+00 1.586132e+00 1.663523e+00 1.777316e+00 2.365184e+00 2.109685e+00 1.875866e+00 1.382128e+00 3.020197e-01
<GCONST> 8.452106e+01
<TRANSP> 5
 0.000000e+00 1.000000e+00 0.000000e+00 0.000000e+00 0.000000e+00
 0.000000e+00 8.795234e-01 1.204766e-01 0.000000e+00 0.000000e+00
 0.000000e+00 0.000000e+00 1.098913e-01 8.901088e-01 0.000000e+00
 0.000000e+00 0.000000e+00 0.000000e+00 4.776751e-01 5.223249e-01
 0.000000e+00 0.000000e+00 0.000000e+00 0.000000e+00 0.000000e+00
<ENDHMM>
~h "y"
<BEGINHMM>
<NUMSTATES> 5
<STATE> 2
<MEAN> 25
 9.288535e-01 -3.347192e+00 -9.747965e-01 5.926614e-01 -1.089186e+00 -1.384010e+00 -1.089361e+00 -1.568176e+00 1.485671e-01 2.281233e+00 2.015866e+00 -1.301244e+00 -1.000999e-01 1.126308e-01 4.306710e-01 8.345023e-01 4.205099e-01 -1.287903e-01 -3.544698e-01 -1.888195e-01 -2.238124e-03 -2.961979e-01 -6.590354e-01 -4.192126e-01 -1.888722e-01
<VARIANCE> 25
 2.952769e+01 4.597659e+01 4.465669e+01 4.794102e+01 2.665816e+01 6.489246e+01 5.452035e+01 3.109659e+01 3.626587e+01 3.761786e+01 3.032125e+01 2.063676e+01 5.101835e-01 1.386240e+00 1.052859e+00 1.362320e+00 1.164812e+00 2.681742e+00 2.145614e+00 1.724445e+00 1.927803e+00 1.968767e+00 1.785815e+00 1.444548e+00 4.385898e-01
<GCONST> 9.329707e+01
<STATE> 3
<MEAN> 25
 4.275525e-01 -3.455423e-01 2.987789e+00 6.180057e+00 2.231396e+00 -2.776299e+00 -3.463544e+00 -2.282775e+00 -1.078580e+00 -1.899438e+00 -3.178093e+00 -3.749210e+00 5.538915e-01 -1.035082e-02 3.739917e-01 1.435598e+00 3.738312e-01 -1.577821e+00 -1.501354e+00 -2.037468e-01 -4.464142e-01 -1.035206e+00 -1.116487e+00 -6.079712e-01 2.969240e-01
<VARIANCE> 25
 1.525389e+01 2.268037e+01 2.762353e+01 4.364215e+01 1.860689e+01 6.378920e+01 4.915214e+01 2.544190e+01 2.780031e+01 2.929018e+01 2.817530e+01 2.255161e+01 1.136988e+00 1.990982e+00 1.329096e+00 2.297564e+00 1.362263e+00 4.981305e+00 4.286832e+00 2.681020e+00 3.020106e+00 2.997733e+00 2.994639e+00 1.764108e+00 6.656848e-01
<GCONST> 9.600556e+01
<STATE> 4
<MEAN> 25
 2.873778e+00 -1.374793e+00 2.358314e+00 7.991639e+00 1.885049e+00 -8.757144e+00 -8.061896e+00 -2.724954e+00 -4.104504e+00 -5.450986e+00 -4.085293e+00 -4.551693e+00 -6.148786e-02 2.589723e-01 -6.257897e-02 -4.467461e-01 -1.193649e-01 4.818207e-01 3.910845e-01 1.170122e-01 -4.932182e-02 7.496451e-03 1.230712e-01 2.590664e-01 -1.539029e-01
<VARIANCE> 25
 6.263937e+00 2.422826e+01 1.687123e+01 4.869587e+01 2.413640e+01 5.823339e+01 4.389077e+01 2.776382e+01 3.785431e+01 2.711141e+01 2.819638e+01 1.943017e+01 2.635337e-01 8.223614e-01 8.277037e-01 1.709018e+00 1.244093e+00 2.095261e+00 2.231063e+00 1.869345e+00 2.262849e+00 1.560262e+00 1.948863e+00 1.496131e+00 2.636294e-01
<GCONST> 8.747601e+01
<TRANSP> 5
 0.000000e+00 1.000000e+00 0.000000e+00 0.000000e+00 0.000000e+00
 0.000000e+00 4.083751e-01 5.916249e-01 0.000000e+00 0.000000e+00
 0.000000e+00 0.000000e+00 4.947595e-01 5.052406e-01 0.000000e+00
 0.000000e+00 0.000000e+00 0.000000e+00 8.404849e-01 1.595151e-01
 0.000000e+00 0.000000e+00 0.000000e+00 0.000000e+00 0.000000e+00
<ENDHMM>
~h "z"
<BEGINHMM>
<NUMSTATES> 5
<STATE> 2
<MEAN> 25
 2.679681e+00 -1.005451e+00 -8.613563e-01 1.376043e+00 -3.117776e-01 -3.426532e+00 -3.423117e+00 -3.551643e+00 -3.605882e+00 -1.594181e+00 -1.542296e-01 -1.533051e+00 7.404123e-01 -4.663936e-01 -6.046758e-01 1.235488e-01 -1.436619e-01 -1.163247e+00 -9.307438e-01 -8.529584e-01 -1.168949e+00 -3.089137e-01 5.086442e-01 1.840252e-01 6.039359e-01
<VARIANCE> 25
 1.753841e+01 2.995718e+01 2.919544e+01 4.369842e+01 3.260481e+01 6.005700e+01 5.521174e+01 3.870558e+01 4.751939e+01 4.059369e+01 3.575678e+01 2.281137e+01 1.443917e+00 3.129754e+00 2.101212e+00 2.219579e+00 2.326852e+00 5.585727e+00 4.207496e+00 3.172531e+00 4.260412e+00 3.000491e+00 3.652804e+00 2.195438e+00 1.391487e+00
<GCONST> 1.020427e+02
<STATE> 3
<MEAN> 25
 5.181160e+00 -3.865838e+00 -3.801222e+00 -1.145068e+00 -4.071609e+00 -7.193932e+00 -3.351854e+00 -2.567480e+00 -6.505497e+00 -1.755808e+00 2.613310e+00 4.727557e-01 1.300317e-01 -5.900573e-01 -3.692593e-01 -1.365353e-01 2.358486e-02 -2.169960e-01 -1.992826e-01 -1.831144e-01 -9.790812e-02 5.561566e-01 6.690492e-01 1.558445e-01 3.712021e-01
<VARIANCE> 25
 1.168306e+01 3.477612e+01 2.774090e+01 4.983055e+01 5.045060e+01 5.766445e+01 6.628421e+01 4.502117e+01 5.592595e+01 4.825323e+01 4.045063e+01 2.949226e+01 6.086871e-01 2.354053e+00 1.584697e+00 1.776471e+00 1.831015e+00 4.096518e+00 2.797664e+00 2.389127e+00 2.613042e+00 3.205735e+00 2.757734e+00 2.024518e+00 9.670272e-01
<GCONST> 9.926806e+01
<STATE> 4
<MEAN> 25
 4.812644e+00 -2.903265e+00 -2.784374e+00 1.935835e+00 4.995953e-01 -6.594848e+00 -7.505178e+00 -6.249455e+00 -5.821946e+00 -1.364305e+00 1.344410e+00 -1.511353e+00 -4.677202e-01 7.205684e-01 6.004974e-01 -2.430771e-01 5.579742e-01 1.088545e+00 3.786515e-01 2.969905e-01 3.524528e-01 -2.311485e-01 -5.053973e-01 -5.272075e-02 -4.857378e-01
<VARIANCE> 25
 8.672409e+00 2.661437e+01 2.158735e+01 3.889511e+01 2.645022e+01 5.893083e+01 4.814116e+01 3.262511e+01 4.806356e+01 2.961449e+01 3.737936e+01 2.490652e+01 6.253242e-01 9.126287e-01 1.203269e+00 1.391735e+00 1.345346e+00 2.458112e+00 1.831273e+00 2.045035e+00 2.205272e+00 1.708915e+00 1.595150e+00 1.153144e+00 3.966265e-01
<GCONST> 9.041195e+01
<TRANSP> 5
 0.000000e+00 1.000000e+00 0.000000e+00 0.000000e+00 0.000000e+00
 0.000000e+00 2.429677e-01 7.570323e-01 0.000000e+00 0.000000e+00
 0.000000e+00 0.000000e+00 4.688587e-01 5.311413e-01 0.000000e+00
 0.000000e+00 0.000000e+00 0.000000e+00 6.984666e-01 3.015334e-01
 0.000000e+00 0.000000e+00 0.000000e+00 0.000000e+00 0.000000e+00
<ENDHMM>
~h "aa"
<BEGINHMM>
<NUMSTATES> 5
<STATE> 2
<MEAN> 25
 -1.436312e-01 2.253645e+00 1.520176e+00 9.412828e-01 1.398909e+00 1.420482e+00 -8.291289e-01 -1.102007e+00 2.874984e-01 -7.372952e-01 -1.854301e+00 -7.754848e-01 -2.714804e-01 1.482597e-01 2.054175e-01 -5.040108e-02 3.790081e-02 3.742764e-01 3.223874e-01 1.858872e-01 2.622436e-01 1.707889e-01 4.774122e-02 1.867761e-02 -2.086658e-01
<VARIANCE> 25
 1.771470e+01 1.942406e+01 2.124437e+01 2.739109e+01 2.108374e+01 4.380804e+01 4.065907e+01 2.585856e+01 3.396663e+01 2.621343e+01 2.472132e+01 1.986082e+01 3.136419e-01 4.211192e-01 5.231001e-01 6.440813e-01 7.237137e-01 1.083256e+00 1.076056e+00 1.043178e+00 1.225314e+00 1.059253e+00 9.959881e-01 8.273152e-01 1.681153e-01
<GCONST> 7.997239e+01
<STATE> 3
<MEAN> 25
 -2.242725e-01 1.905414e+00 1.187138e+00 9.960341e-02 1.034596e+00 1.547950e+00 -5.360736e-02 -8.194654e-01 2.868740e-01 -3.998271e-01 -1.029605e+00 -6.241199e-01 4.590392e-02 -5.714246e-02 -1.467015e-01 -2.588100e-01 -2.091717e-01 -8.008742e-02 1.585393e-01 3.301971e-02 -8.635773e-02 1.017599e-01 2.576351e-01 -3.189602e-02 9.264158e-02
<VARIANCE> 25
 2.312480e+01 2.628552e+01 2.736788e+01 3.023332e+01 2.674034e+01 4.772776e+01 3.999059e+01 2.536903e+01 3.581796e+01 2.515469e+01 2.630745e+01 2.118006e+01 6.647968e-01 7.888628e-01 1.083845e+00 1.350806e+00 1.528340e+00 1.857364e+00 1.610171e+00 1.548842e+00 1.885098e+00 1.594239e+00 1.668862e+00 1.242931e+00 3.210874e-01
<GCONST> 8.866236e+01
<STATE> 4
<MEAN> 25
 3.838877e-01 1.689634e+00 3.270635e-01 -1.519206e+00 -7.312002e-01 2.058483e-01 5.965230e-01 -4.288437e-01 -3.528042e-01 -2.739582e-01 -1.346852e-01 -5.057091e-01 6.916478e-01 -5.800934e-01 -7.143520e-01 -5.210816e-01 -9.542764e-01 -1.137885e+00 1.191311e-01 5.127808e-02 -7.274309e-01 -1.549917e-01 5.588073e-01 1.149889e-02 7.268597e-01
<VARIANCE> 25
 2.509950e+01 2.471482e+01 2.887065e+01 3.726058e+01 4.875140e+01 5.043723e+01 4.738039e+01 3.106443e+01 3.473679e+01 2.574084e+01 2.473681e+01 2.157486e+01 1.622913e+00 1.857147e+00 2.257110e+00 2.544591e+00 3.710742e+00 4.273347e+00 3.514923e+00 2.855439e+00 3.124324e+00 2.645359e+00 2.768354e+00 2.098391e+00 9.605396e-01
<GCONST> 9.928775e+01
<TRANSP> 5
 0.000000e+00 1.000000e+00 0.000000e+00 0.000000e+00 0.000000e+00
 0.000000e+00 5.293540e-01 4.706461e-01 0.000000e+00 0.000000e+00
 0.000000e+00 0.000000e+00 1.981091e-02 9.801891e-01 0.000000e+00
 0.000000e+00 0.000000e+00 0.000000e+00 3.224754e-01 6.775246e-01
 0.000000e+00 0.000000e+00 0.000000e+00 0.000000e+00 0.000000e+00
<ENDHMM>
~h "ae"
<BEGINHMM>
<NUMSTATES> 5
<STATE> 2
<MEAN> 25
 -3.212537e+00 2.085371e+00 3.322594e+00 -1.915028e+00 2.986869e+00 2.908919e+00 1.117669e+00 2.105533e-01 1.379140e+00 7.563879e-01 3.548552e-01 -9.157076e-01 9.427531e-03 -2.643588e-01 -2.784009e-01 -2.451679e-01 -1.304206e-01 -4.489563e-02 1.581881e-01 2.841286e-02 2.912758e-02 3.125432e-01 3.937780e-01 7.672223e-02 1.194658e-01
<VARIANCE> 25
 3.035285e+01 2.216780e+01 3.517811e+01 4.300286e+01 3.315675e+01 4.118732e+01 3.461880e+01 2.371341e+01 3.983276e+01 2.872504e+01 2.860246e+01 2.304722e+01 1.330353e+00 8.907551e-01 1.844723e+00 1.905523e+00 1.703644e+00 1.799931e+00 1.950116e+00 1.898984e+00 2.261946e+00 1.785539e+00 1.905610e+00 1.489441e+00 4.434097e-01
<GCONST> 9.272592e+01
<STATE> 3
<MEAN> 25
 2.182390e+00 -1.811380e+00 -2.770259e+00 -7.630600e-01 -9.174460e-01 -2.328329e+00 -1.690961e+00 -2.066279e+00 -1.893723e+00 1.288827e+00 2.935204e+00 4.331779e-01 1.299096e+00 -1.743523e+00 -1.674089e+00 -5.030198e-01 -1.131169e+00 -1.629068e+00 -3.762481e-01 -8.164131e-02 -9.748222e-01 3.865252e-01 1.246860e+00 9.280021e-02 1.465042e+00
<VARIANCE> 25
 2.009016e+01 3.078340e+01 3.532613e+01 3.618531e+01 2.836728e+01 6.133692e+01 5.170246e+01 3.229193e+01 5.373385e+01 4.471709e+01 3.673161e+01 2.191894e+01 1.574879e+00 2.820696e+00 2.809089e+00 3.117138e+00 2.440167e+00 5.209379e+00 4.775217e+00 3.712134e+00 4.996446e+00 3.868515e+00 3.722278e+00 2.396714e+00 1.328601e+00
<GCONST> 1.033974e+02
<STATE> 4
<MEAN> 25
 5.428218e+00 -8.865479e+00 -9.180419e+00 -6.092624e+00 -4.673621e+00 -9.691097e-01 2.055636e+00 1.163007e+00 -3.541301e+00 1.125779e+00 3.779288e+00 8.602602e-01 8.445785e-02 -5.637499e-02 -6.978179e-02 -9.053206e-02 -3.175797e-02 -8.619370e-03 1.063884e-03 -3.180536e-02 -6.391174e-02 -1.384393e-01 -1.589842e-01 -9.864999e-02 1.025372e-01
<VARIANCE> 25
 1.036271e+01 3.441086e+01 2.816475e+01 3.097291e+01 2.568508e+01 5.345646e+01 4.566076e+01 2.512634e+01 4.245092e+01 3.421398e+01 2.914070e+01 1.956786e+01 3.777896e-01 1.237347e+00 1.078598e+00 1.001560e+00 9.258222e-01 2.586043e+00 1.986649e+00 1.415381e+00 1.550428e+00 1.420911e+00 1.309928e+00 1.021227e+00 5.725911e-01
<GCONST> 8.823852e+01
<TRANSP> 5
 0.000000e+00 1.000000e+00 0.000000e+00 0.000000e+00 0.000000e+00
 0.000000e+00 5.243301e-01 4.756699e-01 0.000000e+00 0.000000e+00
 0.000000e+00 0.000000e+00 6.095899e-01 3.904102e-01 0.000000e+00
 0.000000e+00 0.000000e+00 0.000000e+00 7.802196e-01 2.197805e-01
 0.000000e+00 0.000000e+00 0.000000e+00 0.000000e+00 0.000000e+00
<ENDHMM>
~h "ah"
<BEGINHMM>
<NUMSTATES> 5
<STATE> 2
<MEAN> 25
 -7.830523e-01 3.484522e+00 2.135744e+00 4.803210e-01 1.360526e+00 3.269284e+00 4.670082e-01 -2.453326e-01 1.440991e+00 -3.894598e-01 -2.200085e+00 -6.156112e-01 -2.293602e-01 3.482234e-02 1.145036e-01 2.840021e-02 1.882276e-02 2.150161e-01 2.211256e-01 1.438089e-01 2.425530e-01 2.129271e-01 1.106331e-01 6.569856e-02 -1.719451e-01
<VARIANCE> 25
 1.522054e+01 1.788964e+01 1.736446e+01 1.876635e+01 1.691035e+01 2.788549e+01 2.465477e+01 2.095892e+01 2.967807e+01 2.240311e+01 2.051598e+01 1.593355e+01 2.185369e-01 3.057513e-01 4.181003e-01 5.004742e-01 5.755247e-01 7.694396e-01 8.230304e-01 8.752847e-01 9.781020e-01 8.935074e-01 8.399887e-01 7.564309e-01 9.944516e-02
<GCONST> 7.372413e+01
<STATE> 3
<MEAN> 25
 -2.345607e-01 2.620157e+00 1.592704e+00 1.440775e-01 8.717802e-01 1.905231e+00 1.507914e-01 -4.389766e-01 6.528786e-01 -6.701483e-01 -1.707864e+00 -8.916195e-01 1.986211e-01 -4.202464e-01 -4.263888e-01 -1.022721e-01 -2.077111e-01 -3.199418e-01 -7.491880e-03 -3.541743e-01 -5.516790e-01 3.503110e-02 5.136621e-01 1.086265e-01 2.633834e-01
<VARIANCE> 25
 2.038091e+01 2.784400e+01 2.518293e+01 2.862884e+01 2.500467e+01 4.318449e+01 3.368388e+01 2.495751e+01 3.803696e+01 2.761592e+01 2.640964e+01 1.873339e+01 6.231248e-01 1.094586e+00 1.273628e+00 1.254614e+00 1.423785e+00 1.900280e+00 1.928644e+00 1.981693e+00 2.309855e+00 1.699028e+00 1.725504e+00 1.275290e+00 3.959877e-01
<GCONST> 8.940016e+01
<STATE> 4
<MEAN> 25
 2.546562e+00 -7.559063e-01 -1.585197e+00 -8.835776e-01 -1.199939e+00 -1.965240e+00 -8.860314e-01 -2.884839e+00 -5.047934e+00 -1.539886e+00 2.109183e+00 3.252511e-01 8.148236e-01 -1.030388e+00 -8.896409e-01 -2.422716e-01 -6.437880e-01 -1.357972e+00 -4.018293e-01 -3.823576e-01 -1.338879e+00 -2.439455e-01 9.017361e-01 3.105733e-01 9.507428e-01
<VARIANCE> 25
 2.054529e+01 3.411683e+01 2.908422e+01 3.036192e+01 3.490029e+01 5.453053e+01 4.470283e+01 4.287988e+01 7.107571e+01 3.473366e+01 4.143251e+01 2.150507e+01 1.491857e+00 3.033487e+00 2.408567e+00 2.167890e+00 2.725692e+00 5.032516e+00 4.233729e+00 4.078888e+00 5.787866e+00 3.295601e+00 3.886669e+00 2.126313e+00 1.419262e+00
<GCONST> 1.030367e+02
<TRANSP> 5
 0.000000e+00 1.000000e+00 0.000000e+00 0.000000e+00 0.000000e+00
 0.000000e+00 6.566905e-01 3.433094e-01 0.000000e+00 0.000000e+00
 0.000000e+00 0.000000e+00 5.116125e-02 9.488387e-01 0.000000e+00
 0.000000e+00 0.000000e+00 0.000000e+00 5.623726e-01 4.376274e-01
 0.000000e+00 0.000000e+00 0.000000e+00 0.000000e+00 0.000000e+00
<ENDHMM>
~h "ao"
<BEGINHMM>
<NUMSTATES> 5
<STATE> 2
<MEAN> 25
 2.916837e+00 -1.657255e+00 1.006532e+00 5.636686e+00 1.030550e+00 -8.564265e+00 -7.422500e+00 -2.469731e+00 -1.759218e+00 -2.813298e+00 -3.345430e+00 -3.706333e+00 -7.180452e-02 1.752460e-01 1.364732e-01 6.057643e-02 5.394222e-02 3.856577e-02 -2.091993e-02 9.091101e-02 8.285422e-02 -1.006633e-01 -2.083552e-01 -9.752537e-02 -1.133329e-01
<VARIANCE> 25
 1.321788e+01 2.824038e+01 2.514268e+01 5.254644e+01 2.531779e+01 8.285868e+01 5.180897e+01 2.645347e+01 3.379443e+01 3.372812e+01 3.044078e+01 2.248840e+01 2.501492e-01 6.777274e-01 6.460348e-01 8.849058e-01 8.320832e-01 2.109720e+00 1.586162e+00 1.453618e+00 1.297021e+00 1.206319e+00 1.181152e+00 9.421344e-01 2.470341e-01
<GCONST> 8.571504e+01
<STATE> 3
<MEAN> 25
 1.765908e+00 9.487062e-01 2.103666e-01 1.284215e+00 7.803760e-01 -1.910711e+00 -3.002862e+00 -2.038007e+00 -1.309460e+00 -1.553546e+00 -1.906623e+00 -1.648400e+00 -1.470196e-01 3.883978e-01 4.466458e-02 -3.975939e-01 -4.979005e-02 6.401122e-01 4.629804e-01 1.688145e-01 1.287811e-01 -2.077123e-02 5.455708e-02 2.259036e-01 -2.423240e-01
<VARIANCE> 25
 2.069777e+01 2.508940e+01 2.701042e+01 4.188517e+01 3.567484e+01 5.796889e+01 4.659140e+01 3.071912e+01 3.999181e+01 2.872259e+01 3.377521e+01 2.600948e+01 5.912399e-01 9.292340e-01 1.006166e+00 1.245490e+00 1.618467e+00 2.962258e+00 1.914699e+00 1.736836e+00 2.090815e+00 1.573424e+00 1.577845e+00 1.411136e+00 4.488158e-01
<GCONST> 9.154169e+01
<STATE> 4
<MEAN> 25
 3.777684e+00 -1.212864e+00 -3.172497e+00 -6.100555e+00 -8.167507e+00 -4.031922e+00 2.963252e+00 4.952445e+00 -1.604226e+00 -2.844562e+00 -5.292911e-01 2.227240e-01 2.216064e-01 -2.649027e-01 -3.444134e-01 -4.196228e-01 -3.554224e-01 -1.533391e-01 2.382843e-01 1.887456e-01 -1.989417e-01 -1.238074e-01 1.686195e-01 1.229510e-01 3.060635e-01
<VARIANCE> 25
 1.847814e+01 3.506459e+01 2.999378e+01 4.930355e+01 8.436504e+01 6.334505e+01 6.331413e+01 6.402366e+01 3.670034e+01 3.057894e+01 2.468280e+01 2.185598e+01 1.165124e+00 1.696588e+00 1.733945e+00 1.717020e+00 3.598687e+00 4.998464e+00 2.907197e+00 2.837002e+00 2.568474e+00 2.395347e+00 2.218024e+00 1.447827e+00 9.940384e-01
<GCONST> 9.967409e+01
<TRANSP> 5
 0.000000e+00 1.000000e+00 0.000000e+00 0.000000e+00 0.000000e+00
 0.000000e+00 5.644505e-01 4.355495e-01 0.000000e+00 0.000000e+00
 0.000000e+00 0.000000e+00 1.693853e-01 8.306147e-01 0.000000e+00
 0.000000e+00 0.000000e+00 0.000000e+00 6.395888e-01 3.604112e-01
 0.000000e+00 0.000000e+00 0.000000e+00 0.000000e+00 0.000000e+00
<ENDHMM>
~h "aw"
<BEGINHMM>
<NUMSTATES> 5
<STATE> 2
<MEAN> 25
 2.929348e+00 1.418885e+00 -2.041516e+00 -2.676219e+00 -2.221580e+00 -7.019717e-01 9.344428e-01 1.570180e-01 -2.497679e+00 -2.484901e+00 -1.923754e-01 4.003538e-01 -2.699886e-01 4.095254e-01 3.490659e-01 2.323770e-03 9.964201e-02 4.891501e-01 1.834642e-01 1.413119e-01 4.200577e-01 8.531243e-03 -3.973357e-01 -1.571217e-01 -3.215559e-01
<VARIANCE> 25
 1.781792e+01 1.180181e+01 1.883063e+01 3.078684e+01 3.534652e+01 3.211662e+01 3.974695e+01 2.947957e+01 3.943007e+01 2.970126e+01 2.325264e+01 1.815944e+01 2.589280e-01 4.701454e-01 5.353575e-01 6.038069e-01 8.675082e-01 1.218786e+00 1.298399e+00 1.256623e+00 1.333345e+00 1.145592e+00 1.189484e+00 9.474814e-01 1.865412e-01
<GCONST> 8.104422e+01
<STATE> 3
<MEAN> 25
 2.525460e+00 3.759076e+00 1.278924e+00 -9.533535e-01 -1.688303e+00 -7.674611e-01 -7.879952e-01 -1.255614e+00 -2.135754e+00 -3.664991e+00 -3.922604e+00 -2.532073e+00 -3.233577e-01 3.658851e-02 2.004648e-01 1.677700e-01 2.446487e-01 4.053782e-01 1.870983e-01 1.041147e-01 2.749806e-01 1.880916e-01 -8.458314e-03 -5.594358e-03 -2.314181e-01
<VARIANCE> 25
 1.161683e+01 8.929621e+00 1.062738e+01 2.056272e+01 2.916281e+01 2.922490e+01 1.978182e+01 1.649670e+01 2.207500e+01 1.842410e+01 1.765763e+01 1.376052e+01 1.745764e-01 2.909867e-01 3.611081e-01 4.808173e-01 6.675085e-01 7.648783e-01 8.443149e-01 9.100765e-01 9.138501e-01 9.160434e-01 9.089481e-01 7.452204e-01 7.700148e-02
<GCONST> 7.121492e+01
<STATE> 4
<MEAN> 25
 -3.377085e+00 1.029567e+00 1.535529e+00 9.852153e-01 1.463031e+00 3.594799e+00 1.579280e+00 1.284430e+00 3.395955e+00 1.968267e+00 -1.573184e-01 9.785759e-01 -4.002612e-02 -2.563896e-02 -1.016738e-02 -4.905414e-03 -7.997986e-03 3.738628e-03 2.115454e-02 1.615773e-02 2.885138e-02 3.883547e-02 4.491274e-02 3.299552e-02 -2.174324e-02
<VARIANCE> 25
 4.474275e+00 6.766957e+00 6.543469e+00 6.467279e+00 6.582551e+00 1.177602e+01 8.849125e+00 8.533679e+00 1.306709e+01 9.397940e+00 8.709023e+00 6.850481e+00 7.222124e-02 1.419073e-01 2.276019e-01 3.182941e-01 3.995462e-01 5.042030e-01 5.746783e-01 6.587304e-01 6.841072e-01 6.681561e-01 6.435686e-01 5.779313e-01 2.793162e-02
<GCONST> 5.554761e+01
<TRANSP> 5
 0.000000e+00 1.000000e+00 0.000000e+00 0.000000e+00 0.000000e+00
 0.000000e+00 5.238757e-01 4.761244e-01 0.000000e+00 0.000000e+00
 0.000000e+00 0.000000e+00 7.650829e-01 2.349172e-01 0.000000e+00
 0.000000e+00 0.000000e+00 0.000000e+00 9.237033e-01 7.629674e-02
 0.000000e+00 0.000000e+00 0.000000e+00 0.000000e+00 0.000000e+00
<ENDHMM>
~h "ax"
<BEGINHMM>
<NUMSTATES> 5
<STATE> 2
<MEAN> 25
 2.734597e+00 -1.291726e+00 -1.710367e+00 -3.555155e-01 -9.494482e-01 -2.961512e+00 -2.450949e+00 -1.409596e+00 -3.042746e+00 -1.664449e+00 3.198072e-01 -1.874167e-01 1.057247e-01 7.359008e-02 -1.562567e-01 -2.593085e-01 -2.759336e-01 -3.754559e-02 1.507249e-01 3.891274e-02 -8.047536e-02 6.308541e-02 1.660333e-01 1.356042e-01 -4.927274e-03
<VARIANCE> 25
 2.100524e+01 3.602813e+01 3.134266e+01 4.088427e+01 3.458878e+01 6.419949e+01 5.087834e+01 3.407948e+01 5.624674e+01 4.294344e+01 3.449157e+01 2.218021e+01 4.977433e-01 1.022043e+00 1.066897e+00 1.309378e+00 1.511107e+00 2.214411e+00 2.200984e+00 2.037417e+00 2.183538e+00 1.822692e+00 1.882611e+00 1.379154e+00 4.032944e-01
<GCONST> 9.311908e+01
<STATE> 3
<MEAN> 25
 3.792313e+00 -2.722783e+00 -4.048481e+00 -3.234847e+00 -3.942150e+00 -3.297278e+00 -4.108153e-01 -8.246899e-01 -3.819956e+00 -2.708936e-01 2.877616e+00 1.418302e+00 5.956710e-01 -5.263541e-01 -5.414869e-01 -2.764146e-01 -6.658877e-01 -7.799493e-01 1.075180e-01 -2.894291e-02 -7.379354e-01 -1.300733e-01 4.766269e-01 8.214745e-02 5.905291e-01
<VARIANCE> 25
 1.565866e+01 3.549289e+01 3.060581e+01 4.375933e+01 4.505423e+01 5.450252e+01 5.773634e+01 3.523690e+01 5.332193e+01 4.527417e+01 3.980254e+01 2.547318e+01 1.238019e+00 2.583543e+00 2.187404e+00 2.208675e+00 2.732875e+00 4.253689e+00 3.672620e+00 2.644873e+00 4.056391e+00 2.858454e+00 3.050783e+00 1.919001e+00 1.501951e+00
<GCONST> 1.016909e+02
<STATE> 4
<MEAN> 25
 5.600045e+00 -1.792916e+00 -4.354579e+00 -3.551835e+00 -4.845110e+00 -5.210969e+00 -4.867264e-01 -1.439749e+00 -6.482541e+00 -2.818603e+00 2.080443e+00 6.408229e-01 -2.069131e-01 6.776901e-01 4.164636e-01 2.033154e-01 4.303965e-01 6.255962e-01 -4.653418e-02 -1.950534e-01 2.300071e-01 -2.291514e-01 -5.982546e-01 -1.816722e-01 -4.284050e-01
<VARIANCE> 25
 8.714352e+00 2.845620e+01 2.403810e+01 3.071410e+01 3.833935e+01 4.018407e+01 5.281129e+01 3.564183e+01 4.493230e+01 4.031258e+01 3.731133e+01 2.148029e+01 2.181579e-01 8.100944e-01 5.814649e-01 7.011234e-01 1.015974e+00 1.633362e+00 1.530203e+00 1.326181e+00 1.545410e+00 1.577989e+00 1.487812e+00 1.003323e+00 3.024642e-01
<GCONST> 8.581312e+01
<TRANSP> 5
 0.000000e+00 1.000000e+00 0.000000e+00 0.000000e+00 0.000000e+00
 0.000000e+00 1.145620e-01 8.854380e-01 0.000000e+00 0.000000e+00
 0.000000e+00 0.000000e+00 5.282081e-01 4.717919e-01 0.000000e+00
 0.000000e+00 0.000000e+00 0.000000e+00 6.903962e-01 3.096038e-01
 0.000000e+00 0.000000e+00 0.000000e+00 0.000000e+00 0.000000e+00
<ENDHMM>
~h "ay"
<BEGINHMM>
<NUMSTATES> 5
<STATE> 2
<MEAN> 25
 -2.270696e+00 2.457923e+00 1.708163e+00 3.349680e-01 1.522025e+00 4.169158e+00 1.593212e+00 5.846290e-01 2.477664e+00 7.991164e-01 -9.789416e-01 7.430097e-01 -1.965072e-01 5.468960e-02 9.592842e-02 -1.267955e-02 1.414809e-02 1.930677e-01 1.804108e-01 1.370545e-01 1.821651e-01 1.372057e-01 5.834058e-02 5.767669e-02 -1.543972e-01
<VARIANCE> 25
 1.274727e+01 1.267037e+01 1.424283e+01 1.453456e+01 1.211826e+01 2.253748e+01 2.050655e+01 1.643572e+01 2.487865e+01 1.771464e+01 1.614671e+01 1.277770e+01 1.633422e-01 2.157977e-01 3.279254e-01 3.991940e-01 4.756972e-01 6.990915e-01 7.667388e-01 7.850407e-01 8.293661e-01 7.860448e-01 7.564227e-01 6.699671e-01 7.926492e-02
<GCONST> 6.858257e+01
<STATE> 3
<MEAN> 25
 -1.106816e+00 2.134075e+00 1.380626e+00 -2.772934e-01 1.196432e+00 2.539632e+00 1.025362e+00 1.259752e-01 1.076507e+00 -1.563235e-01 -1.052352e+00 -3.341167e-01 4.041771e-02 -1.475572e-01 -1.836799e-01 -8.758050e-02 -8.774027e-02 -1.441526e-02 5.937171e-02 -1.209283e-01 -1.231214e-01 1.427570e-01 2.621055e-01 3.220540e-02 5.068116e-02
<VARIANCE> 25
 2.233096e+01 2.293973e+01 2.586813e+01 2.747392e+01 2.380516e+01 3.883349e+01 3.249288e+01 2.383748e+01 3.428727e+01 2.561674e+01 2.522351e+01 1.777659e+01 4.331302e-01 6.158980e-01 8.591793e-01 9.351358e-01 9.819431e-01 1.359915e+00 1.435064e+00 1.286579e+00 1.479041e+00 1.281103e+00 1.362175e+00 1.056379e+00 2.247252e-01
<GCONST> 8.398949e+01
<STATE> 4
<MEAN> 25
 3.951668e-01 -1.848681e-01 -1.053187e+00 -1.384024e+00 -1.023969e-01 1.430597e+00 1.270385e+00 -5.376593e-01 -8.748018e-01 1.822879e-01 1.129988e+00 3.261742e-01 8.603921e-01 -9.858671e-01 -1.000854e+00 -2.392354e-01 -5.602953e-01 -1.056496e+00 -4.120701e-01 -3.300786e-01 -7.695782e-01 9.986257e-03 6.255414e-01 4.237076e-02 9.152825e-01
<VARIANCE> 25
 2.626390e+01 3.696639e+01 4.298756e+01 3.123755e+01 2.986244e+01 4.332236e+01 3.637405e+01 2.691015e+01 3.977961e+01 3.156411e+01 3.228311e+01 2.000178e+01 1.543761e+00 2.580715e+00 2.942461e+00 2.452776e+00 2.346643e+00 3.731060e+00 3.263565e+00 2.973349e+00 3.395122e+00 2.811095e+00 3.256500e+00 2.035065e+00 1.149896e+00
<GCONST> 9.977274e+01
<TRANSP> 5
 0.000000e+00 1.000000e+00 0.000000e+00 0.000000e+00 0.000000e+00
 0.000000e+00 7.586700e-01 2.413300e-01 0.000000e+00 0.000000e+00
 0.000000e+00 0.000000e+00 4.715501e-02 9.528450e-01 0.000000e+00
 0.000000e+00 0.000000e+00 0.000000e+00 5.266236e-01 4.733764e-01
 0.000000e+00 0.000000e+00 0.000000e+00 0.000000e+00 0.000000e+00
<ENDHMM>
~h "ch"
<BEGINHMM>
<NUMSTATES> 5
<STATE> 2
<MEAN> 25
 -2.703671e+00 -4.040680e+00 4.732634e+00 2.184334e+00 -2.083167e+00 3.897363e-01 2.177418e+00 -2.624876e+00 -1.495059e+00 5.510381e-01 2.653150e+00 -3.134479e+00 2.010843e-01 -8.720930e-01 1.318453e-01 1.904641e-01 -3.129865e-01 -5.761130e-01 -2.128029e-01 -5.254495e-01 -6.972641e-01 -6.335802e-02 5.783391e-01 -1.759285e-01 6.583467e-01
<VARIANCE> 25
 3.590947e+01 4.013188e+01 5.763940e+01 3.116772e+01 2.682464e+01 4.896071e+01 5.689725e+01 3.142393e+01 3.642685e+01 3.405210e+01 4.215999e+01 2.360329e+01 2.988393e+00 2.705607e+00 4.512053e+00 2.122934e+00 2.482768e+00 4.198897e+00 5.271810e+00 3.009866e+00 3.675678e+00 3.087105e+00 3.697709e+00 2.037040e+00 9.454049e-01
<GCONST> 1.032590e+02
<STATE> 3
<MEAN> 25
 3.400864e+00 -4.654644e+00 -1.479058e+00 1.923395e+00 -1.897576e+00 -6.715469e+00 -3.727131e+00 -2.366643e+00 -5.152404e+00 -2.183823e+00 1.728750e+00 -1.074033e+00 2.781174e-01 -7.784557e-01 -5.560356e-01 -2.524298e-01 -2.653894e-01 -8.008768e-01 -1.795102e-01 4.234766e-01 -3.185915e-02 4.670677e-01 5.970048e-01 2.620287e-01 5.581636e-01
<VARIANCE> 25
 2.289966e+01 3.752720e+01 4.417815e+01 5.420822e+01 3.720660e+01 7.319555e+01 6.412073e+01 4.492263e+01 5.251883e+01 4.586837e+01 4.233877e+01 2.844794e+01 9.641694e-01 2.099180e+00 2.415704e+00 2.279169e+00 1.718685e+00 4.549424e+00 3.675787e+00 2.746968e+00 3.079953e+00 3.423554e+00 2.460058e+00 1.892064e+00 9.030684e-01
<GCONST> 1.018114e+02
<STATE> 4
<MEAN> 25
 5.010610e+00 -6.467050e+00 -4.451656e+00 3.689421e-01 -3.748987e+00 -9.553092e+00 -3.912618e+00 -8.615133e-01 -4.704358e+00 -1.297534e+00 1.718695e+00 -1.360005e+00 -1.102108e-01 4.448160e-01 1.024552e-01 -5.114230e-02 2.321849e-01 4.411417e-01 1.039814e-01 4.848871e-03 2.435050e-01 -1.132200e-01 -4.059743e-01 -1.196475e-01 -2.850725e-01
<VARIANCE> 25
 1.470751e+01 3.705159e+01 3.573979e+01 5.218401e+01 3.691956e+01 7.764708e+01 5.907538e+01 4.929519e+01 5.519411e+01 4.102028e+01 4.102677e+01 2.744874e+01 2.507780e-01 1.081373e+00 8.974165e-01 9.229593e-01 9.931267e-01 2.346646e+00 1.729202e+00 1.665869e+00 1.636880e+00 1.709230e+00 1.475367e+00 1.068487e+00 3.798715e-01
<GCONST> 9.139445e+01
<TRANSP> 5
 0.000000e+00 1.000000e+00 0.000000e+00 0.000000e+00 0.000000e+00
 0.000000e+00 6.119062e-01 3.880937e-01 0.000000e+00 0.000000e+00
 0.000000e+00 0.000000e+00 3.542216e-01 6.457784e-01 0.000000e+00
 0.000000e+00 0.000000e+00 0.000000e+00 7.225592e-01 2.774408e-01
 0.000000e+00 0.000000e+00 0.000000e+00 0.000000e+00 0.000000e+00
<ENDHMM>
~h "dh"
<BEGINHMM>
<NUMSTATES> 5
<STATE> 2
<MEAN> 25
 2.841802e+00 -9.243552e-02 -1.769849e+00 -1.185053e-01 -1.543877e-01 -2.390546e+00 -2.339252e+00 -2.024481e+00 -2.857051e+00 -2.213691e+00 -7.834315e-01 -6.559893e-01 -3.310943e-01 9.593801e-01 6.872498e-01 2.703459e-01 5.137957e-01 1.115994e+00 2.748081e-01 6.439228e-02 5.288855e-01 -2.457453e-01 -8.380343e-01 -1.968548e-01 -6.073532e-01
<VARIANCE> 25
 2.109881e+01 2.451734e+01 2.879441e+01 3.976487e+01 3.071278e+01 5.859883e+01 5.361905e+01 3.780051e+01 5.199002e+01 3.609598e+01 3.094573e+01 2.238203e+01 5.394108e-01 9.616470e-01 8.176150e-01 9.654635e-01 1.171039e+00 2.375682e+00 1.778965e+00 1.957114e+00 2.720812e+00 1.866210e+00 1.768169e+00 1.285507e+00 4.898314e-01
<GCONST> 9.153606e+01
<STATE> 3
<MEAN> 25
 1.375317e+00 2.377718e+00 7.871611e-01 5.449373e-01 1.038568e+00 7.132351e-01 -1.337035e+00 -1.749011e+00 -1.346600e+00 -2.329650e+00 -2.611016e+00 -1.398031e+00 -9.437434e-02 8.267270e-01 7.025207e-01 2.794212e-01 3.330335e-01 5.912982e-01 -3.973716e-02 -2.268836e-01 1.527324e-01 -2.008864e-01 -5.170398e-01 -2.370345e-01 -3.134435e-01
<VARIANCE> 25
 1.868877e+01 2.471715e+01 2.770278e+01 3.326036e+01 2.637591e+01 4.514964e+01 4.013841e+01 2.946320e+01 3.701894e+01 2.815126e+01 2.852301e+01 1.986973e+01 1.083973e+00 8.011128e-01 7.286659e-01 8.652698e-01 9.191491e-01 2.030580e+00 2.516566e+00 2.813803e+00 3.522606e+00 1.954763e+00 1.489106e+00 1.260996e+00 5.445644e-01
<GCONST> 9.028593e+01
<STATE> 4
<MEAN> 25
 1.037831e+00 4.001507e+00 2.125809e+00 1.109429e+00 1.589665e+00 1.943536e+00 -1.302791e+00 -2.105889e+00 -9.567343e-01 -2.307734e+00 -3.226442e+00 -1.516404e+00 -3.291201e-01 2.685816e-01 3.235401e-01 5.288491e-02 1.149099e-01 4.471558e-01 2.872928e-01 1.767114e-01 4.185325e-01 2.922521e-01 7.333703e-02 8.471169e-02 -3.009366e-01
<VARIANCE> 25
 1.295642e+01 2.164218e+01 2.155589e+01 2.590544e+01 2.216070e+01 3.941645e+01 3.375356e+01 2.570386e+01 3.034500e+01 2.300980e+01 2.417039e+01 1.877868e+01 3.452538e-01 4.772152e-01 5.465643e-01 6.420634e-01 6.833307e-01 1.068284e+00 1.194322e+00 1.250142e+00 1.383134e+00 1.050384e+00 1.031885e+00 9.509407e-01 1.788251e-01
<GCONST> 7.998183e+01
<TRANSP> 5
 0.000000e+00 1.000000e+00 0.000000e+00 0.000000e+00 0.000000e+00
 0.000000e+00 2.686201e-01 7.313799e-01 0.000000e+00 0.000000e+00
 0.000000e+00 0.000000e+00 1.417511e-01 8.582489e-01 0.000000e+00
 0.000000e+00 0.000000e+00 0.000000e+00 4.877112e-01 5.122888e-01
 0.000000e+00 0.000000e+00 0.000000e+00 0.000000e+00 0.000000e+00
<ENDHMM>
~h "eh"
<BEGINHMM>
<NUMSTATES> 5
<STATE> 2
<MEAN> 25
 1.104764e-02 1.462680e+00 1.054025e+00 2.629177e-01 1.047431e+00 9.011348e-01 -3.680995e-01 -1.188151e+00 -2.176356e-01 -5.038521e-01 -8.367717e-01 -7.022386e-01 8.213609e-01 -6.975813e-01 -7.013668e-01 3.185405e-01 -3.455946e-01 -1.283839e+00 -1.031447e+00 -8.491977e-01 -8.860283e-01 -3.891617e-02 4.522375e-01 -7.655207e-02 6.562610e-01
<VARIANCE> 25
 2.179185e+01 2.739908e+01 2.865225e+01 3.230650e+01 2.842826e+01 4.888945e+01 3.920926e+01 2.841542e+01 4.202450e+01 3.211365e+01 2.539040e+01 1.860870e+01 1.391868e+00 1.840417e+00 1.667659e+00 1.945909e+00 1.768098e+00 3.538092e+00 3.596549e+00 2.923462e+00 3.731832e+00 2.670374e+00 2.604261e+00 1.830967e+00 7.032660e-01
<GCONST> 9.660091e+01
<STATE> 3
<MEAN> 25
 3.693682e+00 -2.541602e+00 -2.221283e+00 1.792786e+00 -3.844439e-01 -6.129137e+00 -5.646954e+00 -4.705209e+00 -4.585111e+00 -6.475095e-01 2.267370e+00 -4.844083e-01 1.123919e+00 -1.747209e+00 -1.194823e+00 2.929502e-01 -7.519026e-01 -2.489754e+00 -1.352579e+00 -3.871842e-01 -7.079059e-01 5.889728e-01 1.267342e+00 -1.133013e-01 1.373760e+00
<VARIANCE> 25
 1.394748e+01 2.926678e+01 2.847388e+01 3.999945e+01 2.885855e+01 6.214019e+01 5.390755e+01 3.582273e+01 5.392966e+01 4.177299e+01 3.668549e+01 2.359867e+01 1.415755e+00 2.697715e+00 2.301211e+00 2.835638e+00 2.263461e+00 5.567863e+00 4.998888e+00 3.854708e+00 5.636005e+00 4.336586e+00 3.691363e+00 2.469979e+00 1.088775e+00
<GCONST> 1.027374e+02
<STATE> 4
<MEAN> 25
 5.407214e+00 -7.354551e+00 -4.706567e+00 2.550851e+00 -2.211169e+00 -1.171528e+01 -8.022608e+00 -3.478947e+00 -1.839972e+00 3.026689e+00 3.975779e+00 -2.838318e+00 1.545111e-02 4.876076e-02 -5.452915e-02 -1.066844e-01 -2.781159e-03 1.713149e-01 1.196430e-01 9.790331e-02 1.360111e-01 -2.129573e-02 -2.148813e-01 -9.376294e-02 -2.228519e-02
<VARIANCE> 25
 7.599246e+00 2.832954e+01 2.480994e+01 3.887032e+01 2.186498e+01 4.781288e+01 4.118398e+01 2.545452e+01 3.566065e+01 3.558117e+01 3.735059e+01 2.268206e+01 2.103314e-01 1.016366e+00 7.336021e-01 8.703330e-01 8.940807e-01 1.755664e+00 1.365911e+00 1.310727e+00 1.488525e+00 1.455289e+00 1.327971e+00 1.088405e+00 3.681156e-01
<GCONST> 8.516906e+01
<TRANSP> 5
 0.000000e+00 1.000000e+00 0.000000e+00 0.000000e+00 0.000000e+00
 0.000000e+00 1.776863e-01 8.223137e-01 0.000000e+00 0.000000e+00
 0.000000e+00 0.000000e+00 5.924497e-01 4.075503e-01 0.000000e+00
 0.000000e+00 0.000000e+00 0.000000e+00 7.581958e-01 2.418043e-01
 0.000000e+00 0.000000e+00 0.000000e+00 0.000000e+00 0.000000e+00
<ENDHMM>
~h "el"
<BEGINHMM>
<NUMSTATES> 5
<STATE> 2
<MEAN> 25
 4.443379e+00 3.319308e+00 -1.316797e+00 -2.155218e+00 -2.064636e-01 -1.126917e+00 -2.943538e+00 -5.052043e-01 -3.750447e+00 -6.324916e+00 -5.371516e+00 -3.491190e+00 -5.960810e-01 5.825149e-01 5.600476e-01 1.121552e-01 2.114356e-01 1.494090e+00 5.892367e-01 -4.180320e-01 8.023760e-01 6.235065e-01 7.490784e-02 5.967193e-01 -6.611879e-01
<VARIANCE> 25
 6.167806e+00 7.331752e+00 5.498831e+00 1.044357e+01 2.071151e+01 3.460369e+01 2.356058e+01 1.283238e+01 2.465975e+01 5.849146e+01 2.411456e+01 1.609399e+01 3.610589e-01 5.406772e-01 9.239357e-01 8.189734e-01 7.479171e-01 1.873625e+00 1.381046e+00 5.353067e-01 7.557689e-01 1.759346e+00 1.398377e+00 8.306621e-01 1.390898e-01
<GCONST> 7.591544e+01
<STATE> 3
<MEAN> 25
 1.401785e+00 6.367825e+00 3.460611e+00 4.071132e-01 1.843788e+00 4.940229e+00 -7.672181e-01 -2.524031e+00 1.278265e+00 3.342609e-01 -2.194515e+00 -9.809036e-01 -4.186437e-01 2.047420e-02 3.650461e-01 4.255503e-01 4.873928e-01 5.114738e-01 2.182134e-01 -2.512842e-02 1.202474e-01 2.166153e-01 1.741960e-01 1.692559e-01 -2.656948e-01
<VARIANCE> 25
 5.446933e+00 5.592471e+00 4.566601e+00 7.238990e+00 1.210125e+01 1.635317e+01 1.117105e+01 7.264473e+00 1.015062e+01 1.399947e+01 3.943870e+00 2.804110e+01 4.796989e-02 4.200741e-01 4.989403e-01 3.112267e-01 4.820243e-01 5.630354e-01 6.188027e-01 9.967562e-01 1.329479e+00 1.485616e+00 9.232800e-01 9.387559e-01 2.878003e-02
<GCONST> 6.164322e+01
<STATE> 4
<MEAN> 25
 -3.700059e+00 -1.129356e+00 -4.346397e-01 5.047888e-01 3.561497e+00 8.451607e+00 5.209507e+00 4.639327e-01 9.667070e-01 5.051423e+00 5.143195e+00 2.425753e+00 -1.378154e-01 -1.310273e-01 -2.465879e-02 7.727572e-02 -2.155671e-02 3.941604e-02 1.328302e-01 1.489352e-01 6.755990e-02 4.666929e-02 5.399370e-02 9.496231e-02 -5.723084e-02
<VARIANCE> 25
 3.030282e+00 8.070987e+00 6.189525e+00 3.962319e+00 3.353139e+00 4.568913e+00 4.565944e+00 5.722502e+00 1.120525e+01 1.027253e+01 2.211544e+01 5.395326e+00 8.184860e-02 5.264921e-01 3.183634e-01 5.101447e-01 4.193407e-01 3.011580e-01 4.454856e-01 1.091588e+00 1.009018e+00 5.755764e-01 1.166380e+00 6.051727e-01 3.096495e-02
<GCONST> 5.574459e+01
<TRANSP> 5
 0.000000e+00 1.000000e+00 0.000000e+00 0.000000e+00 0.000000e+00
 0.000000e+00 8.507712e-01 1.492288e-01 0.000000e+00 0.000000e+00
 0.000000e+00 0.000000e+00 8.339983e-01 1.660018e-01 0.000000e+00
 0.000000e+00 0.000000e+00 0.000000e+00 8.943649e-01 1.056351e-01
 0.000000e+00 0.000000e+00 0.000000e+00 0.000000e+00 0.000000e+00
<ENDHMM>
~h "en"
<BEGINHMM>
<NUMSTATES> 5
<STATE> 2
<MEAN> 25
 7.221891e+00 -4.186206e+00 -7.870684e+00 -6.811997e+00 -8.547592e+00 -6.579201e+00 2.549330e+00 3.622267e+00 -2.871635e+00 -3.150698e+00 1.670822e+00 1.985250e+00 1.305566e-02 1.617069e-01 1.195794e-02 -1.902401e-02 2.195406e-01 2.362768e-01 -5.081832e-02 -2.106775e-01 -9.587005e-02 -1.263922e-01 -9.131708e-03 1.477845e-01 -1.033022e-01
<VARIANCE> 25
 6.574166e+00 2.077950e+01 3.116675e+01 1.736211e+01 3.001107e+01 4.284312e+01 3.753540e+01 3.927134e+01 4.894377e+01 3.129449e+01 1.862024e+01 2.370823e+01 8.461156e-02 3.951733e-01 4.940983e-01 4.256544e-01 6.903257e-01 7.126435e-01 9.523496e-01 9.332089e-01 8.948764e-01 7.809552e-01 8.806189e-01 7.379636e-01 8.856796e-02
<GCONST> 7.603889e+01
<STATE> 3
<MEAN> 25
 5.805005e+00 -2.969126e+00 -6.162978e+00 -3.952951e+00 -3.507354e+00 -4.564816e+00 -2.302097e+00 -8.462387e-01 -3.915385e+00 -3.410615e+00 4.925172e-01 1.903929e+00 -1.025373e-02 3.397487e-01 -8.278857e-02 4.091367e-01 8.818780e-01 2.052785e-01 -8.282394e-01 -1.290954e+00 -4.459628e-01 -8.515857e-02 -8.733485e-02 2.019711e-01 -2.613775e-01
<VARIANCE> 25
 1.293132e+01 3.552321e+01 3.735371e+01 2.761642e+01 2.836563e+01 5.799753e+01 4.809178e+01 3.310462e+01 4.897058e+01 4.485205e+01 4.414081e+01 2.733241e+01 2.268815e-01 9.208140e-01 1.285645e+00 7.145433e-01 1.817456e+00 2.394240e+00 2.022214e+00 2.163196e+00 9.051321e-01 1.352080e+00 1.163136e+00 1.693453e+00 2.760298e-01
<GCONST> 8.947222e+01
<STATE> 4
<MEAN> 25
 5.339749e+00 -1.014944e+00 -5.903229e+00 -3.496194e+00 -7.387376e-01 -1.581716e+00 -3.107948e+00 -3.832566e+00 -5.209592e+00 -3.354659e+00 5.154161e-01 1.037328e+00 -6.019756e-01 9.042867e-01 7.911801e-01 3.909401e-01 9.198437e-01 1.129869e+00 1.508660e-01 -2.366590e-01 3.194987e-01 5.292623e-02 -4.730710e-01 -4.148514e-01 -7.299784e-01
<VARIANCE> 25
 9.835826e+00 2.491421e+01 3.767050e+01 2.141755e+01 2.621731e+01 4.585164e+01 3.590662e+01 2.108858e+01 4.627957e+01 2.879872e+01 3.780282e+01 2.092429e+01 5.991575e-01 9.801847e-01 1.439142e+00 1.246403e+00 1.812531e+00 3.571500e+00 2.690876e+00 2.380096e+00 1.980019e+00 2.204340e+00 2.604339e+00 1.121772e+00 4.279797e-01
<GCONST> 9.120501e+01
<TRANSP> 5
 0.000000e+00 1.000000e+00 0.000000e+00 0.000000e+00 0.000000e+00
 0.000000e+00 7.670761e-01 2.329238e-01 0.000000e+00 0.000000e+00
 0.000000e+00 0.000000e+00 2.544431e-01 7.455569e-01 0.000000e+00
 0.000000e+00 0.000000e+00 0.000000e+00 6.411498e-01 3.588502e-01
 0.000000e+00 0.000000e+00 0.000000e+00 0.000000e+00 0.000000e+00
<ENDHMM>
~h "er"
<BEGINHMM>
<NUMSTATES> 5
<STATE> 2
<MEAN> 25
 1.203128e-01 1.121583e+00 4.585252e-01 -8.791205e-02 5.535143e-01 1.138325e+00 6.704153e-01 -1.599931e+00 -9.345196e-01 -8.978139e-01 -5.296587e-01 -1.394664e+00 1.275080e+00 -3.667855e-01 -7.309240e-01 -3.379690e-01 -1.143885e+00 -1.723340e+00 -7.612209e-01 -5.761608e-01 -1.607001e+00 -7.743131e-01 2.299320e-01 6.387296e-02 8.834405e-01
<VARIANCE> 25
 1.980899e+01 2.501070e+01 2.519463e+01 3.373260e+01 3.055702e+01 4.621489e+01 4.580676e+01 3.113138e+01 3.751558e+01 2.901380e+01 3.113798e+01 1.976571e+01 1.682076e+00 2.036554e+00 1.955925e+00 2.700910e+00 3.593529e+00 4.350818e+00 4.545889e+00 3.772677e+00 4.035426e+00 2.669622e+00 3.420042e+00 2.160301e+00 8.494794e-01
<GCONST> 9.952898e+01
<STATE> 3
<MEAN> 25
 5.458628e+00 -1.218176e+00 -3.443738e+00 -2.369958e+00 -5.063120e+00 -6.866423e+00 -1.707751e+00 -1.502125e+00 -6.843722e+00 -3.571780e+00 1.959941e+00 9.737110e-01 8.484359e-01 -1.306795e+00 -1.160644e+00 -8.785843e-01 -1.447942e+00 -1.634875e+00 3.880500e-01 8.017768e-01 -8.693194e-01 4.401341e-02 1.291703e+00 8.260273e-01 1.110445e+00
<VARIANCE> 25
 9.202771e+00 2.860825e+01 2.446644e+01 3.719278e+01 4.850032e+01 4.551083e+01 5.611034e+01 4.918392e+01 4.731774e+01 3.734373e+01 3.683067e+01 2.215034e+01 9.645637e-01 2.067341e+00 1.820725e+00 1.945462e+00 2.628622e+00 4.536096e+00 3.669476e+00 3.007164e+00 4.050790e+00 2.946073e+00 2.790199e+00 1.980264e+00 8.491744e-01
<GCONST> 9.899693e+01
<STATE> 4
<MEAN> 25
 6.636605e+00 -3.468381e+00 -6.334956e+00 -7.008571e+00 -9.213271e+00 -7.185579e+00 3.226281e+00 2.513588e+00 -7.130279e+00 -3.803505e+00 2.915417e+00 2.406938e+00 -5.539886e-02 1.031440e-01 -9.206297e-03 1.378771e-03 2.792249e-01 3.400819e-01 -1.171132e-01 -1.661224e-01 1.340517e-01 1.183163e-02 -1.713828e-01 -3.807162e-02 -9.230091e-02
<VARIANCE> 25
 5.546665e+00 2.772034e+01 2.135600e+01 2.252826e+01 3.647518e+01 3.779231e+01 4.831629e+01 3.991259e+01 4.209890e+01 3.259276e+01 3.170569e+01 2.234938e+01 1.745364e-01 1.013446e+00 6.793364e-01 7.405232e-01 1.285376e+00 1.675761e+00 2.028170e+00 1.595606e+00 1.351099e+00 1.529741e+00 1.541692e+00 1.089591e+00 3.687009e-01
<GCONST> 8.550832e+01
<TRANSP> 5
 0.000000e+00 1.000000e+00 0.000000e+00 0.000000e+00 0.000000e+00
 0.000000e+00 4.857430e-01 5.142570e-01 0.000000e+00 0.000000e+00
 0.000000e+00 0.000000e+00 5.300635e-01 4.699366e-01 0.000000e+00
 0.000000e+00 0.000000e+00 0.000000e+00 8.508162e-01 1.491838e-01
 0.000000e+00 0.000000e+00 0.000000e+00 0.000000e+00 0.000000e+00
<ENDHMM>
~h "ey"
<BEGINHMM>
<NUMSTATES> 5
<STATE> 2
<MEAN> 25
 -7.114031e-01 7.645115e-01 1.462352e+00 1.176027e+00 1.708939e+00 1.709116e+00 6.449032e-01 -1.893262e+00 -8.586916e-01 -3.268259e-01 -1.426256e-01 -1.290390e+00 1.008401e+00 -8.505045e-01 -5.608338e-01 8.240374e-01 -5.959173e-02 -1.797501e+00 -1.792474e+00 -1.478759e+00 -1.406126e+00 -5.188929e-01 1.393758e-01 -4.090378e-01 9.095778e-01
<VARIANCE> 25
 2.001235e+01 3.042816e+01 2.579195e+01 3.129395e+01 2.374487e+01 4.203029e+01 3.455700e+01 3.098333e+01 4.009174e+01 3.160391e+01 2.727960e+01 1.860783e+01 1.645213e+00 2.817004e+00 2.097427e+00 2.026184e+00 1.777263e+00 4.499349e+00 5.101959e+00 3.473521e+00 4.291023e+00 2.961832e+00 3.947414e+00 1.930174e+00 1.071311e+00
<GCONST> 9.888422e+01
<STATE> 3
<MEAN> 25
 3.863764e+00 -3.128039e+00 -9.361596e-01 4.896860e+00 1.347594e+00 -8.029385e+00 -9.240569e+00 -6.381884e+00 -5.207740e+00 -1.843243e+00 4.459171e-01 -2.282087e+00 5.580436e-01 -1.282824e+00 -3.360953e-01 8.317571e-01 -3.591268e-01 -2.514834e+00 -1.660559e+00 4.359839e-02 2.211793e-02 2.723901e-01 2.268292e-01 -3.743524e-01 9.107048e-01
<VARIANCE> 25
 1.021237e+01 2.505896e+01 2.214194e+01 3.712368e+01 2.477825e+01 5.804821e+01 5.173037e+01 3.919750e+01 4.210489e+01 3.210378e+01 3.436930e+01 2.278126e+01 9.455446e-01 2.301042e+00 1.589296e+00 2.304697e+00 1.604130e+00 5.292731e+00 4.654206e+00 3.252088e+00 3.337918e+00 3.159335e+00 2.789793e+00 1.961415e+00 9.036899e-01
<GCONST> 9.784727e+01
<STATE> 4
<MEAN> 25
 3.755903e+00 -5.474671e+00 5.875539e-01 8.609424e+00 1.623841e-02 -1.465680e+01 -1.136460e+01 -3.531093e+00 -2.061159e+00 -1.935853e+00 -2.926311e+00 -4.422066e+00 -8.600226e-02 2.429471e-01 4.543269e-02 -1.057161e-01 5.338840e-03 2.752382e-01 2.039943e-01 1.862073e-01 2.335105e-01 -2.879525e-02 -2.379452e-01 5.125756e-02 -1.903479e-01
<VARIANCE> 25
 5.214000e+00 2.550187e+01 1.783399e+01 2.928617e+01 1.761116e+01 5.011854e+01 3.342660e+01 2.557088e+01 2.902534e+01 3.225621e+01 2.958351e+01 1.683688e+01 1.640561e-01 6.934510e-01 5.853617e-01 7.723858e-01 7.045739e-01 1.867890e+00 1.110351e+00 1.177874e+00 1.188964e+00 1.185450e+00 1.075112e+00 8.954994e-01 2.320906e-01
<GCONST> 8.010189e+01
<TRANSP> 5
 0.000000e+00 1.000000e+00 0.000000e+00 0.000000e+00 0.000000e+00
 0.000000e+00 4.857363e-01 5.142637e-01 0.000000e+00 0.000000e+00
 0.000000e+00 0.000000e+00 5.364204e-01 4.635796e-01 0.000000e+00
 0.000000e+00 0.000000e+00 0.000000e+00 8.430526e-01 1.569474e-01
 0.000000e+00 0.000000e+00 0.000000e+00 0.000000e+00 0.000000e+00
<ENDHMM>
~h "hh"
<BEGINHMM>
<NUMSTATES> 5
<STATE> 2
<MEAN> 25
 1.113021e+00 3.058629e+00 1.178212e+00 1.001657e+00 1.336739e+00 1.598195e+00 -7.045790e-01 -1.655674e+00 -8.112291e-01 -1.961764e+00 -2.784636e+00 -1.321354e+00 -5.356576e-01 1.925749e-01 3.228720e-01 5.371115e-02 2.342086e-01 7.689151e-01 5.749604e-01 4.449640e-01 6.895285e-01 3.786784e-01 -5.175355e-02 2.362062e-02 -4.292378e-01
<VARIANCE> 25
 1.130148e+01 1.148952e+01 1.413598e+01 2.067304e+01 1.864345e+01 2.680264e+01 2.706996e+01 1.897090e+01 2.963756e+01 2.517108e+01 2.544424e+01 2.010033e+01 2.065661e-01 4.089867e-01 4.572996e-01 6.314589e-01 7.119968e-01 1.016092e+00 1.043918e+00 9.364628e-01 1.199358e+00 1.052303e+00 1.069965e+00 9.234456e-01 1.203618e-01
<GCONST> 7.584190e+01
<STATE> 3
<MEAN> 25
 -1.817602e+00 1.336624e+00 1.255200e+00 8.159829e-01 2.148243e+00 4.255160e+00 2.257425e+00 5.489425e-01 2.475630e+00 1.925019e+00 -2.820133e-01 -7.547612e-01 -3.415454e-01 -1.652118e-01 -7.020138e-02 -3.065718e-02 -2.157673e-02 2.986344e-01 4.175181e-01 3.645781e-01 4.821270e-01 4.364409e-01 3.149494e-01 2.449074e-01 -2.200348e-01
<VARIANCE> 25
 1.168854e+01 1.722309e+01 1.924395e+01 2.144908e+01 1.627285e+01 2.395131e+01 2.365073e+01 1.839075e+01 2.559444e+01 2.431417e+01 2.404085e+01 1.844138e+01 2.230519e-01 5.350509e-01 6.703042e-01 7.413942e-01 7.976729e-01 1.075027e+00 1.168670e+00 1.127423e+00 1.324235e+00 1.372468e+00 1.411339e+00 1.095888e+00 1.360907e-01
<GCONST> 7.817944e+01
<STATE> 4
<MEAN> 25
 -4.097254e+00 1.793668e+00 1.710332e+00 3.209450e-01 1.391310e+00 5.095759e+00 2.754679e+00 2.112410e+00 4.715549e+00 2.898580e+00 -7.368185e-03 1.723738e+00 -3.363202e-02 -2.488102e-02 2.538578e-04 4.210336e-03 -2.597026e-02 -1.647838e-02 2.199728e-02 2.422100e-02 1.994025e-02 2.309570e-02 2.107022e-02 1.155671e-02 -1.686365e-02
<VARIANCE> 25
 4.228999e+00 8.100595e+00 7.272319e+00 7.016967e+00 7.029541e+00 1.317107e+01 1.038468e+01 8.787560e+00 1.336781e+01 9.433416e+00 9.047403e+00 7.627770e+00 6.607879e-02 1.605027e-01 2.344819e-01 3.295144e-01 3.955809e-01 5.144135e-01 5.603881e-01 6.138508e-01 6.582409e-01 6.348912e-01 6.404446e-01 5.647529e-01 2.966296e-02
<GCONST> 5.635301e+01
<TRANSP> 5
 0.000000e+00 1.000000e+00 0.000000e+00 0.000000e+00 0.000000e+00
 0.000000e+00 6.389318e-01 3.610682e-01 0.000000e+00 0.000000e+00
 0.000000e+00 0.000000e+00 4.044708e-01 5.955291e-01 0.000000e+00
 0.000000e+00 0.000000e+00 0.000000e+00 9.150501e-01 8.494990e-02
 0.000000e+00 0.000000e+00 0.000000e+00 0.000000e+00 0.000000e+00
<ENDHMM>
~h "ih"
<BEGINHMM>
<NUMSTATES> 5
<STATE> 2
<MEAN> 25
 -6.902840e-01 9.095159e-01 1.109823e+00 -2.496131e-01 1.078388e+00 1.313830e+00 4.041286e-01 -1.639600e-01 5.788232e-01 -2.970787e-02 -4.519051e-01 -6.622134e-01 1.155834e-01 -1.936834e-01 -8.649655e-02 2.226384e-01 3.062694e-02 -3.091035e-01 -2.780218e-01 -4.018906e-01 -2.349875e-01 5.640551e-02 1.038960e-01 -1.643068e-01 1.457507e-01
<VARIANCE> 25
 2.730458e+01 3.508060e+01 3.120333e+01 3.879874e+01 2.872470e+01 5.253352e+01 4.121682e+01 2.743617e+01 4.005632e+01 3.015364e+01 3.142639e+01 2.047522e+01 7.657716e-01 1.178432e+00 1.308887e+00 1.468073e+00 1.330812e+00 2.278137e+00 2.239120e+00 1.922137e+00 2.190336e+00 1.859937e+00 1.877773e+00 1.311698e+00 4.809476e-01
<GCONST> 9.251704e+01
<STATE> 3
<MEAN> 25
 1.050841e+00 -4.624744e-01 -1.055712e-01 1.344069e+00 6.890261e-01 -1.430192e+00 -2.110205e+00 -2.712545e+00 -1.965442e+00 -8.061593e-01 -4.896267e-02 -1.156641e+00 1.026452e+00 -9.629804e-01 -5.670937e-01 7.415440e-01 -2.333205e-01 -2.018524e+00 -1.639825e+00 -1.159654e+00 -1.372601e+00 -3.805490e-01 3.550147e-01 -3.951881e-01 9.847677e-01
<VARIANCE> 25
 1.967614e+01 2.973339e+01 2.794467e+01 3.803187e+01 2.707889e+01 5.566566e+01 4.985645e+01 3.481478e+01 4.938912e+01 3.797389e+01 3.023153e+01 2.272300e+01 1.593498e+00 3.008526e+00 2.152802e+00 2.711634e+00 2.113451e+00 6.013806e+00 5.487527e+00 3.631232e+00 4.509352e+00 3.324759e+00 3.928044e+00 2.178786e+00 1.307969e+00
<GCONST> 1.021225e+02
<STATE> 4
<MEAN> 25
 3.797319e+00 -4.322263e+00 -1.130281e+00 5.304225e+00 3.300376e-01 -9.842092e+00 -8.681870e+00 -4.552518e+00 -4.097925e+00 -1.471586e+00 -1.049048e-02 -3.222235e+00 1.408307e-01 -6.038329e-02 -1.152050e-01 -2.005119e-02 -3.022560e-02 -2.087741e-01 -1.606581e-01 -7.218794e-02 -1.038089e-01 4.965196e-03 5.360004e-02 -4.345813e-02 9.995390e-02
<VARIANCE> 25
 1.082341e+01 3.073631e+01 2.451786e+01 4.464621e+01 2.537207e+01 6.939153e+01 5.306368e+01 3.303749e+01 4.200317e+01 3.343139e+01 3.809648e+01 2.405925e+01 7.260389e-01 1.787922e+00 1.281366e+00 1.566206e+00 1.413740e+00 4.224758e+00 2.843961e+00 2.127006e+00 2.694399e+00 2.170626e+00 2.293614e+00 1.591686e+00 8.346108e-01
<GCONST> 9.518761e+01
<TRANSP> 5
 0.000000e+00 1.000000e+00 0.000000e+00 0.000000e+00 0.000000e+00
 0.000000e+00 2.623954e-01 7.376046e-01 0.000000e+00 0.000000e+00
 0.000000e+00 0.000000e+00 4.126142e-01 5.873859e-01 0.000000e+00
 0.000000e+00 0.000000e+00 0.000000e+00 6.085686e-01 3.914314e-01
 0.000000e+00 0.000000e+00 0.000000e+00 0.000000e+00 0.000000e+00
<ENDHMM>
~h "iy"
<BEGINHMM>
<NUMSTATES> 5
<STATE> 2
<MEAN> 25
 -1.198394e+00 -1.371058e-01 9.841352e-01 1.122968e+00 1.736149e+00 1.556597e+00 9.677612e-01 -5.767674e-01 7.064877e-01 7.307655e-01 2.843728e-01 -9.058754e-01 5.264845e-01 -2.808869e-01 6.607147e-02 8.943690e-01 1.793718e-01 -9.801361e-01 -1.050031e+00 -9.109925e-01 -9.300241e-01 -6.588897e-01 -4.917210e-01 -6.538259e-01 4.084920e-01
<VARIANCE> 25
 2.357185e+01 3.847858e+01 2.857433e+01 3.745025e+01 2.643115e+01 4.316665e+01 3.818357e+01 2.664845e+01 3.570191e+01 2.744489e+01 2.982368e+01 1.830406e+01 1.337680e+00 2.356760e+00 1.820862e+00 1.856919e+00 1.480437e+00 3.096971e+00 3.622299e+00 2.923010e+00 3.266324e+00 2.803047e+00 3.443022e+00 1.700917e+00 7.599322e-01
<GCONST> 9.684345e+01
<STATE> 3
<MEAN> 25
 2.552439e+00 -1.391085e+00 6.754859e-01 6.022363e+00 2.743008e+00 -5.624267e+00 -6.936729e+00 -5.020390e+00 -4.113267e+00 -3.315776e+00 -2.592924e+00 -3.767055e+00 6.788589e-01 -8.104613e-01 1.180597e-01 1.487476e+00 -6.546533e-02 -2.677281e+00 -1.906103e+00 -6.158137e-02 -5.245839e-01 -8.675740e-01 -5.746340e-01 -6.435050e-01 7.351211e-01
<VARIANCE> 25
 1.058411e+01 2.271098e+01 2.534755e+01 4.051893e+01 2.525825e+01 6.035681e+01 5.072289e+01 3.175865e+01 3.432700e+01 2.814100e+01 2.770895e+01 2.465887e+01 1.187930e+00 2.637382e+00 1.543086e+00 2.680789e+00 1.509497e+00 5.358013e+00 4.768614e+00 3.674484e+00 3.715760e+00 3.183740e+00 3.092849e+00 2.069502e+00 7.736437e-01
<GCONST> 9.806374e+01
<STATE> 4
<MEAN> 25
 2.473697e+00 -2.972246e+00 3.796995e+00 1.100290e+01 1.012077e+00 -1.350332e+01 -9.244405e+00 -1.038568e+00 -3.176713e+00 -6.631738e+00 -6.014635e+00 -4.976125e+00 -8.899873e-02 2.481027e-01 5.763220e-02 -2.117126e-01 -2.717281e-02 3.283660e-01 1.685694e-01 7.897285e-02 1.571214e-01 2.587892e-02 -1.068596e-01 1.300049e-01 -1.617881e-01
<VARIANCE> 25
 4.811873e+00 2.046230e+01 1.627093e+01 3.136147e+01 1.750890e+01 4.821912e+01 2.853357e+01 2.444238e+01 2.686262e+01 2.579535e+01 2.002394e+01 1.789671e+01 1.968559e-01 6.838560e-01 7.282100e-01 9.357969e-01 8.929679e-01 2.322806e+00 1.452494e+00 1.569329e+00 1.336225e+00 1.418451e+00 1.159475e+00 1.032828e+00 2.215638e-01
<GCONST> 8.095721e+01
<TRANSP> 5
 0.000000e+00 1.000000e+00 0.000000e+00 0.000000e+00 0.000000e+00
 0.000000e+00 4.113634e-01 5.886366e-01 0.000000e+00 0.000000e+00
 0.000000e+00 0.000000e+00 5.280589e-01 4.719411e-01 0.000000e+00
 0.000000e+00 0.000000e+00 0.000000e+00 8.500286e-01 1.499714e-01
 0.000000e+00 0.000000e+00 0.000000e+00 0.000000e+00 0.000000e+00
<ENDHMM>
~h "jh"
<BEGINHMM>
<NUMSTATES> 5
<STATE> 2
<MEAN> 25
 2.760167e+00 2.553346e+00 1.683817e-01 1.501141e+00 2.177075e+00 -3.697523e-02 -4.422771e+00 -5.030934e+00 -2.995749e+00 -2.497251e+00 -2.378025e+00 -1.198677e+00 -5.187582e-01 5.174972e-01 5.998909e-01 1.589735e-01 2.776270e-01 9.835140e-01 7.594444e-01 4.656342e-01 5.344530e-01 1.534797e-01 -2.631696e-01 -5.470608e-02 -5.339158e-01
<VARIANCE> 25
 1.064207e+01 1.595023e+01 1.510912e+01 2.374995e+01 1.612139e+01 3.159558e+01 4.215287e+01 3.590963e+01 3.982395e+01 2.300988e+01 2.316589e+01 1.706902e+01 2.864797e-01 5.500816e-01 4.037426e-01 6.084319e-01 6.029094e-01 1.357887e+00 1.780977e+00 1.414122e+00 1.350842e+00 1.148046e+00 1.003235e+00 9.811965e-01 2.315133e-01
<GCONST> 7.975182e+01
<STATE> 3
<MEAN> 25
 1.081080e-01 2.878533e+00 2.232985e+00 6.625482e-01 2.315180e+00 3.018305e+00 -3.460201e-01 -1.388700e+00 -4.974522e-01 -1.452013e+00 -1.743320e+00 -1.145826e+00 -7.984491e-01 -3.526847e-01 9.895265e-01 -9.329394e-02 -3.299467e-01 5.166804e-01 1.016109e+00 5.264106e-01 3.682274e-01 5.020046e-01 6.804786e-01 -2.363153e-01 -6.969724e-02
<VARIANCE> 25
 1.297333e+01 1.875591e+01 2.071002e+01 3.267888e+01 1.889162e+01 3.138818e+01 3.270288e+01 2.453132e+01 3.293172e+01 2.740413e+01 2.110777e+01 1.792788e+01 1.022884e+00 1.280692e+00 1.843639e+00 1.759980e+00 1.644436e+00 2.079784e+00 2.975434e+00 2.748448e+00 2.664032e+00 1.692761e+00 1.710154e+00 1.154461e+00 3.163527e-01
<GCONST> 8.958606e+01
<STATE> 4
<MEAN> 25
 -2.742319e+00 -3.267529e+00 6.980284e+00 2.878331e+00 -1.763780e+00 2.114550e+00 2.955032e+00 -1.901677e+00 -1.719566e+00 7.475782e-01 3.546984e+00 -3.172992e+00 -1.054600e-01 -7.883112e-01 1.439813e-01 6.302328e-02 -3.701173e-01 -3.860818e-01 -6.360640e-02 -3.221987e-01 -3.412744e-01 2.167218e-01 5.094080e-01 -9.541297e-02 3.867403e-01
<VARIANCE> 25
 2.209283e+01 3.427541e+01 4.274562e+01 4.117570e+01 2.718085e+01 3.743605e+01 5.811738e+01 4.140735e+01 2.892863e+01 2.642527e+01 3.094827e+01 1.981820e+01 2.301932e+00 2.909601e+00 4.422557e+00 2.183267e+00 2.552185e+00 2.825355e+00 5.606537e+00 4.026256e+00 2.729423e+00 2.196367e+00 3.272035e+00 2.330848e+00 6.419072e-01
<GCONST> 1.004597e+02
<TRANSP> 5
 0.000000e+00 1.000000e+00 0.000000e+00 0.000000e+00 0.000000e+00
 0.000000e+00 6.797205e-01 3.202795e-01 0.000000e+00 0.000000e+00
 0.000000e+00 0.000000e+00 3.949890e-01 6.050109e-01 0.000000e+00
 0.000000e+00 0.000000e+00 0.000000e+00 6.492416e-01 3.507584e-01
 0.000000e+00 0.000000e+00 0.000000e+00 0.000000e+00 0.000000e+00
<ENDHMM>
~h "ng"
<BEGINHMM>
<NUMSTATES> 5
<STATE> 2
<MEAN> 25
 1.886512e+00 -4.787283e-01 -2.926228e-02 9.454055e-01 8.538716e-01 -3.315980e+00 -3.580058e+00 -4.495045e+00 -3.748325e+00 -1.232815e+00 8.031014e-02 -1.620081e+00 9.304696e-01 -6.021433e-01 -6.004333e-01 4.800687e-01 -2.127187e-01 -1.473464e+00 -1.347801e+00 -7.056177e-01 -1.002886e+00 -3.211364e-01 2.082119e-01 7.525530e-02 6.562152e-01
<VARIANCE> 25
 2.135302e+01 2.594637e+01 3.068738e+01 4.260962e+01 3.588510e+01 5.249888e+01 5.388129e+01 4.043332e+01 4.861361e+01 3.838854e+01 3.045154e+01 2.213319e+01 1.879226e+00 2.749821e+00 2.108176e+00 2.649524e+00 2.213324e+00 5.512796e+00 5.508134e+00 3.383334e+00 5.114680e+00 3.740857e+00 3.860236e+00 2.332448e+00 1.197601e+00
<GCONST> 1.028312e+02
<STATE> 3
<MEAN> 25
 5.000845e+00 -3.978599e+00 -3.338533e+00 1.294237e+00 -1.449191e+00 -8.440268e+00 -6.094519e+00 -4.290672e+00 -6.437837e+00 -1.257955e+00 2.959029e+00 -3.505183e-01 2.858573e-01 -1.119704e+00 -5.564432e-01 2.241152e-01 -2.063943e-01 -1.132720e+00 -3.416521e-01 3.509722e-01 2.104857e-01 6.963781e-01 6.349604e-01 -1.417597e-01 6.274087e-01
<VARIANCE> 25
 1.043514e+01 3.122792e+01 2.533685e+01 4.107996e+01 3.983159e+01 5.899868e+01 6.515712e+01 4.135627e+01 5.459500e+01 4.133540e+01 4.044919e+01 2.802270e+01 6.949559e-01 2.110716e+00 1.820290e+00 2.769704e+00 2.062894e+00 5.275990e+00 3.631019e+00 2.735416e+00 3.225130e+00 2.997015e+00 2.799703e+00 2.493023e+00 8.074445e-01
<GCONST> 9.977877e+01
<STATE> 4
<MEAN> 25
 4.360218e+00 -5.239077e+00 -1.700056e+00 5.761245e+00 -5.031123e-01 -1.272740e+01 -8.817807e+00 -2.793377e+00 -2.381822e+00 -9.898841e-01 -1.690748e+00 -4.289662e+00 -1.435233e-01 5.421294e-01 2.201924e-01 -1.118693e-01 8.098882e-02 5.512758e-01 2.639302e-01 2.726929e-01 2.901213e-01 -3.406074e-01 -6.482375e-01 -8.768434e-03 -3.545559e-01
<VARIANCE> 25
 6.561125e+00 2.851086e+01 2.137758e+01 3.949254e+01 1.883293e+01 5.942563e+01 3.998205e+01 2.972670e+01 3.676061e+01 3.531691e+01 4.705297e+01 2.356316e+01 1.867585e-01 9.324748e-01 6.376132e-01 1.150980e+00 8.194614e-01 2.393290e+00 1.292554e+00 1.388699e+00 1.452328e+00 1.384440e+00 1.387688e+00 1.062280e+00 2.631931e-01
<GCONST> 8.515032e+01
<TRANSP> 5
 0.000000e+00 1.000000e+00 0.000000e+00 0.000000e+00 0.000000e+00
 0.000000e+00 2.440214e-01 7.559786e-01 0.000000e+00 0.000000e+00
 0.000000e+00 0.000000e+00 4.410454e-01 5.589545e-01 0.000000e+00
 0.000000e+00 0.000000e+00 0.000000e+00 7.934937e-01 2.065063e-01
 0.000000e+00 0.000000e+00 0.000000e+00 0.000000e+00 0.000000e+00
<ENDHMM>
~h "ow"
<BEGINHMM>
<NUMSTATES> 5
<STATE> 2
<MEAN> 25
 2.209291e+00 4.316284e-01 1.602250e-01 1.797351e+00 6.152655e-01 -2.845420e+00 -3.262286e+00 -2.262353e+00 -2.068872e+00 -2.209661e+00 -1.501197e+00 -1.429956e+00 -2.866458e-01 5.278688e-01 4.149206e-01 6.251983e-02 2.235375e-01 6.423794e-01 2.709089e-01 2.118927e-01 3.924026e-01 7.037765e-03 -3.884108e-01 -3.618031e-02 -4.047471e-01
<VARIANCE> 25
 1.874172e+01 2.573412e+01 2.404429e+01 4.215499e+01 3.084397e+01 6.594149e+01 4.907419e+01 2.860936e+01 3.776180e+01 3.141392e+01 3.299567e+01 2.309780e+01 4.927035e-01 7.694057e-01 8.296626e-01 1.120463e+00 1.318002e+00 2.616947e+00 1.724692e+00 1.630996e+00 1.944252e+00 1.592726e+00 1.501591e+00 1.123713e+00 3.688936e-01
<GCONST> 8.951180e+01
<STATE> 3
<MEAN> 25
 1.629370e+00 3.151229e+00 1.761698e+00 4.024528e-02 -1.139794e+00 -1.543132e+00 -1.563727e+00 -1.012179e+00 -1.178752e+00 -2.506411e+00 -3.096560e+00 -2.137163e+00 -3.583421e-01 2.145835e-01 2.517626e-01 -3.337317e-03 1.084555e-01 5.802459e-01 4.141103e-01 3.128707e-01 5.265195e-01 3.447965e-01 1.786716e-02 5.338642e-02 -3.237282e-01
<VARIANCE> 25
 1.716077e+01 2.221922e+01 1.928959e+01 3.750398e+01 4.723387e+01 5.442678e+01 3.250791e+01 2.308602e+01 3.246828e+01 2.792221e+01 2.777405e+01 2.087669e+01 2.974153e-01 4.072303e-01 5.212739e-01 7.266682e-01 9.792977e-01 1.347584e+00 1.093108e+00 1.196668e+00 1.374452e+00 1.136282e+00 1.040867e+00 9.578007e-01 1.631084e-01
<GCONST> 8.221323e+01
<STATE> 4
<MEAN> 25
 -2.280897e+00 2.640886e+00 2.288391e+00 8.685358e-01 1.670195e+00 4.170872e+00 1.592943e+00 8.103728e-01 2.654819e+00 9.596317e-01 -1.278566e+00 1.241051e-01 -1.629837e-01 -2.144879e-02 3.017635e-02 -1.196099e-02 1.147029e-02 1.255787e-01 1.242643e-01 8.561850e-02 1.429660e-01 1.500846e-01 1.064054e-01 6.003066e-02 -1.091617e-01
<VARIANCE> 25
 1.377678e+01 1.265077e+01 1.082888e+01 1.485268e+01 1.570819e+01 2.752855e+01 1.926119e+01 1.591065e+01 2.502970e+01 1.872317e+01 1.664556e+01 1.401511e+01 1.634734e-01 2.543992e-01 3.589171e-01 4.731162e-01 5.915537e-01 7.061051e-01 7.483668e-01 7.851065e-01 8.541135e-01 7.945845e-01 8.210919e-01 7.286003e-01 7.037920e-02
<GCONST> 6.967156e+01
<TRANSP> 5
 0.000000e+00 1.000000e+00 0.000000e+00 0.000000e+00 0.000000e+00
 0.000000e+00 3.478594e-01 6.521407e-01 0.000000e+00 0.000000e+00
 0.000000e+00 0.000000e+00 3.766722e-01 6.233279e-01 0.000000e+00
 0.000000e+00 0.000000e+00 0.000000e+00 7.469774e-01 2.530226e-01
 0.000000e+00 0.000000e+00 0.000000e+00 0.000000e+00 0.000000e+00
<ENDHMM>
~h "oy"
<BEGINHMM>
<NUMSTATES> 5
<STATE> 2
<MEAN> 25
 -4.023487e-01 1.859072e+00 1.576465e+00 6.523261e-01 1.616570e+00 3.058617e+00 4.871453e-01 -1.535017e+00 1.194963e-01 -5.867243e-01 -1.414764e+00 -8.605509e-01 1.380975e+00 -7.223037e-01 -1.293301e+00 -6.905321e-01 -1.177369e+00 -1.767107e+00 -6.445467e-01 -4.517922e-01 -1.703671e+00 -9.586260e-01 1.339618e-01 -8.467354e-02 1.146288e+00
<VARIANCE> 25
 2.075798e+01 3.166856e+01 3.608770e+01 3.219144e+01 3.104629e+01 3.592581e+01 2.709791e+01 2.575970e+01 3.996888e+01 2.879233e+01 2.830474e+01 1.794382e+01 1.737381e+00 2.533223e+00 2.639121e+00 2.689526e+00 4.228319e+00 5.092219e+00 4.151043e+00 3.451555e+00 4.984982e+00 3.716712e+00 3.656044e+00 2.236591e+00 1.080775e+00
<GCONST> 1.006082e+02
<STATE> 3
<MEAN> 25
 6.086396e+00 -2.553831e-01 -3.501440e+00 -3.811594e+00 -8.463542e+00 -9.314912e+00 -3.898319e-01 1.892177e+00 -5.124671e+00 -4.944677e+00 3.593988e-01 6.135882e-01 8.045412e-01 -1.161635e+00 -9.739017e-01 -1.030363e+00 -1.681375e+00 -1.589847e+00 3.260628e-01 1.201694e+00 -2.643930e-01 1.072604e-01 7.436301e-01 5.019952e-01 1.095217e+00
<VARIANCE> 25
 8.286936e+00 3.150689e+01 2.548871e+01 4.041023e+01 6.292612e+01 5.738758e+01 5.054367e+01 6.298383e+01 4.279818e+01 3.841859e+01 2.544378e+01 2.361272e+01 1.126312e+00 1.882696e+00 1.948471e+00 2.240240e+00 3.508791e+00 8.735068e+00 4.399564e+00 3.617980e+00 3.273381e+00 3.519916e+00 2.144812e+00 1.852820e+00 7.691071e-01
<GCONST> 1.004867e+02
<STATE> 4
<MEAN> 25
 7.069409e+00 -6.988491e+00 -7.565509e+00 -6.009064e+00 -9.288152e+00 -8.285990e+00 4.514862e-02 2.785482e+00 -3.075212e+00 -8.116847e-01 2.252352e+00 1.547091e+00 -5.513647e-02 -1.480910e-01 2.811582e-02 5.360028e-01 6.164616e-01 -1.404104e-02 -5.667680e-01 -5.803816e-01 6.842685e-02 2.326316e-01 -6.850340e-02 -3.154154e-01 -3.228398e-02
<VARIANCE> 25
 6.235480e+00 2.647212e+01 2.367895e+01 4.675486e+01 4.809900e+01 4.948003e+01 6.124506e+01 5.193976e+01 3.870317e+01 4.137601e+01 2.867360e+01 2.951028e+01 2.223914e-01 1.316089e+00 1.030479e+00 1.370265e+00 1.369896e+00 2.816036e+00 2.532519e+00 1.889548e+00 1.688114e+00 2.235559e+00 2.178123e+00 1.397229e+00 4.544205e-01
<GCONST> 9.170622e+01
<TRANSP> 5
 0.000000e+00 1.000000e+00 0.000000e+00 0.000000e+00 0.000000e+00
 0.000000e+00 5.149860e-01 4.850140e-01 0.000000e+00 0.000000e+00
 0.000000e+00 0.000000e+00 6.440624e-01 3.559376e-01 0.000000e+00
 0.000000e+00 0.000000e+00 0.000000e+00 8.691087e-01 1.308913e-01
 0.000000e+00 0.000000e+00 0.000000e+00 0.000000e+00 0.000000e+00
<ENDHMM>
~h "sh"
<BEGINHMM>
<NUMSTATES> 5
<STATE> 2
<MEAN> 25
 1.108460e+00 1.324445e-02 7.020506e-01 1.705706e+00 7.361372e-01 -4.380454e-01 -1.540560e+00 -2.517240e+00 -2.261431e+00 -1.486181e+00 -8.318174e-01 -2.026309e+00 -1.044596e+00 -7.692882e-01 1.089491e+00 5.576201e-01 -2.368386e-01 5.311589e-01 1.369298e+00 8.218186e-01 5.194745e-01 6.733232e-01 8.014125e-01 -2.100548e-01 -1.047610e-01
<VARIANCE> 25
 1.792657e+01 2.578470e+01 2.633563e+01 3.716611e+01 2.455872e+01 4.912109e+01 4.151742e+01 2.972722e+01 3.782461e+01 2.808249e+01 3.293265e+01 2.395482e+01 1.069710e+00 2.082828e+00 1.847083e+00 1.764534e+00 1.657770e+00 2.074333e+00 3.119483e+00 2.058371e+00 2.158368e+00 1.733919e+00 2.377932e+00 1.297562e+00 3.713276e-01
<GCONST> 9.335468e+01
<STATE> 3
<MEAN> 25
 -2.458925e+00 -4.313468e+00 3.097427e+00 3.996325e+00 -2.484059e-01 -1.796313e-01 2.154188e+00 4.900520e-01 -3.668119e-01 1.477860e+00 3.371020e+00 -1.211308e+00 -9.085587e-01 -1.619431e+00 1.035564e+00 9.667578e-01 -2.146780e-01 -3.232653e-01 6.574455e-01 5.458384e-01 1.778359e-01 2.045529e-01 9.544587e-01 1.374398e-02 4.045561e-01
<VARIANCE> 25
 1.951729e+01 4.552031e+01 2.954332e+01 4.552914e+01 2.834633e+01 4.153241e+01 3.925877e+01 2.817163e+01 3.206006e+01 2.645979e+01 3.512207e+01 2.269677e+01 9.067257e-01 2.783367e+00 1.455128e+00 1.887846e+00 1.321833e+00 1.882273e+00 1.652274e+00 1.739370e+00 1.909878e+00 1.476539e+00 2.072040e+00 1.246538e+00 4.443858e-01
<GCONST> 9.252237e+01
<STATE> 4
<MEAN> 25
 -6.822383e+00 -1.198072e+01 7.906741e+00 9.131202e+00 -3.676488e-01 -8.839014e-01 4.480324e+00 1.443508e+00 1.356001e+00 1.639760e+00 6.660094e+00 -1.859623e+00 -2.011101e-01 -1.979820e-01 8.484003e-02 9.162638e-02 1.861829e-01 1.582678e-01 2.578954e-02 -1.228768e-02 2.514298e-01 1.745580e-01 3.530059e-02 2.335026e-02 -5.235462e-03
<VARIANCE> 25
 1.822244e+01 4.430284e+01 2.787328e+01 3.626545e+01 2.270226e+01 2.334157e+01 2.921844e+01 2.754355e+01 2.605047e+01 2.129798e+01 3.076101e+01 1.875994e+01 4.333832e-01 8.204719e-01 8.115871e-01 8.026449e-01 8.430927e-01 7.652953e-01 1.132205e+00 1.251892e+00 1.271065e+00 1.180584e+00 1.257845e+00 9.601949e-01 2.000561e-01
<GCONST> 8.263257e+01
<TRANSP> 5
 0.000000e+00 1.000000e+00 0.000000e+00 0.000000e+00 0.000000e+00
 0.000000e+00 3.594098e-01 6.405902e-01 0.000000e+00 0.000000e+00
 0.000000e+00 0.000000e+00 4.331154e-01 5.668846e-01 0.000000e+00
 0.000000e+00 0.000000e+00 0.000000e+00 7.578201e-01 2.421799e-01
 0.000000e+00 0.000000e+00 0.000000e+00 0.000000e+00 0.000000e+00
<ENDHMM>
~h "sp"
<BEGINHMM>
<NUMSTATES> 3
<STATE> 2
~s "silst"
<TRANSP> 3
 0.000000e+00 1.812244e-01 8.187756e-01
 0.000000e+00 8.214646e-01 1.785354e-01
 0.000000e+00 0.000000e+00 0.000000e+00
<ENDHMM>
~h "th"
<BEGINHMM>
<NUMSTATES> 5
<STATE> 2
<MEAN> 25
 -3.815624e+00 1.996831e+00 1.842214e+00 3.913716e-01 1.537877e+00 5.360076e+00 2.832376e+00 1.419232e+00 3.682302e+00 2.590824e+00 2.124345e-01 1.512932e+00 -9.739488e-02 2.764985e-03 2.560037e-02 -1.530447e-02 -2.527247e-02 6.142522e-02 7.391712e-02 8.151088e-02 1.047681e-01 5.284015e-02 1.777933e-02 6.224306e-02 -7.215060e-02
<VARIANCE> 25
 4.966194e+00 6.522986e+00 6.025240e+00 7.305252e+00 7.564055e+00 1.444332e+01 1.168720e+01 9.449059e+00 1.498139e+01 1.074659e+01 9.810110e+00 7.875861e+00 8.356918e-02 1.442362e-01 2.282786e-01 3.078499e-01 3.966329e-01 4.822491e-01 5.765089e-01 6.563094e-01 6.830018e-01 6.726024e-01 6.888735e-01 5.527747e-01 3.585290e-02
<GCONST> 5.726479e+01
<STATE> 3
<MEAN> 25
 -3.453848e+00 2.379920e+00 2.373284e+00 -1.417361e+00 1.393621e+00 4.611114e+00 2.552270e+00 1.363507e+00 3.118086e+00 1.656216e+00 4.093680e-01 6.650073e-01 -2.114762e-01 -9.357831e-03 1.949899e-01 -4.784363e-02 1.645354e-01 5.690442e-02 5.987012e-02 -1.229690e-02 -4.932880e-02 1.352443e-01 1.440528e-01 -1.437913e-01 4.713518e-04
<VARIANCE> 25
 1.448866e+01 1.103426e+01 1.616660e+01 2.882541e+01 1.595175e+01 2.623486e+01 2.115731e+01 1.891079e+01 2.691391e+01 2.143675e+01 1.942182e+01 1.915883e+01 2.550105e-01 4.359798e-01 6.994274e-01 8.059822e-01 6.918674e-01 9.482971e-01 8.925468e-01 1.156851e+00 1.298603e+00 1.254528e+00 1.183416e+00 1.197444e+00 1.575790e-01
<GCONST> 7.730039e+01
<STATE> 4
<MEAN> 25
 -2.603983e+00 2.507047e+00 2.170114e+00 2.869054e-01 1.327776e+00 3.697952e+00 1.859317e+00 -2.231228e-01 2.019418e+00 1.702184e+00 1.694061e-01 -1.039076e-01 2.856590e-01 -4.555598e-01 -2.204733e-01 -7.126046e-02 -1.530618e-01 -6.004116e-01 -1.625437e-01 -8.162971e-01 -7.383923e-01 6.183921e-02 3.746282e-01 -6.952446e-01 5.778787e-01
<VARIANCE> 25
 1.243351e+01 1.323915e+01 1.398241e+01 1.677651e+01 1.485184e+01 2.799008e+01 2.058893e+01 1.784039e+01 2.727449e+01 2.196597e+01 2.048059e+01 1.481835e+01 6.910009e-01 1.556499e+00 1.722156e+00 1.307013e+00 1.355097e+00 1.627004e+00 2.179087e+00 2.462055e+00 2.047229e+00 2.081403e+00 2.248673e+00 2.034325e+00 4.594470e-01
<GCONST> 8.610223e+01
<TRANSP> 5
 0.000000e+00 1.000000e+00 0.000000e+00 0.000000e+00 0.000000e+00
