BIGRAM: method Katz, cutoff 1
  coef[7]: 0.000000 0.559788 0.609451 0.839477 0.604662 0.788292 0.728901

\data\
ngram 1=2592
ngram 2=1793

\1-grams:
-0.7616	!!UNK
-1.6694	A	-0.1849
-4.3820	ABC
-4.3820	ABLE
-4.3820	ABOARD
-3.0203	ABOUT	-0.0554
-4.0810	ABOVE
-4.3820	ACB
-4.3820	ACCEPTED
-4.3820	ACORN
-4.3820	ACORNS
-3.6039	ACROSS	-0.3227
-4.3820	ACTING
-3.6039	ADDED
-4.3820	ADVENTURE
-4.0810	ADVICE
-4.0810	ADVISED
-4.0810	AFFAIR
-3.6039	AFRAID
-3.1516	AFTER	-0.0372
-3.7800	AFTERNOON
-2.9349	AGAIN	-0.0804
-4.3820	AGAINST
-4.3820	AGAPE
-3.7800	AGO
-4.0810	AGREE
-4.3820	AGREED
-4.0810	AH
-4.3820	AHA
-3.7800	AHEAD
-3.4789	AIM	-0.0680
-4.0810	AIMED
-3.9049	AIR
-4.3820	AIRED
-3.9049	AKBAR
-4.3820	ALABAMA
-3.6830	ALARM	-0.4834
-4.3820	ALAS
-4.3820	ALCOUZ
-4.3820	ALGEBRA
-2.3446	ALL	-0.2543
-4.3820	ALNASCHEE
-3.6830	ALONE
-3.3820	ALONG	-0.1305
-4.0810	ALONGSIDE
-4.3820	ALOUD
-3.1516	ALSO	-0.0461
-4.3820	ALTHOUGH
-4.3820	ALU
-3.1267	ALWAYS
-2.7386	AM	-0.1637
-4.0810	AMAZED
-4.3820	AMAZEMENT
-4.3820	AMMA
-4.3820	AMONG
-2.8379	AN	-0.2766
-3.9049	ANANDI
-1.5572	AND	-0.1037
-3.9049	ANGER
-3.6039	ANGRY
-3.9049	ANIMAL
-3.1779	ANIMALS	-0.2290
-4.3820	ANNOUNCEMENT
-3.4278	ANOTHER
-3.7800	ANSWER
-4.0810	ANSWERED
-4.3820	ANSWERING
-3.7800	ANT
-3.6830	ANTS
-3.3406	ANY
-3.9049	ANYBODY
-4.3820	ANYMORE
-3.4789	ANYONE
-3.3820	ANYTHING	-0.0808
-3.7800	ANYWHERE	-0.7921
-4.3820	APLENTY
-4.0810	APPEAR
-4.3820	APPEARED
-3.7800	APPLE
-3.4789	APPLES
-4.3820	APPROACHED
-3.4789	APPU	-0.0888
-4.3820	APPU'S
-4.3820	APRON
-4.3820	ARCHERY
-2.4682	ARE	-0.1546
-4.0810	AREN'T
-4.3820	ARGUED
-4.3820	ARMED
-3.6039	ARMS	-0.1422
-3.0018	AROUND	-0.0446
-4.0810	ARRIVED
-3.3028	ARROW
-4.0810	ARROWS
-2.4135	AS	-0.2956
-4.0810	ASHAMED	-0.3474
-4.3820	ASIDE
-4.0810	ASK
-3.0598	ASKED	-0.0913
-4.0810	ASKING
-4.3820	ASKS
-3.6039	ASLEEP
-4.0810	ASTONISHMENT
-4.3820	ASTRAY
-2.3650	AT	-0.3940
-3.2681	ATE	-0.0660
-4.3820	ATLANTIC
-4.3820	ATTACKED
-4.3820	ATTENTION
-4.3820	ATTRACTED
-4.3820	AUNT
-4.0810	AVIAL
-4.3820	AVOID
-3.9049	AWAKE
-2.5967	AWAY	-0.1828
-4.3820	AWFUL
-4.3820	AZAD
-4.3820	AZAD'S
-4.3820	B
-3.6039	BABA	-0.2021
-4.3820	BABIES
-3.2359	BABY	-0.1719
-4.3820	BABY'S
-4.3820	BAC
-4.3820	BACBONE
-2.8379	BACK	-0.0598
-4.3820	BACKWARD
-4.0810	BAD
-4.3820	BAGS
-4.3820	BAKBAC
-4.3820	BAKBAREA
-3.4278	BALL
-3.6039	BALLOON
-4.0810	BALLOONS
-4.3820	BALLS
-3.4789	BAMBOO	-0.1576
-4.0810	BAND
-3.9049	BANG
-4.0810	BANK	-0.3474
-4.3820	BANYAN
-4.3820	BAR
-3.2059	BARBER
-4.3820	BARELY
-4.3820	BARKED
-4.3820	BARLEY
-4.0810	BARREL
-4.3820	BARREN
-4.3820	BASE
-4.0810	BASKET
-4.3820	BASKETBALL
-4.3820	BATH
-4.3820	BATON
-2.4089	BE	-0.0900
-4.3820	BEACH
-4.0810	BEAK
-3.1779	BEAR	-0.1820
-3.9049	BEARD
-4.3820	BEARDS
-4.3820	BEARS
-4.3820	BEASTS
-3.7800	BEAUTIFUL
-4.3820	BEAVERS
-3.3820	BECAME
-3.3028	BECAUSE	-0.2126
-3.6830	BECOME
-4.0810	BECOMES
-4.0810	BECOMING	-0.3469
-3.1267	BED	-0.0816
-4.0810	BEDROOM
-3.4789	BEEN	-0.1100
-4.3820	BEES
-4.3820	BEETLES
-3.1779	BEFORE	-0.1485
-3.1779	BEGAN	-0.3796
-4.3820	BEGGED
-4.0810	BEGIN	-0.3474
-4.0810	BEGINNING
-3.4789	BEHIND	-0.2325
-4.3820	BEHOLD
-3.7800	BEING
-4.3820	BELIEVE
-4.3820	BELIEVED
-4.3820	BELIEVING
-4.3820	BELLOWED
-4.0810	BELLS	-0.3549
-4.3820	BELOVED
-3.9049	BELOW
-4.3820	BENEATH
-4.0810	BERRY
-3.7800	BEST
-4.3820	BET
-3.6039	BETTER
-3.6039	BETWEEN
-4.3820	BEYOND
-4.3820	BHAISAHEB
-3.2359	BHAIYA	-0.1505
-4.0810	BHALU
-4.3820	BICYCLE
-2.7193	BIG	-0.0668
-4.3820	BIGGER
-4.3820	BIGGEST
-3.5369	BIRBAL
-3.2359	BIRD
-4.3820	BIRD'S
-2.9841	BIRDS	-0.0518
-3.9049	BIT
-4.3820	BITE
-4.0810	BITS
-3.7800	BLACK	-0.1907
-4.3820	BLANKET
-4.3820	BLAZE
-4.3820	BLEED
-3.6830	BLEW
-4.3820	BLIND
-4.3820	BLINKING
-3.3820	BLOW	-0.1418
-3.9049	BLOWING
-4.3820	BLOWS
-3.4789	BLUE	-0.1098
-4.3820	BOARD
-4.3820	BOAST
-3.3028	BOAT	-0.0520
-4.3820	BOATS
-3.4789	BOBBY
-4.3820	BODY
-3.6830	BOILED	-0.1983
-4.3820	BOLDER
-4.3820	BON
-3.2359	BOOK	-0.1002
-3.1267	BOOKS	-0.0643
-4.3820	BOOKSHELF
-4.0810	BOOKSHOP
-3.6830	BOOM	-0.2651
-3.3820	BOOMDI	-0.5953
-4.3820	BOOTS
-3.7800	BORN
-3.9049	BOTH
-3.9049	BOTHER	-0.2012
-4.3820	BOTHERING
-4.0810	BOTTLES
-4.3820	BOUGHT
-3.9049	BOUNCE	-0.3540
-3.3820	BOW	-0.0533
-3.6039	BOWL	-0.2607
-4.3820	BOWLS
-2.7288	BOY	-0.1476
-3.6039	BOYS
-4.3820	BRAKED
-3.3406	BRANCHES	-0.0654
-3.9049	BRAVE
-3.9049	BRAVO
-3.9049	BREAD
-4.0810	BREAK
-4.3820	BREAKFAST
-4.3820	BREATHE
-4.3820	BREATHED
-4.3820	BREATHING
-3.7800	BREEZE
-4.0810	BRICK
-4.3820	BRICK'S
-4.3820	BRIDEGROOM
-3.6830	BRIDGE
-4.3820	BRIDGES
-3.3406	BRIGHT	-0.0394
-3.9049	BRING
-4.3820	BRINGING
-4.3820	BRINGS
-4.0810	BROKE
-4.0810	BROKEN
-3.4789	BROTHER
-4.3820	BROTHERS
-3.6039	BROUGHT	-0.1056
-3.6830	BROWN
-4.3820	BROWNIE
-4.3820	BRUISE
-3.9049	BUBBLE
-4.3820	BUCKLES
-4.3820	BUFFALOES
-4.0810	BUILD
-4.3820	BUILDING
-4.3820	BUILDINGS
-4.0810	BUILT
-3.7800	BUK
-4.3820	BUMP
-4.3820	BUNCH
-3.5369	BUNNY	-0.1422
-4.3820	BURIA
-4.3820	BURN
-3.9049	BURNING
-4.3820	BURNS
-3.7800	BURST
-3.6039	BUS
-4.3820	BUSES
-4.3820	BUSH
-4.3820	BUSHES
-4.3820	BUSINESS
-4.3820	BUSY
-2.2647	BUT	-0.2523
-4.3820	BUTTER
-3.0810	BUTTERFLY	-0.0741
-4.3820	BUTTONS
-3.4789	BUY	-0.1189
-4.3820	BUZZ
-4.3820	BUZZED
-4.3820	BUZZING
-2.6830	BY	-0.2807
-4.3820	BYE
-4.3820	C
-4.0810	CABBAGES
-4.3820	CABLES
-4.3820	CAGE
-4.0810	CAKE
-4.3820	CALIFORNIA
-3.3028	CALL
-3.2359	CALLED	-0.1505
-3.9049	CALLING
-3.9049	CALLS
-4.3820	CALM
-2.6744	CAME	-0.4021
-3.2359	CAMEL
-4.3820	CAMELS
-2.4789	CAN	-0.2023
-3.1267	CAN'T	-0.0927
-3.7800	CANNOT
-4.3820	CANS
-4.3820	CANYONS
-4.3820	CAPTAIN
-4.3820	CARE
-3.9049	CAREFUL
-4.0810	CAREFULLY
-3.6830	CARPENTER
-4.3820	CARPENTER'S
-3.6039	CARRIED	-0.1088
-4.0810	CARROTS
-4.0810	CARRY
-3.6830	CARRYING
-4.3820	CARS
-3.9049	CART
-4.3820	CARTS
-4.3820	CASHGAR
-4.3820	CASTLE
-3.5369	CAT
-3.4278	CATCH	-0.1380
-4.3820	CATCHING
-4.3820	CATERPILLARS
-3.6830	CAUGHT
-4.3820	CAULIFLOWERS
-4.3820	CAUSE
-4.3820	CAVE
-3.0203	CAW	-0.5042
-4.3820	CEASE
-4.3820	CERTAINLY
-4.3820	CHAINS
-4.3820	CHAIR
-4.3820	CHALLENGE
-4.3820	CHALLENGED
-4.3820	CHAMPION
-3.9049	CHANCE
-4.3820	CHANCED
-4.3820	CHANGED
-4.3820	CHARGED
-3.9049	CHASED
-4.3820	CHASING
-3.4789	CHATTER	-0.2454
-4.3820	CHATTERER
-4.3820	CHATTERERS
-4.3820	CHATTING
-4.0810	CHEEK
-3.7800	CHEEKS
-3.6830	CHEEP	-0.1976
-4.0810	CHEESE
-4.3820	CHERRY
-4.3820	CHEW
-4.3820	CHICKEN
-4.3820	CHICKENS
-4.3820	CHICKS
-4.3820	CHIEF
-3.3406	CHILD
-4.3820	CHILD'S
-4.0810	CHILDISH
-2.9670	CHILDREN	-0.0237
-4.3820	CHILLI
-4.3820	CHILLIES
-4.3820	CHILLY
-4.3820	CHIMPANZEE
-4.0810	CHIN	-0.3441
-4.3820	CHIRPY
-3.1779	CHIRRUP	-0.9718
-4.0810	CHOCOLATE
-4.3820	CHOICE
-4.3820	CHOPPING
-4.3820	CHORUS
-3.4278	CIRCLE
-3.7800	CIRCLES
-3.6039	CITY	-0.1304
-4.0810	CLAPPED
-4.3820	CLASPED
-3.3028	CLASS
-4.0810	CLASSES
-4.3820	CLATTERED
-4.0810	CLAW
-4.3820	CLAWS
-4.3820	CLEAN
-4.3820	CLEANED
-3.6830	CLEAR
-4.0810	CLEVER
-4.3820	CLEVERNESS
-3.3028	CLIMB	-0.0964
-3.2359	CLIMBED	-0.2290
-4.0810	CLIMBING
-3.5369	CLOCK
-3.7800	CLOSE
-4.3820	CLOSED
-3.5369	CLOSER	-0.1012
-3.9049	CLOTHES
-4.3820	CLOUD
-3.6830	CLOUDS
-4.3820	CLUSTER
-4.3820	COACHES
-3.5369	COAT
-4.3820	COCK
-3.9049	COCKY
-3.9049	COCONUT	-0.2028
-3.5369	COLD	-0.1100
-4.3820	COLLECT
-4.3820	COLOUR
-4.0810	COLOURED
-4.3820	COLOURFUL
-3.9049	COLOURS
-4.0810	COMB
-2.6918	COME	-0.1727
-3.3406	COMES
-4.3820	COMFORTED
-3.6830	COMING
-4.3820	COMMANDED
-4.3820	COMMON
-3.7800	COMPANION
-4.3820	COMPANY
-4.3820	COMPLETE
-4.3820	COMPLETELY
-4.0810	CONDUCTOR
-4.3820	CONES
-4.3820	CONFUSED
-4.3820	CONSIDERED
-4.3820	CONSTANT
-4.3820	CONTENTED
-4.3820	CONTENTS
-4.0810	CONTEST
-3.9049	CONTINUED
-4.3820	CONVENIENTLY
-3.1516	COOK	-0.0876
-4.0810	COOKED
-3.6830	COOKING
-3.6830	COOL	-0.1416
-4.3820	COOLING
-4.3820	COPIED
-4.3820	COPY
-3.6830	CORN	-0.1304
-4.3820	CORNER
-4.3820	CORRECT
-3.9049	COTTAGE
-2.6112	COULD	-0.3374
-3.9049	COUNTRY
-4.3820	COUPLE
-3.7800	COURSE
-3.7800	COURT
-4.3820	COURTIERS
-4.3820	COUSIN
-4.3820	COVER
-4.3820	COVERED
-4.3820	COVERING
-3.3820	COW	-0.1623
-4.3820	COWS
-3.9049	CRAB
-4.3820	CRAB'S
-3.9049	CRABS
-4.3820	CRACKED
-4.3820	CRANED
-4.0810	CRASHED
-4.0810	CRAWL
-4.3820	CRAWLED
-4.0810	CRAWLING
-3.9049	CREAM
-3.9049	CREATURE
-4.3820	CREATURES
-3.4789	CREEPER
-4.3820	CREEPING
-4.3820	CREEPS
-4.3820	CREPT
-4.3820	CREW
-4.3820	CRICKET
-3.2059	CRIED	-0.0975
-3.9049	CRIES
-4.3820	CRIME
-4.0810	CROAK
-3.7800	CROSS	-0.1792
-4.3820	CROSSED
-3.3406	CROW	-0.2257
-4.3820	CROWD
-4.3820	CROWDED
-4.0810	CROWS
-4.3820	CRUEL
-4.3820	CRUMBLED
-3.7800	CRY
-3.7800	CRYING
-3.2681	CUB	-0.1051
-4.3820	CUCKOO
-4.0810	CUCUMBERS
-4.3820	CURD
-4.3820	CURIOSITY
-4.3820	CURIOUS
-3.9049	CURLY
-3.6039	CURLYLOCKS
-3.6039	CURRY
-4.3820	CURVED
-4.3820	CURVES
-4.3820	CUSHION
-3.5369	CUT
-4.3820	DAD
-4.3820	DADA
-4.0810	DANCE
-3.9049	DANCED
-4.0810	DANCING
-4.3820	DAPPLE
-3.9049	DARK
-4.3820	DARKNESS
-3.9049	DAUGHTER
-3.9049	DAWN
-2.5070	DAY	-0.1260
-4.3820	DAY'S
-4.3820	DAYDREAMING
-3.5369	DAYS	-0.1907
-3.5369	DEAD	-0.0752
-4.3820	DEAF
-3.4278	DEAR
-4.0810	DEARLY
-3.7800	DECIDE
-3.5369	DECIDED	-0.3941
-4.3820	DECLARE
-4.3820	DECLARED
-4.3820	DECORATED
-3.7800	DEEP
-3.9049	DEER
-4.3820	DEFECT
-4.3820	DEFENDED
-4.3820	DEFENDING
-4.3820	DELHI
-3.9049	DELICIOUS
-4.3820	DESCEND
-3.3406	DESERT	-0.0983
-4.3820	DESPERATION
-3.6039	DESTROY	-0.3583
-4.0810	DEW
-4.3820	DIAMETER
-2.9507	DID	-0.5183
-3.3820	DIDN'T	-0.1664
-4.0810	DIE
-4.0810	DIFFERENCE
-3.9049	DIFFERENT
-4.3820	DIFFICULT
-4.3820	DIFFICULTY
-4.3820	DIG
-3.4789	DING	-0.5667
-4.3820	DINING
-3.6830	DINNER
-4.0810	DIRTY
-4.0810	DISCOVERED
-4.3820	DISCUSSION
-4.3820	DISDAIN
-3.5369	DISH
-4.0810	DISHES
-4.0810	DISTANCE
-4.3820	DIVE
-2.5432	DO	-0.2136
-4.3820	DOCTOR
-3.3406	DOES	-0.2819
-3.7800	DOESN'T
-3.4278	DOG
-3.4789	DOING	-0.0746
-3.9049	DOLL
-2.9507	DON'T	-0.1830
-3.6830	DONE
-3.4789	DONG	-0.2836
-3.7800	DONKEY
-4.3820	DONKEYS
-3.2359	DONT	-0.0420
-3.7800	DOOPU
-3.2681	DOOR	-0.0455
-4.3820	DOORS
-3.9049	DOUBT
-2.6261	DOWN	-0.1602
-4.3820	DOWNWARD
-4.3820	DOWNWARDS
-4.3820	DOZEN
-4.3820	DOZING
-4.3820	DRANK
-3.5369	DRAW	-0.3468
-3.9049	DRAWING
-4.0810	DRAWN
-4.3820	DREAM
-3.9049	DREAMING	-0.4045
-3.7800	DRESS
-4.3820	DRESSED
-4.0810	DRESSES
-3.3028	DREW	-0.2276
-3.7800	DRINK
-3.9049	DRIP	-0.2028
-3.6830	DRIVER
-4.3820	DROP
-4.3820	DROPPED
-4.3820	DROVE
-4.3820	DRUM
-3.9049	DRY	-0.2028
-4.3820	DUCK
-4.3820	DUCKS
-3.9049	DUCKY	-0.1907
-4.3820	DUSK
-4.3820	DUSTY
-4.0810	D_O_L_L
-4.3820	E
-3.3406	EACH	-0.1313
-4.3820	EAGER
-4.3820	EAGERLY
-3.9049	EAR
-4.0810	EARLY
-4.3820	EARNED
-4.3820	EARS
-3.9049	EARTH
-4.3820	EASE
-4.0810	EASILY
-4.3820	EASY
-2.9049	EAT	-0.0367
-4.0810	EATING
-4.0810	EATS
-4.3820	ECHOED
-4.3820	EDUCATION
-4.3820	EFFORT
-4.0810	EGGS
-3.9049	EIGHT
-4.3820	EIGHTH
-3.7800	EIGHTY
-4.3820	EIGTHY
-3.9049	EITHER
-4.0810	ELDEST	-0.3562
-3.7800	ELEPHANT
-4.3820	ELEPHANT'S
-4.3820	ELEVATORS
-3.6039	ELSE
-4.0810	EMPTIED
-4.0810	END	-0.3525
-4.3820	ENDED
-4.3820	ENDS
-3.9049	ENGINE
-4.3820	ENGLAND
-4.0810	ENGLISH
-4.0810	ENJOY
-3.4278	ENORMOUS	-0.5667
-3.7800	ENOUGH
-4.0810	ENTERED
-4.3820	ENTIRELY
-4.3820	EQUALLY
-4.3820	ERASING
-3.9049	ESCAPE
-4.3820	ESSAY
-3.2359	EVEN	-0.0455
-3.4789	EVENING	-0.0873
-3.4278	EVER
-3.1267	EVERY	-0.1523
-3.7800	EVERYBODY
-4.3820	EVERYBODY'S
-4.0810	EVERYDAY
-3.2359	EVERYONE	-0.1674
-3.6830	EVERYTHING
-3.7800	EVERYWHERE
-4.3820	EXACTLY
-4.0810	EXAMINE
-4.3820	EXAMINERS
-4.3820	EXAMS
-4.3820	EXCEPT
-4.3820	EXCITED
-3.9049	EXCITEMENT
-3.7800	EXCLAIMED
-4.3820	EXHAUSTED
-4.3820	EXPECT
-4.3820	EXPECTED
-4.3820	EXPERIENCE
-4.3820	EXPERT
-4.3820	EXPLAIN
-4.3820	EXPLORE
-4.3820	EXTREMELY
-4.3820	EYE
-3.3820	EYES	-0.1424
-3.3406	FACE	-0.1523
-4.3820	FACED
-4.3820	FACES
-4.3820	FACTORY
-4.0810	FAIL
-3.9049	FAILED
-4.3820	FAIR
-4.0810	FAIRIES
-3.3406	FALL	-0.3533
-3.9049	FALLEN
-4.3820	FALLING
-3.9049	FALLS
-3.6830	FAMILY
-4.3820	FAMOUS
-3.3028	FAR	-0.4419
-4.3820	FARE
-3.9049	FARM
-3.6830	FARMER
-4.0810	FARMER'S
-4.3820	FARMERS
-3.3406	FAST	-0.1761
-4.0810	FASTER
-3.7800	FAT
-3.6830	FATHER	-0.1399
-4.3820	FATHER'S
-4.3820	FAVOURITE
-3.6830	FEAR
-4.3820	FEARFUL
-4.3820	FEARLESS
-3.6039	FEAST
-4.3820	FEATHER
-4.0810	FEATHERS
-4.3820	FED
-4.3820	FEED
-3.4789	FEEL
-4.3820	FEELERS
-4.3820	FEELING
-3.9049	FEELS
-3.2359	FEET	-0.0757
-3.3820	FELL	-0.0751
-4.3820	FELLOW
-3.6830	FELT	-0.1099
-4.0810	FENCE
-4.3820	FENCES
-4.3820	FEVER
-3.6830	FEW
-3.6830	FIELD
-3.9049	FIELDS
-4.3820	FIFTH
-4.3820	FILL
-3.9049	FILLED	-0.3326
-4.0810	FILLS
-4.3820	FINAL
-4.0810	FINALLY
-3.1033	FIND	-0.3019
-3.4789	FINE	-0.2639
-4.3820	FINGER
-4.0810	FINGERS
-3.9049	FINISH
-3.7800	FINISHED
-3.5369	FIR	-0.2637
-4.3820	FIRE
-4.3820	FIRM
-4.3820	FIRMLY
-3.3820	FIRST	-0.1099
-3.3820	FISH	-0.2473
-3.4789	FIVE	-0.1098
-4.3820	FIX
-4.3820	FIXED
-4.3820	FIZZ
-3.9049	FLAPPED
-3.7800	FLASH	-0.1425
-4.3820	FLASHED
-3.1267	FLEW	-0.1410
-4.0810	FLIES
-4.3820	FLOAT
-4.3820	FLOATED
-4.0810	FLOATING
-4.3820	FLOCK
-3.6830	FLOOR	-0.0979
-4.3820	FLOUNDERING
-3.5369	FLOWER
-3.2059	FLOWERS	-0.0303
-4.3820	FLUENT
-4.3820	FLUENTLY
-4.3820	FLURRY
-4.3820	FLUTTERED
-3.1516	FLY	-0.1639
-3.3406	FLYING	-0.0888
-4.3820	FOGG
-4.0810	FOLLOW
-4.3820	FOLLOWED
-3.1516	FOOD
-4.0810	FOOLISH
-4.3820	FOOLISHNESS
-3.4789	FOOT
-4.3820	FOOTHILLS
-3.6830	FOOTPRINT
-2.3734	FOR	-0.1735
-4.3820	FORCE
-4.3820	FORCED
-4.3820	FORE
-3.3820	FOREST	-0.0754
-4.3820	FORESTS
-4.3820	FOREVER
-4.0810	FORGET
-4.3820	FORGETS
-4.0810	FORGOT
-4.0810	FORGOTTEN
-4.3820	FORTNIGHT
-4.3820	FORTY
-3.7800	FORWARD
-3.3406	FOUND	-0.1292
-4.3820	FOUNDATION
-3.5369	FOUR
-4.3820	FOURSCORE
-4.3820	FOWL
-4.0810	FOXY
-4.3820	FRANSISCO
-4.3820	FRED
-4.3820	FREE
-4.3820	FREELY
-4.3820	FREIGHT
-4.3820	FRENCH
-4.3820	FREQUENTLY
-4.0810	FRESH
-4.3820	FRIDAYS
-3.5369	FRIEND	-0.0873
-3.0810	FRIENDS	-0.0377
-4.3820	FRIGHT
-4.3820	FRIGHTEN
-3.7800	FRIGHTENED
-4.3820	FRIGHTENING
-3.3820	FROG
-2.7485	FROM	-0.2462
-3.7800	FRONT
-4.3820	FROSTY
-4.3820	FROWNING
-4.0810	FRUIT
-4.3820	FRUITS
-3.4789	FULL	-0.3006
-3.2359	FUN	-0.0516
-4.3820	FUNNIEST
-3.1779	FUNNY	-0.1148
-4.3820	FUR
-3.9049	FURRY
-4.3820	FURTHER
-4.3820	FUSS
-3.5369	FUTURE	-0.3556
-3.9049	GADAAM	-0.4083
-4.3820	GALORE
-3.6830	GAME
-3.9049	GAMES
-4.3820	GAP
-3.2681	GARDEN	-0.1703
-4.3820	GARDENERS
-4.3820	GARDENHAPPY
-4.3820	GARLIC
-4.3820	GATE
-3.4789	GAVE	-0.0663
-4.3820	GAY
-4.3820	GAZE
-4.3820	GEAOMETRY
-3.3820	GEESE	-0.0610
-4.3820	GENEROUS
-4.0810	GENTLE
-4.3820	GENTLER
-4.3820	GENTLY
-4.3820	GEOMETRY
-2.9196	GET	-0.1721
-3.9049	GETS
-3.6830	GETTING
-4.3820	GHOSTS
-4.0810	GIANT
-4.0810	GIGGLE
-4.3820	GINGER
-3.3820	GIRAFFE	-0.0680
-3.9049	GIRAFFE'S
-3.2359	GIRL
-3.7800	GIRLS
-3.1779	GIVE	-0.2192
-4.3820	GIVEN
-4.3820	GIVES
-3.7800	GIVING
-3.7800	GLASS	-0.4079
-4.0810	GLASSES
-4.0810	GLEAMING
-4.3820	GLEE
-4.3820	GLISTENED
-4.3820	GLORY
-2.5369	GO	-0.2113
-4.0810	GOAL
-4.3820	GOAT
-4.0810	GOATS
-4.3820	GOBBLED
-4.3820	GOD
-3.6830	GOES
-2.7193	GOING	-0.4595
-3.6830	GOLD	-0.4832
-4.0810	GOLDEN
-3.2681	GONE	-0.1287
-4.0810	GONU
-4.0810	GONU'S
-2.9349	GOOD	-0.1826
-4.3820	GOODBYE
-3.6039	GOOPU
-3.9049	GOOSEY
-3.2681	GOT	-0.2246
-4.0810	GRAB	-0.3518
-4.3820	GRABBED
-3.9049	GRAIN
-4.3820	GRAN
-4.0810	GRAND
-4.0810	GRANDFATHER
-3.6039	GRANDMOTHER
-3.9049	GRANNY
-4.3820	GRANT
-4.3820	GRANTED
-3.6830	GRASS
-3.6039	GRASSHOPPER
-3.1779	GREAT
-4.0810	GREATEST
-3.1779	GREEN	-0.0824
-3.1267	GREW	-0.1393
-4.3820	GREY
-4.3820	GRINNED
-4.3820	GRIPPED
-4.3820	GRIZZLED
-3.7800	GROCER
-3.3820	GROUND
-4.3820	GROUP
-3.6039	GROW
-4.0810	GROWING
-3.9049	GROWN
-3.9049	GROWS
-4.0810	GRUFF
-4.3820	GRUMPY
-4.3820	GRUNT
-4.3820	GUARD'S
-3.9049	GUDOOM
-4.0810	GUESS
-4.3820	GUESTS
-4.3820	GUILIDANDA
-4.3820	GUN
-3.5369	HA	-0.1425
-2.5827	HAD	-0.0932
-4.3820	HAHAHAH
-3.4789	HAIR	-0.0775
-3.5369	HALDI
-3.4789	HALF	-0.1999
-4.3820	HALT
-4.3820	HALTED
-3.1516	HAND	-0.0938
-4.3820	HANDKERCHIEF
-4.3820	HANDLE
-3.6830	HANDS
-3.6830	HAPPENED	-0.1403
-4.0810	HAPPENING
-4.3820	HAPPENS
-4.3820	HAPPIER
-3.6039	HAPPILY
-4.3820	HAPPINESS
-2.9349	HAPPY	-0.0677
-3.0203	HARD	-0.2110
-3.6830	HARDER
-3.9049	HARDLY
-4.0810	HARDWORKING
-3.3406	HARI	-0.0570
-4.0810	HARI'S
-3.7800	HARM
-4.0810	HARSH
-3.2681	HAS	-0.0427
-4.3820	HASTILY
-3.9049	HAT
-4.3820	HATE
-4.0810	HATED
-4.3820	HATS
-4.3820	HAUL
-2.5967	HAVE	-0.1158
-4.0810	HAY
-1.8583	HE	-0.2658
-4.3820	HE'D
-4.3820	HE'LL
-3.9049	HE'S
-3.2359	HEAD	-0.1193
-4.3820	HEADED
-4.3820	HEADS
-4.3820	HEALTHY
-4.3820	HEAP
-3.6830	HEAR
-3.2681	HEARD
-3.6830	HEARING	-0.2642
-4.0810	HEARS
-4.0810	HEAT
-4.0810	HEAVILY
-4.3820	HEAVY
-4.3820	HEDGE
-3.4789	HEE	-0.3561
-3.6830	HEIGH	-0.4029
-3.3406	HELD	-0.0851
-3.2059	HELEN	-0.0456
-4.3820	HELEN'S
-3.0396	HELP	-0.1352
-4.3820	HELPLESS
-4.0810	HELPS
-3.9049	HEN
-3.9049	HENNY	-0.3563
-2.3608	HER	-0.1480
-4.0810	HERD
-3.3406	HERE
-4.3820	HERE'S
-4.0810	HERSELF
-3.9049	HEY
-3.7800	HIAWATHA
-4.3820	HIAWATHA'S
-4.0810	HID
-4.0810	HIDDEN
-4.0810	HIDE
-3.9049	HIDING
-3.2359	HIGH	-0.0499
-3.7800	HIGHER
-4.0810	HIGHEST
-3.6039	HILL
-4.0810	HILLS
-4.3820	HILLSIDE
-2.6417	HIM	-0.0323
-3.2681	HIMSELF	-0.1156
-4.3820	HIRE
-2.2002	HIS	-0.1825
-4.3820	HISTORY
-3.5369	HIT	-0.2340
-3.6830	HO	-0.1976
-4.3820	HOARSE
-4.3820	HOCKEY
-3.9049	HOLD
-3.9049	HOLDING
-4.3820	HOLDS
-4.3820	HOLE
-4.3820	HOLES
-4.3820	HOLIDAY
-4.3820	HOLY
-3.1779	HOME	-0.0970
-4.3820	HOMES
-4.3820	HOMEWORK
-4.3820	HONEYBEES
-4.3820	HOOK
-4.3820	HOOP
-3.6039	HOP
-4.3820	HOPPED
-4.3820	HOPPING
-4.3820	HOPS
-4.3820	HORROR
-3.2681	HORSE	-0.1193
-4.0810	HORSEMEN
-4.0810	HORSES
-4.3820	HOSTEL
-3.5369	HOT
-4.0810	HOTTER
-3.5369	HOUR
-3.7800	HOURS
-2.8505	HOUSE	-0.1217
-2.7008	HOW	-0.2440
-3.9049	HOWEVER
-4.3820	HU
-3.9049	HUFF	-0.3961
-3.9049	HUFFED	-0.3441
-4.3820	HUG
-3.6830	HUGE	-0.1410
-4.3820	HUGS
-4.0810	HUMP
-4.3820	HUMPED
-4.3820	HUMPH
-3.9049	HUNDRED
-4.0810	HUNDREDS
-3.3406	HUNGRY	-0.0734
-4.3820	HUNT
-4.0810	HUNTED
-3.4789	HUNTER	-0.0888
-4.3820	HUNTER'S
-4.3820	HUNTING
-4.0810	HURRIED
-3.3820	HURRY	-0.0775
-3.9049	HURT
-4.3820	HURTING
-4.3820	HUSBAND
-4.3820	HUSH
-1.7577	I	-0.4034
-3.6830	I'D
-3.3820	I'LL	-0.0892
-3.0810	I'M	-0.1141
-4.3820	I'VE
-3.9049	ICE	-0.3563
-4.3820	ICY
-3.7800	IDEA
-4.3820	IDLED
-4.3820	IDLING
-2.6744	IF	-0.2458
-3.6039	ILL	-0.3553
-4.3820	ILLNESS
-4.3820	IMAGINATION
-3.7800	IMAGINE
-4.3820	IMMEDIATELY
-4.3820	IMPATIENTLY
-3.9049	IMPORTANCE
-4.0810	IMPORTANT
-4.3820	IMPOSSIBLE
-4.3820	IMPROVING
-1.9893	IN	-0.4613
-4.3820	INCHES
-4.3820	INDEED
-4.3820	INDIAN
-3.7800	INDIANS
-4.3820	INDIGO
-4.3820	INFORM
-4.0810	INHABITANTS
-4.3820	INHABITED
-4.3820	INJURY
-4.3820	INSECTS
-3.3820	INSIDE
-4.3820	INSIST
-3.4278	INSTEAD	-0.1540
-4.3820	INTEREST
-4.3820	INTERESTING
-4.3820	INTERRUPTING
-4.3820	INTERRUPTION
-2.9049	INTO	-0.5750
-4.3820	INVESTIGATE
-4.3820	INVITED
-2.2002	IS	-0.1128
-4.0810	ISLAND
-4.0810	ISN'T
-1.9806	IT	-0.2165
-3.3406	IT'S
-2.9196	ITS	-0.0197
-4.3820	JAM
-3.9049	JANE
-4.0810	JAY
-4.3820	JERK
-4.3820	JINGLING
-4.3820	JOB
-3.9049	JOIN
-4.3820	JOLLY
-4.0810	JOURNEY
-3.3820	JOY
-4.3820	JOYFUL
-4.3820	JUDGE
-3.7800	JUMP
-3.4278	JUMPED	-0.2337
-4.3820	JUMPS
-4.3820	JUNE
-3.3406	JUNGLE	-0.1402
-2.8635	JUST	-0.1298
-4.3820	KA
-3.7800	KAA	-0.2652
-4.3820	KAAT
-4.3820	KABADDI
-4.3820	KAKAR
-3.6830	KALU
-4.3820	KALU'S
-4.3820	KAMEEZ
-4.3820	KANGAROO
-3.9049	KANGLEIPAK
-3.5369	KEEP	-0.3536
-3.9049	KEEPER
-4.3820	KEEPS
-4.3820	KELLER
-4.3820	KENNEL
-3.9049	KEPT	-0.2026
-4.0810	KERALA
-4.3820	KHONGNANG
-4.3820	KICKED
-3.9049	KILL	-0.3559
-3.9049	KILOMETRES	-0.3557
-3.5369	KIND	-0.0979
-2.8769	KING	-0.1603
-4.3820	KINGDOM
-4.3820	KISSED
-4.3820	KITCHEN
-3.4278	KITE
-3.6039	KITES	-0.1402
-4.0810	KNEES
-3.3820	KNEW	-0.0642
-4.3820	KNOCKED
-2.9507	KNOW	-0.1114
-3.6830	KNOWS
-4.3820	KOOZ
-4.3820	LACK
-4.3820	LADDER
-4.0810	LADDU
-3.7800	LADY	-0.1424
-4.3820	LADY'S
-4.3820	LAID
-4.3820	LAKE
-4.3820	LAKES
-3.6830	LALU
-4.3820	LALU'S
-3.4278	LAND	-0.0859
-4.3820	LANDED
-4.3820	LANE
-4.0810	LANGUAGE
-3.9049	LANGUAGES
-4.3820	LANGUR
-4.3820	LARGE
-3.7800	LARGER	-0.3560
-4.3820	LASHED
-4.3820	LASSES
-3.4278	LAST
-4.3820	LASTED
-3.6039	LATE
-3.5369	LATER
-3.7800	LAUGH
-3.9049	LAUGHED	-0.3545
-3.6039	LAUGHING
-4.3820	LAUGHS
-4.3820	LAUGHTER
-3.9049	LAW
-4.3820	LAWS
-3.5369	LAY	-0.1091
-4.3820	LAYS
-3.6039	LAZY	-0.1976
-4.0810	LEAD
-4.0810	LEAF
-4.3820	LEAFY
-4.3820	LEAP
-4.3820	LEAPED
-4.3820	LEAPS
-4.3820	LEAPT
-3.6039	LEARN
-3.6830	LEARNED
-4.3820	LEARNT
-3.7800	LEAVE
-3.0598	LEAVES	-0.0491
-4.3820	LED
-3.3820	LEFT
-3.7800	LEGS	-0.3961
-3.6830	LEIMA
-3.7800	LEND
-4.3820	LENGTH
-4.3820	LENT
-4.0810	LESS
-4.3820	LESSONS
-3.0396	LET	-0.1938
-3.6830	LET'S
-4.3820	LETS
-3.6830	LETTERS
-4.3820	LETTING
-4.3820	LEVEL
-4.3820	LIAR
-4.3820	LIBRARY
-4.3820	LICKING
-3.6830	LIE
-4.3820	LIES
-3.6039	LIFE
-4.3820	LIFTED
-4.0810	LIGHT
-4.3820	LIGHTNING
-4.3820	LIGHTS
-2.6918	LIKE	-0.1499
-3.6830	LIKED	-0.1337
-4.3820	LIKES
-4.0810	LIMB
-3.4278	LINE
-3.9049	LINES	-0.3537
-3.6830	LING
-3.1516	LION	-0.0614
-4.3820	LIPS
-4.3820	LIST
-3.7800	LISTEN
-4.0810	LISTENED
-2.4475	LITTLE	-0.1294
-3.7800	LIVE
-3.0598	LIVED	-0.2387
-4.3820	LIVES
-4.0810	LO
-4.0810	LOAD
-4.3820	LOADS
-3.9049	LOBSTER
-4.0810	LOBSTERS
-4.3820	LOCK
-4.0810	LOCKED
-3.9049	LOCKY
-4.3820	LODGES
-4.0810	LOG
-4.3820	LOLLS
-4.3820	LONELY
-2.8907	LONG	-0.1249
-3.4789	LONGER
-3.0598	LOOK	-0.1649
-2.8022	LOOKED	-0.5437
-3.6830	LOOKING	-0.1408
-3.6830	LOOKS
-4.3820	LOSING
-4.0810	LOST
-3.6830	LOT	-0.4045
-3.9049	LOTS	-0.3525
-3.9049	LOTUS
-3.4278	LOUD
-4.0810	LOUDER
-3.7800	LOUDLY
-3.2681	LOVE	-0.1992
-3.2359	LOVED	-0.0897
-3.6830	LOVELY
-4.3820	LOVING
-4.3820	LOVINGLY
-3.9049	LOW
-4.3820	LOWER
-4.3820	LUCK
-4.3820	LUCKILY
-3.4789	LUCKY	-0.1314
-3.5369	LUNCH
-4.3820	LYING
-4.0810	M	-0.3469
-3.6039	MA
-4.3820	MACHINES
-3.1516	MADE	-0.0688
-3.5369	MAGIC	-0.2933
-4.0810	MAGICIAN
-4.3820	MAGNET
-3.9049	MAHARAJA
-4.3820	MAIL
-4.3820	MAINLAND
-4.3820	MAJESTICALLY
-3.0203	MAKE	-0.2192
-3.6830	MAKES
-3.9049	MAKING
-3.4278	MALU
-4.0810	MALU'S
-3.6830	MAMA	-0.4080
-2.6660	MAN	-0.1160
-4.3820	MANAGES
-3.5369	MANGO	-0.1085
-3.9049	MANGOES
-4.3820	MANIPUR
-3.0598	MANY	-0.0691
-4.3820	MARBLE
-4.0810	MARBLES	-0.3441
-4.0810	MARIGOLD
-4.0810	MARIGOLDS
-4.3820	MARK
-4.3820	MARKED
-3.6830	MARKET
-4.0810	MARRIED
-3.7800	MASTER
-4.3820	MASTERED
-4.3820	MASTERY
-4.0810	MATCH
-3.6830	MATTER
-4.3820	MAXIMUM
-3.5369	MAY
-2.4135	ME	-0.1354
-4.3820	MEADOW
-4.3820	MEAN
-4.0810	MEANT
-4.3820	MEASURE
-4.0810	MEDICINE
-3.5369	MEENA
-3.9049	MEET
-4.0810	MEEYAM
-4.3820	MELA
-3.9049	MEN
-4.3820	MENTION
-4.3820	MERCY
-4.3820	MERRILY
-3.5369	MERRY	-0.2640
-4.3820	MESH
-4.3820	MESHES
-3.1516	MET	-0.1727
-4.3820	MICE
-3.3820	MIDDLE	-0.2896
-3.6830	MIGHT
-4.3820	MIGHTY
-3.9049	MILE
-4.0810	MILES
-4.3820	MILK
-3.6830	MILKMAN	-0.2026
-4.3820	MILKMAN'S
-4.3820	MILLI
-4.3820	MILLION
-3.9049	MIND	-0.3503
-4.3820	MINE
-4.3820	MINISTER
-4.0810	MINISTERS
-4.3820	MINUTES
-4.3820	MIRE
-3.9049	MIRROR	-0.3441
-4.3820	MISCHIEF
-3.6039	MISS	-0.3630
-4.3820	MISTAKEN
-4.3820	MISTAKING
-4.3820	MITE
-3.4278	MITTU	-0.1528
-4.3820	MIXED
-3.5369	MOHINI
-3.9049	MOM
-3.9049	MOMENT
-4.3820	MONDAYS
-3.6039	MONEY
-3.2359	MONKEY	-0.0849
-3.7800	MONSTER
-4.3820	MONSTERS
-4.0810	MONTHS
-3.7800	MONU
-3.9049	MONU'S
-4.3820	MOOD
-3.7800	MOON
-4.3820	MOONLIGHT
-2.9507	MORE	-0.0261
-2.9507	MORNING	-0.1008
-3.4789	MOSQUITO	-0.1098
-4.3820	MOSSY
-3.4789	MOST
-2.5559	MOTHER	-0.0752
-3.7800	MOTHER'S
-4.3820	MOTION
-4.3820	MOUNDS
-4.0810	MOUNTAIN
-3.3820	MOUNTAINS
-4.0810	MOUNTED
-3.4278	MOUSE
-4.3820	MOUSTACHE
-3.5369	MOUTH
-4.0810	MOUTHS
-3.6039	MOVE
-4.3820	MOVED
-4.0810	MOVING
-3.7800	MR
-3.2681	MUCH	-0.0461
-3.6830	MUMBAI
-4.3820	MUMMY
-3.4278	MUNNA
-4.3820	MUNNA'S
-4.3820	MURALI
-4.3820	MURALI'S
-4.3820	MUSCLES
-3.7800	MUSIC
-3.9049	MUSICIAN
-4.0810	MUSICIANS
-3.1516	MUST	-0.0960
-4.0810	MUTTERED
-4.3820	MUTTERS
-2.2647	MY	-0.1659
-4.3820	MYNA
-3.7800	MYSELF
-4.3820	MYSTERY
-3.3820	NAME	-0.1927
-3.6039	NAMED
-3.9049	NAMES
-4.3820	NARRATING
-3.2681	NARRATOR	-0.0340
-4.3820	NASHI
-3.2681	NASRUDDIN	-0.0375
-4.3820	NATIVE
-4.3820	NATURALLY
-4.3820	NATURED
-4.3820	NAUGHTIER
-3.9049	NAUGHTY
-3.1033	NEAR	-0.1024
-4.0810	NEARED
-4.3820	NEARLY
-4.3820	NEATH
-3.6830	NECK
-4.3820	NECKS
-3.6039	NEED
-4.0810	NEEDLE
-4.0810	NEEDLES
-3.1033	NEHA	-0.0653
-3.9049	NEHA'S
-3.9049	NEIGHBOUR
-4.3820	NEITHER
-3.7800	NEST
-4.0810	NESTS
-3.6039	NET
-3.0396	NEVER
-3.4789	NEW	-0.1313
-4.3820	NEWSPAPER
-3.1267	NEXT	-0.2251
-3.5369	NICE
-3.0810	NIGHT	-0.0453
-3.3406	NINA
-3.7800	NINAS
-4.3820	NINE
-4.3820	NINEPINS
-3.4278	NINGTHOU	-0.2242
-4.3820	NINTH
-4.3820	NIPPED
-2.5967	NO	-0.0999
-4.3820	NOBLE
-3.3406	NOBODY
-4.0810	NOBODY'S
-3.6830	NOISE
-4.0810	NOKOMIS
-4.3820	NON
-4.3820	NONE
-4.0810	NOON
-4.3820	NOONDAY
-4.0810	NOR
-3.4789	NOSE	-0.1575
-2.3734	NOT	-0.0418
-3.2681	NOTHING	-0.0755
-4.3820	NOTICE
-4.3820	NOTICED
-2.6186	NOW	-0.0718
-4.0810	NOWHERE
-4.3820	NUMBER
-4.3820	NUT
-4.0810	O
-4.3820	O'CLOCK
-4.3820	OAK
-4.3820	OBEYED
-4.3820	OBSERVED
-3.9049	OCEAN
-4.3820	OCTOPUS
-4.3820	ODD
-2.0557	OF	-0.2469
-3.0203	OFF	-0.1626
-4.3820	OFFER
-3.5369	OFTEN	-0.0895
-2.9049	OH	-0.1353
-4.0810	OIL
-2.7099	OLD	-0.4107
-3.9049	OLDER
-2.2177	ON	-0.3699
-2.9841	ONCE	-0.2575
-2.4043	ONE	-0.2699
-4.0810	ONES
-3.0018	ONLY	-0.0309
-4.3820	OOH
-3.6039	OOO	-0.2652
-3.6830	OPEN
-3.7800	OPENED
-4.3820	OPENS
-4.3820	OPINION
-4.3820	OPINIONS
-2.7800	OR	-0.0468
-4.0810	ORANGE
-4.0810	ORDER
-3.6039	ORDERED
-3.0598	OTHER	-0.0511
-3.7800	OTHERS
-4.3820	OUCH
-3.2059	OUR
-2.5559	OUT	-0.2003
-3.9049	OUTSIDE
-3.0018	OVER	-0.3073
-4.3820	OVERCOME
-4.3820	OVERTAKE
-3.4278	OWN
-4.3820	OX
-4.3820	PACIFIC
-3.9049	PADDED
-4.0810	PADDLING	-0.3562
-3.9049	PAGES
-4.3820	PAIL
-3.7800	PAIN
-4.0810	PAINT
-4.3820	PALACE
-4.3820	PANSIES
-4.3820	PANTS
-3.6039	PAPA	-0.4833
-4.0810	PAPER
-3.7800	PARENTS
-4.0810	PARROT
-3.6830	PART	-0.4045
-4.3820	PARTING
-4.3820	PARTS
-3.6830	PASS
-3.4278	PASSED
-4.3820	PASSENGER
-3.7800	PASSENGERS	-0.2017
-3.9049	PASSEPARTOUT
-4.3820	PASSES
-4.0810	PASSING
-4.0810	PAST
-4.3820	PASTE
-4.3820	PATH
-3.7800	PATIENCE
-4.3820	PATIENT
-4.3820	PATIENTLY
-3.9049	PAW	-0.3326
-4.3820	PAWS
-4.3820	PAY
-4.0810	PEACE
-3.7800	PEACH	-0.7929
-3.7800	PEAS
-4.3820	PEBBLES
-4.3820	PECKED
-4.3820	PECKING
-3.6039	PEELU
-4.3820	PEEPED
-3.5369	PENCIL	-0.3439
-4.3820	PENGUINS
-3.9049	PENNY
-2.6918	PEOPLE	-0.1883
-4.3820	PERFECTLY
-3.9049	PERHAPS
-4.3820	PERSON
-4.3820	PET
-4.3820	PHEASANT
-4.3820	PHILEAS
-3.3820	PIA	-0.4046
-3.3406	PIANO	-0.2370
-3.4789	PICKED	-0.1989
-4.3820	PICNIC
-4.3820	PICTURE
-3.9049	PICTURES
-4.0810	PIECE
-3.7800	PIECES
-4.3820	PIERCED
-4.0810	PIG
-4.3820	PIGS
-4.0810	PILLOW
-4.3820	PIN
-4.3820	PINCER
-4.3820	PINCERS
-3.9049	PINCH
-4.0810	PINCHED
-4.3820	PINCHER
-4.0810	PINCHING
-4.3820	PINE
-4.0810	PINK
-3.6039	PINOCCHIO
-4.3820	PINOCCHIO'S
-4.3820	PISTOL
-3.7800	PITTAPITTA
-4.3820	PITY
-3.6039	PLACE	-0.1096
-3.6830	PLACED
-4.3820	PLAIN
-4.0810	PLAINS	-0.3559
-4.3820	PLANE
-4.3820	PLANNED
-3.6830	PLANT
-4.3820	PLANTED
-4.3820	PLATE
-2.8907	PLAY	-0.1738
-3.9049	PLAYED
-4.3820	PLAYFULLY
-4.0810	PLAYGROUND
-3.4789	PLAYING
-4.3820	PLEADED
-4.3820	PLEASANTLY
-3.4789	PLEASE	-0.0892
-4.3820	PLEASED
-4.3820	PLEASEI
-4.3820	PLEASES
-4.3820	PLEASURE
-3.4789	PLIP	-0.4889
-4.3820	PLUCK
-4.3820	PLUCKED
-4.3820	PLUMP
-4.3820	PLUS
-4.3820	POEMS
-4.3820	POINT
-4.3820	POINTED
-4.0810	POINTING
-4.3820	POLAR
-3.6830	POLICEMAN	-0.1907
-4.0810	POND
-4.0810	PONY
-3.5369	POOL
-3.6830	POOR
-3.9049	POOSEY	-0.3563
-3.9049	POP
-4.3820	POPPIES
-4.3820	POPPY
-3.1516	PORRIDGE
-4.0810	POSSIBLE
-4.3820	POSTMAN
-3.1033	POT	-0.0943
-4.0810	POTATOES
-4.0810	POUNCED
-4.3820	POURED
-4.3820	POURS
-4.3820	PRAWNS
-3.6830	PRAYED	-0.2005
-4.3820	PRECIOUS
-4.3820	PREFER
-4.3820	PREFERRING
-4.3820	PREPARATIONS
-3.9049	PREPARED
-4.3820	PRETEND
-3.6039	PRETTY
-3.9049	PRICK
-4.0810	PRICKED
-4.3820	PRICKER
-4.3820	PRICKING
-4.3820	PRIDE
-4.0810	PRINT
-4.3820	PRINTS
-3.9049	PROBLEM
-4.3820	PROCEED
-4.3820	PROCESSION
-4.3820	PROPERLY
-4.3820	PROTECTION
-3.9049	PROUD
-4.0810	PROUDLY
-4.3820	PROVED
-3.7800	PUFF	-0.1907
-3.9049	PUFFED	-0.1907
-4.3820	PUFFING
-3.5369	PULL	-0.4008
-3.1779	PULLED	-0.3917
-4.3820	PULLING
-4.0810	PULLS	-0.3547
-4.3820	PUNCTUALITY
-3.7800	PUNDIT
-3.7800	PUNDIT'S
-4.3820	PUNISHMENT
-4.0810	PUPPET
-3.6830	PUPPY	-0.1409
-4.3820	PUPS
-4.3820	PURPLE
-4.3820	PURRING
-3.2359	PUT	-0.0740
-4.3820	PUTS
-4.0810	PUZZLED
-4.0810	QUACK
-3.4789	QUEEN
-4.0810	QUEER
-4.3820	QUESTION
-4.3820	QUICK
-3.5369	QUICKLY
-3.4278	QUIET	-0.0680
-3.9049	QUIETLY
-4.3820	QUIT
-4.0810	QUITE
-4.3820	R
-4.0810	RABBIT
-3.9049	RACE
-4.3820	RACED
-4.3820	RACES
-4.3820	RACING
-4.3820	RADISHES
-4.3820	RAGING
-3.9049	RAILWAY
-3.6039	RAIN
-3.7800	RAINBOW
-4.3820	RAINBOWS
-4.3820	RAINDROPS
-4.3820	RAINED
-4.0810	RAINING
-3.9049	RAINS
-4.3820	RAINY
-4.3820	RAISE
-4.3820	RAISING
-3.0018	RAN	-0.2620
-4.3820	RATHER
-4.0810	RAZOR
-4.0810	REACH
-3.3028	REACHED	-0.0890
-4.3820	REACHING
-3.2059	READ	-0.1782
-4.3820	READING
-3.6039	READY	-0.1337
-3.9049	REAL
-4.3820	REALISE
-3.9049	REALISED	-0.3540
-3.3028	REALLY
-4.3820	REAP
-4.3820	REAPERS
-4.0810	REAPING
-4.3820	REASON
-4.3820	RECOGNISED
-3.0598	RED	-0.0406
-4.3820	REFUSED
-4.3820	REINDEER
-4.0810	RELAX
-4.3820	RELAY
-4.3820	RELIEF
-4.3820	REMAINED
-4.3820	REMARKED
-4.3820	REMARKS
-4.0810	REMEMBER
-3.9049	REMEMBERED
-4.3820	REMINDS
-4.3820	REMOVE
-4.3820	REMOVED
-4.3820	REPEATING
-3.3406	REPLIED	-0.1824
-4.3820	REQUIRED
-3.6039	REST	-0.3525
-4.0810	RESTING	-0.3537
-4.3820	RESTLESS
-4.0810	RESULTS
-4.3820	RETURN
-3.9049	RETURNED
-4.3820	RETURNING
-4.3820	REVERSED
-4.3820	REVOLVERS
-4.3820	REWARD
-4.3820	RICH
-4.3820	RID
-3.9049	RIDE
-4.3820	RIDER
-4.3820	RIDERS
-4.0810	RIDING
-4.3820	RIFLES
-3.3028	RIGHT
-3.9049	RING
-4.3820	RINGING
-4.3820	RINGS
-3.2059	RIP	-0.1673
-4.3820	RIP'S
-4.3820	RIPE
-4.3820	RISING
-3.2359	RIVER	-0.0800
-3.9049	RIVERS
-3.4789	ROAD
-4.3820	ROADS
-3.5369	ROAR	-0.1012
-4.3820	ROARED
-4.3820	ROARING
-4.3820	ROARS
-4.0810	ROBIN	-0.3559
-4.3820	ROCK
-3.9049	ROCKY
-3.6830	RODE
-3.7800	ROLL	-0.1425
-3.9049	ROLLED	-0.2018
-3.6039	ROOM	-0.1907
-4.3820	ROOT
-4.0810	ROOTS
-4.3820	ROPE
-3.6830	ROSE
-4.0810	ROSES
-3.1033	ROUND	-0.1827
-4.3820	ROW
-4.3820	ROWING
-4.0810	RUB
-4.3820	RUBBED
-4.3820	RUDE
-4.3820	RULER
-2.9670	RUN	-0.0683
-3.6039	RUNNING
-3.9049	RUSH	-0.3474
-4.3820	RUSHING
-4.3820	SACK
-4.3820	SACKS
-3.4789	SAD
-4.0810	SAFE
-2.2002	SAID	-0.2356
-4.0810	SAIL
-3.9049	SAILED
-4.3820	SAILING
-4.3820	SALT
-4.3820	SALWAR
-4.3820	SAMBHAR
-3.6830	SAME
-4.3820	SAN
-3.7800	SANAJAOBA
-4.3820	SANATOMBA
-3.7800	SANATOMBI
-4.0810	SANAYAIMA
-3.4789	SAND	-0.3485
-4.3820	SANDS
-4.3820	SANDWICHES
-3.9049	SANDY
-3.7800	SANG
-4.3820	SANK
-4.3820	SANTHAL
-3.1779	SAT	-0.2952
-4.3820	SATISFY
-4.3820	SATURDAYS
-4.3820	SAVAGES
-2.8257	SAW	-0.3981
-2.9670	SAY	-0.1103
-3.7800	SAYING	-0.4072
-3.1033	SAYS	-0.2918
-4.3820	SCARE
-4.3820	SCARY
-4.3820	SCHACABAC
-2.9507	SCHOOL	-0.0746
-4.3820	SCHOOLMASTER
-4.3820	SCOLD
-4.3820	SCOLDED
-4.3820	SCOLDING
-4.3820	SCOTLAND
-4.3820	SCRAPED
-3.9049	SCRAPS
-4.0810	SCREAMED
-3.4278	SEA
-4.3820	SEALS
-4.3820	SEARCH
-4.3820	SEARCHING
-4.0810	SEAS
-4.0810	SEASIDE
-3.9049	SECOND
-4.3820	SECONDLY
-4.3820	SECRET
-4.0810	SECRETS	-0.3555
-2.7485	SEE	-0.1090
-4.0810	SEED
-3.9049	SEEDS	-0.3560
-4.0810	SEEING
-4.3820	SEEK
-4.3820	SEEM
-4.3820	SEEMED
-4.3820	SEEMS
-3.4789	SEEN
-3.7800	SEES
-4.0810	SELECT
-4.3820	SELL
-4.0810	SEND
-4.0810	SENT
-4.3820	SENTENCE
-4.3820	SEPARATED
-4.3820	SEPARATELY
-4.3820	SERIOUS
-4.3820	SERVED
-4.0810	SET
-3.7800	SEVEN
-4.0810	SEVERAL
-4.3820	SHA
-3.9049	SHADE
-4.3820	SHADY
-3.6830	SHAKE	-0.1425
-3.5369	SHALL
-4.3820	SHAN'T
-4.3820	SHAPE
-4.3820	SHAPES
-3.7800	SHARE
-3.9049	SHAVE
-3.7800	SHAVED
-3.6830	SHAVING	-0.1189
-3.6039	SHAY	-0.4835
-2.2886	SHE	-0.2158
-4.3820	SHE'S
-4.3820	SHEAF
-4.3820	SHEEP
-3.9049	SHELL
-4.3820	SHELTER
-4.3820	SHELVES
-3.9049	SHETTY
-4.3820	SHINE
-4.3820	SHINES
-3.7800	SHINING
-4.3820	SHINY
-3.6039	SHIP	-0.1388
-4.3820	SHIPS
-4.3820	SHIRK
-4.3820	SHIRTS
-4.0810	SHOCKED
-3.6830	SHOE
-3.6830	SHOES	-0.1304
-3.9049	SHONE
-4.3820	SHOOED
-3.5369	SHOOK	-0.0875
-3.5369	SHOOT
-4.0810	SHOOTS
-3.5369	SHOP
-3.7800	SHORE
-3.7800	SHORT
-3.9049	SHORTER
-4.0810	SHOT
-4.0810	SHOTS
-3.0018	SHOULD	-0.2900
-4.3820	SHOULDER
-3.9049	SHOUT
-3.3820	SHOUTED	-0.0654
-4.3820	SHOUTS
-3.6830	SHOW
-4.0810	SHOWED
-4.3820	SHOWER
-4.3820	SHOWING
-4.3820	SHOWS
-4.3820	SHRIEKED
-4.3820	SHRILL
-4.3820	SHRIMPS
-4.3820	SHUDDERED
-4.3820	SHUT
-4.3820	SICK
-3.6830	SIDE
-4.3820	SIDES
-4.3820	SIDEWAYS
-4.3820	SIGHING
-3.9049	SIGHT
-4.3820	SIGNALMAN
-4.3820	SIGNS
-3.9049	SILENCE
-3.9049	SILENT
-4.3820	SILENTLY
-4.3820	SILL
-4.0810	SILLY
-4.3820	SIMPLE
-3.9049	SIMPLY
-3.9049	SINCE
-3.5369	SING
-3.6830	SINGING	-0.1304
-4.3820	SINGLE
-4.3820	SINGLY
-4.3820	SINK
-4.3820	SINKS
-4.3820	SIOUX
-4.3820	SIPPED
-3.4278	SIT	-0.0644
-3.7800	SITTASITTA	-0.3563
-3.6830	SITTING
-3.4789	SIX
-4.3820	SIXTH
-4.3820	SIXTY
-3.6830	SIZE	-0.2025
-4.0810	SKILL
-4.3820	SKINNY
-3.1516	SKY	-0.1763
-4.3820	SLAMMED
-3.6039	SLEEP
-3.9049	SLEEPING
-4.0810	SLEEPS
-3.9049	SLEEPY	-0.3561
-4.3820	SLENDER
-3.6830	SLEPT
-4.0810	SLIPPED
-4.3820	SLOPES
-3.9049	SLOW
-4.3820	SLOWED
-3.4278	SLOWLY	-0.0864
-4.3820	SLOWS
-3.0203	SMALL	-0.0650
-4.3820	SMALLEST
-4.0810	SMART
-4.3820	SMELL
-3.5369	SMILE
-3.5369	SMILED	-0.2010
-3.7800	SMILES
-4.3820	SMILEY
-3.7800	SMILING
-4.3820	SNAIL
-4.3820	SNATCHED
-4.3820	SNORES
-4.0810	SNOW
-4.3820	SNOWING
-4.3820	SNUGGLES
-2.5432	SO	-0.1475
-4.3820	SOAK
-4.3820	SOAKED
-3.9049	SOFT
-4.3820	SOFTLY
-4.3820	SOLDIERS
-4.3820	SOLVE
-2.8257	SOME	-0.1300
-3.4789	SOMEBODY
-3.5369	SOMEONE	-0.1100
-3.3820	SOMETHING
-3.5369	SOMETIMES	-0.1906
-4.3820	SOMEWHERE
-3.6830	SON
-3.6830	SONG	-0.1990
-3.9049	SONGS
-4.0810	SONS
-3.1516	SONU	-0.0697
-3.7800	SONU'S
-3.1516	SOON	-0.1937
-4.3820	SOONER
-3.3820	SORRY	-0.0559
-4.3820	SOUL
-3.9049	SOUND
-4.3820	SOUNDED
-4.3820	SOUNDS
-4.0810	SPACE
-4.0810	SPARE
-3.3820	SPARROWS	-0.0652
-3.6039	SPEAK
-4.3820	SPEAKS
-4.0810	SPEAR
-3.9049	SPECIAL
-4.3820	SPEECH
-4.3820	SPEECHES
-4.0810	SPEED
-4.3820	SPEEDING
-4.3820	SPELLS
-3.7800	SPELT
-3.9049	SPIDER
-3.9049	SPIDER'S
-4.3820	SPIDERS
-4.3820	SPILLING
-3.6039	SPLASH
-4.3820	SPLASHING
-3.9049	SPOKE
-4.3820	SPOONFULS
-4.3820	SPOTS
-4.3820	SPRANG
-3.7800	SPREAD
-4.3820	SPRING
-4.3820	SQUARE
-4.0810	SQUEAKED	-0.3326
-4.3820	SQUIRREL
-4.3820	SQUIRRELS
-4.3820	STALKS
-4.3820	STAMPED
-3.9049	STAND
-4.3820	STANDING
-4.3820	STARE
-3.5369	STARED	-0.3828
-4.3820	STARES
-4.3820	STARING
-3.7800	STARS
-3.9049	START
-3.3406	STARTED	-0.0668
-4.0810	STARTS
-4.3820	STARVE
-4.0810	STATION
-3.9049	STAY
-3.6830	STAYED	-0.1415
-4.0810	STAYS
-4.3820	STEADILY
-4.0810	STEAL
-4.3820	STEAMED
-3.9049	STEEP
-4.3820	STEP
-4.0810	STEPS
-4.3820	STERNLY
-4.3820	STICK
-4.3820	STICKING
-4.0810	STICKS
-4.3820	STIFF
-3.4278	STILL
-4.3820	STOLE
-3.9049	STOMACH
-4.0810	STONE
-3.4789	STOOD	-0.0712
-3.0203	STOP	-0.0697
-3.3406	STOPPED
-3.6830	STORE
-4.3820	STORED
-4.3820	STORES
-3.7800	STORIES
-4.3820	STORING
-4.0810	STORM
-3.9049	STORY
-4.0810	STRAIGHT
-4.0810	STRANGE
-4.3820	STRANGER
-3.6830	STRAW
-4.3820	STRAWBERRY
-4.3820	STREAMING
-4.3820	STREET
-4.0810	STREETS
-4.0810	STRENGTH
-4.3820	STRETCH
-4.3820	STRETCHED
-4.3820	STRETCHES
-4.3820	STRICT
-3.9049	STRING
-3.9049	STRIPES
-4.3820	STRIPS
-4.3820	STROKE
-4.3820	STROKED
-4.3820	STROKING
-3.3406	STRONG
-3.9049	STRONGER
-4.0810	STRUCK
-4.3820	STRUGGLED
-4.0810	STRUNG
-4.3820	STRUTTING
-3.9049	STUCK
-4.3820	STUDIED
-4.3820	STUDIES
-3.6830	STUDY	-0.1332
-4.0810	STUDYING
-3.9049	STUMP
-4.3820	STUPID
-4.3820	STY
-4.0810	SUBJECT
-4.3820	SUBWAY
-4.3820	SUCCESSFUL
-3.9049	SUCH
-4.3820	SUDDEN
-3.3028	SUDDENLY	-0.1597
-4.3820	SUGARCANE
-3.9049	SULLIVAN
-3.1516	SULTAN	-0.0871
-4.3820	SULTAN'S
-3.5369	SUMMER
-4.3820	SUMMER'S
-2.9507	SUN	-0.0378
-3.5369	SUNDARI
-4.3820	SUNDAY
-4.0810	SUNFLOWER
-4.3820	SUNFLOWERS
-4.3820	SUNLIGHT
-3.9049	SUNNY
-3.6830	SUNSHINE
-3.1779	SUNU	-0.2087
-4.3820	SUPPORT
-4.3820	SUPPOSE
-4.3820	SURE
-4.0810	SURELY
-3.6830	SURPRISE
-3.6039	SURPRISED	-0.1304
-4.3820	SURROUNDED
-4.3820	SURVEY
-4.3820	SUSPENSION
-4.0810	SWAM
-3.9049	SWAY	-0.2028
-3.6830	SWEET
-4.0810	SWEETS
-4.3820	SWIFTLY
-3.7800	SWIM
-4.0810	SWIMMING
-3.6830	SWING	-0.3556
-4.3820	SWINGING
-4.3820	SWINGS
-4.3820	SWUM
-3.6830	TABLE
-3.5369	TAIL	-0.3440
-4.3820	TAILOR
-3.1779	TAKE	-0.0866
-3.9049	TAKEN
-4.3820	TAKES
-4.3820	TAKING
-4.3820	TALES
-3.9049	TALK
-3.7800	TALKED
-4.3820	TALKER
-4.3820	TALKERS
-3.4278	TALKING
-3.6830	TALL
-3.5369	TARA
-3.4789	TARGET	-0.1193
-4.3820	TASTED
-4.0810	TASTY
-4.0810	TAUGHT
-4.3820	TAXIS
-3.6039	TEACHER
-3.9049	TEAM	-0.4080
-4.3820	TEAR
-3.6039	TEARS	-0.0896
-4.3820	TEASE
-4.0810	TEETH
-3.0810	TELL	-0.3093
-4.0810	TELLING
-4.3820	TELLS
-4.3820	TELUGU
-4.3820	TEMPTING
-3.7800	TEN
-4.3820	TENDER
-4.3820	TERROR
-4.3820	TEST
-4.3820	TEXTBOOKS
-3.1779	THAN
-3.7800	THANK	-0.1980
-3.6039	THANKFUL	-0.3522
-2.2748	THAT	-0.2366
-3.3820	THAT'S
-1.2748	THE	-0.3217
-2.8138	THEIR	-0.0805
-4.3820	THEIRS
-2.5308	THEM	-0.0910
-3.6039	THEMSELVES	-0.1381
-2.6417	THEN	-0.1511
-2.3997	THERE	-0.4690
-3.9049	THERE'S	-0.3469
-3.4278	THESE
-2.2614	THEY	-0.2011
-4.3820	THEY'LL
-4.0810	THEY'RE
-4.3820	THEYRE
-3.6039	THICK	-0.2531
-4.3820	THIN
-3.9049	THING
-3.1033	THINGS	-0.0708
-3.0203	THINK	-0.1636
-3.9049	THINKING
-3.7800	THINKS
-4.0810	THIRSTY
-4.3820	THIRTY
-2.5896	THIS	-0.0722
-3.7800	THORNS	-0.1421
-4.3820	THORNY
-3.4278	THOSE
-3.7800	THOUGH
-3.3028	THOUGHT
-4.3820	THOUGHTS
-3.9049	THOUSAND
-4.3820	THOUSANDS
-4.3820	THREAD
-3.0598	THREE	-0.0597
-3.9049	THREW
-4.3820	THRILLED
-4.3820	THRONE
-3.2359	THROUGH	-0.1939
-3.9049	THROW
-4.0810	THROWN
-4.3820	THROWS
-4.3820	THUMB
-3.9049	THUNDER
-4.3820	THURSDAYS
-4.3820	TICKLED
-4.3820	TICKLING
-4.3820	TIED
-2.8505	TIGER	-0.2010
-4.3820	TIGER'S
-3.9049	TIGHT
-3.9049	TIGHTLY
-3.3820	TILL	-0.0893
-2.8022	TIME	-0.0828
-3.4278	TIMES
-4.3820	TIMID
-4.0810	TINIEST
-3.3406	TINY	-0.1961
-4.3820	TIP
-3.5369	TIRED
-1.6927	TO	-0.3595
-3.3028	TODAY
-4.3820	TOES
-4.3820	TOFFEE
-3.4278	TOGETHER	-0.0733
-3.2359	TOLD	-0.1730
-3.9049	TOMORROW
-3.5369	TONGUE
-2.7485	TOO	-0.0860
-3.2359	TOOK	-0.1066
-4.3820	TOOTHLESS
-3.4789	TOP	-0.0775
-4.3820	TOPIC
-4.3820	TOPPED
-3.7800	TOPSY	-0.7944
-4.0810	TOUCH
-4.3820	TOUCHED
-3.3820	TOWARDS	-0.1824
-4.3820	TOWN
-3.9049	TRACKS
-4.3820	TRADITIONAL
-2.9196	TRAIN	-0.0775
-4.0810	TRAINS
-3.5369	TRAMP	-0.1976
-4.3820	TRAPPED
-4.3820	TRAVANCORE
-4.0810	TRAVEL
-4.3820	TRAVELLED
-4.3820	TRAVELLERS
-4.3820	TREAT
-2.4375	TREE	-0.2173
-4.3820	TREE'S
-3.3028	TREES	-0.0578
-4.3820	TREMBLING
-4.3820	TREMENDOUS
-4.3820	TRIANGLES
-4.3820	TRIBE
-4.0810	TRICK	-0.3503
-4.3820	TRICYCLE
-3.6039	TRIED	-0.1888
-4.3820	TRIES
-3.6830	TRING	-0.3989
-4.3820	TRIP
-4.0810	TRIUMPHANTLY
-4.3820	TROUBLES
-3.4789	TRUE
-4.3820	TRUMPET
-4.3820	TRUNDLING
-3.2059	TRUNK	-0.1844
-4.0810	TRUTH
-3.3406	TRY	-0.1426
-4.3820	TRYING
-4.0810	TU
-4.3820	TUESDAYS
-3.9049	TUG
-3.6830	TUGGED	-0.7823
-4.3820	TUNE
-4.0810	TUNGGI	-0.3562
-4.3820	TUNNELS
-3.6830	TURN	-0.1990
-3.3406	TURNED	-0.1783
-3.3028	TURNIP	-0.2962
-4.3820	TURTLE
-3.7800	TURVY	-0.3562
-4.0810	TWELVE	-0.3561
-3.7800	TWENTY
-4.3820	TWIRLED
-4.3820	TWIRLING
-4.3820	TWISTED
-4.3820	TWITCHED
-3.0203	TWO	-0.1162
-4.3820	UH
-3.9049	UL
-4.3820	UMBRELLA
-4.0810	UMBRELLAS
-4.0810	UNABLE	-0.3474
-3.2681	UNDER	-0.3759
-4.3820	UNDERNEATH
-3.6830	UNDERSTAND
-4.3820	UNDERSTANDING
-4.0810	UNDERSTOOD	-0.3540
-4.3820	UNFAIROH
-4.0810	UNHAPPY
-4.3820	UNISON
-4.3820	UNSEEN
-3.7800	UNTIL
-2.2851	UP	-0.2619
-3.3406	UPON
-4.3820	UPROOTED
-3.9049	UPSET
-4.3820	URGED
-2.9670	US	-0.0230
-3.7800	USE
-4.0810	USED
-4.3820	USEFUL
-4.3820	V
-4.0810	VAIN
-3.7800	VAN	-0.3563
-4.3820	VANILLA
-3.6039	VEGETABLE	-0.2643
-4.0810	VEGETABLES
-2.6918	VERY	-0.1302
-4.3820	VESSELS
-4.3820	VI
-4.3820	VIEW
-3.2681	VILLAGE
-4.3820	VILLAGERS
-4.3820	VIOLET
-3.9049	VISIT
-4.0810	VISITED
-4.3820	VISITING
-3.2359	VOICE	-0.0575
-4.3820	VOLLEYBALL
-3.9049	WAIT
-4.3820	WAITED
-4.3820	WAITING
-3.1779	WAKE	-0.5646
-4.3820	WAKES
-4.0810	WAKING
-3.4278	WALK	-0.0756
-3.3820	WALKED	-0.2314
-3.3406	WALKING	-0.1659
-4.3820	WALKS
-3.9049	WALL
-4.3820	WALLOP
-4.0810	WAND
-4.3820	WANDERED
-2.8907	WANT	-0.5310
-3.4789	WANTED	-0.3473
-3.6039	WANTS	-0.3994
-3.9049	WARM
-4.3820	WARN
-4.3820	WARNING
-4.3820	WARS
-1.9411	WAS	-0.2236
-4.3820	WASH
-4.0810	WASHED
-4.3820	WASHERMAN
-3.5369	WASN'T	-0.1418
-3.7800	WASTE
-4.3820	WASTING
-3.6830	WATCH	-0.2017
-3.7800	WATCHED
-4.3820	WATCHING
-2.9507	WATER	-0.1019
-4.3820	WATERED
-4.0810	WATERING
-4.3820	WATERS
-4.3820	WATERSIDE
-3.0598	WAY	-0.0970
-2.5247	WE	-0.2610
-3.7800	WE'LL	-0.1418
-4.3820	WEAK
-4.3820	WEAR
-3.7800	WEB
-4.3820	WEBS
-3.6830	WEDDING	-0.1077
-4.3820	WEDNESDAYS
-4.0810	WEE
-4.3820	WEEDS
-3.9049	WEEK
-4.3820	WEEKS
-4.3820	WEIGHT
-4.3820	WEIGHTY
-4.0810	WELCOME
-3.1516	WELL
-2.6577	WENT	-0.3084
-4.0810	WEPT
-2.5308	WERE	-0.0707
-3.6830	WET
-2.5432	WHAT	-0.2168
-4.0810	WHAT'S
-4.3820	WHATEVER
-4.3820	WHEAT
-4.3820	WHEEE
-4.3820	WHEEL
-2.4955	WHEN	-0.3531
-4.0810	WHENE'ER	-0.3503
-4.0810	WHENEVER
-2.9349	WHERE	-0.1875
-4.3820	WHEREVER
-4.3820	WHETHER
-3.1516	WHICH	-0.1211
-4.3820	WHICHEVER
-3.6039	WHILE
-4.0810	WHIPPED
-4.3820	WHISKERS
-4.0810	WHISPERED
-4.0810	WHISTLE
-4.3820	WHISTLED
-4.3820	WHISTLES
-3.3820	WHITE
-4.0810	WHIZZ
-2.8379	WHO	-0.1484
-4.0810	WHO'S
-4.3820	WHOEVER
-3.6039	WHOLE
-4.3820	WHOM
-4.3820	WHOOOO
-4.3820	WHOOOOOO
-4.3820	WHOOPED
-4.3820	WHOOSH
-2.8379	WHY	-0.0590
-4.3820	WHY'S
-4.3820	WHYOUT
-3.7800	WIDE	-0.2028
-3.5369	WIFE
-4.3820	WIG
-4.3820	WIGGLES
-4.3820	WIGWAM
-3.7800	WILD
-2.4789	WILL	-0.2464
-3.2681	WIND	-0.0572
-4.0810	WINDING
-3.6039	WINDOW
-4.3820	WINDS
-3.5369	WINGS
-3.7800	WINKLE
-3.6830	WINTER
-4.0810	WIPE
-4.3820	WIPING
-4.3820	WIRES
-4.3820	WISDOM
-3.4789	WISE
-3.2681	WISH	-0.1443
-4.3820	WISHED
-4.0810	WISHES
-4.3820	WIT
-2.2957	WITH	-0.3155
-4.3820	WITHIN
-3.6830	WITHOUT
-3.6830	WOKE	-0.2006
-3.4789	WOLF	-0.1305
-3.3406	WOMAN
-4.3820	WON
-3.9049	WON'T
-3.5369	WONDER	-0.3553
-3.9049	WONDERED
-3.5369	WONDERFUL
-4.3820	WONDERINGLY
-4.3820	WONDERS
-3.9049	WOOD
-4.0810	WOODEN
-4.3820	WOODS
-3.6039	WORD
-3.7800	WORDS
-4.3820	WORE
-3.1516	WORK	-0.0653
-4.0810	WORKED
-3.4789	WORLD
-4.0810	WORM
-4.3820	WORRIEDLY
-3.9049	WORRY
-4.0810	WORTHY	-0.3525
-2.7288	WOULD	-0.1919
-3.4278	WOULDN'T	-0.0896
-4.0810	WOW
-4.0810	WOXY
-3.9049	WRESTLER
-4.3820	WRIGGLE
-4.3820	WRIGGLED
-4.3820	WRINKLED
-4.3820	WRINKLES
-3.9049	WRITE
-4.3820	WRITES
-4.3820	WRITING
-4.3820	WRITTEN
-3.6039	WRONG	-0.1189
-4.3820	WWE
-4.0810	W_A_T_E_R
-4.3820	Y
-4.3820	YARD
-4.3820	YEAH
-3.6830	YEAR
-4.3820	YEAR'S
-3.2359	YEARS	-0.1189
-4.0810	YELLED
-3.3406	YELLOW	-0.0653
-3.4278	YES	-0.3624
-4.3820	YESTERDAY
-3.9049	YET
-4.3820	YORK
-1.9539	YOU	-0.2107
-3.9049	YOU'D
-3.6039	YOU'LL	-0.1090
-3.7800	YOU'RE
-4.0810	YOU'VE
-3.4278	YOUNG	-0.1092
-4.0810	YOUNGEST
-2.8769	YOUR	-0.1079
-3.9049	YOURSELF
-4.0810	YUMMY
-4.0810	ZAG
-3.9049	ZEBRA
-4.0810	ZIG	-0.3563
-4.0810	ZIGZAG
-4.0810	ZOO
-3.6039	ZZZAK	-0.4835

\2-grams:
-2.4900	A BALLOON
-1.4251	A BIG
-2.4900	A BOAT
-2.0130	A BOOK
-2.4900	A BOY
-2.4900	A BRIGHT
-2.4900	A CAT
-2.4900	A CIRCLE
-2.4900	A CONTEST
-2.2770	A DESERT
-2.4900	A DOG
-2.4900	A DONKEY
-2.4900	A DOOR
-2.2770	A FEW
-2.2770	A FOOT
-2.4900	A FOREST
-2.4900	A FUNNY
-2.4900	A GIANT
-2.4900	A GIRAFFE
-2.4900	A GIRL
-2.0130	A GOOD
-2.4900	A GREAT
-2.4900	A GREEN
-2.4900	A HORSE
-1.8642	A HOUSE
-2.4900	A HUGE
-2.4900	A KITE
-2.0130	A LADY
-2.4900	A LIE
-2.4900	A LING
-1.2838	A LITTLE
-2.0130	A LONG
-2.0130	A LOT
-2.2770	A LOUD
-2.4900	A LOVELY
-2.4900	A LOW
-2.4900	A MAGIC
-2.4900	A MAN
-2.2770	A MILE
-2.4900	A MOMENT
-2.4900	A MONSTER
-2.2770	A MUSICIAN
-2.4900	A NAUGHTY
-2.4900	A NICE
-2.4900	A PLANT
-2.4900	A PRETTY
-2.4900	A SHORT
-2.0586	A SMALL
-2.2770	A SONG
-2.4900	A SPARROWS
-2.4900	A STONE
-2.4900	A STRANGE
-2.4900	A TIGER
-2.2770	A TIME
-2.0130	A TINY
-1.8642	A TREE
-2.0130	A VERY
-2.4900	A VOICE
-2.4900	A WEEK
-2.4900	A WHILE
-2.4900	A WONDERFUL
-2.4900	A WORD
-1.2062	ABOUT A
-1.2062	ABOUT JUST
-1.2062	ABOUT THE
-0.5530	ACROSS A
-0.5530	ACROSS THE
-0.9923	AFTER A
-0.8164	AGAIN AND
-1.2934	AGAIN HE
-0.7960	AIM I
-0.1729	ALARM CLOCK
-1.3547	ALL AROUND
-1.8318	ALL DAY
-1.8318	ALL HE
-1.6188	ALL OF
-1.4003	ALL OVER
-1.6188	ALL SAID
-0.5586	ALL THE
-1.8318	ALL THEIR
-1.8318	ALL THEY
-1.8318	ALL WELL
-1.8318	ALL YOUR
-0.5830	ALONG CAME
-0.9923	ALSO HAPPY
-1.4695	AM GOING
-1.4695	AM IT
-1.4695	AM LUCKY
-0.9924	AM SORRY
-1.2565	AM THE
-0.9924	AM TOO
-1.1851	AN APPLE
-1.1851	AN ARROW
-1.3981	AN ELEPHANT
-0.9211	AN HOUR
-0.7394	AN OLD
-1.9973	AND A
-2.6230	AND ADDED
-1.7690	AND ALL
-2.4100	AND ATE
-2.6230	AND BE
-2.6230	AND BEFORE
-2.6230	AND BEGAN
-2.6230	AND BIRDS
-2.6230	AND BLUE
-2.6230	AND CLIMB
-2.4100	AND DOWN
-2.6230	AND EIGHTY
-2.6230	AND FLY
-2.4100	AND GO
-1.5582	AND HE
-2.6230	AND HELD
-2.6230	AND HELP
-2.1460	AND HIS
-2.6230	AND HOW
-1.5260	AND I
-2.6230	AND IF
-2.6230	AND IN
-1.9643	AND IT
-2.6230	AND KILL
-2.1460	AND LEIMA
-2.6230	AND LITTLE
-2.6230	AND MADE
-2.4100	AND MY
-2.6230	AND NIGHT
-2.4100	AND NOW
-2.1916	AND OFF
-2.1460	AND ON
-2.6230	AND PLACED
-2.1460	AND PLAY
-2.1460	AND PRAYED
-2.4100	AND PUFF
-2.4100	AND PULLED
-2.6230	AND PUT
-2.1460	AND QUEEN
-2.6230	AND RAN
-2.6230	AND READ
-2.4100	AND ROUND
-1.9973	AND SAID
-2.4100	AND SAT
-1.9973	AND SAW
-2.6230	AND SAY
-2.6230	AND SHOOT
-2.6230	AND SHOT
-2.6230	AND SMALL
-2.6230	AND SO
-1.9643	AND SOME
-2.6230	AND STARED
-2.6230	AND STILL
-2.4100	AND THAT
-1.1158	AND THE
-2.4100	AND THEN
-2.1916	AND THEY
-2.6230	AND TO
-2.6230	AND TREE
-2.1460	AND TUGGED
-2.6230	AND TURNED
-2.1916	AND WE
-2.6230	AND WENT
-1.9643	AND WHEN
-2.6230	AND WHY
-2.6230	AND WISH
-2.1916	AND YOU
-0.5531	ANIMALS AND
-0.8171	ANIMALS IN
-0.7291	ANYTHING TO
-0.0760	ANYWHERE THAT
-0.7291	APPU CAME
-1.4539	ARE ABOUT
-1.6670	ARE FUN
-1.6670	ARE SMALL
-0.6368	ARE YOU
-0.5530	ARMS AROUND
-1.1270	AROUND FOR
-1.1270	AROUND THE
-1.2935	AS A
-1.3391	AS FAST
-0.8195	AS HE
-1.7705	AS HIGH
-0.9165	AS I
-1.7705	AS SHE
-1.2935	AS SOON
-1.1447	AS THE
-1.5575	AS THEY
-0.2520	ASHAMED TO
-0.6335	ASKED THE
-1.5704	AT ALL
-1.5704	AT HIM
-1.7835	AT IT
-1.3064	AT LAST
-1.7835	AT MY
-1.5704	AT NIGHT
-1.7835	AT ONCE
-1.5704	AT ONE
-1.5704	AT THAT
-0.4175	AT THE
-1.7835	AT US
-0.7291	ATE THE
-1.3400	AWAY AND
-1.5530	AWAY BUT
-1.5530	AWAY FOR
-1.5530	AWAY FROM
-1.5530	AWAY HE
-1.5530	AWAY I
-1.3400	AWAY IN
-0.6990	AWAY THE
-0.4281	BABA WOULD
-0.6922	BABY BEAR
-0.9052	BABY SPARROWS
-1.3127	BACK AND
-1.3127	BACK I
-1.3127	BACK IN
-1.3127	BACK TO
-0.5161	BAMBOO DOOR
-0.2520	BANK TO
-1.5088	BE A
-1.7218	BE AND
-1.7218	BE BROUGHT
-1.7218	BE CAREFUL
-1.7218	BE FRIENDS
-1.7218	BE LATE
-1.7218	BE ME
-1.7218	BE SHAVED
-1.7218	BE SO
-1.2904	BE THANKFUL
-1.0649	BEAR AND
-0.8519	BEAR FAMILY
-0.8519	BEAR IN
-0.6922	BECAUSE HE
-0.6922	BECAUSE I
-0.2520	BECOMING A
-1.1551	BED FOR
-0.9421	BED WAS
-0.6499	BEEN PREPARED
-0.9052	BEFORE ANYONE
-0.6922	BEFORE THE
-0.2283	BEGAN TO
-0.2520	BEGIN TO
-0.6499	BEHIND ME
-0.6499	BEHIND THE
-0.2520	BELLS ARE
-0.5153	BHAIYA I
-1.2820	BIG AND
-1.4950	BIG BED
-1.4950	BIG BOWL
-1.2820	BIG TIGER
-0.9421	BIRDS AND
-1.1551	BIRDS THE
-0.4281	BLACK AND
-0.8540	BLOW BLOW
-0.8540	BLOW YOUR
-0.6499	BLUE SKY
-0.7960	BOAT THE
-0.4281	BOILED IT
-0.9509	BOOK I
-0.9509	BOOK WITH
-0.8519	BOOKS ARE
-0.3400	BOOM BOOMDI
-0.2521	BOOMDI BOOM
-0.7291	BOOMDI BOOMDI
-0.4281	BOTHER ME
-0.2520	BOUNCE MY
-0.8540	BOW AND
-0.3400	BOWL IT
-1.1359	BOY AND
-1.3489	BOY CAME
-1.3489	BOY COME
-1.3489	BOY I
-1.3489	BOY THE
-1.1359	BOY WAS
-1.3489	BOY WHO
-0.8540	BRANCHES SPREAD
-0.9509	BRIGHT AND
-0.6499	BROUGHT IN
-0.5530	BUNNY I'M
-1.9100	BUT A
-1.9100	BUT ALL
-1.2513	BUT HE
-1.0048	BUT I
-1.6970	BUT IF
-1.4330	BUT IT
-1.9100	BUT NOBODY
-1.9100	BUT ONE
-1.2842	BUT SHE
-1.4330	BUT THAT
-0.9590	BUT THE
-1.4330	BUT THERE
-1.6970	BUT THEY
-1.9100	BUT YOU
-1.0971	BUTTERFLY FLEW
-1.0971	BUTTERFLY GO
-0.5530	BUY THE
-1.5072	BY AND
-1.5072	BY DAY
-1.2942	BY HE
-1.5072	BY HIMSELF
-1.5072	BY HIS
-1.2942	BY LITTLE
-1.5072	BY ONE
-0.5563	BY THE
-0.7793	CALLED OUT
-0.7793	CALLED THE
-1.4824	CAME A
-1.4824	CAME ALONG
-1.0054	CAME BACK
-1.4824	CAME CLOSER
-1.4824	CAME THE
-0.3854	CAME TO
-1.4861	CAN DO
-1.6991	CAN I
-1.6991	CAN IT
-1.6991	CAN MAKE
-1.6991	CAN PLAY
-1.6991	CAN RUN
-1.6991	CAN WE
-0.6021	CAN YOU
-0.9923	CAN'T GO
-0.9923	CAN'T YOU
-0.6499	CARRIED THEM
-0.5530	CATCH IT
-0.5013	CAW CAW
-1.1270	CAW GO
-0.6500	CAW SAYS
-1.1270	CAW WAKE
-0.3646	CHATTER CHATTER
-0.4369	CHEEP CHEEP
-1.2520	CHILDREN WERE
-0.2520	CHIN AND
-0.1383	CHIRRUP CHIRRUP
-0.7793	CHIRRUP SAY
-0.5530	CITY AND
-0.6922	CLIMB UP
-0.9509	CLIMBED DOWN
-0.5195	CLIMBED UP
-0.6499	CLOSER TO
-0.4281	COCONUT OIL
-0.6499	COLD WINTER
-1.4133	COME AND
-1.4133	COME IN
-1.2003	COME TO
-0.9363	COME TOO
-0.9363	COME WITH
-0.8519	COOK POT
-1.0649	COOK THE
-0.5530	COOL DOWN
-0.5530	CORN AND
-1.0972	COULD BE
-1.5742	COULD FIND
-0.4771	COULD NOT
-1.5742	COULD RUN
-1.5742	COULD SAY
-1.5742	COULD SEE
-1.5742	COULD THINK
-0.7960	COW WAS
-0.7960	COW WASN'T
-0.8171	CRIED OUT
-1.0301	CRIED THE
-0.4281	CROSS THE
-0.6922	CROW CAW
-0.6922	CROW WAKE
-0.9509	CUB POUNCED
-0.9509	CUB WAS
-1.4369	DAY A
-1.1729	DAY ALONG
-1.6499	DAY AND
-1.6499	DAY HER
-1.6499	DAY IT
-1.6499	DAY LONG
-1.0241	DAY THE
-1.4369	DAY WHEN
-1.6499	DAY WITH
-0.4281	DAYS AND
-0.7960	DEAD BIRDS
-0.2185	DECIDED TO
-0.6922	DESERT LION
-0.6499	DESTROY IT
-0.4369	DESTROY THE
-0.2109	DID NOT
-1.0649	DID YOU
-0.7960	DIDN'T HIT
-0.7960	DIDN'T LIKE
-0.1373	DING DONG
-1.6670	DO IF
-1.6670	DO IT
-1.0412	DO NOT
-1.4539	DO THAT
-1.6670	DO THE
-1.6670	DO WHAT
-0.6368	DO YOU
-0.3190	DOES NOT
-0.7960	DOING THIS
-1.2062	DON'T BE
-1.2062	DON'T KNOW
-1.2062	DON'T PRICK
-0.7748	DON'T YOU
-0.3190	DONG DING
-1.0301	DONT WANT
-0.9052	DOOR AND
-1.0877	DOWN AND
-1.5191	DOWN AT
-1.3061	DOWN BY
-1.5191	DOWN SO
-1.5191	DOWN SONU
-1.0877	DOWN THE
-1.0877	DOWN TO
-0.2521	DRAW A
-0.2151	DREAMING OF
-0.5830	DREW A
-0.7960	DREW THREE
-0.4281	DRIP DRIP
-0.4281	DRY DRY
-0.4281	DUCKY AND
-0.5830	EACH FINE
-1.3127	EAT HE
-1.3127	EAT ME
-1.3127	EAT THE
-0.2520	ELDEST SON
-0.2520	END OF
-0.1373	ENORMOUS TURNIP
-0.9923	EVEN THIS
-0.7291	EVENING THEY
-0.6500	EVERY DAY
-1.1270	EVERY NIGHT
-1.0301	EVERYONE IN
-1.0301	EVERYONE IS
-0.8171	EVERYONE WAS
-0.7960	EYES THE
-0.7960	EYES WERE
-0.6922	FACE AND
-0.9052	FACE I
-0.8540	FALL FALL
-0.3770	FALL SAID
-0.3190	FAR AWAY
-0.7960	FAR FAR
-0.4738	FAST AS
-0.5530	FATHER IS
-0.7960	FEET ABOVE
-0.7960	FELL INTO
-0.6499	FELT SORRY
-0.2520	FILLED THE
-0.8519	FIND A
-0.8519	FIND OUT
-0.5879	FIND THE
-0.3400	FINE DAY
-0.3400	FIR TREE
-0.6499	FIRST LINE
-0.6499	FISH HE
-0.6499	FISH IN
-0.6499	FIVE YEARS
-0.5530	FLASH FLASH
-1.0971	FLEW AWAY
-1.0971	FLEW DOWN
-1.0971	FLEW OFF
-1.0971	FLEW THE
-0.6499	FLOOR AND
-1.0301	FLOWERS AND
-0.7960	FLY AWAY
-0.7960	FLY MY
-0.7291	FLYING MAN
-0.7853	FOR A
-1.7363	FOR HER
-1.7363	FOR HIM
-1.7363	FOR MAMA
-1.7363	FOR MY
-1.7363	FOR PAPA
-1.7363	FOR SCHOOL
-1.2593	FOR THE
-1.7363	FOR THEIR
-1.3048	FOR YOU
-0.7960	FOREST CAMEL
-0.5830	FOUND THAT
-0.7291	FRIEND BUT
-0.9923	FRIENDS TO
-1.2934	FROM FAR
-1.2934	FROM ONE
-0.4393	FROM THE
-0.2977	FULL OF
-0.9052	FUN HE
-0.6335	FUNNY BUNNY
-0.5530	FUTURE KING
-0.5530	FUTURE QUEEN
-0.2151	GADAAM GUDOOM
-0.9509	GARDEN EACH
-0.9509	GARDEN WAS
-0.9509	GARDEN WITH
-0.7960	GAVE A
-0.8540	GEESE IN
-1.2732	GET SOME
-0.6474	GET UP
-1.2732	GET WET
-0.7960	GIRAFFE I
-0.9509	GIVE HIM
-0.7379	GIVE ME
-0.9509	GIVE YOU
-0.2151	GLASS LEAVES
-1.6499	GO AND
-1.4369	GO AWAY
-1.6499	GO NEAR
-1.4369	GO ON
-1.1729	GO OUT
-1.6499	GO PEOPLE
-1.4369	GO ROUND
-0.7447	GO TO
-1.4561	GOING ANYWHERE
-0.2041	GOING TO
-0.1729	GOLD LEAVES
-0.8540	GONE TO
-0.8540	GONE YOU
-1.1814	GOOD IDEA
-0.5556	GOOD MORNING
-0.8540	GOT A
-0.8540	GOT TALKING
-0.8540	GOT UP
-0.2520	GRAB IT
-1.1270	GREEN AND
-0.9140	GREEN LEAVES
-1.0301	GREW INTO
-1.0301	GREW LONGER
-1.0301	GREW ON
-0.5530	HA HA
-1.1106	HAD A
-1.3290	HAD BEEN
-1.3290	HAD GONE
-1.5420	HAD SOME
-1.5420	HAD TO
-0.7291	HAIR AND
-0.7291	HALF AN
-0.7291	HALF MY
-0.9923	HAND IN
-0.9923	HAND INTO
-0.5530	HAPPENED THAT
-0.9932	HAPPY I
-1.2062	HAPPY THAT
-1.2732	HARD AND
-1.2732	HARD MAN
-1.0602	HARD THAT
-0.6474	HARD TO
-0.9052	HARI SAW
-0.9509	HAS TO
-1.3714	HAVE A
-1.5844	HAVE ALL
-1.3714	HAVE NO
-1.3714	HAVE NOT
-1.5844	HAVE PASSED
-1.5844	HAVE THE
-0.9586	HAVE TO
-2.3220	HE ALSO
-2.1090	HE ALWAYS
-2.3220	HE ASKED
-2.3220	HE CALLED
-2.3220	HE CAME
-2.1090	HE CLIMBED
-1.3711	HE COULD
-2.3220	HE DID
-2.1090	HE DIDN'T
-2.3220	HE DOES
-2.3220	HE FILLS
-2.1090	HE FLEW
-2.1090	HE FOUND
-1.6962	HE HAD
-2.3220	HE HEARD
-2.1090	HE HUFFED
-2.3220	HE IS
-1.6633	HE LOOKED
-2.1090	HE LOVED
-2.1090	HE MET
-2.1090	HE NEVER
-2.3220	HE ONLY
-2.3220	HE PUFFED
-2.3220	HE PUT
-2.1090	HE RAN
-2.1090	HE REACHED
-1.2571	HE SAID
-1.6962	HE SAW
-2.1090	HE SAYS
-2.3220	HE SET
-2.3220	HE SLOWLY
-2.3220	HE SPOKE
-2.3220	HE THEN
-2.3220	HE THREW
-2.3220	HE TOLD
-2.3220	HE TOO
-2.1090	HE TOOK
-2.3220	HE TURNED
-2.3220	HE WALKED
-1.0286	HE WAS
-1.8906	HE WENT
-2.3220	HE WONDERED
-1.8906	HE WOULD
-2.3220	HE WOULDN'T
-0.5830	HEAD AND
-0.3400	HEARING THIS
-0.2521	HEE HEE
-0.2185	HEIGH HO
-0.7291	HELD IT
-0.9923	HELEN COULD
-1.1551	HELP HER
-1.1551	HELP OF
-1.1551	HELP THE
-0.9421	HELP YOU
-0.2520	HENNY PENNY
-1.8202	HER A
-1.8202	HER HANDS
-1.8202	HER HELEN
-1.8202	HER IN
-0.9150	HER MOTHER
-1.8202	HER MOTHER'S
-1.8202	HER NAME
-1.6072	HER PARENTS
-1.6072	HER SHE
-1.8202	HER TAIL
-1.8202	HER TEACHER
-1.3887	HER TO
-0.9509	HIGH AS
-1.5637	HIM HEE
-1.5637	HIM TAKE
-1.3507	HIM THE
-1.5637	HIM WITH
-1.0301	HIMSELF FROM
-0.8171	HIMSELF HE
-1.9680	HIS BIG
-1.9680	HIS CART
-1.9680	HIS CHEEKS
-1.7550	HIS COAT
-1.4910	HIS EYES
-1.4910	HIS FACE
-1.4910	HIS FRIENDS
-1.9680	HIS HAND
-1.9680	HIS HORSE
-1.9680	HIS HOUSE
-1.9680	HIS KITE
-1.9680	HIS LITTLE
-1.9680	HIS LUNCH
-1.3422	HIS MOTHER
-1.9680	HIS MOUTH
-1.9680	HIS NOSE
-1.9680	HIS OWN
-1.9680	HIS SHOES
-1.9680	HIS TAIL
-1.4910	HIS VILLAGE
-1.9680	HIS WIFE
-0.6499	HIT RIGHT
-0.6499	HIT THE
-0.4369	HO HEIGH
-0.9923	HOME AGAIN
-0.9923	HOME WHEN
-0.5830	HORSE AND
-1.1529	HOUSE AND
-1.1529	HOUSE DOWN
-1.1529	HOUSE HE
-1.1529	HOUSE OF
-1.3659	HOUSE THE
-1.0180	HOW CAN
-1.4950	HOW DID
-1.2820	HOW DO
-1.4950	HOW FUNNY
-1.2820	HOW HAPPY
-1.2820	HOW IT
-1.4950	HOW MUCH
-1.2820	HOW THE
-1.2820	HOW TO
-1.4950	HOW WILL
-0.2151	HUFF AND
-0.2520	HUFFED AND
-0.5530	HUGE TREE
-0.7960	HUNGRY SHE
-0.7291	HUNTER CAME
-0.7291	HURRY AND
-2.4088	I ALSO
-0.9665	I AM
-2.1958	I BOUNCE
-2.4088	I CAME
-1.3118	I CAN
-1.7830	I CAN'T
-1.7830	I COULD
-2.4088	I DID
-1.9318	I DO
-1.9318	I DON'T
-2.4088	I DONT
-2.4088	I EAT
-2.1958	I FEEL
-2.1958	I FLY
-2.4088	I GO
-1.9774	I HAD
-1.3439	I HAVE
-2.1958	I I
-2.1958	I JUST
-2.1958	I KNOW
-2.4088	I LAY
-2.4088	I LISTENED
-2.4088	I LOOKED
-1.9318	I LOVE
-2.4088	I MET
-1.9318	I MUST
-2.4088	I NEED
-2.4088	I OFTEN
-2.1958	I PLAY
-2.1958	I RAN
-2.4088	I SAID
-2.4088	I SEE
-1.9318	I THINK
-2.4088	I THOUGHT
-1.3787	I WANT
-1.7501	I WAS
-1.9318	I WENT
-1.5548	I WERE
-1.1569	I WILL
-1.9774	I WISH
-1.9318	I WONDER
-1.4579	I WOULD
-0.7291	I'LL GET
-0.6335	I'M GOING
-0.2520	ICE CREAM
-1.4695	IF HE
-0.6154	IF I
-1.2565	IF MY
-1.4695	IF THE
-1.4695	IF WE
-1.0380	IF YOU
-0.2521	ILL COME
-0.8777	IN A
-2.1711	IN ANGER
-1.1062	IN HIS
-2.1711	IN ITS
-2.1711	IN LAW
-1.7396	IN MY
-2.1711	IN PAIN
-2.1711	IN SIGHT
-2.1711	IN SILENCE
-2.1711	IN SURPRISE
-0.4006	IN THE
-1.9580	IN TOPSY
-0.5161	INSTEAD OF
-1.0602	INTO A
-0.1761	INTO THE
-1.1422	IS A
-1.9963	IS AT
-1.9963	IS DEAD
-1.9963	IS DONE
-1.7833	IS GOING
-1.9963	IS IT
-1.5193	IS MY
-1.7833	IS NO
-1.5193	IS SO
-1.9963	IS SOMEONE
-1.7833	IS THAT
-1.5648	IS THE
-1.9963	IS THIS
-1.3376	IS VERY
-2.2062	IT A
-1.9932	IT ALL
-2.2062	IT AND
-2.2062	IT AS
-1.7292	IT BEGAN
-1.9932	IT COULD
-2.2062	IT DO
-2.2062	IT FLEW
-1.7292	IT HAD
-2.2062	IT I
-1.0248	IT IS
-2.2062	IT LOOKED
-2.2062	IT NOW
-2.2062	IT REALLY
-1.9932	IT SAID
-1.9932	IT SAT
-1.7292	IT SO
-2.2062	IT SONU
-1.9932	IT THE
-1.7292	IT TO
-0.7112	IT WAS
-2.2062	IT WENT
-1.7748	IT WILL
-1.9932	IT WITH
-2.2062	IT WOULD
-1.3489	ITS YELLOW
-0.7960	JUMPED DOWN
-0.5830	JUMPED ON
-0.8540	JUNGLE KEPT
-0.8540	JUNGLE THAT
-1.3823	JUST AS
-1.3823	JUST LIKE
-1.3823	JUST ONE
-1.3823	JUST RIGHT
-1.1693	JUST THINK
-1.3823	JUST YOU
-0.3400	KAA KAA
-0.2521	KEEP ON
-0.4281	KEPT FAR
-0.2520	KILL US
-0.2520	KILOMETRES AN
-0.6499	KIND AND
-0.8205	KING AND
-1.2520	KING ILL
-1.2520	KING OF
-1.2520	KING SAID
-1.2520	KING THE
-0.5530	KITES BUT
-0.8540	KNEW WHAT
-0.9140	KNOW HOW
-1.1270	KNOW THE
-1.1270	KNOW WHAT
-0.5530	LADY FROG
-0.7291	LAND OF
-0.2520	LARGER THAN
-0.2520	LAUGHED AT
-0.6499	LAY DOWN
-0.4369	LAZY GRASSHOPPER
-1.2062	LEAVES I
-1.2062	LEAVES LIKE
-0.2151	LEGS AND
-1.0971	LET ANYONE
-1.0971	LET ME
-0.8841	LET US
-1.0971	LET YOU
-1.0380	LIKE A
-1.4695	LIKE MY
-0.9924	LIKE THE
-1.4695	LIKE THUNDER
-0.9924	LIKE TO
-0.5530	LIKED TO
-0.2520	LINES ON
-1.1270	LION I
-1.1270	LION NO
-1.5088	LITTLE BIRD
-1.7218	LITTLE BOWL
-1.5088	LITTLE BOY
-1.7218	LITTLE BY
-1.7218	LITTLE FISH
-1.2448	LITTLE GIRL
-1.0631	LITTLE MONKEY
-0.5609	LIVED A
-0.7793	LIVED IN
-1.0167	LONG AGO
-1.2297	LONG NECK
-1.0167	LONG TIME
-0.4964	LOOK AT
-0.8889	LOOKED AROUND
-0.4607	LOOKED AT
-1.3659	LOOKED DOWN
-1.1529	LOOKED SAD
-0.8889	LOOKED UP
-0.5530	LOOKING FOR
-0.2151	LOT OF
-0.2520	LOTS OF
-0.9509	LOVE THE
-0.5195	LOVE TO
-0.6922	LOVED TO
-0.5830	LUCKY DUCKY
-0.2520	M A
-1.0649	MADE A
-1.0649	MADE OF
-0.5161	MAGIC GARDEN
-0.7291	MAGIC WAND
-0.7500	MAKE A
-1.1814	MAKE CURRY
-1.1814	MAKE HIM
-0.9684	MAKE IT
-0.2151	MAMA BEAR
-1.2820	MAN AND
-1.2820	MAN AS
-1.0180	MAN I
-1.4950	MAN IN
-1.2820	MAN SAID
-0.6499	MANGO TREE
-1.1270	MANY PEOPLE
-1.1270	MANY YEARS
-0.2520	MARBLES AND
-1.7433	ME A
-1.1176	ME AND
-1.7433	ME FROM
-1.3119	ME I
-1.7433	ME NOT
-1.7433	ME ON
-1.7433	ME OR
-1.7433	ME SAID
-1.7433	ME SOME
-1.5303	ME TO
-1.7433	ME UP
-1.2663	ME WHAT
-0.3400	MERRY GO
-0.5879	MET A
-1.0649	MET THEM
-0.5161	MIDDLE OF
-0.7291	MIDDLE SIZE
-0.4281	MILKMAN PULLED
-0.2520	MIND HE
-0.2520	MIRROR AND
-0.6499	MISS SULLIVAN
-0.4369	MISS THE
-0.5161	MITTU WAS
-0.7379	MONKEY IS
-1.2297	MORE THAN
-1.0804	MORNING I
-1.2934	MORNING IT
-0.8619	MORNING THE
-0.6499	MOSQUITO FLEW
-1.6042	MOTHER AND
-1.3912	MOTHER IN
-1.6042	MOTHER SAID
-1.1727	MOTHER TIGER
-1.6042	MOTHER TONGUE
-1.6042	MOTHER WAS
-0.9923	MUCH MORE
-0.9923	MUST BE
-0.9923	MUST HAVE
-1.9052	MY APPLES
-1.6922	MY BACK
-1.4282	MY BALL
-1.6922	MY BED
-1.6922	MY BRANCHES
-1.4282	MY BROTHER
-1.9052	MY FEET
-1.6922	MY FRIENDS
-1.6922	MY HOUSE
-1.6922	MY KITE
-1.9052	MY MASTER
-1.9052	MY NOSE
-1.9052	MY OWN
-1.9052	MY PORRIDGE
-1.2794	MY TRUNK
-0.4369	NAME WAS
-0.9052	NARRATOR THE
-1.0301	NASRUDDIN WAS
-0.5987	NEAR THE
-0.8519	NEHA OH
-0.5830	NEW DISH
-0.9923	NEXT DAY
-0.5153	NEXT MORNING
-1.1270	NIGHT HAD
-1.1270	NIGHT THE
-0.3770	NINGTHOU AND
-1.4950	NO DOUBT
-1.4950	NO I'D
-1.4950	NO NO
-1.4950	NO NOT
-1.0636	NO ONE
-0.5161	NOSE GREW
-1.3128	NOT BE
-1.7898	NOT COOK
-1.7898	NOT EAT
-1.7898	NOT GET
-1.7898	NOT HE
-1.5768	NOT I
-1.7898	NOT SEE
-1.7898	NOT THE
-1.7898	NOT TO
-1.7898	NOT YOU
-0.7960	NOTHING LEFT
-1.5742	NOW HE
-1.3612	NOW I
-0.9484	NOW IT
-1.5742	NOW THE
-1.5742	NOW THERE
-1.2522	OF A
-2.1063	OF BECOMING
-2.1063	OF CORN
-1.8933	OF HER
-1.8933	OF HIS
-2.1063	OF IT
-2.1063	OF KANGLEIPAK
-1.8933	OF MY
-1.8933	OF PEOPLE
-2.1063	OF THAT
-0.5321	OF THE
-1.4476	OF THEM
-2.1063	OF THESE
-1.8933	OF US
-2.1063	OF YOU
-1.2062	OFF FLEW
-0.7748	OFF THE
-1.2062	OFF THEY
-1.2062	OFF WENT
-0.7291	OFTEN SIT
-1.3127	OH BUT
-1.0997	OH I
-1.0997	OH NO
-1.0997	OH OH
-1.3061	OLD BIRD
-0.3921	OLD MAN
-1.5191	OLD STUMP
-0.8934	OLD WOMAN
-0.9114	ON A
-1.9763	ON AND
-1.9763	ON EACH
-1.7632	ON GOING
-1.3505	ON HER
-1.5448	ON IT
-1.7632	ON ITS
-1.7632	ON MY
-0.4455	ON THE
-1.0971	ONCE AGAIN
-0.6201	ONCE THERE
-0.8841	ONCE UPON
-1.8430	ONE BANK
-1.8430	ONE CLASS
-1.6300	ONE COULD
-0.5119	ONE DAY
-1.8430	ONE IS
-0.9890	ONE OF
-1.8430	ONE THE
-1.8430	ONE WITH
-1.1270	ONLY SAID
-0.3400	OOO OOO
-1.4423	OR ME
-1.4423	OR THREE
-1.4423	OR WENT
-0.9509	OTHER CHILDREN
-1.6322	OUT A
-1.2008	OUT HIS
-1.6322	OUT IN
-1.6322	OUT LAUGHING
-0.7270	OUT OF
-1.6322	OUT TO
-1.1552	OUT WHAT
-0.2730	OVER THE
-0.2520	PADDLING POOL
-0.1729	PAPA BEAR
-0.2151	PART OF
-0.4281	PASSENGERS HAD
-0.2520	PAW THE
-0.0760	PEACH TREE
-0.5530	PENCIL AND
-0.5530	PENCIL DREW
-1.4561	PEOPLE BUT
-1.4561	PEOPLE IN
-1.4561	PEOPLE ON
-1.4561	PEOPLE SHOUTED
-0.9791	PEOPLE THE
-1.4561	PEOPLE WALKING
-1.2431	PEOPLE WERE
-1.4561	PEOPLE WHO
-1.4561	PEOPLE WITH
-0.6410	PIA PIA
-0.4226	PIA PIANO
-0.5830	PIANO PIA
-0.7960	PIANO PIANO
-0.7291	PICKED ME
-0.7291	PICKED UP
-0.6499	PLACE WHERE
-0.2520	PLAINS OVER
-0.6869	PLAY I
-1.3127	PLAY THE
-1.3127	PLAY WHAT
-1.0997	PLAY WITH
-0.7291	PLEASE GET
-0.1703	PLIP PLIP
-0.4281	POLICEMAN AND
-0.2520	POOSEY GOOSEY
-0.9140	POT COOK
-1.1270	POT STOP
-0.4281	PRAYED BUT
-0.4281	PUFF AND
-0.4281	PUFFED AND
-0.2185	PULL UP
-0.3714	PULLED AND
-1.0301	PULLED BUT
-1.0301	PULLED IN
-0.2520	PULLS ME
-0.5530	PUPPY AS
-0.7960	PUT ME
-0.7960	QUIET I
-0.7983	RAN AWAY
-1.2297	RAN OUT
-0.6039	RAN TO
-0.6410	REACHED THE
-0.9923	READ A
-0.9923	READ ABOUT
-0.7793	READ AND
-0.5530	READY TO
-0.2520	REALISED THAT
-0.9923	RED HE
-0.4226	REPLIED THE
-0.2520	REST OF
-0.2520	RESTING ON
-0.6922	RIP VAN
-0.9052	RIP WAS
-0.9509	RIVER HE
-0.9509	RIVER THE
-0.6499	ROAR TO
-0.2520	ROBIN THINK
-0.5530	ROLL ROLL
-0.4281	ROLLED DOWN
-0.4281	ROOM AND
-0.5531	ROUND AND
-1.0301	ROUND I
-1.2297	RUN IN
-1.0167	RUN RUN
-0.2520	RUSH TO
-1.7591	SAID A
-1.9721	SAID AND
-1.9721	SAID AT
-1.9721	SAID BABY
-1.4951	SAID FUNNY
-1.9721	SAID HE
-1.9721	SAID HEY
-1.5407	SAID I
-1.9721	SAID IT
-1.9721	SAID MAMA
-1.7591	SAID MOTHER
-1.9721	SAID NOTHING
-1.7591	SAID ONE
-0.6410	SAID THE
-1.1181	SAID TO
-1.9721	SAID WE
-1.9721	SAID WHY
-0.2521	SAND I
-0.9052	SAT DOWN
-0.4282	SAT ON
-0.2808	SAW A
-1.0602	SAW THAT
-1.2732	SAY ANYTHING
-1.2732	SAY STOP
-0.7962	SAY THE
-0.2151	SAYING THIS
-1.0971	SAYS HIS
-1.0971	SAYS I
-0.8841	SAYS LITTLE
-0.6201	SAYS THE
-1.2732	SCHOOL ASKED
-1.2732	SCHOOL OR
-1.2732	SCHOOL PLAYGROUND
-0.2520	SECRETS HOW
-1.4695	SEE ME
-1.4695	SEE SAID
-1.4695	SEE THAT
-1.2565	SEE THE
-1.4695	SEE THEN
-1.2565	SEE WHAT
-1.4695	SEE WHO
-0.2520	SEEDS GREW
-0.5530	SHAKE SHAKE
-0.5530	SHAVING THE
-0.1729	SHAY SHAY
-1.8954	SHE ASKED
-1.8954	SHE ATE
-1.4640	SHE COULD
-1.8954	SHE EVEN
-1.6824	SHE HAD
-1.4184	SHE IS
-1.8954	SHE KNEW
-1.8954	SHE MET
-1.0414	SHE SAID
-1.6824	SHE SAW
-1.6824	SHE SPELT
-1.6824	SHE WANTED
-1.0414	SHE WAS
-1.8954	SHE WENT
-0.5530	SHIP OF
-0.5530	SHOES AND
-0.7291	SHOOK WITH
-0.7044	SHOULD I
-0.5227	SHOULD WE
-0.8540	SHOUTED PAPA
-0.5530	SINGING AND
-0.8540	SIT DOWN
-0.2520	SITTASITTA PITTAPITTA
-0.4281	SIZE BED
-0.4713	SKY IS
-0.2520	SLEEPY HEAD
-0.6922	SLOWLY AND
-1.1270	SMALL IT
-1.1270	SMALL TIGER
-0.4281	SMILED AT
-1.6230	SO HAPPENED
-1.6230	SO HAPPY
-1.4100	SO HARD
-1.4100	SO HE
-0.9643	SO I
-1.1460	SO THE
-1.6230	SO THIS
-1.6230	SO VERY
-1.0804	SOME ARE
-1.2934	SOME BREAD
-1.2934	SOME MONEY
-1.0804	SOME OF
-0.6499	SOMEONE ELSE
-0.7291	SOMETIMES I
-0.7291	SOMETIMES IT
-0.4281	SONG OF
-1.1270	SONU MONU
-1.1270	SONU RAN
-0.6201	SOON AS
-1.0971	SOON THE
-1.0971	SOON THEY
-0.9052	SORRY FOR
-0.8540	SPARROWS CHIRRUP
-0.2520	SQUEAKED THE
-0.3646	STARED AT
-0.7960	STARED IN
-0.7960	STARTED TO
-0.5530	STAYED AWAY
-0.7960	STOOD IN
-1.1270	STOP POT
-1.1270	STOP TARA
-0.5530	STUDY A
-0.9052	SUDDENLY AND
-0.9052	SUDDENLY HE
-0.9052	SUDDENLY THE
-1.0301	SULTAN BUT
-1.0301	SULTAN CRIED
-1.2934	SUN HE
-1.2934	SUN IS
-0.4683	SUNU SUNU
-1.1270	SUNU THE
-0.5530	SURPRISED AND
-0.4281	SWAY SWAY
-0.2520	SWING FROM
-0.2521	TAIL AND
-0.7379	TAKE THIS
-0.5830	TARGET AND
-0.2151	TEAM WORK
-0.7291	TEARS ROLLED
-0.8519	TELL ALL
-0.5879	TELL ME
-0.8519	TELL THE
-0.4281	THANK YOU
-0.5530	THANKFUL FOR
-0.5530	THANKFUL THAT
-1.8752	THAT A
-1.8752	THAT CREEPER
-1.2494	THAT DAY
-1.8752	THAT EVENING
-1.8752	THAT FATHER
-1.8752	THAT HAD
-1.2165	THAT HE
-1.2494	THAT I
-1.8752	THAT IS
-1.3982	THAT IT
-1.8752	THAT NIGHT
-1.8752	THAT NOW
-1.3982	THAT SHE
-1.0212	THAT THE
-1.6622	THAT THEY
-1.8752	THAT WAS
-1.8752	THAT WHY
-1.8752	THAT YOU
-2.8944	THE AFTERNOON
-2.8944	THE ALARM
-2.4630	THE ANIMALS
-2.6814	THE ARROW
-2.6814	THE BABY
-2.8944	THE BAMBOO
-1.9893	THE BARBER
-2.6814	THE BEAR
-2.2687	THE BIG
-2.0404	THE BIRDS
-2.6814	THE BOAT
-2.6814	THE BOW
-1.9021	THE BOY
-2.8944	THE BOYS
-2.4174	THE BRIDGE
-2.8944	THE BUS
-2.2687	THE BUTTERFLY
-2.6814	THE CARPENTER
-2.8944	THE CAT
-1.9435	THE CHILDREN
-2.4174	THE CITY
-2.8944	THE CLASS
-2.8944	THE CLOUDS
-2.8944	THE COLD
-2.8944	THE CONDUCTOR
-2.4630	THE COOK
-2.8944	THE CORN
-2.8944	THE COUNTRY
-2.8944	THE COURT
-2.4630	THE COW
-2.8944	THE CRAB
-2.8944	THE CREATURE
-2.8944	THE CREEPER
-2.2357	THE CROW
-2.8944	THE CURRY
-2.8944	THE DAY
-2.4630	THE DESERT
-2.8944	THE DINNER
-2.8944	THE DISHES
-2.8944	THE DRIVER
-2.8944	THE EARTH
-2.8944	THE END
-2.8944	THE ENGINE
-2.2687	THE ENORMOUS
-2.8944	THE EVENING
-2.8944	THE FARMER
-2.6814	THE FLOOR
-2.0404	THE FLOWERS
-2.6814	THE FOOD
-2.6814	THE FOOTPRINT
-2.2687	THE FOREST
-2.8944	THE FROG
-2.8944	THE FUTURE
-2.2687	THE GARDEN
-2.2357	THE GEESE
-2.4174	THE GIRAFFE
-2.6814	THE GIRL
-2.6814	THE GRASSHOPPER
-2.6814	THE GREEN
-2.8944	THE GROCER
-2.0404	THE GROUND
-2.8944	THE HARDWORKING
-2.8944	THE HELP
-2.8944	THE HILL
-2.8944	THE HORSE
-2.4630	THE HOUSE
-2.4174	THE HUNTER
-2.6814	THE ICE
-2.8944	THE JAY
-2.2357	THE JUNGLE
-2.6814	THE KEEPER
-1.7674	THE KING
-2.8944	THE LAND
-2.8944	THE LAST
-2.8944	THE LAZY
-2.8944	THE LION
-2.2357	THE LITTLE
-2.6814	THE MAGIC
-2.8944	THE MAHARAJA
-2.4174	THE MAN
-2.6814	THE MARKET
-2.4174	THE MERRY
-2.4174	THE MIDDLE
-2.6814	THE MILKMAN
-2.8944	THE MINISTERS
-2.8944	THE MIRROR
-2.8944	THE MONKEY
-2.8944	THE MORE
-2.4174	THE MORNING
-2.4174	THE MOSQUITO
-2.8944	THE MOST
-2.2357	THE MOTHER
-2.4630	THE MOUNTAINS
-2.2687	THE MOUSE
-2.6814	THE NET
-2.8944	THE NEW
-2.4630	THE NEXT
-2.4174	THE NINGTHOU
-1.8643	THE OLD
-2.2357	THE OTHER
-2.8944	THE PADDLING
-2.8944	THE PASSENGERS
-2.6814	THE PEACH
-2.6814	THE PENCIL
-1.9893	THE PEOPLE
-2.8944	THE PLAINS
-2.8944	THE PLANT
-2.8944	THE POLICEMAN
-2.4174	THE POOL
-2.4630	THE PORRIDGE
-2.2357	THE POT
-2.8944	THE PUNDIT'S
-2.8944	THE RAIN
-2.8944	THE RAINBOW
-2.8944	THE RAZOR
-2.2687	THE RED
-2.8944	THE REST
-2.8944	THE RESULTS
-2.2357	THE RIVER
-2.4630	THE ROAD
-2.8944	THE ROOM
-2.8944	THE ROSE
-2.6814	THE SAME
-2.8944	THE SAND
-2.8944	THE SCHOOL
-2.4174	THE SEA
-2.8944	THE SEAS
-2.8944	THE SEASIDE
-2.6814	THE SHIP
-2.8944	THE SHOE
-2.8944	THE SHORE
-1.8643	THE SKY
-2.4174	THE SMALL
-2.6814	THE SPARROWS
-1.8643	THE SULTAN
-1.9021	THE SUN
-2.8944	THE SUNSHINE
-2.8944	THE TABLE
-2.6814	THE TARGET
-2.8944	THE THINGS
-2.8944	THE THORNS
-2.8944	THE THREE
-1.9893	THE TIGER
-2.4174	THE TIME
-2.2687	THE TOP
-2.8944	THE TRACKS
-1.7130	THE TRAIN
-1.5121	THE TREE
-2.4174	THE TREES
-2.8944	THE TRUTH
-2.4174	THE VEGETABLE
-2.4174	THE VILLAGE
-2.8944	THE WARM
-2.4630	THE WATER
-2.2687	THE WAY
-2.4174	THE WEDDING
-2.6814	THE WHOLE
-2.6814	THE WIND
-2.4174	THE WINDOW
-2.4174	THE WISE
-2.8944	THE WOLF
-2.4174	THE WORLD
-2.8944	THE WRESTLER
-2.8944	THE YOUNG
-2.8944	THE YOUNGEST
-2.8944	THE ZOO
-1.3312	THEIR MOUTHS
-1.3312	THEIR SECRETS
-1.1182	THEIR WINGS
-1.4622	THEM ALL
-1.4622	THEM AND
-1.4622	THEM AWAY
-1.6752	THEM IN
-1.6752	THEM INTO
-1.0494	THEM THE
-1.6752	THEM THEY
-1.4622	THEM TO
-0.5530	THEMSELVES IN
-0.8720	THEN HE
-1.5307	THEN I
-0.8720	THEN SHE
-1.5307	THEN YOU
-1.7705	THERE ALL
-1.1118	THERE ARE
-1.7705	THERE CAME
-0.7056	THERE IS
-1.7705	THERE LIVED
-1.7705	THERE SHE
-0.5185	THERE WAS
-1.5575	THERE WERE
-0.2520	THERE'S A
-1.7157	THEY ALL
-1.7157	THEY ARE
-1.9287	THEY ASKED
-1.4972	THEY COULD
-1.7157	THEY DONT
-1.9287	THEY GO
-1.9287	THEY HAD
-1.4517	THEY MET
-1.9287	THEY RAN
-1.7157	THEY SAID
-1.9287	THEY SAW
-1.7157	THEY WENT
-0.8016	THEY WERE
-1.9287	THEY WOULD
-0.3400	THICK AND
-1.0649	THINGS THAT
-1.0649	THINGS TO
-0.9140	THINK HE
-1.1270	THINK I
-1.1270	THINK OF
-1.1270	THINK SAID
-1.5742	THIS AND
-1.5742	THIS HE
-1.1428	THIS IS
-1.3612	THIS TIME
-1.5742	THIS WISH
-0.5530	THORNS DON'T
-1.1814	THREE LINES
-1.1814	THREE LITTLE
-0.4043	THROUGH THE
-0.5119	TIGER CUB
-1.1529	TIGER WAS
-0.7291	TILL I'M
-1.3659	TIME AN
-1.3659	TIME AND
-1.1529	TIME HE
-1.1529	TIME THE
-1.3659	TIME TO
-0.4369	TINY LITTLE
-2.0623	TO A
-1.3967	TO BE
-2.0168	TO BUY
-2.0168	TO CATCH
-2.0168	TO CLIMB
-2.2808	TO COME
-2.4938	TO CROSS
-2.4938	TO DECIDE
-2.4938	TO DESTROY
-1.5428	TO DO
-1.5428	TO EAT
-2.2808	TO FALL
-1.8351	TO FIND
-1.8680	TO GET
-2.4938	TO GIVE
-1.5886	TO GO
-2.4938	TO HARI
-2.2808	TO HELP
-2.2808	TO HER
-2.4938	TO HIM
-2.0168	TO HIMSELF
-1.8351	TO HIS
-2.4938	TO JOIN
-2.4938	TO JUMP
-2.2808	TO KNOW
-2.2808	TO LEARN
-2.4938	TO LET
-2.0168	TO LOOK
-2.0168	TO MAKE
-2.4938	TO MISS
-2.2808	TO MOVE
-2.2808	TO MY
-2.4938	TO PASS
-1.8680	TO PLAY
-2.0168	TO PULL
-1.4636	TO SCHOOL
-1.5428	TO SEE
-2.2808	TO SHAVE
-2.2808	TO SIT
-2.2808	TO SLEEP
-2.4938	TO SPEAK
-2.4938	TO STOP
-2.4938	TO STUDY
-2.4938	TO SWIM
-2.4938	TO TAKE
-1.6397	TO TELL
-0.8268	TO THE
-2.4938	TO THEM
-2.4938	TO US
-2.4938	TO USE
-2.0168	TO WORK
-2.4938	TO WRITE
-2.4938	TO YOU
-0.7960	TOGETHER THEY
-0.9052	TOLD HIM
-0.9052	TOLD THE
-0.9052	TOLD YOU
-1.5191	TOO HARD
-1.5191	TOO OLD
-1.0877	TOO SAID
-1.3061	TOO THEY
-0.9509	TOOK OUT
-0.9509	TOOK UP
-0.7291	TOP AND
-0.0760	TOPSY TURVY
-0.4226	TOWARDS THE
-0.7292	TRAIN AND
-0.4369	TRAMP TRAMP
-1.7218	TREE A
-0.8678	TREE AND
-1.7218	TREE COME
-1.2448	TREE HE
-1.2448	TREE I
-1.7218	TREE IT
-1.7218	TREE MITTU
-1.5088	TREE THE
-1.5088	TREE TO
-1.0631	TREE WAS
-1.5088	TREE WITH
-0.8540	TREES I
-0.2520	TRICK HE
-0.4369	TRIED TO
-0.2151	TRING A
-0.5531	TRUNK AND
-1.0301	TRUNK HE
-0.7379	TRY TO
-0.9509	TRY TRY
-0.0760	TUGGED AND
-0.2520	TUNGGI NINGTHOU
-0.4281	TURN OF
-0.8540	TURNED AND
-0.6410	TURNED TO
-0.8540	TURNIP A
-0.6410	TURNIP SAID
-0.8540	TURNIP SEEDS
-0.2520	TURVY LAND
-0.2520	TWELVE YEARS
-1.1814	TWO LITTLE
-1.1814	TWO OR
-0.9684	TWO YEARS
-0.2520	UNABLE TO
-0.5153	UNDER A
-0.5153	UNDER THE
-0.2520	UNDERSTOOD THAT
-1.8854	UP A
-0.9803	UP AND
-1.6724	UP AT
-1.8854	UP CHIRRUP
-1.4084	UP HE
-1.2597	UP IN
-1.6724	UP MY
-1.8854	UP ON
-1.8854	UP ONE
-1.8854	UP SHE
-1.8854	UP THAT
-0.7584	UP THE
-1.4084	UP TO
-1.8854	UP WITH
-1.8854	UP YOU
-1.2520	US ALL
-0.2520	VAN WINKLE
-0.3400	VEGETABLE MAN
-1.5191	VERY BIG
-1.5191	VERY FRIGHTENED
-1.0877	VERY HAPPY
-1.5191	VERY HARD
-1.5191	VERY HOT
-1.5191	VERY PRETTY
-1.5191	VERY SMALL
-0.9052	VOICE MITTU
-0.1373	WAKE UP
-0.7960	WALK ACROSS
-0.8540	WALKED ON
-0.8540	WALKED SLOWLY
-0.8540	WALKED UP
-0.7960	WALKING TOWARDS
-0.7960	WALKING WE
-1.3312	WANT A
-1.3312	WANT SOME
-0.2041	WANT TO
-0.2521	WANTED TO
-0.2151	WANTS TO
-0.8557	WAS A
-2.2690	WAS ALSO
-2.2690	WAS ANGRY
-1.6103	WAS AS
-2.2690	WAS AT
-2.0560	WAS BORN
-2.2690	WAS DOING
-2.0560	WAS GOING
-2.0560	WAS HAPPY
-2.2690	WAS HIS
-2.0560	WAS IN
-2.2690	WAS JUST
-2.2690	WAS MADE
-2.2690	WAS MY
-1.8376	WAS NO
-1.6103	WAS NOT
-2.2690	WAS OFTEN
-2.2690	WAS PUZZLED
-1.7920	WAS REALLY
-2.2690	WAS SITTING
-1.6432	WAS SO
-1.7920	WAS SURPRISED
-2.2690	WAS TAKEN
-2.2690	WAS TEN
-1.6103	WAS THE
-1.8376	WAS THERE
-2.2690	WAS TOO
-2.2690	WAS UNABLE
-1.1719	WAS VERY
-0.5530	WASN'T GOING
-0.4281	WATCH OUT
-1.0602	WATER AND
-1.2732	WATER FOR
-1.2732	WATER HE
-1.2732	WATER HOW
-1.0649	WAY AND
-0.8519	WAY THEY
-1.2271	WE ARE
-1.4455	WE CAN
-1.6585	WE DID
-0.8045	WE GO
-1.6585	WE GOT
-1.1815	WE HAVE
-1.6585	WE MUST
-1.4455	WE READ
-1.6585	WE WERE
-1.6585	WE WILL
-0.5530	WE'LL SEE
-0.6499	WEDDING BUT
-1.2565	WENT AWAY
-1.4695	WENT BY
-1.2565	WENT INTO
-1.4695	WENT ON
-1.4695	WENT THE
-0.5643	WENT TO
-1.4695	WENT UP
-1.4695	WENT WALKING
-1.2355	WERE A
-1.4539	WERE ALL
-1.4539	WERE AN
-1.6670	WERE NOT
-1.6670	WERE ON
-1.6670	WERE ONLY
-1.4539	WERE THE
-1.1641	WHAT A
-1.4281	WHAT DO
-1.6411	WHAT HE
-1.6411	WHAT I
-1.2097	WHAT IS
-1.6411	WHAT SHALL
-1.6411	WHAT THE
-1.6411	WHAT THIS
-1.1641	WHAT TO
-1.6411	WHAT WAS
-1.6411	WHAT WILL
-1.0154	WHAT YOU
-1.6991	WHEN A
-0.8451	WHEN HE
-1.0733	WHEN I
-1.2677	WHEN IT
-1.6991	WHEN TARA
-0.7068	WHEN THE
-1.6991	WHEN TO
-1.0733	WHEN YOU
-0.2520	WHENE'ER HE
-0.6500	WHERE ARE
-1.1270	WHERE HE
-1.1270	WHERE I
-0.5987	WHICH WAS
-0.9509	WHO ARE
-0.9509	WHO IS
-1.3823	WHO WAS
-1.3823	WHO WILL
-1.3312	WHY DO
-1.3312	WHY DON'T
-1.3312	WHY THE
-1.3312	WHY YOU
-0.4281	WIDE AWAKE
-0.7295	WILL BE
-1.5088	WILL BLOW
-1.7218	WILL CALL
-1.7218	WILL GO
-1.5088	WILL HELP
-1.7218	WILL HUFF
-1.7218	WILL I
-1.7218	WILL MAKE
-1.2448	WILL NOT
-1.2448	WILL YOU
-0.9052	WIND SUN
-0.9923	WISH I
-0.9923	WISH OF
-0.9923	WISH THAT
-0.6638	WITH A
-1.6570	WITH HER
-1.8700	WITH HIM
-1.3930	WITH HIS
-1.3930	WITH JOY
-1.6570	WITH ME
-1.6570	WITH MY
-0.8399	WITH THE
-1.8700	WITH THEIR
-1.8700	WITH THEM
-1.6570	WITH YOU
-0.4281	WOKE UP
-0.5830	WOLF CAME
-0.2521	WONDER IF
-1.1270	WORK HARD
-1.1270	WORK IN
-0.2520	WORTHY OF
-0.7974	WOULD BE
-1.4561	WOULD HAVE
-0.9791	WOULD LOVE
-1.4561	WOULD TELL
-1.4561	WOULD YOU
-0.7291	WOULDN'T LEND
-0.5530	WRONG THE
-0.9052	YEARS IN
-0.9052	YEARS OLD
-0.8540	YELLOW MANGO
-0.4282	YES I
-0.6922	YES SAID
-2.2251	YOU ALWAYS
-2.2251	YOU AND
-1.2328	YOU ARE
-2.0121	YOU BUT
-1.2742	YOU CAN
-2.2251	YOU CANNOT
-1.7481	YOU DO
-2.2251	YOU DRAW
-2.2251	YOU FEEL
-2.2251	YOU FIND
-2.0121	YOU GIVE
-2.2251	YOU GO
-1.5993	YOU GOING
-1.5664	YOU HAVE
-2.0121	YOU KEEP
-1.7481	YOU KNOW
-2.2251	YOU LIKE
-2.2251	YOU LION
-2.0121	YOU MIGHT
-2.2251	YOU MORE
-2.2251	YOU MUST
-1.7481	YOU MY
-2.0121	YOU OR
-2.0121	YOU SAID
-1.7937	YOU SAY
-1.5993	YOU SEE
-2.2251	YOU SIT
-2.2251	YOU THE
-2.2251	YOU THEY
-1.7481	YOU TO
-2.0121	YOU WANT
-2.0121	YOU WERE
-1.3711	YOU WILL
-2.2251	YOU WOULD
-2.2251	YOU YOU
-0.6499	YOU'LL HAVE
-0.6499	YOUNG MAN
-1.3489	YOUR BABY
-1.3489	YOUR HOUSE
-1.3489	YOUR THINGS
-1.3489	YOUR TIME
-1.3489	YOUR WORK
-0.2520	ZIG ZAG
-0.1729	ZZZAK ZZZAK

\end\
