BIGRAM: method Katz, cutoff 1
  coef[7]: 0.000000 0.559788 0.609451 0.839477 0.604662 0.788292 0.728901

TRIGRAM: method Katz, cutoff 1
  coef[7]: 0.000000 0.425463 0.635276 0.476068 0.756911 0.776875 0.426249

\data\
ngram 1=2592
ngram 2~2873
ngram 3~1769

\1-grams:
-0.7616	!!UNK	-0.2285
-1.6694	A	-0.1687
-4.3820	ABC
-4.3820	ABLE
-4.3820	ABOARD
-3.0203	ABOUT	-0.0042
-4.0810	ABOVE
-4.3820	ACB
-4.3820	ACCEPTED
-4.3820	ACORN
-4.3820	ACORNS
-3.6039	ACROSS	-0.2599
-4.3820	ACTING
-3.6039	ADDED
-4.3820	ADVENTURE
-4.0810	ADVICE
-4.0810	ADVISED
-4.0810	AFFAIR
-3.6039	AFRAID	-0.0071
-3.1516	AFTER	+0.0113
-3.7800	AFTERNOON
-2.9349	AGAIN	-0.0067
-4.3820	AGAINST
-4.3820	AGAPE
-3.7800	AGO
-4.0810	AGREE
-4.3820	AGREED
-4.0810	AH
-4.3820	AHA
-3.7800	AHEAD	-0.1388
-3.4789	AIM	-0.0578
-4.0810	AIMED	-0.3545
-3.9049	AIR
-4.3820	AIRED
-3.9049	AKBAR
-4.3820	ALABAMA
-3.6830	ALARM	-0.4834
-4.3820	ALAS
-4.3820	ALCOUZ
-4.3820	ALGEBRA
-2.3446	ALL	-0.2333
-4.3820	ALNASCHEE
-3.6830	ALONE
-3.3820	ALONG	-0.1768
-4.0810	ALONGSIDE
-4.3820	ALOUD
-3.1516	ALSO	-0.0371
-4.3820	ALTHOUGH
-4.3820	ALU
-3.1267	ALWAYS	+0.0252
-2.7386	AM	-0.1299
-4.0810	AMAZED
-4.3820	AMAZEMENT
-4.3820	AMMA
-4.3820	AMONG
-2.8379	AN	-0.2038
-3.9049	ANANDI
-1.5572	AND	-0.0502
-3.9049	ANGER
-3.6039	ANGRY	-0.0836
-3.9049	ANIMAL
-3.1779	ANIMALS	-0.1476
-4.3820	ANNOUNCEMENT
-3.4278	ANOTHER
-3.7800	ANSWER
-4.0810	ANSWERED
-4.3820	ANSWERING
-3.7800	ANT
-3.6830	ANTS
-3.3406	ANY	-0.0461
-3.9049	ANYBODY	-0.1984
-4.3820	ANYMORE
-3.4789	ANYONE	-0.0649
-3.3820	ANYTHING	-0.0427
-3.7800	ANYWHERE	-0.7921
-4.3820	APLENTY
-4.0810	APPEAR
-4.3820	APPEARED
-3.7800	APPLE	-0.1304
-3.4789	APPLES	+0.0171
-4.3820	APPROACHED
-3.4789	APPU	-0.0646
-4.3820	APPU'S
-4.3820	APRON
-4.3820	ARCHERY
-2.4682	ARE	-0.0765
-4.0810	AREN'T
-4.3820	ARGUED
-4.3820	ARMED
-3.6039	ARMS	-0.0893
-3.0018	AROUND	-0.1082
-4.0810	ARRIVED
-3.3028	ARROW
-4.0810	ARROWS
-2.4135	AS	-0.1922
-4.0810	ASHAMED	-0.3474
-4.3820	ASIDE
-4.0810	ASK
-3.0598	ASKED	-0.0337
-4.0810	ASKING
-4.3820	ASKS
-3.6039	ASLEEP
-4.0810	ASTONISHMENT
-4.3820	ASTRAY
-2.3650	AT	-0.3935
-3.2681	ATE	-0.0679
-4.3820	ATLANTIC
-4.3820	ATTACKED
-4.3820	ATTENTION
-4.3820	ATTRACTED
-4.3820	AUNT
-4.0810	AVIAL
-4.3820	AVOID
-3.9049	AWAKE
-2.5967	AWAY	-0.1523
-4.3820	AWFUL
-4.3820	AZAD
-4.3820	AZAD'S
-4.3820	B
-3.6039	BABA	-0.0889
-4.3820	BABIES
-3.2359	BABY	-0.0981
-4.3820	BABY'S
-4.3820	BAC
-4.3820	BACBONE
-2.8379	BACK	-0.0660
-4.3820	BACKWARD
-4.0810	BAD
-4.3820	BAGS
-4.3820	BAKBAC
-4.3820	BAKBAREA
-3.4278	BALL	-0.0910
-3.6039	BALLOON
-4.0810	BALLOONS
-4.3820	BALLS
-3.4789	BAMBOO	-0.2361
-4.0810	BAND
-3.9049	BANG
-4.0810	BANK	-0.3474
-4.3820	BANYAN
-4.3820	BAR
-3.2059	BARBER	-0.0335
-4.3820	BARELY
-4.3820	BARKED
-4.3820	BARLEY
-4.0810	BARREL
-4.3820	BARREN
-4.3820	BASE
-4.0810	BASKET	-0.3525
-4.3820	BASKETBALL
-4.3820	BATH
-4.3820	BATON
-2.4089	BE	+0.0039
-4.3820	BEACH
-4.0810	BEAK
-3.1779	BEAR	-0.3048
-3.9049	BEARD
-4.3820	BEARDS
-4.3820	BEARS
-4.3820	BEASTS
-3.7800	BEAUTIFUL
-4.3820	BEAVERS
-3.3820	BECAME	+0.0310
-3.3028	BECAUSE	-0.1440
-3.6830	BECOME
-4.0810	BECOMES
-4.0810	BECOMING	-0.3469
-3.1267	BED	-0.0708
-4.0810	BEDROOM
-3.4789	BEEN	-0.1425
-4.3820	BEES
-4.3820	BEETLES
-3.1779	BEFORE	-0.1063
-3.1779	BEGAN	-0.3971
-4.3820	BEGGED
-4.0810	BEGIN	-0.3474
-4.0810	BEGINNING
-3.4789	BEHIND	-0.2398
-4.3820	BEHOLD
-3.7800	BEING
-4.3820	BELIEVE
-4.3820	BELIEVED
-4.3820	BELIEVING
-4.3820	BELLOWED
-4.0810	BELLS	-0.3549
-4.3820	BELOVED
-3.9049	BELOW
-4.3820	BENEATH
-4.0810	BERRY
-3.7800	BEST	-0.1408
-4.3820	BET
-3.6039	BETTER	-0.0879
-3.6039	BETWEEN	-0.0753
-4.3820	BEYOND
-4.3820	BHAISAHEB
-3.2359	BHAIYA	-0.0755
-4.0810	BHALU
-4.3820	BICYCLE
-2.7193	BIG	-0.0208
-4.3820	BIGGER
-4.3820	BIGGEST
-3.5369	BIRBAL
-3.2359	BIRD
-4.3820	BIRD'S
-2.9841	BIRDS	-0.0653
-3.9049	BIT
-4.3820	BITE
-4.0810	BITS
-3.7800	BLACK	-0.1304
-4.3820	BLANKET
-4.3820	BLAZE
-4.3820	BLEED
-3.6830	BLEW
-4.3820	BLIND
-4.3820	BLINKING
-3.3820	BLOW	-0.1509
-3.9049	BLOWING
-4.3820	BLOWS
-3.4789	BLUE	-0.1301
-4.3820	BOARD
-4.3820	BOAST
-3.3028	BOAT	-0.0906
-4.3820	BOATS
-3.4789	BOBBY	+0.0171
-4.3820	BODY
-3.6830	BOILED	-0.1931
-4.3820	BOLDER
-4.3820	BON
-3.2359	BOOK	-0.1575
-3.1267	BOOKS	+0.0067
-4.3820	BOOKSHELF
-4.0810	BOOKSHOP
-3.6830	BOOM	-0.1975
-3.3820	BOOMDI	-0.4412
-4.3820	BOOTS
-3.7800	BORN
-3.9049	BOTH
-3.9049	BOTHER	-0.2012
-4.3820	BOTHERING
-4.0810	BOTTLES
-4.3820	BOUGHT
-3.9049	BOUNCE	-0.4060
-3.3820	BOW	-0.0978
-3.6039	BOWL	-0.2871
-4.3820	BOWLS
-2.7288	BOY	-0.0878
-3.6039	BOYS	-0.3440
-4.3820	BRAKED
-3.3406	BRANCHES	-0.0162
-3.9049	BRAVE
-3.9049	BRAVO
-3.9049	BREAD
-4.0810	BREAK
-4.3820	BREAKFAST
-4.3820	BREATHE
-4.3820	BREATHED
-4.3820	BREATHING
-3.7800	BREEZE	-0.0600
-4.0810	BRICK	-0.3557
-4.3820	BRICK'S
-4.3820	BRIDEGROOM
-3.6830	BRIDGE
-4.3820	BRIDGES
-3.3406	BRIGHT	-0.0344
-3.9049	BRING
-4.3820	BRINGING
-4.3820	BRINGS
-4.0810	BROKE
-4.0810	BROKEN
-3.4789	BROTHER
-4.3820	BROTHERS
-3.6039	BROUGHT	-0.1889
-3.6830	BROWN	-0.0275
-4.3820	BROWNIE
-4.3820	BRUISE
-3.9049	BUBBLE
-4.3820	BUCKLES
-4.3820	BUFFALOES
-4.0810	BUILD
-4.3820	BUILDING
-4.3820	BUILDINGS
-4.0810	BUILT	-0.3557
-3.7800	BUK
-4.3820	BUMP
-4.3820	BUNCH
-3.5369	BUNNY	-0.1311
-4.3820	BURIA
-4.3820	BURN
-3.9049	BURNING
-4.3820	BURNS
-3.7800	BURST
-3.6039	BUS
-4.3820	BUSES
-4.3820	BUSH
-4.3820	BUSHES
-4.3820	BUSINESS
-4.3820	BUSY
-2.2647	BUT	-0.2338
-4.3820	BUTTER
-3.0810	BUTTERFLY	-0.0453
-4.3820	BUTTONS
-3.4789	BUY	-0.3226
-4.3820	BUZZ
-4.3820	BUZZED
-4.3820	BUZZING
-2.6830	BY	-0.2507
-4.3820	BYE
-4.3820	C
-4.0810	CABBAGES
-4.3820	CABLES
-4.3820	CAGE
-4.0810	CAKE
-4.3820	CALIFORNIA
-3.3028	CALL	-0.0016
-3.2359	CALLED	-0.1065
-3.9049	CALLING
-3.9049	CALLS
-4.3820	CALM
-2.6744	CAME	-0.3136
-3.2359	CAMEL
-4.3820	CAMELS
-2.4789	CAN	-0.1749
-3.1267	CAN'T	-0.0212
-3.7800	CANNOT
-4.3820	CANS
-4.3820	CANYONS
-4.3820	CAPTAIN
-4.3820	CARE
-3.9049	CAREFUL
-4.0810	CAREFULLY
-3.6830	CARPENTER
-4.3820	CARPENTER'S
-3.6039	CARRIED	-0.1922
-4.0810	CARROTS
-4.0810	CARRY
-3.6830	CARRYING
-4.3820	CARS
-3.9049	CART
-4.3820	CARTS
-4.3820	CASHGAR
-4.3820	CASTLE
-3.5369	CAT	-0.0734
-3.4278	CATCH	-0.1439
-4.3820	CATCHING
-4.3820	CATERPILLARS
-3.6830	CAUGHT	-0.1056
-4.3820	CAULIFLOWERS
-4.3820	CAUSE
-4.3820	CAVE
-3.0203	CAW	-0.4494
-4.3820	CEASE
-4.3820	CERTAINLY
-4.3820	CHAINS
-4.3820	CHAIR
-4.3820	CHALLENGE
-4.3820	CHALLENGED
-4.3820	CHAMPION
-3.9049	CHANCE
-4.3820	CHANCED
-4.3820	CHANGED
-4.3820	CHARGED
-3.9049	CHASED	-0.1792
-4.3820	CHASING
-3.4789	CHATTER	-0.2060
-4.3820	CHATTERER
-4.3820	CHATTERERS
-4.3820	CHATTING
-4.0810	CHEEK
-3.7800	CHEEKS
-3.6830	CHEEP	-0.1976
-4.0810	CHEESE
-4.3820	CHERRY
-4.3820	CHEW
-4.3820	CHICKEN
-4.3820	CHICKENS
-4.3820	CHICKS
-4.3820	CHIEF
-3.3406	CHILD
-4.3820	CHILD'S
-4.0810	CHILDISH
-2.9670	CHILDREN	-0.0178
-4.3820	CHILLI
-4.3820	CHILLIES
-4.3820	CHILLY
-4.3820	CHIMPANZEE
-4.0810	CHIN	-0.3441
-4.3820	CHIRPY
-3.1779	CHIRRUP	-0.8011
-4.0810	CHOCOLATE
-4.3820	CHOICE
-4.3820	CHOPPING
-4.3820	CHORUS
-3.4278	CIRCLE	-0.0576
-3.7800	CIRCLES
-3.6039	CITY	-0.1867
-4.0810	CLAPPED
-4.3820	CLASPED
-3.3028	CLASS	+0.0400
-4.0810	CLASSES
-4.3820	CLATTERED
-4.0810	CLAW
-4.3820	CLAWS
-4.3820	CLEAN
-4.3820	CLEANED
-3.6830	CLEAR
-4.0810	CLEVER
-4.3820	CLEVERNESS
-3.3028	CLIMB	-0.0371
-3.2359	CLIMBED	-0.2125
-4.0810	CLIMBING
-3.5369	CLOCK
-3.7800	CLOSE	-0.1337
-4.3820	CLOSED
-3.5369	CLOSER	-0.0668
-3.9049	CLOTHES
-4.3820	CLOUD
-3.6830	CLOUDS
-4.3820	CLUSTER
-4.3820	COACHES
-3.5369	COAT	+0.0069
-4.3820	COCK
-3.9049	COCKY	-0.4083
-3.9049	COCONUT	-0.2028
-3.5369	COLD	-0.0756
-4.3820	COLLECT
-4.3820	COLOUR
-4.0810	COLOURED
-4.3820	COLOURFUL
-3.9049	COLOURS
-4.0810	COMB
-2.6918	COME	-0.1068
-3.3406	COMES	+0.0036
-4.3820	COMFORTED
-3.6830	COMING
-4.3820	COMMANDED
-4.3820	COMMON
-3.7800	COMPANION
-4.3820	COMPANY
-4.3820	COMPLETE
-4.3820	COMPLETELY
-4.0810	CONDUCTOR
-4.3820	CONES
-4.3820	CONFUSED
-4.3820	CONSIDERED
-4.3820	CONSTANT
-4.3820	CONTENTED
-4.3820	CONTENTS
-4.0810	CONTEST
-3.9049	CONTINUED
-4.3820	CONVENIENTLY
-3.1516	COOK	-0.0616
-4.0810	COOKED
-3.6830	COOKING	-0.1098
-3.6830	COOL	-0.1091
-4.3820	COOLING
-4.3820	COPIED
-4.3820	COPY
-3.6830	CORN	-0.0979
-4.3820	CORNER
-4.3820	CORRECT
-3.9049	COTTAGE
-2.6112	COULD	-0.2553
-3.9049	COUNTRY
-4.3820	COUPLE
-3.7800	COURSE	-0.1827
-3.7800	COURT
-4.3820	COURTIERS
-4.3820	COUSIN
-4.3820	COVER
-4.3820	COVERED
-4.3820	COVERING
-3.3820	COW	-0.2527
-4.3820	COWS
-3.9049	CRAB
-4.3820	CRAB'S
-3.9049	CRABS	-0.1907
-4.3820	CRACKED
-4.3820	CRANED
-4.0810	CRASHED
-4.0810	CRAWL
-4.3820	CRAWLED
-4.0810	CRAWLING
-3.9049	CREAM	-0.4074
-3.9049	CREATURE
-4.3820	CREATURES
-3.4789	CREEPER	+0.0171
-4.3820	CREEPING
-4.3820	CREEPS
-4.3820	CREPT
-4.3820	CREW
-4.3820	CRICKET
-3.2059	CRIED	-0.1290
-3.9049	CRIES
-4.3820	CRIME
-4.0810	CROAK
-3.7800	CROSS	-0.1189
-4.3820	CROSSED
-3.3406	CROW	-0.1748
-4.3820	CROWD
-4.3820	CROWDED
-4.0810	CROWS
-4.3820	CRUEL
-4.3820	CRUMBLED
-3.7800	CRY
-3.7800	CRYING
-3.2681	CUB	-0.0411
-4.3820	CUCKOO
-4.0810	CUCUMBERS
-4.3820	CURD
-4.3820	CURIOSITY
-4.3820	CURIOUS
-3.9049	CURLY
-3.6039	CURLYLOCKS
-3.6039	CURRY
-4.3820	CURVED
-4.3820	CURVES
-4.3820	CUSHION
-3.5369	CUT	-0.0489
-4.3820	DAD
-4.3820	DADA
-4.0810	DANCE
-3.9049	DANCED	-0.1907
-4.0810	DANCING
-4.3820	DAPPLE
-3.9049	DARK
-4.3820	DARKNESS
-3.9049	DAUGHTER
-3.9049	DAWN
-2.5070	DAY	-0.1084
-4.3820	DAY'S
-4.3820	DAYDREAMING
-3.5369	DAYS	-0.1308
-3.5369	DEAD	-0.0752
-4.3820	DEAF
-3.4278	DEAR	-0.0383
-4.0810	DEARLY
-3.7800	DECIDE
-3.5369	DECIDED	-0.5580
-4.3820	DECLARE
-4.3820	DECLARED
-4.3820	DECORATED
-3.7800	DEEP	-0.1381
-3.9049	DEER
-4.3820	DEFECT
-4.3820	DEFENDED
-4.3820	DEFENDING
-4.3820	DELHI
-3.9049	DELICIOUS
-4.3820	DESCEND
-3.3406	DESERT	-0.1275
-4.3820	DESPERATION
-3.6039	DESTROY	-0.3798
-4.0810	DEW
-4.3820	DIAMETER
-2.9507	DID	-0.3701
-3.3820	DIDN'T	-0.1091
-4.0810	DIE
-4.0810	DIFFERENCE	-0.3562
-3.9049	DIFFERENT
-4.3820	DIFFICULT
-4.3820	DIFFICULTY
-4.3820	DIG
-3.4789	DING	-0.4409
-4.3820	DINING
-3.6830	DINNER
-4.0810	DIRTY
-4.0810	DISCOVERED
-4.3820	DISCUSSION
-4.3820	DISDAIN
-3.5369	DISH
-4.0810	DISHES
-4.0810	DISTANCE
-4.3820	DIVE
-2.5432	DO	-0.2286
-4.3820	DOCTOR
-3.3406	DOES	-0.5624
-3.7800	DOESN'T
-3.4278	DOG	-0.0411
-3.4789	DOING	-0.0644
-3.9049	DOLL
-2.9507	DON'T	-0.1589
-3.6830	DONE	-0.0275
-3.4789	DONG	-0.3541
-3.7800	DONKEY
-4.3820	DONKEYS
-3.2359	DONT	-0.1185
-3.7800	DOOPU
-3.2681	DOOR	-0.0228
-4.3820	DOORS
-3.9049	DOUBT
-2.6261	DOWN	-0.1468
-4.3820	DOWNWARD
-4.3820	DOWNWARDS
-4.3820	DOZEN
-4.3820	DOZING
-4.3820	DRANK
-3.5369	DRAW	-0.2743
-3.9049	DRAWING
-4.0810	DRAWN
-4.3820	DREAM
-3.9049	DREAMING	-0.4045
-3.7800	DRESS
-4.3820	DRESSED
-4.0810	DRESSES
-3.3028	DREW	-0.2045
-3.7800	DRINK
-3.9049	DRIP	-0.2028
-3.6830	DRIVER	-0.0275
-4.3820	DROP
-4.3820	DROPPED
-4.3820	DROVE
-4.3820	DRUM
-3.9049	DRY	-0.2028
-4.3820	DUCK
-4.3820	DUCKS
-3.9049	DUCKY	-0.1907
-4.3820	DUSK
-4.3820	DUSTY
-4.0810	D_O_L_L
-4.3820	E
-3.3406	EACH	-0.2261
-4.3820	EAGER
-4.3820	EAGERLY
-3.9049	EAR
-4.0810	EARLY
-4.3820	EARNED
-4.3820	EARS
-3.9049	EARTH
-4.3820	EASE
-4.0810	EASILY
-4.3820	EASY
-2.9049	EAT	-0.0669
-4.0810	EATING
-4.0810	EATS
-4.3820	ECHOED
-4.3820	EDUCATION
-4.3820	EFFORT
-4.0810	EGGS
-3.9049	EIGHT
-4.3820	EIGHTH
-3.7800	EIGHTY
-4.3820	EIGTHY
-3.9049	EITHER
-4.0810	ELDEST	-0.3562
-3.7800	ELEPHANT
-4.3820	ELEPHANT'S
-4.3820	ELEVATORS
-3.6039	ELSE
-4.0810	EMPTIED
-4.0810	END	-0.3525
-4.3820	ENDED
-4.3820	ENDS
-3.9049	ENGINE
-4.3820	ENGLAND
-4.0810	ENGLISH
-4.0810	ENJOY
-3.4278	ENORMOUS	-0.3561
-3.7800	ENOUGH
-4.0810	ENTERED	-0.3326
-4.3820	ENTIRELY
-4.3820	EQUALLY
-4.3820	ERASING
-3.9049	ESCAPE
-4.3820	ESSAY
-3.2359	EVEN	+0.0082
-3.4789	EVENING	-0.0631
-3.4278	EVER
-3.1267	EVERY	-0.1119
-3.7800	EVERYBODY
-4.3820	EVERYBODY'S
-4.0810	EVERYDAY
-3.2359	EVERYONE	-0.1035
-3.6830	EVERYTHING	-0.0275
-3.7800	EVERYWHERE
-4.3820	EXACTLY
-4.0810	EXAMINE
-4.3820	EXAMINERS
-4.3820	EXAMS
-4.3820	EXCEPT
-4.3820	EXCITED
-3.9049	EXCITEMENT
-3.7800	EXCLAIMED
-4.3820	EXHAUSTED
-4.3820	EXPECT
-4.3820	EXPECTED
-4.3820	EXPERIENCE
-4.3820	EXPERT
-4.3820	EXPLAIN
-4.3820	EXPLORE
-4.3820	EXTREMELY
-4.3820	EYE
-3.3820	EYES	-0.0850
-3.3406	FACE	-0.0935
-4.3820	FACED
-4.3820	FACES
-4.3820	FACTORY
-4.0810	FAIL
-3.9049	FAILED
-4.3820	FAIR
-4.0810	FAIRIES
-3.3406	FALL	-0.2837
-3.9049	FALLEN
-4.3820	FALLING
-3.9049	FALLS
-3.6830	FAMILY
-4.3820	FAMOUS
-3.3028	FAR	-0.2933
-4.3820	FARE
-3.9049	FARM
-3.6830	FARMER
-4.0810	FARMER'S	-0.3562
-4.3820	FARMERS
-3.3406	FAST	-0.2013
-4.0810	FASTER
-3.7800	FAT
-3.6830	FATHER	-0.1073
-4.3820	FATHER'S
-4.3820	FAVOURITE
-3.6830	FEAR
-4.3820	FEARFUL
-4.3820	FEARLESS
-3.6039	FEAST
-4.3820	FEATHER
-4.0810	FEATHERS
-4.3820	FED
-4.3820	FEED
-3.4789	FEEL	-0.0641
-4.3820	FEELERS
-4.3820	FEELING
-3.9049	FEELS
-3.2359	FEET	+0.0069
-3.3820	FELL	-0.0269
-4.3820	FELLOW
-3.6830	FELT	-0.1099
-4.0810	FENCE
-4.3820	FENCES
-4.3820	FEVER
-3.6830	FEW
-3.6830	FIELD
-3.9049	FIELDS
-4.3820	FIFTH
-4.3820	FILL
-3.9049	FILLED	-0.1792
-4.0810	FILLS
-4.3820	FINAL
-4.0810	FINALLY
-3.1033	FIND	-0.2617
-3.4789	FINE	-0.2048
-4.3820	FINGER
-4.0810	FINGERS
-3.9049	FINISH
-3.7800	FINISHED
-3.5369	FIR	-0.2440
-4.3820	FIRE
-4.3820	FIRM
-4.3820	FIRMLY
-3.3820	FIRST	-0.0689
-3.3820	FISH	-0.0823
-3.4789	FIVE	-0.0652
-4.3820	FIX
-4.3820	FIXED
-4.3820	FIZZ
-3.9049	FLAPPED
-3.7800	FLASH	-0.1425
-4.3820	FLASHED
-3.1267	FLEW	-0.1335
-4.0810	FLIES
-4.3820	FLOAT
-4.3820	FLOATED
-4.0810	FLOATING
-4.3820	FLOCK
-3.6830	FLOOR	-0.0979
-4.3820	FLOUNDERING
-3.5369	FLOWER
-3.2059	FLOWERS	-0.0215
-4.3820	FLUENT
-4.3820	FLUENTLY
-4.3820	FLURRY
-4.3820	FLUTTERED
-3.1516	FLY	-0.1958
-3.3406	FLYING	-0.1326
-4.3820	FOGG
-4.0810	FOLLOW
-4.3820	FOLLOWED
-3.1516	FOOD	-0.0225
-4.0810	FOOLISH
-4.3820	FOOLISHNESS
-3.4789	FOOT
-4.3820	FOOTHILLS
-3.6830	FOOTPRINT
-2.3734	FOR	-0.1765
-4.3820	FORCE
-4.3820	FORCED
-4.3820	FORE
-3.3820	FOREST	-0.0272
-4.3820	FORESTS
-4.3820	FOREVER
-4.0810	FORGET
-4.3820	FORGETS
-4.0810	FORGOT
-4.0810	FORGOTTEN
-4.3820	FORTNIGHT
-4.3820	FORTY
-3.7800	FORWARD
-3.3406	FOUND	-0.1237
-4.3820	FOUNDATION
-3.5369	FOUR	+0.0069
-4.3820	FOURSCORE
-4.3820	FOWL
-4.0810	FOXY
-4.3820	FRANSISCO
-4.3820	FRED
-4.3820	FREE
-4.3820	FREELY
-4.3820	FREIGHT
-4.3820	FRENCH
-4.3820	FREQUENTLY
-4.0810	FRESH	-0.2738
-4.3820	FRIDAYS
-3.5369	FRIEND	-0.0733
-3.0810	FRIENDS	+0.0241
-4.3820	FRIGHT
-4.3820	FRIGHTEN
-3.7800	FRIGHTENED
-4.3820	FRIGHTENING
-3.3820	FROG
-2.7485	FROM	-0.2256
-3.7800	FRONT	-0.1388
-4.3820	FROSTY
-4.3820	FROWNING
-4.0810	FRUIT
-4.3820	FRUITS
-3.4789	FULL	-0.2023
-3.2359	FUN	-0.0301
-4.3820	FUNNIEST
-3.1779	FUNNY	-0.1667
-4.3820	FUR
-3.9049	FURRY
-4.3820	FURTHER
-4.3820	FUSS
-3.5369	FUTURE	-0.2944
-3.9049	GADAAM	-0.4083
-4.3820	GALORE
-3.6830	GAME	-0.0275
-3.9049	GAMES
-4.3820	GAP
-3.2681	GARDEN	-0.1555
-4.3820	GARDENERS
-4.3820	GARDENHAPPY
-4.3820	GARLIC
-4.3820	GATE
-3.4789	GAVE	-0.0561
-4.3820	GAY
-4.3820	GAZE
-4.3820	GEAOMETRY
-3.3820	GEESE	-0.0471
-4.3820	GENEROUS
-4.0810	GENTLE
-4.3820	GENTLER
-4.3820	GENTLY
-4.3820	GEOMETRY
-2.9196	GET	-0.1007
-3.9049	GETS
-3.6830	GETTING
-4.3820	GHOSTS
-4.0810	GIANT
-4.0810	GIGGLE
-4.3820	GINGER
-3.3820	GIRAFFE	-0.0182
-3.9049	GIRAFFE'S
-3.2359	GIRL	-0.0125
-3.7800	GIRLS	-0.0600
-3.1779	GIVE	-0.2645
-4.3820	GIVEN
-4.3820	GIVES
-3.7800	GIVING
-3.7800	GLASS	-0.7941
-4.0810	GLASSES
-4.0810	GLEAMING
-4.3820	GLEE
-4.3820	GLISTENED
-4.3820	GLORY
-2.5369	GO	-0.1385
-4.0810	GOAL
-4.3820	GOAT
-4.0810	GOATS
-4.3820	GOBBLED
-4.3820	GOD
-3.6830	GOES
-2.7193	GOING	-0.4706
-3.6830	GOLD	-0.4832
-4.0810	GOLDEN
-3.2681	GONE	-0.0304
-4.0810	GONU
-4.0810	GONU'S
-2.9349	GOOD	-0.0823
-4.3820	GOODBYE
-3.6039	GOOPU
-3.9049	GOOSEY
-3.2681	GOT	-0.1870
-4.0810	GRAB	-0.3518
-4.3820	GRABBED
-3.9049	GRAIN	-0.2010
-4.3820	GRAN
-4.0810	GRAND
-4.0810	GRANDFATHER
-3.6039	GRANDMOTHER	-0.0753
-3.9049	GRANNY
-4.3820	GRANT
-4.3820	GRANTED
-3.6830	GRASS	-0.0275
-3.6039	GRASSHOPPER
-3.1779	GREAT	-0.0312
-4.0810	GREATEST
-3.1779	GREEN	-0.1001
-3.1267	GREW	-0.1162
-4.3820	GREY
-4.3820	GRINNED
-4.3820	GRIPPED
-4.3820	GRIZZLED
-3.7800	GROCER	-0.1189
-3.3820	GROUND
-4.3820	GROUP
-3.6039	GROW
-4.0810	GROWING
-3.9049	GROWN
-3.9049	GROWS
-4.0810	GRUFF	-0.3561
-4.3820	GRUMPY
-4.3820	GRUNT
-4.3820	GUARD'S
-3.9049	GUDOOM
-4.0810	GUESS
-4.3820	GUESTS
-4.3820	GUILIDANDA
-4.3820	GUN
-3.5369	HA	-0.2836
-2.5827	HAD	-0.0531
-4.3820	HAHAHAH
-3.4789	HAIR	-0.1284
-3.5369	HALDI
-3.4789	HALF	-0.1396
-4.3820	HALT
-4.3820	HALTED
-3.1516	HAND	-0.0722
-4.3820	HANDKERCHIEF
-4.3820	HANDLE
-3.6830	HANDS
-3.6830	HAPPENED	-0.1078
-4.0810	HAPPENING
-4.3820	HAPPENS
-4.3820	HAPPIER
-3.6039	HAPPILY
-4.3820	HAPPINESS
-2.9349	HAPPY	-0.0557
-3.0203	HARD	-0.1846
-3.6830	HARDER
-3.9049	HARDLY
-4.0810	HARDWORKING
-3.3406	HARI	-0.0460
-4.0810	HARI'S
-3.7800	HARM	-0.0600
-4.0810	HARSH
-3.2681	HAS	-0.0183
-4.3820	HASTILY
-3.9049	HAT
-4.3820	HATE
-4.0810	HATED
-4.3820	HATS
-4.3820	HAUL
-2.5967	HAVE	-0.0645
-4.0810	HAY
-1.8583	HE	-0.2774
-4.3820	HE'D
-4.3820	HE'LL
-3.9049	HE'S
-3.2359	HEAD	-0.0341
-4.3820	HEADED
-4.3820	HEADS
-4.3820	HEALTHY
-4.3820	HEAP
-3.6830	HEAR
-3.2681	HEARD	-0.2133
-3.6830	HEARING	-0.1966
-4.0810	HEARS
-4.0810	HEAT
-4.0810	HEAVILY
-4.3820	HEAVY
-4.3820	HEDGE
-3.4789	HEE	-0.2362
-3.6830	HEIGH	-0.4029
-3.3406	HELD	-0.0686
-3.2059	HELEN	-0.0326
-4.3820	HELEN'S
-3.0396	HELP	-0.0776
-4.3820	HELPLESS
-4.0810	HELPS
-3.9049	HEN
-3.9049	HENNY	-0.2028
-2.3608	HER	-0.1273
-4.0810	HERD
-3.3406	HERE	-0.0597
-4.3820	HERE'S
-4.0810	HERSELF
-3.9049	HEY
-3.7800	HIAWATHA
-4.3820	HIAWATHA'S
-4.0810	HID
-4.0810	HIDDEN
-4.0810	HIDE
-3.9049	HIDING
-3.2359	HIGH	-0.0717
-3.7800	HIGHER
-4.0810	HIGHEST
-3.6039	HILL	-0.0875
-4.0810	HILLS
-4.3820	HILLSIDE
-2.6417	HIM	+0.0272
-3.2681	HIMSELF	-0.1048
-4.3820	HIRE
-2.2002	HIS	-0.1748
-4.3820	HISTORY
-3.5369	HIT	-0.1435
-3.6830	HO	-0.1976
-4.3820	HOARSE
-4.3820	HOCKEY
-3.9049	HOLD
-3.9049	HOLDING	-0.2002
-4.3820	HOLDS
-4.3820	HOLE
-4.3820	HOLES
-4.3820	HOLIDAY
-4.3820	HOLY
-3.1779	HOME	-0.0469
-4.3820	HOMES
-4.3820	HOMEWORK
-4.3820	HONEYBEES
-4.3820	HOOK
-4.3820	HOOP
-3.6039	HOP	-0.1202
-4.3820	HOPPED
-4.3820	HOPPING
-4.3820	HOPS
-4.3820	HORROR
-3.2681	HORSE	-0.1888
-4.0810	HORSEMEN
-4.0810	HORSES
-4.3820	HOSTEL
-3.5369	HOT
-4.0810	HOTTER
-3.5369	HOUR
-3.7800	HOURS
-2.8505	HOUSE	-0.0364
-2.7008	HOW	-0.1990
-3.9049	HOWEVER
-4.3820	HU
-3.9049	HUFF	-0.3961
-3.9049	HUFFED	-0.3961
-4.3820	HUG
-3.6830	HUGE	-0.1085
-4.3820	HUGS
-4.0810	HUMP
-4.3820	HUMPED
-4.3820	HUMPH
-3.9049	HUNDRED
-4.0810	HUNDREDS	-0.3525
-3.3406	HUNGRY	-0.0949
-4.3820	HUNT
-4.0810	HUNTED
-3.4789	HUNTER	-0.1402
-4.3820	HUNTER'S
-4.3820	HUNTING
-4.0810	HURRIED
-3.3820	HURRY	-0.0394
-3.9049	HURT
-4.3820	HURTING
-4.3820	HUSBAND
-4.3820	HUSH
-1.7577	I	-0.4441
-3.6830	I'D
-3.3820	I'LL	-0.1095
-3.0810	I'M	-0.1946
-4.3820	I'VE
-3.9049	ICE	-0.4083
-4.3820	ICY
-3.7800	IDEA
-4.3820	IDLED
-4.3820	IDLING
-2.6744	IF	-0.3084
-3.6039	ILL	-0.3553
-4.3820	ILLNESS
-4.3820	IMAGINATION
-3.7800	IMAGINE
-4.3820	IMMEDIATELY
-4.3820	IMPATIENTLY
-3.9049	IMPORTANCE
-4.0810	IMPORTANT
-4.3820	IMPOSSIBLE
-4.3820	IMPROVING
-1.9893	IN	-0.4557
-4.3820	INCHES
-4.3820	INDEED
-4.3820	INDIAN
-3.7800	INDIANS
-4.3820	INDIGO
-4.3820	INFORM
-4.0810	INHABITANTS
-4.3820	INHABITED
-4.3820	INJURY
-4.3820	INSECTS
-3.3820	INSIDE	-0.0279
-4.3820	INSIST
-3.4278	INSTEAD	-0.1990
-4.3820	INTEREST
-4.3820	INTERESTING
-4.3820	INTERRUPTING
-4.3820	INTERRUPTION
-2.9049	INTO	-0.4084
-4.3820	INVESTIGATE
-4.3820	INVITED
-2.2002	IS	-0.0818
-4.0810	ISLAND
-4.0810	ISN'T
-1.9806	IT	-0.1272
-3.3406	IT'S	-0.0346
-2.9196	ITS	-0.0169
-4.3820	JAM
-3.9049	JANE
-4.0810	JAY
-4.3820	JERK
-4.3820	JINGLING
-4.3820	JOB
-3.9049	JOIN
-4.3820	JOLLY
-4.0810	JOURNEY
-3.3820	JOY
-4.3820	JOYFUL
-4.3820	JUDGE
-3.7800	JUMP
-3.4278	JUMPED	-0.1687
-4.3820	JUMPS
-4.3820	JUNE
-3.3406	JUNGLE	-0.1320
-2.8635	JUST	-0.1407
-4.3820	KA
-3.7800	KAA	-0.2652
-4.3820	KAAT
-4.3820	KABADDI
-4.3820	KAKAR
-3.6830	KALU
-4.3820	KALU'S
-4.3820	KAMEEZ
-4.3820	KANGAROO
-3.9049	KANGLEIPAK
-3.5369	KEEP	-0.2429
-3.9049	KEEPER
-4.3820	KEEPS
-4.3820	KELLER
-4.3820	KENNEL
-3.9049	KEPT	-0.2026
-4.0810	KERALA
-4.3820	KHONGNANG
-4.3820	KICKED
-3.9049	KILL	-0.2024
-3.9049	KILOMETRES	-0.4077
-3.5369	KIND	-0.1552
-2.8769	KING	-0.1384
-4.3820	KINGDOM
-4.3820	KISSED
-4.3820	KITCHEN
-3.4278	KITE	-0.0500
-3.6039	KITES	-0.1174
-4.0810	KNEES
-3.3820	KNEW	-0.0260
-4.3820	KNOCKED
-2.9507	KNOW	-0.0861
-3.6830	KNOWS	-0.0275
-4.3820	KOOZ
-4.3820	LACK
-4.3820	LADDER
-4.0810	LADDU
-3.7800	LADY	-0.1424
-4.3820	LADY'S
-4.3820	LAID
-4.3820	LAKE
-4.3820	LAKES
-3.6830	LALU
-4.3820	LALU'S
-3.4278	LAND	-0.0539
-4.3820	LANDED
-4.3820	LANE
-4.0810	LANGUAGE	-0.3562
-3.9049	LANGUAGES
-4.3820	LANGUR
-4.3820	LARGE
-3.7800	LARGER	-0.1423
-4.3820	LASHED
-4.3820	LASSES
-3.4278	LAST
-4.3820	LASTED
-3.6039	LATE
-3.5369	LATER	+0.0069
-3.7800	LAUGH
-3.9049	LAUGHED	-0.2010
-3.6039	LAUGHING
-4.3820	LAUGHS
-4.3820	LAUGHTER
-3.9049	LAW
-4.3820	LAWS
-3.5369	LAY	-0.0747
-4.3820	LAYS
-3.6039	LAZY	-0.1577
-4.0810	LEAD
-4.0810	LEAF
-4.3820	LEAFY
-4.3820	LEAP
-4.3820	LEAPED
-4.3820	LEAPS
-4.3820	LEAPT
-3.6039	LEARN
-3.6830	LEARNED	-0.1094
-4.3820	LEARNT
-3.7800	LEAVE
-3.0598	LEAVES	-0.0404
-4.3820	LED
-3.3820	LEFT	-0.0051
-3.7800	LEGS	-0.2531
-3.6830	LEIMA
-3.7800	LEND
-4.3820	LENGTH
-4.3820	LENT
-4.0810	LESS
-4.3820	LESSONS
-3.0396	LET	-0.1836
-3.6830	LET'S
-4.3820	LETS
-3.6830	LETTERS
-4.3820	LETTING
-4.3820	LEVEL
-4.3820	LIAR
-4.3820	LIBRARY
-4.3820	LICKING
-3.6830	LIE
-4.3820	LIES
-3.6039	LIFE
-4.3820	LIFTED
-4.0810	LIGHT
-4.3820	LIGHTNING
-4.3820	LIGHTS
-2.6918	LIKE	-0.1487
-3.6830	LIKED	-0.1012
-4.3820	LIKES
-4.0810	LIMB
-3.4278	LINE
-3.9049	LINES	-0.2002
-3.6830	LING
-3.1516	LION	-0.0526
-4.3820	LIPS
-4.3820	LIST
-3.7800	LISTEN	-0.1337
-4.0810	LISTENED
-2.4475	LITTLE	-0.0900
-3.7800	LIVE
-3.0598	LIVED	-0.2071
-4.3820	LIVES
-4.0810	LO
-4.0810	LOAD
-4.3820	LOADS
-3.9049	LOBSTER
-4.0810	LOBSTERS
-4.3820	LOCK
-4.0810	LOCKED
-3.9049	LOCKY
-4.3820	LODGES
-4.0810	LOG
-4.3820	LOLLS
-4.3820	LONELY
-2.8907	LONG	-0.1083
-3.4789	LONGER
-3.0598	LOOK	-0.2300
-2.8022	LOOKED	-0.3644
-3.6830	LOOKING	-0.1082
-3.6830	LOOKS
-4.3820	LOSING
-4.0810	LOST
-3.6830	LOT	-0.4797
-3.9049	LOTS	-0.1990
-3.9049	LOTUS
-3.4278	LOUD
-4.0810	LOUDER
-3.7800	LOUDLY
-3.2681	LOVE	-0.2601
-3.2359	LOVED	-0.1102
-3.6830	LOVELY
-4.3820	LOVING
-4.3820	LOVINGLY
-3.9049	LOW
-4.3820	LOWER
-4.3820	LUCK
-4.3820	LUCKILY
-3.4789	LUCKY	-0.1907
-3.5369	LUNCH
-4.3820	LYING
-4.0810	M	-0.3469
-3.6039	MA	-0.0775
-4.3820	MACHINES
-3.1516	MADE	-0.0283
-3.5369	MAGIC	-0.2372
-4.0810	MAGICIAN
-4.3820	MAGNET
-3.9049	MAHARAJA
-4.3820	MAIL
-4.3820	MAINLAND
-4.3820	MAJESTICALLY
-3.0203	MAKE	-0.2835
-3.6830	MAKES
-3.9049	MAKING
-3.4278	MALU
-4.0810	MALU'S
-3.6830	MAMA	-0.4833
-2.6660	MAN	-0.0942
-4.3820	MANAGES
-3.5369	MANGO	-0.0829
-3.9049	MANGOES
-4.3820	MANIPUR
-3.0598	MANY	-0.0095
-4.3820	MARBLE
-4.0810	MARBLES	-0.3441
-4.0810	MARIGOLD
-4.0810	MARIGOLDS
-4.3820	MARK
-4.3820	MARKED
-3.6830	MARKET
-4.0810	MARRIED
-3.7800	MASTER
-4.3820	MASTERED
-4.3820	MASTERY
-4.0810	MATCH
-3.6830	MATTER	-0.0275
-4.3820	MAXIMUM
-3.5369	MAY
-2.4135	ME	-0.0861
-4.3820	MEADOW
-4.3820	MEAN
-4.0810	MEANT
-4.3820	MEASURE
-4.0810	MEDICINE
-3.5369	MEENA	-0.0707
-3.9049	MEET
-4.0810	MEEYAM
-4.3820	MELA
-3.9049	MEN
-4.3820	MENTION
-4.3820	MERCY
-4.3820	MERRILY
-3.5369	MERRY	-0.2443
-4.3820	MESH
-4.3820	MESHES
-3.1516	MET	-0.0653
-4.3820	MICE
-3.3820	MIDDLE	-0.3452
-3.6830	MIGHT
-4.3820	MIGHTY
-3.9049	MILE
-4.0810	MILES
-4.3820	MILK
-3.6830	MILKMAN	-0.1098
-4.3820	MILKMAN'S
-4.3820	MILLI
-4.3820	MILLION
-3.9049	MIND	-0.1968
-4.3820	MINE
-4.3820	MINISTER
-4.0810	MINISTERS
-4.3820	MINUTES
-4.3820	MIRE
-3.9049	MIRROR	-0.3961
-4.3820	MISCHIEF
-3.6039	MISS	-0.3846
-4.3820	MISTAKEN
-4.3820	MISTAKING
-4.3820	MITE
-3.4278	MITTU	-0.0936
-4.3820	MIXED
-3.5369	MOHINI	-0.1313
-3.9049	MOM
-3.9049	MOMENT
-4.3820	MONDAYS
-3.6039	MONEY
-3.2359	MONKEY	-0.0168
-3.7800	MONSTER
-4.3820	MONSTERS
-4.0810	MONTHS
-3.7800	MONU	-0.1304
-3.9049	MONU'S	-0.2023
-4.3820	MOOD
-3.7800	MOON
-4.3820	MOONLIGHT
-2.9507	MORE	-0.0233
-2.9507	MORNING	-0.0937
-3.4789	MOSQUITO	-0.0652
-4.3820	MOSSY
-3.4789	MOST
-2.5559	MOTHER	-0.0905
-3.7800	MOTHER'S
-4.3820	MOTION
-4.3820	MOUNDS
-4.0810	MOUNTAIN
-3.3820	MOUNTAINS	-0.0511
-4.0810	MOUNTED
-3.4278	MOUSE	+0.0249
-4.3820	MOUSTACHE
-3.5369	MOUTH	+0.0069
-4.0810	MOUTHS
-3.6039	MOVE
-4.3820	MOVED
-4.0810	MOVING
-3.7800	MR
-3.2681	MUCH	+0.0011
-3.6830	MUMBAI	-0.1151
-4.3820	MUMMY
-3.4278	MUNNA	-0.0577
-4.3820	MUNNA'S
-4.3820	MURALI
-4.3820	MURALI'S
-4.3820	MUSCLES
-3.7800	MUSIC	-0.1417
-3.9049	MUSICIAN
-4.0810	MUSICIANS
-3.1516	MUST	-0.0573
-4.0810	MUTTERED
-4.3820	MUTTERS
-2.2647	MY	-0.1471
-4.3820	MYNA
-3.7800	MYSELF	-0.0600
-4.3820	MYSTERY
-3.3820	NAME	-0.1091
-3.6039	NAMED
-3.9049	NAMES	-0.1907
-4.3820	NARRATING
-3.2681	NARRATOR	-0.0181
-4.3820	NASHI
-3.2681	NASRUDDIN	-0.0341
-4.3820	NATIVE
-4.3820	NATURALLY
-4.3820	NATURED
-4.3820	NAUGHTIER
-3.9049	NAUGHTY	-0.2021
-3.1033	NEAR	-0.3381
-4.0810	NEARED
-4.3820	NEARLY
-4.3820	NEATH
-3.6830	NECK
-4.3820	NECKS
-3.6039	NEED	-0.0071
-4.0810	NEEDLE
-4.0810	NEEDLES
-3.1033	NEHA	-0.1476
-3.9049	NEHA'S	-0.2027
-3.9049	NEIGHBOUR
-4.3820	NEITHER
-3.7800	NEST
-4.0810	NESTS
-3.6039	NET
-3.0396	NEVER	+0.0106
-3.4789	NEW	-0.1126
-4.3820	NEWSPAPER
-3.1267	NEXT	-0.2428
-3.5369	NICE	-0.0489
-3.0810	NIGHT	-0.0983
-3.3406	NINA	-0.0140
-3.7800	NINAS
-4.3820	NINE
-4.3820	NINEPINS
-3.4278	NINGTHOU	-0.1906
-4.3820	NINTH
-4.3820	NIPPED
-2.5967	NO	-0.0771
-4.3820	NOBLE
-3.3406	NOBODY	-0.0162
-4.0810	NOBODY'S	-0.3562
-3.6830	NOISE
-4.0810	NOKOMIS
-4.3820	NON
-4.3820	NONE
-4.0810	NOON
-4.3820	NOONDAY
-4.0810	NOR
-3.4789	NOSE	-0.1124
-2.3734	NOT	-0.0088
-3.2681	NOTHING	+0.0007
-4.3820	NOTICE
-4.3820	NOTICED
-2.6186	NOW	-0.0273
-4.0810	NOWHERE
-4.3820	NUMBER
-4.3820	NUT
-4.0810	O
-4.3820	O'CLOCK
-4.3820	OAK
-4.3820	OBEYED
-4.3820	OBSERVED
-3.9049	OCEAN
-4.3820	OCTOPUS
-4.3820	ODD
-2.0557	OF	-0.2033
-3.0203	OFF	-0.2091
-4.3820	OFFER
-3.5369	OFTEN	-0.0755
-2.9049	OH	-0.2052
-4.0810	OIL
-2.7099	OLD	-0.3920
-3.9049	OLDER
-2.2177	ON	-0.3418
-2.9841	ONCE	-0.2178
-2.4043	ONE	-0.2375
-4.0810	ONES
-3.0018	ONLY	-0.0004
-4.3820	OOH
-3.6039	OOO	-0.1577
-3.6830	OPEN
-3.7800	OPENED
-4.3820	OPENS
-4.3820	OPINION
-4.3820	OPINIONS
-2.7800	OR	-0.0032
-4.0810	ORANGE
-4.0810	ORDER	-0.3474
-3.6039	ORDERED	-0.0874
-3.0598	OTHER	-0.1084
-3.7800	OTHERS
-4.3820	OUCH
-3.2059	OUR	-0.0123
-2.5559	OUT	-0.1420
-3.9049	OUTSIDE
-3.0018	OVER	-0.2846
-4.3820	OVERCOME
-4.3820	OVERTAKE
-3.4278	OWN
-4.3820	OX
-4.3820	PACIFIC
-3.9049	PADDED	-0.1203
-4.0810	PADDLING	-0.3562
-3.9049	PAGES
-4.3820	PAIL
-3.7800	PAIN	-0.1388
-4.0810	PAINT
-4.3820	PALACE
-4.3820	PANSIES
-4.3820	PANTS
-3.6039	PAPA	-0.5831
-4.0810	PAPER
-3.7800	PARENTS
-4.0810	PARROT
-3.6830	PART	-0.1938
-4.3820	PARTING
-4.3820	PARTS
-3.6830	PASS
-3.4278	PASSED	-0.0269
-4.3820	PASSENGER
-3.7800	PASSENGERS	-0.1415
-3.9049	PASSEPARTOUT
-4.3820	PASSES
-4.0810	PASSING
-4.0810	PAST
-4.3820	PASTE
-4.3820	PATH
-3.7800	PATIENCE
-4.3820	PATIENT
-4.3820	PATIENTLY
-3.9049	PAW	-0.1792
-4.3820	PAWS
-4.3820	PAY
-4.0810	PEACE
-3.7800	PEACH	-0.7929
-3.7800	PEAS
-4.3820	PEBBLES
-4.3820	PECKED
-4.3820	PECKING
-3.6039	PEELU
-4.3820	PEEPED
-3.5369	PENCIL	-0.1862
-4.3820	PENGUINS
-3.9049	PENNY
-2.6918	PEOPLE	-0.1619
-4.3820	PERFECTLY
-3.9049	PERHAPS
-4.3820	PERSON
-4.3820	PET
-4.3820	PHEASANT
-4.3820	PHILEAS
-3.3820	PIA	-0.4411
-3.3406	PIANO	-0.4091
-3.4789	PICKED	-0.3038
-4.3820	PICNIC
-4.3820	PICTURE
-3.9049	PICTURES
-4.0810	PIECE	-0.3525
-3.7800	PIECES	-0.2614
-4.3820	PIERCED
-4.0810	PIG
-4.3820	PIGS
-4.0810	PILLOW
-4.3820	PIN
-4.3820	PINCER
-4.3820	PINCERS
-3.9049	PINCH
-4.0810	PINCHED
-4.3820	PINCHER
-4.0810	PINCHING
-4.3820	PINE
-4.0810	PINK
-3.6039	PINOCCHIO
-4.3820	PINOCCHIO'S
-4.3820	PISTOL
-3.7800	PITTAPITTA	-0.1425
-4.3820	PITY
-3.6039	PLACE	-0.0892
-3.6830	PLACED	-0.2517
-4.3820	PLAIN
-4.0810	PLAINS	-0.3559
-4.3820	PLANE
-4.3820	PLANNED
-3.6830	PLANT
-4.3820	PLANTED
-4.3820	PLATE
-2.8907	PLAY	-0.0971
-3.9049	PLAYED
-4.3820	PLAYFULLY
-4.0810	PLAYGROUND
-3.4789	PLAYING	-0.1207
-4.3820	PLEADED
-4.3820	PLEASANTLY
-3.4789	PLEASE	-0.0650
-4.3820	PLEASED
-4.3820	PLEASEI
-4.3820	PLEASES
-4.3820	PLEASURE
-3.4789	PLIP	-0.3884
-4.3820	PLUCK
-4.3820	PLUCKED
-4.3820	PLUMP
-4.3820	PLUS
-4.3820	POEMS
-4.3820	POINT
-4.3820	POINTED
-4.0810	POINTING
-4.3820	POLAR
-3.6830	POLICEMAN	-0.0979
-4.0810	POND
-4.0810	PONY
-3.5369	POOL	-0.0635
-3.6830	POOR
-3.9049	POOSEY	-0.2028
-3.9049	POP
-4.3820	POPPIES
-4.3820	POPPY
-3.1516	PORRIDGE
-4.0810	POSSIBLE
-4.3820	POSTMAN
-3.1033	POT	-0.1160
-4.0810	POTATOES
-4.0810	POUNCED
-4.3820	POURED
-4.3820	POURS
-4.3820	PRAWNS
-3.6830	PRAYED	-0.4812
-4.3820	PRECIOUS
-4.3820	PREFER
-4.3820	PREFERRING
-4.3820	PREPARATIONS
-3.9049	PREPARED	-0.2010
-4.3820	PRETEND
-3.6039	PRETTY
-3.9049	PRICK
-4.0810	PRICKED
-4.3820	PRICKER
-4.3820	PRICKING
-4.3820	PRIDE
-4.0810	PRINT
-4.3820	PRINTS
-3.9049	PROBLEM
-4.3820	PROCEED
-4.3820	PROCESSION
-4.3820	PROPERLY
-4.3820	PROTECTION
-3.9049	PROUD
-4.0810	PROUDLY
-4.3820	PROVED
-3.7800	PUFF	-0.2531
-3.9049	PUFFED	-0.1907
-4.3820	PUFFING
-3.5369	PULL	-0.4868
-3.1779	PULLED	-0.4814
-4.3820	PULLING
-4.0810	PULLS	-0.3547
-4.3820	PUNCTUALITY
-3.7800	PUNDIT
-3.7800	PUNDIT'S	-0.1425
-4.3820	PUNISHMENT
-4.0810	PUPPET
-3.6830	PUPPY	-0.1084
-4.3820	PUPS
-4.3820	PURPLE
-4.3820	PURRING
-3.2359	PUT	-0.0790
-4.3820	PUTS
-4.0810	PUZZLED
-4.0810	QUACK
-3.4789	QUEEN
-4.0810	QUEER
-4.3820	QUESTION
-4.3820	QUICK
-3.5369	QUICKLY
-3.4278	QUIET	-0.0500
-3.9049	QUIETLY
-4.3820	QUIT
-4.0810	QUITE
-4.3820	R
-4.0810	RABBIT
-3.9049	RACE
-4.3820	RACED
-4.3820	RACES
-4.3820	RACING
-4.3820	RADISHES
-4.3820	RAGING
-3.9049	RAILWAY
-3.6039	RAIN
-3.7800	RAINBOW
-4.3820	RAINBOWS
-4.3820	RAINDROPS
-4.3820	RAINED
-4.0810	RAINING
-3.9049	RAINS
-4.3820	RAINY
-4.3820	RAISE
-4.3820	RAISING
-3.0018	RAN	-0.2556
-4.3820	RATHER
-4.0810	RAZOR
-4.0810	REACH
-3.3028	REACHED	-0.0968
-4.3820	REACHING
-3.2059	READ	-0.2741
-4.3820	READING
-3.6039	READY	-0.1489
-3.9049	REAL
-4.3820	REALISE
-3.9049	REALISED	-0.4060
-3.3028	REALLY
-4.3820	REAP
-4.3820	REAPERS
-4.0810	REAPING
-4.3820	REASON
-4.3820	RECOGNISED
-3.0598	RED	-0.0649
-4.3820	REFUSED
-4.3820	REINDEER
-4.0810	RELAX
-4.3820	RELAY
-4.3820	RELIEF
-4.3820	REMAINED
-4.3820	REMARKED
-4.3820	REMARKS
-4.0810	REMEMBER
-3.9049	REMEMBERED	-0.2006
-4.3820	REMINDS
-4.3820	REMOVE
-4.3820	REMOVED
-4.3820	REPEATING
-3.3406	REPLIED	-0.1159
-4.3820	REQUIRED
-3.6039	REST	-0.1156
-4.0810	RESTING	-0.3537
-4.3820	RESTLESS
-4.0810	RESULTS
-4.3820	RETURN
-3.9049	RETURNED
-4.3820	RETURNING
-4.3820	REVERSED
-4.3820	REVOLVERS
-4.3820	REWARD
-4.3820	RICH
-4.3820	RID
-3.9049	RIDE
-4.3820	RIDER
-4.3820	RIDERS
-4.0810	RIDING
-4.3820	RIFLES
-3.3028	RIGHT	-0.1386
-3.9049	RING
-4.3820	RINGING
-4.3820	RINGS
-3.2059	RIP	-0.1489
-4.3820	RIP'S
-4.3820	RIPE
-4.3820	RISING
-3.2359	RIVER	-0.1161
-3.9049	RIVERS
-3.4789	ROAD	+0.0171
-4.3820	ROADS
-3.5369	ROAR	-0.1489
-4.3820	ROARED
-4.3820	ROARING
-4.3820	ROARS
-4.0810	ROBIN	-0.3559
-4.3820	ROCK
-3.9049	ROCKY
-3.6830	RODE	-0.1097
-3.7800	ROLL	-0.1425
-3.9049	ROLLED	-0.2018
-3.6039	ROOM	-0.1962
-4.3820	ROOT
-4.0810	ROOTS
-4.3820	ROPE
-3.6830	ROSE
-4.0810	ROSES
-3.1033	ROUND	-0.1663
-4.3820	ROW
-4.3820	ROWING
-4.0810	RUB
-4.3820	RUBBED
-4.3820	RUDE
-4.3820	RULER
-2.9670	RUN	-0.0137
-3.6039	RUNNING
-3.9049	RUSH	-0.1940
-4.3820	RUSHING
-4.3820	SACK
-4.3820	SACKS
-3.4789	SAD
-4.0810	SAFE
-2.2002	SAID	-0.2156
-4.0810	SAIL
-3.9049	SAILED
-4.3820	SAILING
-4.3820	SALT
-4.3820	SALWAR
-4.3820	SAMBHAR
-3.6830	SAME
-4.3820	SAN
-3.7800	SANAJAOBA
-4.3820	SANATOMBA
-3.7800	SANATOMBI
-4.0810	SANAYAIMA
-3.4789	SAND	-0.2287
-4.3820	SANDS
-4.3820	SANDWICHES
-3.9049	SANDY
-3.7800	SANG
-4.3820	SANK
-4.3820	SANTHAL
-3.1779	SAT	-0.1877
-4.3820	SATISFY
-4.3820	SATURDAYS
-4.3820	SAVAGES
-2.8257	SAW	-0.2501
-2.9670	SAY	-0.1115
-3.7800	SAYING	-0.2642
-3.1033	SAYS	-0.2288
-4.3820	SCARE
-4.3820	SCARY
-4.3820	SCHACABAC
-2.9507	SCHOOL	-0.0087
-4.3820	SCHOOLMASTER
-4.3820	SCOLD
-4.3820	SCOLDED
-4.3820	SCOLDING
-4.3820	SCOTLAND
-4.3820	SCRAPED
-3.9049	SCRAPS
-4.0810	SCREAMED
-3.4278	SEA	+0.0249
-4.3820	SEALS
-4.3820	SEARCH
-4.3820	SEARCHING
-4.0810	SEAS
-4.0810	SEASIDE
-3.9049	SECOND
-4.3820	SECONDLY
-4.3820	SECRET
-4.0810	SECRETS	-0.3555
-2.7485	SEE	-0.0920
-4.0810	SEED
-3.9049	SEEDS	-0.2025
-4.0810	SEEING
-4.3820	SEEK
-4.3820	SEEM
-4.3820	SEEMED
-4.3820	SEEMS
-3.4789	SEEN	-0.0312
-3.7800	SEES
-4.0810	SELECT
-4.3820	SELL
-4.0810	SEND
-4.0810	SENT
-4.3820	SENTENCE
-4.3820	SEPARATED
-4.3820	SEPARATELY
-4.3820	SERIOUS
-4.3820	SERVED
-4.0810	SET
-3.7800	SEVEN
-4.0810	SEVERAL
-4.3820	SHA
-3.9049	SHADE
-4.3820	SHADY
-3.6830	SHAKE	-0.1100
-3.5369	SHALL
-4.3820	SHAN'T
-4.3820	SHAPE
-4.3820	SHAPES
-3.7800	SHARE
-3.9049	SHAVE
-3.7800	SHAVED
-3.6830	SHAVING	-0.0864
-3.6039	SHAY	-0.3561
-2.2886	SHE	-0.1821
-4.3820	SHE'S
-4.3820	SHEAF
-4.3820	SHEEP
-3.9049	SHELL
-4.3820	SHELTER
-4.3820	SHELVES
-3.9049	SHETTY
-4.3820	SHINE
-4.3820	SHINES
-3.7800	SHINING
-4.3820	SHINY
-3.6039	SHIP	-0.3524
-4.3820	SHIPS
-4.3820	SHIRK
-4.3820	SHIRTS
-4.0810	SHOCKED
-3.6830	SHOE
-3.6830	SHOES	-0.0979
-3.9049	SHONE
-4.3820	SHOOED
-3.5369	SHOOK	-0.1624
-3.5369	SHOOT	-0.1430
-4.0810	SHOOTS
-3.5369	SHOP	+0.0069
-3.7800	SHORE
-3.7800	SHORT
-3.9049	SHORTER
-4.0810	SHOT
-4.0810	SHOTS
-3.0018	SHOULD	-0.2252
-4.3820	SHOULDER
-3.9049	SHOUT
-3.3820	SHOUTED	-0.0515
-4.3820	SHOUTS
-3.6830	SHOW	-0.0275
-4.0810	SHOWED
-4.3820	SHOWER
-4.3820	SHOWING
-4.3820	SHOWS
-4.3820	SHRIEKED
-4.3820	SHRILL
-4.3820	SHRIMPS
-4.3820	SHUDDERED
-4.3820	SHUT
-4.3820	SICK
-3.6830	SIDE
-4.3820	SIDES
-4.3820	SIDEWAYS
-4.3820	SIGHING
-3.9049	SIGHT
-4.3820	SIGNALMAN
-4.3820	SIGNS
-3.9049	SILENCE
-3.9049	SILENT
-4.3820	SILENTLY
-4.3820	SILL
-4.0810	SILLY
-4.3820	SIMPLE
-3.9049	SIMPLY
-3.9049	SINCE
-3.5369	SING
-3.6830	SINGING	-0.0979
-4.3820	SINGLE
-4.3820	SINGLY
-4.3820	SINK
-4.3820	SINKS
-4.3820	SIOUX
-4.3820	SIPPED
-3.4278	SIT	-0.1110
-3.7800	SITTASITTA	-0.2652
-3.6830	SITTING	-0.1075
-3.4789	SIX
-4.3820	SIXTH
-4.3820	SIXTY
-3.6830	SIZE	-0.2575
-4.0810	SKILL
-4.3820	SKINNY
-3.1516	SKY	-0.1857
-4.3820	SLAMMED
-3.6039	SLEEP
-3.9049	SLEEPING
-4.0810	SLEEPS
-3.9049	SLEEPY	-0.2026
-4.3820	SLENDER
-3.6830	SLEPT	-0.1056
-4.0810	SLIPPED
-4.3820	SLOPES
-3.9049	SLOW
-4.3820	SLOWED
-3.4278	SLOWLY	-0.0864
-4.3820	SLOWS
-3.0203	SMALL	-0.0492
-4.3820	SMALLEST
-4.0810	SMART
-4.3820	SMELL
-3.5369	SMILE
-3.5369	SMILED	-0.1533
-3.7800	SMILES
-4.3820	SMILEY
-3.7800	SMILING
-4.3820	SNAIL
-4.3820	SNATCHED
-4.3820	SNORES
-4.0810	SNOW
-4.3820	SNOWING
-4.3820	SNUGGLES
-2.5432	SO	-0.1092
-4.3820	SOAK
-4.3820	SOAKED
-3.9049	SOFT	-0.1907
-4.3820	SOFTLY
-4.3820	SOLDIERS
-4.3820	SOLVE
-2.8257	SOME	-0.0916
-3.4789	SOMEBODY	-0.0599
-3.5369	SOMEONE	-0.0756
-3.3820	SOMETHING
-3.5369	SOMETIMES	-0.1551
-4.3820	SOMEWHERE
-3.6830	SON
-3.6830	SONG	-0.1707
-3.9049	SONGS
-4.0810	SONS
-3.1516	SONU	-0.0608
-3.7800	SONU'S
-3.1516	SOON	-0.1016
-4.3820	SOONER
-3.3820	SORRY	-0.0497
-4.3820	SOUL
-3.9049	SOUND
-4.3820	SOUNDED
-4.3820	SOUNDS
-4.0810	SPACE
-4.0810	SPARE
-3.3820	SPARROWS	-0.0513
-3.6039	SPEAK
-4.3820	SPEAKS
-4.0810	SPEAR
-3.9049	SPECIAL
-4.3820	SPEECH
-4.3820	SPEECHES
-4.0810	SPEED
-4.3820	SPEEDING
-4.3820	SPELLS
-3.7800	SPELT
-3.9049	SPIDER
-3.9049	SPIDER'S	-0.2028
-4.3820	SPIDERS
-4.3820	SPILLING
-3.6039	SPLASH	-0.1202
-4.3820	SPLASHING
-3.9049	SPOKE
-4.3820	SPOONFULS
-4.3820	SPOTS
-4.3820	SPRANG
-3.7800	SPREAD
-4.3820	SPRING
-4.3820	SQUARE
-4.0810	SQUEAKED	-0.3326
-4.3820	SQUIRREL
-4.3820	SQUIRRELS
-4.3820	STALKS
-4.3820	STAMPED
-3.9049	STAND
-4.3820	STANDING
-4.3820	STARE
-3.5369	STARED	-0.3828
-4.3820	STARES
-4.3820	STARING
-3.7800	STARS
-3.9049	START
-3.3406	STARTED	-0.0377
-4.0810	STARTS
-4.3820	STARVE
-4.0810	STATION
-3.9049	STAY
-3.6830	STAYED	-0.1090
-4.0810	STAYS
-4.3820	STEADILY
-4.0810	STEAL
-4.3820	STEAMED
-3.9049	STEEP
-4.3820	STEP
-4.0810	STEPS
-4.3820	STERNLY
-4.3820	STICK
-4.3820	STICKING
-4.0810	STICKS
-4.3820	STIFF
-3.4278	STILL	+0.0249
-4.3820	STOLE
-3.9049	STOMACH
-4.0810	STONE
-3.4789	STOOD	-0.0610
-3.0203	STOP	-0.0931
-3.3406	STOPPED
-3.6830	STORE	-0.1974
-4.3820	STORED
-4.3820	STORES
-3.7800	STORIES
-4.3820	STORING
-4.0810	STORM
-3.9049	STORY
-4.0810	STRAIGHT
-4.0810	STRANGE
-4.3820	STRANGER
-3.6830	STRAW
-4.3820	STRAWBERRY
-4.3820	STREAMING
-4.3820	STREET
-4.0810	STREETS
-4.0810	STRENGTH
-4.3820	STRETCH
-4.3820	STRETCHED
-4.3820	STRETCHES
-4.3820	STRICT
-3.9049	STRING
-3.9049	STRIPES	-0.2020
-4.3820	STRIPS
-4.3820	STROKE
-4.3820	STROKED
-4.3820	STROKING
-3.3406	STRONG	+0.0360
-3.9049	STRONGER
-4.0810	STRUCK
-4.3820	STRUGGLED
-4.0810	STRUNG
-4.3820	STRUTTING
-3.9049	STUCK
-4.3820	STUDIED
-4.3820	STUDIES
-3.6830	STUDY	-0.1007
-4.0810	STUDYING
-3.9049	STUMP
-4.3820	STUPID
-4.3820	STY
-4.0810	SUBJECT
-4.3820	SUBWAY
-4.3820	SUCCESSFUL
-3.9049	SUCH	-0.1203
-4.3820	SUDDEN
-3.3028	SUDDENLY	-0.0994
-4.3820	SUGARCANE
-3.9049	SULLIVAN
-3.1516	SULTAN	-0.0877
-4.3820	SULTAN'S
-3.5369	SUMMER	-0.0489
-4.3820	SUMMER'S
-2.9507	SUN	+0.0224
-3.5369	SUNDARI
-4.3820	SUNDAY
-4.0810	SUNFLOWER
-4.3820	SUNFLOWERS
-4.3820	SUNLIGHT
-3.9049	SUNNY
-3.6830	SUNSHINE
-3.1779	SUNU	-0.1899
-4.3820	SUPPORT
-4.3820	SUPPOSE
-4.3820	SURE
-4.0810	SURELY
-3.6830	SURPRISE	-0.0275
-3.6039	SURPRISED	-0.1815
-4.3820	SURROUNDED
-4.3820	SURVEY
-4.3820	SUSPENSION
-4.0810	SWAM
-3.9049	SWAY	-0.2028
-3.6830	SWEET	-0.0275
-4.0810	SWEETS
-4.3820	SWIFTLY
-3.7800	SWIM
-4.0810	SWIMMING
-3.6830	SWING	-0.3834
-4.3820	SWINGING
-4.3820	SWINGS
-4.3820	SWUM
-3.6830	TABLE
-3.5369	TAIL	-0.2334
-4.3820	TAILOR
-3.1779	TAKE	-0.1657
-3.9049	TAKEN
-4.3820	TAKES
-4.3820	TAKING
-4.3820	TALES
-3.9049	TALK	-0.1940
-3.7800	TALKED	-0.2631
-4.3820	TALKER
-4.3820	TALKERS
-3.4278	TALKING	-0.0160
-3.6830	TALL	-0.0275
-3.5369	TARA
-3.4789	TARGET	-0.1005
-4.3820	TASTED
-4.0810	TASTY
-4.0810	TAUGHT
-4.3820	TAXIS
-3.6039	TEACHER
-3.9049	TEAM	-0.4080
-4.3820	TEAR
-3.6039	TEARS	-0.0896
-4.3820	TEASE
-4.0810	TEETH
-3.0810	TELL	-0.2557
-4.0810	TELLING
-4.3820	TELLS
-4.3820	TELUGU
-4.3820	TEMPTING
-3.7800	TEN
-4.3820	TENDER
-4.3820	TERROR
-4.3820	TEST
-4.3820	TEXTBOOKS
-3.1779	THAN	+0.0511
-3.7800	THANK	-0.1377
-3.6039	THANKFUL	-0.4042
-2.2748	THAT	-0.2271
-3.3820	THAT'S	+0.0310
-1.2748	THE	-0.3157
-2.8138	THEIR	-0.0433
-4.3820	THEIRS
-2.5308	THEM	-0.0746
-3.6039	THEMSELVES	-0.0852
-2.6417	THEN	-0.0496
-2.3997	THERE	-0.5556
-3.9049	THERE'S	-0.1935
-3.4278	THESE	-0.0160
-2.2614	THEY	-0.2208
-4.3820	THEY'LL
-4.0810	THEY'RE
-4.3820	THEYRE
-3.6039	THICK	-0.1456
-4.3820	THIN
-3.9049	THING
-3.1033	THINGS	-0.0724
-3.0203	THINK	-0.2777
-3.9049	THINKING
-3.7800	THINKS	-0.0600
-4.0810	THIRSTY
-4.3820	THIRTY
-2.5896	THIS	-0.0235
-3.7800	THORNS	-0.1421
-4.3820	THORNY
-3.4278	THOSE	-0.0562
-3.7800	THOUGH
-3.3028	THOUGHT	-0.0402
-4.3820	THOUGHTS
-3.9049	THOUSAND
-4.3820	THOUSANDS
-4.3820	THREAD
-3.0598	THREE	-0.0986
-3.9049	THREW
-4.3820	THRILLED
-4.3820	THRONE
-3.2359	THROUGH	-0.1731
-3.9049	THROW
-4.0810	THROWN
-4.3820	THROWS
-4.3820	THUMB
-3.9049	THUNDER
-4.3820	THURSDAYS
-4.3820	TICKLED
-4.3820	TICKLING
-4.3820	TIED
-2.8505	TIGER	-0.2190
-4.3820	TIGER'S
-3.9049	TIGHT
-3.9049	TIGHTLY
-3.3820	TILL	-0.0271
-2.8022	TIME	-0.0627
-3.4278	TIMES	+0.0249
-4.3820	TIMID
-4.0810	TINIEST
-3.3406	TINY	-0.2426
-4.3820	TIP
-3.5369	TIRED	-0.0635
-1.6927	TO	-0.3204
-3.3028	TODAY	-0.0349
-4.3820	TOES
-4.3820	TOFFEE
-3.4278	TOGETHER	-0.0553
-3.2359	TOLD	-0.0820
-3.9049	TOMORROW
-3.5369	TONGUE	-0.0707
-2.7485	TOO	-0.1013
-3.2359	TOOK	-0.1062
-4.3820	TOOTHLESS
-3.4789	TOP	-0.0452
-4.3820	TOPIC
-4.3820	TOPPED
-3.7800	TOPSY	-0.7944
-4.0810	TOUCH
-4.3820	TOUCHED
-3.3820	TOWARDS	-0.2545
-4.3820	TOWN
-3.9049	TRACKS
-4.3820	TRADITIONAL
-2.9196	TRAIN	-0.0263
-4.0810	TRAINS
-3.5369	TRAMP	-0.2836
-4.3820	TRAPPED
-4.3820	TRAVANCORE
-4.0810	TRAVEL
-4.3820	TRAVELLED
-4.3820	TRAVELLERS
-4.3820	TREAT
-2.4375	TREE	-0.1963
-4.3820	TREE'S
-3.3028	TREES	-0.0906
-4.3820	TREMBLING
-4.3820	TREMENDOUS
-4.3820	TRIANGLES
-4.3820	TRIBE
-4.0810	TRICK	-0.3503
-4.3820	TRICYCLE
-3.6039	TRIED	-0.1489
-4.3820	TRIES
-3.6830	TRING	-0.4742
-4.3820	TRIP
-4.0810	TRIUMPHANTLY
-4.3820	TROUBLES
-3.4789	TRUE	-0.0418
-4.3820	TRUMPET
-4.3820	TRUNDLING
-3.2059	TRUNK	-0.0978
-4.0810	TRUTH
-3.3406	TRY	-0.1264
-4.3820	TRYING
-4.0810	TU
-4.3820	TUESDAYS
-3.9049	TUG
-3.6830	TUGGED	-0.4714
-4.3820	TUNE
-4.0810	TUNGGI	-0.3562
-4.3820	TUNNELS
-3.6830	TURN	-0.1063
-3.3406	TURNED	-0.2867
-3.3028	TURNIP	-0.3115
-4.3820	TURTLE
-3.7800	TURVY	-0.7943
-4.0810	TWELVE	-0.3561
-3.7800	TWENTY	-0.1424
-4.3820	TWIRLED
-4.3820	TWIRLING
-4.3820	TWISTED
-4.3820	TWITCHED
-3.0203	TWO	-0.0614
-4.3820	UH
-3.9049	UL
-4.3820	UMBRELLA
-4.0810	UMBRELLAS
-4.0810	UNABLE	-0.3474
-3.2681	UNDER	-0.2381
-4.3820	UNDERNEATH
-3.6830	UNDERSTAND
-4.3820	UNDERSTANDING
-4.0810	UNDERSTOOD	-0.3540
-4.3820	UNFAIROH
-4.0810	UNHAPPY
-4.3820	UNISON
-4.3820	UNSEEN
-3.7800	UNTIL
-2.2851	UP	-0.2104
-3.3406	UPON	-0.3124
-4.3820	UPROOTED
-3.9049	UPSET
-4.3820	URGED
-2.9670	US	+0.0117
-3.7800	USE
-4.0810	USED
-4.3820	USEFUL
-4.3820	V
-4.0810	VAIN
-3.7800	VAN	-0.2652
-4.3820	VANILLA
-3.6039	VEGETABLE	-0.2098
-4.0810	VEGETABLES
-2.6918	VERY	-0.2175
-4.3820	VESSELS
-4.3820	VI
-4.3820	VIEW
-3.2681	VILLAGE	-0.0331
-4.3820	VILLAGERS
-4.3820	VIOLET
-3.9049	VISIT	-0.1792
-4.0810	VISITED
-4.3820	VISITING
-3.2359	VOICE	-0.0303
-4.3820	VOLLEYBALL
-3.9049	WAIT
-4.3820	WAITED
-4.3820	WAITING
-3.1779	WAKE	-0.9034
-4.3820	WAKES
-4.0810	WAKING
-3.4278	WALK	-0.0576
-3.3820	WALKED	-0.2517
-3.3406	WALKING	-0.0739
-4.3820	WALKS
-3.9049	WALL
-4.3820	WALLOP
-4.0810	WAND
-4.3820	WANDERED
-2.8907	WANT	-0.4993
-3.4789	WANTED	-0.1972
-3.6039	WANTS	-0.3150
-3.9049	WARM
-4.3820	WARN
-4.3820	WARNING
-4.3820	WARS
-1.9411	WAS	-0.1763
-4.3820	WASH
-4.0810	WASHED
-4.3820	WASHERMAN
-3.5369	WASN'T	-0.2829
-3.7800	WASTE	-0.1406
-4.3820	WASTING
-3.6830	WATCH	-0.1089
-3.7800	WATCHED
-4.3820	WATCHING
-2.9507	WATER	-0.0923
-4.3820	WATERED
-4.0810	WATERING
-4.3820	WATERS
-4.3820	WATERSIDE
-3.0598	WAY	-0.1074
-2.5247	WE	-0.2781
-3.7800	WE'LL	-0.1418
-4.3820	WEAK
-4.3820	WEAR
-3.7800	WEB
-4.3820	WEBS
-3.6830	WEDDING	-0.1077
-4.3820	WEDNESDAYS
-4.0810	WEE
-4.3820	WEEDS
-3.9049	WEEK
-4.3820	WEEKS
-4.3820	WEIGHT
-4.3820	WEIGHTY
-4.0810	WELCOME
-3.1516	WELL	+0.0530
-2.6577	WENT	-0.3361
-4.0810	WEPT
-2.5308	WERE	-0.0152
-3.6830	WET
-2.5432	WHAT	-0.1420
-4.0810	WHAT'S
-4.3820	WHATEVER
-4.3820	WHEAT
-4.3820	WHEEE
-4.3820	WHEEL
-2.4955	WHEN	-0.3004
-4.0810	WHENE'ER	-0.3503
-4.0810	WHENEVER
-2.9349	WHERE	-0.0715
-4.3820	WHEREVER
-4.3820	WHETHER
-3.1516	WHICH	-0.1086
-4.3820	WHICHEVER
-3.6039	WHILE
-4.0810	WHIPPED
-4.3820	WHISKERS
-4.0810	WHISPERED
-4.0810	WHISTLE
-4.3820	WHISTLED
-4.3820	WHISTLES
-3.3820	WHITE
-4.0810	WHIZZ
-2.8379	WHO	-0.0722
-4.0810	WHO'S
-4.3820	WHOEVER
-3.6039	WHOLE	-0.0071
-4.3820	WHOM
-4.3820	WHOOOO
-4.3820	WHOOOOOO
-4.3820	WHOOPED
-4.3820	WHOOSH
-2.8379	WHY	-0.0067
-4.3820	WHY'S
-4.3820	WHYOUT
-3.7800	WIDE	-0.1425
-3.5369	WIFE	-0.0635
-4.3820	WIG
-4.3820	WIGGLES
-4.3820	WIGWAM
-3.7800	WILD	-0.1424
-2.4789	WILL	-0.1814
-3.2681	WIND	-0.0285
-4.0810	WINDING
-3.6039	WINDOW
-4.3820	WINDS
-3.5369	WINGS	-0.0635
-3.7800	WINKLE	-0.1365
-3.6830	WINTER
-4.0810	WIPE
-4.3820	WIPING
-4.3820	WIRES
-4.3820	WISDOM
-3.4789	WISE	-0.1985
-3.2681	WISH	-0.2071
-4.3820	WISHED
-4.0810	WISHES
-4.3820	WIT
-2.2957	WITH	-0.2671
-4.3820	WITHIN
-3.6830	WITHOUT	-0.0275
-3.6830	WOKE	-0.4813
-3.4789	WOLF	-0.1118
-3.3406	WOMAN	-0.0622
-4.3820	WON
-3.9049	WON'T
-3.5369	WONDER	-0.2828
-3.9049	WONDERED	-0.1968
-3.5369	WONDERFUL
-4.3820	WONDERINGLY
-4.3820	WONDERS
-3.9049	WOOD
-4.0810	WOODEN
-4.3820	WOODS
-3.6039	WORD
-3.7800	WORDS
-4.3820	WORE
-3.1516	WORK	-0.0667
-4.0810	WORKED
-3.4789	WORLD	+0.0171
-4.0810	WORM
-4.3820	WORRIEDLY
-3.9049	WORRY
-4.0810	WORTHY	-0.3525
-2.7288	WOULD	-0.2100
-3.4278	WOULDN'T	-0.0986
-4.0810	WOW
-4.0810	WOXY	-0.3563
-3.9049	WRESTLER
-4.3820	WRIGGLE
-4.3820	WRIGGLED
-4.3820	WRINKLED
-4.3820	WRINKLES
-3.9049	WRITE
-4.3820	WRITES
-4.3820	WRITING
-4.3820	WRITTEN
-3.6039	WRONG	-0.0660
-4.3820	WWE
-4.0810	W_A_T_E_R
-4.3820	Y
-4.3820	YARD
-4.3820	YEAH
-3.6830	YEAR	-0.1743
-4.3820	YEAR'S
-3.2359	YEARS	-0.1137
-4.0810	YELLED
-3.3406	YELLOW	-0.0528
-3.4278	YES	-0.3624
-4.3820	YESTERDAY
-3.9049	YET
-4.3820	YORK
-1.9539	YOU	-0.1514
-3.9049	YOU'D
-3.6039	YOU'LL	-0.0886
-3.7800	YOU'RE
-4.0810	YOU'VE
-3.4278	YOUNG	-0.2019
-4.0810	YOUNGEST
-2.8769	YOUR	-0.1327
-3.9049	YOURSELF
-4.0810	YUMMY
-4.0810	ZAG
-3.9049	ZEBRA
-4.0810	ZIG	-0.3563
-4.0810	ZIGZAG
-4.0810	ZOO
-3.6039	ZZZAK	-0.3561

\2-grams:
ѕ—7?  >«КїыОc  јґф АVпХ   Аd‘Ѕ   АVпХ  А[D  )=РLќ Аd‘Ѕ  3 АVпХ  8їЯhШ  :»¦тBАVпХ  >ЅјГ® Аd‘Ѕ  D Аd‘Ѕ  FАd‘Ѕ  K?ДѓА<„а  VЅgуЦАF
R  [ѕ\Г® АVпХ  ]А"¤  _<cyу АF
R  c А:i`  iА*Ј  sјvТА<„а  ~Ѕ0џ· Аd‘Ѕ  ЋА'µm  ™ЅвЊ АVпХ  Ё Аd‘Ѕ  ­А*Ј  ЗЅШФ АF
R  Н Аd‘Ѕ  Ю Аd‘Ѕ  аАd‘Ѕ  еЅшяf Аd‘Ѕ  ж Аd‘Ѕ  кА<„а  цЅ› Аd‘Ѕ  Аd‘Ѕ # Аd‘Ѕ $А"¤ *ј+,А:i` ,Ѕ 	А<„а 2ЅMМ2 АVпХ ;АF
R ?Ѕр»№ АVпХ @А"¤ BјгB Аd‘Ѕ MАHх3 ^ѕБ- АVпХ } АVпХ Аd‘Ѕ ™Ѕ|ЁАHх3 Їѕ9 Аd‘Ѕ °АF
R О=„т% Аd‘Ѕ Ш АVпХ м Аd‘Ѕ т АVпХ ъАF
R ѕ/Г АVпХ Аd‘Ѕ >§Ђ Аd‘Ѕ &АVпХ +>0± А*Ј > АVпХ A Аd‘Ѕ C АVпХ E Аd‘Ѕ JАHх3 OЅ”H[ Аd‘Ѕ \ Аd‘Ѕ x Аd‘Ѕ ™ Аd‘Ѕ љ Аd‘Ѕ › Аd‘Ѕ   Аd‘Ѕ ЄАd‘Ѕ ЅЅЁцЏ Аd‘Ѕ Ь Аd‘Ѕ Ю Аd‘Ѕ в Аd‘Ѕ х АVпХ ч Аd‘Ѕ ю Аd‘Ѕ  Аd‘Ѕ А"¤ <RЬjАd‘Ѕ 5ѕ\ЦмАVпХ ;=)Ѕ  Аd‘Ѕ B АVпХ D АVпХ FАd‘Ѕ ^ѕ f- Аd‘Ѕ hА<„а s< 0А<„а zЅGk Аd‘Ѕ { Аd‘Ѕ } АVпХ Ђ АF
R ‘ АVпХ “ А<„а ЄАVпХ ¬Ѕў™а Аd‘Ѕ ® АVпХ ± АVпХ » АHх3 јА%@ ЛЅRашА±­ Н»WB( Аd‘Ѕ Ш АVпХ б Аd‘Ѕ гА"¤ и<<М* Аd‘Ѕ фА*Ј ъјЃ;cА_ эјIЎc АVпХ 
 АVпХ АF
R ЅІ2л Аd‘Ѕ .їъ•› 7<ЮбгАVпХ :јвН–АHх3 A<Иў@АVпХ B>XgїА0 LЅ›7  АF
R W Аd‘Ѕ ^А_ a»ЛD$ Аd‘Ѕ bА_ dЅќ. АF
R f АVпХ h АVпХ xАd‘Ѕ Ќ>+Є™ АF
R Џ Аd‘Ѕ ” АVпХ – АF
R  Аd‘Ѕ Ѕ АVпХ И АHх3 ТА:i` вјС¬ Аd‘Ѕ ж А:i` о АVпХ ю Аd‘Ѕ  АF
R ѕzмЂ Аd‘Ѕ  АHх3 ) АF
R .А"¤ >Ѕ€ї' Аd‘Ѕ OАVпХ QЅj4ж Аd‘Ѕ wАHх3 xЅOц А'µm | Аd‘Ѕ ЋА[D ™јЊh Аd‘Ѕ Ў Аd‘Ѕ Ј Аd‘Ѕ © АVпХ І Аd‘Ѕ ј АVпХ ѕА<„а Жјй[° Аd‘Ѕ И А'µm Т Аd‘Ѕ УА-й3 ЦјълА` вЅ­vkАHх3 гјўQфАd‘Ѕ жѕA«А'µm иЅэcАхА кѕ3ЃАHх3 лј–Ќ”А[D мј+`Z АVпХ о Аd‘Ѕ цА*Ј ю<џШЩАVпХ  =шџ’ Аd‘Ѕ 1АF
R [ЅэАVпХ ћ>иuАd‘Ѕ  =мЬэ Аd‘Ѕ ¦ Аd‘Ѕ А АVпХ КАF
R ЬЅ¤ИАVпХ л»­Є Аd‘Ѕ  Аd‘Ѕ ! Аd‘Ѕ 'АхА ):Х	Аd‘Ѕ 6»Ќ& Аd‘Ѕ = Аd‘Ѕ A Аd‘Ѕ B АVпХ H АVпХ O Аd‘Ѕ QА:i` [ЅC± Аd‘Ѕ c Аd‘Ѕ uА_ ~;РўЮ АVпХ њ Аd‘Ѕ » Аd‘Ѕ ЪАVпХ йЅ¬bW Аd‘Ѕ ъ Аd‘Ѕ ь Аd‘Ѕ ю Аd‘Ѕ  Аd‘Ѕ % Аd‘Ѕ <АVпХ @Ѕў™а Аd‘Ѕ A АF
R B АVпХ wАF
R ЅкE АVпХ Ј Аd‘Ѕ ёА*Ј »ЅbYжїБC Ѕј fА%@ АЅҐ>ЫА:i` Вјey’А[D Г<ЛА j” Ж<ЪЫ АVпХ О А*Ј У АF
R ЭАVпХ б=TйьА<„а лјq!ёАd‘Ѕ рѕi(Ё Аd‘Ѕ фїп¦: ч»>џA Аd‘Ѕ юА<„а яЅa"Ё А-й3 	 АVпХ 	 АVпХ 	)Аd‘Ѕ 	7=мЬэАqZ 	M=–pц Аd‘Ѕ 	R АVпХ 	\АF
R 	v>w&0А&Ѓ 	}ј$ДІАd‘Ѕ 	„ѕ№¬ АF
R 	‡ А<„а 	ЊА%@ 	Ќјiй АVпХ 	ќАHх3 	џѕ6Дя АVпХ 	ЎА[D 	§=хc АF
R 	­АF
R 	ёЅ„cM Аd‘Ѕ 	Б АF
R 	К АF
R 	ЛА j” 	Ы<XВ Аd‘Ѕ 	о Аd‘Ѕ 	х АVпХ 	ц Аd‘Ѕ 
 Аd‘Ѕ 
А	,F 
јЅ (АVпХ 
ѕ‚>їtп2  =‡dО А*x]  „ А*x]  … А*x]  €їЅёБ  ЗјЕјщ АЦu  Ю АЫУ  е АЫУ  ц А*x] АЦu VЅЌ®| А*x] f А*x] s АЦu ‰ А*x] ААЦu &Ѕ‡a А*x] B А*x] H А*x] L А*x] Т АЦu в А*x] ц АЦu  А*x]  А*x] A А*x] D А*x] b АЦu e АЦu g АЫУ Ђ АЦu ‘ А*x] “ А*x] АkЃ Ѕ-јб АЦu $ А*x] Џ А*x] “Арт ћ=џЉ А*x] Ы АЫУ иїЁHh о»ъHАЫУ юїХЩАЫУ >Њь§ Арт 	 АЦu  А*x]  АЦu  Арт ) А*x] Q АЦu T А*x] k АЦu o АЦu ”А*x] ќѕ©ЖА*x] ЁЅе‹ А*x] єАрт Ѕ<в	 А*x] К А*x] X А*x] Љ А*x] Ь А*x] АkЃ ЪЅ7KВАрт ч;Лњ' А*x]  А*x] ) А*x] ? А*x] K А*x] лА P  рЅљnљАрт ф>¬їб| 	јµґз АЫУ 	\ А*x] 	f А*x] 	— А*x] 	Ї А*x] 	е А*x] 	л А*x] 
 АЦu 
 А*x] 
їЊБи  ѕdѕ їЁ№   їЁ№ xїЊБи Ѕѕх ї:¦+   їЉ Ѕї:¦+  =‡dОї—7щ  =‡dО їwиR  їІх  =‡dО їwx	  : їІх Н їІх ж ї‘Ъ в їZў' 7ѕЃ   iЅ™hД ѕ1 %›ї~ь ) =‡dО їБt- ) [їБt- )ѕ†їO їюѓ )Н їюѓ )™їБt- )вЅїi їЗIп )  їг?3 ))їЦ )ЅЅ·ыHїюѓ )ѕѕhЛ7 їюѓ )Е їюѓ )Жїюѓ )Эѕ^с їюѓ )	њ їюѓ )
ѕт§$ ,?ѕ‚NШ ї—7щ /» ї—7щ /Ѕїљed 2 =‡dО їљed 2—їo‰ 3 =†,Р їМH 3zїМH 3dѕq/ї°Сw 3Ѕў™а їЏq 3юїЏq 3ЅЅУцC їЏq 3яї€#‘ 8 ѕќi ї¤Х 8 O ї¤Х 8 ] ї¤Х 8… ї‚MП 8їVХ 8и>лї„%/ : =‡dОїй’G : Ѕ•Н А1Ґs :  А1Ґs : їхщТ : )=1ъл А1Ґs : @ А$‹ : j А1Ґs : x А$‹ : ™ А1Ґs : ­ А$‹ : ® А1Ґs : Н А1Ґs : Ы А1Ґs : вА1Ґs :ѕ,сыА1Ґs :™Ѕ|Ё А1Ґs :	А	– :Oѕ2– А1Ґs :ЃА	– :Ѕђ6пА$‹ :sЅьшC А1Ґs :~ А1Ґs :” А1Ґs :ЛїИе‚ :НЅ‡јг А$‹ :а А1Ґs :г А1Ґs :и Ай :э А1Ґs :їПq¬ :7ЅЬ‰† А1Ґs :9 А1Ґs :A А1Ґs :Lїй’G :dЅ>з А1Ґs :xА1Ґs :ЊЅе‹ А :М А1Ґs :оА :=6rz А1Ґs : А1Ґs :w А$‹ :™ А$‹ :№ А1Ґs :ѕА$‹ :ЦЅЦКЉАй :гѕЧА :к= )· А1Ґs : А$‹ :SЅtЂ Ай :[Ай :ѓ>Њь§А$‹ :љѕ0йBАй :ћѕv› А1Ґs :Є А :® А1Ґs :К А1Ґs :РА1Ґs :нѕњ§ А1Ґs :А} :ј^S	 А	– :) А1Ґs ::Ай :=Ѕ+AА	– :A=D-' А1Ґs :B А$‹ :” А1Ґs :љ А1Ґs :Ъ А$‹ :йА} :рѕЩ6 А1Ґs :% А1Ґs :< А1Ґs :‹А1Ґs :ђЅ0( А$‹ :»ї—5ћ :ЅЅ„2oїдEл :ВЅ%C4 А	– :Ж А1Ґs :Р А$‹ :ч А1Ґs :	А :	.>O·7 А1Ґs :	3 А1Ґs :	M А1Ґs :	‡Ай :	ЌЅvдОА1Ґs :	ќѕfШ…їхщТ :	§;Ё{m А1Ґs :	Б А1Ґs :	Ч А	– :
 ї:¦+ <Нїq*У > ѕdѕї-”З > :Ѕ"Чїq*У >Lѕr ї~	х Fw ѕЫ+» GL їZў' I[ їsq? JчЅ›Ўc K»ѕ‡[ж ї‘Ъ O :їZў' P =‡dО їZў' R?їћ–А V ѕ°w/ їУl© V  їУl© V  їо°z VB їо°z V}їо°z V‘ѕV2Њ їо°z VїУl© VЖЅы{їУl© VТЅГ2n їо°z VЪ їо°z VЅїLДP V
ѕ<м ї:¦+ Z [їЏ’ [ ѕdѕїZ© [ :ѕЋ1 їЄcc [ їЄcc [d їЏ’ [Ѕ їЄcc [АїҐ–& _ ѕ°w/ їёЎ	 _ їѕvЛ _Йѕу@їR…Ъ _Нѕ*uђїхЇЯ _фѕQd@їmUК _7Ѕћ:? їЪl _dїхЇЯ _~ѕk{їёЎ	 _ьѕ=™Б їҐ–& _Ѕ їѕvЛ _Ж ѕЃ `чї‡іK c ѕdѕ їўч c‚ їW| cЅїg0и i =‡dО їѕЧп i ) їѕЧп iъ їыжЖ iэ їыжЖ id їѕЧп iЇ їыжЖ i> їыжЖ i™їѕЧп iѕЅр‡ їыжЖ iО їаўх iл їаўх iм їыжЖ iЖ їаўх i»ѕя=р iЅј›гw їыжЖ i	R їыжЖ i
ї€NR j =‡dО ї€NR j; ї€NR j™ ї€NR jЅї‰н• s =†,Рї§; s :Ѕђ] їЮ>P s*їЮ>P sѕH’ їЮ>P s;їЎ/y sНЅ|45 їЮ>P s7ї§; sL=ЬGxї4Ж' sЅЅ—SP їЮ>P sч ї:¦+ x	хїbRD z ѕdѕїbRD z њЅ.\ў їЊlт zї^…Ш ~ ѕ°w/ ї¤Х ~  ї¤Х ~ :її\Ґ ~7ѕ[;ґ її\Ґ ~L ї¤Х ~ч ї12Ы „7 ѕБу €LѕЃ ‹чѕ5ъ~їђBИ ЋКѕ©Ж ѕЃ •вїЎчY ™ =†,РїЎчY ™ ѕ(џ? їцH ™ :їцH ™ѕњ§ їцH ™I їцH ™5 їЫC ™» їцH ™±їцH ™>ѕqoїцH ™эѕSц їцH ™{їцH ™йѕo.вїїя ™є=vµЉ їцH ™Ѕї“Щ: њ ѕu~ї“Щ: њ :ѕoА їq*У њБї-”З њLѕyй2 ї“Щ: њсїsq? Ј =‡dО їQ.Ч ¤Н їQ.Ч ¤7 ѕЃ §  їљed Ё ї~C( Ё	}їZў' Є€Ѕе‹ їZў' Єг ї“Щ: ­ I ї9@K ­Ѕїq*У ® ѕdѕ ѕЯб ®ч ѕЃ °ч ї$† І> ї$† ІЅ ѕЃ № V ї‘Ъ ѕ ї:¦+ АТїЉ Б ѕdѕїЊlт Д =‡dО їј8 Д7їіJ З ѕdѕїіJ З :ѕпУ їОЌЯ З Ё їОЌЯ З ф їОЌЯ ЗїОЌЯ З =мЬэ їОЌЯ З> їіJ Злї_2ч Н <Х‹/ї_2ч Н :Ѕ"Ч ї¬ЁR Ныї¬ЁR НЅѕuh ї‘Ъ С : їsq? Ш Шї<йџ Ш
ѕЗџ»їZў' Ы :ѕK#љ їZў' ЫМ їQ.Ч Ю7 їѓЫ< ЮЅїZў' а =‡dОѕЯІЈ вdѕлЁ їЊlт е7їј8 е	ЫјІжЯїљed ж =‡dОї~C( ж Vѕ;ўѕЯІЈ й к<<еїя к йј/шѕт§$ к к=Vо{ ѕЫ+» о>ѕ\8у т™ѕЫ їsq? у : їsq? у	ч ї:¦+ фїЉ фdѕєг8їђFA ц <Х‹/їІG ц :ЅмЧ їІG ц?їђFA цЇЅњ‰ їНU ц7їНU цвѕт” їІG цЅ їђFA ц	} їНU ц	ёѕЃъ ч :Ѕ|45ї~	х щ =‡dО ї~	х щї‘Ъ =‡dО ѕЃ ї~	х : ї:¦+ ї:¦+LЅUkжї&`т =‡dО ѕЃѕїAц:ѕ¤FІї‰¶d* =‡dО А]Ї*  А]Ї* )ї”Ю!*НЅыГїxњШ*7Ѕ…ґъ їнwЋ*A їС‚J*d А]Ї*> А]Ї*№ їнwЋ*И А]Ї*мї›jK*~јѕР)їЛ¬€*»ЅМн'їЂm*Ѕј#_a їЛ¬€*ГїЛ¬€*Жѕ‡Иb А]Ї*	Ў А]Ї*	§ А]Ї*
ї @Ж, =‡dО ї„ьц,ю ї @Ж,s ї @Ж,	ЄѕБу. ѕkјYїZў'.ЅѕuJ?ї}ї}2 =†,РїУ0y2 :ѕX'ц їУ0y2 їУ0y2O ї·м©2Н їУ0y2ы їУ0y2э ї–!ў2о їУ0y2мїДO2ЅЅky‚їѓЫ<: =‡dО їѓЫ<:d їbRD;ю їbRD;Ѕї№x? ѕdѕ їќ4?  ї№x? , їMтj? ~ їФJH?ћ їФJH?Ѕї в?чЅЩZ©їќ7ZB ѕ°w/ їнQBW їТCBЇ ї°B=B> їТCB7 їнQBdїТCB#ЅњRЖїТCB[Ѕтџжї¶яB!Ѕ}Ћ> їТCB	Ќї2піB
ЅQUFї~C(C ѕdѕїљedCsѕ`­ їљedC
 ї:¦+M ї:¦+MАѕjЫ% їKЙV»їgє|W =‡dО їgє|Wdї12ЫWЅѕ‚# ї&`тZLїa™H^ ѕќiѕкТ”^^Ѕ]ѓ_ їЁ№^sїa™H^DѕъХФїЁ№^	k>‡h^ ѕЫ+»jЅѕШ_ыll»+ц ѕЯІЈrr ї®Цx}	џ ѕЃ‚ : ї“Щ:„^ѕЯб„„>шЉTї-”З„Bѕh|Ю їgє|‰i ї:¦+‹ : ї:¦+‹вїѓЫ<Ћ =‡dОїѓЫ< =‡dОїQ.Ч	MѕЬяuїЊlт™ =‡dО їЊlт™OѕсLд™	MЅ„* ї‘ЪњчїKЙћчѕ5ъ~їKЙ¤ =‡dО ѕ\8у¦щ ѕЫ+»§з їKЙЁ	СїIЙЇ =‡dОїљЧгЇ :ѕ*Т ї¶Н'ЇL їТшЇЅ ї¶Н'ЇчїљЧгЇяѕ!aШїљЧгЇ	ЫѕIїG‚T° ѕdѕї—7щГ =‡dОї4REГ}ѕINџ ї—7щГЅ ї&`тЕz ї&`тЖO ї&`тК :їҐ*ТО ѕќiїЊJ-О ™ЅлИT їЬcзОлѕыфRОТЅ8Dя їЬcзО! їЬcзОB їЬcзО[їЬcзООѕ0Eоѕ®rС ѕdѕ їsq?Ш	}ѕт§$Ш	Ѓ;F> ѕЫ+»Ь : ѕ\8уг)їZў'ж =‡dО ї&gгмю їђBИмЅ ї‘ЪрЅїG‚Tт^ѕЃ:xїG‚Tт	k=‰s.ї€NRъ =‡dО ї€NRъ ї€NRъ	}їAц ѕdѕѕЫ+»
 :ѕu¶Uї•iз =†,Р ї¬«Л ї¬«Л ,ЅУ?їІЃЌ :Ѕ¤o< їйєЎиї¬«ЛdЅѓ}”їІЃЌю»?=‡їйєЎ~ѕoЪ$їxУЅЅз‰У їОvС	§їйєЎ	Ыѕoѕ4 їKЙ : їKЙЅ їKЙ Нїgє| =‡dО їgє|)ѕ Њчѕ,ћ? ї‘ЪL ї~	х&7 їG‚T&й їЉ(dїЉ(ЅѕЯфЫї•«Ѕ+ ѕdѕѕ’
k+Т<¶дбї•«Ѕ+
ѕ|(їsq?,яѕ(уК їsq?,в ѕЃ. БѕHЙ3G>+AїVѕС> =‡dОїе>Aѕ
jp їе>dї”юN>ТЅ|n{ їЙФ7>» їе>Ѕ їе>Ж їе>	ЎїА>
Ѕ·АЯѕџ8@Т:<aХїgє|B =‡dО їgє|B	Є їZў'CУїslсE ѕќiї•«ЅE ™ѕЈ ї°пЌE ї°пЌE‹ їA«§E
ї&`тF =‡dОїZў'G )ЅдШѕБуG3>$)0їј8J	vЅ]‰њї€NRL =‡dО ї€NRL : ї€NRL7їZPO =‡dО їЉ_hO : їЪy!O iїї5QO2јg
	 їЪy!OН їЪy!O7їЪy!Oйѕb€Z їЪy!Oъ їЈ@OЅ їЪy!OЖї†(gOчѕЊѕ. ѕЈWХU  ѕ\8уYвїQ.Ч] ѕdѕїDO] јч?Д їѓЫ<]Э ѕЫ+»__ї&`т` =‡dО ѕЫ+»ee ѕЫ+»h :їмHmмЅєр ї~	хmр ї¶КпxН ї¶Кпx> ї¶Кпx™ ї¶КпxЖ ї›‡xЅ ѕЃ„ц ѕЃЉвѕЃ‘	4=4њ9 ѕЃ“ЅїЊlт™ =‡dО їЊlт™У їZў'љЖ їFX њ їљedњѕїЊlт  =‡dОїЊlт LЅUkж їЊlт a їbRD 	}ї&`тЎ =‡dО їsq?ґЅ їsq?ґ	џї~	хµ =‡dО їG‚Tµ : ї~	хµ7їG‚TЅ ѕdѕ ї~	хЅЅїмHЅ)ѕ‹CѓїѓЫ<Г =‡dОѕП
Г sѕШ#їѓЫ<ГГјјУ ѕЃЗ	Еї—МЙ _ЅФCв ї~	хЙ» ї&`тМa їZў'Ч	§їЊlтЫ =‡dО їЊlтЫ їsq?Ь =‡dО їsq?Ь^ї&`тЮюѕA§… ѕЫ+»зЅ їL[{л ї@Їчлюѕ„vљїL[{лЅѕN3KѕШ_ымѕ…Эѕє®Ьс	Ѕ¦<ії<йџх ѕdѕ їsq?хжїsq?ц =‡dО їsq?цНїsq?цLЅUkжїZў'ч

ѕQd@ ї‘Ъььї:­ю <Х‹/ їљedю s їљedюO їљedюгїљedюЅѕrћІ ї&`т : їђBИ :ї4RE <Х‹/ їwиR s ї—7щ”їwиR™ѕЪЂ ї~	х )їG‚T)ѕ
ЄНїwиR ѕdѕ ї—7щ  ї—7щї\Кщ =‡dОїЃП ЅћБ© їъТo z їъТoB їЯЋџи їЯЋџъ їъТoэїъТo(>xё9 їЯЋџ>їГ™Z™Ѕ у7їъТo=м–d їъТoHїЌЃ[ЅЅЌUо їъТoѕ ї¦Ѓµ
їsq? =‡dО їsq?@ ї~	х%  їG‚T%»їKЙ' =‡dОѕЃ2 =‡dО їKЙ4*ї„ьц5 ѕdѕ ї @Ж5чїlъИ; =†,РїКО;ГјјУїКО;™ѕlїКО;мѕq/ўѕк-Y;Ѕј ‡ ї‘Ъ<в ѕШ_ыAв їЊlтBНѕю!яD»ЦМшїKЙI =‡dО їAцIЏ їKЙI® ѕ\8уJ¤ї&`тL =‡dОї€NROmЅЁцЏ їZO	} ї€NRO	Ы їZў'T  їsq?XLї™¤«^ ѕdѕїґи{^эѕm† їґи{^рїA/Ѓ^	M»љ їґи{^	 їsq?e =‡dО їsq?e7 їЊlтgЅї‘Ъh =‡dОї-”Зi <Х‹/ ї“Щ:iъї-”Зi>ЅГ{ ї“Щ:i
 Ѕ›ЎcmИїЁХхs <Х‹/ їЁХхs : ї®«·s s їедМs© їЁХхsк їЁХхsю їедМs1ї®«·s=1^М їедМsЅїMїўsчѕuЏPї‘	z <Х‹/їОЌЯz K?Дѓ їОЌЯzкѕlт’zчЅЈБ— їОЌЯz
 ѕ1{Иї€NR} =‡dО ї€NR}чї€NR}
ѕsiсїwx	Ђ ѕќi їІхЂ> їE¶їЂx їZ„  їZ„  ї€NR„	M ѕЃ…dѕЫ+»‡ѕR"qїЉ‹ ѕdѕї&`тЏ =‡dО ї“Щ:‘ ж їq*У“ : їq*У“Иї:­” <Х‹/їљed”^ѕA« їљed”я їљed”к ї‘Ъ™Ѕ ѕЃ 	f ѕЈWХ©©їЁРUЄ ѕќi їЏп±Є  їДЕљЄ Є їа	jЄѕїЁРUЄ}Ѕ+§ їа	jЄТ їДЕљЄc їа	jЄр їДЕљЄч їZў'¬ : їZў'¬иїZў'® 8ѕIљ§ їZў'®™ї?эЙ± ѕќi ї—7щ±L ї—7щ±^ ї&`тµ»їІх»*ѕGъДї—±H»7ѕКR їІх»» їЁ№ј : їЁ№ј) їЊБиј»ї/ЧюјчЅAы™ ї~	хАAї‘ЪВ =‡dОїZД ѕdѕ ї€NRДчї‰н•Л =†,Рї§;Л Ѕ€!8їЮ>PЛ )ЅдШ їЮ>PЛ„ їЮ>PЛ№ їВъЛЖ їВъЛТ їЮ>PЛУ їЮ>PЛ їЮ>PЛЅ їЋ$–Лчї„%/Н =‡dО Аa`Н / їяійН 2 Аa`Н c Аa`Н j Аa`Н ® Аa`Н Х Аa`Н; Аa`Н? АїxН™їёзѓНО=·•jАїxН+>0± АїxН,Аa`Н@>Ґ­Љ Аa`НиїяійНюЅ›џЏ АїxН%їґtnНЄЅЊ‘AїяійНЧЅЫ@ Аa`НаАїxН"јуdg Аa`НaАїxНТЅЫ… їПq¬Нј€џXїяійН<ym№їяійНOЅ% Аa`Н— їяійН№Аa`Ноѕa6Ћ Аa`Н\Аa`Н›Ѕе‹ Аa`НЄ АїxНК АїxНОї™ЛҐН)»0О0їиrНA=›џЇ АїxНD Аa`Нn Аa`НШ Аa`Н Аa`НВ Аa`НЮ АїxНь Аa`НяАїxН	 ЅЮЏf Аa`Н	3 Аa`Н	o Аa`Н	xї‹У2Н	}<z$UїиrН	ќЅаuDАїxН	д=mЊ¤ їиrН	х АїxН	цїbRDС ѕdѕ їbRDС :ї~цЧ <Х‹/ їZЧ  їZЧЅ ѕЯІЈШУѕБуЮЮ>­Фѕ_»!Я ј/шї~	ха =‡dО ї~	хаdї~	хаюѕUжЈїђBИбОЅ“:шїЉIQг ѕdѕ їҐЌ!ги їҐЌ!гв їҐЌ!гЅї\Ёг
Ѕљ¶? ѕЫ+»з0ї‚¶Uи =‡dО їб+$и  їьnфи Z їьnфиL їьnфи± їьnфиґ їьnфиН їьnфиС їьnфиб їьnфиLї‚¶Uи|јЩц] їьnфи} їб+$иќ їьnфи її`и їб+$и~ їьnфи• їьnфиЁїЕ5аичј“Ю2їьnфи	fѕQd@ї~	хк =‡dО ї~	хк :ї~	хкЇѕl-б їЊlтф _ їЊlтф	M ї:¦+ч	ЫїЅ9ъ ѕdѕїШ|ФъЮ»Ќ& їШ|ФъL їШ|Фъ— ї›mэъЅ їШ|ФъВїШ|Фъ	Ыѕ"shї€NRы;ѕj№Р їZыНїЂј~э =‡dОАЈэ ЗѕkЂ" АЈэR АЈэqїЩЖ2э¤»®ў‚ їх»vэµ АЈэBїЩЖ2эґјсFp їУрoэµ їЩЖ2э5 їх»vэ± їх»vэСїУрoэЅЫ@ АЈэ АЈэ“ АЈэоїУрoэюјУ) АЈэїЈ®3э|<b51 їх»vэ… АЈэС їх»vэАЈэђѕ№¬АЈэ•; aвїх»vэ	'Ѕгі їУрoэ	` АЈэ	ЕїKЙяюѕJжжїKЙяЅѕuТ‘ѕЯІЈ ЯЅ`› ѕЫ+»кї“Щ:
 =‡dО ї“Щ:
  ї“Щ:
ч ї“Щ:
	§ї:¦+ =‡dО ї:¦+їZ ѕdѕ ї~ц : ї€NR _їў|P ѕdѕ їў|P :ї†‡OЅЧDїў|PНѕСХ¶ їў|Pв їЅА ЅїЂСР ѕ°w/ї™ІuBЅ‘ТlїРл‰+ѕWFsї“ЬІ>ѕ!« їРл‰Dїµ§№»ѕСBG їРл‰Н їµ§№d їµ§№‹ їµ§№Ѕ ї“ЬІч їРл‰	Кѕ\8у! :ѕЯЄ5ѕ\8у" :ѕЪ3M ї&`т$	 ѕЃ*в ї~	х+ _ ї~	х+~їZў'.?Ѕћc їZў'.	К їsq?2 :ї}Ґц7 =‡dО А$РЌ7 /ї‚Ш-7 3=ЩП
А.¤7 тјуdgА.¤7.ѕNа А$РЌ7; А$РЌ7?ї¬:G7BЅщ“СїЬP7C»+ А$РЌ7ЇїПиz7О=‹O+ А$РЌ7+ їщ‡`7>їхP_7EЅ±ЁА.¤7JѕЈKl А.¤7x А.¤7ЧА.¤7ѕЖщ$АI!7sЅ©CїЬP7Єјtв*ї©`S7Лјкs@А	47ЧЅЎ#А.¤77ѕi>А.¤7xЅЙ?АI!7ЅЇ› А$РЌ7єА.¤7вЅ;X А$РЌ7нАI!7Ѕє$5їщ‡`7ЅTEА.¤7Oѕґ»B А	47– А.¤7Ї А$РЌ7№А$РЌ7еѕ(уК А$РЌ7т А$РЌ7:А.¤7[Ѕтџж А.¤7КА.¤7)ЅеавА.¤7AЅЪ¬‚А$РЌ7[ѕj№Р А$РЌ7® АI!7О А$РЌ7Ш А$РЌ7	 А$РЌ7	3ї№^Q7	vѕjIк їЬP7	}їхP_7	ќє!июїХГЬ7	џѕIЪНА$РЌ7	ЄѕC¤вїњшЗ7	КЅiцїхP_7	Чј$ќА	47	г=љґ®їЕЕЭ7	хјШУ„ їsq?9^ їsq?9Ўї N: ѕ°w/ї N:z>_k°ѕ\8у<гјуdgїуA =†,Р їФJHAНї*ЉњA7ѕzњ= їФJHAd ї№xA™ ї№xAЅ їФJHAГ їФJHA	Ќї@ЪA
ЅS¶cѕЃъBЇѕЃ‘йїrЧL =‡dОїn(L ЅNТс АюBL ;ї‹»ѕLэЅR<Э А\ZLf АюBLёїЫвЛL™Ѕw АюBLш=мЬэ АюBL
 АюBL° АюBLі АюBLы А\ZL„ѕииLЅЅиюА\ZL	>¶}s АюBL	W їsq?WЅ ѕЫ9ќYвї›‡^ ѕdѕ їsx0^ ѕ‹ЖТ^ЅЅЦЙї—F¦a =‡dОї€°фa ј“Х АЈa i АЈa їх»vaFїЩЖ2azѕkБ‰ АЈaЂ АЈad їУрoa™їАеЌaЖЅ5ЈЙ АЈaУ АЈa·їУрoaйЅјЪ«АЈaтѕ(уК їх»va» їАеЌaЅ АЈaГ їх»vaУ АЈa	$ їј®Њa	\ї‡Њ–d =‡dО АЊЬd  Акуd ) їЬяюd : АЊЬd _ АЊЬd iїхаЈd ®>5пїр
бdОЅЉjь АЊЬd> АЊЬdю їЬяюdЄ АкуdН АЊЬd7ї‡Њ–daЅF&2АкуdЅьХµ АЊЬdЦ АЊЬdЖ АЊЬdЦ їхаЈd)Акуd=Ѕ\Ф©їхаЈdйЅ—`X АЊЬdъ АкуdЅїхаЈdчј“Ю2їOr-d	}<	Ч? Акуd	ќїШИэd	Кј,‰V Акуd	ЫАЊЬd	хѕ8лї~	хe =‡dО ї~	хe  ї~	хeЅ їґи{f
 їgє|tOї12Ыtк=kkї~	хw€Ѕе‹ ї~	хw» ї~	хwЅ їјJx _ї УyxвЅйЌk їјJxмїјJxюѕJжжї~жxОЅ‹. їјJx
ѕ®rzz=ц”аѕє®ЬѓкѕKесѕЫ+»€ГѕJжжѕЫ+»Њ	RѕVхѕ\8уЌ 8ЅОь3 їKЙЋ : їKЙЋґїL!MЏ =†,Рїѓ(LЏ :ѕRцzїєaaЏB=м–dїєaaЏвЅбИuїџђЏкѕѓl їєaaЏ)їџђЏЅѕWЦ їgє|“7ї:¦+” =‡dО ї:¦+”*їsq?– =‡dО їsq?–	Ўїslс ѕќi ї°пЌ їgБmЅ”<+ ї°пЌЅ ї•«Ѕ	Ўї&`т™ =‡dО ї‘Ъћ:їgє|ҐвѕtxѕЃЁЕѕ№¬ ї‘Ъ¬ёїKЙІ =‡dО ѕЫ+»ґ iїKЙєOѕOп_ їЉјђ ї&`тЕѕ їўчИ7 їўчИвї<йџК ѕdѕ ѕ®rЛ :їҐЌ!Т =‡dОїЉIQТ IЅў™а їPь•Т> їЉIQТЅ їЉIQТ	R їҐЌ!Т
ї0°°в =‡dОї{Ђ{в »І ў їТшв™ ї•!вЅ їТшвж їљЧгвчї&`тгчѕupW ѕЫ+»зк ї—7щй7 ї—7щйЖ ї‘ЪмчїќЉо =†,Р їсVEо Ё їЦuо Л їсVEо ф їЦuо цїЦuо2ѕРРзїЦuос=О?8 їсVEоц їє0оgї„1оn<C™ь їсVEом їсVEо	fїўчр =‡dОїLБр »І ўїKР€рLѕh@' їўчр	ЫїH™¬ю =†,Р їќYАю  їёќђю­їЃd|юрЅ‹Sвї‡іK  ѕdѕѕјgt  i<bЩCї†а" <Х‹/їЊµд [ЅvЯaї	Уэ iЅF1{ їГощO їГощL їЁ«)'ї†а"	MЅѕц§ ї&`т ѕ1в ѕЫ+»в ї~цЅ ї"*zч їј8чї$†h=mЊ¤ їZў'ч ѕЃ  ї:¦+ :ї—7щ =‡dО ї—7щ  ї—7щd ї—7щвїAцOЅЎбќ їKЙ	t ї/Чю#  їЁ№# їЁ№#ъ їUнД#d їЁ№#эѕ1( њѕ3iї…Dе) ѕ°w/їOИ) :ѕЂѕС їєО) _ їХ^џ)їћ%Љ)7ЅCїOИ)LЅј·у їєО)) їХ^џ)	ЫїKЙ+ =‡dО їKЙ+	ї‡іK. ѕdѕ їўч.1 їўч.

 ѕЃ0 :ї&`т; =‡dОїЃТў> =‡dО їхЇЯ>  їҐ–&> :їхЇЯ>;Ѕ^ґђїҐ–&>7Ѕ\џїїЪl>:јвН–їхЇЯ>ТѕqЊД їхЇЯ>кїхЇЯ>цѕiХTїхЇЯ>)ѕЫ‡їЪl>рЅъUeїѕvЛ>Ѕѕ#‹ їёЎ	>ч їёЎ	>	MїёЎ	>	ЎЅЖ0Ї їхЇЯ>	Ы їхЇЯ>
їKЙD	}ѕUJѕє®ЬLsїUаї—7щO =‡dО ї?эЙO  ї—7щOАїsq?Q =‡dОѕт§$Qвѕ9еї<йџQЙЅtЂї&`тWћ=w/Ј ѕЫ+»[Н ѕ\8уa : їЉcrїЉcЅѕ¶ ї12Ыg	}їAцi]ѕ»„ђїЊlтn =‡dО їbRDnaї‘Ъr :ѕu¶U ѕЫ+»sїgБmw <Х‹/ ї°пЌw7 ї•«Ѕwё ї•«Ѕx7 ї°пЌxdїslсxЅЅЈТ№ ї°пЌxГїZў'yюѕYжTї_0f| =‡dО їгuq| : їгuq|жї¦fљ|LЅРі їИ1Ў|) ї“[ё|лїИ1Ў|юЅЌ®| їгuq|	}їгuq|
ѕ\KD їsq?Ѓ їgє|ѓ =‡dОїKЙ… =‡dОї€NR‹ =‡dО ї€NR‹wѕЯІЈЊ ѕdѕ їgє|Ћ+ ї‘Ъ“)їwиR– ѕdѕ їwиR– ™ї—7щ–Лѕ_Ъї„а"™ =‡dО їнwЋ™ PїнwЋ™ ~ѕг}їС‚J™ „<ђ8 їнwЋ™ Ё А]Ї™ Ю А]Ї™ цїС‚J™ щЅиН їЛ¬€™ А]Ї™¤ А]Ї™ А]Ї™Ы їнwЋ™5 їЛ¬€™С їнwЋ™їЛ¬€™“Ѕ=+¤ їнwЋ™7 А]Ї™С А]Ї™ А]Ї™z А]Ї™­їёЎҐ™	'ЅeўА]Ї™	Еѕ(уКї‘Ъ› =‡dОї<йџќ ѕdѕ ї<йџќ	} ѕЫ+»џ :ї€NRЎ =‡dО ї€NRЎ™ ї€NRЎЅ ї€NRЈ	} ѕЫ+»Ё ц їќfТ©  ї‚#©ъѕАVы©ЅЅЌUої:¦+Ї =‡dОї@ЇчІ <Х‹/ їќfТІ_ї@ЇчІжЅІй{ ѕЫ+»і°їPь•№ <Х‹/ ї$†є: їFX јї—VјxЅЫ±2їAцЅ ѕdѕ ї @ЖѕЄ їRcѕЅ ї @Жѕчї~	хї =‡dОї~	хїиѕIуѕЫ9ќГ :ѕЋњIї§;Ж ѕќiїЮ>PЖ Нѕ6Ph їЮ>PЖN їЮ>PЖЂїЎ/yЖ7ЅГ­ їЮ>PЖ8 їЮ>PЖw їЮ>PЖЖїЮ>PЖТѕnjї‰н•Жмѕ.т їЮ>PЖъї~	хИ =‡dО ї~	хИ™ ѕЃЙ4ї$†С”Ѕп“ЌїwљйТ =‡dО їъТoТ  їЅГТ ™ їъТoТГ їъТoТx їъТoТ^ їъТoТН їъТoТгїЯЋџТ7ѕi> їъТoТо їъТoТќ їЯЋџТ[ їъТoТA їЯЋџТЅ їъТoТчїъТoТ
ѕsiсї€NRУ =‡dО ї€NRУКї‹VиЦ ѕ°w/ їЫpўЦНї¤7ЌЦ7ѕ@гтї‡зЦdѕіґ±їЫpўЦњЅ„HїЫpўЦ®ѕ-’­ їЫpўЦЅ їЫpўЦГї{бјв =‡dО ї©Е`в Аї в §=мЬэАї вКѕ№¬АвСѕ0йB Аї в Ави їмDквэ Аї в Аї вd Аї в‚ їмDкв™Аї віЅе‹ Ав1 Аї вz Аї в»їWвЅјјw їП-EвА Аї вЕ Ав	R Аї в	Ў Ав
їЁ№гюѕYжT їЁ№г™ їa™HгЅїUнДгЖѕ‡ћїЁ№г	ќѕlц› їKЙеГ ї¶Кпж* ї¶Кпж їsx0ж7 ї¶Кпж™ їsx0жЖ ї›‡жжїґ|и ѕdѕ ї’±и ЛѕпљМи)Ѕ™ђ їПїниhї7Е^и	а< ЏїЉжзк =‡dОїoTк јїUщїу~Sк :ѕАaкmЅЁцЏїЧ‰кzЅђФїЎqки»°j їЧ‰кd їу~Sкfїу~Sк™ѕЭ&%ѕоF©кЅЅН…Ъ Аaкчї_2чл <Х‹/ ї¬ЁRл ї_2члГ<vнґї92л	NѕAєї‰Ќм =‡dОїцЮ¬м ‹=мЬэ їцЮ¬мЋїЫљЫмОѕУЎїУ%м»lфЯ їЫљЫмa їцЮ¬мxї‰Ќмв<Jі™ їцЮ¬мЅїЫљЫм	ЫЅМ™ГїZ©о <Х‹/ їЄccо) їЄccоЅїЉрр<TђсїЏЏШц ѕќi їЖИнцxїЖИнц>ѕ_>Э їЖИнцЭ їЖИнц	ќ ѕЃшч ї:¦+щ»їW|ъ ѕќiїKР€ъ >ѕiФ їўчъ}їiэпэ ѕdѕїђBИэIѕ(уКї“[ёю ѕ°w/ їгuqю  ї“[ёюэї¦fљюLЅSsн їгuqюµї_0fювЅ60Уї¬<]ючЅ, ї¦fљю	ЎїZ©  <Х‹/ѕ­y  ЅЅшB*ѕЫ+» =‡dО ѕЃt ї‘Ъ
в ї:¦+ :ѕЃъ њЅИн„ѕЯІЈвјlzвїgє| =‡dО їgє| : ї‘ЪЄѕЫ+»#Ѕѕuh Ѕ›Ўc'	їKЙ. =‡dОїKЙ. :ѕoА їKЙ.]їIЙ1 =‡dО їТш1* ї•!1Lї¶Н'1кѕѓl їТш1џ ї•!1Ѕ їТш1	p ї¶Н'1	џ їТш1	ё їТш1	Ыѕт§$88Ѕяa1їя89=ћвїмH98>M’ЮїмH99=^mїZў':>ѕf› їZў':р ї$†:	M ѕЃ>в ѕ®r?в ї‘ЪPД ї:¦+R	Є ї&`тSd ї&`тS>ѕЃU <С™Чїёќђ[ =‡dО їёќђ[MїQ®[7ѕ4Љ їќYА[Ѕ їќYА[	Ў їќYА[	Ы їZў'_  їZў'_ :їZў'b^ѕ f-ѕiєРgg>d¤ї&`тq :ѕX'ц їKЙt : ѕЫ+»vѓ ї@Їч}Г їќfТ}Aѕ1ѓ*ѕqPp ѕЫ+»€ѕ®rљ :ѕЪв.ѕЫ+»› :ѕjOuѕ.X“ќ	Mѕµ™jѕљ ›ћ :ѕЌВїq*Ућ*ѕМtї“Щ:ћLѕPи1 ѕЃ > ї‘ЪЈ ї&`т¦ _їЊlтЄ =‡dО їЊlтЄи їЊlтЄ> їЊlтЄю їgє|і7 їfTњК s їЄccКїЏ’КюЅЁd€ ї,%QКчїQ.ЧО ѕdѕ їѓЫ<О  їQ.ЧОЅ їђBИР їiэпР ЅьOї&gгР :ЅУ?Ћ їђBИР ж їЉТчѕ\8уХ»ѕ	·qїўчЬ =‡dО їўчЬ … їўчЬ › їўчЬН ї‡іKЬP ѕЫ+»ж»ї—МлЅѕT`Lї:¦+н =‡dОї:¦+нвѕp ѕЃок їѓЫ<ю їѓЫ<юк їѓЫ<ююї&gг	XјЃ>B їђBИ	} їbRDН їЊlтк їЊlтЅїZў' =‡dО їKЙ
 їKЙ
чѕn2kѕЃОѕ0Eої&`т [ѕS8 ї‘Ъ ѕЫ+»OїЉ ѕdѕ ї:¦+ :їљ2 ѕ°w/їL[{ :ѕQЛG їќfТ7ї®Цx! =‡dО ї®Цx! :ї®Цx!LЅUkж ї®Цx!кї“’Ё!!ЅзЦМ ѕЫ+»#чїЌ$
) =‡dО їЩЖ2)  АЈ) : АЈ) iАЈ) zѕ88…їЩЖ2)Dѕе АЈ)Н АЈ)нї—F¦)7ѕђ АЈ)9 їх»v)dАЈ)(>xё9 їх»v)| АЈ)У їх»v)м АЈ)ъї&~M)ЅЅйYїх»v)УЅЬOї‘ъL)чѕXT АЈ)	Ќ АЈ)	Б ѕБу67ї-”З= <Х‹/ ї“Щ:=Oї9@K=кЅ¦Јеї‰ґwA ѕќiѕТcA <3: їАн‹AdїҐ©»A»ЅаWx їАн‹AЅ ї®ЦxB J ї®ЦxBAї“’ЁB»ЅБ« їo:ЗBЅѕTКИѕ®rCУѕої‚#D ѕdѕ їќfТDэ їќfТD7ї‚#DоѕКђDїљ2DЅѕ&©cї•«ЅH ѕdѕї°пЌH cѕ1T ї°пЌHц ї°пЌH^їgє|Q =‡dО ѕЃZїЇЉN[ ѕdѕ їКО[A їКО[d їКО[>їКО[)ѕq‘ їЇЉN[» їЌїG[ЅїЇЉN[АЅѕ]  їКО[В їЇЉN[	Ў їКО[	ё ѕЫ+»]”їZў'c =‡dО їZў'cЅ ї&`тttї&`т|ЅѕpЭ=ѕЃъ}}>Ѓ0Яї†Ёг~ =‡dО АЦп~ cїкj~ jЅШ—ЮїОtЙ~О=іВv АЦп~™ їИџ~Є АЦп~аїИџ~aЅАЮы АЦп~– АЦп~К АЦп~Oї‘Р ~)ј,1  їИџ~A їкj~їИџ~	wЅ™dDї‹х>~	}јК: їкj~	ќ АЦп~	хѕЃъЉвѕе=ї&`тђ :ѕjOu їKЙ“э їKЙ“	Ы їKЙ” 8 їKЙ”ЅїKЙ– =‡dОїЄccњ =‡dОїZ©њ7ѕЋнєѕфI<њ	Ќѕїsq?џ=м–dї&`тЎ =‡dО ї&`тј : їgє|Г :їgє|ГOѕOп_ѕ®rДP»†п ї&`тЕк ї&`тЙ Ё ї&`тЙ ф ї—7щМ їО~МaѕЁѓт ѕЫ+»СС ї&`тУL ї12ЫШ :їЁ№Ъ =‡dО їЁ№Ъ ц їЁ№Ъd їЁ№Ъ–їЊБиЪлѕ’УDїKЙЯ :ѕK#љ їKЙЯ iїЁ	1й <Х‹/їейЙѕFёкїейµѕ№¬ їей»їЙФ7йјЅЯ,ї­ЮуйНѕRьїbu”й7Ѕ,”r їей. їей— їей» ї­ЮуйЅ їейУїЙФ7й	\ѕ
R ѕЫ+»м :їҐ©»р ѕdѕїѓЮµр VЅИѓE їАн‹р ь їҐ©»рmї‰ґwрв=Jiс їАн‹р

їZў'с =‡dОїZў'сУѕ№¬ їKЙт€ їKЙф7 їKЙфdї&`тч =‡dОї&`тчвѕr›/ї—7щъrЅИЭR ї—7щъКї—7щь =‡dО ї4REь _ ї—7щьЅї—7щьЖѕl'jїsq?юѕnjїsq?„=т\K ѕЫ+»	‘ї:¦+ =‡dО ї:¦+ѕЃЅѕt®“ѕє®Ь% i=­”Ё їKЙ%L ї~	х*чї&`т/ sѕn8]їgє|< =‡dОїZў'@LѕPи1 їЁ№A%їЁ№A}ѕ[s їЁ№AA їЁ№Aў ѕЯІЈC ѕЫ+»Xвї~	х] =‡dО ї&`тf ѕЫ+»n =‡dО їѓЫ<p : їѓЫ<pН їѓЫ<pЅї4REs <Х‹/ ї—7щs* ї—7щsмїAцu ѕdѕї•«Ѕw ѕdѕ ї°пЌwН ї°пЌwaѕю!яјЛ ї“Щ:Ѕї&`т„ =‡dО ї:¦+… :ї:¦+…чѕiЉI ѕЫ+»ЉЉї&`т‹ =‡dОѕЯІЈђ;ѕќC ї&`тђк ѕє®Ь• : ї“Щ:—> ї“Щ:—г ї“Щ:—А їq*У—У ѕЫ+»њч ѕ®rќ	Ыї12Ы  ѕdѕї&`тЎ =‡dОї$†Ј :ѕ™И ѕ\8у©	ої:¦+«Ѕе‹ї„ьц® )ѕћA› їRc®>ї N®ЅѕЪ	ї“Щ:ё =‡dО ї‘Ъ№
їЉєѕч@їЉє»ѕРїv	w» =‡dО їКbЧ»  АёЧ»жї·Wх»ѕmбАёЧ»@>Ґ­ЉАёЧ»‘=мЬэїм-Ю»љЅў™аАёЧ»Мѕ№¬АёЧ»Єѕi\aї“”p»НЅУ›Сї“”p»7ЅФЦ
 АёЧ»: їм-Ю»aїР8™»dј	e АёЧ»ѕ АёЧ»Ц АёЧ»э їР8™»~ їЌ№»Ѕ АёЧ»Г їКbЧ»Ж їм-Ю»	} АёЧ»	Б АёЧ»
їsq?ј =‡dОїxqюЅ =‡dО А6пЅ  А6пЅ !АCёЧЅ %>xё9А(MЅ >ЅЩWЪ АCёЧЅ E А(MЅ ] А(MЅ z АCёЧЅ …АCёЧЅ €»Ќ&АЛ9Ѕ Ћ:дЬBА6пЅ њѕЕJЕ АCёЧЅ © АђzЅ ЗАЬ‡Ѕ Н;™іЂ А6пЅ Ю А6пЅ уїч.жЅ цЅnGA АCёЧЅ ч А%1lЅ АCёЧЅ А6пЅ$А6ZЅ,ј‚„с А%1lЅK АCёЧЅVїч.жЅ}»М№LА(MЅ‹<µ”Ђ А6пЅЋ А6пЅЎАCёЧЅЁѕ(уК АCёЧЅ№ А«ъЅГ АCёЧЅК АCёЧЅН А6пЅП А6пЅТА«ъЅШ<?Ъќ АCёЧЅЪ АCёЧЅд А6пЅжА	К8Ѕт=¬яµ АCёЧЅ АCёЧЅА«ъЅ&јў>  АCёЧЅ5 АCёЧЅ; АCёЧЅLА%1lЅ`;Лњ' АCёЧЅtАCёЧЅЉ=мЬэ АCёЧЅЌА«ъЅ‘ѕ—# А6пЅљ А6пЅЖ АCёЧЅх А6пЅ А	К8Ѕ А«ъЅ А6пЅАMЅ;Лњ' А6пЅ:А6пЅIј[Ќъ АCёЧЅLАђzЅOјЊ¶ќАђzЅX»љ»`А«ъЅeЅtЂ АCёЧЅf А6пЅg АCёЧЅЏ А6пЅђ А6пЅ“А6пЅ™»†п АMЅљ АCёЧЅїАCёЧЅгѕ_:я А6пЅч АCёЧЅш АCёЧЅ АCёЧЅА(MЅЅi†ќ А(MЅ.А6пЅ<јуdg АCёЧЅiА	К8Ѕw<ZЧ« А6пЅ„їз0иЅЏЅ\z#АCёЧЅҐѕ;at АCёЧЅЇАCёЧЅјЅ©¦я АCёЧЅйА	К8ЅоЅаЖ®А6пЅј[Ќъ АCёЧЅ А6пЅА%1lЅ)ѕЃ‘ АCёЧЅ1 А6пЅ5 АCёЧЅ;А%1lЅLЅчЕА(MЅQјыѕ±А(MЅW<о(H АCёЧЅ^А6пЅaјуdg А%1lЅn А6пЅu АCёЧЅw А%1lЅxА(MЅyј~¬‚ АCёЧЅ{А	К8Ѕ|ї"€А«ъЅЃјseР АђzЅѓАCёЧЅ“ЅИЭR А%1lЅё АCёЧЅєАђzЅј<аЕЁА%1lЅГ=К™DїыјЅи>ЋА6пЅоѕѕВ”їыјЅъ<џ#АCёЧЅ=мЬэАCёЧЅ
ЅИЭRА6пЅ»†пА6пЅ'>¶}sА(MЅ.»®ў‚їыјЅ1Ѕ"ХчАCёЧЅU=мЬэ АCёЧЅX А6пЅq А%1lЅt АCёЧЅu А(MЅz АMЅ} АCёЧЅўА%1lЅЈ=џЉ АCёЧЅА А6пЅБ АCёЧЅМА«ъЅЬјЬАCёЧЅнѕњ§ АCёЧЅрА	К8ЅЅeы АCёЧЅАђzЅ<‚ФАCёЧЅѕњ§ АCёЧЅ А%1lЅ0 АCёЧЅ6 А%1lЅH А(MЅQ АCёЧЅU АCёЧЅV АCёЧЅWА6пЅЉ>Xgї А6пЅЏ АCёЧЅ– А6пЅ—їя#\ЅМЅтА(MЅЪЅs…А6пЅЅїо АCёЧЅ АCёЧЅ( АCёЧЅQїуtЅs=Ђ
 АCёЧЅuїя#\Ѕwј/· АCёЧЅ~ АCёЧЅ” А6пЅЈ АCёЧЅН АCёЧЅФ А6пЅЭА6ZЅл=шA. А(MЅрА6пЅф=Л=]АMЅ	=џЉ АCёЧЅ	
їЭKЅ	<ЌZqїЖ„#Ѕ	ЅҐ»kА«ъЅ	ј·МИ АCёЧЅ	( АCёЧЅ	=А(MЅ	ZЅO.Щ А«ъЅ	` АCёЧЅ	y АMЅ	‡АMЅ	ЊЅwgА%1lЅ	“;Лњ'А(MЅ	»< Ц А%1lЅ	Л А%1lЅ	НА(MЅ	Цѕ	/А6пЅ	ЯЅР	 А(MЅ	р АCёЧЅ	щАCёЧЅ
Ѕ'¬ АCёЧЅ
 АCёЧЅ
ї‹:aѕ ѕќi їВsuѕ† їВsuѕџ їВsuѕ·їВsuѕZ=мЬэї§/Ґѕ	ПЅЌ®|їr»*А =‡dО їЛjША ) ї©џСА : їЛjША s їж®ЁА; їж®ЁА7 їж®ЁАL їж®ЁА^ їж®ЁАЖ їж®ЁАЦ ї’]оАЅ їЛjШАЖ їЛjШАч ї:¦+БLї„,В =†,Р ї„,ВН їШ|ФВ7 ї„,В~ їШ|ФВЅ їЅ9В
їpЭjГ =‡dОїчs°Г )ЅдШї{v!Г VЅцHїчs°Г?ѕ[Hї@wnГaѕиaїЬ/аГрѕўaЊ їЬ/аГ~їЫпГ	}ѕ¶MтїЉ"њГ	џЅџCх ѕЫ+»Д ї12ЫЕ ѕdѕїjњєЖ =‡dО їМАЖ ) ї№ЮЖ V А“ЛЖ c А“ЛЖ	 А“ЛЖ™ї№ЮЖО;7тмїнгЗЖ+>0± їнгЗЖJ А“ЛЖ%А“ЛЖsѕoI· А“ЛЖЄ їСо‚ЖO А“ЛЖА“ЛЖКѕ* їнгЗЖ) А“ЛЖAї№ЮЖ	ќ= їjњєЖ	џ А“ЛЖ	х їЉК : їќfТН; їќfТН» їќfТНч їЊБиОН їЊБиО7 їUнДОвїUнДО)ѕ/12 їЁ№О»ї‘ЪР =‡dОїГбжУ ѕdѕ їЯ%·У : їГбжУНїЉФьУaјЪяC їЯ%·У; їўаУр їЯ%·У	їЯ%·У	ЧѕNh|ї‘ЪФEѕcџЫ їgє|Ц V їѓЫ<Ш»їўчЭзЅе‹ їўчЭо їўчЭвїўчЭ?<Йo ѕаpббЅїЂ±Iл <Х‹/ їЅА л :ї лъ:ЌKБ їЂ±Iл	}їsq?п =‡dО їsq?п:ї_<}р =†,РїГощр 8ѕ0b®їГощр :ѕX'ц їЁ«)рН ї†а"рЅ їГощрГ їГощрчїgє|с =‡dОѕ»­фоѕќC їKЙц :ї€t¤ч =‡dО А нч ї®ьКч ™<XV) А(щуч ҐА
r‡ч.ЅKЖА]hчWЅаЯУ А нч А]hчЇ А(щучГ А(щучр А(щуч А(щуч(їЙҐ”ч>ј&+БїШ;FчxЅЫ‡А]hчЅ=ЕїдўТчл»ёNћ АXчїЮ§ч^Ѕ6*k АXчiїШ;FчsЅ$ы] А(щучА А
r‡чгА
r‡чиЅwqи А(щучъА
r‡чыЅЫ@ їдўТчэ А(щучm А(щучs А
r‡ч А(щучҐ АXчД А(щучЗ А(щучТА]hч >%иb А нч#А(щучcЅ©¦яА(щучsЅе‹ АXч‡ А(щучЊ АXч™ АXчА нч[;іk3А
r‡чќ>ULЋА(щуч
ѕ(уКАXчBЅзЦМ їЙҐ”чHїЕ†уч[Ѕ!5  АXчz АXчГ АXчО АXч АXчAА(щучfѕ№¬ А(щучЋ А(щуч—їЮ§ч®Ѕ€8pї^ЁкчЅЅЫЁ АXчА А(щуч	R АXч	S А(щуч	k А(щуч	Т А
r‡ч	о А(щуч	ю А(щуч
 їѓЫ<ш7 їgє|ыЖїbRDь ѕdѕ їЊlтьъїЊlтьЅѕotc їЊlть
 їKЙю	}їКОяјѕ@ їКОяН їКОяиїuhЙя)ЅЃtш їЇЉNяЖ їЊlт	  їЊlт	 юѕUжЈ їЊlт	 	MїZў'	 =‡dО їZў'	 :Ѕ›Ўc		6?„Cѕ¦{™	ЅЅ]Q+ї{^Н	 ѕќi їoіI	 : їґи{		} ѕЈWХ		їDµM	 =‡dО їтќn	  їqЙћ	 : їµЋ	Ї ї»dZ	Н ї»dZ	7 їЧYћ	d їтќn	g їЧYћ	Ѕ їЧYћ	чї…L[		}јЙJ] їЧYћ		Ы їQ.Ч	7 їѓЫ<	Ѕ ѕЃ	Н їЉ	чѕ1	  ѕЋlҐ їZў'	$ЅїђBИ	' =‡dОї&gг	' :ЅУ?Ћ їђBИ	'Н їG‚T	)ч ї~	х	)	)ѕ1	. :ѕЋёп ѕЃ	0Гї&`т	2вЅбИu ї~	х	3 : ї~	х	3 ~ їмH	3ч їѓЫ<	4 їК	4)ѕ.Ь‰їQ.Ч	4]=mЊ¤ Ѕ›Ўc	6Ґ ѕЃ	7

 ї‘Ъ	8сїЊБи	= ѕdѕ їЁ№	=оїЊБи	=цѕёЗ їЊБи	=

 ѕЃ	Bчї"*z	C Ѕ–Fµ ї"*z	CЅ ѕЃ	G»їsfr	M =‡dО А	M їsfr	M :ЅJ n їкЬ[	M i А	M2А	M„=т\KїОз	MНЅђ]ї¶r	MLѕyшЦїкЬ[	M™ѕШш А	MЎ А	Mк А	Mм А	M~їкЬ[	M»ѕp”їKѕЛ	MЅЅ¦i‘їЙU	MчЅ'ЏјїкЬ[	M	kЅ.\ўА	M	Ыѕ"sh А	M
ї~	х	N =‡dОѕ»­	N ѕXЋї~	х	NЅѕDQї“’Ё	R ѕdѕ ї“’Ё	R ) ї®Цx	R : ѕ®r	X	Рї:¦+	Z =‡dО їЉ	Z) їТш	\ З їТш	\| їТш	\8 їIЙ	\» ї¶Н'	\ј їТш	\ їТш	\ј їТш	\Љ їТш	\ії¶Н'	\ЪЅьO ї€NR	`Н ѕЫ+»	cЅїЊlт	f =‡dО їЊlт	fg їЊlт	f	}ї-”З	k <Х‹/ѕ&Ўь	k	MЅњћ їgє|	n їsq?	o sѕ
Ќ їsq?	oк їsq?	oШїsq?	o	MѕjY(ї~	х	p =‡dО ї~	х	p	ї~	х	p	Ќѕkпїws	v <Х‹/ їќYА	v  їёќђ	vрѕ…–\	vчѕw ѕШ_ы	wчїЉ	x ѕdѕ їЉ	xчї‘зЏ	} =‡dОїhРj	} је13АrB	} /Ѕм~А*	} <ѕњ§ їѕK	} _А*	} iЅ™hД АrB	} м А*	}C АrB	}z А*	}‘ А*	}¶ АrB	}»А*	}иѕnҐj А*	}эїъп@	}LѕвґА*	}xѕgМ А*	}К А*	} А*	}‹ А*	}™їъп@	}ЖЅ•sK їДЧA	}Т А*	}е АrB	}_ А*	}¬ А*	}Т їъп@	}Ц А*	}ЕїЭЧ›	}йЅItй А*	}ьїх	}…јhaё А*	} А*	}і їѕK	}Ѕїъп@	}ГЅ›~! А*	}ц А*	}яА*	}	B=мЬэїЎеЌ	}	\Ѕ‘џлѕЈWХ	ЃzѕHк« ї‘Ъ	‚ ) ї&`т	„ю ї•«Ѕ	‡ : ї°пЌ	‡ iї°пЌ	‡ѕH’ ї°пЌ	‡Н ї°пЌ	‡їўч	Њ =‡dО їўч	Њ :їўч	ЊНѕqцоїKР€	ЊЖѕЉѕ‹ї‡іK	Њчѕ])ї[z$	Ќ =‡dО їзuІ	Ќ ) ї°<ќ	Ќ V їМ1б	ЌBїзuІ	Ќ+=ќ)ї[z$	Ќs=йўїМ1б	Ќ„ѕѕ’@ ї°<ќ	ЌЛ їзuІ	Ќ–їЄfЫ	ЌРѕ/Y їМ1б	Ќ	џїЄfЫ	Ќ	КЅnЗ ї‘Ъ	Ћ[ ї&`т	“*ї—7щ	њ =‡dОї.Сo	ќ =‡dОї»)в	ќ sЅKёї™^Ы	ќ2ЅА™ї»)в	ќ^ЅЫ9 їЦmІ	ќ© їЦmІ	ќк їЦmІ	ќЅї9j%	ќчЅЊк(ї»)в	ќ	MЅЌћї»)в	ќ	pЅЙ8јїЇu“	џ ѕќi ї–”п	џ  їЛjШ	џ ) їЛjШ	џ 8 їж®Ё	џ їж®Ё	џТїж®Ё	џкЅpЕ їж®Ё	џо ї©џС	џЅ їж®Ё	џ	= їж®Ё	џ
ї”юN	Ў ѕ°w/ї­Юу	Ў ЅЈюљїе	Ў Vѕ)±ј їе	ЎBї­Юу	Ў>ѕ¬P їе	ЎВ їе	ЎН їе	Ў7ї”юN	ЎaЅЃtш їе	Ўu їе	Ў~ їе	ЎЅ їе	ЎУїЁ	1	Ўчѕ‰Ѕ\їЙФ7	Ў	}ѕ‰я їе	Ў	Кї”юN	Ў
Ѕ{в$ї›m	§ ѕ°w/ їл1'	§  їл1'	§ )їn§Т	§Н»ХЩ) ї›m	§7 їіш	§d їл1'	§ў їEЕЄ	§Ѕ їПнV	§Ж їПнV	§чїПнV	§	ЌЅЈ±С ї{А'	§
ѕЃ	ЁНѕqцоїkМ…	Є <Х‹/їwx		Є VѕpҐ ї—±H	ЄН їІх	Є7 їІх	ЄЅї—7щ	­7ѕuF# ї?эЙ	­	}ї¤Х	ё ѕdѕї€#‘	ё Vѕ©хї€#‘	ёaЅ›)ґ її\Ґ	ёь її\Ґ	ё	}її\Ґ	ё	Кѕ4¬ої:¦+	» =‡dОї‚MП	Б <Х‹/її\Ґ	Б>ЅсT
 її\Ґ	БE її\Ґ	БЅ її\Ґ	Б	Ќ її\Ґ	Б
 ї‘Ъ	Д r їKЙ	Е : ї‘Ъ	ЙXїЂ  	К =‡dО їнQ	К 2ї\2	К ™јуР¦їТC	К Шѕі`v їнQ	К: їнQ	Кs їнQ	КЛї¶я	КгѕuьїнQ	К!>+Є™ їнQ	К7 їнQ	К#ї¶я	КТЅ€'# їнQ	Кв ї¶я	К
їZ	Л ѕdѕ ї€NR	Лw їKЙ	П : ї‘Ъ	РН їZў'	Ц Лї$†	ЦиЅжГzїZ	Ч7ѕРЋї€NR	Чвѕtxї€NR	Ч»ѕV	 ї€NR	Ч
їNїH	Ы =‡dОїCћ·	Ы єЖc їЗ· 	Ыи Аc;	Ыъ ї°uј	Ыэ їЗ· 	Ыp їЗ· 	Ы> їй‚¦	Ы™ їЂл:	ЫЅ Аc;	Ыѕ їй‚¦	ЫА їй‚¦	Ы
ї&`т	Э =‡dОѕ1	Ю	MјжЁ-ї$†	Я?ѕЊЏ¬ ї~	х	а : ї~	х	аЅѕЈWХ	гAѕ‡ЗH ѕЫ+»	дНї—7щ	ојѕ@ ї—7щ	оL ї—7щ	оЅїZў'	р =‡dОѕЃ	фвѕtxїђFA	х <Х‹/ї2пі	х ™Ѕ¶^¦ їНU	хЛїђFA	хѕ)ї їНU	хТ їНU	хB їІG	х®їІG	х
ѕЭx} ї12Ы	цН ѕЃ	ш* ї:¦+
Ѕї&`т
 =‡dО ї&`т
иїЊlт

LЅUkж їЊlт

и їЊlт

йї~	х
 =‡dО їG‚T
+ѕЫ9ќ
7Ѕ«Є] ї12Ы
)їsuџ
 =‡dОА
 ч
 2Ѕп“Ќ А
 ч
 : ї¤М
 VА
 ч
*ѕ‡– ї¬Єѓ
B А
 ч
D їщLЄ
> АBЯ
E АBЯ
U А
 ч
xА
 ч
ЧЅў™а АBЯ
лїуvи
iѕ6ґ· АBЯ
sїЬ5
z==дїЬ5
Лј­щЩ АBЯ
А
 ч
ѓ=О?8 їаl
 їуvи
в АBЯ
й А
 ч
R АBЯ
w А
 ч
– їуvи
™А
 ч
цѕёЗїуvи
)ѕ/12 їщLЄ
BїЬ5
[ЅC± АBЯ
Г А
 ч
Ѕ АBЯ
Ж АBЯ
О їуvи
чА
 ч
	v>M,1 А
 ч
	џ їјЁЂ
	К АBЯ
	х А
 ч

 ї:¦+
Л ѕЫ9ќ
) їџђ
 zїzҐ
ЅЃй? їєaa
Н їєaa
рїєaa
	оѕX)L ѕЃ

ѕЃъ
 
 >Ѓ0Я  
\3-grams:

 їЙШj   
 їЦ ’   
 АBбЎ   
 АYK-   
 АBбЎ   
 Аt\   )
 АYK-   3
 АBбЎ   8
 ї№›   :
 АBбЎ   >
 АYK-   D
 АYK-   F
 АYK-   K
 А*З   V
 АBзr   [
 АBбЎ   ]
 АЅ7   _
 АBзr   c
 А6l   i
 Ај6   s
 А*З   ~
 АYK-   Ћ
 АО…   ™
 АBбЎ   Ё
 АYK-   ­
 Ај6   З
 АBзr   Н
 АYK-   Ю
 АYK-   а
 АYK-   е
 АYK-   ж
 АYK-   к
 А*З   ц
 АYK-  
 АYK-  #
 АYK-  $
 АЅ7  *
 А6l  ,
 А*З  2
 АBбЎ  ;
 АBзr  ?
 АBбЎ  @
 АЅ7  B
 АYK-  M
 А/РS  ^
 АBбЎ  }
 АBбЎ  
 АYK-  ™
 А/РS  Ї
 АYK-  °
 АBзr  О
 АYK-  Ш
 АBбЎ  м
 АYK-  т
 АBбЎ  ъ
 АBзr  
 АBбЎ  
 АYK-  
 АYK-  &
 АBбЎ  +
 Ај6  >
 АBбЎ  A
 АYK-  C
 АBбЎ  E
 АYK-  J
 А/РS  O
 АYK-  \
 АYK-  x
 АYK-  ™
 АYK-  љ
 АYK-  ›
 АYK-   
 АYK-  Є
 АYK-  Ѕ
 АYK-  Ь
 АYK-  Ю
 АYK-  в
 АYK-  х
 АBбЎ  ч
 АYK-  ю
 АYK-  
 АYK-  
 АЅ7  
 АYK-  5
 АBбЎ  ;
 АYK-  B
 АBбЎ  D
 АBбЎ  F
 АYK-  ^
 АYK-  h
 А*З  s
 А*З  z
 АYK-  {
 АYK-  }
 АBбЎ  Ђ
 АBзr  ‘
 АBбЎ  “
 А*З  Є
 АBбЎ  ¬
 АYK-  ®
 АBбЎ  ±
 АBбЎ  »
 А/РS  ј
 А(X  Л
 їе•Љ  Н
 АYK-  Ш
 АBбЎ  б
 АYK-  г
 АЅ7  и
 АYK-  ф
 Ај6  ъ
 Аx#  э
 АBбЎ  

 АBбЎ  
 АBзr  
 АYK-  .
 їФЗК  7
 АBбЎ  :
 А/РS  A
 АBбЎ  B
 їр`‘  L
 АBзr  W
 АYK-  ^
 Аx#  a
 АYK-  b
 Аx#  d
 АBзr  f
 АBбЎ  h
 АBбЎ  x
 АYK-  Ќ
 АBзr  Џ
 АYK-  ”
 АBбЎ  –
 АBзr  
 АYK-  Ѕ
 АBбЎ  И
 А/РS  Т
 А6l  в
 АYK-  ж
 А6l  о
 АBбЎ  ю
 АYK-   
 АBзr  
 АYK-  
 А/РS  )
 АBзr  .
 АЅ7  >
 АYK-  O
 АBбЎ  Q
 АYK-  w
 А/РS  x
 АО…  |
 АYK-  Ћ
 Аѓ¬  ™
 АYK-  Ў
 АYK-  Ј
 АYK-  ©
 АBбЎ  І
 АYK-  ј
 АBбЎ  ѕ
 А*З  Ж
 АYK-  И
 АО…  Т
 АYK-  У
 АK  Ц
 їштG  в
 А/РS  г
 АYK-  ж
 АО…  и
 АШ  к
 А/РS  л
 Аt\  м
 АBбЎ  о
 АYK-  ц
 Ај6  ю
 АBбЎ   
 АYK-  1
 АBзr  [
 АBбЎ  ћ
 АYK-   
 АYK-  ¦
 АYK-  А
 АBбЎ  К
 АBзr  Ь
 АBбЎ  л
 АYK-  
 АYK-  !
 АYK-  '
 АШ  )
 АYK-  6
 АYK-  =
 АYK-  A
 АYK-  B
 АBбЎ  H
 АBбЎ  O
 АYK-  Q
 А6l  [
 АYK-  c
 АYK-  u
 Аx#  ~
 АBбЎ  њ
 АYK-  »
 АYK-  Ъ
 АBбЎ  й
 АYK-  ъ
 АYK-  ь
 АYK-  ю
 АYK-  
 АYK-  %
 АYK-  <
 АBбЎ  @
 АYK-  A
 АBзr  B
 АBбЎ  w
 АBзr  
 АBбЎ  Ј
 АYK-  ё
 Ај6  »
 ї›u=  Ѕ
 А(X  А
 А6l  В
 Аt\  Г
 Аѓ¬  Ж
 АBбЎ  О
 Ај6  У
 АBзr  Э
 АBбЎ  б
 А*З  л
 АYK-  р
 АYK-  ф
 їЙШj  ч
 АYK-  ю
 А*З  я
 АK  	
 АBбЎ  	
 АBбЎ  	)
 АYK-  	7
 АЉr  	M
 АYK-  	R
 АBбЎ  	\
 АBзr  	v
 їф2  	}
 АYK-  	„
 АBзr  	‡
 А*З  	Њ
 А(X  	Ќ
 АBбЎ  	ќ
 А/РS  	џ
 АBбЎ  	Ў
 Аt\  	§
 АBзr  	­
 АBзr  	ё
 АYK-  	Б
 АBзr  	К
 АBзr  	Л
 Аѓ¬  	Ы
 АYK-  	о
 АYK-  	х
 АBбЎ  	ц
 АYK-  

 АYK-  

 їмЉ»  

 АBбЎ  

 їЬ•И   Ю
 їЬ•И  в
 їЬ•И  ћ
 їЇОR  о
 їЬ•И  р
 ї›­Ј  )Ѕ
 їшыR  :O
 їшыR  :Н
 їшыR  :
 їМ(9  :р
 ї¦ћ  :Ѕ
 їшыR  :	M
 ї?  >L
 ѕѕЫ  K»
 їY'Њ  V 
 ѕ¤Ъ  [ :
 ї“н  _ 
 ї“н  _Н
 ї“н  _Ѕ
 ї,•«  sЅ
 їY'Њ  ~ :
 ї€щP  ™I
 їѓо  З ф
 ѕѕЫ  е	Ы
 їY'Њ  цЇ
 ї“н *7
 ї“н *~
 ї“н *»
 їjJш ,s
 їY'Њ 2Н
 ѕ¤Ъ ?ч
 ї“н Bd
 їL‘§ B

 ѕЦxB ^D
 ѕѕЫ ™	M
 ѕЦxB Ї	Ы
 ї,; ОТ
 ї,; ю
 ї,; Ѕ
 ѕѕЫ ч
 ї? +Т
 їDвS O i
 ѕѕЫ Ѕ)
 ї“н  
 ѕѕЫ 5ч
 ї? ;Ѕ
 ѕѕЫ ^	M
 їY'Њ sч
 ѕLрђ zч
 ї? ¬ :
 їЋE« ЛТ
 їЋE« ЛЅ
 їН Р НО
 їН Р Ню
 ї -· НЄ
 ї -· Н	}
 їН Р Н	х
 ї“н и|
 їѓо ъЅ
 ї©¦ эґ
 ї,; d
 ї± 7 3
 їЭОђ 7J
 їЭОђ 7[
 ї± 7	v
 ї°ыw 7	џ
 їЭОђ 7	К
 їЭОђ 7	х
 ї? :z
 їDвS A7
 ї? BЇ
 їВ5Й L 
 ѕљ › LЅ
 їВ5Й L	
 ї©¦ a	\
 їyҐш da
 ї6“ d	}
 ѕѕЫ Ќ 8
 їjJш в 
 ѕ¤Ъ  [
 ї“н > :
 їL‘§ >7
 ї? QЙ
 їDвS x7
 ї›­Ј ™ щ
 їY'Њ Жм
 їy#€ Цd
 ѕЪ“ вЅ
 ї№¤ вА
 їDвS гЅ
 ѕѕЫ жЖ
 ѕШq и)
 ї8Ln и	а
 ї¦xЄ к 
 ѕkъМ кЅ
 їDвS лГ
 ѕф‹] м
 ї›­Ј мв
 їѓо юв
 ї?  Ѕ
 ї,; [7
 ї? ћ :
 ѕѕЫ  >
 ї,; Ь ›
 ї? лЅ
 ї'м )Ѕ
 ѕѕЫ 67
 їjJш [	Ў
 ї©¦ ~a
 ї©¦ ~	}
 ї? й7
 ї? @L
 ѕ¤Ъ 
 їѓо »М
 їѓо »Н
 АђЏ Ѕ 
 АђЏ Ѕ З
 їкYЁ Ѕ,
 АђЏ ЅШ
 їкN Ѕ
 АђЏ ЅO
 їкN ЅX
 АђЏ ЅЏ
 АђЏ Ѕn
 АђЏ Ѕ|
 АђЏ Ѕ1
 АђЏ Ѕ}
 АђЏ ЅЬ
 АђЏ ЅМ
 їкN Ѕs
 АђЏ Ѕw
 їкN Ѕр
 АђЏ Ѕ	
 їкN Ѕ	
 АђЏ Ѕ	р
 їBе$ АЅ
 їЋE« АЖ
 їjJш В~
 ї›­Ј Г V
 їoЮ Г	}
 ї—Џ Ж	џ
 ї? бЅ
 ѕяґ лъ
 ѕѕЫ р 8
 їиЅр ч 
 їиЅр ч ™
 їиЅр ч
 ї»кЧ чx
 ї»кЧ чл
 їиЅр чs
 їиЅр чи
 їиЅр ч 
 їиЅр ч#
 ї»ц{ ч[
 їЉ3% чЅ
 їY'Њ яј
 ѕѕЫ 	7


 їЇЃw 	M :
 ї‚®^ 	MЅ
 ї,; 	vч
 їѕ) 	}Ж
 їѕ) 	}Ѕ
 ѕѕЫ 	„ю
 їЋE« 	ЌР
 ѕЦxB 	џ 
 ї›­Ј 	§Н
 ї]М[ 	§Ѕ
 ї]µ 	§

 ї,; 	ёa
 їUwУ 	Ы 
 їЖџ 
B
 їЖџ 
B
 ї™8† 
ч
 їЖџ 
	К
 ї? 
Н
 ѕѕЫ   
 ї¦xЄ  З
 ї¦xЄ  З>
 ї? V»
 ї? &й
 їY'Њ в
 ї,; ћ:
 їЏк о 
 ї»й оg
 Ѕч·[ юр
 ѕЦ¦П в
 ѕѕЫ ќ 
 ѕѕЫ Ё ц
 ї,; Ѕ 
 їY'Њ Ъ ц
 ї,; чв
 ї¤З р 
 ї,; фо
 ї,•« 	 
 ѕIД3   
 ї? Ѕ(
 ѕѕЫ   
 ѕѕЫ   
 ѕѕЫ   
 ѕѕЫ   iЅ
 ѕѕЬ )  
 ѕ¤Ъ )ю
 ї,; )вА
 їВ5Й )Ѕ 
 ї•b± )Ѕ}
 їВ5Й )Ѕ
 їGUь )Ѕъ
 ѕѕЫ )ѕZ
 ѕѕЫ )Эв
 ѕ¤Ъ ,? 
 ѕѕЫ 2  
 ѕЅњі 3  
 ѕѕЫ 3d)
 ї? 3ч
 ї,; 3Ѕ“
 Ѕч·[ 8  
 їjJш 8и)
 їjJш 8иh
 їjJш 8и	а
 ѕѕЫ :  
 ї€щP : ф
 їy#€ : )в
 їy#€ : )Ѕ
 ѕѕЫ :	M
 ѕѕЫ :™	M
 ѕяґ :O 
 їY'Њ :OЅ
 ѕяґ : 
 ї? :s :
 ї©¦ :Н 
 ї©¦ :Н Х
 ї©¦ :Н›
 ї©¦ :Н	д
 ї©¦ :Н	ц
 їЈл :7 
 їlЌЈ :7B
 їЈл :7C
 їЈл :7	Є
 їlЌЈ :7	К
 ї€щP :d	ќ
 ѕѕЫ :Њ	R
 ї,; : i
 ї? :Цd
 ѕЦ¦П :гЖ
 ї,; :кЅ
 ї? :Sd
 ѕЦ¦П :ѓ*
 ѕIД3 :љ :
 ѕЦxB :ћ*
 ѕѕЫ :н 
 їј : 
 їDвS := 
 їDвS :=O
 ѕяґ :A 
 ї¤З :р V
 їjJш :рв
 ѕѕЫ :ђ;
 ї€`E :Ѕ 
 їЫUш :Ѕ >
 їЫUш :Ѕ ц
 їЫUш :Ѕ
 їЫUш :Ѕg
 ї®‚Я :ЅW
 їЫUш :Ѕи
 ї®‚Я :Ѕ	
 їЫUш :Ѕ	
 їBе$ :В 
 ѕҐџ :	. :
 їDвS :	ЌР
 ѕѕЫ :	ќ s
 їy#€ :	§Н
 ѕIД3 >  
 ї,; > :Ѕ
 ѕIД3 >LЅ
 ѕҐџ K»
 ѕѕЫ P  
 ЅаЏҐ V  
 ѕѕЫ V‘ ж
 ї? VЖ 
 ї? VТ 
 ѕдЫ V
z
 ѕIД3 [  
 ѕ¤Ъ [ :
 ЅаЏҐ _  
 Ѕч·[ _Й _
 ї]µ _НО
 ї]µ _Н	}
 ї]µ _Н	ќ
 ѕѕЫ _ф _
 їBьk _7	ќ
 ѕѕЫ _~О
 ѕҐџ _ь _
 ѕIД3 c  
 ѕѕЫ i  
 ї,; iѕЅ
 їЛWъ iЅо
 їЛWъ iЅ	
 їЛWъ iЅ

 ѕѕЫ j  
 ѕЅњі s  
 їDвS s :7
 ѕѕЫ s 
 ї,; sН 
 їDвS sLЅ
 ї“н sЅ 
 ї“н sЅ|
 ї“н sЅл
 ї“н sЅ	
 ѕIД3 z  
 ї? z њL
 ЅаЏҐ ~  
 ѕѕЫ ~7	К
 ѕѕЫ ‹чЅ
 ѕѕЫ ЋК 
 ѕЅњі ™  
 їј ™  
 їjJш ™ ”
 ѕѕЫ ™L
 ѕѕЫ ™>Т
 ѕѕЫ ™эI
 ѕѕЫ ™й—
 ѕЦxB ™є
 їDвS ™є»
 ѕѕЫ њ Q
 ѕѕЫ њ : 
 ѕҐџ њLэ
 ѕѕЫ Ј  
 ѕѕЫ Є€
 ѕIД3 ®  
 ѕIД3 Б  
 ѕѕЫ Д  
 ѕIД3 З  
 ї? З :р
 ѕѕЫ З 	f
 ѕҐџ Н  
 ї,; Н :Ѕ
 ѕѕЫ НЅ >
 ѕIД3 Ш

 ѕѕЫ Ы : 
 ѕѕЫ а  
 ї? вd :
 ї,; е	Ы 
 ѕѕЫ ж  
 ї? ж V‘
 ї? й к й
 ѕЦxB к й к
 ї,; к к й
 ѕIД3 т™ „
 ѕIД3 фd	}
 ѕҐџ ц  
 ї? ц :Ѕ
 ї,; цЇ :
 ѕѕЫ цв 
 ї,; ч : 
 ѕѕЫ щ  
 ѕѕЫ  
 ѕѕЫLЅ
 ѕѕЫ  
 ѕIД3:z
 ѕѕЬ*  
 їѓо*НО
 їѓо*Н	}
 ї]М[*7Л
 ї›­Ј*7	}
 їy#€*~ 
 їy#€*~	}
 ї,;*»@
 ї—Џ*Ѕ 
 ї—Џ*ЅШ
 ѕ¤Ъ*ЖО
 ѕѕЫ,  
 ѕ¤Ъ.  
 ѕѕЫ.Ѕ)
 ѕЅњі2  
 ѕѕЫ2 :Ѕ
 ї—Џ2Ѕ
 ї—Џ2Ѕ
 ѕѕЫ:  
 ѕIД3?  
 їЈл?ч 
 їЈл?чэ
 ї Hn?чЅ
 ЅаЏҐB  
 ї?B#d
 ї?B[	Ў
 їDвSB!к
 їЈлB
 
 їЈлB
U
 їl¤кB
i
 ѕIД3C  
 ѕѕЫCsк
 ѕѕЫMА s
 ѕѕЫW  
 ї?WЅ,
 Ѕч·[^  
 їy#€^^ 
 їy#€^^s
 їy#€^^	k
 Ѕч·[^DЅ
 ѕѕЫ^	k	M
 ѕЦxBlll
 їѓо„„^
 ї,•«„„„
 ї,¬т„„B
 ѕҐџ„BЅ
 ѕѕЫЋ  
 ѕѕЫ  
 ѕIД3	M™
 ѕѕЫ™  
 їY'Њ™	Mк
 їY'Њ™	MЅ
 ѕѕЫћчЅ
 ѕѕЫ¤  
 ѕѕЫЇ  
 ѕЦxBЇ : 
 ѕЦ¦ПЇя)
 ѕЦxBЇ	Ы>
 ѕIД3°  
 ѕѕЫГ  
 ѕ¤ЪГ}Г
 Ѕч·[О  
 їY'ЊО ™ 
 їY'ЊО ™ :
 ї¬§ѓОТг
 ї¬§ѓОТќ
 ї¬§ѓОТ[
 ѕѕЫООв
 ѕIД3С  
 ѕҐџШ	Ѓz
 ѕѕЫж  
 ѕIД3т^^
 ѕIД3т	k	M
 ѕѕЫъ  
 ѕIД3  
 ѕѕЫ
 ::
 ѕЅњі  
 ѕҐџ ,?
 їDвS :ѕ
 ї,;d 
 їDвSю 
 ѕѕЫ~	ќ
 ї}VЅ ц
 ѕѕЫ	Ы™
 ѕѕЫ  
 їjJшч 
 ї¤Зчs
 ѕIД3(Ѕ„
 ѕIД3+  
 ї›­Ј+Т 
 ї?+
л
 ѕѕЫ,яЅ
 їjJш3G )
 ї¤З3G3
 ѕѕЫ>  
 ѕѕЫ>A7
 їY'Њ>Тx
 їsK">
 
 ї¦xЄ>
>
 ї¦xЄ>
x
 ї¦xЄ>
Ч
 ї¦xЄ>

 їy#€@Т 
 ѕѕЫB  
 Ѕч·[E  
 ї?E ™й
 ѕѕЫF  
 ѕѕЫG )Ѕ
 ѕҐџG3G
 ї,;J	v 
 ѕѕЫL  
 ѕѕЫO  
 ї?O2Ѕ
 ѕѕЫOйН
 ѕ€ї!OчЅ
 ѕIД3]  
 їDвS]  
 ѕѕЫ`  
 ѕҐџmм
 їѓо‘	4 
 ї,¬т‘	4)
 ѕѕЫ™  
 ѕѕЫ   
 ѕѕЫ LЅ
 ѕѕЫЎ  
 ѕѕЫµ  
 ѕIД3Ѕ  
 ѕҐџЅ)D
 ѕѕЫГ  
 ѕяґГ s :
 їY'ЊГ sЅ
 ѕѕЫГГ s
 їDвSЙ _Н
 їDвSЙ _~
 ѕѕЫЫ  
 ѕѕЫЬ  
 ѕѕЫЮю
 ѕ¤Ълю	Ў
 ѕЦ¦ПлЅЏ
 їDвSм 
 їDвSм	Ы
 їDвSс	 
 їDвSс	7
 ѕIД3х  
 ѕѕЫц  
 ѕѕЫцLЅ
 ѕѕЫч

й
 ѕҐџю  
 ѕѕЫюЅ,
 ѕҐџ  
 ѕIД3™“
 ї?)
 ѕIД3  
 ѕѕЫ  
 ї€щP ю
 ї€щP 	—
 ѕѕЫ( њ
 їDвS™ 
 ѕѕЫ њ
 ї}VЅ 
 ѕѕЫ  
 ѕѕЫ'  
 ѕѕЫ2  
 ѕIД35  
 ѕЅњі;  
 ѕѕЫ;Г s
 ѕѕЫ;™ щ
 ѕѕЫ;м ‹
 їex;Ѕ 
 ї¤ЗD:
 ѕѕЫI  
 ѕѕЫL  
 ѕѕЫOmм
 ѕIД3^  
 ѕѕЫ^э¤
 їjJш^	M :
 ѕѕЫe  
 ѕѕЫh  
 ѕҐџi  
 ї,;i>р
 ѕҐџs  
 їDвSs 
 їBе$sчH
 ѕн?ЮsчЅ
 ѕҐџz  
 ѕѕЫz K»
 ї“]%zч 
 ї“hИzч>
 ї“hИzчЅ
 ї“hИzч®
 ѕѕЫ}  
 ѕѕЫ}
D
 Ѕч·[Ђ  
 ѕѕЫ‡Ѕ
 ѕIД3‹  
 ѕѕЫЏ  
 ѕҐџ”  
 ѕѕЫ”^ 
 Ѕч·[Є  
 їDвSЄ} 
 ѕѕЫ® 8
 Ѕч·[±  
 ѕѕЫ»*Ѕ
 ѕIД3»7 3
 їY'Њјч ™
 ѕѕЫВ  
 ѕIД3Д  
 ѕЅњіЛ  
 їDвSЛ  З
 ѕѕЫЛ )Ѕ
 ѕѕЫН  
 ї“нНО 
 їLЁоНОТ
 ї?Н+Т
 ѕѕЫН@Т
 ї,;Ню s
 їUЏНЄ 
 ї—ЏНЄc
 ї,;НЧ 
 ѕIД3Н" :
 ї?НТЅ
 ї}VН i
 їy#€НO
 ї,;Нч
 ї,;НOА
 ѕѕЫНо)
 ѕѕЫН› :
 ї…dІН) 
 ї…pVН)7
 їІ7ЛН)ч
 їјНA 
 ї?Н	 ю
 їА0>Н	} 
 їА0>Н	}й
 їА0>Н	}Г
 їА0>Н	}	\
 ї¤ЗН	ќ2
 ї?Н	дН
 ѕIД3С  
 ѕҐџЧ  
 ї,;ЮЮЮ
 ѕЦxBЯ Я
 ѕѕЫа  
 ѕѕЫаю 
 ѕѕЫбОТ
 ѕIД3г  
 їDвSг
)
 ѕѕЫи  
 ї€щPи|)
 їDвSичЅ
 ѕѕЫи	f	}
 ѕѕЫк  
 ѕѕЫкЇЅ
 ѕIД3ъ  
 ѕѕЫъЮЮ
 ѕѕЫъ	Ы 
 ѕѕЫы;м
 ѕѕЫэ  
 ѕѕЫэ З 
 їDвSэ¤ 
 їDвSэґ	џ
 ї,;э 
 ї,;эю 
 їy#€э| 
 ѕѕЫэђ :
 ѕѕЫэ• :
 ї?э	' 
 ѕѕЫяюк
 ѕѕЫяЅЈ
 ѕIД3 Я 
 ѕѕЫ
  
 ѕѕЫ  
 ѕIД3  
 ѕIД3  
 їDвSO 
 їDвSOъ
 ѕIД3Н)
 ЅаЏҐ  
 їDвSB7
 їDвSB

 ѕѕЫ+

 ѕҐџ>

 ѕIД3»7
 ѕIД3! :љ
 ѕIД3" :Н
 ѕѕЫ.?ч
 ѕѕЬ7  
 їђKN7 3 
 їЦ	ќ7 3z
 їЦ	ќ7 3d
 їЦ	ќ7 3
 ї©B(7 3ю
 ї©B(7 3Ѕ
 ї©B(7 3я
 ѕIД37 т™
 ѕIД37. 
 їЁФ7B 
 ї¬§ѓ7BW
 їЁФ7B[
 їЁФ7B!
 їy#€7C 
 ї8Ln7О 
 ї€щP7О ™
 ї€щP7ОТ
 ї¤З7E 
 ѕIД37J	v
 ѕIД37™
 ї,;7s 
 їy#€7Є 
 ї‚є7Л 
 їЇЃw7Л 
 їЇЃw7Л№
 їЇЃw7ЛУ
 ѕЦxB7Ч 
 ї?77O
 ї?7xО
 ї,;7 
 ї?7в 
 ї,;7L
 ѕяґ7Ѕ
 ѕIД37O 
 ѕѕЫ7еГ
 ї?7[Ѕ
 ї?7)ч
 ї?7A 
 ѕѕЫ7[)
 ѕ	оl7	vч
 їjJш7	ќ 
 їjJш7	ќ	p
 ї,•«7	џ 
 ї,•«7	џ 8
 ѕѕЫ7	Є V
 ї»й7	К Ш
 ї»й7	К:
 ї»й7	Кs
 їЏ!Ќ7	Кг
 ї»й7	К#
 ї»й7	КТ
 їjJш7	Ч7
 їjJш7	Ч

 ѕЦ¦П7	гA
 їLЁо7	х ™
 їL‘§7	х
 ЅаЏҐ:  
 ѕя1B:zч
 ѕIД3<г)
 ѕЅњіA  
 їЋE«A7 
 ѕѕл}A7	џ
 ї,¬тA
 
 ѕҐџBЇя
 ѕѕЫL  
 їK<АL  
 їД),L &
 їД),L 
 ї‚®^Lэ 
 їЇЃwLэ З
 їЇЃwLэ
 їЇЃwLэђ
 їY'ЊL™ Ё
 ѕѕЫLшч
 ї|;LЅ 
 їФhbLЅ !
 А ќЅLЅ Ћ
 А ќЅLЅ‹
 А ќЅLЅљ
 А ќЅLЅ
 А ќЅLЅO
 ї»}+LЅw
 А ќЅLЅҐ
 А ќЅLЅ5
 ї®EЗLЅQ
 А ќЅLЅa
 А ќЅLЅx
 А ќЅLЅQ
 А ќЅLЅU
 А ќЅLЅ–
 їФhbLЅМ
 А ќЅLЅ	`
 А ќЅLЅ	‡
 ѕIД3L		6
 ѕIД3^  
 їЈл^Ѕ Ю
 їlЌЈ^Ѕ
 їЈл^Ѕ	‡
 ѕѕЫa  
 їUЏa  
 Ѕч·[azч
 їY'ЊaЖ 
 ї,;aй	\
 ѕѕЫaт€
 ѕѕЬd  
 ѕЦxBd ®ч
 ї,;dО ™
 ї€\da 
 їґНТdaй
 ї‡ъ№daЅ
 ї?d'
 ї?d=к
 їDвSdйµ
 їDвSdчЅ
 ї§ЩЬd	} 
 ї§ЩЬd	}Ѕ
 їЃ«ћd	}	\
 їjJшd	К 
 ѕѕЫd	х ™
 ѕѕЫe  
 ї?tкЅ
 ѕѕЫw€Г
 ї?xвЅ
 ѕѕЫxю
 ї,;xО7
 ї?zzz
 ѕЦ¦Пѓкz
 ѕѕЫ€ГГ
 ѕѕЫЊ	R )
 ї?Ќ 8
 ѕЅњіЏ  
 ѕЦ¦ПЏ :®
 ѕѕЫЏBЇ
 ѕѕЫЏвЅ
 ѕIД3ЏкЅ
 ї?ЏЅЏ
 ѕѕЫ”  
 ѕѕЫ–  
 Ѕч·[  
 ї,;ч
 ѕѕЫ™  
 ѕѕЫҐв‚
 ѕѕЫЁЕѕ
 ѕѕЫІ  
 ѕѕЫєO :
 ѕIД3К  
 ѕѕЫТ  
 ї?Т I[
 ѕѕЫв  
 їjJшв  
 ѕѕЫгч

 ѕЅњіо  
 ѕIД3о2о
 ї?ос	
 їy#€оna
 ѕѕЫр  
 їjJшр  
 ѕ¤ЪрL 
 ѕЅњію  
 їDвSюр :
 ѕIД3   
 їѓо  i>
 ї,•«  iЅ
 ѕҐџ  
 їDвS [
 їЋE« i 
 ѕѕл} iЅ
 ї,;	MН
 ї?h :
 ѕѕЫ  
 ї?O	}
 ї,;( њ :
 ї,;( њс
 ЅаЏҐ)  
 ѕ¤Ъ) :Ѕ
 їDвS)7 3
 ѕҐџ)LЅ
 ѕѕЫ+  
 ѕIД3.  
 ѕѕЫ;  
 ѕѕЫ>  
 ѕѕЫ>;Ѕ
 їY'Њ>7	х
 ї?>: 
 ѕѕЫ>Т

 ѕѕЫ>цx
 ѕѕЫ>)Ѕ
 ї?>рm
 ѕЦxB>Ѕ 
 ї,;>	ЎУ
 ѕѕЫD	} 
 Ѕч·[Ls
 ѕѕЫO  
 ѕѕЫQ  
 ѕ¤ЪQвЅ
 ї?QЙ ф
 ѕѕЫWћ :
 ї?cЅ$
 ѕIД3i] 
 ѕѕЫn  
 ѕѕЫr :~
 ѕҐџw  
 їDвSxЅ.
 ѕѕЫyюг
 ѕѕЫ|  
 ї,;|Lё
 ї?|ю	}
 ѕѕЫ|
 z
 ѕѕЫѓ  
 ѕѕЫ…  
 ѕѕЫ‹  
 ѕIД3Њ  
 ѕIД3–  
 ѕѕЫ–Л 
 ѕѕЪ™  
 ї?™ ~7
 їDвS™ „7
 їDвS™ щ 
 ї,;™“7
 ѕяґ™	' :
 ѕѕЫ™	Е :
 ѕѕЫ›  
 ѕIД3ќ  
 ѕѕЫЎ  
 ї}V©Ѕ 
 ѕѕЫЇ  
 ѕҐџІ  
 ї,;Іж™
 ѕҐџ№  
 їY'Њјxd
 їY'ЊјxГ
 ѕIД3Ѕ  
 ѕѕЫї  
 ѕѕЫїи 
 ѕҐџГ :М
 Ѕч·[Ж  
 ѕѕЫЖ Н 
 ї,;Ж7C
 ѕѕЫЖТ7
 їjJшЖм 
 ї¤ЗЖмО
 ѕѕЫИ  
 ї?С”я
 ѕѕЬТ  
 ї?Т77
 ѕѕЫТ
*
 ѕѕЫУ  
 ЅаЏҐЦ  
 ѕЦxBЦ7B
 ѕ€ї!Цda
 їjJшЦd	}
 ѕѕЫЦњ	Ќ
 ѕѕЫЦ®>
 ѕѕЬв  
 ѕѕЫв § 
 ѕѕЫвК :
 ѕIД3вС 
 ѕѕЫві°
 ї‰2№вЅ 
 їзЅ…вЅ&
 їзЅ…вЅ
 їзЅ…вЅt
 їзЅ…вЅБ
 їзЅ…вЅ
 їєцвЅ	
 ѕѕЫгюЅ
 ѕҐџгЖ	ќ
 ѕѕЫг	ќЅ
 ѕIД3и  
 їlЌЈи) :
 їlЌЈи)7
 їЈли))
 їѓои	а :
 їѓои	аЅ
 ѕѕЪк  
 ї¦xЄк  З
 ї¦xЄк 	
 ї?к :к
 ѕѕЫкmм
 їDвSкz

 їy#€ки 
 ѕIД3к™ ~
 ї>¦vкЅ 
 ївq)кЅ
 ївq)кЅљ
 їµ©ґкЅL
 ївq)кЅ	
 ївq)кЅ	
 їµ©ґкЅ	Њ
 ѕҐџл  
 ї,;лГ	}
 ѕLрђл	N 
 ѕѕЫм  
 ѕѕЫм ‹ч
 ї?мОО
 їВ5Йм 
 ї•nTм 
 їВ5Йм~
 ї•b±мЅ
 ї•b±м	§
 ї”ќмвЅ
 ї?м	ЫЅ
 ѕҐџо  
 ї?ррр
 Ѕч·[ц  
 ѕѕЫц> :
 Ѕч·[ъ  
 ѕ¤Ъъ > 
 ѕIД3э  
 ѕѕЫэI 
 ЅаЏҐю  
 ї,;юL 
 ѕх~|ювЅ
 їDвSюч 
 ѕҐџ   
 їЋE« Ѕ 
 їBе$ ЅЃ
 їЋE« Ѕ
 ѕѕЫ  
 ї,; њ 
 ї,; њL
 ї?вЅ
 ѕѕЫ  
 ѕѕЫ#Ѕy
 ѕѕЫ.  
 ѕѕЫ. :d
 ѕѕЫ1  
 ѕIД31кЅ
 ѕ¤Ъ889
 їDвS899
 ї,;988
 ї,;989
 ї,;999
 ѕѕЫ:>	M
 ѕѕЫU Ѕ
 ѕѕЫ[  
 їY'Њ[7[
 їY'Њ[7	v
 ѕѕЫb^	M
 ѕя1Bggg
 ѕѕЫq :Ѕ
 ѕ¤Ъѓ*Ѕ
 ѕIД3љ :7
 ѕѕЫ› :Н
 ѕяґќ	M»
 ѕяґќ	MЅ
 ї”ќћ :ћ
 ї”ќћ :	.
 ї?ћ*Ж
 ѕѕЫћLэ
 ѕѕЫЄ  
 ї?Кюв
 ѕIД3О  
 ї?Р  
 ї,;Р :Р
 ї?Х»d
 ѕѕЫЬ  
 ѕЦxBлЅ	Ц
 ѕѕЫн  
 ѕѕЫнвэ
 ѕ¤Ъ	X	Р
 ѕѕЫ  
 ѕѕЫ
ч®
 ѕѕЫО)
 ѕѕЫ [ 
 ѕIД3  
 ЅаЏҐ  
 ѕЦ¦П :
 ѕѕЫ!  
 ѕѕЫ!LЅ
 ї?!!!
 ѕѕЪ)  
 ѕѕЫ) z њ
 Ѕч·[)D
 ї8Ln)7 
 ї8Ln)7	К
 ѕѕЫ)( њ
 їt9)Ѕ 
 їН Р)Ѕ Ћ
 їН Р)Ѕ ц
 їН Р)Ѕт
 їН Р)Ѕi
 ї -·)Ѕѓ
 ї 9[)Ѕи
 їН Р)Ѕ.
 ї?)Уa
 їЋE«)ч 
 ѕн?Ю)чЅ
 ѕҐџ=  
 їDвS=к 
 ѕЦxB=кЅ
 Ѕч·[A  
 ї›­ЈA  
 ї›­ЈA  З
 ї?A»Ѕ
 ї?B» 
 ѕЦxBBЅ
 ї?CУН
 ѕIД3D  
 ѕIД3Dоn
 ѕя1BDЅт
 ѕIД3H  
 ѕѕЫH cЅ
 ѕѕЫQ  
 ѕIД3[  
 ѕѕЫ[)|
 ї?[А 
 ѕѕЫc  
 ѕѕЫ|Ѕs
 ї,;}}}
 ѕѕЬ~  
 ї?~ j;
 їDвS~ОТ
 ї,;~aй
 їѓо~)ч
 ѕ¤Ъ~	wч
 ї€щP~	} 
 ї€щP~	}Т
 ѕҐџЉвЅ
 ѕѕЫђ :Н
 ѕѕЫ–  
 ѕѕЫњ  
 ѕ¤Ъњ7.
 ѕЫMТњ	Ќs
 ѕѕЫџ њ
 ѕѕЫЎ  
 ѕѕЫГO :
 ї?ДPД
 ѕ€ї!Мaz
 ѕѕЫЪ  
 ѕIД3Ълъ
 ѕѕЫЯ : 
 ѕҐџй  
 ѕѕЫйЙ»
 ѕѕЫйµ»
 ї?йј»
 ѕЦxBйН"
 їѓой7 
 їѓой7x
 ї?й	\|
 ѕIД3р  
 ї,;р VЪ
 їDвSрвЅ
 ѕѕЫс  
 ѕѕЫсУL
 ѕѕЫч  
 ѕѕЫчв1
 ѕѕЫъr :
 ѕѕЫь  
 ѕѕЫьЖO
 ѕѕЫюи
 ѕѕЫ„„
 ѕѕЫ  
 ѕѕЫЅѓ
 їDвS% iЅ
 ѕѕЫ/ s
 ѕѕЫ<  
 ѕѕЫ@Lэ
 ѕѕЫA}A
 ѕѕЫ]  
 ѕѕЫn  
 ѕҐџs  
 ѕIД3u  
 ѕIД3w  
 їjJшЅ
 ѕѕЫ„  
 ѕѕЫ…ч[
 ѕѕЫ‹  
 ї?ђ;™
 ѕIД3   
 ѕѕЫЎ  
 ї?Ј :љ
 ѕѕЫ«O
 ѕIД3® )Ѕ
 ѕLрђ®ЅЏ
 ѕѕЫё  
 ї?є™
 ѕIД3є»7
 ѕѕЫ»  
 ѕя1B» ,
 ѕѕЫ»@Т
 ѕѕЫ»‘	4
 ї?»љЖ
 ѕѕЫ»Мa
 ѕѕЫ»Є Є
 їѓо»НЄ
 ї,¬т»Н	}
 їѓо»7 3
 ї,•«»7О
 їDвS»d	}
 ѕѕЫј  
 ѕѕЫЅ  
 ѕѕЫЅ %›
 ѕЦxBЅ > :
 ѕѕЫЅ €L
 ї“нЅ ЋК
 ѕIД3Ѕ њБ
 ї€щPЅ Н :
 ї€щPЅ НЅ
 їџѓyЅ ц :
 їџѓyЅ ц?
 їџѓyЅ цЅ
 їe`АЅ ц	}
 їЋE«Ѕ, 
 їЋE«Ѕ,ю
 їЋE«Ѕ,	Є
 їџѓyЅ}	џ
 їDвSЅ‹ :
 їDвSЅ‹в
 ѕѕЫЅЁ	С
 ѕяґЅШ	Ѓ
 їѓоЅт^
 їѓоЅт	k
 їY'ЊЅ&7
 ї,;Ѕ` 
 ѕѕЫЅЉв
 ЅаЏҐЅ‘	4
 їy#€Ѕ 
 їy#€Ѕ@
 ї?ЅIЏ
 їjJшЅOm
 їjJшЅXL
 їY'ЊЅe 
 їY'ЊЅe7
 ї?Ѕ™Ѕ
 ѕѕЫЅгв
 їDвSЅ :
 ѕIД3Ѕ<г
 їѓоЅw€
 їѓоЅw»
 їѓоЅwЅ
 ї9†ЅЏ 
 ї‚єЅЏ :
 їЇЃwЅЏB
 ї‚®^ЅЏк
 ѕѕЫЅҐв
 ѕѕЫЅјђ
 їѓоЅо ц
 їѓоЅос
 їѓоЅоg
 ї?ЅO
 ѕ¤ЪЅ)L
 ѕҐџЅLs
 ѕЦxBЅQв
 їDвSЅWћ
 ѕIД3Ѕa :
 їDвSЅyю
 ї,•«Ѕ|L
 ѕ’LЊЅ|л
 їY'ЊЅЃ 
 ѕѕЫЅ“)
 їјЅј
 їjJшЅјx
 ї,;ЅГ :
 ї+Ю§Ѕи)
 ї]М[Ѕи	а
 ѕIД3Ѕо 
 ї]М[Ѕъ 
 ї]М[Ѕъ >
 ѕѕЫЅt
 ѕѕЫЅ
в
 ї?ЅЄ
 ѕIД3Ѕ'	
 їDвSЅ.]
 ї]µЅ1 
 ї]µЅ1Ѕ
 ї›­ЈЅ1	џ
 ѕѕЫЅU 
 ї,;ЅЈ
 їY'ЊЅЬP
 ѕѕЫЅнв
 ї,•«ЅН
 їѓоЅк
 їjJшЅ 
 ѕѕЫЅ :
 ї?ЅЉв
 ѕдЫЅМa
 їDвSЅЪ–
 ї?Ѕ„
 їl¤кЅs 
 їЈлЅs*
 їЈлЅsм
 ї—ЏЅw 
 ї—ЏЅwa
 їЋE«Ѕл 
 їBе$Ѕлъ
 їЋE«Ѕл	}
 ї?Ѕфо
 їy#€Ѕ	 
 їy#€Ѕ	 :
 їM\ѕЅ	 
 ї№¤Ѕ	 :
 ї№¤Ѕ		}
 їzqЅ	 
 їcFаЅ	 :
 їЈ[#Ѕ	Н
 ї'8пЅ		}
 їY'ЊЅ	7
 їY'ЊЅ	Ѕ
 ѕЦxBЅ	Z)
 ї}VЅ	ЊЖ
 їy#€Ѕ	Њч
 ї,;Ѕ	“*
 їDвSЅ	» 
 їDвSЅ	Ц Л
 ѕЦxBЅ	Ци
 ї?Ѕ	Я?
 ѕѕЫЅ
)
 Ѕч·[ѕ  
 ѕѕЫѕZ
 ї?ѕ	П :
 ѕѕЫА  
 ѕЅњіВ  
 ѕѕЬГ  
 ѕѕЫГ )Ѕ
 ї€щPГ V 
 ї8LnГ VЖ
 ѕѕЫГ? 
 ѕЌjмГa 
 їsbhГaЖ
 ї¦xЄГaУ
 ѕIД3Гр 
 ї·FiГ	} 
 ѕ\Ж3Г	} 
 їy#€Г	џ 
 їy#€Г	џ	=
 ѕIД3Е  
 ѕѕЫЖ  
 ѕяґЖОТ
 ї?Ж+Т
 ѕѕЫЖs1
 ѕѕЫЖКч
 їY'ЊЖ	ќ 
 їY'ЊЖ	ќч
 ѕ¤ЪО)Ѕ
 ѕѕЫР  
 ѕIД3У  
 їjJшУa 
 ѕѕЫУ	Чв
 ѕѕЫФE‹
 ѕѕЫЭзк
 ѕѕЫЭ?в
 ѕҐџл  
 ї€щPлъ 
 ї€щPлъ	}
 ѕѕЫп  
 ѕЅњір  
 ѕѕЫр 8и
 ѕѕЫр :Ѕ
 ѕѕЫс  
 їY'Њфо ф
 їY'Њфо	f
 ѕѕЫч  
 їІ7Лч ™ 
 їІ7Лч ™ 
 ї,;ч.Ѕ
 ѕЦxBчWЅ
 ї—Џч> 
 ї—Џч>d
 ї—Џч>Ж
 ї€щPчxН
 ї€щPчxЅ
 їDвSчЅ 
 їDвSчЅ)
 їy#€члю
 ї”ќчлЅ
 їѓоч^ 
 їѓоч^р
 ї€щPчsю
 ї8cµчsч
 ї,;чи|
 ї,;чыН
 їDвSч  i
 ѕѕЫчcЅ
 ѕѕЫчs
 їY'Њч[7
 ѕҐџчќ	M
 ѕѕЫч
 
 ї?чB»
 ї›­Јч[ 
 ї]М[ч[Ѕ
 ѕѕЫчf 
 ї,•«ч® )
 ї,¬тч®Ѕ
 їса!чЅ 
 їса!чЅ ©
 їЕ«чЅъ
 їса!чЅ}
 їса!чЅЈ
 їЕ«чЅ
 їса!чЅЪ
 їЕчЅ	
 їћкmчЅ	
 їса!чЅ	`
 їса!чЅ	“
 їса!чЅ	Н
 ѕIД3ь  
 ѕѕЫьЅЏ
 ѕѕЫяјч
 їY'Њя)(
 ѕѕЫ	 юэ
 ѕѕЫ	  
 ѕҐџ		6Ґ
 їY'Њ	Ѕ	
 Ѕч·[	  
 ѕѕЫ	  
 їy#€		}	\
 ѕҐџ	  и
 ѕѕЫ	'  
 ї,;	' :ђ
 ѕҐџ	. :ѓ
 ѕѕЫ	2вЅ
 ѕҐџ	4)Ѕ
 ї?	4]”
 ѕIД3	=  
 ї?	=цЭ
 їDвS	C 	
 ѕѕЫ	M  
 ї›­Ј	M : 
 ї]М[	M :O
 ѕѕЫ	M„„
 їDвS	MН
 ѕLрђ	MLЅ
 ѕIД3	M™	'
 ї?	M»‘
 ї‚®^	MЅ 
 ї‚є	MЅ‘
 ї‚®^	MЅ	
 ї,;	MчЅ
 ї?	M	k 
 ѕѕЫ	M	Ы 
 ѕѕЫ	N  
 їY'Њ	N  
 ѕяґ	N р
 ѕѕЫ	NЅ 
 ѕIД3	R  
 ѕѕЫ	Z  
 ї?	\Ъd
 ѕѕЫ	f  
 ѕҐџ	k  
 їBе$	k	M	k
 ѕѕЫ	o sЅ
 ѕѕЫ	o	Mч
 ѕѕЫ	p  
 ѕѕЫ	p	Ќ„
 ѕҐџ	v  
 ї'м	vч ™
 їsbh	vчќ
 ѕIД3	x  
 ѕѕЫ	}  
 ї 9[	}  З
 їН Р	} Ђ
 їН Р	} о
 їН Р	} Ъ
 їН Р	} 

 ї?	} /»
 ѕѕЫ	} <Н
 ѕѕЫ	} iЅ
 ѕѕЫ	}иќ
 ѕЦxB	}L 
 ѕѕЫ	}xю
 їDвS	}ЖЂ
 їjJш	}й»
 ї,;	}…ч
 їDвS	}Г )
 ѕѕЫ	}	Bч
 їЉ	}	\»
 їџѓy	}	\
 ї,;	Ѓz 
 ї,;	Ѓz K
 ѕѕЫ	‡ 
 ѕѕЫ	Њ  
 ѕѕЫ	ЊНO
 ѕ¤Ъ	ЊЖO
 ї?	ЊчH
 ѕѕЫ	Ќ  
 ѕѕЫ	Ќ+Т
 ї€щP	Ќsч
 ѕIД3	Ќ„ 
 ѕ¤Ъ	ЌР :
 ї,;	Ќ	К 
 ѕѕЫ	њ  
 ѕѕЬ	ќ  
 ї?	ќ sЅ
 ї,;	ќ2O
 ѕIД3	ќ^Ѕ
 ї€щP	ќчл
 ї8Ln	ќчЅ
 ї?	ќ	MЅ
 ї?	ќ	p	Ќ
 Ѕч·[	џ  
 ѕѕЫ	џкЅ
 ЅаЏҐ	Ў  
 їDвS	Ў 	е
 ѕѕЫ	Ў V

 їDвS	Ў> 
 ѕЦxB	Ў>

 їY'Њ	Ўad
 ѕҐџ	Ўч>
 ї?	Ў	}¶
 їY'Њ	Ў
B
 ЅаЏҐ	§  
 їѓо	§Н	}
 ї?	§	Ќ 
 ѕѕЫ	ЁНO
 ѕҐџ	Є  
 ѕЦ¦П	Є V

 ѕѕЫ	­7;
 ѕIД3	ё  
 ѕЦxB	ё V

 їDвS	ёaУ
 ѕѕЫ	ё	К ™
 ѕѕЫ	»  
 ѕҐџ	Б  
 ѕѕЫ	Б>

 ѕѕЫ	К  
 їЋE«	К ™э
 ѕIД3	К Ш

 ѕЦ¦П	Кг

 ѕѕЫ	К! :
 їDвS	КТ ™
 ѕIД3	Л  
 ї?	Ци Л
 ї?	Ч7Є
 ѕѕЫ	Чві
 ѕѕЫ	Ч»7
 ѕѕЫ	Ы  
 їІ7Л	Ы  
 їІ7Л	Ы 
 їІ7Л	Ы )
 ѕѕЫ	Э  
 ї,;	Ю	MЅ
 ѕIД3	Я?ч
 ѕ¤Ъ	гA™
 ѕѕЫ	ојч
 ѕѕЫ	р  
 ѕѕЫ	фв §
 ѕҐџ	х  
 ї,¬т	х ™є
 ѕҐџ	хч
 ѕIД3	х
в
 ѕѕЫ
  
 ѕѕЫ

LЅ
 ѕѕЫ
  
 ї,;
7B
 ѕѕЫ
  
 ї?
 2—
 ї?
*>
 ї?
Ч	§
 ѕҐџ
i>
 ѕ€ї!
zч
 їjJш
Лч
 ї?
ѓк
 ї?
ц>
 ѕ¤Ъ
)Ѕ
 їjJш
[»
 ї?
	vч
 ї,;
O
 ѕѕЫ
	оЅ
 ї,;
 
 
   
\end\
