\data\
ngram 1=2592

\1-grams:
-0.7616	!!UNK
-1.6694	A
-4.3820	ABC
-4.3820	ABLE
-4.3820	ABOARD
-3.0203	ABOUT
-4.0810	ABOVE
-4.3820	ACB
-4.3820	ACCEPTED
-4.3820	ACORN
-4.3820	ACORNS
-3.6039	ACROSS
-4.3820	ACTING
-3.6039	ADDED
-4.3820	ADVENTURE
-4.0810	ADVICE
-4.0810	ADVISED
-4.0810	AFFAIR
-3.6039	AFRAID
-3.1516	AFTER
-3.7800	AFTERNOON
-2.9349	AGAIN
-4.3820	AGAINST
-4.3820	AGAPE
-3.7800	AGO
-4.0810	AGREE
-4.3820	AGREED
-4.0810	AH
-4.3820	AHA
-3.7800	AHEAD
-3.4789	AIM
-4.0810	AIMED
-3.9049	AIR
-4.3820	AIRED
-3.9049	AKBAR
-4.3820	ALABAMA
-3.6830	ALARM
-4.3820	ALAS
-4.3820	ALCOUZ
-4.3820	ALGEBRA
-2.3446	ALL
-4.3820	ALNASCHEE
-3.6830	ALONE
-3.3820	ALONG
-4.0810	ALONGSIDE
-4.3820	ALOUD
-3.1516	ALSO
-4.3820	ALTHOUGH
-4.3820	ALU
-3.1267	ALWAYS
-2.7386	AM
-4.0810	AMAZED
-4.3820	AMAZEMENT
-4.3820	AMMA
-4.3820	AMONG
-2.8379	AN
-3.9049	ANANDI
-1.5572	AND
-3.9049	ANGER
-3.6039	ANGRY
-3.9049	ANIMAL
-3.1779	ANIMALS
-4.3820	ANNOUNCEMENT
-3.4278	ANOTHER
-3.7800	ANSWER
-4.0810	ANSWERED
-4.3820	ANSWERING
-3.7800	ANT
-3.6830	ANTS
-3.3406	ANY
-3.9049	ANYBODY
-4.3820	ANYMORE
-3.4789	ANYONE
-3.3820	ANYTHING
-3.7800	ANYWHERE
-4.3820	APLENTY
-4.0810	APPEAR
-4.3820	APPEARED
-3.7800	APPLE
-3.4789	APPLES
-4.3820	APPROACHED
-3.4789	APPU
-4.3820	APPU'S
-4.3820	APRON
-4.3820	ARCHERY
-2.4682	ARE
-4.0810	AREN'T
-4.3820	ARGUED
-4.3820	ARMED
-3.6039	ARMS
-3.0018	AROUND
-4.0810	ARRIVED
-3.3028	ARROW
-4.0810	ARROWS
-2.4135	AS
-4.0810	ASHAMED
-4.3820	ASIDE
-4.0810	ASK
-3.0598	ASKED
-4.0810	ASKING
-4.3820	ASKS
-3.6039	ASLEEP
-4.0810	ASTONISHMENT
-4.3820	ASTRAY
-2.3650	AT
-3.2681	ATE
-4.3820	ATLANTIC
-4.3820	ATTACKED
-4.3820	ATTENTION
-4.3820	ATTRACTED
-4.3820	AUNT
-4.0810	AVIAL
-4.3820	AVOID
-3.9049	AWAKE
-2.5967	AWAY
-4.3820	AWFUL
-4.3820	AZAD
-4.3820	AZAD'S
-4.3820	B
-3.6039	BABA
-4.3820	BABIES
-3.2359	BABY
-4.3820	BABY'S
-4.3820	BAC
-4.3820	BACBONE
-2.8379	BACK
-4.3820	BACKWARD
-4.0810	BAD
-4.3820	BAGS
-4.3820	BAKBAC
-4.3820	BAKBAREA
-3.4278	BALL
-3.6039	BALLOON
-4.0810	BALLOONS
-4.3820	BALLS
-3.4789	BAMBOO
-4.0810	BAND
-3.9049	BANG
-4.0810	BANK
-4.3820	BANYAN
-4.3820	BAR
-3.2059	BARBER
-4.3820	BARELY
-4.3820	BARKED
-4.3820	BARLEY
-4.0810	BARREL
-4.3820	BARREN
-4.3820	BASE
-4.0810	BASKET
-4.3820	BASKETBALL
-4.3820	BATH
-4.3820	BATON
-2.4089	BE
-4.3820	BEACH
-4.0810	BEAK
-3.1779	BEAR
-3.9049	BEARD
-4.3820	BEARDS
-4.3820	BEARS
-4.3820	BEASTS
-3.7800	BEAUTIFUL
-4.3820	BEAVERS
-3.3820	BECAME
-3.3028	BECAUSE
-3.6830	BECOME
-4.0810	BECOMES
-4.0810	BECOMING
-3.1267	BED
-4.0810	BEDROOM
-3.4789	BEEN
-4.3820	BEES
-4.3820	BEETLES
-3.1779	BEFORE
-3.1779	BEGAN
-4.3820	BEGGED
-4.0810	BEGIN
-4.0810	BEGINNING
-3.4789	BEHIND
-4.3820	BEHOLD
-3.7800	BEING
-4.3820	BELIEVE
-4.3820	BELIEVED
-4.3820	BELIEVING
-4.3820	BELLOWED
-4.0810	BELLS
-4.3820	BELOVED
-3.9049	BELOW
-4.3820	BENEATH
-4.0810	BERRY
-3.7800	BEST
-4.3820	BET
-3.6039	BETTER
-3.6039	BETWEEN
-4.3820	BEYOND
-4.3820	BHAISAHEB
-3.2359	BHAIYA
-4.0810	BHALU
-4.3820	BICYCLE
-2.7193	BIG
-4.3820	BIGGER
-4.3820	BIGGEST
-3.5369	BIRBAL
-3.2359	BIRD
-4.3820	BIRD'S
-2.9841	BIRDS
-3.9049	BIT
-4.3820	BITE
-4.0810	BITS
-3.7800	BLACK
-4.3820	BLANKET
-4.3820	BLAZE
-4.3820	BLEED
-3.6830	BLEW
-4.3820	BLIND
-4.3820	BLINKING
-3.3820	BLOW
-3.9049	BLOWING
-4.3820	BLOWS
-3.4789	BLUE
-4.3820	BOARD
-4.3820	BOAST
-3.3028	BOAT
-4.3820	BOATS
-3.4789	BOBBY
-4.3820	BODY
-3.6830	BOILED
-4.3820	BOLDER
-4.3820	BON
-3.2359	BOOK
-3.1267	BOOKS
-4.3820	BOOKSHELF
-4.0810	BOOKSHOP
-3.6830	BOOM
-3.3820	BOOMDI
-4.3820	BOOTS
-3.7800	BORN
-3.9049	BOTH
-3.9049	BOTHER
-4.3820	BOTHERING
-4.0810	BOTTLES
-4.3820	BOUGHT
-3.9049	BOUNCE
-3.3820	BOW
-3.6039	BOWL
-4.3820	BOWLS
-2.7288	BOY
-3.6039	BOYS
-4.3820	BRAKED
-3.3406	BRANCHES
-3.9049	BRAVE
-3.9049	BRAVO
-3.9049	BREAD
-4.0810	BREAK
-4.3820	BREAKFAST
-4.3820	BREATHE
-4.3820	BREATHED
-4.3820	BREATHING
-3.7800	BREEZE
-4.0810	BRICK
-4.3820	BRICK'S
-4.3820	BRIDEGROOM
-3.6830	BRIDGE
-4.3820	BRIDGES
-3.3406	BRIGHT
-3.9049	BRING
-4.3820	BRINGING
-4.3820	BRINGS
-4.0810	BROKE
-4.0810	BROKEN
-3.4789	BROTHER
-4.3820	BROTHERS
-3.6039	BROUGHT
-3.6830	BROWN
-4.3820	BROWNIE
-4.3820	BRUISE
-3.9049	BUBBLE
-4.3820	BUCKLES
-4.3820	BUFFALOES
-4.0810	BUILD
-4.3820	BUILDING
-4.3820	BUILDINGS
-4.0810	BUILT
-3.7800	BUK
-4.3820	BUMP
-4.3820	BUNCH
-3.5369	BUNNY
-4.3820	BURIA
-4.3820	BURN
-3.9049	BURNING
-4.3820	BURNS
-3.7800	BURST
-3.6039	BUS
-4.3820	BUSES
-4.3820	BUSH
-4.3820	BUSHES
-4.3820	BUSINESS
-4.3820	BUSY
-2.2647	BUT
-4.3820	BUTTER
-3.0810	BUTTERFLY
-4.3820	BUTTONS
-3.4789	BUY
-4.3820	BUZZ
-4.3820	BUZZED
-4.3820	BUZZING
-2.6830	BY
-4.3820	BYE
-4.3820	C
-4.0810	CABBAGES
-4.3820	CABLES
-4.3820	CAGE
-4.0810	CAKE
-4.3820	CALIFORNIA
-3.3028	CALL
-3.2359	CALLED
-3.9049	CALLING
-3.9049	CALLS
-4.3820	CALM
-2.6744	CAME
-3.2359	CAMEL
-4.3820	CAMELS
-2.4789	CAN
-3.1267	CAN'T
-3.7800	CANNOT
-4.3820	CANS
-4.3820	CANYONS
-4.3820	CAPTAIN
-4.3820	CARE
-3.9049	CAREFUL
-4.0810	CAREFULLY
-3.6830	CARPENTER
-4.3820	CARPENTER'S
-3.6039	CARRIED
-4.0810	CARROTS
-4.0810	CARRY
-3.6830	CARRYING
-4.3820	CARS
-3.9049	CART
-4.3820	CARTS
-4.3820	CASHGAR
-4.3820	CASTLE
-3.5369	CAT
-3.4278	CATCH
-4.3820	CATCHING
-4.3820	CATERPILLARS
-3.6830	CAUGHT
-4.3820	CAULIFLOWERS
-4.3820	CAUSE
-4.3820	CAVE
-3.0203	CAW
-4.3820	CEASE
-4.3820	CERTAINLY
-4.3820	CHAINS
-4.3820	CHAIR
-4.3820	CHALLENGE
-4.3820	CHALLENGED
-4.3820	CHAMPION
-3.9049	CHANCE
-4.3820	CHANCED
-4.3820	CHANGED
-4.3820	CHARGED
-3.9049	CHASED
-4.3820	CHASING
-3.4789	CHATTER
-4.3820	CHATTERER
-4.3820	CHATTERERS
-4.3820	CHATTING
-4.0810	CHEEK
-3.7800	CHEEKS
-3.6830	CHEEP
-4.0810	CHEESE
-4.3820	CHERRY
-4.3820	CHEW
-4.3820	CHICKEN
-4.3820	CHICKENS
-4.3820	CHICKS
-4.3820	CHIEF
-3.3406	CHILD
-4.3820	CHILD'S
-4.0810	CHILDISH
-2.9670	CHILDREN
-4.3820	CHILLI
-4.3820	CHILLIES
-4.3820	CHILLY
-4.3820	CHIMPANZEE
-4.0810	CHIN
-4.3820	CHIRPY
-3.1779	CHIRRUP
-4.0810	CHOCOLATE
-4.3820	CHOICE
-4.3820	CHOPPING
-4.3820	CHORUS
-3.4278	CIRCLE
-3.7800	CIRCLES
-3.6039	CITY
-4.0810	CLAPPED
-4.3820	CLASPED
-3.3028	CLASS
-4.0810	CLASSES
-4.3820	CLATTERED
-4.0810	CLAW
-4.3820	CLAWS
-4.3820	CLEAN
-4.3820	CLEANED
-3.6830	CLEAR
-4.0810	CLEVER
-4.3820	CLEVERNESS
-3.3028	CLIMB
-3.2359	CLIMBED
-4.0810	CLIMBING
-3.5369	CLOCK
-3.7800	CLOSE
-4.3820	CLOSED
-3.5369	CLOSER
-3.9049	CLOTHES
-4.3820	CLOUD
-3.6830	CLOUDS
-4.3820	CLUSTER
-4.3820	COACHES
-3.5369	COAT
-4.3820	COCK
-3.9049	COCKY
-3.9049	COCONUT
-3.5369	COLD
-4.3820	COLLECT
-4.3820	COLOUR
-4.0810	COLOURED
-4.3820	COLOURFUL
-3.9049	COLOURS
-4.0810	COMB
-2.6918	COME
-3.3406	COMES
-4.3820	COMFORTED
-3.6830	COMING
-4.3820	COMMANDED
-4.3820	COMMON
-3.7800	COMPANION
-4.3820	COMPANY
-4.3820	COMPLETE
-4.3820	COMPLETELY
-4.0810	CONDUCTOR
-4.3820	CONES
-4.3820	CONFUSED
-4.3820	CONSIDERED
-4.3820	CONSTANT
-4.3820	CONTENTED
-4.3820	CONTENTS
-4.0810	CONTEST
-3.9049	CONTINUED
-4.3820	CONVENIENTLY
-3.1516	COOK
-4.0810	COOKED
-3.6830	COOKING
-3.6830	COOL
-4.3820	COOLING
-4.3820	COPIED
-4.3820	COPY
-3.6830	CORN
-4.3820	CORNER
-4.3820	CORRECT
-3.9049	COTTAGE
-2.6112	COULD
-3.9049	COUNTRY
-4.3820	COUPLE
-3.7800	COURSE
-3.7800	COURT
-4.3820	COURTIERS
-4.3820	COUSIN
-4.3820	COVER
-4.3820	COVERED
-4.3820	COVERING
-3.3820	COW
-4.3820	COWS
-3.9049	CRAB
-4.3820	CRAB'S
-3.9049	CRABS
-4.3820	CRACKED
-4.3820	CRANED
-4.0810	CRASHED
-4.0810	CRAWL
-4.3820	CRAWLED
-4.0810	CRAWLING
-3.9049	CREAM
-3.9049	CREATURE
-4.3820	CREATURES
-3.4789	CREEPER
-4.3820	CREEPING
-4.3820	CREEPS
-4.3820	CREPT
-4.3820	CREW
-4.3820	CRICKET
-3.2059	CRIED
-3.9049	CRIES
-4.3820	CRIME
-4.0810	CROAK
-3.7800	CROSS
-4.3820	CROSSED
-3.3406	CROW
-4.3820	CROWD
-4.3820	CROWDED
-4.0810	CROWS
-4.3820	CRUEL
-4.3820	CRUMBLED
-3.7800	CRY
-3.7800	CRYING
-3.2681	CUB
-4.3820	CUCKOO
-4.0810	CUCUMBERS
-4.3820	CURD
-4.3820	CURIOSITY
-4.3820	CURIOUS
-3.9049	CURLY
-3.6039	CURLYLOCKS
-3.6039	CURRY
-4.3820	CURVED
-4.3820	CURVES
-4.3820	CUSHION
-3.5369	CUT
-4.3820	DAD
-4.3820	DADA
-4.0810	DANCE
-3.9049	DANCED
-4.0810	DANCING
-4.3820	DAPPLE
-3.9049	DARK
-4.3820	DARKNESS
-3.9049	DAUGHTER
-3.9049	DAWN
-2.5070	DAY
-4.3820	DAY'S
-4.3820	DAYDREAMING
-3.5369	DAYS
-3.5369	DEAD
-4.3820	DEAF
-3.4278	DEAR
-4.0810	DEARLY
-3.7800	DECIDE
-3.5369	DECIDED
-4.3820	DECLARE
-4.3820	DECLARED
-4.3820	DECORATED
-3.7800	DEEP
-3.9049	DEER
-4.3820	DEFECT
-4.3820	DEFENDED
-4.3820	DEFENDING
-4.3820	DELHI
-3.9049	DELICIOUS
-4.3820	DESCEND
-3.3406	DESERT
-4.3820	DESPERATION
-3.6039	DESTROY
-4.0810	DEW
-4.3820	DIAMETER
-2.9507	DID
-3.3820	DIDN'T
-4.0810	DIE
-4.0810	DIFFERENCE
-3.9049	DIFFERENT
-4.3820	DIFFICULT
-4.3820	DIFFICULTY
-4.3820	DIG
-3.4789	DING
-4.3820	DINING
-3.6830	DINNER
-4.0810	DIRTY
-4.0810	DISCOVERED
-4.3820	DISCUSSION
-4.3820	DISDAIN
-3.5369	DISH
-4.0810	DISHES
-4.0810	DISTANCE
-4.3820	DIVE
-2.5432	DO
-4.3820	DOCTOR
-3.3406	DOES
-3.7800	DOESN'T
-3.4278	DOG
-3.4789	DOING
-3.9049	DOLL
-2.9507	DON'T
-3.6830	DONE
-3.4789	DONG
-3.7800	DONKEY
-4.3820	DONKEYS
-3.2359	DONT
-3.7800	DOOPU
-3.2681	DOOR
-4.3820	DOORS
-3.9049	DOUBT
-2.6261	DOWN
-4.3820	DOWNWARD
-4.3820	DOWNWARDS
-4.3820	DOZEN
-4.3820	DOZING
-4.3820	DRANK
-3.5369	DRAW
-3.9049	DRAWING
-4.0810	DRAWN
-4.3820	DREAM
-3.9049	DREAMING
-3.7800	DRESS
-4.3820	DRESSED
-4.0810	DRESSES
-3.3028	DREW
-3.7800	DRINK
-3.9049	DRIP
-3.6830	DRIVER
-4.3820	DROP
-4.3820	DROPPED
-4.3820	DROVE
-4.3820	DRUM
-3.9049	DRY
-4.3820	DUCK
-4.3820	DUCKS
-3.9049	DUCKY
-4.3820	DUSK
-4.3820	DUSTY
-4.0810	D_O_L_L
-4.3820	E
-3.3406	EACH
-4.3820	EAGER
-4.3820	EAGERLY
-3.9049	EAR
-4.0810	EARLY
-4.3820	EARNED
-4.3820	EARS
-3.9049	EARTH
-4.3820	EASE
-4.0810	EASILY
-4.3820	EASY
-2.9049	EAT
-4.0810	EATING
-4.0810	EATS
-4.3820	ECHOED
-4.3820	EDUCATION
-4.3820	EFFORT
-4.0810	EGGS
-3.9049	EIGHT
-4.3820	EIGHTH
-3.7800	EIGHTY
-4.3820	EIGTHY
-3.9049	EITHER
-4.0810	ELDEST
-3.7800	ELEPHANT
-4.3820	ELEPHANT'S
-4.3820	ELEVATORS
-3.6039	ELSE
-4.0810	EMPTIED
-4.0810	END
-4.3820	ENDED
-4.3820	ENDS
-3.9049	ENGINE
-4.3820	ENGLAND
-4.0810	ENGLISH
-4.0810	ENJOY
-3.4278	ENORMOUS
-3.7800	ENOUGH
-4.0810	ENTERED
-4.3820	ENTIRELY
-4.3820	EQUALLY
-4.3820	ERASING
-3.9049	ESCAPE
-4.3820	ESSAY
-3.2359	EVEN
-3.4789	EVENING
-3.4278	EVER
-3.1267	EVERY
-3.7800	EVERYBODY
-4.3820	EVERYBODY'S
-4.0810	EVERYDAY
-3.2359	EVERYONE
-3.6830	EVERYTHING
-3.7800	EVERYWHERE
-4.3820	EXACTLY
-4.0810	EXAMINE
-4.3820	EXAMINERS
-4.3820	EXAMS
-4.3820	EXCEPT
-4.3820	EXCITED
-3.9049	EXCITEMENT
-3.7800	EXCLAIMED
-4.3820	EXHAUSTED
-4.3820	EXPECT
-4.3820	EXPECTED
-4.3820	EXPERIENCE
-4.3820	EXPERT
-4.3820	EXPLAIN
-4.3820	EXPLORE
-4.3820	EXTREMELY
-4.3820	EYE
-3.3820	EYES
-3.3406	FACE
-4.3820	FACED
-4.3820	FACES
-4.3820	FACTORY
-4.0810	FAIL
-3.9049	FAILED
-4.3820	FAIR
-4.0810	FAIRIES
-3.3406	FALL
-3.9049	FALLEN
-4.3820	FALLING
-3.9049	FALLS
-3.6830	FAMILY
-4.3820	FAMOUS
-3.3028	FAR
-4.3820	FARE
-3.9049	FARM
-3.6830	FARMER
-4.0810	FARMER'S
-4.3820	FARMERS
-3.3406	FAST
-4.0810	FASTER
-3.7800	FAT
-3.6830	FATHER
-4.3820	FATHER'S
-4.3820	FAVOURITE
-3.6830	FEAR
-4.3820	FEARFUL
-4.3820	FEARLESS
-3.6039	FEAST
-4.3820	FEATHER
-4.0810	FEATHERS
-4.3820	FED
-4.3820	FEED
-3.4789	FEEL
-4.3820	FEELERS
-4.3820	FEELING
-3.9049	FEELS
-3.2359	FEET
-3.3820	FELL
-4.3820	FELLOW
-3.6830	FELT
-4.0810	FENCE
-4.3820	FENCES
-4.3820	FEVER
-3.6830	FEW
-3.6830	FIELD
-3.9049	FIELDS
-4.3820	FIFTH
-4.3820	FILL
-3.9049	FILLED
-4.0810	FILLS
-4.3820	FINAL
-4.0810	FINALLY
-3.1033	FIND
-3.4789	FINE
-4.3820	FINGER
-4.0810	FINGERS
-3.9049	FINISH
-3.7800	FINISHED
-3.5369	FIR
-4.3820	FIRE
-4.3820	FIRM
-4.3820	FIRMLY
-3.3820	FIRST
-3.3820	FISH
-3.4789	FIVE
-4.3820	FIX
-4.3820	FIXED
-4.3820	FIZZ
-3.9049	FLAPPED
-3.7800	FLASH
-4.3820	FLASHED
-3.1267	FLEW
-4.0810	FLIES
-4.3820	FLOAT
-4.3820	FLOATED
-4.0810	FLOATING
-4.3820	FLOCK
-3.6830	FLOOR
-4.3820	FLOUNDERING
-3.5369	FLOWER
-3.2059	FLOWERS
-4.3820	FLUENT
-4.3820	FLUENTLY
-4.3820	FLURRY
-4.3820	FLUTTERED
-3.1516	FLY
-3.3406	FLYING
-4.3820	FOGG
-4.0810	FOLLOW
-4.3820	FOLLOWED
-3.1516	FOOD
-4.0810	FOOLISH
-4.3820	FOOLISHNESS
-3.4789	FOOT
-4.3820	FOOTHILLS
-3.6830	FOOTPRINT
-2.3734	FOR
-4.3820	FORCE
-4.3820	FORCED
-4.3820	FORE
-3.3820	FOREST
-4.3820	FORESTS
-4.3820	FOREVER
-4.0810	FORGET
-4.3820	FORGETS
-4.0810	FORGOT
-4.0810	FORGOTTEN
-4.3820	FORTNIGHT
-4.3820	FORTY
-3.7800	FORWARD
-3.3406	FOUND
-4.3820	FOUNDATION
-3.5369	FOUR
-4.3820	FOURSCORE
-4.3820	FOWL
-4.0810	FOXY
-4.3820	FRANSISCO
-4.3820	FRED
-4.3820	FREE
-4.3820	FREELY
-4.3820	FREIGHT
-4.3820	FRENCH
-4.3820	FREQUENTLY
-4.0810	FRESH
-4.3820	FRIDAYS
-3.5369	FRIEND
-3.0810	FRIENDS
-4.3820	FRIGHT
-4.3820	FRIGHTEN
-3.7800	FRIGHTENED
-4.3820	FRIGHTENING
-3.3820	FROG
-2.7485	FROM
-3.7800	FRONT
-4.3820	FROSTY
-4.3820	FROWNING
-4.0810	FRUIT
-4.3820	FRUITS
-3.4789	FULL
-3.2359	FUN
-4.3820	FUNNIEST
-3.1779	FUNNY
-4.3820	FUR
-3.9049	FURRY
-4.3820	FURTHER
-4.3820	FUSS
-3.5369	FUTURE
-3.9049	GADAAM
-4.3820	GALORE
-3.6830	GAME
-3.9049	GAMES
-4.3820	GAP
-3.2681	GARDEN
-4.3820	GARDENERS
-4.3820	GARDENHAPPY
-4.3820	GARLIC
-4.3820	GATE
-3.4789	GAVE
-4.3820	GAY
-4.3820	GAZE
-4.3820	GEAOMETRY
-3.3820	GEESE
-4.3820	GENEROUS
-4.0810	GENTLE
-4.3820	GENTLER
-4.3820	GENTLY
-4.3820	GEOMETRY
-2.9196	GET
-3.9049	GETS
-3.6830	GETTING
-4.3820	GHOSTS
-4.0810	GIANT
-4.0810	GIGGLE
-4.3820	GINGER
-3.3820	GIRAFFE
-3.9049	GIRAFFE'S
-3.2359	GIRL
-3.7800	GIRLS
-3.1779	GIVE
-4.3820	GIVEN
-4.3820	GIVES
-3.7800	GIVING
-3.7800	GLASS
-4.0810	GLASSES
-4.0810	GLEAMING
-4.3820	GLEE
-4.3820	GLISTENED
-4.3820	GLORY
-2.5369	GO
-4.0810	GOAL
-4.3820	GOAT
-4.0810	GOATS
-4.3820	GOBBLED
-4.3820	GOD
-3.6830	GOES
-2.7193	GOING
-3.6830	GOLD
-4.0810	GOLDEN
-3.2681	GONE
-4.0810	GONU
-4.0810	GONU'S
-2.9349	GOOD
-4.3820	GOODBYE
-3.6039	GOOPU
-3.9049	GOOSEY
-3.2681	GOT
-4.0810	GRAB
-4.3820	GRABBED
-3.9049	GRAIN
-4.3820	GRAN
-4.0810	GRAND
-4.0810	GRANDFATHER
-3.6039	GRANDMOTHER
-3.9049	GRANNY
-4.3820	GRANT
-4.3820	GRANTED
-3.6830	GRASS
-3.6039	GRASSHOPPER
-3.1779	GREAT
-4.0810	GREATEST
-3.1779	GREEN
-3.1267	GREW
-4.3820	GREY
-4.3820	GRINNED
-4.3820	GRIPPED
-4.3820	GRIZZLED
-3.7800	GROCER
-3.3820	GROUND
-4.3820	GROUP
-3.6039	GROW
-4.0810	GROWING
-3.9049	GROWN
-3.9049	GROWS
-4.0810	GRUFF
-4.3820	GRUMPY
-4.3820	GRUNT
-4.3820	GUARD'S
-3.9049	GUDOOM
-4.0810	GUESS
-4.3820	GUESTS
-4.3820	GUILIDANDA
-4.3820	GUN
-3.5369	HA
-2.5827	HAD
-4.3820	HAHAHAH
-3.4789	HAIR
-3.5369	HALDI
-3.4789	HALF
-4.3820	HALT
-4.3820	HALTED
-3.1516	HAND
-4.3820	HANDKERCHIEF
-4.3820	HANDLE
-3.6830	HANDS
-3.6830	HAPPENED
-4.0810	HAPPENING
-4.3820	HAPPENS
-4.3820	HAPPIER
-3.6039	HAPPILY
-4.3820	HAPPINESS
-2.9349	HAPPY
-3.0203	HARD
-3.6830	HARDER
-3.9049	HARDLY
-4.0810	HARDWORKING
-3.3406	HARI
-4.0810	HARI'S
-3.7800	HARM
-4.0810	HARSH
-3.2681	HAS
-4.3820	HASTILY
-3.9049	HAT
-4.3820	HATE
-4.0810	HATED
-4.3820	HATS
-4.3820	HAUL
-2.5967	HAVE
-4.0810	HAY
-1.8583	HE
-4.3820	HE'D
-4.3820	HE'LL
-3.9049	HE'S
-3.2359	HEAD
-4.3820	HEADED
-4.3820	HEADS
-4.3820	HEALTHY
-4.3820	HEAP
-3.6830	HEAR
-3.2681	HEARD
-3.6830	HEARING
-4.0810	HEARS
-4.0810	HEAT
-4.0810	HEAVILY
-4.3820	HEAVY
-4.3820	HEDGE
-3.4789	HEE
-3.6830	HEIGH
-3.3406	HELD
-3.2059	HELEN
-4.3820	HELEN'S
-3.0396	HELP
-4.3820	HELPLESS
-4.0810	HELPS
-3.9049	HEN
-3.9049	HENNY
-2.3608	HER
-4.0810	HERD
-3.3406	HERE
-4.3820	HERE'S
-4.0810	HERSELF
-3.9049	HEY
-3.7800	HIAWATHA
-4.3820	HIAWATHA'S
-4.0810	HID
-4.0810	HIDDEN
-4.0810	HIDE
-3.9049	HIDING
-3.2359	HIGH
-3.7800	HIGHER
-4.0810	HIGHEST
-3.6039	HILL
-4.0810	HILLS
-4.3820	HILLSIDE
-2.6417	HIM
-3.2681	HIMSELF
-4.3820	HIRE
-2.2002	HIS
-4.3820	HISTORY
-3.5369	HIT
-3.6830	HO
-4.3820	HOARSE
-4.3820	HOCKEY
-3.9049	HOLD
-3.9049	HOLDING
-4.3820	HOLDS
-4.3820	HOLE
-4.3820	HOLES
-4.3820	HOLIDAY
-4.3820	HOLY
-3.1779	HOME
-4.3820	HOMES
-4.3820	HOMEWORK
-4.3820	HONEYBEES
-4.3820	HOOK
-4.3820	HOOP
-3.6039	HOP
-4.3820	HOPPED
-4.3820	HOPPING
-4.3820	HOPS
-4.3820	HORROR
-3.2681	HORSE
-4.0810	HORSEMEN
-4.0810	HORSES
-4.3820	HOSTEL
-3.5369	HOT
-4.0810	HOTTER
-3.5369	HOUR
-3.7800	HOURS
-2.8505	HOUSE
-2.7008	HOW
-3.9049	HOWEVER
-4.3820	HU
-3.9049	HUFF
-3.9049	HUFFED
-4.3820	HUG
-3.6830	HUGE
-4.3820	HUGS
-4.0810	HUMP
-4.3820	HUMPED
-4.3820	HUMPH
-3.9049	HUNDRED
-4.0810	HUNDREDS
-3.3406	HUNGRY
-4.3820	HUNT
-4.0810	HUNTED
-3.4789	HUNTER
-4.3820	HUNTER'S
-4.3820	HUNTING
-4.0810	HURRIED
-3.3820	HURRY
-3.9049	HURT
-4.3820	HURTING
-4.3820	HUSBAND
-4.3820	HUSH
-1.7577	I
-3.6830	I'D
-3.3820	I'LL
-3.0810	I'M
-4.3820	I'VE
-3.9049	ICE
-4.3820	ICY
-3.7800	IDEA
-4.3820	IDLED
-4.3820	IDLING
-2.6744	IF
-3.6039	ILL
-4.3820	ILLNESS
-4.3820	IMAGINATION
-3.7800	IMAGINE
-4.3820	IMMEDIATELY
-4.3820	IMPATIENTLY
-3.9049	IMPORTANCE
-4.0810	IMPORTANT
-4.3820	IMPOSSIBLE
-4.3820	IMPROVING
-1.9893	IN
-4.3820	INCHES
-4.3820	INDEED
-4.3820	INDIAN
-3.7800	INDIANS
-4.3820	INDIGO
-4.3820	INFORM
-4.0810	INHABITANTS
-4.3820	INHABITED
-4.3820	INJURY
-4.3820	INSECTS
-3.3820	INSIDE
-4.3820	INSIST
-3.4278	INSTEAD
-4.3820	INTEREST
-4.3820	INTERESTING
-4.3820	INTERRUPTING
-4.3820	INTERRUPTION
-2.9049	INTO
-4.3820	INVESTIGATE
-4.3820	INVITED
-2.2002	IS
-4.0810	ISLAND
-4.0810	ISN'T
-1.9806	IT
-3.3406	IT'S
-2.9196	ITS
-4.3820	JAM
-3.9049	JANE
-4.0810	JAY
-4.3820	JERK
-4.3820	JINGLING
-4.3820	JOB
-3.9049	JOIN
-4.3820	JOLLY
-4.0810	JOURNEY
-3.3820	JOY
-4.3820	JOYFUL
-4.3820	JUDGE
-3.7800	JUMP
-3.4278	JUMPED
-4.3820	JUMPS
-4.3820	JUNE
-3.3406	JUNGLE
-2.8635	JUST
-4.3820	KA
-3.7800	KAA
-4.3820	KAAT
-4.3820	KABADDI
-4.3820	KAKAR
-3.6830	KALU
-4.3820	KALU'S
-4.3820	KAMEEZ
-4.3820	KANGAROO
-3.9049	KANGLEIPAK
-3.5369	KEEP
-3.9049	KEEPER
-4.3820	KEEPS
-4.3820	KELLER
-4.3820	KENNEL
-3.9049	KEPT
-4.0810	KERALA
-4.3820	KHONGNANG
-4.3820	KICKED
-3.9049	KILL
-3.9049	KILOMETRES
-3.5369	KIND
-2.8769	KING
-4.3820	KINGDOM
-4.3820	KISSED
-4.3820	KITCHEN
-3.4278	KITE
-3.6039	KITES
-4.0810	KNEES
-3.3820	KNEW
-4.3820	KNOCKED
-2.9507	KNOW
-3.6830	KNOWS
-4.3820	KOOZ
-4.3820	LACK
-4.3820	LADDER
-4.0810	LADDU
-3.7800	LADY
-4.3820	LADY'S
-4.3820	LAID
-4.3820	LAKE
-4.3820	LAKES
-3.6830	LALU
-4.3820	LALU'S
-3.4278	LAND
-4.3820	LANDED
-4.3820	LANE
-4.0810	LANGUAGE
-3.9049	LANGUAGES
-4.3820	LANGUR
-4.3820	LARGE
-3.7800	LARGER
-4.3820	LASHED
-4.3820	LASSES
-3.4278	LAST
-4.3820	LASTED
-3.6039	LATE
-3.5369	LATER
-3.7800	LAUGH
-3.9049	LAUGHED
-3.6039	LAUGHING
-4.3820	LAUGHS
-4.3820	LAUGHTER
-3.9049	LAW
-4.3820	LAWS
-3.5369	LAY
-4.3820	LAYS
-3.6039	LAZY
-4.0810	LEAD
-4.0810	LEAF
-4.3820	LEAFY
-4.3820	LEAP
-4.3820	LEAPED
-4.3820	LEAPS
-4.3820	LEAPT
-3.6039	LEARN
-3.6830	LEARNED
-4.3820	LEARNT
-3.7800	LEAVE
-3.0598	LEAVES
-4.3820	LED
-3.3820	LEFT
-3.7800	LEGS
-3.6830	LEIMA
-3.7800	LEND
-4.3820	LENGTH
-4.3820	LENT
-4.0810	LESS
-4.3820	LESSONS
-3.0396	LET
-3.6830	LET'S
-4.3820	LETS
-3.6830	LETTERS
-4.3820	LETTING
-4.3820	LEVEL
-4.3820	LIAR
-4.3820	LIBRARY
-4.3820	LICKING
-3.6830	LIE
-4.3820	LIES
-3.6039	LIFE
-4.3820	LIFTED
-4.0810	LIGHT
-4.3820	LIGHTNING
-4.3820	LIGHTS
-2.6918	LIKE
-3.6830	LIKED
-4.3820	LIKES
-4.0810	LIMB
-3.4278	LINE
-3.9049	LINES
-3.6830	LING
-3.1516	LION
-4.3820	LIPS
-4.3820	LIST
-3.7800	LISTEN
-4.0810	LISTENED
-2.4475	LITTLE
-3.7800	LIVE
-3.0598	LIVED
-4.3820	LIVES
-4.0810	LO
-4.0810	LOAD
-4.3820	LOADS
-3.9049	LOBSTER
-4.0810	LOBSTERS
-4.3820	LOCK
-4.0810	LOCKED
-3.9049	LOCKY
-4.3820	LODGES
-4.0810	LOG
-4.3820	LOLLS
-4.3820	LONELY
-2.8907	LONG
-3.4789	LONGER
-3.0598	LOOK
-2.8022	LOOKED
-3.6830	LOOKING
-3.6830	LOOKS
-4.3820	LOSING
-4.0810	LOST
-3.6830	LOT
-3.9049	LOTS
-3.9049	LOTUS
-3.4278	LOUD
-4.0810	LOUDER
-3.7800	LOUDLY
-3.2681	LOVE
-3.2359	LOVED
-3.6830	LOVELY
-4.3820	LOVING
-4.3820	LOVINGLY
-3.9049	LOW
-4.3820	LOWER
-4.3820	LUCK
-4.3820	LUCKILY
-3.4789	LUCKY
-3.5369	LUNCH
-4.3820	LYING
-4.0810	M
-3.6039	MA
-4.3820	MACHINES
-3.1516	MADE
-3.5369	MAGIC
-4.0810	MAGICIAN
-4.3820	MAGNET
-3.9049	MAHARAJA
-4.3820	MAIL
-4.3820	MAINLAND
-4.3820	MAJESTICALLY
-3.0203	MAKE
-3.6830	MAKES
-3.9049	MAKING
-3.4278	MALU
-4.0810	MALU'S
-3.6830	MAMA
-2.6660	MAN
-4.3820	MANAGES
-3.5369	MANGO
-3.9049	MANGOES
-4.3820	MANIPUR
-3.0598	MANY
-4.3820	MARBLE
-4.0810	MARBLES
-4.0810	MARIGOLD
-4.0810	MARIGOLDS
-4.3820	MARK
-4.3820	MARKED
-3.6830	MARKET
-4.0810	MARRIED
-3.7800	MASTER
-4.3820	MASTERED
-4.3820	MASTERY
-4.0810	MATCH
-3.6830	MATTER
-4.3820	MAXIMUM
-3.5369	MAY
-2.4135	ME
-4.3820	MEADOW
-4.3820	MEAN
-4.0810	MEANT
-4.3820	MEASURE
-4.0810	MEDICINE
-3.5369	MEENA
-3.9049	MEET
-4.0810	MEEYAM
-4.3820	MELA
-3.9049	MEN
-4.3820	MENTION
-4.3820	MERCY
-4.3820	MERRILY
-3.5369	MERRY
-4.3820	MESH
-4.3820	MESHES
-3.1516	MET
-4.3820	MICE
-3.3820	MIDDLE
-3.6830	MIGHT
-4.3820	MIGHTY
-3.9049	MILE
-4.0810	MILES
-4.3820	MILK
-3.6830	MILKMAN
-4.3820	MILKMAN'S
-4.3820	MILLI
-4.3820	MILLION
-3.9049	MIND
-4.3820	MINE
-4.3820	MINISTER
-4.0810	MINISTERS
-4.3820	MINUTES
-4.3820	MIRE
-3.9049	MIRROR
-4.3820	MISCHIEF
-3.6039	MISS
-4.3820	MISTAKEN
-4.3820	MISTAKING
-4.3820	MITE
-3.4278	MITTU
-4.3820	MIXED
-3.5369	MOHINI
-3.9049	MOM
-3.9049	MOMENT
-4.3820	MONDAYS
-3.6039	MONEY
-3.2359	MONKEY
-3.7800	MONSTER
-4.3820	MONSTERS
-4.0810	MONTHS
-3.7800	MONU
-3.9049	MONU'S
-4.3820	MOOD
-3.7800	MOON
-4.3820	MOONLIGHT
-2.9507	MORE
-2.9507	MORNING
-3.4789	MOSQUITO
-4.3820	MOSSY
-3.4789	MOST
-2.5559	MOTHER
-3.7800	MOTHER'S
-4.3820	MOTION
-4.3820	MOUNDS
-4.0810	MOUNTAIN
-3.3820	MOUNTAINS
-4.0810	MOUNTED
-3.4278	MOUSE
-4.3820	MOUSTACHE
-3.5369	MOUTH
-4.0810	MOUTHS
-3.6039	MOVE
-4.3820	MOVED
-4.0810	MOVING
-3.7800	MR
-3.2681	MUCH
-3.6830	MUMBAI
-4.3820	MUMMY
-3.4278	MUNNA
-4.3820	MUNNA'S
-4.3820	MURALI
-4.3820	MURALI'S
-4.3820	MUSCLES
-3.7800	MUSIC
-3.9049	MUSICIAN
-4.0810	MUSICIANS
-3.1516	MUST
-4.0810	MUTTERED
-4.3820	MUTTERS
-2.2647	MY
-4.3820	MYNA
-3.7800	MYSELF
-4.3820	MYSTERY
-3.3820	NAME
-3.6039	NAMED
-3.9049	NAMES
-4.3820	NARRATING
-3.2681	NARRATOR
-4.3820	NASHI
-3.2681	NASRUDDIN
-4.3820	NATIVE
-4.3820	NATURALLY
-4.3820	NATURED
-4.3820	NAUGHTIER
-3.9049	NAUGHTY
-3.1033	NEAR
-4.0810	NEARED
-4.3820	NEARLY
-4.3820	NEATH
-3.6830	NECK
-4.3820	NECKS
-3.6039	NEED
-4.0810	NEEDLE
-4.0810	NEEDLES
-3.1033	NEHA
-3.9049	NEHA'S
-3.9049	NEIGHBOUR
-4.3820	NEITHER
-3.7800	NEST
-4.0810	NESTS
-3.6039	NET
-3.0396	NEVER
-3.4789	NEW
-4.3820	NEWSPAPER
-3.1267	NEXT
-3.5369	NICE
-3.0810	NIGHT
-3.3406	NINA
-3.7800	NINAS
-4.3820	NINE
-4.3820	NINEPINS
-3.4278	NINGTHOU
-4.3820	NINTH
-4.3820	NIPPED
-2.5967	NO
-4.3820	NOBLE
-3.3406	NOBODY
-4.0810	NOBODY'S
-3.6830	NOISE
-4.0810	NOKOMIS
-4.3820	NON
-4.3820	NONE
-4.0810	NOON
-4.3820	NOONDAY
-4.0810	NOR
-3.4789	NOSE
-2.3734	NOT
-3.2681	NOTHING
-4.3820	NOTICE
-4.3820	NOTICED
-2.6186	NOW
-4.0810	NOWHERE
-4.3820	NUMBER
-4.3820	NUT
-4.0810	O
-4.3820	O'CLOCK
-4.3820	OAK
-4.3820	OBEYED
-4.3820	OBSERVED
-3.9049	OCEAN
-4.3820	OCTOPUS
-4.3820	ODD
-2.0557	OF
-3.0203	OFF
-4.3820	OFFER
-3.5369	OFTEN
-2.9049	OH
-4.0810	OIL
-2.7099	OLD
-3.9049	OLDER
-2.2177	ON
-2.9841	ONCE
-2.4043	ONE
-4.0810	ONES
-3.0018	ONLY
-4.3820	OOH
-3.6039	OOO
-3.6830	OPEN
-3.7800	OPENED
-4.3820	OPENS
-4.3820	OPINION
-4.3820	OPINIONS
-2.7800	OR
-4.0810	ORANGE
-4.0810	ORDER
-3.6039	ORDERED
-3.0598	OTHER
-3.7800	OTHERS
-4.3820	OUCH
-3.2059	OUR
-2.5559	OUT
-3.9049	OUTSIDE
-3.0018	OVER
-4.3820	OVERCOME
-4.3820	OVERTAKE
-3.4278	OWN
-4.3820	OX
-4.3820	PACIFIC
-3.9049	PADDED
-4.0810	PADDLING
-3.9049	PAGES
-4.3820	PAIL
-3.7800	PAIN
-4.0810	PAINT
-4.3820	PALACE
-4.3820	PANSIES
-4.3820	PANTS
-3.6039	PAPA
-4.0810	PAPER
-3.7800	PARENTS
-4.0810	PARROT
-3.6830	PART
-4.3820	PARTING
-4.3820	PARTS
-3.6830	PASS
-3.4278	PASSED
-4.3820	PASSENGER
-3.7800	PASSENGERS
-3.9049	PASSEPARTOUT
-4.3820	PASSES
-4.0810	PASSING
-4.0810	PAST
-4.3820	PASTE
-4.3820	PATH
-3.7800	PATIENCE
-4.3820	PATIENT
-4.3820	PATIENTLY
-3.9049	PAW
-4.3820	PAWS
-4.3820	PAY
-4.0810	PEACE
-3.7800	PEACH
-3.7800	PEAS
-4.3820	PEBBLES
-4.3820	PECKED
-4.3820	PECKING
-3.6039	PEELU
-4.3820	PEEPED
-3.5369	PENCIL
-4.3820	PENGUINS
-3.9049	PENNY
-2.6918	PEOPLE
-4.3820	PERFECTLY
-3.9049	PERHAPS
-4.3820	PERSON
-4.3820	PET
-4.3820	PHEASANT
-4.3820	PHILEAS
-3.3820	PIA
-3.3406	PIANO
-3.4789	PICKED
-4.3820	PICNIC
-4.3820	PICTURE
-3.9049	PICTURES
-4.0810	PIECE
-3.7800	PIECES
-4.3820	PIERCED
-4.0810	PIG
-4.3820	PIGS
-4.0810	PILLOW
-4.3820	PIN
-4.3820	PINCER
-4.3820	PINCERS
-3.9049	PINCH
-4.0810	PINCHED
-4.3820	PINCHER
-4.0810	PINCHING
-4.3820	PINE
-4.0810	PINK
-3.6039	PINOCCHIO
-4.3820	PINOCCHIO'S
-4.3820	PISTOL
-3.7800	PITTAPITTA
-4.3820	PITY
-3.6039	PLACE
-3.6830	PLACED
-4.3820	PLAIN
-4.0810	PLAINS
-4.3820	PLANE
-4.3820	PLANNED
-3.6830	PLANT
-4.3820	PLANTED
-4.3820	PLATE
-2.8907	PLAY
-3.9049	PLAYED
-4.3820	PLAYFULLY
-4.0810	PLAYGROUND
-3.4789	PLAYING
-4.3820	PLEADED
-4.3820	PLEASANTLY
-3.4789	PLEASE
-4.3820	PLEASED
-4.3820	PLEASEI
-4.3820	PLEASES
-4.3820	PLEASURE
-3.4789	PLIP
-4.3820	PLUCK
-4.3820	PLUCKED
-4.3820	PLUMP
-4.3820	PLUS
-4.3820	POEMS
-4.3820	POINT
-4.3820	POINTED
-4.0810	POINTING
-4.3820	POLAR
-3.6830	POLICEMAN
-4.0810	POND
-4.0810	PONY
-3.5369	POOL
-3.6830	POOR
-3.9049	POOSEY
-3.9049	POP
-4.3820	POPPIES
-4.3820	POPPY
-3.1516	PORRIDGE
-4.0810	POSSIBLE
-4.3820	POSTMAN
-3.1033	POT
-4.0810	POTATOES
-4.0810	POUNCED
-4.3820	POURED
-4.3820	POURS
-4.3820	PRAWNS
-3.6830	PRAYED
-4.3820	PRECIOUS
-4.3820	PREFER
-4.3820	PREFERRING
-4.3820	PREPARATIONS
-3.9049	PREPARED
-4.3820	PRETEND
-3.6039	PRETTY
-3.9049	PRICK
-4.0810	PRICKED
-4.3820	PRICKER
-4.3820	PRICKING
-4.3820	PRIDE
-4.0810	PRINT
-4.3820	PRINTS
-3.9049	PROBLEM
-4.3820	PROCEED
-4.3820	PROCESSION
-4.3820	PROPERLY
-4.3820	PROTECTION
-3.9049	PROUD
-4.0810	PROUDLY
-4.3820	PROVED
-3.7800	PUFF
-3.9049	PUFFED
-4.3820	PUFFING
-3.5369	PULL
-3.1779	PULLED
-4.3820	PULLING
-4.0810	PULLS
-4.3820	PUNCTUALITY
-3.7800	PUNDIT
-3.7800	PUNDIT'S
-4.3820	PUNISHMENT
-4.0810	PUPPET
-3.6830	PUPPY
-4.3820	PUPS
-4.3820	PURPLE
-4.3820	PURRING
-3.2359	PUT
-4.3820	PUTS
-4.0810	PUZZLED
-4.0810	QUACK
-3.4789	QUEEN
-4.0810	QUEER
-4.3820	QUESTION
-4.3820	QUICK
-3.5369	QUICKLY
-3.4278	QUIET
-3.9049	QUIETLY
-4.3820	QUIT
-4.0810	QUITE
-4.3820	R
-4.0810	RABBIT
-3.9049	RACE
-4.3820	RACED
-4.3820	RACES
-4.3820	RACING
-4.3820	RADISHES
-4.3820	RAGING
-3.9049	RAILWAY
-3.6039	RAIN
-3.7800	RAINBOW
-4.3820	RAINBOWS
-4.3820	RAINDROPS
-4.3820	RAINED
-4.0810	RAINING
-3.9049	RAINS
-4.3820	RAINY
-4.3820	RAISE
-4.3820	RAISING
-3.0018	RAN
-4.3820	RATHER
-4.0810	RAZOR
-4.0810	REACH
-3.3028	REACHED
-4.3820	REACHING
-3.2059	READ
-4.3820	READING
-3.6039	READY
-3.9049	REAL
-4.3820	REALISE
-3.9049	REALISED
-3.3028	REALLY
-4.3820	REAP
-4.3820	REAPERS
-4.0810	REAPING
-4.3820	REASON
-4.3820	RECOGNISED
-3.0598	RED
-4.3820	REFUSED
-4.3820	REINDEER
-4.0810	RELAX
-4.3820	RELAY
-4.3820	RELIEF
-4.3820	REMAINED
-4.3820	REMARKED
-4.3820	REMARKS
-4.0810	REMEMBER
-3.9049	REMEMBERED
-4.3820	REMINDS
-4.3820	REMOVE
-4.3820	REMOVED
-4.3820	REPEATING
-3.3406	REPLIED
-4.3820	REQUIRED
-3.6039	REST
-4.0810	RESTING
-4.3820	RESTLESS
-4.0810	RESULTS
-4.3820	RETURN
-3.9049	RETURNED
-4.3820	RETURNING
-4.3820	REVERSED
-4.3820	REVOLVERS
-4.3820	REWARD
-4.3820	RICH
-4.3820	RID
-3.9049	RIDE
-4.3820	RIDER
-4.3820	RIDERS
-4.0810	RIDING
-4.3820	RIFLES
-3.3028	RIGHT
-3.9049	RING
-4.3820	RINGING
-4.3820	RINGS
-3.2059	RIP
-4.3820	RIP'S
-4.3820	RIPE
-4.3820	RISING
-3.2359	RIVER
-3.9049	RIVERS
-3.4789	ROAD
-4.3820	ROADS
-3.5369	ROAR
-4.3820	ROARED
-4.3820	ROARING
-4.3820	ROARS
-4.0810	ROBIN
-4.3820	ROCK
-3.9049	ROCKY
-3.6830	RODE
-3.7800	ROLL
-3.9049	ROLLED
-3.6039	ROOM
-4.3820	ROOT
-4.0810	ROOTS
-4.3820	ROPE
-3.6830	ROSE
-4.0810	ROSES
-3.1033	ROUND
-4.3820	ROW
-4.3820	ROWING
-4.0810	RUB
-4.3820	RUBBED
-4.3820	RUDE
-4.3820	RULER
-2.9670	RUN
-3.6039	RUNNING
-3.9049	RUSH
-4.3820	RUSHING
-4.3820	SACK
-4.3820	SACKS
-3.4789	SAD
-4.0810	SAFE
-2.2002	SAID
-4.0810	SAIL
-3.9049	SAILED
-4.3820	SAILING
-4.3820	SALT
-4.3820	SALWAR
-4.3820	SAMBHAR
-3.6830	SAME
-4.3820	SAN
-3.7800	SANAJAOBA
-4.3820	SANATOMBA
-3.7800	SANATOMBI
-4.0810	SANAYAIMA
-3.4789	SAND
-4.3820	SANDS
-4.3820	SANDWICHES
-3.9049	SANDY
-3.7800	SANG
-4.3820	SANK
-4.3820	SANTHAL
-3.1779	SAT
-4.3820	SATISFY
-4.3820	SATURDAYS
-4.3820	SAVAGES
-2.8257	SAW
-2.9670	SAY
-3.7800	SAYING
-3.1033	SAYS
-4.3820	SCARE
-4.3820	SCARY
-4.3820	SCHACABAC
-2.9507	SCHOOL
-4.3820	SCHOOLMASTER
-4.3820	SCOLD
-4.3820	SCOLDED
-4.3820	SCOLDING
-4.3820	SCOTLAND
-4.3820	SCRAPED
-3.9049	SCRAPS
-4.0810	SCREAMED
-3.4278	SEA
-4.3820	SEALS
-4.3820	SEARCH
-4.3820	SEARCHING
-4.0810	SEAS
-4.0810	SEASIDE
-3.9049	SECOND
-4.3820	SECONDLY
-4.3820	SECRET
-4.0810	SECRETS
-2.7485	SEE
-4.0810	SEED
-3.9049	SEEDS
-4.0810	SEEING
-4.3820	SEEK
-4.3820	SEEM
-4.3820	SEEMED
-4.3820	SEEMS
-3.4789	SEEN
-3.7800	SEES
-4.0810	SELECT
-4.3820	SELL
-4.0810	SEND
-4.0810	SENT
-4.3820	SENTENCE
-4.3820	SEPARATED
-4.3820	SEPARATELY
-4.3820	SERIOUS
-4.3820	SERVED
-4.0810	SET
-3.7800	SEVEN
-4.0810	SEVERAL
-4.3820	SHA
-3.9049	SHADE
-4.3820	SHADY
-3.6830	SHAKE
-3.5369	SHALL
-4.3820	SHAN'T
-4.3820	SHAPE
-4.3820	SHAPES
-3.7800	SHARE
-3.9049	SHAVE
-3.7800	SHAVED
-3.6830	SHAVING
-3.6039	SHAY
-2.2886	SHE
-4.3820	SHE'S
-4.3820	SHEAF
-4.3820	SHEEP
-3.9049	SHELL
-4.3820	SHELTER
-4.3820	SHELVES
-3.9049	SHETTY
-4.3820	SHINE
-4.3820	SHINES
-3.7800	SHINING
-4.3820	SHINY
-3.6039	SHIP
-4.3820	SHIPS
-4.3820	SHIRK
-4.3820	SHIRTS
-4.0810	SHOCKED
-3.6830	SHOE
-3.6830	SHOES
-3.9049	SHONE
-4.3820	SHOOED
-3.5369	SHOOK
-3.5369	SHOOT
-4.0810	SHOOTS
-3.5369	SHOP
-3.7800	SHORE
-3.7800	SHORT
-3.9049	SHORTER
-4.0810	SHOT
-4.0810	SHOTS
-3.0018	SHOULD
-4.3820	SHOULDER
-3.9049	SHOUT
-3.3820	SHOUTED
-4.3820	SHOUTS
-3.6830	SHOW
-4.0810	SHOWED
-4.3820	SHOWER
-4.3820	SHOWING
-4.3820	SHOWS
-4.3820	SHRIEKED
-4.3820	SHRILL
-4.3820	SHRIMPS
-4.3820	SHUDDERED
-4.3820	SHUT
-4.3820	SICK
-3.6830	SIDE
-4.3820	SIDES
-4.3820	SIDEWAYS
-4.3820	SIGHING
-3.9049	SIGHT
-4.3820	SIGNALMAN
-4.3820	SIGNS
-3.9049	SILENCE
-3.9049	SILENT
-4.3820	SILENTLY
-4.3820	SILL
-4.0810	SILLY
-4.3820	SIMPLE
-3.9049	SIMPLY
-3.9049	SINCE
-3.5369	SING
-3.6830	SINGING
-4.3820	SINGLE
-4.3820	SINGLY
-4.3820	SINK
-4.3820	SINKS
-4.3820	SIOUX
-4.3820	SIPPED
-3.4278	SIT
-3.7800	SITTASITTA
-3.6830	SITTING
-3.4789	SIX
-4.3820	SIXTH
-4.3820	SIXTY
-3.6830	SIZE
-4.0810	SKILL
-4.3820	SKINNY
-3.1516	SKY
-4.3820	SLAMMED
-3.6039	SLEEP
-3.9049	SLEEPING
-4.0810	SLEEPS
-3.9049	SLEEPY
-4.3820	SLENDER
-3.6830	SLEPT
-4.0810	SLIPPED
-4.3820	SLOPES
-3.9049	SLOW
-4.3820	SLOWED
-3.4278	SLOWLY
-4.3820	SLOWS
-3.0203	SMALL
-4.3820	SMALLEST
-4.0810	SMART
-4.3820	SMELL
-3.5369	SMILE
-3.5369	SMILED
-3.7800	SMILES
-4.3820	SMILEY
-3.7800	SMILING
-4.3820	SNAIL
-4.3820	SNATCHED
-4.3820	SNORES
-4.0810	SNOW
-4.3820	SNOWING
-4.3820	SNUGGLES
-2.5432	SO
-4.3820	SOAK
-4.3820	SOAKED
-3.9049	SOFT
-4.3820	SOFTLY
-4.3820	SOLDIERS
-4.3820	SOLVE
-2.8257	SOME
-3.4789	SOMEBODY
-3.5369	SOMEONE
-3.3820	SOMETHING
-3.5369	SOMETIMES
-4.3820	SOMEWHERE
-3.6830	SON
-3.6830	SONG
-3.9049	SONGS
-4.0810	SONS
-3.1516	SONU
-3.7800	SONU'S
-3.1516	SOON
-4.3820	SOONER
-3.3820	SORRY
-4.3820	SOUL
-3.9049	SOUND
-4.3820	SOUNDED
-4.3820	SOUNDS
-4.0810	SPACE
-4.0810	SPARE
-3.3820	SPARROWS
-3.6039	SPEAK
-4.3820	SPEAKS
-4.0810	SPEAR
-3.9049	SPECIAL
-4.3820	SPEECH
-4.3820	SPEECHES
-4.0810	SPEED
-4.3820	SPEEDING
-4.3820	SPELLS
-3.7800	SPELT
-3.9049	SPIDER
-3.9049	SPIDER'S
-4.3820	SPIDERS
-4.3820	SPILLING
-3.6039	SPLASH
-4.3820	SPLASHING
-3.9049	SPOKE
-4.3820	SPOONFULS
-4.3820	SPOTS
-4.3820	SPRANG
-3.7800	SPREAD
-4.3820	SPRING
-4.3820	SQUARE
-4.0810	SQUEAKED
-4.3820	SQUIRREL
-4.3820	SQUIRRELS
-4.3820	STALKS
-4.3820	STAMPED
-3.9049	STAND
-4.3820	STANDING
-4.3820	STARE
-3.5369	STARED
-4.3820	STARES
-4.3820	STARING
-3.7800	STARS
-3.9049	START
-3.3406	STARTED
-4.0810	STARTS
-4.3820	STARVE
-4.0810	STATION
-3.9049	STAY
-3.6830	STAYED
-4.0810	STAYS
-4.3820	STEADILY
-4.0810	STEAL
-4.3820	STEAMED
-3.9049	STEEP
-4.3820	STEP
-4.0810	STEPS
-4.3820	STERNLY
-4.3820	STICK
-4.3820	STICKING
-4.0810	STICKS
-4.3820	STIFF
-3.4278	STILL
-4.3820	STOLE
-3.9049	STOMACH
-4.0810	STONE
-3.4789	STOOD
-3.0203	STOP
-3.3406	STOPPED
-3.6830	STORE
-4.3820	STORED
-4.3820	STORES
-3.7800	STORIES
-4.3820	STORING
-4.0810	STORM
-3.9049	STORY
-4.0810	STRAIGHT
-4.0810	STRANGE
-4.3820	STRANGER
-3.6830	STRAW
-4.3820	STRAWBERRY
-4.3820	STREAMING
-4.3820	STREET
-4.0810	STREETS
-4.0810	STRENGTH
-4.3820	STRETCH
-4.3820	STRETCHED
-4.3820	STRETCHES
-4.3820	STRICT
-3.9049	STRING
-3.9049	STRIPES
-4.3820	STRIPS
-4.3820	STROKE
-4.3820	STROKED
-4.3820	STROKING
-3.3406	STRONG
-3.9049	STRONGER
-4.0810	STRUCK
-4.3820	STRUGGLED
-4.0810	STRUNG
-4.3820	STRUTTING
-3.9049	STUCK
-4.3820	STUDIED
-4.3820	STUDIES
-3.6830	STUDY
-4.0810	STUDYING
-3.9049	STUMP
-4.3820	STUPID
-4.3820	STY
-4.0810	SUBJECT
-4.3820	SUBWAY
-4.3820	SUCCESSFUL
-3.9049	SUCH
-4.3820	SUDDEN
-3.3028	SUDDENLY
-4.3820	SUGARCANE
-3.9049	SULLIVAN
-3.1516	SULTAN
-4.3820	SULTAN'S
-3.5369	SUMMER
-4.3820	SUMMER'S
-2.9507	SUN
-3.5369	SUNDARI
-4.3820	SUNDAY
-4.0810	SUNFLOWER
-4.3820	SUNFLOWERS
-4.3820	SUNLIGHT
-3.9049	SUNNY
-3.6830	SUNSHINE
-3.1779	SUNU
-4.3820	SUPPORT
-4.3820	SUPPOSE
-4.3820	SURE
-4.0810	SURELY
-3.6830	SURPRISE
-3.6039	SURPRISED
-4.3820	SURROUNDED
-4.3820	SURVEY
-4.3820	SUSPENSION
-4.0810	SWAM
-3.9049	SWAY
-3.6830	SWEET
-4.0810	SWEETS
-4.3820	SWIFTLY
-3.7800	SWIM
-4.0810	SWIMMING
-3.6830	SWING
-4.3820	SWINGING
-4.3820	SWINGS
-4.3820	SWUM
-3.6830	TABLE
-3.5369	TAIL
-4.3820	TAILOR
-3.1779	TAKE
-3.9049	TAKEN
-4.3820	TAKES
-4.3820	TAKING
-4.3820	TALES
-3.9049	TALK
-3.7800	TALKED
-4.3820	TALKER
-4.3820	TALKERS
-3.4278	TALKING
-3.6830	TALL
-3.5369	TARA
-3.4789	TARGET
-4.3820	TASTED
-4.0810	TASTY
-4.0810	TAUGHT
-4.3820	TAXIS
-3.6039	TEACHER
-3.9049	TEAM
-4.3820	TEAR
-3.6039	TEARS
-4.3820	TEASE
-4.0810	TEETH
-3.0810	TELL
-4.0810	TELLING
-4.3820	TELLS
-4.3820	TELUGU
-4.3820	TEMPTING
-3.7800	TEN
-4.3820	TENDER
-4.3820	TERROR
-4.3820	TEST
-4.3820	TEXTBOOKS
-3.1779	THAN
-3.7800	THANK
-3.6039	THANKFUL
-2.2748	THAT
-3.3820	THAT'S
-1.2748	THE
-2.8138	THEIR
-4.3820	THEIRS
-2.5308	THEM
-3.6039	THEMSELVES
-2.6417	THEN
-2.3997	THERE
-3.9049	THERE'S
-3.4278	THESE
-2.2614	THEY
-4.3820	THEY'LL
-4.0810	THEY'RE
-4.3820	THEYRE
-3.6039	THICK
-4.3820	THIN
-3.9049	THING
-3.1033	THINGS
-3.0203	THINK
-3.9049	THINKING
-3.7800	THINKS
-4.0810	THIRSTY
-4.3820	THIRTY
-2.5896	THIS
-3.7800	THORNS
-4.3820	THORNY
-3.4278	THOSE
-3.7800	THOUGH
-3.3028	THOUGHT
-4.3820	THOUGHTS
-3.9049	THOUSAND
-4.3820	THOUSANDS
-4.3820	THREAD
-3.0598	THREE
-3.9049	THREW
-4.3820	THRILLED
-4.3820	THRONE
-3.2359	THROUGH
-3.9049	THROW
-4.0810	THROWN
-4.3820	THROWS
-4.3820	THUMB
-3.9049	THUNDER
-4.3820	THURSDAYS
-4.3820	TICKLED
-4.3820	TICKLING
-4.3820	TIED
-2.8505	TIGER
-4.3820	TIGER'S
-3.9049	TIGHT
-3.9049	TIGHTLY
-3.3820	TILL
-2.8022	TIME
-3.4278	TIMES
-4.3820	TIMID
-4.0810	TINIEST
-3.3406	TINY
-4.3820	TIP
-3.5369	TIRED
-1.6927	TO
-3.3028	TODAY
-4.3820	TOES
-4.3820	TOFFEE
-3.4278	TOGETHER
-3.2359	TOLD
-3.9049	TOMORROW
-3.5369	TONGUE
-2.7485	TOO
-3.2359	TOOK
-4.3820	TOOTHLESS
-3.4789	TOP
-4.3820	TOPIC
-4.3820	TOPPED
-3.7800	TOPSY
-4.0810	TOUCH
-4.3820	TOUCHED
-3.3820	TOWARDS
-4.3820	TOWN
-3.9049	TRACKS
-4.3820	TRADITIONAL
-2.9196	TRAIN
-4.0810	TRAINS
-3.5369	TRAMP
-4.3820	TRAPPED
-4.3820	TRAVANCORE
-4.0810	TRAVEL
-4.3820	TRAVELLED
-4.3820	TRAVELLERS
-4.3820	TREAT
-2.4375	TREE
-4.3820	TREE'S
-3.3028	TREES
-4.3820	TREMBLING
-4.3820	TREMENDOUS
-4.3820	TRIANGLES
-4.3820	TRIBE
-4.0810	TRICK
-4.3820	TRICYCLE
-3.6039	TRIED
-4.3820	TRIES
-3.6830	TRING
-4.3820	TRIP
-4.0810	TRIUMPHANTLY
-4.3820	TROUBLES
-3.4789	TRUE
-4.3820	TRUMPET
-4.3820	TRUNDLING
-3.2059	TRUNK
-4.0810	TRUTH
-3.3406	TRY
-4.3820	TRYING
-4.0810	TU
-4.3820	TUESDAYS
-3.9049	TUG
-3.6830	TUGGED
-4.3820	TUNE
-4.0810	TUNGGI
-4.3820	TUNNELS
-3.6830	TURN
-3.3406	TURNED
-3.3028	TURNIP
-4.3820	TURTLE
-3.7800	TURVY
-4.0810	TWELVE
-3.7800	TWENTY
-4.3820	TWIRLED
-4.3820	TWIRLING
-4.3820	TWISTED
-4.3820	TWITCHED
-3.0203	TWO
-4.3820	UH
-3.9049	UL
-4.3820	UMBRELLA
-4.0810	UMBRELLAS
-4.0810	UNABLE
-3.2681	UNDER
-4.3820	UNDERNEATH
-3.6830	UNDERSTAND
-4.3820	UNDERSTANDING
-4.0810	UNDERSTOOD
-4.3820	UNFAIROH
-4.0810	UNHAPPY
-4.3820	UNISON
-4.3820	UNSEEN
-3.7800	UNTIL
-2.2851	UP
-3.3406	UPON
-4.3820	UPROOTED
-3.9049	UPSET
-4.3820	URGED
-2.9670	US
-3.7800	USE
-4.0810	USED
-4.3820	USEFUL
-4.3820	V
-4.0810	VAIN
-3.7800	VAN
-4.3820	VANILLA
-3.6039	VEGETABLE
-4.0810	VEGETABLES
-2.6918	VERY
-4.3820	VESSELS
-4.3820	VI
-4.3820	VIEW
-3.2681	VILLAGE
-4.3820	VILLAGERS
-4.3820	VIOLET
-3.9049	VISIT
-4.0810	VISITED
-4.3820	VISITING
-3.2359	VOICE
-4.3820	VOLLEYBALL
-3.9049	WAIT
-4.3820	WAITED
-4.3820	WAITING
-3.1779	WAKE
-4.3820	WAKES
-4.0810	WAKING
-3.4278	WALK
-3.3820	WALKED
-3.3406	WALKING
-4.3820	WALKS
-3.9049	WALL
-4.3820	WALLOP
-4.0810	WAND
-4.3820	WANDERED
-2.8907	WANT
-3.4789	WANTED
-3.6039	WANTS
-3.9049	WARM
-4.3820	WARN
-4.3820	WARNING
-4.3820	WARS
-1.9411	WAS
-4.3820	WASH
-4.0810	WASHED
-4.3820	WASHERMAN
-3.5369	WASN'T
-3.7800	WASTE
-4.3820	WASTING
-3.6830	WATCH
-3.7800	WATCHED
-4.3820	WATCHING
-2.9507	WATER
-4.3820	WATERED
-4.0810	WATERING
-4.3820	WATERS
-4.3820	WATERSIDE
-3.0598	WAY
-2.5247	WE
-3.7800	WE'LL
-4.3820	WEAK
-4.3820	WEAR
-3.7800	WEB
-4.3820	WEBS
-3.6830	WEDDING
-4.3820	WEDNESDAYS
-4.0810	WEE
-4.3820	WEEDS
-3.9049	WEEK
-4.3820	WEEKS
-4.3820	WEIGHT
-4.3820	WEIGHTY
-4.0810	WELCOME
-3.1516	WELL
-2.6577	WENT
-4.0810	WEPT
-2.5308	WERE
-3.6830	WET
-2.5432	WHAT
-4.0810	WHAT'S
-4.3820	WHATEVER
-4.3820	WHEAT
-4.3820	WHEEE
-4.3820	WHEEL
-2.4955	WHEN
-4.0810	WHENE'ER
-4.0810	WHENEVER
-2.9349	WHERE
-4.3820	WHEREVER
-4.3820	WHETHER
-3.1516	WHICH
-4.3820	WHICHEVER
-3.6039	WHILE
-4.0810	WHIPPED
-4.3820	WHISKERS
-4.0810	WHISPERED
-4.0810	WHISTLE
-4.3820	WHISTLED
-4.3820	WHISTLES
-3.3820	WHITE
-4.0810	WHIZZ
-2.8379	WHO
-4.0810	WHO'S
-4.3820	WHOEVER
-3.6039	WHOLE
-4.3820	WHOM
-4.3820	WHOOOO
-4.3820	WHOOOOOO
-4.3820	WHOOPED
-4.3820	WHOOSH
-2.8379	WHY
-4.3820	WHY'S
-4.3820	WHYOUT
-3.7800	WIDE
-3.5369	WIFE
-4.3820	WIG
-4.3820	WIGGLES
-4.3820	WIGWAM
-3.7800	WILD
-2.4789	WILL
-3.2681	WIND
-4.0810	WINDING
-3.6039	WINDOW
-4.3820	WINDS
-3.5369	WINGS
-3.7800	WINKLE
-3.6830	WINTER
-4.0810	WIPE
-4.3820	WIPING
-4.3820	WIRES
-4.3820	WISDOM
-3.4789	WISE
-3.2681	WISH
-4.3820	WISHED
-4.0810	WISHES
-4.3820	WIT
-2.2957	WITH
-4.3820	WITHIN
-3.6830	WITHOUT
-3.6830	WOKE
-3.4789	WOLF
-3.3406	WOMAN
-4.3820	WON
-3.9049	WON'T
-3.5369	WONDER
-3.9049	WONDERED
-3.5369	WONDERFUL
-4.3820	WONDERINGLY
-4.3820	WONDERS
-3.9049	WOOD
-4.0810	WOODEN
-4.3820	WOODS
-3.6039	WORD
-3.7800	WORDS
-4.3820	WORE
-3.1516	WORK
-4.0810	WORKED
-3.4789	WORLD
-4.0810	WORM
-4.3820	WORRIEDLY
-3.9049	WORRY
-4.0810	WORTHY
-2.7288	WOULD
-3.4278	WOULDN'T
-4.0810	WOW
-4.0810	WOXY
-3.9049	WRESTLER
-4.3820	WRIGGLE
-4.3820	WRIGGLED
-4.3820	WRINKLED
-4.3820	WRINKLES
-3.9049	WRITE
-4.3820	WRITES
-4.3820	WRITING
-4.3820	WRITTEN
-3.6039	WRONG
-4.3820	WWE
-4.0810	W_A_T_E_R
-4.3820	Y
-4.3820	YARD
-4.3820	YEAH
-3.6830	YEAR
-4.3820	YEAR'S
-3.2359	YEARS
-4.0810	YELLED
-3.3406	YELLOW
-3.4278	YES
-4.3820	YESTERDAY
-3.9049	YET
-4.3820	YORK
-1.9539	YOU
-3.9049	YOU'D
-3.6039	YOU'LL
-3.7800	YOU'RE
-4.0810	YOU'VE
-3.4278	YOUNG
-4.0810	YOUNGEST
-2.8769	YOUR
-3.9049	YOURSELF
-4.0810	YUMMY
-4.0810	ZAG
-3.9049	ZEBRA
-4.0810	ZIG
-4.0810	ZIGZAG
-4.0810	ZOO
-3.6039	ZZZAK

\end\
