~o
<STREAMINFO> 1 25
<VECSIZE> 25<NULLD><MFCC_D_N_Z_0><DIAGC>
~s "silst"
<MEAN> 25
 3.038971e-01 2.988619e-01 2.935809e-01 8.093163e-02 7.180978e-01 1.563876e-01 -3.582235e-01 -9.585587e-01 -4.258181e-01 -1.600145e-01 1.108026e-01 -5.834644e-01 -8.063181e-02 1.527004e-02 5.068281e-02 1.028392e-02 8.028149e-03 8.191336e-02 6.088051e-02 1.666884e-02 6.866571e-02 7.781806e-02 4.808722e-02 2.841249e-02 -5.627657e-02
<VARIANCE> 25
 2.429751e+01 2.663989e+01 3.288646e+01 3.862922e+01 3.094972e+01 5.640936e+01 4.620499e+01 2.924495e+01 3.778789e+01 2.930900e+01 3.004133e+01 1.954692e+01 8.727061e-01 1.148850e+00 1.199606e+00 1.252025e+00 1.283364e+00 2.457845e+00 2.190313e+00 1.925788e+00 2.195688e+00 1.646621e+00 1.719292e+00 1.226983e+00 5.970079e-01
<GCONST> 9.213924e+01
~h "b"
<BEGINHMM>
<NUMSTATES> 5
<STATE> 2
<MEAN> 25
 1.535631e+00 2.145502e+00 -4.510659e-02 4.950473e-01 1.239862e+00 6.035514e-01 -1.530346e+00 -1.681530e+00 -1.218189e+00 -1.946284e+00 -1.564666e+00 -4.142915e-02 -3.515172e-01 6.938753e-01 6.561990e-01 1.016211e-01 3.125556e-01 9.003990e-01 4.062329e-01 1.818554e-01 4.647337e-01 -4.479919e-02 -5.197474e-01 -1.957305e-01 -4.384152e-01
<VARIANCE> 25
 1.646238e+01 1.546684e+01 2.031747e+01 2.532396e+01 2.360129e+01 3.484238e+01 3.809848e+01 2.704298e+01 4.057443e+01 2.822241e+01 2.440849e+01 1.890163e+01 5.944666e-01 5.922493e-01 5.883681e-01 6.985309e-01 7.746288e-01 1.323234e+00 1.412832e+00 1.502426e+00 2.116803e+00 1.800079e+00 1.436153e+00 1.176116e+00 2.952741e-01
<GCONST> 8.404347e+01
<STATE> 3
<MEAN> 25
 1.136304e+00 4.147160e+00 2.076129e+00 6.976148e-01 1.302231e+00 2.042832e+00 -6.260900e-01 -1.458076e+00 -1.102264e+00 -3.124763e+00 -3.974186e+00 -1.627558e+00 -2.530383e-01 4.025385e-01 4.409227e-01 7.060961e-02 1.545174e-01 5.440712e-01 2.958130e-01 1.266297e-01 3.471716e-01 1.482377e-01 -1.734827e-01 -8.985227e-02 -2.809029e-01
<VARIANCE> 25
 1.306944e+01 1.913343e+01 2.013505e+01 2.436728e+01 2.436276e+01 3.250322e+01 2.803750e+01 2.240038e+01 2.968029e+01 2.490418e+01 2.945368e+01 1.933923e+01 5.051314e-01 4.339887e-01 4.718295e-01 5.401118e-01 6.401713e-01 9.505398e-01 1.127640e+00 1.166990e+00 1.591245e+00 1.374493e+00 1.102390e+00 9.069356e-01 1.991841e-01
<GCONST> 7.979370e+01
<STATE> 4
<MEAN> 25
 -2.144965e+00 4.055098e+00 3.171235e+00 8.275081e-01 1.926349e+00 4.843630e+00 1.805954e+00 5.562465e-01 2.437355e+00 1.701344e-01 -2.276290e+00 -2.094059e-01 -1.668013e-01 -4.266559e-02 2.048833e-02 1.670403e-02 2.799009e-02 1.367559e-01 1.274721e-01 7.558934e-02 1.864191e-01 2.209359e-01 1.531449e-01 5.105609e-02 -1.079794e-01
<VARIANCE> 25
 1.266515e+01 1.469220e+01 1.377843e+01 1.351830e+01 1.374213e+01 2.069145e+01 1.790919e+01 1.481811e+01 2.491269e+01 1.921451e+01 1.683736e+01 1.314940e+01 2.381012e-01 3.209938e-01 4.351910e-01 4.735511e-01 5.771299e-01 7.681060e-01 8.419775e-01 8.754092e-01 9.822339e-01 9.364891e-01 8.578039e-01 7.401811e-01 1.034421e-01
<GCONST> 7.112663e+01
<TRANSP> 5
 0.000000e+00 1.000000e+00 0.000000e+00 0.000000e+00 0.000000e+00
 0.000000e+00 4.524523e-01 5.475477e-01 0.000000e+00 0.000000e+00
 0.000000e+00 0.000000e+00 3.733613e-01 6.266387e-01 0.000000e+00
 0.000000e+00 0.000000e+00 0.000000e+00 7.481508e-01 2.518493e-01
 0.000000e+00 0.000000e+00 0.000000e+00 0.000000e+00 0.000000e+00
<ENDHMM>
~h "d"
<BEGINHMM>
<NUMSTATES> 5
<STATE> 2
<MEAN> 25
 1.988950e-01 1.146472e-02 4.661186e-01 -1.310889e+00 7.135555e-01 -3.625118e-01 -1.669892e-01 -1.261459e+00 -1.429392e+00 -6.165097e-01 2.824363e-01 -1.247856e+00 6.323337e-01 -4.209038e-01 -5.556272e-01 7.403097e-02 -2.350956e-01 -7.965999e-01 -6.763731e-01 -6.961531e-01 -7.491815e-01 -7.458853e-02 3.813648e-01 7.715005e-02 4.528832e-01
<VARIANCE> 25
 3.323652e+01 3.911842e+01 4.269629e+01 4.894473e+01 4.428024e+01 5.446069e+01 5.006233e+01 3.259106e+01 4.131287e+01 3.548170e+01 3.497641e+01 2.296093e+01 2.070496e+00 2.207952e+00 2.366874e+00 2.376455e+00 2.761493e+00 4.085762e+00 4.082761e+00 3.513263e+00 3.998932e+00 2.851007e+00 3.121326e+00 1.997669e+00 9.571708e-01
<GCONST> 1.024798e+02
<STATE> 3
<MEAN> 25
 4.501056e+00 -3.374632e+00 -3.793305e+00 -9.358162e-01 -2.258080e+00 -5.639441e+00 -4.043639e+00 -3.029565e+00 -4.981908e+00 -9.967090e-01 2.574355e+00 3.814735e-01 7.333782e-01 -1.085690e+00 -9.400098e-01 -1.800969e-01 -5.766991e-01 -1.211138e+00 -5.181118e-01 7.165077e-02 -4.552779e-01 2.446023e-01 7.697600e-01 2.155946e-01 8.521940e-01
<VARIANCE> 25
 1.227264e+01 3.506874e+01 3.276125e+01 4.640221e+01 4.423433e+01 5.239072e+01 5.895847e+01 4.527611e+01 4.825646e+01 4.732605e+01 3.926933e+01 2.672371e+01 1.572575e+00 3.262558e+00 2.805683e+00 3.107184e+00 3.408152e+00 6.903291e+00 5.310357e+00 4.046692e+00 4.755723e+00 4.108367e+00 3.799553e+00 2.407606e+00 1.536963e+00
<GCONST> 1.053077e+02
<STATE> 4
<MEAN> 25
 5.981365e+00 -5.095253e+00 -6.264897e+00 -1.984879e+00 -3.468877e+00 -7.219202e+00 -3.490359e+00 -1.231694e+00 -4.229352e+00 -1.084210e+00 2.046422e+00 -3.216445e-01 -1.701673e-01 5.307500e-01 2.913611e-01 1.771420e-01 3.638370e-01 5.014918e-01 6.009810e-02 -3.870912e-02 2.743517e-01 -2.073475e-01 -5.157908e-01 -1.529672e-01 -3.668727e-01
<VARIANCE> 25
 7.484874e+00 3.601794e+01 3.017370e+01 4.919464e+01 4.523946e+01 5.584155e+01 6.499736e+01 4.225827e+01 4.008374e+01 4.213586e+01 3.962296e+01 2.545724e+01 3.255572e-01 1.223282e+00 1.029003e+00 1.079132e+00 1.303663e+00 2.859331e+00 2.122772e+00 1.759616e+00 1.819304e+00 1.780677e+00 1.737444e+00 1.192348e+00 4.763304e-01
<GCONST> 9.192729e+01
<TRANSP> 5
 0.000000e+00 1.000000e+00 0.000000e+00 0.000000e+00 0.000000e+00
 0.000000e+00 3.274490e-01 6.725510e-01 0.000000e+00 0.000000e+00
 0.000000e+00 0.000000e+00 4.933931e-01 5.066069e-01 0.000000e+00
 0.000000e+00 0.000000e+00 0.000000e+00 7.795957e-01 2.204042e-01
 0.000000e+00 0.000000e+00 0.000000e+00 0.000000e+00 0.000000e+00
<ENDHMM>
~h "f"
<BEGINHMM>
<NUMSTATES> 5
<STATE> 2
<MEAN> 25
 1.876505e+00 1.609713e+00 -1.305893e+00 -1.097642e+00 3.863535e-01 -1.320207e-01 -7.661859e-01 -1.607425e+00 -1.218380e+00 -2.456144e+00 -1.366254e+00 -7.809468e-01 -8.079394e-01 3.986591e-01 4.934559e-01 -6.583285e-02 4.534591e-01 8.194848e-01 7.246062e-01 2.366850e-01 8.407263e-01 4.190001e-01 1.519672e-01 -1.139881e-01 -4.469351e-01
<VARIANCE> 25
 1.727241e+01 1.627859e+01 2.509956e+01 3.270014e+01 2.654948e+01 3.198610e+01 4.064774e+01 2.690071e+01 3.175018e+01 2.749054e+01 3.175183e+01 2.182281e+01 6.330731e-01 5.362236e-01 6.229640e-01 8.100901e-01 1.031073e+00 1.335824e+00 1.475853e+00 1.381478e+00 1.765297e+00 1.293755e+00 1.586062e+00 1.036196e+00 2.381908e-01
<GCONST> 8.450645e+01
<STATE> 3
<MEAN> 25
 -2.752906e+00 1.905315e+00 9.482431e-01 -1.309854e+00 2.488938e+00 2.451605e+00 2.455701e+00 -5.107930e-01 2.263890e+00 2.804873e-01 9.921497e-01 -1.090137e+00 -5.337857e-01 4.686640e-02 2.633368e-01 -5.673000e-02 3.417047e-01 2.589266e-01 3.515515e-01 5.446292e-02 3.573700e-01 2.958915e-01 2.876746e-01 -7.661662e-02 -1.574174e-01
<VARIANCE> 25
 1.985949e+01 1.544085e+01 2.095107e+01 2.703045e+01 2.261639e+01 3.171168e+01 3.250846e+01 2.285738e+01 2.915196e+01 2.201570e+01 2.686418e+01 1.937708e+01 4.890999e-01 4.666906e-01 6.404966e-01 8.271085e-01 9.367507e-01 1.047039e+00 1.152561e+00 1.197319e+00 1.279262e+00 1.169631e+00 1.440733e+00 9.970716e-01 1.753165e-01
<GCONST> 8.113118e+01
<STATE> 4
<MEAN> 25
 -4.763837e+00 1.477136e+00 2.593179e+00 -2.229783e+00 4.516924e+00 2.389227e+00 3.168135e+00 -1.513159e+00 1.927824e+00 7.607073e-01 2.230471e+00 -2.219584e+00 -6.311176e-02 -2.159828e-01 -8.101098e-02 1.769769e-01 3.653064e-02 8.070542e-03 1.938646e-02 -6.459714e-02 -5.617127e-02 1.694016e-01 1.118901e-01 3.171029e-02 -1.284740e-02
<VARIANCE> 25
 3.032221e+01 1.855076e+01 3.190497e+01 3.417486e+01 3.349656e+01 2.921227e+01 3.546180e+01 2.242158e+01 2.898505e+01 2.480437e+01 3.094130e+01 1.917091e+01 1.102879e+00 8.912941e-01 1.200966e+00 1.617918e+00 1.637099e+00 1.407954e+00 1.859180e+00 1.664570e+00 1.919322e+00 1.561465e+00 2.018468e+00 1.471003e+00 3.735549e-01
<GCONST> 8.961443e+01
<TRANSP> 5
 0.000000e+00 1.000000e+00 0.000000e+00 0.000000e+00 0.000000e+00
 0.000000e+00 5.570288e-01 4.429712e-01 0.000000e+00 0.000000e+00
 0.000000e+00 0.000000e+00 5.634263e-01 4.365737e-01 0.000000e+00
 0.000000e+00 0.000000e+00 0.000000e+00 5.649673e-01 4.350326e-01
 0.000000e+00 0.000000e+00 0.000000e+00 0.000000e+00 0.000000e+00
<ENDHMM>
~h "g"
<BEGINHMM>
<NUMSTATES> 5
<STATE> 2
<MEAN> 25
 -3.659944e+00 1.634064e+00 1.749689e+00 3.916802e-01 1.588170e+00 5.075622e+00 2.609282e+00 1.718298e+00 3.593381e+00 2.091482e+00 -2.393369e-01 1.376596e+00 -1.064483e-01 5.007478e-03 2.166936e-02 -1.716782e-02 1.733530e-03 7.892296e-02 8.259381e-02 8.775409e-02 1.207065e-01 7.019902e-02 2.752450e-02 4.417916e-02 -7.872003e-02
<VARIANCE> 25
 5.959473e+00 6.854366e+00 6.796475e+00 7.700662e+00 7.571595e+00 1.447166e+01 1.137141e+01 1.005227e+01 1.459642e+01 1.068863e+01 1.035961e+01 8.842712e+00 9.624927e-02 1.655213e-01 2.539965e-01 3.304166e-01 4.143471e-01 5.400150e-01 5.898636e-01 6.475779e-01 7.044850e-01 6.600190e-01 6.764634e-01 6.062876e-01 4.358308e-02
<GCONST> 5.875043e+01
<STATE> 3
<MEAN> 25
 -1.257912e+00 2.402487e+00 1.754351e+00 2.007923e-01 1.318196e+00 3.235847e+00 8.754334e-01 -3.129781e-02 1.202992e+00 -2.197865e-01 -1.390658e+00 -1.392040e-01 -1.128194e-01 2.312422e-01 3.013884e-01 1.066967e-01 5.958576e-02 1.649842e-01 7.164342e-02 -7.045127e-02 -1.625138e-02 -9.470925e-02 -1.522712e-01 -1.510787e-01 -1.051010e-01
<VARIANCE> 25
 1.735996e+01 1.853115e+01 1.793826e+01 2.280712e+01 1.760246e+01 3.219234e+01 2.732366e+01 2.068732e+01 3.284148e+01 2.309566e+01 1.945507e+01 1.594660e+01 2.597985e-01 4.102265e-01 4.734183e-01 5.606895e-01 5.084863e-01 7.720598e-01 8.516095e-01 8.936089e-01 9.925607e-01 9.572673e-01 9.731662e-01 9.295295e-01 1.113239e-01
<GCONST> 7.566019e+01
<STATE> 4
<MEAN> 25
 -8.016126e-01 3.532157e+00 2.938133e+00 9.670042e-01 1.235010e+00 3.142607e+00 7.159233e-01 -4.746906e-01 4.285474e-01 -1.062822e+00 -2.339933e+00 -1.095526e+00 1.920679e-01 9.264912e-02 1.332320e-01 1.629886e-01 3.836419e-02 -1.395613e-01 -1.710788e-01 -3.354343e-01 -3.356039e-01 -1.774944e-01 -3.202701e-02 -2.189136e-01 1.542111e-01
<VARIANCE> 25
 1.362160e+01 1.772588e+01 1.738258e+01 1.734413e+01 1.403225e+01 2.678961e+01 2.042163e+01 1.713181e+01 2.789993e+01 1.982501e+01 1.982868e+01 1.371964e+01 6.109204e-01 9.845181e-01 9.198276e-01 8.440278e-01 7.666872e-01 1.243473e+00 1.358362e+00 1.509219e+00 1.678372e+00 1.574510e+00 1.536107e+00 1.088235e+00 2.195134e-01
<GCONST> 8.072855e+01
<TRANSP> 5
 0.000000e+00 1.000000e+00 0.000000e+00 0.000000e+00 0.000000e+00
 0.000000e+00 9.206533e-01 7.934665e-02 0.000000e+00 0.000000e+00
 0.000000e+00 0.000000e+00 2.093697e-01 7.906303e-01 0.000000e+00
 0.000000e+00 0.000000e+00 0.000000e+00 4.856569e-01 5.143430e-01
 0.000000e+00 0.000000e+00 0.000000e+00 0.000000e+00 0.000000e+00
<ENDHMM>
~h "k"
<BEGINHMM>
<NUMSTATES> 5
<STATE> 2
<MEAN> 25
 3.687628e+00 -3.884494e-01 -2.272028e+00 -4.159954e-01 -1.220134e+00 -4.236425e+00 -3.152846e+00 -2.303626e+00 -3.160003e+00 -2.266013e+00 -4.744227e-01 -5.775858e-01 -3.943321e-01 5.793040e-01 4.329842e-01 6.304070e-02 3.571671e-01 8.607155e-01 2.320846e-01 1.142095e-01 4.852086e-01 3.536122e-02 -3.645233e-01 3.797855e-02 -5.061396e-01
<VARIANCE> 25
 1.683785e+01 2.211975e+01 3.009712e+01 4.486238e+01 3.877781e+01 5.231549e+01 5.506614e+01 3.492574e+01 4.214694e+01 3.195289e+01 3.308624e+01 2.398808e+01 3.147700e-01 7.792950e-01 6.615163e-01 7.959811e-01 9.701619e-01 1.894466e+00 1.410913e+00 1.353601e+00 1.778376e+00 1.446385e+00 1.445295e+00 1.103586e+00 3.476555e-01
<GCONST> 8.769814e+01
<STATE> 3
<MEAN> 25
 1.730600e+00 1.237921e+00 -2.817942e-01 2.524936e-01 4.311226e-01 -1.039504e+00 -2.056792e+00 -1.782517e+00 -1.470689e+00 -1.911583e+00 -1.680591e+00 -8.108774e-01 -5.066323e-01 3.902969e-01 4.239329e-01 2.180947e-02 2.987572e-01 8.956139e-01 4.544360e-01 2.813678e-01 5.942188e-01 2.100301e-01 -1.609191e-01 4.559243e-02 -4.826124e-01
<VARIANCE> 25
 1.847900e+01 2.063373e+01 2.609266e+01 3.932118e+01 3.123287e+01 4.528262e+01 4.495478e+01 3.009796e+01 3.897050e+01 2.958992e+01 3.138785e+01 2.309876e+01 4.264857e-01 6.755103e-01 7.290506e-01 9.101511e-01 1.019976e+00 1.884867e+00 1.527193e+00 1.453652e+00 1.817760e+00 1.361761e+00 1.378142e+00 1.153764e+00 3.452447e-01
<GCONST> 8.702802e+01
<STATE> 4
<MEAN> 25
 2.417111e-03 2.118974e+00 9.704422e-01 6.491486e-01 1.485233e+00 1.439118e+00 -7.753845e-01 -1.162211e+00 2.331004e-01 -1.054816e+00 -1.904465e+00 -7.115296e-01 -4.288250e-01 6.955066e-02 2.096730e-01 -6.147473e-02 1.340351e-01 5.111352e-01 4.384764e-01 2.587747e-01 4.241523e-01 3.436075e-01 1.951801e-01 9.054564e-02 -2.671840e-01
<VARIANCE> 25
 1.625431e+01 1.706344e+01 2.087820e+01 2.983935e+01 2.583579e+01 3.859523e+01 3.496051e+01 2.370031e+01 3.316267e+01 2.505153e+01 2.689359e+01 2.045201e+01 4.865337e-01 6.077122e-01 7.819117e-01 9.509368e-01 1.028017e+00 1.558228e+00 1.509975e+00 1.480661e+00 1.640472e+00 1.365421e+00 1.446180e+00 1.204018e+00 2.819343e-01
<GCONST> 8.451958e+01
<TRANSP> 5
 0.000000e+00 1.000000e+00 0.000000e+00 0.000000e+00 0.000000e+00
 0.000000e+00 4.554671e-01 5.445329e-01 0.000000e+00 0.000000e+00
 0.000000e+00 0.000000e+00 1.828129e-01 8.171872e-01 0.000000e+00
 0.000000e+00 0.000000e+00 0.000000e+00 4.512773e-01 5.487227e-01
 0.000000e+00 0.000000e+00 0.000000e+00 0.000000e+00 0.000000e+00
<ENDHMM>
~h "l"
<BEGINHMM>
<NUMSTATES> 5
<STATE> 2
<MEAN> 25
 3.681922e+00 -1.040697e+00 -2.417896e+00 -7.789195e-01 -1.810361e+00 -4.221758e+00 -2.955315e+00 -2.065596e+00 -2.725969e+00 -1.541831e+00 1.172981e-01 -1.162206e+00 -1.402985e-01 4.731936e-01 4.020264e-01 2.972738e-01 3.366127e-01 3.329873e-01 -1.718632e-01 -2.904333e-01 -2.800551e-02 -2.548046e-01 -4.396783e-01 -1.136343e-01 -2.899476e-01
<VARIANCE> 25
 1.840769e+01 2.734472e+01 2.968253e+01 3.989059e+01 3.867279e+01 5.638682e+01 4.784258e+01 3.288791e+01 4.615658e+01 3.519893e+01 3.256025e+01 2.159816e+01 3.778991e-01 7.273099e-01 7.249538e-01 9.019012e-01 9.994654e-01 1.838709e+00 1.561917e+00 1.485457e+00 1.651867e+00 1.494419e+00 1.403745e+00 1.004388e+00 2.996393e-01
<GCONST> 8.801779e+01
<STATE> 3
<MEAN> 25
 2.668413e+00 4.965837e-01 -4.478371e-01 8.399981e-01 5.443850e-02 -2.584748e+00 -3.340529e+00 -3.154848e+00 -3.191996e+00 -2.473855e+00 -1.414984e+00 -1.647144e+00 -9.235772e-02 4.868695e-01 4.193718e-01 2.910272e-01 3.063948e-01 3.486833e-01 -1.044137e-01 -2.642846e-01 -1.921535e-01 -3.660950e-01 -4.038170e-01 -1.803251e-02 -2.610528e-01
<VARIANCE> 25
 1.831716e+01 2.375749e+01 2.730635e+01 3.830492e+01 3.131322e+01 5.509551e+01 4.548434e+01 3.175163e+01 4.348752e+01 3.209071e+01 3.102275e+01 2.086252e+01 6.237126e-01 7.744975e-01 7.984373e-01 1.000484e+00 1.048966e+00 2.348935e+00 2.058805e+00 1.812354e+00 2.489774e+00 1.866930e+00 1.527222e+00 1.140100e+00 3.995012e-01
<GCONST> 8.985732e+01
<STATE> 4
<MEAN> 25
 2.916628e+00 1.540898e+00 1.074319e+00 2.914547e+00 1.139748e+00 -2.913870e+00 -5.118245e+00 -4.781097e+00 -4.744351e+00 -4.185867e+00 -2.744921e+00 -1.919345e+00 -2.634559e-01 2.420001e-01 2.460762e-01 -9.589468e-03 1.026453e-01 4.493154e-01 3.644225e-01 2.286197e-01 2.619447e-01 1.108429e-01 -3.076179e-02 7.632619e-02 -2.577798e-01
<VARIANCE> 25
 1.058378e+01 1.830916e+01 1.848776e+01 3.310558e+01 2.459320e+01 4.881479e+01 3.744415e+01 2.971970e+01 3.982861e+01 2.885349e+01 2.687158e+01 1.921593e+01 4.086700e-01 6.973094e-01 7.284068e-01 8.937200e-01 9.734982e-01 2.045289e+00 1.715732e+00 1.560313e+00 1.931175e+00 1.491809e+00 1.417133e+00 1.075644e+00 2.831922e-01
<GCONST> 8.523606e+01
<TRANSP> 5
 0.000000e+00 1.000000e+00 0.000000e+00 0.000000e+00 0.000000e+00
 0.000000e+00 3.337017e-01 6.662983e-01 0.000000e+00 0.000000e+00
 0.000000e+00 0.000000e+00 1.687771e-01 8.312228e-01 0.000000e+00
 0.000000e+00 0.000000e+00 0.000000e+00 6.385722e-01 3.614278e-01
 0.000000e+00 0.000000e+00 0.000000e+00 0.000000e+00 0.000000e+00
<ENDHMM>
~h "m"
<BEGINHMM>
<NUMSTATES> 5
<STATE> 2
<MEAN> 25
 3.365702e+00 -9.878284e-01 -2.595639e+00 -4.709818e-01 -5.621165e-01 -2.604240e+00 -1.959284e+00 -1.887952e+00 -2.719077e+00 -1.339664e+00 5.376803e-02 -6.699953e-01 -2.722866e-01 6.694701e-01 5.173346e-01 1.340320e-01 3.432639e-01 7.632164e-01 1.585740e-01 1.717706e-02 2.470235e-01 -2.662192e-01 -6.034577e-01 -1.549567e-01 -4.366255e-01
<VARIANCE> 25
 1.808326e+01 2.772430e+01 3.004811e+01 3.661443e+01 2.804623e+01 5.039879e+01 4.754369e+01 2.739498e+01 4.190053e+01 3.659534e+01 3.120737e+01 2.110649e+01 3.459884e-01 7.597396e-01 6.529418e-01 8.437266e-01 9.232053e-01 1.788736e+00 1.417943e+00 1.253491e+00 1.692005e+00 1.559627e+00 1.448504e+00 1.137989e+00 2.837733e-01
<GCONST> 8.677374e+01
<STATE> 3
<MEAN> 25
 2.027675e+00 1.583404e+00 -3.432804e-02 1.122813e-02 4.526496e-01 -1.139018e-01 -1.240262e+00 -1.764226e+00 -2.398004e+00 -2.822168e+00 -2.316380e+00 -1.434860e+00 -1.929569e-01 5.663354e-01 4.748811e-01 1.021377e-01 2.274885e-01 6.219074e-01 1.648122e-01 -4.707662e-02 1.163590e-01 -2.239727e-01 -4.692072e-01 -1.735986e-01 -3.179135e-01
<VARIANCE> 25
 1.862976e+01 2.425107e+01 2.619276e+01 3.445261e+01 2.829155e+01 5.116546e+01 4.111230e+01 2.666623e+01 3.641879e+01 3.244655e+01 3.148199e+01 2.064834e+01 4.898721e-01 5.775077e-01 5.999085e-01 7.610886e-01 7.656439e-01 1.318665e+00 1.225218e+00 1.318849e+00 1.925951e+00 1.654884e+00 1.295296e+00 1.081664e+00 2.502391e-01
<GCONST> 8.524816e+01
<STATE> 4
<MEAN> 25
 2.049587e+00 3.774361e+00 1.579116e+00 2.660569e-01 4.876523e-01 8.576627e-01 -1.154531e+00 -2.327163e+00 -2.962571e+00 -4.264843e+00 -4.180282e+00 -2.423733e+00 -1.313936e-01 2.029579e-01 1.819895e-01 2.495728e-02 5.001232e-02 2.363793e-01 1.076828e-01 -1.935105e-02 1.015861e-01 6.379467e-02 3.051600e-03 1.623064e-02 -1.583490e-01
<VARIANCE> 25
 1.262429e+01 2.020079e+01 1.894764e+01 2.707017e+01 2.852576e+01 4.584888e+01 3.162170e+01 2.444091e+01 2.945478e+01 2.629398e+01 2.810488e+01 1.890840e+01 3.987315e-01 5.014877e-01 6.086677e-01 6.925662e-01 8.118039e-01 1.345832e+00 1.213037e+00 1.188078e+00 1.436095e+00 1.249841e+00 1.197085e+00 9.518518e-01 1.971794e-01
<GCONST> 8.155475e+01
<TRANSP> 5
 0.000000e+00 1.000000e+00 0.000000e+00 0.000000e+00 0.000000e+00
 0.000000e+00 4.382349e-01 5.617652e-01 0.000000e+00 0.000000e+00
 0.000000e+00 0.000000e+00 2.248732e-01 7.751268e-01 0.000000e+00
 0.000000e+00 0.000000e+00 0.000000e+00 5.486957e-01 4.513043e-01
 0.000000e+00 0.000000e+00 0.000000e+00 0.000000e+00 0.000000e+00
<ENDHMM>
~h "n"
<BEGINHMM>
<NUMSTATES> 5
<STATE> 2
<MEAN> 25
 3.871883e+00 -3.224762e+00 -3.433169e+00 -1.559912e+00 -3.086113e+00 -4.794050e+00 -1.406670e+00 -7.595969e-01 -3.576635e+00 -6.549762e-01 1.921138e+00 -5.713583e-01 1.763373e-01 9.479845e-04 -1.338421e-01 -9.582580e-02 -5.140682e-02 -3.282693e-02 1.082876e-01 -1.083997e-02 -2.117963e-01 -2.121808e-01 -4.110596e-02 -4.357586e-02 9.800541e-02
<VARIANCE> 25
 1.798008e+01 4.536078e+01 3.845521e+01 4.715769e+01 4.555258e+01 6.147569e+01 5.952874e+01 3.702491e+01 4.585874e+01 3.777723e+01 3.893729e+01 2.502372e+01 6.057581e-01 1.626730e+00 1.260714e+00 1.373477e+00 1.638879e+00 2.915443e+00 2.426152e+00 2.105374e+00 2.198401e+00 1.976658e+00 2.000865e+00 1.415445e+00 6.817223e-01
<GCONST> 9.598460e+01
<STATE> 3
<MEAN> 25
 4.646206e+00 -3.912208e+00 -4.612143e+00 -2.354633e+00 -3.739619e+00 -5.037325e+00 -1.929308e-01 -2.868766e-01 -4.576019e+00 -1.256768e+00 2.252556e+00 -5.962139e-01 -3.249873e-02 4.942731e-01 1.686142e-01 1.040138e-01 3.391759e-01 3.935089e-01 -9.705404e-02 -2.422415e-01 1.303075e-02 -3.225909e-01 -4.182652e-01 -7.127592e-02 -2.790293e-01
<VARIANCE> 25
 1.613790e+01 4.275821e+01 3.959515e+01 4.769360e+01 4.878712e+01 5.562894e+01 6.592185e+01 3.880837e+01 4.693353e+01 3.666096e+01 3.973336e+01 2.499890e+01 2.996194e-01 1.164531e+00 8.235470e-01 9.536244e-01 1.175794e+00 2.076658e+00 1.927617e+00 1.655495e+00 1.653956e+00 1.722627e+00 1.798124e+00 1.144952e+00 4.325170e-01
<GCONST> 9.182144e+01
<STATE> 4
<MEAN> 25
 4.630855e+00 1.588634e-01 -2.734332e+00 -1.460852e+00 -1.813612e+00 -3.028043e+00 -1.945450e+00 -2.626788e+00 -4.777632e+00 -3.129629e+00 -5.284764e-01 -1.204528e+00 -2.614679e-01 6.186982e-01 4.849069e-01 1.822494e-01 3.985866e-01 6.691919e-01 -3.933339e-02 -1.804928e-01 2.086503e-01 -1.086443e-01 -4.417568e-01 -8.423311e-02 -4.156536e-01
<VARIANCE> 25
 9.394208e+00 2.874252e+01 2.661285e+01 3.481113e+01 3.740844e+01 4.614396e+01 4.595500e+01 3.266605e+01 3.383675e+01 2.757043e+01 3.319488e+01 2.159241e+01 2.135119e-01 7.070904e-01 5.882312e-01 6.562358e-01 8.530340e-01 1.442654e+00 1.301774e+00 1.236362e+00 1.317646e+00 1.271952e+00 1.349514e+00 9.176140e-01 2.214478e-01
<GCONST> 8.362092e+01
<TRANSP> 5
 0.000000e+00 1.000000e+00 0.000000e+00 0.000000e+00 0.000000e+00
 0.000000e+00 2.509102e-01 7.490898e-01 0.000000e+00 0.000000e+00
 0.000000e+00 0.000000e+00 3.340246e-01 6.659753e-01 0.000000e+00
 0.000000e+00 0.000000e+00 0.000000e+00 7.349578e-01 2.650422e-01
 0.000000e+00 0.000000e+00 0.000000e+00 0.000000e+00 0.000000e+00
<ENDHMM>
~h "p"
<BEGINHMM>
<NUMSTATES> 5
<STATE> 2
<MEAN> 25
 1.783919e+00 -1.283625e+00 -1.887217e+00 -7.365665e-01 -4.323374e-01 -1.749484e+00 -1.038427e+00 -1.838064e+00 -2.350439e+00 -6.853957e-01 1.001370e+00 -3.104253e-01 6.699445e-01 -2.882690e-01 -6.237215e-01 -2.518198e-01 -3.210213e-01 -6.915364e-01 -3.787335e-01 -4.668034e-01 -7.318779e-01 -2.488483e-01 2.734075e-01 8.871479e-02 5.139656e-01
<VARIANCE> 25
 2.699302e+01 3.116881e+01 3.795333e+01 4.242122e+01 3.777648e+01 5.669120e+01 5.500169e+01 3.816765e+01 4.799644e+01 3.234874e+01 3.279782e+01 2.328695e+01 1.987325e+00 2.370879e+00 2.399534e+00 2.474089e+00 2.795918e+00 4.987210e+00 4.528207e+00 3.756327e+00 4.554375e+00 2.950588e+00 2.952191e+00 1.890747e+00 1.678295e+00
<GCONST> 1.030059e+02
<STATE> 3
<MEAN> 25
 4.039605e+00 -2.425731e+00 -3.736059e+00 -1.931546e+00 -2.318079e+00 -4.479457e+00 -2.332013e+00 -1.848355e+00 -4.097995e+00 -1.628003e+00 1.379767e+00 3.006759e-01 2.898316e-01 -1.550909e-01 -2.847683e-01 -4.271342e-01 -4.802048e-01 -3.622470e-01 2.114434e-01 5.068110e-01 -7.085824e-03 -1.700143e-01 2.532001e-02 2.208286e-01 2.754438e-01
<VARIANCE> 25
 2.073342e+01 3.254066e+01 3.823670e+01 4.646645e+01 4.632379e+01 5.515624e+01 6.415929e+01 4.095100e+01 4.467476e+01 3.570584e+01 3.513346e+01 2.566630e+01 1.386685e+00 2.224735e+00 2.058414e+00 2.466306e+00 3.091596e+00 5.172895e+00 3.688312e+00 2.955457e+00 3.336661e+00 2.611457e+00 2.448685e+00 1.716139e+00 1.375929e+00
<GCONST> 1.016741e+02
<STATE> 4
<MEAN> 25
 5.330124e+00 -2.182721e+00 -6.129701e+00 -6.160060e+00 -6.424633e+00 -3.775556e+00 2.456789e+00 2.469528e+00 -3.306792e+00 -3.031395e+00 1.029323e+00 1.615219e+00 -2.721148e-01 4.264282e-01 2.913110e-01 2.285090e-02 2.210014e-01 5.017476e-01 1.603581e-01 1.337831e-01 3.865841e-01 7.042457e-03 -2.897459e-01 -6.071926e-02 -3.646167e-01
<VARIANCE> 25
 1.506676e+01 3.021500e+01 3.217609e+01 3.856395e+01 4.904734e+01 5.337426e+01 5.281735e+01 4.178225e+01 4.519016e+01 2.906906e+01 2.548241e+01 2.185880e+01 4.537278e-01 8.696809e-01 7.835388e-01 8.365845e-01 1.265421e+00 2.048082e+00 1.652435e+00 1.501566e+00 1.738506e+00 1.531945e+00 1.361691e+00 1.036466e+00 4.663370e-01
<GCONST> 8.933395e+01
<TRANSP> 5
 0.000000e+00 1.000000e+00 0.000000e+00 0.000000e+00 0.000000e+00
 0.000000e+00 2.457764e-01 7.542236e-01 0.000000e+00 0.000000e+00
 0.000000e+00 0.000000e+00 2.642457e-01 7.357543e-01 0.000000e+00
 0.000000e+00 0.000000e+00 0.000000e+00 7.203470e-01 2.796530e-01
 0.000000e+00 0.000000e+00 0.000000e+00 0.000000e+00 0.000000e+00
<ENDHMM>
~h "r"
<BEGINHMM>
<NUMSTATES> 5
<STATE> 2
<MEAN> 25
 -2.593028e+00 2.926372e-01 2.910639e+00 -1.266430e+00 2.455011e+00 1.532221e+00 1.135249e+00 -1.231827e+00 -1.406881e-01 6.223146e-01 1.361350e+00 -1.614595e+00 4.323289e-03 -3.031663e-01 -1.098259e-01 -1.437852e-01 -1.112148e-02 -2.094694e-01 3.891201e-03 -2.288838e-01 -2.868302e-01 7.396096e-02 2.913418e-01 -5.828402e-02 2.439615e-01
<VARIANCE> 25
 3.675069e+01 3.339907e+01 4.204165e+01 5.155358e+01 3.930584e+01 4.869010e+01 4.855530e+01 2.914315e+01 3.911669e+01 2.982375e+01 3.446171e+01 2.246620e+01 1.976519e+00 1.647213e+00 2.599068e+00 2.620545e+00 2.502327e+00 2.976388e+00 3.302931e+00 2.784281e+00 3.269202e+00 2.503516e+00 2.852267e+00 1.853694e+00 7.238770e-01
<GCONST> 1.000365e+02
<STATE> 3
<MEAN> 25
 2.631190e+00 -1.479144e+00 -2.099112e+00 -2.127630e-02 1.359141e-01 -2.868942e+00 -3.036908e+00 -3.749976e+00 -3.790819e+00 -1.366639e+00 1.186768e+00 -2.830277e-01 1.164473e+00 -8.418596e-01 -1.086978e+00 -3.918974e-01 -8.599604e-01 -1.580002e+00 -7.817575e-01 -1.220791e-01 -1.018839e+00 -3.284135e-01 4.756761e-01 3.806940e-01 1.002888e+00
<VARIANCE> 25
 1.981839e+01 3.038663e+01 3.536981e+01 4.468390e+01 4.464796e+01 5.807340e+01 6.172066e+01 4.312103e+01 4.417146e+01 3.501423e+01 3.562449e+01 2.689090e+01 1.911415e+00 3.080490e+00 2.903831e+00 3.369726e+00 3.581757e+00 5.732720e+00 6.181174e+00 5.074503e+00 4.876969e+00 4.055652e+00 4.306291e+00 2.383398e+00 1.309057e+00
<GCONST> 1.057729e+02
<STATE> 4
<MEAN> 25
 5.780873e+00 -4.136102e+00 -5.974425e+00 -5.199506e+00 -6.445241e+00 -6.161662e+00 3.487597e-01 1.698810e+00 -4.708129e+00 -2.383013e+00 1.763240e+00 9.012498e-01 -1.909477e-02 1.062338e-01 -1.854299e-02 -4.107416e-02 1.052838e-01 2.374232e-01 9.564410e-02 7.492148e-02 1.303877e-01 -5.739437e-02 -2.106424e-01 -5.998692e-02 -8.096489e-02
<VARIANCE> 25
 1.065366e+01 3.857854e+01 3.355796e+01 4.194076e+01 5.999151e+01 5.545932e+01 6.844794e+01 4.941988e+01 4.539244e+01 4.126656e+01 3.674971e+01 2.555718e+01 3.732437e-01 1.254843e+00 1.090431e+00 1.146443e+00 1.667522e+00 2.661039e+00 2.496618e+00 2.117634e+00 1.908710e+00 1.923488e+00 1.801239e+00 1.280029e+00 5.250211e-01
<GCONST> 9.394341e+01
<TRANSP> 5
 0.000000e+00 1.000000e+00 0.000000e+00 0.000000e+00 0.000000e+00
 0.000000e+00 4.696773e-01 5.303227e-01 0.000000e+00 0.000000e+00
 0.000000e+00 0.000000e+00 5.210394e-01 4.789606e-01 0.000000e+00
 0.000000e+00 0.000000e+00 0.000000e+00 7.579485e-01 2.420515e-01
 0.000000e+00 0.000000e+00 0.000000e+00 0.000000e+00 0.000000e+00
<ENDHMM>
~h "s"
<BEGINHMM>
<NUMSTATES> 5
<STATE> 2
<MEAN> 25
 -1.480418e+00 4.980160e-01 1.821372e+00 -2.347817e+00 2.060618e+00 6.879627e-01 -4.142093e-02 -1.556462e+00 -1.069906e+00 -3.391046e-01 1.071095e+00 -1.628879e+00 -7.476156e-01 1.199943e-01 6.644745e-01 -6.218198e-01 5.860768e-01 2.359618e-01 3.304085e-01 1.429294e-01 1.678047e-01 2.132844e-01 3.589903e-01 -3.446882e-01 5.824642e-02
<VARIANCE> 25
 4.594898e+01 2.464699e+01 4.651913e+01 5.155886e+01 3.986967e+01 5.823426e+01 5.858785e+01 3.518530e+01 4.675370e+01 3.143199e+01 3.261800e+01 2.095078e+01 1.479117e+00 1.225234e+00 2.010025e+00 2.430423e+00 2.072828e+00 2.598526e+00 2.485418e+00 2.478946e+00 2.581635e+00 2.179002e+00 2.278060e+00 1.501177e+00 5.082457e-01
<GCONST> 9.792571e+01
<STATE> 3
<MEAN> 25
 -3.292472e+00 9.016651e-01 2.956906e+00 -3.908703e+00 3.951455e+00 -4.793071e-01 8.112648e-01 -2.163822e+00 -1.676018e+00 3.009627e-01 2.052335e+00 -2.498364e+00 -1.029169e-02 -1.376511e-01 4.541717e-02 -2.580498e-01 8.799744e-02 -4.501442e-01 -1.076951e-01 -2.279716e-01 -3.406395e-01 2.849103e-02 1.814599e-01 -7.068248e-02 3.046208e-01
<VARIANCE> 25
 5.938913e+01 2.847889e+01 4.953099e+01 6.068005e+01 5.360274e+01 4.830165e+01 6.511861e+01 4.277779e+01 5.102863e+01 3.486241e+01 3.474876e+01 2.335456e+01 4.013744e+00 2.002872e+00 3.120910e+00 3.917907e+00 3.813004e+00 4.049523e+00 4.888733e+00 3.846806e+00 4.939688e+00 3.446263e+00 3.442194e+00 2.063603e+00 8.289480e-01
<GCONST> 1.062292e+02
<STATE> 4
<MEAN> 25
 -1.201146e+00 -9.022355e-02 1.881055e+00 -3.518778e+00 2.566629e+00 -2.574340e+00 -1.401102e+00 -2.463768e+00 -3.058313e+00 -5.650499e-01 1.531209e+00 -2.683868e+00 -4.642905e-01 2.735177e-01 3.507457e-01 -3.016455e-01 2.089034e-01 2.999984e-01 3.921274e-01 3.213263e-01 4.701272e-01 1.023095e-01 -4.736039e-02 -2.926519e-03 -1.517105e-01
<VARIANCE> 25
 5.263469e+01 3.149368e+01 5.042513e+01 7.457189e+01 6.437341e+01 5.770557e+01 6.796355e+01 3.972305e+01 4.575720e+01 3.601378e+01 3.645779e+01 2.592912e+01 1.975865e+00 1.316762e+00 1.863902e+00 2.544426e+00 2.351483e+00 2.920805e+00 2.768276e+00 2.393714e+00 2.731114e+00 2.210626e+00 2.292758e+00 1.489579e+00 5.609488e-01
<GCONST> 1.007509e+02
<TRANSP> 5
 0.000000e+00 1.000000e+00 0.000000e+00 0.000000e+00 0.000000e+00
 0.000000e+00 3.487310e-01 6.512690e-01 0.000000e+00 0.000000e+00
 0.000000e+00 0.000000e+00 5.040473e-01 4.959527e-01 0.000000e+00
 0.000000e+00 0.000000e+00 0.000000e+00 4.774678e-01 5.225322e-01
 0.000000e+00 0.000000e+00 0.000000e+00 0.000000e+00 0.000000e+00
<ENDHMM>
~h "t"
<BEGINHMM>
<NUMSTATES> 5
<STATE> 2
<MEAN> 25
 -2.902765e+00 1.561488e+00 3.405537e+00 -2.010088e+00 2.616584e+00 1.735027e+00 1.002572e+00 -1.003526e+00 3.053394e-01 4.175587e-01 2.143045e-01 -1.571143e+00 4.081174e-01 -4.508030e-01 -4.755768e-01 -2.092528e-02 -3.759945e-01 -4.361388e-01 -8.679125e-02 -2.813161e-01 -5.390181e-01 3.474390e-02 3.837898e-01 1.530422e-01 3.205047e-01
<VARIANCE> 25
 3.974485e+01 2.776802e+01 4.164784e+01 5.035014e+01 4.066372e+01 4.910740e+01 4.526568e+01 3.022335e+01 4.114702e+01 3.195397e+01 3.192314e+01 2.279707e+01 1.884478e+00 1.926834e+00 2.403028e+00 2.616294e+00 2.564672e+00 3.523102e+00 3.282525e+00 3.256779e+00 3.715816e+00 2.590224e+00 3.080535e+00 1.934827e+00 1.028516e+00
<GCONST> 1.009696e+02
<STATE> 3
<MEAN> 25
 2.911912e+00 -1.451637e+00 -1.910368e+00 -4.260195e-01 -1.083369e+00 -3.492203e+00 -2.567149e+00 -3.852928e+00 -4.858383e+00 -1.392753e+00 1.996071e+00 2.237077e-01 1.388327e+00 -1.347191e+00 -1.416846e+00 -4.231126e-01 -1.144696e+00 -1.995664e+00 -7.186406e-01 -1.131347e-01 -1.425470e+00 -2.779676e-01 1.012099e+00 4.926737e-01 1.327586e+00
<VARIANCE> 25
 1.944360e+01 2.762517e+01 3.140821e+01 4.194922e+01 4.027714e+01 5.485761e+01 5.310095e+01 4.339213e+01 4.942007e+01 3.925253e+01 3.490185e+01 2.513645e+01 1.990960e+00 3.593485e+00 2.987615e+00 3.284774e+00 3.526680e+00 5.806647e+00 5.953349e+00 5.930414e+00 6.000464e+00 4.624125e+00 4.263042e+00 2.664841e+00 1.642246e+00
<GCONST> 1.062912e+02
<STATE> 4
<MEAN> 25
 6.055872e+00 -5.649317e+00 -7.489777e+00 -6.181246e+00 -6.826209e+00 -5.180216e+00 1.347306e+00 2.521464e+00 -4.727694e+00 -2.526664e+00 2.334841e+00 1.807040e+00 -7.385506e-02 1.092299e-01 -1.543310e-02 -2.823660e-02 1.771382e-01 3.506653e-01 1.163293e-01 9.863044e-02 2.578185e-01 -5.441281e-02 -2.836111e-01 -1.156463e-01 -1.154664e-01
<VARIANCE> 25
 9.731427e+00 3.675534e+01 3.035368e+01 3.698233e+01 4.727118e+01 5.195855e+01 6.298880e+01 5.010108e+01 4.754337e+01 4.721526e+01 3.703176e+01 2.373805e+01 5.201173e-01 1.813697e+00 1.372233e+00 1.346286e+00 1.779622e+00 3.293532e+00 2.811028e+00 2.503792e+00 2.114750e+00 2.223487e+00 2.014943e+00 1.382826e+00 7.996539e-01
<GCONST> 9.583281e+01
<TRANSP> 5
 0.000000e+00 1.000000e+00 0.000000e+00 0.000000e+00 0.000000e+00
 0.000000e+00 4.309502e-01 5.690498e-01 0.000000e+00 0.000000e+00
 0.000000e+00 0.000000e+00 5.069414e-01 4.930586e-01 0.000000e+00
 0.000000e+00 0.000000e+00 0.000000e+00 7.931001e-01 2.069000e-01
 0.000000e+00 0.000000e+00 0.000000e+00 0.000000e+00 0.000000e+00
<ENDHMM>
~h "v"
<BEGINHMM>
<NUMSTATES> 5
<STATE> 2
<MEAN> 25
 -7.267732e-01 6.410020e-01 1.218549e+00 -2.296184e+00 1.321092e+00 4.320795e-01 5.268211e-01 -1.260812e+00 -1.396091e+00 -6.445159e-01 4.305427e-01 -7.210780e-01 6.231096e-01 -4.947203e-01 -5.771599e-01 -3.460637e-01 -7.287256e-01 -1.100549e+00 -1.404385e-01 -4.843394e-02 -6.767229e-01 -2.865802e-01 4.075414e-01 1.447048e-01 6.178455e-01
<VARIANCE> 25
 3.303145e+01 3.097018e+01 4.725409e+01 5.182201e+01 4.567606e+01 5.215148e+01 5.617790e+01 3.530242e+01 4.799089e+01 3.393337e+01 3.040982e+01 2.438365e+01 2.841101e+00 2.068657e+00 3.225956e+00 3.729285e+00 3.907484e+00 5.079917e+00 5.488407e+00 3.921109e+00 5.301780e+00 3.633177e+00 3.543404e+00 2.259173e+00 1.177485e+00
<GCONST> 1.055704e+02
<STATE> 3
<MEAN> 25
 4.190846e+00 -2.544796e+00 -3.759326e+00 -1.984026e+00 -3.707529e+00 -5.657487e+00 -1.676222e+00 -9.275020e-01 -4.467764e+00 -2.206120e+00 2.149546e+00 1.153119e+00 9.322908e-01 -1.164874e+00 -1.015983e+00 -4.979281e-01 -1.244670e+00 -1.549904e+00 4.360575e-02 6.850500e-01 -5.233060e-01 -8.742685e-02 6.922978e-01 2.128018e-01 1.032010e+00
<VARIANCE> 25
 1.435020e+01 3.077040e+01 3.637125e+01 5.999013e+01 5.177579e+01 5.449485e+01 7.653707e+01 5.275267e+01 4.686038e+01 3.873329e+01 3.871082e+01 3.064210e+01 1.629303e+00 2.770971e+00 2.611482e+00 3.448928e+00 3.659338e+00 6.528554e+00 5.644507e+00 3.612075e+00 5.036593e+00 4.174899e+00 3.293000e+00 2.470387e+00 1.544381e+00
<GCONST> 1.060264e+02
<STATE> 4
<MEAN> 25
 6.098061e+00 -4.815755e+00 -6.313882e+00 -7.137701e+00 -9.826889e+00 -6.168172e+00 3.080849e+00 4.729502e+00 -3.743626e+00 -3.295581e+00 1.039616e+00 1.249317e+00 -7.337630e-02 3.113836e-01 1.150693e-01 6.545903e-03 1.978948e-01 2.696424e-01 1.115410e-01 -1.473714e-02 1.829151e-01 -1.253709e-01 -2.911257e-01 -1.804643e-01 -1.698882e-01
<VARIANCE> 25
 7.827063e+00 3.759958e+01 2.654583e+01 4.763890e+01 5.453525e+01 5.421662e+01 6.736199e+01 4.498477e+01 3.935403e+01 3.457787e+01 3.297486e+01 2.727455e+01 5.088087e-01 1.564852e+00 1.009436e+00 1.029298e+00 1.681482e+00 2.759496e+00 2.365816e+00 1.850238e+00 2.087854e+00 1.936193e+00 2.016348e+00 1.245678e+00 7.212114e-01
<GCONST> 9.361232e+01
<TRANSP> 5
 0.000000e+00 1.000000e+00 0.000000e+00 0.000000e+00 0.000000e+00
 0.000000e+00 3.640863e-01 6.359137e-01 0.000000e+00 0.000000e+00
 0.000000e+00 0.000000e+00 3.810076e-01 6.189924e-01 0.000000e+00
 0.000000e+00 0.000000e+00 0.000000e+00 7.971715e-01 2.028285e-01
 0.000000e+00 0.000000e+00 0.000000e+00 0.000000e+00 0.000000e+00
<ENDHMM>
~h "w"
<BEGINHMM>
<NUMSTATES> 5
<STATE> 2
<MEAN> 25
 -2.705965e+00 2.465880e+00 1.699708e+00 -1.780256e-01 1.619190e+00 4.592363e+00 2.377226e+00 1.187004e+00 2.950951e+00 1.330389e+00 -4.833653e-01 7.985324e-01 -2.033812e-01 1.510593e-01 1.922472e-01 3.834875e-02 5.423776e-02 2.082361e-01 1.375324e-01 1.148829e-01 2.543921e-01 1.161335e-01 -7.337116e-02 -3.807198e-02 -1.792432e-01
<VARIANCE> 25
 1.522650e+01 1.390585e+01 1.513819e+01 1.660547e+01 1.407970e+01 2.532059e+01 2.043028e+01 1.572932e+01 2.521361e+01 1.961676e+01 1.820583e+01 1.357790e+01 2.134507e-01 3.237758e-01 4.114271e-01 4.821469e-01 5.355873e-01 7.551320e-01 7.777156e-01 8.133565e-01 9.937587e-01 8.935745e-01 9.320974e-01 7.957573e-01 1.078358e-01
<GCONST> 7.189445e+01
<STATE> 3
<MEAN> 25
 -4.774277e-01 2.341396e+00 1.503325e+00 -2.171672e-01 8.246288e-01 1.845049e+00 7.359658e-01 -9.321179e-02 5.984346e-01 -9.625284e-01 -2.053788e+00 -1.381706e+00 1.110026e-01 4.648044e-01 4.064856e-01 1.155791e-01 -3.420516e-02 5.909944e-02 -9.446598e-02 -2.430071e-01 -1.798835e-01 -3.337258e-01 -5.064387e-01 -4.456583e-01 -4.449265e-02
<VARIANCE> 25
 2.373371e+01 2.891662e+01 2.704042e+01 3.198502e+01 2.709399e+01 4.526125e+01 3.211264e+01 2.102968e+01 3.290278e+01 2.917762e+01 3.113584e+01 2.005105e+01 7.167487e-01 7.645864e-01 6.860192e-01 6.863533e-01 7.640897e-01 1.216304e+00 1.300394e+00 1.245933e+00 1.935491e+00 1.960677e+00 1.722517e+00 1.358292e+00 2.642701e-01
<GCONST> 8.607893e+01
<STATE> 4
<MEAN> 25
 3.895789e-01 4.542580e+00 2.968399e+00 5.914596e-02 1.783345e-01 1.709419e+00 6.247816e-02 -9.797841e-01 -3.361449e-01 -2.414923e+00 -4.108378e+00 -2.731065e+00 2.829470e-01 1.514526e-01 3.679451e-02 1.155405e-04 -2.165396e-01 -3.041866e-01 -2.053259e-01 -2.967749e-01 -3.806030e-01 -2.502548e-01 -3.640820e-02 -9.585010e-02 1.483519e-01
<VARIANCE> 25
 1.602696e+01 2.994254e+01 2.320955e+01 2.491060e+01 2.547218e+01 3.776287e+01 2.659402e+01 1.851723e+01 2.573188e+01 2.525858e+01 3.032063e+01 1.975494e+01 6.877495e-01 7.984132e-01 7.892643e-01 9.099604e-01 1.035230e+00 1.549384e+00 1.494069e+00 1.423506e+00 1.986779e+00 1.840631e+00 1.689396e+00 1.300771e+00 2.870574e-01
<GCONST> 8.555329e+01
<TRANSP> 5
 0.000000e+00 1.000000e+00 0.000000e+00 0.000000e+00 0.000000e+00
 0.000000e+00 7.870443e-01 2.129557e-01 0.000000e+00 0.000000e+00
 0.000000e+00 0.000000e+00 1.566106e-01 8.433894e-01 0.000000e+00
 0.000000e+00 0.000000e+00 0.000000e+00 4.033979e-01 5.966021e-01
 0.000000e+00 0.000000e+00 0.000000e+00 0.000000e+00 0.000000e+00
<ENDHMM>
~h "y"
<BEGINHMM>
<NUMSTATES> 5
<STATE> 2
<MEAN> 25
 2.203732e+00 -3.307378e+00 -2.373280e+00 -4.304757e-01 -1.394107e+00 -2.567531e+00 -1.619604e+00 -1.678928e+00 -9.870519e-01 1.143094e+00 2.697685e+00 -8.213907e-01 -8.160174e-02 2.012191e-01 4.694870e-01 7.361719e-01 4.014698e-01 -8.173820e-02 -4.633071e-01 -2.906621e-01 3.673578e-02 -2.687035e-01 -6.209539e-01 -4.374807e-01 -1.444235e-01
<VARIANCE> 25
 2.698914e+01 4.067245e+01 3.715858e+01 4.562700e+01 2.850892e+01 6.443090e+01 5.475209e+01 3.423761e+01 4.062996e+01 3.937134e+01 3.115409e+01 2.396560e+01 7.224108e-01 1.357674e+00 1.107099e+00 1.513858e+00 1.247169e+00 2.766295e+00 2.564692e+00 1.949392e+00 2.450170e+00 2.214074e+00 2.278072e+00 1.637648e+00 5.033172e-01
<GCONST> 9.509447e+01
<STATE> 3
<MEAN> 25
 1.498212e+00 -8.111523e-01 1.237306e+00 4.439007e+00 1.445510e+00 -3.111082e+00 -3.784073e+00 -2.956309e+00 -1.487227e+00 -1.505460e+00 -2.219867e+00 -3.426455e+00 4.536986e-01 1.503560e-01 5.670421e-01 1.514184e+00 4.461999e-01 -1.478203e+00 -1.468536e+00 -3.324222e-01 -3.765983e-01 -1.047723e+00 -1.239473e+00 -7.163228e-01 1.976210e-01
<VARIANCE> 25
 1.732112e+01 2.723221e+01 3.173951e+01 4.474424e+01 2.173298e+01 6.283976e+01 4.859193e+01 2.642147e+01 2.925170e+01 3.076413e+01 3.086872e+01 2.199494e+01 1.231166e+00 1.949976e+00 1.210240e+00 2.204256e+00 1.358925e+00 5.662488e+00 4.516670e+00 2.743879e+00 3.261502e+00 2.998185e+00 2.772436e+00 1.610982e+00 7.722611e-01
<GCONST> 9.699471e+01
<STATE> 4
<MEAN> 25
 2.955314e+00 -1.261890e+00 2.336987e+00 8.027637e+00 1.804283e+00 -9.086546e+00 -8.443347e+00 -2.999892e+00 -3.469300e+00 -4.944083e+00 -4.325108e+00 -4.744133e+00 -1.053656e-01 2.772331e-01 5.694271e-02 -3.009087e-01 -4.422783e-02 4.295917e-01 2.975456e-01 1.121667e-01 2.632117e-02 7.209613e-03 1.842712e-02 1.540068e-01 -1.770226e-01
<VARIANCE> 25
 6.297791e+00 2.290589e+01 1.755261e+01 4.484224e+01 2.272430e+01 5.512506e+01 3.970755e+01 2.772900e+01 3.409154e+01 2.837831e+01 2.743162e+01 1.844821e+01 3.008434e-01 8.557296e-01 8.415777e-01 1.587233e+00 1.127861e+00 2.357410e+00 2.161995e+00 1.770677e+00 2.155270e+00 1.536684e+00 1.771546e+00 1.328094e+00 2.871283e-01
<GCONST> 8.688343e+01
<TRANSP> 5
 0.000000e+00 1.000000e+00 0.000000e+00 0.000000e+00 0.000000e+00
 0.000000e+00 4.098075e-01 5.901925e-01 0.000000e+00 0.000000e+00
 0.000000e+00 0.000000e+00 4.622200e-01 5.377800e-01 0.000000e+00
 0.000000e+00 0.000000e+00 0.000000e+00 8.752448e-01 1.247552e-01
 0.000000e+00 0.000000e+00 0.000000e+00 0.000000e+00 0.000000e+00
<ENDHMM>
~h "z"
<BEGINHMM>
<NUMSTATES> 5
<STATE> 2
<MEAN> 25
 2.207534e+00 -6.203146e-01 -5.225549e-01 1.098356e+00 -9.084000e-02 -2.730370e+00 -2.818329e+00 -3.564701e+00 -3.037926e+00 -1.515783e+00 -4.954277e-01 -1.747381e+00 9.611499e-01 -5.542541e-01 -6.084391e-01 4.407725e-01 -1.182314e-01 -1.526537e+00 -1.377749e+00 -1.170161e+00 -1.462162e+00 -5.534133e-01 3.306212e-01 2.841610e-02 7.455711e-01
<VARIANCE> 25
 1.774185e+01 2.858986e+01 3.114950e+01 4.334339e+01 3.233451e+01 5.649553e+01 5.402101e+01 3.892934e+01 4.209993e+01 3.854788e+01 3.381818e+01 2.368769e+01 1.689632e+00 3.128105e+00 2.253310e+00 2.660765e+00 2.405645e+00 5.692088e+00 5.086671e+00 3.597669e+00 4.776323e+00 3.299313e+00 3.997182e+00 2.520930e+00 1.326492e+00
<GCONST> 1.029531e+02
<STATE> 3
<MEAN> 25
 4.985326e+00 -3.073693e+00 -2.980585e+00 1.296636e+00 -1.764481e+00 -7.764051e+00 -5.584349e+00 -4.559126e+00 -6.583326e+00 -2.530084e+00 1.746882e+00 -3.073143e-01 4.148059e-01 -9.428414e-01 -6.056748e-01 -8.909258e-02 -2.226716e-01 -9.559731e-01 -4.895107e-01 -1.199790e-01 -4.379801e-01 4.220969e-01 9.340265e-01 2.343916e-01 6.941766e-01
<VARIANCE> 25
 1.009575e+01 2.457540e+01 2.587668e+01 4.965521e+01 3.745364e+01 5.356048e+01 6.419977e+01 4.239811e+01 5.090776e+01 4.655031e+01 4.078031e+01 2.872814e+01 9.720547e-01 2.927804e+00 2.074090e+00 2.296889e+00 2.208831e+00 5.157375e+00 3.330493e+00 2.753314e+00 3.586024e+00 3.763029e+00 3.528608e+00 2.446192e+00 1.220265e+00
<GCONST> 1.011814e+02
<STATE> 4
<MEAN> 25
 4.761181e+00 -3.745896e+00 -2.519309e+00 1.994890e+00 -1.279629e-01 -7.821982e+00 -7.349454e+00 -5.428617e+00 -6.260635e+00 -1.508866e+00 1.715848e+00 -1.658459e+00 -4.620214e-01 5.902700e-01 5.207242e-01 -3.368047e-01 5.076721e-01 9.394681e-01 4.021319e-01 3.228198e-01 4.060791e-01 -6.683029e-02 -3.353359e-01 -5.512204e-02 -3.761355e-01
<VARIANCE> 25
 9.000229e+00 2.793104e+01 2.758079e+01 5.284996e+01 3.207222e+01 6.268802e+01 5.012180e+01 3.529745e+01 4.566983e+01 3.503978e+01 4.489167e+01 3.026589e+01 8.356331e-01 1.177549e+00 1.492648e+00 1.655419e+00 1.516922e+00 2.760124e+00 2.068722e+00 2.285336e+00 2.324363e+00 2.133366e+00 1.963645e+00 1.311861e+00 4.815113e-01
<GCONST> 9.412556e+01
<TRANSP> 5
 0.000000e+00 1.000000e+00 0.000000e+00 0.000000e+00 0.000000e+00
 0.000000e+00 3.068836e-01 6.931164e-01 0.000000e+00 0.000000e+00
 0.000000e+00 0.000000e+00 3.697516e-01 6.302484e-01 0.000000e+00
 0.000000e+00 0.000000e+00 0.000000e+00 7.502621e-01 2.497379e-01
 0.000000e+00 0.000000e+00 0.000000e+00 0.000000e+00 0.000000e+00
<ENDHMM>
~h "aa"
<BEGINHMM>
<NUMSTATES> 5
<STATE> 2
<MEAN> 25
 8.143706e-01 1.817004e+00 1.070614e+00 1.492696e+00 1.729592e+00 1.901378e-01 -2.251143e+00 -2.134024e+00 -4.589323e-01 -1.155610e+00 -1.822476e+00 -1.188900e+00 -2.927350e-01 3.113986e-01 3.226486e-01 -2.829687e-02 1.094121e-01 4.915729e-01 3.174647e-01 1.343288e-01 2.372825e-01 9.145180e-02 -8.454263e-02 -2.863223e-02 -2.704407e-01
<VARIANCE> 25
 1.882125e+01 2.339803e+01 2.545819e+01 3.429329e+01 2.353567e+01 5.207676e+01 5.018796e+01 2.909106e+01 2.823478e+01 2.394921e+01 2.669342e+01 2.083693e+01 4.141353e-01 5.564864e-01 6.796526e-01 8.064757e-01 8.259346e-01 1.531971e+00 1.425034e+00 1.270882e+00 1.429041e+00 1.245916e+00 1.179457e+00 9.679959e-01 2.323395e-01
<GCONST> 8.405175e+01
<STATE> 3
<MEAN> 25
 2.553816e-01 2.118827e+00 1.347278e+00 1.711226e-01 1.175629e+00 1.129980e+00 -6.327518e-01 -1.418320e+00 -2.861525e-01 -1.034329e+00 -1.581773e+00 -1.109470e+00 -8.465563e-02 9.620691e-02 6.545793e-02 -2.008488e-01 -8.554231e-02 1.140012e-01 2.328359e-01 4.443219e-02 -2.866052e-02 5.059270e-02 1.134566e-01 -2.778453e-02 -2.258692e-02
<VARIANCE> 25
 2.248331e+01 2.708902e+01 3.135976e+01 3.434478e+01 2.784713e+01 4.662441e+01 4.329896e+01 2.806009e+01 3.200573e+01 2.615545e+01 2.826079e+01 2.092608e+01 8.014538e-01 6.932259e-01 1.113420e+00 1.295448e+00 1.408665e+00 1.891730e+00 1.766878e+00 1.539205e+00 1.811761e+00 1.624016e+00 1.531503e+00 1.200136e+00 3.405240e-01
<GCONST> 8.909437e+01
<STATE> 4
<MEAN> 25
 -1.139218e-02 2.125362e+00 1.423791e+00 -1.033534e+00 6.229346e-01 4.124809e-01 -2.388551e-01 -1.022908e+00 -6.204543e-01 -6.911181e-01 -7.724370e-01 -1.087789e+00 3.332891e-01 -3.245162e-01 -4.308390e-01 -4.870246e-01 -6.271925e-01 -6.319624e-01 2.504287e-01 8.163326e-02 -4.688973e-01 -3.577024e-02 4.991275e-01 1.038177e-01 4.072173e-01
<VARIANCE> 25
 2.642974e+01 2.553330e+01 3.359605e+01 4.295540e+01 4.009569e+01 4.883655e+01 4.946884e+01 3.354908e+01 3.176567e+01 2.518484e+01 2.832275e+01 2.138591e+01 1.593249e+00 1.334273e+00 2.047148e+00 2.260818e+00 2.978225e+00 3.639644e+00 3.328230e+00 2.488804e+00 2.597801e+00 2.202240e+00 2.337318e+00 1.670003e+00 7.774006e-01
<GCONST> 9.745905e+01
<TRANSP> 5
 0.000000e+00 1.000000e+00 0.000000e+00 0.000000e+00 0.000000e+00
 0.000000e+00 4.527190e-01 5.472810e-01 0.000000e+00 0.000000e+00
 0.000000e+00 0.000000e+00 1.079957e-01 8.920044e-01 0.000000e+00
 0.000000e+00 0.000000e+00 0.000000e+00 3.001767e-01 6.998234e-01
 0.000000e+00 0.000000e+00 0.000000e+00 0.000000e+00 0.000000e+00
<ENDHMM>
~h "ae"
<BEGINHMM>
<NUMSTATES> 5
<STATE> 2
<MEAN> 25
 -3.040856e+00 1.936482e+00 3.400963e+00 -2.661674e+00 3.291414e+00 1.965639e+00 7.741068e-01 -4.330378e-02 5.434938e-01 3.701246e-01 2.773232e-01 -1.395458e+00 -2.128851e-01 -1.687726e-01 -5.472778e-02 -2.465530e-01 -3.289423e-02 9.833387e-02 3.259968e-01 1.693781e-01 2.516078e-01 3.798898e-01 3.363745e-01 6.446031e-02 1.992711e-02
<VARIANCE> 25
 3.792751e+01 2.558587e+01 4.412663e+01 4.966713e+01 4.088626e+01 4.353567e+01 3.963705e+01 2.491091e+01 3.927628e+01 3.120367e+01 3.014803e+01 2.250776e+01 1.393960e+00 9.425392e-01 1.933144e+00 1.923380e+00 1.711262e+00 1.945392e+00 2.040644e+00 1.807119e+00 2.298316e+00 1.882061e+00 1.993576e+00 1.478657e+00 4.780980e-01
<GCONST> 9.442921e+01
<STATE> 3
<MEAN> 25
 8.739155e-01 -9.867479e-01 -1.477306e+00 -1.081525e+00 -2.334636e-01 -7.206867e-01 -3.238364e-01 -1.169341e+00 -8.433310e-01 1.358005e+00 2.120234e+00 5.961885e-03 1.155947e+00 -1.479085e+00 -1.513081e+00 -4.127307e-01 -9.847109e-01 -1.247155e+00 -1.882491e-01 -1.394166e-01 -8.855536e-01 3.131931e-01 1.055255e+00 5.357261e-02 1.212232e+00
<VARIANCE> 25
 2.582268e+01 3.261969e+01 4.254514e+01 3.715516e+01 3.104968e+01 5.545161e+01 4.540086e+01 2.731463e+01 4.892524e+01 4.171695e+01 3.514360e+01 2.217673e+01 1.819773e+00 3.117365e+00 3.330886e+00 2.787643e+00 2.379403e+00 4.451418e+00 4.104964e+00 2.942954e+00 4.452081e+00 3.416996e+00 3.614113e+00 2.179323e+00 1.662874e+00
<GCONST> 1.030129e+02
<STATE> 4
<MEAN> 25
 4.532034e+00 -8.126224e+00 -7.962809e+00 -5.362943e+00 -4.114920e+00 -3.071199e-01 2.090062e+00 1.085371e+00 -3.025124e+00 1.332762e+00 3.372149e+00 4.762328e-01 1.996097e-01 -3.005115e-01 -1.929313e-01 -1.198909e-01 -1.819917e-01 -1.541445e-01 2.374791e-03 -4.990547e-02 -2.522585e-01 -1.297850e-01 -3.355369e-02 -8.951583e-02 2.936644e-01
<VARIANCE> 25
 1.549600e+01 4.529413e+01 4.134845e+01 3.653752e+01 2.953819e+01 5.567046e+01 4.491000e+01 2.528319e+01 4.305614e+01 3.664365e+01 3.158830e+01 2.010217e+01 5.755402e-01 1.583023e+00 1.385853e+00 1.234836e+00 1.064009e+00 2.808129e+00 2.162460e+00 1.539865e+00 1.877509e+00 1.637241e+00 1.569509e+00 1.211790e+00 7.710502e-01
<GCONST> 9.232581e+01
<TRANSP> 5
 0.000000e+00 1.000000e+00 0.000000e+00 0.000000e+00 0.000000e+00
 0.000000e+00 4.570255e-01 5.429745e-01 0.000000e+00 0.000000e+00
 0.000000e+00 0.000000e+00 4.990246e-01 5.009754e-01 0.000000e+00
 0.000000e+00 0.000000e+00 0.000000e+00 6.757748e-01 3.242252e-01
 0.000000e+00 0.000000e+00 0.000000e+00 0.000000e+00 0.000000e+00
<ENDHMM>
~h "ah"
<BEGINHMM>
<NUMSTATES> 5
<STATE> 2
<MEAN> 25
 5.715126e-01 3.232209e+00 1.345256e+00 -1.513232e-01 6.920146e-01 1.960231e+00 -2.379598e-01 -9.433436e-01 -7.295930e-02 -1.328580e+00 -2.186590e+00 -8.815847e-01 -2.749442e-01 1.102860e-01 1.778842e-01 2.417403e-02 5.731838e-02 3.592587e-01 3.015608e-01 1.860828e-01 3.102749e-01 2.409581e-01 7.770035e-02 6.764746e-02 -2.262334e-01
<VARIANCE> 25
 1.732264e+01 2.440385e+01 2.399084e+01 2.563600e+01 2.433850e+01 3.673777e+01 2.968206e+01 2.582734e+01 3.675653e+01 2.588036e+01 2.598030e+01 1.788545e+01 3.091694e-01 4.582198e-01 5.704270e-01 6.425399e-01 7.252327e-01 9.792988e-01 1.042519e+00 1.129072e+00 1.258772e+00 1.063972e+00 1.015060e+00 8.574471e-01 1.646821e-01
<GCONST> 8.006476e+01
<STATE> 3
<MEAN> 25
 6.853158e-01 2.062085e+00 8.073941e-01 -5.077513e-01 1.874221e-01 9.455016e-01 -1.213351e-01 -7.027260e-01 -4.254297e-01 -1.250272e+00 -1.508693e+00 -9.174150e-01 8.666258e-02 -2.757031e-01 -2.805475e-01 -7.917581e-02 -1.596350e-01 -1.258122e-01 1.104209e-01 -2.082212e-01 -3.531874e-01 5.078800e-02 3.923003e-01 1.304987e-01 1.349612e-01
<VARIANCE> 25
 2.162708e+01 3.206775e+01 2.963774e+01 3.263888e+01 3.070141e+01 4.745251e+01 3.561979e+01 2.785819e+01 4.122151e+01 3.041589e+01 3.074549e+01 1.959852e+01 6.997408e-01 1.226002e+00 1.367065e+00 1.268314e+00 1.441592e+00 1.980901e+00 1.867264e+00 2.033915e+00 2.585904e+00 1.815370e+00 1.880032e+00 1.311883e+00 4.850735e-01
<GCONST> 9.158891e+01
<STATE> 4
<MEAN> 25
 3.025853e+00 -8.921044e-01 -1.915683e+00 -1.512632e+00 -1.903727e+00 -2.201308e+00 -4.837337e-01 -2.509067e+00 -5.645383e+00 -2.087946e+00 2.002915e+00 5.115694e-01 4.414990e-01 -6.250004e-01 -5.350451e-01 -1.639439e-01 -3.586273e-01 -7.425768e-01 -1.389199e-01 -2.064127e-01 -7.618638e-01 -1.212421e-01 5.976821e-01 2.365395e-01 5.491982e-01
<VARIANCE> 25
 1.901790e+01 3.457378e+01 2.980280e+01 3.225336e+01 3.796491e+01 5.193652e+01 4.392101e+01 4.236998e+01 6.816273e+01 3.646210e+01 4.094697e+01 2.224175e+01 1.419552e+00 3.075095e+00 2.291351e+00 1.834929e+00 2.500912e+00 5.167921e+00 3.488963e+00 3.545208e+00 5.912421e+00 3.055238e+00 3.813478e+00 1.950784e+00 1.569528e+00
<GCONST> 1.023872e+02
<TRANSP> 5
 0.000000e+00 1.000000e+00 0.000000e+00 0.000000e+00 0.000000e+00
 0.000000e+00 5.330114e-01 4.669885e-01 0.000000e+00 0.000000e+00
 0.000000e+00 0.000000e+00 5.694255e-02 9.430575e-01 0.000000e+00
 0.000000e+00 0.000000e+00 0.000000e+00 5.321456e-01 4.678544e-01
 0.000000e+00 0.000000e+00 0.000000e+00 0.000000e+00 0.000000e+00
<ENDHMM>
~h "ao"
<BEGINHMM>
<NUMSTATES> 5
<STATE> 2
<MEAN> 25
 3.331353e+00 -2.432008e+00 5.963247e-01 6.673158e+00 1.168708e+00 -1.001505e+01 -8.988585e+00 -3.361201e+00 -1.735461e+00 -2.467671e+00 -3.207864e+00 -4.049907e+00 -3.772063e-02 1.647111e-01 1.743467e-01 1.919601e-01 1.167578e-01 -7.239916e-02 -1.626277e-01 -7.386090e-03 8.519964e-02 -1.247245e-01 -3.269058e-01 -1.660371e-01 -9.396996e-02
<VARIANCE> 25
 9.933742e+00 2.710013e+01 2.378132e+01 4.478168e+01 2.391743e+01 6.971803e+01 4.724219e+01 2.703333e+01 3.463625e+01 3.286511e+01 2.814639e+01 1.831572e+01 2.687510e-01 7.518901e-01 6.455851e-01 8.939071e-01 7.740440e-01 2.302373e+00 1.795784e+00 1.485572e+00 1.417779e+00 1.237649e+00 1.201298e+00 9.474193e-01 2.876079e-01
<GCONST> 8.522271e+01
<STATE> 3
<MEAN> 25
 2.480473e+00 4.140278e-01 9.723491e-02 3.058129e+00 1.617351e+00 -3.753049e+00 -5.518427e+00 -3.376744e+00 -1.669148e+00 -2.030000e+00 -2.885519e+00 -2.795340e+00 -2.306567e-01 6.094742e-01 1.517037e-01 -4.894413e-01 1.242545e-01 1.078863e+00 5.716190e-01 3.844939e-02 7.024552e-02 -2.287568e-02 -1.773346e-02 2.635974e-01 -3.804265e-01
<VARIANCE> 25
 1.564449e+01 2.406748e+01 2.451630e+01 4.514093e+01 3.120389e+01 5.663358e+01 5.411761e+01 3.253613e+01 3.920567e+01 2.781720e+01 3.396551e+01 2.607553e+01 5.666999e-01 8.374314e-01 9.752391e-01 1.160578e+00 1.340860e+00 2.898036e+00 1.683964e+00 1.756887e+00 2.067362e+00 1.417840e+00 1.534869e+00 1.189171e+00 4.066375e-01
<GCONST> 9.021633e+01
<STATE> 4
<MEAN> 25
 1.461138e+00 8.105269e-01 3.778670e-01 -2.296944e+00 -1.652330e+00 -2.793038e+00 -7.646718e-01 -3.949070e-01 -1.916730e+00 -2.131179e+00 -1.047712e+00 -1.500966e+00 -1.823387e-01 1.204821e-01 3.502108e-02 -6.860455e-01 -2.324791e-01 2.337126e-01 6.302150e-01 3.632497e-01 1.444859e-01 4.585902e-02 2.215888e-01 2.201453e-01 3.020073e-02
<VARIANCE> 25
 3.134812e+01 2.457891e+01 3.774486e+01 5.506384e+01 8.781281e+01 5.898638e+01 5.919238e+01 6.019775e+01 3.851336e+01 2.888270e+01 2.974549e+01 2.611471e+01 1.924374e+00 1.383548e+00 2.007707e+00 1.989242e+00 3.272013e+00 3.992964e+00 2.864196e+00 2.582682e+00 2.883371e+00 2.216747e+00 2.298380e+00 1.686691e+00 8.057231e-01
<GCONST> 1.005627e+02
<TRANSP> 5
 0.000000e+00 1.000000e+00 0.000000e+00 0.000000e+00 0.000000e+00
 0.000000e+00 6.777508e-01 3.222492e-01 0.000000e+00 0.000000e+00
 0.000000e+00 0.000000e+00 2.932811e-01 7.067189e-01 0.000000e+00
 0.000000e+00 0.000000e+00 0.000000e+00 4.614951e-01 5.385050e-01
 0.000000e+00 0.000000e+00 0.000000e+00 0.000000e+00 0.000000e+00
<ENDHMM>
~h "aw"
<BEGINHMM>
<NUMSTATES> 5
<STATE> 2
<MEAN> 25
 3.724531e+00 5.910150e-01 -2.266871e+00 -9.871865e-01 -1.266467e+00 -2.735605e+00 -1.844378e+00 -1.549313e+00 -3.114019e+00 -2.628619e+00 -5.133186e-01 -2.044186e-01 -2.872409e-01 5.460979e-01 4.362976e-01 6.119058e-02 2.369031e-01 6.277537e-01 1.326682e-01 8.874442e-02 4.310025e-01 -1.233312e-01 -5.441658e-01 -1.756601e-01 -3.891763e-01
<VARIANCE> 25
 1.417811e+01 1.522648e+01 1.882780e+01 4.020675e+01 3.167608e+01 4.123796e+01 4.547574e+01 2.905753e+01 3.503087e+01 2.958815e+01 2.631618e+01 1.968600e+01 2.643040e-01 5.481255e-01 5.312501e-01 7.015240e-01 8.564057e-01 1.389986e+00 1.333900e+00 1.152073e+00 1.451380e+00 1.245001e+00 1.195094e+00 9.223897e-01 2.016644e-01
<GCONST> 8.227906e+01
<STATE> 3
<MEAN> 25
 2.788067e+00 3.384856e+00 1.182183e+00 -2.031467e-02 -1.003395e+00 -1.433925e+00 -1.880331e+00 -1.919593e+00 -2.503054e+00 -3.829266e+00 -3.914181e+00 -2.709544e+00 -3.423048e-01 1.323147e-01 2.633586e-01 1.225360e-01 2.460108e-01 5.281152e-01 2.883095e-01 1.607897e-01 2.928219e-01 1.469937e-01 -9.765460e-02 -1.012234e-02 -2.742350e-01
<VARIANCE> 25
 9.764286e+00 1.004140e+01 1.204199e+01 2.746397e+01 2.914385e+01 3.097005e+01 2.511257e+01 1.895963e+01 2.323179e+01 1.839588e+01 2.097323e+01 1.595115e+01 1.929800e-01 3.342140e-01 3.919189e-01 5.167887e-01 6.398240e-01 8.735124e-01 9.524933e-01 9.531834e-01 9.540411e-01 8.833210e-01 8.484339e-01 7.443847e-01 9.632032e-02
<GCONST> 7.318789e+01
<STATE> 4
<MEAN> 25
 -3.103954e+00 1.518948e+00 1.899084e+00 1.183598e+00 1.706058e+00 3.702569e+00 1.388396e+00 9.858229e-01 3.100036e+00 1.590497e+00 -6.364192e-01 6.237221e-01 -8.283691e-02 -3.262612e-02 -3.493647e-03 -7.796871e-03 4.279583e-03 3.760723e-02 5.557337e-02 3.986853e-02 7.054539e-02 8.814830e-02 8.890832e-02 5.690235e-02 -4.538079e-02
<VARIANCE> 25
 6.035006e+00 7.943964e+00 7.558994e+00 7.504505e+00 7.346103e+00 1.321776e+01 1.044768e+01 9.869628e+00 1.569307e+01 1.188885e+01 1.088313e+01 8.635346e+00 9.892989e-02 1.745083e-01 2.495579e-01 3.493281e-01 4.143991e-01 5.223892e-01 5.960848e-01 6.979830e-01 7.443044e-01 7.244926e-01 7.270804e-01 6.080507e-01 4.052988e-02
<GCONST> 5.929297e+01
<TRANSP> 5
 0.000000e+00 1.000000e+00 0.000000e+00 0.000000e+00 0.000000e+00
 0.000000e+00 5.824128e-01 4.175872e-01 0.000000e+00 0.000000e+00
 0.000000e+00 0.000000e+00 7.784002e-01 2.215998e-01 0.000000e+00
 0.000000e+00 0.000000e+00 0.000000e+00 9.190845e-01 8.091546e-02
 0.000000e+00 0.000000e+00 0.000000e+00 0.000000e+00 0.000000e+00
<ENDHMM>
~h "ax"
<BEGINHMM>
<NUMSTATES> 5
<STATE> 2
<MEAN> 25
 3.616250e+00 -1.543141e+00 -2.308321e+00 -4.361056e-01 -1.303542e+00 -4.152154e+00 -3.007995e+00 -2.035285e+00 -4.062617e+00 -2.163384e+00 3.888540e-01 -4.186588e-01 2.949858e-03 1.522321e-01 -3.440232e-02 -2.424868e-01 -2.285873e-01 7.169124e-02 2.717641e-01 2.217755e-01 1.432945e-01 5.745133e-02 7.617522e-04 1.938284e-02 -6.891768e-02
<VARIANCE> 25
 1.762212e+01 3.487163e+01 3.341839e+01 4.338948e+01 3.544770e+01 6.200076e+01 5.206609e+01 3.418895e+01 5.425112e+01 4.644147e+01 3.709305e+01 2.344798e+01 5.798087e-01 1.133533e+00 1.133557e+00 1.342980e+00 1.551593e+00 2.335235e+00 2.162528e+00 1.878217e+00 2.168288e+00 1.765378e+00 1.985073e+00 1.390629e+00 4.961458e-01
<GCONST> 9.377310e+01
<STATE> 3
<MEAN> 25
 3.939533e+00 -2.467997e+00 -3.772525e+00 -2.797773e+00 -3.621308e+00 -3.787771e+00 -6.360179e-01 -8.625312e-01 -4.082256e+00 -9.203877e-01 2.399777e+00 7.726889e-01 3.576334e-01 -3.958539e-01 -3.424065e-01 -2.444083e-01 -5.136703e-01 -4.962265e-01 2.686727e-01 1.317355e-01 -4.442438e-01 -8.382612e-02 3.179584e-01 2.623876e-02 4.191742e-01
<VARIANCE> 25
 1.528010e+01 3.519257e+01 3.270763e+01 4.663907e+01 4.580629e+01 5.591140e+01 5.940841e+01 3.369631e+01 5.271365e+01 4.586873e+01 4.136367e+01 2.614862e+01 1.238760e+00 2.558438e+00 2.025895e+00 2.020362e+00 2.495390e+00 4.188217e+00 3.380223e+00 2.301730e+00 4.013763e+00 2.439540e+00 2.890242e+00 1.669766e+00 1.508427e+00
<GCONST> 1.010190e+02
<STATE> 4
<MEAN> 25
 5.428083e+00 -2.200601e+00 -4.354552e+00 -3.055865e+00 -4.552387e+00 -5.614303e+00 -1.069454e+00 -1.177820e+00 -5.417904e+00 -2.376202e+00 1.622067e+00 1.189990e-01 -2.494870e-01 6.398787e-01 4.039701e-01 1.798266e-01 4.239019e-01 6.667888e-01 1.635637e-02 -1.227921e-01 2.915191e-01 -1.627928e-01 -4.952908e-01 -9.867877e-02 -4.422666e-01
<VARIANCE> 25
 9.100821e+00 3.187178e+01 2.611909e+01 3.712910e+01 3.988626e+01 4.464108e+01 5.753898e+01 3.387960e+01 4.403792e+01 3.919102e+01 3.793002e+01 2.394288e+01 2.931693e-01 8.748687e-01 6.574153e-01 7.422630e-01 1.078882e+00 1.958759e+00 1.733920e+00 1.437586e+00 1.753636e+00 1.742924e+00 1.597934e+00 1.098553e+00 3.512824e-01
<GCONST> 8.803616e+01
<TRANSP> 5
 0.000000e+00 1.000000e+00 0.000000e+00 0.000000e+00 0.000000e+00
 0.000000e+00 1.690272e-01 8.309727e-01 0.000000e+00 0.000000e+00
 0.000000e+00 0.000000e+00 4.190331e-01 5.809669e-01 0.000000e+00
 0.000000e+00 0.000000e+00 0.000000e+00 6.962821e-01 3.037179e-01
 0.000000e+00 0.000000e+00 0.000000e+00 0.000000e+00 0.000000e+00
<ENDHMM>
~h "ay"
<BEGINHMM>
<NUMSTATES> 5
<STATE> 2
<MEAN> 25
 -8.376350e-01 2.609591e+00 1.368001e+00 3.040420e-01 1.362463e+00 3.030428e+00 5.545539e-01 -4.599755e-01 9.697787e-01 -3.296336e-01 -1.544585e+00 -4.235162e-03 -3.168868e-01 1.513636e-01 2.285103e-01 1.779498e-02 9.872602e-02 3.993145e-01 2.847587e-01 2.062660e-01 3.189729e-01 1.655037e-01 -1.744148e-02 7.023492e-02 -2.593142e-01
<VARIANCE> 25
 1.640564e+01 1.308316e+01 1.634181e+01 1.887577e+01 1.593666e+01 2.785387e+01 2.679523e+01 2.077905e+01 3.046404e+01 2.196827e+01 1.974821e+01 1.542447e+01 2.115055e-01 3.050153e-01 3.987324e-01 4.693628e-01 5.253574e-01 8.503112e-01 8.854080e-01 8.704957e-01 9.810981e-01 8.866741e-01 8.848425e-01 7.077810e-01 1.137939e-01
<GCONST> 7.342676e+01
<STATE> 3
<MEAN> 25
 -1.129677e+00 2.235809e+00 1.759629e+00 -5.373127e-01 1.500567e+00 2.348431e+00 8.222801e-01 -3.217181e-01 7.434910e-01 -6.134408e-01 -1.246823e+00 -7.937535e-01 -1.829657e-01 -1.457466e-02 2.496840e-02 -5.989698e-02 4.586436e-03 2.030051e-01 2.104149e-01 4.406940e-02 1.117189e-01 2.023255e-01 1.841420e-01 7.940003e-02 -1.097448e-01
<VARIANCE> 25
 2.535661e+01 2.282049e+01 2.858342e+01 3.232939e+01 2.773685e+01 4.220494e+01 3.422969e+01 2.418394e+01 3.419574e+01 2.510033e+01 2.583053e+01 1.895576e+01 4.554362e-01 5.176076e-01 7.890514e-01 8.266163e-01 8.271652e-01 1.269568e+00 1.361290e+00 1.223506e+00 1.371530e+00 1.246776e+00 1.290798e+00 9.616932e-01 1.991160e-01
<GCONST> 8.369468e+01
<STATE> 4
<MEAN> 25
 -7.073056e-01 1.202661e+00 6.818110e-01 -1.199833e+00 1.012086e+00 2.026484e+00 1.074910e+00 -6.204966e-01 3.403963e-02 8.732989e-02 1.841831e-01 -3.207728e-01 4.555558e-01 -6.027367e-01 -6.646749e-01 -1.457027e-01 -3.351711e-01 -6.086541e-01 -2.051564e-01 -2.420108e-01 -4.051586e-01 1.591400e-01 5.146218e-01 7.538404e-02 4.780679e-01
<VARIANCE> 25
 2.704253e+01 2.679878e+01 3.833702e+01 3.139185e+01 2.937384e+01 4.138517e+01 3.634901e+01 2.478343e+01 3.347852e+01 2.848211e+01 2.899242e+01 1.862639e+01 1.404478e+00 1.688619e+00 2.472999e+00 2.031796e+00 1.808595e+00 2.786849e+00 2.535719e+00 2.376528e+00 2.811432e+00 2.192839e+00 2.489432e+00 1.643889e+00 8.845633e-01
<GCONST> 9.568068e+01
<TRANSP> 5
 0.000000e+00 1.000000e+00 0.000000e+00 0.000000e+00 0.000000e+00
 0.000000e+00 7.480635e-01 2.519365e-01 0.000000e+00 0.000000e+00
 0.000000e+00 0.000000e+00 1.604319e-01 8.395681e-01 0.000000e+00
 0.000000e+00 0.000000e+00 0.000000e+00 3.989347e-01 6.010653e-01
 0.000000e+00 0.000000e+00 0.000000e+00 0.000000e+00 0.000000e+00
<ENDHMM>
~h "ch"
<BEGINHMM>
<NUMSTATES> 5
<STATE> 2
<MEAN> 25
 7.606527e-02 -1.326192e+00 1.054156e+00 5.204672e-01 -1.500114e+00 -4.214774e-01 9.023135e-01 -1.449924e+00 -1.950865e+00 -1.373001e+00 8.014438e-01 -1.352048e+00 6.605020e-01 -1.167361e+00 -4.737089e-01 -6.842643e-02 -8.898935e-01 -1.352987e+00 -1.663754e-01 -2.977639e-01 -1.200184e+00 -4.159563e-01 8.548021e-01 2.266433e-02 9.961566e-01
<VARIANCE> 25
 3.356787e+01 3.510656e+01 5.629644e+01 3.631281e+01 2.995521e+01 5.137177e+01 5.592376e+01 3.293029e+01 4.381887e+01 4.461118e+01 4.304892e+01 2.493507e+01 2.406244e+00 2.828209e+00 4.057855e+00 2.640231e+00 2.988396e+00 4.837615e+00 5.150311e+00 4.046519e+00 4.364150e+00 3.445296e+00 4.275697e+00 2.536387e+00 1.000874e+00
<GCONST> 1.051478e+02
<STATE> 3
<MEAN> 25
 3.930113e+00 -4.339229e+00 -2.277362e+00 2.134053e+00 -1.761369e+00 -7.142167e+00 -3.835938e+00 -2.625872e+00 -5.873644e+00 -3.072425e+00 1.865730e+00 -6.865748e-01 3.932000e-01 -1.116272e+00 -5.383958e-01 -2.650179e-02 -4.158517e-01 -1.330595e+00 -3.970965e-01 2.402706e-01 -4.010832e-01 3.840324e-01 8.273438e-01 -4.773702e-03 7.773793e-01
<VARIANCE> 25
 1.970256e+01 3.043382e+01 4.472672e+01 4.876265e+01 3.373661e+01 5.931324e+01 6.411397e+01 4.466681e+01 5.298737e+01 4.660349e+01 4.617801e+01 3.287696e+01 1.201846e+00 2.406648e+00 2.541257e+00 2.721287e+00 1.550153e+00 4.763595e+00 4.422240e+00 2.972762e+00 3.258159e+00 3.501878e+00 2.985486e+00 2.118334e+00 8.511185e-01
<GCONST> 1.024181e+02
<STATE> 4
<MEAN> 25
 5.662011e+00 -6.236769e+00 -5.131601e+00 -4.277468e-01 -4.665908e+00 -1.022214e+01 -2.539963e+00 -5.200141e-02 -5.777440e+00 -2.588056e+00 2.313070e+00 -1.223039e+00 -1.406228e-01 3.139206e-01 1.859023e-01 -8.565250e-02 1.083609e-01 3.631678e-01 3.449217e-02 -1.023039e-02 3.128477e-01 2.041050e-02 -3.392340e-01 -1.436338e-01 -1.951705e-01
<VARIANCE> 25
 1.117743e+01 3.295738e+01 3.269540e+01 5.944130e+01 4.443583e+01 6.530690e+01 7.416965e+01 5.664569e+01 4.961691e+01 4.223652e+01 4.474801e+01 2.764958e+01 2.675101e-01 1.276998e+00 8.466254e-01 1.036240e+00 1.126366e+00 2.386346e+00 2.025245e+00 1.759104e+00 1.870928e+00 1.820045e+00 1.895926e+00 1.153507e+00 4.418645e-01
<GCONST> 9.275821e+01
<TRANSP> 5
 0.000000e+00 1.000000e+00 0.000000e+00 0.000000e+00 0.000000e+00
 0.000000e+00 4.660168e-01 5.339833e-01 0.000000e+00 0.000000e+00
 0.000000e+00 0.000000e+00 3.528351e-01 6.471649e-01 0.000000e+00
 0.000000e+00 0.000000e+00 0.000000e+00 7.640601e-01 2.359399e-01
 0.000000e+00 0.000000e+00 0.000000e+00 0.000000e+00 0.000000e+00
<ENDHMM>
~h "dh"
<BEGINHMM>
<NUMSTATES> 5
<STATE> 2
<MEAN> 25
 2.491189e+00 1.328480e-01 -1.386611e+00 -1.020732e+00 -7.512363e-01 -1.820662e+00 -1.173949e+00 -1.038234e+00 -2.178616e+00 -2.071006e+00 -8.524154e-01 -8.337844e-01 -2.626529e-01 6.816599e-01 6.175798e-01 1.775330e-01 3.655105e-01 7.279331e-01 1.811265e-01 1.094533e-03 3.072993e-01 -1.406422e-01 -5.466858e-01 -2.723730e-01 -3.707067e-01
<VARIANCE> 25
 2.435664e+01 3.117688e+01 3.490894e+01 4.472748e+01 3.798008e+01 5.850058e+01 5.067891e+01 3.645603e+01 4.688294e+01 3.589709e+01 3.378041e+01 2.185128e+01 6.513256e-01 9.190774e-01 8.306162e-01 9.339306e-01 1.023610e+00 1.906242e+00 1.705791e+00 1.899622e+00 2.596093e+00 1.854403e+00 1.658968e+00 1.256037e+00 4.204345e-01
<GCONST> 9.170924e+01
<STATE> 3
<MEAN> 25
 1.797745e+00 1.809660e+00 4.275732e-01 -1.059304e-01 2.031343e-01 -3.129430e-01 -1.256645e+00 -1.663663e+00 -1.940936e+00 -2.441777e+00 -2.116606e+00 -1.589579e+00 -5.494921e-02 6.553057e-01 5.408828e-01 1.996992e-01 2.711268e-01 4.682955e-01 -7.309853e-02 -3.050165e-01 2.151169e-02 -1.525295e-01 -3.696612e-01 -1.857594e-01 -2.304062e-01
<VARIANCE> 25
 2.111992e+01 3.255540e+01 3.461460e+01 3.994180e+01 3.405702e+01 5.297224e+01 4.349141e+01 3.185379e+01 3.850020e+01 2.966607e+01 3.421292e+01 2.029774e+01 9.142873e-01 8.624569e-01 7.401139e-01 8.142857e-01 9.046039e-01 1.824673e+00 2.164016e+00 2.437660e+00 2.961696e+00 1.886527e+00 1.560538e+00 1.233983e+00 4.549512e-01
<GCONST> 9.103548e+01
<STATE> 4
<MEAN> 25
 2.007403e+00 2.702909e+00 9.012358e-01 -9.026191e-02 -4.071339e-02 -1.446652e-01 -1.355207e+00 -1.932843e+00 -2.133315e+00 -2.613975e+00 -2.175072e+00 -1.366391e+00 -1.848042e-01 3.070389e-01 2.816111e-01 9.467029e-02 1.606132e-01 4.005290e-01 1.027421e-01 -4.965590e-02 2.170812e-01 1.601772e-01 -1.044959e-02 4.776171e-02 -2.351739e-01
<VARIANCE> 25
 1.716394e+01 3.278105e+01 3.173995e+01 3.568362e+01 3.459744e+01 5.064723e+01 3.998222e+01 3.107996e+01 3.580444e+01 2.817077e+01 3.085479e+01 2.016013e+01 5.134193e-01 7.268839e-01 7.520176e-01 7.600517e-01 8.977559e-01 1.590341e+00 1.538998e+00 1.633830e+00 1.861845e+00 1.371121e+00 1.357175e+00 1.078519e+00 3.073022e-01
<GCONST> 8.712628e+01
<TRANSP> 5
 0.000000e+00 1.000000e+00 0.000000e+00 0.000000e+00 0.000000e+00
 0.000000e+00 2.244300e-01 7.755699e-01 0.000000e+00 0.000000e+00
 0.000000e+00 0.000000e+00 1.506014e-01 8.493987e-01 0.000000e+00
 0.000000e+00 0.000000e+00 0.000000e+00 2.467280e-01 7.532719e-01
 0.000000e+00 0.000000e+00 0.000000e+00 0.000000e+00 0.000000e+00
<ENDHMM>
~h "eh"
<BEGINHMM>
<NUMSTATES> 5
<STATE> 2
<MEAN> 25
 1.053841e+00 3.392695e-01 -5.828916e-02 -6.063747e-01 -3.088431e-02 -8.847253e-01 -7.684765e-01 -1.192714e+00 -1.277168e+00 -8.819890e-01 -3.417148e-01 -9.571010e-01 4.268949e-01 -4.288025e-01 -3.870994e-01 1.363336e-01 -2.802710e-01 -8.400109e-01 -4.192645e-01 -3.487597e-01 -4.608875e-01 -4.127542e-02 3.004646e-01 -7.032721e-02 3.990942e-01
<VARIANCE> 25
 2.790650e+01 3.677808e+01 3.807118e+01 4.413213e+01 3.871992e+01 6.018433e+01 5.118367e+01 3.173884e+01 4.472021e+01 3.474445e+01 3.187065e+01 2.040929e+01 1.032326e+00 1.808430e+00 1.582505e+00 1.769189e+00 1.862062e+00 3.777335e+00 3.090769e+00 2.658229e+00 3.223949e+00 2.259212e+00 2.318827e+00 1.637336e+00 7.521937e-01
<GCONST> 9.802576e+01
<STATE> 3
<MEAN> 25
 3.197023e+00 -2.118218e+00 -1.976036e+00 8.507644e-01 -1.040896e+00 -5.191975e+00 -3.543007e+00 -2.882003e+00 -3.573255e+00 -8.375925e-01 1.536199e+00 -9.160380e-01 7.888060e-01 -1.293730e+00 -7.875023e-01 2.804424e-01 -5.597657e-01 -1.907858e+00 -7.953677e-01 -2.196096e-01 -6.482038e-01 2.762008e-01 8.808514e-01 -1.864888e-01 1.012396e+00
<VARIANCE> 25
 1.971334e+01 3.385326e+01 3.463865e+01 4.719626e+01 3.570095e+01 6.690326e+01 5.706207e+01 3.546125e+01 5.052865e+01 4.179561e+01 3.817211e+01 2.410788e+01 1.243334e+00 3.100642e+00 2.087007e+00 2.331536e+00 2.136405e+00 5.828323e+00 4.098454e+00 3.143307e+00 4.436612e+00 3.590643e+00 3.608041e+00 2.316598e+00 1.309657e+00
<GCONST> 1.028912e+02
<STATE> 4
<MEAN> 25
 4.678604e+00 -4.910850e+00 -3.328839e+00 5.934540e-01 -3.510282e+00 -9.761657e+00 -4.468353e+00 -1.357930e+00 -2.936728e+00 1.047352e-01 2.015435e+00 -2.410376e+00 7.809781e-03 1.968528e-02 -3.106381e-03 -2.071202e-02 6.210541e-02 1.141076e-01 -3.052545e-03 -2.660326e-02 5.919979e-02 3.449224e-02 -1.110972e-01 -8.996782e-02 -6.941501e-03
<VARIANCE> 25
 1.435143e+01 4.197340e+01 3.557054e+01 6.212679e+01 4.424235e+01 6.981976e+01 6.123553e+01 3.800767e+01 4.033957e+01 4.569476e+01 4.394178e+01 2.540397e+01 3.247505e-01 1.152757e+00 8.308346e-01 9.582733e-01 1.078615e+00 2.114077e+00 1.638070e+00 1.483539e+00 1.693046e+00 1.675234e+00 1.542207e+00 1.200879e+00 4.340978e-01
<GCONST> 9.169973e+01
<TRANSP> 5
 0.000000e+00 1.000000e+00 0.000000e+00 0.000000e+00 0.000000e+00
 0.000000e+00 1.008853e-01 8.991147e-01 0.000000e+00 0.000000e+00
 0.000000e+00 0.000000e+00 4.531007e-01 5.468994e-01 0.000000e+00
 0.000000e+00 0.000000e+00 0.000000e+00 5.989570e-01 4.010430e-01
 0.000000e+00 0.000000e+00 0.000000e+00 0.000000e+00 0.000000e+00
<ENDHMM>
~h "el"
<BEGINHMM>
<NUMSTATES> 5
<STATE> 2
<MEAN> 25
 4.144311e+00 3.160180e+00 -1.398878e+00 -1.790354e+00 4.018756e-01 -1.133660e+00 -3.041228e+00 -6.820492e-01 -3.544183e+00 -5.998494e+00 -5.393806e+00 -3.071977e+00 -5.997062e-01 5.194204e-01 4.352472e-01 3.436251e-03 1.423365e-01 1.502481e+00 7.137394e-01 -3.711651e-01 8.619574e-01 7.461907e-01 2.265636e-01 6.341390e-01 -6.428376e-01
<VARIANCE> 25
 6.361199e+00 8.387736e+00 6.048573e+00 7.869493e+00 1.566790e+01 4.144990e+01 2.382775e+01 1.242940e+01 2.338129e+01 6.772480e+01 2.810725e+01 1.304214e+01 3.845537e-01 5.218070e-01 9.759524e-01 7.274871e-01 6.145548e-01 2.013357e+00 1.448216e+00 5.256223e-01 8.275673e-01 1.847382e+00 1.424246e+00 6.447600e-01 1.488339e-01
<GCONST> 7.565118e+01
<STATE> 3
<MEAN> 25
 1.242896e+00 6.059640e+00 3.444587e+00 5.424198e-01 2.005509e+00 5.109680e+00 -5.471540e-01 -2.375073e+00 1.270836e+00 3.094802e-01 -2.155315e+00 -1.090147e+00 -4.065083e-01 4.702744e-02 3.745278e-01 3.966720e-01 4.235506e-01 5.214356e-01 2.680393e-01 5.904031e-02 8.829294e-02 1.367009e-01 1.726694e-01 1.816203e-01 -2.794320e-01
<VARIANCE> 25
 6.379301e+00 7.195579e+00 6.179100e+00 7.282843e+00 1.072192e+01 1.622973e+01 1.161780e+01 7.177018e+00 1.049412e+01 1.225099e+01 3.968802e+00 2.567287e+01 5.308972e-02 5.200748e-01 5.890825e-01 2.781953e-01 5.209493e-01 6.343532e-01 5.921464e-01 1.061097e+00 1.304145e+00 1.395601e+00 9.458571e-01 9.762940e-01 4.541873e-02
<GCONST> 6.310029e+01
<STATE> 4
<MEAN> 25
 -3.848880e+00 -1.164505e+00 -4.991924e-01 5.324032e-01 3.567485e+00 8.495916e+00 5.233778e+00 4.973746e-01 1.195721e+00 5.268516e+00 5.271816e+00 2.527955e+00 -7.554810e-02 -1.395881e-01 -5.067561e-02 7.167510e-02 -9.250604e-02 -8.337707e-02 8.744822e-02 7.190331e-02 1.519562e-02 -1.266343e-02 2.640483e-02 -1.525148e-02 4.462766e-03
<VARIANCE> 25
 2.945922e+00 7.941051e+00 4.953000e+00 3.559844e+00 3.466821e+00 4.644949e+00 4.697442e+00 5.653309e+00 1.225735e+01 9.103141e+00 2.078705e+01 5.112173e+00 1.489534e-01 9.014170e-01 5.609308e-01 5.121433e-01 4.239322e-01 5.281417e-01 5.579007e-01 1.194718e+00 1.067872e+00 6.979753e-01 1.285691e+00 6.559034e-01 9.313177e-02
<GCONST> 5.941254e+01
<TRANSP> 5
 0.000000e+00 1.000000e+00 0.000000e+00 0.000000e+00 0.000000e+00
 0.000000e+00 8.313151e-01 1.686849e-01 0.000000e+00 0.000000e+00
 0.000000e+00 0.000000e+00 8.516856e-01 1.483144e-01 0.000000e+00
 0.000000e+00 0.000000e+00 0.000000e+00 8.932163e-01 1.067838e-01
 0.000000e+00 0.000000e+00 0.000000e+00 0.000000e+00 0.000000e+00
<ENDHMM>
~h "en"
<BEGINHMM>
<NUMSTATES> 5
<STATE> 2
<MEAN> 25
 6.695913e+00 -3.830325e+00 -8.802629e+00 -7.157185e+00 -6.481170e+00 -3.854903e+00 3.218339e+00 4.576558e+00 -1.879074e+00 -3.898427e+00 7.392458e-01 2.483641e+00 -4.838068e-02 2.257508e-01 1.334965e-02 -4.394842e-02 2.014757e-01 3.449159e-01 1.052042e-01 -6.485496e-02 8.489784e-02 -8.995467e-02 -1.117980e-01 6.416067e-02 -1.721823e-01
<VARIANCE> 25
 1.015482e+01 2.127862e+01 3.444146e+01 1.783395e+01 3.340459e+01 4.489464e+01 3.881842e+01 3.539546e+01 5.352167e+01 3.400934e+01 2.010161e+01 1.562064e+01 1.709094e-01 4.425984e-01 7.595257e-01 4.878889e-01 7.923834e-01 8.803027e-01 1.195436e+00 1.051335e+00 1.002325e+00 1.145860e+00 1.106167e+00 7.768032e-01 1.308542e-01
<GCONST> 7.978461e+01
<STATE> 3
<MEAN> 25
 5.414677e+00 -1.903652e+00 -5.593823e+00 -4.787704e+00 -3.940369e+00 -3.648433e+00 -1.229250e+00 8.599042e-01 -2.736963e+00 -4.365062e+00 -7.989495e-01 2.221575e+00 -6.627308e-02 1.638159e-01 -2.533304e-02 4.261455e-01 9.399924e-01 1.798033e-01 -7.120274e-01 -1.195091e+00 -4.829230e-01 -1.060204e-01 1.272608e-01 6.229810e-02 -1.307739e-01
<VARIANCE> 25
 1.457149e+01 3.272354e+01 4.282551e+01 2.805246e+01 3.563437e+01 4.343211e+01 4.889837e+01 3.133610e+01 4.978078e+01 5.047454e+01 4.046636e+01 2.555855e+01 4.319686e-01 1.117297e+00 1.807237e+00 8.896755e-01 2.426467e+00 2.048334e+00 2.273202e+00 2.630191e+00 1.762380e+00 1.864384e+00 1.523844e+00 2.025510e+00 3.759635e-01
<GCONST> 9.313137e+01
<STATE> 4
<MEAN> 25
 5.526378e+00 -2.190034e+00 -5.947459e+00 -4.059694e+00 -1.838567e+00 -1.937303e+00 -1.271454e+00 -2.285016e+00 -6.090767e+00 -2.975829e+00 2.451993e+00 2.038610e+00 -4.210592e-01 7.736003e-01 7.097854e-01 4.259958e-01 1.082521e+00 6.791364e-01 -2.524232e-01 -5.184814e-01 -9.312825e-02 -7.848101e-03 -2.641643e-01 -4.050525e-01 -5.296569e-01
<VARIANCE> 25
 1.184049e+01 2.669338e+01 4.024450e+01 2.324231e+01 3.433044e+01 3.781071e+01 5.484789e+01 2.695871e+01 4.651512e+01 3.106395e+01 3.981781e+01 1.802106e+01 9.334156e-01 1.200984e+00 1.670444e+00 1.711726e+00 2.259702e+00 3.885260e+00 4.310966e+00 3.187670e+00 2.114002e+00 2.929881e+00 3.016224e+00 1.283498e+00 6.902351e-01
<GCONST> 9.562710e+01
<TRANSP> 5
 0.000000e+00 1.000000e+00 0.000000e+00 0.000000e+00 0.000000e+00
 0.000000e+00 7.555513e-01 2.444488e-01 0.000000e+00 0.000000e+00
 0.000000e+00 0.000000e+00 2.120247e-01 7.879753e-01 0.000000e+00
 0.000000e+00 0.000000e+00 0.000000e+00 5.776937e-01 4.223063e-01
 0.000000e+00 0.000000e+00 0.000000e+00 0.000000e+00 0.000000e+00
<ENDHMM>
~h "er"
<BEGINHMM>
<NUMSTATES> 5
<STATE> 2
<MEAN> 25
 -2.288688e-03 9.266115e-01 6.897679e-01 7.543532e-02 8.962660e-01 7.742670e-01 4.274392e-01 -2.040771e+00 -1.055969e+00 -9.014801e-01 -5.929320e-01 -1.701843e+00 1.317369e+00 -4.915377e-01 -8.186638e-01 -2.290653e-01 -1.111217e+00 -1.752019e+00 -8.352673e-01 -6.321195e-01 -1.632553e+00 -7.619711e-01 2.234355e-01 7.735676e-02 9.141939e-01
<VARIANCE> 25
 2.178330e+01 2.761825e+01 2.773697e+01 3.655136e+01 3.602344e+01 4.871741e+01 4.771951e+01 3.163638e+01 3.876583e+01 3.073800e+01 3.421095e+01 1.985146e+01 1.789032e+00 2.270159e+00 2.085353e+00 2.938747e+00 3.648152e+00 4.532394e+00 4.935715e+00 4.168018e+00 4.337054e+00 3.059840e+00 3.588225e+00 2.227108e+00 9.366553e-01
<GCONST> 1.013041e+02
<STATE> 3
<MEAN> 25
 5.292605e+00 -1.340483e+00 -3.127462e+00 -1.377203e+00 -3.957911e+00 -6.774359e+00 -2.879774e+00 -2.761445e+00 -6.987453e+00 -3.447679e+00 1.755225e+00 6.406419e-01 1.072029e+00 -1.343481e+00 -1.272601e+00 -9.176548e-01 -1.653477e+00 -1.993430e+00 8.939762e-02 8.031502e-01 -1.018054e+00 2.482916e-02 1.316104e+00 8.554742e-01 1.228858e+00
<VARIANCE> 25
 8.903006e+00 2.798721e+01 2.412744e+01 4.170437e+01 4.757963e+01 4.282033e+01 5.857885e+01 4.852943e+01 4.541755e+01 3.829231e+01 3.775434e+01 2.222178e+01 1.285681e+00 2.387130e+00 2.112275e+00 2.514881e+00 3.228347e+00 4.873591e+00 4.497136e+00 3.661946e+00 5.052242e+00 3.820888e+00 3.348573e+00 2.212272e+00 1.028947e+00
<GCONST> 1.014843e+02
<STATE> 4
<MEAN> 25
 6.597806e+00 -3.955841e+00 -6.463095e+00 -7.016490e+00 -9.231884e+00 -7.019556e+00 3.054601e+00 2.532393e+00 -7.090529e+00 -3.537837e+00 2.924954e+00 2.231889e+00 -7.032200e-02 1.142071e-01 4.130311e-04 -2.656144e-02 2.410209e-01 3.870632e-01 3.559550e-05 -5.222489e-02 1.922041e-01 -1.301758e-02 -2.091545e-01 -4.141151e-02 -1.057205e-01
<VARIANCE> 25
 5.220695e+00 2.957010e+01 2.168685e+01 2.547134e+01 3.895649e+01 4.025777e+01 5.448817e+01 4.298825e+01 4.507232e+01 3.601698e+01 3.466584e+01 2.311936e+01 2.538534e-01 1.276697e+00 8.512352e-01 9.038983e-01 1.505666e+00 2.128461e+00 2.308522e+00 1.906527e+00 1.707438e+00 1.847974e+00 1.763362e+00 1.223988e+00 5.054273e-01
<GCONST> 8.898971e+01
<TRANSP> 5
 0.000000e+00 1.000000e+00 0.000000e+00 0.000000e+00 0.000000e+00
 0.000000e+00 4.544310e-01 5.455690e-01 0.000000e+00 0.000000e+00
 0.000000e+00 0.000000e+00 4.957882e-01 5.042118e-01 0.000000e+00
 0.000000e+00 0.000000e+00 0.000000e+00 8.720596e-01 1.279404e-01
 0.000000e+00 0.000000e+00 0.000000e+00 0.000000e+00 0.000000e+00
<ENDHMM>
~h "ey"
<BEGINHMM>
<NUMSTATES> 5
<STATE> 2
<MEAN> 25
 7.473969e-02 5.023618e-01 7.261193e-01 6.546095e-01 1.327903e+00 9.657566e-01 1.467496e-01 -2.288761e+00 -1.709969e+00 -7.311974e-01 1.616046e-01 -1.061712e+00 8.942948e-01 -8.332642e-01 -5.305586e-01 7.959687e-01 1.213323e-02 -1.617005e+00 -1.647271e+00 -1.352739e+00 -1.312420e+00 -4.254339e-01 1.533388e-01 -3.715859e-01 8.152742e-01
<VARIANCE> 25
 2.245681e+01 3.408090e+01 3.130447e+01 3.332959e+01 2.564952e+01 5.173202e+01 4.150448e+01 2.991284e+01 4.112823e+01 3.350663e+01 2.980636e+01 1.957193e+01 1.565580e+00 2.793039e+00 2.289474e+00 1.960345e+00 1.773076e+00 4.279407e+00 4.931960e+00 3.515398e+00 4.307061e+00 3.067389e+00 3.910006e+00 2.020171e+00 1.082850e+00
<GCONST> 1.000331e+02
<STATE> 3
<MEAN> 25
 3.814459e+00 -2.805267e+00 -8.591176e-01 4.831203e+00 1.591962e+00 -7.577164e+00 -8.671027e+00 -6.554421e+00 -5.404370e+00 -1.942388e+00 3.121507e-01 -2.481621e+00 6.452713e-01 -1.269359e+00 -2.450571e-01 1.088064e+00 -2.683254e-01 -2.711507e+00 -1.976544e+00 -1.603272e-01 -1.048505e-01 1.030918e-01 2.963126e-02 -5.200388e-01 9.368426e-01
<VARIANCE> 25
 1.040505e+01 2.434380e+01 2.427482e+01 3.713856e+01 2.422502e+01 5.601599e+01 5.316788e+01 3.714969e+01 3.797276e+01 3.174605e+01 3.327656e+01 2.212617e+01 1.034783e+00 2.615473e+00 1.662290e+00 2.485294e+00 1.676896e+00 5.694688e+00 4.819819e+00 3.422281e+00 3.587988e+00 3.565233e+00 3.047061e+00 1.956453e+00 9.838893e-01
<GCONST> 9.857491e+01
<STATE> 4
<MEAN> 25
 3.798921e+00 -5.015054e+00 6.145656e-01 8.533087e+00 1.964477e-01 -1.429710e+01 -1.128068e+01 -3.539704e+00 -2.128926e+00 -2.217133e+00 -3.250180e+00 -4.517475e+00 -1.102761e-01 2.968638e-01 7.688415e-02 -1.222152e-01 3.509371e-02 3.884828e-01 2.490882e-01 1.874042e-01 2.413381e-01 -4.808677e-02 -2.661541e-01 4.455869e-02 -2.275909e-01
<VARIANCE> 25
 5.068307e+00 2.578467e+01 1.820630e+01 2.773859e+01 1.756815e+01 4.928062e+01 3.006650e+01 2.603943e+01 2.775889e+01 3.242725e+01 2.957130e+01 1.690747e+01 2.021844e-01 7.918200e-01 6.427046e-01 8.471909e-01 7.796713e-01 2.316275e+00 1.278606e+00 1.282248e+00 1.295950e+00 1.296232e+00 1.190166e+00 9.905128e-01 2.838455e-01
<GCONST> 8.155757e+01
<TRANSP> 5
 0.000000e+00 1.000000e+00 0.000000e+00 0.000000e+00 0.000000e+00
 0.000000e+00 4.135023e-01 5.864977e-01 0.000000e+00 0.000000e+00
 0.000000e+00 0.000000e+00 5.177661e-01 4.822339e-01 0.000000e+00
 0.000000e+00 0.000000e+00 0.000000e+00 8.787388e-01 1.212612e-01
 0.000000e+00 0.000000e+00 0.000000e+00 0.000000e+00 0.000000e+00
<ENDHMM>
~h "hh"
<BEGINHMM>
<NUMSTATES> 5
<STATE> 2
<MEAN> 25
 1.001352e+00 2.730451e+00 6.621211e-01 5.152724e-01 1.433302e+00 1.918108e+00 -4.123855e-01 -1.474649e+00 -4.012027e-01 -1.220734e+00 -1.867345e+00 -7.761031e-01 -5.220879e-01 1.921247e-01 3.199370e-01 4.074075e-02 2.240813e-01 7.093940e-01 5.398882e-01 4.203253e-01 6.415888e-01 3.646669e-01 -2.489911e-02 3.619820e-02 -4.153756e-01
<VARIANCE> 25
 1.229241e+01 1.266626e+01 1.764019e+01 2.278910e+01 1.965357e+01 2.691951e+01 2.747936e+01 1.964379e+01 2.976739e+01 2.612423e+01 2.578909e+01 1.929968e+01 2.172569e-01 4.398856e-01 5.081128e-01 6.090664e-01 6.720028e-01 9.849265e-01 1.010179e+00 9.704438e-01 1.169522e+00 1.035473e+00 1.085312e+00 8.971864e-01 1.229618e-01
<GCONST> 7.653554e+01
<STATE> 3
<MEAN> 25
 -1.187377e+00 1.664950e+00 1.421199e+00 5.866626e-01 1.986159e+00 3.188875e+00 1.470373e+00 7.555504e-02 1.475629e+00 7.503349e-01 -9.357947e-01 -1.220014e+00 -2.950115e-01 -8.390677e-02 2.348181e-02 6.572410e-02 6.050339e-02 3.000632e-01 3.744332e-01 3.231688e-01 4.060509e-01 3.560863e-01 1.747874e-01 8.744077e-02 -1.995050e-01
<VARIANCE> 25
 1.615667e+01 1.884181e+01 2.303371e+01 2.863277e+01 1.931303e+01 3.038978e+01 2.852076e+01 2.096308e+01 2.969676e+01 2.736462e+01 2.754680e+01 2.124386e+01 2.661033e-01 6.060250e-01 7.335322e-01 8.164992e-01 7.627400e-01 1.132191e+00 1.190352e+00 1.156951e+00 1.359978e+00 1.286173e+00 1.358127e+00 1.122911e+00 1.658973e-01
<GCONST> 8.101820e+01
<STATE> 4
<MEAN> 25
 -3.962459e+00 1.958097e+00 1.878471e+00 4.414500e-01 1.569454e+00 5.186645e+00 2.764623e+00 1.954325e+00 4.522477e+00 2.745241e+00 -1.175987e-01 1.440941e+00 -3.340353e-02 -3.370495e-02 1.709162e-03 1.830896e-02 -3.766704e-02 -3.497384e-02 2.908561e-02 2.226041e-02 1.327168e-02 1.984213e-02 3.071603e-02 9.038380e-03 -1.185074e-02
<VARIANCE> 25
 5.673294e+00 9.941138e+00 8.912276e+00 8.788621e+00 7.894718e+00 1.521196e+01 1.270542e+01 1.008883e+01 1.574646e+01 1.115300e+01 1.059867e+01 9.313689e+00 1.019837e-01 2.234831e-01 2.938885e-01 4.014163e-01 4.432577e-01 5.931906e-01 6.588365e-01 6.953038e-01 7.463713e-01 7.115055e-01 7.224371e-01 6.411523e-01 5.216477e-02
<GCONST> 6.135146e+01
<TRANSP> 5
 0.000000e+00 1.000000e+00 0.000000e+00 0.000000e+00 0.000000e+00
 0.000000e+00 6.568501e-01 3.431498e-01 0.000000e+00 0.000000e+00
 0.000000e+00 0.000000e+00 2.388946e-01 7.611054e-01 0.000000e+00
 0.000000e+00 0.000000e+00 0.000000e+00 9.011431e-01 9.885696e-02
 0.000000e+00 0.000000e+00 0.000000e+00 0.000000e+00 0.000000e+00
<ENDHMM>
~h "ih"
<BEGINHMM>
<NUMSTATES> 5
<STATE> 2
<MEAN> 25
 1.216059e-01 6.599825e-01 5.486409e-01 -9.801793e-01 7.184398e-01 3.155795e-01 -2.724469e-01 -6.734838e-01 -4.466867e-01 -5.805485e-01 -2.727707e-01 -8.690270e-01 1.632594e-02 -8.553282e-02 -2.390317e-02 1.340132e-01 2.019965e-02 -1.897290e-01 -1.299467e-01 -2.098089e-01 -5.627898e-02 7.194031e-02 8.057711e-02 -9.570626e-02 6.209578e-02
<VARIANCE> 25
 3.029396e+01 3.418244e+01 3.634800e+01 4.557686e+01 3.582879e+01 5.704752e+01 4.547005e+01 3.040139e+01 4.008229e+01 3.059234e+01 3.230978e+01 2.131440e+01 7.589489e-01 1.105884e+00 1.308945e+00 1.404600e+00 1.336769e+00 2.458594e+00 2.312540e+00 1.883571e+00 2.225708e+00 1.824105e+00 1.813343e+00 1.303324e+00 4.957715e-01
<GCONST> 9.345751e+01
<STATE> 3
<MEAN> 25
 1.278080e+00 -2.788366e-01 -4.131353e-01 3.101933e-01 -1.186130e-02 -1.458281e+00 -1.425344e+00 -1.688071e+00 -1.653399e+00 -1.029865e+00 -7.834069e-02 -9.384266e-01 6.411931e-01 -7.095957e-01 -4.124395e-01 4.400979e-01 -2.137670e-01 -1.315986e+00 -9.632693e-01 -7.209556e-01 -8.816773e-01 -2.448469e-01 3.311029e-01 -2.243772e-01 6.765357e-01
<VARIANCE> 25
 2.230144e+01 3.380587e+01 3.263214e+01 4.270980e+01 3.271524e+01 5.695134e+01 5.003402e+01 3.320507e+01 4.538409e+01 3.649802e+01 3.250023e+01 2.237927e+01 1.453143e+00 2.663519e+00 2.107790e+00 2.377913e+00 2.025740e+00 5.823571e+00 4.640330e+00 3.140720e+00 3.878776e+00 2.776749e+00 3.101058e+00 1.962735e+00 1.273157e+00
<GCONST> 1.012959e+02
<STATE> 4
<MEAN> 25
 3.303009e+00 -3.344706e+00 -1.486970e+00 2.922251e+00 -1.913412e-01 -7.072616e+00 -6.152536e+00 -3.675679e+00 -3.660192e+00 -1.334845e+00 4.592719e-01 -2.387810e+00 1.675314e-01 -9.897348e-02 -6.551034e-02 1.150477e-01 4.084726e-02 -2.948653e-01 -3.097429e-01 -3.067269e-01 -2.504107e-01 -6.104297e-02 4.916874e-02 -1.219407e-01 1.521500e-01
<VARIANCE> 25
 1.607372e+01 3.650422e+01 2.916320e+01 5.271860e+01 3.098855e+01 7.711391e+01 6.207347e+01 3.501724e+01 4.507939e+01 3.382082e+01 3.697088e+01 2.504758e+01 9.630384e-01 2.073168e+00 1.463325e+00 1.728368e+00 1.554077e+00 4.475798e+00 3.304077e+00 2.483066e+00 3.022895e+00 2.446621e+00 2.688494e+00 1.702518e+00 9.737079e-01
<GCONST> 9.844180e+01
<TRANSP> 5
 0.000000e+00 1.000000e+00 0.000000e+00 0.000000e+00 0.000000e+00
 0.000000e+00 1.964515e-01 8.035485e-01 0.000000e+00 0.000000e+00
 0.000000e+00 0.000000e+00 2.748373e-01 7.251626e-01 0.000000e+00
 0.000000e+00 0.000000e+00 0.000000e+00 4.692250e-01 5.307750e-01
 0.000000e+00 0.000000e+00 0.000000e+00 0.000000e+00 0.000000e+00
<ENDHMM>
~h "iy"
<BEGINHMM>
<NUMSTATES> 5
<STATE> 2
<MEAN> 25
 4.394766e-01 -6.376449e-01 -1.986239e-01 4.921008e-01 8.459481e-01 -7.060857e-02 -1.552991e-01 -1.232762e+00 -7.375001e-01 -1.660139e-01 3.292058e-01 -8.803330e-01 5.590907e-01 -4.250952e-01 -1.428732e-01 7.660309e-01 7.587911e-02 -1.106958e+00 -1.028984e+00 -7.803994e-01 -8.329325e-01 -5.055968e-01 -2.555960e-01 -5.117959e-01 4.662308e-01
<VARIANCE> 25
 2.605162e+01 3.890289e+01 3.627960e+01 4.299693e+01 3.348395e+01 5.173707e+01 4.820122e+01 3.093360e+01 3.913461e+01 3.205726e+01 3.319348e+01 2.010024e+01 1.196507e+00 2.338021e+00 2.023300e+00 2.070639e+00 1.749543e+00 3.626799e+00 3.688538e+00 2.979235e+00 3.330940e+00 2.896391e+00 3.329647e+00 1.839488e+00 8.245680e-01
<GCONST> 9.921462e+01
<STATE> 3
<MEAN> 25
 2.992394e+00 -2.297627e+00 -3.802464e-01 4.770459e+00 1.650423e+00 -5.861969e+00 -6.089383e+00 -4.459296e+00 -4.353920e+00 -2.809414e+00 -1.327903e+00 -3.085838e+00 7.003757e-01 -7.591926e-01 5.285914e-03 1.310585e+00 -3.642863e-02 -2.427088e+00 -1.766668e+00 -1.585090e-01 -5.934704e-01 -7.385677e-01 -4.342538e-01 -6.299257e-01 7.110810e-01
<VARIANCE> 25
 1.402515e+01 2.681274e+01 3.422061e+01 5.185228e+01 3.131459e+01 5.656288e+01 5.533878e+01 3.399236e+01 3.733742e+01 3.478052e+01 3.607044e+01 2.634250e+01 1.288392e+00 3.079161e+00 1.714743e+00 3.032652e+00 1.729844e+00 6.313161e+00 5.212185e+00 3.775013e+00 3.980660e+00 3.819007e+00 3.879032e+00 2.226003e+00 9.781482e-01
<GCONST> 1.016546e+02
<STATE> 4
<MEAN> 25
 2.904975e+00 -3.461134e+00 2.628733e+00 1.004050e+01 8.127050e-01 -1.330211e+01 -9.172608e+00 -1.435372e+00 -3.406694e+00 -5.916676e+00 -5.162519e+00 -4.815294e+00 -1.254914e-01 3.138798e-01 1.202779e-01 -1.893191e-01 -6.845395e-04 4.039534e-01 2.297914e-01 1.373141e-01 2.081641e-01 -2.023195e-02 -1.859783e-01 1.147256e-01 -2.073897e-01
<VARIANCE> 25
 6.084320e+00 2.217926e+01 2.443277e+01 3.952604e+01 1.968633e+01 4.830963e+01 3.033851e+01 2.703095e+01 2.922016e+01 3.233873e+01 2.808071e+01 1.938289e+01 2.488108e-01 8.293605e-01 8.200837e-01 1.102457e+00 9.700197e-01 2.683682e+00 1.669686e+00 1.706701e+00 1.541909e+00 1.548989e+00 1.382981e+00 1.153073e+00 2.835739e-01
<GCONST> 8.484422e+01
<TRANSP> 5
 0.000000e+00 1.000000e+00 0.000000e+00 0.000000e+00 0.000000e+00
 0.000000e+00 2.993615e-01 7.006385e-01 0.000000e+00 0.000000e+00
 0.000000e+00 0.000000e+00 4.864435e-01 5.135564e-01 0.000000e+00
 0.000000e+00 0.000000e+00 0.000000e+00 8.533707e-01 1.466293e-01
 0.000000e+00 0.000000e+00 0.000000e+00 0.000000e+00 0.000000e+00
<ENDHMM>
~h "jh"
<BEGINHMM>
<NUMSTATES> 5
<STATE> 2
<MEAN> 25
 1.222850e+00 3.326635e+00 1.116375e+00 7.258223e-01 1.775800e+00 1.491175e+00 -2.223568e+00 -2.736650e+00 -9.955973e-01 -1.993297e+00 -2.676312e+00 -1.092153e+00 -4.371994e-01 3.807526e-01 4.940535e-01 1.287457e-01 2.777598e-01 7.259895e-01 4.779091e-01 2.751596e-01 4.113356e-01 1.287149e-01 -1.747749e-01 -3.655114e-02 -3.928084e-01
<VARIANCE> 25
 1.702804e+01 1.509303e+01 1.770166e+01 2.503827e+01 1.930870e+01 3.255913e+01 4.705754e+01 3.711230e+01 3.905888e+01 2.662712e+01 2.147712e+01 1.737096e+01 3.070437e-01 4.596424e-01 4.919179e-01 6.479831e-01 6.642008e-01 1.094606e+00 1.446580e+00 1.241119e+00 1.199924e+00 1.060675e+00 1.013259e+00 9.581723e-01 1.828092e-01
<GCONST> 8.004513e+01
<STATE> 3
<MEAN> 25
 -7.136939e-01 2.891481e+00 2.617093e+00 3.741564e-02 2.235925e+00 3.216038e+00 4.633968e-01 -1.270667e+00 -3.222520e-01 -1.120129e+00 -1.868695e+00 -1.244929e+00 -4.393647e-01 -2.117503e-01 5.134783e-01 2.856339e-03 -1.453495e-01 2.506309e-01 5.750344e-01 5.648550e-02 1.539560e-01 3.978531e-01 4.552215e-01 -1.375150e-01 -1.227552e-02
<VARIANCE> 25
 1.884871e+01 2.256371e+01 2.797817e+01 3.557767e+01 2.408257e+01 3.814737e+01 3.984058e+01 2.710254e+01 3.474205e+01 2.808498e+01 2.171576e+01 1.758156e+01 1.058946e+00 1.230838e+00 1.788114e+00 1.523530e+00 1.471780e+00 1.742990e+00 3.156880e+00 2.544689e+00 2.233866e+00 1.783792e+00 1.999591e+00 1.308608e+00 3.140388e-01
<GCONST> 9.101736e+01
<STATE> 4
<MEAN> 25
 -1.924717e+00 -2.197611e+00 5.899591e+00 2.280641e+00 -8.811734e-01 2.091655e+00 1.748760e+00 -2.963949e+00 -1.760265e+00 3.431844e-01 2.348754e+00 -3.042030e+00 1.644922e-01 -9.754670e-01 -7.063170e-02 1.428339e-01 -5.218551e-01 -9.402036e-01 -3.141132e-01 -4.632348e-01 -5.737689e-01 1.184718e-01 6.781085e-01 -7.272035e-02 6.116277e-01
<VARIANCE> 25
 2.469883e+01 3.207859e+01 5.110806e+01 4.260377e+01 2.556682e+01 5.183731e+01 6.838657e+01 4.110329e+01 3.263397e+01 2.936462e+01 2.953328e+01 2.180809e+01 2.904219e+00 2.992249e+00 4.964410e+00 2.691214e+00 2.734352e+00 4.173518e+00 7.523328e+00 4.315072e+00 3.450456e+00 2.606562e+00 3.742579e+00 2.591481e+00 7.434518e-01
<GCONST> 1.036127e+02
<TRANSP> 5
 0.000000e+00 1.000000e+00 0.000000e+00 0.000000e+00 0.000000e+00
 0.000000e+00 7.175308e-01 2.824692e-01 0.000000e+00 0.000000e+00
 0.000000e+00 0.000000e+00 3.621342e-01 6.378658e-01 0.000000e+00
 0.000000e+00 0.000000e+00 0.000000e+00 6.542341e-01 3.457659e-01
 0.000000e+00 0.000000e+00 0.000000e+00 0.000000e+00 0.000000e+00
<ENDHMM>
~h "ng"
<BEGINHMM>
<NUMSTATES> 5
<STATE> 2
<MEAN> 25
 9.258915e-02 2.448934e-01 9.277111e-01 -5.023621e-01 1.519814e+00 -7.704578e-01 -1.299620e+00 -3.930238e+00 -2.592235e+00 -4.471103e-01 4.059376e-01 -2.019374e+00 1.134473e+00 -7.326730e-01 -6.746003e-01 5.592676e-01 -3.190434e-01 -1.583689e+00 -1.524252e+00 -1.191956e+00 -1.479545e+00 -4.543271e-01 3.250895e-01 2.500395e-02 8.056140e-01
<VARIANCE> 25
 2.707253e+01 2.432880e+01 3.195492e+01 4.341130e+01 3.864979e+01 4.585561e+01 4.911422e+01 3.710354e+01 4.532316e+01 3.447974e+01 3.107587e+01 2.231402e+01 2.237265e+00 2.669183e+00 2.397475e+00 3.048229e+00 2.779649e+00 5.303912e+00 6.001246e+00 4.108175e+00 5.316218e+00 3.751909e+00 4.338655e+00 2.599579e+00 1.262770e+00
<GCONST> 1.038769e+02
<STATE> 3
<MEAN> 25
 4.795314e+00 -3.206434e+00 -2.888191e+00 1.526944e+00 -6.293983e-01 -7.573691e+00 -6.642569e+00 -5.692212e+00 -6.904982e+00 -1.891162e+00 2.590329e+00 -5.689566e-01 7.136913e-01 -1.418795e+00 -8.617637e-01 3.199928e-01 -4.687623e-01 -1.949738e+00 -8.591592e-01 2.498098e-01 -2.542111e-01 5.134252e-01 8.596541e-01 4.701674e-02 9.619052e-01
<VARIANCE> 25
 1.017388e+01 2.342977e+01 2.508946e+01 3.780045e+01 3.583635e+01 4.705387e+01 6.020229e+01 4.435152e+01 5.073796e+01 3.980839e+01 4.047681e+01 2.829176e+01 1.200158e+00 2.577833e+00 2.266876e+00 3.283537e+00 2.444736e+00 5.934473e+00 4.902315e+00 3.601164e+00 4.436313e+00 3.876870e+00 3.567050e+00 2.807699e+00 1.020942e+00
<GCONST> 1.021018e+02
<STATE> 4
<MEAN> 25
 4.810763e+00 -5.866834e+00 -2.670947e+00 4.267984e+00 -1.304163e+00 -1.194303e+01 -7.263870e+00 -2.535063e+00 -4.100057e+00 -1.128382e+00 -6.145272e-02 -3.297456e+00 -1.256808e-01 4.143442e-01 1.474908e-01 -8.538464e-02 5.152309e-02 4.277390e-01 2.614848e-01 3.300740e-01 3.615426e-01 -2.359658e-01 -5.913690e-01 -2.688095e-02 -2.951147e-01
<VARIANCE> 25
 7.019020e+00 2.883514e+01 2.686203e+01 5.299138e+01 2.562813e+01 5.708447e+01 5.231215e+01 3.410058e+01 4.541481e+01 3.958970e+01 5.254075e+01 3.102713e+01 2.719444e-01 1.316184e+00 8.468345e-01 1.403623e+00 1.145907e+00 2.909164e+00 1.725087e+00 1.665325e+00 1.873890e+00 1.840023e+00 1.779993e+00 1.335689e+00 4.140337e-01
<GCONST> 9.081039e+01
<TRANSP> 5
 0.000000e+00 1.000000e+00 0.000000e+00 0.000000e+00 0.000000e+00
 0.000000e+00 3.345906e-01 6.654094e-01 0.000000e+00 0.000000e+00
 0.000000e+00 0.000000e+00 4.415647e-01 5.584353e-01 0.000000e+00
 0.000000e+00 0.000000e+00 0.000000e+00 8.083891e-01 1.916109e-01
 0.000000e+00 0.000000e+00 0.000000e+00 0.000000e+00 0.000000e+00
<ENDHMM>
~h "ow"
<BEGINHMM>
<NUMSTATES> 5
<STATE> 2
<MEAN> 25
 2.851137e+00 -4.265892e-01 -9.635026e-01 1.583564e+00 6.671247e-01 -3.314856e+00 -3.837656e+00 -2.807223e+00 -2.026848e+00 -1.473639e+00 -7.796950e-01 -1.418874e+00 -2.454653e-01 5.707539e-01 4.869989e-01 1.855016e-01 2.594377e-01 5.449451e-01 9.589579e-02 7.727264e-02 3.166192e-01 -1.153848e-01 -4.694792e-01 -9.058663e-02 -3.920366e-01
<VARIANCE> 25
 1.795307e+01 2.748753e+01 2.723949e+01 4.368452e+01 2.650500e+01 6.064452e+01 4.898067e+01 2.629302e+01 3.267764e+01 2.932232e+01 3.154185e+01 2.298694e+01 4.412229e-01 7.170539e-01 7.665961e-01 1.014051e+00 1.123945e+00 2.244910e+00 1.591401e+00 1.412533e+00 1.758425e+00 1.577625e+00 1.384088e+00 1.120935e+00 3.255056e-01
<GCONST> 8.789448e+01
<STATE> 3
<MEAN> 25
 1.760062e+00 1.717887e+00 9.387819e-01 1.515208e+00 6.744787e-01 -1.648172e+00 -2.827218e+00 -2.050540e+00 -1.363788e+00 -2.502697e+00 -2.783481e+00 -1.839809e+00 -3.256152e-01 4.255725e-01 3.676028e-01 -4.491995e-02 6.414893e-02 6.234701e-01 3.982083e-01 3.043934e-01 4.917016e-01 1.862051e-01 -1.837125e-01 -3.366821e-03 -3.745165e-01
<VARIANCE> 25
 1.745039e+01 2.340217e+01 2.285196e+01 4.555724e+01 3.282550e+01 5.766871e+01 4.127369e+01 2.497482e+01 3.248268e+01 2.845019e+01 2.898605e+01 2.122845e+01 3.633390e-01 4.970731e-01 6.087450e-01 8.616120e-01 9.957880e-01 1.848413e+00 1.354623e+00 1.299595e+00 1.477505e+00 1.319316e+00 1.136291e+00 9.939886e-01 2.231076e-01
<GCONST> 8.475021e+01
<STATE> 4
<MEAN> 25
 -8.700571e-01 3.003304e+00 2.401749e+00 1.280008e+00 1.272642e+00 2.323734e+00 9.015156e-02 -1.079197e-01 1.450924e+00 -4.956374e-01 -2.427695e+00 -1.016694e+00 -2.079592e-01 2.208151e-02 7.356195e-02 -3.667964e-02 6.706701e-03 2.155771e-01 2.226531e-01 1.282998e-01 1.918463e-01 1.981631e-01 1.117761e-01 5.037403e-02 -1.487753e-01
<VARIANCE> 25
 1.508001e+01 1.362730e+01 1.216968e+01 2.011410e+01 2.177001e+01 3.678600e+01 2.345612e+01 1.785963e+01 2.584701e+01 2.111794e+01 2.005354e+01 1.572857e+01 2.102704e-01 2.954487e-01 3.910062e-01 5.207472e-01 6.559073e-01 8.689939e-01 8.720041e-01 8.357519e-01 9.570547e-01 8.616743e-01 8.900432e-01 7.578404e-01 9.331232e-02
<GCONST> 7.334525e+01
<TRANSP> 5
 0.000000e+00 1.000000e+00 0.000000e+00 0.000000e+00 0.000000e+00
 0.000000e+00 3.764274e-01 6.235726e-01 0.000000e+00 0.000000e+00
 0.000000e+00 0.000000e+00 2.749571e-01 7.250429e-01 0.000000e+00
 0.000000e+00 0.000000e+00 0.000000e+00 7.629270e-01 2.370730e-01
 0.000000e+00 0.000000e+00 0.000000e+00 0.000000e+00 0.000000e+00
<ENDHMM>
~h "oy"
<BEGINHMM>
<NUMSTATES> 5
<STATE> 2
<MEAN> 25
 -3.285070e+00 2.112172e+00 4.357285e+00 -1.357654e+00 3.040709e+00 3.059068e+00 1.089142e+00 -1.424630e+00 1.259964e-01 3.690902e-01 9.114497e-01 -1.112175e+00 6.911972e-01 -7.368283e-01 -8.981211e-01 -5.748098e-01 -7.875302e-01 -1.133117e+00 -1.643159e-01 -9.599210e-02 -8.627959e-01 -3.908032e-01 2.402324e-01 1.185299e-01 7.304196e-01
<VARIANCE> 25
 3.594739e+01 2.851486e+01 3.847635e+01 5.073882e+01 3.921943e+01 3.809710e+01 3.320957e+01 2.801393e+01 3.897448e+01 2.690719e+01 2.928967e+01 1.790819e+01 3.797120e+00 2.704446e+00 4.304922e+00 3.848382e+00 4.870712e+00 5.384029e+00 4.613193e+00 4.039311e+00 6.539397e+00 3.171164e+00 3.389065e+00 2.122076e+00 1.596446e+00
<GCONST> 1.046197e+02
<STATE> 3
<MEAN> 25
 6.175112e+00 -1.026040e+00 -4.110026e+00 -3.609801e+00 -6.914653e+00 -8.592814e+00 -1.380828e+00 4.947655e-01 -5.497837e+00 -4.350221e+00 8.483949e-01 1.655903e+00 9.540469e-01 -1.404036e+00 -1.243098e+00 -1.185486e+00 -1.732840e+00 -1.774418e+00 2.791992e-01 1.243546e+00 -4.050841e-01 5.401587e-02 8.346295e-01 6.871548e-01 1.317828e+00
<VARIANCE> 25
 8.070256e+00 2.950210e+01 2.738179e+01 3.588704e+01 6.411918e+01 5.282460e+01 5.403954e+01 6.393230e+01 4.240768e+01 3.750221e+01 2.867855e+01 2.493774e+01 1.474486e+00 2.634213e+00 2.270386e+00 2.592024e+00 3.649891e+00 9.006269e+00 5.124077e+00 4.520090e+00 3.983253e+00 3.263596e+00 2.808759e+00 1.736883e+00 9.444417e-01
<GCONST> 1.023863e+02
<STATE> 4
<MEAN> 25
 6.677951e+00 -7.058469e+00 -7.004476e+00 -5.901594e+00 -8.830352e+00 -7.180819e+00 3.436923e-01 3.045078e+00 -3.572434e+00 -1.105452e+00 2.380134e+00 1.648415e+00 -8.831301e-02 -5.473576e-02 8.148093e-03 4.379770e-01 5.885267e-01 1.618807e-01 -3.558372e-01 -3.934226e-01 1.589143e-01 1.534826e-01 -1.480748e-01 -2.755643e-01 -9.835346e-02
<VARIANCE> 25
 7.250649e+00 2.577306e+01 2.488738e+01 4.929673e+01 5.393181e+01 5.213612e+01 6.688750e+01 5.423545e+01 3.839468e+01 4.093690e+01 2.789802e+01 2.576167e+01 3.473928e-01 1.525412e+00 1.150522e+00 1.430296e+00 1.463932e+00 3.306771e+00 2.861902e+00 2.007628e+00 1.859103e+00 2.466743e+00 2.198578e+00 1.351077e+00 5.803551e-01
<GCONST> 9.362106e+01
<TRANSP> 5
 0.000000e+00 1.000000e+00 0.000000e+00 0.000000e+00 0.000000e+00
 0.000000e+00 6.033518e-01 3.966482e-01 0.000000e+00 0.000000e+00
 0.000000e+00 0.000000e+00 6.556341e-01 3.443659e-01 0.000000e+00
 0.000000e+00 0.000000e+00 0.000000e+00 8.817359e-01 1.182641e-01
 0.000000e+00 0.000000e+00 0.000000e+00 0.000000e+00 0.000000e+00
<ENDHMM>
~h "sh"
<BEGINHMM>
<NUMSTATES> 5
<STATE> 2
<MEAN> 25
 7.235787e-01 -9.769419e-01 -6.410635e-02 1.024659e-01 -8.302283e-01 -9.483441e-02 4.794973e-01 -7.182870e-01 -1.282566e+00 -3.478693e-01 9.385098e-01 -8.614430e-01 -6.094860e-01 -5.699615e-01 6.070402e-01 4.760870e-01 -5.209268e-02 1.817784e-01 5.246723e-01 4.173993e-01 4.248137e-01 4.357523e-01 6.125994e-01 5.590802e-03 -2.561489e-02
<VARIANCE> 25
 2.449112e+01 4.114419e+01 4.136000e+01 4.669332e+01 2.716624e+01 4.460545e+01 3.561406e+01 2.677251e+01 3.632393e+01 2.969766e+01 4.126114e+01 2.520770e+01 7.197676e-01 1.959041e+00 1.128146e+00 1.110539e+00 9.555392e-01 1.452393e+00 1.730769e+00 1.355968e+00 1.536906e+00 1.342877e+00 2.026533e+00 1.115473e+00 3.249578e-01
<GCONST> 9.048479e+01
<STATE> 3
<MEAN> 25
 -8.212371e-01 -3.642481e+00 1.420632e+00 2.819207e+00 -7.501502e-01 -9.763260e-01 1.268818e+00 1.043767e-01 -1.028421e+00 9.295281e-01 3.270849e+00 -8.536892e-01 -5.211430e-01 -1.095572e+00 6.928864e-01 8.874784e-01 -5.555858e-02 -3.518526e-01 2.661840e-01 2.948959e-01 8.761898e-02 1.486969e-01 5.688449e-01 -9.988083e-02 2.634058e-01
<VARIANCE> 25
 2.986241e+01 4.749881e+01 4.318732e+01 5.106965e+01 2.904237e+01 4.267191e+01 4.140553e+01 2.890659e+01 3.241520e+01 3.102502e+01 4.118988e+01 2.225222e+01 5.106171e-01 2.639944e+00 9.879363e-01 1.671356e+00 9.701137e-01 1.695186e+00 1.411752e+00 1.362250e+00 1.656354e+00 1.256742e+00 1.734038e+00 1.035049e+00 4.214587e-01
<GCONST> 9.125234e+01
<STATE> 4
<MEAN> 25
 -6.302429e+00 -1.168039e+01 7.292271e+00 8.722912e+00 -6.647930e-01 -1.161587e+00 4.425192e+00 1.497696e+00 7.987654e-01 1.735458e+00 6.817864e+00 -1.933467e+00 -1.992599e-01 -2.745062e-01 1.221701e-01 1.489423e-01 1.650332e-01 1.092694e-01 3.106364e-03 -3.545525e-02 2.254689e-01 1.130164e-01 3.414909e-02 -1.503116e-02 4.228979e-02
<VARIANCE> 25
 2.277710e+01 4.501579e+01 3.137334e+01 3.759271e+01 2.199080e+01 2.308746e+01 3.078121e+01 2.851686e+01 2.676120e+01 2.384494e+01 3.301669e+01 1.888654e+01 4.186552e-01 9.635072e-01 9.450930e-01 8.346239e-01 8.408658e-01 8.585625e-01 1.168725e+00 1.318378e+00 1.222645e+00 1.211515e+00 1.314083e+00 9.968536e-01 2.349596e-01
<GCONST> 8.402966e+01
<TRANSP> 5
 0.000000e+00 1.000000e+00 0.000000e+00 0.000000e+00 0.000000e+00
 0.000000e+00 3.373011e-01 6.626989e-01 0.000000e+00 0.000000e+00
 0.000000e+00 0.000000e+00 2.823050e-01 7.176951e-01 0.000000e+00
 0.000000e+00 0.000000e+00 0.000000e+00 7.651960e-01 2.348040e-01
 0.000000e+00 0.000000e+00 0.000000e+00 0.000000e+00 0.000000e+00
<ENDHMM>
~h "sp"
<BEGINHMM>
<NUMSTATES> 3
<STATE> 2
~s "silst"
<TRANSP> 3
 0.000000e+00 1.944246e-01 8.055754e-01
 0.000000e+00 7.991256e-01 2.008744e-01
 0.000000e+00 0.000000e+00 0.000000e+00
<ENDHMM>
~h "th"
<BEGINHMM>
<NUMSTATES> 5
<STATE> 2
<MEAN> 25
 -3.403799e+00 2.194091e+00 1.855079e+00 4.213955e-01 1.708560e+00 5.358599e+00 2.732427e+00 1.217744e+00 3.142505e+00 2.001118e+00 5.370078e-02 1.283140e+00 -1.671545e-01 5.030653e-03 5.575365e-02 -4.966156e-03 2.298687e-03 1.338858e-01 1.399434e-01 1.309989e-01 1.661993e-01 1.060693e-01 4.543363e-02 7.818332e-02 -1.197822e-01
<VARIANCE> 25
 6.590534e+00 7.357746e+00 6.615867e+00 8.997495e+00 8.694376e+00 1.470513e+01 1.417026e+01 1.163507e+01 1.530768e+01 1.180358e+01 1.177124e+01 1.001921e+01 1.214434e-01 1.653469e-01 2.539960e-01 3.284351e-01 4.090925e-01 5.543624e-01 6.370344e-01 6.688256e-01 7.245545e-01 7.249230e-01 7.296019e-01 5.987884e-01 5.347460e-02
<GCONST> 6.070837e+01
<STATE> 3
<MEAN> 25
 -3.148427e+00 2.294119e+00 2.446119e+00 -1.641102e+00 1.351214e+00 4.537950e+00 2.470786e+00 1.287675e+00 2.559821e+00 1.231832e+00 2.698837e-01 3.893071e-01 -2.139976e-01 1.536945e-02 2.303152e-01 -2.017653e-02 2.139806e-01 5.386926e-02 2.170739e-02 -6.606173e-02 -8.535299e-02 7.293524e-02 8.581161e-02 -1.086946e-01 -1.303952e-02
<VARIANCE> 25
 1.644570e+01 1.229571e+01 1.848559e+01 3.055982e+01 1.663231e+01 2.639628e+01 2.428948e+01 2.023537e+01 2.600877e+01 2.087647e+01 1.959631e+01 1.794299e+01 2.844063e-01 4.347092e-01 6.868691e-01 7.801232e-01 7.024921e-01 9.726753e-01 8.316953e-01 1.005989e+00 1.138601e+00 1.218700e+00 1.103994e+00 1.030051e+00 1.503848e-01
<GCONST> 7.732264e+01
<STATE> 4
<MEAN> 25
 -2.634746e+00 2.861900e+00 2.788031e+00 -2.005819e-02 1.777756e+00 3.824890e+00 1.455999e+00 -4.279076e-01 1.653616e+00 1.023520e+00 -2.795339e-01 -2.596256e-01 2.215566e-01 -2.355927e-01 -1.404797e-01 -5.055058e-02 3.934373e-02 -4.071276e-01 -1.950997e-01 -6.265665e-01 -5.907740e-01 -7.813735e-03 2.407331e-01 -4.589916e-01 4.048224e-01
<VARIANCE> 25
 1.550523e+01 1.438948e+01 1.734980e+01 2.326410e+01 1.567873e+01 3.078593e+01 2.356146e+01 1.906601e+01 2.876983e+01 2.384020e+01 2.071145e+01 1.800139e+01 6.996700e-01 1.322007e+00 1.439878e+00 1.252207e+00 1.133763e+00 1.611773e+00 1.871900e+00 2.133959e+00 2.080763e+00 2.091305e+00 2.324951e+00 1.958966e+00 4.079745e-01
<GCONST> 8.668317e+01
<TRANSP> 5
