~h "ax"
<BEGINHMM>
<NUMSTATES> 5
<STATE> 2
<MEAN> 25
 9.070750e-09 5.602083e-10 5.897144e-09 2.714019e-09 2.134774e-09 -4.620358e-09 1.313770e-08 6.120139e-09 -5.583046e-09 -4.922898e-09 5.544974e-09 7.764051e-10 1.806886e-02 -1.070167e-02 -1.227334e-02 -4.834075e-03 -1.028266e-02 -2.729346e-02 -1.737361e-02 -1.413678e-02 -2.439713e-02 -1.494737e-02 -1.347310e-03 -8.097601e-03 1.792287e-02
<VARIANCE> 25
 2.891544e+01 2.998487e+01 3.181427e+01 3.797506e+01 3.397845e+01 6.932100e+01 4.796393e+01 3.113100e+01 4.805207e+01 3.219418e+01 2.779412e+01 2.050658e+01 7.071798e-01 1.174889e+00 1.096015e+00 1.147657e+00 1.288282e+00 2.447000e+00 1.972053e+00 1.699578e+00 2.000285e+00 1.599479e+00 1.676569e+00 1.143343e+00 5.501716e-01
<GCONST> 9.218948e+01
<STATE> 3
<MEAN> 25
 9.070750e-09 5.602083e-10 5.897144e-09 2.714019e-09 2.134774e-09 -4.620358e-09 1.313770e-08 6.120139e-09 -5.583046e-09 -4.922898e-09 5.544974e-09 7.764051e-10 1.806886e-02 -1.070167e-02 -1.227334e-02 -4.834075e-03 -1.028266e-02 -2.729346e-02 -1.737361e-02 -1.413678e-02 -2.439713e-02 -1.494737e-02 -1.347310e-03 -8.097601e-03 1.792287e-02
<VARIANCE> 25
 2.891544e+01 2.998487e+01 3.181427e+01 3.797506e+01 3.397845e+01 6.932100e+01 4.796393e+01 3.113100e+01 4.805207e+01 3.219418e+01 2.779412e+01 2.050658e+01 7.071798e-01 1.174889e+00 1.096015e+00 1.147657e+00 1.288282e+00 2.447000e+00 1.972053e+00 1.699578e+00 2.000285e+00 1.599479e+00 1.676569e+00 1.143343e+00 5.501716e-01
<GCONST> 9.218948e+01
<STATE> 4
<MEAN> 25
 9.070750e-09 5.602083e-10 5.897144e-09 2.714019e-09 2.134774e-09 -4.620358e-09 1.313770e-08 6.120139e-09 -5.583046e-09 -4.922898e-09 5.544974e-09 7.764051e-10 1.806886e-02 -1.070167e-02 -1.227334e-02 -4.834075e-03 -1.028266e-02 -2.729346e-02 -1.737361e-02 -1.413678e-02 -2.439713e-02 -1.494737e-02 -1.347310e-03 -8.097601e-03 1.792287e-02
<VARIANCE> 25
 2.891544e+01 2.998487e+01 3.181427e+01 3.797506e+01 3.397845e+01 6.932100e+01 4.796393e+01 3.113100e+01 4.805207e+01 3.219418e+01 2.779412e+01 2.050658e+01 7.071798e-01 1.174889e+00 1.096015e+00 1.147657e+00 1.288282e+00 2.447000e+00 1.972053e+00 1.699578e+00 2.000285e+00 1.599479e+00 1.676569e+00 1.143343e+00 5.501716e-01
<GCONST> 9.218948e+01
<TRANSP> 5
 0.000000e+00 1.000000e+00 0.000000e+00 0.000000e+00 0.000000e+00
 0.000000e+00 6.000000e-01 4.000000e-01 0.000000e+00 0.000000e+00
 0.000000e+00 0.000000e+00 6.000000e-01 4.000000e-01 0.000000e+00
 0.000000e+00 0.000000e+00 0.000000e+00 7.000000e-01 3.000000e-01
 0.000000e+00 0.000000e+00 0.000000e+00 0.000000e+00 0.000000e+00
<ENDHMM>
~h "ey"
<BEGINHMM>
<NUMSTATES> 5
<STATE> 2
<MEAN> 25
 9.070750e-09 5.602083e-10 5.897144e-09 2.714019e-09 2.134774e-09 -4.620358e-09 1.313770e-08 6.120139e-09 -5.583046e-09 -4.922898e-09 5.544974e-09 7.764051e-10 1.806886e-02 -1.070167e-02 -1.227334e-02 -4.834075e-03 -1.028266e-02 -2.729346e-02 -1.737361e-02 -1.413678e-02 -2.439713e-02 -1.494737e-02 -1.347310e-03 -8.097601e-03 1.792287e-02
<VARIANCE> 25
 2.891544e+01 2.998487e+01 3.181427e+01 3.797506e+01 3.397845e+01 6.932100e+01 4.796393e+01 3.113100e+01 4.805207e+01 3.219418e+01 2.779412e+01 2.050658e+01 7.071798e-01 1.174889e+00 1.096015e+00 1.147657e+00 1.288282e+00 2.447000e+00 1.972053e+00 1.699578e+00 2.000285e+00 1.599479e+00 1.676569e+00 1.143343e+00 5.501716e-01
<GCONST> 9.218948e+01
<STATE> 3
<MEAN> 25
 9.070750e-09 5.602083e-10 5.897144e-09 2.714019e-09 2.134774e-09 -4.620358e-09 1.313770e-08 6.120139e-09 -5.583046e-09 -4.922898e-09 5.544974e-09 7.764051e-10 1.806886e-02 -1.070167e-02 -1.227334e-02 -4.834075e-03 -1.028266e-02 -2.729346e-02 -1.737361e-02 -1.413678e-02 -2.439713e-02 -1.494737e-02 -1.347310e-03 -8.097601e-03 1.792287e-02
<VARIANCE> 25
 2.891544e+01 2.998487e+01 3.181427e+01 3.797506e+01 3.397845e+01 6.932100e+01 4.796393e+01 3.113100e+01 4.805207e+01 3.219418e+01 2.779412e+01 2.050658e+01 7.071798e-01 1.174889e+00 1.096015e+00 1.147657e+00 1.288282e+00 2.447000e+00 1.972053e+00 1.699578e+00 2.000285e+00 1.599479e+00 1.676569e+00 1.143343e+00 5.501716e-01
<GCONST> 9.218948e+01
<STATE> 4
<MEAN> 25
 9.070750e-09 5.602083e-10 5.897144e-09 2.714019e-09 2.134774e-09 -4.620358e-09 1.313770e-08 6.120139e-09 -5.583046e-09 -4.922898e-09 5.544974e-09 7.764051e-10 1.806886e-02 -1.070167e-02 -1.227334e-02 -4.834075e-03 -1.028266e-02 -2.729346e-02 -1.737361e-02 -1.413678e-02 -2.439713e-02 -1.494737e-02 -1.347310e-03 -8.097601e-03 1.792287e-02
<VARIANCE> 25
 2.891544e+01 2.998487e+01 3.181427e+01 3.797506e+01 3.397845e+01 6.932100e+01 4.796393e+01 3.113100e+01 4.805207e+01 3.219418e+01 2.779412e+01 2.050658e+01 7.071798e-01 1.174889e+00 1.096015e+00 1.147657e+00 1.288282e+00 2.447000e+00 1.972053e+00 1.699578e+00 2.000285e+00 1.599479e+00 1.676569e+00 1.143343e+00 5.501716e-01
<GCONST> 9.218948e+01
<TRANSP> 5
 0.000000e+00 1.000000e+00 0.000000e+00 0.000000e+00 0.000000e+00
 0.000000e+00 6.000000e-01 4.000000e-01 0.000000e+00 0.000000e+00
 0.000000e+00 0.000000e+00 6.000000e-01 4.000000e-01 0.000000e+00
 0.000000e+00 0.000000e+00 0.000000e+00 7.000000e-01 3.000000e-01
 0.000000e+00 0.000000e+00 0.000000e+00 0.000000e+00 0.000000e+00
<ENDHMM>
~h "b"
<BEGINHMM>
<NUMSTATES> 5
<STATE> 2
<MEAN> 25
 9.070750e-09 5.602083e-10 5.897144e-09 2.714019e-09 2.134774e-09 -4.620358e-09 1.313770e-08 6.120139e-09 -5.583046e-09 -4.922898e-09 5.544974e-09 7.764051e-10 1.806886e-02 -1.070167e-02 -1.227334e-02 -4.834075e-03 -1.028266e-02 -2.729346e-02 -1.737361e-02 -1.413678e-02 -2.439713e-02 -1.494737e-02 -1.347310e-03 -8.097601e-03 1.792287e-02
<VARIANCE> 25
 2.891544e+01 2.998487e+01 3.181427e+01 3.797506e+01 3.397845e+01 6.932100e+01 4.796393e+01 3.113100e+01 4.805207e+01 3.219418e+01 2.779412e+01 2.050658e+01 7.071798e-01 1.174889e+00 1.096015e+00 1.147657e+00 1.288282e+00 2.447000e+00 1.972053e+00 1.699578e+00 2.000285e+00 1.599479e+00 1.676569e+00 1.143343e+00 5.501716e-01
<GCONST> 9.218948e+01
<STATE> 3
<MEAN> 25
 9.070750e-09 5.602083e-10 5.897144e-09 2.714019e-09 2.134774e-09 -4.620358e-09 1.313770e-08 6.120139e-09 -5.583046e-09 -4.922898e-09 5.544974e-09 7.764051e-10 1.806886e-02 -1.070167e-02 -1.227334e-02 -4.834075e-03 -1.028266e-02 -2.729346e-02 -1.737361e-02 -1.413678e-02 -2.439713e-02 -1.494737e-02 -1.347310e-03 -8.097601e-03 1.792287e-02
<VARIANCE> 25
 2.891544e+01 2.998487e+01 3.181427e+01 3.797506e+01 3.397845e+01 6.932100e+01 4.796393e+01 3.113100e+01 4.805207e+01 3.219418e+01 2.779412e+01 2.050658e+01 7.071798e-01 1.174889e+00 1.096015e+00 1.147657e+00 1.288282e+00 2.447000e+00 1.972053e+00 1.699578e+00 2.000285e+00 1.599479e+00 1.676569e+00 1.143343e+00 5.501716e-01
<GCONST> 9.218948e+01
<STATE> 4
<MEAN> 25
 9.070750e-09 5.602083e-10 5.897144e-09 2.714019e-09 2.134774e-09 -4.620358e-09 1.313770e-08 6.120139e-09 -5.583046e-09 -4.922898e-09 5.544974e-09 7.764051e-10 1.806886e-02 -1.070167e-02 -1.227334e-02 -4.834075e-03 -1.028266e-02 -2.729346e-02 -1.737361e-02 -1.413678e-02 -2.439713e-02 -1.494737e-02 -1.347310e-03 -8.097601e-03 1.792287e-02
<VARIANCE> 25
 2.891544e+01 2.998487e+01 3.181427e+01 3.797506e+01 3.397845e+01 6.932100e+01 4.796393e+01 3.113100e+01 4.805207e+01 3.219418e+01 2.779412e+01 2.050658e+01 7.071798e-01 1.174889e+00 1.096015e+00 1.147657e+00 1.288282e+00 2.447000e+00 1.972053e+00 1.699578e+00 2.000285e+00 1.599479e+00 1.676569e+00 1.143343e+00 5.501716e-01
<GCONST> 9.218948e+01
<TRANSP> 5
 0.000000e+00 1.000000e+00 0.000000e+00 0.000000e+00 0.000000e+00
 0.000000e+00 6.000000e-01 4.000000e-01 0.000000e+00 0.000000e+00
 0.000000e+00 0.000000e+00 6.000000e-01 4.000000e-01 0.000000e+00
 0.000000e+00 0.000000e+00 0.000000e+00 7.000000e-01 3.000000e-01
 0.000000e+00 0.000000e+00 0.000000e+00 0.000000e+00 0.000000e+00
<ENDHMM>
~h "iy"
<BEGINHMM>
<NUMSTATES> 5
<STATE> 2
<MEAN> 25
 9.070750e-09 5.602083e-10 5.897144e-09 2.714019e-09 2.134774e-09 -4.620358e-09 1.313770e-08 6.120139e-09 -5.583046e-09 -4.922898e-09 5.544974e-09 7.764051e-10 1.806886e-02 -1.070167e-02 -1.227334e-02 -4.834075e-03 -1.028266e-02 -2.729346e-02 -1.737361e-02 -1.413678e-02 -2.439713e-02 -1.494737e-02 -1.347310e-03 -8.097601e-03 1.792287e-02
<VARIANCE> 25
 2.891544e+01 2.998487e+01 3.181427e+01 3.797506e+01 3.397845e+01 6.932100e+01 4.796393e+01 3.113100e+01 4.805207e+01 3.219418e+01 2.779412e+01 2.050658e+01 7.071798e-01 1.174889e+00 1.096015e+00 1.147657e+00 1.288282e+00 2.447000e+00 1.972053e+00 1.699578e+00 2.000285e+00 1.599479e+00 1.676569e+00 1.143343e+00 5.501716e-01
<GCONST> 9.218948e+01
<STATE> 3
<MEAN> 25
 9.070750e-09 5.602083e-10 5.897144e-09 2.714019e-09 2.134774e-09 -4.620358e-09 1.313770e-08 6.120139e-09 -5.583046e-09 -4.922898e-09 5.544974e-09 7.764051e-10 1.806886e-02 -1.070167e-02 -1.227334e-02 -4.834075e-03 -1.028266e-02 -2.729346e-02 -1.737361e-02 -1.413678e-02 -2.439713e-02 -1.494737e-02 -1.347310e-03 -8.097601e-03 1.792287e-02
<VARIANCE> 25
 2.891544e+01 2.998487e+01 3.181427e+01 3.797506e+01 3.397845e+01 6.932100e+01 4.796393e+01 3.113100e+01 4.805207e+01 3.219418e+01 2.779412e+01 2.050658e+01 7.071798e-01 1.174889e+00 1.096015e+00 1.147657e+00 1.288282e+00 2.447000e+00 1.972053e+00 1.699578e+00 2.000285e+00 1.599479e+00 1.676569e+00 1.143343e+00 5.501716e-01
<GCONST> 9.218948e+01
<STATE> 4
<MEAN> 25
 9.070750e-09 5.602083e-10 5.897144e-09 2.714019e-09 2.134774e-09 -4.620358e-09 1.313770e-08 6.120139e-09 -5.583046e-09 -4.922898e-09 5.544974e-09 7.764051e-10 1.806886e-02 -1.070167e-02 -1.227334e-02 -4.834075e-03 -1.028266e-02 -2.729346e-02 -1.737361e-02 -1.413678e-02 -2.439713e-02 -1.494737e-02 -1.347310e-03 -8.097601e-03 1.792287e-02
<VARIANCE> 25
 2.891544e+01 2.998487e+01 3.181427e+01 3.797506e+01 3.397845e+01 6.932100e+01 4.796393e+01 3.113100e+01 4.805207e+01 3.219418e+01 2.779412e+01 2.050658e+01 7.071798e-01 1.174889e+00 1.096015e+00 1.147657e+00 1.288282e+00 2.447000e+00 1.972053e+00 1.699578e+00 2.000285e+00 1.599479e+00 1.676569e+00 1.143343e+00 5.501716e-01
<GCONST> 9.218948e+01
<TRANSP> 5
 0.000000e+00 1.000000e+00 0.000000e+00 0.000000e+00 0.000000e+00
 0.000000e+00 6.000000e-01 4.000000e-01 0.000000e+00 0.000000e+00
 0.000000e+00 0.000000e+00 6.000000e-01 4.000000e-01 0.000000e+00
 0.000000e+00 0.000000e+00 0.000000e+00 7.000000e-01 3.000000e-01
 0.000000e+00 0.000000e+00 0.000000e+00 0.000000e+00 0.000000e+00
<ENDHMM>
~h "s"
<BEGINHMM>
<NUMSTATES> 5
<STATE> 2
<MEAN> 25
 9.070750e-09 5.602083e-10 5.897144e-09 2.714019e-09 2.134774e-09 -4.620358e-09 1.313770e-08 6.120139e-09 -5.583046e-09 -4.922898e-09 5.544974e-09 7.764051e-10 1.806886e-02 -1.070167e-02 -1.227334e-02 -4.834075e-03 -1.028266e-02 -2.729346e-02 -1.737361e-02 -1.413678e-02 -2.439713e-02 -1.494737e-02 -1.347310e-03 -8.097601e-03 1.792287e-02
<VARIANCE> 25
 2.891544e+01 2.998487e+01 3.181427e+01 3.797506e+01 3.397845e+01 6.932100e+01 4.796393e+01 3.113100e+01 4.805207e+01 3.219418e+01 2.779412e+01 2.050658e+01 7.071798e-01 1.174889e+00 1.096015e+00 1.147657e+00 1.288282e+00 2.447000e+00 1.972053e+00 1.699578e+00 2.000285e+00 1.599479e+00 1.676569e+00 1.143343e+00 5.501716e-01
<GCONST> 9.218948e+01
<STATE> 3
<MEAN> 25
 9.070750e-09 5.602083e-10 5.897144e-09 2.714019e-09 2.134774e-09 -4.620358e-09 1.313770e-08 6.120139e-09 -5.583046e-09 -4.922898e-09 5.544974e-09 7.764051e-10 1.806886e-02 -1.070167e-02 -1.227334e-02 -4.834075e-03 -1.028266e-02 -2.729346e-02 -1.737361e-02 -1.413678e-02 -2.439713e-02 -1.494737e-02 -1.347310e-03 -8.097601e-03 1.792287e-02
<VARIANCE> 25
 2.891544e+01 2.998487e+01 3.181427e+01 3.797506e+01 3.397845e+01 6.932100e+01 4.796393e+01 3.113100e+01 4.805207e+01 3.219418e+01 2.779412e+01 2.050658e+01 7.071798e-01 1.174889e+00 1.096015e+00 1.147657e+00 1.288282e+00 2.447000e+00 1.972053e+00 1.699578e+00 2.000285e+00 1.599479e+00 1.676569e+00 1.143343e+00 5.501716e-01
<GCONST> 9.218948e+01
<STATE> 4
<MEAN> 25
 9.070750e-09 5.602083e-10 5.897144e-09 2.714019e-09 2.134774e-09 -4.620358e-09 1.313770e-08 6.120139e-09 -5.583046e-09 -4.922898e-09 5.544974e-09 7.764051e-10 1.806886e-02 -1.070167e-02 -1.227334e-02 -4.834075e-03 -1.028266e-02 -2.729346e-02 -1.737361e-02 -1.413678e-02 -2.439713e-02 -1.494737e-02 -1.347310e-03 -8.097601e-03 1.792287e-02
<VARIANCE> 25
 2.891544e+01 2.998487e+01 3.181427e+01 3.797506e+01 3.397845e+01 6.932100e+01 4.796393e+01 3.113100e+01 4.805207e+01 3.219418e+01 2.779412e+01 2.050658e+01 7.071798e-01 1.174889e+00 1.096015e+00 1.147657e+00 1.288282e+00 2.447000e+00 1.972053e+00 1.699578e+00 2.000285e+00 1.599479e+00 1.676569e+00 1.143343e+00 5.501716e-01
<GCONST> 9.218948e+01
<TRANSP> 5
 0.000000e+00 1.000000e+00 0.000000e+00 0.000000e+00 0.000000e+00
 0.000000e+00 6.000000e-01 4.000000e-01 0.000000e+00 0.000000e+00
 0.000000e+00 0.000000e+00 6.000000e-01 4.000000e-01 0.000000e+00
 0.000000e+00 0.000000e+00 0.000000e+00 7.000000e-01 3.000000e-01
 0.000000e+00 0.000000e+00 0.000000e+00 0.000000e+00 0.000000e+00
<ENDHMM>
~h "l"
<BEGINHMM>
<NUMSTATES> 5
<STATE> 2
<MEAN> 25
 9.070750e-09 5.602083e-10 5.897144e-09 2.714019e-09 2.134774e-09 -4.620358e-09 1.313770e-08 6.120139e-09 -5.583046e-09 -4.922898e-09 5.544974e-09 7.764051e-10 1.806886e-02 -1.070167e-02 -1.227334e-02 -4.834075e-03 -1.028266e-02 -2.729346e-02 -1.737361e-02 -1.413678e-02 -2.439713e-02 -1.494737e-02 -1.347310e-03 -8.097601e-03 1.792287e-02
<VARIANCE> 25
 2.891544e+01 2.998487e+01 3.181427e+01 3.797506e+01 3.397845e+01 6.932100e+01 4.796393e+01 3.113100e+01 4.805207e+01 3.219418e+01 2.779412e+01 2.050658e+01 7.071798e-01 1.174889e+00 1.096015e+00 1.147657e+00 1.288282e+00 2.447000e+00 1.972053e+00 1.699578e+00 2.000285e+00 1.599479e+00 1.676569e+00 1.143343e+00 5.501716e-01
<GCONST> 9.218948e+01
<STATE> 3
<MEAN> 25
 9.070750e-09 5.602083e-10 5.897144e-09 2.714019e-09 2.134774e-09 -4.620358e-09 1.313770e-08 6.120139e-09 -5.583046e-09 -4.922898e-09 5.544974e-09 7.764051e-10 1.806886e-02 -1.070167e-02 -1.227334e-02 -4.834075e-03 -1.028266e-02 -2.729346e-02 -1.737361e-02 -1.413678e-02 -2.439713e-02 -1.494737e-02 -1.347310e-03 -8.097601e-03 1.792287e-02
<VARIANCE> 25
 2.891544e+01 2.998487e+01 3.181427e+01 3.797506e+01 3.397845e+01 6.932100e+01 4.796393e+01 3.113100e+01 4.805207e+01 3.219418e+01 2.779412e+01 2.050658e+01 7.071798e-01 1.174889e+00 1.096015e+00 1.147657e+00 1.288282e+00 2.447000e+00 1.972053e+00 1.699578e+00 2.000285e+00 1.599479e+00 1.676569e+00 1.143343e+00 5.501716e-01
<GCONST> 9.218948e+01
<STATE> 4
<MEAN> 25
 9.070750e-09 5.602083e-10 5.897144e-09 2.714019e-09 2.134774e-09 -4.620358e-09 1.313770e-08 6.120139e-09 -5.583046e-09 -4.922898e-09 5.544974e-09 7.764051e-10 1.806886e-02 -1.070167e-02 -1.227334e-02 -4.834075e-03 -1.028266e-02 -2.729346e-02 -1.737361e-02 -1.413678e-02 -2.439713e-02 -1.494737e-02 -1.347310e-03 -8.097601e-03 1.792287e-02
<VARIANCE> 25
 2.891544e+01 2.998487e+01 3.181427e+01 3.797506e+01 3.397845e+01 6.932100e+01 4.796393e+01 3.113100e+01 4.805207e+01 3.219418e+01 2.779412e+01 2.050658e+01 7.071798e-01 1.174889e+00 1.096015e+00 1.147657e+00 1.288282e+00 2.447000e+00 1.972053e+00 1.699578e+00 2.000285e+00 1.599479e+00 1.676569e+00 1.143343e+00 5.501716e-01
<GCONST> 9.218948e+01
<TRANSP> 5
 0.000000e+00 1.000000e+00 0.000000e+00 0.000000e+00 0.000000e+00
 0.000000e+00 6.000000e-01 4.000000e-01 0.000000e+00 0.000000e+00
 0.000000e+00 0.000000e+00 6.000000e-01 4.000000e-01 0.000000e+00
 0.000000e+00 0.000000e+00 0.000000e+00 7.000000e-01 3.000000e-01
 0.000000e+00 0.000000e+00 0.000000e+00 0.000000e+00 0.000000e+00
<ENDHMM>
~h "ow"
<BEGINHMM>
<NUMSTATES> 5
<STATE> 2
<MEAN> 25
 9.070750e-09 5.602083e-10 5.897144e-09 2.714019e-09 2.134774e-09 -4.620358e-09 1.313770e-08 6.120139e-09 -5.583046e-09 -4.922898e-09 5.544974e-09 7.764051e-10 1.806886e-02 -1.070167e-02 -1.227334e-02 -4.834075e-03 -1.028266e-02 -2.729346e-02 -1.737361e-02 -1.413678e-02 -2.439713e-02 -1.494737e-02 -1.347310e-03 -8.097601e-03 1.792287e-02
<VARIANCE> 25
 2.891544e+01 2.998487e+01 3.181427e+01 3.797506e+01 3.397845e+01 6.932100e+01 4.796393e+01 3.113100e+01 4.805207e+01 3.219418e+01 2.779412e+01 2.050658e+01 7.071798e-01 1.174889e+00 1.096015e+00 1.147657e+00 1.288282e+00 2.447000e+00 1.972053e+00 1.699578e+00 2.000285e+00 1.599479e+00 1.676569e+00 1.143343e+00 5.501716e-01
<GCONST> 9.218948e+01
<STATE> 3
<MEAN> 25
 9.070750e-09 5.602083e-10 5.897144e-09 2.714019e-09 2.134774e-09 -4.620358e-09 1.313770e-08 6.120139e-09 -5.583046e-09 -4.922898e-09 5.544974e-09 7.764051e-10 1.806886e-02 -1.070167e-02 -1.227334e-02 -4.834075e-03 -1.028266e-02 -2.729346e-02 -1.737361e-02 -1.413678e-02 -2.439713e-02 -1.494737e-02 -1.347310e-03 -8.097601e-03 1.792287e-02
<VARIANCE> 25
 2.891544e+01 2.998487e+01 3.181427e+01 3.797506e+01 3.397845e+01 6.932100e+01 4.796393e+01 3.113100e+01 4.805207e+01 3.219418e+01 2.779412e+01 2.050658e+01 7.071798e-01 1.174889e+00 1.096015e+00 1.147657e+00 1.288282e+00 2.447000e+00 1.972053e+00 1.699578e+00 2.000285e+00 1.599479e+00 1.676569e+00 1.143343e+00 5.501716e-01
<GCONST> 9.218948e+01
<STATE> 4
<MEAN> 25
 9.070750e-09 5.602083e-10 5.897144e-09 2.714019e-09 2.134774e-09 -4.620358e-09 1.313770e-08 6.120139e-09 -5.583046e-09 -4.922898e-09 5.544974e-09 7.764051e-10 1.806886e-02 -1.070167e-02 -1.227334e-02 -4.834075e-03 -1.028266e-02 -2.729346e-02 -1.737361e-02 -1.413678e-02 -2.439713e-02 -1.494737e-02 -1.347310e-03 -8.097601e-03 1.792287e-02
<VARIANCE> 25
 2.891544e+01 2.998487e+01 3.181427e+01 3.797506e+01 3.397845e+01 6.932100e+01 4.796393e+01 3.113100e+01 4.805207e+01 3.219418e+01 2.779412e+01 2.050658e+01 7.071798e-01 1.174889e+00 1.096015e+00 1.147657e+00 1.288282e+00 2.447000e+00 1.972053e+00 1.699578e+00 2.000285e+00 1.599479e+00 1.676569e+00 1.143343e+00 5.501716e-01
<GCONST> 9.218948e+01
<TRANSP> 5
 0.000000e+00 1.000000e+00 0.000000e+00 0.000000e+00 0.000000e+00
 0.000000e+00 6.000000e-01 4.000000e-01 0.000000e+00 0.000000e+00
 0.000000e+00 0.000000e+00 6.000000e-01 4.000000e-01 0.000000e+00
 0.000000e+00 0.000000e+00 0.000000e+00 7.000000e-01 3.000000e-01
 0.000000e+00 0.000000e+00 0.000000e+00 0.000000e+00 0.000000e+00
<ENDHMM>
~h "r"
<BEGINHMM>
<NUMSTATES> 5
<STATE> 2
<MEAN> 25
 9.070750e-09 5.602083e-10 5.897144e-09 2.714019e-09 2.134774e-09 -4.620358e-09 1.313770e-08 6.120139e-09 -5.583046e-09 -4.922898e-09 5.544974e-09 7.764051e-10 1.806886e-02 -1.070167e-02 -1.227334e-02 -4.834075e-03 -1.028266e-02 -2.729346e-02 -1.737361e-02 -1.413678e-02 -2.439713e-02 -1.494737e-02 -1.347310e-03 -8.097601e-03 1.792287e-02
<VARIANCE> 25
 2.891544e+01 2.998487e+01 3.181427e+01 3.797506e+01 3.397845e+01 6.932100e+01 4.796393e+01 3.113100e+01 4.805207e+01 3.219418e+01 2.779412e+01 2.050658e+01 7.071798e-01 1.174889e+00 1.096015e+00 1.147657e+00 1.288282e+00 2.447000e+00 1.972053e+00 1.699578e+00 2.000285e+00 1.599479e+00 1.676569e+00 1.143343e+00 5.501716e-01
<GCONST> 9.218948e+01
<STATE> 3
<MEAN> 25
 9.070750e-09 5.602083e-10 5.897144e-09 2.714019e-09 2.134774e-09 -4.620358e-09 1.313770e-08 6.120139e-09 -5.583046e-09 -4.922898e-09 5.544974e-09 7.764051e-10 1.806886e-02 -1.070167e-02 -1.227334e-02 -4.834075e-03 -1.028266e-02 -2.729346e-02 -1.737361e-02 -1.413678e-02 -2.439713e-02 -1.494737e-02 -1.347310e-03 -8.097601e-03 1.792287e-02
<VARIANCE> 25
 2.891544e+01 2.998487e+01 3.181427e+01 3.797506e+01 3.397845e+01 6.932100e+01 4.796393e+01 3.113100e+01 4.805207e+01 3.219418e+01 2.779412e+01 2.050658e+01 7.071798e-01 1.174889e+00 1.096015e+00 1.147657e+00 1.288282e+00 2.447000e+00 1.972053e+00 1.699578e+00 2.000285e+00 1.599479e+00 1.676569e+00 1.143343e+00 5.501716e-01
<GCONST> 9.218948e+01
<STATE> 4
<MEAN> 25
 9.070750e-09 5.602083e-10 5.897144e-09 2.714019e-09 2.134774e-09 -4.620358e-09 1.313770e-08 6.120139e-09 -5.583046e-09 -4.922898e-09 5.544974e-09 7.764051e-10 1.806886e-02 -1.070167e-02 -1.227334e-02 -4.834075e-03 -1.028266e-02 -2.729346e-02 -1.737361e-02 -1.413678e-02 -2.439713e-02 -1.494737e-02 -1.347310e-03 -8.097601e-03 1.792287e-02
<VARIANCE> 25
 2.891544e+01 2.998487e+01 3.181427e+01 3.797506e+01 3.397845e+01 6.932100e+01 4.796393e+01 3.113100e+01 4.805207e+01 3.219418e+01 2.779412e+01 2.050658e+01 7.071798e-01 1.174889e+00 1.096015e+00 1.147657e+00 1.288282e+00 2.447000e+00 1.972053e+00 1.699578e+00 2.000285e+00 1.599479e+00 1.676569e+00 1.143343e+00 5.501716e-01
<GCONST> 9.218948e+01
<TRANSP> 5
 0.000000e+00 1.000000e+00 0.000000e+00 0.000000e+00 0.000000e+00
 0.000000e+00 6.000000e-01 4.000000e-01 0.000000e+00 0.000000e+00
 0.000000e+00 0.000000e+00 6.000000e-01 4.000000e-01 0.000000e+00
 0.000000e+00 0.000000e+00 0.000000e+00 7.000000e-01 3.000000e-01
 0.000000e+00 0.000000e+00 0.000000e+00 0.000000e+00 0.000000e+00
<ENDHMM>
~h "d"
<BEGINHMM>
<NUMSTATES> 5
<STATE> 2
<MEAN> 25
 9.070750e-09 5.602083e-10 5.897144e-09 2.714019e-09 2.134774e-09 -4.620358e-09 1.313770e-08 6.120139e-09 -5.583046e-09 -4.922898e-09 5.544974e-09 7.764051e-10 1.806886e-02 -1.070167e-02 -1.227334e-02 -4.834075e-03 -1.028266e-02 -2.729346e-02 -1.737361e-02 -1.413678e-02 -2.439713e-02 -1.494737e-02 -1.347310e-03 -8.097601e-03 1.792287e-02
<VARIANCE> 25
 2.891544e+01 2.998487e+01 3.181427e+01 3.797506e+01 3.397845e+01 6.932100e+01 4.796393e+01 3.113100e+01 4.805207e+01 3.219418e+01 2.779412e+01 2.050658e+01 7.071798e-01 1.174889e+00 1.096015e+00 1.147657e+00 1.288282e+00 2.447000e+00 1.972053e+00 1.699578e+00 2.000285e+00 1.599479e+00 1.676569e+00 1.143343e+00 5.501716e-01
<GCONST> 9.218948e+01
<STATE> 3
<MEAN> 25
 9.070750e-09 5.602083e-10 5.897144e-09 2.714019e-09 2.134774e-09 -4.620358e-09 1.313770e-08 6.120139e-09 -5.583046e-09 -4.922898e-09 5.544974e-09 7.764051e-10 1.806886e-02 -1.070167e-02 -1.227334e-02 -4.834075e-03 -1.028266e-02 -2.729346e-02 -1.737361e-02 -1.413678e-02 -2.439713e-02 -1.494737e-02 -1.347310e-03 -8.097601e-03 1.792287e-02
<VARIANCE> 25
 2.891544e+01 2.998487e+01 3.181427e+01 3.797506e+01 3.397845e+01 6.932100e+01 4.796393e+01 3.113100e+01 4.805207e+01 3.219418e+01 2.779412e+01 2.050658e+01 7.071798e-01 1.174889e+00 1.096015e+00 1.147657e+00 1.288282e+00 2.447000e+00 1.972053e+00 1.699578e+00 2.000285e+00 1.599479e+00 1.676569e+00 1.143343e+00 5.501716e-01
<GCONST> 9.218948e+01
<STATE> 4
<MEAN> 25
 9.070750e-09 5.602083e-10 5.897144e-09 2.714019e-09 2.134774e-09 -4.620358e-09 1.313770e-08 6.120139e-09 -5.583046e-09 -4.922898e-09 5.544974e-09 7.764051e-10 1.806886e-02 -1.070167e-02 -1.227334e-02 -4.834075e-03 -1.028266e-02 -2.729346e-02 -1.737361e-02 -1.413678e-02 -2.439713e-02 -1.494737e-02 -1.347310e-03 -8.097601e-03 1.792287e-02
<VARIANCE> 25
 2.891544e+01 2.998487e+01 3.181427e+01 3.797506e+01 3.397845e+01 6.932100e+01 4.796393e+01 3.113100e+01 4.805207e+01 3.219418e+01 2.779412e+01 2.050658e+01 7.071798e-01 1.174889e+00 1.096015e+00 1.147657e+00 1.288282e+00 2.447000e+00 1.972053e+00 1.699578e+00 2.000285e+00 1.599479e+00 1.676569e+00 1.143343e+00 5.501716e-01
<GCONST> 9.218948e+01
<TRANSP> 5
 0.000000e+00 1.000000e+00 0.000000e+00 0.000000e+00 0.000000e+00
 0.000000e+00 6.000000e-01 4.000000e-01 0.000000e+00 0.000000e+00
 0.000000e+00 0.000000e+00 6.000000e-01 4.000000e-01 0.000000e+00
 0.000000e+00 0.000000e+00 0.000000e+00 7.000000e-01 3.000000e-01
 0.000000e+00 0.000000e+00 0.000000e+00 0.000000e+00 0.000000e+00
<ENDHMM>
~h "aw"
<BEGINHMM>
<NUMSTATES> 5
<STATE> 2
<MEAN> 25
 9.070750e-09 5.602083e-10 5.897144e-09 2.714019e-09 2.134774e-09 -4.620358e-09 1.313770e-08 6.120139e-09 -5.583046e-09 -4.922898e-09 5.544974e-09 7.764051e-10 1.806886e-02 -1.070167e-02 -1.227334e-02 -4.834075e-03 -1.028266e-02 -2.729346e-02 -1.737361e-02 -1.413678e-02 -2.439713e-02 -1.494737e-02 -1.347310e-03 -8.097601e-03 1.792287e-02
<VARIANCE> 25
 2.891544e+01 2.998487e+01 3.181427e+01 3.797506e+01 3.397845e+01 6.932100e+01 4.796393e+01 3.113100e+01 4.805207e+01 3.219418e+01 2.779412e+01 2.050658e+01 7.071798e-01 1.174889e+00 1.096015e+00 1.147657e+00 1.288282e+00 2.447000e+00 1.972053e+00 1.699578e+00 2.000285e+00 1.599479e+00 1.676569e+00 1.143343e+00 5.501716e-01
<GCONST> 9.218948e+01
<STATE> 3
<MEAN> 25
 9.070750e-09 5.602083e-10 5.897144e-09 2.714019e-09 2.134774e-09 -4.620358e-09 1.313770e-08 6.120139e-09 -5.583046e-09 -4.922898e-09 5.544974e-09 7.764051e-10 1.806886e-02 -1.070167e-02 -1.227334e-02 -4.834075e-03 -1.028266e-02 -2.729346e-02 -1.737361e-02 -1.413678e-02 -2.439713e-02 -1.494737e-02 -1.347310e-03 -8.097601e-03 1.792287e-02
<VARIANCE> 25
 2.891544e+01 2.998487e+01 3.181427e+01 3.797506e+01 3.397845e+01 6.932100e+01 4.796393e+01 3.113100e+01 4.805207e+01 3.219418e+01 2.779412e+01 2.050658e+01 7.071798e-01 1.174889e+00 1.096015e+00 1.147657e+00 1.288282e+00 2.447000e+00 1.972053e+00 1.699578e+00 2.000285e+00 1.599479e+00 1.676569e+00 1.143343e+00 5.501716e-01
<GCONST> 9.218948e+01
<STATE> 4
<MEAN> 25
 9.070750e-09 5.602083e-10 5.897144e-09 2.714019e-09 2.134774e-09 -4.620358e-09 1.313770e-08 6.120139e-09 -5.583046e-09 -4.922898e-09 5.544974e-09 7.764051e-10 1.806886e-02 -1.070167e-02 -1.227334e-02 -4.834075e-03 -1.028266e-02 -2.729346e-02 -1.737361e-02 -1.413678e-02 -2.439713e-02 -1.494737e-02 -1.347310e-03 -8.097601e-03 1.792287e-02
<VARIANCE> 25
 2.891544e+01 2.998487e+01 3.181427e+01 3.797506e+01 3.397845e+01 6.932100e+01 4.796393e+01 3.113100e+01 4.805207e+01 3.219418e+01 2.779412e+01 2.050658e+01 7.071798e-01 1.174889e+00 1.096015e+00 1.147657e+00 1.288282e+00 2.447000e+00 1.972053e+00 1.699578e+00 2.000285e+00 1.599479e+00 1.676569e+00 1.143343e+00 5.501716e-01
<GCONST> 9.218948e+01
<TRANSP> 5
 0.000000e+00 1.000000e+00 0.000000e+00 0.000000e+00 0.000000e+00
 0.000000e+00 6.000000e-01 4.000000e-01 0.000000e+00 0.000000e+00
 0.000000e+00 0.000000e+00 6.000000e-01 4.000000e-01 0.000000e+00
 0.000000e+00 0.000000e+00 0.000000e+00 7.000000e-01 3.000000e-01
 0.000000e+00 0.000000e+00 0.000000e+00 0.000000e+00 0.000000e+00
<ENDHMM>
~h "t"
<BEGINHMM>
<NUMSTATES> 5
<STATE> 2
<MEAN> 25
 9.070750e-09 5.602083e-10 5.897144e-09 2.714019e-09 2.134774e-09 -4.620358e-09 1.313770e-08 6.120139e-09 -5.583046e-09 -4.922898e-09 5.544974e-09 7.764051e-10 1.806886e-02 -1.070167e-02 -1.227334e-02 -4.834075e-03 -1.028266e-02 -2.729346e-02 -1.737361e-02 -1.413678e-02 -2.439713e-02 -1.494737e-02 -1.347310e-03 -8.097601e-03 1.792287e-02
<VARIANCE> 25
 2.891544e+01 2.998487e+01 3.181427e+01 3.797506e+01 3.397845e+01 6.932100e+01 4.796393e+01 3.113100e+01 4.805207e+01 3.219418e+01 2.779412e+01 2.050658e+01 7.071798e-01 1.174889e+00 1.096015e+00 1.147657e+00 1.288282e+00 2.447000e+00 1.972053e+00 1.699578e+00 2.000285e+00 1.599479e+00 1.676569e+00 1.143343e+00 5.501716e-01
<GCONST> 9.218948e+01
<STATE> 3
<MEAN> 25
 9.070750e-09 5.602083e-10 5.897144e-09 2.714019e-09 2.134774e-09 -4.620358e-09 1.313770e-08 6.120139e-09 -5.583046e-09 -4.922898e-09 5.544974e-09 7.764051e-10 1.806886e-02 -1.070167e-02 -1.227334e-02 -4.834075e-03 -1.028266e-02 -2.729346e-02 -1.737361e-02 -1.413678e-02 -2.439713e-02 -1.494737e-02 -1.347310e-03 -8.097601e-03 1.792287e-02
<VARIANCE> 25
 2.891544e+01 2.998487e+01 3.181427e+01 3.797506e+01 3.397845e+01 6.932100e+01 4.796393e+01 3.113100e+01 4.805207e+01 3.219418e+01 2.779412e+01 2.050658e+01 7.071798e-01 1.174889e+00 1.096015e+00 1.147657e+00 1.288282e+00 2.447000e+00 1.972053e+00 1.699578e+00 2.000285e+00 1.599479e+00 1.676569e+00 1.143343e+00 5.501716e-01
<GCONST> 9.218948e+01
<STATE> 4
<MEAN> 25
 9.070750e-09 5.602083e-10 5.897144e-09 2.714019e-09 2.134774e-09 -4.620358e-09 1.313770e-08 6.120139e-09 -5.583046e-09 -4.922898e-09 5.544974e-09 7.764051e-10 1.806886e-02 -1.070167e-02 -1.227334e-02 -4.834075e-03 -1.028266e-02 -2.729346e-02 -1.737361e-02 -1.413678e-02 -2.439713e-02 -1.494737e-02 -1.347310e-03 -8.097601e-03 1.792287e-02
<VARIANCE> 25
 2.891544e+01 2.998487e+01 3.181427e+01 3.797506e+01 3.397845e+01 6.932100e+01 4.796393e+01 3.113100e+01 4.805207e+01 3.219418e+01 2.779412e+01 2.050658e+01 7.071798e-01 1.174889e+00 1.096015e+00 1.147657e+00 1.288282e+00 2.447000e+00 1.972053e+00 1.699578e+00 2.000285e+00 1.599479e+00 1.676569e+00 1.143343e+00 5.501716e-01
<GCONST> 9.218948e+01
<TRANSP> 5
 0.000000e+00 1.000000e+00 0.000000e+00 0.000000e+00 0.000000e+00
 0.000000e+00 6.000000e-01 4.000000e-01 0.000000e+00 0.000000e+00
 0.000000e+00 0.000000e+00 6.000000e-01 4.000000e-01 0.000000e+00
 0.000000e+00 0.000000e+00 0.000000e+00 7.000000e-01 3.000000e-01
 0.000000e+00 0.000000e+00 0.000000e+00 0.000000e+00 0.000000e+00
<ENDHMM>
~h "ah"
<BEGINHMM>
<NUMSTATES> 5
<STATE> 2
<MEAN> 25
 9.070750e-09 5.602083e-10 5.897144e-09 2.714019e-09 2.134774e-09 -4.620358e-09 1.313770e-08 6.120139e-09 -5.583046e-09 -4.922898e-09 5.544974e-09 7.764051e-10 1.806886e-02 -1.070167e-02 -1.227334e-02 -4.834075e-03 -1.028266e-02 -2.729346e-02 -1.737361e-02 -1.413678e-02 -2.439713e-02 -1.494737e-02 -1.347310e-03 -8.097601e-03 1.792287e-02
<VARIANCE> 25
 2.891544e+01 2.998487e+01 3.181427e+01 3.797506e+01 3.397845e+01 6.932100e+01 4.796393e+01 3.113100e+01 4.805207e+01 3.219418e+01 2.779412e+01 2.050658e+01 7.071798e-01 1.174889e+00 1.096015e+00 1.147657e+00 1.288282e+00 2.447000e+00 1.972053e+00 1.699578e+00 2.000285e+00 1.599479e+00 1.676569e+00 1.143343e+00 5.501716e-01
<GCONST> 9.218948e+01
<STATE> 3
<MEAN> 25
 9.070750e-09 5.602083e-10 5.897144e-09 2.714019e-09 2.134774e-09 -4.620358e-09 1.313770e-08 6.120139e-09 -5.583046e-09 -4.922898e-09 5.544974e-09 7.764051e-10 1.806886e-02 -1.070167e-02 -1.227334e-02 -4.834075e-03 -1.028266e-02 -2.729346e-02 -1.737361e-02 -1.413678e-02 -2.439713e-02 -1.494737e-02 -1.347310e-03 -8.097601e-03 1.792287e-02
<VARIANCE> 25
 2.891544e+01 2.998487e+01 3.181427e+01 3.797506e+01 3.397845e+01 6.932100e+01 4.796393e+01 3.113100e+01 4.805207e+01 3.219418e+01 2.779412e+01 2.050658e+01 7.071798e-01 1.174889e+00 1.096015e+00 1.147657e+00 1.288282e+00 2.447000e+00 1.972053e+00 1.699578e+00 2.000285e+00 1.599479e+00 1.676569e+00 1.143343e+00 5.501716e-01
<GCONST> 9.218948e+01
<STATE> 4
<MEAN> 25
 9.070750e-09 5.602083e-10 5.897144e-09 2.714019e-09 2.134774e-09 -4.620358e-09 1.313770e-08 6.120139e-09 -5.583046e-09 -4.922898e-09 5.544974e-09 7.764051e-10 1.806886e-02 -1.070167e-02 -1.227334e-02 -4.834075e-03 -1.028266e-02 -2.729346e-02 -1.737361e-02 -1.413678e-02 -2.439713e-02 -1.494737e-02 -1.347310e-03 -8.097601e-03 1.792287e-02
<VARIANCE> 25
 2.891544e+01 2.998487e+01 3.181427e+01 3.797506e+01 3.397845e+01 6.932100e+01 4.796393e+01 3.113100e+01 4.805207e+01 3.219418e+01 2.779412e+01 2.050658e+01 7.071798e-01 1.174889e+00 1.096015e+00 1.147657e+00 1.288282e+00 2.447000e+00 1.972053e+00 1.699578e+00 2.000285e+00 1.599479e+00 1.676569e+00 1.143343e+00 5.501716e-01
<GCONST> 9.218948e+01
<TRANSP> 5
 0.000000e+00 1.000000e+00 0.000000e+00 0.000000e+00 0.000000e+00
 0.000000e+00 6.000000e-01 4.000000e-01 0.000000e+00 0.000000e+00
 0.000000e+00 0.000000e+00 6.000000e-01 4.000000e-01 0.000000e+00
 0.000000e+00 0.000000e+00 0.000000e+00 7.000000e-01 3.000000e-01
 0.000000e+00 0.000000e+00 0.000000e+00 0.000000e+00 0.000000e+00
<ENDHMM>
~h "v"
<BEGINHMM>
<NUMSTATES> 5
<STATE> 2
<MEAN> 25
 9.070750e-09 5.602083e-10 5.897144e-09 2.714019e-09 2.134774e-09 -4.620358e-09 1.313770e-08 6.120139e-09 -5.583046e-09 -4.922898e-09 5.544974e-09 7.764051e-10 1.806886e-02 -1.070167e-02 -1.227334e-02 -4.834075e-03 -1.028266e-02 -2.729346e-02 -1.737361e-02 -1.413678e-02 -2.439713e-02 -1.494737e-02 -1.347310e-03 -8.097601e-03 1.792287e-02
<VARIANCE> 25
 2.891544e+01 2.998487e+01 3.181427e+01 3.797506e+01 3.397845e+01 6.932100e+01 4.796393e+01 3.113100e+01 4.805207e+01 3.219418e+01 2.779412e+01 2.050658e+01 7.071798e-01 1.174889e+00 1.096015e+00 1.147657e+00 1.288282e+00 2.447000e+00 1.972053e+00 1.699578e+00 2.000285e+00 1.599479e+00 1.676569e+00 1.143343e+00 5.501716e-01
<GCONST> 9.218948e+01
<STATE> 3
<MEAN> 25
 9.070750e-09 5.602083e-10 5.897144e-09 2.714019e-09 2.134774e-09 -4.620358e-09 1.313770e-08 6.120139e-09 -5.583046e-09 -4.922898e-09 5.544974e-09 7.764051e-10 1.806886e-02 -1.070167e-02 -1.227334e-02 -4.834075e-03 -1.028266e-02 -2.729346e-02 -1.737361e-02 -1.413678e-02 -2.439713e-02 -1.494737e-02 -1.347310e-03 -8.097601e-03 1.792287e-02
<VARIANCE> 25
 2.891544e+01 2.998487e+01 3.181427e+01 3.797506e+01 3.397845e+01 6.932100e+01 4.796393e+01 3.113100e+01 4.805207e+01 3.219418e+01 2.779412e+01 2.050658e+01 7.071798e-01 1.174889e+00 1.096015e+00 1.147657e+00 1.288282e+00 2.447000e+00 1.972053e+00 1.699578e+00 2.000285e+00 1.599479e+00 1.676569e+00 1.143343e+00 5.501716e-01
<GCONST> 9.218948e+01
<STATE> 4
<MEAN> 25
 9.070750e-09 5.602083e-10 5.897144e-09 2.714019e-09 2.134774e-09 -4.620358e-09 1.313770e-08 6.120139e-09 -5.583046e-09 -4.922898e-09 5.544974e-09 7.764051e-10 1.806886e-02 -1.070167e-02 -1.227334e-02 -4.834075e-03 -1.028266e-02 -2.729346e-02 -1.737361e-02 -1.413678e-02 -2.439713e-02 -1.494737e-02 -1.347310e-03 -8.097601e-03 1.792287e-02
<VARIANCE> 25
 2.891544e+01 2.998487e+01 3.181427e+01 3.797506e+01 3.397845e+01 6.932100e+01 4.796393e+01 3.113100e+01 4.805207e+01 3.219418e+01 2.779412e+01 2.050658e+01 7.071798e-01 1.174889e+00 1.096015e+00 1.147657e+00 1.288282e+00 2.447000e+00 1.972053e+00 1.699578e+00 2.000285e+00 1.599479e+00 1.676569e+00 1.143343e+00 5.501716e-01
<GCONST> 9.218948e+01
<TRANSP> 5
 0.000000e+00 1.000000e+00 0.000000e+00 0.000000e+00 0.000000e+00
 0.000000e+00 6.000000e-01 4.000000e-01 0.000000e+00 0.000000e+00
 0.000000e+00 0.000000e+00 6.000000e-01 4.000000e-01 0.000000e+00
 0.000000e+00 0.000000e+00 0.000000e+00 7.000000e-01 3.000000e-01
 0.000000e+00 0.000000e+00 0.000000e+00 0.000000e+00 0.000000e+00
<ENDHMM>
~h "eh"
<BEGINHMM>
<NUMSTATES> 5
<STATE> 2
<MEAN> 25
 9.070750e-09 5.602083e-10 5.897144e-09 2.714019e-09 2.134774e-09 -4.620358e-09 1.313770e-08 6.120139e-09 -5.583046e-09 -4.922898e-09 5.544974e-09 7.764051e-10 1.806886e-02 -1.070167e-02 -1.227334e-02 -4.834075e-03 -1.028266e-02 -2.729346e-02 -1.737361e-02 -1.413678e-02 -2.439713e-02 -1.494737e-02 -1.347310e-03 -8.097601e-03 1.792287e-02
<VARIANCE> 25
 2.891544e+01 2.998487e+01 3.181427e+01 3.797506e+01 3.397845e+01 6.932100e+01 4.796393e+01 3.113100e+01 4.805207e+01 3.219418e+01 2.779412e+01 2.050658e+01 7.071798e-01 1.174889e+00 1.096015e+00 1.147657e+00 1.288282e+00 2.447000e+00 1.972053e+00 1.699578e+00 2.000285e+00 1.599479e+00 1.676569e+00 1.143343e+00 5.501716e-01
<GCONST> 9.218948e+01
<STATE> 3
<MEAN> 25
 9.070750e-09 5.602083e-10 5.897144e-09 2.714019e-09 2.134774e-09 -4.620358e-09 1.313770e-08 6.120139e-09 -5.583046e-09 -4.922898e-09 5.544974e-09 7.764051e-10 1.806886e-02 -1.070167e-02 -1.227334e-02 -4.834075e-03 -1.028266e-02 -2.729346e-02 -1.737361e-02 -1.413678e-02 -2.439713e-02 -1.494737e-02 -1.347310e-03 -8.097601e-03 1.792287e-02
<VARIANCE> 25
 2.891544e+01 2.998487e+01 3.181427e+01 3.797506e+01 3.397845e+01 6.932100e+01 4.796393e+01 3.113100e+01 4.805207e+01 3.219418e+01 2.779412e+01 2.050658e+01 7.071798e-01 1.174889e+00 1.096015e+00 1.147657e+00 1.288282e+00 2.447000e+00 1.972053e+00 1.699578e+00 2.000285e+00 1.599479e+00 1.676569e+00 1.143343e+00 5.501716e-01
<GCONST> 9.218948e+01
<STATE> 4
<MEAN> 25
 9.070750e-09 5.602083e-10 5.897144e-09 2.714019e-09 2.134774e-09 -4.620358e-09 1.313770e-08 6.120139e-09 -5.583046e-09 -4.922898e-09 5.544974e-09 7.764051e-10 1.806886e-02 -1.070167e-02 -1.227334e-02 -4.834075e-03 -1.028266e-02 -2.729346e-02 -1.737361e-02 -1.413678e-02 -2.439713e-02 -1.494737e-02 -1.347310e-03 -8.097601e-03 1.792287e-02
<VARIANCE> 25
 2.891544e+01 2.998487e+01 3.181427e+01 3.797506e+01 3.397845e+01 6.932100e+01 4.796393e+01 3.113100e+01 4.805207e+01 3.219418e+01 2.779412e+01 2.050658e+01 7.071798e-01 1.174889e+00 1.096015e+00 1.147657e+00 1.288282e+00 2.447000e+00 1.972053e+00 1.699578e+00 2.000285e+00 1.599479e+00 1.676569e+00 1.143343e+00 5.501716e-01
<GCONST> 9.218948e+01
<TRANSP> 5
 0.000000e+00 1.000000e+00 0.000000e+00 0.000000e+00 0.000000e+00
 0.000000e+00 6.000000e-01 4.000000e-01 0.000000e+00 0.000000e+00
 0.000000e+00 0.000000e+00 6.000000e-01 4.000000e-01 0.000000e+00
 0.000000e+00 0.000000e+00 0.000000e+00 7.000000e-01 3.000000e-01
 0.000000e+00 0.000000e+00 0.000000e+00 0.000000e+00 0.000000e+00
<ENDHMM>
~h "k"
<BEGINHMM>
<NUMSTATES> 5
<STATE> 2
<MEAN> 25
 9.070750e-09 5.602083e-10 5.897144e-09 2.714019e-09 2.134774e-09 -4.620358e-09 1.313770e-08 6.120139e-09 -5.583046e-09 -4.922898e-09 5.544974e-09 7.764051e-10 1.806886e-02 -1.070167e-02 -1.227334e-02 -4.834075e-03 -1.028266e-02 -2.729346e-02 -1.737361e-02 -1.413678e-02 -2.439713e-02 -1.494737e-02 -1.347310e-03 -8.097601e-03 1.792287e-02
<VARIANCE> 25
 2.891544e+01 2.998487e+01 3.181427e+01 3.797506e+01 3.397845e+01 6.932100e+01 4.796393e+01 3.113100e+01 4.805207e+01 3.219418e+01 2.779412e+01 2.050658e+01 7.071798e-01 1.174889e+00 1.096015e+00 1.147657e+00 1.288282e+00 2.447000e+00 1.972053e+00 1.699578e+00 2.000285e+00 1.599479e+00 1.676569e+00 1.143343e+00 5.501716e-01
<GCONST> 9.218948e+01
<STATE> 3
<MEAN> 25
 9.070750e-09 5.602083e-10 5.897144e-09 2.714019e-09 2.134774e-09 -4.620358e-09 1.313770e-08 6.120139e-09 -5.583046e-09 -4.922898e-09 5.544974e-09 7.764051e-10 1.806886e-02 -1.070167e-02 -1.227334e-02 -4.834075e-03 -1.028266e-02 -2.729346e-02 -1.737361e-02 -1.413678e-02 -2.439713e-02 -1.494737e-02 -1.347310e-03 -8.097601e-03 1.792287e-02
<VARIANCE> 25
 2.891544e+01 2.998487e+01 3.181427e+01 3.797506e+01 3.397845e+01 6.932100e+01 4.796393e+01 3.113100e+01 4.805207e+01 3.219418e+01 2.779412e+01 2.050658e+01 7.071798e-01 1.174889e+00 1.096015e+00 1.147657e+00 1.288282e+00 2.447000e+00 1.972053e+00 1.699578e+00 2.000285e+00 1.599479e+00 1.676569e+00 1.143343e+00 5.501716e-01
<GCONST> 9.218948e+01
<STATE> 4
<MEAN> 25
 9.070750e-09 5.602083e-10 5.897144e-09 2.714019e-09 2.134774e-09 -4.620358e-09 1.313770e-08 6.120139e-09 -5.583046e-09 -4.922898e-09 5.544974e-09 7.764051e-10 1.806886e-02 -1.070167e-02 -1.227334e-02 -4.834075e-03 -1.028266e-02 -2.729346e-02 -1.737361e-02 -1.413678e-02 -2.439713e-02 -1.494737e-02 -1.347310e-03 -8.097601e-03 1.792287e-02
<VARIANCE> 25
 2.891544e+01 2.998487e+01 3.181427e+01 3.797506e+01 3.397845e+01 6.932100e+01 4.796393e+01 3.113100e+01 4.805207e+01 3.219418e+01 2.779412e+01 2.050658e+01 7.071798e-01 1.174889e+00 1.096015e+00 1.147657e+00 1.288282e+00 2.447000e+00 1.972053e+00 1.699578e+00 2.000285e+00 1.599479e+00 1.676569e+00 1.143343e+00 5.501716e-01
<GCONST> 9.218948e+01
<TRANSP> 5
 0.000000e+00 1.000000e+00 0.000000e+00 0.000000e+00 0.000000e+00
 0.000000e+00 6.000000e-01 4.000000e-01 0.000000e+00 0.000000e+00
 0.000000e+00 0.000000e+00 6.000000e-01 4.000000e-01 0.000000e+00
 0.000000e+00 0.000000e+00 0.000000e+00 7.000000e-01 3.000000e-01
 0.000000e+00 0.000000e+00 0.000000e+00 0.000000e+00 0.000000e+00
<ENDHMM>
~h "p"
<BEGINHMM>
<NUMSTATES> 5
<STATE> 2
<MEAN> 25
 9.070750e-09 5.602083e-10 5.897144e-09 2.714019e-09 2.134774e-09 -4.620358e-09 1.313770e-08 6.120139e-09 -5.583046e-09 -4.922898e-09 5.544974e-09 7.764051e-10 1.806886e-02 -1.070167e-02 -1.227334e-02 -4.834075e-03 -1.028266e-02 -2.729346e-02 -1.737361e-02 -1.413678e-02 -2.439713e-02 -1.494737e-02 -1.347310e-03 -8.097601e-03 1.792287e-02
<VARIANCE> 25
 2.891544e+01 2.998487e+01 3.181427e+01 3.797506e+01 3.397845e+01 6.932100e+01 4.796393e+01 3.113100e+01 4.805207e+01 3.219418e+01 2.779412e+01 2.050658e+01 7.071798e-01 1.174889e+00 1.096015e+00 1.147657e+00 1.288282e+00 2.447000e+00 1.972053e+00 1.699578e+00 2.000285e+00 1.599479e+00 1.676569e+00 1.143343e+00 5.501716e-01
<GCONST> 9.218948e+01
<STATE> 3
<MEAN> 25
 9.070750e-09 5.602083e-10 5.897144e-09 2.714019e-09 2.134774e-09 -4.620358e-09 1.313770e-08 6.120139e-09 -5.583046e-09 -4.922898e-09 5.544974e-09 7.764051e-10 1.806886e-02 -1.070167e-02 -1.227334e-02 -4.834075e-03 -1.028266e-02 -2.729346e-02 -1.737361e-02 -1.413678e-02 -2.439713e-02 -1.494737e-02 -1.347310e-03 -8.097601e-03 1.792287e-02
<VARIANCE> 25
 2.891544e+01 2.998487e+01 3.181427e+01 3.797506e+01 3.397845e+01 6.932100e+01 4.796393e+01 3.113100e+01 4.805207e+01 3.219418e+01 2.779412e+01 2.050658e+01 7.071798e-01 1.174889e+00 1.096015e+00 1.147657e+00 1.288282e+00 2.447000e+00 1.972053e+00 1.699578e+00 2.000285e+00 1.599479e+00 1.676569e+00 1.143343e+00 5.501716e-01
<GCONST> 9.218948e+01
<STATE> 4
<MEAN> 25
 9.070750e-09 5.602083e-10 5.897144e-09 2.714019e-09 2.134774e-09 -4.620358e-09 1.313770e-08 6.120139e-09 -5.583046e-09 -4.922898e-09 5.544974e-09 7.764051e-10 1.806886e-02 -1.070167e-02 -1.227334e-02 -4.834075e-03 -1.028266e-02 -2.729346e-02 -1.737361e-02 -1.413678e-02 -2.439713e-02 -1.494737e-02 -1.347310e-03 -8.097601e-03 1.792287e-02
<VARIANCE> 25
 2.891544e+01 2.998487e+01 3.181427e+01 3.797506e+01 3.397845e+01 6.932100e+01 4.796393e+01 3.113100e+01 4.805207e+01 3.219418e+01 2.779412e+01 2.050658e+01 7.071798e-01 1.174889e+00 1.096015e+00 1.147657e+00 1.288282e+00 2.447000e+00 1.972053e+00 1.699578e+00 2.000285e+00 1.599479e+00 1.676569e+00 1.143343e+00 5.501716e-01
<GCONST> 9.218948e+01
<TRANSP> 5
 0.000000e+00 1.000000e+00 0.000000e+00 0.000000e+00 0.000000e+00
 0.000000e+00 6.000000e-01 4.000000e-01 0.000000e+00 0.000000e+00
 0.000000e+00 0.000000e+00 6.000000e-01 4.000000e-01 0.000000e+00
 0.000000e+00 0.000000e+00 0.000000e+00 7.000000e-01 3.000000e-01
 0.000000e+00 0.000000e+00 0.000000e+00 0.000000e+00 0.000000e+00
<ENDHMM>
~h "ih"
<BEGINHMM>
<NUMSTATES> 5
<STATE> 2
<MEAN> 25
 9.070750e-09 5.602083e-10 5.897144e-09 2.714019e-09 2.134774e-09 -4.620358e-09 1.313770e-08 6.120139e-09 -5.583046e-09 -4.922898e-09 5.544974e-09 7.764051e-10 1.806886e-02 -1.070167e-02 -1.227334e-02 -4.834075e-03 -1.028266e-02 -2.729346e-02 -1.737361e-02 -1.413678e-02 -2.439713e-02 -1.494737e-02 -1.347310e-03 -8.097601e-03 1.792287e-02
<VARIANCE> 25
 2.891544e+01 2.998487e+01 3.181427e+01 3.797506e+01 3.397845e+01 6.932100e+01 4.796393e+01 3.113100e+01 4.805207e+01 3.219418e+01 2.779412e+01 2.050658e+01 7.071798e-01 1.174889e+00 1.096015e+00 1.147657e+00 1.288282e+00 2.447000e+00 1.972053e+00 1.699578e+00 2.000285e+00 1.599479e+00 1.676569e+00 1.143343e+00 5.501716e-01
<GCONST> 9.218948e+01
<STATE> 3
<MEAN> 25
 9.070750e-09 5.602083e-10 5.897144e-09 2.714019e-09 2.134774e-09 -4.620358e-09 1.313770e-08 6.120139e-09 -5.583046e-09 -4.922898e-09 5.544974e-09 7.764051e-10 1.806886e-02 -1.070167e-02 -1.227334e-02 -4.834075e-03 -1.028266e-02 -2.729346e-02 -1.737361e-02 -1.413678e-02 -2.439713e-02 -1.494737e-02 -1.347310e-03 -8.097601e-03 1.792287e-02
<VARIANCE> 25
 2.891544e+01 2.998487e+01 3.181427e+01 3.797506e+01 3.397845e+01 6.932100e+01 4.796393e+01 3.113100e+01 4.805207e+01 3.219418e+01 2.779412e+01 2.050658e+01 7.071798e-01 1.174889e+00 1.096015e+00 1.147657e+00 1.288282e+00 2.447000e+00 1.972053e+00 1.699578e+00 2.000285e+00 1.599479e+00 1.676569e+00 1.143343e+00 5.501716e-01
<GCONST> 9.218948e+01
<STATE> 4
<MEAN> 25
 9.070750e-09 5.602083e-10 5.897144e-09 2.714019e-09 2.134774e-09 -4.620358e-09 1.313770e-08 6.120139e-09 -5.583046e-09 -4.922898e-09 5.544974e-09 7.764051e-10 1.806886e-02 -1.070167e-02 -1.227334e-02 -4.834075e-03 -1.028266e-02 -2.729346e-02 -1.737361e-02 -1.413678e-02 -2.439713e-02 -1.494737e-02 -1.347310e-03 -8.097601e-03 1.792287e-02
<VARIANCE> 25
 2.891544e+01 2.998487e+01 3.181427e+01 3.797506e+01 3.397845e+01 6.932100e+01 4.796393e+01 3.113100e+01 4.805207e+01 3.219418e+01 2.779412e+01 2.050658e+01 7.071798e-01 1.174889e+00 1.096015e+00 1.147657e+00 1.288282e+00 2.447000e+00 1.972053e+00 1.699578e+00 2.000285e+00 1.599479e+00 1.676569e+00 1.143343e+00 5.501716e-01
<GCONST> 9.218948e+01
<TRANSP> 5
 0.000000e+00 1.000000e+00 0.000000e+00 0.000000e+00 0.000000e+00
 0.000000e+00 6.000000e-01 4.000000e-01 0.000000e+00 0.000000e+00
 0.000000e+00 0.000000e+00 6.000000e-01 4.000000e-01 0.000000e+00
 0.000000e+00 0.000000e+00 0.000000e+00 7.000000e-01 3.000000e-01
 0.000000e+00 0.000000e+00 0.000000e+00 0.000000e+00 0.000000e+00
<ENDHMM>
~h "n"
<BEGINHMM>
<NUMSTATES> 5
<STATE> 2
<MEAN> 25
 9.070750e-09 5.602083e-10 5.897144e-09 2.714019e-09 2.134774e-09 -4.620358e-09 1.313770e-08 6.120139e-09 -5.583046e-09 -4.922898e-09 5.544974e-09 7.764051e-10 1.806886e-02 -1.070167e-02 -1.227334e-02 -4.834075e-03 -1.028266e-02 -2.729346e-02 -1.737361e-02 -1.413678e-02 -2.439713e-02 -1.494737e-02 -1.347310e-03 -8.097601e-03 1.792287e-02
<VARIANCE> 25
 2.891544e+01 2.998487e+01 3.181427e+01 3.797506e+01 3.397845e+01 6.932100e+01 4.796393e+01 3.113100e+01 4.805207e+01 3.219418e+01 2.779412e+01 2.050658e+01 7.071798e-01 1.174889e+00 1.096015e+00 1.147657e+00 1.288282e+00 2.447000e+00 1.972053e+00 1.699578e+00 2.000285e+00 1.599479e+00 1.676569e+00 1.143343e+00 5.501716e-01
<GCONST> 9.218948e+01
<STATE> 3
<MEAN> 25
 9.070750e-09 5.602083e-10 5.897144e-09 2.714019e-09 2.134774e-09 -4.620358e-09 1.313770e-08 6.120139e-09 -5.583046e-09 -4.922898e-09 5.544974e-09 7.764051e-10 1.806886e-02 -1.070167e-02 -1.227334e-02 -4.834075e-03 -1.028266e-02 -2.729346e-02 -1.737361e-02 -1.413678e-02 -2.439713e-02 -1.494737e-02 -1.347310e-03 -8.097601e-03 1.792287e-02
<VARIANCE> 25
 2.891544e+01 2.998487e+01 3.181427e+01 3.797506e+01 3.397845e+01 6.932100e+01 4.796393e+01 3.113100e+01 4.805207e+01 3.219418e+01 2.779412e+01 2.050658e+01 7.071798e-01 1.174889e+00 1.096015e+00 1.147657e+00 1.288282e+00 2.447000e+00 1.972053e+00 1.699578e+00 2.000285e+00 1.599479e+00 1.676569e+00 1.143343e+00 5.501716e-01
<GCONST> 9.218948e+01
<STATE> 4
<MEAN> 25
 9.070750e-09 5.602083e-10 5.897144e-09 2.714019e-09 2.134774e-09 -4.620358e-09 1.313770e-08 6.120139e-09 -5.583046e-09 -4.922898e-09 5.544974e-09 7.764051e-10 1.806886e-02 -1.070167e-02 -1.227334e-02 -4.834075e-03 -1.028266e-02 -2.729346e-02 -1.737361e-02 -1.413678e-02 -2.439713e-02 -1.494737e-02 -1.347310e-03 -8.097601e-03 1.792287e-02
<VARIANCE> 25
 2.891544e+01 2.998487e+01 3.181427e+01 3.797506e+01 3.397845e+01 6.932100e+01 4.796393e+01 3.113100e+01 4.805207e+01 3.219418e+01 2.779412e+01 2.050658e+01 7.071798e-01 1.174889e+00 1.096015e+00 1.147657e+00 1.288282e+00 2.447000e+00 1.972053e+00 1.699578e+00 2.000285e+00 1.599479e+00 1.676569e+00 1.143343e+00 5.501716e-01
<GCONST> 9.218948e+01
<TRANSP> 5
 0.000000e+00 1.000000e+00 0.000000e+00 0.000000e+00 0.000000e+00
 0.000000e+00 6.000000e-01 4.000000e-01 0.000000e+00 0.000000e+00
 0.000000e+00 0.000000e+00 6.000000e-01 4.000000e-01 0.000000e+00
 0.000000e+00 0.000000e+00 0.000000e+00 7.000000e-01 3.000000e-01
 0.000000e+00 0.000000e+00 0.000000e+00 0.000000e+00 0.000000e+00
<ENDHMM>
~h "z"
<BEGINHMM>
<NUMSTATES> 5
<STATE> 2
<MEAN> 25
 9.070750e-09 5.602083e-10 5.897144e-09 2.714019e-09 2.134774e-09 -4.620358e-09 1.313770e-08 6.120139e-09 -5.583046e-09 -4.922898e-09 5.544974e-09 7.764051e-10 1.806886e-02 -1.070167e-02 -1.227334e-02 -4.834075e-03 -1.028266e-02 -2.729346e-02 -1.737361e-02 -1.413678e-02 -2.439713e-02 -1.494737e-02 -1.347310e-03 -8.097601e-03 1.792287e-02
<VARIANCE> 25
 2.891544e+01 2.998487e+01 3.181427e+01 3.797506e+01 3.397845e+01 6.932100e+01 4.796393e+01 3.113100e+01 4.805207e+01 3.219418e+01 2.779412e+01 2.050658e+01 7.071798e-01 1.174889e+00 1.096015e+00 1.147657e+00 1.288282e+00 2.447000e+00 1.972053e+00 1.699578e+00 2.000285e+00 1.599479e+00 1.676569e+00 1.143343e+00 5.501716e-01
<GCONST> 9.218948e+01
<STATE> 3
<MEAN> 25
 9.070750e-09 5.602083e-10 5.897144e-09 2.714019e-09 2.134774e-09 -4.620358e-09 1.313770e-08 6.120139e-09 -5.583046e-09 -4.922898e-09 5.544974e-09 7.764051e-10 1.806886e-02 -1.070167e-02 -1.227334e-02 -4.834075e-03 -1.028266e-02 -2.729346e-02 -1.737361e-02 -1.413678e-02 -2.439713e-02 -1.494737e-02 -1.347310e-03 -8.097601e-03 1.792287e-02
<VARIANCE> 25
 2.891544e+01 2.998487e+01 3.181427e+01 3.797506e+01 3.397845e+01 6.932100e+01 4.796393e+01 3.113100e+01 4.805207e+01 3.219418e+01 2.779412e+01 2.050658e+01 7.071798e-01 1.174889e+00 1.096015e+00 1.147657e+00 1.288282e+00 2.447000e+00 1.972053e+00 1.699578e+00 2.000285e+00 1.599479e+00 1.676569e+00 1.143343e+00 5.501716e-01
<GCONST> 9.218948e+01
<STATE> 4
<MEAN> 25
 9.070750e-09 5.602083e-10 5.897144e-09 2.714019e-09 2.134774e-09 -4.620358e-09 1.313770e-08 6.120139e-09 -5.583046e-09 -4.922898e-09 5.544974e-09 7.764051e-10 1.806886e-02 -1.070167e-02 -1.227334e-02 -4.834075e-03 -1.028266e-02 -2.729346e-02 -1.737361e-02 -1.413678e-02 -2.439713e-02 -1.494737e-02 -1.347310e-03 -8.097601e-03 1.792287e-02
<VARIANCE> 25
 2.891544e+01 2.998487e+01 3.181427e+01 3.797506e+01 3.397845e+01 6.932100e+01 4.796393e+01 3.113100e+01 4.805207e+01 3.219418e+01 2.779412e+01 2.050658e+01 7.071798e-01 1.174889e+00 1.096015e+00 1.147657e+00 1.288282e+00 2.447000e+00 1.972053e+00 1.699578e+00 2.000285e+00 1.599479e+00 1.676569e+00 1.143343e+00 5.501716e-01
<GCONST> 9.218948e+01
<TRANSP> 5
 0.000000e+00 1.000000e+00 0.000000e+00 0.000000e+00 0.000000e+00
 0.000000e+00 6.000000e-01 4.000000e-01 0.000000e+00 0.000000e+00
 0.000000e+00 0.000000e+00 6.000000e-01 4.000000e-01 0.000000e+00
 0.000000e+00 0.000000e+00 0.000000e+00 7.000000e-01 3.000000e-01
 0.000000e+00 0.000000e+00 0.000000e+00 0.000000e+00 0.000000e+00
<ENDHMM>
~h "ao"
<BEGINHMM>
<NUMSTATES> 5
<STATE> 2
<MEAN> 25
 9.070750e-09 5.602083e-10 5.897144e-09 2.714019e-09 2.134774e-09 -4.620358e-09 1.313770e-08 6.120139e-09 -5.583046e-09 -4.922898e-09 5.544974e-09 7.764051e-10 1.806886e-02 -1.070167e-02 -1.227334e-02 -4.834075e-03 -1.028266e-02 -2.729346e-02 -1.737361e-02 -1.413678e-02 -2.439713e-02 -1.494737e-02 -1.347310e-03 -8.097601e-03 1.792287e-02
<VARIANCE> 25
 2.891544e+01 2.998487e+01 3.181427e+01 3.797506e+01 3.397845e+01 6.932100e+01 4.796393e+01 3.113100e+01 4.805207e+01 3.219418e+01 2.779412e+01 2.050658e+01 7.071798e-01 1.174889e+00 1.096015e+00 1.147657e+00 1.288282e+00 2.447000e+00 1.972053e+00 1.699578e+00 2.000285e+00 1.599479e+00 1.676569e+00 1.143343e+00 5.501716e-01
<GCONST> 9.218948e+01
<STATE> 3
<MEAN> 25
 9.070750e-09 5.602083e-10 5.897144e-09 2.714019e-09 2.134774e-09 -4.620358e-09 1.313770e-08 6.120139e-09 -5.583046e-09 -4.922898e-09 5.544974e-09 7.764051e-10 1.806886e-02 -1.070167e-02 -1.227334e-02 -4.834075e-03 -1.028266e-02 -2.729346e-02 -1.737361e-02 -1.413678e-02 -2.439713e-02 -1.494737e-02 -1.347310e-03 -8.097601e-03 1.792287e-02
<VARIANCE> 25
 2.891544e+01 2.998487e+01 3.181427e+01 3.797506e+01 3.397845e+01 6.932100e+01 4.796393e+01 3.113100e+01 4.805207e+01 3.219418e+01 2.779412e+01 2.050658e+01 7.071798e-01 1.174889e+00 1.096015e+00 1.147657e+00 1.288282e+00 2.447000e+00 1.972053e+00 1.699578e+00 2.000285e+00 1.599479e+00 1.676569e+00 1.143343e+00 5.501716e-01
<GCONST> 9.218948e+01
<STATE> 4
<MEAN> 25
 9.070750e-09 5.602083e-10 5.897144e-09 2.714019e-09 2.134774e-09 -4.620358e-09 1.313770e-08 6.120139e-09 -5.583046e-09 -4.922898e-09 5.544974e-09 7.764051e-10 1.806886e-02 -1.070167e-02 -1.227334e-02 -4.834075e-03 -1.028266e-02 -2.729346e-02 -1.737361e-02 -1.413678e-02 -2.439713e-02 -1.494737e-02 -1.347310e-03 -8.097601e-03 1.792287e-02
<VARIANCE> 25
 2.891544e+01 2.998487e+01 3.181427e+01 3.797506e+01 3.397845e+01 6.932100e+01 4.796393e+01 3.113100e+01 4.805207e+01 3.219418e+01 2.779412e+01 2.050658e+01 7.071798e-01 1.174889e+00 1.096015e+00 1.147657e+00 1.288282e+00 2.447000e+00 1.972053e+00 1.699578e+00 2.000285e+00 1.599479e+00 1.676569e+00 1.143343e+00 5.501716e-01
<GCONST> 9.218948e+01
<TRANSP> 5
 0.000000e+00 1.000000e+00 0.000000e+00 0.000000e+00 0.000000e+00
 0.000000e+00 6.000000e-01 4.000000e-01 0.000000e+00 0.000000e+00
 0.000000e+00 0.000000e+00 6.000000e-01 4.000000e-01 0.000000e+00
 0.000000e+00 0.000000e+00 0.000000e+00 7.000000e-01 3.000000e-01
 0.000000e+00 0.000000e+00 0.000000e+00 0.000000e+00 0.000000e+00
<ENDHMM>
~h "ae"
<BEGINHMM>
<NUMSTATES> 5
<STATE> 2
<MEAN> 25
 9.070750e-09 5.602083e-10 5.897144e-09 2.714019e-09 2.134774e-09 -4.620358e-09 1.313770e-08 6.120139e-09 -5.583046e-09 -4.922898e-09 5.544974e-09 7.764051e-10 1.806886e-02 -1.070167e-02 -1.227334e-02 -4.834075e-03 -1.028266e-02 -2.729346e-02 -1.737361e-02 -1.413678e-02 -2.439713e-02 -1.494737e-02 -1.347310e-03 -8.097601e-03 1.792287e-02
<VARIANCE> 25
 2.891544e+01 2.998487e+01 3.181427e+01 3.797506e+01 3.397845e+01 6.932100e+01 4.796393e+01 3.113100e+01 4.805207e+01 3.219418e+01 2.779412e+01 2.050658e+01 7.071798e-01 1.174889e+00 1.096015e+00 1.147657e+00 1.288282e+00 2.447000e+00 1.972053e+00 1.699578e+00 2.000285e+00 1.599479e+00 1.676569e+00 1.143343e+00 5.501716e-01
<GCONST> 9.218948e+01
<STATE> 3
<MEAN> 25
 9.070750e-09 5.602083e-10 5.897144e-09 2.714019e-09 2.134774e-09 -4.620358e-09 1.313770e-08 6.120139e-09 -5.583046e-09 -4.922898e-09 5.544974e-09 7.764051e-10 1.806886e-02 -1.070167e-02 -1.227334e-02 -4.834075e-03 -1.028266e-02 -2.729346e-02 -1.737361e-02 -1.413678e-02 -2.439713e-02 -1.494737e-02 -1.347310e-03 -8.097601e-03 1.792287e-02
<VARIANCE> 25
 2.891544e+01 2.998487e+01 3.181427e+01 3.797506e+01 3.397845e+01 6.932100e+01 4.796393e+01 3.113100e+01 4.805207e+01 3.219418e+01 2.779412e+01 2.050658e+01 7.071798e-01 1.174889e+00 1.096015e+00 1.147657e+00 1.288282e+00 2.447000e+00 1.972053e+00 1.699578e+00 2.000285e+00 1.599479e+00 1.676569e+00 1.143343e+00 5.501716e-01
<GCONST> 9.218948e+01
<STATE> 4
<MEAN> 25
 9.070750e-09 5.602083e-10 5.897144e-09 2.714019e-09 2.134774e-09 -4.620358e-09 1.313770e-08 6.120139e-09 -5.583046e-09 -4.922898e-09 5.544974e-09 7.764051e-10 1.806886e-02 -1.070167e-02 -1.227334e-02 -4.834075e-03 -1.028266e-02 -2.729346e-02 -1.737361e-02 -1.413678e-02 -2.439713e-02 -1.494737e-02 -1.347310e-03 -8.097601e-03 1.792287e-02
<VARIANCE> 25
 2.891544e+01 2.998487e+01 3.181427e+01 3.797506e+01 3.397845e+01 6.932100e+01 4.796393e+01 3.113100e+01 4.805207e+01 3.219418e+01 2.779412e+01 2.050658e+01 7.071798e-01 1.174889e+00 1.096015e+00 1.147657e+00 1.288282e+00 2.447000e+00 1.972053e+00 1.699578e+00 2.000285e+00 1.599479e+00 1.676569e+00 1.143343e+00 5.501716e-01
<GCONST> 9.218948e+01
<TRANSP> 5
 0.000000e+00 1.000000e+00 0.000000e+00 0.000000e+00 0.000000e+00
 0.000000e+00 6.000000e-01 4.000000e-01 0.000000e+00 0.000000e+00
 0.000000e+00 0.000000e+00 6.000000e-01 4.000000e-01 0.000000e+00
 0.000000e+00 0.000000e+00 0.000000e+00 7.000000e-01 3.000000e-01
 0.000000e+00 0.000000e+00 0.000000e+00 0.000000e+00 0.000000e+00
<ENDHMM>
~h "ng"
<BEGINHMM>
<NUMSTATES> 5
<STATE> 2
<MEAN> 25
 9.070750e-09 5.602083e-10 5.897144e-09 2.714019e-09 2.134774e-09 -4.620358e-09 1.313770e-08 6.120139e-09 -5.583046e-09 -4.922898e-09 5.544974e-09 7.764051e-10 1.806886e-02 -1.070167e-02 -1.227334e-02 -4.834075e-03 -1.028266e-02 -2.729346e-02 -1.737361e-02 -1.413678e-02 -2.439713e-02 -1.494737e-02 -1.347310e-03 -8.097601e-03 1.792287e-02
<VARIANCE> 25
 2.891544e+01 2.998487e+01 3.181427e+01 3.797506e+01 3.397845e+01 6.932100e+01 4.796393e+01 3.113100e+01 4.805207e+01 3.219418e+01 2.779412e+01 2.050658e+01 7.071798e-01 1.174889e+00 1.096015e+00 1.147657e+00 1.288282e+00 2.447000e+00 1.972053e+00 1.699578e+00 2.000285e+00 1.599479e+00 1.676569e+00 1.143343e+00 5.501716e-01
<GCONST> 9.218948e+01
<STATE> 3
<MEAN> 25
 9.070750e-09 5.602083e-10 5.897144e-09 2.714019e-09 2.134774e-09 -4.620358e-09 1.313770e-08 6.120139e-09 -5.583046e-09 -4.922898e-09 5.544974e-09 7.764051e-10 1.806886e-02 -1.070167e-02 -1.227334e-02 -4.834075e-03 -1.028266e-02 -2.729346e-02 -1.737361e-02 -1.413678e-02 -2.439713e-02 -1.494737e-02 -1.347310e-03 -8.097601e-03 1.792287e-02
<VARIANCE> 25
 2.891544e+01 2.998487e+01 3.181427e+01 3.797506e+01 3.397845e+01 6.932100e+01 4.796393e+01 3.113100e+01 4.805207e+01 3.219418e+01 2.779412e+01 2.050658e+01 7.071798e-01 1.174889e+00 1.096015e+00 1.147657e+00 1.288282e+00 2.447000e+00 1.972053e+00 1.699578e+00 2.000285e+00 1.599479e+00 1.676569e+00 1.143343e+00 5.501716e-01
<GCONST> 9.218948e+01
<STATE> 4
<MEAN> 25
 9.070750e-09 5.602083e-10 5.897144e-09 2.714019e-09 2.134774e-09 -4.620358e-09 1.313770e-08 6.120139e-09 -5.583046e-09 -4.922898e-09 5.544974e-09 7.764051e-10 1.806886e-02 -1.070167e-02 -1.227334e-02 -4.834075e-03 -1.028266e-02 -2.729346e-02 -1.737361e-02 -1.413678e-02 -2.439713e-02 -1.494737e-02 -1.347310e-03 -8.097601e-03 1.792287e-02
<VARIANCE> 25
 2.891544e+01 2.998487e+01 3.181427e+01 3.797506e+01 3.397845e+01 6.932100e+01 4.796393e+01 3.113100e+01 4.805207e+01 3.219418e+01 2.779412e+01 2.050658e+01 7.071798e-01 1.174889e+00 1.096015e+00 1.147657e+00 1.288282e+00 2.447000e+00 1.972053e+00 1.699578e+00 2.000285e+00 1.599479e+00 1.676569e+00 1.143343e+00 5.501716e-01
<GCONST> 9.218948e+01
<TRANSP> 5
 0.000000e+00 1.000000e+00 0.000000e+00 0.000000e+00 0.000000e+00
 0.000000e+00 6.000000e-01 4.000000e-01 0.000000e+00 0.000000e+00
 0.000000e+00 0.000000e+00 6.000000e-01 4.000000e-01 0.000000e+00
 0.000000e+00 0.000000e+00 0.000000e+00 7.000000e-01 3.000000e-01
 0.000000e+00 0.000000e+00 0.000000e+00 0.000000e+00 0.000000e+00
<ENDHMM>
~h "ch"
<BEGINHMM>
<NUMSTATES> 5
<STATE> 2
<MEAN> 25
 9.070750e-09 5.602083e-10 5.897144e-09 2.714019e-09 2.134774e-09 -4.620358e-09 1.313770e-08 6.120139e-09 -5.583046e-09 -4.922898e-09 5.544974e-09 7.764051e-10 1.806886e-02 -1.070167e-02 -1.227334e-02 -4.834075e-03 -1.028266e-02 -2.729346e-02 -1.737361e-02 -1.413678e-02 -2.439713e-02 -1.494737e-02 -1.347310e-03 -8.097601e-03 1.792287e-02
<VARIANCE> 25
 2.891544e+01 2.998487e+01 3.181427e+01 3.797506e+01 3.397845e+01 6.932100e+01 4.796393e+01 3.113100e+01 4.805207e+01 3.219418e+01 2.779412e+01 2.050658e+01 7.071798e-01 1.174889e+00 1.096015e+00 1.147657e+00 1.288282e+00 2.447000e+00 1.972053e+00 1.699578e+00 2.000285e+00 1.599479e+00 1.676569e+00 1.143343e+00 5.501716e-01
<GCONST> 9.218948e+01
<STATE> 3
<MEAN> 25
 9.070750e-09 5.602083e-10 5.897144e-09 2.714019e-09 2.134774e-09 -4.620358e-09 1.313770e-08 6.120139e-09 -5.583046e-09 -4.922898e-09 5.544974e-09 7.764051e-10 1.806886e-02 -1.070167e-02 -1.227334e-02 -4.834075e-03 -1.028266e-02 -2.729346e-02 -1.737361e-02 -1.413678e-02 -2.439713e-02 -1.494737e-02 -1.347310e-03 -8.097601e-03 1.792287e-02
<VARIANCE> 25
 2.891544e+01 2.998487e+01 3.181427e+01 3.797506e+01 3.397845e+01 6.932100e+01 4.796393e+01 3.113100e+01 4.805207e+01 3.219418e+01 2.779412e+01 2.050658e+01 7.071798e-01 1.174889e+00 1.096015e+00 1.147657e+00 1.288282e+00 2.447000e+00 1.972053e+00 1.699578e+00 2.000285e+00 1.599479e+00 1.676569e+00 1.143343e+00 5.501716e-01
<GCONST> 9.218948e+01
<STATE> 4
<MEAN> 25
 9.070750e-09 5.602083e-10 5.897144e-09 2.714019e-09 2.134774e-09 -4.620358e-09 1.313770e-08 6.120139e-09 -5.583046e-09 -4.922898e-09 5.544974e-09 7.764051e-10 1.806886e-02 -1.070167e-02 -1.227334e-02 -4.834075e-03 -1.028266e-02 -2.729346e-02 -1.737361e-02 -1.413678e-02 -2.439713e-02 -1.494737e-02 -1.347310e-03 -8.097601e-03 1.792287e-02
<VARIANCE> 25
 2.891544e+01 2.998487e+01 3.181427e+01 3.797506e+01 3.397845e+01 6.932100e+01 4.796393e+01 3.113100e+01 4.805207e+01 3.219418e+01 2.779412e+01 2.050658e+01 7.071798e-01 1.174889e+00 1.096015e+00 1.147657e+00 1.288282e+00 2.447000e+00 1.972053e+00 1.699578e+00 2.000285e+00 1.599479e+00 1.676569e+00 1.143343e+00 5.501716e-01
<GCONST> 9.218948e+01
<TRANSP> 5
 0.000000e+00 1.000000e+00 0.000000e+00 0.000000e+00 0.000000e+00
 0.000000e+00 6.000000e-01 4.000000e-01 0.000000e+00 0.000000e+00
 0.000000e+00 0.000000e+00 6.000000e-01 4.000000e-01 0.000000e+00
 0.000000e+00 0.000000e+00 0.000000e+00 7.000000e-01 3.000000e-01
 0.000000e+00 0.000000e+00 0.000000e+00 0.000000e+00 0.000000e+00
<ENDHMM>
~h "er"
<BEGINHMM>
<NUMSTATES> 5
<STATE> 2
<MEAN> 25
 9.070750e-09 5.602083e-10 5.897144e-09 2.714019e-09 2.134774e-09 -4.620358e-09 1.313770e-08 6.120139e-09 -5.583046e-09 -4.922898e-09 5.544974e-09 7.764051e-10 1.806886e-02 -1.070167e-02 -1.227334e-02 -4.834075e-03 -1.028266e-02 -2.729346e-02 -1.737361e-02 -1.413678e-02 -2.439713e-02 -1.494737e-02 -1.347310e-03 -8.097601e-03 1.792287e-02
<VARIANCE> 25
 2.891544e+01 2.998487e+01 3.181427e+01 3.797506e+01 3.397845e+01 6.932100e+01 4.796393e+01 3.113100e+01 4.805207e+01 3.219418e+01 2.779412e+01 2.050658e+01 7.071798e-01 1.174889e+00 1.096015e+00 1.147657e+00 1.288282e+00 2.447000e+00 1.972053e+00 1.699578e+00 2.000285e+00 1.599479e+00 1.676569e+00 1.143343e+00 5.501716e-01
<GCONST> 9.218948e+01
<STATE> 3
<MEAN> 25
 9.070750e-09 5.602083e-10 5.897144e-09 2.714019e-09 2.134774e-09 -4.620358e-09 1.313770e-08 6.120139e-09 -5.583046e-09 -4.922898e-09 5.544974e-09 7.764051e-10 1.806886e-02 -1.070167e-02 -1.227334e-02 -4.834075e-03 -1.028266e-02 -2.729346e-02 -1.737361e-02 -1.413678e-02 -2.439713e-02 -1.494737e-02 -1.347310e-03 -8.097601e-03 1.792287e-02
<VARIANCE> 25
 2.891544e+01 2.998487e+01 3.181427e+01 3.797506e+01 3.397845e+01 6.932100e+01 4.796393e+01 3.113100e+01 4.805207e+01 3.219418e+01 2.779412e+01 2.050658e+01 7.071798e-01 1.174889e+00 1.096015e+00 1.147657e+00 1.288282e+00 2.447000e+00 1.972053e+00 1.699578e+00 2.000285e+00 1.599479e+00 1.676569e+00 1.143343e+00 5.501716e-01
<GCONST> 9.218948e+01
<STATE> 4
<MEAN> 25
 9.070750e-09 5.602083e-10 5.897144e-09 2.714019e-09 2.134774e-09 -4.620358e-09 1.313770e-08 6.120139e-09 -5.583046e-09 -4.922898e-09 5.544974e-09 7.764051e-10 1.806886e-02 -1.070167e-02 -1.227334e-02 -4.834075e-03 -1.028266e-02 -2.729346e-02 -1.737361e-02 -1.413678e-02 -2.439713e-02 -1.494737e-02 -1.347310e-03 -8.097601e-03 1.792287e-02
<VARIANCE> 25
 2.891544e+01 2.998487e+01 3.181427e+01 3.797506e+01 3.397845e+01 6.932100e+01 4.796393e+01 3.113100e+01 4.805207e+01 3.219418e+01 2.779412e+01 2.050658e+01 7.071798e-01 1.174889e+00 1.096015e+00 1.147657e+00 1.288282e+00 2.447000e+00 1.972053e+00 1.699578e+00 2.000285e+00 1.599479e+00 1.676569e+00 1.143343e+00 5.501716e-01
<GCONST> 9.218948e+01
<TRANSP> 5
 0.000000e+00 1.000000e+00 0.000000e+00 0.000000e+00 0.000000e+00
 0.000000e+00 6.000000e-01 4.000000e-01 0.000000e+00 0.000000e+00
 0.000000e+00 0.000000e+00 6.000000e-01 4.000000e-01 0.000000e+00
 0.000000e+00 0.000000e+00 0.000000e+00 7.000000e-01 3.000000e-01
 0.000000e+00 0.000000e+00 0.000000e+00 0.000000e+00 0.000000e+00
<ENDHMM>
~h "ay"
<BEGINHMM>
<NUMSTATES> 5
<STATE> 2
<MEAN> 25
 9.070750e-09 5.602083e-10 5.897144e-09 2.714019e-09 2.134774e-09 -4.620358e-09 1.313770e-08 6.120139e-09 -5.583046e-09 -4.922898e-09 5.544974e-09 7.764051e-10 1.806886e-02 -1.070167e-02 -1.227334e-02 -4.834075e-03 -1.028266e-02 -2.729346e-02 -1.737361e-02 -1.413678e-02 -2.439713e-02 -1.494737e-02 -1.347310e-03 -8.097601e-03 1.792287e-02
<VARIANCE> 25
 2.891544e+01 2.998487e+01 3.181427e+01 3.797506e+01 3.397845e+01 6.932100e+01 4.796393e+01 3.113100e+01 4.805207e+01 3.219418e+01 2.779412e+01 2.050658e+01 7.071798e-01 1.174889e+00 1.096015e+00 1.147657e+00 1.288282e+00 2.447000e+00 1.972053e+00 1.699578e+00 2.000285e+00 1.599479e+00 1.676569e+00 1.143343e+00 5.501716e-01
<GCONST> 9.218948e+01
<STATE> 3
<MEAN> 25
 9.070750e-09 5.602083e-10 5.897144e-09 2.714019e-09 2.134774e-09 -4.620358e-09 1.313770e-08 6.120139e-09 -5.583046e-09 -4.922898e-09 5.544974e-09 7.764051e-10 1.806886e-02 -1.070167e-02 -1.227334e-02 -4.834075e-03 -1.028266e-02 -2.729346e-02 -1.737361e-02 -1.413678e-02 -2.439713e-02 -1.494737e-02 -1.347310e-03 -8.097601e-03 1.792287e-02
<VARIANCE> 25
 2.891544e+01 2.998487e+01 3.181427e+01 3.797506e+01 3.397845e+01 6.932100e+01 4.796393e+01 3.113100e+01 4.805207e+01 3.219418e+01 2.779412e+01 2.050658e+01 7.071798e-01 1.174889e+00 1.096015e+00 1.147657e+00 1.288282e+00 2.447000e+00 1.972053e+00 1.699578e+00 2.000285e+00 1.599479e+00 1.676569e+00 1.143343e+00 5.501716e-01
<GCONST> 9.218948e+01
<STATE> 4
<MEAN> 25
 9.070750e-09 5.602083e-10 5.897144e-09 2.714019e-09 2.134774e-09 -4.620358e-09 1.313770e-08 6.120139e-09 -5.583046e-09 -4.922898e-09 5.544974e-09 7.764051e-10 1.806886e-02 -1.070167e-02 -1.227334e-02 -4.834075e-03 -1.028266e-02 -2.729346e-02 -1.737361e-02 -1.413678e-02 -2.439713e-02 -1.494737e-02 -1.347310e-03 -8.097601e-03 1.792287e-02
<VARIANCE> 25
 2.891544e+01 2.998487e+01 3.181427e+01 3.797506e+01 3.397845e+01 6.932100e+01 4.796393e+01 3.113100e+01 4.805207e+01 3.219418e+01 2.779412e+01 2.050658e+01 7.071798e-01 1.174889e+00 1.096015e+00 1.147657e+00 1.288282e+00 2.447000e+00 1.972053e+00 1.699578e+00 2.000285e+00 1.599479e+00 1.676569e+00 1.143343e+00 5.501716e-01
<GCONST> 9.218948e+01
<TRANSP> 5
 0.000000e+00 1.000000e+00 0.000000e+00 0.000000e+00 0.000000e+00
 0.000000e+00 6.000000e-01 4.000000e-01 0.000000e+00 0.000000e+00
 0.000000e+00 0.000000e+00 6.000000e-01 4.000000e-01 0.000000e+00
 0.000000e+00 0.000000e+00 0.000000e+00 7.000000e-01 3.000000e-01
 0.000000e+00 0.000000e+00 0.000000e+00 0.000000e+00 0.000000e+00
<ENDHMM>
~h "f"
<BEGINHMM>
<NUMSTATES> 5
<STATE> 2
<MEAN> 25
 9.070750e-09 5.602083e-10 5.897144e-09 2.714019e-09 2.134774e-09 -4.620358e-09 1.313770e-08 6.120139e-09 -5.583046e-09 -4.922898e-09 5.544974e-09 7.764051e-10 1.806886e-02 -1.070167e-02 -1.227334e-02 -4.834075e-03 -1.028266e-02 -2.729346e-02 -1.737361e-02 -1.413678e-02 -2.439713e-02 -1.494737e-02 -1.347310e-03 -8.097601e-03 1.792287e-02
<VARIANCE> 25
 2.891544e+01 2.998487e+01 3.181427e+01 3.797506e+01 3.397845e+01 6.932100e+01 4.796393e+01 3.113100e+01 4.805207e+01 3.219418e+01 2.779412e+01 2.050658e+01 7.071798e-01 1.174889e+00 1.096015e+00 1.147657e+00 1.288282e+00 2.447000e+00 1.972053e+00 1.699578e+00 2.000285e+00 1.599479e+00 1.676569e+00 1.143343e+00 5.501716e-01
<GCONST> 9.218948e+01
<STATE> 3
<MEAN> 25
 9.070750e-09 5.602083e-10 5.897144e-09 2.714019e-09 2.134774e-09 -4.620358e-09 1.313770e-08 6.120139e-09 -5.583046e-09 -4.922898e-09 5.544974e-09 7.764051e-10 1.806886e-02 -1.070167e-02 -1.227334e-02 -4.834075e-03 -1.028266e-02 -2.729346e-02 -1.737361e-02 -1.413678e-02 -2.439713e-02 -1.494737e-02 -1.347310e-03 -8.097601e-03 1.792287e-02
<VARIANCE> 25
 2.891544e+01 2.998487e+01 3.181427e+01 3.797506e+01 3.397845e+01 6.932100e+01 4.796393e+01 3.113100e+01 4.805207e+01 3.219418e+01 2.779412e+01 2.050658e+01 7.071798e-01 1.174889e+00 1.096015e+00 1.147657e+00 1.288282e+00 2.447000e+00 1.972053e+00 1.699578e+00 2.000285e+00 1.599479e+00 1.676569e+00 1.143343e+00 5.501716e-01
<GCONST> 9.218948e+01
<STATE> 4
<MEAN> 25
 9.070750e-09 5.602083e-10 5.897144e-09 2.714019e-09 2.134774e-09 -4.620358e-09 1.313770e-08 6.120139e-09 -5.583046e-09 -4.922898e-09 5.544974e-09 7.764051e-10 1.806886e-02 -1.070167e-02 -1.227334e-02 -4.834075e-03 -1.028266e-02 -2.729346e-02 -1.737361e-02 -1.413678e-02 -2.439713e-02 -1.494737e-02 -1.347310e-03 -8.097601e-03 1.792287e-02
<VARIANCE> 25
 2.891544e+01 2.998487e+01 3.181427e+01 3.797506e+01 3.397845e+01 6.932100e+01 4.796393e+01 3.113100e+01 4.805207e+01 3.219418e+01 2.779412e+01 2.050658e+01 7.071798e-01 1.174889e+00 1.096015e+00 1.147657e+00 1.288282e+00 2.447000e+00 1.972053e+00 1.699578e+00 2.000285e+00 1.599479e+00 1.676569e+00 1.143343e+00 5.501716e-01
<GCONST> 9.218948e+01
<TRANSP> 5
 0.000000e+00 1.000000e+00 0.000000e+00 0.000000e+00 0.000000e+00
 0.000000e+00 6.000000e-01 4.000000e-01 0.000000e+00 0.000000e+00
 0.000000e+00 0.000000e+00 6.000000e-01 4.000000e-01 0.000000e+00
 0.000000e+00 0.000000e+00 0.000000e+00 7.000000e-01 3.000000e-01
 0.000000e+00 0.000000e+00 0.000000e+00 0.000000e+00 0.000000e+00
<ENDHMM>
~h "uw"
<BEGINHMM>
<NUMSTATES> 5
<STATE> 2
<MEAN> 25
 9.070750e-09 5.602083e-10 5.897144e-09 2.714019e-09 2.134774e-09 -4.620358e-09 1.313770e-08 6.120139e-09 -5.583046e-09 -4.922898e-09 5.544974e-09 7.764051e-10 1.806886e-02 -1.070167e-02 -1.227334e-02 -4.834075e-03 -1.028266e-02 -2.729346e-02 -1.737361e-02 -1.413678e-02 -2.439713e-02 -1.494737e-02 -1.347310e-03 -8.097601e-03 1.792287e-02
<VARIANCE> 25
 2.891544e+01 2.998487e+01 3.181427e+01 3.797506e+01 3.397845e+01 6.932100e+01 4.796393e+01 3.113100e+01 4.805207e+01 3.219418e+01 2.779412e+01 2.050658e+01 7.071798e-01 1.174889e+00 1.096015e+00 1.147657e+00 1.288282e+00 2.447000e+00 1.972053e+00 1.699578e+00 2.000285e+00 1.599479e+00 1.676569e+00 1.143343e+00 5.501716e-01
<GCONST> 9.218948e+01
<STATE> 3
<MEAN> 25
 9.070750e-09 5.602083e-10 5.897144e-09 2.714019e-09 2.134774e-09 -4.620358e-09 1.313770e-08 6.120139e-09 -5.583046e-09 -4.922898e-09 5.544974e-09 7.764051e-10 1.806886e-02 -1.070167e-02 -1.227334e-02 -4.834075e-03 -1.028266e-02 -2.729346e-02 -1.737361e-02 -1.413678e-02 -2.439713e-02 -1.494737e-02 -1.347310e-03 -8.097601e-03 1.792287e-02
<VARIANCE> 25
 2.891544e+01 2.998487e+01 3.181427e+01 3.797506e+01 3.397845e+01 6.932100e+01 4.796393e+01 3.113100e+01 4.805207e+01 3.219418e+01 2.779412e+01 2.050658e+01 7.071798e-01 1.174889e+00 1.096015e+00 1.147657e+00 1.288282e+00 2.447000e+00 1.972053e+00 1.699578e+00 2.000285e+00 1.599479e+00 1.676569e+00 1.143343e+00 5.501716e-01
<GCONST> 9.218948e+01
<STATE> 4
<MEAN> 25
 9.070750e-09 5.602083e-10 5.897144e-09 2.714019e-09 2.134774e-09 -4.620358e-09 1.313770e-08 6.120139e-09 -5.583046e-09 -4.922898e-09 5.544974e-09 7.764051e-10 1.806886e-02 -1.070167e-02 -1.227334e-02 -4.834075e-03 -1.028266e-02 -2.729346e-02 -1.737361e-02 -1.413678e-02 -2.439713e-02 -1.494737e-02 -1.347310e-03 -8.097601e-03 1.792287e-02
<VARIANCE> 25
 2.891544e+01 2.998487e+01 3.181427e+01 3.797506e+01 3.397845e+01 6.932100e+01 4.796393e+01 3.113100e+01 4.805207e+01 3.219418e+01 2.779412e+01 2.050658e+01 7.071798e-01 1.174889e+00 1.096015e+00 1.147657e+00 1.288282e+00 2.447000e+00 1.972053e+00 1.699578e+00 2.000285e+00 1.599479e+00 1.676569e+00 1.143343e+00 5.501716e-01
<GCONST> 9.218948e+01
<TRANSP> 5
 0.000000e+00 1.000000e+00 0.000000e+00 0.000000e+00 0.000000e+00
 0.000000e+00 6.000000e-01 4.000000e-01 0.000000e+00 0.000000e+00
 0.000000e+00 0.000000e+00 6.000000e-01 4.000000e-01 0.000000e+00
 0.000000e+00 0.000000e+00 0.000000e+00 7.000000e-01 3.000000e-01
 0.000000e+00 0.000000e+00 0.000000e+00 0.000000e+00 0.000000e+00
<ENDHMM>
~h "g"
<BEGINHMM>
<NUMSTATES> 5
<STATE> 2
<MEAN> 25
 9.070750e-09 5.602083e-10 5.897144e-09 2.714019e-09 2.134774e-09 -4.620358e-09 1.313770e-08 6.120139e-09 -5.583046e-09 -4.922898e-09 5.544974e-09 7.764051e-10 1.806886e-02 -1.070167e-02 -1.227334e-02 -4.834075e-03 -1.028266e-02 -2.729346e-02 -1.737361e-02 -1.413678e-02 -2.439713e-02 -1.494737e-02 -1.347310e-03 -8.097601e-03 1.792287e-02
<VARIANCE> 25
 2.891544e+01 2.998487e+01 3.181427e+01 3.797506e+01 3.397845e+01 6.932100e+01 4.796393e+01 3.113100e+01 4.805207e+01 3.219418e+01 2.779412e+01 2.050658e+01 7.071798e-01 1.174889e+00 1.096015e+00 1.147657e+00 1.288282e+00 2.447000e+00 1.972053e+00 1.699578e+00 2.000285e+00 1.599479e+00 1.676569e+00 1.143343e+00 5.501716e-01
<GCONST> 9.218948e+01
<STATE> 3
<MEAN> 25
 9.070750e-09 5.602083e-10 5.897144e-09 2.714019e-09 2.134774e-09 -4.620358e-09 1.313770e-08 6.120139e-09 -5.583046e-09 -4.922898e-09 5.544974e-09 7.764051e-10 1.806886e-02 -1.070167e-02 -1.227334e-02 -4.834075e-03 -1.028266e-02 -2.729346e-02 -1.737361e-02 -1.413678e-02 -2.439713e-02 -1.494737e-02 -1.347310e-03 -8.097601e-03 1.792287e-02
<VARIANCE> 25
 2.891544e+01 2.998487e+01 3.181427e+01 3.797506e+01 3.397845e+01 6.932100e+01 4.796393e+01 3.113100e+01 4.805207e+01 3.219418e+01 2.779412e+01 2.050658e+01 7.071798e-01 1.174889e+00 1.096015e+00 1.147657e+00 1.288282e+00 2.447000e+00 1.972053e+00 1.699578e+00 2.000285e+00 1.599479e+00 1.676569e+00 1.143343e+00 5.501716e-01
<GCONST> 9.218948e+01
<STATE> 4
<MEAN> 25
 9.070750e-09 5.602083e-10 5.897144e-09 2.714019e-09 2.134774e-09 -4.620358e-09 1.313770e-08 6.120139e-09 -5.583046e-09 -4.922898e-09 5.544974e-09 7.764051e-10 1.806886e-02 -1.070167e-02 -1.227334e-02 -4.834075e-03 -1.028266e-02 -2.729346e-02 -1.737361e-02 -1.413678e-02 -2.439713e-02 -1.494737e-02 -1.347310e-03 -8.097601e-03 1.792287e-02
<VARIANCE> 25
 2.891544e+01 2.998487e+01 3.181427e+01 3.797506e+01 3.397845e+01 6.932100e+01 4.796393e+01 3.113100e+01 4.805207e+01 3.219418e+01 2.779412e+01 2.050658e+01 7.071798e-01 1.174889e+00 1.096015e+00 1.147657e+00 1.288282e+00 2.447000e+00 1.972053e+00 1.699578e+00 2.000285e+00 1.599479e+00 1.676569e+00 1.143343e+00 5.501716e-01
<GCONST> 9.218948e+01
<TRANSP> 5
 0.000000e+00 1.000000e+00 0.000000e+00 0.000000e+00 0.000000e+00
 0.000000e+00 6.000000e-01 4.000000e-01 0.000000e+00 0.000000e+00
 0.000000e+00 0.000000e+00 6.000000e-01 4.000000e-01 0.000000e+00
 0.000000e+00 0.000000e+00 0.000000e+00 7.000000e-01 3.000000e-01
 0.000000e+00 0.000000e+00 0.000000e+00 0.000000e+00 0.000000e+00
<ENDHMM>
~h "aa"
<BEGINHMM>
<NUMSTATES> 5
<STATE> 2
<MEAN> 25
 9.070750e-09 5.602083e-10 5.897144e-09 2.714019e-09 2.134774e-09 -4.620358e-09 1.313770e-08 6.120139e-09 -5.583046e-09 -4.922898e-09 5.544974e-09 7.764051e-10 1.806886e-02 -1.070167e-02 -1.227334e-02 -4.834075e-03 -1.028266e-02 -2.729346e-02 -1.737361e-02 -1.413678e-02 -2.439713e-02 -1.494737e-02 -1.347310e-03 -8.097601e-03 1.792287e-02
<VARIANCE> 25
 2.891544e+01 2.998487e+01 3.181427e+01 3.797506e+01 3.397845e+01 6.932100e+01 4.796393e+01 3.113100e+01 4.805207e+01 3.219418e+01 2.779412e+01 2.050658e+01 7.071798e-01 1.174889e+00 1.096015e+00 1.147657e+00 1.288282e+00 2.447000e+00 1.972053e+00 1.699578e+00 2.000285e+00 1.599479e+00 1.676569e+00 1.143343e+00 5.501716e-01
<GCONST> 9.218948e+01
<STATE> 3
<MEAN> 25
 9.070750e-09 5.602083e-10 5.897144e-09 2.714019e-09 2.134774e-09 -4.620358e-09 1.313770e-08 6.120139e-09 -5.583046e-09 -4.922898e-09 5.544974e-09 7.764051e-10 1.806886e-02 -1.070167e-02 -1.227334e-02 -4.834075e-03 -1.028266e-02 -2.729346e-02 -1.737361e-02 -1.413678e-02 -2.439713e-02 -1.494737e-02 -1.347310e-03 -8.097601e-03 1.792287e-02
<VARIANCE> 25
 2.891544e+01 2.998487e+01 3.181427e+01 3.797506e+01 3.397845e+01 6.932100e+01 4.796393e+01 3.113100e+01 4.805207e+01 3.219418e+01 2.779412e+01 2.050658e+01 7.071798e-01 1.174889e+00 1.096015e+00 1.147657e+00 1.288282e+00 2.447000e+00 1.972053e+00 1.699578e+00 2.000285e+00 1.599479e+00 1.676569e+00 1.143343e+00 5.501716e-01
<GCONST> 9.218948e+01
<STATE> 4
<MEAN> 25
 9.070750e-09 5.602083e-10 5.897144e-09 2.714019e-09 2.134774e-09 -4.620358e-09 1.313770e-08 6.120139e-09 -5.583046e-09 -4.922898e-09 5.544974e-09 7.764051e-10 1.806886e-02 -1.070167e-02 -1.227334e-02 -4.834075e-03 -1.028266e-02 -2.729346e-02 -1.737361e-02 -1.413678e-02 -2.439713e-02 -1.494737e-02 -1.347310e-03 -8.097601e-03 1.792287e-02
<VARIANCE> 25
 2.891544e+01 2.998487e+01 3.181427e+01 3.797506e+01 3.397845e+01 6.932100e+01 4.796393e+01 3.113100e+01 4.805207e+01 3.219418e+01 2.779412e+01 2.050658e+01 7.071798e-01 1.174889e+00 1.096015e+00 1.147657e+00 1.288282e+00 2.447000e+00 1.972053e+00 1.699578e+00 2.000285e+00 1.599479e+00 1.676569e+00 1.143343e+00 5.501716e-01
<GCONST> 9.218948e+01
<TRANSP> 5
 0.000000e+00 1.000000e+00 0.000000e+00 0.000000e+00 0.000000e+00
 0.000000e+00 6.000000e-01 4.000000e-01 0.000000e+00 0.000000e+00
 0.000000e+00 0.000000e+00 6.000000e-01 4.000000e-01 0.000000e+00
 0.000000e+00 0.000000e+00 0.000000e+00 7.000000e-01 3.000000e-01
 0.000000e+00 0.000000e+00 0.000000e+00 0.000000e+00 0.000000e+00
<ENDHMM>
~h "hh"
<BEGINHMM>
<NUMSTATES> 5
<STATE> 2
<MEAN> 25
 9.070750e-09 5.602083e-10 5.897144e-09 2.714019e-09 2.134774e-09 -4.620358e-09 1.313770e-08 6.120139e-09 -5.583046e-09 -4.922898e-09 5.544974e-09 7.764051e-10 1.806886e-02 -1.070167e-02 -1.227334e-02 -4.834075e-03 -1.028266e-02 -2.729346e-02 -1.737361e-02 -1.413678e-02 -2.439713e-02 -1.494737e-02 -1.347310e-03 -8.097601e-03 1.792287e-02
<VARIANCE> 25
 2.891544e+01 2.998487e+01 3.181427e+01 3.797506e+01 3.397845e+01 6.932100e+01 4.796393e+01 3.113100e+01 4.805207e+01 3.219418e+01 2.779412e+01 2.050658e+01 7.071798e-01 1.174889e+00 1.096015e+00 1.147657e+00 1.288282e+00 2.447000e+00 1.972053e+00 1.699578e+00 2.000285e+00 1.599479e+00 1.676569e+00 1.143343e+00 5.501716e-01
<GCONST> 9.218948e+01
<STATE> 3
<MEAN> 25
 9.070750e-09 5.602083e-10 5.897144e-09 2.714019e-09 2.134774e-09 -4.620358e-09 1.313770e-08 6.120139e-09 -5.583046e-09 -4.922898e-09 5.544974e-09 7.764051e-10 1.806886e-02 -1.070167e-02 -1.227334e-02 -4.834075e-03 -1.028266e-02 -2.729346e-02 -1.737361e-02 -1.413678e-02 -2.439713e-02 -1.494737e-02 -1.347310e-03 -8.097601e-03 1.792287e-02
<VARIANCE> 25
 2.891544e+01 2.998487e+01 3.181427e+01 3.797506e+01 3.397845e+01 6.932100e+01 4.796393e+01 3.113100e+01 4.805207e+01 3.219418e+01 2.779412e+01 2.050658e+01 7.071798e-01 1.174889e+00 1.096015e+00 1.147657e+00 1.288282e+00 2.447000e+00 1.972053e+00 1.699578e+00 2.000285e+00 1.599479e+00 1.676569e+00 1.143343e+00 5.501716e-01
<GCONST> 9.218948e+01
<STATE> 4
<MEAN> 25
 9.070750e-09 5.602083e-10 5.897144e-09 2.714019e-09 2.134774e-09 -4.620358e-09 1.313770e-08 6.120139e-09 -5.583046e-09 -4.922898e-09 5.544974e-09 7.764051e-10 1.806886e-02 -1.070167e-02 -1.227334e-02 -4.834075e-03 -1.028266e-02 -2.729346e-02 -1.737361e-02 -1.413678e-02 -2.439713e-02 -1.494737e-02 -1.347310e-03 -8.097601e-03 1.792287e-02
<VARIANCE> 25
 2.891544e+01 2.998487e+01 3.181427e+01 3.797506e+01 3.397845e+01 6.932100e+01 4.796393e+01 3.113100e+01 4.805207e+01 3.219418e+01 2.779412e+01 2.050658e+01 7.071798e-01 1.174889e+00 1.096015e+00 1.147657e+00 1.288282e+00 2.447000e+00 1.972053e+00 1.699578e+00 2.000285e+00 1.599479e+00 1.676569e+00 1.143343e+00 5.501716e-01
<GCONST> 9.218948e+01
<TRANSP> 5
 0.000000e+00 1.000000e+00 0.000000e+00 0.000000e+00 0.000000e+00
 0.000000e+00 6.000000e-01 4.000000e-01 0.000000e+00 0.000000e+00
 0.000000e+00 0.000000e+00 6.000000e-01 4.000000e-01 0.000000e+00
 0.000000e+00 0.000000e+00 0.000000e+00 7.000000e-01 3.000000e-01
 0.000000e+00 0.000000e+00 0.000000e+00 0.000000e+00 0.000000e+00
<ENDHMM>
~h "m"
<BEGINHMM>
<NUMSTATES> 5
<STATE> 2
<MEAN> 25
 9.070750e-09 5.602083e-10 5.897144e-09 2.714019e-09 2.134774e-09 -4.620358e-09 1.313770e-08 6.120139e-09 -5.583046e-09 -4.922898e-09 5.544974e-09 7.764051e-10 1.806886e-02 -1.070167e-02 -1.227334e-02 -4.834075e-03 -1.028266e-02 -2.729346e-02 -1.737361e-02 -1.413678e-02 -2.439713e-02 -1.494737e-02 -1.347310e-03 -8.097601e-03 1.792287e-02
<VARIANCE> 25
 2.891544e+01 2.998487e+01 3.181427e+01 3.797506e+01 3.397845e+01 6.932100e+01 4.796393e+01 3.113100e+01 4.805207e+01 3.219418e+01 2.779412e+01 2.050658e+01 7.071798e-01 1.174889e+00 1.096015e+00 1.147657e+00 1.288282e+00 2.447000e+00 1.972053e+00 1.699578e+00 2.000285e+00 1.599479e+00 1.676569e+00 1.143343e+00 5.501716e-01
<GCONST> 9.218948e+01
<STATE> 3
<MEAN> 25
 9.070750e-09 5.602083e-10 5.897144e-09 2.714019e-09 2.134774e-09 -4.620358e-09 1.313770e-08 6.120139e-09 -5.583046e-09 -4.922898e-09 5.544974e-09 7.764051e-10 1.806886e-02 -1.070167e-02 -1.227334e-02 -4.834075e-03 -1.028266e-02 -2.729346e-02 -1.737361e-02 -1.413678e-02 -2.439713e-02 -1.494737e-02 -1.347310e-03 -8.097601e-03 1.792287e-02
<VARIANCE> 25
 2.891544e+01 2.998487e+01 3.181427e+01 3.797506e+01 3.397845e+01 6.932100e+01 4.796393e+01 3.113100e+01 4.805207e+01 3.219418e+01 2.779412e+01 2.050658e+01 7.071798e-01 1.174889e+00 1.096015e+00 1.147657e+00 1.288282e+00 2.447000e+00 1.972053e+00 1.699578e+00 2.000285e+00 1.599479e+00 1.676569e+00 1.143343e+00 5.501716e-01
<GCONST> 9.218948e+01
<STATE> 4
<MEAN> 25
 9.070750e-09 5.602083e-10 5.897144e-09 2.714019e-09 2.134774e-09 -4.620358e-09 1.313770e-08 6.120139e-09 -5.583046e-09 -4.922898e-09 5.544974e-09 7.764051e-10 1.806886e-02 -1.070167e-02 -1.227334e-02 -4.834075e-03 -1.028266e-02 -2.729346e-02 -1.737361e-02 -1.413678e-02 -2.439713e-02 -1.494737e-02 -1.347310e-03 -8.097601e-03 1.792287e-02
<VARIANCE> 25
 2.891544e+01 2.998487e+01 3.181427e+01 3.797506e+01 3.397845e+01 6.932100e+01 4.796393e+01 3.113100e+01 4.805207e+01 3.219418e+01 2.779412e+01 2.050658e+01 7.071798e-01 1.174889e+00 1.096015e+00 1.147657e+00 1.288282e+00 2.447000e+00 1.972053e+00 1.699578e+00 2.000285e+00 1.599479e+00 1.676569e+00 1.143343e+00 5.501716e-01
<GCONST> 9.218948e+01
<TRANSP> 5
 0.000000e+00 1.000000e+00 0.000000e+00 0.000000e+00 0.000000e+00
 0.000000e+00 6.000000e-01 4.000000e-01 0.000000e+00 0.000000e+00
 0.000000e+00 0.000000e+00 6.000000e-01 4.000000e-01 0.000000e+00
 0.000000e+00 0.000000e+00 0.000000e+00 7.000000e-01 3.000000e-01
 0.000000e+00 0.000000e+00 0.000000e+00 0.000000e+00 0.000000e+00
<ENDHMM>
~h "jh"
<BEGINHMM>
<NUMSTATES> 5
<STATE> 2
<MEAN> 25
 9.070750e-09 5.602083e-10 5.897144e-09 2.714019e-09 2.134774e-09 -4.620358e-09 1.313770e-08 6.120139e-09 -5.583046e-09 -4.922898e-09 5.544974e-09 7.764051e-10 1.806886e-02 -1.070167e-02 -1.227334e-02 -4.834075e-03 -1.028266e-02 -2.729346e-02 -1.737361e-02 -1.413678e-02 -2.439713e-02 -1.494737e-02 -1.347310e-03 -8.097601e-03 1.792287e-02
<VARIANCE> 25
 2.891544e+01 2.998487e+01 3.181427e+01 3.797506e+01 3.397845e+01 6.932100e+01 4.796393e+01 3.113100e+01 4.805207e+01 3.219418e+01 2.779412e+01 2.050658e+01 7.071798e-01 1.174889e+00 1.096015e+00 1.147657e+00 1.288282e+00 2.447000e+00 1.972053e+00 1.699578e+00 2.000285e+00 1.599479e+00 1.676569e+00 1.143343e+00 5.501716e-01
<GCONST> 9.218948e+01
<STATE> 3
<MEAN> 25
 9.070750e-09 5.602083e-10 5.897144e-09 2.714019e-09 2.134774e-09 -4.620358e-09 1.313770e-08 6.120139e-09 -5.583046e-09 -4.922898e-09 5.544974e-09 7.764051e-10 1.806886e-02 -1.070167e-02 -1.227334e-02 -4.834075e-03 -1.028266e-02 -2.729346e-02 -1.737361e-02 -1.413678e-02 -2.439713e-02 -1.494737e-02 -1.347310e-03 -8.097601e-03 1.792287e-02
<VARIANCE> 25
 2.891544e+01 2.998487e+01 3.181427e+01 3.797506e+01 3.397845e+01 6.932100e+01 4.796393e+01 3.113100e+01 4.805207e+01 3.219418e+01 2.779412e+01 2.050658e+01 7.071798e-01 1.174889e+00 1.096015e+00 1.147657e+00 1.288282e+00 2.447000e+00 1.972053e+00 1.699578e+00 2.000285e+00 1.599479e+00 1.676569e+00 1.143343e+00 5.501716e-01
<GCONST> 9.218948e+01
<STATE> 4
<MEAN> 25
 9.070750e-09 5.602083e-10 5.897144e-09 2.714019e-09 2.134774e-09 -4.620358e-09 1.313770e-08 6.120139e-09 -5.583046e-09 -4.922898e-09 5.544974e-09 7.764051e-10 1.806886e-02 -1.070167e-02 -1.227334e-02 -4.834075e-03 -1.028266e-02 -2.729346e-02 -1.737361e-02 -1.413678e-02 -2.439713e-02 -1.494737e-02 -1.347310e-03 -8.097601e-03 1.792287e-02
<VARIANCE> 25
 2.891544e+01 2.998487e+01 3.181427e+01 3.797506e+01 3.397845e+01 6.932100e+01 4.796393e+01 3.113100e+01 4.805207e+01 3.219418e+01 2.779412e+01 2.050658e+01 7.071798e-01 1.174889e+00 1.096015e+00 1.147657e+00 1.288282e+00 2.447000e+00 1.972053e+00 1.699578e+00 2.000285e+00 1.599479e+00 1.676569e+00 1.143343e+00 5.501716e-01
<GCONST> 9.218948e+01
<TRANSP> 5
 0.000000e+00 1.000000e+00 0.000000e+00 0.000000e+00 0.000000e+00
 0.000000e+00 6.000000e-01 4.000000e-01 0.000000e+00 0.000000e+00
 0.000000e+00 0.000000e+00 6.000000e-01 4.000000e-01 0.000000e+00
 0.000000e+00 0.000000e+00 0.000000e+00 7.000000e-01 3.000000e-01
 0.000000e+00 0.000000e+00 0.000000e+00 0.000000e+00 0.000000e+00
<ENDHMM>
~h "dh"
<BEGINHMM>
<NUMSTATES> 5
<STATE> 2
<MEAN> 25
 9.070750e-09 5.602083e-10 5.897144e-09 2.714019e-09 2.134774e-09 -4.620358e-09 1.313770e-08 6.120139e-09 -5.583046e-09 -4.922898e-09 5.544974e-09 7.764051e-10 1.806886e-02 -1.070167e-02 -1.227334e-02 -4.834075e-03 -1.028266e-02 -2.729346e-02 -1.737361e-02 -1.413678e-02 -2.439713e-02 -1.494737e-02 -1.347310e-03 -8.097601e-03 1.792287e-02
<VARIANCE> 25
 2.891544e+01 2.998487e+01 3.181427e+01 3.797506e+01 3.397845e+01 6.932100e+01 4.796393e+01 3.113100e+01 4.805207e+01 3.219418e+01 2.779412e+01 2.050658e+01 7.071798e-01 1.174889e+00 1.096015e+00 1.147657e+00 1.288282e+00 2.447000e+00 1.972053e+00 1.699578e+00 2.000285e+00 1.599479e+00 1.676569e+00 1.143343e+00 5.501716e-01
<GCONST> 9.218948e+01
<STATE> 3
<MEAN> 25
 9.070750e-09 5.602083e-10 5.897144e-09 2.714019e-09 2.134774e-09 -4.620358e-09 1.313770e-08 6.120139e-09 -5.583046e-09 -4.922898e-09 5.544974e-09 7.764051e-10 1.806886e-02 -1.070167e-02 -1.227334e-02 -4.834075e-03 -1.028266e-02 -2.729346e-02 -1.737361e-02 -1.413678e-02 -2.439713e-02 -1.494737e-02 -1.347310e-03 -8.097601e-03 1.792287e-02
<VARIANCE> 25
 2.891544e+01 2.998487e+01 3.181427e+01 3.797506e+01 3.397845e+01 6.932100e+01 4.796393e+01 3.113100e+01 4.805207e+01 3.219418e+01 2.779412e+01 2.050658e+01 7.071798e-01 1.174889e+00 1.096015e+00 1.147657e+00 1.288282e+00 2.447000e+00 1.972053e+00 1.699578e+00 2.000285e+00 1.599479e+00 1.676569e+00 1.143343e+00 5.501716e-01
<GCONST> 9.218948e+01
<STATE> 4
<MEAN> 25
 9.070750e-09 5.602083e-10 5.897144e-09 2.714019e-09 2.134774e-09 -4.620358e-09 1.313770e-08 6.120139e-09 -5.583046e-09 -4.922898e-09 5.544974e-09 7.764051e-10 1.806886e-02 -1.070167e-02 -1.227334e-02 -4.834075e-03 -1.028266e-02 -2.729346e-02 -1.737361e-02 -1.413678e-02 -2.439713e-02 -1.494737e-02 -1.347310e-03 -8.097601e-03 1.792287e-02
<VARIANCE> 25
 2.891544e+01 2.998487e+01 3.181427e+01 3.797506e+01 3.397845e+01 6.932100e+01 4.796393e+01 3.113100e+01 4.805207e+01 3.219418e+01 2.779412e+01 2.050658e+01 7.071798e-01 1.174889e+00 1.096015e+00 1.147657e+00 1.288282e+00 2.447000e+00 1.972053e+00 1.699578e+00 2.000285e+00 1.599479e+00 1.676569e+00 1.143343e+00 5.501716e-01
<GCONST> 9.218948e+01
<TRANSP> 5
 0.000000e+00 1.000000e+00 0.000000e+00 0.000000e+00 0.000000e+00
 0.000000e+00 6.000000e-01 4.000000e-01 0.000000e+00 0.000000e+00
 0.000000e+00 0.000000e+00 6.000000e-01 4.000000e-01 0.000000e+00
 0.000000e+00 0.000000e+00 0.000000e+00 7.000000e-01 3.000000e-01
 0.000000e+00 0.000000e+00 0.000000e+00 0.000000e+00 0.000000e+00
<ENDHMM>
~h "w"
<BEGINHMM>
<NUMSTATES> 5
<STATE> 2
<MEAN> 25
 9.070750e-09 5.602083e-10 5.897144e-09 2.714019e-09 2.134774e-09 -4.620358e-09 1.313770e-08 6.120139e-09 -5.583046e-09 -4.922898e-09 5.544974e-09 7.764051e-10 1.806886e-02 -1.070167e-02 -1.227334e-02 -4.834075e-03 -1.028266e-02 -2.729346e-02 -1.737361e-02 -1.413678e-02 -2.439713e-02 -1.494737e-02 -1.347310e-03 -8.097601e-03 1.792287e-02
<VARIANCE> 25
 2.891544e+01 2.998487e+01 3.181427e+01 3.797506e+01 3.397845e+01 6.932100e+01 4.796393e+01 3.113100e+01 4.805207e+01 3.219418e+01 2.779412e+01 2.050658e+01 7.071798e-01 1.174889e+00 1.096015e+00 1.147657e+00 1.288282e+00 2.447000e+00 1.972053e+00 1.699578e+00 2.000285e+00 1.599479e+00 1.676569e+00 1.143343e+00 5.501716e-01
<GCONST> 9.218948e+01
<STATE> 3
<MEAN> 25
 9.070750e-09 5.602083e-10 5.897144e-09 2.714019e-09 2.134774e-09 -4.620358e-09 1.313770e-08 6.120139e-09 -5.583046e-09 -4.922898e-09 5.544974e-09 7.764051e-10 1.806886e-02 -1.070167e-02 -1.227334e-02 -4.834075e-03 -1.028266e-02 -2.729346e-02 -1.737361e-02 -1.413678e-02 -2.439713e-02 -1.494737e-02 -1.347310e-03 -8.097601e-03 1.792287e-02
<VARIANCE> 25
 2.891544e+01 2.998487e+01 3.181427e+01 3.797506e+01 3.397845e+01 6.932100e+01 4.796393e+01 3.113100e+01 4.805207e+01 3.219418e+01 2.779412e+01 2.050658e+01 7.071798e-01 1.174889e+00 1.096015e+00 1.147657e+00 1.288282e+00 2.447000e+00 1.972053e+00 1.699578e+00 2.000285e+00 1.599479e+00 1.676569e+00 1.143343e+00 5.501716e-01
<GCONST> 9.218948e+01
<STATE> 4
<MEAN> 25
 9.070750e-09 5.602083e-10 5.897144e-09 2.714019e-09 2.134774e-09 -4.620358e-09 1.313770e-08 6.120139e-09 -5.583046e-09 -4.922898e-09 5.544974e-09 7.764051e-10 1.806886e-02 -1.070167e-02 -1.227334e-02 -4.834075e-03 -1.028266e-02 -2.729346e-02 -1.737361e-02 -1.413678e-02 -2.439713e-02 -1.494737e-02 -1.347310e-03 -8.097601e-03 1.792287e-02
<VARIANCE> 25
 2.891544e+01 2.998487e+01 3.181427e+01 3.797506e+01 3.397845e+01 6.932100e+01 4.796393e+01 3.113100e+01 4.805207e+01 3.219418e+01 2.779412e+01 2.050658e+01 7.071798e-01 1.174889e+00 1.096015e+00 1.147657e+00 1.288282e+00 2.447000e+00 1.972053e+00 1.699578e+00 2.000285e+00 1.599479e+00 1.676569e+00 1.143343e+00 5.501716e-01
<GCONST> 9.218948e+01
<TRANSP> 5
 0.000000e+00 1.000000e+00 0.000000e+00 0.000000e+00 0.000000e+00
 0.000000e+00 6.000000e-01 4.000000e-01 0.000000e+00 0.000000e+00
 0.000000e+00 0.000000e+00 6.000000e-01 4.000000e-01 0.000000e+00
 0.000000e+00 0.000000e+00 0.000000e+00 7.000000e-01 3.000000e-01
 0.000000e+00 0.000000e+00 0.000000e+00 0.000000e+00 0.000000e+00
<ENDHMM>
~h "th"
<BEGINHMM>
<NUMSTATES> 5
<STATE> 2
<MEAN> 25
 9.070750e-09 5.602083e-10 5.897144e-09 2.714019e-09 2.134774e-09 -4.620358e-09 1.313770e-08 6.120139e-09 -5.583046e-09 -4.922898e-09 5.544974e-09 7.764051e-10 1.806886e-02 -1.070167e-02 -1.227334e-02 -4.834075e-03 -1.028266e-02 -2.729346e-02 -1.737361e-02 -1.413678e-02 -2.439713e-02 -1.494737e-02 -1.347310e-03 -8.097601e-03 1.792287e-02
<VARIANCE> 25
 2.891544e+01 2.998487e+01 3.181427e+01 3.797506e+01 3.397845e+01 6.932100e+01 4.796393e+01 3.113100e+01 4.805207e+01 3.219418e+01 2.779412e+01 2.050658e+01 7.071798e-01 1.174889e+00 1.096015e+00 1.147657e+00 1.288282e+00 2.447000e+00 1.972053e+00 1.699578e+00 2.000285e+00 1.599479e+00 1.676569e+00 1.143343e+00 5.501716e-01
<GCONST> 9.218948e+01
<STATE> 3
<MEAN> 25
 9.070750e-09 5.602083e-10 5.897144e-09 2.714019e-09 2.134774e-09 -4.620358e-09 1.313770e-08 6.120139e-09 -5.583046e-09 -4.922898e-09 5.544974e-09 7.764051e-10 1.806886e-02 -1.070167e-02 -1.227334e-02 -4.834075e-03 -1.028266e-02 -2.729346e-02 -1.737361e-02 -1.413678e-02 -2.439713e-02 -1.494737e-02 -1.347310e-03 -8.097601e-03 1.792287e-02
<VARIANCE> 25
 2.891544e+01 2.998487e+01 3.181427e+01 3.797506e+01 3.397845e+01 6.932100e+01 4.796393e+01 3.113100e+01 4.805207e+01 3.219418e+01 2.779412e+01 2.050658e+01 7.071798e-01 1.174889e+00 1.096015e+00 1.147657e+00 1.288282e+00 2.447000e+00 1.972053e+00 1.699578e+00 2.000285e+00 1.599479e+00 1.676569e+00 1.143343e+00 5.501716e-01
<GCONST> 9.218948e+01
<STATE> 4
<MEAN> 25
 9.070750e-09 5.602083e-10 5.897144e-09 2.714019e-09 2.134774e-09 -4.620358e-09 1.313770e-08 6.120139e-09 -5.583046e-09 -4.922898e-09 5.544974e-09 7.764051e-10 1.806886e-02 -1.070167e-02 -1.227334e-02 -4.834075e-03 -1.028266e-02 -2.729346e-02 -1.737361e-02 -1.413678e-02 -2.439713e-02 -1.494737e-02 -1.347310e-03 -8.097601e-03 1.792287e-02
<VARIANCE> 25
 2.891544e+01 2.998487e+01 3.181427e+01 3.797506e+01 3.397845e+01 6.932100e+01 4.796393e+01 3.113100e+01 4.805207e+01 3.219418e+01 2.779412e+01 2.050658e+01 7.071798e-01 1.174889e+00 1.096015e+00 1.147657e+00 1.288282e+00 2.447000e+00 1.972053e+00 1.699578e+00 2.000285e+00 1.599479e+00 1.676569e+00 1.143343e+00 5.501716e-01
<GCONST> 9.218948e+01
<TRANSP> 5
 0.000000e+00 1.000000e+00 0.000000e+00 0.000000e+00 0.000000e+00
 0.000000e+00 6.000000e-01 4.000000e-01 0.000000e+00 0.000000e+00
 0.000000e+00 0.000000e+00 6.000000e-01 4.000000e-01 0.000000e+00
 0.000000e+00 0.000000e+00 0.000000e+00 7.000000e-01 3.000000e-01
 0.000000e+00 0.000000e+00 0.000000e+00 0.000000e+00 0.000000e+00
<ENDHMM>
~h "y"
<BEGINHMM>
<NUMSTATES> 5
<STATE> 2
<MEAN> 25
 9.070750e-09 5.602083e-10 5.897144e-09 2.714019e-09 2.134774e-09 -4.620358e-09 1.313770e-08 6.120139e-09 -5.583046e-09 -4.922898e-09 5.544974e-09 7.764051e-10 1.806886e-02 -1.070167e-02 -1.227334e-02 -4.834075e-03 -1.028266e-02 -2.729346e-02 -1.737361e-02 -1.413678e-02 -2.439713e-02 -1.494737e-02 -1.347310e-03 -8.097601e-03 1.792287e-02
<VARIANCE> 25
 2.891544e+01 2.998487e+01 3.181427e+01 3.797506e+01 3.397845e+01 6.932100e+01 4.796393e+01 3.113100e+01 4.805207e+01 3.219418e+01 2.779412e+01 2.050658e+01 7.071798e-01 1.174889e+00 1.096015e+00 1.147657e+00 1.288282e+00 2.447000e+00 1.972053e+00 1.699578e+00 2.000285e+00 1.599479e+00 1.676569e+00 1.143343e+00 5.501716e-01
<GCONST> 9.218948e+01
<STATE> 3
<MEAN> 25
 9.070750e-09 5.602083e-10 5.897144e-09 2.714019e-09 2.134774e-09 -4.620358e-09 1.313770e-08 6.120139e-09 -5.583046e-09 -4.922898e-09 5.544974e-09 7.764051e-10 1.806886e-02 -1.070167e-02 -1.227334e-02 -4.834075e-03 -1.028266e-02 -2.729346e-02 -1.737361e-02 -1.413678e-02 -2.439713e-02 -1.494737e-02 -1.347310e-03 -8.097601e-03 1.792287e-02
<VARIANCE> 25
 2.891544e+01 2.998487e+01 3.181427e+01 3.797506e+01 3.397845e+01 6.932100e+01 4.796393e+01 3.113100e+01 4.805207e+01 3.219418e+01 2.779412e+01 2.050658e+01 7.071798e-01 1.174889e+00 1.096015e+00 1.147657e+00 1.288282e+00 2.447000e+00 1.972053e+00 1.699578e+00 2.000285e+00 1.599479e+00 1.676569e+00 1.143343e+00 5.501716e-01
<GCONST> 9.218948e+01
<STATE> 4
<MEAN> 25
 9.070750e-09 5.602083e-10 5.897144e-09 2.714019e-09 2.134774e-09 -4.620358e-09 1.313770e-08 6.120139e-09 -5.583046e-09 -4.922898e-09 5.544974e-09 7.764051e-10 1.806886e-02 -1.070167e-02 -1.227334e-02 -4.834075e-03 -1.028266e-02 -2.729346e-02 -1.737361e-02 -1.413678e-02 -2.439713e-02 -1.494737e-02 -1.347310e-03 -8.097601e-03 1.792287e-02
<VARIANCE> 25
 2.891544e+01 2.998487e+01 3.181427e+01 3.797506e+01 3.397845e+01 6.932100e+01 4.796393e+01 3.113100e+01 4.805207e+01 3.219418e+01 2.779412e+01 2.050658e+01 7.071798e-01 1.174889e+00 1.096015e+00 1.147657e+00 1.288282e+00 2.447000e+00 1.972053e+00 1.699578e+00 2.000285e+00 1.599479e+00 1.676569e+00 1.143343e+00 5.501716e-01
<GCONST> 9.218948e+01
<TRANSP> 5
 0.000000e+00 1.000000e+00 0.000000e+00 0.000000e+00 0.000000e+00
 0.000000e+00 6.000000e-01 4.000000e-01 0.000000e+00 0.000000e+00
 0.000000e+00 0.000000e+00 6.000000e-01 4.000000e-01 0.000000e+00
 0.000000e+00 0.000000e+00 0.000000e+00 7.000000e-01 3.000000e-01
 0.000000e+00 0.000000e+00 0.000000e+00 0.000000e+00 0.000000e+00
<ENDHMM>
~h "sh"
<BEGINHMM>
<NUMSTATES> 5
<STATE> 2
<MEAN> 25
 9.070750e-09 5.602083e-10 5.897144e-09 2.714019e-09 2.134774e-09 -4.620358e-09 1.313770e-08 6.120139e-09 -5.583046e-09 -4.922898e-09 5.544974e-09 7.764051e-10 1.806886e-02 -1.070167e-02 -1.227334e-02 -4.834075e-03 -1.028266e-02 -2.729346e-02 -1.737361e-02 -1.413678e-02 -2.439713e-02 -1.494737e-02 -1.347310e-03 -8.097601e-03 1.792287e-02
<VARIANCE> 25
 2.891544e+01 2.998487e+01 3.181427e+01 3.797506e+01 3.397845e+01 6.932100e+01 4.796393e+01 3.113100e+01 4.805207e+01 3.219418e+01 2.779412e+01 2.050658e+01 7.071798e-01 1.174889e+00 1.096015e+00 1.147657e+00 1.288282e+00 2.447000e+00 1.972053e+00 1.699578e+00 2.000285e+00 1.599479e+00 1.676569e+00 1.143343e+00 5.501716e-01
<GCONST> 9.218948e+01
<STATE> 3
<MEAN> 25
 9.070750e-09 5.602083e-10 5.897144e-09 2.714019e-09 2.134774e-09 -4.620358e-09 1.313770e-08 6.120139e-09 -5.583046e-09 -4.922898e-09 5.544974e-09 7.764051e-10 1.806886e-02 -1.070167e-02 -1.227334e-02 -4.834075e-03 -1.028266e-02 -2.729346e-02 -1.737361e-02 -1.413678e-02 -2.439713e-02 -1.494737e-02 -1.347310e-03 -8.097601e-03 1.792287e-02
<VARIANCE> 25
 2.891544e+01 2.998487e+01 3.181427e+01 3.797506e+01 3.397845e+01 6.932100e+01 4.796393e+01 3.113100e+01 4.805207e+01 3.219418e+01 2.779412e+01 2.050658e+01 7.071798e-01 1.174889e+00 1.096015e+00 1.147657e+00 1.288282e+00 2.447000e+00 1.972053e+00 1.699578e+00 2.000285e+00 1.599479e+00 1.676569e+00 1.143343e+00 5.501716e-01
<GCONST> 9.218948e+01
<STATE> 4
<MEAN> 25
 9.070750e-09 5.602083e-10 5.897144e-09 2.714019e-09 2.134774e-09 -4.620358e-09 1.313770e-08 6.120139e-09 -5.583046e-09 -4.922898e-09 5.544974e-09 7.764051e-10 1.806886e-02 -1.070167e-02 -1.227334e-02 -4.834075e-03 -1.028266e-02 -2.729346e-02 -1.737361e-02 -1.413678e-02 -2.439713e-02 -1.494737e-02 -1.347310e-03 -8.097601e-03 1.792287e-02
<VARIANCE> 25
 2.891544e+01 2.998487e+01 3.181427e+01 3.797506e+01 3.397845e+01 6.932100e+01 4.796393e+01 3.113100e+01 4.805207e+01 3.219418e+01 2.779412e+01 2.050658e+01 7.071798e-01 1.174889e+00 1.096015e+00 1.147657e+00 1.288282e+00 2.447000e+00 1.972053e+00 1.699578e+00 2.000285e+00 1.599479e+00 1.676569e+00 1.143343e+00 5.501716e-01
<GCONST> 9.218948e+01
<TRANSP> 5
 0.000000e+00 1.000000e+00 0.000000e+00 0.000000e+00 0.000000e+00
 0.000000e+00 6.000000e-01 4.000000e-01 0.000000e+00 0.000000e+00
 0.000000e+00 0.000000e+00 6.000000e-01 4.000000e-01 0.000000e+00
 0.000000e+00 0.000000e+00 0.000000e+00 7.000000e-01 3.000000e-01
 0.000000e+00 0.000000e+00 0.000000e+00 0.000000e+00 0.000000e+00
<ENDHMM>
~h "oy"
<BEGINHMM>
<NUMSTATES> 5
<STATE> 2
<MEAN> 25
 9.070750e-09 5.602083e-10 5.897144e-09 2.714019e-09 2.134774e-09 -4.620358e-09 1.313770e-08 6.120139e-09 -5.583046e-09 -4.922898e-09 5.544974e-09 7.764051e-10 1.806886e-02 -1.070167e-02 -1.227334e-02 -4.834075e-03 -1.028266e-02 -2.729346e-02 -1.737361e-02 -1.413678e-02 -2.439713e-02 -1.494737e-02 -1.347310e-03 -8.097601e-03 1.792287e-02
<VARIANCE> 25
 2.891544e+01 2.998487e+01 3.181427e+01 3.797506e+01 3.397845e+01 6.932100e+01 4.796393e+01 3.113100e+01 4.805207e+01 3.219418e+01 2.779412e+01 2.050658e+01 7.071798e-01 1.174889e+00 1.096015e+00 1.147657e+00 1.288282e+00 2.447000e+00 1.972053e+00 1.699578e+00 2.000285e+00 1.599479e+00 1.676569e+00 1.143343e+00 5.501716e-01
<GCONST> 9.218948e+01
<STATE> 3
<MEAN> 25
 9.070750e-09 5.602083e-10 5.897144e-09 2.714019e-09 2.134774e-09 -4.620358e-09 1.313770e-08 6.120139e-09 -5.583046e-09 -4.922898e-09 5.544974e-09 7.764051e-10 1.806886e-02 -1.070167e-02 -1.227334e-02 -4.834075e-03 -1.028266e-02 -2.729346e-02 -1.737361e-02 -1.413678e-02 -2.439713e-02 -1.494737e-02 -1.347310e-03 -8.097601e-03 1.792287e-02
<VARIANCE> 25
 2.891544e+01 2.998487e+01 3.181427e+01 3.797506e+01 3.397845e+01 6.932100e+01 4.796393e+01 3.113100e+01 4.805207e+01 3.219418e+01 2.779412e+01 2.050658e+01 7.071798e-01 1.174889e+00 1.096015e+00 1.147657e+00 1.288282e+00 2.447000e+00 1.972053e+00 1.699578e+00 2.000285e+00 1.599479e+00 1.676569e+00 1.143343e+00 5.501716e-01
<GCONST> 9.218948e+01
<STATE> 4
<MEAN> 25
 9.070750e-09 5.602083e-10 5.897144e-09 2.714019e-09 2.134774e-09 -4.620358e-09 1.313770e-08 6.120139e-09 -5.583046e-09 -4.922898e-09 5.544974e-09 7.764051e-10 1.806886e-02 -1.070167e-02 -1.227334e-02 -4.834075e-03 -1.028266e-02 -2.729346e-02 -1.737361e-02 -1.413678e-02 -2.439713e-02 -1.494737e-02 -1.347310e-03 -8.097601e-03 1.792287e-02
<VARIANCE> 25
 2.891544e+01 2.998487e+01 3.181427e+01 3.797506e+01 3.397845e+01 6.932100e+01 4.796393e+01 3.113100e+01 4.805207e+01 3.219418e+01 2.779412e+01 2.050658e+01 7.071798e-01 1.174889e+00 1.096015e+00 1.147657e+00 1.288282e+00 2.447000e+00 1.972053e+00 1.699578e+00 2.000285e+00 1.599479e+00 1.676569e+00 1.143343e+00 5.501716e-01
<GCONST> 9.218948e+01
<TRANSP> 5
 0.000000e+00 1.000000e+00 0.000000e+00 0.000000e+00 0.000000e+00
 0.000000e+00 6.000000e-01 4.000000e-01 0.000000e+00 0.000000e+00
 0.000000e+00 0.000000e+00 6.000000e-01 4.000000e-01 0.000000e+00
 0.000000e+00 0.000000e+00 0.000000e+00 7.000000e-01 3.000000e-01
 0.000000e+00 0.000000e+00 0.000000e+00 0.000000e+00 0.000000e+00
<ENDHMM>
~h "zh"
<BEGINHMM>
<NUMSTATES> 5
<STATE> 2
<MEAN> 25
 9.070750e-09 5.602083e-10 5.897144e-09 2.714019e-09 2.134774e-09 -4.620358e-09 1.313770e-08 6.120139e-09 -5.583046e-09 -4.922898e-09 5.544974e-09 7.764051e-10 1.806886e-02 -1.070167e-02 -1.227334e-02 -4.834075e-03 -1.028266e-02 -2.729346e-02 -1.737361e-02 -1.413678e-02 -2.439713e-02 -1.494737e-02 -1.347310e-03 -8.097601e-03 1.792287e-02
<VARIANCE> 25
 2.891544e+01 2.998487e+01 3.181427e+01 3.797506e+01 3.397845e+01 6.932100e+01 4.796393e+01 3.113100e+01 4.805207e+01 3.219418e+01 2.779412e+01 2.050658e+01 7.071798e-01 1.174889e+00 1.096015e+00 1.147657e+00 1.288282e+00 2.447000e+00 1.972053e+00 1.699578e+00 2.000285e+00 1.599479e+00 1.676569e+00 1.143343e+00 5.501716e-01
<GCONST> 9.218948e+01
<STATE> 3
<MEAN> 25
 9.070750e-09 5.602083e-10 5.897144e-09 2.714019e-09 2.134774e-09 -4.620358e-09 1.313770e-08 6.120139e-09 -5.583046e-09 -4.922898e-09 5.544974e-09 7.764051e-10 1.806886e-02 -1.070167e-02 -1.227334e-02 -4.834075e-03 -1.028266e-02 -2.729346e-02 -1.737361e-02 -1.413678e-02 -2.439713e-02 -1.494737e-02 -1.347310e-03 -8.097601e-03 1.792287e-02
<VARIANCE> 25
 2.891544e+01 2.998487e+01 3.181427e+01 3.797506e+01 3.397845e+01 6.932100e+01 4.796393e+01 3.113100e+01 4.805207e+01 3.219418e+01 2.779412e+01 2.050658e+01 7.071798e-01 1.174889e+00 1.096015e+00 1.147657e+00 1.288282e+00 2.447000e+00 1.972053e+00 1.699578e+00 2.000285e+00 1.599479e+00 1.676569e+00 1.143343e+00 5.501716e-01
<GCONST> 9.218948e+01
<STATE> 4
<MEAN> 25
 9.070750e-09 5.602083e-10 5.897144e-09 2.714019e-09 2.134774e-09 -4.620358e-09 1.313770e-08 6.120139e-09 -5.583046e-09 -4.922898e-09 5.544974e-09 7.764051e-10 1.806886e-02 -1.070167e-02 -1.227334e-02 -4.834075e-03 -1.028266e-02 -2.729346e-02 -1.737361e-02 -1.413678e-02 -2.439713e-02 -1.494737e-02 -1.347310e-03 -8.097601e-03 1.792287e-02
<VARIANCE> 25
 2.891544e+01 2.998487e+01 3.181427e+01 3.797506e+01 3.397845e+01 6.932100e+01 4.796393e+01 3.113100e+01 4.805207e+01 3.219418e+01 2.779412e+01 2.050658e+01 7.071798e-01 1.174889e+00 1.096015e+00 1.147657e+00 1.288282e+00 2.447000e+00 1.972053e+00 1.699578e+00 2.000285e+00 1.599479e+00 1.676569e+00 1.143343e+00 5.501716e-01
<GCONST> 9.218948e+01
<TRANSP> 5
 0.000000e+00 1.000000e+00 0.000000e+00 0.000000e+00 0.000000e+00
 0.000000e+00 6.000000e-01 4.000000e-01 0.000000e+00 0.000000e+00
 0.000000e+00 0.000000e+00 6.000000e-01 4.000000e-01 0.000000e+00
 0.000000e+00 0.000000e+00 0.000000e+00 7.000000e-01 3.000000e-01
 0.000000e+00 0.000000e+00 0.000000e+00 0.000000e+00 0.000000e+00
<ENDHMM>
~h "en"
<BEGINHMM>
<NUMSTATES> 5
<STATE> 2
<MEAN> 25
 9.070750e-09 5.602083e-10 5.897144e-09 2.714019e-09 2.134774e-09 -4.620358e-09 1.313770e-08 6.120139e-09 -5.583046e-09 -4.922898e-09 5.544974e-09 7.764051e-10 1.806886e-02 -1.070167e-02 -1.227334e-02 -4.834075e-03 -1.028266e-02 -2.729346e-02 -1.737361e-02 -1.413678e-02 -2.439713e-02 -1.494737e-02 -1.347310e-03 -8.097601e-03 1.792287e-02
<VARIANCE> 25
