~o
<STREAMINFO> 1 25
<VECSIZE> 25<NULLD><MFCC_D_N_Z_0><DIAGC>
~h "proto"
<BEGINHMM>
<NUMSTATES> 5
<STATE> 2
<MEAN> 25
 8.236081e-09 3.878374e-10 5.747914e-09 2.900586e-09 2.318830e-09 -4.640392e-09 1.319466e-08 6.146676e-09 -5.257654e-09 -4.944244e-09 5.743817e-09 7.797716e-10 1.815321e-02 -1.076267e-02 -1.232402e-02 -4.855545e-03 -1.030998e-02 -2.739645e-02 -1.745180e-02 -1.416172e-02 -2.451476e-02 -1.499976e-02 -1.346550e-03 -8.121134e-03 1.799753e-02
<VARIANCE> 25
 2.903735e+01 3.010701e+01 3.194227e+01 3.812357e+01 3.410600e+01 6.960120e+01 4.814952e+01 3.124201e+01 4.823726e+01 3.231031e+01 2.789205e+01 2.057329e+01 7.098153e-01 1.178989e+00 1.099589e+00 1.150814e+00 1.291618e+00 2.455276e+00 1.978058e+00 1.704293e+00 2.006399e+00 1.603739e+00 1.681294e+00 1.145810e+00 5.523354e-01
<GCONST> 9.227469e+01
<STATE> 3
<MEAN> 25
 8.236081e-09 3.878374e-10 5.747914e-09 2.900586e-09 2.318830e-09 -4.640392e-09 1.319466e-08 6.146676e-09 -5.257654e-09 -4.944244e-09 5.743817e-09 7.797716e-10 1.815321e-02 -1.076267e-02 -1.232402e-02 -4.855545e-03 -1.030998e-02 -2.739645e-02 -1.745180e-02 -1.416172e-02 -2.451476e-02 -1.499976e-02 -1.346550e-03 -8.121134e-03 1.799753e-02
<VARIANCE> 25
 2.903735e+01 3.010701e+01 3.194227e+01 3.812357e+01 3.410600e+01 6.960120e+01 4.814952e+01 3.124201e+01 4.823726e+01 3.231031e+01 2.789205e+01 2.057329e+01 7.098153e-01 1.178989e+00 1.099589e+00 1.150814e+00 1.291618e+00 2.455276e+00 1.978058e+00 1.704293e+00 2.006399e+00 1.603739e+00 1.681294e+00 1.145810e+00 5.523354e-01
<GCONST> 9.227469e+01
<STATE> 4
<MEAN> 25
 8.236081e-09 3.878374e-10 5.747914e-09 2.900586e-09 2.318830e-09 -4.640392e-09 1.319466e-08 6.146676e-09 -5.257654e-09 -4.944244e-09 5.743817e-09 7.797716e-10 1.815321e-02 -1.076267e-02 -1.232402e-02 -4.855545e-03 -1.030998e-02 -2.739645e-02 -1.745180e-02 -1.416172e-02 -2.451476e-02 -1.499976e-02 -1.346550e-03 -8.121134e-03 1.799753e-02
<VARIANCE> 25
 2.903735e+01 3.010701e+01 3.194227e+01 3.812357e+01 3.410600e+01 6.960120e+01 4.814952e+01 3.124201e+01 4.823726e+01 3.231031e+01 2.789205e+01 2.057329e+01 7.098153e-01 1.178989e+00 1.099589e+00 1.150814e+00 1.291618e+00 2.455276e+00 1.978058e+00 1.704293e+00 2.006399e+00 1.603739e+00 1.681294e+00 1.145810e+00 5.523354e-01
<GCONST> 9.227469e+01
<TRANSP> 5
 0.000000e+00 1.000000e+00 0.000000e+00 0.000000e+00 0.000000e+00
 0.000000e+00 6.000000e-01 4.000000e-01 0.000000e+00 0.000000e+00
 0.000000e+00 0.000000e+00 6.000000e-01 4.000000e-01 0.000000e+00
 0.000000e+00 0.000000e+00 0.000000e+00 7.000000e-01 3.000000e-01
 0.000000e+00 0.000000e+00 0.000000e+00 0.000000e+00 0.000000e+00
<ENDHMM>
