~o
<STREAMINFO> 1 25
<VECSIZE> 25<NULLD><MFCC_D_N_Z_0><DIAGC>
~s "silst"
<MEAN> 25
 6.348836e-01 -4.669764e-01 5.949881e-01 -3.070450e-01 1.279165e+00 -1.468701e+00 -2.041237e+00 -2.508178e+00 -2.222954e+00 -8.557114e-01 3.663723e-01 -1.455314e+00 -3.463285e-01 1.132585e-01 2.693353e-01 -7.745747e-02 1.573201e-01 3.224043e-01 3.102149e-01 2.240854e-01 3.435770e-01 2.179950e-01 6.682652e-02 1.796197e-02 -1.748565e-01
<VARIANCE> 25
 2.884178e+01 3.103726e+01 4.375635e+01 5.719606e+01 3.845790e+01 6.061343e+01 5.693329e+01 3.362788e+01 4.170460e+01 3.444985e+01 3.755722e+01 2.516179e+01 1.490060e+00 1.613773e+00 1.995896e+00 2.200214e+00 1.946944e+00 3.566301e+00 3.168039e+00 2.693917e+00 3.135940e+00 2.311621e+00 2.433099e+00 1.694185e+00 7.961396e-01
<GCONST> 9.960989e+01
~h "b"
<BEGINHMM>
<NUMSTATES> 5
<STATE> 2
<MEAN> 25
 1.714574e+00 2.256753e+00 -7.139378e-02 6.352503e-01 1.137011e+00 8.561367e-01 -1.039260e+00 -1.510105e+00 -1.737280e+00 -2.750719e+00 -2.036901e+00 -8.059692e-02 -3.572017e-01 1.007614e+00 8.018163e-01 1.744601e-01 4.766522e-01 1.293497e+00 5.731236e-01 2.438167e-01 6.148186e-01 -1.483572e-01 -7.350878e-01 -1.586245e-01 -5.902635e-01
<VARIANCE> 25
 1.762174e+01 1.447335e+01 2.162552e+01 2.504395e+01 2.517064e+01 3.777554e+01 3.907293e+01 2.756477e+01 4.732712e+01 3.251615e+01 2.629571e+01 2.067608e+01 8.732356e-01 8.362769e-01 7.066919e-01 8.139811e-01 1.033403e+00 2.043793e+00 1.923952e+00 1.970714e+00 3.184852e+00 2.364560e+00 1.830038e+00 1.398413e+00 5.164655e-01
<GCONST> 8.877044e+01
<STATE> 3
<MEAN> 25
 8.111832e-01 4.740638e+00 2.631325e+00 1.294860e+00 1.984591e+00 3.104118e+00 -4.214711e-01 -1.624883e+00 -8.298822e-01 -2.974717e+00 -4.082451e+00 -1.350439e+00 -4.688480e-01 2.506240e-01 3.972031e-01 5.391451e-02 1.470232e-01 6.025027e-01 4.877904e-01 3.807935e-01 6.147140e-01 4.561632e-01 1.147506e-01 9.763931e-02 -3.806652e-01
<VARIANCE> 25
 8.462702e+00 1.187995e+01 1.334165e+01 1.825963e+01 1.731132e+01 2.278503e+01 2.400202e+01 1.860684e+01 2.516454e+01 1.976991e+01 2.235417e+01 1.818885e+01 2.413540e-01 3.360385e-01 4.307837e-01 5.442236e-01 6.116132e-01 7.738472e-01 9.654495e-01 9.431866e-01 1.124015e+00 9.756747e-01 8.779591e-01 7.787451e-01 1.003721e-01
<GCONST> 7.295850e+01
<STATE> 4
<MEAN> 25
 -3.885505e+00 2.899455e+00 2.546127e+00 6.307427e-01 1.868805e+00 5.545850e+00 2.565705e+00 1.810726e+00 4.531781e+00 2.244751e+00 -8.980681e-01 1.142372e+00 -1.101431e-01 -2.925252e-02 1.690439e-02 -1.473284e-04 -1.596934e-02 4.143471e-02 6.474663e-02 6.981669e-02 1.154770e-01 1.041520e-01 5.828393e-02 2.734005e-02 -7.077867e-02
<VARIANCE> 25
 5.903133e+00 9.609289e+00 7.997529e+00 8.433215e+00 8.253485e+00 1.237762e+01 1.239447e+01 1.061087e+01 1.620129e+01 1.277971e+01 1.109137e+01 9.155006e+00 1.039352e-01 1.750122e-01 2.586301e-01 3.476584e-01 4.333085e-01 5.477898e-01 6.145053e-01 6.443405e-01 7.101226e-01 7.168345e-01 6.873974e-01 5.943148e-01 4.116275e-02
<GCONST> 6.011448e+01
<TRANSP> 5
 0.000000e+00 1.000000e+00 0.000000e+00 0.000000e+00 0.000000e+00
 0.000000e+00 4.639287e-01 5.360712e-01 0.000000e+00 0.000000e+00
 0.000000e+00 0.000000e+00 6.370575e-01 3.629426e-01 0.000000e+00
 0.000000e+00 0.000000e+00 0.000000e+00 8.630764e-01 1.369235e-01
 0.000000e+00 0.000000e+00 0.000000e+00 0.000000e+00 0.000000e+00
<ENDHMM>
~h "d"
<BEGINHMM>
<NUMSTATES> 5
<STATE> 2
<MEAN> 25
 1.225113e+00 -4.163584e-01 -2.776715e-01 -7.711355e-01 2.977760e-01 -1.284175e+00 -1.197318e+00 -1.403944e+00 -1.900023e+00 -9.245418e-01 4.242131e-02 -1.088589e+00 1.322880e-01 -5.894647e-02 -1.312314e-01 1.447217e-01 1.324906e-01 -1.916989e-01 -2.913632e-01 -3.320341e-01 -1.567291e-01 3.114416e-02 1.104847e-01 3.222490e-02 6.141289e-02
<VARIANCE> 25
 2.846274e+01 3.847000e+01 4.124893e+01 5.037597e+01 3.888265e+01 5.868011e+01 5.447127e+01 3.291632e+01 4.124297e+01 3.578963e+01 3.694963e+01 2.456063e+01 1.458744e+00 1.876510e+00 1.844285e+00 1.849556e+00 2.315952e+00 3.672850e+00 3.149143e+00 2.767708e+00 3.325941e+00 2.541409e+00 2.635405e+00 1.790153e+00 7.759982e-01
<GCONST> 9.988883e+01
<STATE> 3
<MEAN> 25
 4.056662e+00 -2.510499e+00 -3.294642e+00 -5.567994e-01 -1.651500e+00 -4.640177e+00 -3.679736e+00 -2.334578e+00 -3.704875e+00 -1.091417e+00 1.337431e+00 1.067616e-01 3.063310e-01 -4.744830e-01 -5.515777e-01 -5.985669e-02 -1.013343e-01 -4.670539e-01 -1.752977e-01 -1.441320e-03 -4.227341e-02 2.746623e-01 4.474002e-01 1.046213e-01 3.199000e-01
<VARIANCE> 25
 1.475843e+01 3.669584e+01 3.513027e+01 4.403714e+01 4.159605e+01 6.128270e+01 5.353297e+01 3.857808e+01 4.571430e+01 4.364077e+01 4.007487e+01 2.550896e+01 1.029312e+00 2.892628e+00 2.174847e+00 2.535578e+00 2.902022e+00 5.800077e+00 3.770902e+00 3.132470e+00 3.687391e+00 3.545130e+00 3.278711e+00 2.050996e+00 1.348729e+00
<GCONST> 1.024564e+02
<STATE> 4
<MEAN> 25
 5.124551e+00 -3.929539e+00 -4.936069e+00 3.053960e-02 -1.614103e+00 -6.652033e+00 -4.790284e+00 -2.370979e+00 -2.789693e+00 -3.441415e-01 1.215738e+00 -1.067358e+00 -2.291602e-01 5.711097e-01 3.945373e-01 2.071844e-01 3.639070e-01 5.317237e-01 6.435598e-02 -2.061951e-02 2.594750e-01 -2.186446e-01 -5.263978e-01 -1.216734e-01 -4.065942e-01
<VARIANCE> 25
 1.134656e+01 3.742099e+01 3.391272e+01 4.467980e+01 3.703939e+01 6.498599e+01 5.570705e+01 3.312568e+01 3.839895e+01 3.634516e+01 3.752055e+01 2.325459e+01 2.871950e-01 1.029592e+00 8.693011e-01 9.657493e-01 1.061398e+00 2.554819e+00 1.806443e+00 1.443818e+00 1.641523e+00 1.556762e+00 1.524669e+00 1.143166e+00 3.968520e-01
<GCONST> 8.977291e+01
<TRANSP> 5
 0.000000e+00 1.000000e+00 0.000000e+00 0.000000e+00 0.000000e+00
 0.000000e+00 2.632553e-01 7.367447e-01 0.000000e+00 0.000000e+00
 0.000000e+00 0.000000e+00 3.730652e-01 6.269348e-01 0.000000e+00
 0.000000e+00 0.000000e+00 0.000000e+00 6.505563e-01 3.494437e-01
 0.000000e+00 0.000000e+00 0.000000e+00 0.000000e+00 0.000000e+00
<ENDHMM>
~h "f"
<BEGINHMM>
<NUMSTATES> 5
<STATE> 2
<MEAN> 25
 1.658552e+00 1.721283e+00 -7.675100e-01 -7.525410e-01 6.057729e-01 -2.768960e-01 -6.894531e-01 -2.013295e+00 -2.076911e+00 -2.966256e+00 -1.344188e+00 -8.364829e-01 -1.087532e+00 4.885131e-01 5.803912e-01 -1.502639e-01 7.056885e-01 1.103874e+00 1.050363e+00 4.717765e-01 1.298686e+00 5.423776e-01 1.575216e-01 -2.093576e-01 -5.500694e-01
<VARIANCE> 25
 1.750107e+01 1.419520e+01 2.250725e+01 3.458515e+01 2.939013e+01 3.446580e+01 4.450313e+01 3.046177e+01 3.983642e+01 3.151708e+01 3.282955e+01 2.431310e+01 8.587354e-01 7.777395e-01 8.656249e-01 1.212353e+00 1.450509e+00 1.960682e+00 1.970653e+00 1.804891e+00 2.401394e+00 1.765409e+00 2.113430e+00 1.284230e+00 3.585132e-01
<GCONST> 8.944548e+01
<STATE> 3
<MEAN> 25
 -3.160416e+00 1.880460e+00 7.917978e-01 -9.176065e-01 2.502959e+00 3.521293e+00 3.173823e+00 3.442610e-01 3.147902e+00 9.391563e-01 9.691633e-01 -2.995886e-01 -4.099964e-01 3.724993e-02 2.016159e-01 -7.689239e-03 2.409368e-01 2.037374e-01 2.554942e-01 4.146606e-02 2.635782e-01 1.864075e-01 2.152957e-01 -4.271460e-02 -1.459123e-01
<VARIANCE> 25
 1.434857e+01 1.187500e+01 1.541835e+01 2.073001e+01 1.839275e+01 2.468875e+01 2.601749e+01 1.852202e+01 2.388776e+01 1.841484e+01 2.271627e+01 1.783833e+01 3.371889e-01 3.971975e-01 4.904566e-01 6.329193e-01 7.298254e-01 9.386606e-01 1.004715e+00 1.010601e+00 1.054295e+00 9.960675e-01 1.147716e+00 9.471622e-01 1.450323e-01
<GCONST> 7.589749e+01
<STATE> 4
<MEAN> 25
 -5.267132e+00 1.513989e+00 2.865147e+00 -2.613746e+00 4.679076e+00 2.670289e+00 3.415835e+00 -1.274987e+00 2.334537e+00 9.269162e-01 2.587332e+00 -2.041207e+00 -6.662044e-02 -2.669372e-01 -9.844114e-02 1.913207e-01 4.107855e-02 -2.893035e-02 7.040592e-03 -1.263016e-01 -5.942574e-02 1.843788e-01 1.594411e-01 2.733971e-02 2.727575e-02
<VARIANCE> 25
 2.919759e+01 1.631051e+01 3.137460e+01 3.974873e+01 3.104925e+01 2.647285e+01 3.388991e+01 2.273807e+01 2.988207e+01 2.590739e+01 2.987932e+01 1.933444e+01 9.461186e-01 8.638827e-01 1.203909e+00 1.612200e+00 1.633061e+00 1.381952e+00 1.634878e+00 1.690338e+00 1.873773e+00 1.571975e+00 1.824189e+00 1.458863e+00 4.075924e-01
<GCONST> 8.906461e+01
<TRANSP> 5
 0.000000e+00 1.000000e+00 0.000000e+00 0.000000e+00 0.000000e+00
 0.000000e+00 5.365470e-01 4.634530e-01 0.000000e+00 0.000000e+00
 0.000000e+00 0.000000e+00 6.773534e-01 3.226466e-01 0.000000e+00
 0.000000e+00 0.000000e+00 0.000000e+00 5.283480e-01 4.716521e-01
 0.000000e+00 0.000000e+00 0.000000e+00 0.000000e+00 0.000000e+00
<ENDHMM>
~h "g"
<BEGINHMM>
<NUMSTATES> 5
<STATE> 2
<MEAN> 25
 -3.903407e+00 1.330624e+00 1.464604e+00 2.883430e-01 1.370552e+00 4.963030e+00 2.766402e+00 2.074794e+00 4.066395e+00 2.476058e+00 -1.256871e-02 1.584777e+00 -5.666344e-02 4.266707e-03 1.380371e-02 -1.472521e-02 -9.602022e-03 3.378199e-02 4.137630e-02 4.445976e-02 5.835899e-02 3.551077e-02 1.638357e-02 1.907338e-02 -4.198521e-02
<VARIANCE> 25
 3.838893e+00 5.252159e+00 5.448143e+00 6.214706e+00 6.497028e+00 1.254251e+01 1.006039e+01 8.669044e+00 1.197633e+01 9.292238e+00 8.603216e+00 7.216629e+00 6.852466e-02 1.316872e-01 2.111605e-01 2.990617e-01 3.842095e-01 4.956477e-01 5.569265e-01 6.081556e-01 6.536044e-01 6.174651e-01 6.234944e-01 5.535256e-01 2.823794e-02
<GCONST> 5.443284e+01
<STATE> 3
<MEAN> 25
 -1.636387e+00 3.097280e+00 2.494021e+00 1.031376e+00 1.702367e+00 3.946478e+00 1.498934e+00 3.129026e-01 1.782438e+00 -1.408083e-01 -1.761495e+00 -2.307572e-01 -1.039470e-01 1.380185e-01 2.430638e-01 1.326182e-01 1.088946e-01 2.160261e-01 1.342921e-01 -4.227755e-02 -6.919791e-03 -5.460138e-02 -6.276229e-02 -1.067642e-01 -7.949857e-02
<VARIANCE> 25
 1.284395e+01 1.287022e+01 1.217514e+01 1.641560e+01 1.444177e+01 2.385305e+01 2.338838e+01 1.729847e+01 2.541078e+01 2.122905e+01 1.929192e+01 1.391481e+01 3.184947e-01 4.188749e-01 5.000655e-01 6.659787e-01 6.050411e-01 8.618709e-01 9.079422e-01 9.073978e-01 1.191478e+00 1.129693e+00 1.055374e+00 8.721238e-01 1.334496e-01
<GCONST> 7.432191e+01
<STATE> 4
<MEAN> 25
 -1.300850e+00 4.079251e+00 3.646238e+00 1.626293e+00 1.820344e+00 3.966900e+00 8.708745e-01 -6.444935e-01 1.011676e+00 -7.949601e-01 -2.750226e+00 -1.248399e+00 4.427296e-01 1.683067e-02 2.266022e-02 1.446251e-01 -8.126517e-02 -4.747839e-01 -3.697985e-01 -5.970376e-01 -7.420619e-01 -4.011213e-01 1.201677e-02 -3.190171e-01 3.777700e-01
<VARIANCE> 25
 1.006615e+01 1.569988e+01 1.434440e+01 1.431146e+01 1.082707e+01 2.014150e+01 2.107250e+01 1.904784e+01 2.481613e+01 1.914748e+01 1.858659e+01 1.276643e+01 8.416712e-01 1.554327e+00 1.348002e+00 1.340202e+00 1.070516e+00 1.870447e+00 2.132103e+00 2.183907e+00 2.494403e+00 2.314810e+00 2.103143e+00 1.303467e+00 3.421211e-01
<GCONST> 8.412875e+01
<TRANSP> 5
 0.000000e+00 1.000000e+00 0.000000e+00 0.000000e+00 0.000000e+00
 0.000000e+00 9.245681e-01 7.543196e-02 0.000000e+00 0.000000e+00
 0.000000e+00 0.000000e+00 3.503723e-01 6.496277e-01 0.000000e+00
 0.000000e+00 0.000000e+00 0.000000e+00 5.075786e-01 4.924215e-01
 0.000000e+00 0.000000e+00 0.000000e+00 0.000000e+00 0.000000e+00
<ENDHMM>
~h "k"
<BEGINHMM>
<NUMSTATES> 5
<STATE> 2
<MEAN> 25
 4.369311e+00 -1.693797e+00 -2.651870e+00 3.004118e-01 -1.563934e+00 -6.297798e+00 -4.602178e+00 -2.814180e+00 -3.865252e+00 -2.069823e+00 -1.675852e-01 -1.029356e+00 -3.521181e-01 7.844115e-01 5.000381e-01 1.811492e-01 4.667828e-01 9.625474e-01 2.094165e-01 5.884162e-02 4.343643e-01 -2.484206e-01 -7.284738e-01 -5.038825e-02 -6.023114e-01
<VARIANCE> 25
 1.467964e+01 2.696089e+01 2.787149e+01 4.677570e+01 4.073896e+01 6.170468e+01 6.005997e+01 3.725159e+01 4.518724e+01 3.432448e+01 3.820064e+01 2.682533e+01 2.847739e-01 8.822653e-01 7.241964e-01 8.702866e-01 1.062170e+00 2.367782e+00 1.663695e+00 1.415437e+00 1.938671e+00 1.654247e+00 1.645543e+00 1.196099e+00 3.949213e-01
<GCONST> 8.977142e+01
<STATE> 3
<MEAN> 25
 1.491340e+00 1.637487e+00 2.444531e-02 9.426581e-01 8.700014e-01 -4.930734e-01 -1.966475e+00 -1.540103e+00 -9.682868e-01 -2.165871e+00 -2.539375e+00 -8.559158e-01 -6.938930e-01 4.905498e-01 4.003286e-01 -6.302927e-02 3.217396e-01 1.351553e+00 8.801756e-01 6.459163e-01 1.057112e+00 4.732213e-01 -2.586202e-02 2.551537e-01 -6.878295e-01
<VARIANCE> 25
 1.462476e+01 1.620785e+01 2.160569e+01 3.721312e+01 2.903810e+01 4.059869e+01 4.427626e+01 2.889507e+01 3.556085e+01 2.825929e+01 2.825430e+01 2.215775e+01 4.291780e-01 5.965216e-01 7.311955e-01 9.189902e-01 1.037255e+00 2.020521e+00 1.765449e+00 1.426291e+00 2.039004e+00 1.372436e+00 1.443492e+00 1.261162e+00 3.371320e-01
<GCONST> 8.612753e+01
<STATE> 4
<MEAN> 25
 -1.204725e+00 2.630630e+00 1.438786e+00 6.279805e-01 1.463039e+00 3.060876e+00 5.882037e-01 2.650714e-01 1.933891e+00 3.817325e-02 -1.590171e+00 2.182652e-01 -3.933201e-01 9.437826e-02 2.066879e-01 -2.018679e-02 8.473003e-02 4.090596e-01 3.185059e-01 2.158350e-01 3.837686e-01 3.273427e-01 1.546339e-01 1.134748e-01 -2.844144e-01
<VARIANCE> 25
 1.281537e+01 1.146058e+01 1.486150e+01 2.109210e+01 1.743237e+01 2.808164e+01 2.811884e+01 2.018857e+01 2.640885e+01 2.066693e+01 2.063110e+01 1.791527e+01 2.463931e-01 3.355613e-01 4.683021e-01 6.095517e-01 6.507891e-01 8.794410e-01 9.843286e-01 9.490568e-01 1.034798e+00 9.872460e-01 1.029646e+00 9.004781e-01 1.265272e-01
<GCONST> 7.493973e+01
<TRANSP> 5
 0.000000e+00 1.000000e+00 0.000000e+00 0.000000e+00 0.000000e+00
 0.000000e+00 5.670375e-01 4.329625e-01 0.000000e+00 0.000000e+00
 0.000000e+00 0.000000e+00 2.734604e-01 7.265395e-01 0.000000e+00
 0.000000e+00 0.000000e+00 0.000000e+00 6.601350e-01 3.398650e-01
 0.000000e+00 0.000000e+00 0.000000e+00 0.000000e+00 0.000000e+00
<ENDHMM>
~h "l"
<BEGINHMM>
<NUMSTATES> 5
<STATE> 2
<MEAN> 25
 4.598704e+00 -2.595973e+00 -3.785299e+00 -1.116623e+00 -2.686372e+00 -5.629435e+00 -3.503413e+00 -2.341016e+00 -3.548818e+00 -1.127685e+00 1.203091e+00 -8.478018e-01 -1.335534e-01 4.881452e-01 3.660894e-01 3.377765e-01 3.859533e-01 3.852555e-01 -1.691186e-01 -3.281143e-01 -6.531675e-02 -3.256325e-01 -4.711943e-01 -1.224921e-01 -3.221807e-01
<VARIANCE> 25
 1.569904e+01 3.057978e+01 2.953739e+01 4.232545e+01 3.571613e+01 5.666608e+01 5.199223e+01 3.551582e+01 4.916153e+01 3.525331e+01 3.416999e+01 2.209454e+01 2.227902e-01 7.373542e-01 6.363189e-01 8.605491e-01 9.837962e-01 1.767546e+00 1.505717e+00 1.408520e+00 1.480971e+00 1.479680e+00 1.421821e+00 9.312279e-01 2.629533e-01
<GCONST> 8.709616e+01
<STATE> 3
<MEAN> 25
 2.454129e+00 4.649162e-01 -6.709803e-01 1.147924e+00 5.335196e-01 -1.730337e+00 -2.964364e+00 -3.073702e+00 -3.115858e+00 -2.336333e+00 -1.225981e+00 -1.028569e+00 -2.611390e-01 6.848285e-01 5.521253e-01 2.592148e-01 4.083055e-01 8.219751e-01 2.459440e-01 -4.054144e-02 1.251083e-01 -3.373251e-01 -5.712301e-01 -2.331132e-02 -4.485027e-01
<VARIANCE> 25
 1.876699e+01 2.043939e+01 2.413980e+01 3.441977e+01 2.733980e+01 5.262650e+01 4.738195e+01 3.362361e+01 4.997911e+01 3.343260e+01 2.906027e+01 2.069387e+01 5.272434e-01 9.102375e-01 7.743511e-01 9.078355e-01 1.053992e+00 2.534038e+00 2.089023e+00 1.773800e+00 2.638478e+00 1.881896e+00 1.708426e+00 1.126642e+00 4.342895e-01
<GCONST> 8.971326e+01
<STATE> 4
<MEAN> 25
 2.486861e+00 2.420347e+00 1.270438e+00 2.203924e+00 1.150450e+00 -1.027392e+00 -3.694721e+00 -4.141274e+00 -4.089818e+00 -3.878004e+00 -2.916690e+00 -1.529402e+00 -3.420240e-01 2.861165e-01 3.415010e-01 3.553141e-02 1.416492e-01 5.131862e-01 3.930489e-01 2.683306e-01 3.429149e-01 1.442910e-01 -5.211576e-02 5.930959e-02 -3.149357e-01
<VARIANCE> 25
 1.075254e+01 1.449908e+01 1.599805e+01 2.576427e+01 2.100608e+01 3.826637e+01 3.296521e+01 2.809985e+01 4.196474e+01 2.672185e+01 2.440466e+01 1.834982e+01 2.766933e-01 5.032520e-01 5.453653e-01 6.511844e-01 7.896426e-01 1.346567e+00 1.228436e+00 1.211858e+00 1.561278e+00 1.199643e+00 1.113932e+00 9.717783e-01 1.804290e-01
<GCONST> 8.011180e+01
<TRANSP> 5
 0.000000e+00 1.000000e+00 0.000000e+00 0.000000e+00 0.000000e+00
 0.000000e+00 5.277374e-01 4.722626e-01 0.000000e+00 0.000000e+00
 0.000000e+00 0.000000e+00 1.332100e-01 8.667901e-01 0.000000e+00
 0.000000e+00 0.000000e+00 0.000000e+00 6.240580e-01 3.759420e-01
 0.000000e+00 0.000000e+00 0.000000e+00 0.000000e+00 0.000000e+00
<ENDHMM>
~h "m"
<BEGINHMM>
<NUMSTATES> 5
<STATE> 2
<MEAN> 25
 4.712943e+00 -2.828119e+00 -4.470786e+00 -1.095655e+00 -2.240449e+00 -4.987234e+00 -1.417948e+00 -1.409613e+00 -4.752511e+00 -1.826099e+00 1.327724e+00 -5.397301e-01 -1.912165e-01 9.368739e-01 5.461249e-01 1.897159e-01 4.343168e-01 9.342073e-01 6.589638e-02 -7.319776e-02 1.685609e-01 -6.715114e-01 -1.013991e+00 -1.673728e-01 -5.575124e-01
<VARIANCE> 25
 1.387615e+01 3.018010e+01 2.958406e+01 4.065435e+01 3.199480e+01 5.212733e+01 5.915321e+01 2.895967e+01 5.237727e+01 3.997972e+01 3.579539e+01 2.460300e+01 2.904262e-01 9.941238e-01 7.650503e-01 1.003853e+00 1.221949e+00 2.502266e+00 1.816334e+00 1.475977e+00 1.891548e+00 1.788751e+00 1.741350e+00 1.230695e+00 3.554892e-01
<GCONST> 8.991386e+01
<STATE> 3
<MEAN> 25
 1.855205e+00 2.083655e+00 2.482410e-01 5.659446e-01 7.503108e-01 5.035173e-01 -9.474764e-01 -1.623526e+00 -2.229346e+00 -3.062235e+00 -2.845256e+00 -1.243948e+00 -1.412221e-01 7.840469e-01 6.245254e-01 1.361868e-01 2.927402e-01 7.883542e-01 2.154499e-01 -8.281376e-02 1.092877e-01 -3.732446e-01 -6.980222e-01 -2.834560e-01 -3.523365e-01
<VARIANCE> 25
 1.652776e+01 1.918641e+01 2.149566e+01 3.009359e+01 2.512542e+01 4.875162e+01 4.035045e+01 2.586459e+01 3.826042e+01 3.397484e+01 2.720449e+01 2.023156e+01 8.198791e-01 6.595827e-01 7.312450e-01 8.235091e-01 9.267735e-01 1.698991e+00 1.594786e+00 1.824986e+00 2.762632e+00 1.976256e+00 1.522752e+00 1.206617e+00 4.165218e-01
<GCONST> 8.755036e+01
<STATE> 4
<MEAN> 25
 2.310702e+00 4.387541e+00 1.712573e+00 5.968168e-01 6.432316e-01 1.157284e+00 -1.275777e+00 -2.524577e+00 -3.131755e+00 -4.712643e+00 -4.691332e+00 -2.379042e+00 -2.247312e-01 2.313244e-01 2.635621e-01 1.197730e-02 8.515631e-02 3.408426e-01 1.718425e-01 4.461633e-02 2.110083e-01 1.464893e-01 3.840905e-03 4.858003e-03 -2.141770e-01
<VARIANCE> 25
 8.831862e+00 1.177716e+01 1.279027e+01 2.083142e+01 2.288999e+01 3.714100e+01 2.848247e+01 2.112264e+01 2.548521e+01 2.289725e+01 2.137870e+01 1.643391e+01 2.471659e-01 3.580115e-01 4.517229e-01 5.340642e-01 6.490950e-01 9.667337e-01 9.516250e-01 9.886138e-01 1.076458e+00 9.702389e-01 9.435368e-01 8.367222e-01 1.187137e-01
<GCONST> 7.485470e+01
<TRANSP> 5
 0.000000e+00 1.000000e+00 0.000000e+00 0.000000e+00 0.000000e+00
 0.000000e+00 6.195108e-01 3.804892e-01 0.000000e+00 0.000000e+00
 0.000000e+00 0.000000e+00 1.417248e-01 8.582752e-01 0.000000e+00
 0.000000e+00 0.000000e+00 0.000000e+00 6.986814e-01 3.013186e-01
 0.000000e+00 0.000000e+00 0.000000e+00 0.000000e+00 0.000000e+00
<ENDHMM>
~h "n"
<BEGINHMM>
<NUMSTATES> 5
<STATE> 2
<MEAN> 25
 4.248585e+00 -4.159770e+00 -3.739771e+00 -1.206695e+00 -3.343724e+00 -5.786390e+00 -2.704618e+00 -7.061221e-01 -3.409359e+00 -2.865459e-01 1.897655e+00 -6.390590e-01 2.340728e-01 -2.209821e-02 -2.472243e-01 -6.185978e-02 -2.405005e-02 -1.098469e-01 1.341692e-01 5.574186e-03 -2.576132e-01 -2.221401e-01 -1.017175e-02 -7.283168e-02 1.026429e-01
<VARIANCE> 25
 1.494553e+01 4.656358e+01 3.362186e+01 4.910785e+01 4.430130e+01 6.768107e+01 6.078571e+01 3.742090e+01 4.551902e+01 4.082523e+01 3.877713e+01 2.664174e+01 5.695856e-01 1.973078e+00 1.379631e+00 1.621659e+00 1.907915e+00 3.625581e+00 2.982665e+00 2.455192e+00 2.241719e+00 2.075564e+00 2.115855e+00 1.542139e+00 8.150099e-01
<GCONST> 9.746712e+01
<STATE> 3
<MEAN> 25
 6.054268e+00 -4.175281e+00 -6.406743e+00 -4.208570e+00 -5.800489e+00 -6.307543e+00 1.412772e+00 9.551516e-01 -5.860228e+00 -2.099079e+00 3.005676e+00 6.195446e-02 -7.937913e-02 5.661047e-01 2.624879e-01 1.875280e-01 4.320011e-01 4.782920e-01 -2.845809e-01 -4.158055e-01 -1.770890e-02 -3.045635e-01 -4.825079e-01 -1.085362e-01 -3.393296e-01
<VARIANCE> 25
 9.436490e+00 3.287969e+01 2.818832e+01 4.151518e+01 4.829781e+01 4.677239e+01 6.603473e+01 4.317623e+01 4.271062e+01 3.487386e+01 3.345136e+01 2.451296e+01 1.490032e-01 1.113066e+00 6.769417e-01 7.760522e-01 1.064272e+00 1.750411e+00 1.687055e+00 1.415596e+00 1.429459e+00 1.635264e+00 1.655433e+00 1.032316e+00 3.505160e-01
<GCONST> 8.783189e+01
<STATE> 4
<MEAN> 25
 4.005765e+00 1.512075e+00 -1.199471e+00 5.598119e-01 4.164235e-01 -1.742038e+00 -3.860807e+00 -4.300605e+00 -4.377958e+00 -3.327991e+00 -1.941028e+00 -1.840796e+00 -3.449943e-01 6.815233e-01 6.085777e-01 1.571171e-01 3.557500e-01 7.972383e-01 1.584146e-01 -5.815447e-02 2.567111e-01 -1.279165e-01 -5.040454e-01 -9.985940e-02 -4.697996e-01
<VARIANCE> 25
 7.548498e+00 1.926884e+01 1.891068e+01 2.743732e+01 2.329052e+01 4.219090e+01 3.415673e+01 2.428916e+01 2.873657e+01 2.372019e+01 2.669940e+01 1.893219e+01 1.633198e-01 6.089929e-01 4.968084e-01 5.796262e-01 7.405469e-01 1.254463e+00 1.090579e+00 1.095227e+00 1.167341e+00 1.079765e+00 1.197445e+00 8.522863e-01 1.724848e-01
<GCONST> 7.858511e+01
<TRANSP> 5
 0.000000e+00 1.000000e+00 0.000000e+00 0.000000e+00 0.000000e+00
 0.000000e+00 3.869919e-01 6.130080e-01 0.000000e+00 0.000000e+00
 0.000000e+00 0.000000e+00 6.674661e-01 3.325339e-01 0.000000e+00
 0.000000e+00 0.000000e+00 0.000000e+00 7.128500e-01 2.871500e-01
 0.000000e+00 0.000000e+00 0.000000e+00 0.000000e+00 0.000000e+00
<ENDHMM>
~h "p"
<BEGINHMM>
<NUMSTATES> 5
<STATE> 2
<MEAN> 25
 2.154564e+00 -7.701367e-01 -1.713332e+00 -6.940673e-01 -7.762903e-01 -2.120690e+00 -1.548859e+00 -2.244896e+00 -3.031172e+00 -1.286737e+00 8.743963e-01 1.481883e-01 7.133327e-01 -4.179176e-01 -7.465429e-01 -6.534415e-01 -7.751267e-01 -8.369998e-01 -1.773842e-01 9.699199e-02 -4.581468e-01 -1.075483e-01 4.163451e-01 3.387073e-01 6.070424e-01
<VARIANCE> 25
 2.539792e+01 3.086478e+01 3.417729e+01 3.857692e+01 3.968279e+01 5.748185e+01 5.343924e+01 4.004541e+01 5.225034e+01 3.365995e+01 3.354047e+01 2.233931e+01 2.129213e+00 2.696554e+00 2.639166e+00 2.524949e+00 3.162129e+00 5.404298e+00 4.066263e+00 3.650993e+00 4.511678e+00 3.259677e+00 2.915707e+00 2.093628e+00 1.784858e+00
<GCONST> 1.035451e+02
<STATE> 3
<MEAN> 25
 4.042511e+00 -2.987265e+00 -3.810825e+00 -2.781257e+00 -3.589634e+00 -4.593607e+00 -1.807850e+00 -6.490787e-01 -3.722655e+00 -9.322512e-01 1.972799e+00 1.320523e+00 -5.908262e-02 -1.390782e-01 -2.071689e-01 -4.921479e-01 -3.970091e-01 3.074033e-01 7.589452e-01 9.073805e-01 4.982238e-01 2.517205e-02 -1.187055e-01 1.822322e-01 3.655890e-02
<VARIANCE> 25
 2.198061e+01 3.880675e+01 3.801716e+01 4.071741e+01 4.147271e+01 6.496626e+01 5.241533e+01 3.638408e+01 5.644706e+01 3.895424e+01 3.736385e+01 2.637092e+01 6.542874e-01 1.747750e+00 1.369360e+00 1.433597e+00 1.702967e+00 3.212440e+00 2.751803e+00 2.285734e+00 2.368996e+00 2.223919e+00 1.970152e+00 1.432680e+00 9.266573e-01
<GCONST> 9.705148e+01
<STATE> 4
<MEAN> 25
 4.891422e+00 -1.801094e+00 -6.161199e+00 -7.064880e+00 -7.025961e+00 -2.277416e+00 4.027070e+00 3.778766e+00 -2.157788e+00 -3.030272e+00 5.400131e-01 1.986562e+00 -2.817223e-01 3.582436e-01 2.541698e-01 8.141907e-02 2.640152e-01 4.775845e-01 9.041744e-02 3.351982e-02 3.625522e-01 6.363842e-02 -2.079099e-01 -5.573658e-02 -3.650482e-01
<VARIANCE> 25
 1.707252e+01 3.156072e+01 3.038936e+01 3.102753e+01 3.887769e+01 5.030141e+01 3.860284e+01 3.031362e+01 4.579313e+01 2.852528e+01 2.422531e+01 1.925656e+01 3.558906e-01 7.168314e-01 6.181855e-01 6.751987e-01 9.687839e-01 1.523948e+00 1.379520e+00 1.256397e+00 1.520118e+00 1.430355e+00 1.221208e+00 9.172416e-01 3.586266e-01
<GCONST> 8.561333e+01
<TRANSP> 5
 0.000000e+00 1.000000e+00 0.000000e+00 0.000000e+00 0.000000e+00
 0.000000e+00 3.386650e-01 6.613351e-01 0.000000e+00 0.000000e+00
 0.000000e+00 0.000000e+00 3.348359e-01 6.651641e-01 0.000000e+00
 0.000000e+00 0.000000e+00 0.000000e+00 7.539074e-01 2.460926e-01
 0.000000e+00 0.000000e+00 0.000000e+00 0.000000e+00 0.000000e+00
<ENDHMM>
~h "r"
<BEGINHMM>
<NUMSTATES> 5
<STATE> 2
<MEAN> 25
 -2.270439e+00 -2.287430e-01 2.245014e+00 -2.906611e-01 2.443287e+00 1.174087e+00 9.768945e-01 -9.113838e-01 5.985874e-02 4.043288e-01 1.207866e+00 -1.443448e+00 2.378804e-01 -2.266965e-01 -2.859747e-01 -1.416301e-01 -3.075602e-02 -2.011634e-01 -1.419217e-01 -3.009915e-01 -4.174037e-01 -9.019529e-02 1.318251e-01 5.996304e-03 2.711326e-01
<VARIANCE> 25
 3.368503e+01 3.716273e+01 3.898570e+01 4.971328e+01 4.048827e+01 5.045581e+01 4.814436e+01 3.005637e+01 3.671100e+01 2.823318e+01 3.307174e+01 2.205379e+01 1.779403e+00 1.649947e+00 2.226058e+00 2.334476e+00 2.420983e+00 2.831244e+00 3.062998e+00 2.850228e+00 3.047878e+00 2.327423e+00 2.822549e+00 1.730652e+00 7.182528e-01
<GCONST> 9.911503e+01
<STATE> 3
<MEAN> 25
 3.341109e+00 -1.603147e+00 -2.879999e+00 -6.241491e-01 -4.319281e-01 -3.359854e+00 -3.393878e+00 -3.251784e+00 -3.836773e+00 -1.653446e+00 9.932771e-01 3.032293e-01 1.046429e+00 -7.192662e-01 -1.090659e+00 -7.406356e-01 -1.024902e+00 -1.296900e+00 -3.918085e-01 2.745335e-01 -7.362583e-01 -2.612103e-01 4.120067e-01 5.108534e-01 9.055848e-01
<VARIANCE> 25
 1.791491e+01 3.172984e+01 3.315195e+01 4.167277e+01 4.878287e+01 6.048848e+01 6.179286e+01 4.416878e+01 4.746272e+01 3.853056e+01 3.838802e+01 2.527258e+01 1.743175e+00 2.802191e+00 2.675724e+00 2.792762e+00 3.341324e+00 5.392744e+00 5.570022e+00 4.662149e+00 4.378863e+00 3.624523e+00 3.751529e+00 2.181965e+00 1.195442e+00
<GCONST> 1.046023e+02
<STATE> 4
<MEAN> 25
 6.078490e+00 -3.851215e+00 -6.666764e+00 -6.602684e+00 -7.401109e+00 -5.470465e+00 1.894886e+00 2.808399e+00 -4.310077e+00 -2.728245e+00 1.393549e+00 1.322525e+00 -3.162673e-02 1.327432e-01 2.892818e-03 7.019917e-03 1.755990e-01 2.718662e-01 2.399341e-02 -6.745406e-02 8.692501e-02 -6.197687e-02 -1.980928e-01 -7.340164e-02 -1.035702e-01
<VARIANCE> 25
 1.016420e+01 3.822051e+01 3.166490e+01 3.173097e+01 5.104831e+01 5.136090e+01 5.835629e+01 4.146873e+01 4.445913e+01 3.832921e+01 3.499100e+01 2.458418e+01 2.446814e-01 1.053473e+00 8.675227e-01 8.890272e-01 1.435677e+00 2.058918e+00 2.244347e+00 1.844066e+00 1.580272e+00 1.658397e+00 1.538021e+00 1.178362e+00 4.055333e-01
<GCONST> 9.022707e+01
<TRANSP> 5
 0.000000e+00 1.000000e+00 0.000000e+00 0.000000e+00 0.000000e+00
 0.000000e+00 4.303640e-01 5.696360e-01 0.000000e+00 0.000000e+00
 0.000000e+00 0.000000e+00 5.376422e-01 4.623578e-01 0.000000e+00
 0.000000e+00 0.000000e+00 0.000000e+00 7.868960e-01 2.131040e-01
 0.000000e+00 0.000000e+00 0.000000e+00 0.000000e+00 0.000000e+00
<ENDHMM>
~h "s"
<BEGINHMM>
<NUMSTATES> 5
<STATE> 2
<MEAN> 25
 -8.765221e-01 1.388008e+00 2.201609e+00 -2.346436e+00 2.659181e+00 1.568980e+00 -8.408021e-01 -2.588648e+00 -2.430598e+00 -1.219941e+00 2.521912e-01 -2.079022e+00 -1.587874e+00 3.026709e-01 1.324128e+00 -1.281462e+00 1.036955e+00 5.818757e-01 8.933837e-01 7.490538e-01 8.046409e-01 5.151816e-01 6.338587e-01 -4.287589e-01 -3.722567e-02
<VARIANCE> 25
 2.550199e+01 1.673151e+01 3.403770e+01 4.481097e+01 3.210349e+01 4.022627e+01 4.279586e+01 3.359560e+01 4.448098e+01 2.820552e+01 2.901390e+01 2.148127e+01 1.611712e+00 9.913136e-01 1.727013e+00 2.643224e+00 2.154434e+00 2.388858e+00 2.337689e+00 2.334879e+00 2.573028e+00 2.176651e+00 2.157704e+00 1.403632e+00 4.115174e-01
<GCONST> 9.460225e+01
<STATE> 3
<MEAN> 25
 -6.439003e+00 2.190014e+00 5.661426e+00 -5.934610e+00 5.534264e+00 1.367626e+00 3.072704e+00 -9.396190e-01 5.210168e-01 1.139794e+00 2.296809e+00 -2.820010e+00 -4.116460e-01 3.131627e-02 1.976429e-01 -2.613111e-01 9.873664e-02 -1.528844e-01 4.085961e-01 -8.066920e-02 1.121054e-01 1.878731e-01 1.792131e-01 -4.124415e-03 9.541281e-02
<VARIANCE> 25
 5.002768e+01 2.243113e+01 4.585362e+01 5.440108e+01 5.086421e+01 4.125711e+01 5.064926e+01 3.757327e+01 4.190600e+01 3.561489e+01 3.226816e+01 2.373482e+01 2.153236e+00 1.225466e+00 1.870480e+00 2.277606e+00 2.774632e+00 2.366249e+00 2.771595e+00 2.468366e+00 3.477881e+00 2.742651e+00 2.463291e+00 1.660715e+00 4.374092e-01
<GCONST> 9.900284e+01
<STATE> 4
<MEAN> 25
 -6.720542e+00 2.061371e+00 5.724449e+00 -5.893388e+00 5.252607e+00 2.464584e+00 2.914231e+00 6.441983e-02 1.042105e+00 1.607023e+00 2.345313e+00 -2.304894e+00 3.135487e-01 -3.304096e-02 -3.274748e-01 5.427027e-01 -3.320887e-01 2.219058e-01 -7.163997e-02 1.093988e-01 1.645049e-01 2.126315e-01 -2.914885e-01 3.121049e-01 -3.398662e-01
<VARIANCE> 25
 4.078269e+01 2.252773e+01 3.789076e+01 5.160355e+01 4.504552e+01 3.918330e+01 3.737113e+01 2.685203e+01 3.220794e+01 2.641617e+01 3.200071e+01 2.035276e+01 9.031998e-01 7.415189e-01 1.183125e+00 1.374585e+00 1.314271e+00 1.581146e+00 1.769860e+00 1.814521e+00 1.765180e+00 1.627786e+00 1.832347e+00 1.300323e+00 4.029510e-01
<GCONST> 9.095890e+01
<TRANSP> 5
 0.000000e+00 1.000000e+00 0.000000e+00 0.000000e+00 0.000000e+00
 0.000000e+00 5.533648e-01 4.466353e-01 0.000000e+00 0.000000e+00
 0.000000e+00 0.000000e+00 4.792201e-01 5.207800e-01 0.000000e+00
 0.000000e+00 0.000000e+00 0.000000e+00 5.863798e-01 4.136202e-01
 0.000000e+00 0.000000e+00 0.000000e+00 0.000000e+00 0.000000e+00
<ENDHMM>
~h "t"
<BEGINHMM>
<NUMSTATES> 5
<STATE> 2
<MEAN> 25
 -2.063956e+00 8.202810e-01 2.295269e+00 -1.473748e+00 2.094955e+00 1.400400e+00 7.136087e-01 -7.630078e-01 2.749023e-01 7.998112e-01 4.089078e-01 -1.272751e+00 2.121150e-01 -3.118659e-01 -2.963812e-01 -4.392627e-02 -1.990327e-01 -2.592502e-01 2.597424e-02 -1.644588e-01 -3.179505e-01 3.129678e-02 3.042715e-01 1.130292e-01 2.220635e-01
<VARIANCE> 25
 3.344494e+01 2.832059e+01 3.926105e+01 4.677131e+01 3.637856e+01 4.816575e+01 4.488083e+01 2.911942e+01 4.012151e+01 3.038439e+01 3.256942e+01 2.242979e+01 1.864020e+00 1.881045e+00 2.306409e+00 2.476534e+00 2.478696e+00 3.465294e+00 3.133085e+00 3.149505e+00 3.563525e+00 2.441811e+00 2.834808e+00 1.860466e+00 9.990189e-01
<GCONST> 9.992178e+01
<STATE> 3
<MEAN> 25
 2.914783e+00 -1.634377e+00 -2.152027e+00 -5.875395e-01 -1.190677e+00 -3.225695e+00 -2.323316e+00 -2.924647e+00 -4.104822e+00 -1.225545e+00 1.700551e+00 3.599280e-01 1.015469e+00 -9.962931e-01 -1.103440e+00 -4.080226e-01 -8.956233e-01 -1.369244e+00 -3.190856e-01 1.994657e-01 -9.930843e-01 -3.258437e-01 6.808646e-01 4.249475e-01 9.711958e-01
<VARIANCE> 25
 1.919328e+01 3.001473e+01 3.300204e+01 3.969237e+01 4.126107e+01 5.652525e+01 5.168798e+01 4.344207e+01 5.217718e+01 4.072632e+01 3.647942e+01 2.488028e+01 1.938524e+00 3.346197e+00 2.834298e+00 2.852465e+00 3.336235e+00 5.935740e+00 5.287046e+00 5.258529e+00 5.540135e+00 4.248063e+00 3.883817e+00 2.323284e+00 1.726720e+00
<GCONST> 1.055997e+02
<STATE> 4
<MEAN> 25
 5.688342e+00 -4.489099e+00 -6.907144e+00 -6.267614e+00 -6.761693e+00 -4.659789e+00 2.039494e+00 3.339097e+00 -4.063738e+00 -3.216731e+00 1.259059e+00 1.576190e+00 -8.615252e-02 1.509349e-01 1.749371e-02 -2.290184e-02 1.729622e-01 3.293549e-01 5.120753e-02 2.661340e-02 2.069742e-01 -7.380567e-02 -2.718520e-01 -8.140338e-02 -1.438857e-01
<VARIANCE> 25
 1.290079e+01 3.959645e+01 3.541143e+01 3.548590e+01 4.975706e+01 5.720940e+01 5.394473e+01 4.425347e+01 4.824035e+01 4.426956e+01 3.566191e+01 2.305404e+01 3.876519e-01 1.380920e+00 1.115759e+00 1.051404e+00 1.531198e+00 2.572629e+00 2.314435e+00 2.095396e+00 1.770394e+00 1.835856e+00 1.715812e+00 1.209077e+00 5.871516e-01
<GCONST> 9.328996e+01
<TRANSP> 5
 0.000000e+00 1.000000e+00 0.000000e+00 0.000000e+00 0.000000e+00
 0.000000e+00 4.138670e-01 5.861330e-01 0.000000e+00 0.000000e+00
 0.000000e+00 0.000000e+00 4.639150e-01 5.360851e-01 0.000000e+00
 0.000000e+00 0.000000e+00 0.000000e+00 7.369844e-01 2.630156e-01
 0.000000e+00 0.000000e+00 0.000000e+00 0.000000e+00 0.000000e+00
<ENDHMM>
~h "v"
<BEGINHMM>
<NUMSTATES> 5
<STATE> 2
<MEAN> 25
 7.426800e-04 6.223627e-03 3.699239e-01 -1.689588e+00 9.976794e-01 -1.639734e+00 -5.731899e-01 -1.955701e+00 -2.315029e+00 -8.843236e-01 5.425882e-01 -8.835220e-01 5.269701e-01 -1.138355e-01 -4.999969e-01 -5.231627e-01 -7.309805e-01 -6.811088e-01 1.521140e-01 2.531116e-01 -3.932554e-01 -3.403232e-01 2.072883e-01 3.397337e-01 3.465197e-01
<VARIANCE> 25
 3.516084e+01 3.373688e+01 4.152875e+01 5.373258e+01 4.825425e+01 5.458327e+01 6.309796e+01 3.556122e+01 4.679855e+01 3.390811e+01 3.428116e+01 2.919990e+01 2.507401e+00 1.881542e+00 2.544066e+00 3.367024e+00 3.781640e+00 5.282432e+00 4.684476e+00 2.921902e+00 4.397479e+00 3.534824e+00 3.350538e+00 2.344329e+00 1.150476e+00
<GCONST> 1.048614e+02
<STATE> 3
<MEAN> 25
 4.681541e+00 -2.177259e+00 -4.545002e+00 -4.177719e+00 -6.011594e+00 -5.873912e+00 1.224156e-01 1.312680e+00 -3.881169e+00 -2.233658e+00 2.378305e+00 2.297227e+00 6.774406e-01 -7.513784e-01 -7.807139e-01 -7.614701e-01 -1.308384e+00 -7.814660e-01 8.445572e-01 1.149905e+00 -2.293417e-01 -2.080968e-01 3.812392e-01 2.650966e-01 7.263912e-01
<VARIANCE> 25
 1.253146e+01 3.193752e+01 3.088919e+01 4.724815e+01 5.658898e+01 5.783784e+01 6.747729e+01 4.613086e+01 4.643130e+01 3.850511e+01 3.401265e+01 3.042665e+01 1.251489e+00 2.540448e+00 2.016624e+00 2.396995e+00 3.339477e+00 6.062132e+00 3.462937e+00 2.436997e+00 3.684113e+00 3.414947e+00 2.604907e+00 1.991687e+00 1.409869e+00
<GCONST> 1.021875e+02
<STATE> 4
<MEAN> 25
 6.276046e+00 -2.589995e+00 -6.130081e+00 -8.309888e+00 -1.060576e+01 -5.539054e+00 4.639018e+00 5.413037e+00 -3.649511e+00 -4.447843e+00 3.259802e-01 1.529441e+00 -1.200068e-01 4.112684e-01 1.850984e-01 6.209090e-02 2.879207e-01 3.860712e-01 3.803070e-02 -8.812159e-02 2.160143e-01 -7.607955e-02 -3.374007e-01 -1.805465e-01 -2.586979e-01
<VARIANCE> 25
 7.447125e+00 3.713966e+01 2.707913e+01 2.961530e+01 4.656725e+01 4.665560e+01 4.413674e+01 3.496372e+01 3.924600e+01 3.000764e+01 2.803049e+01 2.198432e+01 3.262771e-01 1.200180e+00 7.872396e-01 7.740936e-01 1.410829e+00 2.102395e+00 1.928262e+00 1.470642e+00 1.703763e+00 1.750197e+00 1.582530e+00 1.087457e+00 5.263410e-01
<GCONST> 8.846709e+01
<TRANSP> 5
 0.000000e+00 1.000000e+00 0.000000e+00 0.000000e+00 0.000000e+00
 0.000000e+00 3.643586e-01 6.356414e-01 0.000000e+00 0.000000e+00
 0.000000e+00 0.000000e+00 4.368224e-01 5.631776e-01 0.000000e+00
 0.000000e+00 0.000000e+00 0.000000e+00 8.231924e-01 1.768077e-01
 0.000000e+00 0.000000e+00 0.000000e+00 0.000000e+00 0.000000e+00
<ENDHMM>
~h "w"
<BEGINHMM>
<NUMSTATES> 5
<STATE> 2
<MEAN> 25
 -3.964954e+00 1.877326e+00 1.788907e+00 4.613929e-01 1.663629e+00 5.293818e+00 2.949864e+00 2.091052e+00 4.161047e+00 2.391529e+00 -8.892080e-02 1.542469e+00 -7.146276e-02 2.703846e-02 3.898119e-02 3.876055e-03 -3.379964e-03 5.083653e-02 4.614850e-02 5.566571e-02 8.928014e-02 4.436291e-02 -6.455525e-03 8.399928e-03 -6.203034e-02
<VARIANCE> 25
 5.747074e+00 8.851471e+00 7.521170e+00 7.595722e+00 7.710023e+00 1.365995e+01 1.145548e+01 9.626397e+00 1.480134e+01 1.108654e+01 1.038324e+01 8.142042e+00 9.044937e-02 1.674797e-01 2.463992e-01 3.284774e-01 4.052426e-01 5.236835e-01 5.868251e-01 6.452351e-01 7.198476e-01 6.696160e-01 6.814317e-01 6.005559e-01 4.229220e-02
<GCONST> 5.880753e+01
<STATE> 3
<MEAN> 25
 -2.028774e+00 2.429664e+00 1.786459e+00 2.806144e-01 1.592089e+00 3.717874e+00 1.630540e+00 7.490671e-01 2.317129e+00 3.906558e-01 -1.330964e+00 -9.824441e-02 1.629542e-01 3.668778e-01 3.487802e-01 1.681373e-01 3.553246e-02 -1.772959e-02 -1.649256e-01 -2.899783e-01 -2.842529e-01 -3.915906e-01 -4.549179e-01 -4.734189e-01 3.604681e-02
<VARIANCE> 25
 1.717905e+01 1.914748e+01 1.674622e+01 1.996663e+01 1.813237e+01 3.032785e+01 2.581553e+01 1.904107e+01 2.894901e+01 2.545928e+01 2.329922e+01 1.759974e+01 5.295445e-01 8.037182e-01 7.835328e-01 7.568315e-01 7.655714e-01 1.085639e+00 1.210474e+00 1.288100e+00 1.673255e+00 1.742043e+00 1.840285e+00 1.322088e+00 2.130109e-01
<GCONST> 8.197626e+01
<STATE> 4
<MEAN> 25
 -4.242019e-01 5.089603e+00 3.568169e+00 8.483851e-01 1.040100e+00 3.256147e+00 4.591209e-01 -9.017864e-01 2.507547e-01 -2.279594e+00 -4.381798e+00 -2.299776e+00 5.850105e-01 2.769646e-01 7.154611e-02 -1.681836e-02 -2.959929e-01 -5.678576e-01 -4.407700e-01 -5.273498e-01 -7.469808e-01 -5.708292e-01 -2.324988e-01 -2.888407e-01 3.465535e-01
<VARIANCE> 25
 1.181146e+01 2.006555e+01 1.521680e+01 1.627435e+01 1.725402e+01 2.440065e+01 2.053980e+01 1.846326e+01 2.491315e+01 2.238606e+01 2.347965e+01 1.701943e+01 8.680731e-01 1.109438e+00 9.461259e-01 9.599845e-01 1.081697e+00 1.611174e+00 1.711570e+00 1.863787e+00 2.497624e+00 2.232319e+00 2.045630e+00 1.474993e+00 3.168074e-01
<GCONST> 8.447706e+01
<TRANSP> 5
 0.000000e+00 1.000000e+00 0.000000e+00 0.000000e+00 0.000000e+00
 0.000000e+00 8.966250e-01 1.033750e-01 0.000000e+00 0.000000e+00
 0.000000e+00 0.000000e+00 1.110784e-01 8.889216e-01 0.000000e+00
 0.000000e+00 0.000000e+00 0.000000e+00 4.815729e-01 5.184271e-01
 0.000000e+00 0.000000e+00 0.000000e+00 0.000000e+00 0.000000e+00
<ENDHMM>
~h "y"
<BEGINHMM>
<NUMSTATES> 5
<STATE> 2
<MEAN> 25
 3.629653e-01 -3.211979e+00 -4.283393e-01 8.962787e-01 -6.951331e-01 -9.346040e-01 -5.752794e-01 -1.269595e+00 5.000054e-01 2.142209e+00 1.838963e+00 -1.437941e+00 -1.349671e-01 7.266082e-02 4.565993e-01 7.773656e-01 3.712893e-01 -1.386436e-01 -3.153790e-01 -1.207580e-01 4.527132e-04 -2.858768e-01 -5.895280e-01 -3.919845e-01 -1.734107e-01
<VARIANCE> 25
 2.944543e+01 4.710606e+01 4.636137e+01 4.863209e+01 2.723354e+01 6.029483e+01 5.018817e+01 2.991707e+01 3.479248e+01 3.432382e+01 3.061272e+01 2.008741e+01 5.047654e-01 1.305717e+00 9.881854e-01 1.347211e+00 1.141879e+00 2.576595e+00 2.100544e+00 1.707534e+00 1.827572e+00 1.871398e+00 1.780894e+00 1.301236e+00 3.904738e-01
<GCONST> 9.248262e+01
<STATE> 3
<MEAN> 25
 2.954317e-01 -2.836006e-01 3.325117e+00 6.588312e+00 2.320974e+00 -2.898956e+00 -3.428387e+00 -2.016135e+00 -1.130628e+00 -2.217051e+00 -3.353149e+00 -3.814556e+00 5.953345e-01 -2.467572e-02 2.965313e-01 1.331211e+00 3.218170e-01 -1.591585e+00 -1.588806e+00 -2.083121e-01 -4.836003e-01 -1.030161e+00 -1.007878e+00 -5.508781e-01 3.161898e-01
<VARIANCE> 25
 1.447410e+01 2.172281e+01 2.706342e+01 4.564845e+01 1.719640e+01 6.490200e+01 5.088383e+01 2.525311e+01 2.764473e+01 2.853303e+01 2.743311e+01 2.220342e+01 1.106704e+00 1.942631e+00 1.300133e+00 2.208286e+00 1.345726e+00 4.703568e+00 4.318090e+00 2.611271e+00 2.872549e+00 2.962513e+00 3.023641e+00 1.748283e+00 6.162256e-01
<GCONST> 9.548557e+01
<STATE> 4
<MEAN> 25
 3.015684e+00 -1.662705e+00 2.196041e+00 7.894776e+00 1.733277e+00 -9.004055e+00 -8.221360e+00 -2.720628e+00 -4.435822e+00 -5.460864e+00 -3.784237e+00 -4.508753e+00 -3.554190e-02 2.494751e-01 -1.077736e-01 -5.076758e-01 -1.541380e-01 4.801610e-01 3.917086e-01 8.839173e-02 -7.676823e-02 2.649217e-02 1.398005e-01 2.507928e-01 -1.318451e-01
<VARIANCE> 25
 6.456636e+00 2.422223e+01 1.631007e+01 4.957555e+01 2.528319e+01 5.760264e+01 4.675417e+01 2.741566e+01 3.954574e+01 2.780988e+01 2.844108e+01 1.920530e+01 2.593639e-01 8.296589e-01 8.309197e-01 1.719202e+00 1.241296e+00 2.064419e+00 2.261452e+00 1.821884e+00 2.333772e+00 1.607745e+00 1.999532e+00 1.512393e+00 2.599246e-01
<GCONST> 8.769901e+01
<TRANSP> 5
 0.000000e+00 1.000000e+00 0.000000e+00 0.000000e+00 0.000000e+00
 0.000000e+00 4.149422e-01 5.850578e-01 0.000000e+00 0.000000e+00
 0.000000e+00 0.000000e+00 5.111199e-01 4.888801e-01 0.000000e+00
 0.000000e+00 0.000000e+00 0.000000e+00 8.370554e-01 1.629445e-01
 0.000000e+00 0.000000e+00 0.000000e+00 0.000000e+00 0.000000e+00
<ENDHMM>
~h "z"
<BEGINHMM>
<NUMSTATES> 5
<STATE> 2
<MEAN> 25
 3.014026e+00 -1.363904e+00 -1.379213e+00 1.276279e+00 -6.330721e-01 -4.167729e+00 -3.593437e+00 -3.266663e+00 -3.806418e+00 -1.709087e+00 1.850619e-01 -1.295771e+00 5.990769e-01 -4.545412e-01 -5.868252e-01 -6.398828e-04 -1.533793e-01 -9.378136e-01 -6.539754e-01 -6.082940e-01 -9.425907e-01 -1.576191e-01 5.881958e-01 2.312573e-01 5.245807e-01
<VARIANCE> 25
 1.765274e+01 3.000859e+01 2.893953e+01 4.390891e+01 3.420306e+01 6.299392e+01 5.861019e+01 3.921803e+01 5.089375e+01 4.197765e+01 3.699010e+01 2.333643e+01 1.139206e+00 2.829984e+00 1.811717e+00 2.150619e+00 2.165066e+00 5.148605e+00 3.709518e+00 2.972754e+00 3.755345e+00 2.817318e+00 3.495672e+00 2.088087e+00 1.228840e+00
<GCONST> 1.011046e+02
<STATE> 3
<MEAN> 25
 5.487193e+00 -4.648478e+00 -4.705105e+00 -2.509771e+00 -5.074113e+00 -6.768872e+00 -2.098634e+00 -1.475775e+00 -6.398476e+00 -1.517095e+00 2.907670e+00 8.027657e-01 5.137348e-02 -3.348048e-01 -2.190241e-01 -8.733334e-02 1.619999e-01 2.653279e-02 -1.886485e-01 -2.402126e-01 -7.033960e-03 4.341042e-01 3.771741e-01 6.202525e-02 1.972599e-01
<VARIANCE> 25
 1.108470e+01 3.922224e+01 2.870465e+01 4.718505e+01 4.948193e+01 5.839150e+01 6.362522e+01 4.367138e+01 5.493781e+01 4.572345e+01 3.988961e+01 2.894300e+01 4.215972e-01 2.007648e+00 1.313106e+00 1.542895e+00 1.630599e+00 3.478324e+00 2.633509e+00 2.250002e+00 2.272441e+00 2.936056e+00 2.443463e+00 1.781215e+00 7.944399e-01
<GCONST> 9.720417e+01
<STATE> 4
<MEAN> 25
 4.781261e+00 -2.341598e+00 -2.793066e+00 1.706406e+00 5.456482e-01 -6.100083e+00 -7.257701e+00 -6.390727e+00 -5.805644e+00 -1.529120e+00 1.098992e+00 -1.417811e+00 -4.503068e-01 7.684060e-01 6.009666e-01 -1.638231e-01 5.405433e-01 1.184184e+00 3.975743e-01 2.323224e-01 3.123693e-01 -2.876737e-01 -5.710568e-01 -3.351377e-02 -5.380055e-01
<VARIANCE> 25
 8.639694e+00 2.475987e+01 1.925602e+01 3.434052e+01 2.478498e+01 5.685152e+01 4.530706e+01 3.281351e+01 4.915255e+01 2.783420e+01 3.536375e+01 2.407995e+01 4.631055e-01 8.297962e-01 9.565651e-01 1.168939e+00 1.178961e+00 2.280145e+00 1.712509e+00 1.843450e+00 2.118762e+00 1.582914e+00 1.500677e+00 1.096659e+00 3.512998e-01
<GCONST> 8.828587e+01
<TRANSP> 5
 0.000000e+00 1.000000e+00 0.000000e+00 0.000000e+00 0.000000e+00
 0.000000e+00 2.360187e-01 7.639813e-01 0.000000e+00 0.000000e+00
 0.000000e+00 0.000000e+00 5.421219e-01 4.578781e-01 0.000000e+00
 0.000000e+00 0.000000e+00 0.000000e+00 6.769121e-01 3.230879e-01
 0.000000e+00 0.000000e+00 0.000000e+00 0.000000e+00 0.000000e+00
<ENDHMM>
~h "aa"
<BEGINHMM>
<NUMSTATES> 5
<STATE> 2
<MEAN> 25
 -6.852185e-01 2.441662e+00 1.758823e+00 5.019606e-01 1.274402e+00 2.311873e+00 8.096276e-02 -6.263840e-01 6.611559e-01 -5.534712e-01 -1.736365e+00 -5.745534e-01 -2.266110e-01 9.109273e-02 1.376504e-01 -3.524344e-02 5.146493e-03 2.736212e-01 2.718906e-01 1.478586e-01 2.311588e-01 1.836293e-01 8.872536e-02 2.734434e-02 -1.660019e-01
<VARIANCE> 25
 1.746674e+01 1.914299e+01 1.980809e+01 2.448177e+01 1.982714e+01 3.675703e+01 3.478315e+01 2.475413e+01 3.377148e+01 2.547969e+01 2.390191e+01 1.836294e+01 2.950953e-01 3.798666e-01 4.750359e-01 6.098213e-01 7.061267e-01 9.656204e-01 1.045721e+00 9.527359e-01 1.111480e+00 1.004672e+00 9.378690e-01 7.914333e-01 1.439193e-01
<GCONST> 7.819428e+01
<STATE> 3
<MEAN> 25
 -4.467027e-01 1.922984e+00 1.205005e+00 8.204781e-02 9.404208e-01 1.910879e+00 2.856640e-01 -5.742422e-01 6.236785e-01 -8.270821e-02 -9.235123e-01 -3.700736e-01 1.426883e-01 -1.064227e-01 -2.407503e-01 -2.508846e-01 -2.603649e-01 -1.929697e-01 9.027974e-02 -6.204686e-02 -2.159024e-01 4.465330e-02 2.599122e-01 -5.550711e-02 1.604004e-01
<VARIANCE> 25
 2.265617e+01 2.728135e+01 2.580629e+01 2.887077e+01 2.593944e+01 4.454795e+01 3.881046e+01 2.529727e+01 3.550366e+01 2.592857e+01 2.481712e+01 2.010011e+01 6.539844e-01 8.746841e-01 1.096333e+00 1.437600e+00 1.617853e+00 1.946736e+00 1.685566e+00 1.576150e+00 1.881478e+00 1.583804e+00 1.764844e+00 1.265003e+00 3.320255e-01
<GCONST> 8.877917e+01
<STATE> 4
<MEAN> 25
 4.970553e-01 1.479945e+00 7.655949e-02 -1.758136e+00 -1.292917e+00 3.194557e-01 9.461222e-01 -2.003541e-01 -3.822107e-01 -2.125027e-01 -2.576837e-02 -2.660996e-01 8.643230e-01 -6.453030e-01 -8.530199e-01 -5.574517e-01 -1.079967e+00 -1.340430e+00 4.999093e-02 4.282732e-03 -8.866577e-01 -2.715553e-01 5.687001e-01 1.083464e-02 8.476852e-01
<VARIANCE> 25
 2.480579e+01 2.569316e+01 3.005470e+01 3.585259e+01 4.851587e+01 5.004604e+01 4.526020e+01 3.264016e+01 3.606778e+01 2.622166e+01 2.495078e+01 2.159363e+01 1.609597e+00 2.132312e+00 2.355206e+00 2.595419e+00 3.708828e+00 4.412020e+00 3.693192e+00 3.063846e+00 3.321901e+00 2.612036e+00 2.973158e+00 2.240998e+00 1.037688e+00
<GCONST> 9.997974e+01
<TRANSP> 5
 0.000000e+00 1.000000e+00 0.000000e+00 0.000000e+00 0.000000e+00
 0.000000e+00 5.549021e-01 4.450979e-01 0.000000e+00 0.000000e+00
 0.000000e+00 0.000000e+00 7.798763e-03 9.922012e-01 0.000000e+00
 0.000000e+00 0.000000e+00 0.000000e+00 3.500350e-01 6.499650e-01
 0.000000e+00 0.000000e+00 0.000000e+00 0.000000e+00 0.000000e+00
<ENDHMM>
~h "ae"
<BEGINHMM>
<NUMSTATES> 5
<STATE> 2
<MEAN> 25
 -2.999470e+00 2.086822e+00 2.961241e+00 -1.376038e+00 2.732771e+00 3.118820e+00 1.191827e+00 2.139188e-01 1.645949e+00 8.868562e-01 2.363410e-01 -5.715430e-01 1.307736e-01 -3.004802e-01 -3.793236e-01 -1.892972e-01 -1.563439e-01 -1.304590e-01 5.899515e-02 -1.181735e-01 -1.025636e-01 2.642191e-01 3.950523e-01 5.101005e-02 1.781728e-01
<VARIANCE> 25
 2.810872e+01 2.193855e+01 3.336013e+01 3.974155e+01 2.960999e+01 3.994400e+01 3.262334e+01 2.399970e+01 3.870719e+01 2.911866e+01 2.753672e+01 2.169796e+01 1.140469e+00 9.305568e-01 1.682716e+00 1.655719e+00 1.528519e+00 1.775949e+00 1.901258e+00 1.845701e+00 2.283154e+00 1.795713e+00 1.836918e+00 1.452906e+00 4.485417e-01
<GCONST> 9.164880e+01
<STATE> 3
<MEAN> 25
 2.469858e+00 -2.050993e+00 -3.032385e+00 -6.949487e-01 -1.080198e+00 -2.760347e+00 -2.003077e+00 -2.334766e+00 -2.189387e+00 1.283765e+00 3.117568e+00 4.553017e-01 1.288604e+00 -1.767330e+00 -1.638960e+00 -5.109752e-01 -1.147051e+00 -1.647216e+00 -3.991508e-01 -6.715112e-02 -9.567416e-01 4.104991e-01 1.248620e+00 8.703858e-02 1.492892e+00
<VARIANCE> 25
 1.923484e+01 3.159294e+01 3.509132e+01 3.530665e+01 2.796745e+01 6.075837e+01 5.200079e+01 3.375652e+01 5.323108e+01 4.491170e+01 3.691795e+01 2.205023e+01 1.563469e+00 2.798583e+00 2.812151e+00 3.027628e+00 2.414951e+00 5.320400e+00 4.836260e+00 3.877127e+00 4.955231e+00 3.868501e+00 3.728534e+00 2.370902e+00 1.273855e+00
<GCONST> 1.033452e+02
<STATE> 4
<MEAN> 25
 5.568882e+00 -8.883789e+00 -9.272403e+00 -5.956760e+00 -4.627904e+00 -1.240422e+00 1.864890e+00 1.012436e+00 -3.584396e+00 1.141268e+00 3.919326e+00 8.639832e-01 7.294477e-02 -2.170257e-02 -4.558429e-02 -8.747805e-02 -4.884442e-03 1.209525e-02 -2.200674e-02 -3.558833e-02 -3.283960e-02 -1.351196e-01 -1.798157e-01 -1.074724e-01 8.338521e-02
<VARIANCE> 25
 1.006913e+01 3.393969e+01 2.759927e+01 3.003654e+01 2.525150e+01 5.361312e+01 4.615089e+01 2.568586e+01 4.175132e+01 3.452136e+01 2.923963e+01 1.960658e+01 3.509974e-01 1.157033e+00 1.038397e+00 9.488068e-01 8.959543e-01 2.470284e+00 1.928056e+00 1.398138e+00 1.490968e+00 1.380638e+00 1.267892e+00 9.853385e-01 5.233492e-01
<GCONST> 8.758163e+01
<TRANSP> 5
 0.000000e+00 1.000000e+00 0.000000e+00 0.000000e+00 0.000000e+00
 0.000000e+00 5.194219e-01 4.805781e-01 0.000000e+00 0.000000e+00
 0.000000e+00 0.000000e+00 6.247187e-01 3.752814e-01 0.000000e+00
 0.000000e+00 0.000000e+00 0.000000e+00 7.826465e-01 2.173536e-01
 0.000000e+00 0.000000e+00 0.000000e+00 0.000000e+00 0.000000e+00
<ENDHMM>
~h "ah"
<BEGINHMM>
<NUMSTATES> 5
<STATE> 2
<MEAN> 25
 -1.416979e+00 3.306013e+00 2.287982e+00 5.270507e-01 1.442999e+00 3.701634e+00 9.677960e-01 2.213476e-01 2.007784e+00 8.346216e-02 -1.978517e+00 -3.588775e-01 -1.968253e-01 3.013178e-03 7.521920e-02 2.521599e-02 7.331678e-03 1.626078e-01 1.834668e-01 1.161683e-01 1.982676e-01 1.814853e-01 1.153339e-01 5.186481e-02 -1.395745e-01
<VARIANCE> 25
 1.437997e+01 1.690005e+01 1.651670e+01 1.698208e+01 1.522111e+01 2.435757e+01 2.154922e+01 1.871905e+01 2.722500e+01 2.083805e+01 1.875793e+01 1.484799e+01 2.063180e-01 2.802715e-01 3.897772e-01 4.719003e-01 5.501484e-01 7.171300e-01 7.921703e-01 8.383750e-01 9.363108e-01 8.598394e-01 8.137245e-01 7.255957e-01 8.995490e-02
<GCONST> 7.192743e+01
<STATE> 3
<MEAN> 25
 -7.980073e-01 2.824769e+00 1.948555e+00 1.667077e-01 1.179210e+00 2.424761e+00 5.261126e-01 -1.927787e-01 1.138953e+00 -3.863871e-01 -1.621604e+00 -8.534833e-01 2.602067e-01 -4.768023e-01 -4.868300e-01 -1.173580e-01 -2.447329e-01 -4.264994e-01 -6.759316e-02 -4.293687e-01 -6.468556e-01 3.694149e-03 5.483145e-01 7.862906e-02 3.367157e-01
<VARIANCE> 25
 2.063542e+01 2.592308e+01 2.331751e+01 2.781643e+01 2.386665e+01 3.818106e+01 3.118843e+01 2.472086e+01 3.576910e+01 2.627862e+01 2.555658e+01 1.820876e+01 6.476736e-01 1.101485e+00 1.290690e+00 1.286970e+00 1.499202e+00 1.874313e+00 2.007168e+00 2.051942e+00 2.351421e+00 1.733103e+00 1.780753e+00 1.339570e+00 3.888255e-01
<GCONST> 8.910319e+01
<STATE> 4
<MEAN> 25
 2.223347e+00 -4.661069e-01 -1.280931e+00 -7.523306e-01 -9.187029e-01 -1.741662e+00 -9.048382e-01 -3.072101e+00 -4.708598e+00 -1.369597e+00 2.015542e+00 1.628782e-01 1.015766e+00 -1.238027e+00 -1.056437e+00 -2.577616e-01 -7.996709e-01 -1.675599e+00 -5.640733e-01 -4.778711e-01 -1.587831e+00 -2.495878e-01 1.058829e+00 3.521355e-01 1.146632e+00
<VARIANCE> 25
 2.160753e+01 3.135128e+01 2.857734e+01 3.132596e+01 3.433404e+01 5.236673e+01 4.483092e+01 4.279303e+01 6.827600e+01 3.547380e+01 4.046638e+01 2.104724e+01 1.546074e+00 2.940122e+00 2.426852e+00 2.367828e+00 2.802414e+00 4.785708e+00 4.516333e+00 4.304338e+00 5.752992e+00 3.494039e+00 3.820611e+00 2.272928e+00 1.297497e+00
<GCONST> 1.031044e+02
<TRANSP> 5
 0.000000e+00 1.000000e+00 0.000000e+00 0.000000e+00 0.000000e+00
 0.000000e+00 6.652463e-01 3.347537e-01 0.000000e+00 0.000000e+00
 0.000000e+00 0.000000e+00 8.436816e-02 9.156319e-01 0.000000e+00
 0.000000e+00 0.000000e+00 0.000000e+00 5.774946e-01 4.225054e-01
 0.000000e+00 0.000000e+00 0.000000e+00 0.000000e+00 0.000000e+00
<ENDHMM>
~h "ao"
<BEGINHMM>
<NUMSTATES> 5
<STATE> 2
<MEAN> 25
 2.474975e+00 -1.178234e+00 1.550984e+00 5.474536e+00 9.157565e-01 -7.862394e+00 -6.532019e+00 -2.025438e+00 -1.733276e+00 -3.169580e+00 -3.503391e+00 -3.474046e+00 -5.529409e-02 1.327141e-01 8.693875e-02 4.547888e-03 -1.171286e-02 3.269438e-02 3.142067e-02 1.219688e-01 6.867944e-02 -8.260391e-02 -1.097540e-01 -8.171177e-03 -8.297727e-02
<VARIANCE> 25
 1.379924e+01 2.850284e+01 2.468514e+01 5.513322e+01 2.822254e+01 8.784497e+01 5.207944e+01 2.475494e+01 3.241747e+01 3.283195e+01 2.957299e+01 2.308343e+01 2.571908e-01 6.373238e-01 6.640701e-01 9.090188e-01 8.938499e-01 2.081475e+00 1.688069e+00 1.446185e+00 1.262473e+00 1.150616e+00 1.142486e+00 9.534037e-01 2.329072e-01
<GCONST> 8.581300e+01
<STATE> 3
<MEAN> 25
 1.292327e+00 9.966376e-01 1.825303e-01 7.316877e-01 4.488712e-01 -1.317037e+00 -2.098748e+00 -1.192619e+00 -5.331443e-01 -1.034015e+00 -1.491191e+00 -9.510164e-01 -1.511994e-02 2.201829e-01 -1.184165e-01 -4.182277e-01 -2.339024e-01 2.959920e-01 4.007725e-01 1.475194e-01 -1.276042e-02 -5.284288e-03 1.761555e-01 2.298722e-01 -9.892452e-02
<VARIANCE> 25
 2.267351e+01 2.522100e+01 2.780281e+01 3.909141e+01 3.641562e+01 6.167669e+01 4.587971e+01 2.865195e+01 4.227747e+01 2.908534e+01 3.197893e+01 2.325581e+01 6.043577e-01 9.052126e-01 1.027349e+00 1.344925e+00 1.871678e+00 3.085732e+00 2.116941e+00 1.720855e+00 2.036654e+00 1.602112e+00 1.552012e+00 1.384816e+00 4.414092e-01
<GCONST> 9.180765e+01
<STATE> 4
<MEAN> 25
 4.539725e+00 -2.201825e+00 -4.430413e+00 -7.080520e+00 -9.960260e+00 -5.114079e+00 3.998022e+00 6.213550e+00 -1.793344e+00 -3.248047e+00 -2.335019e-01 9.045849e-01 2.639710e-01 -2.843062e-01 -3.973649e-01 -3.639282e-01 -3.065962e-01 -1.546967e-01 2.012558e-01 1.284755e-01 -3.023215e-01 -1.777629e-01 1.623815e-01 9.869599e-02 3.014066e-01
<VARIANCE> 25
 1.464677e+01 3.533591e+01 2.712171e+01 4.270155e+01 6.807397e+01 6.065884e+01 6.261668e+01 5.502419e+01 3.774155e+01 3.375412e+01 2.410682e+01 2.271509e+01 9.185250e-01 1.616109e+00 1.545040e+00 1.529340e+00 3.306932e+00 4.834357e+00 2.956247e+00 2.808309e+00 2.257155e+00 2.462227e+00 2.094597e+00 1.398594e+00 9.253128e-01
<GCONST> 9.803225e+01
<TRANSP> 5
 0.000000e+00 1.000000e+00 0.000000e+00 0.000000e+00 0.000000e+00
 0.000000e+00 5.686088e-01 4.313912e-01 0.000000e+00 0.000000e+00
 0.000000e+00 0.000000e+00 1.250936e-01 8.749064e-01 0.000000e+00
 0.000000e+00 0.000000e+00 0.000000e+00 7.289456e-01 2.710544e-01
 0.000000e+00 0.000000e+00 0.000000e+00 0.000000e+00 0.000000e+00
<ENDHMM>
~h "aw"
<BEGINHMM>
<NUMSTATES> 5
<STATE> 2
<MEAN> 25
 2.797682e+00 1.552439e+00 -1.914698e+00 -2.795395e+00 -2.313169e+00 -4.490616e-01 1.239100e+00 4.509579e-01 -2.032086e+00 -2.165808e+00 -1.722191e-01 5.794706e-01 -2.752322e-01 3.186428e-01 2.977738e-01 -2.054382e-02 6.172363e-02 4.156893e-01 1.551623e-01 1.394773e-01 3.868132e-01 -7.668460e-03 -3.506214e-01 -1.411162e-01 -2.889287e-01
<VARIANCE> 25
 1.839994e+01 1.244218e+01 1.993513e+01 2.959438e+01 3.434949e+01 3.227393e+01 3.583360e+01 2.774438e+01 3.894691e+01 2.901262e+01 2.253939e+01 1.639198e+01 2.643951e-01 4.509041e-01 5.366926e-01 5.967659e-01 8.511326e-01 1.124458e+00 1.213462e+00 1.222517e+00 1.269580e+00 1.132887e+00 1.140119e+00 9.032828e-01 1.652002e-01
<GCONST> 8.029260e+01
<STATE> 3
<MEAN> 25
 2.335779e+00 3.551582e+00 1.287043e+00 -9.264155e-01 -1.711374e+00 -6.722000e-01 -6.666385e-01 -1.084562e+00 -1.916289e+00 -3.220631e+00 -3.593453e+00 -2.453930e+00 -3.001810e-01 4.500476e-03 1.521250e-01 1.459089e-01 2.329602e-01 3.657915e-01 1.616833e-01 9.281796e-02 2.494005e-01 1.832662e-01 2.021376e-02 6.962837e-03 -2.069123e-01
<VARIANCE> 25
 1.224530e+01 9.991661e+00 1.107791e+01 1.958867e+01 2.775477e+01 2.959531e+01 2.011048e+01 1.629984e+01 2.263300e+01 1.901719e+01 1.771031e+01 1.365931e+01 1.746814e-01 2.955574e-01 3.799937e-01 4.654704e-01 6.386895e-01 7.781093e-01 8.647845e-01 9.038893e-01 9.065077e-01 9.048995e-01 8.942088e-01 7.233166e-01 7.932903e-02
<GCONST> 7.138097e+01
<STATE> 4
<MEAN> 25
 -3.274752e+00 8.226291e-01 1.403012e+00 8.490170e-01 1.305573e+00 3.373283e+00 1.525711e+00 1.279456e+00 3.176996e+00 1.876276e+00 -9.014338e-02 1.043878e+00 -3.749358e-02 -2.559399e-02 -1.137835e-02 -1.561276e-03 -1.953626e-03 1.159396e-03 1.761330e-02 1.021985e-02 2.520634e-02 3.329622e-02 4.360193e-02 3.311739e-02 -1.951319e-02
<VARIANCE> 25
 4.338227e+00 6.453264e+00 6.304597e+00 6.388861e+00 6.642013e+00 1.227724e+01 9.014615e+00 8.536592e+00 1.253671e+01 9.311214e+00 8.292294e+00 6.984496e+00 7.060560e-02 1.407616e-01 2.291992e-01 3.143427e-01 3.989735e-01 5.133502e-01 5.903710e-01 6.664051e-01 6.823515e-01 6.810548e-01 6.425027e-01 5.762271e-01 2.656673e-02
<GCONST> 5.538974e+01
<TRANSP> 5
 0.000000e+00 1.000000e+00 0.000000e+00 0.000000e+00 0.000000e+00
 0.000000e+00 5.218058e-01 4.781942e-01 0.000000e+00 0.000000e+00
 0.000000e+00 0.000000e+00 7.537619e-01 2.462381e-01 0.000000e+00
 0.000000e+00 0.000000e+00 0.000000e+00 9.171220e-01 8.287802e-02
 0.000000e+00 0.000000e+00 0.000000e+00 0.000000e+00 0.000000e+00
<ENDHMM>
~h "ax"
<BEGINHMM>
<NUMSTATES> 5
<STATE> 2
<MEAN> 25
 2.336934e+00 -1.095434e+00 -1.529686e+00 -5.302325e-01 -9.088703e-01 -2.458389e+00 -1.967580e+00 -1.139549e+00 -2.548510e+00 -1.403822e+00 2.558249e-01 -1.550916e-01 1.109816e-01 4.589744e-02 -1.899680e-01 -2.527863e-01 -2.447142e-01 -3.828018e-02 1.115367e-01 -2.021619e-02 -1.232931e-01 7.214253e-02 1.928456e-01 1.564240e-01 -1.988294e-03
<VARIANCE> 25
 2.233044e+01 3.580323e+01 3.100096e+01 3.980920e+01 3.449871e+01 6.456919e+01 4.868150e+01 3.434832e+01 5.761150e+01 4.154509e+01 3.428568e+01 2.233588e+01 4.905696e-01 9.707406e-01 1.018484e+00 1.277268e+00 1.446954e+00 2.045700e+00 2.112728e+00 1.986471e+00 2.168568e+00 1.801900e+00 1.851319e+00 1.355164e+00 3.817185e-01
<GCONST> 9.266131e+01
<STATE> 3
<MEAN> 25
 3.653261e+00 -2.580083e+00 -3.967866e+00 -3.251660e+00 -3.833297e+00 -3.103468e+00 -3.114637e-01 -8.473774e-01 -3.747551e+00 -3.026872e-01 2.851021e+00 1.509838e+00 6.331069e-01 -5.518653e-01 -5.739903e-01 -2.499582e-01 -6.727275e-01 -8.221595e-01 4.980269e-02 -8.233424e-02 -7.955562e-01 -1.433238e-01 4.974650e-01 1.147011e-01 6.038275e-01
<VARIANCE> 25
 1.637825e+01 3.520126e+01 3.072670e+01 4.343363e+01 4.536507e+01 5.476944e+01 5.660967e+01 3.559520e+01 5.362317e+01 4.486395e+01 3.923859e+01 2.483943e+01 1.235664e+00 2.546184e+00 2.141531e+00 2.197475e+00 2.756167e+00 4.180219e+00 3.758492e+00 2.646482e+00 4.002029e+00 2.840901e+00 3.057809e+00 1.901978e+00 1.462195e+00
<GCONST> 1.016022e+02
<STATE> 4
<MEAN> 25
 5.506727e+00 -1.535497e+00 -4.182247e+00 -3.556477e+00 -4.834019e+00 -5.044687e+00 -4.333557e-01 -1.467654e+00 -6.465807e+00 -2.859672e+00 2.029649e+00 7.505694e-01 -1.954407e-01 6.449547e-01 3.918072e-01 1.892384e-01 3.947836e-01 5.860270e-01 -3.332406e-02 -1.644501e-01 2.262529e-01 -2.232364e-01 -5.767736e-01 -1.817157e-01 -4.072838e-01
<VARIANCE> 25
 9.504091e+00 2.767276e+01 2.384553e+01 2.971497e+01 3.833954e+01 4.057008e+01 4.947369e+01 3.402781e+01 4.525316e+01 3.999614e+01 3.646936e+01 2.112236e+01 2.123602e-01 8.101016e-01 5.617850e-01 6.892012e-01 9.996657e-01 1.567950e+00 1.470852e+00 1.276965e+00 1.492882e+00 1.515547e+00 1.458634e+00 9.916084e-01 2.944890e-01
<GCONST> 8.534222e+01
<TRANSP> 5
 0.000000e+00 1.000000e+00 0.000000e+00 0.000000e+00 0.000000e+00
 0.000000e+00 1.055178e-01 8.944823e-01 0.000000e+00 0.000000e+00
 0.000000e+00 0.000000e+00 5.253817e-01 4.746183e-01 0.000000e+00
 0.000000e+00 0.000000e+00 0.000000e+00 6.769117e-01 3.230883e-01
 0.000000e+00 0.000000e+00 0.000000e+00 0.000000e+00 0.000000e+00
<ENDHMM>
~h "ay"
<BEGINHMM>
<NUMSTATES> 5
<STATE> 2
<MEAN> 25
 -2.841100e+00 2.205304e+00 1.661988e+00 1.523670e-01 1.503945e+00 4.482922e+00 2.116838e+00 1.109898e+00 3.046016e+00 1.342355e+00 -5.992522e-01 1.003206e+00 -1.484862e-01 2.912112e-02 5.627406e-02 -6.772976e-03 8.412567e-03 1.328344e-01 1.306773e-01 9.690391e-02 1.362885e-01 1.057620e-01 5.851921e-02 5.229263e-02 -1.160396e-01
<VARIANCE> 25
 1.090217e+01 1.230765e+01 1.280552e+01 1.246785e+01 1.110740e+01 2.019190e+01 1.729939e+01 1.402208e+01 2.157135e+01 1.524066e+01 1.453724e+01 1.167699e+01 1.425190e-01 2.083473e-01 3.179786e-01 3.881267e-01 4.665230e-01 6.421387e-01 7.107908e-01 7.457059e-01 7.873583e-01 7.606710e-01 7.547802e-01 6.631230e-01 6.797409e-02
<GCONST> 6.641039e+01
<STATE> 3
<MEAN> 25
 -1.314794e+00 2.108598e+00 1.323264e+00 -2.824683e-01 1.250153e+00 2.824032e+00 1.233459e+00 1.934081e-01 1.314408e+00 1.475765e-01 -8.695288e-01 -1.683719e-01 1.470045e-01 -1.910024e-01 -2.557438e-01 -6.891822e-02 -1.327883e-01 -1.480247e-01 -2.922051e-02 -2.401358e-01 -2.591787e-01 9.274038e-02 3.016065e-01 1.159475e-02 1.409309e-01
<VARIANCE> 25
 2.166722e+01 2.277302e+01 2.426365e+01 2.500668e+01 2.255436e+01 3.672207e+01 3.142505e+01 2.265512e+01 3.319453e+01 2.457339e+01 2.447993e+01 1.749140e+01 4.716172e-01 7.057778e-01 9.887391e-01 1.002800e+00 1.096196e+00 1.463334e+00 1.550559e+00 1.327730e+00 1.569926e+00 1.358965e+00 1.459753e+00 1.080444e+00 2.509805e-01
<GCONST> 8.452442e+01
<STATE> 4
<MEAN> 25
 7.899693e-01 -7.296102e-01 -1.754257e+00 -1.669869e+00 -5.224978e-01 1.112629e+00 1.299065e+00 -4.576085e-01 -1.182104e+00 1.625567e-01 1.439615e+00 5.955239e-01 9.589307e-01 -1.078500e+00 -1.034110e+00 -2.266841e-01 -6.483923e-01 -1.195261e+00 -4.837099e-01 -3.805406e-01 -9.056008e-01 -4.583757e-02 6.444035e-01 5.462815e-02 1.023013e+00
<VARIANCE> 25
 2.510636e+01 4.070816e+01 4.097778e+01 3.195791e+01 3.134477e+01 4.515112e+01 3.704567e+01 2.792422e+01 4.210987e+01 3.213820e+01 3.199751e+01 2.027437e+01 1.607670e+00 2.768287e+00 3.047247e+00 2.540398e+00 2.561780e+00 4.154994e+00 3.452195e+00 3.089537e+00 3.614876e+00 3.012927e+00 3.360341e+00 2.242113e+00 1.171057e+00
<GCONST> 1.007729e+02
<TRANSP> 5
 0.000000e+00 1.000000e+00 0.000000e+00 0.000000e+00 0.000000e+00
 0.000000e+00 7.870067e-01 2.129932e-01 0.000000e+00 0.000000e+00
 0.000000e+00 0.000000e+00 6.273935e-02 9.372607e-01 0.000000e+00
 0.000000e+00 0.000000e+00 0.000000e+00 5.509865e-01 4.490135e-01
 0.000000e+00 0.000000e+00 0.000000e+00 0.000000e+00 0.000000e+00
<ENDHMM>
~h "ch"
<BEGINHMM>
<NUMSTATES> 5
<STATE> 2
<MEAN> 25
 -3.529600e+00 -4.685302e+00 5.808849e+00 2.650848e+00 -2.066950e+00 5.525256e-01 2.851490e+00 -2.578306e+00 -1.528580e+00 9.692398e-01 3.237662e+00 -3.532307e+00 -3.283184e-02 -7.434256e-01 3.342965e-01 1.982886e-01 -2.549811e-01 -2.682941e-01 1.075747e-02 -3.882089e-01 -4.644176e-01 1.006044e-01 5.404979e-01 -1.988789e-01 4.753526e-01
<VARIANCE> 25
 3.307541e+01 4.048701e+01 5.318093e+01 3.047631e+01 2.751796e+01 4.363446e+01 5.443779e+01 3.197397e+01 3.296791e+01 2.799184e+01 4.256069e+01 2.093744e+01 2.641990e+00 2.536203e+00 4.093963e+00 1.866313e+00 2.233949e+00 3.239556e+00 4.792181e+00 2.626615e+00 3.112653e+00 2.851800e+00 3.628744e+00 1.932433e+00 8.550611e-01
<GCONST> 1.011320e+02
<STATE> 3
<MEAN> 25
 2.879456e+00 -4.318323e+00 -8.575128e-01 2.387166e+00 -1.297899e+00 -5.944120e+00 -3.959848e+00 -3.033470e+00 -4.448737e+00 -1.423240e+00 1.691551e+00 -1.387830e+00 3.197120e-01 -5.311604e-01 -6.429719e-01 -2.988955e-01 -2.798839e-01 -7.304810e-01 -2.033560e-01 5.068712e-01 1.420362e-01 3.896665e-01 4.625569e-01 3.575178e-01 3.969697e-01
<VARIANCE> 25
 2.617655e+01 3.887037e+01 4.561385e+01 4.669466e+01 3.177159e+01 7.402242e+01 6.712746e+01 4.097083e+01 5.235568e+01 4.325710e+01 4.213511e+01 2.639302e+01 8.936899e-01 1.844462e+00 2.264975e+00 2.166298e+00 1.578905e+00 4.348797e+00 3.351160e+00 2.607001e+00 2.964440e+00 3.221628e+00 2.603081e+00 1.904364e+00 8.271821e-01
<GCONST> 1.008097e+02
<STATE> 4
<MEAN> 25
 4.789383e+00 -6.133674e+00 -4.252090e+00 2.974267e-01 -3.336341e+00 -8.813917e+00 -3.842970e+00 -1.151242e+00 -4.411502e+00 -1.244700e+00 1.599824e+00 -1.311098e+00 -6.994890e-02 4.441856e-01 4.949289e-02 -7.477007e-02 1.821949e-01 3.893364e-01 7.340469e-02 2.846335e-02 2.216714e-01 -1.510300e-01 -4.084002e-01 -4.008759e-02 -2.846932e-01
<VARIANCE> 25
 1.833914e+01 3.865804e+01 4.013929e+01 5.114067e+01 3.387513e+01 8.671632e+01 6.334351e+01 4.610312e+01 5.533221e+01 4.145989e+01 4.090990e+01 2.655288e+01 2.594645e-01 1.038055e+00 9.073932e-01 9.319673e-01 9.098098e-01 2.369273e+00 1.594028e+00 1.604722e+00 1.534509e+00 1.650403e+00 1.483575e+00 1.057887e+00 3.604304e-01
<GCONST> 9.141837e+01
<TRANSP> 5
 0.000000e+00 1.000000e+00 0.000000e+00 0.000000e+00 0.000000e+00
 0.000000e+00 6.578525e-01 3.421475e-01 0.000000e+00 0.000000e+00
 0.000000e+00 0.000000e+00 3.143365e-01 6.856635e-01 0.000000e+00
 0.000000e+00 0.000000e+00 0.000000e+00 6.772739e-01 3.227261e-01
 0.000000e+00 0.000000e+00 0.000000e+00 0.000000e+00 0.000000e+00
<ENDHMM>
~h "dh"
<BEGINHMM>
<NUMSTATES> 5
<STATE> 2
<MEAN> 25
 2.923125e+00 -2.372006e-01 -1.909532e+00 2.578366e-02 6.135623e-02 -2.506102e+00 -2.695400e+00 -2.343214e+00 -2.910009e+00 -2.051614e+00 -6.370615e-01 -6.319950e-01 -3.590777e-01 1.021078e+00 7.132353e-01 2.873184e-01 5.472565e-01 1.233068e+00 3.364252e-01 1.004251e-01 5.952188e-01 -2.510265e-01 -8.997111e-01 -1.677986e-01 -6.732284e-01
<VARIANCE> 25
 2.097726e+01 2.422195e+01 2.747469e+01 3.780269e+01 2.916251e+01 5.641624e+01 5.304627e+01 3.744670e+01 5.110265e+01 3.527479e+01 3.175412e+01 2.265890e+01 5.151939e-01 9.431502e-01 8.357742e-01 9.807948e-01 1.153565e+00 2.534652e+00 1.842270e+00 1.901516e+00 2.686059e+00 1.839126e+00 1.757343e+00 1.307269e+00 4.931421e-01
<GCONST> 9.132676e+01
<STATE> 3
<MEAN> 25
 1.074127e+00 2.590993e+00 1.061630e+00 6.705577e-01 1.328705e+00 1.155415e+00 -1.192905e+00 -1.664358e+00 -9.847140e-01 -2.187670e+00 -2.776396e+00 -1.379672e+00 -1.058928e-01 8.226723e-01 7.060611e-01 2.781453e-01 3.298188e-01 6.184425e-01 8.097832e-03 -1.778192e-01 1.904403e-01 -1.679907e-01 -5.056938e-01 -2.232232e-01 -3.245842e-01
<VARIANCE> 25
 1.854309e+01 2.303567e+01 2.578101e+01 3.183495e+01 2.473883e+01 4.111475e+01 3.868290e+01 2.856233e+01 3.506878e+01 2.771160e+01 2.744081e+01 1.961437e+01 1.077021e+00 7.675667e-01 7.504632e-01 8.769198e-01 9.030198e-01 1.962227e+00 2.459477e+00 2.742127e+00 3.446343e+00 1.933746e+00 1.417713e+00 1.266284e+00 5.230661e-01
<GCONST> 8.951983e+01
<STATE> 4
<MEAN> 25
 8.966939e-01 4.271371e+00 2.333445e+00 1.375292e+00 1.978622e+00 2.350397e+00 -1.389537e+00 -2.122602e+00 -7.081103e-01 -2.295664e+00 -3.487312e+00 -1.475565e+00 -3.601708e-01 2.492169e-01 3.226167e-01 3.066425e-02 8.793016e-02 4.538465e-01 3.339824e-01 2.139507e-01 4.429052e-01 3.332258e-01 9.865468e-02 8.800625e-02 -3.146162e-01
<VARIANCE> 25
 1.211714e+01 1.824821e+01 1.877727e+01 2.290253e+01 1.918682e+01 3.394463e+01 3.085584e+01 2.480994e+01 2.908083e+01 2.268185e+01 2.330427e+01 1.825435e+01 2.942726e-01 4.214901e-01 4.976526e-01 5.974278e-01 6.177925e-01 9.428887e-01 1.060269e+00 1.097945e+00 1.240118e+00 1.006240e+00 9.903025e-01 9.263107e-01 1.433571e-01
<GCONST> 7.757781e+01
<TRANSP> 5
 0.000000e+00 1.000000e+00 0.000000e+00 0.000000e+00 0.000000e+00
 0.000000e+00 3.278255e-01 6.721745e-01 0.000000e+00 0.000000e+00
 0.000000e+00 0.000000e+00 1.517525e-01 8.482475e-01 0.000000e+00
 0.000000e+00 0.000000e+00 0.000000e+00 5.774149e-01 4.225851e-01
 0.000000e+00 0.000000e+00 0.000000e+00 0.000000e+00 0.000000e+00
<ENDHMM>
~h "eh"
<BEGINHMM>
<NUMSTATES> 5
<STATE> 2
<MEAN> 25
 -5.427896e-01 1.615466e+00 1.476334e+00 4.067446e-01 1.518794e+00 1.469970e+00 -7.961921e-02 -1.270596e+00 1.167522e-01 -2.557743e-01 -9.128733e-01 -9.067215e-01 9.897975e-01 -7.276378e-01 -7.825682e-01 3.578351e-01 -3.784035e-01 -1.434419e+00 -1.220218e+00 -1.049595e+00 -1.093174e+00 -1.458267e-01 4.310843e-01 -8.486667e-02 7.532410e-01
<VARIANCE> 25
 2.146556e+01 2.611834e+01 2.672833e+01 3.285071e+01 2.650766e+01 4.215280e+01 3.612310e+01 2.695047e+01 3.990501e+01 3.183528e+01 2.474015e+01 1.902465e+01 1.578222e+00 2.000406e+00 1.729826e+00 2.067097e+00 1.822501e+00 3.550320e+00 3.968187e+00 3.154123e+00 3.950407e+00 2.811530e+00 2.828582e+00 1.974030e+00 7.483619e-01
<GCONST> 9.691022e+01
<STATE> 3
<MEAN> 25
 3.892045e+00 -2.684529e+00 -2.426805e+00 1.875084e+00 -3.093717e-01 -6.370827e+00 -5.925939e+00 -5.079256e+00 -4.951545e+00 -7.291272e-01 2.418231e+00 -4.426705e-01 1.153821e+00 -1.787663e+00 -1.252653e+00 2.518235e-01 -7.997373e-01 -2.557347e+00 -1.350395e+00 -3.350970e-01 -6.895272e-01 6.167989e-01 1.320776e+00 -6.280628e-02 1.402382e+00
<VARIANCE> 25
 1.310913e+01 2.744004e+01 2.814822e+01 4.086275e+01 2.846581e+01 5.917386e+01 5.286386e+01 3.648402e+01 5.380264e+01 4.209327e+01 3.650458e+01 2.414895e+01 1.371318e+00 2.560579e+00 2.257790e+00 2.872580e+00 2.267623e+00 5.444565e+00 5.036146e+00 3.852971e+00 5.656600e+00 4.234498e+00 3.559098e+00 2.469459e+00 1.076528e+00
<GCONST> 1.024084e+02
<STATE> 4
<MEAN> 25
 5.512132e+00 -7.499830e+00 -4.925236e+00 2.579692e+00 -2.131140e+00 -1.180265e+01 -8.283756e+00 -3.734181e+00 -1.703837e+00 3.330756e+00 4.229820e+00 -2.668422e+00 1.555220e-02 5.053934e-02 -3.409798e-02 -8.214567e-02 -3.160042e-03 1.558611e-01 1.109286e-01 1.020736e-01 1.227929e-01 -2.819230e-02 -2.271480e-01 -9.028034e-02 -2.411038e-02
<VARIANCE> 25
 7.396987e+00 2.585042e+01 2.290758e+01 3.570895e+01 1.980256e+01 4.373025e+01 3.996632e+01 2.455540e+01 3.542863e+01 3.180284e+01 3.482455e+01 2.189603e+01 1.993688e-01 1.011183e+00 7.203706e-01 8.758292e-01 8.972751e-01 1.715408e+00 1.366567e+00 1.289055e+00 1.473615e+00 1.410138e+00 1.279856e+00 1.066765e+00 3.605343e-01
<GCONST> 8.418176e+01
<TRANSP> 5
 0.000000e+00 1.000000e+00 0.000000e+00 0.000000e+00 0.000000e+00
 0.000000e+00 2.985637e-01 7.014363e-01 0.000000e+00 0.000000e+00
 0.000000e+00 0.000000e+00 5.881351e-01 4.118648e-01 0.000000e+00
 0.000000e+00 0.000000e+00 0.000000e+00 7.704752e-01 2.295248e-01
 0.000000e+00 0.000000e+00 0.000000e+00 0.000000e+00 0.000000e+00
<ENDHMM>
~h "el"
<BEGINHMM>
<NUMSTATES> 5
<STATE> 2
<MEAN> 25
 4.474885e+00 3.516529e+00 -1.257622e+00 -2.492380e+00 -6.328753e-01 -9.864305e-01 -2.681506e+00 -4.517870e-01 -3.742276e+00 -6.424147e+00 -5.395144e+00 -3.650490e+00 -6.051332e-01 5.684003e-01 5.669774e-01 1.698797e-01 2.698903e-01 1.510811e+00 5.510700e-01 -4.525822e-01 8.301039e-01 6.329808e-01 5.938708e-02 5.682330e-01 -6.607206e-01
<VARIANCE> 25
 6.304491e+00 6.556483e+00 5.269941e+00 1.188404e+01 2.368902e+01 3.181063e+01 2.327903e+01 1.298443e+01 2.415263e+01 5.354823e+01 2.319837e+01 1.710749e+01 3.491855e-01 5.350777e-01 8.888869e-01 7.694848e-01 7.764068e-01 1.849897e+00 1.356274e+00 5.253644e-01 6.846067e-01 1.705927e+00 1.377809e+00 8.878584e-01 1.379667e-01
<GCONST> 7.563237e+01
<STATE> 3
<MEAN> 25
 1.413040e+00 6.392881e+00 3.475624e+00 4.156702e-01 1.853816e+00 4.935334e+00 -7.869608e-01 -2.533161e+00 1.280400e+00 3.248586e-01 -2.204515e+00 -9.693905e-01 -4.176330e-01 2.340645e-02 3.681532e-01 4.248586e-01 4.846074e-01 5.092730e-01 2.147625e-01 -2.816377e-02 1.263508e-01 2.189947e-01 1.691252e-01 1.640163e-01 -2.652768e-01
<VARIANCE> 25
 5.421555e+00 5.490900e+00 4.551753e+00 7.217128e+00 1.206514e+01 1.638690e+01 1.114124e+01 7.282796e+00 1.020325e+01 1.405920e+01 3.918559e+00 2.813885e+01 4.767157e-02 4.186380e-01 4.979491e-01 3.127571e-01 4.824944e-01 5.649164e-01 6.181723e-01 9.994736e-01 1.321219e+00 1.483337e+00 9.212255e-01 9.366443e-01 2.864901e-02
<GCONST> 6.160178e+01
<STATE> 4
<MEAN> 25
 -3.696227e+00 -1.125133e+00 -4.321035e-01 5.052270e-01 3.559317e+00 8.450542e+00 5.206012e+00 4.609892e-01 9.652228e-01 5.042988e+00 5.132931e+00 2.416381e+00 -1.386703e-01 -1.324119e-01 -2.562817e-02 7.849273e-02 -1.868178e-02 4.162379e-02 1.352899e-01 1.503627e-01 6.294956e-02 4.398379e-02 5.703078e-02 9.835839e-02 -5.756143e-02
<VARIANCE> 25
 3.028792e+00 8.058607e+00 6.177120e+00 3.953793e+00 3.346962e+00 4.558167e+00 4.560143e+00 5.712276e+00 1.117901e+01 1.027701e+01 2.210470e+01 5.423702e+00 8.195856e-02 5.259748e-01 3.179932e-01 5.095319e-01 4.216791e-01 3.023914e-01 4.469602e-01 1.090055e+00 1.015272e+00 5.771127e-01 1.167331e+00 6.085935e-01 3.093246e-02
<GCONST> 5.575780e+01
<TRANSP> 5
 0.000000e+00 1.000000e+00 0.000000e+00 0.000000e+00 0.000000e+00
 0.000000e+00 8.520472e-01 1.479528e-01 0.000000e+00 0.000000e+00
 0.000000e+00 0.000000e+00 8.330281e-01 1.669719e-01 0.000000e+00
 0.000000e+00 0.000000e+00 0.000000e+00 8.946259e-01 1.053741e-01
 0.000000e+00 0.000000e+00 0.000000e+00 0.000000e+00 0.000000e+00
<ENDHMM>
~h "en"
<BEGINHMM>
<NUMSTATES> 5
<STATE> 2
<MEAN> 25
 7.103187e+00 -3.908063e+00 -7.383329e+00 -6.269267e+00 -8.177347e+00 -6.781107e+00 1.357995e+00 2.815152e+00 -2.593907e+00 -2.513200e+00 1.566396e+00 1.392388e+00 7.229569e-03 1.731986e-01 2.397169e-02 -3.880310e-02 2.399214e-01 2.440472e-01 -1.424905e-01 -2.656250e-01 -6.510743e-02 -1.084696e-01 -2.322937e-02 1.457116e-01 -1.018020e-01
<VARIANCE> 25
 7.410209e+00 2.350964e+01 3.203173e+01 1.791096e+01 2.983290e+01 4.587600e+01 2.951549e+01 3.677044e+01 4.567804e+01 3.007223e+01 1.876546e+01 2.282759e+01 7.910401e-02 3.793997e-01 4.137493e-01 3.996837e-01 6.029566e-01 7.209208e-01 8.543649e-01 9.462162e-01 8.358768e-01 7.254515e-01 8.111602e-01 7.045146e-01 7.494807e-02
<GCONST> 7.495342e+01
<STATE> 3
<MEAN> 25
 5.842776e+00 -3.410166e+00 -6.356477e+00 -4.032177e+00 -3.556893e+00 -4.771034e+00 -3.443105e+00 -1.511637e+00 -3.207464e+00 -2.613412e+00 7.033350e-01 1.501216e+00 -1.917971e-02 3.797967e-01 -6.356145e-02 4.742023e-01 8.933443e-01 1.606815e-01 -6.360300e-01 -1.195942e+00 -4.254604e-01 -4.560046e-02 -6.371319e-02 1.726005e-01 -3.196676e-01
<VARIANCE> 25
 1.363284e+01 4.035406e+01 3.653717e+01 2.806206e+01 2.516834e+01 5.672402e+01 4.284225e+01 2.926419e+01 4.909684e+01 4.612611e+01 4.452936e+01 2.733470e+01 1.986721e-01 9.547011e-01 1.149322e+00 6.770466e-01 1.837916e+00 2.830732e+00 1.754096e+00 2.255897e+00 8.506041e-01 1.427791e+00 1.170390e+00 1.724573e+00 2.345802e-01
<GCONST> 8.897506e+01
<STATE> 4
<MEAN> 25
 5.025328e+00 -6.047749e-01 -5.306290e+00 -2.812420e+00 -3.046768e-01 -1.477840e+00 -3.709288e+00 -4.504824e+00 -4.911085e+00 -2.650230e+00 5.749673e-01 1.028307e+00 -6.414443e-01 8.945073e-01 8.191310e-01 4.108311e-01 8.784954e-01 1.223102e+00 3.947011e-01 -1.089316e-01 2.858360e-01 3.245573e-02 -3.656652e-01 -3.695462e-01 -7.599423e-01
<VARIANCE> 25
 1.029949e+01 2.224117e+01 3.335294e+01 1.944368e+01 2.614983e+01 4.801807e+01 3.016895e+01 2.034838e+01 4.826472e+01 2.707165e+01 3.262921e+01 1.884185e+01 4.922397e-01 9.991660e-01 1.272050e+00 1.105093e+00 1.752771e+00 3.540725e+00 2.140337e+00 2.158331e+00 2.023645e+00 2.323977e+00 2.378225e+00 1.006238e+00 3.712857e-01
<GCONST> 8.942407e+01
<TRANSP> 5
 0.000000e+00 1.000000e+00 0.000000e+00 0.000000e+00 0.000000e+00
 0.000000e+00 7.715670e-01 2.284330e-01 0.000000e+00 0.000000e+00
 0.000000e+00 0.000000e+00 3.174478e-01 6.825521e-01 0.000000e+00
 0.000000e+00 0.000000e+00 0.000000e+00 6.078386e-01 3.921615e-01
 0.000000e+00 0.000000e+00 0.000000e+00 0.000000e+00 0.000000e+00
<ENDHMM>
~h "er"
<BEGINHMM>
<NUMSTATES> 5
<STATE> 2
<MEAN> 25
 8.534571e-02 1.147034e+00 4.582564e-01 -2.325266e-01 5.856074e-01 1.218683e+00 7.087878e-01 -1.600556e+00 -9.770162e-01 -9.300417e-01 -5.574180e-01 -1.337879e+00 1.286063e+00 -4.025288e-01 -7.606291e-01 -3.477492e-01 -1.173123e+00 -1.748459e+00 -7.787995e-01 -5.610221e-01 -1.566688e+00 -7.394927e-01 2.426500e-01 8.335335e-02 8.977787e-01
<VARIANCE> 25
 2.003572e+01 2.381929e+01 2.536267e+01 3.229859e+01 3.057949e+01 4.439208e+01 4.369823e+01 3.072144e+01 3.835415e+01 2.836492e+01 3.018892e+01 1.968771e+01 1.819158e+00 2.072372e+00 2.041188e+00 2.761473e+00 3.706168e+00 4.517064e+00 4.537898e+00 3.771324e+00 4.182502e+00 2.654669e+00 3.397128e+00 2.127121e+00 8.756912e-01
<GCONST> 9.958468e+01
<STATE> 3
<MEAN> 25
 5.412867e+00 -1.360677e+00 -3.577747e+00 -2.730008e+00 -5.296832e+00 -6.717524e+00 -1.372340e+00 -1.050440e+00 -6.672546e+00 -3.503315e+00 1.953727e+00 1.125952e+00 7.839525e-01 -1.290825e+00 -1.089100e+00 -8.060216e-01 -1.372630e+00 -1.522020e+00 3.594662e-01 7.658360e-01 -7.944745e-01 7.883880e-02 1.236747e+00 7.755288e-01 1.071438e+00
<VARIANCE> 25
 9.982874e+00 2.930402e+01 2.475768e+01 3.649934e+01 4.987652e+01 4.695315e+01 5.633314e+01 4.960726e+01 4.854895e+01 3.768330e+01 3.719789e+01 2.180743e+01 9.412540e-01 2.050737e+00 1.812433e+00 1.888538e+00 2.586101e+00 4.654015e+00 3.555484e+00 2.931067e+00 3.771611e+00 2.860378e+00 2.827772e+00 1.939473e+00 8.573025e-01
<GCONST> 9.898264e+01
<STATE> 4
<MEAN> 25
 6.605598e+00 -3.354020e+00 -6.207945e+00 -6.847098e+00 -9.043684e+00 -7.203219e+00 3.012145e+00 2.429302e+00 -7.061866e+00 -3.677535e+00 2.986230e+00 2.335208e+00 -5.218356e-02 8.956371e-02 -1.174033e-02 9.260277e-03 2.759042e-01 3.124146e-01 -1.394465e-01 -1.891304e-01 1.221537e-01 3.282030e-02 -1.422531e-01 -4.235690e-02 -8.038644e-02
<VARIANCE> 25
 6.007040e+00 2.801525e+01 2.170429e+01 2.345994e+01 3.754409e+01 3.817452e+01 4.708978e+01 3.856872e+01 4.237049e+01 3.210035e+01 3.289552e+01 2.189938e+01 1.576503e-01 9.152808e-01 6.298746e-01 6.955602e-01 1.242215e+00 1.544443e+00 1.936939e+00 1.528217e+00 1.291987e+00 1.487315e+00 1.466208e+00 1.045272e+00 3.162924e-01
<GCONST> 8.477734e+01
<TRANSP> 5
 0.000000e+00 1.000000e+00 0.000000e+00 0.000000e+00 0.000000e+00
 0.000000e+00 4.893039e-01 5.106961e-01 0.000000e+00 0.000000e+00
 0.000000e+00 0.000000e+00 5.342854e-01 4.657145e-01 0.000000e+00
 0.000000e+00 0.000000e+00 0.000000e+00 8.412551e-01 1.587449e-01
 0.000000e+00 0.000000e+00 0.000000e+00 0.000000e+00 0.000000e+00
<ENDHMM>
~h "ey"
<BEGINHMM>
<NUMSTATES> 5
<STATE> 2
<MEAN> 25
 -7.385166e-01 8.207133e-01 1.531265e+00 1.345410e+00 1.721064e+00 1.785811e+00 6.720763e-01 -2.015856e+00 -8.026744e-01 -2.051390e-01 -2.106611e-01 -1.435633e+00 1.020191e+00 -8.792734e-01 -5.503622e-01 8.668151e-01 -6.213074e-02 -1.835428e+00 -1.807755e+00 -1.492866e+00 -1.425385e+00 -5.190177e-01 1.278197e-01 -4.462345e-01 9.231400e-01
<VARIANCE> 25
 1.940355e+01 2.959053e+01 2.494079e+01 3.090218e+01 2.278141e+01 4.028225e+01 3.430748e+01 3.139418e+01 3.985812e+01 3.114427e+01 2.678364e+01 1.909724e+01 1.616491e+00 2.779652e+00 2.102293e+00 2.012084e+00 1.746306e+00 4.343875e+00 5.154669e+00 3.535895e+00 4.228149e+00 3.050611e+00 3.855590e+00 1.949144e+00 1.061080e+00
<GCONST> 9.861953e+01
<STATE> 3
<MEAN> 25
 3.862265e+00 -3.149215e+00 -9.296817e-01 4.930218e+00 1.301412e+00 -7.957761e+00 -9.077723e+00 -6.279083e+00 -5.185056e+00 -1.819558e+00 4.731870e-01 -2.315497e+00 5.377555e-01 -1.277107e+00 -3.669598e-01 7.840836e-01 -3.401817e-01 -2.447427e+00 -1.598455e+00 8.646968e-02 5.828974e-02 2.891670e-01 2.514224e-01 -3.362708e-01 8.909608e-01
<VARIANCE> 25
 1.028544e+01 2.545917e+01 2.228500e+01 3.694614e+01 2.468054e+01 5.833251e+01 5.244246e+01 3.977335e+01 4.336008e+01 3.336912e+01 3.446905e+01 2.297547e+01 8.950063e-01 2.188129e+00 1.556618e+00 2.288440e+00 1.563391e+00 5.040709e+00 4.519018e+00 3.198149e+00 3.271280e+00 3.141122e+00 2.716959e+00 1.976727e+00 8.542635e-01
<GCONST> 9.762583e+01
<STATE> 4
<MEAN> 25
 3.758283e+00 -5.423939e+00 5.934550e-01 8.608956e+00 6.488016e-02 -1.456398e+01 -1.131649e+01 -3.482644e+00 -2.086292e+00 -2.051037e+00 -2.922312e+00 -4.323633e+00 -7.460164e-02 2.180800e-01 2.893029e-02 -1.018590e-01 -4.405761e-03 2.321296e-01 1.944167e-01 1.772462e-01 2.136682e-01 -2.215871e-02 -2.223149e-01 4.868075e-02 -1.729815e-01
<VARIANCE> 25
 5.366060e+00 2.588547e+01 1.794994e+01 2.938678e+01 1.735871e+01 5.034822e+01 3.388480e+01 2.596573e+01 2.868099e+01 3.370773e+01 3.002922e+01 1.700193e+01 1.542030e-01 6.624553e-01 5.782999e-01 7.636488e-01 6.832031e-01 1.741481e+00 1.092568e+00 1.166141e+00 1.159626e+00 1.158586e+00 1.069199e+00 8.696971e-01 2.140847e-01
<GCONST> 7.980972e+01
<TRANSP> 5
 0.000000e+00 1.000000e+00 0.000000e+00 0.000000e+00 0.000000e+00
 0.000000e+00 4.940420e-01 5.059580e-01 0.000000e+00 0.000000e+00
 0.000000e+00 0.000000e+00 5.358497e-01 4.641503e-01 0.000000e+00
 0.000000e+00 0.000000e+00 0.000000e+00 8.380629e-01 1.619371e-01
 0.000000e+00 0.000000e+00 0.000000e+00 0.000000e+00 0.000000e+00
<ENDHMM>
~h "hh"
<BEGINHMM>
<NUMSTATES> 5
<STATE> 2
<MEAN> 25
 9.737048e-01 3.128728e+00 1.356432e+00 1.104991e+00 1.400538e+00 1.696223e+00 -6.474997e-01 -1.675186e+00 -8.185109e-01 -2.035446e+00 -3.002190e+00 -1.531111e+00 -5.219622e-01 1.776858e-01 3.039711e-01 5.222674e-02 2.251138e-01 7.578897e-01 5.751243e-01 4.415608e-01 6.762098e-01 3.788754e-01 -4.397696e-02 3.056739e-02 -4.175654e-01
<VARIANCE> 25
 1.162962e+01 1.156277e+01 1.419284e+01 2.026413e+01 1.793301e+01 2.576766e+01 2.657927e+01 1.944891e+01 3.035876e+01 2.538654e+01 2.505240e+01 1.959110e+01 2.084418e-01 4.071909e-01 4.680813e-01 6.317221e-01 7.094983e-01 1.022382e+00 1.043045e+00 9.321563e-01 1.180142e+00 1.045459e+00 1.062911e+00 9.281600e-01 1.203633e-01
<GCONST> 7.578204e+01
<STATE> 3
<MEAN> 25
 -1.933040e+00 1.231080e+00 1.167841e+00 8.634759e-01 2.147548e+00 4.477682e+00 2.476568e+00 6.262676e-01 2.583589e+00 2.145520e+00 -1.490897e-01 -5.909659e-01 -3.419788e-01 -1.615220e-01 -8.005060e-02 -6.497069e-02 -4.737040e-02 2.961286e-01 4.115817e-01 3.571059e-01 4.576308e-01 4.270896e-01 3.226337e-01 2.654742e-01 -2.218363e-01
<VARIANCE> 25
 1.059697e+01 1.757286e+01 1.997138e+01 2.047113e+01 1.520646e+01 2.169604e+01 2.135501e+01 1.757424e+01 2.527518e+01 2.335223e+01 2.355375e+01 1.785513e+01 2.104043e-01 4.976565e-01 6.381595e-01 7.293810e-01 7.662368e-01 1.061646e+00 1.138339e+00 1.097382e+00 1.276590e+00 1.339396e+00 1.353670e+00 1.052948e+00 1.237089e-01
<GCONST> 7.713160e+01
<STATE> 4
<MEAN> 25
 -4.131563e+00 1.825030e+00 1.725496e+00 2.942573e-01 1.373401e+00 5.132653e+00 2.794597e+00 2.114321e+00 4.700153e+00 2.913864e+00 2.147170e-02 1.731900e+00 -3.069771e-02 -1.930211e-02 3.322529e-04 1.342958e-03 -2.464029e-02 -1.424634e-02 1.879635e-02 2.313768e-02 2.087824e-02 1.820654e-02 1.520376e-02 9.512958e-03 -1.593986e-02
<VARIANCE> 25
 4.211960e+00 8.043591e+00 7.236682e+00 6.816760e+00 6.907409e+00 1.296282e+01 1.003918e+01 8.619791e+00 1.312015e+01 9.321380e+00 8.971790e+00 7.495164e+00 6.202563e-02 1.527932e-01 2.277815e-01 3.232264e-01 3.893124e-01 5.039161e-01 5.533937e-01 6.096143e-01 6.502166e-01 6.269279e-01 6.315183e-01 5.570654e-01 2.662403e-02
<GCONST> 5.578731e+01
<TRANSP> 5
 0.000000e+00 1.000000e+00 0.000000e+00 0.000000e+00 0.000000e+00
 0.000000e+00 6.188030e-01 3.811969e-01 0.000000e+00 0.000000e+00
 0.000000e+00 0.000000e+00 4.660058e-01 5.339942e-01 0.000000e+00
 0.000000e+00 0.000000e+00 0.000000e+00 9.138300e-01 8.616994e-02
 0.000000e+00 0.000000e+00 0.000000e+00 0.000000e+00 0.000000e+00
<ENDHMM>
~h "ih"
<BEGINHMM>
<NUMSTATES> 5
<STATE> 2
<MEAN> 25
 -1.203828e+00 9.361795e-01 1.481224e+00 3.703789e-02 1.209276e+00 1.764909e+00 7.617569e-01 -1.275803e-02 1.032645e+00 2.921688e-01 -3.937401e-01 -6.500977e-01 1.691560e-01 -2.570466e-01 -1.290280e-01 2.561972e-01 1.639784e-02 -3.815953e-01 -3.484477e-01 -4.676929e-01 -3.107194e-01 4.857512e-02 1.367159e-01 -1.623181e-01 1.895591e-01
<VARIANCE> 25
 2.619379e+01 3.516436e+01 2.938358e+01 3.669918e+01 2.685072e+01 4.804499e+01 3.865083e+01 2.598652e+01 3.894311e+01 2.910151e+01 3.155937e+01 1.928525e+01 7.833750e-01 1.193948e+00 1.289525e+00 1.439671e+00 1.282522e+00 2.185200e+00 2.199260e+00 1.910958e+00 2.181017e+00 1.846826e+00 1.924967e+00 1.287394e+00 4.737434e-01
<GCONST> 9.184613e+01
<STATE> 3
<MEAN> 25
 1.190167e+00 -5.882134e-01 -7.098995e-02 1.726357e+00 9.446807e-01 -1.621888e+00 -2.691685e+00 -3.398295e+00 -2.387750e+00 -8.171232e-01 8.813883e-03 -1.243881e+00 1.196394e+00 -1.057636e+00 -6.891439e-01 8.291534e-01 -2.238790e-01 -2.303172e+00 -1.941082e+00 -1.288525e+00 -1.560038e+00 -4.791796e-01 3.839054e-01 -3.725384e-01 1.107246e+00
<VARIANCE> 25
 1.866043e+01 2.797366e+01 2.699089e+01 3.656065e+01 2.583038e+01 5.582642e+01 5.158664e+01 3.618933e+01 5.017268e+01 3.798561e+01 2.986507e+01 2.288181e+01 1.542493e+00 3.121703e+00 2.116608e+00 2.714632e+00 2.132806e+00 5.740953e+00 5.454774e+00 3.690154e+00 4.692945e+00 3.472708e+00 4.174961e+00 2.303523e+00 1.291953e+00
<GCONST> 1.021228e+02
<STATE> 4
<MEAN> 25
 4.025798e+00 -4.554472e+00 -1.065051e+00 5.966262e+00 4.878465e-01 -1.074463e+01 -9.456836e+00 -4.621233e+00 -4.195280e+00 -1.696911e+00 -2.196175e-01 -3.411618e+00 1.138413e-01 -6.117916e-02 -1.237088e-01 -4.818438e-02 -5.976136e-02 -1.812083e-01 -8.165769e-02 3.768933e-02 -2.175122e-02 2.319027e-02 4.828859e-02 -1.527792e-02 7.999804e-02
<VARIANCE> 25
 9.183281e+00 2.824582e+01 2.381838e+01 4.165395e+01 2.298840e+01 6.405809e+01 4.683780e+01 3.310991e+01 4.107357e+01 3.437361e+01 3.890139e+01 2.347034e+01 5.673944e-01 1.649382e+00 1.169162e+00 1.477751e+00 1.305959e+00 3.941407e+00 2.489453e+00 1.932378e+00 2.375903e+00 2.061300e+00 2.137167e+00 1.562612e+00 7.317897e-01
<GCONST> 9.328793e+01
<TRANSP> 5
 0.000000e+00 1.000000e+00 0.000000e+00 0.000000e+00 0.000000e+00
 0.000000e+00 3.262081e-01 6.737919e-01 0.000000e+00 0.000000e+00
 0.000000e+00 0.000000e+00 4.634539e-01 5.365461e-01 0.000000e+00
 0.000000e+00 0.000000e+00 0.000000e+00 6.517180e-01 3.482821e-01
 0.000000e+00 0.000000e+00 0.000000e+00 0.000000e+00 0.000000e+00
<ENDHMM>
~h "iy"
<BEGINHMM>
<NUMSTATES> 5
<STATE> 2
<MEAN> 25
 -1.463972e+00 -1.002940e-01 1.145644e+00 1.230608e+00 1.829061e+00 1.807365e+00 1.245796e+00 -4.631297e-01 9.209986e-01 8.861731e-01 2.563742e-01 -8.831777e-01 5.140479e-01 -2.626865e-01 9.598507e-02 9.085024e-01 2.000096e-01 -9.242503e-01 -1.006186e+00 -8.903240e-01 -9.490728e-01 -6.903946e-01 -4.994103e-01 -6.277347e-01 3.967111e-01
<VARIANCE> 25
 2.218412e+01 3.822279e+01 2.640259e+01 3.677382e+01 2.427128e+01 4.122107e+01 3.640236e+01 2.618887e+01 3.491993e+01 2.695027e+01 2.921224e+01 1.827477e+01 1.305016e+00 2.368387e+00 1.691787e+00 1.786036e+00 1.416003e+00 3.079434e+00 3.588507e+00 2.926363e+00 3.274130e+00 2.792719e+00 3.456982e+00 1.658842e+00 7.442849e-01
<GCONST> 9.618588e+01
<STATE> 3
<MEAN> 25
 2.522608e+00 -1.349396e+00 7.460136e-01 6.168473e+00 2.783421e+00 -5.618164e+00 -6.959383e+00 -4.974239e+00 -4.046701e+00 -3.296226e+00 -2.685606e+00 -3.761814e+00 6.386595e-01 -7.886730e-01 1.410430e-01 1.449446e+00 -7.960948e-02 -2.599575e+00 -1.821099e+00 -2.343825e-02 -5.001559e-01 -8.296624e-01 -5.582074e-01 -6.139371e-01 7.075558e-01
<VARIANCE> 25
 1.027420e+01 2.343889e+01 2.446394e+01 3.936713e+01 2.440132e+01 6.256482e+01 5.045545e+01 3.177604e+01 3.488387e+01 2.806650e+01 2.735991e+01 2.454641e+01 1.153354e+00 2.538915e+00 1.503845e+00 2.617065e+00 1.457208e+00 5.387744e+00 4.702212e+00 3.605141e+00 3.609342e+00 3.042291e+00 2.900865e+00 2.021554e+00 7.602028e-01
<GCONST> 9.763436e+01
<STATE> 4
<MEAN> 25
 2.388379e+00 -2.881956e+00 3.939524e+00 1.105711e+01 1.013295e+00 -1.337141e+01 -9.082085e+00 -9.778656e-01 -3.182744e+00 -6.668632e+00 -6.074914e+00 -4.952418e+00 -8.591523e-02 2.355926e-01 5.398514e-02 -2.041407e-01 -2.621922e-02 3.070775e-01 1.508818e-01 6.763303e-02 1.496066e-01 3.270550e-02 -1.037002e-01 1.170553e-01 -1.541656e-01
<VARIANCE> 25
 4.818123e+00 2.071477e+01 1.562975e+01 3.129420e+01 1.711504e+01 5.020340e+01 2.913131e+01 2.401804e+01 2.704993e+01 2.559662e+01 1.977473e+01 1.801717e+01 1.884405e-01 6.479693e-01 7.090110e-01 8.848956e-01 8.684266e-01 2.186849e+00 1.416327e+00 1.524192e+00 1.283573e+00 1.369971e+00 1.122080e+00 9.990566e-01 2.091596e-01
<GCONST> 8.042117e+01
<TRANSP> 5
 0.000000e+00 1.000000e+00 0.000000e+00 0.000000e+00 0.000000e+00
 0.000000e+00 4.351585e-01 5.648415e-01 0.000000e+00 0.000000e+00
 0.000000e+00 0.000000e+00 5.361431e-01 4.638569e-01 0.000000e+00
 0.000000e+00 0.000000e+00 0.000000e+00 8.418326e-01 1.581673e-01
 0.000000e+00 0.000000e+00 0.000000e+00 0.000000e+00 0.000000e+00
<ENDHMM>
~h "jh"
<BEGINHMM>
<NUMSTATES> 5
<STATE> 2
<MEAN> 25
 3.309348e+00 1.975010e+00 -8.818048e-02 1.834679e+00 2.261391e+00 -7.124780e-01 -5.112878e+00 -5.675941e+00 -3.974140e+00 -2.977358e+00 -2.232892e+00 -1.365660e+00 -5.113009e-01 6.305887e-01 5.997702e-01 1.635430e-01 3.295481e-01 1.079087e+00 7.709391e-01 4.542288e-01 5.419143e-01 1.423229e-01 -3.090040e-01 -2.350653e-02 -5.953812e-01
<VARIANCE> 25
 9.208914e+00 1.874521e+01 1.691776e+01 2.589082e+01 1.638672e+01 3.491050e+01 4.083385e+01 3.611986e+01 3.946254e+01 2.370278e+01 2.592762e+01 1.735371e+01 2.831071e-01 6.385919e-01 4.538909e-01 5.924813e-01 6.001860e-01 1.522807e+00 1.818170e+00 1.419797e+00 1.515785e+00 1.153461e+00 1.036145e+00 1.003237e+00 2.632225e-01
<GCONST> 8.087329e+01
<STATE> 3
<MEAN> 25
 3.758044e-01 2.712042e+00 2.028761e+00 6.375768e-01 2.306231e+00 3.060601e+00 -4.266210e-01 -1.620075e+00 -1.033862e+00 -1.557241e+00 -1.777494e+00 -1.280827e+00 -9.008742e-01 -3.426455e-01 1.003549e+00 -8.982430e-02 -2.958304e-01 6.021206e-01 1.129320e+00 5.699759e-01 4.230186e-01 5.764484e-01 7.478905e-01 -2.189788e-01 -1.308892e-01
<VARIANCE> 25
 1.194895e+01 1.797964e+01 2.070793e+01 3.259414e+01 1.756843e+01 3.085338e+01 3.152137e+01 2.553844e+01 3.217916e+01 2.838475e+01 2.242729e+01 1.843972e+01 1.005009e+00 1.202827e+00 1.922231e+00 1.737453e+00 1.779320e+00 1.993568e+00 2.857413e+00 2.739259e+00 2.675052e+00 1.664381e+00 1.807011e+00 1.186915e+00 3.176898e-01
<GCONST> 8.948873e+01
<STATE> 4
<MEAN> 25
 -3.182574e+00 -2.962752e+00 7.244637e+00 2.905715e+00 -1.688144e+00 2.542177e+00 3.895979e+00 -1.417831e+00 -1.675075e+00 8.280024e-01 3.482145e+00 -3.153662e+00 -2.687965e-01 -7.271419e-01 2.767839e-01 1.709395e-01 -3.159278e-01 -2.117590e-01 1.114877e-01 -2.645413e-01 -1.810418e-01 2.452032e-01 5.173126e-01 -1.303328e-01 2.615135e-01
<VARIANCE> 25
 1.822200e+01 3.403205e+01 3.873081e+01 4.165736e+01 2.738797e+01 3.586966e+01 4.584708e+01 3.760938e+01 2.841955e+01 2.576143e+01 3.159604e+01 2.068902e+01 1.847466e+00 2.775628e+00 3.859588e+00 1.870026e+00 2.477907e+00 2.286249e+00 4.495302e+00 3.313096e+00 2.526913e+00 2.057134e+00 3.221236e+00 2.092183e+00 6.375231e-01
<GCONST> 9.833669e+01
<TRANSP> 5
 0.000000e+00 1.000000e+00 0.000000e+00 0.000000e+00 0.000000e+00
 0.000000e+00 6.688225e-01 3.311775e-01 0.000000e+00 0.000000e+00
 0.000000e+00 0.000000e+00 4.060019e-01 5.939981e-01 0.000000e+00
 0.000000e+00 0.000000e+00 0.000000e+00 6.220832e-01 3.779168e-01
 0.000000e+00 0.000000e+00 0.000000e+00 0.000000e+00 0.000000e+00
<ENDHMM>
~h "ng"
<BEGINHMM>
<NUMSTATES> 5
<STATE> 2
<MEAN> 25
 2.941797e+00 -1.356052e+00 -8.175421e-01 1.681479e+00 3.346697e-01 -4.794156e+00 -4.784364e+00 -4.475946e+00 -4.173655e+00 -1.664749e+00 1.943308e-01 -1.454875e+00 6.348256e-01 -5.557647e-01 -4.551281e-01 3.203608e-01 -2.362516e-01 -1.377152e+00 -9.701600e-01 -2.276833e-01 -4.582566e-01 -8.474503e-02 1.947379e-01 6.655442e-02 5.520997e-01
<VARIANCE> 25
 1.687457e+01 2.867495e+01 3.143776e+01 4.238632e+01 3.406874e+01 6.164528e+01 5.741442e+01 3.890329e+01 4.679910e+01 3.581286e+01 3.251515e+01 2.228421e+01 1.359223e+00 2.662675e+00 2.167666e+00 2.396083e+00 2.059127e+00 4.997911e+00 4.329858e+00 2.975842e+00 3.924984e+00 3.388067e+00 3.325131e+00 2.229050e+00 9.238142e-01
<GCONST> 1.010271e+02
<STATE> 3
<MEAN> 25
 5.041792e+00 -4.578229e+00 -3.693419e+00 6.427187e-01 -2.161264e+00 -8.516292e+00 -5.103347e+00 -3.194028e+00 -6.187708e+00 -1.031941e+00 3.075657e+00 -2.992766e-01 1.051096e-01 -7.873557e-01 -3.463511e-01 1.754103e-01 -1.042100e-01 -6.812122e-01 -6.022084e-02 3.723834e-01 3.433011e-01 6.007237e-01 3.626225e-01 -1.766457e-01 3.970417e-01
<VARIANCE> 25
 1.079436e+01 3.596015e+01 2.810545e+01 4.368225e+01 4.052406e+01 6.394964e+01 6.920584e+01 3.830967e+01 5.296588e+01 4.107805e+01 3.930080e+01 2.769370e+01 4.558871e-01 1.830559e+00 1.654996e+00 2.473969e+00 1.895863e+00 4.449396e+00 3.129164e+00 2.683552e+00 2.780658e+00 2.673703e+00 2.620565e+00 2.202962e+00 6.377470e-01
<GCONST> 9.824024e+01
<STATE> 4
<MEAN> 25
 4.174539e+00 -4.790115e+00 -1.201215e+00 6.234789e+00 -4.093236e-01 -1.286919e+01 -8.931909e+00 -2.585510e+00 -2.012379e+00 -1.356825e+00 -2.415480e+00 -4.434287e+00 -1.482267e-01 6.070254e-01 2.412978e-01 -1.637114e-01 8.402932e-02 6.436791e-01 2.842429e-01 2.455324e-01 2.647535e-01 -3.701879e-01 -6.470898e-01 3.306600e-02 -3.879806e-01
<VARIANCE> 25
 6.443373e+00 2.849147e+01 2.082657e+01 3.918065e+01 1.868226e+01 6.283375e+01 3.853210e+01 2.778607e+01 3.418230e+01 3.413432e+01 4.336652e+01 2.156450e+01 1.734317e-01 8.335901e-01 6.070271e-01 1.120698e+00 7.902290e-01 2.202944e+00 1.194788e+00 1.318507e+00 1.357620e+00 1.317639e+00 1.331912e+00 9.714044e-01 2.264534e-01
<GCONST> 8.385439e+01
<TRANSP> 5
 0.000000e+00 1.000000e+00 0.000000e+00 0.000000e+00 0.000000e+00
 0.000000e+00 1.764469e-01 8.235530e-01 0.000000e+00 0.000000e+00
 0.000000e+00 0.000000e+00 4.419172e-01 5.580829e-01 0.000000e+00
 0.000000e+00 0.000000e+00 0.000000e+00 7.894112e-01 2.105888e-01
 0.000000e+00 0.000000e+00 0.000000e+00 0.000000e+00 0.000000e+00
<ENDHMM>
~h "ow"
<BEGINHMM>
<NUMSTATES> 5
<STATE> 2
<MEAN> 25
 1.843647e+00 7.446860e-01 5.925878e-01 1.602187e+00 5.714064e-01 -2.314887e+00 -2.655807e+00 -1.903099e+00 -2.158462e+00 -2.503996e+00 -1.652228e+00 -1.214751e+00 -2.473542e-01 4.665215e-01 3.414193e-01 -5.859538e-02 5.984923e-02 4.911789e-01 2.927348e-01 2.809345e-01 4.375084e-01 1.231198e-01 -2.800269e-01 -1.697205e-02 -3.452930e-01
<VARIANCE> 25
 1.849890e+01 2.546217e+01 2.274823e+01 4.350420e+01 3.236589e+01 6.498410e+01 4.493330e+01 2.761723e+01 4.018681e+01 3.278880e+01 3.248499e+01 2.281038e+01 5.959839e-01 7.968853e-01 8.876334e-01 1.187143e+00 1.513019e+00 2.838521e+00 1.802555e+00 1.753296e+00 2.078613e+00 1.620615e+00 1.542848e+00 1.154458e+00 4.062344e-01
<GCONST> 9.037247e+01
<STATE> 3
<MEAN> 25
 2.091577e+00 3.757205e+00 1.791756e+00 -1.233868e+00 -3.085659e+00 -2.772381e+00 -1.131602e+00 -3.205698e-01 -1.273605e+00 -2.568697e+00 -3.042861e+00 -2.384127e+00 -3.152739e-01 1.415908e-01 1.923082e-01 2.588672e-02 1.201918e-01 4.735484e-01 3.129748e-01 2.417594e-01 4.779805e-01 3.573363e-01 6.502834e-02 5.436061e-02 -2.684089e-01
<VARIANCE> 25
 1.657966e+01 2.091368e+01 1.764813e+01 3.610531e+01 5.681077e+01 5.982858e+01 2.887016e+01 2.229519e+01 3.038007e+01 2.532615e+01 2.535238e+01 2.015181e+01 2.696152e-01 3.804446e-01 4.693018e-01 6.667296e-01 1.004313e+00 1.230142e+00 9.513853e-01 1.097313e+00 1.260626e+00 1.035826e+00 9.912220e-01 9.046137e-01 1.431421e-01
<GCONST> 8.076199e+01
<STATE> 4
<MEAN> 25
 -2.738107e+00 2.219157e+00 2.090454e+00 7.431709e-01 1.670670e+00 4.364894e+00 1.910223e+00 1.191353e+00 3.193629e+00 1.461520e+00 -8.369628e-01 5.904794e-01 -1.296055e-01 -2.932397e-02 9.298251e-03 -1.655279e-02 -6.053973e-03 9.123311e-02 8.912283e-02 6.735218e-02 1.143562e-01 1.284662e-01 9.248659e-02 5.604892e-02 -8.814711e-02
<VARIANCE> 25
 1.264594e+01 1.342319e+01 1.071636e+01 1.374126e+01 1.471541e+01 2.592137e+01 1.854504e+01 1.453749e+01 2.370112e+01 1.692694e+01 1.535535e+01 1.282196e+01 1.516394e-01 2.497986e-01 3.488240e-01 4.572233e-01 5.750920e-01 6.783444e-01 7.114986e-01 7.483049e-01 8.381034e-01 7.950693e-01 8.105042e-01 6.984860e-01 6.465119e-02
<GCONST> 6.849696e+01
<TRANSP> 5
 0.000000e+00 1.000000e+00 0.000000e+00 0.000000e+00 0.000000e+00
 0.000000e+00 3.504632e-01 6.495368e-01 0.000000e+00 0.000000e+00
 0.000000e+00 0.000000e+00 4.933783e-01 5.066218e-01 0.000000e+00
 0.000000e+00 0.000000e+00 0.000000e+00 7.429238e-01 2.570762e-01
 0.000000e+00 0.000000e+00 0.000000e+00 0.000000e+00 0.000000e+00
<ENDHMM>
~h "oy"
<BEGINHMM>
<NUMSTATES> 5
<STATE> 2
<MEAN> 25
 -2.358487e-01 1.978444e+00 1.663684e+00 6.800013e-01 1.314472e+00 2.845395e+00 3.260181e-01 -1.695053e+00 -1.354845e-01 -8.671041e-01 -1.599356e+00 -9.089193e-01 1.423461e+00 -6.634467e-01 -1.271897e+00 -6.747605e-01 -1.234803e+00 -1.906682e+00 -7.765776e-01 -5.180529e-01 -1.738852e+00 -1.003467e+00 1.263519e-01 -6.736019e-03 1.149892e+00
<VARIANCE> 25
 1.962564e+01 3.497408e+01 3.572870e+01 3.154449e+01 3.001521e+01 3.377182e+01 2.681857e+01 2.659511e+01 4.080497e+01 2.844811e+01 2.832300e+01 1.743851e+01 1.731625e+00 2.586414e+00 2.650277e+00 2.714792e+00 4.294512e+00 5.507811e+00 4.208884e+00 3.556411e+00 4.847259e+00 3.705515e+00 3.635362e+00 2.038407e+00 1.108973e+00
<GCONST> 1.005928e+02
<STATE> 3
<MEAN> 25
 6.218203e+00 -3.104312e-01 -3.509791e+00 -4.070251e+00 -8.897166e+00 -9.778832e+00 -6.065344e-01 2.351737e+00 -4.736730e+00 -5.037033e+00 2.153811e-01 1.040111e+00 7.396486e-01 -1.180899e+00 -9.415260e-01 -1.014767e+00 -1.574797e+00 -1.380157e+00 3.439544e-01 1.217524e+00 -9.388582e-02 1.803366e-01 6.956789e-01 5.344467e-01 1.057292e+00
<VARIANCE> 25
 7.959675e+00 3.305253e+01 2.539304e+01 4.058313e+01 6.110221e+01 5.492553e+01 4.852350e+01 6.248917e+01 4.238157e+01 3.761299e+01 2.430703e+01 2.299324e+01 1.035984e+00 1.831136e+00 1.925370e+00 2.094530e+00 3.373546e+00 9.014521e+00 4.199625e+00 3.566356e+00 3.002665e+00 3.394024e+00 2.076571e+00 1.751488e+00 7.008602e-01
<GCONST> 9.970618e+01
<STATE> 4
<MEAN> 25
 7.070817e+00 -7.202761e+00 -7.745764e+00 -6.215318e+00 -9.480526e+00 -8.409348e+00 4.127359e-02 3.052274e+00 -2.682676e+00 -7.542815e-01 2.104750e+00 1.929721e+00 -5.317330e-02 -1.634758e-01 6.231028e-03 5.527206e-01 6.593183e-01 -3.192512e-02 -6.145315e-01 -6.338275e-01 3.238039e-02 2.582132e-01 -3.316429e-02 -3.374742e-01 -3.232665e-02
<VARIANCE> 25
 6.333694e+00 2.264935e+01 2.351908e+01 4.408672e+01 4.530384e+01 4.496224e+01 6.071547e+01 5.125145e+01 3.818121e+01 4.061881e+01 2.821522e+01 2.943737e+01 2.011591e-01 1.165688e+00 9.534710e-01 1.331607e+00 1.320143e+00 2.553062e+00 2.619854e+00 1.938295e+00 1.657738e+00 2.180741e+00 2.060625e+00 1.406035e+00 3.955097e-01
<GCONST> 9.063744e+01
<TRANSP> 5
 0.000000e+00 1.000000e+00 0.000000e+00 0.000000e+00 0.000000e+00
 0.000000e+00 5.531138e-01 4.468862e-01 0.000000e+00 0.000000e+00
 0.000000e+00 0.000000e+00 6.533206e-01 3.466794e-01 0.000000e+00
 0.000000e+00 0.000000e+00 0.000000e+00 8.590639e-01 1.409362e-01
 0.000000e+00 0.000000e+00 0.000000e+00 0.000000e+00 0.000000e+00
<ENDHMM>
~h "sh"
<BEGINHMM>
<NUMSTATES> 5
<STATE> 2
<MEAN> 25
 1.201860e+00 2.480140e-01 5.841549e-01 1.551747e+00 1.102243e+00 -4.244747e-01 -1.946255e+00 -3.011639e+00 -2.562411e+00 -1.681827e+00 -1.161022e+00 -1.932088e+00 -1.060427e+00 -6.024481e-01 1.058587e+00 4.315806e-01 -1.811936e-01 6.630879e-01 1.377579e+00 7.891097e-01 6.642202e-01 6.738735e-01 6.365112e-01 -2.391974e-01 -1.676228e-01
<VARIANCE> 25
 1.705828e+01 2.315789e+01 2.454203e+01 3.639116e+01 2.265361e+01 4.927024e+01 4.008907e+01 3.055203e+01 4.103429e+01 2.823933e+01 2.935815e+01 2.410196e+01 1.065389e+00 2.045320e+00 1.810433e+00 1.964527e+00 1.707214e+00 2.264714e+00 3.028970e+00 2.108734e+00 2.452469e+00 1.723849e+00 2.345880e+00 1.367484e+00 3.812482e-01
<GCONST> 9.336311e+01
<STATE> 3
<MEAN> 25
 -2.701163e+00 -4.405735e+00 3.329315e+00 3.821462e+00 -3.039182e-01 1.008558e-01 2.425021e+00 3.913646e-01 -2.686396e-01 1.690670e+00 3.505063e+00 -1.304070e+00 -9.520132e-01 -1.593794e+00 1.049483e+00 9.170858e-01 -2.814484e-01 -2.500204e-01 7.275230e-01 5.580997e-01 2.649772e-01 2.262140e-01 9.731771e-01 3.347426e-02 3.752787e-01
<VARIANCE> 25
 1.817139e+01 4.598685e+01 2.948070e+01 4.731052e+01 2.786239e+01 4.008030e+01 3.634031e+01 2.829601e+01 3.141821e+01 2.538968e+01 3.416456e+01 2.317685e+01 9.308702e-01 2.662406e+00 1.507414e+00 1.833123e+00 1.344738e+00 1.922682e+00 1.740177e+00 1.738743e+00 1.933276e+00 1.601131e+00 2.152891e+00 1.271433e+00 4.486843e-01
<GCONST> 9.254201e+01
<STATE> 4
<MEAN> 25
 -6.820789e+00 -1.179205e+01 7.868750e+00 9.027052e+00 -3.812584e-01 -7.634636e-01 4.546361e+00 1.422316e+00 1.484750e+00 1.686765e+00 6.567676e+00 -1.806656e+00 -2.030008e-01 -2.024194e-01 6.366195e-02 9.006645e-02 1.860465e-01 1.638535e-01 3.234276e-02 7.020384e-03 2.684706e-01 1.885115e-01 3.671725e-02 3.039530e-02 -1.742449e-02
<VARIANCE> 25
 1.768535e+01 4.676488e+01 2.863837e+01 3.787946e+01 2.307354e+01 2.321647e+01 2.841830e+01 2.778820e+01 2.527022e+01 2.066779e+01 3.156693e+01 1.927104e+01 4.145916e-01 7.547148e-01 7.981408e-01 8.007773e-01 8.391978e-01 7.596082e-01 1.138579e+00 1.227262e+00 1.236770e+00 1.142732e+00 1.209005e+00 9.250594e-01 1.933177e-01
<GCONST> 8.236726e+01
<TRANSP> 5
 0.000000e+00 1.000000e+00 0.000000e+00 0.000000e+00 0.000000e+00
 0.000000e+00 3.813961e-01 6.186039e-01 0.000000e+00 0.000000e+00
 0.000000e+00 0.000000e+00 4.728280e-01 5.271720e-01 0.000000e+00
 0.000000e+00 0.000000e+00 0.000000e+00 7.407550e-01 2.592450e-01
 0.000000e+00 0.000000e+00 0.000000e+00 0.000000e+00 0.000000e+00
<ENDHMM>
~h "sp"
<BEGINHMM>
<NUMSTATES> 3
<STATE> 2
~s "silst"
<TRANSP> 3
 0.000000e+00 1.871954e-01 8.128046e-01
 0.000000e+00 8.186625e-01 1.813375e-01
 0.000000e+00 0.000000e+00 0.000000e+00
<ENDHMM>
~h "th"
<BEGINHMM>
<NUMSTATES> 5
<STATE> 2
<MEAN> 25
 -3.751125e+00 1.805067e+00 1.774494e+00 3.268258e-01 1.420600e+00 5.178585e+00 2.741955e+00 1.500353e+00 3.656197e+00 2.554018e+00 1.585701e-01 1.578842e+00 -8.356167e-02 3.716296e-03 1.590522e-02 -1.694986e-02 -2.372519e-02 3.862480e-02 5.441166e-02 7.050991e-02 8.293595e-02 3.359566e-02 1.419264e-02 5.767045e-02 -6.236811e-02
<VARIANCE> 25
 4.779736e+00 6.678454e+00 6.134017e+00 6.747271e+00 7.104455e+00 1.502451e+01 1.163933e+01 9.093962e+00 1.492763e+01 9.642038e+00 9.176923e+00 7.656582e+00 8.100420e-02 1.343530e-01 2.319094e-01 2.979395e-01 3.803545e-01 4.690533e-01 5.562764e-01 6.488267e-01 6.868992e-01 6.398253e-01 6.576359e-01 5.479277e-01 3.125117e-02
<GCONST> 5.644308e+01
<STATE> 3
<MEAN> 25
 -3.170089e+00 2.334059e+00 2.390407e+00 -9.867217e-01 1.486646e+00 4.501181e+00 2.144740e+00 1.192433e+00 2.691491e+00 1.445718e+00 4.159400e-01 7.793479e-01 -1.832458e-01 -5.938657e-02 1.617257e-01 -2.542838e-02 1.739662e-01 4.496371e-02 7.290526e-02 -2.370364e-02 -5.776886e-02 1.050769e-01 1.208887e-01 -2.145421e-01 3.347577e-02
<VARIANCE> 25
 1.399090e+01 1.195509e+01 1.474488e+01 2.422573e+01 1.514398e+01 2.667280e+01 2.035317e+01 1.765566e+01 2.833477e+01 2.228781e+01 1.994786e+01 1.819791e+01 2.858127e-01 4.573277e-01 7.564085e-01 8.141460e-01 6.688112e-01 9.537656e-01 9.366974e-01 1.094789e+00 1.276732e+00 1.282628e+00 1.176515e+00 1.017343e+00 1.496615e-01
<GCONST> 7.700249e+01
<STATE> 4
<MEAN> 25
 -2.665551e+00 2.251147e+00 1.977485e+00 2.419548e-01 1.397106e+00 3.775145e+00 1.983052e+00 -2.805891e-01 1.921045e+00 1.829047e+00 3.888035e-01 -1.790134e-01 3.239931e-01 -5.516005e-01 -2.625919e-01 -4.164730e-02 -1.938794e-01 -6.130518e-01 -1.409504e-01 -8.869087e-01 -7.643932e-01 7.219864e-02 4.625008e-01 -7.252281e-01 6.515402e-01
<VARIANCE> 25
 1.301624e+01 1.387667e+01 1.502757e+01 1.770530e+01 1.447631e+01 2.930760e+01 2.072254e+01 1.888758e+01 2.905994e+01 2.375916e+01 2.124609e+01 1.479678e+01 7.717544e-01 1.654658e+00 2.054873e+00 1.450460e+00 1.483644e+00 1.603564e+00 2.286747e+00 2.404852e+00 2.025250e+00 2.223201e+00 2.413431e+00 1.928441e+00 4.699302e-01
<GCONST> 8.723028e+01
<TRANSP> 5
 0.000000e+00 1.000000e+00 0.000000e+00 0.000000e+00 0.000000e+00
